0.01917658
-0.15542907
0.1809725
0.04727158
-0.03252165
-0.02421029
0.11169562
-0.07186266
0.008126539
0.106559694
-0.07135836
-0.06513645
-0.06315246
-0.076538354
0.0062439656
-0.026862642
-0.14422292
0.20944825
0.21429415
-0.048543025
-0.053852685
-0.0631813
0.029334536
-0.026040094
0.020587105
-0.014905888
0.019679315
-0.02211617
0.038567178
0.03586763
0.058863495
-0.26155266
0.050182305
0.023518309
-0.1043191
-0.1957912
-0.15567683
0.0038056395
-0.255632
0.14863321
-0.16771743
0.08135693
0.1462724
0.23750028
-0.24481726
-0.16111448
0.14147723
0.09051269
-0.088262506
0.014151544
0.014768934
0.082211144
0.16314648
-0.055766545
-0.010973936
0.15386035
0.038873106
-0.07920855
0.17813078
-0.16165105
-0.057798818
-0.02640415
0.14856891
-0.063161395
-0.1747511
-0.18412067
0.17019887
-0.062932655
-0.060421478
-0.1572851
-0.26426622
0.15862773
-0.08201672
0.11863965
-0.19315638
0.28999072
0.024602123
-0.12422287
-0.064949326
0.11492566
-0.004272804
0.019366661
-0.17598324
-0.20286828
0.061607238
0.08966864
-0.017299071
0.064206764
0.098979555
-0.018460263
0.0672223
0.021125562
-0.23623222
0.16471961
-0.03570942
0.017616589
0.026854634
0.005958557
0.2954459
-0.04948208
0.04573398
-0.011510539
0.15943594
0.32489887
-0.10522883
-0.058885653
-0.098740585
-0.056065824
0.300414
0.12814653
-0.15913947
-0.23963758
-0.032049675
0.059112422
0.3297242
0.27171442
0.28458527
0.007991466
0.10214046
-0.016689166
-0.15328062
-0.09089082
-0.12486375
0.062644266
-0.0010030549
-0.11648761
0.091392614
0.031162653
-0.044705763
-0.043041624
0.04824854
0.13167122
0.043769363
0.07918117
0.054985557
-0.1167803
0.092391744
0.04887836
-0.1987314
-0.19910963
0.068650104
0.18816727
0.12200776
0.0053555877
-0.12661704
-0.06855342
0.0964772
-0.1508344
0.18080124
0.01055179
-0.004860329
-0.022632798
0.023729445
-0.23916383
0.035843242
-0.26564318
0.28599057
-4.9390737e-06
0.04979832
0.14965537
0.033985272
-0.14756463
0.014902566
-0.13333343
0.05563445
-0.021439536
0.073470086
0.05674844
0.066555426
0.11221322
-0.015751796
0.16134687
0.078243114
0.2601271
-0.097962506
-0.014376386
-0.18211253
0.06557877
0.10276319
0.14906874
-0.170343
-0.10912575
-0.09523791
0.058289416
-0.0183386
0.23856129
0.13161859
-0.22670183
-0.06436884
-0.08135129
0.1619257
-0.11282504
-0.03190577
0.05605174
-0.14725477
0.009255245
-0.1045404
0.226432
0.023207122
0.11926892
-0.106931835
0.038936164
-0.023961693
-0.22687972
-0.1055049
-0.123299375
0.06693228
0.16145508
0.045150742
0.13241422
0.051841713
-0.057820402
0.0075972513
0.083103314
-0.032501906
0.30433628
-0.070833236
0.006939181
-0.064276166
-0.07302454
-0.040434234
0.31391117
0.015716612
-0.10793211
0.04566819
0.20047322
-0.09235863
-0.16830167
0.0712988
0.116054386
-0.11670195
-0.017948927
-0.043934006
-0.26730072
-0.0067500235
0.077139966
0.023470424
0.10825715
0.044834748
-0.087196864
0.06928217
0.20259513
-0.17256443
-0.080669515
0.054487
0.036815766
-0.120858476
0.019823026
-0.18593259
-0.16826054
0.039346494
-0.03475055
-0.01780489
-0.019016806
0.19017741
0.107562274
-0.055746663
0.07602089
-0.16882546
0.009161425
0.15015398
-0.14372951
0.09293865
0.13712922
-0.056551576
-0.1845755
-0.019735761
-0.052268133
-0.16673663
-0.22351867
-0.123333946
0.02435088
-0.060113106
-0.036566358
0.1282176
-0.13935767
0.12959112
0.060113516
-0.14455344
0.0701051
-0.016043851
0.123935945
0.097250305
0.06640561
-0.16209857
-0.22592533
-0.09079992
-0.05539608
-0.011917245
-0.091106
0.02229149
-0.06528936
-0.18277968
0.003336031
0.10551694
-0.20059757
-0.098045334
0.12347466
-0.0024744289
-0.10194869
-0.13725139
-0.032138065
-0.16597416
0.02039374
-0.05067127
-0.12559485
-0.09072954
0.17183644
-0.012823615
-0.05633111
-0.0567094
0.06734948
-0.11347152
-0.19200562
-0.16486499
0.07085616
0.21141519
-0.178158
0.09608687
-0.13913685
0.26287302
0.0013265805
0.039005034
0.01559983
-0.09939249
0.069816165
0.16951245
-0.007970848
-0.10796828
-0.044376556
0.04333824
0.061145008
0.18956836
-0.12795508
-0.17699873
0.054759912
-0.08894473
0.09550638
0.10060167
0.03999763
0.1070856
-0.1073188
0.039206795
0.016912872
-0.12457744
-0.12731649
-0.109561
-0.09407791
-0.13117784
0.093158185
-0.042164546
0.024071742
-0.14175457
-0.022811824
-0.13901946
-0.18001914
0.074213475
-0.13639487
0.058145266
0.1191629
0.018309638
-0.14088206
0.049238868
-0.07051115
0.1633586
0.18520267
-0.040374108
-0.17691255
-0.14296314
-0.40623343
-0.06319467
-0.009402447
0.25020128
0.17529264
-0.06526595
0.026711304
-0.00094779587
-0.08799367
0.03809696
-0.07955558
-0.07145381
0.13831116
0.08741217
-0.05115495
0.021732094
-0.027090656
-0.09486369
-0.07299894
0.0009874271
-0.0052358746
0.09078752
0.046438575
0.16795732
-0.12269039
-0.18771058
-0.22746769
-0.032814875
-0.06394632
0.119251534
0.2260532
-0.12035669
-0.14208251
0.079561
0.26257145
0.15204976
0.095787294
-0.30818385
0.13734819
0.083266884
0.08886256
-0.07522861
-0.101586126
-0.2231104
0.12704888
-0.04491502
-0.04889372
0.08141575
-0.15532565
-0.04922002
0.14586534
0.058753707
-0.124568425
-0.051993184
-0.16284674
-0.008815788
-0.25016937
-0.004133584
-0.24348424
-0.06527856
0.09301977
-0.08031292
-0.006119297
0.15598398
-0.03191801
-0.21042393
0.20242643
-0.074910425
-0.018993273
0.15376274
0.21332774
0.12759908
-0.0597279
0.0038293004
0.010758168
-0.24133635
0.27167135
0.21215875
0.2197994
0.34208182
-0.040092833
0.008885896
0.030975489
0.07075603
-0.22430298
0.17375769
-0.004842445
0.062384825
0.14887053
0.049200434
0.17085592
-0.28234512
0.030383458
0.0802541
0.17988473
-0.11331748
0.011441677
0.04195812
0.074816376
-0.060361303
0.16450407
-0.10077093
0.00828343
0.06900686
-0.0145459175
0.12407594
-0.13231435
-0.031266555
0.122717075
-0.1355243
-0.035843577
0.080278285
-0.07394608
-0.05865349
-0.039845765
0.085387774
-0.1514458
0.19056773
0.084810205
-0.16836523
-0.15707666
0.033404034
-0.09338451
-0.07515704
0.15015386
-0.22623825
0.104362704
0.069935806
-0.16137992
-0.04390654
-0.0404358
0.13510925
-0.01291607
0.02554707
-0.297767
-0.18467872
-0.19988091
0.090303764
-0.034078162
-0.03887692
-0.08867656
0.080004424
-0.16229555
0.194052
0.008774157
-0.040955234
0.03436398
0.050255813
0.016011197
0.056750435
-0.20460057
0.016134793
-0.22530524
-0.0067832037
0.03379882
0.053607937
0.2222822
-0.16594337
-0.23860648
-0.03496092
-0.05589994
-0.043460716
0.15330574
0.27266246
-0.017707542
0.014135022
-0.23722605
0.10261846
-0.088658534
0.075474165
0.13647802
-0.15670806
-0.18150479
0.0022082082
-0.13965216
-0.030557
-0.16667038
-0.018061047
-0.050881363
-0.057855077
-0.041475706
-0.022406746
0.009102723
-0.26976013
0.026888695
0.11396456
0.029924862
0.013430539
-0.20559245
-0.093509704
-0.110307835
0.121294424
-0.14724143
0.16768518
0.05575834
-0.07025634
-0.30663073
-0.028546121
0.2451896
0.021443933
-0.038889084
-0.352012
0.18099779
0.0029774692
-0.018144839
-0.004915038
0.08327169
0.10586534
-0.088297315
-0.050808184
-0.08919548
0.030476555
-0.02586397
-0.17166989
-0.032306325
0.06762663
-0.31649622
1.5622123e-05
0.16305119
0.10570698
-0.0035956192
0.16714124
0.04287293
-0.041281678
-0.02376669
-0.064712554
-0.040695813
-0.2509459
0.018284567
-0.03088336
-0.022473807
0.03858232
0.0769008
0.049770687
0.11873311
-0.008013045
-0.027749857
-0.19394223
0.140984
-0.075516336
0.056426182
-0.0027726395
0.016044414
-0.20069392
-0.21042243
0.0048571574
-0.267222
0.16475835
-0.1632779
0.11613186
-0.17421308
-0.09973686
0.03714254
0.20627545
0.2429149
-0.20598963
-0.18618563
0.08016352
-0.029428005
-0.19625594
-0.2357184
0.019665632
0.0524051
0.10501638
0.0113209095
0.17585145
-0.050466552
0.01124333
0.020617621
0.11410129
0.11530312
-0.12242325
0.010585466
-0.02098767
0.0338785
-0.046351895
0.09168654
0.093623064
0.028773364
0.056855492
-0.25879437
-0.06989704
-0.08854556
-0.1994085
-0.1625169
0.023092657
-0.07959378
-0.05917381
0.028799172
0.0687429
-0.026510848
-0.27673325
0.15351072
-0.08742558
-0.124999195
0.17646052
-0.09423714
-0.14504701
-0.043052178
0.3980983
0.13628718
0.12209634
-0.111079216
-0.16042726
0.0074634594
-0.023276433
0.048980948
-0.10002924
0.107834674
-0.06840837
-0.0903131
0.16799684
0.09397245
0.0043196245
-0.116602354
-0.15196055
0.12365106
0.11713478
0.0060290163
-0.05388929
-0.042495415
0.15002102
-0.18937832
-0.19372042
-0.23698592
0.0861854
0.032353405
-0.1602552
-0.10571872
0.099666566
0.08369102
-0.06942326
-0.13476777
-0.19299896
-0.0034695992
0.027682062
0.137563
-0.31450453
0.1192086
0.020499457
0.04316709
0.16518249
0.27939704
0.13443066
-0.074619174
-0.01665897
0.020035425
0.054769147
-0.27649125
-0.031523123
0.16327131
0.22248779
0.16529389
-0.09535004
-0.0174537
-0.21454215
-0.035957206
-0.08673921
0.16058894
0.1306879
0.12996975
-0.1566373
0.113512605
0.116968885
-0.12842962
0.20332618
0.051212113
0.0023567383
-0.13557424
-0.03567865
-0.15127182
0.101374544
-0.13664107
-0.12658809
0.17705135
0.09945052
-0.08082198
0.18416308
-0.08551065
0.0023590312
0.0027671962
-0.10390975
-0.02372173
0.07641212
-0.03414451
-0.07710287
0.39828423
-0.059076
-0.09074485
0.1639446
0.04725943
-0.13531877
-0.06639753
-0.15427314
-0.061625417
-0.015614235
-0.025519017
0.036590617
0.054495733
-0.3035568
-0.011984793
0.02334736
-0.0101068
0.074478544
-0.1603769
-0.0548069
-0.096460596
0.012657771
0.105678946
0.20556197
-0.23569135
0.017152224
-0.047845
0.049688514
-0.10980947
0.079632886
-0.09732623
-0.023145905
-0.1527182
-0.09516219
-0.24566194
0.12020039
0.032403126
-0.082747884
-0.07922545
0.2938057
-0.1560999
0.07434429
-0.12071816
-0.15986592
-0.058626574
0.047904518
-0.09874926
0.124872334
-0.12928854
-0.111210614
0.015919738
-0.10237429
0.15634821
0.004157084
-0.10700979
0.0607016
0.06572884
-0.021472009
-0.060018454
0.015993036
-0.13510606
0.040548153
0.029842187
0.057515513
-0.0146413185
-0.17124282
0.012877966
0.1577846
0.10504427
-0.0001068763
0.19084282
0.1860653
-0.0696194
0.08775048
-0.07644525
-0.22896497
0.21316357
-0.09282621
-0.13226879
-0.2279334
-0.029084919
0.02504352
-0.12793706
-0.22867131
0.11619793
-0.048882913
0.32149732
-0.03332042
-0.14067
0.2879167
-0.019343622
0.055137325
0.037757363
-0.1071521
-0.13728036
-0.059798736
0.17994016
0.14060193
-0.036872853
-0.04275954
-0.10674586
-0.010539877
0.07496059
-0.067971036
-0.06736748
0.1659909
0.24995334
0.0156043535
0.018862313
-0.025612177
-0.10421879
-0.08443938
0.2428546
0.026202457
0.19319619
-0.18080053
0.14140852
-0.0027792093
0.11831772
-0.05520231
0.039962925
0.050392855
0.09844739
-0.0591825
0.11096624
-0.15858719
0.3056523
-0.13868712
-0.04385622
-0.08567073
-0.046079982
0.14053833
-0.06361971
0.15647064
0.17366982
-0.098219804
-0.025963517
-0.14048845
-0.041540317
0.22093733
-0.21628504
0.07118698
-0.08818299
-0.10780284
0.051977225
0.1897938
0.16838121
0.11672775
0.05188681
-0.042249
-0.06787938
-0.08228714
-0.050457418
0.008801345
0.20588252
0.15890317
0.090413064
0.19785045
0.041435927
-0.2451641
0.124854505
-0.37509876
0.036894385
-0.028553909
0.02063735
0.04214205
0.031451054
-0.028963123
-0.13252246
-0.0433766
-0.13386494
0.017504692
-0.048671115
-0.059720498
-0.017748347
-0.0058468333
0.07334928
0.27329737
-0.013611918
0.06843216
0.038050715
-0.048145466
0.124143854
0.09703787
0.06104234
-0.016531534
-0.034605432
-0.07940603
-0.045129582
0.026297132
0.15593311
-0.07692899
0.2392188
-0.012369627
-0.076863475
0.13457716
-0.11336819
0.15320392
-0.050013907
0.25258747
-0.2774994
0.25387084
-0.07446825
-0.05843562
-0.045583256
-0.012808712
0.043965053
0.07863772
0.12847307
0.20915341
0.057308868
0.20270751
-0.056809627
0.28046766
-0.11934485
0.11519747
0.16221468
-0.019431842
-0.29957664
-0.2149797
0.009026016
0.15713048
0.013283198
0.024888182
-0.23935777
-0.1650609
-0.14434329
-0.06359701
0.14040188
0.028145196
0.12261399
0.052061353
-0.024079576
0.064604826
0.11335289
-0.05256998
-0.07851718
-0.010715014
-0.10857296
-0.09586832
-0.11235166
-0.16093117
-0.027772885
-0.119954966
0.021527572
-0.050947666
-0.07904143
0.012844146
-0.024421856
-0.16304971
0.04411298
-0.0677047
-0.06869944
-0.03505663
-0.1442694
0.09821304
-0.12806986
0.09630372
-0.027936082
-0.0869754
-0.08086362
0.03447221
-0.01695382
0.13724346
0.17387813
-0.17851664
0.01629379
0.1130803
-0.13481186
0.038077302
-0.2366847
-0.067129895
0.10119836
0.041226376
-0.028624592
0.07234283
-0.021977361
-0.09767508
0.05179991
-0.094040476
0.07969799
0.1455358
0.027529122
-0.22518916
0.18060459
0.1105106
-0.026858602
0.004181664
0.21184738
-0.20051792
0.09243764
-0.06950236
0.01458007
-0.046061773
-0.029236142
-0.1250955
-0.36777446
-0.085686475
-0.107264675
-0.0672863
0.18140826
-0.034225088
0.09545482
-0.067999355
-0.118963
0.06406458
-0.09792022
-0.119516805
-0.06513696
-0.17424598
0.028837737
0.024553498
-0.03111699
-0.01432317
-0.054877162
0.059026677
0.13062757
0.31086844
-0.062782794
0.039821267
-0.05084468
0.00483053
0.41376328
0.029800672
-0.042338125
0.096445374
0.086476184
0.11421749
0.14723025
0.21204558
-0.0042050784
0.01711416
0.0781036
-0.22640075
0.004019428
-0.003936003
-0.022205215
0.005485835
-0.12597634
0.13358118
0.2333308
0.07777546
-0.08770413
-0.04640332
0.1163473
-0.11388688
0.15113686
-0.14115141
0.009616721
0.0373984
-0.036072683
-0.15732214
0.011345094
-0.031158585
-0.15174557
-0.012227251
-0.01853399
0.103179984
0.024155825
0.002912218
-0.12889911
0.22315082
-0.038641326
0.019145338
0.013658728
0.008236163
-0.18580401
0.14661345
0.15785643
-0.1580622
-0.047720946
-0.06006099
-0.1341281
0.02646661
-0.13623701
0.11547257
-0.12206273
0.10003511
-0.2585857
0.0078016957
0.17086697
0.20262296
0.001972497
0.0027416535
-0.07190954
0.0033022251
0.08787447
-0.16431452
-0.006687085
0.017869988
-0.122429036
-0.22906825
-0.100256175
-0.018701099
0.021425663
-0.018637812
0.067789674
-0.05314132
0.035309236
0.009006481
0.14403473
-0.04618675
0.09845046
0.015514682
-0.058630235
0.009974149
0.13411118
-0.03052862
-0.16310598
0.05349338
-0.23675634
0.1217458
-0.103722416
-0.06430005
0.11086801
0.012619353
0.07774467
0.048975408
-0.1619365
0.21563113
-0.021961095
-0.0044611865
0.09608783
-0.28007674
-0.009415075
-0.16074729
0.07021123
-0.08875481
-0.12603574
-0.010867145
-0.17343816
0.07419316
0.3464623
0.24385932
-0.05584519
-0.18086015
-0.009532504
0.013507589
0.09272305
0.19405358
0.2266952
-0.1026659
0.029532146
-0.14328219
0.05287197
-0.07273479
0.15564369
-0.029001327
0.0031659356
-0.018367102
0.07338071
0.009350919
-0.116839565
-0.11747903
0.002918089
-0.08205673
-0.0643331
0.1262653
0.15615188
0.051689576
0.06998419
0.05178333
0.071749456
-0.13674355
0.11404263
-0.1423682
-0.30817705
0.115939915
0.23653507
0.004232494
-0.22327852
0.10254092
-0.05905078
-0.17835186
0.03090164
0.12437977
0.055552304
-0.2786746
0.08312199
-0.0034966175
-0.17272866
0.22573707
0.10674355
0.11462543
0.0640805
-0.010337565
0.01481148
-0.16460878
0.011038788
-0.15113385
-0.064177364
-0.07862654
0.06910307
-0.22807853
-0.08852391
0.06594631
-0.1786194
0.006177421
0.25698125
0.106442526
-0.23394294
0.12618111
0.00022785041
-0.09222488
0.047353834
0.1265363
0.059301846
-0.08236582
-0.06550733
-0.14736126
0.23575884
0.0016985044
-0.038679473
-0.086771585
-0.14129926
-0.10013368
-0.0827204
-0.18754034
0.2598455
0.0436253
0.02590262
-0.023610916
-0.2452161
0.033484936
0.15713859
-0.0194624
0.14494303
-0.107527055
0.3246896
0.27499628
-0.0026482567
0.04975255
-0.07110637
-0.06117415
0.13062492
-0.07140563
-0.051101234
0.16389273
0.022034567
-0.31655324
0.084248684
0.11373786
-0.10770558
0.04649835
0.04254563
0.12304585
0.024818372
-0.05990962
-0.16144827
-0.07080395
0.08380723
0.033613507
0.011614105
0.03627549
0.08455076
0.14596127
-0.1178402
0.19663733
0.008521365
0.030900283
0.11581158
0.072885714
0.10252169
-0.121810004
-0.0021792888
-0.014844373
0.03925749
-0.18121026
0.10607313
0.035662957
-0.21655075
-0.05401476
-0.06494174
-0.012585976
-0.16727895
0.021168105
-0.08646626
0.26133654
-0.043556597
-0.13036987
0.022219688
0.03715223
0.0745405
-0.07125509
-0.15333591
0.13889565
-0.036595505
0.02395934
-0.0057840096
-0.099515826
0.22992577
0.25144023
-0.16303878
0.09179137
-0.06574169
-0.04408109
0.17716241
0.07299228
-0.07870795
-0.07340688
-0.09085132
0.032885134
-0.04587227
-0.10856944
0.1863626
0.122696415
-0.36303547
-0.13611704
-0.17526759
-0.1252217
-0.01527182
-0.17343287
-0.10573635
0.06783698
0.14891174
-0.015483189
-0.08615411
-0.040759094
0.13269743
-0.09723586
-0.15279381
-0.0005374425
0.0051038004
-0.08055259
0.039332904
0.110298
0.039161023
0.01756202
-0.24108621
-0.054350354
-0.016622696
0.04400495
0.012488864
-0.21039185
0.19590971
0.0027202554
-0.08885533
0.14717138
0.2722439
0.2509207
-0.03385302
0.08691504
0.01596156
-0.0062103625
0.02766113
-0.10900484
0.1687811
-0.23042329
0.15548536
0.08919274
0.021071361
-0.060212705
-0.041469667
-0.039578214
0.08672473
-0.09720137
0.14091748
0.11550093
-0.0626949
-0.120819844
-0.04144036
-0.08993373
0.1569773
-0.07825666
0.14519376
-0.38245806
-0.13197295
0.1271428
-0.15298522
0.03248094
0.0819791
0.018976573
0.26398832
-0.0006633594
-0.019734839
-0.19126417
-0.15068191
-0.018342795
0.06787267
-0.04551736
0.111593746
0.07349152
-0.119735956
0.05379802
-0.008869971
0.21783099
0.0029212558
0.022206787
0.23123662
-0.11833558
0.18833716
-0.18597622
-0.049322993
0.28819075
-0.04001431
-0.1131668
-0.07393111
0.062347326
0.037281882
0.061823178
-0.09868922
0.13376959
0.23567022
-0.031971816
-0.112035915
-0.46524867
-0.031305905
0.052908376
-0.12477056
-0.011009439
-0.12158274
0.22808495
-0.10073904
-0.03005109
-0.0052641393
-0.21260156
-0.029511556
-0.06620571
0.087428905
0.13405825
-0.078606725
0.0927566
0.20097284
0.10152652
0.26349813
0.027049297
-0.0881339
-0.035473887
-0.03709125
-0.20628898
-0.05792334
0.12127614
0.006187308
-0.18125848
-0.023424966
-0.041066024
-0.19984366
-0.07010084
-0.088348836
-0.09946059
-0.19832245
0.212564
-0.011621926
-0.06758705
-0.005223447
0.011180658
-0.056518182
0.1518905
0.050206132
-0.09347554
-0.12849942
-0.13712728
0.05698262
-0.09703539
-0.17173913
-0.012843093
-0.013987331
-0.13233884
0.13508488
0.0014026944
-0.21445554
-0.10137235
0.15894291
0.09117815
0.005068027
-0.024054397
0.109100275
0.05174903
0.0914637
-0.14445367
-0.057385717
0.051738404
-0.37335467
-0.040616482
0.06338831
0.024246598
-0.03863157
-0.042293124
0.008123955
0.113788046
-0.038231652
-0.07772716
-0.04175015
0.09285988
-0.043378245
-0.04601954
0.118256
0.009148756
-0.22392876
-0.12249577
-0.12915409
0.12661333
0.0126887355
-0.33593324
0.061971627
-0.034157638
0.09549022
-0.15153717
0.16946338
0.12159855
0.004990046
0.13880228
0.113920145
-0.0153176775
-0.2853494
0.08369959
-0.20613588
0.14625898
0.13293621
0.13085009
0.15622525
0.06231862
0.18327615
0.07066946
-0.02102359
-0.11646358
-0.058963303
-0.09253632
0.013821852
-0.16350849
-0.14652373
0.10796886
0.19639795
-0.11077177
-0.10806555
0.036949087
0.04333278
0.06789929
0.040241357
-0.19126627
-0.06683096
0.17287275
-0.06447948
0.10431626
-0.21044017
0.19850634
0.27001584
0.029636422
-0.09390152
0.17832617
0.017194197
0.15993191
-0.048871886
0.109615386
-0.020468097
0.124157675
-0.100991584
-0.0039089075
-0.14750685
0.123167
-0.22723511
-0.20385472
-0.16680789
0.04259899
-0.040908128
-0.11890225
0.17443523
0.012817312
0.13820411
-0.06383838
-0.01150928
0.023434347
0.18495071
0.08903803
0.0019981724
-0.1456867
-0.042375524
-0.053985637
-0.3095068
0.06468841
0.08344283
0.17339776
0.05752156
-0.07382496
-0.0034079598
0.11222774
0.054275542
-0.106121995
-0.044447895
-0.16333115
0.06444254
0.003973299
0.16682264
0.3244732
-0.01604839
-0.12514311
-0.046993904
-0.0077382685
0.18869635
-0.05602523
0.17005748
-0.06975184
0.006029384
-0.16647342
-0.105513565
0.059315417
-0.17686275
0.06432024
0.09550748
-0.05586567
0.07910868
-0.124773584
-0.07521942
0.0383077
0.0742702
0.12919715
-0.04854802
0.09153929
0.117870696
-0.02471223
0.0479288
0.03400605
-0.083427355
-0.31581417
0.018393772
-0.19207431
-0.030841101
-0.11725638
-0.15565573
-0.0064656576
0.24330492
-0.01333533
-0.0568376
0.11936051
-0.01670933
0.1780587
0.13994059
-0.11507813
0.0509153
0.2800075
-0.059940007
0.1085021
-0.07126742
-0.01324018
0.2355403
0.02863683
0.17861634
-0.20687191
-0.20698951
0.051749602
0.075409405
0.03653584
-0.008092742
0.03553154
0.09639927
-0.047823843
0.012689916
-0.021630498
0.014460024
-0.06389381
-0.13534589
-0.0136416955
-0.12799785
0.006145329
-0.06898312
0.10553044
0.10523701
-0.062466454
0.070345476
-0.023814593
0.15691133
0.060521793
0.064361684
0.09482112
0.04078235
0.11761284
0.1800535
0.08417696
0.26724404
-0.14664382
0.03858389
0.28236693
0.05216985
-0.0538886
0.0004097305
-0.025718132
0.014066529
-0.09736037
-0.23717459
0.12346231
-0.0056226053
-0.031459343
-0.13980821
0.06433727
-0.23551553
-0.15174496
0.13525829
0.16577859
-0.13168438
-0.048962895
0.013863034
0.06755671
-0.2133091
0.025299236
-0.06232494
0.029969092
-0.3216989
0.017691962
0.0009992628
0.06996659
-0.013688576
0.037880365
0.1421236
0.08543652
0.10743635
-0.032613806
-0.012486544
0.09868335
0.083734475
-0.187305
0.21226652
-0.111130014
0.087663054
-0.116379716
0.10519436
0.036723785
0.0008982545
-0.09758156
0.02736363
0.038065366
-0.0455285
0.2393132
-0.05727603
-0.03911501
0.10891775
-0.004885634
0.0426047
-0.045629952
0.04451551
-0.17171179
0.0053380914
0.17149277
-0.11915841
0.16250122
0.14899607
-0.140307
0.012083905
0.15253483
-0.016854046
0.19545771
0.1461573
-0.026320823
0.11014097
0.013426159
0.18728161
0.12396691
0.08581431
-0.13799794
-0.037065823
0.12077894
0.050293464
0.17307913
0.10892202
0.026430225
-0.08076767
-0.13739038
0.20118876
0.09415733
-0.032087047
0.24350607
-0.024787318
-0.3650881
0.05474982
-0.00827194
0.0564795
-0.055084586
-0.09643721
-0.022590773
0.049185086
-0.17356533
-0.07239003
0.23851326
0.28764564
0.07383446
0.04195796
-0.11465679
-0.13717592
0.19752097
-0.0653107
-0.14142103
-0.14080119
0.004991883
0.07336901
0.096180156
0.078983776
0.0028293002
0.09451643
0.182051
-0.110296376
-0.1262784
-0.04889526
0.09649854
-0.16629319
-0.065061115
0.0076024896
-0.045186393
0.05868253
-0.08493931
-0.09352832
0.12063558
-0.23146705
-0.030274298
-0.115213014
-0.14356908
0.22153543
0.002442841
-0.0006182265
0.2132858
-0.20491059
0.15597078
0.08886498
0.060551282
0.113176666
0.113610834
-0.15799564
0.03002766
-0.0047619897
-0.11392827
-0.083429165
0.115081236
-0.06140364
-0.1461357
0.0026780257
-0.16255994
-0.18696024
0.07223148
-0.17653362
0.016298492
-0.17412172
-0.029168423
0.12574701
0.118507
-0.020301677
0.001256575
0.16207385
-0.11461632
0.03067509
0.026488695
0.10557061
-0.123758815
0.042633228
-0.2518349
0.104474835
0.028734652
-0.28946805
-0.17557181
-0.09994067
0.040041044
-0.014552385
0.050622977
0.029969256
0.04501094
-0.0031620637
0.07906592
-0.092250496
-0.031408925
0.10149578
-0.06844548
-0.15442464
-0.0675663
0.18018508
-0.02740886
-0.0579699
0.25286615
-0.11157407
0.121230856
0.011270948
0.020676566
0.083581425
0.015785951
-0.031093651
-0.02150138
-0.090281226
-0.0447413
-0.15632324
0.24955393
0.10438104
-0.06315039
-0.13259324
-0.19705597
0.05788946
0.11778134
0.15366355
-0.25463006
-0.05916092
-0.07554449
-0.046313964
-0.14990905
0.09928976
0.1033991
0.013421963
-0.049221177
-0.06533103
-0.16363744
-0.007768933
-0.18811032
0.08787086
-0.06743841
-0.086524524
0.064492315
0.012067169
-0.08552217
0.044465363
-0.26792908
0.12678316
0.02861608
0.085260786
0.06450624
0.04884226
-0.10455934
-0.28598604
-0.14712179
0.0041313274
0.006246104
-0.082040876
-0.059889358
-0.14438646
0.31918597
-0.060072724
0.03854857
-0.17810437
-0.0514745
0.1483596
-0.012751582
0.09277377
0.11849783
-0.22014548
-0.18877338
-0.06726005
0.04659287
0.12536241
-0.0073677287
0.017890783
0.07858089
-0.0130556505
0.07577043
0.11716352
0.15167558
-0.012441057
0.04892813
-0.016864771
0.041744784
-0.16428518
-0.010401027
0.13202116
0.2155454
-0.04179241
-0.13200189
-0.20046307
-0.01033852
0.25048473
0.073603004
-0.007072668
0.014246149
0.011196463
-0.018123146
0.09117674
0.1267482
0.03172028
0.033742305
-0.012219914
0.21394932
-0.084616646
0.04881689
0.023308842
-0.056098912
-0.039753985
0.22357224
0.009710728
-0.21186107
0.05213321
-0.13877444
0.13426322
-0.02061448
-0.057503305
0.04288985
-0.16928305
-0.00436638
0.14140216
0.16192004
0.0008887482
0.27138928
-0.12165739
-0.057287786
0.016501274
-0.14604722
0.06035983
-0.17921196
-0.03980795
0.10444758
-0.040943112
0.067378916
0.07352037
-0.27733287
-0.17592578
0.17376822
-0.21186894
0.042017575
0.18426827
0.07910152
0.04707991
-0.008298476
0.10774491
-0.19875662
0.10060694
-0.015929043
-0.13921806
0.08715627
0.04877606
0.16458248
-0.24307795
-0.07129343
0.015815625
0.21488287
0.16061513
0.0046152906
-0.069004424
0.06037987
0.047505714
0.007691002
-0.07789147
-0.14273053
-0.026771529
0.044566907
0.03314042
0.11206742
0.16888975
0.059317235
0.066620946
-0.16329853
-0.09081922
0.02143024
0.03172425
-0.10530553
-0.13940378
0.0594893
-0.017187994
-0.04941951
-0.21155913
-0.052362684
-0.06857578
0.19510731
-0.24545561
0.052712806
-0.04610729
0.09705898
0.05369989
-0.04138547
-0.034541473
-0.29354504
0.10690901
-0.197508
-0.09094351
0.10201148
0.17737864
-0.00239016
0.1447617
-0.19847678
-0.105329044
0.06264828
-0.13525693
-0.013642104
-0.1599612
0.2560263
-0.3534481
0.024543243
0.018857038
-0.07322176
-0.0072504054
0.009635533
-0.15770732
0.18344173
0.20860715
0.05668605
0.12454542
0.030090045
-0.037529938
-0.052263282
0.09586941
0.07861523
0.12042614
0.020130875
-0.07571988
0.07879375
-0.117579624
-0.014830904
0.25853875
0.09951368
-0.15675177
-0.090142064
0.0011010993
-0.046523027
0.017671213
-0.06060592
-0.21700686
-0.02509763
0.102413245
-0.19777174
0.022924205
-0.18437223
0.24560384
-0.13004512
-0.08801008
0.077104956
0.052482665
0.5581403
0.09809874
-0.1243564
-0.06765606
-0.10831183
0.068170324
-0.22426555
0.0849657
-0.08520713
0.025364459
-0.03117585
0.022775812
-0.025816625
0.015008805
-0.031476866
-0.074414745
-0.01977655
-0.07980159
0.1674588
-0.047422383
0.095033586
0.003561942
-0.1427301
0.018061526
-0.115250625
0.07893537
0.09407149
0.029695347
-0.049017064
-0.020427054
-0.058169853
0.041521754
0.04901788
-0.09900956
-0.07777164
0.05677802
-0.12526073
0.09122992
-0.1909977
0.13622566
0.15811075
0.025180979
-0.058872502
-0.067858525
-0.28864732
-0.031387325
-0.22537117
0.15402533
-0.20335808
-0.124181286
0.01810817
0.054074913
-0.06010653
-0.10554859
0.14484225
-0.098560154
-0.1629775
0.29675582
-0.106117025
-0.05703904
-0.14688158
0.17967331
-0.022173341
-0.18373738
-0.15022947
0.044312853
0.06726987
0.22706126
0.07042357
-0.0017483857
-0.016665356
0.2574019
0.07572447
0.22347596
0.07430835
-0.061459992
0.19105037
-0.24483003
0.014297103
-0.03744613
0.13152367
0.056637306
0.09761433
-0.038800612
0.20112152
0.3534172
-0.01626104
0.13144284
-0.11531338
-0.13392988
-0.1349798
0.008017663
-0.15044099
0.11345172
-0.0106789945
-0.054331258
0.17550328
-0.05999824
0.117613904
-0.15140325
0.08887173
-0.10443528
0.009304459
0.08128491
-0.16880044
0.107293785
0.16977891
0.16257213
-0.14189512
-0.06908895
-0.068345696
-0.032149706
-0.059587866
-0.012532454
-0.063688554
0.040661674
-0.14748536
0.027100572
-0.0729499
-0.105284795
0.027468907
-0.22926691
-0.19522569
-0.26826575
0.10977812
0.12515138
-0.024002383
-0.14679162
-0.049696803
0.14769351
0.05253491
0.042353448
-0.086290814
0.046148464
0.11556365
-0.06762116
-0.08605826
0.053085607
-0.113840036
0.13326617
0.09558287
0.04543215
-0.1329224
-0.0712245
0.016456356
-0.0970724
-0.078391105
-0.027043415
0.11902256
-0.10297194
0.034010068
-0.061753415
-0.0060756616
0.041933917
-0.0008334207
0.15517151
0.17412478
-0.29488057
0.04584198
0.086217485
-0.024116036
-0.09357399
0.09386507
-0.048391245
0.02946102
-0.015663873
-0.031937186
0.1331958
0.19796634
-0.04312968
-0.20858505
0.08231669
-0.054193564
0.12903127
0.0749627
-0.17887187
-0.117166914
-0.111438595
-0.21805681
0.024483139
0.07032666
0.032201096
0.17160606
-0.07447768
-0.08581622
-0.08661888
-0.026158018
0.14855587
-0.10333531
0.04839399
-0.06174796
0.07527398
0.109495796
-0.0037749126
0.07120661
0.21815719
-0.07461112
-0.116648234
0.10870659
-0.02765436
0.13316892
0.021844415
0.17256472
-0.08941196
-0.05843018
0.024693286
-0.14193621
0.013524401
0.033228744
0.072766714
0.20944726
0.03987778
0.4458675
-0.1344741
-0.35375807
0.028423887
-0.12581205
-0.009853627
0.07419001
0.013996459
0.1325495
-0.030399738
0.1930617
0.099211864
0.023176713
0.083006516
-0.030170185
-0.071926825
-0.16070957
0.07018105
-0.1150928
-0.07852783
0.037149575
-0.009993668
-0.073974654
-0.2384645
-0.019790899
0.053969223
0.101820394
-0.06075941
-0.019171927
-0.045195
0.023371568
0.097446814
0.057645027
0.06983484
-0.022197215
0.046586562
-0.011804074
0.07060906
0.08710275
-0.1673668
-0.1529082
-0.0768936
0.018950498
0.0556946
0.04476459
-0.16418831
-0.11196348
0.30287063
-0.07331499
-0.2195232
-0.07460169
0.029535746
0.036908023
0.066638224
-0.060315654
0.0800948
0.25126073
-0.046700343
-0.3056365
0.14170091
0.09240824
0.053492982
0.02207905
-0.1254023
-0.013064381
-0.035263255
-0.18798715
0.009604567
-0.07651292
-0.20308325
-0.062183697
0.17154185
0.31579956
-0.07476674
-0.20753774
-0.2277983
0.120720446
0.039840676
0.20303974
0.052789666
0.115355216
-0.03671729
0.045360506
-0.101442516
-0.041084714
-0.14754263
-0.042260274
0.0918389
-0.0028836466
-0.035575565
0.13399835
0.06886572
-0.038097218
0.08380089
-0.031850744
0.29434502
-0.35030967
0.13603869
0.16973534
-0.06384356
0.13133043
0.21122295
-0.043511987
0.13607743
-0.08040256
-0.0067155305
0.18290201
-0.14205265
0.09862829
0.067878775
0.12164468
0.0775932
0.20677868
-0.049008552
-0.23738934
0.307678
-0.09325209
-0.08607093
0.17986226
-0.24873085
0.17440094
-0.11295961
0.13715494
-0.0255689
0.09067171
-0.1777803
0.050145365
0.17650431
-0.039726295
-0.016813783
0.062443294
-0.03179824
0.062117383
-0.32728204
-0.08918748
-0.13155238
-0.20774598
-0.14773074
-0.025857639
-0.0323109
0.0308369
0.10921496
-0.08652565
0.03334216
-0.15391004
-0.07139929
0.22551642
0.099240005
-0.03130462
0.13862897
-0.033727083
-0.07722598
-0.09973901
-0.1707587
-0.36992642
0.025250833
0.16595343
-0.22760083
-0.083428554
0.15313993
0.06416344
0.10587108
-0.21837522
0.029049374
0.005389802
0.17174858
-0.11099615
0.12527592
-0.09590145
0.019409828
0.15090069
0.088776715
0.09272173
0.113045864
-0.09013012
-0.14586636
0.023706283
0.010796178
0.13360028
-0.047642183
0.18689233
-0.07171441
0.112539
-0.12482835
0.017801909
-0.14387955
0.22327188
0.056788955
-0.20059267
-0.055271666
-0.085627675
0.025826862
0.10854161
0.38869345
0.23330672
0.02950835
-0.16867897
0.2537144
-0.04617518
0.029176217
-0.13366838
0.16521384
0.14751887
-0.02204099
-0.09034666
-0.023735214
-0.06146794
0.04279607
0.025487788
0.070475884
-0.016237816
0.12484468
-0.0891706
-0.05020869
0.08953504
-0.13866502
-0.03610217
-0.081395276
-0.12029967
0.059522487
-0.24498706
-0.16482547
0.022415359
0.11241693
0.039692007
-0.25184265
-0.06244907
0.06502694
-0.048607077
-0.02488918
-0.068880156
0.054005284
-0.082856536
0.11164003
-0.25461105
-0.05026727
0.09012051
-0.06994976
-0.089938454
0.021608619
0.11189161
0.09297735
-0.012446
0.093684115
-0.012510956
-0.13293421
0.0005634786
-0.057242893
0.19858404
0.08922393
-0.04085171
-0.05413486
-0.04628389
-0.08123087
0.10921371
-0.28750175
0.0152996695
0.07448305
-0.053598024
-0.10673318
-0.051931225
-0.007818967
0.22393103
0.07805181
-0.11400659
0.18921892
0.18350366
-0.12303108
0.016792884
0.07955613
0.27912846
-0.0859368
-0.13738811
0.21246491
-0.071729325
-0.012983796
-0.1722875
-0.21728446
0.10278567
0.1257196
0.15641423
-0.119524196
-0.063452855
0.11038721
0.14386919
-0.018546006
0.05939851
0.06268484
0.22915903
0.18912695
0.25948527
0.12847191
0.09824975
0.0109975375
0.12681147
-0.1227735
-0.061702956
0.065703936
0.06427027
-0.012866331
-0.10567026
-0.05457637
-0.044621993
0.16783133
-0.05460189
-0.11397852
-0.061662756
-0.20565149
0.21499613
0.016266683
0.029652094
-0.026315873
-0.09539498
-0.033383477
0.007758466
-0.15792464
-0.04729603
0.042479597
0.109885186
-0.01271688
0.27601406
0.38344327
0.115202084
-0.13510908
-0.10759644
0.16899157
-0.059487578
0.06694739
0.0095821405
0.03462351
0.100894935
-0.002530375
-0.10805848
-0.30161762
0.019886132
-0.07167497
0.36475334
-0.037821025
0.16776513
-0.10735294
0.09308252
-0.17026724
0.15773778
-0.041840766
-0.043730002
0.06682492
0.12761402
-0.26577154
-0.07202338
0.1290637
-0.13836136
0.22319186
0.1150901
0.010642153
0.14850336
-0.05071374
0.03582316
0.14408764
-0.2234804
-0.02048871
0.13303725
0.011647427
-0.034463603
-0.033510167
-0.030584075
0.14816521
0.08112803
0.0012172448
0.051799066
-0.18084608
0.11352115
0.03604827
-0.16670756
0.0026105242
0.2141476
0.2533748
-0.10535048
-0.09702139
0.017835002
0.026455807
-0.051039718
0.19668183
-0.18084566
-0.08082397
0.06301868
-0.015274555
-0.05983191
0.118082464
-0.02630426
-0.04856177
-0.14555931
0.026699489
0.12953515
-0.19061138
0.1904515
-0.23146185
0.1588448
-0.14581023
0.046651635
-0.04572981
-0.009538942
0.0197526
0.06605251
0.066627644
0.046233732
0.14319915
0.067682214
0.097199954
0.0516851
0.107094385
0.097367875
0.12863815
-0.0038272028
-0.0019696446
-0.09788717
0.047999337
-0.16739684
0.0054471227
0.36394882
0.12176815
0.19404736
0.14622499
-0.07004821
-0.081452444
0.09622993
-0.1382201
0.1160473
0.07374813
-0.047673263
-0.078411505
0.28449094
-0.061148044
0.1624994
-0.044085275
0.113008276
0.017656818
-0.21095052
-0.28023446
0.17193589
-0.12373466
-0.080042295
0.29387724
-0.17604734
-0.10369626
0.041935056
-0.04489656
0.09405342
0.05398259
-0.3425644
0.062711045
0.10060615
0.102721415
-0.17245732
-0.0019314028
0.050776727
0.13737015
-0.011718487
-0.14342377
0.06440605
-0.013498321
0.114835605
-0.12631884
0.10386062
-0.031005396
0.02407331
-0.10976993
0.0264534
0.15777399
0.054392688
0.1622351
0.05688731
0.089193106
0.03208545
-0.11385477
-0.09348005
-0.08184385
0.0065776794
-0.06352068
-0.121226504
-0.13070442
0.18102033
0.23170544
0.035516635
-0.19106477
-0.017388983
-0.0072547975
0.13346316
0.013095494
0.24538338
-0.050257463
0.048981853
0.17557858
-0.036823153
-0.006982429
0.068579234
0.028903155
-0.20185654
0.27098536
-0.24449681
0.15439393
-0.07071708
-0.05047424
0.18085928
0.15342772
-0.17860577
-0.20083056
-0.16410807
0.023008438
0.14368288
-0.19405292
-0.02321726
-0.101803
0.18651532
0.02339363
-0.22896384
-0.112608835
-0.09414104
-0.08854243
0.08065777
-0.18514101
-0.032642208
-0.08011283
-0.27281386
0.0038227392
-0.20564316
0.12593912
-0.1436966
-0.021818679
0.2366012
-0.26578498
0.13507745
0.186146
0.12793759
0.094837606
0.009514789
-0.0612752
-0.1044792
0.16419004
0.29503888
0.006541211
-0.1168426
-0.3172779
0.093692124
-0.115359865
-0.01635404
-0.23041482
0.12501524
-0.027039103
-0.005246917
0.14816415
-0.1546548
0.1330886
-0.20587482
0.09250858
0.14239655
0.16272385
-0.2792775
-0.1697747
0.16679282
-0.1037633
0.17293215
-0.14909871
0.039140902
-0.030150868
-0.021996068
0.059591223
-0.14658527
-0.041997794
-0.2297844
0.040376473
-0.15904492
0.11167956
0.093522266
-0.015061218
-0.08456514
0.1290178
-0.047211125
0.022529075
0.10370925
-0.09163653
-0.23021169
0.108307175
0.169807
0.018479772
0.1568174
-0.11105113
-0.008470857
0.08069427
-0.2992036
0.24860542
-0.18327628
0.11340534
-0.00391382
0.07365271
-0.061659966
0.0056427484
-0.13023491
-0.1268067
-0.060316965
-0.047745258
-0.16913815
-0.1876727
0.107469745
-0.1377228
0.10586617
-0.13232581
0.033164274
0.057123203
0.04037378
0.10900968
0.029391494
0.15888986
-0.18198007
0.15623786
0.36342725
-0.024777712
-0.027446695
-0.09444865
0.18073821
-0.09865695
-0.26116902
0.074519314
0.052264772
-0.13994709
0.037864458
-0.20152189
-0.05670873
0.07487536
-0.0019725717
-0.015957937
0.14421265
0.07486654
-0.24730195
-0.07630398
-0.06786634
0.06572257
0.13898028
0.18873967
-0.14720564
0.202404
0.0865578
-0.20939055
-0.06234677
0.19417128
-0.20243901
-0.024571419
-0.016260343
0.1768531
0.0046804724
0.11201424
0.066716515
-0.108447
-0.105456196
0.06281559
0.054899897
-0.1552556
-0.012359442
-0.15580755
0.14172061
0.009925634
-0.0054396503
-0.12067518
-0.23864976
0.08761473
0.10002669
-0.027166538
-0.052427564
0.17471613
-0.04894096
-0.030451262
0.12447922
-0.039740384
-0.022631904
0.1479929
-0.15316759
-0.093611695
-0.09892949
-0.34510654
-0.06393219
-0.082936615
-0.07306253
-0.088788606
-0.002394438
0.006172218
-0.16066355
-0.0048238705
0.07708293
-0.02567756
0.03647687
0.10210537
-0.029356519
-0.03961898
0.08750597
-0.11824374
-0.07637877
-0.07994536
-0.038719907
0.047158252
0.047213946
-0.07283204
0.09696159
0.22455241
0.043345798
-0.17700592
0.15547566
0.062408943
0.018631984
0.13107522
0.04440636
-0.123680584
0.00047800905
0.15592957
0.075149804
0.15391484
0.09189793
0.14445235
0.08977862
0.010819938
-0.22626388
-0.10359748
-0.034025494
-0.110075764
-0.19502413
-0.0660057
0.05294173
-0.112884514
0.0010681632
-0.043330457
0.043933325
-0.095282555
0.13179019
0.074172184
-0.16069737
-0.18895832
0.16428456
-0.13812399
0.101493195
-0.07058462
0.082477085
-0.042396728
0.13018876
0.0010649594
0.18679209
-0.20051497
-0.01349622
0.027054295
0.037429564
-0.05622267
0.1104081
0.059320778
0.03808674
-0.13792273
-0.21281241
-0.063498475
-0.091902606
-0.052379794
0.10168347
0.07965252
0.19144535
0.015455042
0.06697191
0.14064746
0.062620625
-0.0018277366
-0.10715109
-0.031779073
0.06854672
-0.06149579
0.13224326
-0.027428262
0.026457885
-0.17762996
0.1346915
-0.08068495
0.010484489
-0.010509503
0.002275054
-0.13206953
0.13027261
0.24834894
-0.06671325
0.020866344
-0.08886254
0.017106192
-0.13192362
-0.03178991
-0.11489515
0.08281089
0.20981848
0.07448156
0.057179637
-0.058127098
-0.16661532
-0.10461468
0.0050804242
0.005583381
-0.034442995
0.04063195
0.20203006
-0.2430438
-0.10512271
-0.040571358
-0.057575095
0.1245321
-0.11780524
0.089986205
0.006357527
-0.13633016
-0.1138808
-0.07498478
-0.2037133
0.22151008
0.009257589
-0.12043201
0.1920747
0.05576791
0.03010228
-0.103103645
-0.06399558
-0.0010358548
-0.005148635
-0.1811229
-0.16918665
0.18649636
-0.28361747
0.21007311
-0.20302229
0.14252491
-0.097727545
0.056108743
0.11773959
-0.053777948
0.086359695
0.06271052
0.2235282
0.23958111
0.045237105
0.07044517
0.14076021
-0.10606095
0.038295597
-0.14234231
-0.15400776
0.1978997
-0.030819584
0.07137369
-0.016185865
-0.011046769
-0.03374533
0.11366362
0.00789114
-0.0753512
0.030136159
-0.0025752378
0.092648685
0.024481406
-0.06728548
-0.13446173
-0.12417683
-0.17477962
0.077038236
-0.037023142
0.008417779
-0.25769097
-0.103201576
0.08678206
0.0643068
-0.12697627
0.06316037
-0.02537727
-0.046200026
-0.38662627
-0.016233496
0.0044182884
0.024871519
-0.16868748
0.040680204
0.17611915
-0.07350831
0.18936077
-0.0013565102
-0.19174877
-0.2157279
-0.07726091
0.036661245
0.03000938
-0.23361531
-0.082592465
-0.07486113
-0.2674312
0.07410637
0.038986318
-0.036351535
0.020173686
-0.047964808
0.0019580056
0.21895191
-0.077949725
-0.09173305
-0.11182403
0.0714617
-0.26732698
-0.07469259
-0.018213216
0.015053336
-0.08063463
0.17891423
-0.11552734
-0.091882765
-0.1289968
-0.16754015
-0.23736288
-0.11272438
0.04292111
0.10687033
-0.19415718
-0.21016465
-0.014571843
-0.054161653
-0.01284397
-0.034673862
0.07432158
0.05008785
0.050028566
0.006042195
-0.15440184
-0.13744682
-0.116504855
-0.115090534
0.17798431
-0.053004798
0.20567504
0.18417245
-0.033239257
0.005792836
-0.062030084
0.12492455
-0.07227399
0.11266642
-0.056780316
0.13872454
0.17965484
-0.032212958
0.13154227
0.110282235
0.07949168
-0.02149557
-0.08341602
0.013942511
0.1351928
0.22072022
0.062386997
0.103233784
0.097692385
-0.1379277
0.047663268
-0.13356815
0.0053906688
-0.03402622
0.010304694
0.055240415
-0.041821085
-0.020401591
0.16538
-0.19663203
0.12616594
0.23633917
0.08156255
0.0034845471
0.004262407
0.0920821
-0.031778358
0.038326852
0.076502584
-0.067350015
0.03052102
-0.04692675
0.07138591
-0.13119343
-0.045334242
-0.045300167
0.09258574
0.3205523
-0.15433078
-0.023718018
0.02682733
0.08320795
-0.14952634
-0.0866893
-0.2114151
-0.016477037
-0.040658966
-0.18476552
-0.13913949
0.12828277
0.004924518
0.08939127
0.03339966
-0.21157895
-0.009912491
-0.09792749
0.04391422
0.11397671
-0.07242862
0.16106758
-0.07109556
0.023816185
-0.0541509
0.23189153
0.08300488
-0.06552488
0.001935046
-0.08748196
-0.07156514
-0.07688315
0.16076088
-0.22644265
0.06282804
0.005417244
0.1562576
-0.17876242
0.11854961
-0.11415517
0.053368606
-0.08914718
0.25590253
0.015123826
0.10133319
0.04012155
0.051289137
-0.0525201
0.09115594
-0.1613943
-0.07976828
0.02805548
-0.032520156
-0.042864222
0.05665477
0.0019818223
-0.26846984
-0.07996029
0.09509265
-0.07761605
0.20031928
0.16078956
-0.16877635
-0.023379155
-0.09381709
-0.03754634
-0.26017472
-0.01804092
-0.15538819
0.12322393
0.0050999247
0.21434435
-0.048112515
0.021170182
-0.27279955
0.09150723
-0.27100542
-0.09503715
0.15323208
-0.04870401
-0.00153453
-0.14272392
0.089630194
0.18605265
0.011451574
-0.0095406715
0.09276901
-0.06892891
0.11326842
0.0041018147
-0.016384123
0.111111544
-0.059825934
0.14810468
0.081349395
0.032672144
-0.17830004
0.019701164
0.032620504
0.10913461
-0.1563719
-0.2035138
-0.06276597
0.052096594
-0.019007638
-0.0003207504
0.15301248
-0.26601407
0.03798595
0.03278729
-0.29015267
-0.044584483
0.023345929
0.07916107
-9.7961274e-05
-0.0763122
-0.19590364
-0.08727545
-0.1188221
-0.011421456
-0.21654326
-0.14777867
0.1455471
0.18165617
0.03245665
-0.05136041
-0.024692586
0.20500897
0.3382218
-0.09938831
0.08783984
0.018665845
0.011982669
0.046928342
-0.12402455
0.2099064
-0.20906465
0.051609404
-0.32299283
-0.041453153
0.17690822
0.07523673
0.007539104
0.017354729
-0.060906485
-0.22339843
0.011416232
-0.087661594
0.16054821
-0.07876048
-0.19617495
-0.0049566426
-0.0151265925
-0.042572062
0.13434699
0.031213166
0.16465314
-0.12705162
-0.09151501
-0.038686525
0.064968705
-0.07175218
-0.0033358387
0.068764515
0.027281737
-0.21394295
0.28823933
0.07323073
0.013846431
-0.02300875
-0.090492986
-0.0711827
0.13167696
-0.12678942
0.16358271
-0.16009483
0.023457194
0.12432586
0.01076798
-0.090993546
-0.06581518
-0.0866948
0.025752537
0.1558155
-0.060641263
0.05682784
0.056175277
0.06151851
0.008720893
-0.15774919
-0.04475293
0.017886601
0.024683151
-0.22962956
-0.24981305
-0.26486453
0.14865085
0.07684389
-0.004592048
0.16205163
-0.04784882
0.16665259
-0.06341579
-0.14529933
0.025084788
0.2018768
-0.03892426
-0.17657831
-0.028714418
-0.2213532
0.052348513
-0.06837628
-0.03881598
-0.21621715
0.25274205
-0.24649408
0.07196609
-0.00061598193
0.25697833
-0.10533547
-0.19697034
-0.028192144
0.035555907
-0.019116256
0.012990221
-0.08613068
0.04688117
0.055133104
0.19470142
0.08163423
-0.11637265
0.03193599
-0.014007875
-0.099936835
-0.03427855
0.1628212
-0.054570794
0.079424
0.070459805
0.035535548
-0.10472274
0.28194028
-0.0076336255
-0.1654471
-0.09391086
-0.051255535
-0.08877396
-0.033113938
-0.01412862
0.21853268
-0.09006899
0.051899176
0.24470027
0.0018795086
0.042772837
0.1779524
0.15645772
-0.12962359
0.04216825
-0.065025136
0.097551
0.043276004
-0.046420287
0.061965752
-0.17633243
-0.06701018
-0.117672294
-0.19449778
-0.04035845
-0.072366655
0.047308095
0.11187898
-0.053727012
-0.21743764
-0.014828005
-0.018471241
0.0040661884
-0.114942685
0.09199771
-0.24528144
-0.16339344
0.13392065
-0.035630815
-0.073063865
-0.022214025
-0.041752566
-0.044220354
0.008349475
0.07319314
0.0744166
-0.11771406
-0.16285674
-0.00804126
-0.093331724
0.036247563
-0.112012304
0.21060093
0.042625215
0.18111587
0.06814431
-0.24179593
-0.30488247
0.14364636
-0.058577646
0.1151205
-0.23710108
0.001283485
0.055388402
-0.123860605
0.041952666
0.07857714
-0.0819834
0.012764427
0.080044575
0.120596394
0.09012467
-0.0054157963
-0.05932154
-0.19316983
-0.05401895
0.11669223
-0.010809534
-0.057460718
-0.01712548
0.0148247415
0.059689365
0.15848368
0.03293548
-0.12615776
-0.21563692
0.087241575
-0.22596608
-0.14542857
-0.08887244
-0.1907682
0.0614759
-0.05926676
0.10262064
-0.014416033
0.021415299
0.28832325
0.08106072
-0.056587685
-0.029066011
-0.06272574
0.2628606
0.11440209
0.17032264
-0.06646928
-0.053083155
-0.053201243
-0.12913541
0.11972454
0.05133841
0.1904444
0.060942207
-0.08353366
0.09741986
-0.041985165
-0.012201806
0.1866004
0.046224322
0.003916109
0.05530605
0.29655668
-0.0017033244
0.024941903
-0.046192385
0.23140986
0.04965257
-0.041327544
-0.38124228
-0.28621495
-0.02924581
-0.0090436535
0.047590453
-0.3618907
0.19728063
-0.22372186
-0.1594016
-0.009212216
0.15116353
0.010323309
0.05020874
-0.24863118
0.004667763
-0.0040696817
-0.067121066
-0.0063398248
-0.009074276
0.10121567
-0.012901262
0.20791088
-0.038382877
0.09971266
-0.076658286
-0.0006457108
0.060733378
-0.05428779
-0.10485471
0.06813522
0.14120393
0.19569282
-0.08403902
-0.021562705
-0.025370691
0.03430543
0.03071956
0.09162796
-0.24353756
-0.14903772
-0.09777202
-0.112119615
0.010609801
-0.18776205
-0.040030077
0.005752129
-0.13788283
0.009746325
-0.19631538
-0.2315627
-0.15155362
0.05223172
-0.056049906
0.020403646
-0.047529627
0.11632201
-0.099816956
0.06328049
-0.08183885
0.11573638
0.01448257
0.09764776
0.009617861
-0.004048905
-0.14144179
-0.30416644
-0.041325923
-0.037931
-0.1359159
0.16843978
0.04256937
-0.09152501
-0.13374077
0.027011408
0.27158517
-0.054262295
-0.14784592
-0.020081775
-0.10286152
-0.037384637
-0.08922278
-0.01231344
0.05963421
-0.016747998
0.13929214
0.0062460285
-0.023088627
-0.048663553
0.049136605
0.0919343
-0.12552787
-0.008504662
-0.11066797
0.18207264
-0.003047999
0.022857133
-0.07347224
0.0077347034
-0.03927471
0.043042593
0.0031143576
-0.1782706
0.045254994
-0.03042949
0.14911558
0.05219498
-0.06286466
-0.066023424
0.043350972
-0.17155063
-0.027119981
0.3157947
-0.009482193
0.074456744
-0.10157061
-0.055967964
-0.0705057
0.029018022
-0.00960547
0.1242293
0.25222445
0.05838364
-0.30668175
0.06758777
0.111606255
0.17247553
0.12889092
0.14216384
0.11807733
0.32801017
-0.04854998
-0.009434751
-0.023013769
-0.023989873
-0.07485812
-0.0018165522
0.13029408
0.24316888
0.04998756
-0.17340359
0.25175834
-0.14715405
0.02255681
-0.411312
0.15477702
-0.046031184
-0.24542926
-0.0039700987
0.20346725
-0.10947469
-0.03779916
-0.07115453
-0.124617256
-0.10387368
0.09265168
0.06735624
-0.19932601
-0.179526
-0.04895946
-0.109393425
-0.24285257
0.14031559
-0.09705417
0.016613606
-0.23671101
0.042524982
0.14573231
-0.009886721
-0.05607834
0.1213003
0.04295698
0.07421543
-0.31032845
0.031073637
-0.012878398
-0.11542829
-0.3502276
0.01807534
-0.013755505
0.03628292
-0.023389267
-0.14345019
-0.042369317
0.13195744
-0.022340823
-0.11304677
0.008434364
-0.041297525
-0.2579006
0.05075333
-0.117433235
0.06274464
0.058615707
-0.09205312
0.16179204
0.17800364
-0.25932246
0.01819243
0.16467458
-0.015799684
0.1324975
-0.12488712
-0.19432989
-0.16238531
0.10712173
0.09003985
0.028132997
-0.029665343
0.01083239
0.04150482
-0.021324605
0.17440364
0.01459399
0.011842925
-0.071894884
-0.052088354
0.099380985
0.10359854
0.11341544
0.08115736
0.07154819
-0.22942929
-0.06839354
0.095476
-0.009160076
-0.16311148
-0.11958893
-0.11855286
-0.110147215
0.030107157
0.16663368
-0.12070226
0.14965607
0.12750298
-0.020814985
0.041822933
0.024711499
0.07732986
0.1346371
0.004446767
-0.17083074
-0.013195729
0.04230008
-0.1000501
-0.076257095
0.07360725
-0.08217975
-0.12528358
0.17635903
-0.07156091
-0.18976402
-0.056873556
0.15988544
-0.22113974
0.07617497
-0.17155182
0.19470672
-0.18608017
-0.1360386
-0.07177368
-0.038415875
0.0018552133
-0.036238365
-0.022125887
-0.080952965
0.06942956
-0.21389233
-0.030291717
-0.1250677
0.14353296
-0.11243631
0.0022001592
-0.03513526
0.043344826
-0.11561784
0.008120661
0.07016979
0.028538633
-0.08718517
0.05371236
0.06656839
-0.12865046
-0.10183557
0.15269445
0.2445293
0.049957074
0.06082083
0.05110257
0.054549463
0.21008734
-0.07928146
-0.1131079
-0.061730467
-0.089381725
-0.25784704
0.01695565
-0.11509579
0.30691776
-0.014539859
0.07683001
0.091685176
-0.22696155
0.0034592284
-0.08687936
0.018329084
-0.16272558
0.068888776
0.052398056
0.16720493
0.14259453
-0.09452588
-0.003910781
-0.012195254
-0.038038287
0.09626893
0.11371603
-0.049370665
-0.255111
-0.04310591
-0.057447206
-0.117104426
-0.10495948
0.065739736
0.03180208
-0.11539103
-0.011392262
-0.090682745
0.07872792
-0.106959194
-0.081256084
-0.08790751
0.0054084556
-0.07580744
-0.15270963
0.023527056
-0.06696365
0.11714331
0.037652463
0.26503724
-0.17877266
-0.0012712904
-0.09149901
-0.036293127
0.12109008
-0.1638233
0.043735888
0.08885238
0.054918677
-0.12444568
0.2081774
-0.04648802
0.16118239
0.120454445
-0.1417994
-0.058884505
0.02147214
0.18480207
-0.16956007
-0.09176151
0.1397978
0.17815804
-0.00011283407
0.016240532
-0.0153776845
-0.19306527
-0.07655435
0.02083342
-0.093055226
-0.0020354313
0.079283886
0.212827
-0.072957404
0.077331156
0.074498475
-0.036580373
0.03392982
-0.07267688
-0.12307907
0.029977372
-0.2113391
-0.021150094
0.049527377
-0.06912022
0.16082387
-0.04536808
0.13809419
0.07431902
0.25778234
-0.0036427414
0.06728784
-0.057753608
-0.18484995
0.060493402
0.018644912
-0.17384855
-0.04744593
0.12444603
0.08357032
0.08556617
0.16202547
0.05045475
-0.17451085
0.2164178
0.045233484
0.17877927
0.034740545
0.016532537
-0.15964355
0.0059741638
-0.0578048
-0.05062008
-0.13621204
0.37916097
-0.101975165
-0.13898647
-0.07802011
-0.11167733
-0.15663862
0.08681042
-0.022973062
0.09778792
-0.018780075
0.0058922633
-0.13106182
0.100741185
0.04283338
-0.09017614
0.14883552
0.03872071
0.15258652
0.10064143
0.02060795
0.13491315
0.18965863
-0.033118945
-0.09381509
0.121952765
0.03112767
-0.004159809
-0.037331603
-0.072831675
-0.124530956
-0.049070466
-0.16198286
0.03535069
-0.20376085
-0.19566257
-0.10267925
-0.10842191
0.13554181
0.0857214
-0.043153472
0.0859169
0.077983275
0.15228711
0.09275347
-0.0641026
0.024180876
0.08259194
-0.100404195
-0.17039637
-0.05034158
-0.14378025
-0.053294517
-0.07720834
-0.047722902
0.116078764
-0.016606627
-0.09266498
-0.055375256
0.09097188
0.011889306
0.11614458
0.08605994
-0.10972828
-0.08412151
-0.06384932
-0.018817829
0.018378304
0.14520249
-0.040441927
0.07747298
0.10941394
-0.155909
-0.22909044
0.022982547
0.052166488
0.206881
-0.04116412
0.20015249
-0.10698853
-0.031445242
-0.10790648
0.11102909
0.1588235
0.05722033
0.038026754
-0.2460155
-0.030164452
0.061611723
0.04446087
-0.11457326
-0.042170722
-0.011031576
0.14674257
0.11334994
0.113535404
0.00061928143
-0.008152902
-0.041004475
-0.10947111
0.090655066
0.017042449
0.19184092
-0.18980649
0.0652237
-0.092344485
-0.06075914
0.2604858
0.028699791
0.11242889
-0.06472012
0.06487848
-0.15641628
-0.112977445
-0.061509162
-0.021344211
0.1432
0.018458134
-0.1838851
-0.16458838
-0.014929481
-0.13904363
-0.046532672
0.09447222
0.024242777
0.029218357
-0.111338615
-0.0040752324
-0.17338306
0.10551794
0.12546186
0.15415359
-0.14959548
-0.13064893
0.040187497
0.044075485
-0.025741244
0.14484216
0.04764487
-0.14684844
0.17875889
-0.2868957
-0.18371701
-0.07013605
0.008360182
-0.19875869
0.10181638
0.025128609
-0.07251476
-0.26540193
0.0451895
0.0484361
-0.06677315
0.20013505
-0.0056917644
0.15630135
-0.13164885
-0.022599233
0.078451015
-0.027105805
0.04230503
0.052774534
-0.2480186
0.23696326
0.04817799
-0.096034065
-0.07587086
-0.0073226425
-0.11558691
0.074439965
0.14608864
0.30318096
-0.0012082991
0.13093533
-0.12398629
0.0074588875
0.18928999
-0.04592558
0.2037387
-0.16542932
0.052799687
-0.17117502
0.09908155
-0.12714463
0.31374988
0.176194
0.10206805
0.16882175
-0.040811364
-0.15449174
-0.015625475
-0.024691978
0.08137596
0.1195813
0.13394403
-0.032568187
-0.04291802
-0.024404738
0.17449564
0.094336145
-0.18596196
-0.02250969
-0.16410321
0.26296523
0.16502698
0.10756026
-0.09512991
0.24588703
-0.25377995
0.14433087
0.007941012
-0.18043418
0.09809583
0.03125444
0.14469354
0.1363446
0.0065535884
0.10107287
0.042477347
-0.0005472781
-0.033729576
-0.14885542
0.03869169
0.2378921
-0.11197285
0.0004675196
0.03880278
0.28270164
-0.17662074
-0.07567173
-0.15484376
-0.09009029
-0.009364111
-0.15368268
0.027781973
-0.045396525
0.17839111
-0.20504586
0.0041594105
0.067867205
0.04497515
-0.022464212
-0.05811643
-0.11669215
-0.026858244
-0.18332183
-0.04982931
-0.012845448
-0.04857543
0.15028822
0.25028667
0.10009253
-0.16208766
-0.07444329
0.1531088
-0.07490045
0.13816439
-0.06846741
-0.16417725
-0.0031082064
0.04265224
-0.07124623
0.0047393143
-0.06725745
0.16545948
0.30035883
0.05760482
-0.073117375
-0.39426574
0.033151552
0.2049168
0.12510403
-0.13631113
0.0046179346
-0.22198834
0.072075024
0.14917886
-0.29209712
-0.027028218
0.10018539
-0.022662828
-0.19120634
0.32996145
0.14484033
0.057711385
-0.010086771
0.07828248
0.055059735
0.05789581
-0.08236443
0.1548722
0.063319266
0.048385095
-0.11394926
-0.15792252
-0.013551234
-0.030884853
-0.11771607
0.04632413
-0.11286753
-0.25446382
0.03231156
0.056124493
0.01978599
0.33139408
0.24199905
-0.021833053
-0.03192921
0.007357039
-0.077880055
0.118665956
0.100933954
-0.11026938
0.037031814
0.12775205
0.056186687
-0.10382489
0.1436115
-0.08581058
-0.07112014
-0.09833896
-0.021321988
-0.08486724
-0.05371424
0.058473654
-0.035578042
0.083644
0.14218187
-0.12544058
0.104777135
0.11810576
-0.07018569
-0.087596856
0.092972636
0.11746935
-0.04269539
-0.0443838
0.04153564
-0.0077758655
-0.10393512
-0.024076575
-0.1557303
0.04297167
0.0071328473
-0.12649778
-0.06449039
-0.15962137
-0.038155086
0.08515959
0.12178387
-0.0738562
0.18950035
-0.117290094
0.07065722
-0.034023467
0.22221549
0.23919763
0.1485296
-0.04132675
-0.044141997
0.34947577
-0.2646156
-0.14661463
-0.025848584
0.11784693
-0.23530543
0.057136066
0.11767513
0.074158825
-0.009226022
-0.25302428
-0.19402522
0.120743215
0.1225347
0.12371812
-0.18628357
0.055508994
-0.044337578
-0.2380097
-0.078884
0.027092822
-0.1531052
0.12939121
-0.00074998615
-0.07262095
0.018392866
-0.06644326
0.11811636
-0.16746803
-0.2490261
-0.11219652
-0.16455254
0.23052765
-0.008169422
-0.013365844
0.07776304
-0.24780601
-0.0065339
0.090584345
0.052937135
0.0070753247
0.052851193
0.12609544
-0.079747654
0.09278761
0.07233614
-0.040107712
0.00033059204
0.14484033
0.12883347
0.039505303
0.14773306
0.105546094
0.06251416
0.031081304
-0.031626098
0.06822268
0.35683662
-0.24426164
0.00649554
0.0054623475
0.13446963
0.08096142
-0.045321353
-0.08702419
-0.046336077
0.22275281
-0.05808727
-0.08689311
-0.0036248032
0.04630085
0.077428214
-0.040293887
0.12901802
-0.08591814
0.07433352
-0.010342979
0.04545674
-0.07055766
-0.23621546
0.2642905
0.007477231
-0.11416857
0.14443375
-0.19311418
0.037304815
-0.07984553
0.156024
0.26725346
-0.23810637
0.14103183
0.020843275
-0.16459922
-0.110406496
0.057126928
0.12743512
-0.063655674
-0.0759844
0.21979484
0.026737615
-0.1494019
-0.048723135
0.012693556
0.26622206
-0.015598833
0.11863994
-0.18258095
-0.1484838
0.0861366
-0.085452795
0.02517005
-0.07474707
-0.07655279
0.010083525
0.07153417
0.16505854
0.15533042
0.065589406
0.096559875
-0.04433801
-0.14333051
-0.070886366
-0.2663255
0.012289504
0.18723764
-0.2359228
0.2024818
0.019973343
0.17315264
0.011065858
0.20881094
-0.091268785
0.17331937
0.11838199
0.09352544
-0.20146842
-0.092463665
-0.013165109
0.121568136
-0.009014668
0.04930946
0.10693679
-0.04424457
-0.11418016
-0.24386133
0.031760696
0.12841605
0.0003203473
0.12218817
-0.040403645
-0.20716581
0.011947787
-0.041826326
0.120393604
0.16486686
-0.0038257337
-0.171711
-0.045031507
-0.069516234
-0.009077802
0.0087229675
0.12528642
0.23678401
-0.0985087
-0.077602044
0.15961549
-0.13498971
-0.02801612
0.0012862922
0.091449864
0.043144844
0.2678345
-0.051886085
-0.16572782
-0.17538196
0.020572262
0.10551618
-0.25610715
0.09028636
0.18172537
0.24165593
-0.15398213
-0.11352989
0.06690833
-0.07641705
-0.14626567
-0.17502311
0.09396349
0.048111916
0.0066330237
0.039298132
-0.13273475
0.14819264
-0.022912122
0.21500222
-0.0474508
-0.058687624
-0.26818013
0.11997843
-0.10030586
-0.07001471
-0.06789197
0.22809839
-0.25903994
-0.15994014
-0.011607355
-0.05319449
-0.01028232
0.14894897
-0.09045173
0.06374592
-0.088922195
0.21218649
0.24537346
0.25191548
-0.035299025
0.08684995
0.07646686
0.09735653
-0.13227512
0.064472474
0.033037595
0.08136092
0.033683646
-0.11297783
-0.10481517
-0.13845968
0.12162013
-0.026523154
-0.22190636
-0.07794025
0.010728717
0.25587788
0.047109343
-0.03150924
0.10928991
-0.09585666
0.12424078
-0.0025387586
-0.17295289
0.07564683
-0.1255432
-0.004993794
0.031492036
0.10785401
-0.09170008
-0.102566265
-0.21579875
0.051292602
0.18032804
0.12268636
-0.041028656
0.17335224
-0.11233393
-0.09193903
-0.0007511768
0.11929088
-0.013332849
0.033398785
0.04288336
0.019035354
-0.15515606
0.29736197
0.21002679
0.04096079
-0.13333257
-0.063512266
-0.07271555
0.08815326
0.018245626
0.25102592
-0.031645305
-0.04669015
-0.17765477
0.09196497
-0.106263764
0.15817395
-0.047606625
-0.07126791
0.04671105
0.07400992
-0.18063721
-0.204686
-0.037555978
-0.04002523
0.095378585
-0.20594414
0.13365145
-0.15562975
0.03334866
-0.092360266
0.013854655
-0.20196809
0.09187008
0.062052906
-0.04724776
-0.12923716
-0.07929272
0.078130424
-0.24739178
0.014024273
-0.17752811
-0.00757827
0.03272703
-0.052565824
-0.033780944
0.065252304
-0.12750918
-0.28862992
-0.08533604
-0.23812284
0.21206754
-0.18567137
-0.01460895
0.088178694
-0.11214506
-0.08023078
-0.01010649
0.09163204
-0.014676588
-0.16490605
-0.03566799
-0.015931694
-0.10716567
-0.046972323
0.12227652
0.0202587
-0.17071943
0.0029455102
0.036671717
-0.007958144
-0.16565111
0.042275608
0.16278183
-0.044314496
0.039294474
-0.067572765
0.03845339
0.0018196137
0.108053915
-0.077510074
-0.15477262
0.22996953
0.16927838
-0.11627063
0.21842574
0.112027384
-0.060902406
-0.10871504
0.2715246
0.030980593
-0.115508854
-0.041957915
-0.12938163
-0.22517964
-0.009439819
0.022587523
0.14787744
0.07788899
0.08573908
0.020740235
0.21026525
-0.13553385
0.1661017
0.071068235
0.17526299
-0.046403855
0.08519126
-0.073271334
0.15831521
0.16631624
0.11203568
-0.20450264
0.032309357
-0.17967668
0.23523758
-0.04255726
-0.1948403
-0.11327518
-0.42357647
0.037242513
-0.17369474
0.06052443
-0.31761286
-0.10504405
0.11121322
-0.04540253
0.1735842
0.10158654
0.05116421
-0.007663989
-0.0969396
0.047600545
0.01245189
0.1197195
0.01937155
0.06461818
0.06045533
-0.07313108
-0.04705992
-0.15176594
0.2442783
0.32146302
0.07688871
0.22453304
0.04077173
-0.25385475
-0.09891569
0.037254453
-0.03931004
-0.112141624
0.123545535
0.06317981
-0.020562654
-0.053001836
-0.11464489
0.007746269
0.07065804
-0.08772099
-0.10541749
0.01596705
-0.086147256
0.11631317
0.0056614387
0.12463795
-0.0072868364
0.035691425
0.25690126
-0.28484842
-0.32991827
-0.16358165
-0.0035066651
0.20537493
0.22536172
0.0454751
0.048272543
-0.031201184
-0.034678586
0.01001494
0.02271496
0.074519664
0.010005465
-0.104247436
-0.10910967
-0.1797848
0.04827956
-0.124325775
0.19218148
-0.1364791
0.093966246
0.08308701
0.016815964
0.1589273
0.05106269
-0.06780632
0.09576016
-0.14355777
-0.10408447
-0.058038764
0.039986286
0.15916044
0.14820468
-0.13253677
0.10493289
0.10491292
0.13813084
-0.24911612
0.07424847
0.085233994
-0.06666578
0.16185123
0.053398713
0.10030039
-0.11023028
-0.11175965
-0.04307034
0.22895733
-0.122900724
-0.057415
0.0488514
0.15892753
0.05117748
0.07157175
-0.19601177
-0.09352452
-0.0075657004
0.24452701
0.06107418
-0.022325063
-0.01758475
-0.013716037
0.13317323
0.09129911
0.22913544
0.07850832
0.046352666
0.14506544
-0.20935974
-0.072718196
-0.17297664
-0.01406953
0.094078764
0.15299945
-0.31545192
-0.16823874
-0.21970046
0.12817283
0.15390879
0.06741878
0.13966098
-0.13588151
-0.1131901
-0.019489946
0.0758717
0.022573339
0.06709665
0.15132606
-0.016594209
-0.06603898
-0.034757398
-0.0010695832
0.25265786
-0.12652062
0.09228953
0.053327553
-0.16595195
0.006570075
0.009500438
0.011849174
0.005840602
-0.17644392
-0.10624157
-0.11953415
-0.099477805
-0.08542414
0.12308408
-0.11976185
-0.09039839
-0.12051216
0.08917404
0.11235284
-0.10270749
-0.16747652
-0.1598754
0.12911221
0.093281426
0.032814357
-0.0070141633
0.114621036
0.0030250936
0.13959973
0.22109291
0.04520668
0.061315887
0.023191577
0.076762594
0.09520381
-0.17158753
-0.049836125
-0.058784794
0.06214339
0.062230468
0.033612676
-0.12279254
-0.02688944
-0.010658778
-0.1542377
-0.07002662
-0.2669524
-0.037953608
-0.16465786
0.004707888
-0.1387114
-0.09383348
0.0030421442
-0.18245669
-0.23152415
-0.041068427
-0.071957715
0.13863583
-0.22524855
0.02522107
-0.034493316
-0.20107628
-0.010947637
0.046057597
-0.115535446
0.021652875
0.060981125
-0.054406337
0.15322743
-0.03248885
-0.14054413
-0.05306927
-0.08922865
0.025130954
0.081624076
0.14642115
0.14301413
-0.07170776
-0.071332596
0.21312879
-0.03441708
0.035474088
-0.19147857
-0.008255311
-0.1632382
0.058810145
-0.067823365
-0.2952796
0.23934697
-0.27417794
-0.0046744524
0.03225226
0.15668765
-0.048900064
-0.108829424
0.026925834
-0.12264653
0.10258165
0.05560139
0.21095198
-0.13956964
-0.009117632
0.11119111
0.09321682
0.15855004
-0.12737955
-0.047295105
-0.020921357
-0.16911215
0.297848
-0.07906006
-0.15257512
0.06411182
0.015344496
-0.116391435
-0.10820011
0.119678274
-0.025154553
0.03206609
-0.052301936
0.043342974
-0.055246457
0.09036427
-0.21728663
-0.11259164
-0.1545223
-0.03969715
0.19012207
-0.2543067
0.17060806
-0.08091806
0.07636408
-0.28276777
0.011752887
-0.18600719
0.09072089
-0.09128451
-0.12384958
-0.09566742
0.017740622
-0.03218865
-0.124170706
0.31842208
-0.11847438
-0.07327106
0.012084798
-0.062821776
0.23101906
0.045932494
0.047694456
-0.23172806
0.25704777
0.21803309
0.01066259
0.12564237
-0.021779943
-0.00045386096
-0.2047194
-0.12909354
0.10656054
-0.035836365
-0.10563291
0.09599725
-0.23536971
-0.0690313
0.06066901
0.035586763
-0.19023877
0.007366379
0.13139215
0.01858937
-0.10905862
-0.17949235
-0.3435729
-0.003025835
-0.059058838
0.1269325
-0.25642195
0.04223028
0.16776553
-0.1513092
-0.085995756
-0.14479397
-0.065745465
-0.001958545
-0.13960184
0.19142517
-0.057964977
0.041884925
0.14813387
-0.16400832
0.1667075
-0.09564699
0.117269345
-0.03914548
-0.07100242
0.06271248
0.006138645
0.015136725
-0.13288453
0.0825817
-0.099684976
0.00938564
0.20279264
0.012848127
-0.17990346
-0.10443411
0.055118624
-0.0340112
-0.12927441
-0.0040348773
0.053944934
0.037239313
-0.06732012
-0.16511475
-0.0698561
-0.022897672
-0.12452904
0.048674457
0.27962252
0.091404796
0.18006906
-0.08700018
0.14432327
0.03478322
-0.028503722
0.039234202
-0.08613988
-0.117477454
0.18019088
0.3578895
0.02771812
-0.031958997
-0.25304794
0.043890458
-0.2344499
-0.15931809
0.17261948
-0.10252959
-0.099270664
-0.18820363
-0.051614296
-0.012135226
0.01009258
0.115692705
0.04539199
0.030271364
0.01715537
0.02010757
-0.20340692
-0.07521065
-0.09968784
-0.0009598065
0.15334302
-0.106853016
-0.008306693
-0.047611706
0.12966375
0.10897223
0.03107098
-0.062368777
0.0945452
-0.044733558
-0.10598497
-0.036739074
0.040393144
0.15633361
0.120459855
0.08352117
-0.38970357
-0.033223752
0.0767419
-0.19516163
0.07458067
-0.120389484
-0.1335449
0.05485302
-0.047396205
0.07806201
0.046760555
-0.22149824
0.112135924
0.013883644
-0.02568685
0.09407617
-0.061233092
-0.10868714
-0.162061
-0.09359111
0.009292235
0.15326631
-0.045989707
-0.0006168039
-0.056507178
0.087931655
0.24327795
0.11146656
-0.001624927
0.06662561
0.0742131
-0.19610533
-0.08802435
-0.0075829574
-0.07151066
0.04618348
0.17832713
-0.10773857
-0.08631372
-0.03061262
0.09244485
-0.037549626
-0.23834662
-0.15629436
0.15892042
0.08674359
0.16651152
0.00861901
-0.07348522
0.024495196
0.1288336
0.11280531
0.063246794
-0.19738829
-0.25677764
-0.105860054
0.037969213
0.024307843
0.23658532
0.09850781
0.07747161
0.08005187
-0.088648014
-0.19495301
-0.0004522085
-0.09044963
0.052729648
0.10230357
-0.035626788
-0.026930466
0.07761409
-0.017740494
0.041595362
-0.06481303
0.029637031
0.010759491
-0.012901365
-0.029947175
4.4153992e-05
-0.21968193
-0.23123075
-0.13613072
0.15683131
0.00983464
-0.07100371
0.15228468
0.16582422
0.03739778
-0.10648046
0.22233203
-0.17745191
-0.046401713
-0.18229343
-0.04848348
0.12803699
0.06818722
0.17774154
0.08672364
0.17552052
0.049188707
-0.1114643
0.020711424
0.07505637
0.17455135
0.15143012
-0.09331159
-0.0016082154
-0.031535733
-0.1985358
-0.15119907
0.033682674
0.062203623
0.0457004
0.08001807
-0.10686758
0.089787535
-0.07076822
-0.007092412
-0.030443698
-0.06712862
0.23572144
-0.054967955
-0.13464022
-0.25869316
-0.17034002
0.102573074
0.11423273
0.13494016
-0.11180132
0.12054552
0.15401518
-0.118427254
-0.05266138
-0.09205989
0.12694141
-0.04956987
0.0320345
-0.25213742
-0.11870737
-0.051717654
-0.038325045
-0.035967946
0.1379977
0.039358318
0.11634462
-0.13260701
-0.027670095
-0.012096814
0.13611417
0.044935483
0.044425275
-0.016410349
0.11478734
0.17083406
-0.05430582
-0.20024633
-0.15478893
-0.012257728
0.13079214
-0.122896224
0.109959245
0.016423585
0.058139496
0.034216687
-0.20925233
-0.08562466
0.096757576
0.008074292
0.18010339
-0.043496773
0.09115911
-0.054242183
0.039658617
0.1495881
0.15519094
0.21065737
-0.023721812
-0.2101479
-0.062860884
-0.08414108
0.036189977
-0.2199557
0.13224345
-0.031819236
0.022715993
-0.0067691095
0.004185936
0.075453766
0.0879232
0.17441174
0.13510972
0.118328094
-0.09946575
-0.05842577
0.12384532
-0.08530386
-0.12169826
-0.123698995
-0.040138256
-0.0051005227
-0.11550307
-0.039770212
0.01460025
-0.0129271485
-0.07000578
-0.10983888
-0.032377888
0.056735374
0.041639023
-0.10129634
-0.035789844
-0.11559251
0.12254931
-0.015440642
-0.06464065
0.07382549
-0.15064909
0.23260581
0.070880055
-0.047272414
-0.05726193
0.1305554
-0.16905537
0.01158202
-0.011448388
0.03328405
-0.17245774
0.21016452
0.032842193
-0.1805243
-0.072143786
-0.020735271
0.09099003
0.148112
-0.0014611218
-0.058206532
0.0747843
-0.025165323
0.019470466
0.046216656
0.078625694
-0.23054227
0.06366921
0.0017677152
0.14118548
0.046134606
0.111948505
-0.050169993
0.07684514
0.057210203
0.04598973
-0.09750131
-0.057922687
-0.14919238
0.10194352
-0.10589209
0.14703456
0.054293964
-0.108843476
0.059833735
0.13805492
0.28893915
0.008287049
-0.15853083
0.04778752
-0.1938362
-0.11007576
-0.049235985
-0.043929704
0.15835491
0.2595746
-0.050810695
-0.094285406
-0.06549127
-0.0014919996
-0.015642826
0.07800606
0.19814906
-0.15486565
-0.012187689
0.08237282
0.15390696
0.13953592
0.15840517
-0.14138809
0.25918674
-0.077896826
0.045529597
-0.010591389
-0.09889653
0.008979121
-0.059646744
0.1695837
0.13036695
0.15480429
0.08257324
0.09795624
0.114357024
0.10585756
-0.10641527
-0.00505649
0.031532608
0.21854736
0.082884684
-0.103752166
-0.055111147
-0.11979913
-0.04230983
0.14482036
0.13434666
-0.0905287
0.011474635
0.0027967298
0.1569391
-0.18587823
-0.115144856
-0.12823065
-0.047601815
0.08011654
-0.10491225
-0.123175874
-0.034858286
-0.016264351
-0.04372402
-0.039290287
0.13450195
0.015382003
0.13077691
0.035668083
-0.20679864
0.04656372
0.0044848537
-0.1167527
-0.21579844
-0.12646425
-0.1928423
0.2810244
0.025934562
0.13319299
0.0150237745
0.08791177
-0.20657025
0.12381902
-0.055683203
-0.0024311335
-0.08757192
-0.07161853
0.038557034
0.031778295
-0.08562656
-0.04042934
0.11810905
-0.14532454
0.16975932
0.025450313
0.24144955
-0.05258111
-0.12749717
0.12639588
0.10240158
-0.08034434
-0.11913034
0.12512945
-0.26386306
0.12721989
-0.16939126
0.103874475
-0.09489272
0.011713772
0.020941952
-0.08577555
0.06497909
-0.25399044
0.021140601
-0.05234708
-0.052840993
0.051404808
0.07070688
0.22766194
0.093000434
-0.07293636
-0.11357569
-0.035964135
0.0327102
0.065091
0.07493591
-0.12974346
-0.014281419
-0.008341136
0.047469508
-0.12088678
-0.18119647
0.03775371
0.22089715
-0.11402901
0.06299953
-0.102711074
0.25413233
-0.20749594
0.027800635
-0.17573597
-0.24339491
0.043616366
-0.33852673
0.029188465
0.00906501
0.049119283
-0.15867692
0.15695803
0.0026167335
-0.26509058
0.05329027
0.035172842
0.09357695
0.06967884
0.24968188
0.11186177
-0.09743322
0.19517007
-0.017427808
-0.07256847
0.03429987
0.04464399
-0.056809768
-0.15619165
-0.02268911
-0.057437938
0.11330606
-0.016895777
-0.06689493
0.07763304
-0.15291582
0.016506324
0.108409636
0.037490413
-0.02316877
-0.043248698
0.19815762
0.015612436
0.18227705
-0.028286371
-0.07940975
-0.23915471
0.039847452
-0.21300597
0.16296475
-0.07777267
0.12591971
0.17868371
0.10502974
-0.16606195
-0.21691358
-0.014626609
0.039199997
-0.08517056
-0.051783457
0.12795836
-0.022601832
0.3664281
-0.020493368
-0.09892918
0.03261105
0.11868026
-0.16228665
0.30303618
-0.029321214
-0.18829496
0.121884406
0.25838834
-0.1641009
0.0431802
-0.0026632797
0.04554112
-0.033961236
-0.013168591
-0.0056861807
0.07116137
0.06592496
0.09050525
-0.22476274
-0.032465007
-0.014397059
-0.04892175
-0.04278975
0.012447978
-0.25048715
-0.006681669
0.075563625
0.030788215
0.12074572
0.02175785
0.004599499
0.17132458
-0.03764674
-0.095056206
-0.11359944
-0.12905838
0.119107075
-0.042768896
0.07275748
0.038966216
-0.012508783
-0.1560338
-0.08221601
0.042613503
-0.24138463
0.074025
0.109271124
-0.064677484
-0.17334813
-0.052986626
0.20531005
0.09786542
0.1368775
0.090446524
0.29209864
-0.17392926
-0.051110625
0.22391431
0.16369121
-0.05444038
0.036044043
0.120876245
-0.18338342
0.2279191
-0.17466702
0.1078473
-0.16741809
-0.03591136
-0.08574371
-0.1457018
0.015124133
-0.1992765
-0.14005439
-0.073392086
0.06610796
-0.15012684
-0.12896466
-0.0038089408
0.16477121
-0.08027244
-0.22023705
-0.17929082
0.038941953
0.05409097
0.04430895
0.05398236
-0.13301365
-0.12403454
0.0118211815
0.09262737
0.009951589
0.09137964
-0.13366213
-0.35648808
-0.007209682
0.13647145
-0.026263868
-0.016895946
0.18896334
0.052840304
0.04859633
0.0007933834
0.017850194
-0.26559114
-0.007136201
0.009320816
-0.043163758
0.154868
0.15259945
-0.04898206
0.07337246
0.42898527
0.09534775
-0.0047630197
0.010137069
0.13744989
0.027437305
0.19950326
0.15825161
0.019340243
-0.16189595
0.0018407914
0.11766012
0.01574087
0.040393915
-0.051954523
-0.007405675
0.03797453
-0.10558975
0.1452342
-0.21723469
0.25048614
-0.07148132
-0.068436585
-0.029553128
0.04972261
-0.066205435
0.034413822
0.2219655
0.3790912
-0.10885795
-0.24589115
0.044529974
0.021641068
0.10532745
0.031382143
0.050080918
0.031173134
-0.17760877
-0.009002864
0.025054883
0.091552
-0.042945825
0.027883826
0.05800108
-0.10135824
-0.116361625
-0.18781272
-0.10305719
-0.13743964
-0.056010697
0.027262636
0.07711359
0.10809199
-0.14153446
0.032547485
0.10613015
0.25627804
-0.09192116
0.087667786
0.0155848805
-0.034611564
-0.04950304
0.1050724
-0.017086064
0.010369027
0.007860494
-0.035998773
-0.06296253
-0.13677242
-0.055458136
0.12646173
0.14442687
0.0033113575
0.06348832
0.15398946
0.121483795
0.021429613
-0.0844294
-0.04998536
-0.2464805
0.24877706
0.119342
0.26736534
0.12753114
-0.06707309
0.032972075
0.008959631
-0.10405174
-0.04000819
-0.0553415
0.014134007
0.029071204
0.02596346
0.017752664
-0.1288945
0.2028693
-0.1320744
-0.18248901
0.108018674
-0.17204788
-0.043367993
-0.034482062
-0.05942509
0.09307847
0.17506921
-0.023528604
0.08019416
0.083099544
-0.08288569
-0.023544537
0.12884785
0.040683825
-0.017312199
0.07083157
0.08494474
-0.13973455
0.16981888
-0.09484068
-0.020557653
0.01358456
-0.099857464
0.07896673
-0.005932133
0.068717495
0.17572188
-0.1620815
-0.071025066
0.00891462
-0.012388157
0.07034841
0.12465933
-0.1342071
0.038750887
-0.15637763
0.068152875
-0.036055826
-0.11404237
-0.07190984
-0.031136295
-0.08536764
-0.229743
-0.12825282
-0.015916934
-0.13922577
-0.010661455
0.0621114
0.12198092
-0.2139674
0.093354754
0.08376001
0.021815805
-0.13788092
0.049089707
-0.0036262926
0.07671513
0.22213463
0.09414096
-0.24368721
-0.04426413
0.15923919
-0.16748579
0.00947138
-0.1387718
0.19237307
0.08001893
0.005826557
-0.13498019
-0.11319814
-0.08083571
0.12196065
-0.14580655
-0.12787391
-0.016468681
0.06480076
-0.17351305
-0.020801762
0.2046228
0.048459977
0.1132477
0.0730455
0.010896701
-0.1439144
-0.2530849
0.071225785
-0.048540417
0.18655485
-0.058718212
0.0776263
0.056534223
-0.035342988
0.20348418
-0.023072414
-0.021354973
0.037712112
-0.09729214
0.24294259
-0.120048404
0.07633608
-0.1300254
-0.063998826
0.14118741
0.18658888
-0.007220716
-0.027912572
0.059105527
0.05888192
-0.17420769
-0.2517633
-0.24815899
-0.23903954
0.10509621
-0.21964881
-0.15158844
0.14250512
-0.06455599
-0.08676006
-0.019748649
-0.0844853
0.07435815
0.088225506
0.15787445
-0.100252286
-0.10637075
-0.1126391
0.013989967
-0.059529446
-0.024819328
-0.28316495
-0.029697306
-0.086770184
0.15263799
-0.1427675
-0.17440127
-0.03930234
0.11614672
0.28029585
-0.048178345
-0.1419557
0.011181461
0.051866848
-0.026132278
0.08467486
0.0039757276
0.057379324
-0.111127175
-0.17720361
0.23093379
0.015249871
0.20819066
-0.052734155
0.13826749
-0.008106439
0.16463888
-0.08999566
-0.12339498
0.11920238
-0.011169064
-0.11364777
-0.14556949
-0.019995945
0.15654671
0.14352177
0.046189327
0.034843355
0.0103253275
-0.22461858
-0.13029933
0.02064092
-0.19170897
-0.057230733
-0.3202962
0.00540893
-0.18682654
0.0019673342
-0.16643679
-0.0134201255
0.070520714
0.018765708
0.13108124
-0.07336404
-0.038225878
0.090880126
-0.024800593
0.13174732
0.014681299
-0.007876547
0.08482096
-0.032126926
-0.18008836
0.0011684356
-0.09183583
-0.06754794
0.060649734
0.1254235
0.23055534
0.19316526
-0.21887073
-0.03958111
-0.05388553
-0.15086655
0.07924759
-0.14414561
0.19890524
0.040707514
0.118144296
0.17926945
-0.14776035
-0.2642033
0.028710082
-0.120382726
0.02349147
-0.12909092
-0.23931682
-0.013383501
-0.024025952
-0.06962301
0.12310927
-0.05234088
-0.021648802
0.048773844
0.007055579
0.21034889
0.043329705
0.025551349
0.12162736
0.08855492
0.16578372
-0.12569293
-0.10036359
-0.018019602
0.20643027
0.123930246
0.012031853
-0.18079302
0.052049115
0.028850246
0.09272485
0.1852885
-0.03653121
-0.25826657
0.10745231
-0.03364071
0.051417466
0.24203485
0.1332397
0.15742569
-0.071378075
-0.0061042807
-0.026612127
0.0031350323
0.21106604
0.18817948
-0.1637789
0.011184798
-0.106074505
0.06936937
-0.031823743
0.07759383
-0.12052151
0.05540442
0.13347319
-0.036379512
-0.14373963
-0.08920675
-0.18864067
0.1482475
0.0984242
0.20605588
-0.14682679
0.07776703
0.028854962
0.3153232
0.021993963
-0.057686493
0.20539054
0.14912392
0.09281441
0.07945938
-0.1817583
-0.08633457
0.19553858
0.093681484
-0.100389935
-0.28901684
0.06126955
0.31961206
0.041493192
-0.041161273
0.15235983
0.14852436
0.26762876
0.16467121
-0.024228087
0.044162136
-0.22157513
-0.021645205
-0.17273171
-0.4185324
0.13967074
0.014445903
0.16068068
-0.048525866
-0.13529216
-0.022913575
0.028657885
-0.12457145
-0.20722468
0.12546645
-0.1998345
0.20787254
0.06702442
-0.08148254
0.18034814
-0.15262765
-0.001634966
0.036338106
0.3166077
0.16036749
-0.122682475
-0.40362382
-0.22437328
-0.04298566
0.07071678
-0.04562442
-0.002786174
0.04449814
-0.002789897
-0.0027322795
0.011193019
-0.12156094
-0.0007939903
0.02961907
0.1316525
0.055608816
0.17308056
-0.15101592
-0.058770984
0.067604475
0.0554044
0.08001664
-0.09275822
-0.13980241
-0.111521006
-0.04549385
0.19857019
-0.031027673
0.1403149
0.056839246
0.038687818
0.025093226
0.036632933
-0.053541042
-0.04033392
-0.11554692
0.013207879
0.052635834
-0.11718457
0.15024333
0.073677376
0.13149044
0.024415717
0.08983436
-0.08442248
-0.06532923
0.13867177
-0.10721824
-0.2524948
-0.029914496
-0.058105603
0.04367718
0.090477385
0.16602081
0.057241358
-0.055552546
0.17910539
-0.023223594
0.091854185
-0.23328021
0.31283453
0.068328045
-0.14886323
-0.026373291
0.16494755
0.17612426
-0.29239914
0.14075688
0.16292286
-0.013599991
0.116828516
0.07661961
-0.12053863
0.06984289
0.20968594
-0.043205965
0.08179011
-0.12953554
0.089559905
0.11714573
-0.010714047
-0.12393091
0.013225422
0.0629408
0.085490316
0.0489153
0.028925488
-0.07348909
-0.057927314
0.07954693
-0.058744915
-0.1314246
0.29821086
0.1710484
-0.003949209
0.14590284
0.012697174
-0.038710285
-0.08130899
-0.0004182287
0.100854516
-0.052071784
-0.1683489
-0.07567124
0.11024301
-0.12433603
0.11559846
0.20947234
0.0002121082
0.11571836
-0.06539059
-0.012244529
-0.050215293
0.06296982
-0.033362266
-0.12777643
-0.03675265
0.2061326
-0.21276578
0.27121833
-0.06880808
0.15558751
-0.09343871
-0.1703279
-0.02172971
0.23496002
0.024833765
-0.052817248
-0.051409774
0.076104894
0.0109138815
-0.0925204
-0.04894409
-0.0106948335
-0.056835975
0.15878482
-0.022385001
-0.16481026
-0.013587749
-0.039019946
-0.053033818
-0.2213422
-0.14008728
0.010936754
0.114129975
-0.0059082885
0.10638623
-0.25911367
-0.10619465
-0.013424408
-0.004427475
-0.0039932816
-0.19212532
0.17911565
-0.047226645
-0.09478413
-0.09500946
0.1368609
0.08944106
-0.06872694
0.21256721
-0.024587568
-0.020231916
0.030303232
-0.14849818
0.14581306
0.10579016
0.010302808
0.11973086
0.11555718
0.14605623
-0.01295507
0.034605525
0.097630605
0.1356286
-0.048215225
-0.22446515
-0.18934521
0.17298394
-0.1673114
-0.22633158
0.133253
0.19548288
-0.046575524
0.02728736
-0.015893405
-0.24828334
0.031909343
0.04923186
-0.04181118
-0.044474185
0.023403008
0.007659567
0.08855904
-0.08933281
0.022434145
0.044142034
-0.15069208
0.046939634
-0.015699968
-0.23700327
-0.094431356
-0.10361469
-0.13214988
0.14714736
0.064852685
-0.24113305
-0.08592523
-0.054232992
0.073565364
0.13067639
-0.20148587
0.048657257
-0.008071987
-0.062967576
0.053289723
0.16989239
-0.1264531
-0.029367873
0.14855537
0.0046516825
0.087295204
0.23141162
-0.14740545
0.13870907
-0.03868295
0.07596232
0.08703307
0.06649695
-0.0027820987
-0.03115647
0.13554119
-0.13356705
0.11228554
-0.2551157
-0.008031819
-0.23267047
-0.18103203
-0.016183145
0.038972363
-0.10150328
-0.19282258
-0.08555566
0.063748725
0.16298965
0.026591089
-0.0035407373
0.29376313
0.06650944
-0.12097054
0.12629874
-0.0944162
-0.054611117
0.006591077
0.1839411
0.12288498
0.11825279
0.084641375
-0.2113204
-0.2798298
0.051294107
0.06465638
0.18922172
-0.16420615
0.07571196
0.15265933
-0.2813024
-0.17431527
-0.016596328
0.046888016
-0.068755805
0.055861313
-0.047709323
0.26669922
-0.1936008
-0.16622528
0.10082424
0.015643897
-0.0047349827
-0.109155625
-0.12170588
0.022945132
-0.14750285
0.0062663187
0.089166015
0.055210557
-0.15389293
0.31500265
-0.16162054
0.017018246
0.10319591
-0.084577985
-0.05716418
-0.03820406
0.07919311
0.00561187
0.124482796
0.02718403
-0.20952015
0.050669737
0.024130147
-0.026723633
-0.06644327
-0.093544506
0.014220456
0.017911008
-0.04072938
-0.108676106
0.11649738
-0.042301152
-0.024789862
0.11529434
-0.06630669
-0.0064558755
0.377925
0.0008521093
0.11330801
0.12963425
-0.07443218
0.08794862
0.036672868
-0.08972903
0.006255877
0.0997568
-0.20815521
-0.17552027
-0.08300557
-0.09834547
0.022540579
-0.03239886
-0.09740659
-0.13472837
0.06390424
-0.3862918
0.1309966
-0.0042561535
0.024764752
-0.14364642
0.07166532
-0.059460137
0.12948874
-0.21683437
-0.085489586
0.18875563
-0.16443169
0.030333435
0.121688314
0.13884056
0.25297606
-0.23741072
-0.09144851
0.035309743
0.0044991802
-0.04783438
-0.004511032
0.01833561
0.034401402
-0.0761166
0.25208235
-0.17508928
-0.07608309
0.011022251
0.04616648
-0.18012708
0.118422076
0.049952958
-0.11797163
-0.19325359
-0.033581056
-0.011471123
-0.062254447
0.10283039
0.15539698
0.081454284
-0.12175969
0.082280286
0.1840228
0.20179373
-0.20167063
0.025773428
0.029768078
0.039059196
0.24537688
0.048530165
0.031550854
-0.049158953
0.20585434
0.29296792
0.013339051
0.13491791
0.25268126
-0.040402092
-0.04309002
0.09905959
0.17471854
0.09596738
0.048850525
-0.16860019
0.06783212
0.0051034563
-0.03572416
0.14613011
-0.10350433
-0.103547305
-0.017637912
-0.061358854
-0.25482032
0.110267036
-0.03701436
0.062936895
-0.16927576
0.18740697
-0.049547467
0.07656542
0.0082661025
-0.038822297
-0.09693047
0.029134167
0.21462506
-0.07448812
0.03474299
0.23568735
-0.2123374
-0.14649649
0.23094545
0.051153395
0.017380001
0.08679971
-0.16627233
-0.16898836
-0.1289145
0.071552105
-0.061817218
0.04026357
-0.021419337
0.0018122416
-0.04892106
-0.014335947
0.090624526
0.36624497
0.028445147
0.021246267
-0.048603144
0.19298251
-0.07655357
-0.0048649013
-0.23540486
0.066659935
-0.18761146
-0.021144424
-0.0718822
0.025207007
0.112814955
-0.12621471
-0.34334895
0.025375362
-0.023988627
-0.06016761
-0.04550602
0.09333278
-0.052237343
-0.08024099
-0.23837946
-0.025940021
-0.2361496
-0.2917107
0.10067003
-0.050964393
-0.010188862
-0.088853635
0.040917527
0.039184682
0.012529497
-0.022456966
0.0350966
-0.10010533
0.102043286
0.017464915
-0.19399108
-0.022181712
-0.07523576
0.06809371
-0.1312178
0.04716826
-0.05095233
-0.09090551
-0.004974069
0.055776976
-0.0035265714
-0.24738818
-0.13881898
0.17077777
0.21238138
0.036171384
0.081120886
0.15078412
0.021933075
-0.03836722
-0.118400164
0.2116126
0.2345851
-0.12894921
-0.055148534
-0.2325572
-0.048459865
-0.16085295
-0.049849637
0.0015624701
-0.008491309
0.17666644
0.052225202
-0.12598297
0.008931114
-0.31715134
0.044213418
0.20420934
0.020051932
-0.0066092387
-0.07974292
0.07144566
-0.05340668
0.0496364
0.23064153
0.08731152
0.115025476
-0.0064427224
-0.016198723
0.15737087
-0.0019163745
0.096070886
0.0721335
-0.018024119
-0.012592168
0.0731988
-0.15599447
-0.1571332
0.036182106
-0.108028844
0.064649686
0.06982874
-0.21891469
0.16008314
0.080119625
-0.16956368
-0.1002206
-0.17472605
-0.01933331
0.025902985
-0.16802275
-0.09159938
0.30838656
-0.03149561
0.00092107663
-0.19287403
-0.10037852
0.07795841
0.093991384
0.17665504
-0.12835687
0.18372987
0.038457464
-0.025438176
-0.36229616
0.17801505
-0.10913749
0.23100437
-0.22489963
-0.0146265365
-0.016091706
-0.040590823
-0.08002412
0.034293063
0.15430735
-0.09596374
-0.03166769
-0.015929488
0.09260647
-0.017854888
-0.108521536
-0.2236918
0.13851763
-0.17232834
-0.13172384
-0.07441586
0.04126501
-0.2876894
0.069128655
0.14973286
0.09640466
0.040785722
-0.18102978
-0.08896784
0.0766711
0.009942604
0.12339516
-0.16780291
0.036882065
-0.051323995
0.3548716
0.23032649
0.21341044
0.034291815
0.047102913
0.110448934
0.15202686
0.046853222
0.15014392
-0.05517577
-0.19677977
0.18242677
0.06303576
0.11446847
-0.0123806065
-0.1196731
-0.17740703
0.12754336
-0.07241775
0.10104259
-0.101475716
0.26576984
-0.020290982
0.13062781
-0.16752443
0.12885186
-0.036407575
0.041894298
-0.20711562
-0.08428328
0.08591549
0.086778365
-0.18111034
-0.12519315
-0.24655369
-0.054198917
-0.26193646
-0.13974127
0.05472583
-0.0297371
0.005143251
0.049004387
-0.34552073
-0.090573005
0.036757637
-0.062245507
0.18033592
-0.093278155
0.22976692
0.08276024
0.20088325
0.11852151
-0.0723091
-0.10450098
-0.044256102
-0.027784139
-0.11465396
-0.22417708
-0.11749311
0.031389255
-0.16451459
0.03073642
-0.19486289
-0.002493416
0.11976516
-0.12081528
-0.38783428
0.12896648
0.09315644
0.08339485
0.1859266
-0.081843704
-0.00912404
0.13949783
0.041335333
0.116613716
0.07388645
-0.035594404
-0.17615552
-0.17020915
-0.17643042
-0.009777486
0.01042796
0.15273121
-0.030005358
-0.015374141
-0.107140444
0.0515584
0.12747109
-0.044833396
0.10260873
0.0013465466
0.047900934
0.13982712
-0.020420123
0.027918465
0.09031362
-0.048173353
0.08008332
-0.0272462
-0.18962906
-0.21791747
0.0356836
-0.097640984
-0.09349958
0.17569104
0.025713077
0.02860535
0.046635263
0.082205735
-0.10967417
0.020418832
-0.07991715
0.17193998
-0.027658125
0.03831895
-0.048030954
0.19891334
-0.15600817
0.17174438
0.09797215
0.01473427
0.06261597
-0.20748872
-0.078536466
0.19461411
-0.028748352
0.1339855
0.1649573
-0.1647263
0.07399666
-0.14009202
-0.019078242
-0.015873516
-0.19388494
0.11497314
-0.32701257
-0.058053687
-0.101135135
-0.043987773
0.037583902
-0.2034908
0.065956295
0.043511968
0.0074273413
0.05776769
-0.029788144
0.058583397
0.060276646
0.19057505
0.16060038
-0.053020623
-0.15599732
-0.064310394
0.0683043
0.025240293
-0.18354133
0.0153633645
0.27074692
0.052877873
0.13594767
0.005948888
0.2661298
-0.083810724
0.004756133
0.20825094
0.09046899
0.016510611
-0.08597537
0.09790732
-0.16323718
-0.16670056
0.025980221
-0.05798569
0.06399224
-0.13388933
-0.000607951
-0.10405423
-0.14361513
0.15459172
0.0010536491
0.03435489
-0.27218774
0.018188812
0.06906947
-0.0026913022
0.3837958
0.08856432
-0.012475058
-0.039534733
0.057433993
-0.11387259
0.071671724
-0.01763437
-0.07793993
-0.19770649
0.07898353
0.13854183
-0.24811111
-0.004671669
-0.07748179
0.09314349
0.027323822
0.2232532
0.07049747
-0.02200875
-0.03728288
-0.06714887
-0.046007738
0.06251353
0.036796644
0.17510936
0.19332951
-0.007665631
0.09785383
0.011712209
0.05315505
-0.006991677
0.02425713
0.15667346
0.14028601
-0.21100575
-0.10625589
0.1567816
0.12389229
-0.08081574
-0.060355093
0.072661646
-0.071265176
0.06884963
-0.066909775
-0.06829773
0.029234646
-0.19409853
0.0035550676
0.21957357
-0.08245927
-0.09806661
0.032548357
0.0035897563
0.008345944
0.12746
-0.14568052
-0.08628826
0.0076103862
-0.15330704
-0.09436616
0.12858152
0.16123143
0.06562048
0.15242521
-0.10000596
-0.030934488
-0.06413253
0.094791524
0.052890886
0.13000144
0.027446562
-0.35516462
-0.014598295
-0.030718641
0.07686199
0.12085387
-0.1855056
-0.08834619
0.1441069
-0.15905596
0.09898667
0.11430092
0.1963948
-0.101981536
0.1278724
-0.04075758
-0.16938986
-0.088535324
-0.15498328
0.025774019
0.0018655834
0.022600073
-0.11617914
0.06684431
0.11970038
-0.013507588
-0.07995677
-0.20463747
-0.11465267
-0.06584603
0.040024437
-0.2955462
-0.08838386
-0.036054723
0.01958322
0.11865111
0.16150226
-0.11574562
0.105075076
0.07666403
0.20510913
-0.007776907
0.18307741
0.14219251
-0.09622964
0.25797468
-0.1454243
0.08605762
-0.08597495
-0.07095129
0.058494795
-0.16758499
-0.17099524
-0.18581143
-0.1674212
0.014804786
0.08633329
0.25095442
0.13358596
-0.20452544
0.038223248
0.12415535
-0.004743383
-0.11097235
0.02275366
-0.056933954
0.05864019
0.025372393
-0.067607194
0.092686996
-0.05037751
-0.12084495
-0.0007071302
-0.16029188
-0.13644183
0.037843637
-0.17287377
0.26313347
-0.007670322
-0.12842631
0.0020907328
-0.073007
0.0048195613
-0.081487514
0.025450213
-0.118229255
-0.06516007
-0.18300919
0.07275728
-0.13882138
0.04646739
0.06681978
0.056669973
0.035346255
-0.1202205
0.0817294
0.15053546
-0.06525341
-0.0306818
0.0959121
0.3518307
-0.011506552
-0.16203474
-0.010010698
0.08282685
-0.018092956
-0.073668994
-0.1393573
-0.00049451285
0.11720501
0.048551273
0.032077737
-0.0028004916
-0.097386345
0.2410496
0.012014244
0.009446609
-0.079191625
-0.056897372
-0.014512378
-0.111888416
0.09106647
0.10930759
0.055526324
0.11958584
0.16559108
0.23943476
-0.002513722
0.04474996
0.18302488
0.11815446
0.0002594989
-0.032364637
-0.006389116
0.047513302
-0.15722947
0.03451257
-0.020590901
-0.20342864
-0.046865474
0.011224205
0.08549507
-0.19052707
-0.03562
-0.1320057
0.13761888
-0.010014128
0.06087984
-0.04151044
0.17666188
-0.21078733
0.15334848
0.26243636
-0.14453141
0.11974833
0.015384399
-0.08030455
0.018669844
0.22817093
-0.03727392
-0.04594405
0.01902282
-0.14336987
0.0733982
-0.04084523
-0.18898483
-0.1391586
0.10831572
0.17171521
-0.16466334
0.15215543
0.06896783
-0.009291759
-0.025303228
-0.024742562
0.033329647
-0.10759319
0.037498053
-0.20665996
-0.077448875
0.14994976
0.1448273
0.28266266
-0.054303214
0.042531863
-0.050587885
0.07238981
0.04203567
0.16960654
-0.0586488
0.16586699
-0.16311723
0.1613448
-0.021927359
-0.047107663
0.21885645
0.038555898
0.05159637
-0.17278375
0.017998975
-0.100426346
0.037423063
0.106399685
-0.05984553
-0.16005908
0.00035562986
0.094122015
0.19035551
0.10200516
-0.0017168401
-0.03755565
0.08538783
0.012775878
-0.10256306
0.048315305
0.21478938
0.07599427
0.046682913
-0.18443014
-0.001207542
-0.13619706
-0.038404346
0.19097783
0.15361303
-0.17747436
0.17515565
0.018995745
0.039595194
0.09543429
-0.029491534
0.018668335
-0.11453889
-0.088199764
-0.039549217
-0.03986863
0.008182954
0.118986785
0.09091082
-0.16492115
0.0018440263
-0.042757157
0.07625533
0.14816536
0.1403986
0.25845084
0.12674779
0.09675668
-0.07881299
0.016338743
0.14502451
-0.19459388
0.08897592
-0.17254165
0.022815747
-0.019851968
-0.05604837
0.03612443
0.10514644
-0.11494202
0.040242825
-0.14974599
-0.18049255
0.16682383
-0.12786214
-0.046789013
-0.007955854
0.09907365
0.09068404
-0.12433514
-0.03873359
-0.12774195
-0.03665892
-0.014403337
0.079790235
0.20156664
-0.028981589
-0.14556253
0.19527487
0.3175135
0.16622077
0.11784776
0.16490689
-0.03123804
-0.013137657
-0.14654657
-0.02722127
-0.03009891
-0.048863426
-0.040335305
-0.09876004
-0.2200977
-0.0013750317
-0.17311357
0.16674177
-0.06897711
0.005074852
0.12073458
-0.046491064
-0.0039976244
-0.018035928
0.047080256
-0.17432538
0.10972239
-0.1707061
0.04427772
-0.084644035
0.2577143
-0.113570444
0.005219416
0.05069919
0.09031681
0.038369317
0.0007706099
0.15775877
-0.1013478
0.029212585
0.08350032
-0.050325338
0.16361699
0.03115633
0.078814
-0.07239759
0.01548278
-0.061306987
-0.025446894
0.22818647
-0.21619168
0.022117637
-0.112221576
0.08926963
0.00037893467
0.17978887
0.039557375
0.042828687
-0.09956157
-0.0044408836
-0.14248307
0.14959438
-0.027843786
-0.0983856
0.0433263
0.114375435
-0.04602631
0.05163569
-0.037979946
0.038822774
-0.115238085
-0.0033564519
0.14066333
0.11047022
-0.035083234
0.11591457
-0.12664483
-0.05380298
-0.10122871
-0.17978528
-0.17460449
0.13473907
0.30493274
0.08373405
0.015799407
-0.059210725
0.17743888
-0.07795398
0.041951284
-0.07708023
0.14659084
-0.14453068
-0.23281348
0.16182022
-0.07395171
-0.08128482
0.18826103
0.15505897
-0.024044378
0.24521077
0.27243465
-0.032706656
-0.08575851
-0.12058349
0.13360703
-0.00111675
0.15717413
0.024814676
-0.145781
-0.16323921
0.06276143
0.005915859
0.0884544
0.17750598
-0.013409188
-0.23196153
-0.057485778
-0.091903694
0.016243298
0.24470669
0.030209422
-0.10220359
0.09006134
0.058673635
0.070212506
-0.14140172
0.16414022
-0.0907432
-0.12536155
0.0060325507
0.27437958
-0.2570711
0.10475281
0.10016003
-0.23547247
-0.015337426
-0.026382076
-0.072631136
-0.08261537
0.11217248
0.16352396
0.042169847
0.05233414
0.059395757
-0.24055454
0.01893611
0.0967336
0.06342447
-0.012661647
0.0379914
0.023327958
-0.05128677
0.15126882
0.30105883
0.033096902
0.02912529
-0.058461472
0.062453877
-0.025538582
-0.021478763
-0.29265478
-0.084886454
0.016502995
-0.02386906
-0.1635074
-0.039942358
0.0011003674
0.072152905
-0.022950048
-0.0047187917
0.14611414
-0.11026842
0.15976971
0.028489416
0.024102079
0.013541759
-0.08763183
-0.10705269
0.11318297
0.039115213
-0.13457964
-0.26299036
0.033903725
0.21504381
-0.025722198
-0.081126675
0.11044082
0.013859141
-0.07535554
-0.26633567
-0.031409554
0.005452233
0.21472251
-0.10966089
0.10021101
-0.12790592
-0.023259677
-0.088111416
-0.15417084
-0.25554734
0.0686811
0.13366617
-0.05331715
-0.07677655
0.12988499
-0.095876634
0.14625278
-0.11473536
-0.1369129
-0.15262838
0.17736295
0.07589639
0.104656756
-0.027666105
0.043313067
-0.06534068
-0.13572319
-0.15096375
-0.08532329
-0.10759976
-0.012095094
0.038229715
0.00038892627
0.09424564
0.22997205
0.16667731
0.015387723
0.07635548
-0.024654789
0.011165553
-0.2074514
0.118631504
-0.120630264
0.07791865
0.16643701
0.14003345
0.16894433
-0.17295676
0.099437155
-0.009530032
0.159193
-0.28923693
0.043536045
0.08581565
0.003433115
-0.08836631
0.04940808
-0.009133979
0.027345099
-0.21173397
-0.3050252
-0.014979245
0.02325042
0.119069286
-0.16552265
0.015629131
0.0021648582
0.028533218
0.08040006
0.04050064
0.11765146
0.14442565
0.0051703593
0.14843358
-0.10392586
0.00459099
0.13529229
-0.042364568
-0.044242457
-0.29794404
0.19918445
0.08052521
-0.03992399
0.22405139
-0.041616138
-0.01699135
-0.15923215
0.103210315
0.07062243
-0.032651607
0.00605024
-0.05450347
0.20840086
-0.081321396
0.0057574417
0.044411145
0.19442098
-0.038748503
-0.2399759
0.06139562
0.024994751
-0.058765545
-0.28522533
0.089474514
-0.0014584148
-0.0481078
-0.006827406
-0.011083423
-0.008265156
-0.15592372
-0.18252346
0.15418893
-0.18355887
-0.08844094
0.036646936
0.014436811
-0.32536063
0.048912987
-0.1398689
0.022406649
0.1447577
0.08788032
-0.2911665
-0.18121517
0.118491985
0.06681429
-0.112266146
-0.09128355
-0.00046838576
-0.04247967
0.11886974
-0.039586727
0.045715567
-0.09639849
0.009441481
-0.050938174
-0.15661734
0.16601343
-0.15588911
0.008823406
0.10293885
0.007453092
-0.06759414
-0.14846116
0.10232475
-0.07822412
0.09150113
-0.1835633
0.042774428
0.09925529
0.0893444
-0.18688557
-0.0243107
-0.09345707
0.00032239297
-0.12402348
-0.19599405
-0.070531756
0.0107721295
0.014631853
-0.04347767
0.024091294
0.20037663
-0.009402064
0.03822905
-0.051038917
-0.0019921116
-0.03845438
0.12055504
0.20518275
-0.03547877
0.039792813
0.078555666
-0.1823437
0.26852164
-0.1369835
-0.0820052
-0.2361004
0.10835402
-0.07502499
-0.016894687
0.035418943
-0.108651474
0.10242462
0.11975703
0.050955497
0.15184514
-0.19121124
-0.13782193
-0.13614924
-0.08669707
-0.10348092
0.13296479
0.0006501553
-0.037377805
-0.11370244
-0.08818694
-0.071793
-0.15839598
0.1868058
-0.13285923
-0.24192071
-0.18657789
0.07084008
0.14949213
0.084766865
-0.01880314
0.16490124
0.12914774
-0.0051699397
-0.0049628722
-0.11231175
0.10929445
-0.12777746
-0.1332987
0.054070976
0.015297272
0.19886328
-0.09495684
-0.031475674
-0.021336937
-0.21114556
0.13862106
0.050077856
-0.0008354265
-0.16557176
0.20073403
0.08297888
-0.117906146
-0.1680955
-0.048801962
-0.07290668
0.060936507
-0.2885453
0.041665476
-0.31740293
0.069987334
0.07364966
-0.039680734
-0.12443768
-0.017169213
-0.06724535
0.074721515
0.034696784
0.2179568
-0.016008142
0.09440215
-0.2903302
-0.0109929545
0.115295306
-0.0026064867
0.045745455
0.025614083
0.036291685
0.35055634
0.03745612
-0.030800737
0.10631978
0.17835604
0.04219972
-0.00052073353
-0.09519095
0.10418781
-0.25617516
-0.1492324
-0.040784143
-0.10484887
-0.0028819633
0.07514161
-0.089513786
0.007829309
0.08503626
0.18325232
0.075443506
0.20743687
-0.2933319
-0.28100806
-0.19142172
0.031720072
0.14553697
-0.05510858
-0.014914438
-0.040717434
0.100311294
-0.085128225
-0.055028047
-0.12071376
-0.12469045
-0.016441818
-0.0325083
0.056432635
0.017826121
-0.23119783
-0.069885716
-0.072729945
0.14464068
0.35086995
-0.048126157
0.1488444
0.017862905
-0.1473842
-0.025489112
-0.085963756
0.16917329
0.046918143
0.14998305
0.18974714
0.12172269
-0.20851141
-0.08221608
0.15228665
-0.3043938
-0.2436811
-0.024825923
-0.0057391375
0.12431906
0.00036775888
0.14975503
-0.22088553
0.031125609
0.044832487
0.10974911
0.025454925
-0.010199533
0.2738719
-0.29491913
0.017719893
0.10029978
-0.08420728
0.13652235
-0.09287782
-0.14330076
-0.018730022
0.09214675
-0.1429499
0.051560108
0.051368684
0.020642897
-0.23364632
-0.11193627
0.2104503
-0.10117259
0.0030104131
0.032037217
-0.28293058
-0.10419342
-0.026074417
0.014713463
0.31477433
-0.008785353
0.030248992
-0.2330642
0.027575143
0.08310044
-0.15951647
0.06691289
0.041849077
-0.02921463
-0.04243608
-0.066516995
0.015577313
-0.0052058273
-0.061865043
-0.101787746
-0.07785761
0.057853837
-0.083725266
0.009958349
-0.0038068262
0.0554845
-0.03320014
0.030421695
-0.2616246
-0.10779534
-0.105130635
0.20057124
-0.24449022
0.24370106
-0.14968376
0.11264783
0.08315618
-0.10285007
-0.21848471
-0.05920528
-0.05576949
0.20736948
-0.09259745
-0.036283307
0.02090188
-0.1902448
-0.057809275
0.019984197
0.1699316
0.1100406
0.12984642
0.17261426
0.124196015
0.28263903
0.087315775
-0.15966839
0.16253324
-0.024258703
-0.06402351
-0.21086077
-0.010199149
-0.01758904
0.050583296
0.2210387
-0.06845301
0.037353702
-0.3281012
-0.13770033
-0.15677536
-0.14584784
-0.029855855
0.008057202
0.132045
-0.1482301
-0.10415217
-0.030787747
0.09775972
0.079693235
-0.015081085
0.07151618
0.15459237
0.06044211
0.2356137
0.094996594
0.16845147
-0.19627897
0.025666328
-0.117123924
-0.12898353
-0.06095329
0.03531368
0.058209326
0.109332904
0.1618938
0.21566497
0.016135728
0.16874619
-0.08335639
0.10938388
0.0920734
-0.121639855
0.14927378
0.14544803
-0.14139447
0.023731904
-0.102065794
-0.030508699
-0.12444965
-0.15834548
0.1846671
-0.024916856
-0.13805534
0.08888328
0.03561853
-0.028323073
0.08354076
0.09793833
0.08976642
-0.11946948
0.021483293
-0.038786303
-0.19746466
0.0020049212
0.020867424
0.2492258
-0.17943273
0.054754585
0.15048485
0.069541104
0.20752043
0.039722893
-0.20993523
0.12686814
-0.0052906224
-0.0462717
0.027108822
0.06754549
0.06018515
-0.13235515
-0.15050232
-0.052152436
-0.07056515
-0.14453667
0.08249198
-0.044271298
0.13632143
-0.08782375
-0.09128662
-0.02456845
-0.17836556
-0.066934116
0.09251446
-0.13430028
-0.0141918
0.13986006
-0.043644734
-0.02621249
-0.07210399
0.06300746
0.11466128
0.12123613
-0.11096785
-0.05222514
-0.050180186
-0.012313592
-0.3861023
-0.0009803835
-0.0798217
-0.098970614
-0.024208605
0.0822798
0.16379026
-0.2577851
0.008778126
-0.08795276
0.09974678
-0.09166915
0.061507873
-0.045504205
-0.17468786
0.2843815
-0.010669333
0.1526312
0.082646616
0.03914983
-0.016071275
0.02915843
0.03247046
0.07228812
-0.3175994
-0.117352284
0.120737076
-0.050898317
-0.1034911
-0.06337464
0.11844918
0.41331792
0.16256271
0.23186807
-0.023821155
0.030398222
0.19892657
-0.0132923275
-0.13932464
0.0052139685
0.04826512
0.11938986
-0.08894719
-0.010106294
0.005131912
-0.0845821
-0.20595042
-0.11902942
-0.07829419
-0.047629125
-0.053490143
-0.056408457
0.030016117
0.045360442
-0.0010389102
0.15969689
-0.15580586
-0.1282695
0.28339136
-0.03368256
-0.06935396
-0.03209889
0.111827515
-0.012638813
0.1651756
-0.05749583
0.009049665
-0.05836312
0.06423183
0.1275039
-0.16443282
-0.1247345
0.033324018
0.07911238
0.054077815
-0.029689025
-0.09288651
0.07714379
-0.10499206
0.14626141
0.122335896
-0.057545003
-0.025772855
0.095632
