-0.016330013
0.037909564
0.020785544
-0.026601855
0.02238041
-0.064073816
-0.003298659
0.0025301126
-0.05269236
-0.00047615837
-0.024465946
0.015987398
0.005681241
-0.001854221
0.008180971
-0.023619689
0.027267829
0.003483743
-0.012561493
-0.013537116
0.007313265
-0.00014816287
-0.027267879
0.005193596
0.03011471
-0.008155945
0.06839703
-0.034955524
-0.005814232
0.009173622
-0.092794694
0.0023223318
0.01787315
0.03991461
-0.056310307
0.023693766
0.009087277
-0.0083848275
-0.04135349
0.033989985
0.054232474
-0.028083295
0.05699896
0.04770612
0.026488656
-0.043374363
-0.010127127
0.009764119
0.022594212
-0.0072559416
0.026679972
-0.0007373811
-0.008118678
-0.0073357997
0.0053956304
-0.017258732
-0.052558307
0.0020642618
-0.03344998
-0.064094074
0.02100987
0.02355842
-0.031451076
0.0039728666
-0.07472158
-0.0004603384
-0.010855218
-0.009602604
0.04923714
0.03628367
0.033080377
-0.044222303
0.014401887
0.0057968344
-0.012085685
0.007099279
-0.074120514
-0.032638304
-0.06016391
0.072229214
0.062827386
-0.020791134
-0.015165122
0.032194152
0.011848739
0.028778126
-0.010836413
0.00075243827
-0.04422121
-0.05152986
0.01415007
-0.028181592
0.03062775
0.02681096
-0.03593224
0.027710969
-0.021113118
-0.044313937
0.09950665
0.01168066
-0.07027016
-0.030245354
0.00677208
0.057897095
0.04113642
-0.0524559
0.0049049594
-0.003982638
-0.04492714
0.020013394
0.07446133
-0.013388989
-0.010014649
0.032402586
-0.033395037
0.030259179
0.035794154
0.06402239
0.01832789
-0.009799065
-0.03364067
-0.016362283
0.020765606
0.021580774
-0.019635573
0.019828852
0.053984143
0.056151606
-0.020537931
0.04232717
0.01155172
0.027571127
0.00543888
0.006707144
-0.03023885
0.11052118
0.04638561
-0.008328097
-0.02487111
-0.036207043
0.07451786
1.2684957e-06
-0.049055573
0.04301347
-0.024966363
0.05252694
0.043979928
0.040147614
-0.020385059
-0.015236372
0.03570635
0.017345754
-0.017120808
0.010122892
-0.009170478
-0.01630647
0.03211234
-0.024044534
-0.011850886
0.03662464
-0.034284808
0.028290736
-0.01964282
0.008259123
0.10931981
0.068543874
0.033458658
-0.052231386
0.005800995
0.11265741
0.040663637
-0.051614814
0.06204556
-0.07310793
0.028767116
-0.05979093
-0.010733132
-0.053492308
0.067583196
0.0057813525
-0.04859374
-0.07370948
-0.03640583
-0.0125071425
-0.04184087
0.005391948
-0.020981165
-0.022751462
-0.010504756
0.017213337
0.008499538
0.10227497
-0.006122314
0.002939431
-0.03049894
0.020163734
0.051200755
-0.021082424
-0.007818012
0.013769354
0.001756637
0.028397584
-0.00076575216
-0.1176908
-0.05450147
-0.05095888
0.006156501
-0.048192013
-0.04831788
0.040683694
-0.0049132025
-0.020532824
0.019513885
0.0011967437
0.02781184
-0.04540844
0.020694878
-0.00022857958
0.0014398987
-0.043301113
0.033197228
0.013079263
-0.003948304
-0.008337169
-0.003289127
-0.020647818
0.049498316
0.03928603
0.015962549
-0.057420965
-0.0037911495
0.014251713
0.03572725
-0.010318092
-0.054692414
-0.029019523
0.0053265635
-0.05748268
0.020480694
0.054525483
0.027127523
0.0032489297
-0.02601397
-0.020935915
0.03451605
-0.004120146
-0.016040351
0.02779467
-0.00032137762
-0.046361085
-0.02136278
-0.040276524
-0.0005896619
-0.050145462
-0.053478975
-0.001191262
-0.041781675
0.012184872
0.046134613
0.035022292
0.04671895
-0.011743912
-0.035247345
0.051373087
-0.032112855
0.0039924355
0.024082167
0.031216836
-0.061360545
-0.0014386785
0.039871193
-0.057900634
-0.022705322
-0.026354665
0.07673412
0.024068272
0.019161139
0.0043842997
-0.0196012
-0.043707643
-0.06082904
0.039896518
0.0433174
-0.013401678
-0.014043202
0.03545308
-0.019457525
0.0041787038
0.028418245
0.005309589
0.026173133
0.0042278296
0.048216306
-0.030208929
-0.047026735
0.008911564
-0.014646809
0.037374984
-0.06248703
-0.0011691739
0.0015254876
0.06877845
0.02614395
0.01755097
0.032469753
-0.00036047315
0.05240992
-0.020135539
0.06464799
0.07617024
0.043520764
0.0005034454
-0.0711535
-0.016134603
-0.07148519
0.018614927
-0.015770337
-0.0016027334
0.04951843
0.015622402
-0.01804953
0.04585835
-0.06736103
-0.020221623
-0.0071710013
0.02154092
-0.011521879
0.07917117
-0.024532601
0.036071192
-0.021855252
0.075501435
0.062081635
-0.005513646
0.024111234
0.027743157
-0.030400189
-0.028991334
-0.01931382
0.06865688
-0.00061672746
0.03015979
-0.057485428
0.039853428
-0.044539124
-0.06305801
-0.0064805504
-0.024293099
0.01894586
0.05178469
-0.08474088
0.076258615
0.012479313
0.026904138
0.06645871
-0.06342807
0.02033939
0.0008799799
0.007431047
-0.03938099
-0.021464216
0.0012405327
-0.016812906
0.056682076
-0.00066443003
0.022478903
-0.0038845267
0.011725297
-0.04272077
0.016237251
-0.010323172
-0.03740644
0.021277739
-0.027776321
0.0690016
0.07187772
0.018311607
0.022199942
0.075471155
-0.013639974
-0.08356704
0.026549889
-0.0052453764
0.03902397
0.037867088
-0.003979208
0.051320713
-0.007157167
-0.04409004
-0.015182467
-0.06305256
0.045342933
-0.018714398
-0.04242204
-0.022418771
-0.035172712
-0.028768234
0.0059050797
0.0067361807
-0.015996033
0.032549486
0.06664867
-0.014506034
0.0127382595
0.030586924
-0.021135874
-0.027424773
-0.04043074
-0.060371447
0.027033754
0.015287405
0.0059875576
0.019133445
0.015027526
0.050051764
-0.057153147
-0.023084322
-0.045413684
-0.022842562
-0.022237813
-0.07482174
0.005408798
0.00088393025
-0.08072077
0.028972154
-0.043775268
0.026586186
-0.039732363
0.038067944
-0.0045145378
0.07777228
0.045464523
0.0041195652
-0.035098165
-0.046664253
-0.042021547
0.0065379823
-0.020709533
-0.0005380394
0.013469563
-0.0063605243
0.0037543967
-0.036247376
0.011911545
-0.025443349
-0.05010334
-0.044419367
-0.04935771
0.09273619
-0.027079625
0.04505254
0.0412035
-0.008065706
-0.03363772
-0.01874901
0.05538405
0.029925846
0.05557667
0.023152051
0.024238097
0.0054563293
-0.015088006
-0.003486382
-0.05132919
-0.004999013
-0.02333682
0.0444995
0.0063320077
0.015770784
-0.0467163
-0.0046320297
-0.04663728
0.013286113
0.041683517
0.012370559
-0.031133553
0.0659725
0.03111181
0.021602813
-0.0057928795
-0.079609506
0.089547165
-0.049636807
-0.020932708
-0.039306566
-0.011455776
0.010527327
0.0719216
-0.02701434
0.03155864
-0.024551231
-0.0047682133
0.022492109
-0.018413289
-0.06850299
0.02320041
0.0007911876
0.0036392016
0.030175712
-0.018260952
-0.0010724696
-0.032826666
0.027808037
-0.021437693
-0.04325636
-0.047504023
-0.06925357
0.0032065741
0.047361404
-0.05075687
0.0571511
0.007038424
-0.015991643
0.03359178
-0.019799087
-0.00053795474
-0.020546643
0.03220479
0.06364696
0.028232343
-0.021619089
-0.010957962
-0.0259892
-0.010487298
-0.034439005
0.07625307
0.018804904
0.051405568
-0.002624762
-0.012738789
-0.007153639
-0.03076365
0.007560114
-0.03963712
-0.043316733
0.008670698
0.061169535
-0.011788686
0.015362767
-0.06900214
-0.029027367
0.035178725
-0.032004572
-0.035110507
-0.009602676
0.017411757
-0.07651767
-0.0664941
-0.025341492
0.026675984
-0.03257811
-0.0028049229
0.033516828
0.0124953445
0.026483981
-0.027313692
-0.026430234
0.026794516
-0.018172693
-0.040991034
0.0032422412
0.00312104
-0.0061227344
-0.008946998
-0.008455836
0.004250149
-0.00078139897
-0.024994876
0.08264568
0.028545953
-0.07048446
0.0065072537
-0.009792735
-0.038559716
0.031910058
0.038500432
-0.00032762342
0.058993928
0.008772993
-0.0019402332
-0.015163384
0.006265066
0.04383615
0.021618972
0.025048887
0.01115546
-0.048432138
-0.019036395
-0.0064189327
-0.023167018
-0.014202011
-0.041088544
-0.07834844
0.1113263
0.07497586
0.06360498
-0.06702622
0.05931981
0.0001943446
0.007475289
-0.031472974
0.04945215
0.0016996315
0.010918424
-0.0022752588
0.033428587
0.048223432
-0.024160868
-0.020870818
0.011657315
0.028391102
-0.017926048
0.010271023
0.0710483
0.109851375
0.060144417
0.03353948
-0.04156561
0.08723017
0.06547491
-0.010652535
0.0023590345
-0.0071255188
0.027089562
0.008472532
-0.06854755
0.00888535
0.029561052
-0.040197056
-0.037472185
-0.0040774355
-0.03612632
-0.03377467
-0.01424636
0.034487292
0.087852895
-0.0072243833
0.0066525005
-0.009877042
-0.019624857
-0.031099336
0.02722502
0.058054697
-0.022981575
-0.058376893
-0.014056774
0.02547801
-0.02341396
0.005406571
-0.04367754
-0.046460435
-0.08404597
0.019633919
0.007840156
-0.034500852
-0.082128905
-0.06930628
-0.06503957
-0.0294152
-0.048778005
0.024006482
0.019964315
-0.057269406
0.02801407
0.0023946818
-0.008740556
0.006930698
0.010087214
-0.026085204
-0.037492786
0.014120464
0.023057986
0.0056645344
0.03417121
0.020309212
0.022522
0.029666187
0.014872757
-0.0533022
-0.059084572
0.0192035
-0.048531592
-0.11715131
0.057702284
0.050145138
-0.0010494747
-0.009959105
-0.005955921
-0.069991596
-0.021663753
-0.060877077
0.016823974
-0.033376604
-0.0034549257
0.01296651
0.11608338
-0.00061645085
0.015791604
-0.0035037978
-0.061874174
-0.00995298
-0.072411746
-0.08862311
0.07657877
-0.06396976
0.011014236
-0.0653303
-0.015110184
0.013276741
0.01472188
-0.022804612
-0.013530276
0.020292854
0.007840433
0.039868675
-0.047008436
-0.049205914
-0.081506856
-0.06008663
-0.0333532
0.067230836
0.013991331
0.038251143
-0.07866125
-0.06424072
0.030720348
0.02198985
0.03537193
-0.057863116
-0.039282575
0.00024304668
-0.06029277
-0.0010388241
0.0066059
-0.04177805
0.0068339724
0.068732254
0.0033534507
0.056345083
0.03061799
0.05496028
0.031061716
-0.01435775
-0.10001579
0.041124284
0.023361556
0.0023540733
-0.01190342
-0.011203692
0.002659512
-0.046752032
0.021576028
0.0127241425
0.013972078
-0.022141514
0.03570226
-0.021177903
-0.014286939
0.0015108763
-0.016300416
-0.037928104
-0.0018592953
0.05012476
-0.037312176
-0.004415707
-0.06259129
0.040401526
0.009450645
0.018626355
-0.043665398
-0.038289756
-0.004216117
0.06006966
0.0011532188
-0.0049590273
0.0031972977
0.035713825
-0.057112627
-0.010623554
-0.023841185
0.03135352
-0.013506182
-0.017362446
-0.012695997
0.06769327
0.009259129
0.02087569
0.050449952
-0.040284026
-0.00317784
-0.05637827
-0.0070362748
-0.11311409
0.018567603
-0.05153966
0.001857406
-0.016071968
0.008846889
-0.025870604
0.084400386
0.039046366
0.021144897
0.06215819
-0.05480538
-0.012236642
-0.03844004
0.067392685
0.05641753
-0.00998296
-0.03986355
0.008402386
-0.044392705
-0.015530336
0.01383195
0.081985906
0.04634046
-0.009267885
-0.0025713379
-0.046010368
0.0119912885
-0.016968938
0.034313366
0.016683817
-0.016143758
0.03372893
-0.059666004
0.009227912
-0.031088535
0.008898234
0.046732113
0.032999177
-0.055328857
-0.03890032
-0.025901513
-0.04342064
-0.011760868
-0.020072594
-0.025717465
0.051394854
-0.014300335
-0.00015252431
-0.0056788647
-0.042244416
-0.025273856
0.01756049
-0.013993814
-0.024123488
0.084309064
-0.0011887703
0.065154605
-0.07335827
-0.021446712
-0.056991134
0.028465834
-0.030104186
0.034419954
0.006326487
0.099074975
-0.015877783
0.015856383
-0.0025787873
0.022529894
-0.006102948
0.03284053
0.03946871
-0.007150922
-0.028049212
-0.060710102
0.033899534
-0.033955287
-0.030037342
0.002663918
-0.009679023
-0.06042868
-0.023280622
0.0040689963
0.037079394
0.011311181
-0.03982417
0.010754738
0.0129034445
0.0025361956
0.019143676
0.006144552
0.017291242
0.010650459
0.011415986
-0.013561399
-0.0075215935
0.036573313
-0.031510454
0.021224037
0.010425438
-0.071419194
-0.011739636
0.045706864
-0.04438928
-0.008729485
-0.03571318
0.040158
-0.034044284
0.008791088
-0.02697491
-0.0040503466
0.014322618
0.033667885
-0.0008317317
-0.0046714754
-0.050828718
0.014743448
0.062967755
0.005063413
0.028567173
0.04162011
0.016935263
0.021259924
0.060220413
0.043367352
-0.028033191
0.009977828
0.038465273
0.018061507
-0.0033577783
0.08586186
0.0409923
-0.12437887
-0.060693987
0.027675545
0.04795177
0.04532473
0.04161355
-0.103929974
-0.013696567
-0.00017319592
0.023145713
0.032901365
0.023653967
-0.040952183
0.024994703
0.043736283
0.07538667
0.046769537
-0.025662225
-0.045336127
0.028848236
0.034976285
0.030629285
0.027037553
-0.02055926
0.004990371
-0.024191605
0.018525569
-0.045108538
0.009420648
0.00027536598
-0.040067554
0.061012182
0.07125621
0.016971847
0.08349362
-0.029575499
0.02728237
-0.047430646
0.04275622
0.02759507
0.014102573
0.012175941
-0.026249308
0.00011454715
0.0095463265
0.0066646663
0.011969523
-0.06139284
-0.034730107
0.0013663573
0.035186786
0.0180783
0.023085654
-0.0003712912
0.052808754
0.02201119
0.049141776
0.033837516
0.04866823
0.007407664
0.009591758
-0.008885404
0.030115254
0.03219085
-0.022300055
0.07034703
0.0021413283
0.009961985
-0.07300923
-0.062943764
-0.058128834
-0.04439064
0.013277406
0.058578633
0.04231133
0.0134108225
0.044567607
-0.013152916
0.0073363367
0.009120587
-0.033938203
-0.004376324
-0.03670074
0.00074244523
0.06379813
-0.022252599
-0.011459703
-0.017295131
-0.036114406
0.062999286
-0.0063679484
-0.004883311
0.01734716
0.0039299726
-0.054113276
0.030302929
0.0098898625
0.019316439
-0.005777327
-0.0014964365
-0.025787799
0.026307058
0.07624711
-0.024020925
0.04475843
0.04963408
0.038326863
-0.012265505
0.0022012813
0.0059893727
0.008323165
0.023100026
0.046122167
-0.020673107
0.03697307
0.024202364
0.0004774935
0.008419088
0.0154660735
-0.022564245
0.032043867
-0.06311247
-0.011237724
-0.01879982
0.033085298
0.031061098
0.0062674624
-0.071238846
0.00990172
-0.0008550389
0.040479187
-0.028203335
0.0013752047
-0.026269572
-0.040965702
-0.0034350134
0.03246156
-0.07771252
-0.002426722
0.08698075
0.03246905
0.03891068
-0.033882633
-0.01858819
-0.059206065
-0.016621655
0.009419049
-0.03280534
0.021447422
0.030135427
-0.003303755
-0.023782574
-0.046145223
-0.034208935
0.043809094
-0.05755996
0.06434893
0.009999306
0.01818402
0.059779402
0.058215752
0.030140221
0.13246179
0.010848187
-0.013633625
-0.014152088
0.045131944
-0.11009489
0.023966344
-0.040654738
0.0044256654
-0.046248816
-0.09518207
0.051752694
0.06209608
-0.05677791
0.004731112
-0.006257499
-0.020972105
0.0067001376
-0.05997006
-0.044321314
0.026037833
0.00054854946
-0.013732985
-0.071840554
-0.010362012
0.06184859
-0.06266046
-0.007889713
-0.02815653
0.036590632
0.0294056
0.00017980514
-0.0075786025
-0.034572802
0.052731015
-0.07407148
-0.007602801
-0.065394334
-0.020478832
0.059110295
0.028233582
-0.09870898
-0.041551687
0.018101612
-0.00929356
-0.05839929
0.032275464
0.016462531
-0.0073902407
-0.061367013
-0.016267354
0.038222834
0.03664414
0.024675911
-0.020319985
0.019422581
-0.029431915
-0.022720952
0.0024282823
-0.034129053
-0.0146507835
0.03133798
-0.0019761233
-0.002946301
0.016444402
-0.00904745
0.016532995
-0.051132698
0.015184685
-0.015021445
0.059921842
-0.017974544
0.005516961
0.03506328
-0.089707
-0.0063925497
-0.0052109025
0.0257353
0.017963441
0.013232368
-0.027305376
0.039604116
-0.008084412
0.029550811
0.051722582
0.0019536717
-0.038531333
-0.015435563
-0.08545767
-0.026324168
-0.0133174285
0.02936582
0.02861451
-0.014005439
0.11825919
-0.036734577
-0.01308495
0.085201
-0.017483423
-0.0026398243
-0.019196339
0.051056527
0.05158824
0.040213425
0.0075366586
-0.031124849
-0.025191313
-0.042552594
-0.092842944
0.005275813
-0.022906683
0.07175636
0.062280484
-0.008851026
-0.044535656
0.044218305
0.038132362
-0.02623342
-0.083978355
-0.011148897
-0.061349284
-0.07984102
0.035616007
-0.120097466
0.01253052
-0.03503994
-0.00996454
-0.054339584
-0.01307333
-0.055037398
-0.02915589
0.03533504
-0.0020925645
-0.000912512
-0.07197924
0.03263374
-0.027413689
0.04015367
-0.015927099
-0.021604817
-0.023784364
-0.087990165
-0.033708557
-0.027637528
-0.0071949717
-0.0033505587
0.03978721
0.027521776
-0.039032787
-0.031207759
0.0038003514
-0.020922536
0.003161622
-0.03349306
0.00023352474
-0.01913687
-0.042131603
0.0515705
-0.051295567
0.0026033109
0.015832167
0.022864554
0.011241009
0.019740842
0.0072704516
0.07597083
0.03216698
0.03217812
0.004091575
-0.009231362
-0.02945125
-0.005016092
0.033591732
-0.005332922
0.02160611
0.032386843
0.05979079
0.020897742
0.05935132
-0.09946425
-0.01451894
-0.033734992
0.028248435
-0.010912169
-0.009198845
-0.022138944
0.052291036
0.014991489
0.015562188
0.0016755173
0.072145626
0.010739129
0.03924469
0.02399241
0.09403152
0.099320196
-0.07912101
-0.04612558
-0.06545068
-0.042446487
-0.053698853
-0.023806633
-0.063447215
-0.015646202
0.03582159
-0.040127844
-0.028637588
0.05854002
-0.07027258
0.018773355
-0.019534493
-4.0516596e-05
0.0090387715
0.053909346
-0.0026771927
-0.03193242
0.024158733
-0.038144678
0.0014574467
-0.0061167935
-0.008782026
-0.039306685
-0.05740437
-0.08237595
0.0010265444
0.063326135
0.0063983565
-0.02689466
-0.021531887
-0.0019112682
-0.018034179
-0.06600977
0.004237473
-0.022271125
0.047309395
0.063445695
-0.06767929
-0.012929284
0.0010333823
-0.025291905
-0.011031829
0.027224714
-0.07973487
-0.037456203
0.031840798
-0.013823465
-0.0065840995
-0.040279847
-0.032240853
0.03364024
-0.003994989
-0.051419526
0.018710667
-0.013119396
0.0056631565
0.028731422
0.035068028
-0.016798707
-0.046435583
-0.014275556
0.045523338
-0.031212803
0.011345839
-0.056889337
0.01790914
0.025458869
0.03608187
-0.029213537
0.0015096968
-0.030892767
-0.0061987005
-0.062777914
0.007287258
0.011134817
0.018498844
-0.04797106
0.013477354
-0.018659467
-0.062165335
0.022534087
0.010754706
-0.0029810646
-0.05252878
-0.03704432
0.010070229
0.012614415
-0.0191076
0.015368214
0.008827044
-0.039917458
-0.05752432
0.02183522
-0.103353575
-0.09489601
0.030174246
0.06664905
-0.0120402835
-0.019652238
0.04348984
0.03870674
-0.020396477
-0.025263194
0.010994885
-0.022310527
0.06142956
0.00046537252
-0.08567383
-0.022233494
-0.050142463
-0.028783873
-0.008484012
0.002906187
-0.0060477722
0.030999219
-0.024340589
0.0466237
-0.056584563
0.0189295
0.07565346
-0.012142239
-0.0041072806
-0.021281928
-0.031747315
-0.052881636
0.03369352
-0.008464505
-0.017650701
-0.009107757
-0.07673115
-0.03973039
-0.01778533
0.011120999
0.048682805
0.046774358
0.022141827
-0.11006473
-0.08433229
-0.046436846
-0.045296762
0.086146675
-0.0007218136
0.009880894
-0.04514198
0.0003852256
0.010552901
-0.062660925
-0.054503057
-0.009893548
0.028064955
0.013094228
0.01607128
-0.0014444656
0.028447673
0.09108377
-0.019036867
-0.020908944
0.0875981
-0.027333196
-0.0068551395
-0.07079515
0.046538386
0.03287891
0.0058614947
0.05531693
0.013791884
0.02014107
-0.047506884
0.008163698
0.01895597
0.027330844
-0.018526776
-0.016030634
0.027154196
0.051815998
-0.027517863
-0.021224236
-0.014922735
0.034425534
0.04884575
-0.067899294
0.023507928
0.031044787
-0.032836504
-0.066394135
-0.037882324
0.058025204
-0.0417007
-0.007608004
0.09689075
0.0012471256
0.021173153
0.049541198
-0.03334004
0.037151575
-0.029165475
0.0008631827
0.024041047
-0.019238044
-0.017081061
0.07015547
-0.008182993
0.04389141
0.06574164
0.0072593577
0.043611277
-0.06439824
-0.011295102
0.013795963
0.046455514
0.025794009
0.012635263
-0.0684058
-0.029702231
0.06333053
0.061729915
0.07134063
0.014687524
0.0014183257
0.041976087
0.02553483
0.027713645
0.016818127
-0.008508235
0.000110787456
-0.07941283
-0.048274886
-0.034503944
-0.028067177
-0.0076459474
0.037208643
0.013168627
-0.0023793802
-0.012126817
0.034262955
0.03243173
-0.008555888
-0.041237295
0.076637775
-0.021363292
0.003201211
0.0033246698
-0.033664502
-0.071840525
0.0798637
0.024509482
-0.012728148
-0.056179132
-0.03681727
0.0036594814
-0.019679954
0.060075484
-0.035152663
-0.014232549
-0.06819844
0.013106707
0.04365627
0.012520594
0.03559625
0.02601739
0.019513877
-0.0075234394
0.04578569
-0.039598674
0.026994836
-0.016831862
0.033663053
0.020089272
-0.032076873
-0.063584074
-0.02071824
0.021766711
-0.0048442134
0.005505934
-0.0008883781
0.0077890805
0.025205947
0.0048138974
-0.038915586
0.04715254
-0.015201322
0.029844604
-0.030527648
0.10426411
-0.046459693
-0.0034553413
-0.02302811
0.006780066
-0.04227752
-0.033475198
0.048111923
-0.04968404
-4.7003174e-05
-0.06109093
-0.0032714119
0.046796232
0.10090707
-0.031071011
-0.032442544
-0.0029747924
-0.038508225
-0.02190117
-0.03392879
0.020760257
-0.017832078
-0.044860676
-0.02168158
-0.0011083578
0.027041296
0.02488967
0.033444755
0.03296081
-0.024221774
0.027594024
0.06646328
-0.025000911
0.010727546
0.07737256
-0.03717859
-0.03995324
0.06006416
-0.05054703
0.00956496
-0.015639117
-0.018803716
-0.003648156
0.0050624153
-0.056583215
0.007679315
0.01039804
0.0009468404
0.10837891
-0.003065597
-0.039682876
-0.025834322
0.06294192
-0.0051508183
-0.004250587
0.08366901
0.010071
-0.041815452
0.024816526
0.019949509
-0.03348652
0.041088343
0.008873045
0.10551503
0.022715077
0.07913271
0.0184924
-0.02757893
-0.0068915314
0.012625901
0.033484202
-0.048012435
0.008424343
-0.044456586
0.013029892
0.017315958
-0.01772114
0.03545581
0.10931256
-0.017078163
0.0674859
0.016198557
-0.06733418
0.028484179
0.012510666
0.04497587
-0.052339654
0.002746089
0.044436052
-0.044798937
-0.007156794
0.0011160738
-0.03799103
-0.02861445
0.05574201
0.03264764
-0.010321103
0.06891557
0.06917949
0.001796048
-0.012088373
0.012668382
0.0008564798
0.06171622
0.0053387918
0.07992401
-0.062134784
-0.002592208
-0.046405915
0.0784631
-0.058619376
-0.018181063
-0.005992171
0.0036758897
0.035557102
0.025390534
0.023810158
0.049475845
-0.013778076
0.02476786
0.015106901
-0.052626017
0.024698544
-0.025750412
0.050781064
-0.008502382
0.004918219
-0.03279641
0.0037378431
-0.0030954008
-0.055218954
-0.07224621
-0.043957513
0.04176294
0.030683104
-0.016464107
-0.07316015
-0.03389321
0.0392104
-0.03873861
-0.037094638
-0.01696485
-0.017635832
-0.016149687
0.0128796995
-0.06235491
-0.049052715
0.008299058
0.031776387
-0.0301112
-0.004106362
0.018623149
-0.122511365
0.021446321
0.04631581
-0.015539278
0.017434346
0.020102713
-0.02490443
0.050697293
-0.05222142
0.025165789
0.012989298
-0.009254226
-0.03349324
0.018255126
0.063206814
-0.022381864
-0.010097977
-0.047948103
0.04644244
0.0285505
-0.08357712
0.040393714
-0.011419789
-0.07587511
0.013915715
0.008958932
0.0038048911
-0.036373775
-0.034325454
0.04128201
0.0036030724
0.04678094
-0.061939877
-0.014155102
-0.006491761
0.03737671
0.013143912
0.022046458
-0.053717475
-0.01585158
-0.052674867
-0.023767948
0.0059735007
-0.027988326
-0.06225884
-0.019162154
0.035416156
0.048146196
-0.021663183
0.035822842
0.019231569
0.01918832
0.05525513
-0.042563364
0.07539148
-0.010033832
-0.018822128
-0.033773605
-0.04380986
0.0120740775
0.0019121688
0.008646482
-0.093069516
0.0704791
-0.036488518
-0.05753875
-0.03745186
-0.06636572
-0.061812177
0.021347614
-0.012387385
0.023916956
-0.014923023
0.0005973284
-0.05282902
0.08342793
-0.032156244
0.07529493
-0.054954946
0.034405738
-0.041227955
0.06749075
-0.04601868
0.089394085
0.013713804
-0.012704365
0.006368084
-0.03441517
0.023984225
-0.067166865
0.03280618
0.092553385
-0.004367498
0.02871488
-0.0235439
-0.08583724
0.0056584985
-0.03999245
0.03127651
0.037406564
-0.021737732
0.004342013
0.034432
-0.009232202
0.049283415
-0.016698964
0.029709933
0.047894076
-0.014744264
-0.008539806
-0.040524308
0.033579856
0.026239851
-0.011324699
-0.0039894
0.040110566
-0.030631598
0.022425802
-0.010527433
0.0022048564
-0.008059308
0.0097886855
-0.03768751
0.04126493
0.03757675
0.0017844829
0.0093555525
0.010057929
0.01806571
-0.04039162
-0.07016477
0.0027767676
-0.036212567
0.00063886994
-0.056705732
0.021696758
0.020579958
0.07491716
0.0057551963
0.043691486
0.052402973
-0.05523686
0.040219136
0.0031459893
-0.03667013
0.03352491
0.03274416
-0.10234021
-0.07525355
0.02575481
-0.062114403
0.0031906564
-0.04806486
-0.08554759
0.024482025
-0.018951226
0.0318873
0.011173887
0.03925035
-0.0038595847
0.05862727
0.079270266
-0.023039306
0.018122999
-0.06548898
-0.010061495
-0.048867606
-0.027087796
-0.058207124
-0.071730636
0.01963544
-0.031382862
-0.03679243
-0.008027165
0.019708417
-0.008058441
0.0052974266
0.02643309
-0.007962644
-0.022380872
-0.05477366
0.040421743
0.033331823
0.04971728
-0.06514939
-0.08076717
0.04172822
-0.006531914
0.010542728
-0.05083798
-0.023852872
-0.048208334
-0.054226544
0.043702167
-0.034265604
-0.055297855
0.030555919
-0.102709904
-0.025791598
-0.009417109
0.0015363244
0.060397565
-0.06368145
-0.012634824
0.002658709
0.01666258
0.04335733
0.031481285
-0.010676322
-0.047646165
9.450769e-05
0.034853686
0.0432407
-0.06548333
0.019260185
0.039713558
-0.033260226
-0.006521722
0.014878748
0.025591394
-0.037415944
0.05295444
0.053653367
-0.0028577356
-0.0036755556
0.018521963
-0.04460036
-0.042046446
-0.0059816195
0.008214582
-0.005747921
0.0028316888
0.012144134
0.016745944
-0.01908405
0.12595533
0.0016039738
-0.02836521
0.012968435
0.057762615
0.016358858
0.07794221
-0.00079204986
0.0057729282
-0.013976876
-0.038230978
-0.027621819
0.015598853
-0.035112813
0.0048959143
-0.034392748
0.023358274
-0.023621002
0.09411298
-0.02233126
-0.07029471
0.029926743
-0.034957863
0.08214457
0.039951645
-0.002134005
0.025183061
-0.030379713
0.028549941
0.058110166
-0.027207538
-0.009100668
0.04794705
0.018748963
0.009834008
-0.015615892
-0.07869254
-0.06292438
-0.05396712
0.068642706
0.0038843225
0.022762291
0.12603085
-0.050724253
-0.019994894
0.04963007
0.014897307
-0.033151716
0.011998218
0.07696752
0.03544255
0.011197238
0.049075555
4.4571185e-05
0.0010134152
0.013609256
-0.11859314
0.023146817
-0.012406189
-0.046303157
-0.029949432
0.074724115
-0.01000636
0.014959297
0.075298764
0.040566206
0.015249857
0.022447405
0.034415595
0.03070623
-0.009220262
-0.017558228
0.00979414
0.027262172
-0.010075576
0.004337575
0.021081297
0.019340517
-0.010037153
0.03186473
0.056580544
0.051285177
-0.009817214
-0.013935329
0.04086046
-0.06683315
-0.049377136
-0.029351005
-0.04148033
-0.006257493
0.038505923
0.020448592
0.0009175289
0.015273735
-0.010316899
-0.007749531
-0.008832268
-0.015865944
0.010418368
0.03708741
-0.033901263
0.07050924
0.030392766
0.02177622
0.014136081
0.010017429
-0.009235139
-0.010623015
-0.01680717
0.01807236
-0.025895493
-0.0115606235
-0.03466311
-0.042421263
-0.009111585
-0.019388739
0.008358765
-0.032749087
0.05586923
0.00845343
0.05936715
-0.047929477
0.006802835
-0.019409131
-0.035897493
-0.02520757
-0.081453346
0.025707645
-0.036945395
-0.050158232
0.015167606
0.002042285
-0.04068686
-0.0066538076
-0.035339653
0.011047231
0.00071345683
0.019581692
-0.08181055
-0.033625692
0.0042522526
-0.0006896161
0.08957136
-0.04257457
-0.043688487
0.037115183
0.005571569
-0.08481229
0.043834645
-0.040933367
0.02341352
0.010597296
-0.0511747
-0.02824367
-0.02956416
0.017020164
0.06593715
-0.045282617
-0.002111921
-0.041069835
-0.093592755
-0.03822169
0.07248067
0.0030984702
0.01868649
-0.012716023
-0.04147522
-0.044828538
0.028902115
-0.043209467
-0.02961707
0.021922486
-0.015386966
-0.02717362
-0.00090577116
0.019478036
-0.024700625
-0.02005947
0.0013778119
0.059669577
-0.04086372
0.040057804
0.01625758
-0.0044917716
-0.05726725
-0.06536607
-0.011450498
-0.059256528
0.022652457
0.055103317
-0.02280588
-0.021517571
0.013626141
-0.02898637
0.00097577774
0.017653426
0.029926179
-0.011811366
0.049805615
-0.024428587
0.050113257
-0.057234067
0.07695424
0.022382045
0.026181912
0.08929566
0.014312035
-0.0025009194
0.07929602
0.041070856
0.030743735
-0.0023374013
0.01983904
0.058052327
0.023398185
0.07387319
0.019425822
0.018033413
0.010632017
-0.048554264
0.045620494
-0.022329666
-0.008751477
0.055849675
-0.021862332
0.061668072
-0.019766161
0.053188168
-0.09850975
0.055388596
-0.026654696
-0.029911622
0.056951333
-0.052111797
0.08356864
-0.048392933
-0.0076944204
-0.030483788
-0.018102435
-0.027023325
0.04153207
0.016721979
-0.01176362
-0.009519965
0.049163844
-0.044069633
-0.010259204
-0.05646907
0.017199138
-0.020933177
0.054017715
-0.042484507
-0.002222084
-0.03940835
0.014773775
-0.04349582
-0.0007971748
-0.029617902
-0.024498114
0.007125303
0.0026354147
0.0037248519
-0.053302236
-0.009777325
0.028555855
0.01662293
-0.0441608
0.016450936
-0.075218044
-0.08082182
-0.01824431
0.07400224
0.0130708655
-0.02864779
0.0554023
-0.003760611
0.013582088
-0.0030973281
-0.0014967175
-0.07922079
0.004685325
-0.0031459786
0.006578402
0.007267878
0.040308483
-0.067707755
-0.0042004534
-0.010348823
0.07582451
0.04118407
0.018332034
-0.0060044704
0.008815818
-0.03563708
0.037786298
-0.021288093
0.01606122
-0.046780054
-0.04357077
-0.0005137678
0.044957854
-0.022018233
-0.0011495876
-0.004603942
-0.012954126
-0.037193697
0.028730946
0.00057509233
-0.106590256
-0.07069101
-0.029398315
-0.031085575
-0.010511084
0.0054752673
-0.008245113
0.008706108
0.065747455
-0.024500936
0.00040180283
-0.01782216
-0.04041932
0.0032080463
0.0020404393
-0.089066654
-0.027130296
-0.004681351
0.033394594
-0.044484563
-0.0072240373
0.043711998
0.011999281
-0.034540515
-0.008389001
-0.023856342
-0.057905834
-0.041813187
0.041616764
0.065758005
-0.009430775
-0.027015628
0.07957379
-0.0044849273
-0.04550668
-0.08687414
0.023663182
-0.06626367
0.0032767153
-0.053152323
-0.008528194
-0.020879725
0.043019988
-0.030543867
0.012562012
-0.028500421
0.028141133
-0.050145555
-0.010676935
0.016353093
-0.018240616
0.018607164
0.049973343
0.04031117
-0.044360563
-0.1154063
-0.029023992
-0.029650709
-0.008980382
-0.015521327
0.0077215238
0.03786915
0.04146652
-0.024209216
0.042857096
0.0037276861
-0.06559241
-0.0075222873
0.0028372903
0.026470216
-0.08037181
-0.068650894
0.058761414
0.030500975
-0.02755922
0.009173182
-0.010889827
0.09318504
-0.0379467
-0.021158904
0.030182857
0.018580846
-0.044119965
0.0362624
0.06121933
0.002477117
0.039160427
0.044420615
-0.018852385
-0.024117043
0.036184885
0.036747776
-0.0061835735
0.050238695
0.0068581905
-0.03934749
-0.04703829
0.05868528
-0.03538732
0.0076037766
0.025885135
-0.009989656
0.054592215
-0.015681673
0.056224104
-0.0022224733
-0.04819693
-0.012373299
0.039644185
-0.033028588
-0.014025624
0.015747664
0.041867785
-0.023132619
-0.008741952
-0.006166685
0.033056747
0.050636593
0.058309574
0.083464034
-0.029397622
-0.0071960157
-0.039204624
0.0054843356
-0.02060384
-0.079409994
-0.017772561
-0.043923512
-0.031205373
-0.07187962
0.020281736
0.09644755
-0.04270305
0.042689707
0.011920684
-0.054100305
0.028032394
-0.026891531
0.022736441
-0.023592839
0.040418766
-0.027995039
0.019854004
-0.013657275
0.056967594
-0.03894566
0.040885657
0.0066431053
0.020325562
-0.067094
-0.03032808
0.013376627
0.03432327
-0.021540096
-0.010320336
-0.038032986
-0.03691769
-0.06906488
0.023555094
0.02426847
0.039226282
0.007561645
-0.038377933
-0.00046511245
-0.018097678
0.009524788
0.0060853907
0.05085648
-0.019542228
-0.06054867
0.05076049
0.0377159
0.014166185
-0.0023535949
-0.041992765
-0.037348706
0.04515163
0.03338708
0.042042326
-0.02875073
-0.003255341
0.017882152
0.022580782
-0.018952778
-0.0043269154
-0.025757512
-0.0018681245
0.07603624
-0.02361077
-0.008533138
-0.090898134
0.0070269024
-0.014660118
0.023798304
-0.010457531
-0.010875488
-0.035604697
-0.023517469
-0.0095551135
-0.027585855
-0.05348411
0.06641242
0.04564892
0.034007665
-0.029624717
-0.07208639
-0.02234787
0.0059947683
0.0075321808
-0.027665546
0.022285955
0.014523852
-0.047966197
-0.004709599
0.013269411
-0.019251065
0.008205856
-0.007480736
-0.009768441
-0.023637118
-0.02091472
-0.06907799
0.061621092
-0.04303686
0.05094166
-0.085266404
0.0020166812
0.043492235
-0.06675283
0.04417455
0.057039574
-0.054942124
-0.023817742
0.010705787
0.00958657
-0.07938264
-0.04682589
0.0030337586
0.011812741
0.016676392
0.079763226
0.04640389
-0.036292307
0.004125831
-0.06989126
0.022973707
-0.042288043
-0.026849765
-0.029366678
-0.03392004
-0.021694569
-0.009613748
0.01850687
-0.025517061
0.04387053
0.0100606615
0.0036152112
-0.0019435715
0.01775745
0.026711296
0.0326662
-0.044040844
-0.10694667
-0.02679394
-0.042235743
-0.016219325
0.020848421
-0.052766915
0.015815785
0.020057645
-0.021032287
0.00442356
0.05572367
-0.02273894
-0.1266338
0.03640528
0.057834096
-0.017481823
0.058631785
-0.033505395
0.0011282427
-0.012873385
0.01663043
-0.004649784
0.016403694
-0.02460671
-0.010431505
0.00061839796
-0.072409354
-0.07768613
0.055536646
-0.036625344
-0.01737026
-0.02337437
-0.017135452
0.009227897
-0.00056245737
-0.046934593
0.017790146
-0.08216722
0.0781493
0.07148746
0.017333586
0.0011618609
0.0011882442
-0.004255953
-0.03175148
0.07417115
0.07944429
0.052844916
0.04281879
0.029667819
0.05900624
0.004808575
-0.0069767297
0.01780572
0.00052225456
0.047493502
0.012843633
-0.003650298
0.023317324
0.011219972
-0.01866861
0.022506474
0.039038826
0.054672547
-0.028687533
0.031905554
0.04869614
0.07009852
-0.04507211
-0.00018997602
0.016847514
-0.0012076311
-0.010686901
0.010369153
-0.056297533
0.009054294
0.05030574
-0.009822448
-0.07455489
-0.013587237
0.0010783465
0.0036461935
0.03406441
0.042699013
-0.053181518
0.0114498455
0.033065666
-0.057720337
0.04991014
0.03254061
-0.056166958
0.04107388
0.035066668
-0.037214056
-0.068197586
0.02834359
0.0069206385
0.025700442
-0.0032822797
-0.023734078
0.031833023
0.050895207
-0.09281781
0.05945446
-0.028510824
0.0417522
-0.028635964
0.03827576
-0.05387732
-0.007489367
0.011936538
0.016415972
-0.0020680355
-0.04465445
0.047942616
0.029377557
-0.047759105
0.034710307
-0.013209354
-0.021965781
-0.0071009155
0.02088926
-0.03556916
0.045569263
-0.008511619
0.0074044084
0.01825549
-0.009227536
-0.041056648
0.068915546
-0.01841803
0.040915694
0.01240292
0.032508876
0.044989396
-0.0019223096
0.012114427
0.02242268
0.051726177
0.016749553
0.026857983
-0.09157293
-0.020348571
-0.08669887
-0.0737936
-0.015253545
-0.047686577
-0.05254035
0.019041482
0.0023133536
-0.027314765
0.012974056
-0.06068938
0.08511446
0.032287452
-0.021386927
0.009094221
0.029268421
0.049605176
0.021581577
0.044533603
0.10698489
0.07618613
0.032326505
0.073589325
0.06339335
-0.010611795
0.007563934
-0.013574973
0.05578546
0.04586557
0.034775056
-0.04298508
0.054885615
-0.006851416
-0.01727368
-0.026082342
-0.04100354
-0.052504368
-0.0151392715
0.045125194
-0.015584581
-0.10215198
-0.014378625
-0.03696211
-0.010153836
0.0102751665
-0.034377683
0.07073446
-0.015330568
0.0082970625
0.06006104
-0.031941276
-0.057581265
-0.0019785562
0.024714258
-0.048405886
0.07680504
0.00942393
0.0093643535
0.012831995
-0.07736584
0.044239707
0.007599241
0.018160466
-0.03273825
-0.04193689
-0.024128439
-0.011594072
-0.02455441
0.013681597
0.0687169
-0.03744928
-0.007568215
-0.054519616
-0.05766006
-0.029994408
0.00040074816
-0.029164402
-0.039746292
-0.0035735366
0.046872925
0.04998369
-0.00012995781
0.052648146
0.015537503
0.020341894
0.09918773
-0.008449082
0.08327598
-0.0074047735
-0.024140896
0.011350923
0.017685516
0.023657404
0.022355618
0.07560401
-0.001536822
-0.016026879
0.04425694
0.042111713
0.011664434
-0.0034021784
-0.023568928
-0.020078637
0.019686764
0.01596836
-0.0086754
0.03444372
0.011259437
-0.03801712
-0.031707145
0.019203713
0.01919189
-0.021874607
0.048134048
-0.013664598
0.029461432
0.01967215
0.042280447
0.029437626
-0.008222881
-0.019458503
0.038416255
0.016193355
-0.013045576
-0.056126587
0.026409253
-0.04183577
0.0044547752
-0.03161832
-0.020452064
-0.07408833
-0.002896283
-0.054115985
-0.021807576
0.003536194
-0.10137767
0.039593324
-0.06617869
-0.010910918
0.045360327
-0.05450594
-0.035507616
-0.00082556263
-0.043520927
-0.019588176
0.016169107
-0.014534641
-0.06999628
-0.0070206337
0.027903644
-0.008922199
-0.025805151
0.05971279
-0.0011441564
-0.0036577056
0.007091312
0.0088573005
-0.06362943
-0.015260458
-0.0022248498
-0.06862972
0.0045192474
-0.037220903
0.023444831
0.055209525
0.036146056
-0.022270907
0.009318763
-0.044815533
0.030900536
-0.0053693713
0.01237623
-0.058092713
2.8427605e-05
0.041397262
0.033589207
-0.06036393
-0.03554791
-0.02891307
-0.01899401
0.0053889626
0.010959877
-0.057353627
-0.017037865
-0.00073620817
0.06279865
0.0196595
0.063447975
0.06297363
-0.037915498
-0.028391495
-0.0040861713
-0.005453123
-0.022966282
-0.013616782
0.08179954
-0.0019201027
-0.03300138
-0.034431435
-0.034810953
0.06925393
0.07092041
0.014430401
-0.056410316
0.055067793
0.065911524
-0.010688951
-0.001963121
0.053102974
0.022181256
-0.0030007288
0.00034712505
0.010365919
-0.0628815
0.027501548
-0.0034677333
-0.010309554
0.015737109
0.019644558
0.006544693
-0.011974316
-0.025105288
-0.008497658
0.08191136
-0.046362516
0.037284724
-4.7832327e-06
-0.022756888
-0.0014020619
-0.014066451
-0.013312447
-0.0320471
0.018618943
-0.0025132936
-0.010192595
0.001579113
-0.007786358
0.016843911
0.022291197
0.06232199
-0.04386079
-0.022078866
0.03286486
0.0072212666
0.00033747396
-0.020505864
-0.041844245
-0.031550024
-0.0007885068
-0.034178935
-0.011345301
0.035043225
0.05783419
0.021339824
-0.042154096
0.025387825
-0.04230989
-0.016351836
0.006173444
-0.03278458
-0.012996213
0.005873832
0.07476518
-0.021754812
-0.0048632426
0.003726053
-0.033303894
0.03693835
-0.008435548
0.004210809
-0.033409197
-0.0034627442
0.0028565908
-0.039910223
-0.047326304
-0.04599482
-0.01327245
0.047892373
-0.005911017
0.00011098785
0.06679932
0.05245021
0.0017680886
0.026872527
0.08519566
-0.0063225776
-0.01815202
0.02833265
0.01921874
0.053161696
-0.036995072
0.120079614
-0.026975138
0.05251461
0.0073518422
-0.0004346871
-0.0012829283
0.025432257
0.070216954
-0.023699656
0.039504383
-0.03102222
0.047654286
0.01837178
0.09067435
-0.013649547
0.0378564
-0.0013631732
0.033704292
0.00010058303
-0.016132822
-0.027060827
0.014303134
0.032545365
-0.011854459
0.05264664
0.028371848
0.050125875
-0.0029670564
-0.045236405
0.05781701
0.0005200165
0.00997505
-0.023881417
0.021585433
-0.085447766
0.010044659
-0.0047655297
-0.07123424
0.008403167
0.0275905
0.01502737
-0.031660236
0.012193462
0.049658775
-0.07190061
0.06697306
-0.016761603
0.038802326
0.04456898
-0.02920898
-0.039886262
0.0023943204
-0.05490201
-0.079241455
-0.013470646
0.055128846
-0.10346952
-0.02164245
-0.007792595
-0.007601367
-0.03518298
-0.027938299
-0.01774455
-0.060706917
0.07378854
0.020568991
0.08746538
-0.0030011195
-0.03262061
-0.007858896
0.010720301
0.04776555
0.07726198
-0.04888036
0.011894068
0.04310045
0.0033484662
-0.03465732
0.037883844
-0.008980628
0.03226797
-0.02876753
-0.053166322
-0.073911786
0.0063074487
-0.048262168
0.0049827904
0.08977635
0.056775127
0.0029645904
-0.029029168
0.044975393
0.012786013
0.035699386
-0.0028621326
-0.07889075
-0.019945636
0.0014185652
0.003466438
0.034494903
0.015742436
-0.014099321
0.030715503
0.048615836
0.005648751
-0.07543223
0.014499998
0.04501834
0.01626812
-0.024245284
-0.086260624
0.07934247
-0.019998066
-0.07328911
0.028345099
0.05456917
-0.006401154
0.05410321
0.0074880463
4.7014346e-05
-0.04746361
-0.011679559
0.011074951
-0.004700924
0.08450843
0.037174337
0.055533167
-0.00490757
0.03684606
-0.057901625
0.00055800535
0.01760474
-0.020055665
0.02058853
0.00282608
0.052730773
-0.101281434
0.019953059
-0.012138118
0.0059179137
0.02030507
-0.004192753
-0.039545637
-0.020455893
0.056608614
0.010270355
-0.01234819
0.04747897
0.06620809
0.03976808
0.010579714
0.02884965
-0.041741595
0.009679229
0.06539244
-0.043526907
-0.039672352
0.010736836
-0.029352626
-0.06048375
-0.031241601
0.009794286
-0.06671822
0.053415734
0.06822506
0.07355377
-0.01807042
0.0107551925
-0.028375648
0.027594116
0.031209692
-0.010890771
-0.019522397
-0.0460197
-0.02762632
0.038116533
-0.011721594
0.0044793175
-0.034584142
-0.013617186
0.02916526
-0.009981922
-0.024561623
0.0034622843
0.16432318
-0.057360575
0.066177614
0.0072961724
0.010407131
-0.026280195
-0.031647958
0.014310714
-0.0010982953
-0.049449522
-0.05112129
0.029571459
-0.013970744
-0.038195647
-0.033545274
0.010912548
0.047477517
0.01698877
0.03276409
0.022807054
0.064637676
-0.05856911
0.042060453
-0.0070336824
0.038143724
-0.027522871
-0.018530933
0.002958331
0.04841052
0.0046785814
0.034485783
-0.050267804
-0.022033086
0.043664202
-0.026349714
0.018430134
0.009064722
0.028729295
0.0595066
0.005006542
-0.034681972
0.03782013
-0.017320473
-1.5682002e-05
-0.0068181218
-0.007755301
-0.029911144
0.058762103
0.01660953
0.047736295
0.0034663994
0.0527389
0.017499676
0.0053256955
-0.09345561
-0.010933129
0.039623085
0.026821066
-0.0023717347
-0.045933727
-0.015833145
0.104223005
-0.097613536
-0.009642565
0.030670093
0.032225043
0.050191864
0.006315158
0.05362002
0.060379222
0.026097093
0.038900796
-0.0066876602
0.0272773
0.011235679
0.022682734
-0.032546367
-0.038780455
-0.012831566
-0.023964312
0.00014084547
-0.030957617
0.019529946
-0.020712461
0.0052541937
0.037117276
-0.067388296
0.04682465
0.0018519658
-0.025802653
0.002247262
0.030680016
0.055458553
0.0026632948
0.007979868
-0.003771766
0.08958078
-0.085739344
-0.092873335
0.05973427
-0.044782765
-0.055354718
0.09928955
0.031165969
0.07551482
0.039896455
0.034158014
0.035584345
0.008085372
-0.032420263
-0.04218377
0.009230784
-0.011266265
-0.052580588
-0.012483701
-0.009699764
0.0010474615
0.026264528
0.044569794
0.004946471
-0.021866435
0.054118104
0.022243522
-0.014652592
0.023443112
0.04326628
-0.02814058
0.024913108
0.017797818
-0.048696954
-0.042471197
-0.0059068454
0.020701695
0.010717504
0.07941086
0.058427244
-0.008534028
-0.010022816
-0.075018235
0.04062713
0.028259305
-0.019852988
-0.026182864
0.005699418
-0.07200511
-0.025065314
0.008017565
0.032167144
-0.011761392
0.009247963
-0.014681878
0.01825908
0.045723096
0.024455378
0.058776513
-0.042040985
0.03259317
-0.026123948
0.019590335
0.035466477
-0.0017286793
0.0039901235
0.0035390556
0.021753863
-0.029716939
0.09594006
0.07464586
0.07440593
-0.015463985
-0.0073243896
0.0399721
-0.0050112326
-0.03876439
-0.007495011
0.012003294
-0.05175918
0.04123254
0.022100829
-0.030274333
0.029510362
0.013197771
-0.023789793
-0.06625109
0.035046536
0.10038283
-0.011698947
-0.0034633342
0.049707934
-0.070032194
0.023773428
0.0421606
0.05594349
-0.00908154
0.04506167
-0.04369098
0.029265368
0.022628922
0.010483305
-0.029157141
0.008369491
0.0041762507
0.065015204
-0.097539276
-0.038595647
-0.045485914
0.03751861
-0.022836855
0.009839562
-0.041806888
0.02332405
-0.023226276
0.036847096
-0.008631872
-0.03522408
0.010050553
-0.0009906731
-0.012706018
0.027703509
-0.052960012
-0.043593936
0.037094813
-0.041226093
0.056662217
0.059987195
0.029310847
-0.05451317
0.0049660914
0.017853042
-0.034177955
0.004020878
0.043828014
-0.05007847
0.034902316
0.04514454
0.029902173
0.037904598
0.061544437
-0.06372103
-0.0538729
0.02000552
0.035929732
-0.04449743
-0.017616076
0.045383483
0.00037770584
-0.057210013
-0.043997955
0.029815344
0.022171179
0.072824374
-0.052675843
0.021850938
0.007591978
-0.07629858
0.019948225
0.037455924
0.07192908
-0.0446437
0.0208182
-0.051296297
0.017231308
-0.07173869
-0.013267182
0.043127425
0.08369134
-0.00922465
-0.0029189147
0.021703223
0.04277275
0.008513541
0.032200515
-0.004916145
0.014427323
-0.04675481
0.00636936
0.013175607
0.012058751
-0.0038849467
-0.012821377
-0.031083625
0.004316396
0.011826922
0.06566478
0.019658942
-0.013124943
-0.018958658
0.028415436
-0.048189238
0.06757497
-0.027606573
-0.030652493
0.026219858
0.0073622447
0.040527306
-0.0024160652
-0.029377373
-0.022108614
0.02535832
0.054348268
-0.012899254
-0.014445633
-0.014557052
-0.018445553
0.026318066
-0.042176843
0.015395051
-0.0060002813
-0.038571846
0.01998129
-0.0037787075
0.029845461
-0.022564953
-0.0021472084
0.0017212603
0.041993745
0.0022639835
0.0031323968
0.026589729
0.041928437
0.06737119
0.016033221
-0.025322124
0.013828742
0.051664427
0.016551653
-0.012999379
0.01724609
-0.040707305
-0.039267868
0.022480167
-0.00960699
-0.05198213
-0.029700894
-0.0260039
0.028112987
-0.014683467
-0.038027793
-0.03815349
0.03836122
0.03673598
-0.024930323
-0.054519672
0.07181158
0.12192348
0.017053327
-0.0044674375
-0.048360504
0.028468184
-0.024726877
0.024802981
-0.014067882
-0.08250401
0.019857386
-0.0050451
0.011190849
0.02786036
0.02612027
-0.018181017
-0.055144858
0.009103249
-0.018019082
0.037295908
-0.036447905
-0.037848886
0.043989718
0.015566102
0.014494875
-0.029658373
0.07459084
0.07081401
-0.010704552
-0.05569623
0.038547434
-0.032914452
-0.03192208
-0.020926448
0.043285105
-0.0028560204
-0.007958078
0.06426954
0.0116594415
-0.022877606
0.048531584
0.019605964
-0.039892446
-0.005340207
0.015743613
0.025374366
-0.040193412
0.056855045
-0.027494963
0.09058697
-0.0021012812
0.052852683
-0.08766948
0.040108483
-0.046290874
-0.012229837
-0.020892903
-0.051417235
-0.016593315
0.022206368
0.032316435
-0.027270032
-0.07716204
0.028556501
-0.09242755
0.05238857
-0.05753497
-0.01756399
-0.027412951
0.00033818194
0.0446935
0.014869751
-0.0055451114
-0.02033763
-0.017022127
-0.01420651
-0.012675753
-0.013560887
0.018176649
-0.019515116
0.049558017
-0.008324828
0.0068948944
-0.07614235
0.046548504
-0.035662882
-0.014856135
-0.007685382
-0.0619218
-0.0052246824
-0.01476672
0.031603575
-0.0009716986
-0.04383678
-0.0042788964
-0.022394836
-0.031213421
-9.832215e-05
0.023415819
-0.064499184
-0.026547091
0.05843349
-0.024745725
-0.0066843815
0.02064749
-0.026697753
0.002079722
0.022729805
0.05356256
0.013981977
0.02640322
-0.049688734
-0.016045934
-0.025816655
-0.054511297
0.050515883
0.045871362
0.054169543
0.029128304
0.026104951
-0.014668548
-0.032297097
-0.0045879507
-0.006884615
0.047767665
0.00038180535
-0.014406191
-0.0060023284
0.024398409
-0.06628674
0.058966212
-0.0023864878
0.0060088974
0.033564724
0.018593755
-0.04583998
0.0481225
0.04359677
0.028227458
-0.012556196
0.035771478
-0.005867479
-0.07239664
-0.009118068
-0.0201607
0.0008856654
0.015497406
0.013402736
0.04655915
0.036479786
-0.02466148
-0.039108533
-0.033431266
-0.017071605
0.06098582
0.060887594
0.044950347
0.043983713
0.027321547
0.03982899
-0.046282664
0.038020335
0.0050703585
0.023357375
0.04879668
-0.030646227
0.05602887
0.005700603
-0.03490847
-0.07663979
0.018595029
0.012999502
-0.020202188
0.010401338
0.059007674
0.032230247
-0.04561895
0.04501964
0.02645019
0.017786585
0.023112565
-0.0019494933
0.017031034
-0.038091987
-0.07542183
0.057803534
0.08502886
0.01266461
0.07169377
0.052374475
0.021748126
-0.008011704
-0.040717363
0.035287943
0.041445535
-0.015128947
-0.011835259
-0.06154243
-0.03221594
0.029677456
0.05380832
-0.027542973
0.027064549
-0.070902996
-0.004769081
-0.036766287
-0.004682649
0.04652362
0.012286883
-0.04489589
-0.07606912
-0.04271273
-0.022210037
0.019675558
0.039167043
0.07130153
0.008299102
0.033827145
0.011903443
0.016262459
0.07179083
-0.039102837
0.045275163
-0.047068514
-0.004051423
0.0015622744
-0.048772193
0.025267538
0.03595488
-0.055089366
-0.007647442
0.025451345
0.057805628
0.02630492
-0.05159144
-0.014606144
0.029565275
0.064545535
-0.02182928
0.034360424
-0.046775285
-0.03525454
0.006194309
0.032156583
-0.0033239932
0.0056818947
-0.050052732
-0.046584006
-0.032888345
-0.043919936
-0.006240076
0.015140638
0.0027789918
-0.02499545
-0.031844355
0.01814502
-0.03412655
0.04063937
-0.042578053
-0.009086573
0.07516127
0.034796022
0.0136287315
0.045677528
-0.00084483135
0.023767427
-0.035339285
0.03683275
-0.054299254
-0.043484025
0.009260865
0.05183054
0.0778086
0.10093613
0.08090259
-0.06500491
0.053450845
-0.0064856964
-0.0144757405
-0.02146051
0.04039228
-0.040467724
-0.0053654118
-0.11357237
0.0071285106
0.05362238
0.056596644
0.03288486
0.058207475
-0.038026016
-0.05529139
-0.026145283
0.041853465
-0.013273098
-0.02288935
-0.009392662
-0.0077254423
8.5201835e-05
0.066865884
0.034367222
0.03925936
-0.026533242
0.026220387
-0.027527694
-0.032099668
0.051023904
-0.0052092616
0.02588276
-0.124893636
0.026826203
-0.037527233
0.026414812
0.011596366
0.004538556
-0.013816335
0.052073885
-0.0063021067
-0.012794114
-0.020262579
0.03377073
0.0110983625
-0.008685793
-0.016237075
0.04649134
0.049619738
-0.04393756
-0.016801717
-0.013516597
0.008706258
-0.113412976
0.04159773
0.034456667
0.015487627
-0.036873095
-0.012885046
0.06473225
-0.011279627
0.00330375
-0.04818414
0.050255403
0.121052414
0.08730511
-0.019051163
0.041403577
0.01654998
0.0440224
-0.014140668
0.021097792
0.08321362
0.012523736
0.0017326404
-0.05653285
0.029410163
0.029624524
-0.041065
0.01575432
-0.004738904
0.0067601264
0.064464666
0.02186001
-0.03976416
-0.029948127
0.111735806
0.0768489
0.04378191
0.008392753
-0.011720577
-0.016137376
0.0028029978
0.024937082
0.00028308772
0.029383482
0.07882745
-0.033039585
0.052861184
-0.0030521166
-0.010938054
0.025275571
0.06851773
0.005746945
0.049360067
0.027873121
0.059045706
-0.051307477
0.068291254
0.0014713121
-0.04162814
-0.004880069
0.019300863
-0.026300058
0.062146842
0.037173476
-0.025693184
-0.034309346
-0.049638182
0.01979017
0.022194855
-0.017898556
-0.004630831
-0.0058504515
-0.057847187
0.030074958
-0.020740218
0.018913383
-0.01799193
0.03023756
0.001976524
0.030703243
-0.06941812
0.030061416
-0.023867415
0.0096242
0.008463187
0.012961183
0.0062825396
0.037400357
-0.045117736
-0.040280595
0.01719346
0.021294245
0.038019657
-0.00053017266
0.02273881
0.0020056542
-0.06314548
0.006698288
-0.036520947
-0.06738059
-0.0368979
-0.058621943
-0.039765414
-0.022889283
-0.029979149
0.018310925
-0.022604665
0.026844712
0.061828032
0.020772515
0.047943465
0.015159104
-0.00046949717
-0.0055619446
0.012234357
-0.0148195755
0.0016772525
0.0014962034
0.08126821
-0.030191252
-0.004400195
-0.003492119
-0.019035803
-0.030138599
0.019385813
0.026814414
0.06807974
0.018920418
-0.034724507
-0.020459266
0.052723102
0.05290813
-0.07803942
0.05235622
0.0073466627
0.03992271
0.041036908
-0.010279286
0.017435037
-0.016334882
0.038266588
0.046327733
-0.03990111
0.029334662
0.022191348
0.00720887
0.024495905
-0.00095853675
-0.031430226
-0.0046200184
0.0026438066
-0.047231928
0.06645802
-0.080928184
0.040645387
0.027748646
-0.022319918
0.014008463
-0.030433878
0.031448707
-0.062929764
-0.012478809
-0.008854891
-0.045050453
0.026100738
0.015994815
-0.016141225
0.037614465
-0.014258007
-0.0046804766
-0.007678454
-0.019355
0.048791498
0.050950337
0.03428194
-0.018448703
-0.008021863
0.012705168
0.011086823
0.03486928
-0.011167966
-0.07937997
-0.06255642
0.008910931
-0.013995181
-0.010071224
0.007992051
-0.007258492
-0.058440875
0.014270544
0.05108667
-0.04460974
0.028227406
-0.0023837984
0.03054848
0.009443306
-0.0056031714
0.015616095
0.029347507
0.062789895
-0.024605472
-0.016804809
-0.05112531
-0.030230753
-0.042863626
0.10909818
-0.08966215
0.018685646
0.011541799
0.022152668
-0.054275855
-0.014064202
0.023183703
-0.05708853
0.011457663
-0.04823407
0.022374248
0.01712362
0.03590031
-0.0399772
0.05230039
-0.068044685
0.016387535
0.016924191
-0.0554187
-0.057054054
-0.0010807641
0.018585686
0.03156527
0.0073744263
0.034407016
-0.05816108
-0.031977344
0.07089907
0.008075787
-0.025869772
-0.004687382
-0.047571987
0.042910963
0.0676864
-0.018871011
-0.01563779
-0.02762062
-0.068773285
0.025262719
-0.086717136
-0.014976759
0.026575144
0.019226858
0.017337972
-0.06720043
0.005329569
-0.013713905
0.07776991
0.06361645
-0.05691122
-0.022733502
-0.015858935
0.0047780364
0.028917277
0.005506362
-0.075061806
-0.04940933
0.014265144
-0.02669911
-0.020732474
-0.02488612
-0.032218285
0.04489437
-0.013957057
0.09156458
-0.060844135
0.03890825
0.0046312837
0.031097917
0.0088430615
-0.009089179
-0.028586531
-0.043708015
-0.039295606
0.006222322
-0.011863016
0.010805693
0.025264349
-0.008337702
0.014983242
0.008538431
0.04951686
0.04996066
-0.027375093
0.0046756137
-0.07305541
0.008231266
0.0036132894
-0.00322085
0.03870917
0.0055388664
0.0040998505
0.027596334
-0.07328607
-0.0800934
0.022924779
-0.053494755
0.005586554
-0.027571836
-0.02620266
-0.018686622
0.025119314
0.0021075811
0.043676663
0.012145732
-0.037096187
-0.0030314412
0.03870389
-0.01786344
0.031692512
0.006675731
0.022558166
0.022669991
0.07383294
0.070429616
0.024336154
-0.050142244
-0.00711306
0.017808301
-0.042088978
-0.027064092
-0.061787445
0.018883498
0.03420043
0.073144265
-0.0043126014
0.0666095
0.01181898
0.009013219
0.002045317
-0.03449524
-0.073650055
0.0046610795
-0.014364294
0.047113705
-0.015216557
0.018413087
0.057855763
-0.041214854
-0.025757233
0.01185457
-0.035862174
0.07707342
0.0014651112
-0.0043752287
0.05852245
0.058731932
-0.04600645
0.022900203
-0.044392645
0.0005270458
-0.055542745
0.010297564
0.08749288
0.03730823
-0.004892448
-0.008263038
0.005551224
-0.0013217397
-0.015847681
0.028115638
0.065144345
-0.038085002
-0.039393142
-0.01147976
0.0057380702
0.02947719
0.0064871116
0.020740993
-0.032414567
0.044278305
0.046436902
-0.01850582
0.03355012
0.008445106
-0.010522705
0.050035935
-0.08147618
-0.007432216
-0.011392342
0.111351244
0.030984964
-0.03534883
0.09257726
0.044110384
0.045462105
-0.021841772
0.008165685
-0.036990922
-0.041406535
-0.057305817
-0.040550865
0.058661845
0.026499366
-0.02250398
-0.058667198
0.026960881
-0.018401468
0.017861098
-0.014167357
-0.0017706606
0.07792502
-0.030614376
0.034529746
-0.020935396
-0.0007850529
0.0022619886
0.076029636
0.044355523
0.018581
-0.0406848
-0.027646538
0.063907444
-0.02567048
0.04090549
0.08816285
0.07239943
0.019550735
0.022185097
0.07011262
-0.0358202
0.107845984
-0.052939698
0.052447934
0.1293996
0.027449543
0.008405732
-0.075640604
0.012156853
-0.023531547
-0.009091445
0.020294746
-0.034523465
-0.003023764
-0.0066795857
0.017205345
0.06415411
0.012332601
0.03185325
-0.0017915487
-0.06900297
-0.030885518
-0.01430098
0.049329914
0.016921084
-0.026331836
0.018047813
0.0143640665
0.0036158867
-0.0010870285
0.051137798
0.08366067
-0.012507326
-0.021834964
-0.050085302
0.018025082
0.0129980445
0.022299852
-0.027889375
0.013414262
0.0012881558
0.0092459945
-0.015321653
0.01810013
-0.071435265
0.036360744
-0.027349344
-0.05454509
0.0027818729
-0.010000083
-0.030606361
0.035142075
-0.046404444
0.015101721
0.0047882423
0.017953763
0.052677456
0.008656535
-0.007889099
0.029829716
-0.0051620463
-0.025397543
0.07396385
-0.056645393
-0.0014801151
-0.012299466
-0.017113563
-0.049370557
0.017061135
0.011364012
0.040745538
-0.022451142
-0.0025094491
-0.0050556557
0.066535555
-0.022008335
0.08613185
0.013896367
0.037301738
-0.014878532
0.059570298
-0.0018100217
0.008124315
0.010104521
-0.001878601
0.058745384
0.016265696
-0.04227916
-0.008822498
-0.0553059
0.03914523
-0.039730135
-0.006043633
0.026240062
0.03215802
0.041283496
0.07933137
-0.010642843
0.00793112
0.064277254
-0.08119684
0.038577925
0.03306919
-0.029880567
0.016507056
-0.067030735
0.021395272
0.076639675
0.007230372
-0.0033783305
0.07174474
-0.0021019648
0.044258133
0.018192591
0.06699847
0.013053619
0.021753088
0.008443637
-0.021818988
0.043110482
-0.04329668
0.024627196
0.017370382
-0.049467433
0.017830469
0.0074109854
0.021610472
0.065914646
-0.036502
0.030318648
0.003324152
-0.052955776
0.011747359
-0.037557457
0.013221618
-0.000261411
0.013922041
-0.040996995
0.02179924
0.07938424
0.09632995
0.028457824
0.00059622334
-0.018352875
-0.026695292
0.03869267
0.037028622
-0.02284717
-0.020440843
-0.0041467724
0.041380633
-0.004969182
-0.011380111
-0.033060107
0.0093844095
-0.090004034
0.02857516
0.024671998
-0.030208506
0.0064567383
-0.00021147548
-0.022417242
-0.071083784
-0.020625025
-0.029647015
-0.023100428
0.0062272083
-0.031300705
-0.049594935
0.012937201
-0.057866037
-0.00077057065
-0.035617486
-0.013610727
0.021075612
-0.028469607
-0.052584667
-0.060196277
-0.026734672
-0.032912076
-0.019054132
0.023109872
0.03412692
0.04218425
0.021810545
-0.037099183
-0.020667505
-0.015738554
-0.027401604
0.0051569403
-0.01614679
-0.015425845
-0.06918222
-0.04760146
-0.016586835
-0.048518024
-0.057795297
-0.00014032735
-0.0072516613
0.032721452
0.012633971
0.020610735
0.007560391
-0.025602235
0.025347816
-0.0056355637
-0.021165967
-0.009249175
0.035219993
-0.02388647
0.013081008
-0.0022978524
-0.004313134
-0.0023835707
-0.036520634
0.022415003
-0.057908054
0.0051511265
-0.022958485
0.0008976235
-0.036650926
-0.016631784
-0.0077575077
0.043762404
0.021961916
0.001826784
0.025922168
0.03750274
-0.013098477
-0.079251535
0.01619337
0.026416851
-0.01539045
0.060212944
-0.008362875
-0.075313754
-0.012909847
0.04974989
-0.03705938
-0.008133006
0.008362941
-0.08935156
0.0027461012
-0.01975343
0.0015657214
1.4970761e-05
-0.0002396577
-0.034539603
0.049329665
-0.07451057
-0.05555637
-0.018841682
0.01657609
-0.0035335603
-0.031087367
0.034226213
-0.029754316
0.06691354
-0.054195337
0.0129275285
0.013305239
-0.0032477977
-0.014686376
0.043789707
-0.05485796
0.018270928
0.032766134
0.065438345
-0.07424771
0.06512344
0.073195666
-0.0204081
0.0108122425
-0.043193534
-0.013713845
0.005280342
-0.04127486
-0.061442077
0.03834063
-0.01652319
0.011106915
-0.00070294476
0.036837988
0.052243944
0.06680658
-0.05873599
-0.023060873
0.035696696
0.00026652456
-0.081176594
0.045762222
0.004333933
-0.03269491
0.024915338
-0.034340218
-0.009492875
-0.010617292
-0.036589187
0.019516446
0.07633521
0.011322537
0.078783564
-0.004207909
0.010565786
0.0057999818
-0.024125863
0.004176151
0.002998257
0.027458303
0.058969934
0.06864463
-0.005386422
-0.0047636116
-0.0017289835
0.0074027553
0.014232855
-0.008263264
0.037008468
-0.0071893074
0.0061613
-0.046573877
-0.0020163278
-0.024161063
-0.012779777
-0.03849717
0.004059921
0.040644202
0.032591846
0.07191516
0.043523703
-0.009566015
0.014443054
-0.011238426
0.051393583
-0.037525147
-0.0034564098
0.05335763
0.0024982868
0.014548969
-0.057842158
0.0224155
0.03157959
-0.024278503
-0.074837245
-0.00969874
-0.014115311
0.009381356
-0.020423472
-0.050398022
-0.05114721
0.014050302
0.004357716
0.008272971
0.053343117
-0.054081645
-0.020748798
0.013065816
0.0365742
-0.052516907
0.0029956056
-0.04528069
0.03999015
-0.03868764
-0.049240194
0.023996755
-0.038418807
-0.022673713
-0.02309457
-0.035227
-0.02692029
-0.05874576
-0.078723215
-0.010409991
-0.06775342
-0.0030422274
0.00636117
-0.028689055
0.093740955
-0.0032757323
-0.08556331
0.024495693
0.022795673
-0.018198503
0.05993972
-0.011376266
-0.03510394
0.07361273
0.033644233
0.059811886
0.06891936
0.02489531
0.033823583
0.049337197
-0.01620278
0.02082371
-0.045979407
0.02640172
0.027853955
-0.023117935
-0.017973391
0.0047006854
0.00047567044
-0.013018226
-0.07926549
0.009322324
-0.0045996564
-0.08519803
-0.015128465
0.037318204
-0.022159018
0.040389773
-0.055526283
-0.045139875
0.031626407
0.03466575
-0.0934374
0.009441471
-0.0734366
-0.07940344
0.002707045
-0.005777684
0.0014291714
-0.025375197
-0.030177088
-0.008858076
0.005778349
-0.020256279
0.095995896
-0.027389972
-0.000544733
0.036990315
0.018501211
-0.039862692
0.014663809
0.0035430985
-0.068993606
0.0048584873
-0.035645228
0.0072206473
0.020788869
0.06695896
-0.017599879
-0.023760645
-0.033979155
0.00016758215
-0.009613314
-0.027083851
0.011354662
-0.035186686
-0.005015074
-0.030064201
-0.044307563
-0.058320113
0.039777167
0.048853453
-0.007980176
0.009014938
-0.04648382
0.019429933
0.013022041
0.047960546
-0.059068695
-0.04490855
0.0057131033
-0.060574375
-0.009935428
0.03179741
0.041440155
-0.0075461925
0.024510551
-0.008522285
0.033504035
0.07480112
-0.045911726
0.05586226
-0.04321292
0.01495404
-0.03634209
-0.007476148
0.018021025
-0.03349571
-0.056824595
0.009780259
0.051969748
-0.103217795
0.021686763
0.026451971
0.054594938
-0.070377216
0.0056405496
0.00795516
0.012458852
0.0574933
-0.026526192
-0.0025210744
-0.023995884
-0.028210735
0.03165651
-0.060372796
-0.038175482
0.04162957
-0.10158647
-0.022466047
0.043387808
0.0026088816
0.01450286
-0.035978355
0.024665782
-0.030252786
0.0013828262
0.0047755386
-0.03221139
0.02082093
-0.0075696814
-0.009334353
-0.08716825
-0.0110924775
-0.06998025
0.027910464
0.012677242
-0.06192634
0.026150493
-0.002309095
0.017693589
-0.06102783
0.039015155
0.08287542
-0.040143766
-0.023951622
0.055545714
-0.027458085
-0.043655973
-0.087539285
-0.0029986731
-0.0048229834
-0.041486207
-0.00037480795
0.020133762
0.043151215
0.020199334
-0.01436662
-0.09202288
0.032013252
0.025679523
0.012224171
0.01861157
0.01575972
0.008205905
0.0042152703
0.0074618435
0.0061859773
0.0013773694
0.075752676
-0.086448446
-0.019357778
0.00040654058
-0.009319427
-0.088983126
-0.030499008
-0.05586225
-0.006460887
0.012290846
-0.01412594
-0.105391726
0.055838052
0.082862906
-0.059551716
-0.007431532
0.047036815
0.009452349
-0.06841871
-0.03563703
0.0398878
-0.07558848
-0.03881118
-0.022723073
0.0137466295
0.005572967
0.011963077
0.009408307
0.08939629
0.021711867
-0.054656636
0.034931462
0.016102126
0.010815768
-0.0017530682
-0.036419988
0.020657945
-0.06983992
-0.029658223
-0.034964804
0.03305156
0.01259261
-0.0030111363
0.05742979
0.010571752
0.014060034
-0.01692032
-0.056295335
-0.032668516
-0.05369844
-0.030082148
0.017114358
0.021425996
-0.038665313
-0.052985225
-0.0119363535
-0.060212824
0.0036431646
0.0033025832
0.033636037
-0.03134162
-0.0076515228
0.046995103
0.0017116634
-0.049184654
-0.012570383
0.036968507
0.05099191
0.04869326
-0.031408202
-0.0682991
-0.0323522
-0.0038974246
0.03225101
-0.031765614
0.017660908
-0.044259537
0.02187574
-0.016866783
-0.012967179
-0.014946531
0.018392993
0.030108085
-0.0006616539
-0.008304351
0.032136247
0.040891778
-0.07034386
0.017841974
-0.043511715
0.03447145
-0.03850206
-0.008294612
0.038172472
0.049554374
0.0037398697
-0.033232264
0.070233606
-0.043283314
-0.013598906
0.040912803
-0.004162438
-0.021678584
-0.039981794
-0.03997388
-0.049377665
-0.035255343
0.003079672
-0.06746435
-0.0028748112
-0.043207064
0.0027612743
0.002892768
0.06055754
0.033949353
0.043537274
0.057196844
0.12137544
-0.01302562
0.0064116786
-0.05312764
-0.036578532
-0.0070104147
0.013631233
-0.03926988
-0.048413835
-0.005262132
0.09239259
0.111669324
-0.024180656
0.0016029357
0.0037113568
-0.037245218
-0.031587023
0.03806858
-0.023094315
0.07896742
0.045396388
-0.03161174
-0.030256882
0.006808116
-0.0005346318
0.0022466462
-0.07534106
-0.0060931803
0.061941866
0.04237464
0.0038117713
-0.05328194
0.040078428
-0.048878223
0.05010445
-0.022098511
0.03292395
0.042921033
-0.020071505
-0.04348687
-0.001282232
0.022987112
0.0219588
-0.020509936
0.050442208
0.005600869
-0.0012006185
0.027221262
-0.016401181
-0.10045427
-0.030419163
0.0092985835
-0.038063947
-0.027744697
-0.018496394
0.013908822
-0.06132882
-0.05980646
-0.03296163
-0.009091947
0.03903647
-0.013281714
0.07266488
-0.051118933
-0.043731734
0.052015573
0.0049693338
-0.01289911
0.03076749
0.014370624
-0.036119744
-0.019054625
0.06718103
-0.005395403
0.047419097
0.014899124
-0.056545522
0.075502224
0.011547035
0.030013835
0.014948743
-0.048713554
-0.03586636
0.03763666
0.013255774
-0.03861908
-0.00080298004
0.04352432
0.054557983
0.016745746
-0.036483694
-0.063348226
-0.028319117
0.038966045
-0.020497
0.015149867
-0.014286666
-0.013104953
-0.027108826
0.0612361
0.031146677
0.056497626
0.054897383
-0.004933391
0.05825658
0.020018622
0.0058388556
-0.01492239
-0.013564596
0.033395376
0.03182071
0.03861516
-0.037126534
0.06148965
-0.030133516
0.026684994
-0.047750242
0.010720987
0.038221348
0.008390416
-0.014721922
-0.07549737
0.00915106
-0.029959714
-0.029521028
0.013320108
-0.01802611
0.036051717
0.0020349466
0.03318447
0.04542587
-0.053325642
-0.016005447
-0.043056674
0.049993932
-0.05044792
-0.014108365
0.015247435
0.006552915
0.081097424
0.011396464
0.046883903
0.0017884233
-0.05838853
-0.014689268
0.0005100432
-0.048226673
-0.020328686
-0.023121135
-0.008619857
0.027950311
0.027067678
-0.016259871
0.09543401
0.018662835
-0.0020580203
-0.028082052
-0.034127835
0.014388443
-0.00027205553
-0.00547276
0.015756378
-0.034575343
-0.03462886
-0.0029326335
-0.014264139
-0.02352273
-0.01695072
0.012743668
-0.03956064
0.003184202
-0.004551457
0.056771155
0.015928918
-0.02248864
-0.043689504
0.046962976
-0.092420794
-0.017642139
-0.08521471
-0.054080598
0.09750292
0.015990581
-0.07457862
0.080086514
-0.007291749
0.022531575
-0.008579228
-0.0025546465
0.025172886
-0.0038648935
0.006000942
0.016549418
-0.020637667
0.051039085
0.045027338
-0.02609615
0.06334505
-0.051461145
-0.003507468
0.021017412
-0.0049066246
0.013808543
-0.025916412
0.0017985753
-0.022485878
-0.012243013
-0.02976869
0.010499479
-0.00803669
0.06399934
0.016260289
-0.019930849
-0.06824192
-0.014956711
0.011625463
-0.003960554
0.05829783
0.009762739
-0.049984746
-0.030737897
0.032638784
-0.029381543
0.014125611
0.058247566
0.0020903738
0.036927365
0.0011699988
0.018786773
-0.052061457
-0.04386475
0.010764008
0.018870935
0.006599196
-0.03429118
-0.02357861
-0.04538776
-0.027475972
0.029237926
0.018218748
-0.08703033
-0.022543624
0.018618198
0.0097399065
0.014488572
0.014396282
0.034232322
-0.03187588
-0.0028263927
-0.027688527
-0.09727175
0.0026600396
0.02898632
-0.023563372
0.014300584
0.041395985
-0.053380746
-0.017253881
-0.025309233
-0.02392871
-0.06269511
-0.054277916
0.0011265224
0.0453984
-0.07037643
0.0272534
0.07287348
-0.025815023
-0.028567264
0.04016614
-0.06650323
-0.017607853
0.020830423
-0.018940946
0.03608012
0.09647574
0.0037289949
0.03360993
-0.002588627
0.022869216
0.048023492
-0.011940517
-0.032472685
0.03571142
0.014402734
-0.017234655
-0.051592685
-0.0076504266
0.011419444
-0.03392892
-0.0053545493
0.066049844
-0.048655473
0.06472208
0.016208319
0.014174399
0.093529165
-0.006748341
0.04991046
-0.045700178
0.0021873715
0.049778573
0.018402683
0.061515033
0.011194352
-0.009873266
-0.034391217
0.060913
0.006175349
0.014980371
0.025907477
0.018560572
-0.060230587
0.0004793663
0.046417948
-0.028596392
-0.0004750959
-0.0022239496
0.014699699
0.008435056
0.015900355
0.026674224
0.015798768
0.0006252245
-0.021499936
-0.0065746005
-0.043419834
0.030201934
-0.10611176
0.0050770817
-0.0036132606
0.016872842
-0.020188091
-0.024912369
-0.0001763527
-0.021660736
0.074161865
-0.0363857
-0.0008673667
0.043341763
0.009106679
0.031043222
-0.007387082
-0.04992289
-0.0039226697
0.020598466
-0.07430289
-0.050616626
0.04365018
-0.034048267
-0.029576048
0.004683953
0.032801494
-0.010743001
-0.029174378
0.07083118
-0.009655864
0.026206153
0.00066515425
-0.03602676
0.04075299
0.068672076
0.0020471131
0.023455225
0.037939467
0.0047754454
0.0078980625
-0.008358962
0.013082315
-0.049853876
-0.0569669
-0.038823117
0.0039084638
-0.085489616
-0.039639458
-0.009496555
-0.0951736
-0.04269237
0.033115547
0.030694917
-0.008661216
0.02806603
0.00050348573
-0.023609966
0.0048455116
0.00545664
-0.0013747498
-0.06101265
0.042125735
0.07127584
0.052932855
-0.06339628
0.046645295
-0.04156005
0.0051353397
-0.00063235796
-0.090366505
0.027496364
-0.041000754
0.0067439945
-0.030104658
-0.012500931
0.003287361
-0.06933939
-0.035880506
0.040189162
0.054434113
0.036025442
0.03900617
-0.10212697
0.003340789
0.017246641
0.11179035
0.02795261
-0.051612828
0.013516035
-0.020719787
-0.0037650894
-0.016232122
0.025119416
0.027556717
0.05083712
0.005005456
-0.022799516
-0.013599734
-0.022193002
-0.048867
-0.02991636
-0.050911617
0.02263745
-0.0728679
0.052220546
0.04825624
0.023052251
-0.08959569
-0.021925583
-0.038178157
0.003992787
-0.0093812365
-0.014758936
0.07367416
0.035141435
0.085466504
0.03625008
0.028719394
0.031342905
0.025383165
-0.034696147
0.03000901
-0.021101177
0.041167237
0.008319344
-0.05706397
0.007906492
-0.016469216
-0.071304806
-0.009750519
0.0073339106
-0.0009121352
0.04889022
-0.009884726
0.008056068
-0.01996834
0.0071259127
-0.069449835
-0.061429273
-0.028563445
-0.071715824
-0.0869009
0.025921412
-0.046385407
-0.03509512
-0.069856584
-0.022011591
0.050507583
-0.01667974
-0.0179742
0.030236298
0.025548019
-0.08233244
0.04998725
0.00046004454
-0.035229623
-0.023560878
-0.034473132
-0.04384734
-0.049867705
0.037941895
0.0045043333
-0.009870161
0.00053213
0.018430468
0.009827381
-0.010721294
0.07909659
0.03746084
0.02616595
-0.059989613
-0.021078764
-0.023037307
0.008056399
0.014733011
-0.021350596
0.028577575
0.022632562
0.0074302615
-0.021188134
-0.034575343
0.044079963
0.03300828
0.03820336
-0.0036678875
0.025605682
0.031258147
0.022239905
0.0073856316
0.035859317
0.039330576
0.056952555
-0.019634882
0.048891418
0.03482876
-0.039416254
0.05037612
0.03163504
-0.008141093
-0.024039559
-0.053333916
0.057957683
0.05137144
-0.0034077438
0.054968357
0.046355594
0.012734013
-0.016266126
-0.028579734
-0.022157157
0.00975252
0.089304775
-0.044923678
0.056337032
0.009564073
0.009705973
-0.03832347
-0.001376432
-0.035082392
-0.0437101
-0.024458988
-0.02848221
0.029536499
-0.019401042
0.117890984
-0.06474614
-0.016871974
-0.007926329
0.0076946006
-0.052699722
0.068991534
-0.06387149
-0.023480589
0.004811017
-0.06892876
-0.033275228
0.02156741
0.014264418
0.042510595
-0.0042223474
-0.0070628123
0.05218564
0.012671279
-0.007096413
-0.055814695
0.011826394
-0.04231455
0.073199786
0.029740691
-0.03150269
0.006335449
-0.0064032967
0.04724939
-0.045898978
-0.056214165
-0.016062848
-0.0038358837
-0.059664585
0.03583599
0.027370604
-0.036708966
-0.040967096
0.040308192
0.00792079
0.007943311
0.050422713
0.025768409
0.017211152
0.03686524
-0.010867755
-0.039736114
0.033999067
0.0018609696
-0.024622288
0.064728186
0.017896628
-0.009103072
0.0016334272
0.032296836
0.07821054
-0.06327927
0.07263243
0.029059539
0.004999938
0.022312362
-0.100328125
0.0120989885
-0.0061603854
-0.08141468
0.048407752
-0.021665715
0.00030329672
-0.024687992
0.02292617
0.017097399
0.013892341
0.0048889862
0.015339016
-0.05552548
-0.002891315
0.008917792
0.040371113
0.02690115
0.07211979
-0.018273987
0.025538582
0.017309595
-0.005446535
0.032157943
-0.04032049
-0.007121452
-0.012632662
0.033826184
0.024937268
-0.02077592
0.02093033
0.022808403
-0.030798845
-0.021864584
-0.08654958
0.05493819
-0.07192161
-0.0017022273
-0.027266588
0.006886884
0.019739108
-0.007601674
-0.04814282
-0.019525345
-0.0048406813
0.05821919
0.013184679
-0.060152967
3.275412e-06
0.02023869
0.021142054
0.020204512
0.009647254
-0.030393481
-0.045994096
0.03453184
-0.00719252
0.02255312
0.025911853
0.009787488
-0.0053413287
0.007966368
0.007966124
-0.071034744
-0.0069864034
0.008454057
0.026813235
0.063544266
-0.04027551
0.04914114
0.020899154
-0.012602832
0.03671951
0.053658705
-0.024553739
0.0076919883
-0.015579785
0.019692238
0.03945249
-0.0014826425
0.026831208
0.086401775
-0.023826076
0.049559347
0.035624772
-0.027208842
0.02231181
-0.0058762245
0.001917974
-0.009370852
0.023989819
-0.05329559
0.029752795
0.013868267
-0.00075311534
0.008277452
-0.001914587
-0.013194676
0.040481664
0.022450587
-0.050538406
-0.052818995
0.03363216
-0.0048768143
-0.0041276077
0.016657863
0.0045360853
0.017555175
0.024051355
-0.0075182407
0.004786663
0.040091973
0.007462827
0.01969891
-0.009591805
0.03340692
-0.043899175
0.01189473
0.011863134
0.008334043
-0.006107949
0.020852963
-0.017929232
-0.024353545
0.021460572
0.0076979967
0.041793488
-0.07306033
0.04514616
-0.004596648
-0.018316392
0.09104249
-0.009061081
0.01148526
0.024993094
-0.009736067
0.010540455
-0.091786735
-0.006071667
-0.0053414893
-0.07090507
-0.01913004
-0.025783254
0.00038134013
0.039195288
-0.009733194
-0.031600375
-0.0116294585
-0.05022642
-0.005920586
0.052744243
-0.0136762075
0.015914775
-0.027741026
0.031343024
-0.10046415
0.042231612
-0.021179207
-0.04612253
-0.0148726655
0.006508516
-0.019318342
-0.026823407
-0.0038123515
0.016265083
-0.021276781
0.06688997
0.011470656
-0.026821878
0.034411184
0.079949886
0.002018575
-0.0033571667
0.009331954
-0.010199551
-0.039533313
-0.089528635
0.00679563
-0.05353453
0.007146737
0.00506049
0.027815903
0.05940776
0.06682925
0.018068785
-0.057933252
-0.06009054
-0.057108693
0.022036228
-0.10669955
-0.021139609
0.035099883
0.030432686
0.03997205
-0.028949449
-0.056105375
-0.0294297
0.05865153
0.008036981
-0.031635374
-0.02889131
-0.14402846
-0.0038256298
-0.025317658
-0.04919715
-0.026961613
-0.10223103
-0.07146496
0.020831473
-0.005531498
-0.05515156
-0.10765883
0.06134419
0.045237076
-0.0034182793
-0.017383806
0.036821976
0.044934608
-0.043175954
-0.005957044
-0.017752178
-0.045359306
-0.051733773
-0.07849203
0.040191222
0.0049418416
-0.03478826
-0.05815707
0.02984202
0.010166615
0.02396524
0.016203448
-0.010579685
-0.07011561
0.01538593
0.0527387
-0.078831874
-0.020742467
-0.0127941845
-0.009992491
-0.0005851241
-0.003944391
-0.022860503
0.04376269
0.00972286
0.010861744
0.033784274
-0.09669144
0.0059475317
-0.018600618
-0.09092563
-0.020710142
-0.0058029313
-0.027761962
0.034836944
0.0358235
-0.098482706
-0.04498758
0.031251837
-0.012089129
-0.05198042
-0.0068571875
-0.07979606
0.00622985
-0.034809124
0.026697068
-0.07481132
-0.06356507
0.053515002
-0.09834597
-0.048953593
0.022101454
0.003486167
-0.039527755
0.0013310254
-0.03990759
-0.012420687
0.058336828
0.015577462
0.022298751
0.05679901
-0.0004607051
0.012429324
-0.031551782
0.03298387
-0.003529808
-0.06542838
-0.0040772744
-0.040358104
0.021523064
-0.020315873
-0.06553455
-0.03139055
0.012104936
0.02888174
-0.019443162
-0.013020951
0.05183895
-0.036354862
-0.0053257216
0.05030938
0.001948459
0.10406114
0.0013444548
0.0207455
0.048663277
0.009710639
-0.016889371
0.02273501
-0.036199797
0.090629816
0.054713827
0.074822664
0.0061884085
0.10872804
-4.0502495e-05
-0.04865215
0.012654536
-0.022895962
-0.021360725
0.0037869252
0.044732526
0.01910598
-0.07328696
0.0014720061
0.08697746
-0.022941727
0.027485063
-0.03793013
-0.0064019826
-0.0035076549
0.01091364
-0.00080019207
0.042075157
0.04139554
-0.08777966
0.015937291
0.023295065
-0.05001307
0.035614148
0.059751403
-0.004535887
-0.010882087
-0.05109027
-0.045861002
0.0032418508
-0.022950292
-0.022337062
-0.036712974
0.037985116
-0.032479312
-0.050523907
0.04611976
-0.0049896864
-0.0055171335
-0.08954735
-0.011465457
-0.019094162
0.02042838
0.007767785
-0.029800724
-0.08920288
0.010186894
-0.02254838
0.0048933937
-0.009306893
0.003578936
-0.01635773
-0.062394872
-6.678558e-05
0.002478914
-0.05656833
0.014785067
-0.021835623
-0.04916994
0.0067489166
0.013056263
0.030593375
0.025163824
-0.061323646
0.018471558
0.06195853
0.022346368
-0.044113252
-0.012225032
-0.052055415
0.030595127
-0.015017557
0.049429573
0.044401694
0.06322374
-0.031244207
-0.007112001
0.028383456
-0.006583323
-0.005779698
0.017447725
0.039261952
0.00023576031
-0.007310795
-0.012660787
0.008082215
0.027836358
0.07282414
-0.043164134
-0.049333338
-0.080079906
0.0005002327
-0.020093981
-0.055272464
-0.007073225
-0.04072666
0.03128655
-0.031000834
0.02486944
-0.03565582
-0.060750056
-0.003098801
0.001085237
0.013578473
-0.030457014
-0.004452781
0.03140256
0.07635045
0.014284687
-0.051346682
-0.026203336
-0.006253945
-0.0070041865
0.014083934
0.0013660525
-0.013009951
0.055855945
-0.00771283
0.05165989
0.041251328
0.025191622
0.0018736672
-0.010004187
0.120282866
-0.055527356
0.047767784
-0.092601396
0.005610721
0.0048196944
0.03587024
-0.021595381
-0.083557926
0.027559511
-0.0039681
-0.08336061
-0.03444805
0.007665084
0.013148512
-0.024865318
-0.009804355
0.017079428
-0.031119986
0.04371279
-0.030227222
-0.036835887
0.004433106
0.02156122
-0.026889049
-0.008734126
-0.0130508365
-0.010208008
-0.05969632
0.035340633
-0.019325925
0.032703537
0.07453735
0.020247208
-0.014905036
-0.054530825
-0.03855503
-0.006657805
-0.035717864
-0.01329577
-0.013490662
-0.037213515
0.052863717
-0.02058212
0.04234985
-0.0013204316
0.058333844
-0.020360528
-0.055032298
0.04278288
-0.005627658
0.01877906
-0.030281838
-0.019601088
-0.019570664
0.01928056
-0.07938778
0.07722363
0.12142741
-0.040985845
-0.025805797
-0.019280978
-0.02810391
0.042969305
0.0029779363
0.073474295
-0.043683656
0.009639574
0.032904543
0.0221807
-0.024727061
-0.020566842
-0.036841102
0.0020997436
-0.012377217
0.010224264
0.08895463
0.04644105
-0.04629902
-0.056030434
-0.042976376
-0.04799933
-0.06609567
-0.035685997
-0.025021456
-0.023570085
0.0163702
-0.038933657
-0.009672023
0.11516362
-0.020973876
-0.024178505
0.014888349
-0.08676404
0.027313793
-0.022200644
-0.025184492
0.034003515
0.037531722
-0.06967677
-0.0834781
0.04135516
0.038494743
0.02769453
0.050023932
-0.026883766
-0.0002481106
-0.0014803541
0.022259617
-0.0012378647
-0.07577654
0.03407331
0.04851174
-0.009712172
0.07557527
0.09708378
-0.05435052
-0.016462184
0.0024334341
0.007724693
0.04143367
0.030797575
-0.003924387
-0.027517594
-0.02370615
0.018812593
-0.061772425
-0.029194657
-0.023368178
-0.01912501
0.027602654
-0.011597821
0.084892474
-0.0072059133
-0.015410881
0.02152433
-0.007046481
-0.0014377761
-0.07057125
-0.021155661
0.059940696
0.019328976
-0.043624543
-0.040487465
-0.0075626713
-9.186056e-05
-0.075724415
0.025578463
0.0430388
0.018196957
0.018666292
-0.033147097
-0.060066923
0.019247139
-0.028821232
0.028398344
0.00031081066
-0.02898179
0.0215233
0.018931547
0.01720736
-0.038064025
0.024814295
-0.0024149665
0.0023896005
0.0053948266
-0.04785278
-0.08590175
0.048735958
0.0162187
0.035956144
0.054940417
-0.039955646
0.027604204
-0.01831616
0.0012232333
0.06929606
-0.023214834
0.12656693
0.02937764
-0.009857769
-0.038705926
0.0031219213
-0.01989827
0.0025600172
-0.03422323
0.031298634
-0.049861915
0.05954612
-0.013399497
-0.03113902
0.03079623
-0.043381803
-0.056815933
0.0004919826
0.004168148
-0.08452119
-0.063517205
0.0624193
0.1005413
-0.02623732
-0.0019223292
0.0274027
0.0065318868
0.04253372
0.040127046
-0.015026631
0.01415845
-0.008461166
0.0057959277
0.0055152564
-0.04845512
0.041883077
-0.034581732
0.053895194
0.0015556408
-0.09759107
0.08502374
-0.028952206
0.026944676
0.04460315
0.029202132
-0.005358936
0.032533873
-0.03937162
-0.00948569
-0.07182004
0.025282137
0.040975012
-0.0040629776
0.053792965
-0.018166145
-0.109395176
-0.0276351
0.048780445
0.00924798
-0.03573971
-0.0006194508
0.050059743
-0.04025208
0.049426295
0.026093783
0.0015961506
-0.054976244
-0.040245995
0.04344886
-0.03473818
0.048133183
-0.023846624
-0.028672533
0.07577845
0.035213828
0.025937434
-0.016229467
-0.039763283
0.00021014393
0.012139267
-0.07112138
-0.04629214
0.012931088
0.0050552553
-0.046709318
-0.02465168
-0.04992635
-0.0039586327
0.09616433
-0.0080051385
0.067512795
0.03897494
0.050523795
0.00020328011
0.027577948
-0.008831739
0.0036973113
0.0008911903
0.014745398
0.053437978
0.027410254
-0.027761199
-0.08164796
-0.06178466
0.03575096
0.047791384
0.022483194
-0.029046169
0.008032247
-0.027579347
-0.043261368
0.03462888
0.040475164
-0.0144547
0.07079207
0.008206155
0.03415415
-0.060378138
-0.035531007
0.04072925
0.027827108
-0.002098759
0.06683175
0.0018007213
-0.046331134
-0.017771898
-0.03129432
0.0024401338
0.065023296
-0.013797425
0.03255065
0.07400764
0.061666645
0.082942076
0.025687391
-0.06907768
-0.02415045
0.008517509
-0.090325356
0.016043365
-0.040912338
-0.018536074
0.010066186
-0.023509325
0.028292865
0.019899642
0.0005842083
0.022332344
0.009779256
0.11022146
0.0336949
0.033305712
-0.011663203
0.0147671485
0.020546079
0.008138302
-0.04373027
-0.042068616
-0.05642445
0.024189826
0.06701461
-0.0005179237
0.0153019745
0.005701684
0.09734644
0.037336834
0.003462993
-0.021008687
0.036460906
0.0017962045
0.029585607
-0.0051340177
-0.037028205
0.00042401865
-0.019353088
-0.04633159
0.014320634
0.025966471
-0.0024166615
0.04716744
0.07121473
0.014905988
-0.017011646
0.06574217
-0.014352128
-0.007939208
0.061263204
-0.016984096
-0.07239719
-0.010447077
-0.013727865
0.019695537
0.04594326
-0.003543661
-0.00812505
-0.055589214
0.020702055
0.043755494
-0.002564746
-0.04189095
0.039356392
-0.002528348
-0.045364052
0.042700745
0.046358284
-0.022404755
0.03253047
-0.02768338
-0.050260607
0.02747422
0.04543711
0.0463424
0.0720426
0.03762019
-0.010640988
0.009618396
0.05871731
0.005243577
0.029826384
-0.009412839
-0.032573935
0.06857781
-0.00448296
-0.09497305
0.04211264
0.035865013
0.044283982
0.025993736
-0.020876074
0.0038304415
-0.083712675
-0.021220379
-0.0061638323
0.031221945
0.03169137
0.0024342134
-0.002924581
0.025609775
-0.020347273
0.027086863
0.035076085
-0.004523887
0.090012915
0.06763608
0.11069479
0.05472163
-0.016854806
0.004683372
-0.021912552
0.0016309685
0.023820274
-0.004066211
-0.035282478
-0.049101442
0.01556756
-0.007063065
-0.045958687
-0.028481157
-0.010470722
0.013973925
0.013202577
-0.002753044
0.02351283
0.008603738
0.010808335
-0.029881543
-0.025852852
0.015080439
-0.014529834
-0.0050159944
-0.001282348
-0.03758659
-0.03939212
-0.041172925
0.045922473
0.01865495
0.030388879
0.03146139
0.066026226
-0.029268075
-0.011808825
0.007665387
-0.02617441
0.035199095
0.035228167
-0.056513827
-0.075037576
-0.011094968
0.053239103
0.015337008
-0.046403393
-0.057438508
-0.0017142642
-0.06970276
0.002170197
-0.008377112
-0.010677165
-0.0315524
0.016857233
0.0010702492
-0.0074083144
-0.0057978816
-0.07981564
-0.0498396
0.03796411
0.033468653
0.04870825
-0.049061414
-0.019150509
0.08740051
0.08674054
-0.023905825
-0.06612353
0.030518038
-0.075293355
-0.010542646
0.0048353225
0.033315234
-0.047775332
-0.026642568
-0.00417998
-0.020223977
-0.019307459
-0.03734478
0.010233733
-0.056017447
0.025483053
0.028441316
-0.029734716
0.008226861
0.05153665
-0.02623958
0.034085274
0.017485455
-0.013234222
0.028091868
0.0070654675
-0.029087981
0.009204549
0.049493335
0.014980448
-0.011930542
-0.03467581
-0.042329736
0.00087389274
0.021795794
-0.01779662
-0.048542738
-0.025496306
-0.03234417
0.0741816
-0.0231727
0.026083069
0.038646016
0.0074918666
0.033338778
-0.06663921
-0.01518978
0.008579999
-0.06507133
0.0448271
-0.040036287
0.037875827
0.0506124
-0.030960398
-0.003048992
0.024492241
0.013557198
0.0044161174
0.06268272
-0.017261982
-0.06764089
-0.03953012
0.009361253
-0.021102129
0.0074105547
-0.02493019
0.033777907
0.028453268
0.027005209
-0.038541656
0.049109932
-0.03587252
-0.0052997586
-0.044114362
-0.05883971
-0.018690132
-0.023567555
-0.054941382
0.08141165
0.029186169
-0.05482148
-0.03200593
-0.04832497
-0.017560596
-0.051789165
-0.060799234
0.029127028
0.058703408
-0.059423193
-0.017239613
0.008161615
-0.019808954
-0.02086387
0.020802518
-0.019827439
-0.057969708
-0.06687311
-0.047781937
-0.014786776
-0.025099825
0.034554426
-0.04034309
-0.07700046
-0.0031009223
-0.0729074
0.06601096
0.008926621
-0.012388143
0.06357564
0.011704253
-0.056853913
-0.019809162
0.0006826756
-0.042039357
0.0013666312
0.029474054
-0.07855911
0.020889295
0.019793477
-0.055309925
-0.058047272
0.01256915
0.0170707
-0.0104306135
0.06643093
-0.0493018
0.119915806
0.03161368
-0.062079284
-0.029064018
-0.0017152859
-0.06126258
0.034599926
0.035115723
0.022943402
0.022275018
0.063822396
-0.025064822
-0.066880435
0.03630459
-0.037058927
0.0072809695
0.040949173
0.012359362
0.008863382
0.021840632
-0.007134445
-0.04563307
0.044568464
0.04667872
-0.03330063
-0.008070709
-0.0038695869
-0.02442161
0.038371887
0.078242175
-0.041041933
0.08530472
-0.04199522
-0.10086671
-0.027361574
-0.0013515098
-0.025141729
-0.05831947
-0.041276723
0.012054665
-0.04815301
0.010895146
-0.004650427
-0.022934608
-0.047598373
0.016602298
0.025816575
-0.05195375
0.07534934
0.020708563
-0.080545016
-0.01333962
-0.04299856
-0.008344112
0.05591163
-0.0147418585
0.032625087
-0.0786854
0.016942667
-0.030904433
-0.090151146
-0.0278822
0.0038547334
-0.025373936
0.005661958
-0.026573183
-0.015010993
-0.06785382
0.009213056
0.007073498
-0.0359519
0.0026615807
-0.02053893
-0.011134237
-0.021403836
-0.0061709154
0.018478092
-0.030851146
0.049379297
-0.018089272
0.027555188
0.049719296
0.011403994
-0.018945578
0.014591657
0.008196654
0.05501882
-0.015015052
-0.017068421
-0.030564353
-0.02963874
0.03714619
-0.018251706
-0.03252969
-0.066555634
-0.034646127
-0.007047893
-0.0019082815
0.02447668
0.05203058
-0.060237937
-0.028773164
-0.016525062
-0.026603948
0.013813376
0.002514434
0.051654033
0.0653921
-0.06354229
0.018960139
0.031475924
-0.021747286
0.10471856
-0.013153411
-0.07757261
-0.003373973
-0.009919619
0.00908293
0.008612271
0.010172455
-0.007285927
-0.00604707
-0.06758227
0.0061934497
0.013336965
0.024198575
0.052978534
0.01619952
0.03822452
-0.03012907
0.035476416
0.011445404
-0.075938895
-0.03263344
-0.06784328
0.038566314
0.032276906
-0.034566563
0.080114335
0.022147043
0.068597645
0.010768011
-0.006172337
0.08398489
0.016117303
0.022049623
-0.07249465
-0.114081115
0.025911923
-0.051260576
-0.041300505
0.036785968
0.039508667
0.03865295
-0.005680007
0.072414935
-0.0202544
0.041362997
-0.07629329
0.05195519
-0.010051657
-0.015135071
-0.09182088
-0.09647389
0.02351006
0.03932559
0.07420777
-0.02730478
0.006647777
-0.055880744
-0.015396704
-0.011512501
-0.031431366
0.0018275648
0.023862174
0.018861646
0.009914221
-0.110618405
0.031588145
0.02423611
-0.017285272
-0.008852913
0.08817765
0.038666025
-0.020649008
0.026662167
0.07073559
0.03606712
-0.014265228
0.055107184
-0.07005696
-0.036183637
0.06679259
0.023274954
0.059470497
-0.018709542
0.022324044
0.060442798
-0.019574214
0.0022180057
0.0657865
0.022816865
0.020796519
0.0159878
0.022064082
-0.04263239
0.044048328
0.022561977
-0.030009188
-0.016039232
-0.051060226
-0.003477498
0.025793796
0.00720707
-0.040074524
0.023358751
0.026354978
0.035170417
0.07077076
-0.029785614
0.044905778
0.04264511
-0.036836397
0.020666745
0.0027874717
-0.023525992
0.016824374
0.0031807618
0.034780018
-0.006378758
-0.058955446
0.023369882
0.017943494
-0.05044277
-0.05639746
0.0014787574
-0.021241546
0.012749386
-0.020588895
0.04970697
-0.0425082
0.012844631
0.08238488
-0.031573646
0.0008676325
-0.00846797
-0.02687379
0.019716177
0.03858158
0.05344575
-0.008827442
-0.0627661
0.04231732
0.047373045
-0.0067907455
-0.038175013
-0.056584604
0.033018254
-0.020144865
0.02418845
-0.0044654175
-0.008926876
0.053433865
0.014155687
0.06511509
-0.06659489
0.050491933
-0.030700466
0.039008763
-0.04952102
-0.018909639
-0.07642181
-0.020108715
-0.008212582
-0.034215193
-0.06977379
-0.02886402
0.00088829745
-0.039567377
-0.01212326
-0.01600892
-0.030635023
-0.044858903
0.034015916
0.03232056
0.0708122
-0.015462098
0.07892934
0.057673477
0.019897431
-0.02533034
0.005693847
0.022282433
-0.07042946
-0.02940558
0.07559634
0.013686061
-0.028045032
0.0036166692
-0.020719998
0.012196521
-0.06281186
-0.03768244
-0.07855277
0.050990503
0.014247281
0.018589616
0.066954166
0.015257196
-0.027815323
-0.04700373
0.024517102
0.011310816
-0.0704038
-0.06089192
-0.018732736
0.043647155
0.00023362423
-0.03403833
0.04025257
0.023826918
0.034397982
0.002687917
-0.0211128
-0.01950595
-0.044651445
-0.03176078
0.041859835
-0.0052681286
-0.022362657
0.031512454
-0.065247275
-0.08446671
-0.0041629774
-0.02433283
0.0051191566
-0.06573829
0.033230636
-0.03477495
-0.044630866
-0.044313643
-0.057141535
0.03994781
-0.077294715
-0.026130088
0.032448675
0.037095577
-0.015179841
0.005687141
0.0140896
-0.024138346
0.061149973
-0.014122778
-0.025138615
-0.053805005
-0.019887358
0.020875355
-0.062474713
0.025672473
0.013392575
0.04067163
-0.003832137
-0.0021911233
0.049352963
-0.038457982
0.014215275
-0.03906671
0.036638416
0.010073909
-0.07031127
-0.00097615406
0.08176451
-0.028425895
0.03840361
-0.0662921
-0.0472082
0.0054792375
-0.002307677
-0.0574026
0.032004446
0.034932338
0.014086485
-0.03083239
-0.07971306
0.03524824
-0.0140337525
-0.14597711
0.08727342
-0.01600225
-0.0029785647
0.10685594
0.011946443
0.027113022
-0.025810787
0.06371995
0.029156854
0.03688802
-0.02832723
0.00383011
-0.026072444
-0.019350382
0.0057541863
-0.019447764
0.03210689
-0.013523718
0.027395569
0.028759575
0.015102238
0.06550946
-0.012117018
-0.010069815
-0.052149422
-0.035940416
0.025438424
0.052850787
0.0060522333
-0.00022114979
0.004279133
-0.015590944
-0.08032103
0.053642727
0.013505504
-0.0151679665
-0.022298768
0.06596337
-0.0123096295
0.00010576057
0.01933438
0.048758093
0.0045756735
-0.073769994
0.002040817
-0.13273187
-0.0015054493
0.011619239
-0.0046415906
-0.038563006
0.012724333
0.03400077
0.03413811
0.01982304
-0.07706773
0.023521096
0.0022551308
-0.023017326
0.05078846
0.0034699526
-0.10428584
0.03407566
0.005689152
-0.03454641
0.0059850165
0.015746841
-0.09281178
0.014247211
-0.024708338
-0.042867716
0.02807397
-0.04541144
-0.015624726
-0.0064755236
0.06739387
0.04521325
-0.04974307
0.04302511
0.06566832
-0.037388958
-0.00025380886
-0.01162412
-0.036689702
0.02744319
0.037697088
-0.026530247
0.029967483
-0.0015592031
-0.052112088
0.0030572626
-0.050025333
-0.04142701
-0.023508115
-0.08569843
0.021681309
-0.022742664
-0.03021078
-0.032576386
0.02087249
-0.019499408
0.026092755
0.027159393
0.002045488
0.018364511
-0.031776156
0.012952237
0.058586508
0.016294273
-0.021174433
0.017835123
0.033756062
0.0007051116
-0.06220424
0.116467066
0.043266367
-0.08520073
0.025093336
0.06289538
-0.005361637
0.027947806
0.07912257
0.036174256
-0.016871838
0.008413768
0.019833088
0.028687153
0.0349471
0.059540976
0.07076894
-0.007659339
0.01253306
-0.023350881
-0.09014364
0.0070326156
-0.00218428
-0.07003422
-0.0690474
-0.07256759
-0.09794444
-0.04234938
-0.02884092
-0.0058433847
-0.04178286
-0.09455805
0.039912824
0.026706722
-0.05046441
-0.01900322
-0.02122239
0.0139741
0.04484452
-0.020928415
0.013883398
-0.037367273
0.07445878
0.06946599
0.04491583
-0.015327584
0.024233716
0.009817255
0.0031635605
-0.08896917
-0.026715014
0.004297843
-0.015202151
-0.03760464
0.0126672145
-0.031942327
-0.02211823
0.0063294726
0.012423997
0.032330498
0.021920666
0.0521895
0.06112406
-0.06293538
-0.023932384
-0.03341052
-0.025808884
-0.014657519
0.06983527
0.0042993366
0.03180008
-0.0009811058
-0.045700323
-0.06532282
0.012840239
-0.031697076
0.055503886
-0.027861508
-0.044023372
0.06837934
-0.001716062
0.010124608
0.010263021
-0.044898838
0.00013195106
-0.055432487
9.086087e-05
0.018892642
-0.00134367
-0.0040856274
0.04051722
-0.035298318
0.028804218
0.002825007
0.06396602
0.0012364299
0.025687052
-0.04249775
-0.0017470248
0.021537656
0.07518418
-0.001944568
-0.07317535
-0.03348543
0.017828017
-0.070269175
0.073542185
0.011343256
0.036769453
0.022884041
-0.00690381
-0.02780222
0.03724115
-0.12528329
0.031649396
0.041517135
-0.025107602
-0.02874618
-0.062964015
-0.056537528
0.055781536
0.08126861
-0.014582081
-0.0337978
0.019992145
0.0023761792
-0.020750934
-0.015938215
-0.037909713
-0.05029122
0.025638502
-0.007636093
0.0029599555
0.03264497
0.025442652
0.0036601583
0.042877764
0.005754096
-0.009405936
-0.01039839
-0.060445756
0.05100919
-0.019484365
0.0067096152
-0.06893364
0.0195122
-0.031891968
-0.039878324
0.008575452
-0.03586012
-0.022598816
-0.009743048
-0.046071004
-0.029013567
-0.007871228
0.005450672
-0.01543324
-0.022947075
-0.026844919
0.0070135705
0.02425586
0.016945545
0.01432365
-0.0285964
-0.010212506
0.015667997
0.08089412
0.043712858
0.0039611617
-0.047799427
-0.050063875
0.04686427
-0.005840404
-0.007921964
-0.047627583
-0.026137106
0.0377562
-0.014770157
0.005076181
-0.001984688
-0.00036077786
0.05610537
0.07530728
-0.03639693
-0.0064707454
-0.002488073
0.0023291847
0.00810836
0.017554907
-0.029279819
0.044106703
-0.011648339
0.03419925
0.04956751
-0.05222302
0.009523283
0.008394556
-0.022701303
0.016016599
-0.013691115
0.023245918
0.028410178
0.05129312
0.08745134
-0.05902314
-0.048845436
0.114630245
0.0667455
0.03733543
0.013366473
-0.044219866
-0.03087391
0.011442699
-0.0231554
0.022263514
-0.011606052
0.042364147
-0.027742285
0.05451719
0.04235581
0.003760646
0.029056458
0.052156728
-0.0049326625
-0.04683202
0.009093554
-0.0624873
0.024552751
-0.0015829715
-0.012914194
-0.11326701
-0.0451281
-0.03354509
0.014659651
-0.0178965
-0.0039418708
0.027935043
0.019814108
-0.044904698
-0.042336896
-0.01345954
0.029757464
-0.005387365
0.006366352
0.008064726
-0.10600173
0.005744231
-0.0120001985
0.054899536
-0.066391125
-0.03103945
0.023177778
-0.0062237005
0.04528544
0.008904195
-0.0312706
-0.056300852
0.04589976
0.006998745
-0.0047730682
-0.0033811335
-0.06116804
-0.027209908
0.016009506
0.01457883
-0.044461943
-0.05248976
-0.008937255
0.016814908
-0.004376302
-0.033126205
-0.06177606
-0.022212226
-0.042655088
-0.0137030305
-0.0378639
-0.041220088
0.008463485
-0.038736958
-0.005038748
0.042205285
0.017190002
0.006331174
0.026859649
-0.058018528
0.011870605
0.008934418
-0.042136412
-0.006615911
0.08386417
-0.053528905
0.026772792
-0.025480473
0.039899193
-0.002452835
0.004219578
0.037803818
0.03658634
-0.007648601
0.0030678047
-0.068545535
-0.0042766593
0.021903608
0.0018428754
-0.034517642
0.02727576
0.032340623
-0.063270904
0.01590028
-0.042664975
0.014938422
0.00877752
-0.012879697
-0.011451877
-0.0084999185
0.059203044
-0.004626217
0.07091217
-0.06578644
-0.009912031
0.030804792
0.0029247303
0.04688052
-0.09772126
0.04339722
0.07070473
0.015104118
0.04918565
0.009771749
-0.008299624
0.017133862
-0.050434686
0.0030693286
0.0035535865
-0.0051627345
0.029525027
0.017229805
0.02367473
0.043980647
0.015853038
-0.041523095
-0.023239205
-0.020660713
-0.024584495
0.02031566
0.015930269
-0.04606098
0.016210692
0.058813892
0.015355405
0.024780113
0.01120003
0.004520096
0.029323416
0.023813434
0.027056811
-0.05598742
0.008371038
0.0135197975
-0.05785889
0.050981168
0.07459766
0.0036581398
-0.01856604
0.0013607895
-0.021087158
-0.052047875
0.038128473
-0.03460663
0.014790005
0.042493574
0.034701217
0.074304596
-0.02752366
-0.037826017
0.024901172
-0.02853952
-0.010502532
0.019955812
0.05316916
-0.027724355
0.013596847
-0.037466213
0.0032165085
0.040750116
-0.06520176
-0.03752963
-0.03912036
-0.02272074
0.04857229
-0.06415526
-0.04586683
0.02652559
0.05478255
-0.027973808
0.04908961
0.057844773
0.026446342
-0.038007267
0.0411844
0.028506124
0.042570774
0.07702093
-0.01959288
-0.09594144
-0.034888662
-0.0059801983
-0.037950404
-0.053850226
-0.0014750645
0.012360727
0.013459812
-0.009057055
0.02202358
0.021216448
0.083524
0.044758707
0.00461558
0.023594793
0.057635292
-0.04647543
-0.011877385
-0.0583714
0.037756126
-0.03262926
-0.045051217
-0.07467635
-0.036334906
-0.01507817
0.0005637326
-0.034727965
-0.009403081
-0.020797096
-0.055696953
0.070509814
-5.697279e-06
0.00964089
0.04103879
-0.061247937
-0.026034864
-0.005958077
0.033928636
0.021552935
0.010228699
0.082251795
-0.0074086958
-0.014936981
0.03275459
-0.016741643
-0.0042398633
0.006428739
-0.015693597
-0.011690414
-0.014337619
-0.026976187
-0.029514184
-0.0027001095
0.0037050964
-0.06695009
0.05583304
0.002812266
-0.027391477
-0.0062212036
-0.028823163
0.014795698
-0.006068419
0.008583471
-0.024197359
0.028738102
-0.032257285
0.017146926
0.0004838654
0.038823906
-0.016263915
-0.056407854
-0.017016761
0.006642163
0.03563629
0.04128601
0.072025456
0.042275168
-0.03862788
-0.04233027
-6.840597e-06
-0.0024936292
-0.051239386
0.014086969
0.002586227
0.025728136
0.024641447
-0.019668289
0.014449203
-0.03591201
0.033934727
0.0521196
-0.013903711
-0.0007284366
-0.049244504
-0.0011374094
-0.054328006
0.011751175
-0.014865776
0.073876165
0.014497285
0.021519287
-0.02916071
-0.08013581
-0.012583912
0.055823028
0.00616888
0.02743573
-0.016862808
-0.008251882
-0.042614553
-0.033534184
0.037311424
0.013761748
-0.02229838
0.031146176
0.007429436
-0.043408543
0.024527049
-0.018038187
-0.0142445555
0.015984602
-0.012794042
0.032206133
-0.0059443004
0.053112034
-0.0021783595
0.05589742
-0.009160398
0.024476986
-0.077553555
0.008643064
0.05117046
0.06683518
-0.036521684
0.0066549396
-0.052081615
0.018727008
-0.070266604
-0.007662283
-0.005630619
0.0004946291
-0.0013918838
-0.011886729
-0.006530477
0.034799773
-0.044392906
-0.003580358
0.05266609
-0.014136183
0.040602323
-0.0016302828
0.005499424
-0.0024836808
0.017759584
0.08772695
0.0066723456
-0.08391153
-0.004021805
0.030134756
-0.07982626
0.010302981
0.039635316
-0.0047117155
-0.016007766
0.06608038
0.036330145
0.009792116
-0.010554099
-0.011262787
0.044848066
-0.06217468
-0.008163458
-0.06370446
-0.0048734117
0.025954988
-0.013185716
0.007609128
-0.02851686
-0.020646865
-0.009215676
-0.036436334
0.013791872
-0.0042329356
-0.03570373
0.03006569
-0.0027159948
0.012965531
0.032672815
0.016019167
0.029554723
-0.06424202
-0.023139918
-0.021638209
0.0059917215
-0.013318478
0.032984875
-0.019950865
0.00024412022
-0.0008532609
-0.06743018
-0.007591051
0.008250573
0.046110556
-0.044668533
-0.044065963
-0.014727925
0.09363877
-0.056001797
-0.008713749
0.044207297
-0.01400174
0.14477372
0.0073250537
-0.04710495
0.012688029
0.012408007
-0.071918055
0.048476398
0.058781944
0.007870656
-0.050039213
0.032101993
0.05286786
-0.025734274
-0.1034082
-0.031087324
0.05812893
-0.01073011
0.028116181
-0.022401365
-0.042096835
-0.05964659
0.03123806
-0.016841473
0.038928144
-0.005523312
-0.023838
-0.04001189
0.054645125
-0.026378011
0.049678553
0.030389935
0.016236821
-0.08856648
-0.1141496
0.0050785677
0.010797998
-0.019981787
0.030118413
0.022616569
0.06332663
0.012304459
-0.029332059
-0.04973985
0.037454136
0.024737258
0.01435397
0.006309686
0.027345417
0.015028204
0.04171008
-0.019828137
0.012423043
0.06207395
-0.028766539
0.010609235
0.004756348
0.040964823
0.03954727
-0.07560376
-0.036020875
-0.06401688
0.045660533
-0.022284323
0.008457941
-0.0075448365
0.0027354786
0.068560086
0.0013517967
0.014959841
-0.038808208
-0.03198727
-0.02082378
-0.041953385
-0.02322525
0.0015379586
0.016637096
0.0042960113
0.00021701914
0.034541965
-0.014337595
0.02674413
0.0026324743
-0.011666846
-0.07937104
0.008912566
-0.016684854
0.051243972
-0.07008033
-0.03742931
-0.015798835
-0.010494132
0.028891385
0.03265434
0.020821124
-0.034506176
0.0033374615
0.0058979345
-0.013857374
-0.025949998
-0.0016906839
-0.05932487
0.0083695315
-0.041314624
-0.016601685
-0.053382423
0.010699283
-0.063885875
-0.02263628
-0.028491091
-0.03255254
0.021246871
-0.054129303
0.023588357
0.034332804
-0.0007724671
-0.040991955
-0.027317394
0.06035305
-0.03827629
-0.07874335
0.06770043
0.03375856
-0.052186392
-0.0051367953
-0.049735203
0.0059271823
-0.00847984
0.025109448
0.058901526
0.015252087
0.027714144
0.00082392007
-0.030405253
-0.012076979
-0.0067911916
-0.001900297
0.008812866
0.02663421
-0.021737557
0.0019265589
-0.048727106
0.007441336
-0.028154159
0.04247381
-0.107516475
0.014881175
-0.04278826
0.021073356
-0.014480629
0.029274236
0.020111592
0.081805184
0.0069300574
-0.0084667755
0.0059786025
-0.040397044
-0.0060597234
-0.016216995
0.0039574145
0.012664534
0.0054438333
-0.015905512
0.0013773596
0.0114759235
0.026838297
0.016047562
0.09117856
-0.005731769
-0.050456095
-0.07048272
-0.016310696
0.015865514
0.048701286
-0.021735203
0.017695833
-0.02905539
-0.039150033
0.037531875
-0.048589934
0.018200843
-0.029120643
0.042508673
0.111396156
-0.055038475
0.05027484
0.04101405
-0.00082378165
0.0035373257
0.013479995
-0.09355013
0.038089924
-0.009177453
-0.049355105
0.0015413536
-0.046337463
-0.0020033638
0.045779593
-0.076696195
0.06528754
-0.019387333
-0.01661029
0.08380485
0.014987409
-0.02572727
0.023794161
0.027681442
-0.022956828
0.057971977
0.062302116
0.07766926
-0.05382881
0.073752865
-0.012328254
0.0066958037
0.01966084
-0.001334756
-0.027875016
0.036272023
-0.019825138
0.024307685
-0.037818596
-0.054725476
-0.002002881
-0.03671493
-0.032371074
-0.010746956
0.010195403
0.03781894
-0.05058736
0.024653008
-0.019334953
0.027836671
-0.04636227
-0.016247174
0.02792126
-0.051019594
-0.059820123
-0.025482558
-0.028262401
0.022555577
-0.0032842683
0.028867166
0.048666336
0.094702564
-0.031374764
-0.030914111
0.06109515
0.03133061
0.030983416
-0.0020161257
-0.050458204
0.016180804
0.0040262113
0.094901115
-0.044247903
-0.029026244
-0.008187437
0.020243488
-0.04372191
0.06261966
-0.01800174
-0.016018016
-0.014388912
-0.014000117
0.04260833
-0.0056101135
0.0017915216
-0.054652847
0.026455365
0.07414871
-0.014792816
0.008071723
0.011659653
-0.022917522
-0.05079853
0.028601203
0.029303705
0.00014478886
-0.003605042
-0.08503626
0.010744375
0.0068796067
0.013204544
-0.052869
-0.05247212
0.044145156
0.079059705
-0.016743463
0.040498614
0.02071772
0.026672337
0.026369153
0.06419197
-0.012761232
0.02953002
0.011732255
-0.023150476
0.027485562
0.023674043
0.015477945
-0.008837068
-0.025728842
0.020269984
0.026975585
-0.062165767
-0.050942972
0.065053426
0.020572854
-0.052139353
0.023281487
0.115473546
-0.061696477
0.00025765254
0.085544996
0.01045175
-0.032498766
0.047717728
-0.020708986
-0.023712024
0.0044427356
-0.003454589
-0.033580836
-0.074917674
0.02304395
0.0813592
0.065123916
-0.012156364
0.022555439
0.003197889
0.04908855
-0.08599749
0.024147902
-0.0025597604
-0.022390256
-0.008455803
-0.011629049
-0.0041513056
0.014484783
-0.012005381
-0.052300908
0.014792045
-0.023681778
-0.011460044
-0.018127376
-0.04604239
-0.0035983063
0.022921009
-0.019197457
-0.021555884
-0.015646337
0.03389099
-0.006098138
0.0027276024
0.023571724
-0.010754759
0.031996675
-0.03401608
-0.0238385
0.07288785
0.014265697
0.023800548
-0.023787837
0.07284441
0.011578652
-0.027122434
0.029260479
0.01978409
-0.013188468
0.0019205023
-0.034483746
0.04145839
-0.028959192
0.014407015
0.07152284
0.020649256
0.024013357
0.0418281
0.00709914
-0.0047427793
-0.011113361
0.021141032
-0.013973616
-0.0077587627
-0.03672293
-0.005850703
0.0016016794
0.025063192
-0.028064951
-0.055127006
-0.009891879
0.022316232
-0.011510803
0.007572065
0.07445305
0.0532485
0.018728608
-0.011034518
0.00460884
-0.049445566
0.0029024174
0.007925116
-0.052784044
0.000107247884
0.030825427
-0.035543904
0.012273045
0.039406512
-0.015652178
-0.07323934
-0.061975908
0.014795322
0.08998795
0.0035952835
-0.060204502
-0.021996872
0.043398872
-0.041613176
0.0009909715
0.028766239
-0.036591854
