-0.013695656
0.023868022
-0.018669786
-0.035702255
0.06053386
0.036679607
0.08466778
0.013969426
-0.011380766
0.016162679
0.015854776
-0.055371765
0.048830774
0.078231014
-0.024751695
-0.009388415
0.006286739
0.014650396
-0.052616104
0.056839775
0.01846051
-0.038409077
0.048378576
0.033880048
0.08803646
-0.04140187
-0.046368934
-0.020444687
0.0037231015
0.059532337
0.054183073
0.022412432
-0.05958735
0.045751765
-0.019049464
-0.015289164
-0.002222446
-0.07740174
0.016594877
0.022416594
0.069460146
-0.022836575
0.0023816396
0.09103352
-0.010337002
-0.04677209
-0.009315919
-0.01734084
0.029359775
0.016528364
-0.013501223
-0.09898435
0.006203509
-0.012342564
-0.026754059
0.009863406
0.036805585
0.013635297
0.015645416
-0.03430038
-0.013961375
-0.003514619
0.008262663
-0.030647505
0.018975403
-0.013620115
-0.0029728145
0.065696694
0.0222333
-0.03190542
0.057398003
-0.04632618
0.03120547
-0.0018993827
-0.02211487
0.03673742
-0.039231643
0.026594672
-0.0018515763
0.052883897
-0.020224342
0.024025781
-0.023943396
-0.04391539
0.00013668886
-0.042666424
0.10314358
0.012854999
0.0358791
0.022028891
-0.039887283
4.543704e-05
-0.057538215
0.08769649
0.021290626
0.01666908
0.09374365
0.0072985482
0.02528511
0.050745796
-0.08817768
-0.018949905
-0.042669497
0.059469312
0.040132616
-0.0153696295
0.024099527
-0.021560017
0.019364329
-0.0790326
-0.03746729
-0.054769393
-0.023787962
0.09805382
0.034365945
0.040090322
0.0662806
-0.034828145
-0.048216674
0.04498655
0.06797272
0.023447698
0.023609065
0.061151423
-0.025660597
0.014763048
-0.06843513
-0.0034787015
-0.078781486
-0.032432724
-0.0026058103
-0.08569081
-0.05631613
-0.027437564
-0.03256928
0.033850797
-0.055657577
0.06894577
-0.046426844
-0.014912637
0.0010468027
-0.034922343
-0.00081108994
0.011638194
-0.027986169
-0.019738808
0.011117256
-0.06986322
-0.038010817
-0.013774045
-0.039195146
0.01577358
0.06091833
0.08696724
0.024086539
-0.06008523
-0.033348467
-0.018527286
0.007397632
0.017215729
0.035412095
-0.011606719
0.060319874
-0.06999498
-0.0132423295
-0.012302591
-0.020920435
-0.028357275
-0.040860612
0.04570507
0.0064526964
0.028954228
0.098762326
-0.09636857
-0.042202298
0.018925503
0.026834834
0.00245828
-0.055534825
-0.00229368
-0.035172295
-0.032118786
-0.068580106
-0.02291694
0.0019767382
0.026780864
-0.035626046
-0.0248123
-0.03189238
0.026929587
0.07255405
0.010267143
-0.033190716
-0.031640723
0.06455128
0.044048894
-0.0124255475
-0.06902842
-0.007816575
0.009884119
0.035240054
-0.032634772
0.02508963
0.025158484
0.026527679
0.037139505
-0.0026704809
0.01366433
-0.009458908
-0.033150755
-0.11137791
-0.009427851
-0.010838134
-0.0023084763
-0.031901043
0.0733811
-0.019046118
0.015208664
-0.0108917905
0.004812577
-0.0069803363
0.0077876924
0.020320924
-0.016746027
0.032172773
0.0041714455
-0.056383025
-0.02846557
0.025328528
0.04424865
-0.012983055
0.05790741
0.0055123805
-0.03545653
0.077361174
-0.0050227065
-0.00708873
-0.029865056
-0.017989948
0.035161678
0.026070103
0.04054475
0.055158768
-0.01484955
0.004905222
-0.018493762
0.01078738
0.018139193
-0.021962777
-0.010761481
-0.036005635
0.03560417
0.014884241
0.039124124
-0.032266248
0.017970502
0.07649757
0.034288734
-0.062710665
-0.08301996
0.0046645957
-0.02614796
-0.003638851
0.0028539272
0.0072158813
-0.041964605
0.016205044
-0.0031267987
-0.030959507
0.0070720366
0.07839325
-0.042558953
-0.058554083
0.042907834
-0.0016823672
-0.06669119
0.06756601
-0.028584851
0.034983452
0.0052522714
-0.023838589
-0.0020215479
-0.0021820336
0.053953867
0.010448819
-0.027494727
0.038430348
0.022066351
0.033790167
-0.053487018
0.049764622
-0.026943969
0.029686976
-0.02382971
-0.07822286
-0.06597345
-0.05566532
0.028213298
0.034625817
0.015298267
0.0047993185
0.029598847
0.024814986
-0.052133147
0.06366233
-0.06957353
0.019622952
-0.009075401
0.009122762
0.054834537
-0.008972554
-0.05290874
0.025586473
-0.049805615
-0.07122091
-0.0030021616
0.020275924
-5.346134e-05
-0.010698058
-0.04806386
-0.037977334
-0.10403006
-0.013605377
0.05903652
0.014951724
-0.017130844
-0.007809256
-0.015385894
0.044863045
0.0827486
-0.016028028
-0.012962293
-0.027859014
0.011229821
-0.048986945
0.0060924324
0.031640213
0.022419045
-0.043574393
0.028409917
0.037210863
-0.014650447
0.010470525
-0.04540963
-0.010554564
-0.04077855
0.013735542
0.058478847
-0.0013390358
0.011829221
0.057735026
0.019457713
0.016553285
-0.07368683
0.06697162
0.030577442
-0.053777706
-0.030452209
-0.05208282
-0.0027908075
0.042597394
0.020804195
-0.047067884
0.046487976
-0.013935719
-0.13028997
-0.0024909663
0.011003528
0.006948174
-0.08579318
-0.039380353
-0.03272252
0.021496596
0.043234576
0.06938999
-0.019273069
-0.01140242
-0.09049167
0.038880035
-0.03594465
0.043070108
0.027705476
-0.016350571
-0.0016068977
0.05158124
-0.021187592
-0.09555572
0.011109828
0.022816492
-0.05408288
0.009339487
0.025141254
0.026068592
-0.018237412
-0.019889105
0.032631006
-0.017463567
-0.02378307
0.12723266
0.02730932
-0.025077973
-0.013754307
-0.046168704
-0.008137829
-0.011510706
-0.0023456884
-0.05614687
0.028148945
-0.029848395
0.024192668
0.020461947
0.073615
-0.051770315
0.034678407
0.013999938
0.014565885
-0.0044855555
0.0062854416
0.017278774
-0.06690872
0.023298066
-0.11050713
0.033321314
-0.014210417
-0.009726685
-0.02312183
0.10967189
-0.037572216
0.022015702
-0.023215167
-0.00041450775
-0.023965046
0.03047907
-0.004368282
0.01970624
-0.06711512
0.019013189
0.01532978
0.07209801
0.010762875
0.07283157
-0.014977083
-0.0049939766
-0.04551254
0.055878215
-0.03357731
0.0003710539
0.023694552
-0.02161887
0.04359301
0.046149816
-0.089861654
-0.06956399
0.009363722
-0.059349008
0.008452366
0.057966202
0.00043960576
-0.02156631
-0.033962134
0.084599525
0.037025012
0.01596202
-0.017678026
0.056721125
-0.005418673
-0.09650933
-0.03817177
0.008122972
0.0918905
-0.03244981
-0.022859283
-0.10106113
0.009548393
-0.03488636
-0.011804643
0.047251802
-0.05130666
0.011180426
-0.053733714
0.051083542
0.03023721
0.017050114
-0.013086258
0.003686411
-0.017313106
0.04140549
-0.0027731927
-0.01945684
0.034355182
0.07730015
-0.022573901
-0.013191788
0.1272125
-0.07117935
-0.017437126
-0.026527412
0.011332644
0.013439146
-0.035067353
-0.04319255
-0.0014121106
0.048982155
0.009677565
-0.11062285
0.026643803
-0.04136759
0.031715654
-0.0025362184
-0.048798982
-0.035210628
-0.021795325
-0.012152741
-0.008900801
-0.011336175
0.08931501
-0.056095805
-0.005573688
0.004930895
-0.052067485
0.07104884
-0.00044231841
-0.037404083
0.03718573
0.04081689
-0.0670294
-0.0055941925
-0.012070122
-0.011292481
0.016410321
-0.0050082123
-0.013020188
-0.008072347
0.010216725
-0.046935458
-0.09717101
0.024840686
0.08819238
-0.030559622
0.048638083
-0.051634572
-0.01805764
-0.0033952547
-0.010953084
0.057301596
-0.011307943
-0.033966534
-0.0012256269
-0.039280962
-0.056095593
-0.0032037154
0.03333245
-0.07163836
-0.051149312
-0.021661388
0.019251136
-0.0068413597
-0.026252385
0.0192219
-0.021641344
-0.087628104
-0.06403361
-0.047012515
-0.04484392
0.0036302905
-0.020035414
-0.010630243
-0.04936316
-0.034740373
0.05301171
-0.008018954
0.004673295
-0.04383213
-0.0025520565
0.046225607
0.01074839
0.036589593
-0.062435467
-0.01230904
-0.012803823
0.0050241644
0.09043379
0.028146846
-0.016576465
-0.0692587
-0.009116144
0.0085747335
0.023451835
0.003822843
-0.06881901
0.092560835
-0.10794391
0.06407199
0.063691825
-0.026280344
0.03197235
-0.009458053
0.042121895
-0.016528087
-0.005655828
-0.024782488
-0.035486996
0.027714541
0.009849091
0.044836663
-0.031707156
-0.07266433
0.03831332
0.012942756
-0.031610433
0.053210095
-0.02385894
0.020981662
0.036862403
0.044118214
-0.03906206
0.03130582
0.008828705
-0.004055831
0.0044673453
-0.015964717
0.021736624
-0.037295252
-0.032296527
0.11326491
-0.01871029
0.012190975
-0.035466395
-0.0021536653
0.03440328
-0.0038602394
-0.012891066
-0.012620017
-0.035802823
0.014017937
0.014426976
-0.012990929
0.02676005
0.03159441
-0.03593447
-0.01052704
-0.00012044147
-0.01838663
-0.015161864
-0.0488329
0.006949431
0.015523362
0.025058908
0.029063689
-0.041908816
-0.053077377
-0.055418883
0.037805986
-0.07943367
0.009654654
0.04428524
0.023126047
0.032636926
-0.038260423
0.046843123
-0.050330423
-0.048993845
-0.069106005
-0.042619888
0.0061039585
-0.0038647084
-0.048678674
0.026394833
0.00081399485
0.012950834
0.062940985
0.019444367
0.013248579
-0.036674198
-0.060033478
0.015062314
0.030515727
-0.012311176
0.002953521
-0.096008174
-0.012222342
0.028729888
0.015711978
0.013634426
-0.028395787
-0.04628683
0.034363274
0.08482734
0.015674816
-0.03991877
0.06622871
-0.04818359
-0.045089155
0.050048117
0.030159492
-0.032435812
0.004146352
0.0057822927
-0.042381223
0.023289595
0.0016790761
0.0034118409
0.032083932
-0.041935876
0.03521445
0.023681998
-0.014469924
0.008221193
-0.015103342
0.016218027
0.0006308122
-0.086773
0.062063638
-0.020059144
0.02552722
-0.026483217
0.050290287
-0.041895196
0.05319655
0.08381113
-0.00088423013
-0.010594316
-0.014942901
0.0077112257
0.004592734
-0.0074749705
-0.04225064
0.07778639
-0.039311606
0.023331955
0.010476997
0.010774433
-0.018016703
0.05661817
-0.06705288
-0.03625489
-0.01977943
-0.025738504
-0.081240505
0.009413769
-0.031690676
-0.019008258
-0.04408276
0.061258104
-0.009500844
0.023296658
0.015714744
-0.033450905
-0.014184911
-0.08645558
0.024501793
0.06363395
0.00045091024
0.037354816
0.0072017107
0.05947743
-0.011291552
-0.040776893
0.033354208
-0.003987489
-0.024122782
-0.0927888
-0.060475312
0.034145724
-0.06690521
-0.11639651
0.07088455
0.01645606
0.057059407
-0.0539167
0.036631852
0.0025623655
0.042004522
0.028371997
0.023348715
-0.03494455
-0.05620644
-0.019783253
-0.014314321
-0.017104665
-0.0397215
0.010948133
0.0074917935
-0.024139913
0.01802834
-0.010179345
0.01710054
-0.0063815922
0.04087655
0.0048998743
0.03749692
-0.03332461
-0.04100404
0.038780212
-0.030120967
0.075822696
0.0378238
-0.058688514
-0.0365669
0.0025261668
-0.013932645
0.034217097
-0.034464527
-0.061346788
-0.04063407
0.005069008
-0.0057897223
0.026155585
0.029994909
-0.00037377543
0.025577504
-0.06202555
0.013262174
-0.037735634
0.017768897
0.019959947
-0.0012775575
-0.002370468
-0.0022730783
-0.073011234
-0.08814725
-0.009667322
0.03270257
0.0024452966
0.050935376
0.035180148
0.03424433
0.03429047
0.044924527
-0.028028045
-0.032888956
-0.037904024
0.05412391
-0.06106727
0.02869424
-0.027095284
-0.0010555185
0.006943394
0.015257913
-0.047166333
0.044230632
0.033361875
-0.011259648
-4.6508092e-05
0.009722586
-0.012892211
0.034772296
0.11187315
-0.004333681
0.011365397
0.04998948
-0.012636286
-0.037004936
0.010227704
0.009106805
-0.00955489
0.027444614
0.0023630704
0.04863909
-0.015491814
-0.019690359
-0.080404274
-0.0020009645
-0.05921591
-0.018173002
0.044955213
-0.032862224
0.06173336
0.05483803
-0.0514636
0.05436611
-0.04257395
-0.022716038
-0.021124605
0.033930067
-0.010614918
-0.020340893
0.037280634
0.038014937
0.019915646
-0.011172223
-0.083025895
0.059474763
0.043025155
0.0007663138
0.018926378
0.023920063
-0.012859585
0.005134923
-0.005823236
-0.05153908
-0.0293089
-0.07166489
-0.0014696958
-0.04106093
-0.037739474
-0.037107825
-0.03242131
0.021623438
-0.0022777917
0.006920002
0.0146905
-0.055700462
0.05504889
0.025422642
-0.0013517762
-0.03972499
-0.010791892
-0.056442644
-0.057028595
0.017113755
0.0027660907
0.0533651
0.019618591
-0.0290214
0.006975858
0.029397646
-0.08239344
-0.04047461
-0.0041537774
0.058738448
-0.039239313
-0.058123738
0.07096002
-0.020088527
-0.022886047
0.053238418
-0.08689967
-0.053565167
-0.029782064
0.031093087
-0.02665785
0.021635015
0.014025631
0.029383866
-0.023097612
-0.002995773
-0.025649266
0.021816554
-0.08591958
-0.0421717
-0.026616568
-0.030030869
0.0025202215
-0.004090973
-0.07317012
0.00091754156
-0.047743868
-0.016183395
0.009383113
0.025685199
0.0012706076
-0.025778782
-0.06557441
-0.027473986
-0.026365977
0.048370883
-0.06872142
-0.013569317
-0.02912735
0.008111883
0.024756044
0.0009612768
-0.025008334
0.01363611
0.019436626
0.07330836
-0.020290997
-0.003032192
-0.06873692
-0.05016664
0.02311213
-0.11158432
0.02937793
0.018004147
0.03303712
-0.051806264
-0.012922092
-0.039656088
0.017024048
0.050912295
-0.0056385705
0.027410218
0.033260833
-0.004897128
-0.036522023
0.08773727
-0.013043198
-0.050084576
-0.026993474
0.01748219
0.07524417
0.057569403
-0.049826797
-0.048702717
-0.013335895
0.03514201
-0.010369058
-0.04618141
-0.035978157
-0.017610284
0.020528879
0.03191199
0.031982087
-0.06041935
-0.06304117
-0.051406424
-0.008829402
-0.017276397
0.008504546
-0.044811387
-0.02374412
0.082765125
0.024241278
-0.032505356
0.026422152
0.0100744255
-0.027293181
-0.03857994
0.029568888
0.00035971228
-0.006763355
-0.07344096
0.005846562
0.03524222
0.02113047
0.030785054
-0.009201787
-0.045778465
0.10425917
-0.019086698
0.016429232
0.002167472
-0.020726811
0.0007418413
0.009697444
-0.0055153626
0.017482162
-0.052047275
-0.010865347
-0.06415454
0.006590297
0.03170019
-0.003573396
0.049622677
-0.030482117
0.011319643
0.077717066
0.028881384
-0.07290019
-0.0030944548
0.0117318705
0.0037641823
0.071748644
-0.005681956
-0.01766707
-0.022463465
-0.028354747
-0.028479615
-0.0077257296
0.025223464
-0.033857465
-0.027518868
0.023635624
0.07632348
-0.013109321
-0.061933085
0.045716543
-0.026811063
-0.0031214126
-0.07528485
-0.012860365
-0.02700534
-0.024095101
-0.019992469
0.042784743
0.013271747
-0.01319758
-0.0026633139
0.046128478
-0.0678486
-0.015342729
-0.0041664434
-0.019971533
-0.02089551
-0.067415215
0.022112677
-0.062442653
-0.030949187
0.0066614137
-0.041298416
0.009749126
-0.02425915
-0.0024894031
0.004427329
0.10119955
0.0005226622
0.057417624
-0.01055146
0.059535276
-0.022867253
0.030028107
-0.010894638
0.01309998
0.034397293
0.050171603
-0.07790125
0.0733722
0.08711685
0.016071372
0.058362823
0.075247556
-0.03250206
0.036541518
-0.0055231615
-0.07054694
0.024896873
0.048742115
0.03290312
-0.030898768
-0.04736191
0.08154197
0.06909715
0.07674106
-0.046579648
-0.009569791
-0.06292793
-0.025623055
0.04097553
0.006412693
-0.027520021
-0.0022208493
0.0306796
0.012214803
-0.016312215
-0.07539465
0.02272505
0.056587446
0.0037866074
-0.0072733113
-0.09814067
-0.018413004
-0.04454098
-0.003827903
-0.038427822
0.011043717
0.00046380603
0.04861686
0.0029576689
-0.05761759
-0.012757679
0.0029924791
-0.016194545
-0.00449393
0.002599028
0.048641544
0.015208401
-0.020629663
-0.01862516
-0.0003443444
0.008998589
-0.044617247
0.003508636
-0.0141897155
0.05547406
0.0046666167
0.019096972
0.03033688
-0.022590702
0.07454261
0.05378484
-0.006477505
0.02674404
-0.034195416
-0.008186474
-0.04166788
-0.053287167
-0.02292362
0.001189707
0.06748295
-0.013168996
0.014645041
0.00762832
-0.002268027
-0.023704117
-0.01306692
0.02182533
-0.055937734
0.021872574
-0.021708285
-0.070732675
0.022577826
0.0003252227
-0.005901434
-0.015371869
0.03817165
-0.021139026
-0.009227102
0.054496925
0.012535917
0.045138653
-0.018330432
0.045729037
0.013965601
-0.06479398
-0.016032618
-0.055143356
-0.011100716
0.0680741
-0.053652547
-0.012667706
-0.07036461
-0.011253173
-0.031936012
-0.009909212
0.0011080961
0.04390956
0.037550174
0.040891755
-0.036595885
-0.013307539
-0.013972961
0.009829775
-0.04435372
-0.03428962
0.009991414
-0.0074372515
-0.023929533
-0.03963074
0.036094695
0.036515642
-0.056292366
-0.0003005185
0.00437042
-0.019074596
0.014498751
0.029823074
0.02238562
-0.029946785
-0.018367773
0.021703586
-0.019055674
-0.039355062
-0.0031069894
-0.010876321
0.06181733
-0.015427478
-0.023090325
-0.059516784
0.012193507
0.026112074
0.07203525
-0.0010547517
0.0102581
0.005761533
-0.039783563
-0.00798621
-0.031683333
0.021679075
-0.019227937
-0.00061449734
0.019616593
0.03148723
0.031369645
0.05397298
0.063122384
0.03147213
-0.04980769
0.021600338
0.011655485
-0.07195261
0.024200045
0.008050081
0.024749715
0.0019112442
0.022712305
0.008292995
0.027416158
0.056012493
0.07526655
0.052399404
0.011033421
-0.024712848
-0.018182624
0.030370452
-0.022738528
0.046071697
-0.027271217
-0.052766703
-0.06869371
0.04064511
0.007907494
-0.06126222
0.02047297
0.018387213
0.00054392655
-0.015824359
-0.012733904
0.020430071
-0.06310547
0.04254105
0.044137403
0.0013181091
-0.036387585
0.025068602
0.023322834
-0.031757154
0.0009504164
-0.011117306
-0.018543536
-0.0025215617
0.019370519
0.029176895
-0.027055115
-0.0029829151
0.042622227
-0.035989884
0.005078681
0.050201252
-0.014884652
0.013605072
-0.063267924
0.02741277
-0.043909494
-0.03755535
-0.018633416
-0.011114007
-0.0041147238
-0.0045579732
0.075602174
0.053999677
0.010985601
-0.026908586
0.053828347
-0.025177095
0.088001855
0.09660472
0.02779715
0.051660873
0.06448344
0.04330429
0.03621047
-0.053471394
0.055252086
-0.005631678
-0.006527205
-0.010886831
0.024039943
-0.024775153
-0.0021498147
0.02065631
0.00801215
-0.0002818688
-0.014039058
-0.04193782
0.0011586802
-0.028831061
0.0024977971
-0.0032963974
0.041154698
-0.037649598
0.01411652
0.0147181265
0.0028199137
-0.015631553
0.050937247
-0.0027236745
-0.013566272
0.11057697
-0.015933836
0.016124193
0.005069259
0.02841405
0.0026225084
0.00019788074
0.031786576
0.028778624
-0.0100618275
-0.05881813
-0.037346985
0.11795477
-0.07227144
0.027637675
0.003946976
-0.026136339
-0.10315295
-0.055339996
-0.006596816
-0.023624541
-0.032450613
-0.026520379
-0.08004478
0.07811343
0.07870329
-0.025118332
-0.038074255
-0.049014922
0.016721414
0.049335632
-0.013282671
0.032802716
-0.060756285
-0.085384935
-0.07558178
0.009169167
-0.012074728
0.060519435
0.0213105
-0.0057653496
0.04484568
0.013632126
-0.04717067
-0.10381725
0.006896107
0.008529687
-0.019787095
-0.07973081
0.02512404
-0.034508325
-0.0043241256
-0.04981774
-0.034457415
-0.004429496
-0.009436889
0.047695305
-0.01943042
-0.0076245293
-0.08676268
0.012377986
0.034368627
0.025289522
-0.025197515
-0.009023688
-0.022487435
-0.003090974
-0.004517878
-0.0320633
-0.09851902
0.04436561
0.0035601521
-0.078100294
0.008681572
-0.0147374645
-0.054054495
0.014593029
-0.003787854
-0.03820977
0.010769441
-0.04647408
0.077051416
-0.049256545
0.01693992
0.010273607
0.00081910647
-0.110744275
-0.02689231
0.078521065
0.032700438
0.019617047
0.048324835
0.017101685
0.049360383
0.049108684
-0.047083177
0.026155528
-0.056327086
0.025844742
-0.018976567
0.034958422
0.029678695
0.03666022
0.028444367
-0.018295709
-0.014099575
-0.061309703
-0.024033224
-0.033303633
0.028568188
-0.07800026
-0.005939189
-0.04409543
0.018177994
-0.016432682
0.04301066
-0.02741662
-0.024492942
-0.014926815
0.0072466843
0.013016589
0.00760079
-0.006623894
-0.023522334
-0.07011584
-0.03295244
-0.0070566437
-0.01185186
0.011171914
-0.010373896
-0.033224452
-0.030455323
-0.04075729
-0.09100461
0.0193882
0.02357302
0.09091374
0.0058599357
-0.002358591
-0.0006089123
0.0029929853
0.013218387
0.03488302
0.07468477
0.025562746
0.07487027
-0.0896793
0.03363511
0.045146927
0.07165387
-0.04626551
0.017434504
-0.04049248
-0.022159612
0.07133283
0.05465657
-0.018996775
0.04310343
-0.0091637755
0.00016575909
-0.02242385
0.017860524
-0.024354564
0.01292217
-0.01037189
0.003787558
-0.0028963243
-0.058296096
-0.06501174
0.001345846
-0.0271593
-0.031218057
0.061962422
0.02484982
0.012327368
0.020822136
-0.007972832
-0.009829522
0.014437168
-0.0065674903
0.01146362
-0.038411036
0.028912334
-0.042501915
0.05543013
-0.015247597
0.02847799
-0.005088301
-0.009595554
0.018527161
0.07057343
0.021665722
-0.0069564525
-0.0021601547
0.061329957
-0.0964505
0.057324417
0.021689605
-0.017131677
-0.038561564
0.031680994
-0.05726339
-0.03706536
-0.0150913205
0.032033924
-0.035607226
0.003703859
0.0037635977
0.08591745
-0.04337435
-0.01113877
-0.02114401
-0.068649806
0.025991611
0.072309665
0.005303051
-0.061669886
0.020095536
0.057093102
0.0966592
-0.008056343
0.0029150574
0.009105358
-0.03381156
-0.0020320378
0.06402616
-0.0236156
0.0014710461
-0.027083686
0.02762617
0.052118294
-0.07095456
-0.0390407
-0.03258467
-0.018331062
-0.010176186
-0.031866968
-0.041880462
0.035652913
0.03317417
0.013425061
-0.07740089
0.037102032
0.09468345
-0.059153408
-0.010860468
-0.02345667
0.020613978
0.053723305
-0.089677595
-0.02720572
0.0087669
0.008935378
-0.03367474
-0.03317735
-0.068350434
-0.020143054
0.0045273914
0.044415794
0.009881646
-0.01168174
0.027713502
-0.013191992
-0.017489057
0.07416705
0.032863352
0.033043046
0.06819358
0.023745669
0.028957283
-0.0005129336
-0.01407453
-0.03623886
0.014562507
0.05430144
0.028687883
0.034767177
0.009805547
-0.09598392
0.014098321
-0.019282926
0.011919818
0.0028385804
-0.009358286
-0.021176493
-0.013128616
-0.060666937
-0.008425044
-0.05924798
0.05069694
0.05724139
0.043326274
-0.0320338
-0.09143057
0.07317141
-0.028215766
-0.047242653
-0.02819608
-0.035180565
0.005871957
0.013229196
0.009815665
0.003905254
-0.018925233
-0.043054745
-0.035011537
0.057651795
-0.04020816
0.07363989
0.04849927
-0.033721637
0.05390397
0.003593446
-0.011121775
-0.04593392
0.0007300498
-0.01684618
0.0010273382
-0.0054509523
0.016352283
-0.10460083
-0.081522875
0.03742141
0.0018049733
-0.04755175
-0.02312989
0.0111400625
-0.03836613
-0.03976373
-0.02410045
-0.02487844
0.01119272
-0.0024077187
0.037497878
0.06811176
0.0011163455
0.009747256
-0.029538669
0.0081759235
-0.0314566
-0.0016912335
-0.044821158
0.009820506
0.046366062
-0.030533548
0.019524368
0.009832988
0.0034245756
0.014247838
-0.010313237
-0.003287522
0.014276146
-0.03938018
-0.02355144
0.018870821
-0.038010947
0.03538184
-0.04323452
0.025966734
0.09919798
-0.03834143
0.02282236
-0.038216468
0.0010305914
-0.011417012
-0.05321596
-0.005612591
-0.019133773
-0.027208574
0.041890208
0.046194185
-0.05491314
-0.018454604
0.0036549799
0.026080668
-0.015309123
0.034377884
-0.08988304
-0.0019851448
-0.024349574
0.053385835
0.027619755
-0.005107018
0.124281876
0.039737653
-0.065215506
-0.033731796
-0.050957944
-0.012779921
0.024812847
0.008999422
-0.028091064
0.03514906
-0.032234028
0.024835436
-0.016398042
0.019933468
-0.028217914
-0.020892095
-0.04021354
-0.06598099
-0.038042694
-0.014365418
0.051252056
-0.006558809
0.015364884
0.04765421
-0.023885725
-0.062121704
0.04718183
0.08436198
0.025224358
0.041474786
-0.012437265
-0.010525792
0.04090527
0.0044797147
-0.0075846408
-0.008995481
-0.052460846
-0.03746039
0.034923848
0.104551904
-0.010412978
-0.026427466
0.014666964
-0.012315701
-0.012443976
0.03316282
-0.01030191
-0.02600537
-0.008594229
0.04004924
0.022231856
-0.027640443
-0.06589158
-0.011491724
-0.008071569
0.024325296
-0.016586848
0.009606109
-0.0061730724
0.030078126
0.037983216
0.046186972
-0.044542875
-0.0010935777
0.0022484853
0.00033851172
0.0017358796
-0.008114366
0.018431365
0.0645372
-0.01842577
-0.0611704
0.008268143
0.031557754
0.0066093416
0.09624529
-0.016261475
-0.027531132
0.015814478
-0.004465597
0.046925582
-0.034333583
-0.019760655
0.0490633
0.029956387
-0.0011194741
0.06806805
-0.038570963
-0.036591265
-0.047196843
0.0006922473
0.020637468
0.057616733
-0.060897525
-0.016863495
-0.0008642375
0.023748865
-0.027730642
-0.017032314
0.043770324
-0.0057176487
0.014124101
-0.004978963
-0.04870064
-0.009142087
0.015802069
-0.023286799
0.0034284017
0.03184452
0.036869943
0.030284353
0.090595424
-0.03290257
0.024046175
0.028222112
0.024232406
0.027154222
0.031016963
0.06375052
0.08844617
-0.034756314
0.030224489
-0.06526479
0.06317643
-0.06390446
-0.038046014
-0.043747038
-0.048105136
-0.05350402
-0.013071348
0.041830275
-0.0359674
0.07945536
0.008128415
0.0179184
-0.06945329
-0.014770741
0.006718156
-0.06490429
0.0060351077
0.053786386
0.0014074057
0.019425157
0.07277411
0.029783867
-0.015482183
0.026163716
-0.021867875
0.010886509
-0.06620522
-0.021770405
0.047100563
0.042287283
0.063062854
0.10603883
-0.012317649
0.007915947
0.027005542
0.031584136
0.008027033
-0.026951956
-0.036551725
0.005900693
-0.034485642
0.03043105
0.015925907
-6.6667366e-05
0.010743343
-0.03338599
-0.0068083378
0.06072405
0.03547286
-0.001912317
0.019409211
0.019094182
-0.06769917
-0.07293297
0.062829144
0.08101217
-0.04282451
0.065601386
-0.014707384
-0.016485306
-0.038174372
0.05003611
-0.0067100716
-0.06782956
-0.024123324
0.028227573
0.014088633
-0.038384292
-0.00910036
0.0044011087
0.01665467
-0.037863683
0.01849788
-0.04803488
0.034509618
-0.032377094
0.07896241
-0.02126879
-0.042747527
-0.014351469
-0.013049799
0.008132611
0.058349986
0.047772482
0.0242359
-0.046154346
0.042411845
0.024259463
-0.045681443
0.002112029
0.012181239
0.020410785
0.055659693
0.05104305
-0.018394502
-0.043933094
0.08179013
-0.0132093895
-0.049188178
-0.0038276513
-0.03190386
0.07580402
-0.026936565
-0.03267115
0.02318943
0.02247893
-0.054996975
-0.0370282
-0.012768277
-0.016734976
-0.063892275
0.016648946
0.055979993
0.05747739
0.011668923
0.018785829
0.017337462
-0.037513826
0.023226226
-0.020623744
-0.021993192
-0.01467074
0.011415322
-0.0022872281
-0.01838525
0.06022879
0.0030535487
-0.017099945
0.122602835
0.036037423
-0.06703848
0.076376215
-0.011025043
-0.012170185
-0.011790936
-0.025861284
0.016767915
-0.048084073
-0.024420593
-0.0058257245
0.04519595
0.011305311
0.052433904
-0.08773161
-0.059745852
0.036330964
-0.015445781
0.013189397
0.05755308
-0.00836497
-0.0340707
-0.04793743
0.053649604
0.009924745
-0.0022615395
0.060358513
0.0048906486
0.009521053
0.052583642
-0.03874543
-0.01613137
-0.03833949
-0.023313383
0.057846464
0.059107084
0.050214764
0.02230545
0.007464848
0.046952836
0.062870346
0.013090912
0.013945583
-0.07569296
-0.021130698
0.008127205
0.05636573
-0.038364913
0.0021836727
0.032159954
0.029029958
-0.016189618
-0.041840523
0.024421122
0.017803913
-0.038959596
0.013004002
0.10550235
0.0038023656
-0.022409644
0.015895512
-0.033618268
-0.051097505
0.020499835
0.028892834
0.04582067
0.004404978
-0.03589616
0.0075045708
0.019573698
0.05997576
0.010352315
0.051596947
0.02149284
0.009600555
-0.026650073
0.034855817
0.02063817
-0.07873469
-0.026154945
-0.063568115
-0.04490703
-0.009837144
0.035134196
0.025180249
-0.016059106
-0.029578025
-0.01917835
-0.02803082
-0.018321963
-0.018889077
0.016728796
0.013166952
0.0017638683
-0.003189085
-0.07419569
-0.02828004
-0.052491885
0.0018625371
-0.0070326766
0.09335019
-0.027930027
0.025107862
-0.009348989
0.035866816
0.0007785881
0.0017190316
0.026058553
-0.03848123
0.024827419
0.011048277
0.040203337
-0.0125867855
0.016455514
-0.003915893
0.031447746
0.020027425
0.013415329
0.010821705
0.06109231
-0.028597115
0.030990379
-0.011141105
0.019023685
-0.029834392
0.056392204
-0.064142436
-0.038961742
0.03462649
0.007672412
-0.010289251
-0.019906411
0.005598313
0.049647853
0.03704775
-0.005974096
0.04489619
0.05306417
-0.042514347
-0.044117406
0.04723488
-0.0670579
0.032727737
-0.026434558
0.08333401
-0.039082162
-0.01177592
0.016531251
-0.026251003
0.026004456
-0.034727328
-0.016768625
0.00066770334
0.015257174
0.019057957
0.048813056
0.022824505
0.04051565
-0.02189193
-0.018422877
0.02572179
0.016705738
0.013517655
-0.019704022
0.04107281
0.017019713
-0.04117059
-0.018096367
-0.03332975
-0.011191814
0.02260569
-0.0064216186
-0.007971537
0.054013174
-0.033432845
0.04466575
-0.046068262
-0.10777259
-0.028567012
-0.060335875
-0.038391743
-0.042495057
0.0023398544
-0.028772462
0.031994388
-0.05070609
-0.024629317
-0.012579621
-0.050229333
-0.018979529
0.07162408
-0.009674556
-0.0020273477
0.0356622
-0.0855422
-0.011396975
-0.04593986
0.03843661
0.04142309
-0.023568744
-0.020117417
-0.075504884
-0.015539541
-0.0028944034
-0.0021418086
-0.030307509
0.07466786
0.044057112
0.027042512
-0.084645934
-0.055422887
0.048474737
0.044687383
0.009007493
0.032302905
0.035788413
-0.02914618
0.01665828
0.07870513
-0.0021260662
0.038349584
-0.030906998
-0.046522513
-0.027731463
0.018335506
0.056742404
0.0034198258
-0.026052907
0.018625781
-0.012583828
0.0046452945
0.040898073
-0.058153052
0.020609343
0.08878104
0.10125031
0.028938957
-0.0494218
-0.019269912
-0.021780377
-0.01265052
0.03792785
-0.011442478
0.06575186
0.009864734
-0.006023643
-0.015474384
-0.024612788
0.032989066
-0.02211935
0.0113689955
0.033845272
-0.038751807
-0.047462948
-0.08771707
-8.174539e-05
0.041843694
-0.024709653
0.018849842
-0.054839082
-0.015711913
-0.06439019
-0.0078370115
0.04790832
-0.022694236
0.015595239
0.005936471
-0.034953717
-0.013980853
-0.011325358
-0.011232082
0.067593135
0.027280219
0.009351477
0.0026957616
0.07256875
0.0075839167
0.030454606
-0.06624786
0.026893493
-0.042357545
0.001689599
-0.040359735
0.028488044
0.042688113
0.033809654
0.04970601
0.05542178
-0.026895162
-0.019366324
0.08172901
-0.002809563
-0.0051049097
-0.03855694
-0.029092945
0.01694261
-0.011766097
-0.034137093
-0.0063026575
0.060525063
0.022166586
0.06294954
0.098635495
0.020056093
0.07124606
-0.071594566
0.022820236
0.03584249
-0.0143504655
-0.059702866
-0.017375687
0.03906311
0.05088006
0.0075220126
-0.04279168
-0.024224153
-0.0023201664
0.04324461
-0.06440707
0.005368126
0.029913554
-0.012749918
0.007981656
-0.03502048
0.030093329
0.038227934
-0.031679027
-0.0042351037
-0.022477807
-0.03821512
0.0069010914
0.031479474
0.004682334
0.03643159
-0.022660531
0.023324588
-0.036876418
0.0196194
-0.018730814
0.03698603
-0.048177995
-0.034894545
0.028322406
0.076125614
0.10131754
-0.067639805
-0.09402389
-0.040994626
0.02829444
0.0071334695
-0.03305764
-0.017812392
0.015532948
-0.0543992
0.037238438
0.09498471
-0.015780771
-0.05407201
-0.053260595
-0.0060093156
0.025041997
0.07422044
-0.06094826
0.009640555
-0.08239967
0.023729265
0.040680856
-0.0095326975
0.023257092
0.07089778
0.0074964873
-0.022806482
-0.018527335
-0.001148651
-0.0045406884
0.057565432
-0.025291486
0.0021938186
0.0046460824
0.07224196
0.008294317
-0.007518633
0.047473136
0.049260948
-0.00047346647
-0.052014012
0.060834188
0.0057029114
-0.031976834
0.015539102
0.06654644
-0.054224137
0.05188779
0.059711657
0.043146715
0.021735312
0.04839309
-0.01203617
0.068035826
-0.025612285
0.01843369
-0.06173241
0.0075512626
0.036878902
-0.032183636
0.027265402
-0.03325682
-0.00978894
-0.010185944
-0.013222689
0.04040613
0.0024441418
-0.056865096
-0.04016508
0.07244136
0.039772466
0.020111285
0.002719018
0.03649752
-0.048379272
0.024653198
0.051183887
-0.025468426
-0.023592845
-0.034454606
-0.043762952
-0.05172526
-0.053925917
0.04276709
-0.086732835
0.0067282855
-0.11033016
-0.014941631
-0.0856618
0.04038487
-0.039120153
-0.059680514
-0.026990883
0.018371686
-0.007189492
0.0069830995
0.031949677
0.032985922
-0.053479314
-0.03679139
-0.050667506
-0.04244379
0.011025633
-0.025137635
0.026565172
-0.043490954
0.003757242
-0.037760817
0.010582126
0.008715869
0.08803764
-0.02578075
0.006402986
-0.022466134
-0.018201675
0.0024009345
-0.08665243
-0.02847129
-0.075128675
0.029877111
-0.014766488
-0.102299884
0.041426107
-0.08470367
0.04571592
0.039413776
-0.022901492
-0.017052896
-0.02698041
-0.04262585
-0.012404483
0.008209386
0.038536243
0.07758622
-0.028745916
0.015812546
0.018342078
0.050555445
0.009436983
0.017429523
-0.029873978
0.0016030183
-0.006303731
0.046904657
-0.028594868
0.038155697
0.03817244
0.085890085
-0.054333493
-0.022825943
-0.058915406
-0.059674174
0.017230315
0.0076660626
-0.04399848
-0.019712353
-0.0083604
-0.036201067
-0.059351355
-0.02986817
0.08908254
0.05756394
-0.090539664
0.013223175
0.06479965
0.015658215
0.004270148
-0.005112857
0.017920775
0.03532663
0.026526336
-0.027070878
-0.0065520727
-0.0012705127
0.054916617
0.027678963
-0.01773899
-0.0031734721
0.051266253
0.0074321297
-0.07091845
-0.10635649
-0.027137144
-0.06030443
-0.0056445706
0.032496084
0.02218406
-0.06733174
-0.053176284
-0.046479452
0.0074511576
-0.038550295
-0.060235348
0.017719626
-0.013841806
-0.04621149
0.0008875531
-0.06682828
-0.010884258
0.022157403
-0.10145316
0.0067494293
-0.029409507
-0.014696393
-0.013334518
0.039526064
-0.03578402
0.055403102
0.0824876
0.09558234
-0.013128086
0.019130802
-0.021547634
-0.044285305
-0.093942836
0.0396953
0.016061008
0.029010994
-0.06731886
0.011402892
-0.024866145
0.037114214
-0.0035466906
0.01707207
-0.0042563993
0.015189178
0.043232974
-0.03816293
0.03174232
-0.038523536
0.021460725
0.011045302
-0.0045534796
0.014892201
0.06000816
0.029716026
0.040971097
-0.052098736
-0.028261261
-0.02448282
0.01576948
0.06708596
-0.020845288
-0.06703331
-0.023736108
-0.021392563
0.07445217
-0.040676553
0.048399236
0.06318834
0.019733516
0.051636387
-0.03403757
0.05146561
0.0018807364
-0.09132282
-0.085031204
-0.025139645
0.006002048
0.03016382
0.084988505
0.034558583
0.021655533
-0.004167941
0.012643692
-0.08806124
0.036880415
-0.049090896
-0.019030452
0.06310459
0.00055084657
0.024031006
-0.023419019
-0.076022655
-0.021140695
-0.028931769
0.06479519
-0.051373806
-0.0006100499
-0.0099234525
0.025583735
-0.015271343
0.028094385
-0.0072407494
0.08892773
-0.04481346
0.019957745
-0.0048435577
-0.03391221
-0.02819723
-0.0069572493
0.022587597
-0.042180646
0.05230285
-0.007490792
0.0026396557
0.08444454
0.08356186
-0.05330151
0.034139726
0.041896783
-0.019766279
-0.07884938
-0.01694171
-0.05116211
0.0378182
0.013193855
0.032009184
-0.000722336
-0.024052888
-0.023051372
0.013684832
-0.053938273
-0.017198393
0.0064298282
0.034092356
0.06507417
-0.05940414
0.05454831
-0.004546236
-0.052684277
0.004803512
-0.06898122
0.011541887
-0.031224938
-0.008776604
0.018954964
0.031448346
0.020654118
0.02721649
0.066625215
-0.006191635
0.00842543
-0.036705103
0.015060153
0.03194936
0.064691365
0.053918105
-0.0033675146
0.04588502
-0.014417241
-0.0025510953
-0.036809985
-0.014899379
0.018309416
0.024280423
-0.025654528
0.007479175
-0.062226653
-0.0070963185
0.048208255
0.11121524
0.0011631994
-0.022617947
-0.007864799
0.04160896
0.0010047263
-0.005434163
0.018201854
-0.037045214
0.0054293782
0.09437976
-0.038970288
-0.007700905
-0.018054416
-0.026479373
-0.05250504
-0.08525973
0.014671546
0.020787725
0.009868107
0.024042392
0.025204381
0.02297166
-0.028603567
0.0788823
0.038551748
-0.0031775911
0.012661445
0.0057957615
-0.04892427
-0.016437694
0.02957526
-0.05398155
-0.0015156537
-0.009488906
-0.024173187
-0.030312533
-0.0026335614
-0.02926505
-0.0025658337
-0.014452386
-0.017985279
0.016417585
0.008594087
0.02359329
0.04225678
-0.047047485
-0.035145417
-0.024537295
-0.013745818
-0.058977626
-0.086739644
-0.025384929
0.0045297653
-0.0021580614
0.021094918
-0.061642464
-0.014165893
-0.038067445
-0.038202323
-0.04478098
-0.0598851
0.08332784
-0.0137510095
-0.000982152
-0.046960816
0.011414418
-0.010438246
0.0069964286
0.036425464
0.057975393
-0.0025588647
0.032562066
0.02550709
-0.046979036
-0.048868902
-0.022835774
0.010811208
-0.038114786
0.0074179973
-0.034301266
0.042704254
0.02361654
-8.03514e-05
0.008118328
-0.026347857
0.026207836
-0.00038464484
-0.04913728
-0.0026527767
-0.061749946
-0.019005671
0.0016997698
-0.035925426
0.028496843
0.060653217
-0.04590406
0.022844791
-0.013760736
0.0015466847
0.019909184
0.002292418
-0.0597684
-0.061472956
-0.009526503
-0.008633575
0.013854623
-0.0181689
-0.047360584
-0.0022000037
0.018485168
0.048341803
-0.027420042
-0.02958395
0.067885906
0.022459075
0.08446453
-0.07925708
0.047445763
0.011922339
0.07027373
0.031925626
-0.02799024
-0.0014644476
0.003989589
-0.02549013
0.022135584
0.007420844
-0.049847923
-0.037486117
-0.044774964
-0.06792973
-0.0099028805
0.05625473
-0.03855915
0.01857658
-0.06188765
0.091002606
0.06755102
-0.044909075
-0.012057265
0.028630259
0.032953568
0.045115706
-0.010420834
-0.012401288
-0.065737635
-0.03380837
0.040258694
-0.033311836
-0.0020036947
0.060658272
0.0030735405
-0.051053584
0.020357028
-0.008433279
-0.023060562
0.021426603
-0.051134787
0.05040549
-0.09626777
0.08530066
0.030425856
0.0044286354
-0.06841967
-0.030396
-0.03866081
-0.015146059
0.049347814
-0.010086336
0.03868421
-0.028546896
0.009841288
0.020407408
-0.048537944
0.06727495
0.06610907
0.031004487
-0.008066453
0.03819246
-0.08438628
-0.043043014
-0.032639157
0.043239035
-0.06616244
-0.037741784
0.03490157
-0.028497167
-0.0013440005
0.0020711918
0.05901919
0.062136702
-0.07296765
-0.04247125
-0.034037083
-0.0202723
0.04183069
0.010197528
0.05416431
-0.017134711
-0.011100401
0.004629507
0.0031567868
-0.06496807
-0.005898751
0.02303464
0.051895544
0.021891197
-0.093667395
-0.0027514638
-0.00056829414
-0.05753647
0.031693477
0.058594294
-0.030948697
-0.048133582
-0.014701357
0.041286413
0.025882024
-0.071785554
0.0036921198
-0.03203171
-0.00287083
-0.001014352
-0.055087656
0.00838953
-0.030083513
-0.036181808
0.036757693
-0.039298885
0.043970846
-0.018230267
-0.018222133
-0.03020825
0.031540513
-0.0008713205
0.027046999
0.0054968465
0.08350148
0.039275445
0.058525696
-0.00638059
0.023967434
-0.06374919
-0.026588278
0.032755453
-0.02587625
0.056404952
0.043531768
-0.05386695
-0.00782388
0.042216804
-0.040714163
-0.012155704
-0.024459658
0.06498647
-0.0022730778
0.03529109
0.019001815
0.013215331
-0.0034962017
-0.04163293
0.012968924
-0.02253141
0.0080171805
-0.03457434
-0.0450729
-0.037395503
0.03762805
-0.0067968257
0.03514551
-0.03656838
-0.0039410284
-0.025958432
-0.006595101
-0.0033895166
0.08645301
0.019439947
0.026139617
-0.025942527
-0.0099292165
0.029517647
0.016708108
-0.049467605
0.03907353
-0.039716695
-0.0037651544
0.011771719
0.031695426
0.06147064
0.07259401
0.04582917
0.019547246
-0.0041613868
-0.011807693
0.050074857
0.024013357
0.111258514
-0.048104145
-0.01653346
-0.026438855
0.01567181
0.0750626
0.028507533
-0.01574413
-0.010158386
0.012129517
-0.060324796
0.066996224
-0.036060218
0.04546416
0.010124264
-0.028992966
-0.04439937
0.034261364
0.09850855
0.04563685
-0.074039064
-0.003954741
0.03954622
0.07125951
0.014323957
0.05758165
-0.020185463
0.0125327045
0.02087772
-0.04319983
-0.045118455
0.017222602
-0.029601652
-0.019535813
0.021892386
0.022747839
-0.034235794
-0.011457037
0.019988615
-0.033134624
-0.02424383
-0.0011285627
0.012224185
0.0917625
0.020165473
0.04047751
0.08498357
0.0113910865
-0.042478874
0.086489685
-0.05302563
0.022594064
0.009055111
-0.021345349
0.004978963
0.039602935
-0.038547955
0.02525314
-0.03573489
0.049362816
0.010939945
0.0008724101
0.012013952
0.00013791912
-0.022333397
0.019997729
0.012731893
0.021131951
-0.006910181
-0.03494032
-0.04314727
-6.3039835e-05
0.0015936394
-0.036165103
0.096848264
0.010503655
-0.01395398
0.033342723
0.06357193
-0.05244752
0.013830288
0.04727481
0.031079989
0.033105053
-0.07968769
-0.030417789
-0.053978022
-0.021263842
0.016444255
-0.007898523
-0.033356108
0.01388053
-0.08141173
-0.008406829
0.049055196
-0.03227153
-0.003827856
0.016642423
0.040168785
0.014847917
-0.010415276
0.00465925
0.047437936
0.037598208
-0.022063412
-0.015229615
0.0292377
-0.00361064
0.012836012
0.06319734
0.10074704
0.025200775
-0.045342285
0.039951965
-0.01513841
-0.046272587
0.03849741
0.0022125454
-0.01128009
0.023859655
0.02715676
-0.030112358
-0.051033705
0.017884726
-0.07685211
0.012013511
0.030525137
-0.01072991
0.022492567
0.008369447
0.028449627
-0.0733125
-0.034201387
-0.01596152
0.025568996
-0.010925067
-0.009738674
0.036969308
-0.032915875
-0.01534138
-0.03265654
-0.018996086
0.02383529
-0.07401312
-0.039958473
0.06132492
-0.08069244
-0.021223811
-0.08786221
-0.008640777
-0.07135803
-0.06322839
0.006318282
-0.045377024
-0.088261604
-0.029715119
-0.0007612413
0.08597032
-0.028356282
-0.01301931
0.002040464
-0.008018017
0.0054866057
-0.020213472
0.021323416
0.03725957
0.0504889
-0.054775916
-0.015613712
0.079925805
0.045311343
-0.051508214
-0.013526687
0.029480861
0.029689929
0.008051645
0.0118600335
-0.029779278
-0.017123824
-0.020364752
0.047613878
-0.06372507
-0.04223621
-0.030722342
-0.035127368
-0.013559395
0.027208243
-0.006981831
0.0021665993
-0.0124719925
-0.0047490257
-0.061465356
0.06264119
-0.015939638
0.009466343
-0.016941886
0.049495127
-0.05311095
0.027473932
0.014427891
-0.037243318
-0.042114668
-0.0032150378
-0.017820321
-0.017362718
-0.042356834
-0.043512557
-0.010502175
0.008892568
-0.015538079
0.030753845
-0.049988534
0.01727149
0.0050745886
-0.019906772
-0.010694319
0.02074069
-0.052511342
0.028190952
0.05837219
-0.008272429
-0.016499797
0.04843157
-0.08460231
-0.02453502
0.011523819
0.011081393
-0.04347044
0.0063637113
-0.03118684
0.004983452
-0.04602243
0.022641556
-0.034259792
0.027725622
0.026577167
0.06442857
0.07184566
0.0519723
-0.06560796
0.054000113
-0.0844061
0.0038877388
0.02114725
-0.008807789
0.023107186
-0.03344934
-0.01141715
0.019299494
0.043439727
0.07719017
-0.0028404486
-0.022204004
-0.04421061
-0.020614116
-0.030765736
0.02226979
0.022749107
0.038831856
-0.017546214
-0.0140982885
6.4051594e-05
0.021320725
-0.017282493
0.046515483
-0.052946728
0.019322561
-0.045921143
0.0055575655
-0.007174514
0.0035470517
-0.004951218
-0.0037290172
0.023602648
0.0017318099
0.04240175
-0.011215756
-0.053765744
-0.100994885
-0.0048672077
0.058654472
0.030366894
-0.043705076
-0.016254501
-0.023805905
0.010269347
-0.029676145
0.068381794
-0.016591145
0.0403477
-0.058634978
0.033151917
0.0047984724
0.038193233
-0.022441916
-0.052320227
0.04142851
0.061863054
0.0064257486
0.0020048306
-0.03628996
-0.044665437
0.0024400915
0.0105905095
0.009974927
-0.035965927
0.019601941
-0.009911818
0.06130076
-0.073215045
-0.023719236
-0.042327505
-0.03684487
0.037129454
0.043910906
-0.018447094
0.006996943
-0.021451972
-0.051353402
0.031505596
0.09030284
0.0058527556
0.010025391
0.01309823
0.025312543
-0.051773135
0.030088037
0.014795874
0.035977896
0.009238791
0.08849176
0.009139465
-0.006383993
0.010418404
0.026921852
-0.010873087
0.017331166
-0.007712621
0.03933817
-0.0046244613
-0.039464775
0.06122653
0.029528223
0.029732862
-0.034830563
-0.039258394
-0.048848957
-0.029029505
-0.08928869
-0.03672813
-0.015644645
-0.018598601
-0.099396884
0.058254417
-0.0036005387
-0.03195169
-0.016347066
0.008503961
-0.031856824
-0.020840194
0.008411016
0.014578109
-0.017373197
-0.02066937
0.027038876
-0.02548199
-0.026110653
0.043810382
-0.017098326
0.0110288095
-0.013682853
-0.049777195
0.027188208
-0.03941667
0.006735253
0.022613427
0.032001797
-0.025551926
0.007435718
-0.010484839
-0.028583862
0.0014656126
0.016138209
0.045110095
-0.002382446
-0.03951436
-0.061868157
-0.061424047
-0.05711253
-0.010667346
-0.027630145
-0.014669002
-0.03407614
0.07895846
-0.02398691
0.014090777
0.055957306
-0.011835958
0.024659116
0.0002037935
-0.011172111
-0.050515622
-0.015672222
-0.03973922
-0.073930986
0.031478163
0.078156695
-0.016832005
-0.028272294
0.027693419
0.042196643
0.030799868
-0.015759444
0.036713354
-0.06466147
-0.087517805
-0.022357175
0.009795132
-0.016135238
-0.035621814
-0.07058652
0.009742285
0.056974486
0.012947396
-0.044562347
-0.028175382
0.0042675724
-0.026895834
-0.039419383
-0.059245445
-0.06434512
0.056973018
-0.029106693
0.035594966
0.013022078
0.04168851
-0.06896562
-0.0027797797
-0.0019037742
-0.004091347
-0.03621103
0.020273937
0.02814589
0.089335464
-0.0064275907
-0.038801555
0.042424332
0.015251969
0.08576598
0.019618524
-0.042278223
-0.015352563
0.028661307
-0.019030591
0.04346512
0.011950508
0.016056558
0.0008160544
0.0073991003
0.012058332
0.006295264
0.03946104
0.065011755
-0.04658102
-0.0018482866
-0.003985665
0.034213323
-0.016353529
-0.07681223
0.053081892
0.07119729
-0.0134533085
0.042080015
-0.08770357
0.0058492753
-0.014566184
0.03258985
0.029161157
-0.030747855
0.030562315
0.056880765
0.010817206
-0.03606916
0.022133198
0.005468288
0.032870725
-0.04780216
-0.007857848
0.024328478
-0.0027824005
0.0494481
0.079267144
-0.018750295
-0.06553872
-0.0470292
0.015975306
-0.03250993
0.036504503
-0.00089367904
-0.08817842
0.06830677
-0.055480596
0.0035690223
0.03540206
-0.0005554062
0.011997503
0.017958611
-0.02145616
-0.001798668
0.06276319
0.0375584
-0.036491994
0.008638893
-0.015901979
-0.042926054
0.023482054
0.03540667
-0.07754767
0.012508232
0.017727552
-0.0139704645
0.010100711
-0.035135657
0.053983267
0.004767289
-0.011478058
0.012358311
0.067573555
-0.0053950204
-0.05333114
0.02279535
-0.00669714
0.036939263
-0.07953564
-0.0011655332
-0.028258549
-0.031914048
-0.017796583
-0.019626481
0.032095395
-0.007250905
0.023957713
-0.0260741
-0.0018227757
0.026566237
-0.022549463
0.039769266
-0.06453098
0.016009916
-0.007926631
0.0724446
0.030662816
0.02951017
-0.005088765
0.017707488
-0.015600847
-0.01743243
0.021112725
-0.02182443
-0.040312402
0.0014504303
0.009196869
0.0480971
-0.005393272
0.038545497
0.012186662
0.024255758
-0.05699642
-0.04571184
-0.009889267
0.046517875
0.030748459
-0.021314204
-0.0023352471
-0.0293243
-0.06167445
-0.087678604
0.050199367
0.028527206
0.025319345
-0.023476446
-0.050371207
-0.044151608
-0.0116461245
0.016560536
-0.022777585
-0.0157662
-0.04579383
0.033909786
0.017168554
0.0033826604
-0.07830399
0.034335557
0.0052558077
0.0026602868
-0.080531456
0.0066562584
0.025192047
0.0750088
-0.03460685
-0.009946998
0.022309558
0.04403956
-0.0871607
0.05613864
0.0035202417
-0.07466726
-0.04788137
-0.045659687
0.033813637
-0.033458557
-0.004319205
0.030987462
0.025970496
0.018801956
0.0054505584
0.035597127
0.0028467283
-0.031593442
0.11192012
0.013603291
-0.01202855
0.024400963
-0.001766954
-0.066224396
-0.024264222
-0.0037370818
-0.020068197
0.038045283
0.035601176
-0.0009684781
-0.014791488
0.00034952135
0.0038683708
-0.010742741
-0.010893457
0.047296908
-0.027973874
0.022960607
0.052084766
-0.044087037
-0.012190339
-0.026861116
-0.033384047
0.0029058917
0.030598456
-0.0039318185
-0.0073209726
0.030722344
0.02343166
-0.011130899
-0.022213994
-0.017158858
0.052469455
0.011757167
0.021146864
0.027459715
-0.004923928
-0.027773822
-0.0026060813
-0.010728668
0.02045708
-0.017806387
-0.044968512
0.018877484
0.0027494163
-0.021289261
0.029107127
0.018689023
0.019373307
-0.018600293
-0.022714604
-0.021674752
-0.057745382
0.029659083
-0.04106929
0.04864768
-0.0609572
0.030985767
0.0018825723
0.009286234
-0.017786846
-0.04903621
0.025334537
0.012385345
0.04398206
0.11170032
0.01983274
5.794059e-05
0.061393
0.013420088
-0.024890281
0.014934785
0.03646349
0.008115106
-0.0046536275
0.039925672
0.020344287
-0.0015245293
-0.020669663
-0.0033753554
0.041724
0.0031101487
0.046587184
-0.04959876
0.030181808
-0.022262324
-0.012205726
0.023250526
-0.039879143
-0.014602565
-0.08258737
0.01661015
-0.04528978
-0.04139675
0.07435243
0.048376285
-0.030311504
0.03126261
0.008597581
-0.06809005
-0.0132049825
-0.011354008
0.041514166
0.030863743
-0.008838304
-0.061038855
-0.0115800295
0.063604526
0.041430335
-0.01471826
-0.0039513223
-0.067435384
-0.0023534787
-0.043380503
0.0027439238
-0.044527214
-0.023457509
-0.0057151536
-0.041515037
-0.009297421
0.0073585473
-0.019625513
-0.015708655
0.0055519287
0.03451647
0.060143128
-0.030191017
-0.0043697376
0.05247919
0.052947897
0.043139268
0.0152911395
-0.03580555
-0.078978896
-0.007201779
-0.012211551
-0.058246713
-0.06433363
0.041863266
-0.018821305
-0.065252684
0.029848767
-0.030016726
0.037803367
0.09399613
0.0124922255
-0.007863132
0.036502298
0.013900113
0.00743775
0.036750194
-0.046352837
0.0062871724
0.035658512
0.01710854
0.093719475
0.063299656
0.006137628
-0.055094652
-0.025168873
-0.005465771
-0.046202525
-0.023889037
-0.084799826
-0.022679988
0.0098825665
0.028608795
0.01587039
0.09177664
-0.035946388
0.018922279
0.0619647
0.060703766
0.01599225
-0.061258174
0.018275991
0.038974807
-0.058112603
-0.003790739
-0.052623287
0.0047935373
-0.022847949
-0.058632042
0.056234013
-0.010171417
0.072422236
0.045055103
-0.047110297
0.06782887
-0.00091866794
0.024120374
0.02039306
0.039054263
0.053397328
0.0999108
-0.04237984
-0.017900037
0.044654954
-0.06220217
-0.000287316
0.018078417
-0.08431334
-0.08116511
0.045234177
-0.013433886
-0.014180638
0.056092817
0.019823696
0.053702913
0.013885852
0.002570556
0.03267131
-0.035120815
-0.020567007
0.012648072
-0.036479212
-0.046415143
0.0122500155
-0.0024314874
0.020801352
0.061005738
-0.0053455764
0.06252615
-0.003684269
-0.049462534
-0.008747803
-0.04884988
-0.028555162
-0.026624916
0.046763882
-0.05790535
-0.06631217
-0.08274982
-0.033951778
-0.00362833
-0.038076792
0.016278079
-0.07083864
0.022888372
-0.07327049
0.04948294
0.06917765
-0.012533428
0.0026525664
0.028785987
-0.036002316
0.06583928
-0.07399133
-0.056375984
-0.068443276
0.012642239
0.014177115
0.062250562
-0.0031118558
-0.050403442
-0.02742928
-0.06333548
0.0070156967
-0.05038585
-0.051919382
0.07542746
-0.10663563
0.01996408
-0.057731397
0.014502403
0.051342018
0.032613326
0.017030666
-0.002994196
-0.02022794
0.07561272
0.0048059714
-0.07195805
-0.052259542
-0.04442722
0.015999297
-0.03095216
0.050322328
0.1056287
-0.004646579
0.01398064
-0.02647119
0.002213386
-0.054471996
0.01303369
0.023018025
-0.08647046
-0.022916067
0.05731773
0.047147784
-0.03168635
0.03671741
-0.0647264
-0.044023704
0.009403352
0.008327777
0.010170335
-0.031132026
0.079560705
-0.054271247
0.083134435
0.01850423
-0.024057522
-0.0011178274
0.03770822
-0.030811232
0.057897974
-0.036078066
0.0039028428
-0.009544624
-0.017924571
-0.018898057
-0.003149772
0.037629467
-0.03676177
-0.014290834
0.025186166
0.052677955
0.023908386
-0.050715942
-0.037659343
0.015658079
-0.013440065
0.03143811
-0.011586834
-0.016426457
-0.0031817737
-0.064323746
0.0088964505
0.005562404
-0.045881834
0.03783742
0.051706843
0.005187357
0.021880927
0.0024547663
0.002388644
0.031418234
0.011854447
0.09049116
0.013048099
0.001035477
-0.011246191
0.014572204
-0.050027452
0.01592675
-3.919349e-05
0.05425071
0.017208641
0.015871892
-0.023716059
-0.03445737
0.0014840497
0.010995702
0.009246764
0.037580535
0.031074617
-0.004639031
0.0022448015
-0.013280216
0.039358884
-0.013849988
-0.03317886
-0.02342742
-0.03670433
-0.0030313334
-0.08670554
-0.009989391
-0.024864353
-0.031146917
0.022725413
-0.045700196
-0.0054606046
-0.023937002
-0.01001995
0.035503007
-0.004708375
-0.015436202
0.06979074
0.06994996
-0.051613778
-0.005936026
-0.041035727
-0.004150316
0.04313228
0.003858861
-0.011884638
0.033288103
0.0408968
-0.10033332
0.004676742
-0.030875793
0.03815011
0.022109713
0.02055419
0.008659782
-0.020815564
-0.027836822
0.023114093
-0.05885421
0.0049871206
-0.027751725
0.0023281174
0.023294246
-0.06844607
0.02843792
0.0526124
0.026729066
-0.0016162578
-0.070715696
0.0005959418
-0.05209134
-0.06151223
0.06206474
-0.008182268
-0.023056187
-0.013277813
-0.030379286
0.0058339564
-0.03537357
-0.024078572
-0.027508127
-0.041021693
-0.018565116
0.009146796
0.02261726
0.057559162
0.031331368
0.0071450565
-0.018528944
-0.012450726
-0.057878688
0.026283477
0.029621394
-0.031167421
-0.018206755
0.04030766
0.037629295
-0.02250584
-0.06302428
0.035071112
0.0015077422
0.027010689
-0.010232834
0.020698631
-0.0021793114
-0.046924695
0.025453568
-0.013046603
0.03972064
-0.017530339
0.07547391
0.03155579
-0.0059254346
0.034361042
-0.029784359
-0.048448592
-0.005196203
-0.018426381
0.0004140091
0.014117681
-0.08041257
-0.06098741
-0.045186922
0.0018947265
-0.027552601
0.058395084
-0.0625289
0.07098707
0.029572304
-0.017774435
-0.034013502
0.013040117
-0.05633918
-0.07258429
-0.055165507
0.029235788
0.0480399
0.056689095
0.06250697
-0.017033132
0.010225163
-0.031747937
0.06785107
0.0119934855
-0.06848327
0.01976968
-0.05342988
0.015114005
-0.023125036
-0.023471106
-0.013168912
-0.013247498
-0.044154804
0.051950157
-0.08172191
-0.07346791
-0.0035604818
0.04433367
0.006122797
-0.016342012
0.04031443
-0.0034037973
-0.010844839
0.013434855
0.03425802
0.01592117
0.056651954
0.050872628
0.042012967
0.022892179
0.02640695
-0.05904622
-0.018469013
-0.005262186
-0.0061277994
-0.04055097
0.047896426
-0.008157562
0.017056555
0.03450719
-0.037146606
0.010822893
0.06208187
0.0032913834
-0.054727014
-0.042664606
0.033857968
0.05036904
0.012071031
0.0054791165
-0.007801321
0.037705023
-0.058285292
-0.042746678
-0.059440553
0.010415553
0.027890839
-0.03266812
-0.052747004
0.033877395
0.042165287
-0.022022616
-0.060305227
-0.036760606
-0.03231026
-0.013099078
0.012245562
-0.049325984
-0.031444725
0.0032284255
-0.019854596
0.02838258
-0.030054532
-0.008460571
0.037086494
-0.047044802
0.017306617
-0.015922086
0.029153887
-0.03245762
-0.010112691
-0.024361815
-0.0013930193
0.066306956
-0.017184112
0.033730686
-0.09040091
0.005316081
0.046693794
0.040512573
-0.0010720368
-0.02546756
0.014330748
0.029288864
0.002858869
0.060849275
0.020147068
-0.0121197
0.0069235326
-0.08502517
-0.04720917
-0.002157347
0.013395563
0.06283254
-0.030455902
-0.027494289
-0.04639844
-0.062604725
0.012849673
-0.017009508
-0.022512589
0.03899554
-0.0062492485
0.010624286
0.06212545
-0.012878166
-0.006996103
0.09736838
0.032246444
-0.007931704
-0.07728095
-0.019125424
-0.008774848
-0.0021273955
-0.02128969
-0.002340216
0.033038482
-0.0027020508
-0.05113976
-0.026537737
-0.039716695
0.03192931
-0.0029043865
-0.04699769
0.002037042
0.0053205243
0.05889017
0.08114044
0.022597846
0.0010600254
0.039232787
0.0020693603
0.0039891694
0.0014361925
-0.05699399
-0.032473736
-0.034992315
-0.05155523
-0.077938765
-0.017225882
0.02281743
0.04400492
-0.026185786
0.019230155
0.014337177
-0.005703987
0.021288505
0.052429166
0.02669943
0.0033564856
-0.04137933
-0.024963683
0.033618413
-0.022451917
0.026273433
-0.0037679956
0.028757138
-0.04614957
0.027533468
0.017225394
-0.031208469
0.03159811
0.002320919
-0.007022612
-0.01923016
-0.031139702
0.035111282
0.045296855
-0.0033030864
0.020161927
-0.0059514362
0.03178352
-0.040446404
0.055330426
0.023106378
0.002393468
0.0031481944
-0.0148293255
0.009688841
0.006958668
-0.016032638
-0.030047953
-0.012278362
-0.01532523
-0.02265669
0.046255227
0.039253313
-0.012328559
0.08542452
-0.06508431
0.014018816
0.025183542
-0.039724555
-0.053185377
0.027248846
0.014898892
-0.0096873045
-0.0024327312
-0.026823418
0.009370937
-0.031295344
0.010849873
-0.040017825
-0.011525613
-0.049509615
0.023977164
0.036248058
-0.032078583
0.05208012
0.009611773
-0.036896177
-0.051488567
0.009082404
-0.018020893
0.013378695
0.016939847
0.025474738
0.027137337
-0.008768247
0.023816861
-0.030610243
-0.034473144
-0.070431456
-0.039280534
-0.025611138
-0.0028595813
0.0905087
-0.1707051
0.03482445
-0.04108124
0.02357836
0.008235591
0.012567389
-0.028608896
-0.090416364
-0.03550395
0.093101524
-0.07421596
-0.057841018
-0.050305527
-0.027188746
0.07993441
0.06079912
0.06336991
-0.0057836026
-0.02317176
0.034349266
0.01757684
0.015360879
-0.00043093087
-0.0045006825
0.009173516
-0.021886367
-0.026653571
0.01668597
0.019239113
-0.08379069
-0.015059026
0.013978392
-0.02095727
0.037938137
0.027564675
-0.044135604
-0.01951482
-0.024729803
0.03911132
-0.033256847
-0.014723731
0.09704331
-0.033139247
0.0039756475
0.008848432
0.048429295
-0.03470194
-0.023618197
0.008331378
-0.011951405
0.011141975
0.012305344
0.0032769619
-0.026948595
-0.018963138
-0.10616972
0.038799565
0.005647033
0.051299084
0.08773951
0.010381023
-0.058390293
0.03397049
0.0019677575
0.037170365
0.006110702
0.0007818567
0.022310868
0.0494516
-0.03313517
-0.050693654
0.021793963
-0.0010828093
0.047089167
0.051756408
0.0119808335
-0.038933337
0.043530732
0.017674608
-0.047855206
-0.028693102
0.0045658615
-0.011056412
0.03604959
0.027591689
0.01309549
8.6853295e-05
0.012693979
-0.05631691
0.00020362026
-0.04134139
0.08304326
-0.025531255
-0.004323544
0.005884666
0.0072787222
0.0050983904
-0.022510376
-0.029868918
0.05089567
-0.029403398
0.0012755023
-0.023208173
0.041469775
-0.060181245
-0.029311711
-0.023337435
-0.024887715
-0.01481519
0.014170422
-0.051850494
0.04224292
-0.044284113
-0.05054394
-0.016766151
0.010250919
-0.0249004
-0.053768616
0.0025938286
-0.03202893
0.05278376
-0.009139611
-0.06603357
0.010359376
0.05745786
0.052876215
0.00044435437
0.015209105
-0.079923645
-0.0060638404
-0.012906905
-0.040296353
0.026840111
0.050450195
-0.024748176
0.023562282
-0.031009514
0.04323844
0.03555513
0.0022462714
0.068870276
0.01178648
-0.0378136
-0.041455917
-0.03580498
-0.02583643
-0.009199143
0.030535555
-0.00094967487
0.013443024
0.023070179
-0.05296577
0.028859366
-0.010406417
0.026736122
0.088050194
-0.034988478
0.050841168
0.009559059
0.061706834
0.013724901
-0.024919748
0.10734356
0.046115406
0.014567781
-0.015048948
0.039076254
0.0025697262
-0.067759715
0.059184488
-0.030841231
0.024677474
-0.0120823225
-0.02428383
-0.0332321
0.0054460783
-0.01357018
-0.060229544
0.021099413
0.0015721711
-0.030505417
0.033017628
0.01648378
0.008211378
0.00454537
0.05189364
-0.045206532
-0.009540719
0.023613026
0.049716312
0.043332316
0.009718956
-0.007942544
-0.0003143163
0.07977249
-0.055682823
0.07110282
0.00049583154
0.0011518634
-0.042814787
0.019315885
0.049508467
-0.06172335
-0.062471744
0.036189288
0.006049309
-0.06432418
0.0038247511
-0.0196445
-0.066612154
0.0787493
0.03421768
0.018150797
0.047675688
0.06988556
0.015406895
-0.023612017
-0.0712361
0.009838216
0.023693861
0.029898854
0.018040428
-0.07287221
0.07975511
-0.035537735
-0.05305081
-0.017585643
-0.019228296
-0.010688792
0.033313952
-0.0048111803
-0.00523924
0.053098362
-0.03840259
0.06368586
-0.065863125
0.035370424
-0.06316168
0.017060753
0.0035608627
0.03148239
0.03425068
0.052011788
0.016898034
-0.026855176
0.009592619
-0.02083258
-0.04028023
0.059320647
0.032361753
0.06443484
-0.07565944
-0.0027858473
-0.026460987
0.0005031012
0.036200397
-0.034335118
0.007577765
-0.007922743
-0.008323184
-0.079745494
0.046911843
0.014995798
-0.042622257
-0.059063297
0.008880049
-0.027260836
0.025831955
-0.07188548
0.10775689
0.039260823
0.046194192
0.0694898
-0.0230488
-0.075420566
-0.0009956643
0.07290939
0.026557563
0.034156132
-0.07683893
-0.024937896
0.001560911
0.03648044
0.045994084
0.031958196
0.058984034
-0.05812548
-0.038251743
-0.012813709
-0.03696095
-0.02337175
-0.036959145
0.03319468
-0.016194139
0.007540356
0.05329443
-0.011736694
0.028496679
-0.0150540415
0.010174393
0.03821115
-0.024116753
-0.020214725
-0.0014187391
-0.03462755
0.058928274
0.028654909
-0.031019919
0.034481708
0.006198908
0.00039659574
0.015343423
0.0852135
-0.044188917
0.031436767
0.055532333
0.037236173
0.040526047
0.018868925
0.011478892
0.0028130077
0.0100513175
0.051936705
-0.04233672
0.030450128
0.014920504
0.047750976
-0.06675434
-0.037005913
0.06712441
0.041327786
0.04108909
-0.030735476
-0.015187202
0.0345875
-0.045366373
-0.020979086
-0.0011650819
0.018526332
-0.037929602
0.021004265
0.011413432
0.03255895
0.017733714
-0.017555818
0.007526543
-0.015424724
0.062156554
0.02830695
0.035626773
0.0067781406
-0.0049207304
-0.01114395
0.026210705
0.025317255
-0.01855401
-0.028334633
0.010765471
-0.09517003
-0.01635519
-0.020807285
0.021997254
-0.010510051
-0.01683447
-0.00515453
-0.09875776
-0.013417669
-0.034098748
0.08689712
0.094925925
0.10472196
0.014700466
-0.07511324
0.005873398
-0.0033201273
0.015088534
-0.12678654
-0.041872412
0.041756168
0.04534615
-0.026651248
0.00859184
0.004720757
0.030685745
0.055955693
0.010761643
0.015546813
-0.08886068
0.038573958
-0.08604522
0.0068495227
0.017971111
0.0467853
0.068692684
0.0490576
-0.032713834
-0.010546212
-0.020036401
0.000599318
-0.038257
-0.039703235
0.02142384
-0.0155574875
-0.050135765
0.035520777
-0.054720562
-0.017136639
0.0017217153
-0.03095221
-0.018562337
0.006908228
0.005240831
-0.03222425
-0.01230055
-0.0529938
-0.0018625329
0.010177446
0.009464528
-0.013031688
-0.02079185
-0.04110993
-0.022291329
0.068170115
0.01415208
-0.07005962
-0.0007015039
-0.057056528
0.0056912038
0.011584604
-0.036505256
-0.065384015
0.040306095
0.010000953
0.037059505
0.04243978
0.06302406
-0.0007447337
0.033101194
0.034533206
0.006285633
-0.04672766
-0.0051745526
0.022932503
-0.04081346
-0.026492853
-0.024082748
-0.032241724
-0.14613691
-0.06412853
-0.011480264
-0.013572546
-0.05994202
0.018496297
0.008279586
0.00040112072
0.08603088
-0.014261805
0.06964912
0.02901703
-0.04022704
0.032644343
0.046284843
-0.00086881046
-0.0022781808
-0.024384983
-0.03907883
-0.0060018688
-0.046508946
0.009991696
-0.0606696
0.09706817
-0.050822016
0.005601537
0.04761168
0.004332361
0.00072044646
0.10196488
0.042383913
-0.004468178
0.07397428
-0.015757931
0.020134132
0.015624073
-0.03074351
-0.025795078
-0.026032317
0.0182631
-0.07534428
-0.026480043
-0.09388101
0.03997226
-0.07011526
-0.027925571
-0.033309758
-0.027831895
0.024728084
0.06288967
0.021278473
-0.018925996
0.015578914
0.01717594
0.01294936
0.0045839706
0.027169421
0.07993597
-0.019518238
-0.037665583
-0.0024016444
0.05377614
0.08506381
0.024410386
-0.029249683
0.050814092
0.027270991
-0.012598122
0.10567446
-0.0017388747
0.0076147025
0.0030772008
-0.04934157
0.06675514
-0.032238096
0.050993845
0.037232332
0.04250604
-0.008904904
-0.016758515
0.03189249
0.070375375
-0.065587774
0.03873273
-0.011145921
0.007863549
-0.03390732
0.005301483
-0.0004122279
0.04826218
0.008247265
-0.006547474
0.014796117
-0.036759764
-0.03763029
-0.015637737
0.043172453
-0.03625485
0.0076452526
0.004594762
-0.046564516
-0.06181875
0.084310256
-0.046267197
-0.018644221
-0.04385878
0.02367017
-0.013163982
-0.0028333978
-0.0072464617
-0.006458646
0.058347855
0.0033471386
-0.0030574135
-0.049863968
0.030769976
0.0039205826
-0.012757342
-0.010353915
0.00544189
0.027963378
0.06256936
0.010099012
0.007824121
0.06795771
0.012700804
0.010506422
0.02395637
0.031831663
0.002095241
0.015365512
0.01888641
0.040622484
-0.031692814
-0.030158442
0.015017562
-0.009038517
-0.06177712
-0.014108267
-0.036334995
0.002896903
0.0976626
0.012992229
0.018404054
-0.009911934
0.036197364
-0.040023994
0.008731783
-0.015807524
0.012278781
0.012168296
-0.005186289
0.117911115
0.003442522
-0.0013666238
-0.015372944
-0.020618958
-0.033317618
-0.023293572
0.017748408
-0.064407736
0.025544444
-0.0076151174
-0.023649706
-0.028977219
0.030497558
-0.048975196
-0.041258145
0.0365781
0.023537494
-0.056653418
-0.049896527
0.052121684
-0.012699221
0.04919704
0.010371156
-0.0057938625
0.023670554
-0.0007392155
0.030616902
0.05976502
-0.020209787
0.00019510019
0.07219798
-0.005895623
0.017817179
-0.014889702
0.00071353593
-0.019320985
-0.061624773
-0.04676548
0.03640189
0.021616196
-0.013498945
0.052119855
-0.0112994155
-0.0028986393
-0.011728152
0.029933633
-0.017366748
-0.032082748
-0.031225704
-0.037268344
-0.028116755
-0.0042191804
-0.033714138
-0.05785775
-0.04230642
-0.090544
-0.00028752856
0.023259783
0.019265007
0.028160905
-0.0021423136
-0.031297036
-0.023399575
0.045101125
-0.008499431
-0.009379273
-0.018487636
-0.006082907
-0.037829384
-0.014530535
-0.02396423
0.025450237
0.079054385
0.033247743
-0.08058445
-0.0004647339
0.015832655
-0.021793744
-0.052285045
0.036022507
-0.040980622
0.016061297
0.08653865
0.0426692
0.00035445002
0.031187914
0.010670605
0.031999283
0.050455246
0.0020809988
0.0035012544
0.037755676
-0.011409306
-0.019921629
-0.0533411
-0.03143168
-0.020491842
-0.018633056
0.038820796
-0.039441396
0.009305618
-0.018561566
-0.019387273
-0.009536668
-0.018495642
-0.011915801
-0.020631067
-0.007916639
0.015053498
-0.014902374
-0.04095253
0.03681191
-0.02578328
0.019932467
0.048576567
-0.030377673
-0.03235457
0.016573122
-0.04855396
-0.04421692
0.033876374
-0.0205841
-0.056656465
0.024968026
0.049944494
0.02498087
0.0044884156
0.008055933
-0.04812171
0.050126176
-0.018724712
0.04052707
-0.00586138
-0.06957765
-0.0057382346
0.053178627
-0.01196375
0.04660454
-0.02700903
-0.037003495
0.010374015
-0.016796729
-0.07221675
-0.015748946
-0.047280975
0.030782403
0.049598
-0.003288085
0.017030414
0.0316948
-0.021102991
-0.024836218
0.048087195
0.0060357386
0.027084013
-0.03452494
0.063514575
-0.04162459
-0.010291714
-0.052202906
0.022691669
-0.030545283
0.0088969655
-0.028772386
-0.032385454
-0.03673627
0.036226373
0.02662084
-0.004272576
-0.044349726
0.035875216
0.044512343
-0.0064707566
0.053216055
0.027324775
-0.002972328
0.052859124
-0.015320366
0.017733581
0.007050107
-0.01640734
-0.060643528
0.075935565
0.024184277
0.0069856746
-0.021188673
0.023673464
-0.026281636
-0.02855671
0.030428626
-0.04144054
-0.028027536
-0.046456825
0.05892336
-0.035044774
0.0071696076
0.015061927
0.019042639
0.04552943
0.0020982192
-0.027812032
0.0034778307
-0.011924186
0.051244646
-0.02112344
-0.009700892
-0.019393746
-0.017715195
0.021710068
0.010493517
-0.019639129
0.009091355
-0.006573341
-0.001142425
-0.0067873118
-0.002307832
-0.06791258
-0.019750642
0.005608053
0.01681742
0.013977718
-0.070524804
0.10019909
0.006562176
-0.008158759
0.029038787
-0.044817243
0.01817347
0.039830353
0.01978262
0.018868769
0.046774924
0.051108707
0.031833112
0.0005685652
0.0451758
-0.100815065
-0.02153007
-0.051581174
-0.03460969
-0.024008501
-0.03456376
-0.011048715
0.068311885
0.035820704
-0.00056516513
0.045647282
0.039588388
0.02089604
0.0088715395
0.026060514
0.031324524
-0.011455805
0.018501662
0.005337723
-0.05568707
0.008342266
0.013210381
0.011419703
-0.021218589
0.021998953
0.026421119
0.0037525776
0.026356528
0.023095246
-0.011309176
-0.0055179955
-0.0062442133
-0.021790065
0.08697969
-0.033886768
-0.04129936
-0.023243876
0.021103118
0.012491446
0.02539374
0.025682455
-0.005456129
-0.033709385
0.003451648
-0.052506972
0.034202218
-0.008386687
-0.014641157
-0.047704328
-0.008118919
-0.0684012
-0.05672072
-0.021856155
-0.026369056
-0.025966935
-0.022258064
-0.0121530825
-0.01832225
0.02753769
0.06648863
-0.03904398
0.03829726
-0.0065989154
-0.061244424
-0.0047441637
-0.06403626
-0.026240127
0.024769517
-0.023313904
0.07001423
0.020694409
0.0011371827
-0.044111058
0.033879936
0.019650077
-0.023708964
0.035448566
-0.06483559
-0.016725639
-0.018953389
-0.08818255
-0.032700006
0.022567743
-0.04026647
-0.05987596
-0.07715616
0.038230754
-0.043333415
0.005731926
0.024001228
0.007105687
0.0064980625
0.006823435
0.039688624
0.041789144
-0.038395435
-0.011282743
-0.0073262476
-0.041207287
0.057763994
-0.038115848
0.06390073
-0.012754571
-0.028726865
-0.041181173
-0.028788326
0.017306842
0.025301216
-0.012274598
-0.06450584
0.0033038273
0.018639488
-0.035935696
0.042029116
-0.004139246
0.028429635
0.062145103
0.04201349
0.036292803
-0.016716415
0.021238985
-0.020062491
-0.022335168
-0.0010515489
0.011183222
0.072912574
0.053823203
-0.054015275
-0.034033287
0.047378622
0.07517523
0.029538864
-0.02124716
-0.012055092
0.010829935
-0.0014314861
-0.06459955
-0.01744515
-0.029134545
-0.016725944
-0.007831141
0.031104807
0.003151898
-0.054641504
0.019511838
0.041149925
-0.010315613
-0.0056458605
0.022861876
0.0023099126
0.04553655
-0.081784435
0.007215949
-0.029848339
-0.052697953
0.06732523
0.015512676
-0.0065199095
0.031442806
0.04561351
-0.057459723
-0.006952725
-0.009301893
-0.05946815
-0.016448367
0.013870571
-0.06276051
0.040276278
0.064204976
-0.0023986986
-0.0452058
-0.0040066605
0.018543126
-0.015204225
0.0006859814
-0.002458737
0.026234511
0.034618925
-0.022882793
0.0038542678
0.026734741
0.033144373
-0.058394138
-0.05309672
-0.0017048821
-0.012127602
0.051855378
-0.05479858
0.003618604
-0.0064504906
0.09062939
0.054281425
0.031734064
0.035959553
-0.012353472
0.045031067
0.026412187
0.010432354
-0.042617556
-0.038247973
-0.0048080045
0.034362268
-0.033708353
-0.014079326
-0.044284765
0.023923196
0.039333187
-0.046953734
0.030326197
-0.03361661
0.003992109
0.049770158
0.038016662
0.069798775
-0.010018934
0.008463712
-0.0057866625
0.02506909
-0.017629854
-0.040905785
0.096298225
0.046992984
-0.0038795532
-0.01617049
0.022818623
0.04820168
0.021118995
0.036962863
-0.019207213
-0.0074904617
-0.0037594654
-0.03181774
0.008778893
-0.0011858325
0.010588173
-0.04849436
-0.027344633
-0.024877306
0.03134576
-0.016963018
-0.05266709
0.05357909
-0.024555122
0.02402282
-0.004894416
-0.083658405
0.04128295
-0.013548287
0.021869317
0.027396524
-0.0026249639
-0.045656342
0.0050924667
0.07348305
-0.024672996
-0.02264357
0.0074953055
0.07077673
-0.0067108786
-0.012865866
-0.013945245
-0.023439523
-0.05366758
-0.02164557
-0.021080345
0.009679049
-0.0068166116
0.0051355152
-0.021164615
0.022164356
-0.052917056
-0.049590573
0.054543823
-0.05796218
-0.033839434
-0.008380706
0.013858475
-0.05598036
0.058521256
-0.052501768
-0.049631737
0.005446551
-0.056607112
-0.023183493
0.00489635
0.07652958
0.07109921
0.029060077
-0.05660722
-0.0071813953
-0.043001536
0.08903312
0.00036188733
0.023033865
-0.053117886
0.013458865
0.024907785
0.020727694
-0.04788119
0.056371614
-0.008308356
0.040948596
0.020422354
0.059219204
-0.055138737
-0.06181633
0.0461891
0.023688592
-0.0381517
0.0029001075
0.028156338
0.045392107
0.06755566
-0.021034332
-0.053266097
-0.025161646
0.024841169
-0.01082197
-0.042163428
0.009271471
-0.051218145
-0.036258806
-0.059720922
-0.030264642
0.04390464
0.007465421
0.00438426
-0.053346865
0.0036145444
-0.011763692
0.019657383
-0.013578065
-0.043481544
-0.036903363
-0.00224496
0.019163733
-0.004221388
0.0077071656
-0.033834852
-0.034409724
0.051722605
0.01960167
0.026775898
0.028754955
-0.08545914
0.0143145
-0.04126218
0.022877326
-0.015189603
0.020464152
-0.019860419
-0.032859158
0.05429316
0.04632196
-0.07398204
-0.037589427
-0.027055724
0.01274306
-0.035402622
0.07387434
-0.03369618
0.07642602
-0.029122893
0.025039261
0.030279275
-0.02526179
-0.040662963
0.013022707
-0.046541512
0.07154838
0.025066657
-0.0010087844
-0.0050334064
-0.035594616
0.015927657
0.025985327
-0.022386001
-0.085575394
-0.0026224116
-0.05747632
0.00749452
-0.04817724
0.002855247
0.043169655
-0.07567632
0.03261128
-0.016459892
0.01192345
-0.034384962
0.04185473
0.005627362
-0.04470187
-0.03314859
0.012960034
-0.03369061
-0.0749875
0.03883625
-0.013527945
0.018077547
0.025458222
-0.006954757
0.036695566
-0.010335803
0.030103931
-0.10321072
-0.06566162
-0.005624566
0.020422341
0.014627784
-0.0034827122
-0.017005786
0.018530387
0.0016513098
-0.09338346
-0.052529637
0.002765916
-0.0042572506
-0.036434248
-0.062851414
0.029381156
0.05685385
-0.0015340486
-0.038841426
-0.004050264
0.03277198
0.020784764
0.011349129
-0.03888707
0.022210777
-0.01859492
0.0021139176
-0.0117056575
-0.0037019313
-0.004089815
0.020184467
0.018617824
0.048650213
-0.030006161
0.02894402
-0.0030385181
-0.024349863
-0.045470458
0.0688507
-0.02448938
0.04900853
-0.030936822
0.013967053
-0.012975956
0.012411253
0.04043202
0.009673521
0.05303438
-0.026570039
-0.032495357
0.015105767
-0.024371577
-0.0041768844
0.094472446
0.022138849
-0.07967999
-0.005147285
0.040245093
0.019619139
0.04055616
0.031641982
0.06285688
-0.029175261
-0.03349874
-0.0024926104
-0.022784693
0.063237175
0.039662957
-0.012693052
-0.026138308
0.019205062
0.004425774
0.05516721
0.051036708
0.020462375
-0.040993065
0.013571696
0.046654053
0.008195772
0.018015193
-0.004276469
0.047124337
-0.03974278
-0.030232541
0.011062768
0.009721381
0.007128667
0.026800796
-0.033324324
-0.0047104238
-0.06595766
0.008656154
-0.007970639
0.047680903
0.0055714687
0.038119648
0.00044327817
-0.057187937
-0.030763304
-0.04835192
-0.026972242
0.052821945
-0.017216124
0.012076217
-0.0013819863
-0.0033716082
0.033077803
0.017251158
0.016160894
0.001532426
0.045810003
-0.051572375
-0.00090673787
-0.00565465
0.040209334
0.040650103
-0.03911233
0.060125936
-0.046078738
0.0016685167
0.058451846
0.009818334
0.037072096
0.021401199
-0.0048584747
0.021083172
0.03348331
-0.0010176416
-0.021741582
-0.07758767
-0.023655767
-0.008776299
0.01396428
-0.03773824
0.059917003
0.014186536
0.03022933
0.012372189
0.062712066
0.053311083
0.014936156
-0.0032458266
-0.031350676
-0.023717519
0.052909236
0.023581697
0.051030535
0.010608032
-0.008190283
-0.043062795
0.054347448
-0.027184898
0.04589562
0.010760955
-0.01794413
-0.0013316006
0.0017452535
-0.009806085
0.04874594
0.006219438
0.00012662707
0.02163352
0.050695565
-0.0012959169
-0.06487214
0.01739021
0.06614229
0.0065182266
0.018933319
0.003206057
0.045511592
-0.01704071
-0.07857293
-0.024538953
-0.068951905
0.008666317
0.01919704
0.022695092
-0.018247116
0.0025405674
-0.05584516
-0.00040970105
0.0075734234
-0.05421372
0.040141996
-0.06679924
0.022399528
-0.034007646
-0.010382036
-0.016662445
0.050866116
-0.00012011218
-0.03306384
0.042494003
0.06256748
-0.106809154
-0.0071628015
0.03605352
0.06884958
0.014217804
0.04190208
-0.045017257
-0.006423241
0.039495878
0.044375706
0.028683748
-0.0010456485
-0.103610575
0.006499123
0.023179075
0.0261457
0.021561561
0.016752345
0.020675374
0.08650403
-0.04301505
0.07917413
0.018388962
0.026329901
-0.013478356
0.02193782
-0.06489943
0.020416066
-0.016349655
0.02093342
-0.053968925
-0.007360376
-0.023999313
-0.10479496
0.046521623
0.008701052
-0.03460662
0.010841441
-0.008679055
-0.03161694
0.004996403
0.008523789
0.05624301
-0.0061468533
-0.009810951
-0.017221538
-0.009157921
-0.047286585
-0.024595164
-0.03232394
-0.059223697
0.005329884
-0.042279206
0.012792011
0.06470728
-0.0075896084
-0.003615792
-0.012173448
0.014891445
-0.05155277
-0.0067612357
-0.0042620916
-0.009753729
-0.012757675
0.041366275
0.004586191
0.02793952
-0.044036306
-0.0709787
0.06678093
0.0028681434
-0.021416826
-0.064179234
-0.04415919
-0.051490862
0.05275119
0.018032901
-0.031004736
-0.0066966615
-0.013280656
-0.024004683
0.0031313763
0.013100065
-0.056623474
0.008991358
-0.0491083
0.030403346
-0.044959247
-0.01908702
0.0907869
-0.009307035
0.0045953984
0.0023364646
-0.029111344
-0.02204424
0.0039025948
-0.020575609
0.008835077
0.015437997
-0.016915835
0.09519033
0.04479297
-0.00050373306
0.027254118
-0.024094429
-0.024032516
0.052032955
0.025003325
-0.012538571
-0.032232992
0.010179204
-0.043890677
-0.0020830103
0.0089519685
-0.013304556
0.010115265
-0.0405274
-0.036223035
-0.038698886
-0.017927276
0.0039283237
-0.0065189907
-0.070084676
-0.00040148618
-0.06808381
-0.008163976
0.036675617
0.032222275
-0.08191518
-0.040735133
-0.024207914
0.08133731
-0.03481335
0.0385304
-0.0116787
-0.02134795
-0.06491851
-0.09052232
-0.041094508
0.03353213
0.027203042
-0.073164925
-0.00473973
0.084371984
-0.0016516552
-0.03716242
0.059907176
0.033971623
0.011634329
-0.02202348
-0.019933917
-0.046021327
-0.046065256
0.0014414951
-0.012646753
-0.04304023
0.014449232
0.06839325
0.048960686
-0.03639633
0.003920046
0.015329726
-0.04441953
0.0017742853
-0.005383393
0.010421961
0.0030973556
0.08017716
-0.025599474
-0.001078275
0.07539442
0.026623402
-0.014862982
0.0097232675
-0.006720813
0.032725684
-0.015398952
0.029708497
0.038551193
0.05201955
0.06855161
-0.061072823
0.0054609026
0.018893773
-0.005000136
0.014887161
0.075457804
-0.015964165
-0.06641823
0.046428964
0.026322523
0.021048313
0.049168922
0.05970383
-0.018151471
-0.020942232
-0.027724838
-0.00091529475
-0.025979765
-0.0398689
-0.019607276
0.02651787
0.023752553
-0.022651246
-0.06488241
0.0019826214
0.05322618
-0.026688907
-0.008039695
-0.019595593
0.025724156
0.040132206
0.0054077245
-0.030063614
-0.020959409
0.0051363027
0.024553299
-0.034612466
0.027550615
-0.093352035
0.017927792
-0.0017165833
-0.028551007
-0.044775736
0.02994926
-0.028222453
-0.036936987
-0.0136123765
-0.04075816
0.013563775
0.025254084
-0.011833525
-0.05161467
-0.086191826
0.041764077
-0.036035333
-0.03667661
0.04277915
-0.00761171
-0.0049848263
0.021877125
0.04545117
0.011006406
-0.037273157
-0.0609429
0.020898657
-0.00057300704
0.041890383
0.048390035
-0.02220357
-0.062203858
-0.027459888
0.025578871
-0.00027031114
0.017559899
-0.00096333167
0.05025802
-0.049209148
0.10895737
-0.025355231
-0.0017408397
-0.042050052
-0.024947952
0.0632903
0.030993637
-0.016574046
-0.035101708
-0.09914394
-0.012653268
0.050770096
-0.06484634
-0.0421733
-0.050826967
0.07374425
0.02528616
-0.063997276
0.043672018
-0.038545854
-0.024509242
-0.04146215
-0.014726039
-0.0012718298
0.0029437842
-0.013877361
-0.019396977
0.0045844354
-0.048980493
0.017408023
-0.06055321
0.0027008194
0.012689424
-0.038652208
0.0038118355
-0.004789981
0.07304831
-0.011219838
-0.031815056
-0.0386655
0.06671803
-0.018298617
0.012653774
-0.00247076
-0.017936518
0.008819041
-0.00066365354
-0.041439537
-0.05141638
-0.015027821
0.03485547
0.11467094
0.003703056
0.027665548
0.025780939
0.02784813
-0.008484727
-0.0048355265
0.019990629
0.049975965
-0.002000747
0.06306038
-0.028914845
0.010441799
-0.06143304
-0.006107242
0.0072502424
0.04946431
0.012043684
-0.05387994
0.07739689
0.013875842
0.047373045
-0.048249334
-0.015665546
0.07809071
0.031462386
-0.043185767
-0.0262472
-0.041614283
-0.017230164
0.043533113
0.018585335
-0.058478255
-0.028511323
0.031005567
0.015208675
0.058128133
0.04278352
0.009978528
0.012700493
-0.077460624
0.079903364
0.036428753
0.0034318469
0.052207302
-0.0070716757
-0.006642678
-0.0007022348
0.00459837
0.011393437
-0.033392236
-0.065406665
0.08705925
0.00577171
-0.01649322
0.075098276
0.0039579994
0.021170767
-0.048421416
0.045770388
0.0015371265
0.011844577
0.020763004
-0.042636387
0.010995535
0.006979419
-0.078079656
-0.07361854
0.0549908
-0.042097565
-0.056184195
0.0057840804
0.021799747
-0.05683371
-0.055872127
0.016600642
0.03770052
0.079743735
0.027588738
-0.01237689
-0.07522983
0.012220973
0.034267053
0.040537365
-0.043995623
0.028288027
0.045174345
-0.02271238
0.021030448
-0.04476659
-0.03057214
-0.004493128
-0.010731588
0.0018876373
0.008589058
0.045659125
0.021304889
-0.024680197
-0.049087215
-0.00079387473
-0.005021221
-0.013095997
-0.04110982
0.11896883
-0.025272746
-0.07600047
0.02289492
-0.006459059
-0.09144307
0.0011327288
-0.035702065
-0.011822077
0.00028972214
0.027131116
-0.01522437
-0.010374845
-0.008757082
-0.054231428
0.030487135
0.028797632
-0.033650603
0.041804254
0.0029251287
-0.03403449
-0.022165578
0.0057025296
-0.0076325834
-0.0032922782
-0.029019304
-0.01179614
-0.019376671
-0.06709265
-0.027570067
-0.07386761
0.03694136
-0.022052355
-0.048100453
0.058370244
-0.019017195
0.019704007
0.010733111
-0.0039298898
-0.029651156
0.04949179
0.015013863
-0.029252665
-0.011407819
-0.018921584
-0.00952245
-0.026906865
0.04578425
0.022784337
0.03434396
-0.025523072
0.01941097
0.005810044
0.03200256
0.016874017
-0.039543934
-0.0076963017
0.0470462
-0.003745452
0.015674828
0.028422793
-0.0137557015
-0.0138050215
0.027610641
-0.002770501
0.018668164
-0.007924904
-0.037670825
-0.028674975
-0.040636618
-0.028945608
0.037119024
-0.02547424
-0.0074257446
0.0022605008
0.021870703
-0.051052894
0.09693707
-0.001700013
-0.0075860457
-0.08174779
0.024171552
-0.05969196
-0.00040444886
0.023943216
-0.055157725
-0.01906812
0.010773669
0.005929726
0.03644597
-0.012601816
-0.05326804
-0.03972818
-0.01403764
-0.031264406
0.01811975
-0.021266282
-0.03693132
-0.06680473
0.029116096
-0.031196875
0.008536704
-0.05477468
-0.012354164
-0.031978417
-0.0042971247
-0.029164819
-0.032617256
-0.034848977
0.07189434
-0.014006566
-0.0362016
-0.059049685
-0.012255635
0.0044559147
0.009384888
-0.020631528
-0.013810524
-0.012676939
-0.0014166544
-0.043259457
0.012471763
0.04519531
0.039969638
0.019089226
-0.010220159
0.010333686
-0.019574132
0.052714523
-0.012629327
-0.007850714
-0.018657466
0.068467
-0.00835274
-0.020880396
0.014765349
-0.0069073476
-0.03853814
0.008622237
-0.032809902
-0.078578964
-0.021213409
-0.07751308
-0.0029151975
-0.014049209
-0.007920266
0.009081336
0.016001519
0.016687019
-0.015515684
0.000706081
0.037439607
0.0018004988
-0.028618433
-0.035963006
0.011144974
-0.031480923
0.0025985597
-0.033915974
0.005915079
-0.019951783
-0.039878283
-0.010784351
0.030210873
-0.059960876
-0.02615365
-0.007419863
0.05322469
0.027012559
-0.02127789
0.0006430329
0.035185568
-0.055155177
-0.013185109
-0.036533162
-0.00022385098
-0.043824434
-0.0032076794
0.02090408
0.02948974
-0.03592396
0.11595033
-0.034593225
-0.023312096
-0.034961805
-0.014479644
0.02772892
0.0659403
-0.066869885
-0.014109616
0.051675733
-0.020287227
0.023846298
0.0054890774
-0.101379015
0.050898448
0.06717826
-0.025569806
-0.013615838
0.0052263252
0.004273872
-0.0063933968
0.043271024
0.0596314
-0.009782082
0.0009175918
-0.0012895341
-0.019592628
-0.041273784
-0.04243827
0.04006797
-0.006552797
0.039315704
0.06880267
0.029746402
0.0013631966
0.04007755
-0.0031876361
0.08209615
-0.014677553
-0.011933709
0.01177089
0.06341409
-0.022468852
-0.003524843
-0.015285384
0.028724637
0.0021888283
0.012661066
0.05390069
0.02326523
-0.03186197
0.009221122
0.060029704
-0.03207254
0.028504133
0.007015375
-0.026675414
-0.037531003
0.035246816
-0.0069600856
0.05540607
0.05623106
-0.015975708
0.03927573
-0.02733035
0.024506256
-0.0047361166
0.005572555
0.0024166815
-0.07673955
0.02115385
-0.044053786
0.021183895
-0.015526145
0.032370575
0.028192233
-0.002972008
-0.03676884
0.016778957
0.06108574
0.020025017
-0.043501515
0.085803814
-0.08580248
0.0019475846
0.014363885
0.016600695
0.06520424
0.036634307
-0.045127984
0.027917968
-0.008754901
0.046560127
0.06334444
-0.012926137
-0.057632323
-0.0036473463
-0.07809861
0.035143305
0.030402623
-0.016018718
-0.013356257
-0.050938606
-0.0010435227
-0.0325871
-0.01026271
0.057145532
0.052103534
0.051895183
0.054062743
0.03359834
-0.06551623
0.013862416
0.07112554
0.090931475
-0.052780937
0.0027924841
0.03236446
0.009582552
0.009014018
-0.0041888496
0.009682988
0.03407062
-0.0072714034
0.0057778144
-0.02066072
0.03805723
-0.02047949
-0.039209057
-0.07687125
0.03268411
0.053688522
0.009998918
0.017500402
0.034087017
-0.044561114
-0.040115785
0.05682427
-0.1026426
0.088204205
-0.034552917
-0.03544558
0.008618237
-0.018805854
-0.07506479
0.045256834
0.034490548
-0.024123875
-0.06481485
-0.019522622
-0.025939
-0.0025153006
0.02433346
-0.10362307
0.012264813
-0.00077225734
-0.05871863
0.006838106
-0.0054392945
0.006781474
0.007617381
0.0414564
0.02488077
0.007670683
0.031238435
-0.07317892
-0.020044612
0.026529895
-0.015942158
-0.088800535
-0.0067073046
-0.0050669312
-0.026967056
0.041203238
0.08998279
-0.017422067
-0.013458909
0.027511274
-0.025316985
0.022654776
-0.00842022
0.02389977
0.0026960429
0.045265034
-0.034390885
-0.00514723
0.016980097
-0.03831852
-0.004859
0.021542948
-0.016588245
-0.009054042
-0.027177533
0.035333928
0.027329147
0.023562416
0.054559182
0.050594803
-0.009654441
-0.00607807
-0.0679581
0.07605808
-0.048418213
0.021371242
-0.075917974
0.03709483
-0.03941288
0.045191687
0.015134067
-0.024929991
0.051834002
-0.010203185
-0.025041113
0.034355618
0.0025277478
0.012331064
-0.022739418
0.010273126
0.07861454
0.020136815
0.04619077
-0.009390866
0.06327338
0.033354532
0.03485622
0.07641836
0.028942833
0.010082088
-0.053347427
0.034664087
-0.029697636
-0.07150552
-0.047149975
0.031523842
0.025514059
0.011887793
0.034905493
0.08652182
-0.09849282
0.0595715
0.005389177
0.002024122
-0.015821885
-0.070327714
-0.011747007
0.007532092
-0.06983647
0.07208324
-0.016962046
0.03385354
-0.08398975
-0.012319917
0.030601172
0.026346091
0.0097815525
0.009117331
0.0103947595
-0.021396222
-0.041698985
-0.04649394
0.04154293
0.0204758
0.0054062763
-0.050616626
0.0077516097
-0.104466975
0.028550444
-0.033522673
-0.0037456183
0.029881341
-0.0033930962
-0.0040508136
-0.032746855
0.02081921
0.10116149
0.06045894
-0.005696063
-0.02983443
-0.0038706753
0.011209886
0.0595854
-0.051004544
-0.010786765
-0.007754436
-0.001793797
-0.012323772
-0.015785648
-0.0069611464
-0.07950315
-0.03166392
-0.0014207333
0.019788392
-0.033552546
-0.031208012
-0.016501991
0.0220786
-0.044574477
0.036043365
0.00020963876
0.055880327
0.013837287
0.02628799
-0.021197503
0.040287517
-0.011127502
-0.050215296
-0.03118656
-0.0037781666
0.04976091
0.04665721
-0.033749502
-0.025395002
-0.034198016
0.077436976
-0.028254848
0.050653055
-0.056020916
0.071431585
-0.048907086
0.042862512
-0.0062579247
-0.012701308
0.0101581225
0.005565629
-0.004391572
-0.028801804
-0.062484372
-0.066618845
0.065717585
0.058051042
0.0047657564
0.013584453
0.08149523
0.041795943
0.01463677
-0.01126396
-0.028338324
0.003292539
0.038472053
-0.03552999
0.0046046106
-0.0008266179
0.048881494
-0.004406192
0.011444342
-0.014810693
-0.026336346
0.03464429
-0.050661393
0.050945625
-0.00247509
0.00058323867
0.016267702
0.030639859
-0.06887976
-0.0047222096
-0.016236285
0.03872318
0.041664362
-0.03766028
0.03138443
-0.047335867
-0.06583302
-0.07188696
0.012979478
-0.0033992564
-0.0057937847
0.00020530152
0.021430425
0.009259174
0.03972882
0.061629638
-0.013450728
0.008874872
-0.04728249
-0.085253224
0.064028785
-0.005047687
-0.01096044
0.02211324
0.051287204
-0.020207241
-0.08650883
0.01966338
0.019908229
-0.005161059
-0.041170157
-0.03690963
0.018473452
0.014949035
0.07923651
0.0028924465
-0.042175394
-0.05810687
0.04438275
-0.07270666
-0.012825668
0.098182596
0.00084311765
0.03682296
-0.030819068
0.0045282375
0.018883461
0.06647547
0.02176104
-0.011117303
0.007044123
0.03544619
0.039059512
0.002021772
-0.028231725
0.051326834
-0.035980266
0.031075506
-0.01874733
0.03099142
-0.039099216
0.019834867
-0.017991276
-0.05911752
-0.01605142
0.036664322
-0.04532814
-0.01860813
0.011267053
-0.040592346
-0.026083456
0.081874825
0.07802436
0.017600285
0.004192835
0.006664
-0.020373909
-0.030718917
0.014291974
-0.0044425144
0.020032918
-0.06095846
-0.06769602
-0.047756985
-0.021771796
-0.02138801
-0.027693827
0.055062108
-0.02380513
-0.017689439
0.045425773
0.08094834
0.084486604
0.067673594
-0.02911551
-0.033422228
0.02034611
-0.01890965
-0.040590458
0.011038843
-0.05823405
0.0051634866
0.0038925519
0.009654207
0.032341953
0.036556523
0.07159358
-0.0018483059
-0.012272735
-0.022010157
-0.036492433
-0.006292105
-0.022738047
-0.08071087
-0.002614867
-0.051100217
-0.049407806
0.05703847
-0.08190863
0.027452102
0.011202521
0.008798211
0.019105077
0.00226549
0.03095498
0.06065781
0.021189652
0.04734587
0.00087493646
0.052157097
0.035716318
0.017857684
-0.06469908
0.0018858396
0.008506955
0.025274862
0.052195545
0.0021642107
-0.02697786
0.004249027
0.01749641
-0.032982327
0.017798256
-0.004292844
-0.04682538
-0.003188016
0.022964286
0.042478926
0.021991162
0.032105956
0.008217328
-0.042450916
0.007776571
0.09109303
-0.09835524
0.0052726143
0.017227113
-0.0110720545
-0.026296446
-0.001056357
-0.008241192
0.031393807
-0.020169875
0.085811466
-0.0063708606
-0.041103467
0.010532561
-0.016442677
-0.08030538
0.046355385
-0.081431694
-0.06981528
0.058931496
-8.100909e-05
-0.03130013
-0.028656095
0.0026975905
-0.008921752
0.028893596
-0.040725213
-0.04390307
-0.03682399
0.03444977
0.036651783
0.103284314
-0.05979939
-0.042319857
0.026478058
-0.022273807
0.0141393235
0.035464
-0.06526805
0.024021301
-0.028555524
0.021797191
0.041676696
0.044378273
-0.0047143726
0.02279394
0.0049524927
0.025982711
-0.007031609
-0.011882321
0.076507375
-0.007556061
-0.014483699
-0.04441168
-0.07923303
0.0053848354
-0.046266943
0.043398533
-0.013041437
-0.056675125
0.049402863
0.039221946
-0.059106663
0.013850785
-0.009096487
-0.07768971
-0.05964236
0.020832803
0.056519426
-0.023752574
-0.04173411
-0.01602292
-0.032750722
-0.01725993
0.044717427
0.021499328
-0.021349944
-0.028084498
0.05412309
0.059287444
0.013784687
-0.018970983
-0.054824427
0.0077033113
0.037747562
0.03514116
0.10269839
-0.018159788
0.026189012
-0.027650038
-0.089874044
0.074135385
0.05582371
-0.013979823
0.02646684
-0.005075552
-0.028302222
-0.10215699
-0.008140797
0.04260473
-0.028843291
-0.058306925
0.0323431
0.03410228
-0.060704973
0.057887815
0.03786619
-0.048902515
-0.0055226865
-0.029694663
0.038030956
0.007024317
0.04720585
-0.033574875
0.10293436
0.00067634636
-0.004787089
0.032028977
-0.02779086
-0.039818123
0.060644813
-0.009417176
-0.014306611
-0.036092553
-0.050810087
0.014344366
0.10237287
-0.030809337
0.04402331
-0.039132606
0.04336916
-0.059978236
0.002809514
0.038548127
-0.0223313
0.0112065235
-0.019182215
-0.0029617986
-0.0054348824
0.004745206
-0.043651253
-0.082260445
-0.027519455
0.041919768
0.04102359
-0.013597434
0.024732366
-0.038947865
-0.045165382
0.032842204
0.02171255
0.006954762
0.033539012
0.04950909
-0.06898532
-0.0064703934
0.017118594
0.044978186
0.0047842218
-0.025624173
0.038136534
-0.07195964
0.012647417
0.031328727
0.01999351
-0.002887169
0.003816105
0.05021039
0.011915828
0.011334697
0.03816077
0.03570834
-0.0016963986
0.016095767
0.03028657
-0.00028341005
0.017907098
0.07971223
0.015033735
-0.049842715
0.020564351
-0.049986824
0.034916483
-0.026692368
-0.031918265
-0.05952563
0.069018826
0.05313434
-0.03318783
-0.16963369
0.02482524
-0.023352506
-0.010570477
0.0028186177
-0.08601488
0.005439481
-0.0011651361
-0.048378326
-0.01596074
0.025998836
-0.04948219
-0.023904396
-0.045256294
-0.06349702
-0.043876424
-0.030822778
0.044794463
0.029933149
-0.0043873433
-0.026257487
-0.012137389
0.020685058
-0.0024835714
-0.07852426
0.009302531
0.031131696
0.014785802
0.016109748
-0.02393706
0.0012811212
-0.04018038
0.03403604
-0.0045494023
0.04345351
0.002624269
-0.046113253
-0.02991791
0.010495069
0.0059387903
-0.03432162
-0.012638185
-0.0462398
0.022109423
-0.014048549
0.01507838
-0.029350357
-0.013382455
0.12078589
-0.0029190124
0.04916331
0.0051022004
0.024948347
-0.010264324
-0.015620043
0.042252462
-0.051040497
0.056995545
-0.0028613969
0.008655682
0.04594014
-0.012434631
-0.008479635
0.03832219
-0.051030703
0.044427697
0.042224992
-0.02869007
-0.040800057
-0.010116622
-0.059999343
-0.039942365
0.058439933
0.046996225
0.034627806
0.041667752
-0.005020014
0.0028075546
0.021532105
-0.038339216
0.020685425
-0.06719991
-0.058246467
-0.026323475
-0.0025418277
-0.0736308
0.010496801
0.062928304
0.05604143
-0.052464887
-0.07926516
0.08128568
-0.024320196
-0.061236564
-0.0020696307
-0.0368816
-0.013496066
-0.06525195
-0.015516892
-0.062171128
0.008795977
0.020631632
-0.025433335
-0.014948056
-0.014200954
-0.06281275
-0.09812816
0.030121222
0.013651063
-0.04360821
0.021322304
-0.008306243
0.027493544
0.012682971
-0.04157147
-0.0055391276
0.031220254
0.052673068
0.027614577
-0.04680241
0.015235345
-0.03571512
-0.0069763074
0.048803654
0.023871988
-0.020580642
0.0074722106
0.07010323
-0.008346674
0.012326452
-0.0019027946
-0.035927854
-0.019934187
-0.0033742264
-0.030119432
-0.044486385
0.01829819
0.036628574
-0.04203582
-0.030536985
-0.002275855
0.0123399375
-0.000339034
0.01618064
-0.062635966
-0.033459708
-0.0373092
-0.05165346
0.03807924
0.006682725
-0.09757177
0.019413296
-0.022084948
0.015514908
-0.024433501
0.019365285
0.041418154
0.02869182
-0.02188469
-0.07108927
-0.0030242521
-0.07540961
-0.04979699
-0.05164335
-0.028980244
0.012277794
0.07025746
0.025629677
-0.026292399
0.06290209
-0.037272792
-0.033720896
-0.010149983
-0.061802104
0.06393868
-0.021676429
-0.0007084417
0.023881843
-0.028307937
0.038861275
0.039974812
0.10268754
0.0030304121
0.004490234
0.0060133897
0.07050666
-0.007515494
-0.028878435
0.058149036
-0.0118691
0.02482987
-0.00016289584
-0.007290446
-0.04785901
-0.06146434
0.08781149
0.038249128
-0.021995082
-0.0041901288
0.00999199
-0.047930952
0.10963677
-0.024912115
0.023523372
0.10018755
-0.008460803
-0.024540635
0.055378396
-0.029546512
0.050106395
0.0077438233
0.06389811
-0.013157869
0.061317716
-0.027609779
0.04644954
0.0023159822
-6.8324094e-05
0.0059963237
-0.09186296
0.09093271
0.007051415
0.01555458
0.0124661075
-0.028509283
0.02763283
0.030601982
-0.018209567
0.016613036
0.010945038
0.030766644
0.056302465
-0.023592973
-0.071127065
-0.005012886
-0.04316317
-0.068931766
0.04142965
0.008216955
0.039140895
-0.04905953
0.036277678
-0.053257573
-0.04426339
-0.020262454
-0.029237032
-0.03919749
0.0072369855
-0.037131213
0.015082812
-0.0014125877
-0.12177382
-0.027624277
-0.038412742
0.027600387
-0.06429175
-0.012277603
0.013463075
-0.026910871
-0.009470104
0.0077387975
-0.016857862
0.038309567
0.031260278
-0.00972155
0.013891556
0.033499647
-0.041398175
0.049543396
0.048849512
-0.03817987
0.004284873
-0.008631522
-0.017058283
-0.033518944
0.011090412
-0.002330741
-0.03966916
0.039792284
0.015221906
0.011089704
0.09120125
0.004435371
0.07020025
0.03461496
0.00423615
0.01866579
-0.0058410256
-0.0766953
-0.039598107
-0.009314958
0.023314789
-0.064019375
0.02941321
-0.036425676
-0.0283418
-0.02909993
0.0070050196
-0.025492819
-0.0020641654
0.057267908
0.015580989
0.0024901913
0.005068738
-0.007856876
0.035660196
-0.010905686
-0.0718872
-0.041270614
-0.07867688
0.016122866
0.023614421
-0.008080621
0.046949744
0.04840679
-0.006962745
0.024271933
-0.03559932
-0.011569375
-0.0008996581
0.006850338
-0.06648072
-0.0059763673
0.004232303
-0.07950849
-0.0020313535
0.016765784
0.024007626
-0.018465862
-0.029509647
0.0016579321
0.021306137
0.03134526
-0.0060853274
0.021965524
-0.046083353
0.011807311
0.039821666
0.032965604
-0.01365642
-0.036068585
-0.015965477
0.043549556
0.014034539
0.053965453
-0.06114334
0.04817699
0.03402766
0.025041072
0.0008722083
0.055526268
0.0062308926
0.07670519
-0.07610915
-0.0075250226
0.026235417
-0.011794899
-0.00024873635
0.0052729226
-0.0056980867
-0.06486323
0.015969971
-0.043187305
-0.037691068
-0.017305698
-0.015268784
0.014890959
-0.027416384
0.06636611
-0.022236142
0.04608276
-0.05024396
0.0029282675
-0.085555494
0.038595267
-0.034608487
0.004023955
-0.019870292
-0.006056451
-0.009075779
-0.07076311
0.061453704
-0.017490344
0.026327591
-0.010171784
-0.022058155
-0.01434848
-0.057424117
-0.0100864135
-0.077172205
0.0005682973
0.015549868
0.04950818
-0.010459705
-0.041144297
0.024666065
0.04064144
0.002175702
-0.018786231
0.06512558
-0.0016526487
0.05689357
-0.0015684498
0.05483142
0.052878745
-0.057789378
-0.0042188433
-0.019821484
-0.01815212
-0.04647065
-0.026928443
-0.02960265
-0.059755903
0.056270726
-0.024511753
-0.015086017
-0.006495245
-0.07474357
-0.0060290466
0.03717154
0.016303884
0.030587932
0.03693591
0.040936068
0.07625646
-0.046437267
0.014684579
-0.06609886
-0.049766988
0.054087915
0.019699562
0.02727244
-0.033741158
0.009678204
-0.040134143
-0.011965904
-0.020183027
-0.03211941
-0.0021336225
0.020343635
0.008868429
0.0057561705
-0.038358755
-0.03272983
0.00539361
0.022776237
0.034755584
-0.008972246
-0.01791744
0.003029955
0.011696314
0.052909635
-0.027699709
0.07000686
0.0131034795
0.014709227
-0.017873114
0.025470331
0.07992242
-0.004673215
-0.030539209
-0.014141401
-0.010721921
0.044567227
-0.059961643
0.01173029
-0.015577258
-0.09674513
-0.0500043
-0.0075307353
-0.023810865
0.06884584
0.04509778
0.013337721
0.028421178
-0.024971789
-0.03662153
-0.044509206
-0.007992818
0.04154984
-0.04654814
0.024262846
0.013576993
0.020584457
0.103468455
0.07117811
-0.029093318
-0.006922505
-0.03857307
-0.011748546
0.0021584777
0.013100425
-0.007905358
-0.09993131
0.059077933
-0.035013404
-0.00064557476
-0.0383211
-0.015541362
0.0093253795
-0.043313775
0.0018830703
0.02821412
0.073325716
0.038646515
-0.025230557
-0.039048456
0.015883334
0.03342421
-0.020628642
0.030450823
0.06488459
-0.01285068
0.04762945
-0.019574577
0.10883212
-0.03592167
0.055618443
-0.011697778
0.001717542
-0.08067555
-0.021550816
-0.012369254
0.020235505
0.014351609
-0.0146063315
-0.024108967
5.75701e-07
0.02315188
-0.016546767
0.029840335
0.018205086
0.097326465
-0.0131674595
0.059310738
0.029694594
-0.0060296394
0.023693709
0.03916365
0.033005405
0.009372817
-0.028569294
-0.07940788
-0.03948857
0.008614462
0.05479752
0.02626304
0.046779633
0.02188756
0.023263218
-0.03167611
-0.05268175
-0.021995198
0.048077513
-0.059141602
-0.03337869
-0.030546108
-0.008000112
0.044554662
-0.05261931
0.060059316
0.009581088
-0.009279723
-0.021283682
0.005009592
-0.014725028
0.02569613
0.015204385
0.052397918
0.016995765
-0.016686792
0.004408996
0.02162351
-0.03744821
-0.0042957347
0.0035647636
-0.045445424
0.022808844
0.029267194
-0.014230912
0.014357798
-0.011827099
0.0010679294
0.028527386
-0.010298206
0.06046167
0.03548741
-0.03250193
-0.025862653
-0.0020852268
-0.02603699
-0.11797844
-0.08908197
0.0059554446
0.011379694
0.034272205
-0.0042111557
-0.0013840393
0.019222673
-0.00805851
0.019175913
0.007087402
0.029545456
0.03084227
0.077761255
0.008117834
0.011180802
-0.04739027
-0.037988566
-0.011219017
-0.057241403
0.006281645
0.03919613
0.0042132884
-0.01645167
0.022342019
0.023563867
-0.04442462
-0.05500624
0.01826198
-0.0054224283
-0.04643038
0.0015562604
0.03793829
0.044624224
0.014072129
-0.00095191674
0.030252248
-0.04615472
0.08592856
-0.015314545
-0.037326984
-0.03839147
-0.03491722
-0.10755157
0.001990163
0.032277603
0.009076948
0.108060054
-0.04180194
0.005959959
-0.0145257525
0.019250274
-0.03689385
-0.0029699472
0.0081878
0.035111073
0.029204866
-0.04402925
-0.047780085
0.08272709
0.046093367
0.058471102
0.014795055
0.03842433
-0.041350503
-0.032113835
0.00922763
0.00829027
0.0036884914
-0.015877506
0.02147675
-0.019383466
-0.004166446
0.008113855
0.024262132
-0.013590696
-0.0056412066
0.0076573337
-0.034385078
0.084136456
0.03967886
0.03964138
0.017110515
-0.020514214
0.0085038915
-0.09304252
-0.024088662
0.0056485734
0.039955065
0.038742453
-0.08439918
0.035903312
-0.007253203
0.08196336
-0.012323603
0.0038456
-0.002139974
-0.024127563
-0.0031784447
0.048219543
-0.059585642
0.06021286
0.031702284
0.038300708
-0.088838875
0.007023101
-0.004860775
-0.038046088
0.04992209
0.03065603
0.054943934
-0.028150616
-0.07187615
-0.033807933
-0.003722954
0.023000292
0.021142064
-0.07438681
0.015012302
-0.014897563
-0.025439361
0.0062742783
-0.037420448
-0.03901885
0.006853917
-0.015267806
-0.055265278
0.0007264745
0.01817056
0.08585804
0.016614595
-0.020323033
0.008046818
-0.014885821
0.024959896
0.029569408
-0.07711457
-0.03819731
-0.0566098
-0.0063491506
0.01618736
0.038090963
-0.05289634
0.0057758316
-0.025527071
-0.040446825
-0.04065264
-0.0008046564
-0.06460847
0.015521609
-0.0048144963
-0.015353601
-0.017860997
0.046442207
0.013970413
-0.06788194
-0.050773267
0.03424884
-0.00072094944
-0.029350866
0.06077719
0.074989766
-0.030506127
0.029207874
-0.030855775
0.016919365
-0.03856938
0.03141333
-0.006009886
0.025037667
-0.03986885
0.0005194611
-0.005082014
0.015714394
0.039367925
0.0008258376
0.0069483477
0.04363489
0.004291406
-0.0012732333
-0.008377106
-0.064263806
-0.019511027
-0.02969507
-0.04500287
0.022509726
0.039492324
-0.04025752
0.056786023
-0.017292144
0.02722369
0.053650964
7.848982e-05
0.013052589
-0.058820613
0.02497015
0.0040082554
0.015454769
-0.028661141
0.057272993
-0.031715598
0.010729798
-0.0069325226
0.0101477625
-0.035831362
0.020798983
-0.009712783
0.043155916
-0.015356244
-0.023063855
-0.03096035
-0.034500916
0.016579363
0.009157348
0.015044728
0.00895089
-0.010792803
0.039700303
-0.062009864
0.0146446945
-0.00087684207
-0.015435093
0.016912147
0.001935473
0.0024055983
-0.11469124
-0.03770464
-0.07877246
-0.018349601
0.06660674
0.05000666
0.012651461
-0.0048129954
0.007768357
0.040318515
0.012728926
-0.013288854
0.05965814
-0.04275915
0.029808402
0.048361868
-0.049033016
-0.0044422913
-0.056398965
-0.0014135339
0.03242297
0.008619226
-0.029103981
0.003552144
0.05528796
0.03431825
0.01342339
-0.000913726
0.02830997
0.04955416
0.024457794
-0.038179938
-0.08242273
0.059098158
-0.045910142
-0.02223087
0.05900434
-0.023601683
-0.012739258
-0.03576751
-0.0165007
0.0055331616
-0.0086580245
-0.011307949
-0.0077918656
-0.04269581
0.06568976
0.060202528
0.009201768
-0.0123451445
-0.00092655263
-0.08857096
0.03016492
-0.035202973
0.036429185
0.04419648
-0.011565071
-0.01752131
-0.07391007
-0.019303119
-0.061487656
-0.091889806
0.02209703
-0.103230886
0.019369043
0.02457476
0.049538568
0.0393415
-0.077227995
-0.029383175
-0.021121325
0.0070206737
-0.012625067
-0.012459477
-0.004375069
0.003650792
-0.012787744
-0.029575767
-0.07613177
0.044606812
-0.03587554
-0.04831922
0.0636622
-0.031850208
-0.009585403
0.03703331
0.029589409
-0.033338804
-0.005310953
-0.014256102
0.014489995
-0.0066313287
-0.011716735
-0.009089439
0.015926832
-0.029921258
0.035450947
0.08502214
-0.05435551
-0.007489369
-0.029233877
-0.043687668
0.04715759
0.024808602
-0.074574985
0.042775523
0.049169485
-0.009967486
-0.12556054
0.02345669
-0.09037006
-0.03448964
0.033345565
-0.016359314
-0.028890785
0.01044241
-0.0008170648
-0.020716844
-0.051816177
-0.011249653
-0.028579505
0.0123703685
0.020510063
-0.023798054
0.060534913
0.020413183
-0.0038794884
0.011734685
0.0008014992
-0.018907754
-0.034658957
0.08388194
0.0014227382
0.04662664
0.011774724
0.051623132
0.02567661
-0.0971017
-0.05557553
0.012353278
0.009612477
-0.040631738
0.04701633
-0.040336456
0.036455147
0.0038256184
-0.024385076
0.01246755
-0.0064622834
0.0418837
0.015166273
-0.022111543
-0.008413532
-0.0073042815
-0.033689175
0.06665064
-0.049725644
-0.00059299
0.061682485
0.048730288
0.00393223
0.01256305
0.01482895
0.019080997
-0.0271996
-0.0039241915
0.056429837
-0.02359461
0.027851745
-0.023196915
0.042224057
0.017692437
-0.016047444
-0.07028475
-0.018752592
-0.04359783
0.009247532
0.018274205
-0.012936105
0.0024944092
-0.0019072886
0.024165932
0.026370725
-0.031873945
0.017680822
0.050101027
-0.031308085
-0.0018580044
0.019342229
-0.07284056
-0.012401107
-0.013929699
-0.027064208
0.005211431
0.032569386
-0.008500546
0.042881142
-0.036650464
0.010162727
-0.032472372
0.0062691495
0.024492677
0.07049928
-0.089374214
0.027897095
-0.025405869
0.047735758
0.014424985
0.0033606957
0.020977551
-0.06541356
0.009819317
0.05515687
-0.011387405
0.06077684
0.020839201
0.047220327
-0.012421095
-0.021888226
0.011398923
0.010066063
-0.022252636
0.04019118
