-0.054321878
-0.073433906
0.018043773
0.016095866
-0.0027904569
0.02028741
0.0056484467
-0.029247731
-0.006134555
-0.0145280035
-0.018300602
0.034643333
0.0034121173
0.027048906
-0.0027678136
-0.04689451
0.0009012357
-0.014219274
0.020391244
-0.0038114158
-0.04478676
0.027018111
0.00028008287
0.010943946
-0.017668495
0.008900094
-0.011298699
-0.033826806
-0.014465804
-0.026594914
0.011759556
0.03044645
0.046128
0.05947486
-0.039471112
0.03599904
-0.012308121
0.015257835
-0.02310946
-0.026276808
0.021254376
0.009363494
0.0031806987
-0.0095049115
-0.00041772382
-0.042697597
-0.01101658
0.03150676
0.028658254
-0.029275442
-0.012237055
-0.024593797
-0.028712878
-0.0046862545
-0.012962449
0.052435245
0.024518708
-0.013663296
-0.014022663
0.0158235
0.03395558
-0.036859717
-0.0028665673
-0.004273389
0.022472946
0.02450806
-0.0151288
-0.021554139
-0.0022311476
-0.025499336
0.042296786
0.0026114222
0.008595593
0.045465223
0.015222562
0.020975955
0.022103183
-0.013314816
-0.03854582
-0.0069410778
0.007146612
0.01749556
0.065165706
-0.03385751
-0.00044396592
-0.0032947492
-0.019355925
0.051094454
-0.015413259
0.008442031
0.05559957
0.006980805
-0.039278798
0.028483355
-0.019126272
0.016697379
-0.00589937
0.0029959653
-0.007187544
0.027396645
-0.0072589642
0.01605633
-0.031635024
0.0075704083
-0.022934746
0.017043957
-0.04020785
-0.042744357
0.023677405
-0.080280945
0.0010255463
-0.04193612
-0.014986351
-0.03940112
0.04586095
-0.058760874
0.03328517
0.026258262
0.037439894
0.017801212
-0.06381759
-0.00961931
0.060347635
-0.006001549
0.012596028
0.008936797
-0.054596834
0.02948254
0.023770565
-0.013463888
-0.009379388
-0.046001233
-0.037641276
0.044730704
0.012781517
-0.0059675523
0.0024729066
-0.0029104364
0.046721656
0.045328557
-0.016727922
-0.04054788
0.00018434643
0.022706607
0.019123005
-0.012131396
0.029738894
0.026104089
-0.033307012
-0.016911179
-0.002626455
-0.0008492745
-0.004505357
-0.00022966084
0.04609536
-0.0083319135
-0.028275456
0.004085473
0.0058272257
-0.025517782
-0.016525382
-0.0067983074
0.040328424
0.0130010815
0.02007766
-0.019508759
-0.0029356058
-0.023174496
0.046658672
0.012818067
0.067588486
-0.0276128
-0.0012362563
0.03014699
0.03617285
-0.0061830124
-0.009396086
-0.014397325
-0.011915532
-0.0074222735
0.006229798
-0.014672564
0.055382334
-0.05281042
0.054609787
-0.005539922
-0.0022771957
-0.06428591
0.04126569
0.026236394
0.008296185
-0.0025555238
0.0093383165
-0.04754752
-0.010184246
-0.0048713405
0.004862784
-0.026645828
-0.0017950655
0.0069554737
0.020702833
0.027831355
-0.002623878
0.0051548416
-0.004998205
-0.009410255
-0.0443029
0.0014979678
0.03948178
-0.0014694948
0.00061380415
0.040348444
-0.015795592
0.0032576076
-0.0184307
-0.03214284
-0.00192263
0.029798849
-0.027063806
-0.039402273
-0.02979511
-0.025902815
-0.04272036
0.0056527206
-0.026786918
-0.017039288
-0.015239068
-0.0073620966
0.0035009314
0.02044395
0.02001976
0.002358067
-0.03581629
-0.0014503748
0.008884636
-0.021596087
0.0627972
-0.0032247216
-0.05074175
-0.046931308
-0.014489156
0.00277674
0.015660694
-0.012016645
-0.045766477
0.0007705579
0.0061481493
-0.00915643
0.022678787
-0.032283593
0.0142716365
-0.033342227
0.007405229
-0.03411532
-0.025734687
0.0063600587
-0.02404789
0.020827781
-0.023486191
0.018818589
-0.016743794
0.0012193418
0.035368923
0.014574766
0.010682751
-0.028196746
-0.01946619
-0.0010929181
0.023729555
-0.044139124
0.0014519176
-0.012849104
-0.0028690486
0.025252549
-0.016744683
0.024551358
0.023110805
-0.051872637
-0.0054099397
-0.05285902
0.011751408
-0.00036018892
0.032127474
-0.053321846
0.019516446
-0.058175597
0.009651376
-0.004198818
0.0506361
0.0172619
-0.0023464577
0.03605072
-0.036185022
-0.011988894
-0.04383981
0.008987213
-0.03323182
0.020925846
-0.010394998
-0.06316923
-0.028057072
0.009213198
0.025352824
-0.022269856
-0.028049009
0.016319664
0.018472318
0.007977749
0.021855932
0.023103977
-0.019462911
0.017101357
-0.031308252
0.004114459
0.014746583
0.022563806
0.026537525
-0.0044154353
0.03377826
-0.012572185
-0.013653844
0.013589015
0.025389606
0.014123587
0.0085057225
-0.0258087
-0.042725075
0.015416492
0.026647788
-0.03204654
-0.00082718837
0.03752222
-0.012662427
0.0063554184
0.0013856762
0.007742637
0.004472101
-0.034237437
-0.030989863
-0.02527439
-0.034061287
0.028952679
-0.02767983
0.0033315967
-0.029715559
0.06946223
-0.020572549
-0.009641314
0.013478719
-0.008907232
0.0468785
-0.022789434
-0.07772622
-0.0063662697
-0.00837496
0.008599996
0.02105131
0.011142457
0.009650813
0.052836943
0.03474928
-0.007552814
-0.0067406883
-0.015154802
0.01649431
0.04458603
0.0047729774
0.020090092
0.0004428931
-0.016319228
0.042757444
-0.043377865
0.0077380855
0.03542453
-0.005901872
0.01460281
0.023844399
-0.056782443
-0.0026878947
-0.025679125
-0.009124075
0.019767493
-0.012117498
-0.0012494674
-0.007643656
0.027033946
0.030062845
-0.06339142
0.006530672
0.00022461374
0.031242153
0.00791652
-0.049200494
-0.030234145
0.07617009
-0.08431528
-0.00012062349
0.007877919
-0.010699091
0.0022785563
-0.007625733
-0.042679656
-0.01003563
-0.020528147
0.010159609
-0.0020395194
0.0056277825
-0.023151927
-0.051161103
0.018988743
0.0005139026
0.05335893
0.011154425
0.018412603
-0.035966165
0.0036301457
0.018166855
-0.0043832646
-0.051387567
0.027104087
-0.004973107
0.00087722094
-0.03283726
-0.029318942
0.058072302
-0.003363385
0.036279637
0.056991916
-0.00078078936
-0.012726731
0.03533608
0.028915614
0.006117863
-0.064394735
-0.00964871
-0.020040154
-0.0077104145
0.0039476217
-0.008663527
-0.015674388
-0.043024413
-0.0127647
0.0036797572
0.017447013
-0.0046749935
-0.06525161
-0.032369953
-0.05147295
0.017354142
0.022761412
0.019111017
-0.018251166
-0.035843838
-0.031006642
-0.05993379
0.04745144
0.0081106275
0.025761627
0.0066820653
-0.010693197
0.012545546
0.03923554
-0.0041397726
-0.0047672745
-0.014623063
-0.009706285
-0.014321006
0.055780377
0.015705386
-0.019151438
-0.003921569
-0.042592186
-0.025962174
0.068282254
0.021817654
0.0412796
-0.011833013
0.03383555
0.012753814
-0.01782953
-0.039695017
0.0010014676
-0.040545966
-0.053401668
-0.00081866037
0.004611035
0.03956043
-0.036790304
0.025690297
0.020799538
-0.023376495
0.027462045
0.049243227
0.0036630374
-0.01981836
0.008994711
-0.0151477195
0.0017138135
-0.03264319
0.013238151
0.0040925294
-0.008319928
0.015762458
0.017298765
0.00061838474
-0.012141215
0.0014240599
0.00978024
-0.032953076
-0.004316242
0.0006762722
-0.039437484
0.00444158
-0.00027785273
-0.012299719
-0.01859633
-0.053128053
0.057742946
0.029818313
0.021858618
0.025534043
0.026374353
-0.0013186947
-0.010041028
0.042280104
0.0024826238
0.0071435496
-0.008539874
-0.006783193
0.038749885
0.03777413
-0.012904346
-0.010344041
-0.04995601
-0.042890325
-0.039866053
0.0228548
-0.020685825
-1.1034818e-05
0.0021153085
0.017533014
0.0055583073
0.00044861043
-0.0022613176
-0.04178387
0.030626873
-0.057950452
-0.0002470803
0.0028896132
0.08349819
-0.009687816
-0.050247315
-0.01949359
0.034745924
0.027359303
-0.0062442864
-0.008849527
0.03169172
-0.02368624
0.027502924
-0.048080653
-0.027206754
-0.010574412
0.0044549955
-0.005560916
-0.0020601416
-0.03773477
-0.0061975173
-0.0072124577
-0.03931255
0.012732619
0.015467571
-0.008001841
-0.021011505
0.021534108
-0.02845281
0.001843427
0.021732947
0.018875713
0.04329924
-0.023442553
0.02241203
0.014176522
0.009176247
-0.023005242
-0.003663824
0.03821883
-0.073022366
-0.023341168
0.015713595
0.00076143426
-0.015596014
0.015968975
-0.03918266
-0.0021181323
-0.04158009
-0.0005610092
-0.01709731
0.012181938
0.04568099
0.008081412
0.021626106
0.01945004
0.00031161215
0.011538702
-0.03864015
-0.002328084
0.0077603557
-0.016255686
-0.04013831
0.023207668
0.03143208
-0.01206741
0.007956446
0.017826175
-0.016374223
0.019150324
-0.0064506046
0.02439015
-0.036218576
0.010432962
0.005323895
-0.009357243
0.042876743
-0.00010123706
0.023190632
-0.0116769895
0.0128032705
-0.02468941
-0.017634014
-0.032214865
-0.0038969873
-0.016097287
-0.0065420447
0.0017386437
-0.034575395
0.015509425
0.032847904
-0.021219159
-0.0056936652
-0.03284053
-0.00028023598
0.013091745
-0.011624944
-0.033663448
-0.012560678
0.0070801736
0.004138585
0.022998994
0.0008678788
-0.036717866
-0.030014178
0.045909874
0.0121181505
0.051987298
-0.034086335
0.0014251744
0.029815363
-0.011295918
0.025447106
0.03751849
0.003965471
0.026376978
0.016201833
-0.03897707
-0.05433876
-0.027485766
0.017259981
0.0025462897
-2.3643199e-05
0.041466866
0.009828413
0.0057698567
-0.022568392
0.033520993
0.058826685
0.0039403704
0.0022665872
-0.014098129
-0.017272929
-0.021118687
0.026027357
-0.017617913
0.02985881
-0.030163517
0.028468523
-0.051885094
0.005183676
0.0054718363
0.025918847
-0.027740046
-0.0055408073
0.07128445
0.0051743058
0.05345537
-0.004364922
0.025421256
0.017018434
0.017048769
-0.023719136
0.011635822
-0.028850198
0.021646379
0.038950045
0.026547696
0.051515613
0.022103462
-0.0010317304
-0.01177038
0.06556392
-0.01943176
0.027947903
-0.031414915
-0.049312133
-0.026550397
0.038051683
-0.012480806
0.00680977
0.027272144
-0.01155127
-0.034055185
-0.0047340146
-0.07460497
0.06590007
0.021236653
-0.0043270467
-0.026550854
0.04966327
-0.01967918
-0.047479477
-0.015830867
0.011101325
-0.0061149052
-0.025087493
-0.023517026
-0.03288457
-0.032344107
0.028790468
0.0026539497
0.032328922
-0.0434835
-0.031853184
0.013658699
0.05266698
0.021419387
0.009407322
0.0015000193
-0.007406666
0.04659405
-0.0053037484
0.096975386
0.012270874
-0.031780854
-0.0053736195
0.00836238
-0.042813547
0.03707095
-0.0064179236
0.029160963
-0.019345382
-0.03976493
-0.0033868982
-0.050655242
0.008260941
0.020428274
0.019502291
-0.027001906
0.03848459
0.015849972
-0.023321066
-0.014039078
0.043350637
0.05581745
-0.0073461817
-0.01510659
-0.010164662
-0.026874065
-0.04145979
-0.017507229
-0.0439271
-0.014061679
0.0017451636
-0.026121644
-0.05193102
0.0049704905
0.0100780865
0.03031648
-0.04660172
0.015870126
-0.0036422636
0.07601456
-0.01661698
0.048369307
-0.0281142
0.028524717
0.0378418
0.05853491
0.007808909
0.09368851
-0.030922884
-0.017487777
0.040560044
-0.037653413
0.018488932
0.007648613
-0.034978263
-0.009848767
0.010280857
0.050706994
-0.0061142235
0.011869849
-0.0026141845
0.016878
-0.036313742
0.020586139
-0.014635247
-0.030391224
-0.0024255824
0.016551424
-0.03441362
-0.0087317545
-0.005182475
-0.0037293728
-0.0012486109
-0.004209351
-0.02165393
-0.0027810992
-0.039712686
0.031917427
0.00903727
-0.058166996
-0.013007768
-0.007406191
0.043569468
0.049718816
-0.008164381
0.012710732
0.010368815
-0.008547029
-0.03594344
0.029559033
-0.0064845686
0.00058996666
0.013395158
0.024142265
0.0034868212
-0.003918961
0.0045547644
-0.03787259
-0.038416672
-0.0043091504
-0.002249306
-0.014450161
0.057710256
-0.024314046
0.026199164
0.03356642
-0.011028916
-0.00034353803
0.03338928
0.010969168
-0.0035119758
0.022637943
-0.016431464
-0.018794682
0.0030564065
0.03657504
0.0049012587
-0.007902102
-0.026403014
0.025845945
0.037611607
0.005395549
-0.020264307
-0.046725728
0.0037834537
-0.0029250698
-0.04325964
-0.029553993
-0.016762566
-0.013207981
0.01109314
0.013960172
-0.043078803
-0.0094249295
-0.044893026
0.021022016
-0.030545
0.036149327
0.014295105
-0.007125519
-0.051369872
-0.041964725
0.0067097684
-0.04661144
0.0047741346
0.005045586
-0.0028307377
0.05857177
-0.010940287
-0.003959641
0.0290478
-0.027594393
-0.04597103
-0.017748382
0.032713283
0.009636179
-0.00013907095
0.032267716
0.0011722072
-0.039449234
-0.020348625
0.03929299
-0.011122209
-0.014324831
-0.011565784
0.0018885933
0.00750372
0.00982832
-0.005217898
0.00082405645
-0.04961418
-0.0040090703
-0.016626121
0.023564259
0.009456492
-0.0056792856
0.022900678
-0.0060776887
0.004912322
-0.03283886
0.05515458
-0.027400363
0.01845325
0.029836042
0.020968698
-0.028069722
0.009373652
-0.023660136
-0.01521824
-0.05231019
-0.046815366
0.053752463
-0.004389799
0.038774528
0.013191263
0.022140374
0.0014130808
0.009768663
0.019910786
-0.042242948
0.02877965
0.021010319
0.06755195
-0.046302706
0.009733806
0.055471282
0.009521884
0.019951481
-0.016312908
0.01245903
-0.019781293
-0.023093374
-0.00035467773
0.040401656
-0.003195233
0.0018299017
-0.0028196478
-0.058662508
-0.0112798065
0.050230976
0.012342953
0.008713068
-0.016428817
0.0029889904
-0.009009029
0.05375497
-0.046923075
0.0015193534
0.004184893
-0.032468103
-0.010646101
0.032601018
-0.021174744
-0.050667785
0.013991573
0.0090763355
-0.06263189
-0.0016292151
-0.0009427862
-0.015720356
0.022455718
0.01596189
-0.0020839565
-0.017744817
-0.040728915
0.019069158
0.06719268
0.013500028
-0.02024153
-0.048231836
-0.024080915
0.033590477
0.042589266
0.024760904
0.041958656
-0.0049675843
-0.030194858
0.045009132
-0.009897577
0.016410086
-0.03748634
-0.08990482
-0.022125551
0.033973444
-0.039814595
-0.012033194
0.036739368
-0.054318298
0.027418261
-0.008121303
0.019875538
0.016284756
0.020633008
-0.029305471
-0.0067445193
0.061153486
-0.038475312
0.01700234
0.0048244544
0.017279347
0.04619014
0.034285013
-0.029930659
0.030452425
-0.019850457
-0.017031785
0.009185133
-0.02135662
-0.007727555
-0.027250776
0.028005272
0.034735966
0.0475249
-0.014955246
0.010767696
0.008432281
0.03768985
0.03371156
0.024118982
-0.025754027
-0.0046387236
-0.009585072
-0.021988086
0.00308219
0.010949687
-0.010648152
0.015540591
-0.035706405
-0.001724275
0.042387314
-0.009872918
0.04406969
0.008034424
0.01587584
-0.017462553
-0.03403976
-0.0049942937
0.015860684
0.012453471
-0.042024065
-0.035548393
0.018106064
-0.0070078894
-0.03474822
-0.0023801278
0.034635097
-0.06249602
-0.02939902
-0.04686352
-0.026404971
0.033190448
0.021711973
0.008879519
0.004257176
-0.024003869
-0.0030813154
-0.00012449545
-0.006419933
-0.0023246612
-0.005186062
7.2015e-05
-0.013502369
-0.033277385
0.012190898
-0.012611661
-0.0057016807
-0.028442705
0.017133035
-0.029947523
-0.023627559
-0.0405729
-0.027188692
0.024308415
-0.022035856
0.029341178
0.055559233
-0.042375866
0.015074939
0.031235281
0.010421948
-0.010644421
-0.0019968888
0.032594115
-0.001468611
-0.017486304
0.028674603
-0.023318494
-0.028478822
-0.008003704
0.022583716
-0.001739292
-0.0014162243
0.015299614
-0.004083596
0.0014086465
-0.03350703
0.03254736
-0.016463941
0.014583447
-0.0037821573
-0.019562315
0.031253316
-0.026409805
0.074777335
-0.0029405605
-0.034686815
-0.052312065
0.0079224855
0.009298874
-0.009063254
0.011625509
0.0066560223
0.00086459867
-0.029276116
0.013505385
-0.029312309
-0.0049650203
-0.009713297
0.074135445
0.023508081
-0.06780206
0.02244086
-0.06957609
-0.016665965
0.057046294
-0.03727415
0.025321513
-0.025697825
0.026246844
-0.018299917
0.03804188
-0.032177158
-0.035117272
-0.009859998
-0.04761018
0.013417916
0.0059220484
0.026929976
0.007558218
0.0143147195
0.047557145
0.030096611
-0.006484824
-0.0027412993
-0.040104195
0.05199167
-0.01295034
-0.00894707
-0.013379554
-0.0040242733
0.016477134
0.0069160042
-0.019875785
-0.0029131093
-0.029038098
-0.0070655504
-0.007217434
0.009208356
0.0029712713
0.019669475
0.009027126
-0.031663638
-0.01209722
0.016730767
-0.03608489
-0.008349559
-0.0041239248
0.025731029
-0.006912604
-0.025541417
0.049605206
-0.05216043
-0.03261241
-0.025882995
-0.004356777
-0.024236035
0.0051283636
-0.050313804
-0.035089385
0.027377516
0.025757883
0.0010854868
-0.04516698
0.03179539
0.056901235
-0.020537836
0.007323049
0.006384513
-0.04285781
0.00045451336
0.006770941
-0.020140791
0.02881925
-0.01599959
0.0075063654
-0.03905241
0.008943893
0.021466384
0.0007265247
0.011616585
0.03331842
0.0444896
-0.017796438
-0.0069988286
0.031225022
-0.020084703
0.003988542
0.0010749927
0.063510574
0.0004057395
0.041411225
0.06293947
-0.06631498
0.043355543
0.022177616
-0.040113956
-0.01880156
-0.038672645
-0.00981008
0.031396028
-0.006224093
0.00834857
0.0042453734
-0.028987305
-0.011136477
0.028071642
-0.0051960815
0.04062462
-0.023195187
0.035530593
-0.05188875
0.030548947
0.003670729
-0.0149359
-0.004208339
-0.024093702
-0.058026772
-0.021761354
-0.011101148
-0.04087364
-0.035114326
0.03463986
-0.009917666
-0.042699758
-0.0121321445
0.00035320784
0.01135987
0.014698733
0.057844453
0.0328018
0.03376467
0.043827247
0.024088912
-0.0028368921
0.012083235
-0.038917232
-0.015159261
-0.002960505
0.024794703
-0.011470106
-0.008583194
0.036876433
0.0024839062
0.0011654204
0.005697285
-0.007512664
0.039755244
-0.017395793
-0.011295197
-0.022044789
-0.005841804
-0.009418866
0.042635858
-0.01700885
-0.0015642407
0.006345271
0.018323243
0.0022573161
-0.01139555
0.036527254
-0.025499238
-0.0066276067
0.04389019
-0.030178882
-0.02557131
-0.02278937
-0.008119258
0.043578733
-0.0014300713
0.04381755
-0.0118781505
-0.020708736
-0.010756641
0.034607723
0.038654406
-0.0010015756
0.041239034
-0.034078497
-0.03066085
-0.02323297
-0.030894846
-0.005616028
0.004438779
0.05401837
-0.027363058
0.025200738
-0.039810944
-0.015939595
-0.022565553
0.051579777
-0.011956279
0.03444295
0.0064627104
-0.027623892
-0.025056336
-0.0032653613
-0.017586665
0.0008549111
0.00087167404
0.00832833
0.012387302
-0.020866312
-0.007567511
-0.04567112
-0.0033604319
0.005152219
0.028236657
0.015706459
-0.0057148933
0.037399575
-0.026377985
0.030420572
0.0026000727
0.015782522
0.025083872
-0.032309342
-0.045818634
-0.021115884
-0.01558314
-0.01822968
0.00023195882
-0.024254633
-0.002925312
-0.024507266
-0.005302075
-0.033846904
0.0044896146
-0.012321275
-0.04486441
-0.0021327701
0.014735952
-0.015552943
-0.014855069
0.016325729
-0.00995279
-0.007799155
-0.052585978
0.0053476715
0.020745613
0.014353944
0.0191
0.002314928
-0.021405037
0.010550968
0.0056859627
0.053695396
0.009329482
0.010901256
-0.01865597
0.013599114
0.026551925
-0.0023939596
0.012519521
0.027277578
0.023168067
-0.013096532
0.007437052
0.0013987188
-0.01685651
-0.023619635
-0.026405487
-0.013334547
-0.02780939
0.067578435
0.029319426
-0.020109097
-0.0012249632
-0.024291145
0.02123622
-0.012894673
-0.018745907
0.031165544
0.012297732
0.04619483
0.053272948
0.03383711
0.02553014
-0.048503783
-0.028997967
0.025406942
0.0013042124
0.05576945
0.0021762776
-0.021560606
-0.0022657358
-0.015261075
0.0001120407
0.016669573
-0.0441863
-0.04991292
0.049227513
0.030548908
0.038953643
-0.01738151
0.012168639
0.032564264
-0.0052954336
0.00672332
-0.020319073
0.024200536
0.0137919625
-0.038516223
0.006744341
-0.016494723
-0.010249775
0.025643893
0.025372135
-0.027555283
0.06003956
-0.026397731
0.018900607
-0.045754723
0.03599833
-0.026708009
-0.042849716
-0.044707786
-0.042092197
-0.009926223
-0.05637482
-0.022927118
-0.018880727
-0.021374887
0.011588384
-0.052542847
-0.00090211845
0.02426077
-0.015491454
-0.049028542
0.012845696
0.012984485
-0.015051861
-0.03265885
0.04814165
0.0061221104
-0.023291834
-0.018507976
-0.01129481
0.006188096
0.06505257
-0.0128189195
0.028224077
-0.0002984979
0.025784226
-0.03017161
-0.0026770977
0.0019487754
0.011132083
0.0050501167
-0.02268514
0.0086349035
0.014683826
0.013782824
-0.029376235
0.027255617
-0.046502154
-0.02031058
0.010562735
0.020674149
-0.013580025
-0.028129876
-0.047929868
-0.031726815
-0.03497973
-0.04093634
0.028516458
-0.055605642
0.01759157
-0.02030291
-0.02057754
0.005597758
0.039262034
-0.033763926
-0.00076333195
0.00561093
-0.012006477
0.0119891465
0.004210838
0.015863936
-0.031008566
-0.019008089
-0.03711791
0.026611455
-0.010597225
-0.007850609
0.030542182
0.024864012
-0.027340444
-0.0086327335
0.018639985
0.022593817
0.010227816
-0.017648444
0.08952309
0.017877543
-0.013899803
0.04205349
-0.012050378
-0.027377045
-0.021651402
0.023026982
-0.009719747
-0.014371927
-0.012431248
-0.047637265
0.03321955
0.03626594
0.043995846
-0.014500963
0.02502256
-0.0012230924
0.00090551033
0.044662267
-0.04790947
-0.04857062
-0.048378758
0.009618534
0.005712446
-0.009082611
0.02841688
0.040335227
0.010323147
0.0059201117
0.015248516
-0.03844005
-0.03625459
0.046514917
0.003094664
-0.04033366
0.0057231244
0.00040278828
-0.005932843
-0.045536906
-0.01898291
-0.0057913
-0.013728221
-0.027743135
-0.03734799
-0.0069970507
0.009854463
0.020630224
0.03995725
0.001755828
-0.0133360205
0.010523121
0.03328514
-0.010910858
0.047303308
-0.00084473094
-0.0014001684
-0.040131595
-0.02644339
-0.013805365
-0.04370974
-0.006363931
-0.016161112
0.012914248
-0.008762272
0.02334666
0.0032232583
-0.01622865
0.028325161
0.013717566
0.0020901156
0.022703167
-0.042099763
0.05480247
-0.028940137
0.039711695
0.017496059
0.020112425
0.0032385357
0.00790215
0.02440491
0.0056203306
0.024594998
-0.037351757
-0.013134615
-0.045964956
0.013223938
0.04269467
-0.002191422
0.0041213823
0.027559172
-0.0045248037
0.03966058
0.012941112
-0.023024766
0.029325688
-0.019170016
0.013038675
0.046017453
-0.0031310052
-0.023154432
-0.014275108
-0.044451717
-0.023021827
0.0018735913
-0.012691642
-0.021224506
-0.03761704
-0.00463126
-0.043488212
0.039486606
0.015901485
-0.031924408
0.0070097134
-0.00674752
-0.044381276
-0.008065395
0.037551526
0.00055483833
-0.005133721
0.004665981
-0.041529793
0.027734632
0.017752714
0.03664797
0.008942708
-0.007018066
-0.046125907
0.01853932
0.014428538
-0.0350012
0.045316447
-0.018782873
0.017808486
-0.017754462
0.007048894
-0.001475148
0.01654944
-0.0763783
0.0035227868
-0.071082294
0.008872548
0.018964626
-0.01562122
-0.052927632
-0.01035027
-0.034016207
-0.011344712
-0.010387782
0.06689465
-0.032834284
0.006734581
-0.0023200784
-0.011650925
0.018123731
-0.011682797
-0.022429176
0.015461981
-0.018716194
-0.0034000748
-0.0122990385
-0.00412887
-0.026437253
-0.056012467
-0.034755476
-0.072037496
-0.00027828597
-0.018105697
0.034946423
-0.03108374
-0.032262783
0.05310408
0.007732539
0.016705962
0.015415345
-0.018983243
-0.025417516
-0.019201173
-0.030686835
0.061404876
-0.0052715656
-0.008218897
0.046933457
0.011102055
-0.0083825
0.008171663
-0.005118063
0.019817272
-0.0043605943
-0.009946683
-0.025654491
0.032117337
-0.00907268
-0.009499223
0.0092518525
-0.00036330862
0.024605475
-0.01322577
0.033159193
0.024732301
-0.016877344
-0.01792704
-0.04668421
-0.015372018
0.051284965
-0.023115268
-0.01795242
-0.038174808
-0.0008187289
-0.039858688
0.010198864
-0.028562034
-0.014681972
0.03332306
-0.0056179124
0.026082044
0.0102437595
0.05324142
0.038838614
-0.014683089
0.009205333
-0.026469206
-0.013739904
-0.007945756
-0.05778051
-0.0005620905
0.0064162756
-0.04231576
-0.040781632
0.0012497406
0.028128127
0.0042292182
-0.018679064
-0.0013962707
-0.0048173037
-0.01776192
0.030898208
-0.03001698
-0.003258494
-0.009623597
-0.024805123
-0.043345734
0.018355709
0.0023289174
0.0035569365
-0.034066927
-0.00908231
0.011749698
0.0031985864
0.019503333
-0.02030862
-0.022596287
0.03043858
-0.01982962
-0.04521635
0.016184293
0.0068589435
-0.04783709
-0.008142864
-0.030592697
0.023803184
-0.034582727
0.035117444
-0.010936863
0.011543778
-0.010375054
-0.020490391
0.024520049
0.023940463
0.00394419
-0.017280916
0.014170979
-0.013915107
0.016861444
-0.048805114
0.010513793
0.0009890764
-0.0013463186
-0.0149741955
-0.0044973064
-0.013616019
-0.016301244
0.03283568
-0.0026167915
-0.01306535
0.013576138
0.054037403
0.060899213
0.049674455
-0.0032584239
0.015574594
0.048473153
0.07792164
0.006842068
-0.038777318
0.01790467
0.00033942494
-0.006528467
-0.004240891
0.022538394
0.020460716
0.02952066
0.0020294809
-0.012216707
-0.033939306
0.025979409
-0.026453832
0.029666368
-0.011355678
0.027424486
-0.02863436
0.009543091
-0.03434848
-0.026207644
-0.03437467
0.0074068224
0.014478087
0.0058462964
0.027344909
-0.03465776
0.013269906
0.043353982
0.0064852
0.0058668153
-0.064526185
-0.0014800649
0.041601397
0.0011518773
-0.024281098
0.019014433
-0.0061161686
-0.034399282
-0.0047632083
-0.040753752
0.021192878
-0.06346002
0.015523833
-0.024992587
-0.033989213
0.005067498
-0.0010134275
-0.0261053
-0.062666886
0.011843803
-0.0062007406
-0.006828728
-0.020272804
0.034958173
-0.0059572384
-0.014534116
-0.031878453
0.028474325
0.0053265453
0.023609145
0.0061120326
0.0016021115
-0.026227614
-0.0016705914
0.018311001
-0.03224491
0.010990022
0.046134047
-0.0033101027
-0.00057806936
-0.012292235
0.023537848
0.039636906
-0.0024199265
-0.023767527
-0.014763538
0.00052241056
0.02279959
0.040896375
-0.02539039
-0.02495696
0.00092243054
-0.0071079233
0.034716684
0.032818183
0.013861534
-0.008601422
-0.0005630538
-0.0044828556
0.013743167
0.036491573
-0.009496179
0.028163884
0.03450659
0.010586445
0.031731106
0.009180187
0.015046347
-0.02132983
-0.050828796
0.016055206
-0.0584297
-0.019616073
-0.05421256
-0.029884392
-0.029532658
-0.03437464
0.032686714
0.015144593
0.003097561
0.018240282
-0.011531859
-0.008880219
-0.03330091
0.06437171
0.014107902
-0.0058668093
-0.015239109
0.021402607
0.00034125955
-0.037627686
0.014684398
-0.014980831
-0.04405
0.022747567
-0.025118107
-0.0102441
0.073226035
0.038728118
-0.02120849
0.030709386
-0.026894093
-0.034874253
0.008413145
-0.026943507
-0.05300542
0.009832106
-0.026707588
0.023850322
0.02414686
0.06264988
-0.016455853
0.023143196
-0.038968194
-0.011440959
-0.03731535
-0.052352954
-0.012799239
0.03811187
-0.010733506
-0.012590074
0.026858034
-0.0030805925
-0.019152455
-0.017132768
0.022268454
-0.015216821
0.002377342
0.03781316
0.07509828
-0.007610798
-0.0027601772
0.056846917
0.008930555
0.051378775
-0.06924832
-0.0053979503
0.03727469
0.029747033
-0.038795713
0.05092947
-0.008120199
-0.002984171
-0.02531204
-0.033529345
0.056766994
-0.019876355
0.007350133
0.0064908424
-0.03854016
0.015370992
0.027303869
0.018330937
0.0150782205
-0.033035982
-0.013510814
-0.06670812
-0.018474326
-0.03979059
-0.015320246
-0.0035321536
0.008355433
0.055567767
-0.004485501
-0.016174445
0.032493595
0.07090004
-0.0034304785
-0.027586443
0.022993796
-0.094780244
0.013115541
-0.02453242
0.0035828394
0.027005428
-0.008542319
0.01424369
-0.027064366
0.0001455189
0.025474818
0.010876823
-0.0018152512
0.040324867
-0.051110424
-0.014604453
0.013343007
-0.016806439
0.053972058
0.00048741765
0.070141844
0.009612959
-0.024793917
0.0011638022
0.008406841
0.02375797
-0.015260539
0.0112408325
0.015754491
-0.052955944
0.016834062
-0.0021917
0.0019253594
0.0106097665
0.0423099
-0.015028698
-0.042871587
0.024671772
0.027785191
-0.021147305
0.00961145
-0.023316417
-0.045296535
0.048462432
-0.010578509
0.014195073
-0.044701356
0.029254252
-0.020532284
-0.06364274
0.009881818
-0.0043068663
-0.00081956113
-0.017578505
-0.032475792
-0.0025580183
-0.03104749
-0.023394786
-0.063637234
0.007603558
0.016934298
-0.0092167435
0.024305549
-0.0048270673
-0.010952099
-0.011891483
-0.013223552
0.0118542565
-0.020528525
0.016193688
-0.0156172
-0.035530385
0.020303437
-0.009669486
-0.014827107
-0.0025258223
0.0068544657
-0.02516426
0.03712754
-0.055157572
-0.022782067
0.005945683
-0.032620475
0.019520607
0.009848621
-0.03635079
-0.017009994
0.015446178
0.034733
-0.063220784
-0.02585255
0.03549451
0.025407286
0.018922599
-0.002231668
0.045486324
-0.0071840235
0.009513227
0.011649281
0.0054573272
0.056470625
-0.020306712
0.014158979
-0.0017894796
0.011170236
-0.0037015635
-0.04961546
-0.014193703
0.025240697
-0.021234298
-0.00086710777
-0.029416531
0.04143412
0.019105768
-0.03945344
-0.0022363162
-0.020575132
0.006556023
0.017280327
-2.8991255e-06
0.014296492
0.019273408
0.0037772076
-0.051376086
-0.026301177
-0.034905452
-0.01861112
-0.0034423925
-0.027638635
0.021144966
-0.034026563
-0.0024728097
0.031070368
-0.0069735902
-0.012198766
-0.039600972
0.0006370313
0.03289361
-0.03161508
0.030687878
0.021541474
0.00467487
-0.018526077
-0.00089771417
-0.009344153
0.015970243
-0.018325672
-0.04217111
-0.01722456
0.016416857
-0.0015054756
0.02803731
-0.031585503
-0.025282476
-0.052451152
0.015506056
0.0020878613
-0.029941691
-0.0077856192
-0.039473258
-0.0008009348
-0.011757124
0.038972374
0.017061904
-0.035070527
-0.027901258
-0.049192283
0.019312788
0.021409998
-0.016798655
0.033580452
-0.032476056
0.003129447
-0.017768355
-0.008966004
-0.011520194
-0.07664675
-0.019076312
0.02539362
-0.0021379245
0.019376501
0.02486595
0.028908819
-0.014526722
-0.04008735
-0.023672855
0.027712746
0.042858165
-0.018119004
0.045222834
-0.025887564
-0.016094383
0.047697347
-0.03678872
-0.005208667
0.019851955
-0.03979176
-0.0016061442
-0.0023673258
-0.012383467
0.010549115
0.04174751
-0.014120196
-0.02212005
0.03945421
0.011576238
0.034258097
0.030914264
-0.02817153
0.00825461
-0.0079110535
-0.016818024
-0.040670894
-0.043262113
-0.014526972
0.031051116
0.009320143
0.03157469
-0.010028732
0.035744805
-0.0023421377
0.018117964
-0.03329275
0.046668522
0.015397367
-0.039694212
-0.0240102
0.023885341
0.005249175
-0.042352233
0.0055355267
-0.011186938
-0.0008549809
-0.032996967
0.01717918
0.0077178627
0.004376171
0.008947654
0.05698532
-0.039130688
-0.0050554303
0.0040211678
-0.007081584
-0.017940382
-0.036361616
0.008951944
0.002519028
-0.0056585246
-0.011701306
-0.005097384
0.023901159
0.0071099144
0.040810358
0.00020047625
-0.037526913
-0.0023937062
-0.037799977
0.0046633123
-0.028653646
-0.051610637
0.009874489
-0.03849688
0.019369537
-0.0074100727
-0.023266204
-0.0069684065
-0.05682885
0.017990952
0.033642303
0.07702493
-0.012894095
0.0077953283
0.02173119
-0.0015939878
-0.057251446
0.009880085
0.018971866
0.010841858
-0.0006343675
-0.015055461
0.018885428
0.027446063
-0.06365142
0.01814984
-0.009510588
-0.006207508
-0.008993497
0.0061850413
-0.0061419555
0.02915494
-0.004765207
-0.048168853
-0.026081132
-0.022772241
0.027927462
0.024699444
0.01866431
0.0070701307
0.0010670886
-0.0015304753
-0.009367924
-0.01755076
0.014863746
0.042976424
-0.04472268
-0.057028957
0.03723378
-0.0024457274
-0.026301885
-0.019374112
0.0010272448
-0.015006847
0.021666002
0.021022
-0.062268905
-0.042948402
-0.027346782
-0.014269617
-0.047103062
-0.06423361
-0.03348489
-0.03358704
0.012951286
0.02217012
0.03677235
0.0114887785
0.0091914
-0.0074087763
-0.016598158
0.0023514426
-0.03572403
0.01978665
0.006312611
-0.03702813
0.015574136
-0.041328333
-0.02564785
0.030334076
-0.016463304
-0.08292106
0.025654417
0.0042019924
0.009856951
-0.022399684
-0.0061061624
0.0006466481
-0.024619082
0.032617822
-0.012580762
0.028694877
0.04275747
0.040218115
0.007093067
0.047419313
-0.0451095
-0.030791823
0.009013084
0.01200813
-0.026191661
0.0531702
-0.019442081
-0.0056483247
-0.0335808
-0.03331094
0.024912523
-0.023010625
0.001294743
-0.019969234
0.0054297647
-0.0064232033
0.019564005
0.03456417
-0.02889669
-0.008350695
-0.0065626213
-0.027775923
-0.010433939
0.0071095834
-0.020044766
-0.019012354
-0.019817429
0.024826238
-0.013708881
-0.012307228
0.04295575
0.034475137
0.0044387016
0.008845469
0.039737158
0.012528553
0.023804335
-0.0102648195
0.015115473
0.023539966
0.0072974316
-0.00013443585
-0.010556375
0.0027647605
0.02929113
-0.018106312
-0.0032762743
0.016994689
-0.0024454712
-0.030574812
0.027791113
-0.008256035
0.015977465
0.0016712437
-0.0011753195
0.046717156
-0.024897372
0.06285234
-0.03539107
-0.027992913
0.04068753
-0.005380569
-0.037915763
0.07851616
-0.0056148996
-0.06674854
-0.00042769828
-0.018838136
0.021695344
-0.011672449
0.013557349
0.012388527
-0.00674906
-0.031599365
0.017648559
0.053561803
-0.00064097653
-0.00087000773
-0.007917783
-0.05250315
-0.006765141
0.022230778
-0.004846827
-0.025959356
-0.014297702
0.046544462
0.021183338
-0.006760395
-0.05207633
-0.018836448
-0.11915187
-0.020348616
-0.011399203
0.0025654233
-0.036704574
-0.029455593
-0.0122239515
0.02763882
0.028004892
-0.032083917
0.0017433781
0.0056597115
-0.0058272546
0.04819681
0.014654918
-0.023434525
-0.006546336
0.027062502
0.015811523
0.008391554
-0.0049019405
0.0017262847
0.0047750464
0.015472374
-0.01163555
-0.0037874647
0.032878805
-0.002310931
-0.058222704
0.014845895
-0.030680822
-0.01641276
-0.0020166603
0.014722632
-0.0010605636
0.041726638
0.012169097
-0.030200604
0.01860686
0.0014206709
-0.005580713
0.05253753
-0.037737664
-0.006214118
0.058771823
-0.040580142
-0.029981256
-0.002672062
-0.03187139
0.045422036
-0.025947506
-0.03655738
-0.034755968
0.0042162286
0.02995007
-0.040014226
-0.011916752
0.06877623
-0.011680955
-0.015506393
0.008838552
-0.043991927
0.025302183
0.018830433
0.015730804
0.006536918
0.012289678
0.012773999
-0.020924238
-0.0024678977
0.062855564
-0.029807946
0.01077382
-0.004284701
0.010969271
0.0069892085
0.0076571214
0.012376529
0.009654527
-0.076081224
-0.028445074
-0.010185661
-0.00051572884
0.010941205
0.008777847
0.06312011
0.015736649
-0.0069190343
-0.055326067
-0.028570954
0.030741785
-0.047271397
0.00914704
-0.009918885
0.01311753
0.03431554
0.014947436
0.005542661
0.020280758
-0.048932046
0.01529849
-0.037821792
0.017389167
0.021353263
-0.016532937
0.02552885
-0.026415989
-0.028684633
0.020082142
-0.0035314965
0.04592949
-0.020623274
-0.03330815
-0.03032793
0.0005782647
-0.0043070395
-0.06211079
0.008117256
0.0029287748
-0.049427934
0.03745136
-0.0033880882
0.006773054
-0.008288588
0.012368505
0.06021211
-0.014404436
0.010106146
-0.019986525
-0.0532043
0.008982
0.05153727
0.026648063
0.031335935
0.006993168
-0.0035400006
0.006689597
0.008045313
-0.01542972
-0.030836122
0.06999609
0.017434314
0.024482595
-0.039504573
0.0024955745
-0.02720292
-0.020234862
0.02495179
-0.008255891
-0.02145487
0.04744329
-0.019409444
0.050101027
0.016373936
-0.0072100833
0.008413168
-0.025988448
-0.025440035
-0.031224396
-0.0200335
-0.06240207
0.00793464
0.014550833
0.027602458
0.022619888
0.034913406
-0.032058947
0.0051545445
-0.017761964
-0.02247575
-0.032022886
0.069908224
0.012796515
-0.009660123
-0.010885314
-0.024760578
-0.020653797
-0.005616765
-0.05742605
-0.01225948
0.030178173
0.06637712
-0.0008019779
-0.013249698
-0.01168327
0.03508511
-0.010985579
-0.04964715
0.047049906
-0.004338646
0.057629406
0.0033827848
-0.010451947
0.012730476
-0.01365135
0.00018407412
0.023729395
-0.017414084
-0.028950771
-0.013177177
0.0304847
0.009028625
0.018306656
0.014513505
-0.0185291
0.005776628
-0.032510124
-0.003629496
0.006760083
0.04608637
0.021081457
0.015748668
-0.02485805
0.037922103
-0.040434536
0.016549248
-0.02436223
0.023644853
-0.029562997
0.03851331
-0.032061435
0.01658578
0.037952606
-0.013298144
0.015719036
0.022774555
-0.057470217
0.037676398
-0.010136941
0.0054934863
0.0016264741
-0.0486038
0.014960806
0.01186169
-0.0012661484
-0.033092283
-0.029903749
0.053923383
0.009910279
-0.002726165
-0.015208001
-0.005036238
-0.0051196753
-0.0033067856
-0.078970075
0.010147903
-0.049577117
-0.017383654
0.0752492
-0.07004608
0.031040851
-0.032171942
0.0038730253
0.005316126
-0.03729792
0.002699267
-0.010981221
-0.03360285
-0.0031099815
-0.022583542
0.027471032
-0.006336573
0.013929552
-0.009794391
-0.0072995326
0.039995078
0.057977576
0.0007061146
-0.047621343
0.0060422453
-0.008724935
-0.0317236
-0.04594762
0.002394074
-0.035131488
-0.031320516
0.01420417
0.00012597661
0.020628711
-0.01293583
-0.043744918
-0.044367045
0.024386354
0.025684994
-0.021702617
0.009303803
0.024931224
-0.01240302
-0.024959816
-0.028614385
-0.053884417
-0.017736683
-0.014048765
-0.002401493
0.010956107
0.008716255
0.008366752
-0.0044167517
0.019247243
0.061163314
-0.0062356526
-0.0054406445
0.0008761947
-0.020787027
-0.040222634
0.015725516
-0.0053954055
0.04298632
-0.013776405
0.006549783
0.008890382
-0.0042377193
0.0040467605
0.007921067
0.014931513
0.05896218
0.0027927726
-0.0035173462
-0.03066298
0.00062877295
-0.024075612
-0.007817759
-0.037611287
-0.004459063
0.002900484
0.027096126
0.01175395
-0.017789284
0.011113576
-0.03320746
-0.022260712
-0.008729336
-0.04953583
0.025602829
-0.049054522
0.023873925
0.029514173
-0.05448725
0.021880865
-0.005320283
0.017272387
0.04504344
-0.014173612
0.020079484
0.027007924
0.036454923
-0.035263564
-0.047124885
-0.029507637
-0.009964238
0.023289343
-0.035839166
0.015342978
-0.015344896
0.03249932
0.002601319
-0.023192937
-0.052325726
0.019512406
0.0033898365
0.00811578
0.011816676
-0.046394777
0.0015401674
-0.022849465
-0.024305088
-0.00030158032
-0.06250258
0.0060827625
-0.013339152
0.009475845
0.0042129112
-0.026910346
-0.017260758
-0.0022522009
-0.011113997
0.039053265
-0.020667832
0.043914877
-0.016463527
-0.025529252
0.009648553
-0.026842793
-0.032162607
0.0031976267
-0.015042883
0.01982189
0.017303834
-0.031126002
0.008563552
-0.01669592
-0.023610929
0.026944593
0.0118691195
-0.0063113794
0.010266065
-0.05005614
-0.03175198
0.024473332
0.0015479325
0.021624632
0.02908573
-0.016287126
0.021504361
-0.0121610705
0.04546805
-0.008547846
0.0043555703
-0.01487244
-0.04355529
-0.039805032
-0.0045644753
0.05561671
-0.00893086
-0.027701372
0.008872695
0.0067138034
0.07952497
-0.019154431
-0.034419075
0.058627594
-0.011163264
0.021025455
-0.0010819695
0.011400305
-0.018814975
0.012873041
0.012592548
-0.03026677
0.015906747
-0.0137436595
0.0426494
0.019675646
-0.011651337
-0.06541564
0.01020326
-0.022620406
0.022217566
0.007963511
-0.011164782
-0.024429496
0.024035346
0.05046829
0.012914004
0.00013121423
0.05650213
-0.005014538
-0.011066506
0.012017597
0.018197725
0.004604593
0.020260133
-0.02544842
-0.025525346
0.0009284417
-0.027456487
0.020722635
0.009775316
-0.03659869
0.0051011224
0.01546751
0.050697807
0.052469257
-0.020030277
-0.024761522
0.0025778871
-0.018085375
-0.010275733
0.00036031433
0.006177228
0.028673705
-6.037064e-05
-0.010267764
0.0012130758
-0.032945294
-0.001835935
-0.012396753
0.0074215373
0.036180377
0.019199185
-0.01027528
-0.008903742
0.04269791
0.010949273
0.014491264
-0.006503618
-0.0003819169
-0.02082702
-0.03036193
-0.013885209
0.018236626
-0.01357199
0.05617867
-0.0018826808
0.0359001
0.0068178657
0.0007726709
0.023123503
0.041004613
0.028040001
0.029194457
-0.0066972496
0.006848126
0.004552422
0.022341043
0.019519974
0.036975544
-0.0034491525
0.03680449
-0.053277303
0.0016016832
0.0079919975
0.011337564
-0.01681217
0.014494416
0.007991591
0.017538771
0.0326909
0.0020804778
0.024353134
-0.013583092
-0.020462316
-0.012477351
-0.0399189
0.0034722865
-0.002492252
-0.009425973
-0.015012256
0.042290848
0.014268343
0.027675306
0.0046101906
-0.027038088
-0.0057433727
0.028797051
-0.07483349
0.016173381
0.05437314
0.0018225057
0.029113641
0.024925886
-0.027927915
0.011965849
0.015116472
-0.06401235
-0.062565796
0.043438703
0.0108858915
0.016291613
0.009192321
0.027259601
-0.02678662
-0.013359023
-0.004589174
0.040077787
-0.009995621
-0.030129254
0.034179036
0.03344775
-0.00543125
0.038254827
0.008490885
-0.014281456
-0.0006969342
-0.015003507
-0.027652541
0.007222364
0.07700666
-0.05102284
-0.0063835937
-0.02054853
-0.0022132501
0.014350239
0.0110912835
0.005181701
-0.054803822
-0.0026238684
-0.013634455
0.011838807
0.04309582
0.001701057
0.026223896
-0.018783692
-0.056351114
0.011556713
0.0077063343
-0.016397009
-0.037700564
-0.020435028
-0.044929374
0.05950214
0.02841967
-0.0033292894
0.027764568
0.020287538
0.008679253
-0.023787849
0.011591557
-0.012248267
-0.0015523763
-0.034067687
0.011902343
0.06219971
-0.029223813
-0.008649535
0.014326421
-0.020689193
-0.0014013023
-0.04567851
-0.01996457
0.035129786
-0.041903943
0.029784203
0.024423202
0.012554891
0.013723993
-0.0026154802
-0.016605064
-0.02078402
-0.016142432
-0.013005863
-0.007695216
-0.024618842
0.012117435
0.02224759
-0.02676234
0.0039478536
0.02667339
0.013017346
0.033314433
-0.007087814
0.034492146
-0.06519769
0.048268337
0.013755885
-0.012710822
-0.048469435
-0.006062807
0.023939865
-0.019217633
-0.017724637
0.0016103116
-0.0063999966
-0.018701512
0.032370906
-0.01948213
-0.014299777
0.021335071
-0.013329392
-0.005024251
0.04202681
0.017083734
-0.0051676845
-0.016263934
-0.037934795
0.00923288
0.04584656
-0.0008991016
-0.03633487
0.02800707
0.014434344
-0.01673337
0.05689266
-0.021800736
0.012200218
0.008852559
0.05072278
0.01573393
0.05070918
-0.020768227
-0.031270757
-0.0052350136
0.038401727
-0.034006994
0.012892107
-0.022226626
0.013629601
0.017663507
0.0045564794
-0.024898047
-0.012827108
0.014435372
0.012872058
-0.04572482
-0.024075935
0.012540831
0.0015279463
-0.0042685336
0.029563768
-0.022940496
0.08773639
-0.02008542
0.013031778
-0.0037199662
0.02066447
0.0064024706
0.043230165
0.020513318
0.03330446
0.0023204612
-0.005989636
0.0200811
0.023308298
-0.040929966
-0.00962143
0.02531534
-0.013880281
0.0785531
0.02633024
-0.007824098
-0.0063173594
0.0011587837
-0.05519713
-0.046429474
-0.017481364
0.01881147
-0.020348005
0.017433928
-0.03975591
-0.015083966
0.027322063
0.007081053
0.023916675
-0.05890245
-0.011650895
-0.017616931
0.038436323
0.008365435
-0.01915785
-0.027764289
0.0051529207
0.0019840996
-0.006839061
-0.012726245
-0.07932259
0.0026195874
-0.04885682
-0.039682098
0.019927347
0.014080824
0.01418042
-0.015780225
-0.023544936
0.0069714785
-0.032744132
-0.011952062
0.03305519
-0.020403394
-0.005342568
-0.010169648
0.012137886
0.0046228035
0.00037349403
0.010411763
0.0040047523
0.011639115
-0.020127516
0.005029717
-0.0008059746
-0.011420053
0.012884502
0.0140767135
-0.03105763
-0.0057016895
-0.016832152
-0.021735573
0.037305687
-0.002726661
0.04649348
0.0231687
-0.037594352
-0.0106136855
-0.030959725
0.038466252
-0.0025359085
-0.012190012
-0.022080872
0.03945994
-0.02836344
0.02384281
-0.008738582
-0.014522672
0.028970523
0.010741075
0.020572245
0.063850865
-0.02216521
0.05656257
-0.0062867203
-0.025624657
-0.010828236
-0.024413206
-0.0037372515
0.03090162
-0.005265507
-0.06317584
0.011991776
-0.010988498
0.01247023
-0.008375087
0.0015741844
0.01286961
-0.0046925037
-0.034435026
-0.021722946
0.0053497525
0.018893747
-0.028520226
0.03533996
-0.008218296
0.039459445
-0.0056395023
-0.01730679
-0.05772594
0.020902133
-0.022681307
-0.002587391
-0.017240318
0.067934364
-0.00028377998
0.0041631595
-0.006375363
-0.073093206
0.0021997842
-0.021609208
-0.009328759
-0.039732177
-0.024073739
0.008151725
0.030294657
0.016597942
-0.020471867
-0.03488234
0.0025854225
-0.031210104
-0.029357983
-0.031735446
0.004466024
0.030949086
0.025869252
-0.016972203
0.04362816
0.021500014
-0.008901115
-0.022145886
-0.03279946
-0.07069967
0.020644091
0.019233853
0.019489776
-0.01278775
-0.028309967
-0.01273977
0.020123284
-0.0014198665
0.046340436
-0.0015178778
-0.030454159
-0.003721457
-0.015038712
-0.009012804
0.014485106
-0.02354565
0.013189262
-0.0066972515
0.03408066
0.031582467
-0.034927692
0.01810056
-0.024949651
-0.014110873
-0.005294159
-0.0393875
0.005875724
0.015477707
0.022520702
0.025419299
0.026933938
0.03227524
0.015679197
-0.009991211
0.03464504
0.02245633
-0.023370443
0.014684694
-0.00830881
0.039988916
-0.014209373
0.01634408
0.011784646
-0.021363167
-0.010772166
-0.038005576
0.018759903
-0.0382449
-0.004430915
0.0302932
0.009971186
0.006239482
3.6439644e-05
0.043910913
-0.02742082
0.0019441609
0.01139886
0.037789434
-0.022017173
-0.013245533
0.0016048664
-0.0023534726
-0.005726961
0.018790351
-0.011175849
-0.000578135
-0.022932896
-0.055960927
-0.040780064
0.013746726
0.028794177
0.021607159
0.029484054
-0.007841487
-0.06538118
-0.0024009505
0.0044627986
0.05543495
0.0035851027
-0.055918805
0.026262386
0.01806404
0.023498414
0.04105156
-0.012049822
-0.0045446344
-0.019071067
-0.023513636
0.026165586
-0.036195435
-0.006976202
-0.0034145345
0.015650319
0.0027254163
0.018737976
0.01717826
-0.0008324737
-0.005308828
-0.029912816
0.0071659023
0.012415338
-0.030194027
0.0037384327
-0.006468457
-0.0041359533
-0.023303531
-0.0035808214
0.04420974
0.0031849288
-0.0052699805
-0.023332622
0.0134268
-0.016487883
-0.046180427
-0.026234513
0.0038665074
-0.010572081
-0.018497704
-0.031731725
-0.039801057
0.034414224
-0.00041476113
0.0063847774
-0.023310196
0.035617974
0.006006154
-0.017534219
0.004204744
0.013389998
0.0006634571
-0.031993277
0.027070418
0.01824497
-0.008201004
0.0026414813
0.03422253
-0.02766974
0.01040968
-0.027889987
-0.0083499085
0.03968821
0.03053531
-0.0027979473
-0.030463375
0.020667283
-0.0039158543
-0.049237054
0.01718278
0.040112775
-0.029098166
0.032473177
-0.02449882
0.029476652
-0.027381018
0.03812023
-0.020735854
-0.009444625
0.02051785
-0.02700113
0.02376453
0.028584097
0.022830276
0.008447885
-0.023294494
-0.050410528
0.014905996
-0.009048653
0.0007765432
-0.008617123
-0.045147426
-0.020669827
0.029926194
0.009988562
0.049474735
0.016865352
0.008607185
0.0006071409
-0.0037211077
-0.03063288
0.005484853
0.001848667
-0.057922293
0.028319929
-0.0016953497
-0.020001497
0.028140748
-0.011970237
-0.009703145
0.0071183667
-0.04857581
-0.023821736
0.017189674
0.03109413
0.0020719985
0.024944475
-0.010985994
-0.058805507
0.0011290341
-0.014650358
-0.027714105
-0.031920422
0.0070222192
-0.024467416
-0.024232397
0.040514786
0.0023981545
-0.025328433
-0.036816884
0.03382371
0.004136531
0.010343565
-0.014644384
-0.0133197475
0.048779175
-0.015771136
0.012034246
0.010557977
0.020430215
0.006890681
0.009747719
-0.032422822
0.06975871
0.0056300596
0.01647436
-0.025676973
0.043632843
0.013222492
-0.023461457
0.018685674
-0.011796716
-0.0062847254
0.03083043
-0.0037388662
-0.040674195
-0.03628377
0.028288702
-0.040983696
0.01686565
0.012944733
0.043117996
0.045974184
0.048699148
0.015458367
0.018146608
-0.027345842
-0.0045712194
0.025909381
-0.01373962
0.030321224
0.0006971653
0.004750008
0.058841687
-0.0011216834
0.023001233
0.030314254
0.01836966
-0.007766443
0.028950075
0.0014568995
0.02572523
0.013000373
0.03207748
0.00052876695
0.057625625
-0.04791723
-0.025604177
0.040781632
0.02645432
0.026703753
0.051821463
-0.06799194
0.0046495344
-0.014334594
0.028935326
-0.044393286
0.048178524
-0.014001646
-0.02032191
-0.046276905
0.0032632903
-0.055852413
-0.012094485
0.019080346
0.042259276
-0.015877694
-0.06654004
0.0056797564
0.020842414
0.011150122
0.015576114
-0.015337275
0.0021064312
0.03016707
0.036281917
0.013435447
0.009291759
0.032218706
0.005423387
-0.022581397
-0.03950274
-0.004784597
-0.014405248
-0.02937969
0.02478684
0.013134461
-0.02411812
0.032780793
0.0073550874
-0.043795455
-0.0103887385
-0.01354161
0.033024672
0.02933544
-0.030979676
0.05676266
-0.014818435
0.019942025
-0.00484323
0.013536853
0.0041445927
0.002548055
-0.02958999
-0.006928789
-0.0012826237
-0.0060525564
0.04176425
-0.020693025
0.026751917
-0.014327888
0.0051693902
-0.017270407
0.00861327
0.03413858
-0.047857553
-0.008682294
-0.03899702
0.031512827
-0.021161102
-0.015764602
0.023679608
-0.014810943
-0.0060028657
0.0071475846
0.029240344
0.021436267
-0.017264046
-0.0032100943
0.028711256
0.003495823
-0.019640904
-0.014903431
-0.014321377
0.025584146
-0.016645689
0.0040428354
0.027508171
0.0041704336
0.013037946
0.0040871934
0.043221448
-0.0052044466
-0.0016309927
-0.00524
0.014818155
-0.01530752
-0.03890064
-0.05818516
-0.014356234
0.047412194
-0.047552243
-0.040684965
0.014749329
-0.011087385
-0.01509339
0.022894757
0.0326911
0.005051796
-0.029466722
0.014631222
-0.024685588
-0.02290196
-0.0055937455
-0.035655003
-0.028733576
-0.018769158
-0.023934523
-0.030054756
-0.019137485
-0.009259808
-0.03282618
-0.03689013
-0.055601418
0.044793405
-0.011161392
-0.07091169
-0.009107482
0.030828817
-0.018772352
0.003910829
-0.00017160964
-0.018709825
0.0020653186
-0.00926744
-0.00033910276
0.012078513
-0.017838025
-0.010652375
-0.049937848
-0.0016048301
0.019851506
-0.052028738
0.013866206
-0.046142593
-0.023562264
-0.03030471
0.0039231353
0.08797944
0.02421802
0.03554802
0.03155409
0.06878497
-0.012978015
0.0042328043
-0.01681971
0.008888951
0.009967439
0.050380874
0.022604275
0.009206909
0.027204363
-0.023846613
-0.021390598
-0.04368892
-0.029488772
0.0093168095
-0.0044133835
-0.026284922
-0.060315352
0.027283998
0.016726367
-0.011747715
0.02254845
-0.023816282
-0.006377233
-0.016221065
-0.012437564
0.017173879
-0.0029092976
-0.018707104
0.023726612
0.03170227
0.019213552
0.01601151
-0.022441456
0.031500153
-0.033407547
-0.01809891
-0.039169993
-0.03571168
-0.0009792708
-0.016821003
-0.038939703
-0.03599906
-0.0012718834
0.018767038
0.043042794
-0.027043186
-0.038722917
-0.006016896
-0.028378712
0.023882767
0.0076645836
-0.022921218
0.053592492
0.0023904582
-0.020804511
0.017314006
0.023428028
0.023422787
-0.07028917
0.022868829
0.03145749
-0.009629044
0.034367606
0.02553326
-0.011503027
0.016070405
0.04687928
-0.00311841
0.0069841156
-0.034182485
0.0060358816
-0.0074718357
-0.018976739
0.042675287
0.0083743455
0.01982228
-0.0036677243
0.008717945
0.009614438
-0.06961184
-0.016372321
0.0064623216
0.00612317
0.02630587
-0.02120207
0.022018846
-0.021949729
0.0825467
0.030680384
-0.017874116
0.007989312
-0.026655473
-0.018383572
0.019857088
-0.016935209
-0.005366596
-0.058285847
0.0061100833
0.0040025
-0.02212419
0.015251347
-0.03222934
-0.008183529
0.010946885
0.0050204196
0.04458289
0.008415867
-0.011242213
-0.030963901
-0.057581816
-0.0033566419
-0.042729232
-0.021247124
-0.058213823
0.017934771
0.010286337
0.023794692
-0.005594731
-0.005851531
-0.01242686
-0.03759126
-0.014890207
-0.013057939
0.00084683934
0.013961849
0.02608333
0.017284939
-0.029684518
-0.010523675
0.014522938
0.026335342
0.0041792654
-0.06586854
0.0036309243
-0.038177136
0.0032713187
-0.002980411
-0.010849707
0.05124666
-0.042399295
-0.0027395727
0.052662916
0.004409893
-0.021582477
-0.026798401
-0.02693438
0.0049358816
-0.014787291
0.016540408
-0.010236799
0.08091381
-0.011809831
0.03138576
-0.038744025
0.00152286
-0.002990609
0.01483057
0.00042468647
-0.057735223
0.0013339915
-0.005548895
0.028693534
0.00089230697
0.0023748234
-0.04167236
0.010044721
-0.0010190761
0.0040499824
0.04195005
-0.03403889
-0.009939872
0.016373815
0.012944708
-0.0025103453
-0.043294106
-0.015513463
0.05000631
0.036964834
-0.012080236
-0.025076246
-0.00016716498
-0.022996355
-0.025530433
0.007606859
0.01901936
-0.005315641
0.0018496478
0.0065014483
0.027336875
-0.034770418
0.026659902
-0.022312377
-0.027407218
0.030200567
-0.074378744
0.051301148
-0.005410082
-0.016112838
0.0135855945
0.035551086
0.0153869195
0.032317366
-0.0077732005
0.005324432
-0.0057663224
-0.0128801735
-0.0132759195
0.008740452
-0.025563076
-0.013450955
-0.009467283
-0.055247296
0.048182227
-0.016746992
0.0028937047
-0.0149570145
0.020707835
0.020995872
0.029220456
0.029238947
-0.0223703
-0.03884123
-0.06193735
0.014466124
-0.010471915
0.016436275
0.013037969
0.009981843
-0.061406236
-0.037954755
0.025151234
0.0025255776
0.008344197
-0.044734918
0.026513305
0.014154779
0.0026285641
0.00805199
0.003195302
0.043140505
-0.038488258
0.05054257
-0.019569485
-0.014562564
0.0032426298
0.027177116
0.034480114
0.029151967
0.014612672
0.013509501
0.04585703
-0.024869766
-0.0047957604
-0.0058358004
0.0067572817
-0.03202181
0.028586226
-0.022431742
-0.024979103
0.0013706065
-0.03302768
-0.0028712892
-0.00047245628
0.00036400746
0.005122074
0.07835148
-0.008528545
0.03678568
0.010429586
-0.056519765
-0.019314276
-0.058228534
0.019251406
0.0042436933
0.014105898
0.0138199525
0.02471283
0.021465186
-0.0003362243
-0.0056428113
-0.029391551
0.023937201
-0.0028006341
0.03457825
0.038186844
-0.023804886
-0.020433852
0.04205468
0.029993797
-0.031947795
-0.006015715
0.0072666407
-0.016349088
0.041416366
-0.01896461
0.026476542
-0.051991493
-0.03335791
-0.016364986
0.0029239154
-0.020786192
-0.023990037
-0.052901514
-0.010940895
0.053185303
0.0026793021
0.031350803
0.023436086
0.033382244
-0.0055442844
-0.022964353
0.009719891
0.029140271
-0.020015689
0.0062674363
0.04383091
0.02131328
-0.03888798
-0.012636517
0.0204695
0.024732659
0.029510893
-0.05304893
-0.005437387
-0.07128307
-0.020433303
-0.035548236
-0.0373069
0.05071572
0.026013134
-0.00840168
0.044588383
-0.022646349
-0.006362264
0.0033329248
-0.036705393
0.0026664655
0.006999481
0.010111155
0.0053130677
0.014345239
0.014950612
-0.0015154528
-0.01961959
0.04092373
-0.028016176
0.052987568
0.016352108
-0.027322581
0.022183558
0.019191083
0.027673434
0.042622607
-0.016289502
-0.04124136
-0.027084246
0.0072971303
0.030634765
-0.021269877
0.05852435
-0.0065260944
0.007609524
0.020500364
0.01904186
-0.023332959
-0.036399756
-0.018437663
-0.012278698
-0.0047398903
0.01635335
-0.009155615
-0.06046833
-0.022605283
-0.01854774
0.0012687874
0.045874447
-0.04402867
0.016964648
0.036709167
-0.0060035423
0.021780688
0.0059049637
-0.028276136
-0.029566504
0.001248961
-0.011174363
-0.03246823
0.05947182
0.029039528
-0.05439468
-0.01813043
-0.01822235
0.036292747
-0.012507518
0.0071280617
-0.031020436
0.008558545
-0.029549297
-0.029251406
0.007629282
0.020993853
0.014693088
0.013123261
0.0038436349
0.03256081
0.0060704635
0.036095835
-0.015047479
-0.0109032085
-0.040437076
0.038668595
-0.06497597
-0.012048625
-0.027078204
0.027795093
-0.048206776
0.027162408
0.02822257
-0.024163779
-0.013168737
-0.0022749635
-0.008652694
0.03128195
0.04526775
-0.004790234
0.035643052
0.02304285
0.016997235
0.053356547
-0.034231912
-0.006316255
-0.008563178
-0.028302975
0.02017765
0.024171371
0.06364292
-0.004080838
-0.0241566
-0.030267378
-0.05041918
-0.013222499
0.032100156
-0.02064008
0.0108816335
0.028009044
0.008243543
0.013963913
0.027611896
0.0033161447
0.051643226
-0.027246008
0.01625903
0.002388463
-0.008664322
-0.0013323589
0.020070815
-0.02133079
-0.014582333
-0.006291851
-0.023053093
-0.04823371
0.027081493
-0.043010406
0.0227452
-0.00042732773
-0.01044293
-0.04647135
0.07132901
0.023576733
0.011648604
-0.0005758375
-0.0005709606
0.032057926
0.010611103
0.03718208
0.01810997
0.027476998
-0.002390144
-0.01897002
0.0030812547
-0.02013674
-0.048047993
-0.0067664967
-0.023075499
-0.0007448328
0.035430033
-0.049298152
-0.026447747
0.028962566
0.010857815
-0.02809758
-0.028291967
0.0056571625
-0.039644655
-0.005486291
-0.02705119
0.013691508
0.028599951
0.00025537945
0.016160484
-0.00456777
0.0132280355
0.014449105
0.0033296377
0.012643238
-0.029732171
0.04686664
0.021474656
0.0041939677
0.009937794
0.012227635
0.020124365
0.011865132
-0.010450719
0.05001648
-0.0052966997
0.0527497
0.0071286964
-0.008191812
0.030277984
-0.022806264
-0.020119231
0.024255121
0.045312062
0.010120121
-0.0118156625
0.0066154175
-0.05226104
0.01780568
-0.030919407
0.04569422
-0.048745614
-0.033384502
-0.001327627
-0.02554314
0.0148317795
0.03970896
0.034812603
0.056236763
-0.032948896
-0.00020890772
-0.0068823467
-0.01993488
0.014679232
0.006116874
0.040839024
-0.027905233
-0.012731441
0.0043241503
0.04800614
0.010646553
-0.0064228084
0.007566755
0.0131785795
0.0019129248
-0.013159964
-0.04815043
0.045110743
0.037854813
-0.010648113
-0.026894785
-0.026850317
-0.034876406
0.033478815
-0.024476405
0.022922814
-0.017394502
-0.006810551
-0.008751159
-0.045044854
-0.053387437
0.0064724176
0.01238574
-0.03783806
0.03585995
0.031042473
-0.013916339
-0.020545162
-0.009203178
-0.017066056
-0.0015393788
0.024924506
-0.033375192
0.0036541058
0.0023682734
0.034750868
0.027645692
0.012858359
-0.01543842
-0.010486414
0.03172942
0.026785545
0.030388227
-0.04442299
-0.016343454
3.214829e-05
0.018777099
0.036377005
0.013831904
0.01975414
-0.026034452
-0.014572118
-0.0029638454
-0.036780644
-0.002929062
-0.0309585
0.0075633354
-0.033857737
-0.017565409
0.0041615744
-0.015261791
-0.011071246
-0.054531325
0.030474372
-0.0032237326
0.022643384
0.008872582
-0.031143526
-0.015566094
0.001289439
0.001560993
-0.0031167076
-0.013143295
-0.00912984
0.0060294257
0.01905478
0.031685006
0.014496543
-0.022886306
-0.040159672
0.0062871883
0.014028956
-0.008308065
0.041618217
0.016789943
0.013236306
0.010920866
-0.030509902
0.033440437
0.01776321
-0.004709564
0.0017622283
0.045477137
-0.0027084441
-0.028209073
0.015036783
-0.01678543
-0.025986401
-0.05073882
-0.05298003
0.00040054033
-0.014639136
-0.020099448
0.021483572
-0.005473944
-0.04149321
-0.036896605
-0.0013063353
-0.012777162
0.0037231185
0.040956814
-0.0122648105
-0.003909976
0.0035833337
-0.040877637
0.010177088
0.039732188
0.012528688
-0.029655917
-0.0064374343
0.02545676
0.016076354
-0.02416421
0.008692799
-0.026980888
0.020286346
-0.0095699765
0.0055621364
0.040608454
-0.030756587
-0.012001551
-0.0012520953
0.034245145
-0.034366954
0.0074001476
0.032598455
-0.021299686
-0.0083950665
0.039363842
0.014813208
0.0014978289
0.0036767428
0.017347462
-0.008746002
0.0020002043
-0.0056335856
0.012673187
0.025325406
-0.022377646
0.015503968
0.011695118
-0.022318752
-0.0020075527
-0.062782735
-0.036737394
0.040332437
-0.03517579
-0.0030759939
-0.0024618302
-0.036629204
-0.07641377
0.015520036
-0.0114364475
-0.03722993
-0.009492216
-0.023748772
-0.0014618833
-0.02714149
-0.022235487
0.004891652
0.024369583
0.01008149
0.021845886
0.021005616
0.00053535623
-0.009258367
-0.0023482353
0.009385462
-0.011175366
-0.0032179146
-0.016370663
0.0029378925
-0.0024568944
-0.007939662
0.03539918
-0.0052381917
-0.030653123
0.013072872
-0.04647784
-0.01303469
0.030570345
-0.03454031
0.016045483
-0.023562368
0.003955301
-0.029916326
-0.045336198
0.026972286
-0.00717962
-0.005620644
-0.059310358
0.056996066
0.021995718
-0.027913596
-0.038886383
0.02442755
0.00038326698
-0.020823464
-0.03643774
0.03824314
0.013234668
-0.03730083
-0.04625778
-0.012572504
-0.028360069
0.0033620629
0.033341
-0.04453577
-0.027915265
-0.007828499
0.05621769
0.025759092
0.0006100661
0.033243608
-0.069491625
-0.007487977
-0.013155948
-0.045615684
0.040029753
0.029741278
0.04562397
-0.006569022
0.0515476
0.061752632
0.0279247
0.0029811263
0.02919611
-0.0016628918
0.007012448
0.007512442
0.0025889196
0.01642986
0.013475183
-0.03998956
-0.005967078
0.018758904
-0.033478484
-0.062129896
0.048729185
0.03745665
0.026972098
-0.012900944
0.024670832
-0.02633739
0.008437522
-0.036289237
-0.012515041
-0.003611577
-0.02515198
0.01772378
0.0027761692
-0.04702309
-0.04811757
0.0016896001
-0.022302737
-0.010183733
0.006615816
-0.00011132634
0.023102114
-0.018418659
0.017218303
-0.024115276
-0.026601959
-0.024559623
0.011674556
-0.02421357
-0.022028882
-0.0082488675
0.020746758
0.0035093708
0.017533207
-0.012258425
0.015522446
0.0014738748
0.005572355
-0.04940998
-0.026094865
0.049994893
0.02798068
0.06228556
-0.01759269
-0.030862156
0.009419219
-0.023986768
-0.07526849
0.034388322
-0.024187772
-0.016065152
0.029997164
0.027197948
0.03863843
-0.005239936
0.023975028
0.0018197261
0.05505119
0.041050866
0.011746492
0.007801751
0.019516831
-0.0040448257
0.0038392404
0.0331866
0.008436521
-0.0143059855
-0.010895522
0.023546634
0.0006051335
0.025026644
-0.016426886
-0.007902786
0.0029874581
0.03246677
0.0019511243
-0.033497784
0.02315887
0.010229665
0.034800977
-0.0041188817
0.022286827
0.0060427925
0.03075216
0.000764543
0.043928657
0.017184671
-0.007699037
-0.01298541
-0.041606534
0.036931265
-0.017070929
-0.030906059
0.0012576561
-0.046411566
0.018324578
-0.05227744
-0.035379693
0.01014789
0.005316211
-0.054141067
-0.032484356
0.008571094
-0.044033863
-0.012856715
0.04262407
-0.021382855
-0.040960893
0.012901938
0.018867997
-0.016613953
0.0025402503
0.0069223978
0.0038612925
-0.0107328575
0.019226264
-0.027263315
0.008553592
-0.012333322
-0.03519709
0.011484755
0.07502729
-0.04245128
-0.036880556
-0.009675309
0.011432121
0.009926715
0.019942824
0.022078278
-0.0016350452
-0.0015674836
-0.014864314
0.015962573
-0.009867892
-0.005860082
0.023175726
0.022864109
-0.011014768
0.029279897
-0.019552426
0.047762357
0.019979885
-0.018789062
-0.0033582458
-0.0022296037
0.007871923
0.022629755
0.0018071684
0.02624372
0.002057249
-0.008537181
-0.006585801
-0.051040374
-0.013341436
-0.03168052
-0.011651195
-0.04721911
-0.050460193
-0.0021665914
0.01630125
0.026996994
-0.02609733
0.049218882
0.042662386
0.043286294
0.030983243
0.0012153172
0.01408873
0.02022553
-0.004073029
0.042486828
-0.019231442
0.024703983
-0.024895944
-0.008724561
-0.0041701705
0.0054353783
0.022609958
-0.021793632
0.06926455
-0.035323285
-0.029265199
0.049855318
-0.00023149337
-0.0038283402
-0.03464662
-0.00945853
-0.01951059
-0.002179755
-0.0077116755
-0.0057673748
0.0074565695
0.005587341
-0.04096307
0.005738309
-0.013423051
-0.04882931
-0.0350181
0.002092431
0.001949893
0.043108888
-0.01921754
0.014350969
-0.007971455
-0.012148125
0.0025601455
-0.008558242
0.019128336
0.0056337127
-0.0076487693
-0.023761211
-0.017470842
-0.017604783
-0.007547319
0.009817156
-0.061412282
-0.013340655
-0.008617597
-0.005665504
-0.006980616
-0.031369556
-0.012202794
0.028017992
0.026327869
0.028536187
0.007917441
-0.027932376
-0.023483047
-0.022633595
0.032871384
-0.06867063
0.017761115
-0.008688127
-0.007118846
0.03680365
-0.007347605
-0.009554213
0.023370031
-0.0051550623
0.003180138
-0.052297615
-0.0028461926
0.01921276
-0.028394306
-0.0053659873
0.03634533
-0.042644393
0.003010504
0.013884546
-0.05962703
-0.005823799
0.01923577
-0.028417746
0.013928277
-0.0052998704
-0.06245212
-0.035982344
0.03532215
0.03609586
0.0367037
0.022620255
-0.033219114
-0.031676825
0.063631065
0.003509582
-0.03248115
-0.008749847
0.019514106
-0.008494421
0.021915201
0.011184422
0.004359311
-0.017519215
0.026318321
-0.005232869
-0.0055891657
0.0145791955
0.0126922885
-0.0048867
-0.017833425
0.027148124
-0.016244188
-0.05049662
0.032098867
0.0035622092
-0.012896321
-0.050597865
0.017936762
0.012917563
0.023270704
0.03476704
-0.01356363
-0.012432171
-0.009700449
-0.018723458
-0.08364139
-0.010215967
0.010608241
0.019021068
-0.0024065988
0.026837327
-0.027824977
0.027616503
0.009067939
-0.006297295
-0.011789262
0.025542272
-0.018970186
0.039948806
0.012040224
0.052045424
-0.005480131
-0.023225669
-0.022022555
-0.037089515
-0.013794146
-0.03950531
0.027259363
0.018888557
-0.00447455
0.012154624
0.0065593347
0.01532805
0.009129945
0.026384037
-0.016226606
-0.0027729515
0.005559289
-0.0051486157
0.027289113
0.050414648
-0.020850988
-0.025396438
-0.033725563
0.04582816
0.00089854404
-0.012284204
0.025545096
-0.0023579167
0.003967434
0.023328979
0.014437113
0.013998431
-0.044973787
-0.018377619
0.017755147
0.017768534
0.027292673
-0.010298942
0.015335638
0.026090307
-0.0045992946
0.02900227
0.0055120927
0.041237947
-0.01695343
-0.04442127
-0.048716858
0.0002480604
-0.0025126934
-0.032923143
-0.046514593
0.041450758
-0.029510068
-0.009258152
0.072970785
-0.036608826
0.024121463
0.0009083639
-0.025782412
-0.029102925
0.007127552
0.032706693
0.026370926
-0.036728866
-0.007176232
-0.04742532
-0.021261277
-0.012721501
0.008983237
-0.0016141857
0.03176457
0.01823263
0.006118882
0.0009007224
0.004818004
-0.0019141843
-0.012543509
-0.0077232844
0.03347633
0.011108339
-0.047653757
0.0012464478
-0.015132346
-0.027502803
0.0060065873
0.036440376
-0.0109212
0.044043977
-0.020993212
-0.011151274
0.0055040144
0.02251048
-0.017176451
0.05794107
0.02531545
-0.035784718
-0.025679128
0.0032812334
0.026792092
0.038981665
0.004975392
-0.05062696
-0.016564885
-0.005678567
0.039124295
0.05034529
-0.0021738582
-0.009035163
-0.014607483
-0.028792014
-0.024729943
0.012976387
-0.028110934
-0.034958135
-0.02074542
0.010021688
-0.028474838
0.009106165
-0.08401171
0.018365193
-0.011875386
-0.030306578
0.054253407
-0.013946239
0.01136635
0.043868423
0.0060474374
-0.033153072
0.008442613
-0.0025994184
0.03505808
0.025209911
-0.010228684
-0.014734779
0.010260757
0.02787542
0.023133086
-0.03165209
0.020537466
0.0025187365
-0.024237923
-0.015279106
-0.024333132
-0.026738787
0.017334107
-0.011607453
-0.025959115
0.000135418
-0.003712413
0.01732301
-0.016363287
-0.024345642
-0.018709764
0.013385516
0.018229762
0.024962887
-0.04135673
-0.032694984
0.013670039
0.018625433
-0.07249544
0.021152515
0.017085172
-0.014049179
0.02370411
-0.04171311
0.013670072
0.02457779
-0.00010387897
0.01137624
0.017271714
0.028431155
0.03560099
0.001236768
0.019093847
-0.027831733
-0.010515695
0.015934255
0.0066671623
-0.0038819525
-0.016162751
0.011815732
0.0037719165
-0.008961783
0.044507913
0.014630818
-0.01764744
0.035447776
-0.014678306
0.008591155
0.024229044
0.021063378
0.038939975
-0.0041938648
0.069939
-0.013146203
-0.010104369
-0.040643953
0.025696855
0.021811845
0.0067990855
-0.005209685
-0.008056796
-0.011202207
0.004621746
-0.022073649
0.020548606
-0.0133517105
-0.012869413
0.012991749
0.008741473
0.030026473
-0.008156589
-0.00021895603
0.0071551525
0.013185241
-0.0063083014
0.008472084
0.00052143267
-0.039851565
0.04350241
0.056988526
0.02222369
-0.01064949
0.04109402
-0.017941715
0.0019315893
-0.0437526
0.0015004486
-0.035394847
0.018702121
-0.022165557
-0.010034315
-0.012445135
0.013226222
-0.013813548
0.03956819
-0.0631335
0.030021003
-0.009903027
0.0029764292
0.03081526
-0.0066492655
-0.0021590043
0.013153911
-0.0037447235
-0.015393168
-0.015858717
0.008328331
0.014360393
0.0041083917
-0.0307722
0.005973354
-0.0040437393
-2.1955319e-05
0.0018060671
0.022986569
0.023635304
-0.022192655
-0.009462179
0.04020778
-0.019680962
0.026052479
-0.012196755
0.018557923
0.0015993423
0.0060480903
0.01520691
0.031530898
-0.010297304
0.015678981
-0.005605464
-0.039727103
0.026049756
0.024468757
0.04160798
-0.016082352
-0.005568985
0.032143835
-0.000345305
-0.032142673
-0.020322315
-0.019052621
-0.053581882
0.0057829893
0.04467365
-0.014272907
-0.0011866485
0.0033125337
0.0017359456
-0.03690135
-0.023961006
-0.009207546
-0.0023221725
0.023892071
-0.049556993
0.04581321
0.024588611
-0.015751693
0.031836372
0.04116551
-0.005767797
-0.06360561
-0.023069985
-0.017066099
-0.0010460647
0.00028332128
0.05273842
-0.013275595
-0.032876067
0.014987313
-0.018984156
-0.011215958
0.019870201
-0.048982665
-0.018693935
0.016567865
0.0286038
-0.014781373
0.0035366432
-0.031062433
-0.039447498
0.008756918
0.008473835
0.016172584
0.030424884
-0.018944938
0.019150354
0.051711567
0.026416706
0.025356492
0.023511127
-0.023990111
-0.027374312
-0.004207284
0.00034537454
0.02668255
0.04639326
-0.019616975
0.024086695
-0.019690754
-0.026630048
-0.061734036
0.0037543306
0.013906283
-0.0077861003
0.065352514
-0.014794332
-0.024994824
-0.002217463
-0.022447892
-0.0021466238
-0.054648682
0.047698777
-0.008613112
-0.017776173
-0.010981243
0.018300412
0.013257526
0.019599663
-0.0018357848
-0.011130833
-0.036885288
0.006776175
-0.01535068
-0.020097116
-0.017085461
-0.027224476
-0.0011942849
-0.044681177
-0.0014097209
-0.009690537
-0.0007550952
0.021337187
-0.0011393469
0.00017045529
-0.0115188025
-0.014088652
0.04122449
-0.0036786601
0.023580814
0.028609578
0.008912984
-0.044967197
-0.028762186
-0.0020916124
0.013766137
-0.0034951211
0.0073651257
-0.046494603
-0.018345082
0.044351563
0.017825231
-0.0059489557
0.0199524
0.008727868
0.0037737642
-0.032536734
0.012537433
0.017606352
0.020958288
-0.017388673
0.040566716
-0.0025832898
-0.035943747
-0.09139283
-0.036202047
0.041359603
0.030829404
-0.0015669033
-0.033673212
0.029768785
-0.053367868
-0.029372726
0.016561823
-0.024188215
0.053359527
0.032664794
-0.030126164
-0.031286497
0.043843843
0.0031947626
-0.00379639
-0.019675637
-0.008852762
0.055252958
-0.011245241
-0.02670746
0.049457774
-0.01700023
-0.019597076
0.010467767
0.022582969
0.018444378
-0.019243775
-0.009263842
-0.0043622055
0.01696854
0.042303093
-0.032423925
0.002748892
-0.011238099
-0.036280684
-0.057745058
-0.00047480123
0.060659423
0.013438223
0.001112076
-0.0054672253
0.00788437
-0.0034941668
-0.0074279895
-0.029569821
0.0001268086
-0.025303677
-0.006101507
0.028040852
0.009219048
0.017605808
0.005280636
0.026364183
0.019697508
0.00025971243
-0.016363414
-0.055931773
-0.006557694
0.022910485
0.015161468
0.014861852
-0.01646172
-0.013275802
-0.0034897875
-0.025676634
0.08754788
-0.03594342
0.019426359
0.011211527
0.0062606535
-0.043849
-0.005074417
-0.004005816
0.041239124
-0.044995267
0.012260039
0.011067919
0.026971333
0.032100946
-0.038453985
0.041747175
-0.011782637
0.008450404
0.018754791
0.026606824
-0.016228475
0.008284533
0.014604438
-0.0117937345
-0.037083924
-0.01650187
-0.008028487
-0.014578212
0.058334894
-0.063695885
-0.005280887
0.021014567
-0.003414036
0.012383957
-0.030401273
-0.017637491
-0.013033395
-0.042579517
-0.021949511
-0.047375266
-0.030578064
0.052982453
0.005497074
0.024386074
0.007848798
0.0050209747
-0.039807126
0.0029230386
0.024705596
-0.03391725
0.013537615
0.0123086395
0.019264897
-0.013709915
0.010348991
-0.0034362422
0.02126684
-0.075750574
0.034361266
0.044412162
-0.01135735
-0.011366894
0.004731074
0.025780665
0.007942166
-0.012302328
-0.03514146
0.01692331
-0.059247687
-0.030331986
0.0072146333
0.035782117
-0.0009443405
-0.0107061835
-0.03537508
0.009781123
0.025839144
-0.0053174025
0.022640295
-0.047594458
0.013133047
0.018061072
-0.042325027
-0.013656397
-0.01588223
-0.009475748
-0.06450025
-0.0025112983
-0.015516875
0.005308031
0.011768302
0.009714299
-0.03249939
-0.025874136
0.0054357424
0.009585534
0.037838407
0.030086696
0.002090855
0.049877256
0.03781475
-0.007936227
0.03993832
0.00033891885
0.013117841
0.030066265
-0.056460936
-0.001054963
-0.004684808
-0.02818097
0.0056671374
0.012353653
0.001357689
-0.010752027
-0.028086597
-0.01589241
-0.026077466
0.013000292
-0.003317774
0.0227182
0.017688828
-0.016428193
-0.0231029
0.009068203
0.028309349
0.0885992
0.020597786
0.037643947
-0.014050901
-0.062714994
0.0080731455
0.0459318
0.00102343
0.026463967
-0.03743605
0.016597075
-0.013280087
0.029416127
0.01957264
0.051109735
0.004226877
-0.04659113
0.018379936
-0.0003062551
-0.017183203
0.022318143
0.021099282
0.013618263
-0.013533836
-0.007940287
0.027037393
0.012648645
0.01782815
0.0008093797
0.012657244
-0.023611628
0.0039624004
-0.06797952
-0.033271983
-0.007548955
0.010842081
-0.006763658
0.04516208
0.0036042759
-0.02454252
0.030598054
-0.0001551581
0.0063149054
0.06564776
-0.006566649
-0.014873251
0.02488404
-0.03814152
-0.00033945162
0.0044747484
0.0047972365
-0.014387122
-0.010236395
-0.019975962
-0.026227986
0.00048566388
-0.05041786
0.007908248
-0.016508136
-0.0043737567
0.00242766
0.02083892
-0.047853153
0.0157324
-0.036705542
0.009678605
0.041769043
0.03744171
-0.03784572
0.0036343262
-0.034882825
0.019101718
-0.021036927
-0.045001246
-0.0024950725
0.028152162
-0.015324821
-0.044092227
0.019799508
-0.024401942
0.02337085
-0.028565917
0.022165457
0.03840425
0.0095361965
-0.009493169
-0.03413738
0.004733848
-0.03842013
0.02240785
0.031230653
0.019733671
0.014055078
0.023849174
0.06465495
0.0142252445
-0.015373078
-0.03724835
-0.00683686
0.018713767
0.0397081
-0.050507184
0.029165281
-0.008706628
-0.0011433866
-0.009010376
-0.012603549
0.021524379
-0.035466302
0.018518077
-0.035495352
0.043914
-0.040888157
0.057252016
-0.0398154
-0.028893882
0.004260827
-0.023905167
-0.011266556
0.041952886
-0.061258946
-0.03155683
0.022556284
0.0039723525
-0.030924503
-0.025003666
-0.024639457
0.04647177
0.013644715
0.00031959382
0.06290952
-0.016568135
-0.032632694
-0.019628733
0.016339192
-0.0038403277
-0.0038363533
-0.06530551
0.013762887
-0.026749065
-0.00305132
0.0108318105
0.008950571
0.02332195
-0.013139303
0.021226915
0.031986587
-0.017502768
-0.0056308936
0.03312992
0.044537026
-0.010343747
0.019922042
0.035410255
0.005505564
0.015812272
-0.016088521
-0.021995855
0.014641781
-0.03170611
0.0106716845
-0.0071142996
-0.015243377
-0.015839871
-0.022279182
0.03465547
0.009067693
-0.012300507
-0.028323075
-0.013176291
0.020266704
0.040316645
-0.054188862
-0.016429137
-0.008472126
-0.012207394
0.0054393928
-0.01852524
0.013479571
-0.022492664
0.0014683692
-0.0044918447
-0.03524055
-0.02476119
-0.026327947
-0.0034081922
0.01755013
0.00089473213
0.029802365
0.0072982335
-0.024947302
0.04627682
0.00012064386
0.018401744
-0.032583192
0.005844098
0.0046072057
0.009191903
-0.016858842
0.06813104
-0.03585993
0.0034743035
-0.017376399
0.02249978
-0.0032100242
-0.025142064
-0.0057808165
-0.016335988
0.018750807
-0.0095560495
-0.009920331
0.027035207
-0.008275144
-0.024221258
0.006273491
-0.004393086
0.01844456
-0.022669628
-0.0014076944
-0.017820384
0.009658324
0.020105487
-0.058222294
-0.05232473
0.028108776
-0.004780886
0.034662504
-0.0102101695
-0.00070591073
0.052482907
-0.05883318
-0.012808122
-0.02668579
0.024637572
0.042896785
0.011250339
-0.049194176
0.008095589
0.01417061
-0.016164131
0.0133567015
0.004972151
-0.014137581
0.01306158
-0.0049592378
0.0205125
0.029189229
0.013467135
0.026104534
-0.0026602254
-0.00090978906
0.010126997
-0.010298838
-0.01995163
0.0039536743
0.028348098
0.005189425
-0.071416214
-0.033741336
-0.021101836
-0.045401353
-0.008774301
-0.029412167
-0.031631622
0.049300868
-0.0064193467
-0.025525762
-0.032618806
0.03851984
0.0013940426
-0.018015536
-0.012496338
0.01788775
-0.012612391
-0.0024747278
0.053044546
0.00791457
0.02706443
0.030185197
-0.015008243
-0.0023632639
0.00659108
-0.030033775
0.05872224
-0.070621416
0.0014909336
-0.06016481
-0.026179573
-0.030816654
0.003457172
0.02896629
0.016557338
-0.0024944413
-0.011968529
0.023752999
-0.046847653
-0.024189884
-0.042307828
0.021527998
-0.009902001
0.026168967
-0.01109093
0.027852306
-0.035978545
0.023284024
-0.017656816
0.03481194
-0.014390198
0.0092599625
-0.033801463
-0.011320374
0.01452424
-0.026402434
-0.028983958
-0.035079
-0.012773213
-0.0632975
-0.027720302
0.021326417
-0.033143733
-0.050085437
0.050316785
0.016517533
0.030928487
-0.009521093
0.016648656
-0.022647316
-0.011421365
-0.016455388
0.05258134
-0.004735528
-0.014579392
0.042420015
0.013034473
0.044080988
0.022502609
-0.0019482304
0.01958996
-0.007111201
0.040073637
-0.008866996
0.017338473
0.037087172
-0.023094364
0.028963
-0.0117367925
-0.0014512041
-0.038274776
-0.01720628
0.0066321446
0.060737472
0.004938709
-0.006229918
-0.054470256
0.008838731
0.031776983
-0.00465584
0.03483132
0.0063470174
0.008346841
-0.034535885
-0.049204268
-0.017764084
-0.04745407
-0.028089216
-0.03418102
-0.04528886
-0.07147732
0.028957674
0.023520792
0.06550557
-0.0026796758
-0.015872313
0.0042488463
0.039638985
0.028688328
-0.04428035
-0.0060666506
-0.010959037
0.021523833
0.021765856
0.047977395
-0.010297766
0.009909295
-0.041307703
-0.0031042919
-0.01170051
0.017011235
-0.002312291
-0.05800041
0.027464638
0.024735622
-0.002470174
0.033496786
-0.036157466
-0.021179074
-0.034933724
0.024795363
0.025394568
0.008833664
0.021625772
-0.015613322
0.063806094
0.01725562
0.01294685
0.02100517
0.0020795234
-0.014351279
0.036509763
-0.014912892
-0.0013314328
-0.0030872305
-0.0060050064
-0.020529198
0.022387685
-0.008734672
-0.018817103
0.0025762126
-0.005722919
-0.009895025
0.022722516
0.032860164
0.03643127
0.06985768
-0.012886924
0.028881397
-0.005481349
-0.037259717
-0.008947072
-0.017339965
0.028022164
-0.008583672
0.033780336
-0.009186459
0.0037444578
0.015099163
-0.004571627
0.074198574
-0.018808415
0.017722057
-0.022682335
-0.028880801
-0.00030506306
-0.026224906
-0.0129333325
-0.029735502
-0.0022532304
-0.03457743
-0.06499062
-0.0054889484
0.0558594
0.0038468295
0.07498181
-0.02820304
-0.004167614
-0.029850483
-0.037066355
0.041213833
-0.037875634
-0.010429856
-0.0014635528
-0.00774725
-0.017116465
0.01731415
-0.03233552
0.03634869
-0.014249763
-0.03263984
-0.027246464
0.0054487684
0.015447457
-0.026902981
0.0020534433
-0.00022484624
0.032696646
-0.014388303
-0.006630225
0.03528833
-0.00939926
-0.026136646
0.0043747486
-0.03645394
-0.03922412
0.030627618
0.017286683
-0.016021673
0.006323083
-0.015525767
0.01694879
0.010931854
-0.03297744
-0.031780545
0.024471896
0.02113382
-0.014539552
-0.021295292
-0.041243676
-0.0076794005
-0.02077677
0.03442014
0.0042869216
-0.043947194
0.01583385
-0.02679492
-0.032420892
0.030288164
-0.015044144
0.00342181
-0.022112008
0.012241174
0.02646038
-0.017816449
-0.019686472
0.008047929
-0.012478152
-0.009029892
-0.0129124
-0.062136605
-0.0032904374
0.026813794
0.024897566
-0.004305941
0.006436477
0.011487407
-0.0038315174
0.056764834
0.010293659
-0.0046942867
-0.013146382
0.012453858
-0.023277594
-0.020738615
0.016911173
-0.007073227
0.014807171
-0.023458391
0.016121762
0.0036072081
-0.041155607
0.030326808
-0.0035569498
-0.0025988861
-0.0011372042
-0.020821752
-0.033379637
0.01347867
0.018463194
0.0148252295
-0.017618919
0.007599622
0.06573061
0.0077424366
-0.009080571
-0.001348553
0.030350944
0.034625426
0.047319256
0.010075954
-0.020849487
-0.015039972
-0.0025066417
-0.0074737063
0.00975229
-0.040998533
0.012417675
0.02136964
0.0024910024
0.00010146018
0.025786813
-0.022575079
0.02136068
0.03098292
-0.0070238984
0.02334462
0.026630213
0.017309817
0.046377826
0.03174127
0.030059274
-0.0352547
-0.009923646
0.026104042
-0.007486304
-0.0070587737
-0.011691471
0.04546228
-0.01624582
0.04056701
-0.033494186
-0.025368756
0.007885097
0.051634472
0.027335288
0.018930906
-0.01950024
-0.0025089916
-0.014464783
0.007937359
-0.019575572
0.0066995784
-0.02314012
0.006615829
-0.01681983
-0.025850156
0.047404237
0.0028668663
0.016873116
0.04948026
0.009981606
-0.030277664
-0.033372853
-0.0031290196
0.019383295
-0.011933235
-0.004205568
-0.026516663
0.00580505
0.0039004497
0.017406309
0.045510262
-0.053340394
0.08165311
-0.035503067
0.047021404
0.031760335
-0.028049821
-0.031649765
-0.030932434
0.0038650015
-0.008605081
-0.00788077
-0.042001646
0.01083499
-0.00400571
-0.0009990406
-0.009178903
-0.016924
0.009764944
0.029935751
-0.026603647
0.055210147
0.036793094
-0.02894024
-0.044927217
0.012048196
0.011083497
0.04102565
0.02341944
-0.030202204
0.014882522
0.018790275
-0.0011209898
0.033174675
-0.0035333787
-0.071047336
0.02056899
-0.0044174963
-0.018304275
0.0108689265
-0.013720537
-0.02469789
0.04240748
0.018497234
0.059853774
-0.007863096
0.022684397
0.02375169
0.034272023
-0.024992002
-0.029698057
0.019854369
-0.023460664
0.03725167
-0.027497778
-0.039836172
0.000817558
0.021506887
-0.032577954
0.0030586112
-0.012202732
0.049330026
-0.057050902
-0.007844315
-0.0054348363
0.022763632
-0.045723338
0.04323792
0.03708829
-0.0018491521
0.013265547
-0.012150401
-0.03535919
-0.005287985
-0.025868913
-0.015179985
0.013481877
-0.027897822
0.009526509
-0.034195762
-0.02650842
-0.034739166
0.023963595
-0.038130954
-0.004213376
0.0050727185
0.018890522
0.031443197
0.010154924
-0.033875465
-0.021964345
0.020610925
-0.025860798
-0.06496475
-0.00042541503
0.033345345
0.041144747
0.0065849167
0.0071791857
-0.0348972
-0.013374085
0.0102567775
0.007430873
0.016819553
-0.041881766
-0.0067389053
0.026547955
-0.002072263
-0.0073532215
0.0022624843
0.018977541
-0.02030593
0.040337645
0.04303332
0.031709973
0.023407752
-0.0028754808
-0.03720139
-0.04891186
-0.026270008
0.0273915
0.012500328
-0.020625683
0.061912756
0.030289756
-0.0014319301
-0.009299205
-0.02242204
-0.031610776
0.05758171
-0.02042154
0.0028663292
-0.03881274
0.030802356
0.0346614
0.0034287707
-0.0054947925
0.0094183525
0.030354196
-0.025234535
0.0034688385
0.0023582813
0.014755441
0.048562128
-0.011379759
0.026237937
0.02435928
0.0016672647
0.090628706
0.02968161
-0.021843517
-0.040654477
-0.010423301
-0.058142193
0.06816156
-0.00502554
-0.018935787
-0.01298091
-0.03565346
-0.014224606
0.019649863
0.030408744
0.037048772
0.05054132
-0.004868346
0.0142725175
-0.002993513
0.009176066
0.03160708
0.013740604
-0.017639833
-0.008120076
-0.0046569263
0.01624157
-0.00016388351
-0.012600314
0.0009573437
0.015247769
-0.0067645987
-0.022110365
0.034518227
0.00046579793
0.018430734
-0.012812561
-0.028320916
-0.020343166
0.028034754
-0.00012299912
0.010065366
0.034615364
0.0014023591
0.022474032
0.02811065
-0.022061244
-0.0018703141
-0.010435999
-0.013705542
0.029877491
0.0042532412
0.024017572
0.019524427
0.07211976
0.012557955
-0.008966048
-0.030519625
0.016484005
0.03262812
0.022422725
0.0056637316
-0.030542502
-0.0155550605
-0.046411633
0.030203521
-0.007951316
-0.0075416435
0.013000841
0.036687292
-0.021015337
-0.035184033
-0.0012145193
0.0066067316
0.03509212
0.038184043
0.024429956
0.009130603
-0.025296684
0.0011676553
0.01740905
-0.030949656
0.009552421
-0.03016162
-0.02929869
-0.001373191
-0.022499379
0.057643924
-0.02231161
0.015716674
0.016226482
-0.008538076
-9.4926836e-05
-0.017331183
0.01881371
0.048517
0.007796049
-0.008501644
-0.032993633
0.020198429
-0.024785234
0.02981234
0.008861306
-0.051393013
0.026524998
0.013960755
-0.02719088
0.024831736
-0.0040792758
-0.020132173
0.045470845
-0.0066227824
-0.003833137
0.044640843
-0.010066089
0.023819992
0.019752763
-0.013585304
-0.0047893375
0.025107285
-0.036181442
0.02192765
-0.022176797
0.02712151
-0.0084123975
-0.011354164
0.04045566
-0.024541894
0.0035745867
0.054193366
-0.0007263005
-0.007017544
0.004966418
-0.033324055
0.02389876
-0.016231714
-0.00143764
0.018616686
-0.008433123
0.023359243
-0.03988591
-0.013896731
0.027404195
0.03774329
-0.0076550976
-0.02136103
0.022888387
-0.059690304
-0.0004519817
0.0047590914
-0.01711287
-0.016836712
0.024844006
-0.0081766015
0.011337487
0.0042818994
-0.0039666626
-0.009694225
-0.012744068
0.026511034
0.02423265
-0.005494161
0.050295305
0.033506263
0.020646377
0.033104543
0.056990113
-0.043681357
0.012109526
-0.0009960965
0.027705649
0.011704965
-0.012799095
-0.03505612
-0.03272684
0.04247003
-0.013367844
-0.009620902
0.034049492
-0.012284727
-0.045373905
-0.00021543351
-0.023016708
0.00514109
0.012491537
-0.05013685
0.018709758
0.0061569917
-0.026555186
-0.022411007
0.021064159
-0.0019870326
-0.016359625
0.0061955513
-0.0017780241
-0.020059202
-0.0049031363
0.022222377
-0.033562474
0.01295914
-0.03399559
0.0034452726
-0.009975466
0.008907551
0.082170226
0.021179717
-0.01486745
0.03487442
-0.030599214
0.008356287
0.027049359
-0.001526177
0.0040974524
0.009713133
-0.009261907
-0.024977447
0.0032594686
0.029539159
-0.03572902
-0.05353247
-0.021552889
-0.026521118
-0.0019873132
-0.0017159969
0.04880635
-0.0027795644
-0.044308238
-0.020656025
-0.027606126
0.016645392
0.017856283
-0.0014732709
0.00018527848
-0.00997814
-0.004464422
-0.022472313
0.054363824
-0.0048668734
0.025096398
0.025632342
0.037921924
0.023489667
0.010423372
0.00021415643
-0.041249428
-0.022088533
0.0164454
0.061128575
-0.038211588
0.021369902
-0.003922323
0.013558923
0.026424251
-0.055567563
0.008598999
0.027017588
0.03534124
0.011511282
-0.0076304665
-0.021151531
-0.022554819
0.005246426
-0.0337375
-0.048490513
-0.035823423
0.018302362
0.0019316191
-0.011096364
-0.00811
0.0036719004
-0.030895455
-0.029955655
0.0372779
-0.009187123
0.00043744958
-0.009751751
0.011996493
-0.06841861
-0.0059667593
-0.027860096
-0.008685909
0.06027276
-0.0033855524
0.016132623
0.04817881
0.010546145
0.021159505
0.015480329
-0.00970529
-0.05835229
0.0030917057
-0.005597765
-0.031948052
-0.000121903104
-0.008256987
-0.008632222
0.022573672
0.022268735
-0.003112101
0.07149285
-0.0140924575
-0.0013729234
-0.012398296
-0.004418832
-0.021338353
0.021664597
-0.016352365
-0.010634632
-0.009902963
-0.0041922987
0.008104655
0.001266901
0.015921164
-0.07241153
-0.06883186
0.010748683
-0.015363693
0.014649759
-0.035529334
0.013688042
-0.009065834
-0.04324125
-0.012325812
0.023642069
-0.04674927
0.06716414
-0.005133106
0.009167587
-0.0038863847
-0.011339891
0.013850474
-0.014393119
-0.006222561
0.0012068158
0.012889655
-0.023373906
-0.00519474
0.046725832
-0.012833033
-0.008153844
0.006735544
-0.014706956
-0.025721466
-0.0012340739
0.0347986
0.045993198
0.0128355045
-0.038203962
-0.042925723
-0.022232844
-0.01815475
0.022544045
0.0151428515
-0.007643462
0.024122147
-0.023944926
0.03626889
0.032767463
0.009423173
-0.00043424644
0.013199602
0.017391676
-0.023884485
-0.025870088
-0.013828613
0.008661291
-0.009438808
0.0071608964
-0.0045890887
-0.009012728
0.05942468
-0.023869017
0.04866207
-0.025583053
-0.008334552
0.004438974
0.009580247
0.03448165
0.043985683
0.019394074
-0.056900237
-0.03174307
-0.021981364
0.024691932
0.042955805
0.018049363
-0.019140005
0.010304078
0.017050074
0.008993988
0.035545345
0.0036278397
-0.01160502
-0.05375334
-0.0014898935
0.0046186084
0.035741407
0.015991408
-0.014914875
-0.019071095
0.009172563
-0.021863759
0.012332581
0.0557728
0.004585436
-0.010807534
-0.034221202
0.0272561
0.032018356
0.010437499
0.017866392
-0.03476471
-0.0028933797
0.018832931
0.03397677
0.0017807627
-0.026385447
-0.027977599
0.019257369
-0.0045974143
0.018839588
-0.012586605
0.032034464
-0.0009352803
-0.0045555052
-0.030521834
-0.047935266
0.01174947
-0.0029194865
-0.05560202
-0.012040478
0.04109152
0.008912494
-0.035566084
-0.012900742
-0.06611566
-0.011641558
0.033291243
-0.014280336
-0.050196078
-0.017247438
0.041623864
0.02361625
-0.06319526
-0.00998754
-0.01198042
-0.0070720185
-0.024857953
-0.04859191
0.048955906
0.021644382
-0.0149742495
0.026003242
0.024328686
0.0020108237
-0.043777402
-0.050068676
0.01958097
0.014738262
0.045668464
-0.01923285
0.0152950175
-0.022290163
0.027894305
0.022570243
0.002341048
0.04955373
0.042957444
-0.008091563
0.016476123
0.030007044
0.044255402
-0.0051647713
0.023815408
-0.0112186475
0.008340693
0.002472697
0.021515662
0.0010156374
0.025645599
-0.04861592
0.02041037
0.007733153
0.021367611
-0.0254596
0.0072590793
-0.00039827687
0.019997288
-0.042141765
-0.03540202
-0.06560733
0.012251714
-0.013204971
0.0013039972
-0.013914672
-0.017177181
-0.024794413
-0.006214453
-0.058937658
-0.042438596
-0.0214784
-0.060844116
-0.02233613
-0.032683678
0.016415695
-0.0705824
0.018496688
0.020405348
0.017528603
-0.06513954
-0.023979405
-0.040064767
-0.0423502
-0.03354727
0.028411362
0.03283689
-0.0039027731
0.04963662
-0.045479063
-0.011384468
0.008630385
0.024041055
0.05882599
0.02337573
0.0057852766
-0.010941614
0.03668656
-0.018777896
-0.027679691
-0.0018279838
-0.033636708
0.008478078
0.0013185454
-0.045503482
0.013965504
0.046766773
-0.03788199
-0.015213219
0.014204686
-0.0040954673
-0.027397422
0.03581734
0.009009344
-0.0074049286
-0.022387868
-0.005158698
-0.027674865
-0.04163152
-0.054904815
0.01661758
-0.009046905
-0.043585658
-0.009377007
-0.006866339
0.0472789
-0.028911753
-0.007281448
-0.02643205
0.00076313375
0.013631132
-0.028650539
0.006344663
-0.031471312
-0.017083779
-0.06032655
-0.041487258
0.006644777
-0.0037518218
-0.0017616039
0.017191313
-0.0027136584
0.01069407
-0.005643533
-0.0016906452
0.009073848
0.053395037
-0.022130447
0.06813616
0.047423113
0.013576188
0.011278013
0.028517613
0.049121507
-0.015711438
-0.022764837
-0.023669092
0.0047534094
-0.029566266
0.008828452
0.008744182
-0.030516045
0.014343924
0.0027922657
-0.030060567
0.0061873035
-0.00888701
0.008080423
-0.036430266
0.019152002
0.008948881
-0.026916394
0.007050415
0.035546727
0.011896022
-0.015034088
0.05884505
-0.018891126
0.035801936
-0.013928682
0.0053573116
-0.0012249294
0.08057376
0.003921895
0.022599
0.026465291
0.006850574
-0.039408103
0.05425672
-0.007892345
-0.008670906
0.015397108
-0.028845645
0.033312727
0.019612925
0.0046702283
0.019640032
0.006646196
0.008434447
-0.032134347
0.015718022
0.00023259998
-0.010519152
-0.038003217
-0.0037807135
-0.0036570106
-0.031927597
-0.016318994
-0.015243572
0.03860513
0.011743476
-0.00613316
-0.0030190838
-0.016589109
0.03325694
0.060573287
0.02012544
0.03709218
0.009886727
0.011925092
-0.013254199
0.0009966638
-0.030204419
-0.0034205476
0.021956122
0.031978086
-0.0035297365
0.009242608
-0.017056027
0.009905827
-0.03529516
-0.009470182
0.016151534
-0.0037614289
-0.034074996
-0.0128995655
0.047560792
-0.042259164
-0.031334333
0.024315072
-0.00484773
0.009171912
0.003066705
0.0030337318
0.02005424
-0.004870085
0.021649688
0.0166863
-0.021558555
0.015099921
0.013692451
0.014902312
0.013550933
0.036056925
-0.03840042
-0.018209303
-0.0356794
0.028382113
0.032791376
0.012154462
-0.0037639732
0.026215017
0.010579617
0.0054609994
-0.0023470272
0.02593758
-0.009873123
-0.0032177244
0.0091601005
-0.049960993
0.028754622
0.015447527
-0.020494487
0.005456824
0.06455807
0.0076703224
0.055862553
0.0052903784
0.01281445
-0.004313172
-0.01657058
0.03930067
-0.024527507
0.0286157
-0.011990628
0.011650909
0.031699944
-0.00026934806
-0.022180088
-0.004724198
0.0023629188
0.0016402924
0.026076905
0.038229812
-0.004333181
0.009291673
-0.019099599
0.0149275
-0.0058625303
0.017811652
0.013921158
0.03290795
0.025699427
-0.037563164
0.0054854304
0.017390165
0.0057419413
0.042735126
0.0042711035
-0.005816404
0.027306754
-0.031963874
0.03977098
0.0005597013
0.0007232924
0.03300642
-0.016103836
0.013896065
0.043946818
-0.014513746
-0.01461227
0.00092674285
-0.00076640985
0.018348733
0.016908284
-0.0070065088
-0.011543415
0.0038265272
-0.011695663
0.027685577
-0.0055254158
0.003166601
0.0067224116
0.030718502
0.026859457
-0.015091007
0.049356468
-0.03664236
-0.00023908603
0.027186329
-0.008754176
0.025391234
0.011086953
-0.013371854
0.025152393
-0.00079080736
0.008709006
0.022814166
-0.026647037
0.03982837
0.0036909299
-0.08611331
-0.03392013
-0.016138667
0.04479681
0.035453387
0.00819535
-0.01341632
-0.030982342
-0.0013613801
-0.011600998
-0.03751643
0.010979799
0.014492524
0.029605592
-0.015404184
0.011583169
0.03254681
-0.008667511
-0.028516522
0.015442479
0.017582359
0.0016604835
-0.016646292
0.0007520927
0.023126753
-0.00012990861
-0.0026558267
0.046808228
0.015676662
-0.027755173
0.050480306
-0.014082809
0.0041327546
-0.05374609
0.044452168
-0.001423123
0.068467304
-0.04039633
0.012576029
0.012365493
0.012732767
-0.013278733
-0.009004811
0.020183424
0.0016765293
0.013915055
0.023365213
-0.004631976
0.026964221
-0.02944108
0.03842901
-0.0055879634
0.042452794
0.0068039307
0.03211491
-0.041067496
0.044423334
-0.03026818
-0.00790287
-0.0007898509
-0.027700985
0.025500208
0.02626417
-0.050325662
0.022565996
0.015670676
-0.03381299
0.012771291
0.005361034
-0.023836378
0.0026628722
-0.026562894
0.026347782
-0.03490474
0.0049610143
0.0064687333
-0.03350002
-0.01650726
0.008951139
0.0017365135
0.010131622
0.0031746563
0.032057703
0.01814999
-0.013953481
-0.0057750624
-0.052949972
0.06666603
0.027578235
-0.028921017
0.023924861
-0.006113993
-0.04124435
-0.008163943
0.012818533
0.031253807
-0.0055141444
0.010995928
-0.012495513
0.0385632
0.020574735
-0.045134496
-0.026126474
0.009668384
-0.013423601
0.004005638
-0.04887642
0.0037477622
0.01241092
-0.03095718
0.01568166
-0.013284237
0.02510087
-0.07364968
-0.043293502
-0.028710736
0.018012004
0.00278275
0.022010097
-0.020742813
0.0058993325
0.01438908
-0.032976914
-0.008892294
0.024862949
0.01665654
0.012450021
0.047102835
-0.011101144
-0.008025029
-0.025876516
0.03272604
-0.00782427
0.009979968
0.0049423203
0.010405712
-0.0073205107
-0.02731719
0.035536475
-0.006066304
-0.061088543
-0.00815958
-0.0017952012
-0.031306986
0.024695043
-0.0056158793
-0.030249799
0.028288445
0.020375762
0.079776056
-0.009605807
-0.016097808
-0.014813993
0.024107246
0.009863083
-0.02707531
-0.0115628615
-0.040381264
0.0017352685
0.040368162
0.029365934
-0.04113546
-0.0043429495
0.01268685
0.057724006
-0.031599354
-0.002617938
-0.031237142
0.0014688249
0.022240616
-0.022538729
-0.008735997
0.0007853366
-0.03555164
0.011888258
-0.01403773
0.015148814
-0.018705765
0.032420877
0.005550776
-0.025487216
0.0028504387
-0.009745885
-0.0065229423
-0.043269716
-0.023435326
-0.013904993
-0.046025515
-0.022748394
-0.017271334
0.014895648
-0.066250704
0.02971828
-0.008308093
-0.031722207
-0.024612749
-0.0087104915
-0.029566893
-0.01254772
0.014372025
-0.012581842
-0.006855979
0.01506914
-0.019864433
-0.028140217
-0.010108904
-0.0010935338
0.017896913
0.010332536
0.016002059
-0.024696806
-0.024533117
0.013312204
-0.008398397
-0.0036375944
0.017722363
-0.0023881143
-0.022172991
-0.04195873
0.0005011509
0.030074127
-0.0012402418
-0.03322533
-0.02917812
-0.007626018
-0.01780721
-0.0022395232
-0.0020915943
0.016447602
-0.014247549
0.021225667
0.0106541505
-0.058558602
-0.0036785838
0.030357
0.02597234
0.016986998
0.035221867
0.00291089
-0.055217832
0.015812786
0.009629165
0.07314955
-0.013727839
-0.044576634
-0.032657236
0.025914352
0.008664988
0.03781614
-0.0071249614
0.023099916
-0.004723715
0.028566185
0.008574333
0.031737447
0.03203902
-0.0031029214
-0.0069965557
-0.034759797
-0.0068412386
-0.024404783
-0.011037657
0.030529926
0.001059956
0.0032567244
0.028996395
-0.010877531
-0.0067463038
-0.0049318727
-0.014830066
0.0434474
0.0039737388
0.011360985
0.033446684
-0.05425923
-0.038821552
-0.0011564652
-0.0046055447
0.033425942
-0.020425703
-0.03336113
0.064868495
-0.04100513
-0.039705757
-0.01669217
-0.0020116912
-0.02688
0.010873293
0.014865102
-0.05764578
-0.023335898
-0.01951843
0.0024421196
-0.014543086
-0.010026666
-0.010205875
0.04914632
-0.006435804
-0.04349127
-0.015574593
-0.026548432
0.026630418
-0.017724995
0.025036128
-0.04929476
0.02255195
-0.014105198
0.061346207
-0.009583214
0.0052122376
-0.021682944
0.03045885
0.038781457
-0.039165504
-0.00031956277
-0.010998011
-0.029550726
-0.0067871683
-0.0086588245
0.019229928
-0.028527396
-0.01615193
-0.053669028
-0.014666617
0.051933717
-0.029606922
0.015872534
-0.022481322
0.0023418851
-0.012728465
-0.018946098
-0.032911763
0.06569461
0.044651184
-0.011086097
-0.019867538
-0.0101456875
0.0057617608
-0.0015541859
0.0076399646
-0.049508024
-0.0029482625
0.051665824
-0.008882939
-0.060113564
0.02239391
0.015925212
-0.0070568547
0.006415121
-0.014296484
-0.029387048
-0.021724805
0.007936446
0.049805745
0.0361117
0.043590613
-0.02932083
0.041946333
0.020346208
0.007505527
0.04912997
0.020568607
0.006567932
0.009727311
-0.008461428
-0.0040494935
-0.022316862
-0.020864336
-0.008370364
-0.017567663
0.049341306
-0.012122271
-0.016878398
0.044214524
-0.0020159215
-0.017561736
0.015915507
-0.005971461
0.008266538
-0.015556597
-0.047346946
-0.018766792
0.037044607
-0.0127468165
0.01663775
-0.049171943
-0.010283324
0.0056779124
0.014380763
-0.052383114
0.04996287
0.021933287
0.047520638
0.033186752
0.009659839
-0.0040080976
-0.0037808376
0.035524715
-0.02983434
-0.013171534
-0.004658302
0.02243406
-0.007817271
0.007580922
0.017063998
-0.023706222
-0.018634751
-0.022284226
0.0020081191
0.011988488
-0.041305337
-0.0017318145
0.0097554
-0.019281054
-0.010020307
-0.015648268
-0.025702326
0.00046477147
0.030247772
-0.011069657
-0.026708044
0.05323462
-0.0019740013
0.010003956
-0.014045981
0.029158605
0.007518199
-0.046091754
-0.024008907
-0.026135202
0.0072562047
0.0034486558
-0.023324998
0.011424244
-0.028154353
-0.02070737
-0.0016463567
-0.058559887
0.033860292
0.012846302
0.0041281744
0.026819622
-0.0095210485
-0.007569296
-0.013488272
0.0124199875
0.027002906
0.057803247
0.005565607
0.04515782
0.011099956
-0.022748623
0.021059971
-0.007108518
-0.0046953787
-0.0016787015
0.0073245796
-0.0269286
-0.01696646
0.020641632
0.030542621
0.021479502
-0.027428675
0.008388509
0.048081733
-0.024665156
-0.05248403
0.07150301
0.0024757811
0.015675252
0.053372044
-0.06064099
0.05553075
-0.038642876
0.01374652
0.032813706
0.010823269
-0.014159454
-0.0059759277
-0.027653715
0.017546123
0.005805004
-0.023958141
-0.024583127
0.024659757
0.009984117
0.020306325
-0.0053929635
-0.009961841
-0.004127897
0.004460684
0.023192521
-0.015705558
0.04851175
-0.032340936
0.0063359323
-0.0024817013
0.008196411
-0.025127232
0.0013350142
0.0010452111
-0.018025657
-0.025755135
-0.015009846
0.06580309
-0.010825003
-0.023122264
-0.0064083594
-0.041961953
0.012762913
0.0048491172
0.018056955
0.012164903
0.04475061
0.023486087
0.029985381
-0.02703025
-0.047693975
0.04197129
0.0099932095
0.0054357173
0.053813476
-0.032684777
0.039724298
0.02160963
0.018995963
-0.03609898
-0.012732481
0.008458117
-0.007193018
0.04146368
-0.025838504
-0.041429568
-0.037105385
-0.023620259
-0.03416663
0.004838146
-0.00036864332
0.011496561
-0.027833551
-0.016741883
0.11534759
0.020447385
-0.023524519
0.045935135
0.0082439035
-0.008795954
0.05397933
-0.016572097
-0.020286696
0.009673864
-0.021374453
-0.06659601
-0.05514752
0.02022538
0.0019999621
0.016537616
0.022454709
0.00088901614
0.04545141
0.007812611
-0.03754228
0.058817912
0.021714369
0.0050194515
-0.005437031
0.012029377
0.04703527
0.06174963
0.0024075403
-0.022453018
-0.02369698
-0.010704579
-0.008556854
0.013121855
-0.036255825
0.006007003
0.024094101
-0.0020727315
-0.04241345
0.044056643
-0.0010811221
-0.027444918
-0.052277073
0.027253386
0.016267398
0.00015176985
-0.025020005
0.01241582
-0.020028139
-0.037747752
-0.04865711
0.0038603293
0.04180581
-0.024627035
-0.028973835
0.015380287
-0.04245596
-0.032990966
-0.0072122565
0.030448103
-0.030770212
-0.0061951415
0.023838976
0.004882677
0.012343048
-0.012392023
0.003962945
-0.016794806
0.028266305
0.012766203
0.0025460843
0.016019586
0.010481478
0.019029476
-0.054874253
-0.003356545
-0.016676411
-0.018266413
0.010452527
-0.019595986
0.04294039
-0.038520664
-0.07070634
0.008948178
0.0008320067
0.057339635
-0.017780667
-0.034739725
-0.008196809
0.022385756
-0.011875276
0.03096715
0.002252857
-0.031985465
0.010907671
-0.025624678
-0.00082376396
0.03801218
-0.03955898
0.0005680471
-0.012639028
-0.033462968
-0.04728784
-0.015646037
0.014178832
-0.03934249
0.03437366
0.036445606
0.018437322
-0.0030927132
-0.027725684
-0.0065136463
0.021970907
0.05332781
-0.0018691913
-0.012483728
-0.011325078
0.01209155
-0.007324586
-0.019655995
-0.016913213
-0.03398046
0.05924054
0.011780875
-0.03847342
-0.028362447
-0.07335826
-0.008095411
-0.05022447
0.028089961
0.0067041856
0.022891903
-0.044980112
-0.008831368
0.015566689
0.0081573045
-0.0057312553
0.019744776
0.0090619
-0.027045244
0.0030328315
0.00057837187
-0.055490073
0.016080676
0.049109343
-0.005004508
-0.053341363
0.0051282076
-0.002089932
-0.0037930082
0.04792009
0.009533679
-0.041651364
0.010293056
0.008794039
-0.009405882
0.025750382
-0.052105974
-0.029389495
-0.008661901
0.014583792
0.038199075
-0.000759863
0.00939953
-0.0061055883
-0.018955713
0.06723033
0.012441385
-0.0036083187
-0.010600238
-0.031894293
0.012432994
-0.008747605
0.0041839243
0.0030691226
0.0022617236
-0.023112962
-0.022973508
0.033843916
0.018775286
0.0165575
0.015800148
-0.019604364
0.032407038
0.0004899325
0.03831831
0.01961642
-0.004442129
-0.013332161
-0.051820874
0.0064991727
-0.026514584
0.0072262264
-0.008195805
-0.009786844
0.00930248
0.018656401
0.004261234
-0.058031626
-0.0011323709
0.009328619
-0.012620497
-0.015426827
0.019451065
0.0011749177
0.019565161
-0.0026480304
0.042875238
-0.024342036
0.038256258
0.012822519
0.012282131
0.0068306285
0.023020979
0.01341251
0.011770586
-0.019610466
0.038412202
0.0013734085
-0.008538593
0.025071004
-0.0027866042
0.044644274
-3.6622707e-05
0.013726642
-0.014292722
-0.050536595
0.04508537
-0.017819474
0.002759713
0.0003787748
-0.01829096
-0.004372637
-0.00620465
0.029042307
0.028088361
-0.055667657
0.011288614
-0.0042034215
0.0013775701
0.023058921
-0.010589239
-0.05111311
0.033121493
-0.017118748
0.033885427
-0.020711599
-0.013960865
-0.046184305
0.0032903177
-0.017042708
-0.0018558488
-0.0076943114
-0.05222963
-0.035819042
-0.034987476
0.011765039
0.009419892
0.033817988
-0.051431917
0.029161807
-0.042072073
-0.006587297
0.000657339
-0.0069397776
0.0019608284
-0.006174574
0.0045083934
-0.0040480713
-0.017294535
-0.04184537
0.02611992
0.022766128
0.07753245
0.013384302
0.04382103
0.06366419
0.0018960043
-0.026074495
0.0044801477
0.045302305
-0.0154833095
-0.012624626
0.03291315
0.009624216
-0.009977256
0.066464745
-0.0012515509
-0.02860758
0.002332594
-0.0281227
0.0197759
0.023214549
-0.007006694
0.0065517602
0.018162746
-0.027790967
0.006967283
-0.0030004208
-0.010035027
0.010299853
-0.020993244
-0.02350413
-0.005410689
0.006503378
-0.0030540416
-0.0348019
0.0051195687
-0.064575024
-0.016141078
0.0034169157
-0.02383951
0.016736636
-0.010041779
-0.029919224
-0.017225863
-0.0036665834
-0.055955708
0.0037997093
-0.04300653
-0.053188946
-0.010930146
0.02241224
0.027288588
0.00042113918
-0.023427604
0.00243115
-0.0026448513
-0.0033997316
0.031104531
0.029274175
-0.013474573
-0.027539663
0.04452337
0.0129589625
-0.01210855
0.00047754974
-0.020929052
0.031673677
0.010259652
0.033253882
0.019762332
-0.02574336
0.017112063
0.016684748
0.016864875
0.046341147
-0.013538741
-0.01875362
0.044682767
-0.021069607
0.032656852
-0.036054205
-0.034485783
0.009746817
0.0022240265
-0.026839213
-0.05145908
-0.024614515
0.043137554
-0.00039950965
0.028799567
-0.01640385
-0.032812923
0.023241932
-0.0014186956
-0.0059169503
0.02425205
0.02676394
-0.01223516
0.014705216
-0.038724788
0.040477518
0.029979805
-0.030634867
-0.03640221
-0.009688218
0.013454833
-0.1110549
-0.014949136
0.01700122
0.028742194
-0.029472232
-0.029679375
-0.0081828665
0.038751278
-0.024756102
0.04206329
-0.0009260038
-0.04686956
0.026373507
0.014901519
0.013275329
-0.023663145
-0.03520083
-0.009678868
-0.030627182
0.03145969
0.029043874
-0.02077865
-0.04010401
-0.0053156833
0.015995488
0.028091975
-0.028322019
0.021893065
-0.012714224
0.046977133
-0.020241193
-0.020603498
0.010528458
-0.0057031545
-0.04806052
0.015261215
0.03701368
-0.0044371765
-0.029893197
0.06249763
0.00052757864
0.04113512
-0.015217836
-0.013536036
-0.05016658
-0.0246871
0.04390628
-0.0009295568
-0.049928702
-0.020805564
-0.016968647
-0.019231224
-0.024075815
-0.0012215391
-0.051040027
0.015470902
0.009143104
0.0024069566
-0.011354633
0.007591125
0.053229623
0.07096141
0.027130425
-0.017547337
-0.042520314
-0.0046021366
-0.036712818
0.041209865
-0.04853574
-0.024715962
0.009393622
0.009289118
0.012195306
0.025001282
0.027225548
0.06598554
-0.02665006
-0.026429694
0.034707375
0.010451036
0.021601556
0.007130547
-0.04248528
0.05212025
0.02051641
