-2.566464245319366455e-01
2.256309539079666138e-01
-2.815180718898773193e-01
4.265636950731277466e-02
4.060695767402648926e-01
-1.200088858604431152e-01
1.521669477224349976e-01
3.443914949893951416e-01
-5.082234144210815430e-01
1.461678296327590942e-01
2.097813226282596588e-02
2.435310184955596924e-01
1.191962808370590210e-01
2.945657670497894287e-01
3.417948782444000244e-01
-7.472016662359237671e-02
4.386747777462005615e-01
4.525623619556427002e-01
5.495184287428855896e-02
4.341634213924407959e-01
-4.890300333499908447e-02
1.554675996303558350e-01
2.077801823616027832e-01
1.699932366609573364e-01
-2.929050028324127197e-01
9.158866852521896362e-02
1.272492408752441406e-01
2.823670506477355957e-01
2.789421975612640381e-01
1.932812482118606567e-02
-8.388298004865646362e-02
3.608900308609008789e-01
-1.576214097440242767e-02
-3.498407900333404541e-01
2.300060689449310303e-01
2.594880461692810059e-01
4.430840909481048584e-01
-1.250029206275939941e-01
-8.756987750530242920e-02
3.201376795768737793e-01
9.445394575595855713e-02
2.618911862373352051e-01
-1.430373489856719971e-01
1.964326351881027222e-01
3.513361513614654541e-01
2.726626992225646973e-01
4.659379422664642334e-01
2.135982811450958252e-01
1.291918903589248657e-01
9.356965869665145874e-02
2.218483239412307739e-01
1.138978824019432068e-01
-1.348100695759057999e-02
-2.319455891847610474e-02
1.929960250854492188e-01
-3.299584686756134033e-01
2.958129942417144775e-01
3.498286008834838867e-01
1.373648792505264282e-01
1.376549601554870605e-01
3.383800089359283447e-01
2.127813100814819336e-01
1.563303917646408081e-01
1.154669001698493958e-02
