-1.118635851889848709e-02
-5.716536566615104675e-02
-4.005385935306549072e-01
4.284451529383659363e-02
1.567231416702270508e-01
8.871970772743225098e-01
6.808030009269714355e-01
2.580397427082061768e-01
1.105235815048217773e-01
2.890834510326385498e-01
-1.479800511151552200e-02
3.579895198345184326e-01
4.350357353687286377e-01
-1.577629446983337402e-01
-8.789604157209396362e-02
2.216893583536148071e-01
7.351980805397033691e-01
3.380510807037353516e-01
2.172951251268386841e-01
3.948647677898406982e-01
-2.297593979164958000e-03
1.155987977981567383e-01
4.978605210781097412e-01
6.201190948486328125e-01
-5.689407587051391602e-01
-2.315288037061691284e-01
-6.280031800270080566e-01
4.600105881690979004e-01
2.547288239002227783e-01
5.962548851966857910e-01
-4.735790938138961792e-02
-5.305932834744453430e-02
3.533345162868499756e-01
-7.185883074998855591e-02
4.134726226329803467e-01
-4.792109727859497070e-01
1.412186175584793091e-01
-8.927623927593231201e-02
6.042765453457832336e-02
-7.313585228985175490e-05
1.549971252679824829e-01
6.649434566497802734e-01
1.675740629434585571e-01
6.098942756652832031e-01
3.444805741310119629e-01
