0.006099
0.045135
0.001728
-0.006030
-0.047646
0.029182
0.037549
-0.040671
-0.038331
-0.045436
0.016465
0.021697
-0.042914
-0.031556
-0.005623
-0.000222
0.033465
-0.000962
-0.027074
-0.018286
0.046179
-0.023691
-0.024847
-0.006564
-0.044645
0.041226
-0.012107
0.022130
0.005620
-0.038967
-0.043435
0.027533
0.010468
-0.029242
0.030736
0.035070
-0.046135
-0.041038
-0.010660
-0.018433
-0.034320
-0.031367
-0.017697
0.008848
-0.013362
0.022691
0.038908
0.024870
0.023149
0.021370
0.037384
-0.006912
0.047564
-0.000540
0.013114
0.046843
0.043065
0.023572
0.015145
-0.046247
0.015084
-0.046625
-0.003679
0.002055
0.041795
-0.021644
0.022608
0.037207
-0.047599
-0.043297
0.009527
-0.011286
0.033708
-0.005300
0.035685
0.044783
-0.001592
-0.003138
0.036585
0.017928
-0.036563
0.019399
0.009767
-0.000895
0.004292
-0.007170
-0.000149
0.025967
0.010514
0.022720
-0.048059
0.004615
-0.034661
0.001519
-0.044575
0.014544
-0.045521
-0.043555
-0.021234
0.024419
0.020024
0.037323
0.009228
-0.012461
-0.019370
0.019031
0.018544
0.009566
-0.039966
-0.018348
0.012374
-0.010542
-0.017609
0.001441
0.013462
0.030929
-0.008579
0.016549
0.016434
0.033692
-0.012486
-0.014685
-0.012664
-0.014173
-0.047921
-0.014913
-0.036879
0.042648
0.011217
-0.038497
0.016984
0.000093
0.028718
-0.004654
-0.009526
-0.012666
-0.014751
-0.041056
-0.032481
0.019619
-0.006894
0.039523
-0.041850
-0.026849
-0.003787
-0.031778
-0.006798
-0.027562
-0.011921
-0.011927
-0.019456
0.038236
-0.004636
0.035784
-0.012019
0.035579
0.034290
-0.037256
0.031732
0.029294
0.022772
-0.000643
0.044008
-0.033404
-0.024484
-0.038245
0.017226
0.040456
-0.012287
-0.016850
0.017760
0.043977
0.014698
0.007636
-0.043854
-0.041381
-0.017377
0.044455
0.023059
-0.042173
0.016371
0.033600
0.031242
-0.004021
-0.023889
-0.041784
0.026065
-0.007746
-0.042795
-0.011848
-0.033703
0.021183
0.010605
-0.045484
0.021727
0.018789
-0.007369
0.037327
0.046627
0.014446
0.035906
-0.008729
0.044125
-0.008844
-0.026695
0.016519
0.026786
0.025847
-0.014895
-0.018468
0.002181
-0.039345
-0.001079
-0.042009
-0.014382
0.028589
0.018844
-0.013487
-0.012292
0.036798
0.016925
-0.024023
-0.026569
0.000578
0.030525
0.004510
0.001795
0.016787
-0.026529
-0.019050
-0.035071
-0.029192
0.041138
0.035125
-0.006447
0.003934
-0.047170
-0.040409
0.047810
-0.044743
0.034997
0.043628
0.039522
-0.005665
-0.023504
-0.042623
-0.020779
-0.000494
0.022858
-0.025348
0.006254
0.014274
0.008672
0.037880
-0.028718
0.019931
0.027104
-0.007379
0.017784
-0.031752
0.009518
-0.025909
-0.017799
0.004416
0.000365
0.032095
0.030717
-0.025486
0.006742
-0.039830
0.044420
0.022345
-0.037351
-0.029516
0.047580
-0.010686
-0.021871
-0.004284
0.002044
-0.023088
-0.046814
0.014648
-0.028359
-0.040622
-0.043637
-0.010165
-0.046534
0.039067
-0.027233
0.038750
-0.007633
0.008521
-0.032989
-0.046470
0.040559
-0.010181
0.034165
-0.004788
0.040469
-0.046874
-0.043707
0.009437
0.013768
0.028330
-0.035831
0.045680
0.033476
-0.040074
-0.012222
0.004247
0.026569
0.013864
0.016808
-0.027166
-0.019282
0.017341
0.004001
-0.025812
0.014571
-0.005417
-0.042253
-0.014171
-0.029694
0.001301
0.048064
0.007996
-0.026461
0.047365
0.005901
-0.028052
0.005101
0.047497
-0.017891
-0.046073
0.023454
0.047538
-0.013265
-0.044778
0.006260
-0.039503
0.020879
-0.030098
0.011258
0.035237
0.008390
0.045196
-0.017899
-0.043909
0.035335
0.034129
0.018955
-0.027614
-0.000096
0.016626
0.017197
-0.045730
0.023386
-0.008053
-0.010232
0.004968
0.023951
-0.031576
-0.047306
-0.005482
-0.004201
-0.039433
-0.038129
-0.026951
0.028233
-0.010977
0.018851
0.037305
-0.014301
0.034487
0.015568
0.008024
-0.042921
0.040257
0.002836
0.006257
0.003734
0.042234
0.000419
0.018749
-0.016091
-0.043986
-0.010471
0.001322
-0.013761
0.013964
-0.036478
-0.005464
0.006864
-0.005969
-0.023617
0.024741
-0.024222
0.010052
-0.013224
-0.026521
-0.007245
0.006733
-0.026977
-0.026471
-0.022918
0.041118
0.021327
-0.045256
0.004702
0.026107
0.014609
-0.027571
0.012259
0.043883
0.009243
0.022459
-0.004658
-0.011824
-0.001328
0.044109
0.002013
0.029948
0.005105
0.005554
-0.023173
-0.038694
0.015762
0.046455
-0.016925
-0.036435
-0.020017
-0.029500
0.004173
0.031991
0.037640
-0.001890
0.024660
-0.033324
-0.016825
0.004752
-0.006634
-0.039685
-0.015535
-0.003833
-0.039650
-0.036889
-0.029485
-0.026787
0.035470
0.017664
-0.044814
0.042693
0.036379
-0.045649
0.017027
-0.032345
-0.045953
0.044140
0.016063
0.040493
-0.003343
0.008537
-0.034374
-0.004896
0.004901
-0.013704
-0.029026
0.027751
-0.035523
0.009977
0.029058
0.023656
0.006977
-0.014694
-0.047494
-0.000774
-0.029689
0.022068
0.027002
-0.045337
-0.043432
0.046986
0.006943
-0.007195
0.004870
0.024209
-0.022908
0.042197
-0.037941
-0.024179
0.026887
0.045686
-0.033346
-0.033522
0.016708
-0.027616
0.037815
-0.002358
-0.034590
0.024795
-0.041047
-0.002310
-0.033395
-0.030312
-0.010477
-0.043203
-0.017441
0.001762
0.030934
-0.010035
0.010923
0.034857
-0.003003
-0.005694
0.004707
0.043559
0.009649
0.035785
0.016229
-0.020114
-0.024350
0.020225
-0.020986
-0.001715
0.025301
0.040024
-0.037439
0.029922
-0.023801
-0.018863
0.020958
0.017376
0.009032
-0.041099
-0.028716
0.005446
-0.016101
-0.033212
-0.047332
0.001266
0.032838
-0.036480
0.016000
-0.043914
0.008731
0.040332
-0.041923
-0.004995
-0.001675
0.008710
-0.010116
-0.026112
0.028510
-0.031372
-0.023438
0.047512
-0.015791
0.044257
0.012943
-0.037368
-0.046333
-0.003851
-0.035082
-0.025828
0.030189
0.041529
0.024902
-0.016801
0.033054
0.005399
0.010272
0.001370
-0.006893
0.020206
0.022618
0.009619
-0.027335
0.036563
0.046014
-0.037846
0.020644
-0.032727
-0.047500
-0.008034
-0.034238
0.035477
-0.015168
0.032190
0.036230
0.021641
-0.034421
0.003160
-0.035002
-0.004386
0.019726
0.014826
-0.010738
0.000678
0.004886
0.002000
-0.007734
0.040839
0.030915
-0.025673
0.001927
-0.037091
0.026642
0.034028
0.012501
-0.039908
-0.005768
-0.031662
0.046989
-0.043076
-0.040670
0.027240
-0.005403
-0.006481
-0.038541
-0.027447
-0.025178
-0.015850
0.023046
0.024922
-0.043336
0.043205
0.035372
-0.030091
0.034084
-0.023264
-0.041215
-0.035185
0.016561
-0.046960
-0.017705
0.024506
0.028468
0.012859
-0.017315
-0.020801
-0.026566
0.023230
-0.018729
0.009916
-0.013386
0.014216
-0.016283
0.015658
0.032774
-0.017057
0.042006
-0.007151
-0.041860
0.005302
0.001142
0.032902
-0.006347
-0.004382
0.008364
-0.016171
-0.006552
0.014805
0.002038
-0.012118
-0.036259
-0.003707
-0.045963
0.020292
-0.029641
-0.019294
-0.002567
0.014594
-0.031569
0.040769
-0.011466
0.005238
0.005714
-0.017617
-0.018644
-0.017076
0.032267
-0.034706
0.027720
0.032188
0.039707
-0.034921
-0.021335
0.037049
-0.008013
0.000834
-0.038180
0.007144
0.038236
0.006531
-0.018906
-0.036842
-0.040537
0.033248
0.002124
0.002438
-0.025289
0.003878
0.003264
0.047809
-0.022219
0.016530
-0.023338
0.001669
-0.013603
-0.044727
0.011153
-0.045936
0.015257
0.035685
0.035006
0.006164
0.000019
-0.034432
-0.006083
0.039993
0.003318
-0.006935
-0.046279
-0.006662
-0.015665
0.011728
-0.034705
0.008143
0.017708
0.026615
-0.016111
-0.037885
0.010901
-0.019699
0.027298
-0.001716
0.026887
0.047331
0.017078
0.011719
-0.030150
-0.037667
-0.001928
-0.037584
-0.007104
-0.011651
-0.002987
0.040198
0.004028
-0.025156
-0.046744
-0.012931
-0.036998
-0.031447
0.025701
-0.013307
0.029540
-0.014327
0.015427
0.040789
-0.021040
-0.007747
0.043571
-0.044434
-0.001347
-0.002549
-0.019412
0.026417
-0.036693
-0.013106
-0.019293
0.024719
-0.012775
0.005381
0.029809
0.037656
-0.041137
-0.030137
0.027933
-0.038858
0.008482
-0.008077
-0.028286
0.008102
-0.009137
-0.028712
-0.024144
0.047464
-0.046039
-0.008859
0.044689
0.002759
0.034409
0.038681
0.001923
-0.011047
0.000785
0.002926
-0.034072
0.017058
-0.041422
0.023031
0.015751
-0.004156
0.045263
0.023477
-0.018864
0.024912
-0.001310
-0.009293
0.042375
-0.035921
0.028787
-0.031759
0.010783
0.031444
-0.043221
-0.042428
-0.041125
0.040530
0.033467
-0.041869
-0.015863
0.009959
0.022307
0.039155
-0.008431
-0.000006
0.014504
0.037997
-0.036438
-0.034963
-0.022677
-0.021940
-0.026138
0.001575
0.007185
-0.034018
0.008330
0.045353
0.006897
0.033007
-0.019424
-0.028430
-0.003191
0.004497
0.032392
-0.042436
-0.034450
0.015304
-0.030655
0.041911
0.009557
0.030495
-0.048111
-0.025356
0.018068
0.023803
-0.044621
-0.034097
0.033621
0.003502
-0.028055
-0.025634
0.012037
0.011037
0.016414
0.006805
-0.038068
-0.017785
0.033627
-0.045638
-0.040531
0.004132
0.045030
-0.027637
-0.016963
0.016364
0.005014
-0.016680
-0.011464
0.000228
-0.036100
0.027790
0.024841
-0.044759
-0.006232
-0.008260
-0.016601
-0.026498
-0.034247
0.008567
0.028846
0.030959
-0.010156
-0.013295
0.037645
0.031337
-0.047213
-0.019623
-0.007171
0.040367
-0.036382
-0.045408
-0.016286
0.014383
-0.018914
-0.004841
-0.029714
0.022291
-0.002847
0.046860
-0.040069
0.035371
0.022710
0.043566
0.020969
0.028570
-0.042502
-0.036187
-0.001107
0.025453
0.005879
0.013027
0.023221
-0.022750
0.041931
-0.028380
-0.008028
0.047960
0.012838
-0.005549
0.032247
0.010646
-0.047501
0.035535
-0.039178
-0.020528
0.004262
-0.009680
0.034220
-0.043128
-0.041532
-0.034591
0.001628
-0.012350
-0.008385
0.021640
0.040762
-0.006668
0.008712
0.038996
0.003411
-0.005118
0.011328
-0.038538
-0.036131
0.035499
-0.029265
0.017357
-0.020350
-0.020307
-0.012897
-0.042878
0.004601
0.035635
0.006038
0.047261
0.039998
-0.001490
-0.045006
-0.042128
-0.036924
-0.011670
0.001028
0.017024
-0.016956
0.025163
0.032285
-0.016235
0.047268
-0.003324
0.034326
-0.017891
-0.025425
0.032273
-0.043896
0.010874
0.019549
-0.004338
0.013282
-0.044736
-0.014181
0.036812
-0.023900
-0.011108
0.005941
0.007860
0.030807
0.025244
-0.027776
0.021568
-0.009128
-0.008244
-0.019747
-0.030510
0.023884
0.012410
-0.043270
0.016206
0.019980
-0.027210
0.010717
0.034986
0.044736
-0.011607
0.026044
0.005228
-0.010623
0.033680
0.042315
0.026394
0.032907
0.018234
0.041969
-0.033427
-0.043773
-0.000599
0.023791
-0.010665
-0.026811
0.044397
0.023361
0.038123
0.003833
-0.045794
0.003424
-0.006142
-0.045332
-0.013177
0.039055
-0.029163
0.023428
-0.014007
0.035435
-0.001059
-0.048031
-0.010894
-0.009750
0.000190
0.024405
-0.043640
-0.015610
-0.020923
0.009426
0.041391
0.002379
0.036866
0.007610
0.002554
0.000642
-0.013883
0.004299
0.000429
-0.045568
-0.014179
0.016820
-0.009913
-0.044944
-0.021445
-0.017436
-0.008987
-0.028975
-0.027554
-0.039466
-0.023328
-0.005155
-0.021637
-0.045882
0.044595
-0.041379
0.004789
-0.001391
0.001256
0.007025
0.039149
0.047005
0.023528
-0.019079
-0.038081
0.033860
-0.047178
-0.038929
0.031928
0.031065
-0.044797
-0.013868
0.002913
0.017701
-0.015124
0.020941
-0.030034
-0.042928
-0.001691
-0.022930
0.023879
0.013205
-0.033954
0.040838
0.047097
0.023491
-0.037891
0.034770
0.023778
0.044207
-0.030343
-0.027616
-0.038214
0.014145
-0.028835
0.023493
0.030440
0.039443
-0.032382
0.013347
0.025477
0.039127
0.023213
-0.011314
-0.021192
0.005067
-0.008923
-0.048059
-0.015067
-0.000772
0.041714
0.015771
-0.020648
-0.046587
-0.025749
0.047634
0.011486
0.038836
-0.045238
0.036230
-0.001014
-0.024204
0.009670
-0.014638
0.035306
0.033479
-0.013980
-0.019341
-0.032978
-0.013646
-0.010652
-0.041571
0.005808
0.028786
0.025279
-0.043656
0.044651
-0.017963
-0.042396
-0.024636
-0.016270
-0.031409
0.006842
0.042766
-0.001382
-0.004153
-0.006678
-0.024809
0.003885
-0.047338
0.040811
0.039382
0.001487
0.019226
0.006621
-0.023084
0.026008
-0.047652
0.027243
0.016749
0.047967
0.028510
0.027326
-0.022245
0.013362
-0.045562
-0.037787
-0.003185
-0.038576
0.018532
-0.000516
-0.023819
-0.035994
-0.005013
-0.004753
0.026148
0.000904
-0.010945
-0.047137
-0.005711
-0.012986
-0.031755
-0.028670
0.031038
-0.033284
0.025636
0.006640
0.009349
0.009960
0.044689
0.043206
-0.005464
0.016497
-0.035373
-0.019680
-0.046351
-0.022370
0.026992
0.018926
0.046461
0.012682
-0.017086
0.002607
-0.042637
-0.040527
-0.034725
-0.011080
-0.005030
0.020670
-0.018960
-0.014493
-0.005711
0.001219
0.002241
-0.040579
0.022143
-0.002380
-0.037736
-0.013648
-0.047827
0.014544
0.004664
0.006054
0.024511
-0.012213
0.005839
-0.039003
-0.046136
-0.045952
-0.029384
-0.007411
-0.018671
-0.002415
-0.029273
0.030939
-0.018869
-0.043055
0.044884
-0.005513
0.005455
-0.000437
0.037324
-0.005830
0.004968
-0.018551
0.006195
-0.033978
0.006214
-0.000046
-0.020711
-0.044886
-0.002375
-0.041852
-0.027000
-0.026175
-0.000265
-0.012499
0.013615
-0.021167
0.041190
0.004632
0.000506
-0.038536
0.031161
-0.033379
-0.014391
0.037685
-0.031159
-0.005348
0.008296
-0.003582
0.017592
0.029940
0.016317
0.029424
0.012749
-0.007235
0.001557
-0.021140
-0.028573
-0.029678
-0.010981
-0.029008
-0.044435
0.038531
-0.002007
-0.030339
0.013007
-0.035581
-0.035038
0.043966
-0.033877
0.002165
-0.037372
-0.023567
-0.024747
0.045526
0.039312
-0.007107
0.040326
-0.042304
0.023994
0.025475
0.011222
0.012142
-0.039187
-0.031298
-0.026497
0.024035
0.029948
0.032200
-0.003738
0.001818
-0.001587
-0.003243
0.043174
0.030497
0.013939
0.040416
0.026921
-0.029085
-0.027327
-0.006016
0.026883
-0.015455
-0.017507
-0.031840
0.013238
0.017433
0.043502
-0.041060
0.003502
-0.038962
0.015546
0.015845
-0.039772
-0.033495
-0.017742
-0.019824
-0.011083
-0.039537
-0.027062
0.019961
-0.032100
0.001870
-0.005070
-0.028214
0.005017
0.023350
-0.031771
0.037001
0.033016
0.015203
-0.041000
-0.000098
0.033638
-0.035205
-0.038993
0.032849
0.000700
0.034657
0.036458
-0.010367
-0.004249
0.036220
0.005051
-0.026759
0.006141
-0.038408
-0.030984
0.023163
0.031162
0.021776
0.035215
0.009382
-0.040449
0.032638
-0.022364
-0.047687
0.037400
-0.035592
0.037206
-0.007526
-0.028345
-0.017171
0.033778
-0.035254
0.015590
-0.021998
-0.024983
0.024793
-0.040897
-0.005739
0.020202
0.025326
0.037141
-0.042693
0.010664
-0.015518
-0.029234
0.014515
-0.025310
-0.011557
0.004442
-0.037306
-0.047023
-0.018758
0.038988
-0.032685
0.037315
-0.047839
-0.036089
-0.024516
-0.030547
-0.024884
-0.042199
-0.013516
-0.030677
0.034688
-0.027319
-0.000548
0.038430
0.000976
-0.010992
-0.020819
0.047630
0.020107
-0.042773
0.003940
0.028517
0.018792
-0.032053
-0.009453
-0.015039
-0.047149
-0.016724
-0.011646
0.047681
-0.029576
0.026174
-0.041276
-0.006202
-0.030821
0.005899
0.013246
0.000329
-0.035624
-0.023722
-0.044203
0.003871
-0.031186
-0.006308
-0.019031
0.046494
-0.025084
-0.000530
-0.012715
-0.007616
-0.041217
-0.009087
0.020305
0.010522
-0.015801
0.031428
0.016129
0.029803
-0.027897
0.043412
0.039166
0.009632
0.038511
0.032995
0.008359
0.044539
0.028714
-0.031241
0.043946
-0.047374
-0.012991
0.026018
0.042366
-0.025998
-0.045949
-0.034442
0.031991
-0.015369
-0.025900
0.026995
-0.013075
-0.023807
0.008962
0.009481
-0.041277
0.016624
0.017683
-0.045866
-0.002529
0.047145
0.040690
-0.020517
0.018207
-0.013597
0.037339
-0.003591
0.007914
-0.020326
-0.036252
-0.011848
-0.028535
-0.012867
0.021279
-0.007993
0.017975
-0.029609
0.027479
-0.024960
-0.002359
-0.022527
-0.016453
0.023631
0.034789
0.000604
-0.040015
-0.002088
-0.035418
0.002260
0.030138
0.023679
-0.006133
0.015937
-0.034169
-0.041169
-0.044618
0.044015
0.030173
-0.029225
-0.016773
0.019040
-0.000862
0.001650
-0.029316
0.016904
-0.030269
0.040211
0.028911
0.046033
0.018613
-0.025081
0.046272
-0.007664
-0.024545
0.014895
0.025568
-0.019770
-0.028352
-0.024807
-0.041487
-0.040601
0.032580
0.015510
0.041771
-0.022679
-0.011657
-0.044843
-0.012598
0.019681
0.012950
-0.000801
0.013095
-0.011043
-0.033379
-0.011488
0.030612
-0.012659
-0.010987
0.041111
0.019397
-0.017453
-0.010079
-0.014700
-0.000723
-0.023145
-0.029297
-0.008311
0.030849
0.003058
0.000619
-0.011450
-0.017199
-0.015548
-0.008059
-0.001695
0.028639
-0.010185
0.035363
0.006378
0.028165
0.016591
0.010377
-0.019803
0.012092
-0.041367
0.044849
0.028084
0.008144
0.001094
-0.021181
0.047316
-0.001550
-0.005974
-0.039561
-0.018690
-0.014253
-0.046579
-0.002279
0.045182
-0.040562
0.034181
0.033820
0.037176
0.042148
0.008139
-0.021126
-0.047045
-0.048003
0.042135
0.045477
-0.047503
0.026473
0.041772
0.036529
-0.028479
-0.023615
-0.031487
0.021118
0.016018
0.029522
0.018873
0.038549
0.040922
-0.009590
-0.018798
-0.043013
-0.037053
-0.023718
-0.002419
-0.037772
-0.008698
-0.032198
-0.010566
0.009202
0.011596
0.032710
-0.024921
-0.045919
-0.010797
-0.020437
0.030884
0.042552
-0.006199
-0.038569
0.021992
-0.010759
0.032267
-0.045811
0.039842
-0.038383
0.003838
0.009638
0.030549
-0.025813
-0.025577
0.015679
-0.039279
-0.008606
0.028168
0.020820
0.017192
0.013230
0.033014
0.034066
0.027974
-0.006665
-0.027689
-0.011060
0.022899
0.009503
0.038056
-0.019507
0.026704
-0.017312
0.031759
-0.011584
0.043535
0.029049
0.029970
-0.008185
0.026128
0.043959
0.026251
-0.046392
0.036886
-0.045743
0.026824
-0.032414
-0.009048
0.019570
0.005702
-0.039457
-0.022146
0.023336
0.034749
0.043279
0.006589
0.018735
-0.001739
0.003519
-0.030192
-0.039650
0.006330
-0.001560
-0.027966
-0.016577
0.039528
0.017223
-0.028204
-0.024742
-0.026152
-0.024786
-0.035687
-0.007480
0.046566
0.016555
-0.009340
0.034488
-0.042328
0.005752
-0.007243
-0.030327
0.006402
0.022742
0.036539
-0.004637
-0.027017
-0.016380
0.021271
-0.001485
0.019824
-0.004325
-0.036894
0.003990
0.020062
-0.035208
-0.039743
0.034461
0.034688
0.047130
-0.028986
0.041062
-0.011643
-0.031616
0.035660
-0.037416
-0.010552
-0.019063
-0.031499
-0.046537
-0.014821
0.031598
-0.043497
0.023293
0.023173
-0.022538
-0.038126
0.005595
-0.044986
0.032792
0.027550
0.034168
0.040373
-0.030103
-0.023645
-0.044945
-0.019083
0.006327
-0.038213
0.020512
0.004812
0.029907
-0.042900
-0.008424
0.043036
0.001059
-0.037306
0.017405
0.014300
0.019808
-0.018249
0.041217
-0.009978
-0.013387
-0.004745
-0.023331
-0.002498
0.040107
-0.038288
-0.037998
0.033754
-0.005551
0.010563
-0.047675
-0.025704
-0.010343
-0.043135
-0.042463
0.011070
-0.034466
0.043001
0.012266
-0.047838
0.016219
-0.030131
-0.011743
0.045466
-0.009616
0.018441
0.015185
0.010980
0.025615
0.038975
-0.027647
0.002182
-0.037595
-0.031862
0.012604
0.037142
0.020189
-0.001841
0.004150
-0.035211
-0.042665
0.041130
-0.047733
0.040879
0.005710
-0.007583
0.042768
0.006763
-0.036749
0.046830
-0.011382
-0.012342
0.005559
0.001583
0.019177
-0.014704
0.038139
-0.040935
0.040935
0.045644
0.026250
-0.000110
-0.013472
-0.032581
-0.025771
-0.022185
0.041321
-0.034273
-0.007659
-0.000746
-0.001921
-0.024408
0.032182
0.033122
-0.047971
-0.040721
0.010503
-0.013649
0.005971
-0.018456
0.003564
0.000510
-0.043394
0.017138
0.017062
-0.042398
-0.019415
-0.007347
0.044720
-0.032733
0.013796
-0.029997
0.018273
-0.017783
-0.002317
-0.016147
0.042298
-0.041142
-0.011043
0.045514
0.015058
0.021736
-0.042056
0.009740
0.022204
0.033570
0.029135
0.038117
-0.040999
0.046711
-0.009852
0.025928
0.039052
-0.009743
-0.045106
-0.003067
-0.011020
0.007631
-0.030430
-0.035781
-0.033987
0.028079
0.047490
-0.010015
-0.032790
0.027832
-0.020603
0.037007
-0.002506
-0.044823
0.035964
-0.043864
0.027342
-0.041302
0.001546
-0.024391
-0.022076
0.046426
0.024458
-0.040793
0.013816
-0.022247
-0.010238
0.037931
-0.013276
-0.008464
-0.010846
-0.008895
-0.041077
0.017522
-0.019966
-0.035090
-0.005018
0.031132
-0.038420
-0.012450
-0.019248
-0.037034
-0.015378
-0.016963
-0.016095
-0.005802
0.013295
-0.021890
0.031321
-0.039920
0.008197
-0.033209
-0.020045
-0.001813
-0.013775
0.010516
0.018117
-0.012614
0.033740
0.024790
-0.028452
0.045729
-0.003918
-0.003146
-0.006702
-0.003139
0.006575
-0.023783
-0.004799
0.009782
0.010102
0.004209
0.025449
0.012771
-0.044872
0.008742
-0.016487
0.036897
0.024547
-0.034493
0.027877
0.008857
0.006343
0.012319
-0.020116
-0.036120
0.017111
0.019070
0.015304
-0.023133
0.001848
0.020142
0.032129
-0.003449
0.047939
0.025377
0.029425
-0.047606
0.021744
0.016684
0.013132
-0.022517
-0.027093
0.029603
0.031276
-0.025016
0.044834
0.031862
0.013245
0.036673
-0.034127
-0.041624
-0.032355
0.020869
-0.030025
0.010311
-0.017432
0.002193
-0.029939
-0.010031
0.010145
-0.041162
-0.037985
-0.018996
-0.027606
0.018846
-0.001563
-0.001581
0.024352
-0.032736
-0.026275
-0.039818
0.023679
-0.025540
0.027258
-0.031552
-0.029790
-0.000994
-0.024910
-0.025861
-0.035137
-0.019122
-0.015589
-0.031560
0.007081
0.008292
-0.041940
-0.039963
-0.047595
-0.002543
0.022955
0.040970
0.037834
0.029580
0.042245
0.025689
-0.022263
-0.000378
0.046981
-0.029694
-0.033701
-0.029063
-0.020160
0.017534
-0.035810
0.025930
-0.031779
0.028979
-0.010443
0.003752
0.020932
0.008996
-0.038094
-0.001999
0.017501
0.004964
0.047304
0.008074
-0.039239
-0.022845
0.021691
0.000405
0.012309
-0.005160
0.043442
0.029562
0.045788
-0.001677
-0.031884
0.015234
-0.043384
-0.018328
-0.041588
0.046767
0.001814
0.003839
0.006782
-0.028081
0.017758
0.000918
0.040827
0.022925
0.008671
0.007299
0.011545
0.046332
-0.031082
0.012038
-0.016168
0.035385
-0.038661
-0.043569
-0.013601
0.027797
0.034524
-0.014183
-0.011328
0.008099
0.044300
-0.023846
-0.005871
0.000848
-0.029157
0.012963
-0.031323
0.016967
0.021833
-0.032041
-0.027393
0.013265
-0.009030
-0.005299
-0.020263
0.032628
0.006159
0.029242
0.010437
0.007633
-0.005341
-0.023846
0.000807
0.022980
0.016539
-0.021435
0.021199
-0.042101
-0.034735
-0.033347
0.037144
0.022795
-0.002529
-0.000567
-0.002396
-0.022876
0.038301
0.026126
0.007993
0.027879
-0.038050
-0.004355
-0.035499
-0.029747
-0.030203
0.016053
-0.045783
0.033852
-0.002631
-0.018966
0.044028
0.016907
-0.015500
-0.041449
-0.030875
0.035646
-0.020574
-0.018146
0.042392
-0.021831
0.032742
-0.014970
0.042166
0.011512
-0.007615
-0.006794
-0.026326
0.042319
0.034193
0.042015
-0.030248
-0.047483
0.024983
0.030944
0.019059
-0.015304
0.020698
0.000242
-0.026463
-0.024553
-0.022245
-0.033107
-0.022316
-0.011260
0.024984
0.041265
-0.037170
0.037835
0.003779
-0.046631
-0.011351
0.003850
0.008416
-0.034870
0.016695
0.040972
-0.018152
-0.040501
0.047614
-0.019906
0.041202
0.020420
0.044494
0.001218
0.026513
0.009714
-0.046109
-0.030440
0.032016
-0.024665
0.001973
-0.015447
-0.010316
0.033535
-0.002967
-0.045478
0.017290
-0.013307
0.046741
0.045624
-0.008253
-0.035236
0.005720
-0.026873
0.020075
-0.038239
-0.033018
0.035346
-0.010543
0.002248
-0.001179
0.027863
0.039308
0.024698
-0.012539
-0.034052
0.004508
0.008972
-0.041088
0.028288
-0.015861
0.040050
-0.024641
0.020846
-0.046558
-0.010603
-0.012274
0.018465
0.002553
0.018040
0.020631
-0.038952
-0.010604
0.003426
0.036169
-0.040588
-0.041297
0.041303
-0.024995
-0.008511
0.033947
-0.033283
-0.043114
-0.045536
0.025723
-0.009646
-0.027391
-0.036302
0.002052
-0.026818
0.038222
0.045062
0.005298
0.004837
-0.011075
0.018181
0.030792
0.001578
-0.046630
-0.041238
-0.039726
0.025568
0.016289
-0.042180
0.008483
-0.036739
-0.014458
0.034567
0.034128
-0.041675
0.031802
0.000296
-0.009186
-0.017409
0.002811
-0.020078
0.024851
0.002693
-0.017251
0.023610
0.042908
-0.034395
0.015575
0.025119
0.029220
0.001651
-0.040840
-0.006985
-0.014231
-0.015026
-0.009317
0.004136
0.041303
0.014847
0.003737
0.039271
-0.031974
0.041109
-0.036690
0.035782
-0.020587
-0.040192
0.004738
-0.030140
-0.026550
-0.023100
-0.025063
-0.039852
0.021301
-0.025562
0.037069
0.036678
0.005046
0.028146
0.045222
-0.028575
0.001339
-0.030581
0.046357
0.018837
0.020397
-0.033971
-0.043809
0.041476
-0.021207
0.009763
-0.001466
0.025106
-0.038295
-0.031669
0.013604
0.043308
0.017955
0.036310
0.047423
0.017392
-0.039755
-0.033034
-0.022522
0.003208
0.021503
0.037758
0.047729
0.023906
-0.022733
-0.008016
-0.003342
0.039290
0.020893
-0.047300
0.046359
0.006091
-0.037064
0.037607
-0.033966
0.026036
-0.020142
0.022788
-0.033477
-0.039463
-0.001568
0.038574
0.027868
0.021550
-0.027781
0.014556
-0.037058
0.045850
0.041001
0.001912
-0.032768
0.017720
0.039683
-0.015881
0.009952
-0.045007
-0.008776
0.016301
0.031825
-0.043528
0.030689
0.032909
-0.013305
0.044292
0.040427
0.023038
-0.031744
0.033434
-0.014227
-0.008397
-0.041559
0.037083
0.019317
-0.006920
0.025286
0.028844
-0.043516
-0.000514
-0.044889
-0.004507
-0.032060
-0.019440
-0.041897
0.016119
0.015447
-0.000875
-0.033542
-0.023563
0.017964
-0.012371
0.044386
-0.003463
0.018398
-0.044131
0.032095
-0.026622
-0.043415
-0.028697
0.001623
-0.020072
0.047457
0.010560
-0.037018
0.005164
0.038681
-0.042540
-0.039371
-0.010717
-0.032275
-0.015037
-0.043044
-0.020784
0.026254
-0.029093
-0.015100
0.044008
-0.034639
-0.036153
-0.017141
0.033861
0.002575
0.025550
0.005718
-0.000112
-0.015970
-0.000102
-0.039636
0.043445
-0.029021
-0.032692
0.030679
0.043720
-0.023862
0.029884
-0.042098
-0.015413
0.032367
-0.033867
0.044047
0.021319
-0.016620
0.010060
0.023117
-0.024344
-0.031673
0.026949
0.047757
0.040114
0.006276
0.012232
0.034463
0.041550
0.040321
-0.017109
-0.025717
-0.022241
0.025795
-0.023111
0.023873
-0.006068
-0.036017
0.042633
0.002481
-0.027250
-0.029558
-0.008476
0.005595
0.046602
0.038564
-0.045197
0.037304
0.014419
-0.027044
0.007781
0.027620
0.006174
0.014969
0.021399
0.030291
0.026383
-0.044714
-0.020658
0.025741
-0.000276
-0.024961
-0.046119
0.022756
0.036627
0.020121
0.033620
0.020873
0.014471
-0.008915
-0.017224
-0.043677
0.031730
-0.044021
0.008951
0.000272
-0.005902
-0.015612
-0.009748
0.038042
-0.008567
0.012715
-0.032434
-0.041537
-0.002532
0.011997
-0.010545
-0.020567
0.040061
0.006389
0.044256
-0.004357
0.028274
0.042030
-0.026584
-0.022459
-0.042289
-0.038434
-0.019441
-0.011504
0.046504
0.030238
-0.020795
0.019467
0.010776
-0.028082
0.040422
-0.015222
0.038972
-0.015509
-0.033631
0.014038
0.004232
-0.046388
0.007709
0.027636
-0.038282
0.015137
-0.019702
0.006043
0.003859
-0.015359
-0.035753
0.032059
0.009801
0.009694
-0.037437
-0.043520
-0.045429
-0.003001
0.012382
-0.038702
0.029707
-0.036407
0.014652
0.017302
0.048004
-0.041243
0.034771
0.038673
0.021852
-0.004621
-0.019147
0.028693
-0.037713
0.043737
0.005176
0.013204
-0.010836
0.004237
0.005081
0.021514
-0.017069
-0.036711
0.016138
0.024126
-0.034653
0.039597
0.041711
0.047564
0.023588
0.037676
0.011877
-0.009644
-0.025584
0.048108
-0.036321
0.003718
0.023248
0.025274
0.005558
0.041028
0.004850
-0.008859
-0.024911
0.046809
-0.036601
-0.014975
-0.046643
-0.004188
-0.005986
-0.045739
0.004616
-0.037382
0.000499
-0.007464
-0.023831
0.021203
-0.011678
-0.007638
-0.004248
0.039960
0.018586
0.044232
0.020598
-0.004959
-0.000952
0.022695
0.009587
0.017437
-0.018520
0.005172
-0.019342
-0.013913
-0.018187
0.003791
-0.036498
-0.014281
0.027778
0.013337
0.004259
0.042537
-0.000248
-0.023113
0.039257
-0.033859
-0.010849
-0.005957
-0.032935
0.026003
-0.013253
0.030581
-0.006478
0.013798
0.019997
0.021483
-0.006017
-0.014871
0.018805
-0.010092
-0.004980
-0.007969
0.035353
-0.037164
0.034334
0.000322
0.014322
-0.016861
-0.043289
0.036963
-0.015544
0.016358
-0.013848
-0.014849
0.031608
-0.027514
0.004705
0.014556
-0.035575
0.029833
-0.016438
-0.019097
-0.026636
-0.042150
0.011765
-0.024102
0.046847
0.009810
0.034981
-0.037413
0.008408
0.043120
-0.023949
-0.046910
-0.021201
0.023018
0.044364
0.040463
0.012065
0.016974
-0.023289
0.015545
-0.015981
-0.017117
0.042995
-0.000583
0.028736
-0.017222
0.005631
0.004871
-0.043224
-0.036627
-0.006087
0.006290
0.013539
-0.016545
0.040509
-0.001542
0.042301
-0.046125
-0.017039
-0.012296
0.045394
-0.032879
0.032756
0.002276
0.015627
-0.039212
-0.030433
-0.031565
0.012264
-0.028032
0.013833
0.033167
-0.032350
0.009652
0.024320
-0.039086
-0.030153
0.040630
-0.035716
0.009913
0.015100
-0.037043
-0.007404
0.030134
0.024815
0.032926
-0.003682
-0.015431
-0.019325
0.043386
-0.028306
0.006750
-0.006728
-0.030857
-0.009856
0.009185
0.024412
0.036267
-0.024777
0.039987
-0.042293
0.005540
0.034215
0.042776
0.010280
0.046037
-0.001144
-0.044385
0.042380
0.038663
0.040013
-0.036906
-0.025840
0.027847
0.005687
-0.046230
-0.018200
-0.040205
-0.035382
0.029970
0.037964
-0.005900
-0.035730
-0.036192
0.001629
-0.017539
0.026115
-0.024152
-0.020940
0.047096
0.002182
-0.042647
0.010325
-0.028363
-0.044430
-0.039001
-0.039406
-0.037414
0.027328
0.015025
-0.007990
-0.013598
-0.003181
-0.019252
-0.029046
-0.028506
-0.013446
0.026701
0.044246
-0.013327
-0.003678
-0.044879
0.006726
0.039321
-0.038394
0.029163
-0.009125
0.032736
-0.044287
0.015009
0.024951
-0.000575
-0.030419
0.023221
-0.023743
0.014379
0.038141
0.026536
-0.042157
0.016120
0.002352
-0.013546
0.032256
0.041098
-0.036033
-0.016604
-0.040142
0.033360
-0.021251
0.041188
-0.036955
-0.009579
0.027716
-0.023010
0.008765
0.033625
-0.022527
0.036800
-0.042578
-0.008829
0.008125
0.027298
0.033804
0.009619
-0.009499
0.031076
-0.015638
0.014526
-0.035265
-0.005502
0.005032
-0.036555
-0.009433
0.014366
0.023734
0.031921
0.012932
0.000600
-0.027344
0.046856
0.002996
0.018851
-0.038867
-0.014384
0.023186
0.035682
-0.042287
0.036785
-0.024505
0.040769
-0.011200
0.001915
0.033744
0.034567
-0.024598
-0.011722
0.004857
0.016748
0.004298
0.011872
-0.020060
0.019525
-0.006674
0.043713
0.026445
0.028712
-0.015431
-0.006772
-0.045742
-0.022628
0.011776
0.038253
0.032869
0.047627
0.022626
0.040573
-0.001853
0.032298
0.033995
0.009588
0.021642
-0.039891
0.016761
0.030812
-0.016357
-0.028635
0.027594
-0.031909
0.029857
-0.012414
0.016150
-0.003878
0.034577
0.035939
0.029267
0.000776
-0.027670
0.033829
0.008486
-0.031788
-0.030607
-0.047117
0.034562
-0.041506
-0.039701
0.041956
-0.036462
-0.036430
-0.017732
-0.020840
0.026213
0.027110
-0.045272
-0.017524
-0.013149
0.015495
-0.007695
-0.035013
0.001783
0.028031
-0.032461
-0.040956
0.000262
0.040902
-0.046993
-0.028035
0.047478
-0.037736
-0.015464
-0.040452
-0.000105
-0.027982
-0.008909
0.012094
0.007181
-0.031340
0.041735
0.047223
0.021998
-0.030285
0.021423
-0.034744
0.005670
-0.023637
0.015422
0.036404
0.032511
0.009639
0.030995
-0.015743
0.032282
0.001624
-0.018498
-0.031085
0.002590
-0.010771
-0.026511
-0.027307
0.035805
-0.042841
-0.027820
0.007416
0.013838
0.007757
-0.025009
0.035219
0.002217
0.005953
0.039567
0.039169
-0.043460
0.002654
-0.001624
0.016352
0.027176
-0.041462
0.014037
-0.035448
-0.007983
0.028733
-0.009708
-0.029449
0.031486
-0.010598
-0.020669
0.017766
0.047562
0.032226
-0.003469
-0.043501
-0.042490
-0.023131
0.026240
-0.022061
0.012864
-0.035814
0.004098
-0.030039
-0.018012
0.021714
0.008630
0.015225
-0.023394
-0.010749
0.020461
-0.000259
-0.023393
-0.044055
-0.037358
0.004257
-0.020195
-0.039520
0.039873
0.013415
-0.011163
-0.031621
0.009658
-0.022047
-0.014372
-0.015694
-0.004819
-0.033966
-0.002361
-0.041299
-0.005583
-0.030678
0.013107
0.034656
-0.035452
0.009781
0.003867
0.000921
-0.023840
0.034862
-0.034074
-0.018756
0.005258
0.031131
-0.002574
-0.012398
0.005402
-0.000449
0.048104
-0.024456
-0.034926
0.046965
-0.041004
-0.024232
0.021564
-0.015106
-0.003929
-0.019082
-0.011239
0.021611
-0.017323
0.019279
-0.016849
0.012714
-0.032541
0.011361
-0.005693
0.027884
-0.025382
0.030135
0.032066
0.019174
0.001268
0.043683
-0.047239
0.043084
0.047172
0.038842
-0.007356
-0.002153
-0.034795
0.038730
-0.024060
-0.012094
-0.044521
-0.033072
0.026947
-0.008970
0.033883
0.045760
-0.018358
-0.027508
-0.040400
0.010579
0.043395
-0.020910
0.035843
0.018336
-0.007914
-0.005185
0.017567
0.001433
-0.045185
0.004234
-0.007030
-0.031780
-0.043830
-0.026744
-0.003418
0.026621
0.019342
0.006324
0.033012
0.036158
0.010384
-0.000026
-0.001654
0.019962
0.031474
-0.039347
0.005579
-0.043502
-0.033848
-0.014570
0.041214
0.009772
-0.027509
0.030658
-0.043830
0.031154
0.006523
0.047782
0.011521
0.007051
-0.026928
-0.022784
0.001073
0.044436
-0.008878
0.044725
-0.026687
0.041736
-0.043944
0.000364
0.002556
0.021711
0.012668
-0.027841
0.007070
-0.020878
-0.004317
-0.001679
-0.014767
-0.013396
0.038447
-0.032779
0.014281
0.035222
0.021818
0.045190
-0.040052
0.000069
-0.021823
0.007433
0.006025
0.039029
-0.018183
-0.004528
0.001620
0.037607
-0.045882
-0.029281
0.024378
0.041415
0.004657
0.007215
0.027606
-0.010080
0.026480
0.027759
0.044450
0.000992
-0.037586
0.028794
0.024240
-0.042275
-0.047915
0.003778
-0.034064
-0.010876
0.041970
-0.044391
-0.043117
-0.027583
-0.006277
0.026448
-0.014413
0.020992
-0.001860
0.006087
-0.040587
0.015942
-0.031350
-0.026659
0.004604
0.014241
0.028956
0.025103
0.044234
0.000390
-0.019705
0.044185
-0.045790
-0.013898
-0.028265
0.016583
0.004743
-0.009390
-0.031030
0.046367
-0.038290
0.041076
0.024923
-0.014997
-0.046053
-0.022076
-0.021810
0.037243
-0.043606
-0.013721
-0.026061
-0.007122
0.019307
-0.041921
-0.005444
0.025152
0.032350
-0.043110
0.043681
-0.045020
0.015400
-0.011155
-0.038594
0.006874
-0.040769
-0.027595
-0.027457
0.024014
-0.033336
-0.044017
-0.017194
-0.015559
-0.038244
-0.032289
-0.033745
-0.041917
-0.026189
-0.013235
-0.024255
-0.024766
0.021190
0.030300
-0.032817
-0.011276
-0.012430
0.029819
0.037023
-0.022406
-0.015065
-0.035812
0.012893
-0.036648
-0.038058
0.027126
-0.014014
0.031294
0.011849
0.045327
-0.026554
-0.023480
-0.028324
0.015481
0.011554
-0.045383
0.031267
0.009762
-0.009348
0.023201
-0.022076
0.005459
0.006799
0.029766
-0.028096
0.029466
-0.025788
-0.039780
0.016096
0.011350
-0.008285
-0.046327
-0.018942
-0.039999
-0.039068
-0.036836
0.030051
-0.000784
0.040782
0.006050
0.039516
-0.026817
-0.001934
0.016219
0.035101
0.039591
-0.009205
-0.006539
0.017193
0.023797
0.026468
0.000256
0.042059
0.014390
0.045160
0.037566
-0.034432
0.040808
0.032836
-0.001354
0.009825
-0.035465
-0.019656
0.040250
0.027528
-0.036077
-0.040843
-0.047303
-0.002486
-0.043527
-0.015514
-0.018053
-0.034937
-0.037487
0.019232
-0.014660
-0.015255
-0.045493
-0.001680
0.004676
-0.046106
-0.035754
-0.003070
0.037135
0.002866
0.026657
0.044634
-0.038697
0.014581
-0.035861
0.019062
-0.018517
0.005851
-0.012143
0.025292
0.037575
0.014360
-0.000715
-0.010229
-0.009890
0.039872
0.024103
0.019884
-0.030015
-0.026640
-0.009348
-0.000685
-0.038748
0.024146
-0.007221
-0.005693
0.032148
0.010726
0.031137
0.006023
-0.038565
0.029306
-0.048072
0.033678
-0.039208
0.020013
0.026500
0.042683
0.046105
-0.012811
-0.012914
-0.004656
-0.034564
0.031253
-0.019428
-0.024873
-0.033927
-0.027962
-0.034694
-0.047332
0.029167
0.028118
-0.023711
0.029030
0.012567
-0.005658
-0.046513
0.001843
-0.043675
0.016111
-0.045348
-0.040947
0.021800
-0.044623
-0.030489
0.041168
-0.045618
0.011055
0.029027
0.024735
-0.019467
0.028400
-0.037136
-0.028506
-0.015861
-0.047184
0.025822
0.042056
0.040484
-0.001151
0.040904
-0.029092
-0.036001
0.028430
-0.014214
-0.039950
0.028854
-0.035494
-0.035616
-0.012220
0.000549
0.030050
-0.041454
-0.019431
0.019109
-0.025213
0.031029
0.006746
0.040019
0.000194
0.027550
-0.017437
0.024027
-0.009473
0.016383
-0.036449
0.021171
0.019182
0.018975
0.030870
-0.026510
-0.038128
0.002163
-0.032297
0.038171
-0.023889
-0.019574
0.033034
-0.036517
0.007125
0.016457
0.012978
0.018271
-0.001833
-0.027009
-0.025639
0.035801
-0.037126
0.042807
0.017568
0.046843
-0.007321
-0.028855
0.017935
0.027257
0.028101
-0.032062
0.042711
0.016499
0.041504
0.043001
0.043212
-0.032551
0.040978
-0.009640
-0.046496
-0.005714
-0.009764
-0.035716
-0.028095
0.017113
-0.026751
0.017962
0.019940
-0.043712
-0.025389
0.012609
-0.014205
-0.000330
-0.010325
0.028108
-0.013454
-0.042737
-0.034530
-0.047669
0.018629
0.036991
-0.011165
-0.018831
-0.033408
0.007294
-0.002764
-0.032940
-0.015327
0.021827
-0.017098
-0.026093
-0.033221
0.005401
0.022456
0.041931
0.039932
0.009613
-0.023918
-0.041019
0.000444
0.038692
-0.004545
0.016483
0.024268
-0.046461
-0.048064
-0.019562
0.027372
-0.047240
-0.017776
0.034610
0.046706
-0.027841
-0.008832
-0.027480
-0.017920
-0.029308
0.040145
-0.033266
-0.018261
-0.045188
-0.032170
-0.022771
0.034243
0.032459
0.009344
0.005106
0.043004
-0.042211
0.001259
-0.001713
0.045674
0.017526
0.025088
-0.042063
-0.040513
-0.038121
-0.000366
-0.008381
0.045818
0.016944
-0.031954
0.012541
0.026408
0.018381
0.043122
-0.005130
0.010303
-0.017732
-0.042536
0.017228
0.005790
-0.045076
-0.017938
-0.034796
0.040599
0.040765
0.025756
-0.009986
0.039358
0.032662
-0.009653
-0.007186
0.030370
-0.006133
-0.031505
-0.026408
-0.019507
0.046512
0.046358
0.002064
0.002388
-0.043451
0.044357
0.031386
0.047063
0.006608
0.030171
0.032789
0.045255
0.035443
-0.031699
-0.014966
-0.020639
-0.044518
0.027750
-0.019249
-0.010097
0.021055
-0.016975
0.007055
0.043024
-0.047534
-0.013142
0.003667
-0.011838
0.022172
-0.002547
-0.031631
-0.024354
0.027038
0.015673
-0.036775
-0.031447
0.024275
-0.023278
-0.001228
-0.002184
-0.004834
0.002460
-0.006998
0.012216
0.010136
0.026360
0.021291
-0.028969
-0.023370
-0.009862
0.044473
0.011697
-0.013985
-0.043416
0.021354
0.030805
0.015078
0.046305
0.001788
-0.028691
0.035436
-0.005949
-0.012777
-0.004732
-0.024476
0.046603
-0.015608
0.014163
-0.019765
-0.036929
-0.014093
0.011074
0.010534
-0.037564
0.036617
0.015073
-0.007882
0.047582
-0.005791
0.037143
-0.031205
0.006448
-0.034930
0.000020
-0.008068
-0.032944
-0.033947
-0.007795
0.008740
-0.027101
0.046966
0.019704
0.011285
-0.013453
0.044357
0.031057
0.014315
-0.031212
0.004155
-0.016746
0.025610
-0.033821
0.007904
0.025009
-0.036072
0.022990
0.046204
0.022206
0.015833
-0.009925
0.011436
0.002566
-0.045405
0.038686
0.027123
0.008795
-0.006144
0.025289
0.009411
0.006589
0.005042
-0.012251
0.039732
-0.016622
0.008176
0.005289
-0.010070
-0.038071
-0.025498
0.011841
-0.047300
-0.035363
-0.007417
-0.025512
0.028881
-0.040230
0.033762
0.047175
-0.041881
-0.004368
-0.013497
0.013727
0.028169
0.022861
0.006694
-0.013799
0.032393
-0.016302
0.001930
0.032784
0.037151
0.036174
0.017081
-0.003406
0.023146
-0.031979
-0.046441
-0.039013
-0.016572
-0.008240
0.012959
-0.044519
0.044991
0.013912
-0.034298
-0.018568
-0.000587
0.001416
-0.046313
-0.015732
-0.018907
0.038665
-0.025664
0.040160
-0.033020
-0.028782
-0.002451
0.020626
-0.037474
-0.043572
0.015838
-0.014214
-0.045886
-0.025316
-0.031475
0.043351
-0.046892
0.012318
-0.005978
0.023872
0.019788
0.041248
0.047051
-0.017514
-0.036787
0.042696
0.035766
-0.021890
-0.020772
0.047382
0.002863
0.031779
0.038718
0.007736
-0.047491
-0.033870
-0.024429
0.005020
-0.045476
-0.037577
0.022348
-0.044300
-0.000439
-0.030269
-0.029107
0.028634
-0.035111
0.012587
0.012834
-0.028747
0.020807
0.010074
0.047590
0.008267
0.036575
0.042537
0.036525
0.039775
-0.035187
-0.010347
0.026099
0.030358
0.014097
-0.008533
-0.032223
-0.020962
0.041247
0.040393
-0.018917
-0.016934
0.013865
0.000646
0.009636
-0.002208
0.034975
0.026085
0.012003
-0.001456
0.010230
0.042028
0.008857
-0.031344
0.042524
0.031841
0.030850
-0.009814
0.013217
0.035588
-0.044563
0.027759
-0.010587
0.011742
-0.016382
0.038426
-0.035799
-0.035471
-0.018568
0.019786
-0.024162
0.007949
-0.016451
-0.038255
-0.018382
-0.011133
-0.009681
0.024829
-0.038033
-0.010317
0.043744
-0.002547
0.033527
0.036154
-0.035740
-0.003193
-0.017154
0.001677
-0.047228
0.010677
-0.021385
0.043058
-0.007762
-0.010455
0.013317
0.001319
0.005617
-0.034293
0.011153
0.024021
-0.013250
0.043377
0.037378
0.037966
0.034845
0.042315
0.018074
-0.012178
-0.027411
-0.017106
0.031721
0.019878
0.023562
-0.038659
0.021629
-0.037847
-0.044799
0.037160
0.035801
0.002969
-0.014561
0.010025
0.023994
-0.002584
-0.002969
-0.031294
-0.017387
0.030297
0.002440
-0.036036
-0.013380
-0.001046
0.042368
0.042284
-0.018167
-0.034015
-0.000445
-0.045775
0.020137
0.015764
-0.034112
-0.016630
0.044706
0.024028
0.009634
-0.017261
0.013822
-0.024105
-0.005267
0.030195
-0.026280
0.035304
-0.032840
0.034840
-0.023425
0.013343
0.004715
-0.023688
-0.015429
-0.024211
-0.004106
-0.001828
-0.038682
-0.024209
0.010491
-0.020014
-0.022357
0.024484
-0.010481
-0.019566
-0.029121
-0.033342
-0.002560
-0.013448
0.006177
0.039464
-0.018659
0.016938
0.000119
0.008054
-0.035713
-0.004201
-0.038979
0.042167
0.009959
0.008671
0.002686
0.045927
-0.029170
-0.003224
0.046716
0.035015
0.026160
0.025553
0.030149
-0.024893
0.029430
0.008714
0.041256
-0.043233
0.009710
0.028308
0.039494
0.027508
-0.034427
-0.042878
-0.027969
0.001193
-0.020306
-0.008384
-0.031572
-0.038859
0.040927
0.030031
0.032846
-0.011082
0.009416
-0.013905
0.017522
-0.046720
0.009120
-0.019437
-0.004406
0.004462
0.044972
0.024717
-0.034614
0.008571
0.022261
0.009905
-0.037808
0.019736
0.025234
-0.011030
0.032656
-0.009751
-0.038776
-0.015949
-0.042578
0.034961
-0.001171
-0.011385
0.042116
-0.035779
-0.011919
0.037420
0.041900
-0.013561
-0.010902
0.000227
-0.027545
-0.010868
0.008060
-0.047770
0.045525
-0.010267
-0.022783
0.000004
0.021395
0.028738
0.029602
-0.023145
-0.034106
0.011091
-0.003949
-0.039090
0.014964
-0.005333
-0.032372
-0.017380
-0.017604
0.020035
0.025051
-0.021353
-0.046217
0.012325
-0.015458
-0.018513
-0.012395
0.045270
-0.045655
0.040112
0.020743
0.012363
0.024611
0.022029
-0.031330
0.028256
-0.031800
-0.004764
0.016816
-0.019021
-0.007931
0.002997
0.020704
0.012286
-0.030896
-0.001287
-0.001953
0.015353
0.004654
0.005525
-0.026446
-0.046237
-0.042164
-0.038797
-0.003131
-0.011970
0.012183
0.031765
-0.022126
-0.029814
-0.037790
-0.022306
0.001068
-0.028668
-0.030359
0.030374
0.045991
-0.019788
0.023247
-0.017256
-0.044972
0.008293
0.016997
0.017811
0.009217
-0.031104
-0.029596
-0.014610
0.012715
-0.015802
-0.030512
-0.008777
-0.016002
-0.009384
0.006876
0.026682
0.022419
-0.007777
0.011204
-0.021080
-0.017732
-0.027043
0.035648
0.016860
0.010944
0.002460
0.042406
-0.011693
0.032919
0.015630
-0.039579
0.006549
-0.021521
-0.011071
0.036936
0.025829
0.018504
-0.026071
0.010239
0.012974
0.008949
0.046367
-0.011304
0.020990
0.044879
-0.022614
-0.032329
-0.005902
-0.038712
0.019107
-0.038407
-0.009485
0.017489
-0.044645
0.044036
-0.011217
-0.046083
0.024498
-0.024716
-0.038388
-0.003218
-0.042982
-0.037330
0.002670
-0.035509
-0.015534
-0.017944
-0.018020
-0.018510
-0.022792
-0.035498
0.021603
-0.014346
0.013762
-0.014835
0.001012
0.022095
-0.007078
0.025383
-0.047294
0.022716
0.006673
-0.018601
0.036518
0.029497
-0.000043
-0.019837
-0.030773
-0.036510
-0.021637
0.014439
-0.012552
0.017625
-0.010251
0.011238
0.043328
-0.038553
-0.017482
-0.012848
-0.029524
-0.015974
-0.025659
0.008293
-0.006980
0.046714
-0.021624
0.043507
-0.039407
-0.010755
-0.027023
0.043105
-0.024083
0.000931
0.012151
0.024515
0.043656
0.027548
0.035807
0.010885
-0.047840
0.038361
-0.024959
0.017965
-0.009885
0.020407
-0.041842
0.028314
-0.026195
0.003847
-0.006353
-0.036515
-0.022542
-0.023995
-0.012144
0.038343
-0.016240
0.020213
0.014929
-0.008368
-0.036993
-0.012732
0.046091
-0.031600
0.015242
0.037654
0.016804
0.012152
0.008220
-0.008685
-0.033388
-0.030541
0.039519
-0.031099
-0.000800
0.008615
0.036744
-0.043337
0.029280
-0.039777
-0.039754
-0.034509
0.015647
0.029960
0.047982
0.014580
-0.012284
-0.043377
0.031613
-0.026348
-0.004216
-0.036314
-0.043317
-0.001416
-0.027353
0.040277
-0.041437
-0.012243
-0.037344
-0.025192
0.012934
0.032407
-0.022207
-0.033728
0.043195
-0.047962
-0.041403
0.020699
-0.014267
-0.035766
0.022114
-0.038140
-0.018096
-0.032355
0.033205
-0.031287
0.021877
0.023358
-0.025619
0.038717
-0.045015
0.016493
-0.043141
-0.013362
0.034652
-0.033312
0.013983
0.026255
-0.015148
-0.021165
-0.037072
0.046362
-0.031661
0.011143
0.032511
-0.036290
0.030347
0.038085
0.043132
0.024447
-0.012308
-0.030216
-0.027651
0.040250
0.014398
-0.018257
0.038744
0.040265
0.040000
0.041724
0.042927
-0.016965
0.022234
-0.007554
0.026733
-0.046715
0.004747
0.014562
-0.009833
-0.017654
0.047375
-0.030661
-0.040328
0.040504
0.036985
0.044093
0.011103
0.031964
-0.042113
-0.041805
0.014382
0.029387
-0.046412
-0.023207
0.022718
-0.026594
-0.022761
-0.025716
0.012185
0.018524
-0.032929
-0.003784
-0.035703
-0.007777
0.044068
-0.010473
-0.022489
-0.025980
-0.042584
-0.045571
0.023931
-0.011112
0.021405
0.042381
-0.019363
0.032699
-0.039252
-0.033207
-0.039218
0.039879
0.009894
-0.041641
0.027333
-0.029158
-0.036489
0.042643
-0.004361
-0.006159
0.008065
-0.020181
0.023534
0.020607
0.004728
-0.030249
-0.047282
0.034104
-0.010000
0.001000
-0.034627
0.012430
0.038255
-0.046895
0.041311
-0.004653
-0.033819
0.033370
0.010826
-0.022495
-0.047030
-0.006029
-0.003095
0.011516
-0.015585
-0.026335
0.026663
0.036703
0.042262
-0.033662
0.020772
0.006500
0.023498
0.010316
0.011918
0.017889
-0.010798
-0.001701
0.017708
-0.008003
0.044171
-0.040316
0.007105
-0.026714
-0.015196
-0.024157
-0.024586
0.031926
-0.022090
0.026132
-0.018782
-0.009530
0.036986
0.015575
-0.009786
-0.027156
-0.017580
-0.022797
-0.043949
-0.014492
-0.041399
-0.008488
-0.046298
0.009950
0.038437
0.033087
0.018134
-0.011605
0.023209
0.036350
-0.012007
0.022524
-0.012702
0.031694
-0.019737
-0.003987
0.032742
0.013684
0.011677
-0.024484
-0.031998
-0.025621
0.032418
0.012698
-0.046393
0.032012
-0.031469
-0.019555
-0.010406
-0.003335
0.012319
0.024429
0.017380
-0.021793
0.026725
0.027517
0.016259
0.038301
0.046234
0.021630
-0.014779
-0.033922
0.024909
0.025777
0.045200
-0.000902
0.015404
-0.023498
0.045126
-0.039010
-0.044050
0.046850
0.016866
-0.015733
-0.000149
0.011382
-0.042528
-0.038813
0.014580
-0.025675
0.002188
0.032791
-0.019503
-0.040611
-0.003071
-0.036122
-0.044965
-0.004497
0.000211
0.027370
-0.006555
0.005385
0.013611
0.017873
-0.000338
0.023836
-0.039337
-0.033240
-0.035279
0.005945
-0.047087
0.003598
-0.043873
-0.027253
-0.022402
0.011695
-0.039049
0.017606
-0.006913
-0.036076
-0.039412
-0.030263
0.004765
0.024903
-0.040600
-0.041619
-0.031438
0.020673
-0.032460
-0.037586
0.028333
0.028620
-0.028953
-0.024235
-0.004177
0.004810
-0.041284
-0.028478
0.016331
0.027990
-0.038227
-0.007004
-0.034248
0.016359
0.021884
0.044535
-0.033779
-0.011591
0.042162
-0.007051
0.008484
-0.009097
0.044592
0.035204
0.002449
-0.045569
0.039036
-0.018092
-0.011698
0.000520
0.009763
0.043381
-0.015316
-0.007906
0.030524
0.016243
-0.047638
-0.016855
-0.027306
-0.033495
0.007726
0.012042
-0.009693
-0.031194
0.014043
0.043493
-0.025239
-0.032327
0.027354
0.032095
0.001923
0.046394
-0.029094
-0.040814
0.008027
-0.019370
0.043159
0.011570
-0.015679
0.042125
0.038649
0.011390
-0.032196
-0.038791
0.004163
0.000713
-0.006068
-0.034293
-0.047257
-0.040682
-0.003319
0.023503
0.024088
0.026023
-0.030171
-0.047324
0.029569
-0.003307
0.044905
-0.007096
0.011289
0.022116
0.024796
0.004623
-0.015901
-0.007399
-0.028776
0.007840
0.047933
0.045944
-0.014681
0.042023
0.043471
0.021440
0.019363
0.041600
0.026840
0.040981
0.017908
-0.000247
0.021184
-0.006557
-0.029689
0.011529
-0.042190
0.002031
0.002801
0.001294
-0.040561
0.011253
-0.027554
-0.037509
0.004838
-0.019922
0.015624
-0.021020
0.003802
-0.020420
-0.013716
0.005187
-0.015635
0.015881
0.026069
0.015203
0.027840
0.020109
0.026639
0.004815
0.023396
-0.022814
0.023938
0.035659
0.013061
0.001648
-0.021306
-0.010675
0.011407
-0.047570
0.011400
0.014291
0.009134
0.006534
0.047242
0.007210
0.040718
-0.036275
-0.001699
-0.018637
0.032257
-0.003129
0.006519
-0.024640
0.013529
-0.002425
0.022212
0.019645
-0.029853
-0.000412
-0.035523
-0.024422
0.047714
-0.037443
-0.032117
-0.025037
-0.033260
-0.019323
0.023725
0.012434
0.013410
0.019936
-0.017819
0.046743
-0.008804
0.021938
-0.012934
-0.003698
0.020273
0.035912
0.014462
-0.044374
-0.014163
-0.029603
0.008618
-0.040005
0.033229
-0.023523
-0.017380
0.006429
-0.028884
0.034865
0.031210
0.018780
0.014164
-0.045260
0.032484
0.031523
0.010060
0.045605
-0.005754
0.045146
0.032170
-0.031294
0.003229
-0.022745
0.001266
-0.036555
0.043776
0.039243
-0.019914
0.004789
-0.009884
0.026627
0.038586
0.018756
-0.032341
-0.022712
0.041431
-0.025764
-0.036615
0.044609
-0.035698
0.024467
0.044803
0.021579
0.039253
0.025873
-0.001602
-0.031272
-0.012616
0.020317
0.043165
-0.017155
-0.034558
-0.041852
-0.002912
-0.024485
-0.034562
-0.034029
0.045504
0.009101
-0.017406
0.018938
0.007761
-0.029151
0.024961
0.026527
0.002974
0.016036
-0.047347
0.014762
-0.000151
-0.003944
-0.024944
0.008311
0.013705
-0.004359
0.015305
0.028106
0.035416
0.001743
0.003237
0.001470
-0.008125
-0.042158
-0.045575
-0.016038
-0.001685
-0.038316
-0.013381
0.039144
-0.001453
-0.002784
-0.000161
-0.035367
-0.021354
0.016919
0.010335
0.034312
0.046760
-0.018168
0.025099
0.031243
0.007683
0.040323
0.010528
0.034480
-0.006859
0.033782
-0.045800
-0.005509
-0.033117
-0.012310
0.010173
0.047400
-0.025689
-0.003189
-0.012764
0.002665
0.027916
0.006335
-0.040217
0.013399
0.002524
-0.016305
-0.002279
-0.015356
-0.018482
-0.008060
-0.026136
0.039203
-0.025430
0.045087
0.000442
0.027265
-0.021238
0.027639
0.020297
0.032235
-0.030901
0.025426
-0.013280
0.045172
0.008310
0.028075
-0.013076
0.039458
0.030266
-0.000767
0.011227
0.001957
0.024936
-0.027804
-0.024567
0.022057
-0.007696
0.017018
-0.014841
0.003900
0.030804
-0.025098
-0.010240
-0.020681
0.002442
0.003764
-0.048003
-0.024460
0.037988
-0.046559
0.011430
-0.034212
0.022114
-0.039600
-0.021922
-0.023374
-0.047998
0.047291
-0.030045
0.017026
-0.012827
0.004234
-0.032236
0.012297
0.002085
0.009017
-0.033036
-0.011045
-0.033793
0.021084
0.046882
0.046808
0.041443
-0.036536
-0.033194
-0.040065
0.010630
0.033450
-0.043744
0.032906
0.032620
-0.022508
-0.030128
-0.005474
0.036028
-0.000174
0.011231
0.031022
0.041157
0.009221
-0.020842
0.016777
-0.038360
-0.038138
-0.017259
-0.005781
-0.045594
0.040208
0.030265
0.041370
0.018714
-0.026836
0.008375
-0.022956
0.039931
-0.028169
-0.034326
-0.023862
0.007056
-0.016890
0.007916
0.016608
0.008884
-0.011953
-0.043983
-0.006319
0.019503
0.003789
0.029322
0.011022
0.013597
0.022236
-0.018828
0.000419
-0.025257
-0.005130
0.018232
0.016833
0.041894
0.014297
-0.018795
0.019788
0.000859
0.026530
0.009156
-0.021957
0.040893
-0.001610
0.044736
-0.041704
0.036534
-0.001837
-0.043842
0.002234
0.034374
-0.034416
0.019838
-0.036895
0.041646
-0.005416
0.035975
-0.021342
0.038131
-0.010696
-0.023021
-0.034336
-0.016551
0.032038
-0.001441
-0.025194
-0.012884
-0.005301
0.039592
0.026400
-0.032210
-0.042087
-0.027857
0.009040
0.008231
-0.031291
0.032599
-0.017744
-0.019258
-0.033001
-0.011503
0.010373
-0.019733
0.016922
0.046258
0.028497
-0.002930
0.002022
0.000128
0.015085
0.048009
0.030262
-0.041031
-0.035766
-0.037935
0.039450
0.030488
-0.016737
0.002232
-0.028435
-0.046514
-0.047830
-0.015692
-0.011298
-0.012850
0.044591
0.033197
-0.002873
0.037007
-0.022591
-0.045254
0.033324
-0.045473
0.029681
0.027608
-0.032383
-0.035803
0.006525
-0.044592
-0.014317
0.038646
-0.025667
0.009997
-0.009086
0.046418
0.037248
-0.044709
-0.004206
-0.012057
0.023362
-0.006466
-0.031086
-0.021902
0.009572
-0.034950
0.034146
0.010367
0.030474
-0.038560
-0.026589
0.019346
-0.009554
0.024007
0.018662
-0.001032
-0.023572
0.017573
-0.040674
-0.041516
0.007658
0.039187
0.013524
-0.025640
-0.004568
0.002745
0.012270
-0.011891
0.016776
0.031499
0.010401
-0.004100
-0.022981
-0.002179
0.013481
-0.031475
-0.042561
-0.038816
0.019770
-0.026231
0.021546
-0.013336
-0.044456
-0.002021
-0.002771
0.042539
0.022260
0.002136
-0.043364
-0.026238
-0.035969
-0.042317
-0.014633
-0.047488
-0.007189
-0.027000
-0.047370
-0.044767
0.022129
-0.044910
0.031090
-0.023039
-0.022566
-0.015200
-0.016863
0.041300
0.012488
-0.021109
0.010856
0.046862
-0.048034
0.013535
-0.043071
-0.045880
-0.002343
-0.006943
-0.021657
0.034070
-0.040624
0.021889
-0.012334
-0.042433
0.010177
0.004546
0.007335
0.004386
-0.024456
0.031119
0.030611
-0.029879
-0.002358
0.008713
-0.030485
-0.008491
0.016146
-0.012565
0.005541
0.026145
0.006055
-0.033426
0.029051
-0.039186
-0.038930
-0.034794
-0.019625
0.023646
0.041683
0.001333
-0.020167
0.025890
-0.030503
0.002177
0.025599
0.000870
0.002611
-0.021045
0.023183
0.001976
0.012128
-0.024288
0.020585
0.033494
-0.012941
-0.007953
0.031747
0.008512
-0.012832
-0.022408
0.024310
-0.038411
0.035537
0.021463
0.005377
-0.011112
0.035554
-0.013390
0.023589
0.035259
0.041295
0.036366
0.034051
0.010861
-0.030878
-0.040319
0.047683
0.009119
0.018557
0.016118
0.013273
0.018445
-0.021172
0.019782
0.018300
-0.028810
0.035878
0.003641
0.027641
-0.020806
0.022164
-0.047920
0.035253
-0.031380
0.006965
0.002017
-0.041506
-0.011725
0.019957
0.010340
0.005576
-0.022594
0.019384
-0.030429
0.021730
0.044035
-0.035956
-0.036227
-0.043638
0.018615
-0.020049
0.026873
0.019106
0.030024
0.016328
0.036200
0.004409
-0.028840
0.000912
0.013622
0.011736
-0.038376
-0.006684
-0.009322
0.033737
0.039163
0.009249
-0.038727
-0.029109
0.015193
0.040126
0.042643
-0.009369
-0.037849
0.013954
-0.003925
0.009078
0.006910
-0.045147
0.024275
0.006999
0.030008
-0.014211
0.002098
0.035349
-0.002730
-0.009331
-0.047257
0.028388
0.003902
-0.033226
-0.038576
0.036948
0.004267
0.025214
0.018550
-0.039742
-0.006996
-0.029788
0.005946
-0.008243
0.043863
-0.013512
0.028715
0.033947
-0.024420
0.029023
-0.036590
-0.047277
-0.009144
0.022806
0.012577
-0.030953
0.013422
-0.015410
0.047422
-0.005280
-0.026809
-0.012892
-0.017292
0.023420
0.035063
-0.043274
-0.000018
-0.023849
0.007747
-0.002833
0.018830
0.025335
0.025958
-0.035037
-0.028776
-0.032348
0.017792
-0.025252
-0.001830
0.035036
-0.010536
-0.031813
0.005678
-0.015080
-0.025413
0.018568
-0.027029
-0.019987
0.046946
0.044583
-0.011130
0.008068
0.008514
0.029343
-0.030554
0.017064
-0.040041
-0.042375
-0.047292
-0.025998
0.024961
-0.045438
0.008367
-0.034802
-0.006704
-0.040038
0.028315
0.028256
-0.033834
0.039338
0.000556
-0.039208
0.031413
-0.013539
-0.018095
-0.017550
0.045976
0.023428
0.014841
0.015244
-0.041452
0.001417
0.012328
-0.032809
0.036879
-0.028872
0.024179
-0.017842
0.020250
0.014951
-0.015665
0.037948
-0.014391
0.018581
-0.019350
0.039792
0.038152
-0.039025
-0.034978
0.012786
0.030688
-0.024013
0.046456
0.021413
0.042028
-0.013779
0.038012
0.026533
-0.047971
-0.038383
0.046467
-0.012668
-0.029540
-0.042834
-0.038268
0.010818
-0.027893
-0.029858
-0.014113
-0.041981
0.014566
0.021843
0.031762
0.038134
-0.041653
0.042350
-0.042323
0.031739
-0.043191
0.016851
-0.011569
0.008890
-0.028948
-0.024411
0.033028
-0.032448
-0.011631
0.012349
0.047122
0.031131
-0.043982
0.003328
-0.033358
-0.010306
-0.041077
0.014200
0.003758
-0.014119
0.045535
0.013390
0.042691
0.003503
0.046112
0.028159
0.027882
-0.012225
-0.010900
0.019630
-0.037608
0.004166
-0.001914
-0.007618
-0.031957
0.044415
-0.031176
-0.035303
-0.033084
0.038719
-0.043070
-0.010048
-0.018964
-0.010616
-0.033870
-0.020223
0.001902
0.045118
0.045145
0.047685
-0.031476
0.023503
-0.002691
-0.038007
-0.038505
0.038213
0.036974
0.025510
-0.004576
0.015290
0.031814
-0.004327
-0.031247
-0.012839
-0.015530
0.047131
-0.016808
-0.035946
0.032374
-0.024407
-0.047900
0.031453
0.034484
0.046271
0.003012
-0.003564
0.033532
-0.024545
0.028815
0.024579
-0.033574
0.001177
-0.019059
-0.032337
-0.002753
0.042436
0.007449
0.041224
-0.008920
0.027679
-0.044665
-0.041601
0.030942
-0.022514
-0.015380
-0.033727
0.039573
-0.006825
-0.011156
0.023225
0.009537
-0.032158
0.028515
0.002088
0.001968
0.001717
0.039067
-0.036309
-0.009477
-0.026374
0.015086
0.037773
0.040228
0.012848
0.026342
-0.036416
-0.020322
-0.035709
0.029841
-0.018224
0.047388
0.000780
0.046496
0.042171
0.036795
-0.014400
0.011214
-0.027244
-0.025678
-0.031593
-0.003424
0.042935
0.014986
0.035532
-0.005212
-0.018048
-0.037234
0.007036
0.017728
-0.023001
-0.001951
-0.033107
0.024907
0.002525
-0.030143
0.047795
-0.026112
-0.030737
0.047764
-0.032167
-0.013659
-0.011180
0.027580
0.034347
-0.015069
-0.045577
0.031441
0.030186
0.037294
0.046618
-0.009916
-0.037749
-0.004093
0.030346
-0.025568
-0.001394
0.037616
-0.032253
-0.008649
0.045855
-0.010113
-0.020513
-0.031145
0.005711
0.008400
0.040954
-0.014412
0.041769
-0.004483
-0.008824
-0.036020
0.036513
0.030730
0.010946
0.031993
-0.022935
-0.035191
0.012891
-0.012986
-0.013242
-0.001850
0.013760
0.010884
0.011819
-0.031072
-0.014897
-0.045482
0.027824
-0.045009
0.032951
-0.022926
-0.045873
-0.021049
0.021197
-0.010335
-0.008371
-0.010308
-0.045440
0.028120
0.047605
0.021361
-0.011194
0.032525
-0.012948
-0.047007
0.047084
-0.035510
0.025951
0.020914
-0.028625
-0.032195
-0.037460
0.041364
-0.042794
-0.037684
0.029638
0.002061
0.034887
0.023798
0.048042
0.022255
0.017257
-0.022292
-0.021184
0.026733
0.034474
-0.045639
-0.047382
0.033846
0.026708
0.008090
-0.013481
-0.005709
-0.016893
0.024305
0.002744
-0.030440
0.023058
0.013259
-0.013435
-0.014945
0.021128
-0.004921
-0.005957
-0.028399
0.027127
-0.048067
0.003074
0.043677
0.041726
0.007086
0.028059
-0.015608
-0.037359
0.033658
0.006640
0.006648
0.023950
0.008146
-0.013348
-0.029804
0.018567
0.007679
-0.012533
-0.041578
0.013273
0.010984
0.012817
-0.044900
0.003124
0.046029
0.029391
0.044327
-0.033819
0.029685
-0.035600
0.032510
0.018140
-0.037680
-0.029475
0.004420
0.017930
-0.028252
-0.042810
0.000436
-0.045890
0.041907
-0.041511
0.041247
-0.047155
-0.005860
-0.034692
0.038433
-0.045470
-0.045246
-0.007576
0.002585
0.006591
0.003289
0.044064
0.037162
-0.022019
-0.011785
-0.029990
-0.024156
0.014118
0.028842
0.017892
-0.032114
0.005405
0.023168
0.044656
-0.027553
-0.018282
-0.035512
-0.032026
0.046271
-0.002427
-0.018615
0.016919
0.004365
-0.007865
-0.046668
-0.006736
0.033968
0.002386
0.000138
0.023378
0.004977
-0.022387
0.014323
0.022509
0.019022
-0.015374
0.046537
0.029741
0.034976
-0.024473
0.028803
0.003550
0.015140
-0.014917
-0.037574
0.015715
-0.015639
0.004664
-0.009650
-0.047281
-0.046849
0.014225
0.009782
-0.026385
-0.016399
0.038086
-0.037574
-0.001913
-0.017503
-0.021445
-0.014381
-0.044695
-0.038322
0.008353
-0.037474
0.027209
0.030663
0.004712
0.008923
-0.025925
0.019652
-0.029007
-0.037050
0.037189
0.020796
-0.014171
-0.039635
-0.014383
-0.035111
-0.020871
0.029866
-0.004685
-0.042981
0.023674
-0.022163
-0.038998
0.035790
-0.038392
-0.022989
-0.015471
-0.042684
-0.022688
-0.011462
-0.027890
0.035950
-0.013510
0.017177
0.040070
-0.038278
-0.008622
-0.014911
0.004409
0.037083
0.043106
-0.005240
0.038662
-0.023337
-0.003197
-0.021356
-0.047592
0.040666
-0.018143
0.037022
-0.038337
-0.043682
0.045489
-0.024085
0.010018
-0.004003
0.000509
0.036854
-0.009009
-0.002945
0.018458
-0.033794
-0.006015
-0.017848
0.040266
-0.019067
0.012723
-0.032812
-0.039853
-0.027253
-0.039066
0.006880
-0.040760
0.025684
0.024011
0.036676
-0.033445
0.015048
-0.027234
-0.027031
-0.011804
0.028201
0.004237
-0.028552
-0.020198
-0.034721
0.001987
-0.014517
0.004844
0.010524
0.038879
-0.008055
0.037710
0.025894
-0.044440
-0.039913
-0.043595
-0.029178
-0.000658
0.029909
0.031437
-0.046433
-0.025022
0.012720
0.017965
-0.027351
-0.002199
-0.011403
0.019504
-0.039361
0.029135
0.042770
-0.016195
-0.044707
0.036521
-0.028134
0.023297
-0.004891
-0.021545
-0.012118
-0.017370
0.025618
-0.024121
-0.026945
0.024766
-0.005852
0.009180
0.001277
0.018260
-0.005472
-0.041528
0.040274
-0.022616
0.023311
-0.021085
-0.027774
-0.006505
0.034751
-0.006596
-0.010367
0.023847
-0.011779
0.029157
0.019019
0.005967
-0.037415
-0.030888
0.040335
0.044255
0.041777
0.012631
-0.000859
0.037740
-0.030778
0.027000
-0.045816
-0.047041
-0.043466
0.008744
0.004672
-0.023513
-0.023143
-0.000400
-0.040087
-0.017521
0.021790
-0.027716
-0.039401
0.001567
-0.013244
0.038580
0.016838
0.034538
0.039756
0.005679
-0.031468
-0.035870
0.007556
0.003340
0.013826
0.018283
-0.022798
0.044487
-0.012720
-0.031813
-0.000836
0.004091
-0.003683
-0.011350
0.016069
0.047733
0.000766
-0.009150
-0.010973
0.039644
0.004946
-0.016940
-0.009524
0.004791
0.013234
-0.022536
-0.017425
0.037238
-0.006443
0.000464
-0.023516
0.038148
0.026563
-0.031943
0.017846
-0.044603
0.041389
0.036287
-0.008796
-0.038230
-0.041017
0.025953
0.020528
0.024849
0.042938
-0.033269
-0.046981
0.043553
0.047557
0.047274
0.023501
-0.010259
-0.044938
-0.044960
-0.004441
0.038598
-0.038588
0.045879
0.015159
0.013391
0.035300
0.021852
-0.028526
-0.035039
0.024610
-0.004327
0.043587
-0.005098
-0.002544
0.008109
-0.032973
-0.015858
-0.034479
-0.000175
-0.020196
0.013873
0.011522
0.032401
0.021639
-0.008581
-0.002288
-0.011830
-0.018672
-0.032739
-0.045911
0.013361
0.047872
-0.021917
-0.024711
-0.003338
-0.036218
0.011320
0.017955
0.042090
-0.046493
0.034047
-0.045171
-0.022675
-0.041256
0.007140
-0.036448
0.034724
-0.046786
-0.045691
0.017341
0.021377
-0.016533
-0.026110
-0.026915
0.032427
0.014681
0.005745
-0.029412
-0.020919
0.000254
-0.018567
0.022676
0.015259
0.002823
0.017623
-0.019094
0.017968
0.011408
0.011201
-0.046840
0.014925
0.037215
-0.046661
-0.024137
-0.044450
-0.010475
-0.043111
0.025312
-0.009584
0.033752
-0.044738
0.024442
0.017588
0.004089
-0.022429
-0.001029
-0.001428
-0.019136
-0.030998
0.015547
-0.007823
-0.020940
0.042985
-0.016331
-0.003787
0.019134
-0.015897
0.043846
0.030350
-0.046975
-0.035473
-0.046316
0.043350
-0.033944
0.005076
0.014072
-0.005766
-0.011635
0.005861
-0.007106
0.010691
0.013051
-0.017218
-0.001781
0.028901
-0.032927
-0.017154
-0.040777
-0.026232
0.042763
-0.044610
0.035058
0.043473
0.015739
0.002043
-0.023093
0.020522
-0.011351
-0.005422
-0.007199
0.027501
0.013896
0.025287
0.047525
0.045416
0.005908
-0.036451
-0.043435
-0.004272
-0.004654
0.014144
0.022407
-0.046734
-0.002947
0.040642
0.044246
-0.043294
-0.033702
-0.037132
-0.034340
-0.028098
-0.043312
0.021107
-0.041771
-0.027720
0.040511
0.038027
0.024560
-0.002457
0.038769
0.006246
-0.044193
-0.044803
0.003563
-0.035634
0.015224
0.043944
-0.028247
0.040712
-0.040685
-0.047370
-0.023461
-0.019672
0.042007
0.044538
0.037459
0.037296
0.033183
-0.029571
0.028526
0.022975
0.032182
-0.001866
-0.042027
0.046839
0.020706
0.034586
-0.034322
0.006270
0.006160
0.029173
-0.046097
-0.023030
0.023765
-0.043369
-0.045922
0.031971
-0.027910
-0.015857
-0.029013
-0.025068
0.044866
-0.025442
0.018155
-0.028595
0.028315
0.038562
-0.017114
-0.037521
-0.032841
0.016859
0.045061
-0.034593
-0.042109
-0.025726
-0.029243
-0.030541
-0.034831
0.034657
0.026516
-0.046074
0.010118
-0.013563
0.008803
0.010997
-0.045633
-0.032937
0.029422
0.042011
-0.034510
0.040513
-0.035217
-0.019940
0.023191
-0.011352
0.042487
-0.025450
0.037487
0.019534
-0.016149
-0.044022
-0.010893
-0.038371
-0.033543
0.036931
-0.038857
0.033885
-0.045024
-0.007422
-0.033298
-0.036739
-0.036140
0.020178
0.024758
-0.031306
-0.017282
0.039006
0.001523
-0.047821
0.029415
-0.031814
0.033496
-0.010719
-0.040915
0.036736
0.012536
0.031150
-0.020886
-0.018406
-0.023654
-0.006616
0.041139
0.042546
-0.031748
-0.018974
-0.006265
-0.005265
0.040302
0.005309
0.018193
-0.038498
-0.001743
0.010270
0.033850
0.034977
0.045576
0.017353
-0.032493
-0.030221
-0.036350
0.022259
-0.041577
-0.038946
-0.012554
0.011798
-0.036823
0.044619
-0.045897
0.030556
0.024034
-0.025077
0.032470
-0.014952
-0.005368
0.015483
0.002979
0.022536
-0.045185
-0.019229
-0.043723
-0.036433
0.040412
-0.004075
0.020275
-0.038129
-0.039325
-0.023404
-0.026318
0.037324
0.033535
-0.041905
-0.039308
0.037586
0.047496
-0.034331
0.001660
0.032972
-0.040124
-0.014616
-0.036524
-0.003992
-0.023125
-0.006778
0.004962
0.038128
-0.004009
-0.028530
-0.028758
-0.032070
-0.018804
-0.031217
-0.033812
-0.044421
0.001688
-0.016991
0.024083
0.016054
0.043009
-0.001313
0.038597
0.028528
0.026355
0.045269
0.031244
-0.034873
-0.040688
-0.009359
0.029977
-0.018575
0.014829
-0.040264
-0.009248
-0.008979
0.039862
0.000660
0.026715
-0.040526
0.031237
0.032418
0.043582
-0.003122
0.038997
-0.000769
-0.039135
0.012562
0.034329
-0.009445
0.041177
0.023072
0.017808
-0.001756
0.021918
0.009687
0.022972
-0.025646
-0.011478
0.014988
0.003685
-0.043653
-0.015797
0.015218
0.005796
0.034449
-0.032428
0.025066
-0.029379
0.003670
-0.028299
0.023008
-0.022516
-0.035409
-0.022069
-0.031897
-0.017672
0.041480
0.027430
0.004185
-0.015437
-0.018826
0.004944
0.002226
0.007546
-0.031710
-0.007508
-0.023115
-0.035971
0.026564
-0.009746
-0.024334
-0.035180
-0.045103
-0.005518
-0.018222
0.020955
0.031398
0.004118
-0.000662
-0.005583
-0.040024
0.040616
-0.033974
-0.005310
0.040926
0.013371
0.021692
-0.014919
-0.011582
0.026075
0.042683
-0.001277
0.010078
-0.014241
0.005179
0.001685
-0.025657
0.030659
0.006324
-0.026163
0.023217
-0.001408
0.033274
0.020536
0.011424
-0.045596
-0.026888
0.019448
-0.033870
-0.029641
0.006457
0.016215
0.019437
-0.036422
0.036348
-0.044218
-0.018741
-0.033457
-0.047968
-0.013334
0.040553
0.022018
0.029345
0.038539
-0.034872
0.016162
0.000547
0.020186
0.030528
0.008198
0.043464
-0.011678
0.038123
0.045649
-0.036370
0.004297
0.029012
0.041390
0.028124
-0.002601
-0.035616
-0.001814
-0.007566
0.018589
-0.016118
-0.011343
0.010258
-0.005046
-0.025491
-0.030954
-0.007158
0.006144
-0.014543
0.023310
0.021323
0.016901
0.039869
0.008242
-0.042573
-0.034774
-0.028721
0.004584
-0.003059
-0.030289
-0.023746
0.043329
-0.016545
0.001540
0.001965
0.030190
-0.042145
-0.013193
-0.004602
0.036272
0.013938
-0.019503
0.046270
-0.007131
0.026138
-0.033677
-0.032563
-0.020009
-0.035369
0.029928
0.004597
-0.008691
0.009650
-0.038244
0.011993
0.037228
0.019192
0.039281
-0.000227
-0.029576
0.007891
0.037217
-0.008584
-0.042309
-0.002861
-0.045267
0.013239
-0.028082
-0.036360
-0.036020
0.013666
-0.010426
0.005713
0.036851
0.010302
0.033959
0.032444
-0.029732
0.032469
-0.011709
-0.025281
0.037468
0.005148
0.027745
-0.032281
0.042611
-0.022083
-0.010525
0.032912
-0.041397
0.018209
-0.040090
0.012891
-0.000821
0.005537
0.001799
0.006318
-0.016343
-0.019349
0.014737
0.014332
-0.025745
-0.007427
-0.048066
-0.006166
-0.046471
0.026800
-0.039698
0.023764
0.008083
-0.012980
-0.009226
-0.015378
0.021531
0.007078
0.023348
0.005107
0.020629
0.002686
-0.047610
-0.009464
0.025666
-0.034601
-0.015136
-0.016124
-0.046021
0.022087
-0.002520
0.006033
0.005830
-0.003741
0.044394
-0.031086
0.046984
-0.037684
-0.042372
0.047655
-0.019943
-0.036711
-0.037133
0.019993
0.001909
-0.030253
-0.013084
0.018855
-0.008309
-0.029285
0.022262
0.010891
0.033021
0.016411
-0.011423
-0.005933
-0.004250
0.008072
-0.030402
-0.025165
-0.024769
0.002233
0.001954
-0.026198
-0.045882
0.034807
-0.022036
-0.000379
-0.035428
-0.045911
0.020404
0.041952
0.013775
-0.027127
0.033330
0.011755
-0.029026
0.005210
-0.027100
0.043037
-0.034653
-0.026150
0.024757
0.041269
-0.000995
0.019048
0.043882
-0.002067
-0.044062
-0.025234
0.040582
0.039817
0.034588
-0.029810
0.042414
-0.029818
0.012862
0.034072
-0.021978
0.000941
0.025342
0.044698
0.005129
0.005236
0.022732
-0.043135
-0.031116
0.002292
0.007179
0.002397
0.023517
0.009542
-0.034183
0.045674
0.030108
0.017834
-0.045136
0.012261
0.030780
-0.042699
-0.034619
-0.020196
-0.029117
-0.045900
0.029111
-0.027729
0.021393
0.017991
-0.028551
-0.031538
-0.015580
-0.022512
0.039797
0.025976
-0.013981
0.011020
-0.031814
-0.044052
-0.035852
-0.008655
0.030430
-0.000686
0.022461
0.000538
-0.030034
-0.032150
0.040841
0.044271
-0.042839
-0.014424
0.043363
0.036107
-0.009662
-0.012656
-0.038381
-0.002440
-0.012319
0.043364
0.040734
-0.025711
-0.022875
-0.016650
-0.035593
-0.031479
0.011687
0.008948
-0.033728
0.030201
0.037173
-0.034986
-0.034476
0.024190
-0.024159
-0.035114
0.003304
-0.010113
0.025806
-0.023032
-0.027387
0.020247
-0.036678
-0.042347
-0.020218
-0.026603
-0.014438
-0.029513
-0.024441
-0.030328
0.044919
0.022492
-0.044572
-0.009050
0.009268
-0.014925
0.001069
-0.041475
0.018862
-0.042197
-0.016358
-0.025922
0.012086
-0.041638
0.039874
-0.002869
0.041576
0.024292
0.017235
-0.012011
0.038698
-0.005799
-0.033167
-0.016445
-0.041084
-0.025477
-0.040776
-0.007311
0.004340
-0.003388
-0.011702
-0.026022
0.045678
-0.031322
-0.018172
-0.021703
0.037814
-0.019404
-0.004018
0.035211
0.016095
-0.045527
-0.003415
0.004239
-0.034690
-0.002473
0.013815
-0.025595
-0.021236
-0.001526
0.007965
0.023988
0.016426
0.011208
-0.032991
0.020983
-0.001324
-0.003035
-0.031975
0.043778
0.035481
0.009070
-0.028997
0.032354
0.044728
0.008315
-0.026394
-0.040268
0.029646
-0.024645
-0.028502
-0.001488
-0.047989
0.013905
0.047373
0.011380
-0.028362
-0.022957
-0.039910
0.038325
-0.024523
0.010291
0.018057
-0.034329
-0.044298
-0.017954
0.003125
0.000368
-0.017298
0.037879
0.022759
-0.022378
0.017713
-0.033213
-0.043661
0.043739
0.011707
-0.037783
0.029132
0.037900
0.026032
-0.017250
0.024409
0.022676
-0.036379
-0.044659
0.034461
-0.023510
0.011714
-0.044305
-0.007480
0.023240
0.033689
0.032919
-0.016564
0.021314
-0.020085
-0.009708
-0.007133
-0.006272
-0.024182
-0.012785
0.029785
0.027918
-0.038346
-0.002354
-0.022601
0.008912
-0.045844
-0.021601
0.037441
0.042435
-0.026207
0.003579
-0.011429
-0.030654
-0.006128
-0.012416
-0.019537
-0.025800
-0.004288
-0.046808
-0.041119
-0.046981
-0.031320
-0.020258
0.010073
-0.004253
0.028031
0.003721
-0.009522
0.035539
-0.026544
-0.000600
-0.035091
0.027101
0.033242
-0.047894
-0.041376
-0.029972
-0.006800
0.037625
-0.010137
-0.000042
-0.038929
-0.009218
0.002590
0.029599
0.039137
0.029248
0.012201
-0.010707
0.001056
0.041120
-0.011458
-0.038715
0.004934
-0.016782
0.044928
0.016547
0.035737
-0.013102
0.038324
0.026533
-0.020740
0.026489
0.038766
-0.006623
-0.009751
-0.048110
-0.011252
-0.022627
-0.016166
-0.000461
-0.008672
0.016979
0.045049
-0.031747
0.034743
0.035916
0.046785
0.012770
-0.029068
0.036287
-0.032116
0.002594
-0.040826
0.028163
0.039745
0.009214
-0.030519
-0.046855
-0.031717
0.034997
0.040173
0.024759
0.003025
-0.010812
0.040129
0.021836
0.047123
-0.010136
0.012082
0.029979
-0.027075
0.023061
-0.008772
-0.035149
0.046342
0.031740
0.037942
-0.005583
-0.005029
0.035337
-0.045211
0.011314
0.001324
-0.028694
-0.018516
-0.008742
0.047916
-0.013947
-0.042742
0.010238
-0.030691
-0.003949
0.014620
-0.018771
-0.006460
-0.001862
-0.047560
0.045402
-0.003019
-0.017948
0.025465
-0.007919
0.004588
-0.032359
-0.004538
-0.037353
-0.047262
0.016596
0.043405
-0.029423
-0.036913
-0.023828
-0.033964
0.007634
-0.003209
0.021689
-0.020032
0.025032
0.041378
-0.007486
0.043101
0.032200
0.029161
-0.036121
-0.007582
0.028849
-0.048059
-0.014007
0.013919
0.046307
-0.013981
0.004839
0.028398
0.016072
0.026229
-0.005560
0.040598
0.032557
-0.046911
-0.002213
0.006112
0.012691
0.029765
-0.046053
0.002531
0.009278
0.010088
-0.003249
-0.016037
-0.046620
-0.035583
-0.029436
0.006249
-0.026997
-0.025807
-0.046597
-0.042961
-0.045802
-0.017523
0.001117
0.016385
-0.028226
-0.045440
0.015417
-0.000201
-0.032649
0.030871
0.046613
-0.026244
-0.043040
-0.000749
-0.033631
0.017792
0.044941
-0.044598
0.045205
-0.030750
-0.035789
-0.031734
0.047460
-0.016117
-0.008131
-0.038795
0.011704
-0.012402
0.043017
0.037999
0.006633
0.045983
0.043528
0.022081
0.033232
0.010106
0.005873
-0.038964
0.026808
-0.009249
0.033370
-0.019964
-0.001494
0.043207
-0.041765
-0.023410
0.006674
0.003859
0.026444
-0.023166
0.021614
-0.007601
0.038263
-0.013424
-0.044514
0.024689
0.046969
0.029704
0.015785
0.018341
-0.022715
-0.015127
-0.045885
-0.023482
0.046588
-0.015553
0.021733
-0.017470
0.020655
-0.001901
0.027235
0.031145
-0.011037
-0.041512
-0.047101
0.016459
-0.016811
0.006065
0.008995
0.010251
-0.046067
0.007198
0.027329
-0.002217
0.022844
-0.014341
0.010546
-0.034065
0.024037
-0.009813
-0.005336
0.030655
0.046400
-0.038416
-0.042733
0.027820
0.022957
-0.044133
-0.047209
-0.045556
0.024373
-0.018742
0.007037
0.022345
-0.013034
0.019015
0.004402
-0.001264
0.027398
-0.030776
-0.010561
-0.043963
0.020637
0.013233
-0.029239
-0.019595
-0.042755
-0.043899
-0.015264
-0.030016
-0.040464
0.042260
0.015188
0.031015
0.032003
-0.034726
-0.017613
0.011071
0.018702
0.002533
0.020689
0.003856
-0.022574
-0.035202
0.046916
0.012711
-0.026884
0.018287
0.024275
-0.013155
-0.017277
0.011705
-0.025089
0.006166
0.045519
0.038301
-0.045418
0.027992
-0.026704
0.003650
0.017838
-0.011327
0.015081
0.046431
-0.010024
-0.031292
0.000421
-0.005117
-0.004242
0.027483
-0.000154
0.033419
0.003751
-0.035274
-0.010347
0.002523
0.003184
-0.027458
0.011964
0.017909
-0.019898
-0.011187
-0.012668
-0.007114
0.003879
0.018243
0.031464
0.044515
0.026160
0.014611
0.037354
0.023486
0.000557
-0.029279
0.032435
-0.042812
0.027541
0.042952
-0.023019
0.037192
0.025874
-0.006999
0.000757
-0.044023
0.036782
0.036680
-0.011049
0.045155
0.002275
0.008907
0.033152
0.035402
-0.004849
0.000194
0.039175
0.039931
0.028828
0.021277
0.045451
0.010954
0.024469
-0.009546
0.018613
-0.003050
-0.014379
-0.046689
0.019616
-0.038975
-0.039655
0.026759
0.006480
-0.028140
0.011524
0.013807
0.031402
0.001342
-0.013428
-0.034406
0.037152
-0.024298
0.028838
-0.035481
-0.009178
-0.003343
-0.011068
-0.021556
0.008915
-0.046440
0.014788
-0.000734
0.028826
0.029397
0.011695
-0.001464
0.033123
-0.021282
-0.034545
0.008321
-0.041324
-0.007439
-0.001890
0.033507
0.016445
0.014907
-0.024315
0.000973
-0.010369
0.035607
-0.013260
-0.028254
0.015533
-0.006183
0.033666
0.016259
-0.009648
0.043828
0.001659
-0.016269
-0.028552
0.029314
-0.011878
-0.016063
-0.021232
-0.009141
0.046067
-0.025061
0.035603
0.026388
0.040206
0.030650
-0.015241
0.010406
0.036832
0.002028
-0.001427
0.022387
-0.037559
-0.030937
-0.033439
0.025129
0.028172
-0.033722
0.027200
-0.002644
-0.035260
0.007060
-0.026379
0.003662
-0.010647
-0.024254
0.039078
-0.012175
0.034163
-0.009579
-0.024172
-0.002285
0.005809
-0.007067
-0.005174
-0.022021
0.018067
0.002533
-0.019663
0.025143
0.001402
-0.004718
0.026420
0.010328
0.043153
-0.025143
0.017406
-0.034811
-0.030229
0.018185
-0.025406
0.034341
-0.009504
0.016115
0.047883
-0.013226
0.032488
-0.019859
-0.032823
0.028418
0.017536
-0.032726
-0.019273
-0.038796
0.041637
-0.022505
-0.026452
-0.040364
-0.040687
0.002723
-0.041492
-0.034021
0.043349
0.010822
-0.012895
0.047680
0.018835
-0.002346
0.044173
-0.016501
-0.039554
0.017881
0.032800
-0.027316
-0.039389
0.037249
0.019229
0.045968
-0.043227
0.003595
-0.037889
-0.002337
0.033385
-0.045565
-0.019051
-0.041797
0.011921
0.006073
0.020841
0.027948
0.019062
-0.048008
0.029828
0.041721
0.046285
0.032377
0.019820
0.008065
0.021606
-0.006939
-0.042809
0.026818
-0.037666
0.017352
-0.012610
-0.002624
-0.015409
0.037907
-0.003188
-0.039769
0.019320
0.024818
-0.011887
-0.043542
0.044497
0.028202
0.039935
-0.033776
0.043890
0.002593
-0.005011
0.026013
-0.027384
0.035576
0.006307
0.017094
0.027271
-0.031109
-0.037665
-0.011765
0.018667
-0.029017
-0.032111
0.037753
0.015077
0.017499
0.032757
0.045188
0.015982
-0.024651
0.001165
0.033889
-0.014770
0.025613
-0.046985
0.019503
-0.034866
-0.026878
0.022285
-0.004644
0.046432
-0.045092
-0.008379
0.046165
0.036373
-0.024659
-0.028923
0.022909
-0.009892
-0.014098
0.034547
-0.025001
0.021746
-0.007356
0.042547
-0.015242
-0.030063
0.009249
-0.033696
-0.008285
0.034330
0.022418
-0.040281
0.033939
-0.017809
0.012955
-0.019777
-0.005737
0.035684
0.030560
0.011482
0.002147
0.018096
0.014527
0.016344
-0.000613
-0.005631
0.034158
-0.034637
-0.038612
-0.007989
0.021430
-0.001430
-0.045132
-0.043854
0.016569
-0.027265
0.011419
-0.000599
-0.033416
-0.007120
0.036908
-0.020734
-0.014980
-0.045117
0.007371
0.006175
0.009968
0.038282
-0.005539
-0.027546
0.015858
-0.020202
-0.003483
-0.046837
-0.029505
-0.018877
-0.000419
0.032517
0.012076
0.044242
-0.043767
0.037871
0.035064
0.040600
-0.004656
0.030172
0.046903
-0.029099
-0.036967
-0.003906
0.019091
-0.039180
-0.042632
0.024974
0.023781
0.018127
0.042146
0.009949
-0.044947
-0.029571
0.035913
0.036765
0.037892
0.022106
0.010285
0.008975
0.004938
0.020602
0.026162
-0.038679
0.038981
-0.003295
-0.044912
0.001680
-0.048044
0.007777
-0.033676
0.045988
-0.025857
-0.002443
0.031616
0.013806
0.010320
-0.000831
0.010733
-0.016717
-0.022331
0.041874
-0.015907
0.046042
0.012682
-0.027527
0.046534
0.030941
0.005117
0.011091
0.027372
0.045152
0.000451
-0.031251
-0.027141
0.042327
0.009993
-0.018872
-0.007081
-0.002589
0.012371
-0.018740
0.045718
0.004103
-0.042114
-0.006999
-0.033756
0.042157
0.027479
-0.015919
0.014346
0.012795
-0.046316
0.024658
-0.004574
-0.016643
0.019114
0.003604
-0.006108
0.046430
0.025504
0.003988
-0.020855
0.037939
-0.012042
0.012059
-0.011237
0.008613
0.046412
0.022162
-0.014709
0.024810
-0.027496
-0.023362
-0.038842
-0.017922
-0.041967
-0.046627
-0.044062
-0.003894
0.042580
0.043961
-0.046070
0.044563
0.037599
0.044246
0.011360
-0.047500
0.016681
-0.034360
-0.045341
-0.022810
0.002761
0.040257
0.032899
-0.008820
0.023176
-0.020409
0.002520
-0.037205
0.043767
-0.016083
0.014697
0.003029
0.048098
0.028871
0.044613
0.020176
0.023995
-0.042868
0.043684
-0.000962
-0.034068
-0.023874
-0.024697
0.010653
0.004178
0.035865
0.017954
0.046104
0.028477
0.007286
0.005306
0.041433
0.005151
-0.045236
-0.043297
-0.031985
-0.003681
-0.034503
0.030540
0.043085
-0.008301
0.017356
0.009639
0.039337
-0.028974
-0.011048
-0.021302
0.040914
0.030043
0.011647
-0.002148
-0.000354
0.037481
-0.013490
0.000563
0.042770
0.035030
-0.039964
-0.044209
0.011909
0.035712
0.021295
0.000918
-0.028985
-0.024177
-0.014146
0.044365
-0.014568
-0.013751
-0.011928
-0.028691
0.028688
-0.034222
0.023523
0.043716
0.031372
-0.028708
0.000650
0.010680
-0.008701
-0.002117
-0.031873
0.045918
-0.031060
0.029408
0.028933
-0.016993
0.003231
-0.043068
-0.031463
0.019115
-0.032307
-0.015644
0.005685
-0.029029
0.025081
-0.009432
0.015738
0.006286
-0.014880
-0.001491
0.007426
-0.030996
0.023615
-0.030288
0.011722
-0.019048
-0.043380
-0.026302
0.042291
-0.003480
-0.015864
-0.041592
0.009399
0.045917
0.017306
0.019061
-0.042847
-0.004872
0.027128
-0.011801
-0.014883
-0.032420
0.045254
0.003399
0.009469
0.023290
0.007412
-0.010000
0.036173
-0.046501
-0.010544
-0.024757
-0.027655
0.021158
-0.040587
-0.042410
-0.033547
-0.045177
-0.005925
0.024014
-0.017517
0.034906
0.038325
0.019085
-0.040905
0.043032
-0.043784
0.004385
0.046893
0.009151
-0.026375
-0.011667
-0.033344
-0.002247
0.003264
-0.020045
0.043067
0.017380
0.003695
0.041515
0.010432
-0.031151
-0.001724
-0.002416
-0.033207
0.024239
0.027293
0.001091
0.015464
-0.028278
0.014748
-0.027430
-0.036066
-0.022050
-0.022438
-0.004614
0.039109
-0.030797
-0.011450
-0.023949
-0.014447
0.042535
-0.001412
0.002254
0.014913
-0.038803
-0.002720
-0.018844
0.013915
0.016123
-0.003304
-0.026678
0.003265
-0.032702
-0.009634
0.021767
0.027955
-0.022385
-0.039068
-0.014510
0.007979
-0.038162
0.047238
0.036694
-0.006441
-0.027594
-0.034556
-0.007966
0.013985
0.017277
0.029970
0.018819
0.027395
0.033935
-0.018663
-0.042256
-0.001344
-0.009756
0.032659
-0.001933
-0.015516
0.015210
-0.030628
0.016285
-0.030460
-0.038751
0.012423
0.040649
0.029232
-0.004594
-0.003580
0.043982
0.032262
0.040838
-0.030262
-0.025163
0.017174
-0.022630
-0.008882
-0.027227
0.025871
0.036616
0.008699
0.026963
-0.001515
0.033509
0.033616
0.013983
-0.046797
0.000087
0.032991
-0.002874
0.037348
0.042188
-0.009517
-0.044110
-0.023758
0.011507
0.035496
0.020092
-0.028419
-0.002084
0.042543
-0.009002
-0.047672
0.023072
-0.023432
0.003759
0.032340
0.022811
-0.022281
0.041900
-0.016449
0.022542
0.043931
-0.017918
-0.011852
-0.028690
0.007309
-0.030714
0.038188
-0.044041
-0.024742
0.033259
-0.009699
-0.002185
0.003626
0.017299
-0.009330
-0.023381
0.021892
0.007146
0.023665
0.028501
0.013778
0.027672
-0.010627
0.005437
-0.011308
0.010231
-0.023087
0.014037
0.037594
0.009810
-0.041092
0.037491
0.019792
0.035988
0.003966
-0.047771
0.021698
-0.044238
-0.024510
0.042951
-0.003200
0.019726
0.032666
-0.011487
0.019373
0.019787
-0.021006
0.031441
0.018326
-0.028372
0.028765
-0.000604
-0.023686
-0.037903
0.043245
-0.038165
-0.007256
-0.005611
-0.000353
0.047053
0.017641
0.023816
-0.028790
-0.031544
-0.004626
-0.020340
-0.001344
-0.015025
-0.000006
0.020439
0.027194
0.000530
0.029350
-0.008639
0.011473
0.010863
0.044486
0.041434
0.016526
0.019431
0.009033
-0.007410
0.047474
0.026590
0.008859
0.023488
-0.023048
0.029843
-0.003640
-0.024183
0.034926
0.002729
-0.033700
0.036736
0.003651
-0.012548
-0.005025
0.001896
-0.009968
0.019680
-0.016438
-0.005772
0.034415
-0.000067
0.035707
-0.038086
0.027670
0.022864
0.042064
0.045925
0.002324
-0.005939
0.005125
0.035756
-0.037572
0.002382
0.046012
-0.029842
0.003689
-0.011024
0.021587
0.010657
-0.026595
-0.019776
0.040523
0.021687
-0.036649
0.010773
0.021478
-0.017375
0.025623
0.047910
-0.010357
-0.001105
-0.015167
0.012130
-0.008032
-0.015782
-0.039927
-0.024741
-0.009651
-0.027140
0.047421
-0.028673
0.012958
0.009749
0.009170
-0.047553
-0.045810
-0.007401
-0.013985
0.030719
-0.028543
0.001936
-0.000161
0.033866
0.038846
-0.024457
0.009834
0.047098
0.003159
0.026318
0.023165
-0.003446
-0.014907
0.015690
-0.026621
0.047103
-0.041395
0.010178
0.027754
-0.023552
0.011932
0.030684
-0.043722
-0.027571
0.026814
0.030544
-0.000822
0.036420
-0.031595
-0.009877
-0.016013
0.014269
-0.046333
-0.000982
0.040284
-0.010458
0.042712
-0.004149
-0.034761
0.035014
-0.008166
0.013992
0.019307
-0.032314
-0.000281
-0.010628
-0.029910
-0.013029
0.029945
0.020442
-0.009954
0.018181
0.022695
-0.032743
0.007623
0.027195
0.036391
-0.040138
0.015268
0.030833
0.034379
0.043946
0.006143
-0.046069
0.013099
0.017830
-0.037732
-0.037451
-0.027631
0.045429
-0.005550
-0.029023
-0.029057
0.021612
-0.038956
0.038683
-0.015945
-0.019474
-0.031440
0.021700
-0.016002
-0.033161
0.003705
-0.035654
0.000291
0.014908
-0.009985
-0.027533
0.025327
-0.010026
-0.039442
-0.019968
0.030276
-0.024885
-0.038456
0.042721
-0.019470
-0.036551
-0.019586
0.036938
0.008110
-0.007545
0.040705
0.033142
-0.000886
-0.013288
-0.006852
0.026728
0.034469
0.032814
0.039358
0.006823
0.011630
0.043881
-0.017535
0.003787
-0.009714
0.038092
0.020455
0.010536
-0.025206
0.025748
-0.020591
-0.008519
0.041986
0.001417
-0.009748
-0.007920
-0.007346
0.036925
0.026074
0.032985
-0.018855
0.014858
-0.040619
0.039054
-0.030654
0.036904
-0.013794
0.019724
0.036980
-0.032235
-0.045672
0.045424
-0.045612
0.030982
-0.039188
-0.009106
-0.025981
0.019177
-0.043551
0.020186
0.040387
-0.037102
0.029347
0.000055
-0.002725
-0.017226
-0.046106
-0.006948
0.041695
0.041475
-0.016322
0.005429
0.009601
-0.030206
0.038091
-0.035872
0.008070
0.004966
-0.030739
0.046651
0.028690
-0.021090
0.002442
0.029953
0.045551
-0.035083
-0.024179
-0.031249
-0.007105
-0.006953
-0.031278
0.004889
-0.023007
0.039706
0.040492
0.028682
0.041870
0.029355
0.013067
-0.022192
-0.013701
-0.035717
0.011496
-0.003647
0.036235
0.025972
-0.012656
-0.017458
0.011505
-0.000869
0.021510
0.019562
0.012451
-0.042432
0.009498
0.033732
-0.004201
0.013515
-0.042969
0.005092
0.029678
-0.045385
0.033224
-0.036907
-0.027194
-0.006464
0.043314
-0.026056
0.030523
0.048104
0.008717
0.012862
-0.023270
0.038154
0.036876
0.018357
-0.026865
-0.035442
-0.007012
0.046198
-0.004868
-0.026124
-0.002463
-0.017447
-0.042033
0.021362
0.016016
0.034199
-0.021846
0.043055
0.025219
-0.000847
0.006880
-0.009654
-0.003470
-0.047250
0.043682
0.034370
-0.013942
-0.030001
0.010775
-0.030080
0.025714
0.040737
-0.024306
-0.047701
-0.047718
-0.034907
-0.037247
-0.002982
-0.032238
-0.036932
-0.038972
0.026379
-0.047807
-0.044668
0.042262
0.011365
0.026166
0.045513
-0.002266
0.025057
-0.017610
0.030110
-0.016639
0.047082
0.036686
-0.039556
-0.020782
-0.010039
0.000030
0.017223
0.034303
-0.030522
-0.014258
-0.013120
-0.027078
0.041402
0.019754
0.001167
-0.014882
0.030696
-0.019823
-0.037818
-0.011386
0.029496
0.037179
0.035842
-0.001557
0.006050
-0.026426
0.041175
-0.026037
-0.010037
-0.006691
-0.039252
0.009656
0.007835
0.025994
0.022100
-0.009302
0.035981
-0.000568
-0.015605
-0.043091
0.010310
0.046352
0.009028
-0.024437
0.005357
-0.012354
-0.000055
-0.036904
-0.015269
-0.029959
-0.001275
-0.005305
-0.000097
0.041290
-0.007248
0.042771
-0.022369
0.026545
0.038230
0.041579
-0.032967
0.007006
0.033715
-0.013846
0.042679
-0.018523
-0.044663
0.019041
-0.010057
0.034285
-0.008196
-0.029265
-0.036333
-0.020510
-0.014266
-0.002466
0.019556
0.027144
0.039602
-0.004906
-0.042601
-0.032606
-0.040663
0.015801
0.010832
-0.031405
0.031252
-0.018441
-0.032037
-0.027936
0.011312
0.024477
-0.002773
0.018875
-0.030934
0.036828
0.041199
-0.046186
-0.046113
-0.017437
-0.007502
0.040393
-0.031025
0.015982
0.037476
0.038811
-0.042066
0.047258
0.022125
-0.027009
0.020134
0.019447
-0.039288
-0.026917
0.011280
-0.022244
0.009395
0.029691
-0.002586
-0.037068
-0.025968
-0.019159
0.037066
-0.033935
0.035558
0.025036
-0.040165
0.005145
-0.007451
-0.018317
-0.039653
-0.012922
-0.004016
-0.017417
0.046070
0.008939
-0.033617
-0.013385
-0.029711
-0.008549
0.036517
-0.012057
-0.046380
0.032460
-0.016173
0.023952
-0.031170
0.014129
-0.017459
0.001037
-0.047344
0.002529
-0.023343
0.003138
-0.031471
-0.010389
-0.029251
-0.040572
0.038814
0.045252
0.039003
0.010955
0.023257
0.027088
-0.008114
0.004492
-0.039789
0.005109
0.039151
-0.001066
0.023623
-0.035581
-0.003707
0.040338
-0.044082
-0.033988
-0.025112
0.035074
0.008987
-0.042863
0.007976
0.025082
-0.033976
0.028385
0.013692
0.004068
-0.013626
0.000111
0.009654
-0.016049
0.048051
0.026878
-0.040180
-0.045361
0.020735
0.002390
0.015197
-0.047383
-0.018710
0.010115
-0.008222
0.021817
-0.042285
0.009812
-0.005542
-0.003660
0.045082
-0.024425
-0.017443
0.000550
0.036878
-0.003308
0.016073
0.008898
-0.014492
0.002713
-0.031503
0.040560
0.030141
0.002308
-0.045090
0.022596
-0.020827
-0.033251
-0.034942
0.047341
0.036814
0.023291
0.003898
0.006928
-0.003481
-0.037972
-0.036500
-0.028864
0.017743
0.006465
0.026421
-0.008353
-0.000103
-0.002563
0.025763
-0.008289
-0.012494
-0.035014
-0.038959
0.026934
0.026859
0.032511
-0.046030
-0.020858
0.018305
0.037583
-0.009455
-0.023719
-0.013800
-0.029732
-0.034459
-0.027482
0.028307
-0.006607
0.037090
0.032472
-0.038722
-0.014326
0.036573
0.018845
0.039234
-0.026056
0.010456
-0.006817
0.009494
-0.025885
-0.008233
-0.024183
0.006770
-0.035069
0.001769
-0.045037
-0.025928
0.020137
-0.044606
-0.009304
-0.013854
0.014418
-0.039578
0.039063
-0.005554
-0.035194
0.031203
0.005910
-0.026432
-0.043605
0.038295
0.027314
0.004493
0.034229
0.040039
0.015497
-0.008129
-0.011007
-0.005663
-0.045773
-0.003762
0.047730
0.043596
0.008414
0.016328
-0.006284
-0.004982
-0.011451
-0.023099
0.025305
0.015080
-0.006573
-0.042679
-0.031724
0.001528
0.044123
-0.038717
0.016528
-0.006174
0.016966
0.010144
0.001008
0.040741
-0.032236
0.042911
0.028955
0.038653
-0.042167
-0.017177
-0.040864
-0.008558
0.042157
0.015549
0.024656
-0.024780
0.011277
0.011882
0.020344
-0.031965
0.011286
-0.041318
-0.030078
-0.043762
-0.008341
0.031466
0.003814
-0.002796
-0.009717
-0.025922
0.002041
-0.012297
-0.010648
-0.032648
-0.032001
0.033350
0.025771
-0.023553
0.036747
0.017935
0.003484
0.000719
-0.001908
-0.013264
-0.015451
0.037621
-0.009002
0.010160
-0.022825
-0.029291
-0.045376
0.038059
0.033211
0.003054
-0.042512
-0.010659
-0.011214
-0.014063
0.006759
0.010916
-0.043940
-0.018416
0.046275
-0.042311
0.038038
0.028549
0.017190
-0.015324
0.012350
-0.008140
-0.008846
-0.015909
-0.047144
0.044308
-0.001350
0.041263
-0.004384
-0.046913
0.041158
0.037928
-0.030226
-0.034052
0.012401
-0.018466
0.017510
-0.035571
0.045641
0.003846
0.016607
0.028946
-0.006141
-0.040461
-0.013152
0.011852
0.007024
0.045768
-0.013978
-0.015121
-0.033111
-0.018192
-0.019143
0.040064
-0.034139
-0.032684
-0.044786
-0.017913
0.010412
-0.030144
-0.003587
-0.009607
-0.010358
-0.017076
-0.012868
-0.030009
-0.028170
-0.025832
-0.023453
0.040238
-0.039826
-0.022040
-0.026370
0.007922
0.002995
0.044690
0.028536
-0.016918
-0.005440
0.022366
0.032200
0.035356
-0.038029
0.026746
0.023208
0.031934
0.038787
-0.023564
-0.001396
0.040241
-0.002239
-0.005941
0.000351
0.043346
-0.043471
0.047317
-0.024640
-0.040319
-0.004066
0.006073
-0.047780
0.038147
0.020048
-0.009252
-0.046425
-0.021435
0.024329
0.036793
-0.029391
-0.045628
-0.014485
0.033608
0.035139
-0.029631
0.046941
-0.001735
-0.008594
-0.038243
-0.032341
-0.008910
0.007636
0.048087
-0.033633
0.009615
0.023087
-0.029885
-0.042016
-0.009077
0.016356
0.013006
0.001058
-0.039100
-0.008906
0.019509
0.021902
0.005369
-0.035529
-0.002147
-0.035089
-0.041589
-0.043425
-0.026717
-0.026710
0.024712
-0.040229
-0.015962
-0.008928
-0.018438
0.007037
-0.046420
0.034588
-0.034957
-0.034392
-0.022756
0.000939
-0.004455
0.042700
0.004060
-0.046061
-0.011919
0.032733
-0.018231
0.032434
0.032013
-0.038826
-0.038723
-0.046296
0.016769
-0.005048
0.044575
-0.045519
0.014340
-0.009698
0.012959
-0.009959
0.044404
0.006627
0.030631
-0.014428
-0.007394
0.035999
-0.000940
-0.002134
-0.046237
0.004665
0.040766
0.003823
0.001405
0.034801
-0.009320
-0.011326
-0.018378
-0.039579
0.044336
0.002902
-0.004927
-0.024893
0.046349
-0.031329
0.031865
0.024263
-0.037688
-0.009497
-0.042047
-0.015022
-0.039372
-0.012659
0.046893
0.029194
0.021576
-0.029401
0.008763
-0.030156
-0.008054
-0.012667
0.002537
-0.018091
-0.004011
0.045684
-0.003642
0.013255
-0.003737
-0.017707
0.036909
0.022571
0.035037
0.046118
-0.007889
-0.045439
-0.032092
-0.008027
0.014529
-0.018112
-0.035983
0.024009
0.025104
-0.009213
-0.024002
-0.020676
0.032245
0.026144
0.034447
0.034618
-0.040727
-0.026528
-0.030587
0.021027
0.032289
-0.028271
-0.012293
-0.017925
0.008303
0.018487
0.035903
-0.002181
0.042940
0.026303
0.014773
-0.006036
0.033661
0.042960
-0.032113
0.017259
-0.044516
0.013745
-0.021620
-0.010515
-0.029755
0.014365
-0.015235
-0.035239
-0.046156
-0.016676
-0.027271
0.026724
-0.007951
-0.003412
-0.027259
0.038116
0.047227
-0.002328
0.019995
0.025791
-0.005377
-0.030002
-0.007573
-0.029760
-0.031774
-0.011094
-0.036577
0.005031
-0.048019
0.004547
-0.002410
0.038121
0.047036
0.003236
-0.027449
0.023448
0.012687
0.002835
0.001710
-0.044486
-0.036656
-0.042574
-0.013210
-0.041043
-0.013362
-0.001545
0.021005
-0.037790
0.047503
0.014542
-0.045485
0.026619
-0.034307
-0.042671
0.004483
0.016636
-0.016594
-0.018257
0.028288
0.027022
0.009848
-0.017773
-0.002250
0.041928
0.004069
0.037382
-0.005827
-0.015137
0.009136
-0.031972
-0.022610
0.001012
-0.013347
-0.018565
0.020425
0.027783
-0.029814
-0.038656
0.026353
-0.011642
0.007125
0.027680
-0.016498
0.013908
-0.041790
-0.043209
-0.000574
0.033664
0.030525
0.046395
0.009054
0.019622
-0.030456
-0.003328
0.039405
0.001066
0.026788
-0.007152
-0.044996
0.007498
-0.005924
0.043660
0.029589
-0.022007
-0.030256
0.040787
0.001731
0.005455
0.004255
0.032084
0.031952
-0.033588
0.039609
-0.040504
-0.031592
0.034565
0.022355
0.002755
0.007478
0.043273
0.006848
0.024878
-0.044852
-0.041017
0.003452
-0.022188
0.026837
0.008917
0.019477
0.039648
0.018520
0.013072
0.019483
0.040986
-0.028559
-0.005739
-0.019006
0.027553
0.038557
-0.025862
-0.033774
-0.008409
0.015227
-0.011208
-0.035944
-0.042720
-0.001150
0.041697
0.022635
0.000681
0.043314
-0.001436
0.028450
0.030542
-0.010521
0.013383
0.014458
-0.043407
0.032741
-0.003472
0.014864
0.015798
0.019294
-0.037576
-0.023259
0.007106
-0.027153
-0.012351
0.006473
-0.022800
-0.045895
0.008752
0.031837
-0.043164
0.015006
-0.036618
0.035111
-0.004798
0.046469
0.036294
0.009243
-0.038211
-0.004413
0.030803
0.033921
-0.047862
0.009919
0.034177
-0.011247
0.015705
-0.013187
0.031145
-0.041468
-0.019654
0.020228
0.011731
0.001938
-0.001582
-0.043178
0.003020
0.041906
-0.021478
0.031047
-0.001783
0.014140
0.017516
0.017401
-0.040724
-0.042672
-0.013422
-0.018101
0.011433
0.040075
-0.030730
0.012445
0.037565
-0.006498
-0.042051
-0.045002
0.007357
0.018014
-0.038395
0.016869
0.041073
-0.010029
0.014297
-0.044073
-0.047611
-0.025081
-0.011158
0.010101
0.017953
0.029371
0.013314
-0.047189
-0.038966
0.042710
-0.045069
-0.023521
-0.007460
-0.006480
-0.030022
0.001462
0.008767
-0.044105
-0.021176
0.015692
0.007641
-0.034604
0.043677
0.040543
-0.008314
0.016522
-0.004821
-0.013566
0.040564
-0.039270
0.033089
0.013842
-0.017931
-0.040919
-0.029906
-0.040382
0.031674
0.000881
0.029836
0.024533
-0.042384
-0.019423
0.023802
-0.048083
0.020624
-0.023135
-0.011751
-0.046824
-0.009877
0.036877
0.037863
0.013345
0.006123
0.010635
-0.022697
-0.020549
-0.017238
0.000513
-0.003514
-0.046220
0.009606
-0.036909
0.003818
0.024587
-0.001596
0.045878
0.035243
0.039877
0.034407
0.006904
0.037797
-0.023748
-0.040069
0.029871
0.014797
0.046351
0.026828
-0.041864
-0.007824
0.015101
0.026062
0.034327
0.040472
0.013263
-0.044928
-0.011727
0.018132
-0.040791
-0.030068
-0.020841
-0.017642
-0.039823
0.018809
-0.014059
0.024696
0.041702
-0.016821
0.013762
0.001692
0.047127
0.025297
0.044303
-0.019046
0.032246
-0.005355
-0.023923
-0.047194
-0.016856
0.031936
-0.023427
-0.015170
-0.027849
-0.044015
0.043351
-0.038321
-0.001241
0.016995
-0.015244
-0.029887
-0.006105
0.038895
0.014744
0.037614
-0.046008
0.041408
0.016259
-0.039639
-0.000688
-0.045916
0.041234
0.011426
0.030845
0.033851
0.016255
0.040720
-0.001374
-0.020839
-0.042246
-0.008908
0.028386
-0.019484
0.013817
-0.035034
-0.023171
-0.025862
0.009275
0.043458
0.014192
-0.005821
0.001155
0.034078
0.037059
0.010102
0.036448
-0.026089
-0.019193
-0.010122
0.026472
0.007587
0.036984
-0.023715
-0.016490
-0.025960
-0.019434
-0.009598
-0.011930
0.010139
0.004655
-0.039414
0.003306
0.003489
-0.022512
-0.026258
-0.039953
-0.032443
-0.011120
0.023869
-0.032770
-0.026074
0.030607
0.018313
0.004649
-0.006009
0.029062
0.032626
-0.009158
-0.011645
-0.021598
-0.016573
0.027550
0.003009
-0.027380
0.002014
-0.009204
-0.036700
-0.018219
-0.018751
0.010101
-0.000947
-0.003505
0.008668
-0.006056
-0.040015
-0.024106
0.014724
0.038778
0.033628
0.001451
-0.005636
-0.001199
-0.002197
0.033193
-0.038264
-0.003928
0.029070
0.000798
0.006487
0.047345
-0.039178
0.009056
-0.016453
-0.029384
-0.023875
0.016644
0.034911
0.042997
-0.014344
-0.039715
-0.045216
-0.021522
-0.022999
0.040520
-0.032248
-0.031624
-0.017353
0.012380
-0.029909
0.026925
0.035639
-0.038029
0.000497
0.023397
-0.044478
-0.014596
-0.025682
-0.020647
0.012914
0.001260
0.010754
-0.028356
0.033602
0.025017
-0.003989
0.002849
-0.029383
0.008787
-0.039802
0.020873
-0.009924
-0.038007
-0.038641
-0.025575
0.038482
0.036127
0.030784
0.030328
-0.041580
0.022004
0.002495
0.021075
0.012879
0.004033
-0.011154
-0.029919
0.039882
0.026257
-0.015550
-0.039642
-0.032833
-0.005557
0.047856
0.014936
0.045491
-0.003243
0.041093
-0.015981
-0.005952
0.004879
0.031434
-0.024270
-0.007835
-0.020588
-0.008156
-0.039190
-0.010325
-0.000888
0.042233
-0.044828
-0.040868
0.012008
-0.047894
-0.046327
0.039887
-0.024227
0.025955
-0.035104
0.023858
0.004918
-0.008212
-0.034271
-0.025257
0.024141
0.045283
-0.042769
-0.047634
-0.031589
-0.015200
-0.018925
-0.011489
0.037409
-0.021994
-0.028595
-0.003276
0.001682
-0.018516
0.016464
-0.025371
-0.015186
-0.022844
0.025086
0.044864
-0.031533
0.000269
0.042014
0.036862
-0.033883
-0.041568
-0.045283
0.013863
0.032949
0.029658
0.042228
0.039414
-0.031795
-0.022333
-0.034340
0.030879
0.021800
-0.046610
0.004527
0.033985
0.026974
-0.017868
0.032306
-0.047222
0.032601
0.020560
0.046255
-0.043371
0.018370
-0.032902
-0.000204
0.030864
-0.024447
-0.036409
-0.027972
0.034802
-0.035543
0.020529
0.019733
0.020246
-0.015785
-0.008470
0.018896
0.023643
0.037659
-0.027649
-0.038525
0.030319
-0.043930
0.047967
0.037710
-0.025978
-0.021045
0.038656
0.001846
0.011432
0.011937
-0.029899
0.041355
-0.035525
-0.030151
0.047827
0.027246
-0.029608
-0.003851
-0.048050
-0.048070
-0.042766
-0.009799
-0.035098
0.047077
0.036423
0.008278
-0.013151
0.007031
0.032571
-0.044460
-0.014588
0.018558
0.001123
-0.012868
-0.022651
0.031349
-0.002558
0.028222
-0.041639
-0.006358
0.029018
0.027528
0.029830
0.038240
0.031528
0.032215
0.001832
0.008420
0.016631
-0.030273
0.025695
0.036497
-0.007567
0.028438
0.029893
-0.002564
-0.035289
-0.039959
-0.044677
-0.012052
-0.028341
-0.018312
-0.026076
-0.007588
-0.039159
0.002113
-0.003708
-0.018407
-0.034286
0.047327
-0.028803
0.036121
0.018248
0.041260
-0.020277
0.021629
-0.021680
0.030715
0.006004
0.034162
-0.029807
0.048038
0.006973
-0.019018
0.042294
0.020317
-0.011229
-0.044912
-0.031528
0.041053
0.028760
0.000755
-0.003727
-0.019020
-0.033917
0.020189
-0.043251
0.045054
-0.013653
-0.000519
0.007258
-0.034651
0.003644
-0.032572
0.036503
-0.007962
0.002359
0.034430
-0.012156
-0.009265
-0.039879
-0.035792
0.010633
-0.024167
0.035252
-0.014986
-0.035989
0.003521
0.029364
0.004383
-0.015887
-0.000045
0.031369
0.011170
0.020346
0.013944
-0.011691
0.043724
-0.010622
-0.018459
-0.047028
0.025378
0.044967
0.036937
-0.020925
-0.026447
0.038362
0.008440
-0.033015
0.025172
-0.041390
-0.023926
0.011310
-0.032689
0.012032
-0.035206
-0.019616
-0.025310
-0.033610
0.020506
0.003144
0.024716
0.027713
0.017486
-0.030507
-0.037639
0.013267
0.007586
0.043421
0.035005
-0.017629
-0.045835
-0.019285
0.020324
0.044378
0.028237
-0.009260
0.011433
-0.015028
-0.029556
-0.015151
-0.001362
0.036001
0.037604
0.011047
-0.043004
-0.005244
0.028216
0.024861
0.038762
0.039327
-0.031195
0.002812
0.002476
-0.002027
-0.003867
-0.039071
0.003986
0.032411
-0.034281
-0.037118
0.032664
-0.017953
-0.040269
-0.008304
0.036659
0.012886
-0.020494
0.021982
0.037385
0.012407
-0.043136
0.026871
-0.025666
-0.005136
0.017818
-0.046155
-0.002771
-0.004411
0.002000
-0.013631
0.012142
0.002631
0.043391
-0.046073
0.040541
-0.021137
0.001282
0.020786
-0.016560
0.039732
-0.013302
-0.019886
-0.037102
0.034973
-0.039633
-0.027680
-0.031917
-0.034302
-0.011238
0.047281
0.011476
0.029591
-0.017744
0.017486
0.034883
0.005466
-0.025777
-0.017617
0.012433
-0.044349
0.043191
0.021113
-0.036188
0.043249
0.008821
-0.032891
0.034926
0.040714
-0.046122
0.042637
0.027444
-0.003014
-0.014822
0.034809
0.015230
0.021410
-0.025910
0.031398
-0.034901
0.015586
-0.006794
-0.024780
-0.010017
0.016868
0.019439
-0.020519
0.034093
0.034372
0.046121
0.019905
-0.010130
0.000230
0.020670
-0.023643
0.002402
0.038988
0.036559
0.002428
0.015471
-0.025558
-0.026106
-0.000586
0.026488
-0.034794
-0.048101
-0.042245
-0.030106
-0.039564
-0.046714
-0.004259
-0.040129
-0.004120
0.046835
0.038309
0.000149
0.038540
-0.042014
0.014539
0.005565
0.025105
-0.033615
0.011313
0.032308
0.020322
-0.044366
-0.004241
0.040739
-0.035646
-0.038098
0.038628
-0.024901
-0.031535
-0.018012
0.021825
0.015813
-0.022077
0.009938
-0.029518
0.047493
0.047391
0.009012
-0.022405
-0.019113
-0.041411
0.009186
0.047367
0.019438
-0.004628
-0.023664
-0.020156
0.014316
0.043794
0.002017
-0.019937
0.046664
-0.043132
-0.013428
-0.006170
-0.021244
0.037929
-0.023630
0.030581
-0.016601
0.019700
0.025479
0.043753
-0.021472
0.004190
0.044271
0.016032
-0.025432
-0.040279
-0.047550
0.031192
0.032922
0.047331
0.028217
-0.043645
0.040925
0.009275
0.035007
-0.029815
-0.026978
-0.044864
-0.015081
-0.025433
0.015666
-0.004157
-0.011743
-0.001008
0.047655
0.028679
0.038153
0.006316
-0.002747
-0.007452
0.021190
0.028361
-0.042297
0.001589
-0.014069
-0.032852
-0.047936
0.002752
0.019682
0.028426
0.031646
-0.025050
0.012315
-0.036885
0.017837
-0.046350
0.042168
0.027832
0.026084
-0.032328
-0.009572
-0.012010
-0.046500
0.046760
0.028860
-0.010645
-0.011189
-0.016202
-0.046912
-0.028631
0.035117
0.039361
-0.020761
0.048013
0.028540
0.015030
-0.029008
-0.032457
0.018377
0.012806
0.003462
-0.037082
-0.039551
-0.029645
0.030400
-0.036493
0.009712
-0.007752
-0.007868
-0.005016
0.044228
0.007797
-0.029295
0.019025
0.019965
0.015848
0.015318
0.041342
0.003856
0.038287
0.030780
-0.037395
-0.035326
0.009097
-0.013179
-0.039044
0.006503
0.035364
-0.026422
-0.024364
0.032646
-0.005284
-0.044118
0.045028
0.044302
0.047702
-0.031347
0.020939
0.028798
0.015341
-0.022405
-0.020122
-0.043682
0.018281
0.047894
0.001298
-0.044275
0.019916
0.047938
0.016734
-0.034946
0.036201
0.001676
0.005004
0.009152
-0.018106
0.004673
0.015020
0.004961
0.030027
-0.046137
0.026457
0.030775
-0.047606
0.029628
0.006951
0.014283
0.012385
0.006955
-0.036244
-0.023415
-0.016089
-0.012300
0.037437
0.000615
-0.012971
0.043517
-0.024464
0.034993
0.016474
0.036711
-0.000565
-0.005337
0.020477
-0.008776
-0.004200
-0.039293
-0.046936
0.044883
0.027711
0.014134
0.014237
0.045169
-0.042122
-0.004088
0.017720
-0.039617
-0.028394
-0.006842
0.043942
0.011971
0.046056
0.008566
-0.025898
-0.032315
-0.021954
-0.030428
-0.040936
0.025923
0.019091
0.021524
-0.042432
-0.047796
0.025047
0.021409
0.002310
-0.035698
0.040161
-0.023235
0.006046
0.013335
0.006338
0.010542
0.024276
-0.018629
0.024965
0.027169
-0.005051
-0.010830
-0.022531
0.046891
0.043002
-0.047858
0.034141
-0.003618
0.018450
-0.025232
-0.022736
0.015456
0.022106
0.022742
-0.038751
-0.026833
-0.004353
0.014680
0.021630
0.012140
0.038912
-0.026170
-0.000369
-0.017231
0.020152
0.013300
0.017635
-0.046902
-0.014575
-0.016066
-0.009249
-0.033560
0.028049
0.013123
-0.000763
-0.026166
-0.041909
-0.045998
-0.001388
0.047683
-0.000914
-0.012461
-0.002295
-0.022892
-0.007594
0.007215
-0.043011
0.011208
-0.029837
-0.030832
-0.043106
0.026879
-0.015576
-0.003195
-0.037124
-0.021973
-0.014577
-0.046667
0.039300
0.036986
0.020927
-0.022761
0.037683
-0.026598
-0.003251
-0.047480
0.011865
-0.019899
-0.030089
-0.027858
-0.007696
0.024950
0.013272
-0.029760
-0.028033
0.021283
0.027619
-0.027873
0.023541
-0.017226
-0.044261
-0.006405
0.028455
-0.013439
0.032368
-0.025357
-0.015989
-0.002719
0.002868
0.022577
0.016709
0.038004
0.001288
0.032127
0.028946
0.019355
-0.041270
-0.006730
0.045926
-0.005097
-0.033278
-0.033095
-0.032734
0.022826
-0.029694
0.017496
0.043816
-0.014984
0.017983
-0.028642
-0.007733
0.020103
0.010301
-0.018657
-0.017224
-0.006980
0.018425
-0.012337
0.037785
-0.014294
0.028502
-0.026268
0.022407
-0.000787
-0.045937
0.047169
-0.010199
0.028484
0.003431
0.032924
-0.000690
-0.025816
0.037479
-0.026207
-0.039014
0.040530
0.021159
-0.012809
0.046189
-0.000543
-0.011854
0.034305
0.025468
-0.037764
0.047501
-0.023034
0.022895
-0.005600
-0.007418
0.025396
-0.029541
0.012758
0.024253
0.046232
0.016300
-0.044377
-0.015718
0.006116
-0.036369
-0.000941
0.021173
-0.025504
