0.032166526
-0.06085864
-0.020560022
0.08391557
0.024552295
-0.039046716
-0.001070785
0.078214034
0.044375606
0.018148402
-0.077927835
0.016666574
-0.053556424
-0.06199575
-0.031341653
-0.06125879
0.055046797
-0.049581297
0.04370853
-0.049351852
-0.018548507
-0.030474422
-0.03633062
-0.077631004
-0.051960763
-0.043462504
-0.01721352
0.06856072
-0.08431407
-0.0048601157
0.02835481
0.07663715
0.048670605
0.03412142
0.0371923
0.028141813
0.071968935
-0.020504465
0.008780876
-0.040142965
0.048717022
0.039931294
-0.083534956
-0.060724135
-0.0095708985
0.02744527
0.041919097
0.009499828
0.035243265
0.08279821
-0.053156193
-0.044391703
-0.08583555
-0.03537162
0.014877012
0.085681364
-0.027520351
-0.0072093257
0.08552519
-0.008715654
-0.039287873
-0.048215713
-0.01696009
0.03422182
0.014273391
-0.057102934
-0.07735358
0.08527372
0.07928751
0.04881367
-0.008224296
0.07338648
-0.062722586
0.059382394
0.03510442
-0.07899547
-0.05877355
0.04887522
0.067353584
0.009447318
-0.08574697
-0.010572553
-0.08122786
-0.03453551
0.013965358
-0.0021440426
0.025022896
0.039093584
-0.039443392
-0.00996176
0.001569252
0.02565026
-0.030573657
0.012584488
-0.07808418
0.03448942
-0.05848083
-0.014244315
-0.07931228
-0.054163255
0.01435032
0.053676452
-0.073736064
-0.074572794
0.0037298233
-0.07073553
-0.051999453
-0.07709163
-0.038853306
0.022649473
0.010116325
-0.062783726
-0.009949294
0.0675908
-0.050885536
0.00899857
-0.020915365
0.07164789
0.075649336
0.082028635
-0.06128294
0.034524735
-0.018326268
0.007589116
0.02357542
0.0482739
-0.08263442
0.08204397
-0.025895787
0.0541957
-0.05453695
0.038093887
0.039669316
-0.04750663
-0.04524896
-0.05234289
-0.026742764
-0.07843667
-0.003134667
0.07780893
0.0014836742
-0.048865195
-0.008356044
-0.049040444
-0.07785141
0.01905116
-0.026445001
0.060507927
-0.024456333
-0.08492267
0.07521734
0.08420388
0.010632223
-0.049639583
0.06518042
0.017635386
-0.02550185
-0.006359231
0.0060650487
0.014375067
0.08276123
-0.030128982
0.07989102
0.06283328
0.041864906
0.014109612
0.009083809
0.05815752
0.022328943
-0.036401097
0.018669719
-0.06448715
-0.059076875
0.06579239
0.07119266
0.024348913
0.0057671834
0.07596274
0.082771964
-0.030146116
0.050312787
-0.08403035
0.031385247
-0.08212586
0.07643463
-0.076218046
0.03530696
-0.06482746
0.034885954
0.049890354
0.055360362
0.07044631
0.05841499
0.051178046
-0.06946122
-0.011151467
-0.07198779
-0.0559786
0.07948228
-0.036041364
-0.046148557
-0.063661255
-0.059668925
0.061955087
-0.043494947
0.00869025
-0.075728126
-0.083930954
-0.06581447
-0.050853226
0.025166452
-0.0193385
0.082118094
0.049827665
-0.015560824
-0.052103918
0.05975561
0.047447994
0.05926933
0.04672664
-0.04265229
-0.037776046
0.08269009
-0.014236887
-0.01995041
0.058048937
-0.028831823
-0.002104583
-0.028249564
0.027186442
0.008199581
0.043880567
-0.0010975531
-0.081544034
-0.03002271
-0.06428546
0.071069546
-0.069855355
0.009434986
-0.07315185
0.06552902
0.038719866
0.051766194
0.07335758
0.024011014
0.052339733
0.013630178
-0.03589873
0.010657802
0.06219563
0.07347619
-0.028298093
-0.0707467
0.0612825
0.03475341
0.040725358
0.057232894
0.0048112785
-0.02007627
-0.08568347
-0.056774564
0.050864965
0.040594492
0.08241033
-0.08574962
-0.031604264
0.07677183
0.06673688
-0.046917733
0.050477806
0.05462617
-0.06443356
0.016990563
0.028743312
-0.041467723
0.032060686
-0.07463994
-0.010893688
-0.0019197508
-0.024341999
0.007281545
-0.015657626
-0.050507497
-0.05580804
0.02764426
-0.01027681
0.037334893
-0.08279169
-0.058719225
0.083175026
-0.0757666
-0.020764092
-0.040600825
0.012805917
0.04467903
-0.0701196
0.019670254
0.015700473
-0.020830177
0.022850731
0.043301105
-0.034758795
-0.020039847
-0.077239275
-0.036823865
0.062009536
0.07754831
-0.0065559032
-0.035578407
0.023686811
-0.07375768
0.022639643
0.07789611
0.010738219
-0.08469637
-0.019657183
-0.06597864
0.052413244
-0.028508605
-0.05015821
-0.083102256
0.060711987
0.078352265
0.044220693
0.015616915
0.01159568
0.020502629
-0.05267643
-0.05420363
0.026015336
0.053464208
0.045424916
-0.0113746505
0.06874711
0.05610563
-0.0033388902
0.07834048
-0.051287342
-0.0058931853
0.05162669
-0.06579289
-0.01721192
0.024017056
0.081237584
-0.012342642
0.03604837
-0.020655533
-0.069406055
0.05203333
0.058205094
0.019746967
-0.024387142
0.021778058
-0.06967819
0.07813381
0.012035399
-0.010453692
0.02693916
-0.016367335
0.039850857
-0.081674494
0.03772693
-0.03720062
0.030978892
-0.050735094
-0.04222065
0.07980612
0.0111759165
-0.0010241229
0.068626024
-0.07878617
-0.023003964
0.062174596
-0.06367474
-0.048094224
0.06992468
-0.0025793805
-0.054699335
-0.08211696
0.08583771
-0.03395887
-0.02005501
-0.07603123
-0.02539964
-0.021880934
0.04333483
0.06475464
0.05035999
0.03712989
-0.005779783
-0.020695608
-0.017126568
-0.04839171
0.0456528
-0.018986935
-0.0703561
-0.061336733
0.030272888
0.06015547
-0.08015154
-0.0695429
-0.01845074
-0.051412176
-0.026995301
-0.06270068
0.013957776
-0.07982273
-0.024299655
0.073359735
0.080939405
0.07419105
0.016746746
-0.060139515
0.04671793
-0.011875765
0.07260374
0.056103528
0.05621935
-0.082074724
0.022453304
0.021650856
0.021438835
-0.012012776
0.03738923
0.024076903
0.074845456
0.0035760275
-0.0694414
-0.059789468
-0.073863305
0.03908287
-0.069443084
0.02516872
-0.08346242
-0.012266555
0.0781591
0.021156225
0.021418583
-0.056145284
0.03954936
0.015730718
0.011022726
0.016411422
0.005404855
-0.0005076292
0.038184103
-0.010040771
0.06402488
0.00798048
0.010860209
-0.05549295
0.06927254
0.074083365
0.05000187
0.02329043
0.071927406
0.08537817
-0.07948339
0.008596854
0.022065684
-0.055394996
0.054574084
-0.009000541
-0.078950725
0.071432896
-0.053205043
0.0088493815
-0.014217311
-0.03916444
-0.04240353
0.04816195
0.030260669
0.08164526
-0.08485019
-0.045814414
-0.02031116
-0.06417492
-0.017818095
0.031842478
-0.03720969
0.029366005
-0.05306449
0.05113719
-0.07921852
-0.032914627
0.063952476
0.0029095646
-0.07974351
-0.033149254
-0.04245756
-0.005925463
0.009771982
0.009982987
0.08351023
0.025856256
0.035888657
-0.03599777
0.08051005
-0.07469246
0.07070355
0.037212636
-0.04212758
0.050592348
0.027408386
-0.04994861
0.014389113
-0.047544952
0.023530183
-0.08175446
-0.047650486
0.06375558
-0.03115565
0.054771256
-0.05670107
0.07647241
0.07253214
0.051021848
0.043680824
-0.083547555
0.033685178
-0.03126891
0.061176073
-0.07396946
0.006273448
0.07234952
0.034917597
-0.07926186
0.0017899631
-0.0072688125
-0.053242356
-0.004858413
0.054912455
-0.04146837
-0.043214235
-0.060543746
0.013200852
0.00046980093
0.07953514
0.06838582
0.006142778
-0.011695304
-0.07440982
-0.009567082
0.048232704
0.006485859
0.042342648
-0.0018431812
0.0338452
-0.010645838
-0.013503119
0.007226111
0.03752635
0.014279968
0.062023375
-0.07530705
0.043464784
0.035628792
0.009486798
-0.0771367
-0.015471225
0.028287238
0.085389696
-0.06516257
0.040158477
-0.06596576
0.0584698
0.03722595
-0.051214445
0.077973954
-0.08568427
0.0034578333
-0.03487073
0.047397774
-0.04927159
0.036969997
-0.06904903
0.02077898
-0.07802023
-0.07792446
-0.0006754607
0.01639317
0.057189394
-0.06684847
-0.039169002
-0.07184792
-0.07936537
0.07811219
0.038461655
0.068625554
0.03822962
-0.065332144
0.010811136
-0.051070623
-0.048903618
0.0807367
0.06306671
-0.051200494
0.07747609
0.08349747
-0.009314616
0.06283069
-0.025947887
-0.050139535
0.028659867
-0.048552055
-0.07507919
-0.06935953
-0.057236075
0.080961116
0.07583031
0.026217539
-0.048024826
-0.05671635
0.04774113
-0.005046897
-0.04004368
0.012994762
-0.0065048295
0.055236842
0.011478717
0.02079839
-0.014655521
0.08061158
0.0074438257
0.06125175
-0.0027003447
0.07725425
0.007305769
0.049765963
0.02301091
-0.046649486
0.05150003
0.08267114
0.03492565
0.024166256
0.041390847
-0.034896206
-0.02734824
0.022898512
0.070963755
0.071195126
0.08430175
0.057841584
-0.035705946
0.038732648
-0.07616959
-0.0046989224
0.06957076
-0.04073802
0.058896888
-0.077075854
0.020994848
-0.06375924
0.030238846
0.008974275
0.002280848
-0.06965708
0.012141948
0.005979902
0.06187109
0.0756169
-0.027205916
0.06967715
0.036417227
0.035602365
-0.009371672
0.018226348
0.06124581
-0.00025325542
-0.073916525
-0.01985055
-0.058045715
-0.021136917
-0.06748498
0.06629838
-0.005226312
0.048145186
-0.048433993
-0.06882631
-0.071045265
0.038893647
0.016744755
-0.03619996
0.04564807
0.043572143
-0.029799907
0.04973309
-0.08127807
0.065710075
0.014322033
-0.009322116
0.037052684
0.015237125
-0.08409519
-0.04469353
-0.016342783
-0.030471807
0.026952703
0.020334706
-0.084221475
0.033349678
0.021826228
0.055811446
0.026946465
0.03206367
-0.009766298
0.056377936
0.029517185
0.040350966
0.044177324
0.06220397
-0.079232045
-0.05204438
-0.04304187
-0.018809263
0.029971257
-0.021154175
0.0018096005
-0.07351615
0.07338212
-0.074170955
-0.0023581155
-0.0044551985
-0.058959853
0.05396017
-0.0481263
-0.080110334
-0.045116976
0.04380294
0.0131039675
0.059545375
-0.047166526
0.07030114
-0.00781467
-0.03534237
-0.0042583826
0.069734536
0.046401374
-0.0603182
0.0025708647
-0.08079157
-0.07406191
0.025195591
0.004116006
-0.044154167
-0.06146452
0.08378616
-0.04823543
-0.033386305
0.084747
-0.06199892
-0.04662115
0.012828376
0.05868468
0.0739774
-0.07763076
-0.018283002
-0.053894855
0.047173265
-0.07815472
0.009609281
0.0048382417
0.063448034
0.065737635
-0.018124014
0.0072645545
0.022891114
-0.007959745
0.028388996
-0.031560116
0.03500369
0.0134956185
-0.02794383
-0.06952859
0.016665395
0.064635865
0.07750085
0.054718614
-0.070176534
-0.016927268
-0.06587885
0.012152854
0.0146763595
0.040032826
-0.081345335
0.0062230513
0.081504606
-0.020758932
0.056567498
-0.009202866
0.06918437
0.015543372
-0.08407992
-0.03011902
0.06997927
0.040774997
0.0032976968
0.05360719
0.048328232
0.053453792
-0.06508544
-0.06886142
-0.017365726
-0.0026031013
0.017053671
0.036158554
-0.06769152
0.05787572
0.08404441
0.0766846
-0.01000319
0.023251155
-0.023142267
-0.007236904
0.0745092
0.079567894
0.016492568
-0.037144333
0.00348928
0.06364711
0.061362527
0.011100249
-0.017860243
-0.044589195
0.04346224
0.08161915
-0.02541266
0.06928163
0.019770082
0.0794776
-0.05077171
0.055468857
-0.016888702
0.023308517
-0.009076115
-0.014083286
0.07107687
-0.018349415
-0.060619503
0.019851167
-0.05857407
-0.026384765
-0.06767116
-0.05030735
0.06020687
-0.016580094
0.06725298
0.01732487
0.04082958
0.00878971
-0.01510073
0.04814264
-0.011860703
0.030475603
0.031065404
-0.048746735
0.04388654
0.05688225
0.08357428
0.01777373
0.047189526
-0.00011325906
-0.030335505
0.022401635
0.011973295
0.070870735
-0.083849
0.010392347
-0.07910427
-0.04121813
-0.06350576
-0.03450358
-0.007957662
0.01763552
0.036840428
-0.0224646
0.01539485
-0.0213636
0.057911042
0.07549633
-0.015017932
-0.00603944
0.0074613397
0.08429061
0.05430627
0.03211169
-0.021680199
-0.04731595
0.050595373
0.048566263
0.010010935
-0.08194691
-0.07050647
-0.07153649
-0.07335855
0.049548384
0.08343009
-0.03287325
0.022191675
-0.06843745
0.024251916
-0.057185616
0.057839192
0.07126596
-0.013790376
-0.0035727853
0.073281504
-0.0014809348
0.029767752
0.0071014836
-0.0074441847
-0.08420918
0.051060498
0.06817638
-0.029956842
-0.07359795
-0.006609388
0.06801715
0.060713485
-0.07131825
-0.076680385
0.01914471
-0.079093136
0.022912793
-0.06982822
-0.056303788
-0.058248162
0.039281093
0.027815785
0.079646915
0.010885818
0.013806473
-0.015113093
0.007779376
0.03354186
0.028403811
0.052955974
-0.07122321
0.0077698035
0.083761975
-0.04489714
-0.03272369
-0.029537931
0.06089018
-0.0498211
0.0056313216
0.08322846
0.0018710676
0.050962698
0.025278922
0.011341881
-0.050981343
-0.011247048
0.07067621
0.02932915
0.02168963
0.0068582213
-0.065300316
0.079723835
-0.076289706
-0.0690047
-0.08452342
0.05895667
-0.04823888
-0.025380239
-0.053678412
0.020702656
0.008848355
-0.02050777
0.07693957
0.08457676
0.08383155
0.070283405
0.033015575
0.021263104
0.07041317
0.027414981
-0.038756054
-0.0026766444
-0.07021254
-0.05300602
-0.021803586
0.014578634
0.0019473705
-0.05110956
0.049406447
0.045606498
0.031067539
0.015974421
0.034667082
-0.08112738
0.07933103
-0.024407722
-0.057271607
0.021894068
0.016609335
-0.068891644
0.05716687
-0.028154833
0.03766018
0.0072575677
-0.048486646
-0.023648664
0.012123972
-0.06900626
0.030975055
-0.042378753
0.020014832
-0.03294992
0.08409663
-0.081776746
-0.027337387
0.064971305
-0.01371517
-0.029380092
0.07946986
0.028531443
-0.009612441
0.04369125
0.014363966
0.006992534
0.030713448
0.044375073
0.01637936
0.08356669
0.009901534
0.0031196668
0.011608136
0.06343559
-0.055451334
0.04311016
0.01707179
0.04506031
0.011344939
-0.008149984
0.07638651
0.034617167
0.052243616
-0.03741306
0.016865658
0.01871836
-0.078389294
-0.04871883
0.07729146
0.00893183
0.047185577
-0.07560602
-0.030279752
-0.063197866
0.0014602201
-0.029172882
-0.05263215
0.016926458
-0.07249565
-0.06396773
-0.06732097
0.07919049
-0.051709343
-0.00017690123
-0.06895981
-0.0750438
-0.0006390483
0.02132056
0.06963961
-0.02060525
0.034371626
-0.018981917
-0.072400756
-0.04434109
-0.027089775
-0.08530536
-0.035268743
0.08269756
-0.034768686
0.00087312795
-0.03041544
0.048181426
-0.046961594
-0.08465552
0.018596658
-0.055752236
0.018062608
0.052703395
0.08347316
0.08023058
-0.05132777
-0.0283248
-0.008753626
0.0022028422
0.071308084
-0.013904866
0.04592165
-0.080714814
-0.00040802604
0.05114274
-0.04262332
-0.053868312
-0.08076148
0.07803382
0.02167942
0.050786115
0.0074316678
0.06243687
-0.040792324
0.08002057
0.020038307
0.083092175
0.01817161
-0.02351786
-0.070711926
0.060937192
-0.049931098
0.016682345
-0.0043907147
-0.045893054
0.010777699
-0.024182683
0.03174295
0.05932481
0.0783706
-0.05344021
0.00069005025
0.0034899672
0.019042173
-0.08238261
-0.014369424
-0.05943259
-0.054274615
-0.002368919
-0.043141216
-0.08495612
-0.0046655675
0.06504763
-0.025406493
0.037021637
0.05329589
-0.06851574
0.04890368
-0.049967818
0.08094834
0.06744108
-0.05778141
-0.051564176
0.030180847
-0.022652347
-0.031043038
-0.04714225
-0.051453788
-0.059961546
0.040213432
0.009519394
0.0031330972
0.033539776
0.02315977
-0.058252163
-0.009624342
-0.033393234
-0.0356042
0.051671147
0.07979946
-0.0031671291
-0.0065927976
-0.061833803
-0.07691094
0.033534963
-0.022178687
0.008599768
0.034320336
-0.078908704
-0.021876544
-0.050325066
-0.05819835
-0.07619886
0.010310638
0.03996753
0.057021737
-0.069679685
-0.029059192
-0.05718691
-0.04675937
0.056199096
-0.044940364
0.073147744
-0.014247639
-0.026788544
0.036886893
0.06123598
-0.0020724386
0.07906324
-0.017261691
-0.027426904
-0.067773856
-0.020415276
-0.0024181562
-0.0042418744
0.072645605
0.011304145
0.019624576
-0.031840272
-0.041390315
-0.02227555
-0.08529546
-0.084612325
-0.021951973
-0.06382452
0.020044977
0.059720386
0.03245491
-0.011889257
0.017982008
-0.0108864335
0.019416003
-0.04876464
0.023355037
0.03068353
-0.06320395
-0.051965367
0.023633193
0.07963658
0.0017463277
-0.03972822
-0.052377798
-0.009299524
0.06486395
-0.013650657
0.032253757
-0.03169562
0.04857513
0.06748029
0.049597915
-0.056745097
0.043965343
0.0088812485
-0.06089223
0.068663
0.07679501
0.013018102
0.03926364
0.015843239
-0.024942478
-0.080752224
0.0653802
0.07140846
-0.05768858
0.00013067012
-0.0015580893
-0.04294438
0.042922467
-0.067107745
-0.017999562
0.081875324
-0.06521421
-0.033336043
-0.07788761
0.041331954
0.058405384
-0.009186388
-0.053503882
-0.027316486
0.055722144
0.07757654
0.0024589805
0.0020838066
-0.02119708
0.030541709
0.07634582
0.008724201
0.0058350014
0.05366922
-0.044439472
0.0034193895
0.06790518
0.008084013
0.0067619835
0.051659122
-0.03915155
-0.06666571
-0.057085346
0.00015280073
-0.085773274
0.04787582
-0.019771807
-0.015733713
-0.019350154
0.05833328
0.06444579
0.028154967
0.08286164
0.053773206
0.020943373
-0.08514192
-0.07194999
0.026030019
0.01615443
-0.029499939
-0.058373343
-0.0012540474
0.06821556
0.027729664
0.051037084
0.045797125
-0.07673211
-0.0051977998
-0.0029999237
0.045365542
0.054163665
0.07446632
-0.056642253
0.06880907
0.041888665
-0.03982062
-0.045390055
0.029722547
-0.07819798
0.065322675
-0.07496408
0.03878204
0.007388956
-0.042703345
-0.00011900461
0.031885467
-0.052811094
0.044096496
-0.046122745
0.062294886
-0.08463213
-0.005313706
0.052238088
-0.027165646
0.044534367
0.03720337
0.051316
-0.077699505
-0.079520665
0.054810233
-0.027304174
0.042125158
0.08293833
-0.021246873
0.06417017
0.01892753
0.066680826
-0.07568304
0.0698746
-0.0750765
0.082648806
0.06249404
0.0070711453
-0.07123678
-0.029346531
0.053035714
0.05296011
0.08481898
-0.032628644
0.060179725
0.06667739
0.015336368
-0.034037657
0.041657932
0.06494441
-0.035401158
-0.0701037
-0.032183796
-0.012869622
0.021464363
0.041672934
-0.04049611
-0.020306379
0.042884402
0.044521224
-0.047483824
-0.026626263
-0.03432984
-0.005216524
0.06689596
0.078719705
0.060877744
-0.0134215215
-0.034038715
-0.026423454
0.050081074
0.06803352
0.03724718
0.02992593
0.020536887
0.005629916
0.07324904
0.014056332
0.044183757
0.04977691
-0.07368636
0.017012889
0.05034531
-0.084971406
-0.056139752
-0.06752813
-0.036646668
-0.03778559
-0.040674184
0.04845246
-0.026458092
0.0062138173
0.08473912
-0.07217344
0.0028740037
-0.07595553
0.007117766
0.046995472
0.039667655
-0.073108666
0.07620875
0.0741377
-0.011662954
0.011232674
0.06972205
-0.082178645
-0.07566512
0.062509365
-0.05637923
0.031019071
-0.04436223
-0.03847185
0.04169268
-0.004299566
0.059640884
-0.051300343
0.01235086
0.018918613
-0.04886775
-0.059747845
-0.00759952
-0.07898585
0.08282901
-0.021582771
0.049125593
-0.07970527
-0.009901339
0.041926976
0.060676653
-0.0358932
0.07637157
-0.031348176
0.04005359
-0.042878523
0.028087467
0.03834145
-0.022240678
-0.025455557
0.07065835
-0.05300204
0.01566762
0.010106978
0.04537016
0.032417096
0.0070632244
0.0665491
0.07497646
0.0019427536
-0.02221908
-0.044929087
-0.07639958
-0.081208974
0.009933206
0.06308297
-0.011757304
-0.033490937
-0.056684196
-0.06937261
0.04026266
-0.036649067
-0.06326368
0.011397828
0.06222715
-0.048166916
0.015466402
0.013272394
-0.0015925934
0.036052413
0.068291694
0.011410335
0.06464292
-0.019456416
0.07526574
0.010462268
-0.0127456505
-0.065775394
-0.061753437
0.06960496
-0.08268491
-0.069006205
-0.03432873
0.042120386
0.07979164
-0.08446958
0.03077236
-0.02095227
0.06522852
0.0284145
-0.0216147
-0.043387588
-0.035336107
-0.07003922
-0.038491048
0.037988838
0.078107774
-0.06069868
0.0013825218
0.064458326
0.05023822
-0.059670042
0.017064167
0.010281048
-0.07722073
-0.012032515
-0.000104774124
-0.05221493
-0.028456178
0.017946795
0.08482795
-0.06333543
-0.027553705
-0.057079602
0.05355818
-0.07048516
-0.07699999
-0.081455834
-0.07492851
-0.0494373
-0.007232082
-0.04561374
-0.025390662
-0.033093683
0.037186872
0.04256459
-0.029336292
0.048087176
-0.050913833
-0.059267055
-0.00022725684
0.018066682
0.029458826
0.012433616
-0.0053524575
-0.05378481
0.08110024
-0.0672266
0.03350962
-0.05142301
-0.01712507
0.0043777362
0.08386002
-0.019175101
-0.07667934
-0.010499604
0.039689507
-0.015980434
-0.055516012
0.030212529
0.05889622
-0.038313564
0.03552168
0.030763261
-0.03824317
-0.06491831
0.08230403
-0.041205738
0.05242418
0.037789766
0.001874043
0.007517533
-0.0028266544
0.032753117
-0.07801263
-0.060288396
0.07255176
0.0013559281
0.047685336
0.020917991
0.04373823
-0.015339703
0.05739691
0.027282579
-0.046359736
0.06563278
-0.016482102
-0.053617224
0.04510647
0.030961491
-0.058420498
-0.07843024
-0.0087708
0.014907177
0.00034216774
0.07968025
0.00900961
-0.058595452
0.06868447
-0.032882176
-0.027799062
-0.05706771
0.016548546
0.019238127
-0.0448933
-0.0044895485
-0.042375263
0.01990182
0.01803338
0.0062926547
-0.00022656942
-0.02511658
-0.040972993
0.06288961
0.02492987
-0.0043418985
-0.07683062
-0.049373142
0.07557946
0.056303307
-0.041785125
0.08365128
-0.02814198
0.06449805
-0.0049775094
-0.038171083
-0.0074810693
0.039341103
-0.078858495
0.008256944
0.017157193
0.009899677
-0.0332842
0.044571623
0.07408303
-0.07400066
-0.01667032
-0.047599748
-0.08293631
0.06755496
-0.028549923
-0.041201666
0.08409616
0.06629534
0.008157525
-0.081514
-0.07848302
0.05316465
-0.083052464
0.08401879
-0.06807423
-0.03868218
-0.06587477
-0.00447302
-0.056503274
0.015929421
0.007632054
-0.040362343
0.026829213
-0.063800186
-0.06290972
-0.05799851
0.009776466
0.036331166
-0.013942735
-0.06473164
-0.002342151
-0.06411974
0.042247355
-0.031965002
-0.04911847
0.01860864
-0.042855274
-0.054670002
0.013453697
-0.0035522142
-0.0012383497
-0.035625726
0.017668413
0.021561574
0.041091997
0.010731673
0.07137384
-0.066777706
-0.0021592067
-0.036986846
-0.05277307
0.0050396947
-0.08442968
-0.04766246
0.08531669
0.04163736
-0.01525157
-0.028232891
-0.07136704
0.061923537
-0.016064072
-0.07896493
0.08097306
-0.00032968144
0.0073606386
0.053289223
-0.07155798
0.038712077
0.03872764
-0.036637567
0.0015550831
-0.002325294
0.07309476
-0.0062798606
0.033194076
0.08450346
-0.049367182
0.0018449049
0.041559745
-0.0038388246
0.024605298
-0.06418086
-0.05550442
0.057354886
0.016489971
0.043667633
-0.046296723
-0.035200607
-0.053298704
-0.017916856
0.038203444
-0.053151414
0.06863146
0.07879536
-0.02924383
0.031154973
0.023200696
0.03994109
0.04889922
-0.03466309
-0.073183164
0.004932602
0.012495699
-0.052975886
0.047938194
-0.05330718
0.07761337
-0.0004039734
0.056799434
-0.01121237
-0.034717623
0.011964062
0.021490257
0.043504026
-0.07922831
0.03325543
-0.06505403
0.083792046
-0.05264634
0.067811534
-0.06235866
0.021914165
0.012851974
0.0038609449
0.057526983
0.048391137
-0.017630719
0.07077345
0.06253632
-0.015510027
-0.060514115
0.08223192
0.076622814
-0.0008682545
-0.016556773
-0.030912265
0.059733264
0.025241248
-0.042136464
-0.059744716
0.043908935
-0.033668853
-0.005763408
-0.026775965
0.025013344
-0.031158574
-0.044730958
-0.0296705
0.05318456
0.018319374
-0.049707256
-0.036304243
-0.035489544
0.01964012
0.0071107177
-0.04236715
0.01306459
-0.06825857
-0.019065494
-0.0013215574
0.061197773
0.057339784
0.0090122055
-0.042893656
-0.08129709
-0.0602132
8.4859654e-05
0.072750576
0.046809543
-0.021501841
0.032449033
0.021769255
-0.05781064
0.071616374
-0.029231744
-0.07210653
-0.032236665
-0.012787214
-0.02167826
-0.066052146
0.0062637115
-0.05713281
0.018150168
0.08178547
-0.060654417
-0.066100754
0.06772075
0.053336665
-0.03867738
0.029539121
-0.044140738
-0.04549413
0.03240809
-0.040483605
-0.05863891
0.01701848
-0.082719885
0.0010550771
0.024115356
0.011994123
0.029730314
-0.057097886
-0.050557412
-0.06596003
0.07209775
0.037866633
-0.04805761
0.06936551
-0.026685935
0.06348333
-0.060003273
-0.035375834
0.069618054
-0.0053994684
0.022144768
0.064574786
0.031984538
0.011240513
-0.0032813835
-0.016345348
0.039595775
0.04744773
-0.060955085
-0.0807805
-0.059686583
0.030066099
0.059824076
0.07884395
0.054755304
0.0786244
0.03306634
-0.047909997
-0.030557241
-0.06818508
-0.0074899546
-0.043801133
-0.08256928
0.004498721
-0.029745324
-0.005757529
0.07692223
0.010661916
-0.03409662
-0.01788142
0.058740083
-0.051261898
0.048907086
0.04227869
0.008923827
0.016522044
-0.012304926
0.034464285
-0.08161322
0.082212925
0.052540243
-0.040878028
-0.0073172804
0.04374966
-0.06917516
-0.012856725
0.055720124
-0.0076759355
0.013718966
-0.08460097
-0.0004938912
-0.070751935
0.01249889
-0.06513651
0.06419636
0.044672795
-0.06094502
-0.021616835
0.061569665
-0.036686663
0.04493948
-0.083913036
-0.023643708
-0.0153998565
0.004978546
-0.06555073
-0.07500083
0.046358537
0.031356867
0.039907318
-0.078722015
-0.03434641
-0.07315068
0.012889854
-0.029505335
0.038516082
-0.0016101891
0.0135169495
-0.0126364445
0.016090974
0.057377674
0.07050843
0.00468422
0.08265786
-0.07189266
0.018413108
0.017187655
-0.001724669
0.0003406903
-0.0068396307
0.06305331
0.079602234
0.024738388
0.028995818
-0.013121307
-0.009339251
0.020190379
-0.03743903
0.053456604
0.018473478
-0.00480462
-0.071085826
-0.023989549
0.049963538
0.008521434
0.046884995
-0.07793199
0.036072563
0.012283729
0.028683588
0.03274457
0.05939612
-0.052706514
0.074256025
-0.015624908
-0.03301133
-0.0020201541
-0.0038928224
0.03253891
0.05848448
-0.01756089
-0.065968804
0.022764958
0.013582561
0.08088112
-0.022935057
0.06222006
0.038091253
0.04038939
0.06691853
-0.059842296
-0.0780133
-0.027144264
-0.0353298
0.06438951
-0.07086371
-0.06555094
0.044240423
0.05279514
0.020321049
-0.016957454
-0.013545338
-0.051397216
-0.0104657775
0.062147316
-0.039732147
-0.0073910183
0.0270055
-0.030162614
0.008849351
0.016899105
0.07039706
-0.08362355
-0.021474868
-0.007010489
-0.075363
-0.0061316662
-0.027301867
0.051420026
-0.045112032
-0.07830369
0.0306985
0.005668637
-0.04515889
0.069698304
-0.011752051
-0.082736745
-0.0636813
-0.035784364
-0.0040446585
0.07991777
0.08065125
-0.057189945
0.07084632
0.015478438
-0.05604876
0.050744675
-0.064358205
-0.062127165
0.060498253
-0.049937613
-0.06551802
-0.027331302
-0.051318944
0.06236219
-0.04179678
0.0036043036
-0.07245027
0.08034385
0.049965817
0.08116577
-0.030922627
-0.08209704
-0.01426902
0.074063055
-0.085513875
0.02806742
-0.080022305
-0.066318795
-0.045204595
0.015270961
-0.016827809
0.015254915
-0.074812435
-0.04712676
0.075796865
0.007973801
-0.078200996
0.053291738
0.0499786
0.04453364
-0.06946032
0.0041464986
-0.07654593
0.055969223
-0.048605897
-0.050796796
-0.024523413
0.08284817
0.017121818
-0.065347955
0.0148591185
-0.06469217
0.011493615
0.061603017
-0.06409944
-0.07849155
0.07939329
0.05918634
0.07265496
-0.041742403
-0.03466676
0.05843119
-0.005967826
0.023747252
0.08469718
-0.073105074
0.053332604
0.011545129
-0.06628905
0.0063907085
0.03243901
0.04040524
0.024523506
0.053246174
-0.07375123
-0.07228152
0.02943372
-0.0036056272
0.052935936
-0.07516583
-0.035567142
-0.03269876
-0.0068345824
-0.035556667
-0.08314207
-0.031965207
-0.02614853
-0.05853387
0.07773859
0.00093546713
-0.0478722
0.03336199
-0.011846124
-0.0074137026
-0.019418404
-0.0020229963
0.018257199
-0.059311427
0.06012751
-0.019165456
-0.018952265
-0.07762098
-0.04938996
0.04761397
0.0232754
0.026806908
-0.029590338
-0.026702154
-0.041028414
-0.06419111
-0.020660581
-0.019876273
0.05574871
-0.08295086
0.033066157
0.06853828
0.008963009
-0.03939866
-0.052889623
-0.026389966
-0.02734817
0.012769915
-0.016951697
-0.016416192
0.0059794094
0.073465355
-0.06798855
-0.0062253596
-0.007883494
0.073451966
-0.026608625
-0.045318667
-0.015944432
-0.045808535
-0.08480502
-0.011510718
-0.03148446
0.042849764
0.03416413
-0.076276235
-0.007726199
-0.07110942
-0.055597126
7.9298785e-05
0.052869726
0.031117402
-0.073188685
-0.045949105
-0.013811286
-0.038480613
-0.080225326
0.00622498
-0.008873184
0.040357143
0.058384877
0.0071072704
0.012518692
0.030943178
-0.049251728
0.08165496
-0.052798238
-0.08251842
-0.046711497
0.08594224
0.050616898
0.034621987
-0.07862094
0.055981986
0.030870691
0.083998874
0.0189094
-0.027033426
0.037971385
-0.08289576
-0.05801747
-0.00597746
0.0022774315
-0.026100228
-0.07592471
0.023180269
0.05712022
0.011267723
-0.034847204
-0.020246409
0.002280058
-0.08460101
-0.02673239
0.03676249
-0.058425147
0.04790416
-0.04840228
0.07306893
-0.03292144
0.074944034
-0.07436534
-0.082172416
0.079117104
0.015354888
0.08274393
0.03750658
0.0329296
0.08200607
0.01958209
-0.030914173
-0.077159174
-0.0007181624
0.08382197
0.055788096
-0.030994035
-0.08426268
-2.5660016e-05
-0.04692196
-0.07445613
-0.010700309
-0.002234771
0.046359893
0.0031329433
0.05816117
-0.025493456
0.027086707
-0.06555614
0.03350684
-0.071369275
-0.08100144
-0.07210914
0.066949494
0.068520196
-0.071300276
0.032855984
0.06614356
0.036389146
-0.030576715
0.08380021
0.08518289
-0.048194844
-0.0191052
0.034961704
-0.054207157
0.06975296
-0.03461374
0.01605766
0.0732402
0.07606481
-0.05242104
-0.024720926
-0.082185745
0.061163545
-0.05735671
0.028930072
-0.002573204
0.067774646
0.0023156086
0.03711187
0.048254363
-0.03732501
0.0766939
0.032179292
0.063902244
-0.08403906
0.07979704
-0.06674171
0.023205528
-0.03520187
0.02662574
0.050782096
0.049518444
0.05842968
0.08300771
0.011859975
-0.050451703
0.0021069325
0.0023037174
0.08179665
0.07914811
-0.007581524
-0.029435588
0.05502601
-0.03249394
0.012821451
0.04219472
0.06525819
0.030343363
-0.010090183
-0.0840267
-0.036256906
0.0741811
0.040025212
-0.027986767
-0.012898883
-0.027649472
0.016769769
-0.0532274
-0.01953159
0.07366669
-0.05209284
-0.033873305
-0.035276663
-0.009948934
-0.07342772
0.051110286
0.027205115
-0.05074354
0.065612465
-0.006766847
-0.02785905
-0.06566172
-0.04752399
0.024567664
0.019847669
0.017885584
-0.08265667
0.047364634
0.017716512
0.04203048
0.054708775
0.019711027
0.035568446
0.020810673
-0.009377489
-0.0013664035
-0.077724904
-0.0029080564
0.055350654
0.06525299
-0.05659241
-0.048623923
-0.034902986
0.052448723
-0.060543858
0.011756925
-0.007900433
0.0646645
-0.07721922
-0.024813266
0.0758254
-0.0723919
0.06798746
-0.003403702
-0.053809687
-0.07412929
-0.024343394
-0.05963434
-0.016715033
-0.031306963
0.026734104
0.021561902
0.039354216
0.052589633
0.06527435
0.06911085
-0.052023984
0.019931337
0.013791463
0.07952782
-0.0072779846
-0.019533807
0.07585011
0.08152097
0.006966607
-0.04334863
-0.024648245
-0.06404287
-0.0634913
-0.025138104
-0.009529366
0.058268107
-0.065480664
-0.007948193
0.07074573
0.049045566
0.032696832
0.06608081
0.026817087
-0.07584533
0.06682683
0.017606474
0.066589825
-0.050635953
0.06192997
0.0075033745
-0.03676713
-0.0562967
0.02555755
-0.08104188
0.08045963
0.069175616
-0.06763582
0.04590787
-0.0598674
-0.021918107
-0.0123439655
-0.03884794
0.072536856
0.0076449714
0.010082416
0.016576689
-0.07584327
-0.010824843
-0.009919027
0.0047962274
-0.027554322
0.015621707
-0.080746464
0.07524765
0.044390235
-0.013682297
-0.042062253
0.069815435
-0.028573807
-0.046328947
3.645343e-05
0.019548828
-0.00979638
0.015881056
-0.01870453
-0.050068498
0.013231293
0.054444693
0.044447478
0.052146837
0.014476301
-0.057441313
0.06197852
-0.0011090544
-0.04437588
0.018469036
0.079017416
0.0011159593
-0.03458446
0.048421916
-0.08570785
-0.08383063
-0.081969984
-0.0058724703
0.04673327
-0.00877314
0.0014523302
-0.05436469
0.07840041
-0.07858842
0.031526443
0.053843055
-0.049003683
0.017004978
-0.006268031
0.08209627
0.0027469452
-0.022855686
0.00324927
-0.0691544
0.03381003
0.08591613
0.015570386
0.06205077
-0.037155814
-0.0015219436
0.06022616
0.06231769
0.023732528
0.050840933
0.0368867
-0.036739603
0.021345213
-0.006217121
0.06497915
-0.08117143
0.03818546
-0.0548925
-0.0056814104
0.022410724
0.052377425
0.015786193
0.08148205
-0.041190267
-0.03774233
-0.0076244823
-0.04634237
-0.028009932
0.08231024
-0.011795922
-0.034680367
0.03323806
0.03287765
0.05068403
0.039488353
0.024939053
0.045623958
-0.026306646
0.018426713
-0.067345396
-0.026127242
0.07823376
-0.059635486
-0.014647385
0.059705194
-0.0011107883
0.056595672
0.043627568
0.022637818
0.0386182
-0.06502916
0.057052024
0.084853575
0.020330068
0.07646749
0.07651545
0.067850515
0.051211994
0.06960314
0.011425243
-0.020956866
-0.052617766
0.03775052
0.012077803
0.055672456
0.039289545
0.06904485
-0.057001155
0.030084988
-0.037218276
0.01632888
-0.04132914
0.012812668
0.005031015
-0.015205606
0.074322075
-0.035642255
-0.057901233
0.057822276
0.067290545
-0.022846002
0.00032097078
0.024035472
0.025951674
0.07978615
-0.0044304617
0.004094727
0.045717314
-0.07134644
-0.056000095
0.00949672
0.016510142
-0.04329611
-0.0021967373
0.082041875
-0.044072766
0.0070607723
0.009848726
-0.005820381
-0.06218859
0.047291685
-0.035256237
0.07252104
-0.0656993
0.06306859
0.05747751
0.033639356
-0.022055916
-0.075230345
0.032406457
-0.0709218
-0.060507033
0.062966
-0.066598155
-0.038253214
-0.03404322
-0.08185212
-0.038486328
0.020752007
0.07890387
0.009138844
0.047398686
-0.06317111
0.0002856767
0.020136556
-0.043361682
0.0657789
-0.0036544541
-0.023149008
-0.075008415
-0.041061115
-0.07712897
0.02898366
-0.06890727
0.007304189
-0.034281474
-0.08024922
0.062154397
-0.07377387
-0.028163863
0.0058166976
-0.0019467549
-0.06756305
-0.044917647
0.050079208
0.015325401
-0.029981188
0.08522603
-0.040975228
-0.059594005
-0.021699673
0.014384958
-0.021098329
-0.019310214
0.052468628
-0.027036218
0.08579218
-0.06824374
-0.019649036
-0.020034634
-0.0103083495
-0.017910887
0.04004368
-0.0503695
-0.024093974
0.0010996152
0.0063371314
0.036215648
-0.008012994
0.0020335845
0.04344965
0.076938994
0.037148807
0.07070651
0.079225495
0.06955359
0.035217352
0.054207455
-0.02787002
0.076959915
-0.072005175
-0.029053263
-0.009941804
0.08043839
0.047671765
0.035472997
0.00454881
-0.06628165
0.04932005
0.011718645
-0.0852239
-0.00847352
-0.07057683
0.06391795
0.03173629
-0.06209843
-0.054703522
0.07771456
0.079310894
-0.054065365
0.05993449
-0.017516177
0.056542333
-0.07110352
-0.0040539233
-0.053086128
-0.06041056
0.0316597
0.03498434
0.0034469168
0.07737932
-0.076450326
0.033792127
0.049669664
0.032083772
-0.07005692
-0.061241776
0.08369085
0.00014353603
-0.014390282
0.076635815
0.050509367
-0.017029222
0.04106853
-0.067197755
-0.085826136
-0.03622823
0.004352302
-0.02608138
0.0032299608
0.059542563
0.046471756
-0.02697238
0.030221835
-0.036022004
0.0478919
0.042882904
0.04143678
0.04810787
0.057342
-0.03852393
-0.08260911
0.051228963
-0.0439774
0.048822865
-0.04344373
-0.024147522
-0.06951313
0.060893226
-0.073227726
0.0783682
-0.0020886287
0.010611027
-0.039498348
-0.07895043
0.026355082
-0.07080806
-0.06369324
0.03428655
-0.053388603
0.043461766
0.08570377
-0.037409123
-0.050449375
-0.010825859
-0.0048638606
-0.0009239145
0.011878504
-0.07587837
-0.035716116
0.065567754
0.071117036
-0.039668415
-0.06625476
-0.02457699
-0.016526558
-0.04348517
0.04067807
0.0046862923
-0.010700483
0.022470972
0.010060665
-0.024278386
-0.06913871
0.0020219395
-0.059431776
-0.06340144
0.009094696
0.051555518
0.02019789
0.054391447
0.059630632
0.0050812885
0.06400032
0.026158627
0.00844392
0.015932808
0.076417096
0.013146762
0.08043016
-0.031664707
0.071759924
-0.0016403121
-0.035783883
-0.08488533
0.065817885
-0.07665719
0.05077492
0.03916775
-0.0059959176
0.050513275
-0.05779403
-0.02365163
-0.06665907
-0.05961282
-0.021225521
-0.0035326486
0.01078089
0.074090764
-0.056584448
-0.029923046
0.0513069
-0.068927616
0.072921515
0.033798724
-0.054848935
-0.011762558
0.00899026
-0.053314216
-0.07208895
0.029300937
-0.08283217
-0.0019892103
-0.0662459
-0.021840172
-0.0776779
-0.06862006
-0.06833027
0.03895498
-0.010757056
-0.082349606
-0.00337915
0.0063269637
-0.034691684
-0.049629334
0.076265775
-0.053992398
0.03084218
0.049766365
0.02924894
-0.07208947
0.05193966
-0.061228674
0.07935063
-0.046227787
-0.028273603
0.049508214
-0.022589719
-0.06171127
-0.07310464
-0.059370156
0.0088095525
-0.016531166
0.060221266
-0.010267187
0.06378811
-0.040811665
-0.026969671
-0.01166553
-0.013941966
0.054638218
0.03459446
0.0020317275
-0.0020563921
0.009711018
0.06185925
-0.037411094
0.0010327104
0.0033061816
0.07187022
0.030128645
-0.04363674
-0.015483537
0.07461392
0.0410089
0.036622383
0.024768954
-0.084847495
0.047131363
0.02518924
-0.0048609264
0.06705553
-0.030262424
0.08098831
0.07029804
-0.025652198
0.04218408
0.047185834
-0.021617481
-0.011341738
0.0807215
0.01917351
0.08474527
0.0356934
-0.006258345
0.054217078
-0.020037824
0.011954982
-0.036626957
0.07734153
0.022822773
0.08444727
0.08447192
0.06589135
0.042297013
-0.0130260335
0.031509914
0.029344572
0.06604935
-0.057170596
-0.051185463
0.048975296
0.025608798
0.039860696
-0.030592885
-0.08392728
-0.074739985
0.08508282
0.064953536
-0.0061305584
-0.05790184
-0.0382357
0.018456507
0.0070962305
-0.006723478
-0.051369924
-0.0673675
0.05978928
-0.08455351
0.034688782
-0.00984613
0.0015998778
0.022510974
0.06334898
0.009512161
-0.04186077
-0.035827793
-0.038812667
0.023656584
-0.022422729
0.029897314
-0.046142288
-0.06718902
0.0297728
0.05756974
-0.058484502
0.025212951
0.08360355
-0.036935873
-0.04925226
0.07433928
0.058967598
-0.080356486
-0.06503139
-0.028133174
0.009136977
-0.076343186
-0.024439415
-0.03970617
0.010558804
0.005298419
-0.070577666
0.041418526
-0.0009514623
-0.062843226
-0.029115427
-0.056027748
0.01820876
0.011270831
-0.015770352
0.033529647
0.012917628
0.074814245
0.0651312
0.078013115
-0.056559086
-0.08143895
-0.005769779
-0.083984554
-0.029557485
-0.022999644
-0.0719968
0.0379523
0.03005544
0.048984796
-0.017703481
-0.05484282
0.056821328
0.06471205
0.033286087
-0.023923589
-0.055522528
-0.0028607172
0.060206912
-0.06690549
0.054804366
-0.004452808
-0.034402233
0.03602893
-0.062492974
-0.0042017377
0.06833499
0.07570087
0.029714718
0.070524395
-0.0673545
0.056419697
0.021118429
0.048906993
-0.019913167
-0.0016285748
0.01586187
-0.08124388
-0.05149084
0.068952516
-0.06000735
-0.026947305
0.023970928
0.024873111
0.018831281
-0.01726244
0.021569792
-0.012460928
0.029253116
0.08458348
0.019451184
-0.067058615
-0.07834644
0.00039514987
0.024565099
0.07817066
-0.07365435
0.038893677
-0.065567605
-0.07427717
-0.045394916
0.08115127
0.063333035
-0.045227118
-0.06285534
-0.060938228
-0.052668367
-0.03469193
0.040389992
-0.026824536
0.051886387
-0.034421418
0.07583016
-0.07747834
-0.06734674
0.029384237
0.0070847906
-0.011645851
0.082766674
-0.0011848545
0.029429607
0.010883509
0.0064393813
-0.016659228
-0.062186036
-0.043244615
0.040071506
0.02916604
0.042044524
-0.07647058
0.02018722
-0.044092607
0.04102427
0.07818189
-0.029951917
-0.05349323
0.07872193
0.032836705
-0.058025494
0.021828147
-0.025308533
-0.026290456
-0.07292815
-6.859771e-05
-0.07327483
0.085043
0.061799627
0.032212574
-0.008011671
-0.034003418
0.045465466
-0.056827076
0.0005078549
0.06631566
0.085334636
0.0188198
0.018732345
0.020174703
0.060457386
0.07615511
-0.027345296
-0.03274219
0.03278693
-0.0051948554
-0.010755465
0.07112836
0.02369742
-0.02109164
-0.0057789516
0.0413602
0.008258216
-0.04951393
-0.064066485
-0.0669009
-0.058295358
-0.043164004
-0.07442643
0.024821177
-0.023899447
0.06036597
0.02544421
0.0050829607
0.027884198
-0.034904845
0.07077339
0.07375235
-0.0011513868
-0.024672674
0.028791768
0.05920102
-0.050316427
0.06983694
0.012575521
-0.062238548
-0.080815576
0.04395815
0.071421936
0.0501152
-0.07479077
0.0162708
-0.0006491748
0.0153008895
-0.03445196
0.036094766
-0.012409157
0.010272748
-0.023153162
-0.017360257
-0.07277178
-0.05154894
-0.07945348
0.007245461
0.0007903613
-0.0013524295
0.0038537527
-0.065093465
0.047672585
0.008658301
0.074638695
0.026189098
0.04606414
0.040225435
0.03255466
-0.0802628
0.058034707
0.02956513
-0.032158557
-0.037666
-0.019464338
0.053491674
-0.051554665
-0.05728195
-0.053520195
-0.025884852
-0.08113066
-0.010380846
0.030549547
-0.07741791
0.018010028
-0.054879375
-0.06151394
-0.02883401
0.0035574774
0.028477877
0.02259884
0.033946343
0.043120287
0.0775654
0.02691748
-0.028314775
-0.0011306514
0.054719426
0.024289232
0.034764007
0.0052473657
-0.023608537
0.06637779
0.078720786
-0.028840318
-0.020341497
0.06296239
-0.01776067
0.0058255624
0.077619426
-0.06688413
0.035490714
-0.08576169
-0.0013173406
-0.008882962
0.0343563
0.032139022
0.046678904
-0.037339672
-0.026119167
-0.021601157
-0.08516924
0.008249352
0.0799391
-0.074722886
-0.03481195
-0.0471402
0.024532894
-0.04664368
-0.052606847
0.008015498
0.042089228
-0.019394303
-0.013798881
0.017219635
-0.039722443
-0.01578171
0.0016076753
-0.014100512
0.030594599
-0.07322064
-0.067053005
-0.019186674
-0.014227796
0.013552582
0.019590268
-0.03517114
-0.054608956
0.014146415
-0.07296969
-0.00093514903
0.048306912
-0.04817291
-0.04567727
0.054681707
0.044501886
0.039415877
-0.03315594
-0.021398596
0.004087966
0.008326834
-0.020375982
-0.014886954
-0.040201344
0.07729271
-0.022484822
0.062439807
-0.03785069
-0.00839139
0.01117173
-0.07949054
-0.017018747
-0.022839004
-0.021696256
0.047004756
0.016064227
-0.073725514
0.06747277
-0.0020561665
0.059714418
0.02787047
-0.03719977
0.024101762
-0.034856737
-0.06806992
-0.05494069
0.07101263
0.042462505
-0.037839852
-0.039043177
0.08018841
0.02094048
-0.045561507
-0.06405596
0.033858538
-0.08419443
-0.059214205
0.08267681
0.07497672
0.010049092
0.017525205
-0.021901332
-0.019481441
-0.070777215
-0.046861663
-0.0246934
0.05613082
-0.009305649
-0.06572316
0.01732918
-0.046287786
0.026850041
-0.06054633
-0.013653334
-0.0565845
-0.059783157
0.047247835
0.07195835
0.032460198
-0.026778294
0.041583866
0.07905305
-0.07647544
-0.07083883
-0.049234256
-0.037963547
-0.06575637
-0.07685716
0.045256153
-0.055429574
-0.03478748
-0.07959255
-0.07578597
0.020223847
0.013020688
-0.05326978
0.053949058
-0.008726672
0.004617356
-0.029180968
0.002544148
-0.0015327473
0.009869205
0.056991007
0.084800825
-0.00097298756
0.015843956
0.085110836
0.08377092
0.037119053
-0.055578135
0.009602356
-0.030688897
0.01424686
0.036852863
-0.065246806
0.06537724
0.0030737333
0.048034236
0.076036535
0.069243334
-0.005474848
0.017403288
0.04047716
0.011410489
-0.069927536
-0.043301936
-0.05818726
-0.011140212
-0.0002803826
-0.03794366
0.057607383
0.042563934
0.015326283
0.010590394
0.024674142
-0.0044222744
0.025321469
0.06555941
0.08326877
0.06418366
0.04603335
0.07445559
-0.010869894
0.077278055
0.037939128
-0.060856827
-0.059162874
-0.06309771
0.06784027
0.06716464
0.035302352
-0.04118205
0.004292466
0.07076806
0.06833555
0.054222517
-0.069959186
-0.053530496
0.06324271
0.06292673
0.014645139
0.08489635
-0.0012889003
-0.05181338
-0.058079492
0.05648701
0.01241006
0.035647303
-0.03218677
0.03787039
0.050481983
-0.07909935
0.012877234
-0.07938483
-0.057860956
-0.03372466
-0.052775778
0.027953781
0.025218358
0.012183121
0.02551536
0.01625618
0.07240683
0.027432946
0.068021
0.047884
0.03545018
0.045876548
-0.04517435
0.039909635
0.037687924
-0.00729239
0.064552665
0.056215942
-0.0011854497
-0.011399767
-0.0011583122
0.030502412
-0.08229733
-0.078978166
-0.026959658
-0.022496939
-0.075743586
-0.017188834
0.044141125
0.028231116
0.08162092
0.014607515
0.07621429
0.019470053
0.029017866
0.04610483
0.034500748
-0.05829096
0.03781125
-0.08167939
-0.0438014
0.07564987
-0.041624494
0.009281262
-0.06988327
0.025200557
0.05616602
-0.041783575
0.04198783
0.03124125
0.04805058
0.052570242
0.054019865
-0.07499074
0.034078706
0.008004447
0.08056804
0.0061787493
-0.047359463
0.016285717
-0.052476108
-0.04435165
-0.026149988
0.00841668
0.00013129596
0.011649237
0.044517808
0.05676841
0.03211052
-0.0737606
-0.011439155
0.0005007756
0.054863483
-0.020445256
-0.026939671
0.046480034
0.021158667
-0.074498676
-0.047041733
0.011450009
0.03320916
-0.043563463
-0.019311495
0.027499134
-0.025627872
0.03796051
-0.034441557
0.035873316
0.071091704
0.016311439
0.032827277
-0.079815224
0.030707251
-0.016670002
-0.06463133
0.057351664
0.07209557
-0.04253901
-0.060757756
-0.064583875
-0.024397349
0.067196675
-0.07401354
0.0401704
0.06749898
0.0733344
0.052913066
-0.0484099
0.062008858
-0.053455546
-0.050858427
-0.06554267
-0.027369747
0.034639142
0.03530458
0.044922132
-0.072909676
0.04433114
-0.017879173
0.04201428
0.056015003
0.07134272
0.0029353888
-0.08296951
-0.037744097
0.077145234
-0.07260495
0.04498882
0.049738232
-0.08292107
-0.026795806
-0.015078897
-0.0037995803
0.00086217036
0.032773163
0.05684512
0.08236577
-0.015828403
-0.024830954
-0.051962823
0.029482208
-0.07997782
-0.051032938
0.062238958
-0.024628824
-0.016837874
-0.07241937
0.07844889
-0.046667546
0.006949145
0.04921479
-0.027713854
-0.06947569
0.06597269
0.04733601
0.031120623
0.08590925
0.04586043
-0.026901793
-0.019215565
-0.079176426
-0.056238413
0.06745969
0.0012936916
-0.05198164
-0.07643773
0.03595195
0.014054383
-0.05928896
-0.06195453
-0.023341062
0.050663747
0.0409493
-0.026024817
0.045637667
-0.018048871
-0.04928178
0.049682662
-0.0035121902
0.06545114
0.028301623
-0.05120826
-0.050730128
-0.043889627
-0.007953251
-0.028976735
-0.013908416
0.07441121
-0.050587177
-0.054068804
-0.0099302
-0.03433074
0.044626717
-0.009354589
0.04263408
0.026069375
0.05042303
0.014610819
-0.0823441
-0.079190984
0.060833514
-0.07477479
0.017431892
-0.040013514
0.069762
-0.0855206
0.019298589
0.072794445
-0.0105263
0.07119858
-0.0016300317
-0.073919326
-0.026544245
-0.0023149725
-0.004184665
-0.025491763
0.0655712
0.016607078
-0.051327858
-0.0008529775
0.043406475
-0.031118345
-0.047525663
-0.0146451695
-0.00035706512
-0.05897358
0.005207762
0.05199188
0.013567694
-0.038906574
0.035955377
-0.08322493
0.0829591
0.06464076
-0.080179185
0.078164294
0.07517074
-0.07481156
0.061741404
0.06877766
-0.06373592
0.055278044
-0.00463764
0.06392779
0.061067678
0.048188094
-0.0018267551
-0.07375105
-0.0492589
0.05117751
-0.06571494
0.055308495
0.07565689
0.023668077
0.0648912
0.014418241
0.07457148
-0.017208636
-0.030005947
-0.07327379
0.009032572
0.029400365
-0.00701253
-0.072622366
0.076989986
0.07389817
-0.018911328
-0.07655756
0.062234763
0.024202935
-0.071444616
0.08295083
-0.013936313
-0.051290166
-0.065126054
-0.036784716
0.02375111
0.027651196
0.026373684
0.06467145
-0.041680105
-0.026608389
0.021218607
-0.0011110756
0.033281595
0.06459486
0.07457118
-0.049040988
-0.03481656
-0.06990558
0.05633388
0.057759527
0.003084414
0.0127677405
0.046018627
-0.0757198
0.015325277
-0.05947961
0.04242091
0.060260788
-0.021910328
0.05721771
-0.018712636
-0.070159964
-0.07727765
-0.032986775
0.052374195
0.08593487
-0.033195995
0.043283973
0.02161985
-0.07732458
-0.08503674
0.07609002
0.003140043
0.073290914
-0.03541863
0.05280039
-0.011710437
-0.05815277
-0.03103125
0.04756853
-0.048414107
0.024933882
0.06997741
0.03205256
-0.005776448
-0.002965635
0.07836589
0.05665009
-0.009729568
0.021878647
0.054424133
-0.06600935
-0.05321013
0.0230421
0.019716999
-0.038928244
0.038366895
0.023164488
-0.0043722778
-0.016584147
-0.055938628
0.060390204
-0.08175331
0.009298827
-0.008179276
-0.04933286
-0.029878354
0.029234083
0.04751253
0.036395136
-0.015724828
0.074009344
-0.05539747
0.076595165
0.0367174
0.074394345
-0.024715202
0.004072186
-0.038538523
-0.07670373
-0.013250961
0.05068013
-0.015584412
-0.010714364
0.07489938
0.040924564
-0.062356442
-0.045666732
-0.04033221
0.040291477
-0.08044414
-0.044066392
-0.016864274
0.08428672
0.03871813
-0.05203614
-0.035252266
-0.0136524
0.081995845
-0.078882076
0.08109675
0.056623373
-0.02796326
0.07217352
-0.022610486
0.042955972
-0.022974681
0.07659925
0.03276546
-0.059490874
-0.043269098
-0.04341959
0.080474295
0.011341112
-0.042776786
-0.042524382
-0.062188316
0.05209607
0.06813078
-0.03793209
0.060282342
-0.026440773
-0.008080207
0.03493976
0.03739526
0.03920901
0.08168516
0.06417315
0.06250234
0.0329403
-0.0073084463
-0.0018150075
0.020071713
0.0407064
0.0666628
0.06808893
-0.004770557
0.08475403
-0.083758526
-0.07033534
-0.081516944
-0.04788987
0.047430757
-0.04173958
-0.0028578136
0.051939823
-0.042908277
0.072304375
-0.057919107
-0.008460459
-0.04635667
-0.05362653
-0.07584364
0.036465295
0.058455855
0.04076134
-0.00012737668
-0.0103519745
-0.053735334
0.069514185
0.061328247
-0.022985833
0.04678612
0.05800138
-0.032342125
0.03300934
-0.03763513
0.019311875
-0.022770518
-0.024658721
-0.017963652
0.03780729
0.06035243
-0.08457693
0.0491938
0.08425722
0.048442632
0.071891405
-0.08128936
0.057992496
0.06232516
-0.075629
-0.038460527
0.023487953
-0.07441733
-0.026622426
0.031599525
-0.084754385
-0.0007282889
-0.07507632
-0.03267463
0.0054226764
0.080618
-0.03210157
-0.016042475
-0.045388494
0.07523934
0.05547723
0.07032252
0.017558366
0.007377198
-0.044055466
0.010195962
0.031499233
-0.038117968
-0.019176148
0.037937764
0.014707427
-0.06610857
-0.040126633
0.02157758
-0.041634478
-0.0030644995
0.024498297
-0.012268412
-0.008566875
-0.0658795
0.0026022396
-0.013790663
0.010212963
0.045445982
-0.037749086
-0.00924328
0.03186826
-0.081578985
0.06938763
-0.057298537
-0.016213734
0.050135534
0.062466275
-0.08450759
0.062231448
-0.0041521825
-0.03837234
-0.020285293
-0.085416935
-0.075445525
0.06722857
-0.020756254
-0.049128823
-0.032454975
-0.03121087
-0.0005398248
0.06787501
-0.04623876
-0.06779255
-0.013970365
0.05579625
-0.028924173
-0.015124953
-0.08384654
-0.0017801546
0.038070556
-0.051336046
-0.03808648
-0.031296417
0.028239427
0.060222343
0.008513247
-0.058703702
-0.020162432
-0.05716036
-0.027467543
0.048230458
-0.048477832
0.02966625
-0.017371072
0.07291454
-0.012935531
0.051657245
-0.027957957
-0.061238617
0.08214514
-0.07086302
-0.08571155
-0.071469486
-0.028580835
-0.07793918
-0.05119963
0.028713219
0.051894974
-0.08256663
0.021447567
0.024035051
0.037631743
0.06046733
0.04203326
-0.070799656
0.03838765
0.024561282
0.035433948
-0.06513998
-0.06834065
-0.08290888
-0.0843598
0.00035951723
0.06541073
-0.06031894
-0.032963056
0.008715521
0.04936286
-0.062107693
-0.03210018
0.009039877
-0.049104385
-0.058131497
-0.07797671
-0.020032736
-0.0011035244
0.002225147
0.010766033
-0.037853654
-0.012049198
0.031111185
-0.0791526
-0.04788994
0.04272487
-0.0014140608
-0.07063596
-0.044685014
0.0200163
-0.05093313
-0.055160128
0.03867569
0.061007388
-0.021139462
0.039774083
-0.024203213
-0.04864821
-0.055578712
-0.067371115
-0.0848805
-0.0299532
-0.08557839
-0.06375711
0.045446217
-0.060355753
-0.059039224
0.062451575
0.008193804
0.06225371
0.06962562
0.0384251
0.054717854
-0.016836971
0.0070913057
0.012302895
-0.056930494
0.012950428
0.052287303
-0.020572735
-0.02111137
-0.032435276
-0.044250436
-0.03657723
0.01370486
0.047722593
0.077915646
0.038593493
-0.057726726
-0.0010834867
-0.0023938813
0.046595644
-0.017962134
-0.020683778
0.009207626
-0.07378188
0.032978546
0.08500561
0.06419243
-0.0348794
0.025352158
0.010707819
0.013935143
0.06752622
0.07972659
0.06252037
-0.043821283
0.041371826
-0.041210826
0.0678294
-0.08410871
-0.00639037
0.061454035
-0.0757409
-0.0050832992
0.062017415
-0.040666558
-0.018328423
0.05436121
-0.02882734
0.02002147
0.07322684
0.0062196963
0.073726505
-0.030403692
-0.0031829807
0.048879344
0.062924914
0.012361274
-0.07686671
-0.037023216
0.081634305
-0.062605
0.00041240704
0.0467436
-0.010375552
-0.07293756
-0.038908534
0.03388148
0.013413509
0.020804046
-0.07670544
-0.016866745
0.064117886
0.06372451
0.081878595
0.078659296
0.0837128
-0.080533944
-0.051687673
-0.01935624
0.07836194
-0.0806611
-0.033456966
0.0025477596
0.07079607
-0.070767395
-0.05399482
0.08475333
-0.051252827
0.053814758
0.04019051
0.07446387
0.04268306
0.0016128874
-0.066727996
-0.007174914
-0.07782212
0.042281456
0.0253898
-0.05757384
0.079216376
0.0028102899
0.022499463
0.044542145
-0.003492204
0.043056715
0.03403303
0.036578543
0.044262275
0.046177
0.0030255837
-0.0057179667
-0.040104255
0.02986355
0.026766967
0.063023135
0.06684561
-0.06480328
-0.05541755
-0.080830865
-0.059734628
-0.048852637
0.0043216143
0.030297583
-0.010655093
-0.069067344
0.04198081
0.025628312
0.007275984
-0.04325278
0.082389265
0.06549344
-0.04333642
-0.06349416
0.0153059475
0.05859412
-0.053173248
-0.05556048
-0.08536093
0.0639985
-0.052612543
-0.00505096
-0.036776476
-0.050039493
0.05676716
0.033078283
-0.0019178425
-0.036253314
-0.0750287
0.027529359
-0.035990413
0.058261655
-0.05902166
-0.03254439
0.04643955
0.083415024
-0.06730427
0.07335066
-0.07589975
-0.069066614
-0.040796265
-0.07066828
0.064611696
0.054803923
0.00012747929
0.08543651
-0.010349225
-0.009035003
0.01908899
0.05045701
0.031035908
-0.024682945
0.04813399
0.01737302
-0.0052371877
-0.0011323239
-0.02161743
0.0033265885
0.018990792
0.003181729
-0.027424503
-0.009128297
0.037831582
0.0076686717
0.060639273
-0.022581685
0.02060446
-0.040262863
0.040624484
0.064663894
0.07192018
0.07163125
-0.054143444
0.07433718
0.010652579
0.032353044
-0.005828938
0.00935777
-0.053055976
-0.043258876
0.03161047
-0.016638946
-0.076492496
-0.034092795
-0.017714327
0.01330302
-0.00817351
-0.02897102
-0.0020521856
0.052392848
0.0037801173
0.056791812
-0.042920608
-0.06414279
-0.045932066
-0.039482247
0.0661742
0.047589406
0.00027408302
0.035827354
-0.052170813
-0.001662966
0.0050629643
0.07727174
-0.0070323627
0.032825008
0.027675584
-0.021192197
-0.031300243
0.00339217
-0.042598046
-0.043024193
-0.032761272
0.025865152
-0.06368095
0.07549736
0.035033308
-0.059715822
0.0071219523
-0.08182894
0.030361615
-0.047439642
-0.049756434
-0.04391429
-0.030137796
-0.069863826
-0.03497504
0.058048196
0.060319208
0.05362855
-0.06529193
0.06302179
0.071212195
0.08444735
0.013211502
0.07666749
0.00036873063
-0.044795524
0.033267885
0.045342397
-0.0070826155
0.04182236
-0.07239905
-0.040385142
-0.081808016
-0.036066994
0.0014780108
-0.012618674
-0.020409573
-0.083978996
-0.039926626
-0.069905385
-0.06436044
-0.024046676
-0.015578031
-0.08144472
-0.0031542224
-0.028293867
-0.011721508
-0.0011675871
0.039588552
0.0130338725
0.073281735
-0.02429947
0.042552635
0.062004488
-0.049911633
0.028494366
-0.07702408
0.047508683
-0.07439592
-0.04321946
-0.08421277
-0.07135463
0.044331487
-0.085023575
0.0062976615
0.0700455
0.014008491
-0.010090522
-0.05257659
-0.06312967
-0.034251317
0.016929423
0.061847623
-0.009584113
0.012893496
-0.07987687
-0.075994484
-0.030886635
-0.037802026
0.05998143
-0.034986094
0.016090296
0.04914017
-0.047079194
-0.06460368
-0.028437648
-0.04274929
0.05986777
-0.03832022
0.07172244
0.06754131
-0.01593331
-0.08335413
0.007981927
0.06702033
-0.0007287711
-0.034503076
-0.026066113
-0.013747622
-0.032219354
0.046209533
0.07546943
0.043795615
-0.02121124
-0.03992018
0.067381755
0.014825067
-0.07408363
0.012539447
-0.0025142403
-0.03199649
-0.038006637
-0.035059143
-0.07445388
-0.037907485
0.027364217
-0.0810741
0.0015222412
0.036083203
-0.030585539
0.047546912
-0.028676735
-0.08561874
-0.019605862
-0.049842317
0.0065566213
-0.031435005
-0.06303732
-0.023165762
-0.07234084
0.0037266838
0.07108389
0.024153626
0.0400377
0.02267777
0.030149616
0.042137213
-0.028433986
0.04609418
0.07739078
0.057717387
0.08158179
0.0046358136
-0.06919482
-0.04119287
-0.023949228
-0.048867762
0.08477455
0.06995443
0.012112512
-0.076608054
-0.030000066
-0.043507136
0.07633476
0.055798467
-0.027799195
0.06574373
-0.053086888
0.03848273
-0.06239898
-0.020552328
-0.04507134
0.07361935
-0.024421502
-0.033934113
-0.031408455
-0.055485327
-0.004636686
0.018736346
-0.008351878
-0.0121802995
0.0720686
0.033666905
0.051256593
-0.08127949
-0.03412426
-0.03941287
-0.05162909
-0.055050828
0.059524104
-0.084840044
0.048687566
-0.054524098
-0.049443483
0.04352514
-0.057077777
-0.020925162
-0.013043106
-0.049322695
-0.01800856
-0.06727915
0.0063174837
-0.05846395
-0.05927088
-0.065000564
0.065544054
-0.03737783
0.053116098
0.019879043
0.060149867
-0.06269156
0.06607695
0.01476916
0.043382887
0.009562362
0.085627064
-0.0811597
0.06871467
0.012300895
0.009722817
-0.065665126
-0.013263017
0.05821164
0.044776686
0.029024884
-0.008235039
-0.056121603
0.015670093
-0.065849714
0.05619771
-0.0586826
0.08092869
-0.025432328
0.022726925
0.048035335
-0.03511754
-0.06797881
-0.008779234
0.062067587
0.053644113
0.07134781
0.06067818
0.07395057
-0.06566925
-0.0080701625
0.025217978
0.023822015
-0.037983052
0.04648811
0.0025779235
0.058912206
0.03122629
-0.053205945
-0.012467064
0.012446616
-0.032973457
0.0168464
0.062101986
-0.076100424
0.016763654
0.082589984
-0.05980375
-0.03488183
-0.00907593
-0.06802528
0.07133509
-0.047575157
-0.015030069
0.056577586
0.012147201
0.06335422
0.069291994
-0.026012648
-0.080907755
0.078692324
0.055334967
-0.020310348
0.04746636
0.061665695
-0.0019782016
-0.06856937
0.009547578
-0.07428962
-0.0018715601
-0.041343763
0.03570013
0.07044409
-0.0611175
-0.018534401
-0.019889437
0.08605152
-0.014411684
0.07573861
0.029543974
0.027357312
0.04308975
0.003971311
0.07564384
-0.01508932
0.034479365
-0.05367007
0.07001972
0.024528913
-0.07309821
-0.07074572
0.04430988
0.031172251
-0.016524568
-0.04698584
0.05241028
0.07034374
-0.075033754
-0.016997395
-0.084172465
0.03840175
0.009425085
0.06373768
-0.08107796
0.04538913
0.048659228
0.016535485
-0.03833357
-0.0829313
0.07283858
0.02072128
0.046055943
0.05749635
0.07584868
0.009604725
0.07817985
-0.0024805572
0.06993078
0.036450345
-0.030386629
0.054552577
0.075750045
-0.072047114
-0.07724755
0.034480955
0.00842061
-0.047368564
-0.06175044
0.016696801
-0.0540406
-0.030345498
-0.054183807
-0.058308285
0.031062594
0.0521337
-0.0006457788
0.029051015
-0.025052413
0.07020639
0.063586205
-0.010423609
-0.035969894
0.05114786
0.0004451977
0.015286136
-0.07537793
0.07745577
-0.0125312805
0.037005775
0.05303838
0.061543696
-0.026760338
-0.06407234
-0.07290774
0.050745796
-0.076221704
0.034388226
-0.043606143
0.02226446
0.06711439
0.03827118
0.07528742
0.022159932
0.021546215
-0.018965317
0.015885016
-0.0003769796
0.04664481
-0.004646094
0.032280844
-0.017928882
-0.010792145
-0.08367039
-0.023093358
0.017624533
-0.037675355
0.080149606
0.059841864
-0.05284896
-0.06485234
-0.046553105
-0.07757168
0.0072912304
0.072162256
-0.05868857
-0.07306434
-0.054195542
-0.028851533
0.07632406
-0.003767826
0.01530483
-0.024583085
-0.011500725
0.0039879624
-0.03455647
-0.078998126
0.013044204
-0.017503927
0.055910435
-0.035738196
-0.040615935
-0.003080002
-0.035964683
0.02155228
0.029212147
0.045836113
0.057594176
0.03785554
-0.059204396
-0.06826446
-0.06627839
0.061435875
-0.032953307
-0.014909803
-0.04682485
0.047500905
-0.04767249
0.03579487
0.07974537
0.057138413
0.027339952
-0.07238775
0.045868646
0.037662808
-0.02471118
-0.02191189
0.05362304
-0.008918953
-0.021798866
-0.06890675
-0.010142262
-0.07606359
-0.08485305
-0.007999995
0.076730385
0.008931388
-0.038798835
-0.0006735113
0.04033311
0.031125702
-0.05844628
-0.023045516
0.033926677
0.0653336
0.078407414
-0.03087224
0.078025
-0.033534274
0.0034811234
-0.008123934
0.07361246
-0.0017896553
0.04360279
0.044593148
0.015105859
-0.06046423
0.023902884
-0.06609813
-0.08234661
-0.013829251
-0.00796744
-0.061525177
0.00530714
-0.033330943
-0.0019227057
0.08565102
0.049079575
0.050919566
-0.03165708
-0.04180981
0.05883668
0.038096916
-0.009079583
0.019277884
0.041632395
-0.070209906
-0.06825676
0.021662727
0.07284586
-0.030261468
0.06899679
-0.039717168
-0.04766301
0.047583938
-0.0662041
0.08270164
-0.0065685846
-0.043608002
0.04797371
-0.01348107
-0.05437631
0.07961897
0.028794201
0.025456326
0.020352311
0.016144264
-0.045646522
-0.013137374
-0.07813815
0.029722096
-0.08555202
-0.040573657
-0.022642445
0.018128693
-0.0115811005
0.0396462
0.009129518
0.0045947125
-0.0023191483
-0.07261765
0.052009895
-0.053097785
0.039710533
0.027085897
0.07647213
0.0588966
-0.027227812
-0.009850717
-0.06743085
-0.031678557
-0.048155386
0.040737446
0.043053146
0.08137975
-0.032846995
0.0340745
0.049788453
0.07012684
0.0060656336
-0.006728013
-0.01967054
-0.030547002
-0.028060453
0.00341823
-0.05763937
-0.041226935
0.0209132
0.054058254
0.06755272
-0.01237689
-0.006089847
0.03705454
-0.028523339
0.06496029
0.036561307
0.053020198
-0.054456443
-0.05392032
0.0486696
0.082989715
0.04826973
0.07856033
0.0038615195
0.07261553
-0.01878705
0.058764923
-0.08526604
0.037626673
0.08487901
-0.083928764
0.019704798
0.042933494
-0.074119374
0.02147058
-0.046496224
0.07376291
0.027771637
0.048510697
0.009458604
0.08490034
0.007696845
-0.08051873
-0.060232807
-0.049202543
0.028775219
-0.0298987
-0.07325189
-0.052530862
-0.048388686
0.036653183
0.042512972
0.065381974
0.08146167
0.02842828
-0.072664015
-0.034091
-0.011780492
0.018801805
0.020801408
0.055156272
0.06465896
-0.026455322
-0.07089658
-0.06443247
0.014225642
-0.074330665
0.01374199
0.023496756
0.030668695
0.040281475
-0.0837835
-0.010891717
-0.06617786
-0.050237026
0.012663551
0.0072040725
0.018817667
-0.081807755
-0.041520707
-0.047248337
0.057968806
-0.00084641116
-0.010340935
0.05626984
-0.023721613
-0.03201979
-0.08265152
0.028802767
-0.009026395
0.045641225
0.019334467
-0.027356809
-0.07187928
-0.018925682
0.051315002
-0.06196582
-0.083708994
0.033039983
-0.08128007
0.032001834
-0.04897904
-0.061475158
-0.015332347
0.08143449
-0.01961127
-0.053833544
-0.07980306
-0.062249526
0.052471295
-0.071416505
-0.059510328
-0.051918533
-0.050465792
0.030048616
-0.05429568
-0.02081212
-0.024982944
0.018222488
-0.049272474
0.007903777
-0.076209806
0.082178205
-0.066221
-0.062617704
0.06865002
-0.019634498
-0.007936024
-0.07096523
-0.0108923325
0.03073682
-0.01471191
-0.024120938
0.076860994
-0.06799815
0.03741816
-0.0526429
0.015428348
0.051873162
0.08550332
-0.05926103
0.0039325384
-0.06778264
0.058140043
-0.039169043
0.009216819
-0.023363173
-0.05012145
-0.0461747
-0.07533146
0.08231099
0.07172786
0.06760812
0.051104367
0.0050616716
0.0054644956
-0.071717
0.062356558
-0.07302627
-0.06416804
0.07485302
-0.04012337
0.03360993
-0.06627177
0.011911285
0.027286168
0.0044922265
0.031982567
0.0815508
0.0672245
0.0065268264
0.004823231
0.038021885
0.07835463
-0.0242138
0.01875503
-0.07423539
-0.036999967
0.014297461
-0.044774264
-0.041397534
0.07424535
0.073995
0.08068149
-0.0077840546
-0.0004442948
-0.02050734
0.045480072
-0.074111305
0.023550179
-0.010141904
0.06593037
-0.0693109
0.0028049855
-0.014973404
-0.04640357
0.075489424
-0.08580527
0.08338685
0.008960937
0.08193752
-0.012266893
0.029144637
-0.08126852
0.06798897
-0.005246955
0.062185083
0.049237374
-0.023263989
0.007921004
0.024933768
-0.0069143535
0.016655166
-0.0444108
0.07463592
-0.027892612
0.05266839
-0.036073703
-0.04448145
0.029503642
0.0051787267
0.06706802
-0.07600002
0.06889674
-0.034380913
-0.06458408
-0.047288813
0.03404099
0.026754295
0.039150484
-0.009116929
-0.07810201
-0.058071744
0.017064013
-0.0009992631
-0.065115355
0.024009576
0.07231744
0.062080227
0.062281802
0.0048939837
0.07447633
-0.077273324
0.07220931
-0.06229164
0.023455665
0.0072793495
0.014675487
-0.042031977
0.027659046
0.049501106
-0.04755048
-0.03336682
0.07698641
0.0050171437
-0.01956505
-0.009350927
-0.0013185616
0.030013302
0.02338165
0.049035963
-0.07794095
0.01463377
0.053953532
0.074627586
0.035919752
0.0032268008
-0.0069621233
-0.045935694
0.039553177
-0.017464466
-0.005509003
-0.083796114
0.080124676
0.0638343
-0.08306551
-0.022833813
0.024929347
0.067993656
-0.08337233
0.052463878
0.038645215
-0.023298144
-0.03572344
0.043926798
-0.065370955
-0.070117496
0.045103997
-0.044379022
0.082387775
-0.06822674
-0.06476505
-0.046774413
-0.021897381
0.010531626
0.0020854585
0.04743756
0.059815753
0.08026664
0.0847269
0.055994894
0.06107492
-0.069950745
0.05644366
0.07790866
-0.050942898
0.054658182
-0.058633607
-0.009791414
0.015276297
0.046168033
-0.044392657
0.0420439
-0.051734697
-0.07318392
0.049676478
-0.01790751
0.057435803
-0.008281383
0.052802462
0.023809591
0.073222294
0.006936884
0.010711133
0.05290845
0.043888588
-0.0076838154
0.031115832
-0.011981822
0.037561316
0.025317129
0.037132114
-0.05639465
-0.07349859
-0.01596648
0.03550754
-0.031632017
0.060943123
-0.061192263
-0.06776243
-0.01510587
0.06698138
-0.07845005
-0.062142823
0.039914653
-0.050764468
0.07870094
0.041151166
-0.034040798
0.009948822
0.07169914
0.03657694
-0.0058935545
0.00082712254
0.083448805
0.0054034903
0.0030231213
-0.06524915
-0.048572082
-0.02109278
0.08227071
0.04076886
-0.028526518
-0.030987715
-0.025468823
0.07699486
-0.037038032
0.014350648
0.084221035
-0.058156952
-0.019203767
0.046176516
-0.031534772
-0.031072175
-0.04000853
-0.024518663
-0.05545308
-0.063014925
-0.078572825
0.055459265
0.075574346
0.07172521
0.03787552
-0.011117363
0.06151071
-0.08109619
0.021055864
-0.07321448
0.01345024
0.055196952
-0.07908304
0.0841975
0.046589445
-0.019999688
-0.044073954
0.055127595
0.07208825
-0.05319152
0.016376939
-0.071107104
0.05025852
0.08442821
0.06239271
-0.058917254
-0.041921716
0.0029063737
0.039955836
-0.029016266
-0.07687001
-0.04825306
-0.07233892
-0.06998189
-0.020842992
-0.026694726
-0.0042017377
-0.030674338
-0.077367514
-0.00039947956
-0.07815324
0.06092243
0.051250234
-0.023503097
-0.052464657
0.07903218
0.01995754
-0.06238991
-0.015616639
-0.00957372
-0.054502778
-0.06696645
-0.010710004
0.004069744
0.04322705
0.06891132
-0.037092716
-0.07135509
-0.006563249
-0.03193502
-0.03625762
0.062610336
-0.06038439
0.012051691
-0.03750729
-0.082680345
0.056763977
0.029099924
-0.07938105
0.0451368
0.007644181
0.052584544
0.06565273
0.003013159
0.0379388
-0.05237909
-0.0025333443
-0.045741938
0.03347132
0.01585157
-0.03839597
0.028474564
0.07911992
-0.06330767
-0.032665968
0.018708993
-0.009825662
0.007320112
-0.006312692
0.04319973
0.029782342
-0.003975794
0.061111312
-0.075806044
0.034779962
-0.035298567
0.0698716
0.062057715
0.015322446
0.05251329
0.08497308
-0.059572954
0.018335184
-0.0804399
-0.039211337
0.056788396
0.02404839
0.06925544
0.08304036
-0.035725135
0.026878184
-0.038572
-0.053115472
0.061146464
0.055585943
0.050029386
0.0060699224
-0.051928535
0.06634031
-0.08585155
0.040934443
-0.029891538
0.023569448
-0.043274667
0.04136209
0.0043011154
-0.018243512
0.019697063
-0.08381966
0.0014079254
-0.046490684
-0.021612074
-0.021869013
-0.045731556
-0.06182803
-0.055670157
0.023352789
0.01198608
-0.035978932
0.05097484
-0.018331192
0.005554855
0.03021057
0.051218152
-0.0770212
0.08086702
0.015899021
-0.04790448
-0.05988518
-0.08187269
0.058386415
0.05866846
-0.036773797
0.08043634
0.008278387
0.0050535663
-0.045932926
-0.012716923
-0.033817396
-0.034653395
0.05549643
0.015101489
-0.033685967
-0.009112066
0.08324681
-0.04694085
-0.019605944
0.033695232
0.0020086735
0.07131526
0.038440716
0.010395302
0.0027072907
-0.014132605
-0.08084942
0.046635594
0.07922039
-0.018730724
-0.06374527
0.034548253
-0.039422862
0.02138098
0.04425691
0.057585917
-0.063683674
-0.054913726
0.008218459
0.020389555
-0.03286388
0.014031996
0.07511212
-0.054839443
-0.05013168
0.064514965
0.07664937
0.006889319
-0.0014782877
0.009507554
0.017561516
-0.01648838
-0.01904525
-0.031477913
-0.05785413
-0.031733673
0.0840081
0.03659119
0.015491908
-0.058778036
0.0023276948
-0.04221919
-0.036653448
0.013905091
0.06539396
0.044925507
0.051638395
0.006487654
-0.04952572
-0.08200608
-0.0037616803
-0.08416045
0.07411381
-0.014576602
0.06628293
0.022269292
0.008880838
-0.080496475
0.08083922
-0.047646474
-0.057160195
-0.024281936
-0.00022517408
-0.0057953056
-0.021234201
0.012858253
0.026715543
0.026758984
-0.02145123
-0.07948442
0.017037297
-0.05924166
-0.07391674
-0.08499166
0.04258353
-0.084802374
0.028465308
-0.084116004
0.0733698
-0.052446034
-0.04920448
0.0045753215
0.061307073
-0.08115202
0.07504718
0.062073793
0.06404193
0.06753202
0.015630582
-0.03096776
-0.047247402
0.061923947
0.008047334
-0.05957717
-0.049471516
0.046691533
0.0034792663
-0.038092997
0.03139325
0.05600031
-0.024047375
-0.030187793
-0.07415889
-0.07829242
0.040226143
0.08377437
0.072916806
-0.08254976
-0.018329551
-0.023822907
0.003269082
-0.004195428
-0.02720529
0.06997995
0.0646366
0.0053555253
0.006703892
0.01937047
-0.08430231
-0.061828807
-0.029143099
0.011952827
-0.04943419
0.07671131
-0.06653862
0.08192041
-0.0074857683
0.046065085
0.05865066
-0.0005690552
-0.0038247786
0.022657558
-0.037747063
0.00043317306
-0.0048504816
-0.0035195877
-0.028792845
-0.08464
-0.06907632
-0.056984853
-0.07116014
-0.012820456
0.07559616
-0.0717887
-0.01766311
-0.03208611
-0.06921754
-0.044189215
-0.02262643
-0.067490794
0.05973865
-0.014604715
-0.018890532
-0.010507012
0.031558998
0.015653595
-0.040412318
0.037773278
0.08313894
0.066647656
0.08164227
0.002957735
-0.064952075
0.07385449
0.044360895
-0.04103415
0.020954363
-0.066311195
0.07351548
0.058626518
-0.043380927
-0.0055588353
0.007966537
-0.030864423
-0.058427896
0.02927266
0.067765236
0.08308558
-0.07861857
0.024169365
-0.07136607
-0.062793106
0.03801865
0.08495805
-0.05303376
0.059633557
-0.008068797
-0.050003685
0.070578024
-0.035410218
-0.02836471
-0.06825406
0.04794833
0.016279377
0.046635833
-0.048488043
-0.04949259
0.057262454
0.0022211971
-0.02493192
0.020345304
-0.07167
-0.020908972
0.02814128
0.084814
-0.056861106
-0.045492243
-0.07060216
0.053960234
-0.060504984
-0.060531154
-0.043171022
-0.08579656
-0.049884547
-0.023011288
-0.04613717
-0.006771464
-0.02183382
-0.045615453
-0.009590885
0.08506638
-0.044422813
0.03890169
0.044271223
-0.014294835
0.07123317
-0.06036759
-0.005376312
0.021472344
0.08505177
-0.07906938
-0.028422935
0.029829824
0.038638115
0.026217682
0.018254202
0.064490326
0.019029092
-0.017570011
-0.057605073
0.032825593
0.07231737
0.05638034
-0.045707896
-0.0169857
0.038908105
-0.071946785
-0.0076186443
0.053054087
-0.027844615
0.06392071
-0.05737003
0.060883276
-0.0270845
-0.0553035
0.03233282
0.0038413792
0.05284252
-0.051230337
0.07318866
-0.06557272
0.003164349
0.040235847
-0.07591099
0.009799294
0.07262108
-0.039791163
-0.061012026
-0.010286373
-0.016586957
0.053243823
-0.0089796
0.031338852
0.06301735
0.079507306
-0.0046431497
-0.033046387
0.080032185
-0.036010925
-0.06845529
0.044179622
0.0034823031
0.07349803
0.046090517
-0.02638612
0.008453923
0.04506466
-0.0785775
-0.00813758
0.027056973
0.033631623
-0.050589968
0.0054423753
0.010904183
-0.07328384
0.05017116
0.06727787
0.033123408
0.025489865
0.06646548
-0.07763152
-0.058738176
-0.009645057
0.0048720273
0.004707756
0.006067963
0.013238495
0.06644651
-0.044313524
0.008845451
-0.029412452
0.008684669
0.08335619
0.009901699
-0.08285629
0.0835465
-0.005967898
-0.032035068
-0.06895759
0.00016809824
0.013568567
-0.05500114
0.016537843
-0.0035403536
0.03617298
-0.053104587
-0.07481235
-0.06228999
-0.0025150098
0.03938361
0.07307047
-0.03300742
-0.020482233
-0.08327885
0.05235587
-0.012194263
-0.005922293
-0.03705565
0.0043503833
-0.013281751
-0.005598172
-0.03592983
-0.025483638
-0.0672884
0.038109504
-0.056520622
-0.040025674
0.02581066
0.049432967
0.02871166
0.020881353
-0.01598858
0.06910594
-0.083071865
0.033670824
-0.060132314
0.07782723
0.0053522526
-0.013195414
0.022192517
-0.06412342
0.003138617
-0.046000108
-0.08274812
0.03674665
-0.081914514
0.055558037
0.0615044
0.0077000875
-0.014072657
0.054774344
-0.023401072
-0.03841612
-0.015659606
-0.031633638
-0.007960084
-0.043550186
0.014130337
-0.06478538
0.058842264
-0.08521005
0.044023395
0.05854184
-0.034595784
-0.010592097
-0.06246837
-0.07547236
-0.030545678
-0.03188752
-0.07825395
-0.0224567
0.051021263
-0.011902984
-0.05581197
0.06181109
0.044245716
0.076865055
0.049790125
0.059156697
-0.06329843
-0.026183568
0.054958645
0.06371265
-0.052457485
-0.041297667
0.00525504
-0.06168595
0.073692165
-0.022298194
0.06901409
0.038259823
-0.06588543
0.05724888
-0.01835596
-0.07162257
-0.010398442
-0.07045893
-0.0001502973
-0.04925814
0.03247333
-0.0793828
-0.0821407
0.013479911
-0.049698956
-0.020800741
-0.033609696
0.074294336
-0.0067780917
0.036500465
0.027461275
-0.01692105
0.07620647
-0.06745698
0.03304095
-0.026935762
0.012550641
-0.002522756
0.012361315
0.04877801
-0.00824691
0.060103472
-0.021754595
-0.0014710545
-0.08152059
0.041607022
0.0018300074
-0.041278277
0.023159975
0.028766016
-0.004933043
-0.06495305
0.077276744
0.037416972
-0.0040295357
0.0652187
-0.019609053
-0.03178803
-0.062132318
-0.015812008
0.076610364
0.025080208
0.020804742
-0.07959274
0.075845115
0.066488154
0.012821441
-0.073071
-0.030342296
-0.07472239
-0.08223166
0.08443968
-0.07692488
0.029927602
-0.051312737
0.043107484
-0.03610987
-0.029059531
-0.060240667
0.03631041
-0.047290258
0.085824884
-0.049306925
0.016157273
-0.05467228
0.053153936
-0.0027190177
-0.08362274
0.007944242
-0.06846443
-0.086015694
-0.0585789
-0.07773413
0.015511269
0.07714641
0.073754095
0.027033007
-0.05448707
0.059411235
-0.059390366
0.0066696545
-0.017017659
-0.078768566
-0.07280905
0.036858052
-0.041166
-0.062054988
0.059686724
0.029016512
-0.03614295
-0.0004922496
-0.02245038
0.07765603
-0.042896498
0.079664774
-0.018812342
-0.07119285
-0.027673358
0.060337983
0.08275321
-0.023212977
-0.028756896
0.058288936
0.085884206
0.084888265
0.06427857
-0.03809192
-0.040151246
0.024447624
0.0031036101
0.010741625
-0.07205182
-0.08067251
-0.069143906
0.012775784
0.07904525
0.054473557
0.0016814235
0.04905957
0.051369503
-0.07953807
0.05130334
-0.05505436
-0.025881752
-0.08132898
0.003617303
-0.019023562
0.04376227
-0.059830662
0.024091205
-0.033091437
-0.05691098
0.025770904
-0.06569804
0.021753557
0.053410795
0.0712034
-0.0056188763
-0.012246547
-0.028824508
0.082034014
0.059985597
0.021784225
-0.004681583
0.040910736
0.04020918
-0.050870955
0.008257016
0.0851644
-0.061643872
-0.048164405
-0.055088893
0.013433721
0.060191482
0.08570751
-0.03501844
0.020318978
-0.014311968
0.008128356
0.01637899
-0.07523356
-0.04206992
0.046668254
-0.019203378
-0.007068221
-0.06361248
-0.05315965
-0.033982594
0.07776891
0.02675093
-0.02708247
-0.078962505
0.015055493
0.05550205
0.04049889
-0.07345577
0.020290107
-0.068794124
0.07081576
0.019130183
0.039428208
0.0268796
0.06709656
0.08358014
0.065002255
-0.006534183
0.014742145
0.035028208
0.024843235
-0.015932972
-0.035182334
0.043586075
0.031817548
0.0012825596
0.0039058628
-0.08370257
-0.05525493
0.027715823
0.040325273
0.073201746
-0.08404282
-0.0032733397
-0.06851267
0.058540374
0.0797742
-0.04572545
0.03296952
-0.069539234
-0.035043877
-0.076466136
0.06537312
0.02934644
-0.007992998
0.009469839
-0.063597985
0.024449583
0.022921689
0.049829297
0.06275859
-0.016586425
0.03892615
0.070651196
0.04742411
0.077340774
-0.07633128
-0.010580217
-0.016504059
0.01762602
-0.053535648
-0.06321511
0.03258893
0.011117589
0.030975148
-0.06601762
0.05631649
0.037980836
-0.045428846
0.040676266
-0.038041573
-0.0035531581
-0.023322882
0.023511037
-0.03985173
-0.02588243
0.018961264
-0.021296315
0.033323456
0.03917488
-0.04765859
-0.0137998145
0.0032661885
-0.017565394
0.07055185
0.0069809402
0.01688232
-0.04948956
0.020552123
0.018841172
0.00022123427
-0.07343692
0.04778017
-0.07906257
0.05722163
0.07441339
0.07020971
0.06612179
0.033471875
-0.082026236
0.06777244
-0.019722713
-0.06012393
-0.04803989
-0.033059027
0.01056772
0.06653785
-0.003411315
0.06138269
0.024034806
0.046483453
-0.026716713
0.06660975
0.028908515
-0.0021679685
0.058722354
-0.010532159
0.03249114
-0.058939207
0.08056874
-0.04835415
0.07345413
-0.018130746
0.010084068
-0.026156144
-0.08269108
-0.06214266
-0.010200189
0.042463694
-0.032349944
0.02609721
0.018308498
-0.0037515538
-0.021523684
0.0666728
-0.014991431
0.02021168
-0.008334508
0.03473457
-0.07199457
0.0015071797
-0.08123298
-0.057687655
-0.026884524
0.04442971
0.05202935
-0.031788297
0.056625754
0.040910006
0.04088541
0.03231784
0.07879194
-0.05659687
-0.07613914
-0.08534104
-0.0005774068
-0.06084544
0.035330683
-0.060654048
0.04443698
-0.058005434
0.048045337
0.0022559986
-0.07411299
-0.046990998
-0.08183827
0.047310296
0.08299372
-0.0018973843
-0.01693438
0.029238423
-0.037221335
-0.047311734
0.0054211374
-0.005830487
-0.07149406
-0.083976276
-3.3857677e-07
-0.06726066
0.043026377
-0.03163417
0.009451001
0.07563415
-0.047806066
-0.08288741
-0.00012943892
-0.021485241
-0.0049828137
-0.044651516
-0.051242065
-0.016248463
-0.054740712
-0.056990113
-0.059559062
0.055096332
0.074495204
0.043510716
0.0065693436
-0.059216708
-0.08397052
0.06974529
0.014533613
-0.05136701
-0.066389516
-0.07200861
0.06081951
0.027182637
0.041167427
0.026943807
-0.029153163
0.027502775
0.037866395
-0.021928664
0.023716174
0.07552689
-0.044944283
-0.0071916273
-0.07655768
-0.071282364
0.06009564
0.043811012
-0.009067097
0.061758783
0.060482945
0.04994227
0.01108603
0.005246688
0.074369095
0.038959015
0.014380371
0.007245317
-0.07325791
-0.051713128
-0.02635495
-0.0054923925
0.06406087
0.04172139
-0.0061641186
0.009057072
0.033629384
0.04903907
-0.05105003
0.035559814
0.057164162
-0.059436567
0.029478494
0.022658369
0.02848389
-0.08475711
-0.03477876
-0.00079226965
0.05613537
-0.034163658
5.632686e-06
0.008161209
0.08102539
-0.07014488
0.013427103
0.07743092
0.0070911827
0.010746171
0.07679878
0.017373698
0.034160025
0.042659033
0.025597861
-0.08402449
-0.045504525
0.07649717
0.03229459
-0.0528908
0.016539384
0.050737444
0.014540703
-0.018210486
0.08426792
-0.026725056
-0.007440081
-0.055734158
-0.016141104
0.040068027
0.084178805
-0.035152007
-0.018029686
0.07024357
-0.06416127
-0.06744161
0.029300742
0.048168126
-0.046311043
0.07025323
0.052792102
0.03639778
0.07224579
0.043187346
-0.00553731
0.076161884
-0.041179717
-0.024780167
0.040596206
0.06842004
0.05590434
0.035252295
0.008628598
-0.013500564
-0.010664614
0.044288438
-0.0045299316
0.013360722
-0.052409664
0.001904443
0.084998295
-0.06005523
0.016319606
0.03461177
0.07717008
-0.048652537
0.05586835
0.06307286
-0.074485615
0.075520925
0.043893278
-0.083639175
0.034178443
0.081554376
0.036692314
0.003531017
-0.02071581
0.030518612
0.074356034
0.016458433
-0.053000376
-0.021533297
-0.050138634
-0.06052657
-0.03353364
-0.052019365
-0.044036485
-0.0487979
0.009710013
0.01401636
0.08064132
-9.151833e-06
0.04665838
0.004942985
-0.0049042436
-0.04965138
-0.015124101
0.0139314085
0.035970684
0.012162027
0.021286445
-0.06612425
-0.046771508
0.08014965
-0.0035429392
-0.05487042
0.04241461
-0.016109513
0.00880238
0.018645002
-0.024903225
-0.08224318
-0.05499869
-0.026769388
-0.0038946487
-0.0073926393
0.08002769
0.08565635
0.0397342
0.050435536
-0.06285357
0.08398451
0.004562168
0.07204858
-0.05093162
0.016580772
-0.0694195
0.04304897
0.014982166
0.0059975386
-0.08296387
-0.018338375
0.031362325
0.075154625
-0.019588308
0.010996379
0.06111713
0.0011486781
-0.0018911565
0.08526036
0.05497827
0.04582689
0.084454745
-0.08370215
-0.029909851
0.037860937
-0.06211706
0.012734929
0.039969366
0.014715491
0.050753478
-0.019941762
0.06406051
0.007659961
-0.04888713
-0.034985796
-0.06316099
0.08177438
0.0170667
-0.022952499
0.026106156
0.057822995
-0.011748943
0.04487306
0.060032617
-0.062330026
0.016260868
-0.067923464
0.03184491
-0.039788023
-0.06366032
0.016196528
0.007379968
0.009024066
-0.013807202
0.084265985
-0.017663745
-0.08049356
-0.006716255
-0.013342326
0.065934554
0.0016095324
-0.051287353
0.020769356
0.014294516
-0.022147948
0.06888707
-0.04522458
0.08533913
0.0025099518
-0.06207009
-0.011735522
0.07600597
-0.056654267
-0.076967835
-0.052093342
0.016047606
-0.03689861
0.037991095
0.046903513
0.07895433
-0.04912939
-0.067418724
-0.061715353
-0.038431194
0.037612114
0.013709292
0.060884334
-0.050752945
-0.045979187
0.05170564
-0.03768032
-0.07957318
-0.077310644
-0.0060300524
0.06706257
0.066710696
-0.06432454
-0.018607749
0.056483574
-0.066659614
0.02725187
-0.0683154
-0.08263237
-0.07867619
-0.07743701
0.03652284
-0.05110087
-0.0016324326
-0.06434396
-0.04301269
-0.06304471
-0.0036516532
-0.054846648
0.038903836
-0.03386342
-0.06624524
0.031608347
0.0008352792
-0.07482555
0.015832743
-0.012639102
-0.07593215
-0.048002504
0.039255198
0.047764268
-0.062993675
-0.023374038
0.06247751
-0.03631122
-0.061916787
0.00964004
-0.023944262
0.03595159
-0.034289874
-0.05412198
-0.011394001
0.056619775
-0.071051754
0.02842039
0.060760364
-0.066698335
0.070015244
0.049365304
-0.06173066
0.07089226
-0.050009
-0.07052857
-0.07211171
0.07329389
0.07579248
0.009769274
-0.012016962
0.053488225
0.06471807
-0.012835333
0.0479508
0.05517993
-0.07861253
-0.084784746
0.07599016
0.076346695
-0.016686972
-0.06677368
0.05922503
-0.0056853197
-0.04500658
-0.07023701
-0.01726679
0.034264863
-0.015420951
-0.06048955
0.052466616
-0.0130484
-0.0053812778
0.08242781
-0.002451224
0.018729309
0.055435553
-0.07827
-0.085240416
-0.02270979
0.06043306
-0.0046614637
-0.028952654
-0.026911303
-0.031420693
-0.08004225
-0.039489172
0.019283118
-0.012881061
0.029808402
0.07735928
0.026204355
-0.073376566
0.05158057
0.04073214
0.023398774
0.07915804
0.023257423
-0.03630254
0.045572065
-0.07369509
-0.05317697
0.041261367
0.039201323
-0.07488733
-0.011330348
-0.009706904
0.015922569
0.027387423
-0.064621985
-0.077902555
0.068781935
-0.030504229
-0.0418991
-0.0103531955
-0.048496302
0.01887351
0.03426488
-0.037027247
-0.08428653
-0.046868876
-0.058096636
-0.0693595
0.020313324
0.06589749
0.08369409
0.027305642
-0.06415237
0.03912664
-0.06034501
0.04683814
0.016894355
-0.078862265
0.08229677
-0.050346047
-0.070698135
0.025197878
-0.01825844
0.025803316
0.08179962
0.0128153255
0.050896246
0.0021355473
-0.059178542
-0.023326185
-0.023790486
0.004271187
-0.053529244
-0.034148537
-0.085664585
0.051842496
-0.032548618
0.059840214
-0.018582396
0.03886763
-0.069448225
0.014139448
0.085909106
-0.061658915
-0.0016887492
0.027700238
-0.041852705
0.01958681
0.06599793
-0.06831104
0.045880836
-0.031218758
-0.06619926
0.05928341
-0.04313109
-0.07150302
0.060342416
-0.08292096
-0.017604524
-0.083714716
-0.070486225
-0.016008904
-0.068161346
-0.055481035
0.055560295
-0.0012836062
-0.020976277
-0.023272146
0.05651906
-0.06577294
0.01111567
0.0765128
0.027026337
0.02061831
-0.033447936
-0.0783885
-0.044939645
0.0049950643
-0.0020169327
0.004325421
-0.025058417
-0.07904688
-0.042970244
0.05167995
-0.009744209
0.031688653
-0.030134985
0.078853905
0.047011007
-0.072504275
-0.019559652
0.061612487
-0.075471215
-0.014988537
-0.027288672
0.07297019
-0.054518133
0.04696214
0.062243525
0.0074852863
0.0397649
0.022672568
-0.035986885
0.037767448
-0.048655033
0.070134774
0.019137805
-0.04006809
-0.008643537
-0.057783645
0.001989477
-0.0048116376
0.020825807
0.011341789
0.07448139
0.08344251
0.05768363
-0.024287498
0.08367117
0.013608396
-0.057088926
0.084758624
-0.046387162
0.061354637
0.028435083
0.0633187
0.011197072
0.08465186
0.04127379
-0.057036262
0.03198855
-0.017387642
-0.0014358733
-0.007975166
-0.057552174
-0.054811854
0.050503384
-0.014940931
-0.079503305
-0.030033093
0.07914214
0.08569029
0.05607129
-0.00036168206
-0.04986646
-0.06228913
-0.03262379
0.0002895447
-0.08361624
0.01883279
0.023292266
-0.07669105
0.015714621
-0.03234396
-0.08011378
0.061870165
0.007998404
0.047479197
-0.018153809
-0.056210946
-0.002280171
0.040750824
-0.035259005
-0.008850705
-0.034815643
-0.048869967
0.0007434325
-0.04767679
0.040432766
-0.08037137
-0.049760986
-0.029755132
-0.078840494
-0.0021406363
0.006755263
-0.072433874
-0.058696933
-0.02466976
-0.012693582
-0.07492442
-0.054633755
0.009920063
0.040386442
-0.0010822145
0.023200419
0.035348102
0.07472093
-0.07811521
0.004700533
0.017023517
0.024003267
-0.020493334
0.034421306
0.01590293
-0.0053608194
0.06117909
-0.03992681
-0.005186555
-0.06260237
-0.0019799354
-0.032807197
0.061130695
-0.07720005
0.069739744
-0.051878806
0.08028005
0.021867577
-0.034986984
0.082818165
-0.08179301
0.028936403
-0.001800931
0.0014117112
0.014105457
-0.06632512
0.07643046
-0.027715443
-0.066824816
-0.0069946884
-0.072056815
-0.034898452
-0.007388556
0.067116186
0.06248582
-0.05558187
0.0050969245
-0.061121684
-0.05535001
0.034910817
0.047449492
-0.08188779
-0.044970762
-0.080423124
0.02584967
-0.07012592
0.0123315
-0.06699382
-0.0051385183
-0.02629654
0.0628672
-0.051579382
0.012509396
0.005394215
-0.02266556
0.074477635
0.057874653
-0.059679493
-0.057590812
-0.029679785
-0.038379535
-0.0312164
-0.06638325
0.02924541
-0.07089777
-0.042339314
0.07765778
0.01148398
-0.038958654
0.005478439
-0.018356618
-0.051117923
-0.0704514
-0.0465417
-0.0507929
-0.07860447
0.0031108023
-0.049416654
0.062272537
-0.07957651
0.0098949475
0.014023983
0.014338736
-0.010242029
0.06048243
0.055340998
0.03249676
0.0025037753
-0.01481218
0.030903718
0.080438815
0.003382536
0.0037982774
-0.014313107
0.020894896
-0.0050264494
-0.046512067
0.079269506
0.04704355
0.031460196
-0.0400953
-0.01252771
0.04285787
-0.057224646
-0.06216399
0.04026595
-0.05673412
0.05981479
-0.031160103
0.022336444
-0.084372036
0.035806168
0.043179844
-0.086044885
0.021474356
-0.044222683
0.017525196
-0.06544167
-0.017106673
-0.019275043
-0.050072692
0.012097471
0.06544287
0.048812233
-0.08500048
0.019430408
-0.08498949
0.02317716
-0.027949287
0.076255485
0.018944591
0.07594522
0.021393549
0.029235601
-0.047694806
0.08508893
-0.0817787
0.046060547
-0.039394464
-0.042437296
-0.054499175
-0.07992909
0.08335371
-0.0059225284
-0.04173873
0.015863266
-9.984937e-05
0.03161206
0.046861313
0.039946765
-0.06325487
0.076688275
-0.07755149
0.056364466
-0.003182868
0.07445741
0.00019238342
0.018520294
-0.08177525
0.056573164
-0.05361079
0.051538873
-0.078837425
-0.01612281
0.05125642
0.06782395
-0.01864732
-0.04945287
0.015323072
0.013139569
0.04660151
0.080840215
-0.006765913
-0.07700178
0.071133345
0.023889352
-0.03528715
-0.047072012
-0.0058355248
0.015789907
-0.017019732
-0.038468592
-0.0008523927
0.047922637
0.083442345
0.029288132
-0.07987606
0.07948353
0.06778063
-0.04175981
-0.009000243
0.06995375
0.05405289
0.06481792
0.011666524
0.021592077
0.055834964
-0.026510797
0.013886931
0.0408983
0.077398114
-0.056987662
-0.02489637
0.009642831
0.0529133
0.017994925
-0.08098114
-0.08342935
0.047584265
0.0065861493
0.06589615
-0.0772044
0.08506048
0.049638495
0.01305669
0.0072285626
-0.0860479
-0.009010133
-0.04207233
-0.019778341
-0.0014131374
0.07623933
0.057632048
-0.05979362
-0.016307386
-0.02264815
0.02059151
-0.070542745
-0.07511316
-0.046633493
-0.03535267
-0.0136268735
-0.021328151
0.06621332
0.07060418
0.08051349
0.0382352
-0.073941804
-0.043793757
-0.060765956
0.06114209
-0.04989137
-0.055445436
-0.010098412
-0.033203978
0.04016673
-0.08126135
-0.05570803
0.039963562
-0.04473769
-0.0793087
-0.033245735
-0.047356416
0.036812715
0.07762402
0.017763194
-0.08430797
0.07321413
0.04665277
-0.08509794
-0.022482246
-0.014746742
0.069406904
-0.00932464
-0.03210459
-0.0043919357
0.0046859127
-0.08301791
0.030246705
0.05683471
-0.03264666
0.07778054
-0.080642074
-0.015222884
-0.027399367
0.064180166
-0.008355829
-0.0017715875
0.046318453
0.025499068
-0.025746753
0.025780149
-0.0062299664
-0.026460031
0.059157692
-0.074369475
0.03279632
0.031554155
-0.04748879
0.07500973
-0.0009903986
-0.057067823
-0.012306178
0.0060237427
-0.075280696
0.0026168085
0.06823455
-0.029222038
-0.011049351
-0.014745994
-0.05870272
0.08564824
-0.03294076
0.07541506
-0.022006659
-0.022766137
0.0033454977
-0.04923331
-0.026298285
-0.0041048946
-0.018790733
0.02416404
-0.020941732
-0.07473716
0.027733522
0.013202924
-0.08387985
0.0254754
0.026541177
0.038871642
-0.04611551
-0.08464149
0.017588079
-0.0069078896
0.074315034
-0.04740749
0.07271959
0.0039360574
0.062124077
0.07703793
0.066166006
-0.04873071
0.07568451
-0.070712276
0.080910146
-0.062951125
0.0028969552
-0.061025467
-0.06293197
0.058718733
0.08312414
-0.026148008
0.0104158735
-0.009363392
0.003020546
-0.027727243
0.039716523
-0.08232432
0.025940336
0.01960382
-0.024395041
0.007155348
-0.063084066
-0.07592348
-0.036163878
-0.032952968
0.059984744
0.060920887
0.08557063
-0.033728473
-0.002238526
0.028417272
0.018774256
-0.034199815
-0.020859828
-0.0005748726
-0.07682174
-0.08052878
0.0076499986
0.038020775
-0.07502878
-0.05663703
0.084251955
-0.04399353
-0.009287838
-0.010118511
-0.08245485
0.019487884
0.034283403
0.080574036
0.048492875
-0.08183388
-0.06385193
-0.0053832373
-2.7588878e-05
0.0039325384
-0.028588653
0.059523724
0.06945033
0.084591724
-0.023532173
0.07602448
-0.028856775
0.08219608
0.07652564
-0.043211836
0.045748167
0.06210838
-0.0719167
-0.07257491
0.025563583
-0.018738737
-0.054797616
-0.031347163
-0.021766536
-0.034255363
-0.062973864
-0.06449647
0.0023193227
0.063374214
0.050374787
-0.011555799
0.0578273
0.027027456
0.027187448
0.048770312
-0.026234211
-0.009534373
-0.049320377
0.028615657
-0.07729835
0.08589278
0.022240246
-0.044409648
0.075807974
-0.026122665
0.014648134
0.047025964
0.046706904
0.05375373
-0.020460173
0.039429676
-0.06631969
0.056065984
0.02013039
-0.034538403
-0.012044377
-0.08462465
-0.050446667
-0.05977856
-0.0016891595
-0.07180369
-0.039960925
0.016476942
-0.03555802
0.002195414
0.057251323
-0.0036007126
0.06395436
0.030673383
-0.0225712
-0.0049745752
-0.02251317
-0.031807173
-0.02318031
0.044390533
0.012625138
0.05976978
-0.04074795
-0.054918516
0.017042806
-0.08277527
-0.017807672
-0.052437324
0.065378055
0.006984398
-0.037173554
-0.016378056
-0.034804042
-0.008643383
-0.031944595
-0.056357387
0.025284832
0.019406091
0.02495391
-0.056209736
-0.033037297
0.0812484
0.05723893
0.07293402
-0.020624619
-0.04215962
0.05033897
-0.029823668
0.060159236
0.03204506
-0.014279711
0.054142624
-0.007911369
0.06440161
-0.082577184
-0.06786567
-0.050637092
0.034365132
0.0005619246
-0.04307735
-0.029189505
0.021255225
-0.0747229
0.021359762
-0.017809734
-0.012626759
-0.07709672
-0.07391654
-0.06455192
-0.0034159627
-0.0429124
0.080582194
0.0802184
-0.0356272
0.040041577
0.008763721
-0.006363294
-0.0039919023
-0.012163134
0.05088139
0.032398954
-0.017984962
-0.0065422268
0.04540773
0.07316322
0.0097995605
-0.0068175206
-0.062385418
0.03420667
-0.04273827
0.028613104
-0.0808402
0.04662865
-0.0010719751
-0.03295144
0.072464265
0.019968478
0.067307554
0.06675502
-0.03188345
0.0008848858
-0.008848345
0.034856673
-0.025561469
-0.055706754
-0.016678989
-0.035177212
-0.035654124
-0.018999318
-0.03733398
-0.0754619
-0.012107526
-0.062266845
-0.053518634
-0.07127516
0.0436004
-0.007874865
-0.032042895
0.0798953
-0.004341139
0.08428359
0.05565017
-0.070144385
-0.038648743
0.024855936
0.02172008
-0.060626008
0.07919988
0.059282105
0.059771307
0.062610574
0.024139848
0.010370987
0.0035996046
0.05431665
0.014000898
-0.029398251
-0.039107885
-0.012844085
0.0039035236
-0.0686971
0.010466414
-0.041262034
-0.055545006
-0.04865369
-0.077234484
-0.0509225
0.0692127
0.08117534
0.030920595
-0.040035266
-0.05060824
-0.00058966735
0.00208275
-0.054495584
-0.009076894
0.037115414
-0.06615382
0.013675496
0.017909449
0.06393044
-0.027283665
-0.04347655
-0.0414609
0.046439305
-0.0022256703
0.054300163
0.039355405
-0.034005616
-0.040922288
0.016114736
-0.025871502
-0.04167525
0.03157725
0.03155856
-0.06449657
-0.0024854306
-0.0383134
-0.007646531
-0.023211695
-0.06364203
-0.08285481
-0.0047622775
-0.026728913
0.017737802
0.07843955
0.03848712
-0.03691752
-0.012259075
-0.050574895
0.009592926
0.053191397
-0.0153168645
-0.0057193823
-0.017244771
0.071904
-0.05263494
-0.08003077
0.009146385
-0.014567964
0.029532071
-0.037933003
0.0072025643
0.00044839876
-0.04818402
-0.05507148
-0.07872216
-0.028374417
-0.059207894
0.04829956
-0.044420976
-0.058354918
0.06912871
0.03183589
0.018975588
0.0668396
-0.05299335
-0.047316127
0.08424034
0.048364367
0.010693116
0.0056320196
0.07998874
-0.032106567
-0.007957611
0.0003542026
-0.029932506
0.059365876
0.055863485
-0.07448624
0.00014984587
-0.05452699
0.047330335
-0.06941627
-0.06939114
0.037217006
-0.026674915
0.042251058
0.036529746
0.070722595
0.003338326
-0.058815014
0.033688955
-0.018293405
-0.05115413
0.064752385
-0.080545016
-0.07315254
0.043165296
-0.064532496
0.01227901
-0.06175354
-0.005479383
0.042133622
0.022568481
-0.009535655
0.07050913
0.029388167
-0.071635045
0.019961994
0.01406766
-0.059974004
-0.00025776977
-0.037610974
-0.065666705
0.060195893
0.0022542852
-0.02506131
-0.080740854
-0.021489149
-0.06308875
-0.057655696
-0.021474252
0.040753298
0.08445637
-0.06478417
0.084905945
-0.04279472
0.030568436
0.07417359
0.055578742
0.06804839
0.043189347
-0.038513016
-0.070822194
0.05673328
0.039014827
-0.0675475
0.053550832
-0.063950986
0.043529708
-0.07509364
0.009268467
-0.06098967
-0.044608116
-0.08280881
0.066643566
0.021616444
-0.069939196
-0.011286928
0.011029302
-0.07424588
-0.03469024
0.08099767
0.018843131
0.022506215
-0.08326111
-0.036888648
-0.0011497143
0.012064793
0.053180132
0.029438768
-0.06663793
-0.022297302
0.057473704
0.006134293
-0.009590033
0.03303198
0.03856227
0.083332755
0.04513014
0.07765011
-0.072409086
-0.024801826
0.06390791
0.0352718
-0.009453802
-0.08503097
-0.0084820455
-0.07246264
-0.046794962
-0.017704211
-0.021009859
-0.08485917
0.01363856
-0.020102166
-0.0056159627
-0.048302982
0.061634887
0.019851731
-0.033204246
0.056986976
0.0156191215
-0.0033474984
0.015628612
-0.08178229
0.07266258
0.019774443
-0.052007064
-0.064327374
0.037110865
-0.044748943
0.06309689
-0.08482574
-0.06347389
0.04961541
0.025408803
0.002344439
-0.0064179176
0.017468449
-0.05118748
0.046549145
0.028810257
0.04460088
-0.086001895
0.032637805
-0.023802593
-0.045976613
-0.06465641
0.017068507
0.006259156
-0.08310525
-0.08574003
-0.07421105
0.073661074
0.08551184
0.026861912
-0.04897508
0.037107605
0.084592246
0.06993345
-0.084202155
-0.021443544
0.05122129
-0.03379531
0.008742196
-0.004281919
0.021855347
-0.024607206
-0.07539935
0.07324915
-0.044280414
-0.026870541
-0.08427726
0.07795398
0.05741782
0.015819395
-0.007272865
0.041383643
-0.059944853
0.08093018
-0.06600854
0.03567714
0.056613516
0.02193916
-0.008016543
-0.035548665
-0.074499026
0.04707196
-0.06300124
0.036506057
-0.03782784
0.01640938
0.0025851978
-0.07050777
-0.085826665
-0.07521155
0.06353682
0.0034675803
0.06604088
0.03062151
0.0728755
-0.02799166
0.048122644
-0.08555121
-0.056476433
-0.029976275
-0.051482968
0.04089081
-0.046474647
0.007308108
-0.057043362
0.05727803
-0.008443848
-0.06296927
-0.08130739
-0.04989331
-0.017008763
-0.03408042
-0.07214524
-0.05585892
0.013703003
0.013822561
0.061850805
0.0034532882
0.0037244677
0.011961015
0.030441059
0.003467888
-0.0054430217
-0.018367492
0.052744463
-0.017301284
-0.05644513
0.05429046
0.0168421
-0.045392815
0.03209517
-0.003432635
-0.03623102
-0.077777036
0.047704935
0.01388725
0.08126679
-0.0050369245
0.061690617
-0.056368086
-0.052972626
0.046449
0.022927035
0.02694079
0.045272764
0.053101417
-0.01694905
-0.04139999
-0.033349935
0.033934575
-0.040762007
0.049253542
-0.04542429
-0.033977278
0.047173213
-0.072019346
0.015588742
0.0054986305
-0.048740342
-0.076152034
0.05722914
-0.052818827
-0.07376605
0.059534192
-0.008740226
0.0025871678
0.010401817
-0.06278823
0.04183439
0.020916678
-0.0048757517
-0.03260037
0.06681839
0.047818366
0.0072664833
0.027112706
0.008392641
-0.0070351637
0.070046715
0.014052229
-0.07617321
0.064798765
-0.043465346
-0.0620973
-0.025867542
-0.03573718
0.044500325
0.0073342295
-0.024490418
-0.05704521
-0.039472338
-0.08323959
-0.041008092
-0.07153842
0.04458025
-0.00016463039
-0.057860915
0.07882259
0.0092342915
0.042849056
-0.05407587
0.08403086
-0.05121454
0.06786559
-0.05784138
0.06258188
-0.012752812
-0.06256759
0.08110535
0.045770757
-0.075650506
0.013831754
-0.05610444
0.021261955
0.07749255
0.03471004
0.01483784
0.010513824
0.041861027
-0.05973902
0.051227137
-0.017883718
-0.042479217
-0.056896586
0.038636863
0.07222453
-0.0011090852
0.07991516
0.05097471
0.017756926
-0.06634587
0.0077407267
0.030408021
-0.051233675
-0.060466558
-0.009345847
-0.028376335
-0.033894222
0.0851814
-0.057805758
0.03797266
-0.015893646
0.01816727
0.062169302
-0.0640189
0.06694539
0.005709564
-0.063666984
-0.047293585
-0.013946829
-0.054415576
0.08113978
-0.08547855
-0.039926615
0.015158175
0.018339442
0.05007375
-0.001620685
-0.0032694205
-0.034503847
0.05050511
0.018070828
0.019885343
0.064158
0.05388855
0.031803664
0.00832547
0.080343194
0.0832714
0.07580127
-0.007662054
0.07518633
0.012410532
-0.048623923
-0.07919567
-0.06040424
0.04258902
0.069202915
-0.071176596
0.06454544
0.001713732
0.012035009
-0.022680797
0.03717333
0.0814949
0.0019207665
0.07104971
0.041076902
-0.04346066
0.032753456
-0.026368245
0.0420258
-0.0049567437
-0.034549173
0.08283083
0.001561906
-0.014241196
-0.011857913
0.01892518
0.044063088
0.07228615
-0.015829962
-0.051871102
0.011486001
0.07979135
-0.06391191
0.03545018
0.022160137
0.07293625
-0.066080436
-0.0107334275
-0.060137782
-0.011814934
0.0058598304
-0.021067375
0.049647022
-0.02065386
-0.049002483
-0.024956556
0.08102927
0.017904187
-0.07979486
-0.049972117
-0.014057923
-0.04511787
-0.0009523754
0.04281688
-0.01166398
0.059700493
0.0127926
-0.027463697
0.08166287
-0.056172308
0.005076343
0.025996028
0.07837786
-0.008969556
-0.07435
0.008602066
-0.023133976
-0.06734964
-0.08043033
-0.04282589
-0.057578653
-0.065379255
0.04814448
-0.073316745
-0.0018181675
-0.08225447
-0.036279466
-0.00828168
0.04197719
0.08089424
0.045597777
0.0086997505
-0.04086556
0.034260225
0.060209848
-0.026333803
-0.0040042554
0.051082842
-0.03000891
0.062636696
0.007949721
0.06866479
0.0122773275
0.03117773
0.0321173
0.030962385
-0.07248882
-0.07562495
0.061057508
0.040311053
0.0625182
-0.00054253335
-0.052951027
0.02797983
-0.04352825
-0.07406817
0.032426585
-0.070399255
-0.0064980886
-0.038928725
0.005318682
-0.06269847
0.004741768
-0.077408716
-0.057453606
0.021316743
0.007115909
0.013242322
-0.0065843435
0.0054923925
0.07230484
0.012119079
0.04998966
-0.054477733
0.08054355
-0.047531694
-0.08588446
0.029609442
-0.06366295
-0.020630272
-0.0478537
-0.01297459
-0.07095285
-0.000984335
0.014133918
-0.04175623
0.018211922
-0.07447788
-0.047354363
-0.050721705
-0.00091570657
0.064720646
-0.035060324
0.024394333
-0.08584099
0.08122479
-0.054342188
0.06668805
0.044044435
-0.038123745
0.060219657
0.010007878
-0.04197246
0.009755084
0.03520187
-0.043867722
-0.08264661
-0.022455273
0.0134171
0.023375977
-0.08136143
-0.041174084
-0.079672605
0.027193245
0.026556157
-0.057678554
-0.023277912
-0.059863307
0.021828476
0.052085996
-0.018692402
-0.019080402
-0.056213193
-0.011473136
0.056133106
-0.0005624478
-0.040544465
-0.04005781
-0.046614688
-0.07538664
0.06814465
-0.03613664
-0.032355126
0.020572837
0.00036685306
0.02418697
0.045476913
0.0098377485
0.03214089
0.01840177
0.0048357793
0.02823403
0.029970324
-0.016115721
0.025503399
-0.079128
0.06945555
0.06121702
-0.085740924
-0.045363892
-0.015065763
0.033068754
-0.053329147
-0.08001221
-0.027095469
0.008607565
0.00823589
0.03895097
0.05039861
0.0035044337
0.07406249
0.06773335
0.021182625
0.08063408
0.06324597
0.0051126736
0.06214107
-0.05467077
-0.05631648
-0.06815077
-0.012240258
-0.034184076
-0.035653222
-0.005249407
0.01592581
-0.07210267
0.060456187
-0.0018460745
-0.0764606
0.010011982
0.029687202
0.042597912
-0.00863418
-0.050398476
-0.012455357
-0.08240578
-0.0600978
-0.02929313
-0.028738244
-0.034013104
-0.063013814
0.07907735
0.08572843
-0.049350724
-0.06995133
-0.0044087726
0.03637204
-0.027255913
-0.039421387
-0.037927926
-0.06435478
0.03478197
0.07570748
-0.050277103
0.013196328
-0.06252481
0.08222119
-0.059506346
-0.022460373
-0.039011803
-0.057793055
-0.07536448
0.012531475
-0.02137392
-0.083350144
0.0022257115
-0.026908081
-0.035072602
0.02607393
0.062541686
0.01970805
0.06937311
-0.08330662
-0.05378366
-0.019965442
0.061114628
-0.03172776
-0.03551025
0.06704762
0.04827442
-0.0083632255
0.049082007
0.050107546
-0.049599815
-0.035453174
-0.07451137
-0.07292092
-0.07138449
0.0846939
0.050870042
-0.035836875
0.06746104
0.02077425
-0.029453594
-0.07750646
-0.07627226
0.01760984
-0.0464778
0.07892946
0.05094929
0.08574079
-0.035974048
-0.071864344
-0.021314075
0.034843694
0.08310664
-0.0785995
0.01370133
-0.019825025
-0.05164258
0.06749802
-0.03968289
0.04858994
-0.032755148
0.025486788
0.059449412
0.007033635
-0.018169291
0.08040557
-0.0026441205
-0.069486365
0.04219007
0.01866859
0.0024536762
0.06167919
-0.049527586
-0.06763069
0.049064472
0.030636119
0.032234356
-0.00028820065
-0.004190093
0.06251172
-0.0040985644
0.04464579
-0.044355374
-0.083530724
-0.08335481
0.08311862
-0.03187453
-0.054317933
0.044148676
-0.037085924
0.028729912
0.08591504
0.07010019
0.053580638
-0.03925799
-0.07007163
0.06600207
0.05579897
0.0031914965
0.0029427041
-0.034179952
-0.03022365
0.006451488
-0.08136444
0.005588179
0.004107716
-0.042994767
-0.003332129
-0.07346664
0.069459714
-0.009104996
-0.06868539
-0.058333598
0.004039272
0.047931
0.057822686
-0.05023985
-0.05536626
0.026226701
0.058513947
-0.082651496
-0.002418813
-0.0424419
-0.015042053
0.015576501
-0.082183726
-0.006278496
0.0438057
0.050020613
-0.013057019
0.046166595
0.039880805
-0.08219926
-0.08573989
0.020133838
0.08438509
0.056789976
-0.07404591
-0.065640256
0.018131442
0.069501646
0.008079375
0.03507238
0.08581132
0.017329283
0.0053429673
0.07923079
-0.0605854
0.025318114
-0.013819401
0.025991196
0.07391152
0.05929925
0.033438355
0.0556805
-0.07090981
0.058346648
0.0019216284
0.034329265
0.025515217
0.057841666
0.0855824
0.025685102
0.019490859
0.03172146
0.047875475
-0.079605035
0.07671687
0.003437539
-0.034646787
0.024895027
-0.024167364
-0.012211418
0.00013685683
-0.04894191
0.019482324
0.06650614
0.0048783063
0.050667133
-0.034527496
0.064389065
0.025463322
0.025498535
-0.05165201
-0.016489243
0.06730608
0.08422564
-0.019512909
-0.035226256
0.018390372
-0.031139214
-0.035038337
-0.0070882896
0.07866389
0.059678875
-0.025872221
0.08407857
-0.056645453
0.0045053386
-0.024809275
0.0023435566
-0.060272276
0.03385119
-0.07998352
-0.038375575
-0.07777859
0.038263228
-0.009113902
-0.027988285
0.04013767
0.0600817
0.013492305
-0.04951116
-0.036506362
-0.015058212
0.01207807
-0.033208698
0.018543757
-0.012240976
0.02615008
0.049698394
-0.06046734
0.036145583
0.024182487
0.028523821
0.08478173
-0.002778556
0.07667255
0.043182556
0.0007050605
-0.0662202
0.06789554
-0.037338987
0.032085404
-0.05710057
0.019882664
-0.06727177
-0.060131647
0.049641736
-0.042714015
-0.0011802068
0.025459692
0.05888329
-0.050381023
-0.027099859
-0.047023367
0.020948444
0.017318837
-0.074799284
-0.034048963
-0.027324017
0.0668502
