0.053020
0.031817
-0.007364
-0.051876
-0.058906
0.070789
-0.065387
0.059456
-0.024977
-0.005626
-0.047721
0.002551
0.013837
0.076763
-0.007107
-0.022236
0.004449
0.064886
0.080453
0.064586
-0.023997
-0.029504
0.011198
0.064629
0.048192
-0.071094
0.008788
-0.062198
-0.010557
-0.079191
-0.017215
-0.035213
-0.050666
-0.085327
-0.046685
0.044002
0.056864
0.047585
0.030497
-0.057379
0.065796
-0.022121
-0.036242
-0.028297
-0.077108
0.037696
0.012862
0.045538
-0.059298
-0.057558
-0.010236
0.012129
0.015420
-0.068428
0.040892
-0.068955
0.003506
-0.083922
-0.026598
0.048285
-0.061336
0.073988
-0.052970
-0.056017
-0.040908
-0.016297
-0.077621
-0.076435
-0.072006
-0.009591
0.013154
0.000850
-0.064295
-0.015182
0.030708
0.043026
-0.027163
0.065054
0.037541
-0.031719
-0.060396
0.003477
0.011541
-0.055618
0.061904
0.029312
-0.021058
-0.028439
0.082114
0.047379
-0.054747
0.017137
-0.012083
0.083186
-0.003129
-0.047240
-0.012861
-0.025698
-0.051095
-0.000787
-0.040659
0.047115
-0.071028
-0.077085
0.076271
-0.024423
0.061324
-0.054449
-0.038971
-0.076362
-0.035271
-0.054357
0.007453
0.016154
-0.084889
-0.015708
0.061676
-0.045672
0.014946
-0.016886
-0.077110
0.022532
-0.067424
-0.042684
-0.032252
0.068951
-0.044121
-0.023098
-0.011659
-0.075393
-0.005182
-0.069723
0.008367
-0.039417
-0.003032
0.054819
-0.058883
0.074434
0.058338
0.011285
0.008928
-0.079533
0.038005
0.074537
0.074841
-0.067395
0.083662
-0.060510
-0.070359
-0.070407
0.050041
-0.080174
-0.046902
-0.083343
0.048214
0.036009
0.065858
0.080927
-0.040575
0.040180
0.034460
0.023595
0.085519
0.051708
0.044505
0.055918
0.077225
-0.007509
-0.053687
-0.043235
-0.081996
0.062392
0.020025
0.033672
-0.010207
0.074847
-0.078543
-0.006537
-0.043343
-0.039255
0.021661
-0.002487
0.033204
-0.019427
-0.049950
-0.003177
-0.080842
0.045220
-0.078373
-0.031054
0.021752
-0.006816
0.014316
-0.050985
0.051465
0.057769
0.054513
-0.021504
-0.009670
0.028819
-0.076871
-0.060801
0.085183
0.042452
0.083881
-0.068876
0.042647
-0.076091
0.017082
0.003244
0.054483
0.085913
-0.003931
-0.063842
0.055552
-0.078753
-0.001832
-0.044925
-0.044292
0.013540
-0.031391
0.026811
0.025934
0.015203
0.019712
0.030866
0.027872
0.003918
-0.003126
0.084032
-0.058079
0.079934
0.066150
-0.012140
0.028970
0.004787
-0.008944
-0.011265
0.077394
0.044195
0.004722
0.070635
-0.013708
-0.048526
-0.003929
-0.070310
0.037567
0.072861
-0.082120
0.085359
-0.003472
-0.030160
-0.022914
-0.078457
-0.021410
0.070327
-0.039531
0.005766
0.027845
-0.012452
-0.001171
0.003220
-0.036694
0.052021
-0.023061
-0.068319
0.083402
0.079988
-0.075389
-0.002391
0.074380
0.005493
0.018926
-0.044795
-0.061604
-0.055716
-0.020159
-0.052971
0.070405
-0.071335
0.009210
-0.061526
-0.043753
-0.081451
-0.032266
0.011781
0.026350
0.004408
0.045611
0.067843
0.027012
0.038623
-0.075906
0.083029
0.053276
0.040483
0.063426
-0.031543
-0.050845
-0.046787
0.007378
-0.012286
-0.072735
-0.082573
0.013122
-0.057703
0.026925
0.057127
-0.068562
-0.057271
-0.032329
-0.085836
0.027416
0.023315
0.040036
-0.000432
-0.080213
0.055304
0.063528
-0.058552
0.019581
-0.049129
-0.019675
-0.061388
0.055354
0.083717
-0.007932
0.050396
0.038253
0.051902
0.076212
0.029133
-0.058955
-0.076858
-0.066571
0.082793
0.045090
0.083923
-0.075693
0.014306
0.044980
-0.016590
0.010028
-0.045537
-0.061549
-0.081358
0.026976
0.038505
-0.012236
0.054707
-0.076798
-0.068872
0.031389
-0.056805
-0.078000
0.040736
0.015146
0.082185
-0.006283
0.036859
-0.004191
0.030083
-0.059656
0.062681
0.014877
-0.083417
-0.006976
0.080662
0.010579
-0.074954
-0.030090
0.029708
0.031809
0.033710
0.006193
-0.003648
-0.060807
-0.048721
-0.011190
-0.010323
-0.044730
0.051391
-0.026970
-0.003718
0.053146
-0.012771
-0.033205
0.020995
0.080797
0.011982
-0.025960
-0.050401
-0.001460
0.069686
-0.067178
0.043438
0.045975
0.056884
0.046234
-0.051420
-0.082641
0.076501
-0.044886
-0.062937
0.082036
-0.057091
-0.037225
0.031491
0.054982
-0.083562
0.040310
-0.028865
-0.025691
-0.044892
0.061975
0.041478
0.018960
0.074373
0.022797
0.074518
0.037794
0.059966
-0.012774
0.039068
0.026312
0.006424
0.077651
0.017638
-0.004983
0.058392
0.041366
0.045170
0.013951
-0.023794
0.040937
0.043014
0.023512
-0.063149
-0.049060
-0.017158
0.018863
0.005583
-0.081269
0.077854
0.045076
-0.023868
-0.055694
0.004894
0.025468
0.022883
0.044721
-0.080523
0.022172
-0.030161
-0.077030
-0.001242
0.029165
0.077329
0.062312
-0.046942
-0.017972
0.005408
0.080386
-0.043544
-0.067089
0.057096
-0.030684
0.047878
-0.064435
0.014439
0.016676
-0.055316
-0.057888
-0.068582
-0.022217
0.001599
-0.030585
-0.012316
0.052500
-0.017965
-0.075053
0.052396
0.075487
-0.048449
-0.039854
-0.050138
-0.000630
0.051658
-0.002448
0.047603
0.071656
0.085482
-0.065506
0.054424
0.048420
-0.005041
0.011307
0.011567
-0.058370
-0.077382
-0.031604
-0.064917
0.045955
-0.048271
0.015493
0.014890
0.003227
-0.032486
-0.037266
0.019167
-0.083677
0.051468
0.068716
0.022427
-0.041344
-0.001435
-0.017147
-0.005536
0.028354
-0.032742
-0.019601
0.069826
-0.041383
-0.010242
0.002978
0.002178
-0.055347
-0.080351
-0.021886
-0.068518
-0.017432
0.055425
-0.021990
0.062589
0.003529
0.074176
-0.054224
0.046575
-0.034892
0.018954
-0.064135
0.063142
-0.069280
-0.079003
0.003270
0.064728
-0.064973
0.045761
0.019765
0.047254
0.008248
-0.022731
0.039068
0.009831
0.055085
-0.058323
-0.076007
0.066605
0.000895
-0.043519
0.017266
0.035444
0.071781
0.000688
0.034368
-0.066919
-0.049488
-0.062738
-0.025941
0.070844
0.067731
0.039424
-0.054521
-0.052351
-0.003397
0.032952
0.009551
0.022136
0.034638
-0.084829
0.065349
0.075101
0.037167
-0.013329
-0.047376
-0.007622
-0.040796
0.013801
0.082106
0.084524
0.061742
0.062043
-0.031168
-0.024381
0.072095
-0.061990
-0.018457
-0.046727
0.001593
-0.037001
-0.044780
-0.006204
0.084481
0.048785
-0.035811
-0.061878
0.037172
-0.076822
-0.072208
0.022229
-0.022215
0.013677
-0.074544
0.045675
-0.015403
0.079373
0.017270
-0.026794
0.040790
-0.025708
-0.037822
-0.001473
-0.053542
-0.074416
-0.053381
-0.074628
0.034674
0.058040
0.055304
0.018987
-0.049125
-0.045216
-0.008362
-0.063397
-0.000354
0.080520
0.052848
0.082852
-0.068891
-0.029605
-0.073979
0.034135
0.072632
0.025030
0.017805
0.065623
0.006123
-0.025347
-0.060304
0.050944
-0.006310
-0.083696
-0.022411
0.033354
-0.051558
0.066387
-0.065132
-0.012355
0.010728
0.068042
0.061993
-0.026364
-0.006724
-0.013365
-0.042260
-0.057553
0.041319
-0.030942
-0.060519
-0.038346
-0.032754
0.047816
-0.017003
-0.045610
0.076284
0.081371
-0.010564
0.011436
0.057967
0.059968
-0.037049
0.069091
-0.040419
-0.061915
-0.043323
0.060520
0.026591
-0.058404
0.042913
-0.034706
0.011922
0.085179
0.022707
0.065654
-0.029420
0.036502
-0.003636
-0.071702
-0.060345
-0.001483
-0.042141
0.034828
-0.064802
-0.045398
0.024723
-0.013272
0.016782
0.076024
-0.000048
0.009642
-0.050043
-0.078646
-0.078172
0.067077
0.037376
-0.039612
0.064268
0.040840
0.012930
-0.002411
0.079733
0.010069
-0.071975
0.038033
0.030918
-0.040083
-0.032412
0.027658
0.008857
-0.049443
-0.009429
-0.072026
-0.055665
0.018851
0.034108
0.034591
0.079467
-0.049551
0.054533
-0.019377
0.015750
0.071370
0.048520
0.083733
-0.081096
0.070018
0.007988
-0.007255
0.035655
0.042691
0.052371
-0.029533
-0.049686
0.008994
0.050323
-0.042700
0.072608
0.060883
-0.080613
-0.056661
0.036362
-0.072583
-0.047744
-0.082611
-0.072846
0.027290
0.068745
0.005125
-0.061082
-0.052637
0.014950
0.082262
-0.017203
0.026024
0.047366
-0.027952
-0.051535
-0.044029
-0.048329
-0.004959
0.056624
-0.049689
0.017967
-0.079688
0.080393
-0.054530
-0.006351
-0.019993
-0.065101
0.050021
0.060531
0.016378
-0.036790
0.025834
0.075390
-0.026397
0.025397
-0.024608
0.031424
0.022146
-0.062137
-0.056729
0.069715
0.012235
0.034054
0.036584
0.072627
-0.011918
0.026994
-0.079603
0.062621
-0.007517
0.001336
-0.035423
-0.012200
0.076028
-0.061657
-0.030582
-0.028644
-0.061723
0.056479
0.033286
-0.014336
-0.008229
-0.071543
0.059547
-0.064521
-0.036854
-0.004732
0.014079
0.063767
-0.009152
-0.043508
0.055870
0.050918
0.070093
0.045906
0.005458
0.038782
-0.060010
0.074103
-0.062785
-0.062895
0.042982
0.040634
-0.078213
-0.048099
0.074255
-0.064492
0.063381
-0.064233
0.050356
0.037354
0.001479
0.016671
0.017016
-0.039448
0.059205
-0.082403
-0.051005
-0.027621
-0.011275
0.065123
-0.030659
-0.012866
0.034247
-0.067014
0.017155
0.026872
-0.056146
-0.070996
-0.050104
0.034879
-0.016476
-0.065081
-0.071713
-0.040104
0.074697
0.060818
-0.061051
0.080297
-0.042486
-0.020501
0.064789
-0.040899
0.031806
0.075881
-0.050009
0.033102
0.022153
0.027089
0.070958
-0.084832
0.019412
0.043829
-0.066819
0.011389
0.032078
0.053044
0.017183
0.003764
-0.082202
0.010473
0.065857
-0.009167
-0.036381
0.003875
-0.038402
-0.034386
-0.051177
-0.038733
0.000254
0.079390
0.052585
-0.046727
0.012513
0.071670
-0.029608
0.051564
0.053468
0.043449
0.014074
-0.022607
-0.024861
-0.057581
-0.029770
0.073529
0.045263
0.026936
-0.010309
-0.010316
0.059868
-0.056365
-0.035232
0.027019
-0.070901
-0.021209
0.058059
-0.085162
-0.073830
-0.024982
-0.075497
0.057991
0.083571
-0.050850
-0.072216
0.042827
-0.041383
0.018946
-0.001748
0.005396
0.035030
-0.074310
-0.001270
-0.020077
-0.040518
0.031448
-0.027910
0.052646
-0.032528
0.051755
-0.028513
0.073196
-0.081403
0.025796
0.070502
0.071911
0.036697
-0.024140
0.011032
0.021302
-0.001283
0.013446
0.037484
0.077568
-0.062371
-0.040493
-0.043950
0.003184
0.026512
0.050961
0.051749
0.044177
-0.072173
0.052277
-0.018875
-0.080301
0.003293
-0.023947
0.004554
-0.041780
0.019149
0.039549
-0.033318
-0.013286
-0.052481
0.071576
-0.072419
-0.049714
0.081236
-0.060628
0.071731
-0.037748
0.002358
0.059810
0.058431
-0.008032
0.003616
0.004484
-0.006314
0.006059
-0.026064
-0.017885
-0.030615
0.013877
0.004278
0.075631
0.057402
-0.068910
0.021330
-0.050252
-0.066584
-0.020741
-0.059566
-0.085220
0.081401
0.004222
-0.038571
-0.077033
0.062700
0.083394
0.027753
0.083418
0.065122
-0.019577
-0.027066
0.032833
0.019777
-0.084662
-0.065574
0.081226
-0.035710
-0.035574
-0.022476
-0.028633
0.028974
-0.010581
-0.003845
-0.037995
0.022395
-0.019163
-0.000391
0.045350
-0.003438
-0.003911
0.040570
0.000794
0.054942
-0.067890
0.002998
-0.011201
0.073776
-0.028358
0.052321
-0.047581
0.070129
-0.023687
-0.031445
0.038152
-0.042281
0.057928
-0.051181
0.079806
-0.007577
0.074673
-0.024658
0.016677
0.059220
-0.066925
-0.061560
0.079650
0.082888
0.011117
0.019029
-0.043846
-0.071064
-0.019163
0.052890
0.004530
0.001296
-0.034328
0.078340
0.018159
0.084832
-0.082814
0.073783
-0.044351
0.079942
0.047526
-0.022682
0.006412
-0.085187
0.062282
0.007628
0.080557
0.040629
0.015750
0.034478
-0.076452
-0.014547
-0.051197
-0.070071
0.081906
0.041923
-0.086015
0.061500
0.043452
-0.012076
-0.048193
0.013956
0.078275
0.023344
-0.073087
-0.040582
-0.042424
-0.064692
0.057452
0.035681
-0.024589
0.041488
0.064064
-0.080126
0.020213
0.007804
0.033549
-0.047747
0.058585
0.080098
0.062011
-0.044679
0.044955
-0.040499
-0.051430
0.067885
0.014849
-0.007071
-0.033510
0.040092
-0.057573
-0.041358
0.032819
-0.043070
0.080416
0.060020
0.046778
0.084420
-0.046668
0.011360
0.059138
-0.061172
-0.022683
-0.040576
-0.050474
0.019835
-0.074916
0.017057
-0.063720
0.074744
0.009592
-0.043811
0.053120
-0.084265
-0.054236
-0.082204
-0.048686
0.050927
-0.065062
-0.052906
-0.045145
0.031020
0.048750
-0.051163
-0.041114
-0.023872
0.041361
0.017498
-0.001783
0.018966
-0.073273
0.037034
0.036807
-0.022649
-0.069205
0.026499
0.044884
-0.072183
0.028670
0.060233
0.082724
-0.003753
0.014183
-0.050452
-0.076565
0.077067
-0.027041
-0.007188
-0.081551
0.079007
-0.068311
-0.057364
-0.075100
0.074121
-0.002333
0.077645
0.071690
0.048014
-0.075423
0.050219
-0.035951
-0.040454
0.049225
-0.027695
0.076905
-0.063960
-0.004407
0.069790
0.020612
0.012065
-0.005210
0.047597
-0.020779
-0.071672
-0.033753
0.043077
0.069086
0.029995
0.020031
0.066794
-0.061177
0.007707
0.016225
-0.013155
0.062260
-0.050799
0.024137
0.041476
-0.083725
-0.003769
-0.019854
0.066339
-0.077991
-0.083704
0.048707
-0.041169
-0.014602
0.082693
-0.034606
0.072387
0.034227
0.061161
-0.010279
0.059201
0.067213
0.043173
0.006010
-0.032565
0.051449
0.037948
-0.029813
-0.003965
0.071284
-0.055744
-0.061670
0.017425
0.049719
-0.015789
-0.038564
-0.032561
-0.019577
0.062673
-0.080064
-0.000072
-0.001776
-0.025296
-0.025356
-0.007933
-0.000737
0.032585
0.066700
0.027675
-0.022633
0.077284
0.011023
0.015472
0.069049
0.066646
-0.036900
-0.024773
0.019841
0.023277
0.035831
-0.041460
0.049304
0.060416
-0.017309
0.054423
0.016391
0.077037
-0.054306
-0.010045
-0.032724
-0.000201
0.053855
-0.003537
0.083179
0.070441
-0.058921
-0.070183
0.019815
0.029696
0.033143
0.011806
0.035396
-0.022389
-0.058172
-0.003707
-0.074471
0.020368
0.021563
-0.053699
-0.042077
0.011104
0.073207
-0.031597
0.001657
0.062217
0.025674
0.048629
0.065337
-0.008285
0.045753
-0.020004
0.077427
0.063885
-0.036217
0.040548
0.032399
-0.082726
-0.000699
-0.046795
0.024231
-0.033353
0.000957
-0.079395
0.034924
-0.034441
-0.003622
0.062187
-0.068264
-0.055074
-0.011877
0.072492
0.075312
0.024598
-0.062548
-0.070409
-0.057923
-0.019877
-0.046831
-0.044832
0.058194
0.076111
-0.079366
0.009667
0.058940
-0.084891
0.081257
-0.049581
0.051662
0.047907
-0.030049
-0.042661
0.050167
-0.021171
0.034833
-0.035375
0.047624
0.034738
-0.049344
-0.027029
0.074652
-0.005213
0.053267
0.059206
0.026621
0.084176
-0.037253
-0.007022
-0.002932
-0.072173
-0.046594
0.027096
0.070892
0.005065
0.065813
0.072746
-0.067310
-0.050936
0.027113
-0.009997
-0.062564
-0.068511
0.054991
-0.054541
-0.049631
0.009462
0.078676
0.002227
0.071546
-0.031418
-0.055478
-0.050580
-0.049692
0.045739
0.073432
-0.020570
-0.047095
-0.080603
0.009574
0.070780
0.030616
0.020245
-0.051580
0.034935
-0.071431
0.036106
-0.007092
-0.003199
-0.031625
-0.081801
-0.063974
-0.006398
-0.084964
0.080801
-0.026515
0.034520
-0.068851
-0.033195
-0.024659
-0.028824
0.047145
-0.029180
0.056031
-0.049021
0.013125
-0.043090
-0.058934
0.064614
0.016868
0.046452
-0.077710
-0.024869
-0.030853
-0.057738
-0.040475
-0.080757
-0.051009
-0.073862
-0.028723
-0.038340
0.073070
-0.069596
-0.074526
-0.061277
0.076461
-0.069404
-0.062610
-0.055189
-0.048839
0.005177
-0.063888
-0.041201
0.066851
-0.065053
0.063407
-0.086017
0.046979
-0.034936
-0.022407
0.046508
-0.065240
-0.014040
-0.039050
0.008446
0.040649
0.027746
0.058341
-0.080198
-0.036193
0.046232
-0.055789
0.006706
-0.056327
0.043684
0.032637
-0.084594
0.035503
-0.054861
-0.038901
0.060307
-0.085411
-0.020747
-0.066463
-0.053495
-0.004269
-0.007307
-0.081408
-0.028013
-0.005739
0.054137
0.080910
-0.083922
-0.006789
-0.013424
0.071667
0.027156
0.056931
0.062999
-0.017828
-0.029816
-0.070686
-0.013532
-0.065488
0.082142
-0.058916
0.069803
-0.057041
-0.034887
0.074928
0.034127
0.004605
-0.011277
0.054997
0.033049
0.084072
-0.008544
-0.034734
-0.012033
0.029680
-0.066996
0.063172
-0.072479
-0.049075
-0.054958
0.080078
0.055849
-0.000018
-0.031501
-0.069074
-0.062020
0.060510
0.040601
-0.050540
-0.070210
-0.070595
0.038770
-0.068212
-0.005584
0.033288
0.019613
-0.068795
-0.078048
0.029275
-0.078339
0.044308
0.029003
-0.020274
0.049217
0.056700
-0.028770
0.065227
0.023212
0.008937
-0.040523
0.076759
0.043733
0.070270
0.082204
0.048759
0.051071
-0.021079
0.006271
-0.026778
-0.049278
0.067960
-0.053974
0.046002
-0.022481
-0.081840
0.075101
-0.001704
0.031949
-0.038997
-0.014007
-0.039193
0.012440
0.012400
0.005913
-0.037092
-0.013274
0.035961
-0.054498
-0.029865
0.065168
0.016194
-0.030421
-0.009094
0.072379
0.067547
0.003517
-0.065484
-0.000624
0.058523
-0.073573
0.020930
0.028181
-0.004402
-0.030410
-0.084442
-0.031276
0.068611
0.043979
-0.076423
0.049240
-0.003613
-0.033572
0.056326
-0.083730
0.054290
-0.058738
0.014670
0.081421
0.008479
-0.058679
0.004186
-0.034832
-0.005217
0.064077
0.034832
0.021124
-0.076026
0.003274
-0.069022
0.028181
-0.041702
-0.080829
-0.026100
-0.040301
-0.039983
-0.046283
0.018441
-0.016132
0.081220
-0.047779
-0.052769
0.081164
0.024602
0.017867
-0.009633
0.003508
-0.030062
-0.067868
0.025675
0.066934
-0.079103
0.029176
-0.020576
0.078087
0.079844
0.070995
0.084466
-0.035711
0.031756
-0.003592
0.061293
-0.061482
0.078499
-0.012740
0.080604
-0.082807
0.012656
0.009194
0.040682
-0.048546
-0.060588
0.014018
-0.012155
-0.022285
0.049200
-0.025623
-0.080716
0.039022
-0.083005
-0.022976
-0.082823
0.078398
0.028655
-0.036974
0.008789
-0.035241
0.029417
0.042844
0.038811
-0.069447
-0.064591
-0.043694
-0.074372
-0.045827
0.083050
-0.050165
0.040548
0.032474
0.084300
-0.078208
0.042204
0.035945
0.021967
-0.066241
-0.020804
0.014214
0.081997
0.076906
0.070728
0.008573
0.072606
-0.018345
0.072254
-0.034610
-0.080260
-0.041150
-0.047133
-0.000447
0.074892
0.031292
-0.052845
0.076432
-0.068334
0.003354
-0.034873
0.006161
-0.071834
0.059400
0.004728
0.066390
0.057287
-0.056978
-0.017013
0.058745
-0.068556
0.028615
-0.036755
0.017558
0.040674
0.015152
-0.027719
-0.021730
0.015931
0.026463
-0.025885
-0.075351
0.055479
-0.071613
-0.028391
0.076890
0.009721
0.004483
0.082037
-0.024882
0.000353
0.030595
-0.047854
-0.065846
-0.039858
-0.025593
0.002137
-0.078107
-0.030429
0.012001
-0.020907
-0.014328
-0.029426
-0.076173
-0.005102
0.035466
-0.009938
-0.063764
0.007425
-0.055859
-0.046757
-0.027502
0.065463
0.055294
-0.048189
0.033311
0.057423
0.000566
-0.002138
-0.017474
0.056040
0.082401
-0.070719
-0.080213
0.071421
0.028259
-0.023486
0.051069
0.085596
-0.039971
-0.065400
-0.063764
0.063872
-0.058594
-0.085632
0.074979
0.033482
0.067516
0.072471
-0.036345
0.023686
0.075286
0.010238
0.000285
-0.009081
-0.045483
-0.051450
-0.027421
0.011096
0.065946
0.076485
0.044026
0.075754
-0.070481
-0.078823
-0.069382
-0.004586
0.003164
0.027723
0.066830
-0.056132
-0.023318
0.084207
-0.025979
-0.016930
0.059815
-0.023564
-0.014965
-0.031158
0.012239
0.019203
-0.018916
0.061216
0.054390
0.006832
-0.069614
0.018833
0.032921
0.001863
0.038605
0.072665
0.050623
-0.078931
0.036411
-0.085313
0.058107
0.042997
0.071358
0.059723
0.012515
0.039970
0.083352
-0.070445
-0.051168
0.029709
-0.076639
-0.039258
-0.015559
0.019591
-0.014693
-0.060538
-0.031923
0.055219
0.082235
-0.026529
0.062792
-0.042708
0.068531
0.036212
0.026497
-0.075495
0.034929
-0.042415
0.002617
0.055188
-0.074357
-0.036728
-0.078173
-0.024493
0.076737
-0.083950
-0.052815
-0.031416
-0.020076
-0.000201
-0.040948
0.025739
-0.046236
-0.072913
-0.013403
0.028777
-0.070939
0.083203
0.022948
0.046741
0.080519
-0.045559
0.016322
0.073081
0.007849
-0.006688
0.045831
0.057554
0.039190
0.052553
0.084046
0.069910
-0.048160
0.054234
0.007432
-0.070510
-0.048947
0.032733
-0.074825
0.082876
-0.027260
0.084929
0.066577
0.086012
0.077600
-0.067762
0.045475
-0.004232
-0.054033
0.059682
0.055403
-0.023241
-0.062765
-0.079433
0.029928
0.017695
-0.035155
-0.029551
0.084323
0.012240
0.083052
0.013147
-0.037821
0.046758
-0.001966
0.016436
-0.065830
0.079615
-0.063426
0.033377
-0.039468
0.075101
-0.023824
0.025891
0.042469
-0.066074
0.017062
0.064449
0.000846
-0.026094
0.084029
0.059742
-0.010864
-0.077075
-0.007467
-0.051075
0.063085
-0.078938
-0.006081
0.025233
0.073877
0.014879
-0.054061
-0.037866
-0.055739
-0.073105
-0.046025
-0.076920
-0.018707
0.055636
0.007047
0.051056
-0.036819
-0.039038
-0.002803
-0.035569
0.053625
0.020438
-0.064636
-0.052216
0.035289
0.071814
0.056870
-0.024988
-0.056352
-0.049452
0.046662
0.082202
0.081801
-0.043363
-0.061563
-0.010650
-0.035703
-0.084372
0.051246
-0.055124
-0.051223
-0.022735
0.066768
-0.082698
0.054233
-0.065556
0.077982
-0.018848
-0.057019
0.013931
0.037587
-0.018318
-0.080882
-0.083840
-0.059478
0.067127
-0.026992
0.007800
-0.002882
0.027497
0.054392
0.011976
0.013612
0.011189
-0.019957
-0.063724
-0.021500
0.040256
-0.047233
0.047140
-0.082359
0.030529
-0.013223
-0.052643
-0.031612
-0.001941
0.014140
0.009779
0.064341
0.018589
0.065021
0.072529
0.071796
0.043244
-0.030190
-0.082195
-0.052351
0.062320
-0.007520
-0.051262
-0.056282
0.050248
0.013323
-0.082497
0.009835
-0.022026
0.042877
0.018777
0.040228
-0.036332
0.049727
-0.048495
-0.029250
-0.062878
-0.010078
-0.042247
-0.081262
-0.075486
-0.084896
-0.019399
-0.037343
-0.036951
-0.008801
-0.007107
-0.058235
-0.077832
0.019208
-0.038430
-0.045634
0.073926
-0.068616
0.025231
0.011692
0.038994
0.079916
-0.031934
0.044423
0.042762
0.048063
0.023032
0.078198
0.015849
-0.054273
-0.001094
0.025305
0.033245
-0.059370
-0.021682
-0.037579
0.022332
0.025719
0.017640
0.053715
0.062447
0.081196
0.056220
-0.068035
-0.040698
-0.004257
0.049946
-0.032832
-0.047265
-0.072122
-0.066919
-0.031824
0.005762
0.048075
0.006492
-0.055300
-0.062405
-0.000189
0.048569
0.058746
0.010947
-0.057710
0.034307
0.050580
0.070205
0.049409
0.046885
0.007400
0.023312
-0.047584
0.040330
-0.062111
0.034797
-0.031399
-0.074722
0.008908
0.014940
0.074292
0.066624
-0.053836
-0.071632
-0.083882
0.071201
-0.002358
-0.049328
0.039255
-0.001666
-0.071927
-0.057292
-0.080196
0.078827
0.044723
0.001765
-0.035504
0.053540
0.021991
-0.042535
0.012211
0.034829
0.032419
0.042624
0.020502
0.033248
0.039508
0.070839
0.016040
0.025726
0.029273
-0.065648
0.047928
-0.012265
-0.005282
-0.068175
-0.069734
0.044332
0.014296
-0.009290
-0.036437
0.057281
0.028965
-0.008781
0.030482
0.005628
-0.031736
-0.011619
0.067079
-0.028379
-0.019741
0.056271
-0.052665
-0.061646
-0.014105
-0.029752
-0.069440
-0.083177
0.057493
0.044776
0.061389
0.061260
-0.006502
-0.078052
-0.031567
0.026600
-0.057096
-0.067232
-0.010345
0.066652
0.062124
-0.085313
-0.059891
-0.071102
0.084802
-0.083547
-0.069845
-0.063764
0.076545
0.020800
-0.058560
0.027205
-0.054585
0.077737
0.010812
-0.019393
0.043547
-0.026586
-0.085376
0.064309
0.074641
-0.019078
-0.068589
0.058623
-0.057591
-0.036695
-0.019232
0.044930
0.083753
0.043294
-0.080054
-0.039452
0.002268
0.054159
-0.017011
0.002044
-0.003518
0.068319
0.015916
0.074398
-0.082498
0.056295
-0.042997
-0.076129
-0.014614
-0.012442
-0.057176
-0.001900
-0.072016
0.081861
-0.067782
-0.076083
-0.028187
-0.011252
0.025840
-0.027299
-0.043805
-0.004124
0.052774
-0.046701
-0.030777
-0.007330
-0.078757
-0.065464
-0.058454
-0.001376
0.048201
0.026772
0.069137
0.056512
0.010141
-0.037637
-0.084703
-0.031963
-0.058382
0.023070
0.004241
0.056710
-0.055042
0.003709
-0.040382
0.084037
0.025086
0.015758
0.026334
-0.068654
-0.070314
0.038744
-0.075596
0.054161
0.011908
0.004624
0.010494
-0.075376
-0.057052
0.083822
0.019063
-0.047222
0.032789
0.053085
-0.018916
-0.002151
0.000519
-0.046057
0.068128
0.009607
0.029563
-0.066807
-0.040194
-0.014994
-0.030567
-0.061844
0.036475
0.002506
0.077125
-0.015666
0.053840
-0.025905
-0.032476
-0.005564
-0.074742
-0.009557
-0.007894
-0.048479
0.078352
0.024838
-0.065604
-0.053538
-0.025941
-0.051227
-0.080617
-0.007006
-0.049198
0.046506
0.008725
0.024784
-0.045440
-0.022230
-0.066331
0.057409
0.084407
0.052313
0.000045
-0.048059
0.077789
-0.064935
-0.008697
-0.035665
-0.074312
-0.033205
0.044680
0.025088
-0.048216
0.005133
-0.068073
0.019628
-0.070268
-0.056797
-0.044978
0.006533
0.046833
0.015290
-0.081810
-0.018712
0.020657
0.046952
-0.068823
0.009794
0.016120
-0.043053
-0.065042
-0.064293
-0.002473
-0.028625
0.059721
0.032839
0.084929
-0.033977
-0.028153
-0.059568
-0.083816
0.023695
-0.029621
-0.058359
0.032675
0.068944
0.077921
-0.041090
-0.004019
0.057603
-0.019437
0.048370
0.077405
0.053295
-0.036115
0.080731
-0.034696
0.063204
-0.074299
0.053782
-0.056241
0.059769
0.023548
-0.049808
0.053126
0.072919
-0.013310
0.045536
0.065359
0.011355
-0.031775
-0.083567
-0.081920
0.012701
-0.065961
0.025621
0.037421
0.018889
-0.051276
-0.023312
0.072515
0.071125
0.072300
-0.016149
-0.046443
0.072441
-0.065644
-0.047372
-0.030539
0.082611
0.064775
0.044032
0.011317
-0.081220
-0.008536
0.003275
-0.054424
0.002079
-0.040794
0.007729
0.005857
-0.031541
0.065443
0.057196
-0.043962
0.060395
-0.056920
-0.000349
-0.020180
-0.058457
0.016898
-0.076130
0.015367
0.021134
-0.010845
-0.058944
0.008574
-0.016445
0.077516
-0.019878
-0.056170
-0.057430
0.033642
-0.084781
0.045383
0.051165
0.021537
-0.016706
0.047470
-0.062342
-0.067578
-0.069717
0.019879
-0.060368
0.008278
-0.040845
-0.020382
-0.001380
0.003656
-0.074548
0.003838
-0.055367
0.032274
0.054208
-0.025597
0.062681
-0.028178
-0.001441
0.070778
0.078109
0.042314
0.020889
-0.031420
0.035842
-0.062207
0.060801
-0.082337
-0.068216
-0.005151
-0.026181
-0.027348
0.074671
0.050030
-0.081320
-0.078820
-0.047234
0.074392
0.028470
-0.023114
-0.012268
0.062126
-0.057167
-0.041398
0.043990
-0.015543
0.066350
-0.033199
0.067177
0.018803
0.017170
-0.017275
0.010736
0.023870
0.084977
-0.030296
0.006317
0.058733
0.075704
-0.037346
-0.078935
-0.054665
-0.078689
0.025073
0.034322
-0.070639
-0.079646
0.025758
-0.008340
0.033297
-0.058725
0.072373
0.049621
0.048644
-0.034342
0.031615
0.009357
-0.041745
-0.076395
0.041027
-0.048260
0.037163
-0.004236
0.063008
-0.038691
0.009272
0.029944
-0.038274
0.067447
-0.010327
0.005903
0.002494
0.076908
-0.018404
-0.020245
-0.057000
0.042055
-0.045817
0.039971
-0.082027
-0.058727
-0.048306
-0.077472
0.023239
0.000122
-0.085167
-0.013976
-0.073395
0.055076
-0.066369
0.084029
0.009111
0.066903
0.052381
0.034543
-0.028459
0.017441
0.029466
-0.077811
-0.045158
-0.012165
0.032129
0.050648
-0.041417
0.000300
0.085547
0.076540
-0.070089
0.063697
0.017117
0.066869
0.057429
0.069922
-0.083955
0.065231
0.042205
0.027412
-0.031173
0.081144
-0.029285
0.023083
-0.066829
-0.019066
-0.019074
0.021622
-0.019055
-0.055663
0.050915
0.079479
-0.013789
0.022504
-0.039737
-0.055452
0.041843
-0.065985
-0.013640
-0.011470
-0.028366
0.028246
-0.062651
-0.061511
0.068393
0.018437
-0.030701
-0.019693
-0.023813
0.015921
-0.083422
-0.064846
0.075300
-0.021082
0.039201
-0.014092
0.019631
-0.071821
-0.008873
0.034980
0.080430
-0.026279
-0.064861
-0.073262
0.022576
-0.020744
0.071394
0.057740
0.035992
-0.030175
0.022636
-0.052775
-0.024021
0.062846
-0.041479
-0.018693
0.040868
0.045842
0.039894
-0.014982
0.002729
-0.009351
0.025180
0.063143
-0.022410
0.029424
-0.081119
-0.001101
0.033427
-0.010771
0.069780
0.036275
-0.041058
-0.043180
0.079496
0.078788
-0.040689
0.061138
0.066911
0.064954
-0.079747
-0.053100
-0.075742
0.036880
0.063079
0.048789
-0.041419
0.073292
-0.031935
-0.067590
-0.064977
-0.029163
-0.068510
0.060079
0.030428
0.021611
0.050463
0.015213
0.057564
0.004591
-0.075295
0.029623
0.061257
-0.027163
-0.013446
-0.075300
0.065206
-0.048039
-0.047996
-0.049718
0.045006
0.004677
-0.042862
0.041967
0.062432
-0.068341
0.070020
-0.013472
-0.082189
0.050804
0.078060
0.039559
-0.080320
-0.015790
0.085601
-0.009467
-0.073249
-0.030905
-0.082503
0.035567
0.031543
-0.002270
0.064722
0.071088
0.053218
-0.031689
0.018004
-0.057972
-0.057815
0.037802
-0.082191
-0.041551
-0.010558
0.027524
0.081660
-0.017186
-0.078625
-0.077011
-0.033377
0.001861
-0.003496
0.083179
0.022450
0.059552
0.082148
-0.008019
0.055558
0.008427
0.035731
-0.019720
0.073290
-0.041763
0.054126
0.067225
-0.071332
-0.018658
0.057684
-0.082129
0.039029
-0.081004
0.022897
0.043752
0.014220
0.057866
-0.069695
-0.034234
-0.053382
0.083699
0.001781
0.029268
-0.047315
-0.085152
-0.071460
0.049361
-0.015175
-0.020569
0.076076
-0.064282
-0.057728
-0.006089
0.070655
-0.025047
0.026167
-0.015138
-0.051118
0.033933
0.059095
-0.017398
-0.085932
-0.051311
-0.047453
-0.056232
0.055566
0.083190
0.005093
0.031681
0.065124
-0.038773
-0.043565
-0.019733
0.066103
-0.029049
-0.070495
0.043401
-0.013842
-0.085349
-0.035382
-0.046237
-0.072029
0.056902
-0.066931
-0.071140
-0.003642
-0.074546
0.080343
0.061868
0.050506
-0.062835
-0.054080
0.011828
0.019888
0.049251
-0.014068
-0.077754
-0.058413
0.073192
0.063695
0.040916
0.053260
0.041078
-0.055966
-0.051394
-0.061955
-0.071601
-0.054522
0.063777
0.069865
0.050611
-0.029455
-0.061128
0.004419
0.061330
-0.024923
-0.026975
0.071681
-0.058319
0.029668
-0.075149
-0.059526
0.083267
0.061880
0.056668
-0.031636
-0.072937
-0.027092
0.020591
-0.023795
-0.068370
0.021541
0.069257
0.058279
0.027202
0.026995
0.026173
0.012822
0.069520
0.033986
0.073564
-0.030066
-0.034088
0.040818
0.027269
0.057194
0.082472
0.008373
-0.057421
-0.027111
-0.001233
0.064961
-0.046969
0.017543
-0.048306
-0.028443
0.005010
-0.046032
-0.070938
0.004476
0.084208
0.010584
0.025154
-0.043702
0.011436
-0.064151
0.029804
-0.046644
-0.082620
-0.070288
-0.079013
-0.072795
0.039520
0.005225
-0.085182
0.072609
-0.063371
-0.070908
-0.074084
-0.019179
0.002953
0.051956
-0.036253
0.042807
-0.013983
-0.001211
0.020284
-0.041109
-0.010401
-0.048721
0.071777
-0.044452
-0.053360
-0.060942
-0.081558
0.081610
-0.022002
0.073995
-0.083833
0.033305
-0.047448
0.000775
0.051426
-0.004042
-0.076378
0.028030
-0.078778
0.024460
-0.083477
-0.019957
0.024586
-0.081965
-0.065718
-0.056405
0.010001
0.025795
-0.024165
-0.035353
-0.037095
-0.004786
0.038150
0.026188
0.031293
0.050972
-0.078755
0.052218
-0.025718
0.065051
-0.000981
-0.084744
-0.055170
0.063774
-0.069828
-0.070042
0.040861
0.026437
-0.018540
0.055117
-0.023534
-0.012025
0.048363
-0.084318
0.057511
0.076103
0.054478
-0.029791
0.023434
0.033311
-0.010271
-0.022672
-0.059205
-0.047492
0.046071
0.020432
-0.047236
0.082967
0.035580
0.065744
0.003410
-0.021499
0.079998
0.067560
0.026608
0.002661
-0.057357
0.019136
-0.063749
-0.082169
0.020413
-0.066489
0.060897
0.034474
-0.057842
-0.056651
0.058796
-0.019511
0.069694
0.003599
0.063537
0.047298
-0.020951
0.006764
0.013876
0.010029
-0.076201
0.022348
-0.019630
-0.052921
-0.008785
-0.080994
-0.060927
-0.066520
-0.026417
0.002722
0.028402
-0.019362
0.008950
0.045768
0.037306
0.051242
-0.050939
-0.007685
-0.057884
0.070128
0.082654
-0.029886
0.037763
0.045440
0.037893
-0.033458
0.084927
0.025226
-0.016256
-0.061371
-0.071501
0.004719
0.029587
-0.045533
0.057477
-0.025874
0.034506
-0.016222
-0.083782
-0.023504
-0.037814
-0.028560
-0.019013
0.024758
0.078798
0.012581
0.072495
0.052741
-0.039558
-0.016718
-0.007933
-0.050399
0.055236
-0.027689
0.047109
0.054608
0.001211
-0.055012
-0.037678
-0.060213
0.040273
-0.039440
-0.002882
0.074177
-0.067979
0.041560
0.034870
-0.007023
0.000321
-0.033590
-0.026031
0.009908
-0.022282
0.044076
0.016877
0.041357
0.054752
-0.024239
-0.021326
0.037522
0.082528
0.067537
-0.002878
0.080763
0.036083
-0.007173
0.040513
0.075443
0.013096
0.025291
0.036701
-0.063875
0.038382
0.077391
0.030374
-0.032559
0.002922
0.018133
-0.019754
-0.010708
0.043758
-0.014803
-0.029646
0.004084
-0.075727
-0.020438
0.083237
-0.050930
0.029102
0.042139
-0.066800
0.013026
-0.027424
-0.062886
-0.033741
0.019305
-0.059862
0.078782
0.027573
-0.017635
0.030863
0.066932
0.018754
-0.077739
0.066463
-0.015647
0.037895
0.070740
0.045749
-0.080694
0.075109
0.047403
0.066945
-0.044924
0.010433
0.022900
-0.064856
0.009336
-0.038804
0.050013
0.050116
0.011332
0.074854
0.031798
-0.083805
0.075417
-0.028271
-0.062649
-0.038574
-0.046443
0.046347
-0.053365
0.044918
0.069480
-0.022252
-0.010701
0.077148
0.031734
0.045629
-0.035996
0.047082
0.033972
-0.042415
0.058351
-0.084562
0.079944
0.062654
-0.030736
-0.045303
-0.006615
0.044193
0.081291
-0.010299
0.077622
-0.006651
-0.014517
0.028452
0.030185
0.042338
-0.038286
-0.038272
0.072336
0.082330
-0.000619
0.034653
0.050639
0.072185
-0.041332
-0.081235
0.004982
-0.011442
-0.046182
-0.049217
-0.049883
0.001656
0.047001
-0.040078
0.063679
-0.035390
0.073667
-0.062719
-0.013715
-0.014282
-0.022477
0.077050
-0.052710
-0.057693
-0.059778
-0.084283
-0.065487
-0.035271
-0.035415
-0.031319
0.032648
-0.017901
-0.073874
0.020729
-0.019252
0.080188
0.062788
-0.011357
-0.035041
0.006736
0.007808
0.028245
0.071840
0.031950
0.014868
0.069069
0.004398
-0.068048
0.073288
-0.058837
0.033481
-0.049647
-0.081003
-0.068603
-0.056694
-0.075949
-0.049041
-0.048294
0.078536
0.012264
0.056591
-0.022623
-0.034064
0.064636
0.070769
-0.063102
-0.083870
-0.022434
0.056238
-0.069011
-0.023765
-0.041082
-0.043510
-0.012265
-0.056008
-0.037704
-0.022928
-0.041181
-0.000574
-0.082104
-0.042872
0.004414
0.017957
-0.011279
-0.051956
-0.063143
-0.004920
-0.076845
0.051377
0.045683
0.041418
-0.027052
0.020267
-0.014404
0.058229
0.024290
-0.010918
0.072921
0.003825
0.015197
0.004944
0.068950
-0.053750
0.073644
0.057728
0.042694
-0.051890
-0.006756
-0.075182
0.001413
-0.044864
-0.036916
-0.027647
-0.081134
-0.011561
-0.077671
-0.018082
-0.035105
-0.082323
0.085013
0.037970
0.067846
0.058907
-0.057206
0.034092
-0.072701
-0.075505
-0.017145
-0.028100
0.023109
-0.045927
0.030867
-0.043910
0.062870
-0.073047
-0.018616
0.043621
-0.024043
-0.058892
0.035688
0.081913
-0.008266
-0.000363
-0.072014
0.029517
-0.031248
0.010033
0.050949
0.028682
0.020334
0.045943
0.005120
-0.027542
-0.049981
0.082216
0.049847
0.073735
0.037991
-0.030958
0.068538
0.022039
0.077358
-0.012672
-0.033903
0.001205
0.013360
-0.025609
-0.057900
-0.042622
-0.075329
-0.081561
-0.026113
-0.039233
-0.046891
0.064363
0.024430
0.037799
-0.083226
0.000788
-0.067437
0.019267
-0.029526
-0.028763
0.031959
0.062898
-0.049675
0.046516
0.079600
0.025496
0.005551
-0.049710
-0.041050
-0.019506
0.061278
0.041703
-0.055180
0.085457
-0.067374
-0.080119
-0.000922
-0.067940
-0.073451
0.061014
-0.005440
-0.057067
0.006158
0.034002
-0.025497
0.058199
-0.073143
0.048511
-0.011392
0.018307
0.062779
-0.030265
0.002723
0.009280
-0.009279
-0.020595
-0.028416
0.043753
0.082772
-0.055529
0.001211
0.038866
0.062653
-0.046521
0.022621
-0.009791
-0.074942
0.012125
-0.085386
0.043034
0.025410
-0.033588
-0.012107
-0.078378
-0.054554
0.073852
-0.069096
0.056227
0.009646
-0.006409
-0.015336
-0.008717
-0.006542
-0.084891
-0.022124
0.081820
0.024373
-0.017161
0.061302
-0.058414
-0.055873
-0.031846
0.066145
-0.005755
-0.076718
-0.078605
0.068827
0.003924
0.004605
-0.073687
0.068203
0.041717
0.074849
0.069676
-0.026523
0.024004
0.047087
-0.048930
-0.040308
0.049255
-0.039396
0.038840
-0.055852
-0.037516
0.076357
0.010052
0.038143
-0.041841
0.068070
-0.065644
-0.043229
0.013903
-0.035737
0.007600
0.079563
-0.057445
-0.023798
0.037147
-0.028721
-0.041285
0.019422
-0.041045
-0.066110
0.076367
0.085953
-0.073849
0.033418
-0.009468
0.060651
0.007756
0.032256
0.008582
-0.000969
0.021062
0.028798
-0.068031
-0.060717
0.081323
0.062410
-0.018504
0.078523
0.000428
-0.043190
0.082758
0.048360
-0.038841
-0.051809
0.031715
0.082816
-0.082731
0.047015
0.048598
-0.062018
-0.011513
-0.065580
0.044978
-0.074964
-0.069992
0.055464
0.077182
0.085429
-0.085245
-0.035389
0.034959
-0.008945
-0.004679
0.083956
-0.017983
-0.007272
0.078090
0.002448
0.058063
0.068133
-0.030998
0.034263
-0.004757
0.031072
-0.046416
0.070490
-0.081108
0.015359
-0.036883
0.073618
0.011362
0.053705
0.031358
-0.033824
0.038090
0.055863
-0.036497
-0.015148
-0.079475
-0.036570
-0.079500
-0.005525
-0.084754
0.082139
-0.018625
-0.081881
0.029671
0.058359
-0.005720
0.006837
-0.059706
-0.020854
-0.001062
0.042163
-0.017318
0.006050
-0.064516
0.008446
-0.084434
-0.023808
-0.010678
-0.022094
-0.037431
0.009190
-0.076056
-0.005642
0.038446
0.017054
0.021642
-0.051715
0.019213
0.075710
-0.022819
0.056899
0.008123
-0.067333
0.021549
0.082634
-0.035901
-0.018263
-0.085494
-0.034300
-0.001772
-0.057019
0.083859
0.045581
-0.056848
-0.035753
0.035479
0.040340
0.034423
-0.059006
0.083704
-0.066768
0.047898
-0.062093
0.006759
0.066802
-0.041610
0.023699
-0.032548
-0.066881
0.010071
-0.014062
0.060114
0.071787
0.081933
-0.047110
0.074809
0.027121
0.016961
0.043852
0.078451
0.039961
0.013064
0.013397
-0.006149
0.021698
-0.038056
0.080114
0.061291
0.063372
0.035020
0.084230
-0.078947
-0.014466
-0.029058
0.029979
-0.070907
0.061960
-0.070585
-0.054954
0.003358
-0.003636
-0.047174
-0.067994
-0.024645
-0.011894
0.043764
0.053817
-0.049153
0.054309
-0.047188
0.081866
0.067954
-0.005819
-0.084247
-0.073044
-0.024682
-0.052459
-0.032883
0.079600
-0.025336
0.043003
-0.065399
-0.081860
0.082005
-0.020379
-0.006242
0.013281
-0.038997
0.005357
-0.025201
-0.048062
0.036961
-0.081934
0.079105
0.053299
0.048412
0.039929
0.004935
-0.042065
0.026989
-0.048517
0.066801
0.037279
-0.072136
-0.013475
-0.012803
0.005357
-0.079371
-0.003658
0.058391
-0.041256
-0.003762
-0.082716
0.000510
-0.060735
0.057284
0.075589
-0.075707
-0.012220
-0.048839
-0.005002
0.055427
-0.024753
-0.077461
0.023476
0.028840
-0.002742
0.012542
0.037051
-0.013618
0.047334
-0.065796
0.037388
-0.060707
0.065619
0.062048
-0.010852
0.009712
0.048854
0.003023
-0.049784
0.014774
-0.032679
-0.060952
-0.015500
0.059239
0.031508
0.005746
-0.047392
-0.010079
-0.067244
0.044955
-0.038358
-0.041544
0.026946
-0.068498
-0.055209
-0.009947
-0.055350
0.002610
-0.027457
0.067046
-0.039757
-0.068116
0.049555
0.028801
0.069555
-0.085247
0.041338
0.066015
0.074549
-0.049453
-0.058043
-0.056048
-0.050359
-0.060642
0.044553
0.004738
0.072349
0.006233
0.034739
-0.042148
0.057423
0.077098
-0.050731
-0.074289
0.008313
-0.053559
0.048746
0.076364
-0.058693
-0.007877
-0.053355
0.017096
-0.047203
-0.054062
0.063703
0.048488
-0.032632
-0.069291
0.034370
0.018551
-0.004396
-0.051091
0.027861
-0.044833
0.014718
-0.053812
-0.026161
0.029020
0.049858
0.054725
-0.001586
-0.032598
-0.084002
-0.008947
0.060162
0.060144
0.069267
0.075281
-0.002340
0.033869
-0.000038
0.004888
-0.052593
-0.061069
-0.017404
-0.026370
-0.019955
0.061670
-0.067281
-0.065441
-0.038040
0.043362
0.059224
-0.023555
0.023674
0.052974
0.019252
0.021863
-0.083858
0.025606
-0.012920
-0.068675
0.078363
0.047568
0.065118
0.022904
-0.025463
0.013961
0.002643
0.064360
-0.011540
-0.082486
0.019798
-0.019445
-0.020516
-0.036349
0.071416
0.018986
0.036063
-0.034278
-0.010784
-0.054500
-0.030104
-0.060282
-0.006295
-0.073478
-0.031556
-0.070331
0.014534
0.042877
0.007627
0.060688
-0.031939
-0.057203
-0.079614
-0.052786
0.079047
-0.013063
0.059122
-0.066755
-0.064698
0.058323
-0.015968
-0.009125
-0.020309
0.019064
-0.019463
-0.053182
-0.064497
-0.011104
-0.049030
-0.007093
-0.015122
-0.009448
-0.066815
-0.030447
-0.063841
0.052060
0.042492
-0.029089
0.077423
0.077742
-0.034253
0.009441
0.056112
-0.025015
0.065548
0.072778
-0.001133
-0.043157
0.083802
0.060242
0.036323
0.039249
0.005374
0.075698
-0.061372
-0.067260
0.043512
-0.031348
0.055075
-0.025127
-0.004942
0.014325
0.038642
-0.029783
-0.027135
-0.057191
0.011964
-0.060242
-0.057621
-0.075350
-0.077453
-0.024425
0.029837
0.026313
0.016747
0.031767
0.031827
-0.081005
-0.046720
0.002209
0.028550
-0.060550
-0.054289
-0.034963
-0.064710
-0.080582
0.042183
0.061965
-0.002093
0.048906
-0.073603
-0.024625
-0.024552
0.002610
-0.076129
-0.021852
0.046836
0.064333
-0.052843
-0.057855
0.077905
0.080089
-0.030278
0.004497
0.053173
-0.084591
-0.008560
0.038306
0.038225
-0.039864
-0.081601
0.070811
-0.004034
-0.080585
0.049656
-0.016670
0.081571
-0.085431
-0.058544
0.079341
0.010232
-0.066163
-0.069586
0.009246
0.026919
-0.074622
0.079193
-0.004118
0.053437
0.067343
0.069412
-0.004446
0.029318
-0.081624
-0.073381
-0.084165
0.067398
-0.042808
-0.073813
0.031273
0.079322
0.080232
0.027965
0.075167
0.061915
0.007052
-0.066584
-0.051518
0.063432
-0.008377
0.027418
-0.001012
-0.065524
-0.045538
-0.018231
-0.027341
0.046098
-0.030082
-0.042670
0.011852
-0.014005
-0.032322
-0.061261
0.063607
-0.043205
0.033691
0.077655
0.050694
-0.073511
0.062634
-0.065279
-0.037004
-0.062657
0.005873
0.053255
-0.040933
0.034818
0.047859
-0.050986
-0.077990
-0.017619
0.082158
-0.085079
0.038754
0.023577
0.081213
-0.001999
-0.045116
-0.054035
-0.021627
-0.068306
-0.046298
0.019164
-0.025972
0.084229
0.031549
-0.022012
0.069910
-0.024382
-0.028153
-0.081494
-0.011633
0.084279
-0.044382
-0.015251
0.019598
0.025473
0.030016
0.009550
-0.039758
0.085817
-0.062811
-0.046212
-0.026694
0.033292
-0.072578
0.031134
-0.013535
0.082810
-0.035053
0.035606
0.009625
-0.059156
0.006956
0.084655
0.058912
0.038126
0.021468
0.027490
0.044599
-0.048843
-0.051131
-0.060660
-0.023819
0.043904
-0.064467
0.044494
-0.038402
0.061398
0.004568
0.063440
0.041495
-0.072850
-0.065648
-0.002433
-0.003453
-0.002841
0.008360
0.057417
-0.010017
-0.076134
-0.007251
-0.073429
-0.082408
0.056236
-0.041321
0.038901
-0.050540
-0.025611
0.004625
-0.004543
0.022664
-0.036175
-0.009631
0.029721
-0.036596
-0.001493
0.084452
-0.027929
0.027905
-0.027424
0.034677
0.027112
-0.076263
0.029010
-0.005741
-0.053569
-0.039355
0.075853
-0.040651
-0.058769
0.009796
0.003949
0.055700
0.041166
0.020619
-0.070152
-0.071275
-0.051787
0.049841
0.026787
0.047180
-0.012879
0.003436
0.045466
0.025159
0.009378
-0.005593
0.039673
0.038869
0.065429
0.019290
-0.077887
-0.016467
-0.029429
-0.005866
0.072658
0.009169
-0.074752
-0.036493
-0.065213
0.042546
0.035844
0.055616
-0.074370
0.079680
-0.032420
0.035852
-0.016124
0.066583
-0.035577
0.000157
0.073933
0.047044
-0.024025
0.032409
0.051584
-0.072161
0.027229
-0.058717
0.024257
-0.074675
-0.081146
0.007009
0.056675
0.039689
-0.047756
-0.039068
-0.065744
-0.065897
-0.000232
-0.014184
-0.040625
0.002575
-0.007626
0.035740
0.018487
0.054400
-0.073935
-0.080803
-0.048241
0.016704
0.023796
0.066387
-0.080249
0.073725
-0.003624
-0.046476
0.009124
-0.060035
-0.038281
0.064267
0.061049
0.023721
-0.036200
-0.078910
-0.048734
-0.083967
-0.084426
0.073692
-0.057548
0.079275
0.026131
-0.001569
-0.051257
0.007410
-0.053665
-0.065050
-0.006979
0.065353
0.060188
0.016022
-0.063756
-0.014101
-0.020215
-0.061312
0.062825
0.064599
0.063900
-0.035665
0.024241
-0.074276
0.032205
0.059169
0.068126
-0.046688
-0.019127
0.020632
0.021012
-0.041412
0.030714
-0.065460
0.042756
-0.045476
-0.067016
-0.082361
-0.046158
-0.014056
0.005571
-0.079543
0.023439
-0.023087
0.061991
-0.030320
0.029059
0.029587
-0.005212
0.007042
0.063116
0.076900
-0.076091
-0.001256
0.028219
0.028836
-0.078280
-0.052742
0.080395
-0.033206
0.052167
0.052397
0.017521
0.020572
-0.046041
-0.000237
-0.065929
-0.004207
-0.008661
0.078104
-0.031767
0.059749
0.026576
0.077497
0.078258
-0.011617
-0.058131
-0.065749
0.021622
-0.052989
0.081141
-0.036133
0.039783
0.084240
-0.010545
-0.061904
-0.076440
0.014514
0.075721
-0.007946
0.005274
-0.041461
0.068181
-0.071520
0.033967
0.018940
0.020345
-0.074976
0.005532
0.003632
-0.013999
-0.041140
0.016460
-0.057829
0.032234
0.003002
-0.033428
0.021843
0.011774
-0.043113
-0.012301
0.009432
0.033662
0.081442
-0.041237
0.025038
0.044995
0.024480
-0.009565
-0.025769
0.073625
0.011819
-0.070196
-0.027113
-0.021386
-0.082112
0.056762
-0.037224
0.016432
-0.059740
0.059934
-0.003092
0.065011
-0.067565
-0.056582
0.053004
-0.056852
-0.039273
-0.025331
-0.019412
0.076075
0.018658
-0.050145
-0.038531
-0.028342
0.032647
-0.081380
0.017855
0.054835
-0.050945
-0.075193
-0.085168
-0.047660
0.043022
-0.058396
-0.054868
0.023749
0.010776
0.066663
-0.063610
-0.059418
0.061460
0.064909
0.011506
0.081064
-0.079678
-0.076430
-0.042231
-0.007256
-0.084599
-0.031737
0.044182
0.036244
0.026347
-0.032170
-0.052719
0.059564
0.006339
0.037527
0.006421
0.022638
0.072438
0.000531
0.015511
-0.026963
-0.048046
-0.048369
-0.036947
0.016797
-0.035658
0.003239
0.003859
-0.020623
0.075538
0.063039
0.079858
-0.041682
0.072972
0.003421
0.005041
0.054295
-0.021056
-0.047536
0.040711
0.063916
0.039595
-0.023838
0.052371
0.002021
-0.000070
0.019615
0.065283
-0.082523
0.038815
0.045591
0.084556
0.011842
-0.001503
-0.033028
0.020461
-0.038817
0.070556
0.081308
-0.034572
-0.003961
-0.022929
-0.082677
-0.016729
-0.029925
0.026038
0.006648
-0.012532
-0.023563
0.066766
0.073016
0.011209
0.082733
0.086009
-0.031359
-0.067915
-0.054345
-0.072967
0.032149
-0.070218
0.054132
0.023968
0.018547
0.053651
0.006467
0.016554
-0.033790
0.056729
0.024386
0.061916
-0.018769
-0.064379
-0.034102
-0.027781
0.074833
-0.076849
-0.081594
0.041349
-0.041361
0.001280
0.061900
-0.042220
0.004905
-0.049409
0.012839
-0.043544
-0.000322
0.044220
-0.058359
0.054329
0.020319
0.003671
-0.022610
-0.032551
-0.076304
0.081386
0.036093
0.082747
-0.021003
0.014292
-0.072737
-0.078736
-0.021422
-0.052355
-0.068845
0.063887
0.028489
0.000818
0.078805
0.074656
0.022052
0.049698
0.017350
0.078954
-0.083699
-0.033991
0.013751
-0.015122
-0.040595
-0.081625
0.083734
0.072414
-0.055356
0.049005
-0.072511
-0.056755
0.078796
-0.073644
0.061151
0.082103
0.013328
-0.044518
-0.047085
0.062560
0.084215
0.002243
-0.065129
-0.002966
-0.069339
0.005089
0.077353
-0.044490
-0.005966
-0.083376
-0.002707
0.068989
-0.071175
0.019963
-0.004845
-0.084217
-0.003927
0.064088
0.001579
-0.029834
0.034031
0.015162
-0.076554
0.039797
0.040810
-0.047297
-0.070143
-0.033971
0.080949
0.024842
0.036027
0.034772
0.069108
-0.079426
-0.014260
0.075883
0.007067
0.064284
0.052622
-0.078469
-0.045666
-0.042741
0.006934
0.030562
-0.042788
-0.016475
-0.002453
-0.053488
0.031262
0.071441
-0.009785
-0.001048
0.084951
-0.024630
-0.060392
-0.058172
0.009798
-0.065929
0.028423
-0.082910
-0.072952
0.075689
-0.030044
-0.041730
0.041295
0.051577
-0.037953
0.015342
0.054448
-0.040271
0.022015
-0.070425
0.018238
-0.034471
-0.081845
0.081593
-0.009679
-0.044278
0.067110
0.024959
-0.044477
0.017422
-0.072261
0.046224
-0.076384
0.022113
-0.054250
-0.059573
-0.005474
0.071925
-0.079601
0.084340
0.040919
0.006760
0.018842
0.068948
0.016004
-0.021764
0.012850
-0.023676
0.016290
-0.007999
-0.047183
0.050354
0.085622
-0.051934
0.048266
-0.012494
0.067892
-0.079775
0.044158
-0.031143
0.013091
-0.057840
0.017484
0.081743
-0.018899
0.051813
0.079865
-0.014797
-0.042978
0.066544
0.047144
0.082316
0.047965
0.021298
0.008392
-0.077332
-0.025352
0.024190
-0.005998
-0.081994
-0.033125
0.027892
-0.018236
-0.072228
0.086007
-0.082644
0.000507
0.010637
-0.071495
-0.019644
-0.070653
0.002197
0.020235
0.028405
0.007809
0.041024
0.005370
0.027608
-0.034248
0.043192
0.073575
-0.075151
0.001945
0.011265
-0.002879
0.033411
0.062290
-0.073646
0.056100
0.019088
-0.070325
-0.012137
0.085847
0.031998
-0.035522
0.047910
-0.034818
0.001703
-0.036552
-0.075516
0.002909
0.026081
-0.070772
-0.003937
0.030949
-0.021833
0.067628
0.045868
-0.072493
0.035634
-0.083017
0.016547
-0.036646
-0.017047
-0.079485
-0.009316
0.070414
-0.082715
0.064353
-0.012933
0.043179
-0.035179
0.031105
0.015984
0.057022
0.007648
0.082099
0.000790
0.019681
-0.003404
0.085287
-0.083363
-0.061348
0.071277
-0.011152
-0.008306
0.049245
-0.042691
0.020207
0.057064
-0.036506
-0.019743
0.034426
-0.046932
-0.004606
-0.072215
-0.000326
-0.085378
-0.050516
-0.016034
-0.017202
-0.048625
0.044628
0.068247
-0.022863
0.036888
0.059430
-0.030220
-0.022232
-0.075348
-0.058870
0.066850
0.020300
0.082065
0.077880
-0.084947
-0.023318
-0.077611
0.038901
-0.016954
-0.057851
-0.082854
0.079596
-0.024744
-0.017195
-0.043073
0.030902
-0.017608
-0.066288
-0.005886
0.075439
-0.065512
-0.051518
0.075539
0.049274
0.034349
0.042796
0.077727
0.023043
-0.047595
0.024640
-0.050743
0.038708
-0.078497
0.020139
0.036668
0.061674
0.064074
0.082674
0.036843
0.071082
0.058487
-0.076958
0.019427
0.016756
-0.033502
-0.054214
-0.066050
0.006209
0.063461
-0.039933
-0.035015
0.052897
0.023788
0.018294
0.038476
0.059205
0.014410
-0.082355
0.072233
0.084351
0.014592
-0.083912
0.053540
-0.043674
-0.013419
0.062125
0.069029
-0.031898
-0.036706
-0.020852
-0.014102
-0.010687
0.065909
-0.017862
-0.081674
-0.047497
-0.036323
-0.027788
-0.003905
0.008817
-0.065688
-0.002322
-0.075882
-0.036069
-0.082707
-0.068884
-0.034859
0.005391
-0.044985
-0.075739
-0.051042
-0.054440
-0.057681
-0.063749
-0.067425
-0.059063
0.031318
-0.031110
0.084231
-0.006547
-0.046018
-0.051255
0.077161
0.012928
0.026201
-0.031280
-0.041672
0.030383
-0.048805
0.062284
0.028176
0.017989
-0.003148
-0.060021
0.079276
-0.025958
-0.005623
-0.009499
-0.017348
0.073743
-0.009465
0.056021
0.028760
-0.041578
0.029321
0.027654
-0.046632
-0.001043
0.077446
-0.053885
-0.023512
0.072923
-0.004176
0.029535
0.057513
-0.083883
0.001642
0.021876
-0.075704
0.083878
-0.002729
-0.056272
-0.018831
0.058006
-0.070630
0.002378
0.014647
-0.060130
0.070110
-0.048120
-0.008611
0.045576
-0.080652
0.061278
0.072753
0.036209
0.061836
0.057855
-0.021808
0.021825
-0.045463
-0.011452
0.074219
-0.079988
0.058628
-0.013274
0.037625
0.050652
-0.007970
0.042960
0.009369
0.031464
-0.001356
0.067918
-0.035144
0.007429
0.064431
0.000957
-0.084721
0.042535
-0.013159
0.011822
0.016402
-0.054051
0.026649
0.011957
0.036943
0.038639
-0.079484
-0.044366
0.078662
0.046893
-0.049398
0.016844
0.059456
-0.080429
-0.063994
0.059899
-0.030246
-0.000547
-0.051632
0.018375
0.042003
0.053945
0.058636
-0.002749
0.028847
0.047161
0.059094
-0.030338
0.081650
0.044236
0.044746
0.055498
0.019914
-0.016430
-0.084423
0.038669
0.040492
-0.071960
-0.058466
-0.041915
0.078723
-0.051766
0.001606
-0.082615
-0.082388
0.046026
0.053868
0.026600
-0.069542
-0.017824
0.004530
0.082883
-0.028077
-0.060477
-0.032057
0.050787
-0.008428
0.056099
0.019132
0.050474
-0.075676
0.058934
-0.044818
-0.075103
0.083820
-0.081819
0.040466
-0.012826
0.063514
-0.079228
0.046810
0.084483
-0.040066
0.065725
-0.038025
-0.084877
-0.078482
0.040422
0.060103
0.042295
0.032339
0.032726
-0.069849
0.025922
0.004028
0.084325
0.068083
0.053400
0.058619
0.036100
-0.085966
0.044935
0.020535
0.028792
-0.053137
-0.049681
-0.070957
-0.066986
0.068515
0.017541
-0.014565
-0.023809
-0.035784
-0.054877
0.075897
0.032979
-0.029242
-0.020982
0.044502
-0.023558
0.048241
-0.069682
-0.061400
-0.002338
-0.078596
-0.005093
-0.075767
-0.080315
0.050601
0.015801
0.010140
0.077586
-0.033254
-0.048807
0.085371
0.024381
0.010325
-0.076191
-0.007604
-0.002164
-0.023360
-0.063839
0.002479
0.056639
-0.020746
-0.055360
0.075971
-0.069152
-0.054149
-0.043896
0.048948
-0.029330
-0.058703
-0.084608
-0.082322
-0.022355
-0.032196
-0.042493
-0.018408
-0.010255
0.070162
0.020776
-0.084254
-0.039544
-0.032583
-0.032655
0.043770
0.011213
-0.074374
-0.036126
0.060145
-0.039512
0.070632
0.081444
0.049118
-0.060287
-0.082920
-0.016614
0.038687
0.033073
0.083337
0.032003
-0.021684
0.065795
-0.035252
0.017609
-0.074900
0.066097
0.012462
0.037694
0.063731
0.010706
-0.050943
-0.043852
0.032756
-0.031908
-0.003326
0.049525
-0.011841
-0.052832
0.040775
0.056804
0.046605
0.045304
-0.007473
-0.084815
0.001628
0.057028
-0.060312
0.072761
-0.061111
-0.075489
-0.065040
0.068741
0.078421
-0.027598
-0.061269
-0.007703
-0.061063
-0.030072
-0.055610
0.084034
-0.030710
-0.007927
-0.029243
-0.021001
-0.050073
-0.083001
-0.065902
-0.004572
-0.074842
0.029089
0.002112
0.079429
-0.076266
0.018477
-0.016683
0.058411
0.063678
0.016109
0.081580
0.052348
-0.019186
-0.044802
0.069022
0.073463
-0.031152
0.063196
-0.061673
0.035841
0.064145
0.024869
0.079606
-0.083938
-0.009325
0.071332
-0.025114
-0.037655
0.079002
0.030531
-0.008509
-0.011433
-0.011247
-0.050446
-0.043120
0.010905
0.082136
-0.000483
0.035714
0.008199
-0.001040
0.081827
-0.073866
0.066946
0.010864
-0.062290
-0.066431
-0.064455
-0.021735
-0.063358
0.066595
0.026506
0.040893
-0.050308
-0.069971
-0.042978
0.041799
-0.010331
-0.022445
0.032608
-0.077732
0.044438
-0.050461
0.031285
0.054653
-0.030507
0.053224
-0.050483
-0.055245
-0.049265
0.058108
0.059683
0.020778
-0.008071
0.030031
0.060831
-0.083049
0.038895
-0.058725
0.019627
-0.049635
-0.041834
-0.065044
0.010547
-0.027439
-0.070388
0.060487
0.033811
0.007186
0.006158
0.001088
-0.046604
-0.024612
-0.068513
0.036801
0.012562
-0.003874
0.026967
-0.084115
0.070574
0.063247
-0.025952
-0.058461
-0.039706
-0.007369
-0.031136
0.063010
-0.079008
0.083161
-0.032179
-0.007172
0.006629
-0.014061
0.005340
-0.083715
-0.012291
0.003674
0.015879
0.074957
0.042587
-0.081472
-0.017884
0.017091
0.074378
-0.071358
-0.055885
-0.033870
0.079472
-0.013627
-0.045625
0.066966
-0.041775
-0.038165
-0.030156
-0.064742
0.002055
-0.010454
-0.008905
0.079966
0.057207
0.006052
-0.015270
-0.031130
0.059989
0.057751
0.023072
-0.002833
0.002543
-0.071604
-0.046600
-0.018856
-0.037941
0.066629
0.019443
-0.076957
-0.052085
-0.062607
0.063096
-0.022504
-0.040514
0.030342
0.054000
-0.038639
0.022282
-0.049895
-0.035103
0.054162
-0.067353
-0.039275
-0.072559
-0.009091
-0.063547
-0.074146
0.068026
-0.018277
0.070003
0.052610
0.071231
0.017029
-0.024940
-0.013775
0.067985
0.071067
-0.031578
0.005476
0.083520
0.081650
-0.045222
-0.002597
-0.021449
0.069283
-0.081254
-0.082042
0.045900
0.055029
0.083808
-0.039785
0.013666
0.032158
0.004222
0.016908
-0.014198
-0.039887
0.053497
-0.008045
-0.063557
0.036502
0.013359
0.055494
0.025102
-0.015591
0.047164
0.034038
-0.074898
-0.061752
-0.076402
-0.017892
-0.041024
-0.070692
-0.052019
-0.039105
-0.000568
-0.004111
0.024467
-0.002496
0.019095
0.034217
0.056341
0.081319
-0.079045
-0.000190
-0.001393
-0.030762
-0.067984
-0.002714
-0.043122
0.046070
0.078637
-0.083299
0.017986
-0.071693
-0.021091
-0.063519
-0.028899
-0.054810
-0.013522
-0.011662
-0.081123
-0.067992
0.081904
0.056637
-0.057478
0.003920
0.036943
-0.072760
-0.007061
-0.076248
-0.071183
-0.040900
-0.014220
0.077795
0.069960
0.013158
-0.039523
0.081399
-0.047547
0.038031
0.026491
0.043665
-0.002698
-0.038472
-0.052360
-0.070017
0.055011
0.035854
-0.057809
0.048637
0.043077
-0.010466
0.077370
0.017267
0.017925
0.015895
0.073982
-0.063139
0.060528
0.067057
0.081566
0.058101
-0.040833
0.043611
-0.074072
-0.055287
-0.060794
-0.069127
0.067368
0.056010
-0.045695
0.066962
0.034801
0.001209
-0.063389
-0.032882
0.024963
0.005520
0.071365
-0.037613
-0.058182
0.072150
0.045058
-0.036531
-0.081510
0.023758
-0.059790
-0.015406
-0.031286
-0.040699
0.035836
0.016967
-0.055897
0.045560
-0.057122
-0.023180
-0.043036
-0.057553
-0.033542
-0.073098
0.030015
-0.082606
0.010694
0.013171
0.072521
-0.019878
0.083833
-0.030317
0.083039
0.043814
0.064316
-0.035437
0.002010
0.068980
0.038334
0.082710
0.032779
0.063308
-0.005598
-0.019796
-0.081772
-0.026445
0.020481
0.026105
0.016186
-0.080137
0.079997
-0.008223
-0.033881
0.040769
-0.059686
-0.030758
0.054882
0.019119
-0.029766
0.066358
-0.067503
-0.047224
0.042351
-0.066842
-0.057598
0.045930
0.037868
0.025500
0.070444
-0.003715
-0.055893
-0.053393
-0.058735
0.073136
0.018605
0.076518
0.060576
-0.071269
0.027864
-0.048091
-0.045353
-0.020275
0.059617
-0.006964
-0.078018
0.080168
-0.010699
0.042613
-0.076340
-0.002590
-0.034298
0.069522
0.068257
0.021083
0.076872
-0.038626
-0.065723
0.062359
0.006421
0.078845
-0.068515
0.084395
-0.042127
-0.070647
-0.002643
-0.043857
0.017905
0.045299
-0.052483
-0.054660
-0.010704
0.041238
-0.039954
0.071138
0.079781
-0.005628
0.060870
0.045676
-0.022544
0.079374
0.015571
-0.077144
0.018924
-0.031268
0.076084
-0.045139
-0.029859
-0.064432
-0.016787
-0.045627
-0.043244
0.051829
0.056740
-0.005971
0.040872
-0.050794
0.001550
-0.063769
0.084017
-0.065502
0.023241
-0.021932
-0.068889
-0.064762
-0.024829
-0.027857
-0.012243
0.008741
-0.050112
-0.065170
0.002554
-0.008841
0.055823
0.042236
0.085313
-0.016444
0.057005
0.075660
-0.007759
-0.050967
0.038944
0.078220
0.028774
-0.085951
-0.006678
-0.041547
0.061606
-0.081885
-0.053338
-0.022721
-0.031333
0.083067
-0.011700
-0.009822
0.078096
0.027033
0.046334
-0.070633
0.019844
-0.058249
0.041348
-0.054990
-0.059741
0.075945
0.065301
0.071159
-0.013225
0.072429
0.003375
-0.006473
0.085431
0.053824
0.005363
-0.023307
0.049146
0.078348
0.041243
-0.021285
0.052948
-0.085687
0.010276
-0.027450
-0.064147
-0.035601
-0.069774
0.042325
-0.051230
0.057056
0.017723
0.052258
-0.022296
0.041668
-0.031866
0.024197
-0.032456
-0.005202
0.051342
-0.012897
0.058107
-0.077566
-0.047807
-0.048564
0.083033
-0.018259
0.054730
0.079671
-0.059395
0.043022
0.041188
0.051493
0.058666
-0.030871
-0.005984
0.018772
-0.059368
0.084062
-0.030246
-0.057385
-0.015862
-0.038731
-0.002912
0.000918
0.048684
-0.037164
-0.062563
-0.031254
0.045241
0.052417
0.076379
-0.059707
0.016134
-0.061340
-0.033142
0.077034
-0.002297
-0.082583
0.065605
-0.027997
-0.049188
0.000232
0.018036
0.051004
-0.030209
-0.011109
0.032736
0.050885
-0.021567
-0.021727
-0.048785
-0.003578
0.024287
0.008975
-0.027547
0.037179
-0.032981
-0.002988
0.012488
-0.036844
0.063657
0.080174
-0.060438
0.038743
0.009909
-0.022415
0.059580
0.020369
0.009667
0.047760
-0.055623
0.016789
0.024176
-0.028257
-0.065168
0.066248
-0.081256
0.002100
0.072118
0.063240
0.027498
-0.076269
0.049340
0.046851
0.024682
0.064363
-0.042592
0.003250
0.074391
0.052246
-0.073120
0.023663
-0.055552
-0.001364
-0.001018
-0.021441
0.011324
0.066925
-0.034244
-0.059141
0.022483
-0.022579
0.005551
0.052217
0.028073
0.022972
0.053399
-0.012970
-0.085705
0.003964
0.032755
-0.012286
-0.023387
-0.055170
-0.061339
-0.017683
-0.029134
-0.005204
0.015071
0.047176
-0.016916
0.010249
0.022880
-0.006604
-0.085565
-0.077224
0.045867
-0.018510
0.068421
0.041874
-0.012245
0.018004
-0.048544
-0.069864
-0.029370
-0.014206
0.018270
-0.077652
0.083240
0.023430
-0.009075
-0.068515
0.067045
0.022800
0.053125
-0.041174
0.077442
0.062778
-0.045941
-0.035458
0.004033
-0.036997
-0.022735
0.061473
-0.015883
0.074617
0.054365
0.078576
-0.052150
-0.019151
-0.056122
-0.051596
-0.061205
0.036519
-0.067545
0.070734
0.057402
0.008900
0.007264
-0.075295
-0.021711
0.059778
0.080936
-0.062012
-0.052828
0.044312
-0.072485
-0.080658
-0.034653
0.018241
0.054285
0.084737
0.042214
-0.011614
0.054081
-0.008923
0.017533
0.062819
-0.058053
0.001680
0.034722
-0.024579
0.066576
0.017088
0.026833
0.048087
0.058626
0.011379
0.080320
0.011071
0.017517
0.030153
0.001056
0.018760
-0.085816
0.029329
0.039108
0.019993
-0.016102
-0.077292
-0.033285
0.060368
0.060230
-0.063203
0.048619
0.017292
0.054821
-0.033151
-0.043026
-0.038229
0.052278
-0.012647
0.019308
-0.054839
0.035005
0.082620
0.069913
0.025290
0.058560
0.028917
-0.040176
0.050389
0.082747
-0.075628
-0.014882
-0.040009
-0.038988
-0.065931
0.018199
0.015850
-0.044095
-0.067421
0.045639
0.066971
0.057202
-0.084385
-0.071152
0.013853
0.030833
0.056644
0.011874
-0.047627
0.040479
-0.068162
0.073712
-0.031490
0.084106
0.023690
-0.005600
0.047939
-0.081863
0.052022
0.079042
-0.056372
0.026090
0.035131
0.036048
0.012868
0.047776
0.082638
0.013197
0.049077
-0.081584
0.010802
-0.005269
0.044581
0.085833
0.000171
-0.064094
-0.042799
0.046521
0.036003
-0.037100
0.023495
-0.005883
0.022707
-0.028568
0.026614
0.054831
0.019076
-0.078563
-0.055659
-0.013827
0.045691
-0.070650
-0.044181
0.011230
0.005934
-0.003659
0.060385
0.045909
0.005437
0.050693
-0.028335
0.001615
-0.077896
0.072031
0.043054
-0.081213
0.024929
-0.052598
-0.055354
0.023525
-0.032118
0.029428
0.054934
-0.060653
-0.023707
0.084777
0.057735
0.042371
-0.074360
0.050373
-0.044187
-0.053944
0.068673
-0.067840
-0.020533
0.079099
0.009104
-0.078793
-0.076310
-0.071762
-0.075490
-0.042914
0.067034
0.044169
-0.041105
-0.027610
0.059131
-0.015890
-0.016499
-0.059980
-0.008422
0.042793
0.053939
-0.013777
0.036267
0.020376
-0.083306
-0.031327
-0.077412
-0.039601
0.031752
-0.064557
0.033403
-0.012547
-0.075490
-0.025823
-0.048997
0.012460
-0.004796
-0.084454
-0.079831
0.038755
-0.047230
0.052255
0.081846
0.031914
0.026569
-0.070621
-0.014894
-0.066975
-0.005423
-0.010105
0.041011
0.015852
0.017594
-0.011918
-0.070650
0.010792
-0.008065
-0.049269
0.050842
-0.034824
0.031609
-0.018248
0.070195
0.050538
-0.002634
0.070536
-0.071162
-0.034238
0.049881
0.007092
-0.036119
-0.004879
-0.019089
0.030072
-0.063079
0.083267
0.060206
0.051631
0.061900
0.029229
0.059313
-0.046954
-0.030716
-0.050312
0.008073
0.057634
0.031002
0.041079
-0.049500
0.075095
0.050900
0.083891
-0.029026
0.052559
0.063655
0.075099
-0.050275
0.057423
-0.046311
-0.076583
0.004696
0.014241
0.068217
-0.048210
0.061048
0.029127
0.068360
-0.068988
-0.057404
0.042703
-0.017766
-0.047066
-0.038957
-0.031167
-0.002870
0.057777
-0.073463
-0.060703
-0.021235
0.004002
-0.049383
-0.071671
-0.047477
0.071697
0.019271
-0.043398
0.028978
0.082215
-0.020510
-0.001527
-0.018498
0.072007
0.047377
-0.027978
0.010899
0.045714
-0.023895
0.009828
-0.053720
-0.056796
0.071963
0.068063
-0.059569
-0.080927
-0.025413
-0.027584
-0.061397
0.032945
0.051596
0.000554
0.017662
-0.022994
0.077807
0.057355
-0.080937
-0.045769
-0.083618
0.057813
0.070722
0.065064
-0.019177
0.033035
-0.013606
0.059586
-0.004331
0.016590
-0.030084
-0.008384
0.038075
0.052209
-0.059469
-0.032338
-0.079398
-0.001660
-0.082103
-0.024209
0.040102
0.050557
0.078395
-0.063238
0.012545
-0.065111
-0.012813
-0.055737
0.076667
-0.002921
-0.013489
-0.049913
0.034977
-0.051694
0.039679
-0.074534
0.060091
0.068056
0.070609
-0.040506
0.008916
0.041124
-0.057863
0.069983
-0.072611
0.007711
0.077674
0.011437
0.023874
-0.006104
-0.016776
-0.039296
0.063556
0.033714
0.033722
0.075348
0.049977
0.064413
0.058412
0.050812
0.058245
0.054138
0.006510
-0.051902
0.006576
-0.080785
0.071150
0.052261
0.073622
0.035581
0.062162
-0.062395
0.062422
0.071674
0.054215
-0.074172
0.026622
-0.011416
-0.079628
0.052940
0.084354
0.067340
-0.046700
-0.075404
-0.057196
-0.062258
-0.018827
0.022550
0.004944
0.043391
-0.067916
0.071779
-0.027117
-0.068565
0.053944
0.083161
0.045775
-0.011859
0.027440
-0.068445
0.015080
0.011919
-0.076294
0.042969
0.043915
0.036214
0.006358
0.064457
-0.023074
0.075908
0.036484
-0.015047
0.034216
0.045799
0.013207
-0.035551
-0.059952
0.058174
0.013733
0.036594
0.000877
-0.016558
0.006713
0.021772
-0.036691
-0.000471
-0.036776
-0.013104
0.025240
0.021907
0.039510
-0.003058
-0.004044
0.008722
0.041425
0.084051
0.024975
0.040104
-0.018456
-0.040528
-0.005441
0.048900
0.036859
0.046372
0.009576
-0.026897
0.026370
0.000865
-0.042041
0.055716
-0.037795
0.062632
-0.023672
0.041595
-0.074719
-0.056858
-0.050546
-0.076884
0.002517
-0.044484
0.026185
0.061572
-0.026047
-0.081347
0.029560
-0.012940
0.058734
-0.039473
-0.073586
-0.011753
0.038772
0.020251
-0.033215
-0.012099
-0.084217
-0.058262
-0.011399
-0.078501
-0.050483
0.036161
-0.046387
0.051843
0.078737
0.046680
-0.056116
0.019959
-0.031060
-0.036972
-0.037637
-0.027942
-0.029266
-0.009716
0.001307
-0.032861
-0.021888
0.025870
0.022883
0.006942
-0.048635
0.048782
-0.015866
0.050956
-0.041751
0.080701
0.014064
0.058979
0.025284
-0.076717
-0.048206
0.018553
-0.025351
-0.012694
-0.066085
0.051429
-0.058536
-0.005800
0.006955
-0.044834
0.010427
0.072765
-0.017570
0.007361
0.066297
0.039171
-0.030594
-0.043849
-0.031601
0.018133
-0.081182
-0.074216
0.037263
0.058623
-0.013086
0.022380
-0.039496
0.085895
0.050874
0.032131
0.003601
0.065718
-0.072135
0.017837
-0.053549
-0.071519
0.040534
0.039104
0.026865
0.081160
0.002109
-0.016529
0.044489
0.014874
-0.021636
0.004750
-0.037196
0.020416
-0.065843
-0.081589
0.012335
-0.080877
-0.030131
0.079021
-0.032884
0.005773
-0.080216
-0.020504
-0.019652
-0.018829
-0.027879
-0.007896
-0.036351
0.015050
-0.022825
-0.002104
-0.008061
0.023472
0.039944
-0.033269
0.002013
-0.042978
-0.027486
0.012437
0.023162
0.077184
0.068953
-0.083712
0.028234
-0.084685
-0.051109
-0.067114
0.074046
-0.067628
0.049693
0.011080
0.001548
-0.050137
0.062768
-0.024225
0.071097
-0.042780
-0.018668
0.031639
0.049257
0.056180
0.053497
0.034448
0.028232
0.039029
0.018434
-0.070164
0.080510
0.020203
0.066509
-0.082472
0.067192
0.014867
-0.036724
0.002374
-0.030474
0.061641
0.021301
-0.074099
-0.009284
0.003868
-0.073980
0.017808
0.039209
-0.042212
0.027201
-0.058396
0.017921
-0.008751
-0.059902
0.083487
0.033497
-0.037445
0.038185
-0.072645
-0.045184
-0.051581
-0.047431
0.079265
0.044511
-0.026174
0.039282
0.011438
-0.048156
0.036641
0.041493
0.017993
-0.059268
-0.025561
0.064405
-0.055884
0.018986
-0.042029
-0.046536
-0.066148
0.069128
-0.085187
-0.003750
0.061581
0.054181
0.072595
-0.082592
0.014506
0.072896
-0.075448
0.003370
0.074466
-0.003225
0.026371
-0.084789
-0.017410
-0.067981
0.027107
0.028306
0.029097
-0.057619
-0.056947
-0.022243
0.002990
0.081724
0.046285
0.081725
-0.077458
0.072964
0.022223
0.082974
-0.061999
0.003802
-0.054506
0.082806
0.032719
-0.046969
-0.020277
0.069981
0.066554
0.026118
-0.056247
0.043542
-0.085108
0.084553
0.055519
-0.014535
-0.005892
-0.063135
-0.003182
-0.024484
0.048614
0.036888
0.054253
0.010818
0.028880
0.077897
-0.071365
-0.019506
0.006930
-0.022961
0.042432
0.060531
-0.006688
0.076637
-0.037959
0.073756
0.066719
-0.005880
-0.013965
0.007537
0.020169
0.062727
-0.065614
-0.066117
-0.083527
-0.002526
-0.023143
-0.002803
0.064279
-0.068901
0.028140
-0.002263
0.024511
0.024703
0.022012
-0.028131
-0.046086
-0.082907
0.003412
-0.033833
-0.039282
0.007352
0.062190
0.042431
0.066463
-0.041363
-0.017897
-0.012405
0.003696
-0.065562
-0.038924
-0.024438
0.033550
-0.049038
-0.046274
0.026686
0.062069
0.000512
0.073754
-0.013495
0.040560
-0.063651
0.066894
-0.058136
-0.043059
-0.075054
-0.055144
-0.005927
-0.036893
-0.046382
-0.014824
0.012007
-0.072299
-0.002780
-0.048447
-0.005582
-0.049613
0.010780
0.065659
0.030770
0.014396
0.049053
-0.083631
0.066375
0.006083
-0.062236
-0.083249
-0.025648
0.011518
0.001176
0.060692
-0.045266
0.033671
0.008054
-0.022418
0.012665
-0.076132
0.084900
-0.069908
0.004022
0.011355
-0.012981
0.059111
0.050972
0.078103
0.067644
-0.050677
-0.040124
-0.018765
-0.011090
0.082582
0.004131
-0.082324
0.009276
-0.077086
0.044603
-0.079120
0.062930
-0.049390
0.084281
0.056413
0.065802
0.049877
0.040495
-0.007026
-0.058710
0.058487
-0.011136
0.044609
-0.065972
-0.079483
0.045505
0.057466
-0.003327
0.056067
0.040047
0.074896
0.060512
0.041943
0.084352
-0.053238
-0.024832
-0.010570
0.025378
-0.049962
-0.076892
-0.070000
0.079342
0.054021
0.065040
0.077762
-0.082221
0.017422
-0.000419
-0.015708
0.082376
-0.074945
0.051578
0.049738
0.032027
0.073444
-0.074520
-0.047913
0.033546
-0.005599
0.014738
-0.025985
0.043710
0.026906
-0.007990
-0.031402
-0.005539
-0.081503
0.071755
0.056474
-0.054413
0.046342
0.054684
0.064192
-0.007538
0.054751
0.008846
0.080638
0.012270
0.078658
0.081375
-0.017009
-0.035896
0.038060
0.005116
0.075290
0.036385
0.069581
-0.011265
0.023886
0.047590
0.047530
0.031076
0.027693
0.003449
-0.064318
0.011092
0.036863
-0.078065
0.045145
-0.049661
-0.035690
0.040619
-0.044238
-0.003255
0.052326
0.032031
-0.051448
0.020298
0.044706
-0.037525
-0.023926
0.085891
0.040453
-0.019830
0.037090
-0.080513
-0.035022
-0.062633
-0.004944
0.082582
0.064099
0.029962
-0.004225
-0.044263
0.016395
0.073332
0.060757
-0.032681
0.060491
-0.044720
-0.040915
0.010862
0.060557
0.045545
-0.058975
0.046328
0.041180
-0.007426
-0.025806
-0.051120
-0.036172
0.027043
0.031874
0.065646
-0.066359
0.016707
0.038972
-0.008102
0.011215
0.045474
-0.082016
0.014142
-0.071685
0.018431
0.066446
0.023354
0.017426
0.067356
-0.034394
0.068609
-0.048349
-0.015228
-0.062496
0.060881
-0.042919
-0.085887
-0.079942
0.050310
-0.067978
0.006909
-0.063935
-0.047730
-0.026222
0.031008
-0.030820
0.085345
-0.077585
-0.017054
-0.018120
-0.081950
0.013571
0.077762
0.068397
0.008841
-0.065013
-0.008337
0.061480
0.001503
-0.025900
0.063633
-0.072589
0.014829
-0.001366
-0.004890
-0.004793
-0.045022
0.013014
0.028196
0.008188
-0.015386
-0.031128
0.085392
-0.040581
-0.000758
-0.046769
0.059586
0.029966
-0.017977
0.026876
0.036623
0.055041
-0.028303
-0.076523
-0.075561
-0.049989
-0.051930
0.025027
0.031910
-0.013002
-0.031125
0.041104
-0.017833
-0.083413
0.056372
0.030151
0.076221
-0.076646
0.068772
0.020332
0.022621
-0.009509
-0.026210
0.055981
0.027752
0.031997
-0.048095
0.063385
0.064861
-0.015241
0.003115
0.016319
-0.011400
-0.009735
0.027959
-0.044338
0.048680
-0.055500
0.058997
0.005452
0.084938
0.010933
0.076480
0.085218
-0.027838
-0.013089
-0.073679
-0.068846
-0.035453
-0.026422
-0.008356
0.026829
-0.061715
-0.055377
0.078360
0.001741
-0.031907
-0.077077
0.075983
-0.012423
-0.012275
-0.058980
-0.022351
-0.034764
-0.073159
-0.070448
-0.049098
-0.079249
-0.008197
0.065091
-0.058895
0.049214
-0.026759
-0.082310
-0.027675
-0.079887
-0.042567
0.015251
0.065745
-0.014240
-0.016764
0.042721
-0.023261
0.040285
-0.000455
0.039480
-0.066255
0.012943
0.061394
-0.034902
-0.045626
-0.004802
0.008890
-0.051528
0.031388
0.011754
-0.064872
-0.081595
-0.008057
-0.079432
-0.029286
0.055574
-0.050565
0.032911
-0.015262
-0.025581
-0.035500
-0.074960
0.004304
-0.017372
0.003372
-0.005898
0.070288
-0.076640
-0.040667
-0.060785
-0.082245
-0.002297
-0.049196
-0.056748
-0.056042
0.019409
0.028184
-0.011653
-0.059631
-0.073242
-0.018737
-0.024907
-0.044103
-0.000326
-0.033113
-0.015466
-0.008154
0.064121
-0.016199
0.075815
0.029530
-0.030010
-0.046717
0.036554
-0.061638
0.006138
0.065648
-0.000884
0.072998
0.040338
0.043170
-0.069410
0.009011
0.068191
-0.009048
-0.077183
0.048203
0.034517
-0.071631
-0.039261
0.047902
-0.083613
0.060918
-0.019011
-0.012135
-0.012507
-0.047512
-0.057203
0.030159
-0.049541
-0.078671
-0.055644
0.009196
-0.045293
0.077811
-0.025623
0.063979
0.039508
0.038159
-0.013916
0.077895
-0.057478
-0.007454
0.077970
0.071632
0.001563
0.042706
0.022948
0.015285
0.061896
-0.072656
-0.063684
0.003380
-0.003064
-0.000680
-0.083537
-0.078622
0.057645
0.070268
-0.035017
-0.084791
-0.006877
0.071996
0.085584
-0.052114
0.083393
-0.080457
-0.080479
0.065537
-0.031924
-0.031187
0.069535
0.032514
-0.030198
0.024633
-0.026667
-0.066905
-0.043748
0.009668
-0.052760
0.053867
0.018564
-0.014346
-0.026934
-0.053217
0.054113
0.034890
0.064078
-0.085854
0.053779
-0.082451
0.058507
0.063402
0.067245
-0.072274
0.003134
0.044185
0.053544
0.071817
-0.051343
0.004745
-0.011428
0.063946
-0.049417
-0.006333
-0.052222
0.080600
0.073010
-0.051482
-0.011326
0.030840
-0.060888
-0.031942
0.027999
0.040338
0.046459
0.069319
0.084711
-0.058648
0.054460
0.008061
-0.079055
-0.026028
-0.035022
0.063100
0.026156
0.026041
0.078377
0.082167
-0.075843
0.040145
0.072867
0.045627
0.078183
0.020353
0.049002
-0.046777
0.007444
0.028752
-0.026303
-0.025892
0.046830
0.028485
-0.060368
0.066170
0.008588
-0.012945
-0.021596
0.021070
0.084942
-0.057052
0.074295
0.027372
0.001211
-0.059568
-0.064675
0.022074
0.033677
-0.004570
0.073133
0.051267
-0.002826
-0.027031
0.059160
-0.063173
0.063703
-0.046399
-0.032995
-0.053658
0.083019
-0.042949
0.044325
0.011588
-0.021929
0.083792
-0.059172
0.085196
0.012561
0.032555
0.004067
0.084216
0.054556
0.041183
0.075593
0.071386
0.036544
0.027089
-0.017556
-0.057594
0.026082
0.044715
-0.080761
0.072883
-0.020556
0.007992
0.016697
0.074513
-0.059288
0.055500
-0.031466
0.001966
0.069446
0.083330
-0.012687
-0.015394
-0.016857
0.057108
-0.057643
0.051478
-0.058490
0.003449
-0.066121
-0.039717
0.041599
0.025269
0.015553
0.034894
-0.076096
0.045404
-0.018993
0.014584
-0.035884
-0.077380
0.077777
-0.019406
-0.042683
0.046004
-0.066428
0.078714
-0.061741
-0.033084
0.072937
0.008624
-0.068371
-0.035626
0.078917
-0.020933
-0.066370
-0.075590
-0.010244
-0.057298
-0.051374
0.042576
-0.054620
0.006073
0.078286
-0.006291
-0.010621
0.075031
0.039660
-0.079661
-0.077481
0.080598
-0.032005
0.061898
-0.034603
-0.058609
-0.054168
0.019510
0.005300
0.049930
-0.026276
0.070237
0.020087
-0.027426
-0.073168
0.037973
-0.008663
-0.039406
-0.044135
0.074275
-0.032827
0.067495
0.027074
0.044108
-0.083648
0.033690
0.021102
-0.015257
-0.048577
0.066190
0.016263
-0.065530
-0.046822
0.084716
-0.052624
0.024784
0.064309
0.059322
0.067514
0.032844
-0.011254
-0.020664
0.021517
-0.017791
0.020304
0.021814
-0.057848
-0.046309
-0.053864
-0.010891
-0.047305
-0.001761
-0.033792
0.042233
0.022243
-0.081825
-0.072693
-0.059043
0.077025
0.065345
-0.072931
-0.041666
-0.005369
0.074779
0.077801
-0.015103
-0.062588
0.040598
0.056506
-0.073945
-0.019721
-0.065161
-0.084012
0.070061
0.062003
0.029217
0.001108
-0.032118
-0.081475
0.040802
0.072587
-0.031896
-0.046758
0.000053
-0.001892
0.042102
-0.010852
-0.004540
-0.008360
-0.016419
-0.043703
0.077852
0.036565
-0.079816
0.063750
0.011713
-0.008926
-0.066606
-0.047969
0.017503
0.024352
-0.014598
0.012429
0.066824
-0.068472
0.006951
-0.030852
-0.037028
-0.077424
-0.059280
0.041705
-0.006462
-0.011640
-0.017037
-0.072142
-0.030136
-0.071095
-0.031435
-0.074392
-0.029591
0.004811
-0.050293
-0.031018
-0.009083
0.038119
-0.023842
0.073269
0.028562
-0.007718
-0.005692
-0.050446
0.062753
0.013958
-0.024448
0.084972
-0.029862
-0.048384
0.077532
-0.059828
0.006955
0.083389
-0.068570
-0.046284
0.001557
-0.059564
0.007751
0.022131
0.061981
-0.048600
0.068366
-0.060989
-0.065508
0.061071
0.064528
0.059011
0.065411
0.047161
0.064507
0.073780
0.058110
0.044075
0.055219
-0.041590
0.038842
-0.018291
0.018400
0.036675
-0.000304
0.049896
0.029328
0.040314
-0.036264
-0.084837
0.070490
0.036831
0.082652
-0.052761
0.045782
0.028518
-0.032227
-0.040322
-0.027731
-0.004638
0.046326
0.025117
-0.045766
0.036852
0.080009
0.006620
0.031433
0.028678
0.049948
0.026827
-0.040833
-0.044283
0.007643
-0.056818
-0.003999
-0.029613
-0.032084
-0.001773
0.063034
0.081041
-0.018935
-0.017032
0.075910
-0.042481
0.053812
0.081071
0.062300
0.012461
0.041786
0.035483
0.008934
0.026046
-0.013032
0.004603
0.045414
-0.002379
0.080793
0.084407
0.062236
-0.023649
-0.017645
0.075478
0.026720
-0.045170
-0.085680
-0.060197
0.023666
-0.016783
0.022577
-0.009698
-0.014833
0.000138
-0.056183
-0.046784
-0.058814
-0.061766
0.064281
-0.073703
-0.079395
0.069509
-0.080045
0.067376
-0.049260
-0.049273
0.045654
-0.002930
-0.016835
0.017330
-0.053693
-0.003113
-0.050127
-0.010096
0.027106
0.018604
-0.058694
-0.042509
-0.082745
-0.031528
0.039530
-0.045803
-0.004879
-0.052453
-0.085168
0.018140
-0.050709
-0.030182
0.016359
-0.036036
0.070099
-0.073196
0.061606
-0.076320
0.014588
-0.022090
0.030081
0.033669
0.039012
-0.025183
-0.071710
-0.006403
0.081737
0.004786
0.050144
0.083589
-0.029273
-0.029696
0.043998
-0.032994
-0.013028
-0.026334
-0.037092
-0.054565
0.080494
-0.062789
0.056978
-0.072614
0.047408
-0.041492
-0.038000
0.070073
0.071468
0.080698
0.001194
-0.066659
-0.036842
-0.017590
-0.027447
0.028499
0.021562
-0.069530
-0.015039
0.050638
-0.078810
0.083799
0.030844
0.012574
-0.074368
0.008671
-0.015292
0.030354
0.060241
0.062758
0.064613
0.021797
-0.064096
-0.048314
-0.011832
-0.018457
-0.021234
0.063609
-0.010053
0.039875
0.034730
0.065723
-0.077612
0.074089
-0.026300
0.079426
-0.058524
0.016524
0.036562
0.016076
0.027831
-0.025953
-0.011993
0.014435
0.031009
-0.039444
0.056444
0.015549
-0.025355
-0.038435
0.015020
0.012465
-0.084153
-0.013473
-0.005669
-0.036106
-0.079214
-0.037735
-0.078409
-0.046399
-0.081979
-0.003156
0.032193
-0.053422
-0.022690
0.071805
0.049214
0.073000
0.062234
-0.034905
-0.028979
-0.049025
0.074073
0.043883
-0.071241
-0.071082
0.014816
0.042313
-0.019617
0.010698
0.034459
-0.085852
-0.009800
-0.031334
0.018166
0.085907
-0.080511
0.058490
0.006089
-0.074121
-0.075410
-0.066537
-0.075367
0.019406
0.017052
-0.056678
0.032644
-0.063689
0.080947
0.034333
-0.017580
0.028677
0.025777
-0.009558
-0.017272
-0.050342
-0.018670
-0.028887
0.045565
0.077197
0.084096
0.007230
-0.053080
-0.082613
0.004848
0.063971
0.051922
-0.008948
-0.079002
-0.059437
-0.034548
0.080363
-0.007290
0.025819
-0.040910
-0.049773
-0.026763
0.052068
0.002770
0.027893
-0.017611
0.084602
-0.025580
0.009344
-0.014497
0.003613
0.074793
-0.011962
-0.071897
0.046669
-0.066969
0.079971
-0.061001
-0.023680
-0.011920
0.059100
-0.012215
-0.084994
-0.017625
0.080496
0.052403
-0.000996
0.009450
-0.006495
-0.034991
0.083023
0.070094
-0.000702
-0.073612
-0.061963
-0.034558
0.042480
-0.053104
-0.000733
-0.018722
-0.034740
-0.008447
-0.008382
-0.072904
-0.012896
0.035030
-0.050263
-0.001137
-0.055530
0.066227
-0.062050
0.063253
0.081999
-0.050389
-0.035493
0.006912
0.039084
-0.001548
-0.028632
0.048530
-0.049063
0.069760
0.027793
-0.035157
0.000518
0.057460
0.074636
-0.078239
-0.064434
0.024701
-0.015074
0.009127
-0.060881
-0.044126
-0.004915
-0.004959
0.033584
0.016822
0.001663
-0.035317
0.017328
-0.039088
0.046787
-0.010872
-0.056057
-0.063243
0.039645
0.029717
0.030335
-0.008560
-0.034263
-0.027521
0.061896
0.070054
0.063855
-0.002381
0.036392
-0.071377
0.025845
0.064424
0.000292
-0.019453
0.030752
-0.012501
-0.035293
0.042274
-0.031424
0.005831
0.000245
-0.024245
-0.028360
-0.018304
0.032526
0.046135
-0.023693
-0.064021
-0.037943
0.074021
-0.069828
0.053468
0.045650
0.008999
0.059792
-0.036918
0.047700
0.081320
0.082547
0.082927
-0.025770
0.049226
0.037320
-0.042372
0.003445
-0.044571
0.028206
-0.049157
-0.010862
-0.008924
0.011040
-0.061580
-0.064631
0.076031
-0.067212
0.035593
0.044318
0.051740
-0.050062
0.016728
0.015670
0.027003
0.019856
0.032798
0.029470
0.078788
-0.057859
-0.085076
0.033711
0.022673
0.009958
0.074389
-0.011261
-0.060833
-0.050845
-0.020115
0.041544
-0.000779
0.030257
0.058448
0.054514
-0.084781
0.068040
0.019179
0.047913
-0.047207
-0.053600
0.021376
0.044002
0.034910
-0.035483
0.060819
-0.012466
0.029117
0.062306
-0.058914
-0.017663
0.008906
0.073223
0.035879
0.023143
-0.079248
-0.059362
-0.001056
-0.052010
0.017979
-0.016491
-0.068454
0.025455
-0.030689
-0.061767
-0.042320
-0.007363
-0.052823
-0.041783
0.011410
-0.015456
0.014143
0.074982
0.006199
-0.040229
0.052879
0.082323
0.054168
0.004055
-0.072918
-0.048175
0.057530
0.018621
0.065953
-0.078369
-0.084272
0.009854
0.062365
0.055957
-0.012422
0.057954
0.053320
-0.077258
-0.065649
-0.065129
0.072119
0.075593
-0.024564
-0.078462
-0.033777
-0.077062
-0.044315
-0.011386
-0.021586
0.059323
-0.016905
-0.060398
0.038863
0.081753
0.021871
0.067591
0.048031
0.051992
0.022173
0.059978
-0.005258
0.064610
-0.049367
0.080116
0.012091
-0.059980
0.075676
0.050883
0.069524
-0.054351
-0.010688
-0.036831
-0.012529
0.052132
-0.030972
0.073281
0.048675
-0.070297
0.054304
0.080888
-0.059339
0.060645
0.035059
-0.042372
0.075586
-0.044916
0.003423
0.014404
-0.007528
-0.050455
-0.066943
-0.039610
0.048383
0.030687
-0.044757
-0.026241
0.044023
0.043786
-0.014697
-0.085319
0.005594
0.045557
-0.034032
0.034281
-0.073610
0.015167
-0.024015
-0.080163
0.083452
-0.061119
-0.067456
-0.061950
0.048127
-0.014232
-0.049047
-0.014780
-0.067742
0.036402
0.025453
0.015858
-0.023220
-0.055777
-0.060622
0.027098
-0.008963
0.038354
-0.053093
-0.074606
0.079679
0.019992
0.052256
0.048552
-0.056396
-0.046562
-0.012060
0.033940
-0.014611
0.018602
-0.047008
0.030014
-0.029226
0.008372
0.021441
0.051433
-0.007488
0.025572
0.012885
0.005254
-0.017115
0.000329
-0.005056
-0.032114
-0.050808
0.066660
0.029870
-0.030856
0.013505
0.025938
-0.004313
0.049357
-0.042125
-0.004290
0.057885
0.045177
0.049498
-0.024224
0.002257
-0.027801
0.013444
-0.006126
0.041478
-0.077879
-0.085761
0.056396
0.023661
-0.054587
-0.054830
-0.008280
0.014856
-0.000445
-0.063474
-0.005874
0.030837
0.036984
-0.017908
-0.070105
-0.005146
0.070974
0.058531
0.007489
0.053962
0.034129
0.085924
-0.056471
0.083372
0.038377
-0.080425
0.026475
0.009157
0.058919
-0.032441
-0.069193
0.018151
-0.046469
-0.071066
0.040724
-0.006057
-0.053717
-0.002785
-0.067490
-0.081189
-0.062394
-0.008266
-0.072458
0.000823
-0.029711
0.056842
-0.005494
0.007212
0.053556
0.039849
-0.030047
-0.072820
-0.058857
-0.010677
-0.057664
-0.025274
-0.001238
0.058180
0.046194
-0.071220
-0.017274
-0.065602
-0.061991
-0.000062
-0.018848
0.058396
0.074435
0.050551
0.043176
0.064321
-0.015786
-0.068468
0.017472
-0.072902
0.014514
0.063589
0.030921
-0.005301
-0.059242
-0.083795
0.069005
-0.044696
0.004428
0.003354
-0.025850
-0.044837
-0.010840
-0.017418
-0.068628
-0.075813
-0.055682
0.026778
0.070434
0.039744
-0.056248
-0.036125
-0.046625
0.059606
-0.033970
-0.011025
-0.002574
0.051101
-0.001829
0.028213
0.083008
-0.013196
0.069834
0.050622
0.009803
0.016089
-0.034390
0.083914
-0.032534
0.065947
0.008237
0.028952
0.026172
-0.035035
-0.023112
-0.060008
0.085226
-0.051013
0.015394
-0.054350
0.023410
-0.055955
-0.067166
-0.027841
0.083739
-0.028016
0.067463
-0.084286
0.031993
0.041728
-0.038467
0.068501
0.004123
0.043052
0.080868
0.063745
0.056293
0.018297
-0.080232
0.042269
-0.038184
-0.049639
0.010467
-0.058557
-0.033753
-0.049745
-0.054143
0.081277
0.076404
0.028728
-0.054340
0.028524
-0.050678
-0.086057
-0.084159
-0.016809
0.048250
0.069860
-0.041701
0.012965
0.013879
-0.017966
-0.084290
0.068480
-0.070351
0.015409
0.066758
0.048497
0.038779
0.023620
-0.012073
0.028460
-0.062034
0.041227
-0.044672
-0.063299
0.012075
0.051192
-0.079268
-0.054145
0.074354
-0.021950
0.075470
0.020737
0.081902
-0.038705
-0.062662
-0.004079
0.073222
0.054023
0.044841
0.056178
0.030591
0.066369
0.017314
0.044815
-0.024832
0.064050
0.065936
0.020642
-0.058238
0.020673
0.031774
-0.019984
-0.042823
0.028852
0.039351
0.083269
0.043282
0.020322
0.046965
-0.045513
-0.038268
0.015386
0.058138
-0.028009
0.041032
-0.014230
-0.024601
0.032710
0.040903
-0.042856
0.003143
0.059802
0.054548
0.085122
-0.040120
0.036127
-0.002821
-0.072796
0.077983
-0.041916
-0.066812
0.001700
-0.059430
0.071211
-0.072747
-0.038762
0.025373
-0.041289
-0.068988
0.075822
0.014496
0.048579
0.065571
0.074940
-0.084414
-0.061427
-0.077233
0.043180
0.059754
0.059015
-0.003763
0.026082
-0.020280
-0.001782
0.011866
0.052481
-0.008971
0.018510
0.035578
-0.026710
0.031347
0.043127
-0.085950
-0.048009
-0.026643
0.000731
0.047100
-0.067879
0.043202
-0.050217
-0.049729
-0.007705
0.052663
-0.003123
0.054113
0.051018
0.017159
-0.059311
-0.056694
-0.080672
0.045159
-0.015471
0.023359
-0.017640
0.007169
0.007278
-0.070314
-0.023708
0.061906
-0.076244
-0.062400
0.001731
0.005368
-0.012150
0.012635
0.042691
0.048550
-0.025559
0.062862
-0.077499
-0.017934
-0.065992
-0.068548
-0.072653
-0.079025
0.035546
-0.079780
0.052948
-0.081079
-0.052506
-0.045118
0.075301
-0.059642
0.054447
0.009876
0.055829
-0.072242
0.055027
0.008097
0.041253
0.079641
-0.034854
0.077487
0.034286
-0.077082
-0.002640
-0.085927
0.044399
0.078324
0.036169
-0.060865
0.058269
0.045464
0.009163
-0.086000
-0.005624
-0.065814
-0.064955
-0.009268
-0.079454
0.062729
0.016290
0.067383
0.021225
-0.017516
0.002161
0.033080
-0.042706
-0.074695
0.062525
0.026153
0.067778
0.041751
-0.043505
-0.082144
0.062055
-0.050222
-0.042032
-0.023996
-0.061585
0.059659
0.026351
0.016402
0.067266
0.035861
-0.050753
0.037451
0.036128
0.009725
0.044481
0.058129
0.069725
0.014904
-0.050975
-0.051358
-0.039854
-0.082432
0.020742
0.022541
-0.009146
0.045125
-0.061398
-0.081959
0.041803
-0.079808
0.082916
-0.007535
-0.029736
-0.048611
0.060563
-0.050679
-0.049697
-0.051816
0.074684
-0.046668
0.077618
-0.061532
-0.022366
0.033858
0.044625
-0.017964
0.041291
-0.041617
-0.077263
0.028736
0.030223
0.018015
-0.048361
0.081578
-0.017191
-0.015485
0.019061
-0.075367
-0.039359
-0.000120
-0.060899
-0.005016
-0.008100
0.072264
-0.029744
-0.042880
0.056093
0.042487
-0.061557
-0.059435
0.058644
0.056277
-0.055345
-0.032610
-0.078080
0.023095
-0.041940
0.058638
-0.065461
-0.060761
-0.038093
-0.001706
0.043804
0.000805
0.036268
0.045855
-0.058704
-0.040408
0.065227
-0.058962
-0.050054
-0.037487
0.005541
0.055287
0.042631
-0.054820
-0.030463
-0.075992
-0.031360
-0.004648
0.023716
-0.000901
-0.034006
-0.057098
-0.040890
-0.062054
0.071761
0.056152
0.042302
-0.075831
-0.019881
0.076816
-0.050931
-0.024162
-0.040070
-0.056633
0.037674
0.002403
-0.050804
0.080240
0.007927
-0.029576
-0.004566
0.039380
0.030055
-0.041551
0.065444
0.023595
0.018896
-0.020043
0.022319
-0.055000
0.019826
0.048922
-0.045258
0.067408
0.022431
-0.069267
-0.017263
0.008113
-0.001824
-0.017406
-0.038540
