0.007917
0.048030
-0.000381
0.077707
0.076830
-0.011359
-0.077501
0.022722
0.026792
-0.070570
-0.040029
-0.056895
0.078735
-0.080494
-0.012379
0.072221
0.013350
-0.055853
-0.002204
0.037247
-0.057535
0.060806
0.080008
0.074360
0.049569
-0.043616
-0.067243
-0.078669
-0.080343
-0.012035
-0.020117
0.000299
-0.053471
-0.041886
-0.006500
-0.018960
-0.060528
-0.051127
0.004835
-0.064487
-0.069403
-0.035505
-0.002643
0.050557
-0.038394
-0.012264
0.048799
0.046056
0.020548
0.067546
-0.016217
-0.079674
0.063915
-0.065922
0.042948
-0.010486
-0.025972
0.017533
-0.044698
-0.013277
-0.014799
0.013851
0.006240
-0.045251
-0.055885
-0.054574
0.028248
-0.004333
0.019343
0.027131
-0.036467
0.011452
-0.078913
0.074696
-0.020165
0.035384
0.025775
-0.003595
-0.040524
0.040974
0.033781
0.035581
-0.077419
-0.043589
0.001862
-0.036818
0.003874
-0.078785
-0.003071
0.049907
-0.008561
0.012238
-0.082065
-0.044710
0.078920
-0.067663
0.014214
-0.048838
-0.064604
-0.019136
-0.046587
0.052312
0.052047
-0.013352
0.050372
-0.051911
0.046183
-0.042189
0.056408
0.077132
-0.060585
0.023908
-0.072259
-0.070882
0.018791
0.051548
0.072971
-0.052072
-0.046238
-0.062788
0.038583
0.010697
-0.048325
-0.058427
0.030206
-0.046664
-0.074061
0.073702
-0.067666
0.047169
-0.018066
-0.061742
0.023438
0.032810
0.020387
-0.015582
0.076308
0.022402
0.066283
0.003591
0.050217
0.024898
-0.070079
-0.045768
0.065185
0.058309
-0.060939
-0.061052
-0.062220
0.049791
0.073177
0.021182
-0.009998
-0.082462
0.049478
-0.009931
0.030090
0.056247
-0.014279
-0.060704
-0.040591
-0.005439
0.029101
-0.001237
-0.036865
0.043977
0.027771
-0.043510
-0.037149
-0.041042
-0.073391
-0.047114
-0.070057
-0.028889
-0.054506
-0.062374
-0.042569
-0.033578
0.061334
0.077950
0.059139
-0.009422
-0.046802
0.024796
-0.031325
-0.066121
0.078886
0.072906
-0.000045
0.045845
-0.020480
0.017096
0.019269
-0.038043
0.008018
-0.061488
0.000660
-0.067800
-0.008529
-0.056965
-0.058894
-0.066661
0.035903
0.031608
-0.060747
-0.014051
-0.045061
0.028845
-0.041989
0.023380
-0.044614
0.047981
0.020449
-0.037191
0.040712
-0.070761
-0.073919
0.006748
0.022175
-0.003117
-0.047688
-0.047270
-0.074200
0.023712
-0.020342
0.052950
0.043491
-0.079216
0.038662
-0.023900
0.045317
0.076608
-0.047749
-0.079387
0.043096
0.039502
0.035866
0.022707
-0.027455
-0.024799
-0.046436
0.035812
0.011205
0.047572
-0.012116
0.076135
-0.032821
-0.064292
-0.002170
0.034309
-0.002064
0.040854
-0.020724
0.076539
0.056572
0.066462
0.042303
0.001541
0.006729
0.003565
-0.042982
0.000607
0.063649
-0.009980
0.041232
0.017107
0.053991
0.007502
0.005601
-0.032646
0.047109
0.051047
0.005113
-0.005255
-0.070411
0.046098
0.017519
-0.048436
0.001701
-0.055871
-0.035911
0.051871
-0.011756
0.075270
-0.024134
-0.049996
0.017979
0.017321
0.005339
0.065716
0.065309
-0.005384
0.051582
0.015973
-0.028176
0.062674
0.064317
0.060494
-0.002507
-0.025470
-0.056467
-0.080755
0.069700
-0.025375
-0.034067
0.041721
-0.029202
0.051461
-0.023404
-0.024348
0.031308
0.051444
0.082415
-0.040497
-0.029146
0.032142
-0.058055
0.042880
0.074764
0.007967
0.027456
0.009377
-0.000769
-0.032827
0.010454
-0.052087
0.054999
0.015944
0.014495
0.054728
0.080863
0.070571
0.059684
-0.049296
0.037415
0.011607
-0.047130
-0.041009
-0.040299
0.058810
-0.046424
-0.029537
0.028021
0.062062
-0.037265
0.012478
-0.069606
-0.058968
0.013557
-0.036778
-0.035477
-0.007620
-0.046551
-0.016830
0.069284
-0.016657
-0.049639
0.066703
-0.039250
0.047260
-0.067543
-0.000748
-0.062271
0.027573
0.067728
-0.007106
0.069791
-0.007897
-0.044865
-0.037493
0.049336
-0.037841
-0.043066
0.041452
0.068415
-0.055127
-0.004978
-0.041409
0.023618
0.052344
-0.074208
-0.027283
-0.047866
-0.033612
-0.052872
-0.071403
-0.044678
-0.077648
0.034534
-0.020547
-0.076278
-0.046959
-0.020970
0.024218
0.039367
0.037623
-0.048927
0.038964
-0.007643
-0.018471
-0.040328
0.032246
0.068358
-0.081051
-0.044039
-0.080071
-0.002661
0.054913
0.017390
0.029848
-0.001729
-0.074347
-0.050523
0.040089
-0.049323
0.037159
0.018094
-0.057214
0.027607
0.018517
0.054786
0.018234
0.017316
0.060717
0.055681
-0.057792
-0.053058
-0.046333
0.072615
0.020277
0.075578
0.025939
-0.028623
0.042191
0.065423
0.027071
0.068249
0.017014
0.054700
0.036388
-0.063586
0.079854
0.059299
-0.063546
0.028152
0.043097
-0.074153
0.070809
0.078669
0.002334
0.045917
-0.052420
-0.063774
-0.065407
-0.044099
-0.051798
0.018731
-0.022054
-0.055167
-0.048105
-0.046581
-0.001614
0.069097
-0.042412
0.070991
0.047263
-0.036436
-0.036433
0.081193
-0.032568
0.023628
0.050224
0.054942
-0.072916
0.064552
0.062168
0.052457
-0.067760
-0.049919
0.005258
-0.061491
0.076075
0.002828
-0.075400
-0.069555
-0.022287
-0.018673
-0.037767
0.005356
-0.021473
-0.019187
-0.057364
0.019403
0.018500
0.011424
-0.007550
0.081947
0.045472
0.029440
-0.023058
0.015132
-0.045953
0.055320
-0.045195
-0.070164
0.078774
0.010661
0.073970
-0.028760
0.003872
-0.003056
0.051679
-0.074593
-0.058353
0.075157
0.026724
-0.055076
-0.019229
0.051289
-0.050210
0.082249
-0.079567
0.080145
0.018260
-0.078177
0.079554
-0.036527
0.012509
-0.052720
0.000876
-0.022320
-0.000220
-0.038715
-0.080235
0.045566
-0.016693
-0.057068
0.017487
-0.077415
0.021686
-0.011013
0.029888
0.030690
-0.060843
0.015784
-0.056933
-0.042023
-0.036093
0.080935
-0.016182
-0.059179
0.007200
-0.070771
0.047443
-0.002237
-0.033628
-0.073159
-0.037501
0.034008
0.017429
-0.059616
0.077136
0.058450
-0.013593
-0.000090
0.006044
-0.051044
0.036813
-0.068652
0.029633
-0.045824
-0.052036
0.000651
0.025848
0.053273
-0.070024
0.067996
-0.060445
0.035794
-0.065245
0.013768
0.065583
0.030296
0.030104
0.047613
-0.001472
-0.005629
0.045869
-0.004064
0.063306
-0.011594
-0.072171
-0.047014
0.000163
0.022492
0.012320
0.075145
-0.029404
-0.001606
-0.027598
-0.011831
0.074027
-0.016327
0.043543
0.069595
-0.050224
0.026545
0.025365
0.052052
0.023987
0.076622
-0.059886
0.018912
0.080280
0.079798
-0.065317
-0.049158
-0.071965
0.046108
-0.048856
0.030042
0.064488
0.079921
-0.081113
0.066251
0.037383
0.059063
-0.066017
0.069573
-0.039981
-0.061691
0.068288
-0.049687
-0.038865
0.072623
-0.019335
-0.009185
0.013546
0.058478
0.035273
-0.057851
-0.039786
0.065799
0.021886
0.019275
0.068461
0.066335
0.027431
0.045540
0.004123
0.023623
0.036567
0.039096
-0.013538
-0.081693
-0.041341
0.031875
0.005462
0.040742
-0.002077
-0.082067
-0.074335
0.058406
-0.067010
0.000246
0.019367
0.069467
0.071285
0.054964
0.001578
0.001479
-0.043152
0.058367
-0.079509
-0.055313
0.070015
0.035345
-0.033731
-0.044201
-0.009233
0.000506
0.043624
-0.027709
-0.079801
-0.029284
-0.011230
0.057305
0.023253
0.003370
-0.074947
-0.000583
-0.054299
0.029891
-0.062743
0.058445
0.020237
-0.029845
-0.037293
-0.058543
0.033924
-0.007912
-0.032635
0.022165
-0.016214
-0.078136
0.015993
-0.061888
-0.032768
-0.019196
-0.047251
-0.059110
0.024898
0.059983
0.044956
-0.004860
-0.019910
-0.070967
-0.035962
-0.008081
-0.048114
0.007439
0.057589
0.030807
0.077006
-0.052279
-0.047155
0.045209
0.078584
-0.023574
-0.077760
-0.061709
-0.051451
0.072053
0.068179
-0.009055
-0.032103
-0.013224
-0.078205
0.059548
0.042439
-0.067186
-0.019555
-0.051988
0.015760
0.055851
-0.017573
-0.010315
0.018416
-0.011133
-0.035601
0.048780
-0.068454
-0.028992
-0.027428
0.068956
-0.050199
-0.050201
-0.029029
-0.061747
-0.021842
-0.009552
-0.015712
-0.076109
-0.011468
0.050697
0.080213
0.046967
0.038300
0.062476
-0.035581
-0.061178
-0.038568
0.026585
0.051323
-0.055965
0.054048
-0.071684
-0.064299
-0.041386
-0.080653
0.017796
0.002674
0.081772
0.029796
0.033414
-0.075937
-0.033907
0.059692
-0.071245
0.018029
-0.049653
0.074153
-0.070210
-0.037513
0.074148
-0.038997
0.012677
0.007137
-0.034578
0.020146
-0.021436
0.075149
0.037893
0.060440
0.014799
-0.007896
0.003378
0.047978
0.005641
-0.018074
0.073056
-0.051115
0.020352
0.040886
-0.066701
-0.065144
0.004494
0.021837
0.018723
-0.080957
0.076683
0.040562
0.027760
-0.081690
0.059610
0.016251
-0.030213
0.080588
0.013552
0.001061
0.003964
-0.012340
0.076634
0.062776
0.030304
0.056260
0.011197
0.037427
0.055030
0.055387
0.031865
-0.020225
-0.025195
0.044319
0.025244
-0.052411
0.033847
-0.034705
0.044988
-0.022793
0.036080
0.032495
0.034022
0.019072
-0.029435
0.071868
-0.075330
-0.070599
-0.051248
-0.029463
-0.003009
0.007554
0.063883
0.071413
-0.061544
-0.030013
-0.051554
0.008056
-0.018886
-0.078986
0.047238
0.075613
0.050753
0.030067
0.080913
0.026529
-0.002278
0.013072
0.006068
0.028096
-0.068755
-0.028131
-0.019168
-0.033920
-0.040780
0.027139
-0.054173
0.027802
0.012958
0.081194
0.054604
-0.000578
0.002680
-0.044788
-0.073317
0.034687
0.076142
0.001456
0.059704
0.010763
-0.001314
0.028733
-0.056702
0.013093
-0.017933
0.015409
-0.010400
0.009392
-0.045815
-0.063861
0.036857
0.054764
-0.055425
-0.007458
-0.018711
-0.017058
0.080643
0.041123
-0.015667
-0.064286
-0.016523
-0.065945
-0.077122
0.005230
-0.037298
0.063106
0.045079
-0.078786
0.068592
-0.049299
-0.051150
0.052142
0.053921
-0.050983
0.048863
-0.024777
0.055883
-0.070822
-0.020710
-0.029215
-0.061616
-0.017754
-0.036948
-0.074144
-0.009499
0.033121
-0.050274
0.009448
-0.026767
0.071877
-0.069499
0.072513
0.031523
-0.029601
-0.054384
-0.042495
0.032317
-0.039646
0.012907
-0.065368
0.001191
-0.016451
0.034600
0.074833
0.045106
-0.013036
0.019284
0.077425
0.059943
0.062389
0.052822
-0.062793
-0.054404
-0.027057
-0.080999
0.000069
-0.056522
-0.063680
0.012625
-0.047371
0.069006
0.070833
0.034414
0.051510
-0.009648
-0.054719
-0.026231
0.044752
0.004891
0.036080
0.005135
0.017580
-0.017537
0.051561
-0.076467
-0.055908
0.059952
0.048701
-0.035817
0.072963
0.007184
0.042183
-0.026566
-0.001085
-0.071056
0.001742
0.080650
-0.039668
-0.034034
0.055406
-0.044925
0.062704
-0.057784
0.078645
-0.078711
-0.012292
-0.053991
0.017578
-0.045322
-0.060124
-0.052205
-0.024894
0.027158
-0.082346
-0.073974
0.063933
-0.013660
0.058963
0.063845
0.030387
0.059150
0.066878
0.059797
0.009869
-0.077338
-0.074165
0.041923
0.075191
-0.056056
0.034082
-0.023453
-0.028124
-0.055916
-0.047057
0.021899
-0.003609
0.064077
0.012920
0.080957
0.026534
0.001554
0.005249
0.072647
0.025686
-0.075341
0.071578
0.057051
0.006472
0.058683
0.036330
-0.073553
-0.047803
-0.066642
0.020890
-0.038419
0.018132
0.006593
0.012697
-0.018500
-0.065455
-0.031719
-0.003317
-0.077770
0.041447
0.041654
0.065911
-0.002463
-0.014309
0.063159
-0.069934
-0.013080
-0.043299
0.063597
-0.048494
0.050032
0.047198
0.040794
0.020950
-0.071408
0.081567
0.007028
-0.003533
0.027258
-0.012219
0.059278
0.077656
-0.015468
0.053332
0.000243
0.007268
0.015086
0.071610
0.048130
-0.030348
-0.004788
-0.077973
-0.040723
0.043520
-0.050848
-0.077516
-0.033943
0.072677
0.050409
0.078515
-0.045065
0.066133
-0.018508
0.030313
-0.051022
0.002326
0.011770
-0.004516
-0.037908
-0.030729
0.001675
0.010300
-0.012542
-0.057997
-0.063069
0.049076
0.074202
-0.008424
-0.001259
0.071271
-0.005178
0.013743
-0.063898
-0.047661
0.030341
-0.010525
0.018321
-0.049682
-0.005716
-0.016019
-0.039431
-0.039457
0.018733
-0.021870
0.049043
-0.067405
-0.056382
-0.040741
0.013568
-0.072568
0.019759
-0.077346
0.037556
-0.028746
-0.015929
0.017744
0.047375
0.027217
-0.032664
0.024459
0.066685
0.060739
0.064967
-0.022539
-0.078460
-0.007830
-0.066757
-0.035652
-0.019921
-0.063157
0.068256
-0.029339
-0.039617
0.070381
0.077364
0.049112
-0.016327
-0.014876
0.034158
-0.055722
0.047949
0.001789
0.036686
0.023304
-0.030248
-0.062345
0.063447
0.000140
0.049934
0.013335
0.065106
0.068803
-0.041177
0.068304
-0.006113
-0.043860
0.018204
0.035533
0.047273
-0.066993
-0.044397
0.035624
0.058078
0.050707
-0.005810
-0.037877
-0.029179
-0.038742
-0.074125
-0.046255
-0.020087
0.051031
0.078856
-0.004759
0.038525
0.044565
0.056816
-0.072450
0.015226
-0.008046
-0.025835
0.021124
-0.076817
-0.063137
-0.060888
-0.015794
0.052100
-0.020335
0.063847
-0.010102
0.068256
0.010108
-0.023878
-0.068461
0.063635
0.029727
-0.072686
0.040626
0.059171
-0.059561
0.050489
0.044977
0.036419
0.052663
-0.068192
0.065956
-0.005970
0.074356
-0.059311
0.020893
-0.032492
-0.034752
0.048442
0.056873
0.069630
-0.058698
-0.033910
0.003268
0.006333
0.051432
-0.071830
0.061160
-0.040631
-0.017313
0.059324
0.037443
-0.074437
0.054332
-0.027151
-0.081094
0.020766
0.065088
-0.016543
-0.017355
-0.067408
-0.014184
0.058579
-0.003558
0.026299
-0.021065
-0.044408
-0.060609
-0.070317
0.058249
0.054434
-0.051024
0.070560
0.060823
-0.024713
-0.030961
0.005852
-0.024626
0.000454
-0.059719
-0.017322
-0.077151
-0.033800
0.080331
-0.070809
0.060354
0.009342
0.081431
-0.030242
0.033649
0.047845
-0.009901
0.023001
-0.021550
0.000460
0.077709
0.045367
0.037498
-0.006438
-0.011856
-0.078211
0.014673
0.004447
-0.012911
-0.006171
0.025286
0.006444
-0.027893
0.028763
0.006230
-0.082387
-0.032912
-0.047128
-0.056523
0.051447
-0.046766
-0.045907
0.073592
0.024119
-0.036138
-0.039703
-0.049263
0.056543
-0.035868
-0.020979
0.034552
-0.050208
0.073230
-0.027004
-0.064671
0.025309
0.046519
0.050914
0.004007
-0.004991
0.057888
-0.068049
0.006418
-0.079922
-0.040420
0.019911
0.078706
-0.068731
-0.074441
0.007432
0.056256
0.035131
0.072490
-0.060694
-0.007446
0.014197
-0.057217
0.073137
0.022075
-0.044729
0.053192
-0.000797
-0.051749
0.007032
0.026264
0.069624
-0.065929
0.065667
0.009555
-0.060213
0.045101
0.069428
0.010464
0.055162
-0.018462
0.031779
-0.070704
-0.024451
-0.057381
0.019220
0.063318
-0.005278
-0.065903
-0.074662
-0.015006
0.054617
-0.059668
0.022725
-0.072033
-0.008381
-0.019512
0.051658
0.036882
-0.041696
-0.069584
0.051154
-0.077555
-0.048975
-0.022507
0.065378
-0.074093
-0.007674
0.018518
-0.061197
0.015833
0.063912
0.066563
0.061659
-0.044370
0.028009
0.072075
0.046314
0.046986
-0.051271
-0.080267
0.071067
0.035010
0.042320
0.034156
0.043845
0.041448
0.042246
0.022161
0.063770
0.038101
-0.015820
-0.008675
0.015976
-0.037558
-0.044836
0.040777
0.069138
-0.078628
0.004816
-0.034520
0.037812
-0.006105
-0.073157
-0.060611
-0.065874
0.078639
0.051533
0.046001
-0.078850
-0.043157
0.023218
-0.007804
0.004371
0.062901
0.067172
0.004864
0.081181
0.069752
-0.039569
0.039014
0.021318
-0.006028
-0.045640
-0.038211
0.031577
-0.056838
-0.038735
-0.039916
-0.036629
-0.010789
-0.001038
0.028767
0.034422
-0.037579
-0.065341
-0.040014
0.081104
0.009257
0.066690
-0.074234
-0.064565
-0.034824
-0.060831
-0.000369
-0.017823
0.069466
0.030506
-0.020524
0.032420
-0.000482
0.030308
-0.016385
-0.047339
-0.054953
0.046582
-0.027292
0.016186
-0.003476
0.060854
-0.066029
-0.062145
-0.068611
0.022965
0.046867
-0.046902
-0.065308
-0.056665
0.041303
0.001755
-0.046935
-0.051176
-0.060879
-0.020024
0.066049
0.075206
-0.035236
0.007243
-0.061898
-0.037027
0.082470
0.003579
0.047495
-0.044597
0.010350
-0.026787
-0.024051
-0.044916
0.024139
0.032041
-0.066946
-0.002746
0.045864
0.014901
-0.010162
0.051770
-0.006687
-0.081782
-0.011757
-0.007414
-0.077579
0.044631
-0.059520
0.043361
0.048929
0.073983
0.017577
0.079104
-0.028734
0.012808
-0.028867
-0.038770
0.034736
-0.062500
-0.077268
-0.058116
-0.069209
-0.012631
-0.037322
-0.024013
0.047448
0.012568
0.054880
0.002979
-0.072049
-0.033404
0.048349
-0.076270
-0.043716
0.061170
0.045857
0.078989
-0.068053
0.026012
0.002059
0.055977
0.060866
-0.079068
-0.061855
-0.040052
0.023731
-0.059080
-0.056275
-0.076609
0.036431
0.078414
-0.006696
0.004305
0.008031
-0.007994
-0.039057
0.055030
0.068263
0.025444
-0.009020
0.052248
-0.023068
0.073337
-0.061559
0.051489
0.042928
0.073623
0.025471
0.012048
0.035072
0.018915
0.072318
0.022701
0.062949
0.038882
-0.064086
-0.006213
0.018026
-0.081143
0.038853
0.027312
-0.055504
-0.018998
0.017350
0.017818
0.042024
-0.067073
0.027981
0.080076
0.006431
-0.020658
-0.063890
0.055783
0.041424
0.055375
-0.042802
0.074721
0.019055
0.034632
0.050365
-0.028273
-0.011647
-0.076127
-0.066044
-0.007068
0.028025
0.030358
0.071314
-0.029766
0.066543
-0.035354
0.067699
-0.079855
-0.013746
-0.067678
-0.018947
-0.055112
-0.006519
-0.023290
0.031027
0.034488
-0.024328
0.008093
-0.019328
0.000783
0.013582
-0.068303
0.026526
-0.032346
-0.040611
0.075707
0.073546
0.015211
-0.081404
0.080668
0.019572
0.043463
0.029760
0.067930
0.016977
0.014751
0.004424
-0.012391
0.022300
-0.031515
0.021122
0.020638
0.047205
0.001603
0.064596
0.017133
-0.076698
-0.063610
-0.047271
0.036087
-0.033487
-0.049791
-0.028011
0.081380
0.064168
0.005578
0.073450
-0.008902
-0.027375
-0.057221
-0.042336
-0.006943
0.017379
0.042850
0.010420
-0.031652
0.000840
-0.023989
-0.013386
-0.010720
0.043616
0.019066
0.063195
0.062770
0.000931
0.018657
-0.003284
0.037445
0.069358
0.023917
0.055015
-0.031124
0.030093
0.042050
0.071652
0.013002
-0.066867
-0.079565
-0.064132
0.024948
-0.058850
0.005427
-0.073081
0.076873
0.062157
0.043410
0.033230
0.064952
0.082303
-0.048010
-0.064697
0.012618
0.059269
-0.051733
0.042872
0.030371
-0.048147
-0.062922
-0.012047
-0.068468
-0.027185
-0.022715
-0.065045
0.044837
0.056916
-0.070863
0.071956
-0.077952
0.050998
-0.008558
-0.039564
0.020331
0.009807
-0.050167
0.034762
0.064631
0.080834
-0.050164
0.044587
-0.069285
0.025918
-0.040148
0.062299
0.045396
-0.072185
0.025438
0.063053
0.018081
0.032398
-0.027162
0.078240
0.056543
-0.032922
-0.003316
0.079946
-0.039960
0.066358
-0.065475
0.053107
-0.040529
0.056442
0.078164
0.000422
0.074073
-0.025546
-0.069406
-0.038439
0.034717
-0.077585
0.007864
-0.056942
0.039158
0.005687
-0.053995
0.062564
-0.053915
0.019351
0.069945
-0.001546
-0.036149
0.025955
-0.034539
0.070971
0.059811
-0.021342
0.056560
-0.080515
0.069368
-0.045427
0.059421
-0.060438
-0.072185
-0.068064
0.071700
-0.018280
-0.055583
0.030998
0.042514
0.043789
-0.081966
0.003506
0.010368
0.023308
0.034337
-0.059315
0.059733
-0.021176
-0.006584
-0.027806
-0.037955
0.056852
0.019939
0.053699
-0.049379
-0.069071
-0.071021
0.026335
0.003123
0.053723
0.019064
0.018158
-0.082088
-0.048699
0.004050
-0.008283
0.027667
0.007638
-0.046662
-0.039604
0.028418
0.070562
-0.044082
0.005460
-0.035657
-0.070792
0.066330
0.069889
0.002159
-0.038542
0.031393
0.048501
-0.050533
-0.031094
0.024931
-0.008480
-0.008411
0.040090
-0.042786
-0.016806
0.069669
0.050160
-0.021634
0.000149
0.058142
-0.058298
0.026710
0.067308
-0.029353
-0.042288
0.016616
0.034964
-0.058260
0.052379
-0.029661
-0.003921
0.046971
-0.072516
0.073851
-0.050616
0.042582
-0.037829
-0.055457
-0.021790
0.067667
-0.067984
0.034694
0.015462
0.019616
-0.024666
-0.005655
0.022466
-0.002712
-0.016791
0.001716
-0.075252
-0.059168
-0.078548
0.001302
0.064804
-0.000295
-0.032699
0.042010
0.063874
0.065087
0.019198
0.021357
-0.070485
0.061955
-0.022947
-0.072143
-0.045629
-0.071621
-0.002311
-0.074859
-0.077301
-0.067827
-0.004932
0.000212
-0.032616
-0.029604
-0.003715
-0.019852
0.024999
-0.043404
0.064724
0.059378
-0.073379
0.014509
-0.021771
0.044776
-0.047004
0.048458
0.035244
-0.071479
-0.014914
0.016378
-0.048235
-0.051916
-0.033800
0.035188
0.046779
-0.044700
-0.057693
0.017414
-0.071438
0.050710
-0.001233
0.019584
0.002355
0.059884
0.041532
-0.025204
0.004070
0.081871
0.066060
0.071944
-0.039295
-0.068518
0.009184
0.011907
-0.069418
0.073356
0.027292
0.020752
-0.070138
-0.013172
0.048831
-0.015473
0.079285
0.063584
-0.038418
0.076534
-0.031974
-0.005032
0.081606
0.012594
-0.033767
-0.019900
0.082134
0.017986
0.023075
0.007634
-0.070564
-0.007983
-0.071667
0.013659
0.051083
-0.039569
-0.060909
0.012457
-0.018919
-0.054890
0.053580
-0.036971
0.017898
0.005677
-0.026531
-0.008528
-0.059513
-0.047364
-0.061178
0.010568
-0.006875
0.025452
0.052609
-0.039475
-0.049291
0.067376
-0.043736
0.046985
0.018085
-0.014251
0.072528
-0.061669
0.056172
0.017333
-0.018616
-0.070969
0.038299
-0.003547
-0.036287
-0.058201
0.082361
0.036074
-0.056672
-0.035556
-0.039629
0.072069
-0.076603
0.032945
0.026784
0.053502
0.049021
0.006325
-0.003197
-0.075695
0.081402
-0.049160
0.047498
-0.029656
0.051753
0.073128
-0.056084
-0.029951
-0.032101
0.018950
0.077721
-0.026254
0.053957
0.063569
-0.010588
0.014968
0.040714
0.072647
0.035907
0.070263
0.052885
-0.067372
-0.005286
0.033694
0.081127
0.010537
0.061038
0.014099
-0.040690
0.046816
-0.064080
0.067541
-0.075891
0.043165
-0.003028
0.014691
-0.025670
0.020385
-0.065142
-0.047519
0.065213
0.047262
-0.006758
0.061160
0.057371
0.029357
-0.000607
-0.068240
-0.052360
-0.016229
0.018672
0.014228
-0.022218
-0.009673
0.081225
0.003070
-0.062257
-0.053740
-0.061445
-0.005365
0.060592
0.010476
-0.064636
-0.055073
-0.049803
-0.015458
0.078769
-0.003700
-0.030858
0.065605
-0.066055
0.017819
0.006926
-0.054870
0.058486
0.074806
0.006071
0.019187
-0.019411
0.060760
0.078972
-0.081458
-0.021198
-0.061077
0.072966
0.062062
-0.001546
0.049048
-0.046236
-0.005280
-0.058835
0.062011
0.012981
-0.037804
0.001639
-0.002123
-0.036111
0.008807
-0.043851
0.032031
-0.060763
0.028899
-0.054064
0.012771
-0.072493
-0.055320
0.056719
0.013100
-0.041624
-0.025409
-0.069662
0.031681
-0.030752
0.010094
-0.068735
-0.004945
-0.035480
-0.051401
0.014136
0.017548
-0.022671
0.032039
-0.011452
-0.005523
-0.073577
0.061104
0.067888
0.057575
-0.038371
-0.048289
0.000205
0.025259
0.008160
0.054405
-0.053489
0.047639
-0.034551
0.033318
-0.062363
-0.016270
0.018607
0.022704
-0.007591
0.007921
-0.015080
0.041632
-0.060568
-0.053873
-0.026620
0.033003
-0.024816
0.004303
0.070795
0.059280
-0.048225
0.032306
-0.037365
-0.074304
0.027589
-0.049352
-0.025197
0.062668
0.070861
0.056025
-0.027600
0.000367
-0.066928
-0.081411
-0.025115
-0.007954
0.050353
0.061597
-0.040248
-0.072466
0.011107
0.050418
0.057070
0.073231
0.053584
0.010887
-0.068198
-0.060740
0.048784
0.065515
0.025690
0.073140
-0.045174
-0.052523
0.028595
0.068493
-0.061154
0.078734
0.016225
0.050151
0.004168
0.037651
0.017625
0.078659
0.033790
0.059931
-0.079185
0.035791
0.013679
-0.045730
0.052607
0.006560
-0.077799
-0.037758
-0.005892
-0.075132
-0.070520
0.018696
-0.048830
0.052663
0.041506
-0.038597
-0.048079
-0.033970
-0.053381
0.026267
0.056750
-0.073925
0.050095
0.011133
-0.060223
0.041435
0.065782
-0.026364
-0.012143
0.038600
0.006885
0.001944
-0.003973
0.051127
-0.077148
0.074190
0.027350
-0.058608
-0.023918
0.077483
0.046532
0.022668
0.027605
-0.002079
-0.021815
0.075077
-0.080444
-0.067362
-0.051914
0.019383
0.035649
0.008796
0.066453
0.073241
-0.070364
-0.035001
0.076873
0.073756
-0.071044
0.063439
-0.066040
-0.039789
0.033659
-0.033043
-0.059782
0.068748
0.033426
0.047705
0.056117
-0.021510
-0.012889
0.063000
-0.052268
0.039136
-0.030552
-0.048679
0.045392
-0.076371
-0.013635
-0.055773
0.016999
0.065381
-0.080486
-0.041283
-0.039323
0.049832
0.053691
0.051302
0.018686
-0.007514
-0.034730
0.038936
0.076671
0.017004
-0.034526
0.031243
0.045962
-0.082096
-0.013714
0.005534
0.034226
-0.059940
-0.026103
0.005417
-0.022123
-0.006030
-0.050963
-0.035768
-0.041072
-0.052961
-0.023109
-0.027860
0.013013
-0.069072
-0.042333
-0.008096
0.076626
-0.058188
0.011442
-0.079694
0.026886
0.027438
0.040820
-0.066429
-0.051979
0.048019
0.022361
0.025040
-0.078606
-0.044216
0.031469
0.012613
0.062305
0.016895
-0.025194
-0.010745
-0.027225
0.062556
-0.072604
0.022133
-0.039175
0.018479
-0.075911
-0.061276
0.081327
-0.059000
-0.005570
-0.050059
-0.062654
0.010014
-0.010199
-0.052274
-0.028772
-0.001314
0.074374
0.082028
0.058342
0.001991
0.021771
-0.033052
0.041367
-0.067865
-0.073138
-0.047809
-0.046276
0.058794
-0.059674
-0.030182
-0.044879
0.051488
0.058860
0.067789
0.081936
0.070328
-0.021376
-0.010211
-0.000330
0.068136
0.066735
0.069462
0.067782
-0.051589
-0.062890
0.018545
-0.003977
0.003389
-0.031867
-0.016463
0.065850
-0.048731
0.040084
-0.007220
-0.042957
-0.028982
0.025014
0.060724
0.048882
-0.071629
0.020554
0.008303
-0.024469
0.071379
0.004041
0.018815
0.028778
-0.045564
-0.064204
0.054116
-0.061252
-0.039927
-0.039397
0.035095
0.037386
-0.020415
0.077600
-0.006079
0.047691
0.073000
-0.056638
-0.012789
0.029777
-0.054337
0.066219
-0.013701
0.022016
0.075811
-0.044511
-0.051724
-0.041326
-0.068600
-0.006166
-0.031855
-0.081948
-0.039872
0.069485
-0.068812
-0.062980
-0.055752
-0.058748
-0.001065
-0.031807
0.062889
-0.046305
0.048605
-0.038698
-0.078911
-0.035136
0.045832
0.018707
0.076652
0.070536
-0.048264
-0.046480
0.082008
-0.015340
0.062464
0.082410
0.024761
-0.018253
-0.057223
0.025089
0.015082
-0.053857
-0.046796
-0.036285
-0.068212
0.064178
0.003241
0.069844
-0.040358
0.062202
-0.065078
-0.009317
0.022231
0.072700
0.017283
-0.070921
0.039029
0.047793
0.024120
0.002895
0.052046
-0.066351
0.010480
-0.031591
0.068113
-0.045442
0.029997
-0.037285
-0.012637
-0.069550
0.011535
-0.056534
-0.078448
0.062250
-0.045549
-0.032318
-0.009818
-0.065454
-0.054121
0.036533
-0.071829
-0.017177
0.078866
-0.059876
0.071517
0.008861
-0.044224
0.036744
0.007601
-0.031901
-0.080128
0.002725
-0.071313
-0.016629
-0.041840
0.004021
-0.008220
-0.025053
0.075688
0.028781
0.002829
0.057634
-0.063023
-0.041391
-0.029505
0.034177
0.061390
0.008279
-0.058688
0.061002
-0.016494
0.003211
0.037786
-0.018957
-0.081857
-0.010540
-0.064681
0.070329
0.018179
-0.017771
0.025236
-0.010565
-0.033901
0.003709
-0.018795
0.035167
-0.018605
0.024821
0.060510
0.056052
0.074255
-0.069377
-0.004448
0.021748
-0.070066
-0.008188
-0.037154
-0.039013
0.031985
-0.018249
0.028770
-0.050288
-0.079671
0.053985
-0.001219
-0.031374
-0.042661
-0.015709
0.008509
-0.062251
-0.030133
0.020671
-0.031724
0.049514
-0.015144
0.053509
0.053479
0.072654
0.081112
0.036576
-0.072869
0.022220
-0.077045
-0.047819
0.070709
-0.002915
-0.082211
0.040903
-0.041862
0.052521
-0.071302
-0.027625
-0.060516
-0.005073
-0.027719
0.012281
-0.032323
0.060499
0.005001
0.041332
0.032100
0.069789
0.078135
-0.061264
-0.064213
-0.055323
-0.026511
0.061036
-0.043854
-0.029405
-0.059866
-0.044990
0.020780
0.081369
-0.058506
-0.016896
-0.028689
0.036658
0.012135
0.038047
-0.062051
-0.078081
0.075967
0.020696
-0.071277
-0.047641
-0.037003
0.057233
0.038877
0.055858
-0.082110
-0.018690
0.006620
-0.006808
-0.066853
-0.076999
0.037051
0.054583
-0.067699
-0.009667
-0.004540
-0.067737
0.031272
-0.020369
0.026333
-0.011518
0.028545
0.009290
-0.000549
-0.077647
0.044427
-0.080922
0.032165
-0.029207
-0.000246
-0.032756
-0.066582
0.023256
-0.079999
-0.072801
0.057478
-0.030503
0.053747
0.042273
-0.008405
-0.038173
-0.057644
0.001811
0.077481
-0.036203
-0.063347
-0.057964
0.017042
-0.041186
0.035643
0.058226
0.009184
0.013146
0.079566
0.078376
-0.054471
0.035926
0.069080
-0.000359
-0.048125
0.060732
0.082446
-0.024762
-0.012173
0.024195
-0.042004
0.008137
0.076265
0.075712
-0.058434
0.022307
-0.020629
-0.080242
0.076011
-0.047249
-0.009324
-0.063465
-0.008113
-0.028548
-0.005560
-0.012221
-0.015988
-0.058169
0.023802
-0.067673
0.047522
-0.035161
0.055984
0.015933
0.043497
0.035732
0.010582
0.042832
0.030218
-0.058791
-0.059220
0.023712
0.051023
0.015365
-0.056406
0.037083
-0.075832
0.017363
-0.050812
0.008519
0.042754
-0.032336
-0.063665
0.027454
-0.028190
0.072580
0.050609
0.037010
-0.026106
0.062692
-0.057548
-0.002824
-0.063798
-0.025348
0.080953
-0.045420
-0.003818
-0.037542
0.044349
-0.028665
0.069693
-0.005474
0.081849
-0.045748
-0.002086
-0.069078
-0.056912
0.065384
0.015773
-0.014217
0.020888
0.022565
0.004510
-0.043567
0.079648
0.070119
-0.046860
-0.061100
0.073077
0.020168
0.068525
0.048802
-0.015476
0.019170
-0.031993
-0.014103
-0.022080
0.009241
-0.039159
0.031441
-0.002768
0.000387
-0.022020
-0.019111
-0.080636
0.080207
-0.042081
-0.023112
0.008698
-0.068811
-0.073616
-0.072102
0.053386
-0.068727
0.037244
0.010070
0.022123
-0.046673
-0.073572
-0.045628
-0.049019
-0.009593
-0.013490
-0.075114
-0.008755
0.060606
-0.060145
0.001206
-0.021971
0.045088
0.010424
-0.024697
-0.069192
-0.058360
-0.000719
0.034004
0.038053
-0.046090
0.051641
-0.055345
-0.065990
-0.023201
0.048092
0.028237
0.053127
-0.000602
-0.024365
-0.025313
0.056557
0.056600
0.038913
-0.016821
-0.032493
-0.005863
-0.032131
-0.016599
-0.082320
-0.064655
0.063539
0.068254
0.017391
0.043667
-0.017144
-0.055274
-0.027473
-0.064722
0.074576
-0.023019
0.009720
-0.042954
-0.072447
-0.018858
-0.015699
-0.071290
-0.046960
-0.052096
0.004429
0.080502
-0.042394
-0.061736
0.057351
-0.034972
0.043769
-0.057455
0.047188
0.013651
-0.029703
-0.012291
0.012326
-0.010813
0.059699
-0.063885
-0.025654
0.034866
-0.061950
0.014503
-0.066611
-0.059749
-0.015302
-0.078818
0.067941
-0.002132
0.049944
-0.064006
0.032351
-0.050540
-0.073671
-0.040681
-0.005813
0.003730
-0.007214
0.029910
-0.052083
0.016005
-0.055559
0.030322
-0.004487
0.013800
0.036644
0.028519
0.003898
-0.078572
-0.051319
0.050602
-0.034183
0.000246
0.039839
0.030958
0.018524
-0.055084
0.064135
0.020315
-0.055605
-0.065482
0.011749
-0.071460
-0.082128
0.036013
0.006434
-0.018738
0.041200
-0.064978
0.039621
-0.061951
-0.045519
-0.080873
0.042154
-0.052063
-0.000971
-0.048531
0.027884
0.007792
0.068742
-0.055066
-0.008271
0.018299
-0.056440
-0.029212
-0.050065
0.032289
-0.050996
0.018627
0.033906
-0.061596
0.030947
-0.021376
0.018824
-0.027652
-0.062495
0.019521
0.064622
-0.013928
-0.043490
-0.008987
-0.054571
0.032708
0.028196
0.069913
0.034562
0.013359
0.000613
0.070056
-0.003603
-0.057794
-0.044523
-0.019965
0.078224
0.050908
0.014932
-0.068099
0.075309
-0.061069
-0.005686
-0.030215
-0.081813
0.002898
0.055865
-0.024150
-0.018178
-0.020131
0.081206
-0.035309
-0.034100
0.067621
0.032421
-0.073709
-0.074516
0.021518
-0.053235
-0.063144
0.033499
-0.064140
-0.033304
-0.011695
-0.043427
-0.080895
-0.078462
0.010444
-0.077830
-0.061358
0.081073
0.056895
0.025895
-0.030978
-0.055736
-0.063521
0.020841
-0.006577
-0.079498
-0.020591
-0.053197
0.046796
-0.040187
-0.034008
0.004087
0.058835
0.052922
-0.002817
-0.046884
-0.055754
0.025807
-0.001519
-0.027579
-0.049275
-0.015906
0.000437
-0.037391
0.012462
-0.073228
-0.071041
-0.000964
-0.048145
0.072565
0.002212
0.056201
0.027887
-0.028820
0.002732
-0.052962
0.035063
0.075569
0.034946
-0.001229
-0.079864
-0.073155
-0.064524
0.038295
-0.060187
-0.067233
-0.050620
0.034503
0.072729
0.048683
0.011733
-0.032976
-0.042324
0.068447
-0.071493
0.056746
0.015819
0.068871
-0.004317
0.069149
0.020381
-0.027961
0.004786
0.040818
-0.007596
-0.020873
0.056954
0.078026
0.081725
0.063785
-0.008312
0.015351
-0.035950
-0.016088
-0.074321
-0.010805
-0.049821
0.001791
-0.003436
0.069820
-0.072664
-0.045728
-0.027295
-0.064651
0.066950
-0.004525
0.031371
0.005155
0.051075
-0.057829
-0.014957
-0.071174
0.070782
0.003300
-0.011886
0.075249
0.002025
-0.041248
-0.019475
0.001520
0.077806
-0.068146
-0.064724
0.043701
0.004002
-0.019266
-0.049041
-0.018035
0.041387
0.001162
0.061613
-0.048926
0.062855
0.033431
0.027200
0.000404
-0.012042
0.059129
-0.016774
-0.009164
-0.033079
0.028444
-0.055603
-0.063431
0.073989
0.078607
-0.074858
0.055407
-0.009846
-0.034597
0.038897
0.079537
0.031424
-0.004271
0.042236
0.005258
-0.042390
-0.038579
0.017759
0.072839
0.061763
-0.053234
0.057257
0.035561
0.028306
-0.005077
0.016275
-0.019013
0.060518
0.009780
-0.020553
0.053909
-0.046632
0.065277
-0.051857
0.054464
0.057482
0.040639
0.057012
-0.000888
0.082341
0.014814
0.038638
0.063190
0.063811
0.002686
0.026292
-0.009033
-0.009407
0.058209
-0.006375
0.011226
-0.038236
-0.069859
0.074300
0.080795
0.038913
0.077581
0.003786
-0.000606
0.036416
0.031151
0.072012
-0.077819
-0.027036
0.082243
0.023217
0.069264
0.077312
0.059044
-0.030096
-0.068039
0.077105
-0.000710
-0.014378
0.039755
-0.017333
0.057346
-0.039802
0.023052
0.031834
0.040952
0.033762
0.036868
0.015814
0.019044
-0.069011
0.080793
0.064086
0.071789
-0.009121
-0.073643
-0.032185
-0.040307
-0.006605
-0.068049
-0.036274
0.013722
-0.034749
-0.056960
0.020167
0.044986
0.021196
-0.064358
-0.014707
-0.005764
-0.082095
0.025665
0.030888
0.070161
0.049738
-0.007720
-0.038618
-0.054902
-0.066822
-0.071073
0.023346
0.076668
0.024966
0.024007
-0.077367
-0.025934
0.065869
-0.010726
-0.019683
-0.024672
0.078082
-0.019488
0.011414
-0.032351
0.027107
-0.020191
-0.045287
0.049565
0.050528
-0.003320
0.077852
-0.031357
-0.055844
-0.080576
0.074426
0.069637
-0.008921
-0.056087
0.013721
-0.028459
0.079927
0.064309
0.013633
0.018684
-0.013290
-0.019632
-0.006449
-0.079634
0.048957
0.053232
0.028426
0.017009
-0.069370
-0.061037
-0.020767
0.078544
0.033953
0.023981
0.039530
-0.027240
-0.056311
0.015083
0.067754
-0.052950
0.036479
0.065602
-0.021667
0.014311
-0.021582
-0.060793
-0.042662
0.042926
-0.012514
0.051569
0.079463
-0.037561
0.078853
0.049112
-0.020298
-0.012242
-0.067111
-0.045475
-0.015140
-0.040624
-0.035390
0.024534
0.005384
0.044187
-0.010416
0.045608
-0.010738
-0.031572
0.050125
-0.054704
0.007370
-0.071292
-0.071841
-0.067668
0.028307
-0.072759
-0.019269
0.009095
0.005771
-0.020811
-0.059007
-0.037757
-0.068091
0.071732
0.081435
0.049129
-0.065541
0.024246
0.057071
0.052572
0.019706
0.046466
0.045695
-0.048880
-0.069382
-0.035003
-0.056325
-0.036231
0.004293
0.079864
0.034038
-0.055651
-0.046841
0.019835
0.068222
-0.063982
-0.034047
0.012459
0.030915
-0.029435
0.009089
0.035039
-0.072300
0.058608
-0.027239
-0.078862
-0.036471
0.025594
0.062470
-0.021997
-0.069598
0.057171
-0.056153
0.045139
0.043186
-0.076419
0.038245
-0.049635
-0.047810
0.070833
0.037346
-0.059465
-0.049436
-0.026294
0.075028
0.038473
-0.001843
0.077572
-0.043996
-0.005607
-0.030531
0.001554
-0.030838
-0.011366
-0.007796
0.065835
0.012952
0.007490
-0.005294
0.060097
-0.045795
-0.052316
-0.073358
0.071508
0.004246
-0.021529
0.010204
0.035638
0.064425
0.019151
0.029212
-0.067338
0.056650
0.011001
-0.077407
0.072326
-0.049691
0.054535
-0.058919
-0.025815
-0.078240
-0.063835
0.024372
-0.000596
0.074002
0.056989
0.057488
0.033369
-0.035626
0.082303
0.033700
0.049867
0.001544
0.075086
-0.010760
0.025766
-0.043903
-0.045232
0.024937
0.046516
0.034386
-0.055476
-0.008005
-0.060469
-0.057303
-0.017418
-0.048873
0.061195
0.021180
-0.051289
-0.024636
-0.029129
0.041095
-0.020206
-0.024315
0.063078
0.008848
-0.006971
-0.070288
-0.079701
-0.034875
0.002892
0.031138
0.049480
-0.020088
0.074992
-0.000156
0.047960
-0.002452
0.018308
-0.069645
0.032231
0.026517
0.082462
0.020256
0.052201
-0.053798
0.029680
0.003716
-0.076798
0.017815
-0.030818
0.039889
0.050168
0.053806
-0.077444
0.022584
-0.033907
-0.027618
0.049052
-0.044488
-0.039698
-0.043362
-0.047055
0.052456
0.024906
-0.036066
-0.048635
0.037333
0.004944
0.000908
0.018131
-0.046825
-0.076279
-0.056162
-0.032393
0.055495
-0.026054
-0.068089
-0.009439
-0.047706
0.003329
-0.033933
-0.019815
-0.011858
0.017964
-0.040306
0.018076
0.036845
0.021773
-0.002643
-0.060059
0.041602
0.061241
-0.036332
-0.031058
-0.069353
0.003188
-0.006176
0.002063
-0.078915
-0.061729
0.055325
-0.063803
0.007160
-0.037918
-0.077714
-0.050096
0.001986
0.042513
0.013143
-0.057677
0.023014
0.060783
-0.025206
0.070507
-0.029729
0.040782
0.069228
-0.021183
-0.051720
-0.035062
0.027934
0.039203
-0.082410
0.067362
-0.074302
0.066442
-0.070692
-0.033945
-0.059917
-0.064953
-0.066597
-0.062412
0.063544
0.057577
0.027467
-0.049317
-0.070586
-0.060110
-0.054584
0.077963
0.065658
0.063222
-0.075901
0.024960
-0.008120
0.038078
-0.033368
0.080840
0.016653
0.004866
-0.003541
0.069719
-0.047825
0.079987
0.046671
-0.057645
-0.009960
-0.082220
0.024390
0.066225
0.045975
0.055858
0.037809
-0.058262
0.053028
0.021318
0.059800
-0.063870
-0.008073
0.077428
0.056181
0.042712
-0.020224
-0.014704
-0.044506
0.036960
0.078906
0.017923
0.042541
-0.007892
-0.025202
0.065383
-0.016942
0.047111
0.076630
-0.021750
0.059005
0.037815
0.040049
-0.079471
0.076783
-0.003273
-0.020974
-0.053202
0.050401
-0.018401
-0.034475
0.010626
0.019011
0.000543
0.005720
0.046397
-0.043198
0.008103
0.038885
-0.028033
0.035430
0.012250
0.037652
0.015136
-0.059243
-0.013497
-0.022392
0.082199
0.001484
-0.062950
0.007583
0.068421
0.070835
0.044857
-0.008577
-0.050810
0.035529
0.028325
-0.070099
-0.035332
0.050684
-0.005563
-0.034613
-0.038048
0.033236
0.079549
-0.047846
0.004899
0.018154
-0.003080
-0.048746
-0.001298
0.070363
0.007540
0.013203
-0.062165
0.006095
0.055722
0.032668
0.050249
0.044655
0.002053
-0.020541
0.017714
-0.014831
-0.040608
0.000504
-0.026964
-0.068128
0.060739
0.008078
-0.064658
0.068734
-0.007593
0.053720
0.041962
-0.024235
0.060857
0.053323
-0.059236
0.057718
0.074875
-0.059450
-0.022743
0.071019
0.030472
0.052218
0.055642
-0.051768
0.080453
-0.062357
0.045846
-0.015027
-0.067736
0.015519
-0.008720
-0.038693
-0.032788
-0.060076
-0.003310
0.011050
0.056541
0.069123
-0.049881
-0.032251
0.055241
0.070957
-0.012472
0.070697
0.008729
-0.011605
-0.000162
-0.054908
-0.066594
0.063282
0.013059
-0.053727
0.000363
-0.053999
-0.013995
0.010249
-0.031131
0.040994
0.010073
0.041859
0.000817
-0.054623
0.025266
0.001160
-0.041747
0.042917
-0.076188
-0.078171
0.060735
-0.018783
-0.039481
-0.041288
-0.082409
0.007111
-0.012353
0.007499
0.060666
0.052069
0.078522
0.024279
-0.039007
0.005319
-0.048311
0.062077
0.011816
-0.007521
0.057342
-0.007449
0.067331
-0.050171
-0.027335
-0.063816
0.076125
-0.070419
-0.076093
0.079013
-0.063762
-0.011906
0.007762
0.031971
0.019553
-0.033136
-0.053568
0.066514
-0.002122
-0.023897
0.057106
-0.031849
0.069387
-0.068916
-0.036721
-0.009767
-0.049430
0.047546
-0.025869
0.022221
-0.059300
-0.018356
0.023166
0.069323
0.001373
0.071994
0.011123
0.041725
-0.009265
0.002772
0.038843
-0.022666
0.061057
-0.078570
0.074594
0.017529
-0.077369
-0.038671
-0.013661
0.042681
0.055853
0.029872
-0.070678
-0.019768
-0.069291
0.063326
0.006313
0.007602
0.067292
0.081735
0.040085
0.039085
0.057645
-0.000167
-0.063624
0.080108
-0.062492
0.049840
-0.080518
0.072256
-0.039032
0.018336
-0.072170
-0.041502
-0.049504
-0.026217
0.035811
-0.064988
0.056546
-0.067874
-0.068595
-0.064174
-0.009140
-0.012239
-0.074828
-0.031175
-0.035760
0.009085
0.046805
-0.036180
0.033291
-0.020619
0.019632
-0.016612
-0.017732
-0.002646
0.082035
0.065868
0.054475
0.052622
0.051691
-0.071372
-0.031896
-0.024984
-0.070636
0.003294
-0.037996
-0.030311
-0.027972
0.046596
-0.076626
-0.067728
-0.057691
-0.049759
0.079671
-0.033147
0.075324
0.000695
0.073392
-0.029939
0.043539
0.036573
0.037533
0.005385
-0.078872
-0.047042
-0.006255
0.058927
0.006665
0.077535
-0.021335
-0.049949
0.007683
0.054108
0.016358
-0.023222
-0.072962
0.061515
-0.062368
0.001021
-0.005665
0.033845
0.001761
0.008009
0.073833
-0.005878
-0.023768
-0.062337
0.012324
-0.049860
0.002616
0.009794
-0.014084
-0.034753
0.059354
0.066556
0.004808
-0.076813
-0.078754
-0.003949
-0.060984
0.060784
-0.032293
-0.075529
0.025800
0.020661
-0.057928
0.078259
-0.033646
0.008470
-0.024199
-0.042148
0.053081
0.002763
0.040839
0.015307
-0.076889
0.046064
0.057232
0.056439
-0.013967
0.048555
0.019511
-0.036994
-0.061137
0.052501
-0.016987
-0.047975
0.042171
0.040601
-0.060988
0.025854
-0.077176
0.021908
0.015572
-0.042607
0.024639
-0.081763
0.021260
-0.051792
-0.046730
0.075873
0.032010
-0.066071
-0.003086
-0.063427
0.060882
0.006230
0.049907
0.059969
-0.001210
-0.073039
0.080859
0.029054
0.051309
0.028666
-0.018673
0.059901
0.071036
-0.070228
-0.017481
0.073279
0.069925
0.020323
-0.037958
-0.019033
0.056636
0.036479
-0.032134
-0.001014
0.050930
-0.009215
-0.012831
-0.037418
0.027456
0.026318
-0.017825
-0.012015
-0.016054
-0.060045
-0.024605
-0.005207
0.020486
0.009544
0.032532
-0.002275
0.049702
0.076272
-0.020979
-0.073439
0.037222
0.011856
0.009769
0.081921
0.045107
-0.020481
-0.067610
0.066766
0.068547
0.010093
-0.011654
-0.033918
0.064528
-0.074397
-0.040261
0.072405
-0.006222
0.059733
-0.073243
0.033342
-0.061440
-0.049864
0.011909
-0.012993
-0.057055
-0.047666
-0.020055
0.070914
0.001736
-0.042598
-0.054912
0.069698
-0.018203
-0.081067
0.049988
-0.078279
0.071242
0.056573
-0.017612
-0.044732
-0.001543
0.023261
0.016288
-0.009375
0.019110
-0.013625
0.016808
-0.001080
0.066941
0.036708
-0.066702
-0.031905
0.034529
-0.019995
0.031056
0.058626
0.074047
-0.063026
0.079595
0.009999
0.049204
-0.077154
0.056593
0.018770
0.005978
0.077977
0.015005
-0.047768
-0.019209
0.042940
-0.051079
-0.012689
-0.000501
0.068767
0.047411
0.072405
-0.065430
-0.050370
0.043034
0.035492
0.046787
0.017462
-0.006848
-0.017669
0.047552
-0.025987
0.081247
0.055454
-0.040671
-0.061585
-0.072690
-0.074857
0.041448
0.039170
-0.015383
0.080315
-0.047402
-0.013440
-0.058912
0.064328
-0.073168
0.017928
0.001726
0.015090
0.030029
0.081121
0.003914
-0.009032
-0.013105
0.068536
0.032831
-0.042467
0.063900
-0.024669
-0.065467
-0.056729
-0.026371
-0.014486
0.025506
-0.002228
-0.000873
0.010677
-0.057343
-0.012459
0.000963
0.011324
-0.013141
0.024249
-0.045886
0.005722
0.043299
-0.016443
-0.067010
0.058288
-0.073764
0.021270
0.028546
0.081409
0.038919
-0.046826
-0.007437
0.081146
0.042284
-0.003089
-0.071255
0.047844
-0.045863
-0.069618
-0.057897
-0.026431
-0.019412
-0.065830
-0.001728
0.039955
-0.058994
0.022519
-0.064061
0.013216
0.033342
0.064245
0.033224
0.027571
-0.068459
-0.029703
-0.049356
0.007197
0.011728
-0.080605
0.078336
-0.014877
-0.072472
-0.058977
0.038461
0.000269
-0.067789
-0.016288
-0.025057
-0.074965
-0.080660
-0.009814
0.006228
-0.074607
-0.024666
-0.078409
0.046959
-0.054344
0.004012
-0.042863
-0.044892
-0.000378
-0.077017
0.002477
0.050879
0.057335
-0.063895
0.017181
0.080230
0.025348
0.072452
0.014235
0.021694
-0.054071
0.034571
0.041632
0.002856
-0.040612
0.032671
0.063356
0.005181
-0.046098
-0.007940
-0.062175
0.013403
0.038100
-0.053792
0.035861
0.020744
-0.064213
0.049973
-0.077878
0.034507
-0.074688
-0.019332
-0.005204
0.061329
-0.069421
0.014643
-0.058817
-0.044370
-0.026623
0.069602
-0.081504
0.032150
0.053891
0.028309
0.046448
0.004776
-0.006714
-0.057456
-0.078641
-0.031664
0.052669
0.011561
-0.062048
-0.018934
-0.067515
0.071105
0.034714
-0.075598
-0.062333
0.001071
-0.060868
0.025962
0.024774
-0.075416
0.038647
-0.056884
0.040702
-0.004242
-0.034671
0.031346
0.018088
0.000892
0.002252
0.055916
-0.027348
-0.043543
-0.012059
0.064787
0.038366
0.017638
0.047364
0.002164
-0.045574
0.034147
0.015485
-0.057480
-0.032094
-0.066819
0.055762
-0.006457
0.021775
-0.053586
0.067779
-0.077336
-0.010673
-0.006931
0.072711
-0.036720
-0.057994
0.042377
0.059306
0.023406
0.010490
0.042874
0.056128
-0.064477
-0.001159
0.004267
-0.081457
0.002288
-0.020150
0.066566
0.081639
0.072599
-0.072896
-0.056154
0.007089
0.038056
0.059903
-0.060239
0.001272
0.022098
0.032671
-0.082162
-0.050703
-0.070722
-0.058515
-0.014224
0.022157
0.007053
0.050139
-0.026501
0.042615
0.003645
-0.080676
-0.011067
-0.037863
0.048236
0.009121
-0.021043
0.042897
-0.041452
-0.075095
-0.061544
-0.047849
0.038608
0.042234
0.051239
0.000618
0.042899
-0.052674
-0.019124
0.013594
-0.037992
-0.045409
0.011732
-0.010089
-0.022125
-0.051662
0.013594
-0.042055
-0.081284
-0.063405
0.037128
0.045180
-0.019895
-0.082331
0.049430
0.053424
-0.013957
-0.078562
0.070638
0.009994
0.077673
-0.076764
0.003881
0.037245
0.018201
0.067082
0.027226
-0.030321
0.047033
0.037176
0.047924
0.046477
-0.019804
-0.047958
-0.022736
0.070500
-0.025325
0.069683
-0.028941
-0.015772
0.048006
0.034120
-0.046731
0.050280
0.034986
-0.061334
0.067691
0.028834
-0.040843
0.079112
0.069909
-0.072064
0.012780
0.036377
-0.037132
-0.034249
0.013678
0.055079
0.037480
-0.038898
0.050266
0.078226
-0.025745
0.038475
-0.077439
0.018677
-0.017432
-0.056045
0.041502
0.053595
-0.025223
-0.059803
-0.069292
-0.027346
-0.034802
0.070824
-0.077962
0.017725
-0.011976
0.049179
0.001771
0.006899
0.039902
0.004133
0.014741
-0.080843
0.018708
-0.047320
0.047629
-0.075915
0.062390
-0.062687
-0.057969
0.018445
-0.055689
-0.038763
-0.030498
0.023261
0.060083
-0.046236
0.050425
0.009632
0.010729
0.067286
0.024927
-0.001231
0.006043
0.033093
-0.018754
0.025144
0.058412
0.071490
-0.051507
0.049043
0.038140
-0.072685
0.041318
-0.057674
-0.043230
0.060120
-0.006374
0.000895
0.035467
-0.022213
0.049914
0.009063
-0.070672
0.061502
0.037593
0.039962
0.063055
0.057340
-0.036220
0.055634
0.030476
0.047798
-0.040906
0.031331
0.050137
0.036352
-0.056869
0.024943
-0.063712
-0.055264
-0.019193
-0.017737
0.025529
0.045870
0.001682
-0.076755
0.054684
0.035479
-0.041811
0.002852
0.062801
0.025174
0.011300
0.024615
0.006004
-0.075168
-0.029965
0.003879
-0.038728
-0.029750
0.019078
-0.062705
0.011380
0.020295
-0.029429
0.010472
-0.046930
0.079195
0.062462
0.036758
0.081764
-0.002215
0.010252
-0.025754
-0.016970
-0.002934
-0.000453
-0.006667
-0.052208
0.014376
-0.044311
-0.018735
0.014168
-0.078693
0.058161
-0.074940
0.081337
0.018486
-0.020670
0.047987
-0.038698
0.038548
0.059345
0.038001
0.080021
-0.020392
0.052072
-0.055694
-0.025078
-0.018218
0.019139
-0.067293
-0.042143
-0.033042
-0.071944
-0.048047
0.015290
-0.058400
-0.079260
0.001684
0.024399
-0.061866
-0.065972
-0.026680
-0.082099
-0.068195
0.069790
-0.005587
0.069338
0.041491
-0.052006
-0.034010
0.012399
-0.071534
-0.058072
-0.064953
-0.078448
0.043015
-0.009764
0.060620
0.012101
0.057224
-0.034528
0.040120
0.069793
0.047560
-0.037161
0.056364
-0.031076
-0.010608
-0.012969
-0.055969
-0.074406
0.054246
-0.023668
-0.049100
-0.019652
-0.071111
0.006896
-0.022692
-0.032335
-0.048072
-0.010144
0.021111
0.015930
-0.039629
-0.069308
0.033186
0.064564
-0.069494
0.023143
-0.049298
-0.066831
0.062715
0.020866
0.082433
0.052772
-0.066209
-0.016839
-0.073850
-0.058773
0.063611
-0.049682
0.025122
-0.038619
0.072579
0.004965
0.044414
0.005453
-0.069746
-0.030811
-0.075416
0.064440
-0.045100
-0.025589
-0.047488
-0.045813
0.027157
-0.024148
-0.004992
-0.080339
-0.031003
-0.054418
-0.004578
-0.007004
-0.036392
0.022775
-0.021090
0.047424
-0.018558
-0.030093
-0.023244
0.010321
0.005937
0.060722
-0.035222
-0.000525
0.055770
0.061881
-0.033814
0.066366
-0.070226
0.008129
0.002616
0.050656
-0.060249
-0.070062
0.005663
0.002444
0.012299
0.042697
-0.044563
-0.057766
0.025007
-0.006661
-0.055390
0.018190
0.022063
0.056653
0.034221
-0.006127
0.059459
0.021464
0.020123
0.040664
0.006978
0.005656
-0.079665
0.065530
0.070258
-0.080783
-0.010932
0.068089
0.051495
0.070223
0.053216
-0.042418
-0.042666
0.018925
0.004469
-0.014010
-0.049085
0.024400
-0.029985
0.005619
0.075401
-0.036726
0.022966
-0.077561
-0.074666
-0.029186
0.062097
0.046876
-0.081805
0.065146
-0.010828
0.072350
-0.030194
0.035155
-0.011233
0.076923
0.057457
-0.031020
-0.037786
-0.067524
0.062708
0.054673
0.045529
0.030145
-0.026365
0.003518
0.009152
0.038388
-0.022742
0.052601
0.065304
-0.026344
-0.023367
-0.044074
0.037815
0.025775
-0.021521
-0.034352
-0.013460
-0.053353
0.077717
-0.016649
-0.058591
0.047681
-0.032701
0.062179
-0.075428
-0.064693
-0.076596
-0.051528
-0.069125
0.064237
0.007088
0.032966
0.055275
-0.040899
0.034327
0.009499
-0.064359
0.003294
-0.046138
0.057177
-0.064954
-0.071147
0.046770
-0.054987
0.076676
0.072493
-0.021253
-0.044199
0.021201
0.002834
-0.029013
-0.006930
-0.031002
0.059539
0.000806
-0.031869
0.028805
-0.002639
-0.061266
-0.050984
0.004325
-0.057378
-0.034788
-0.047841
0.060158
-0.062623
-0.063531
-0.005471
0.040674
0.020455
-0.070394
-0.045925
0.015944
0.028825
0.014542
-0.073420
0.017635
0.033323
0.024343
0.060059
0.035216
-0.072920
-0.078468
0.034007
0.071783
-0.056137
0.040389
0.024226
-0.039685
0.022442
0.071071
0.012398
-0.054479
0.082360
-0.030194
0.003950
0.049743
-0.066847
0.007450
-0.051027
-0.055826
0.014829
0.064767
-0.078346
-0.019031
-0.019943
0.047028
0.009967
0.037708
0.001409
0.010182
-0.026164
-0.051971
0.061808
-0.058246
-0.018417
-0.016707
0.059579
-0.074600
-0.032928
-0.073520
-0.055492
-0.002224
-0.063833
-0.073685
0.059914
0.030853
-0.020118
0.079197
0.070535
-0.020426
-0.080070
-0.075915
-0.005225
-0.073853
0.055641
0.010986
0.067923
0.005362
0.031771
-0.017510
0.067280
0.080533
0.030795
0.013620
0.013482
-0.053048
-0.012302
0.065348
0.024649
0.055007
0.015975
-0.077283
-0.077655
0.047876
0.033656
0.027645
-0.067500
-0.047243
0.069235
0.011333
-0.033520
0.009383
-0.067020
0.052478
0.057259
-0.079485
0.068275
-0.058325
-0.012839
0.077223
-0.045298
0.081848
-0.021852
0.080568
0.031814
-0.058978
0.018341
0.066869
0.057770
-0.049083
0.047220
-0.074234
-0.019323
0.053122
0.049302
0.023232
0.036690
0.029219
-0.021008
0.045197
-0.011968
-0.043296
0.070819
0.021064
-0.052393
0.036097
-0.009645
0.011717
-0.072461
-0.002925
0.039759
-0.066060
0.020332
-0.030797
0.055227
0.004145
0.012605
0.047632
-0.027913
0.077278
0.005743
0.075987
0.042799
0.026041
0.052061
-0.052525
-0.063477
-0.070919
0.036593
0.078070
0.060707
0.019042
-0.061861
0.076739
-0.061281
0.032475
-0.076332
-0.079983
-0.013930
0.000361
0.030562
0.069241
0.082357
0.067358
-0.072195
0.038814
-0.059985
-0.062261
-0.034171
0.038785
0.001317
0.072880
0.054012
-0.009783
0.046729
0.000733
0.008669
-0.035690
0.053711
0.067852
0.022329
-0.078349
-0.053205
0.074103
0.053803
-0.041593
-0.072936
0.030538
0.035822
0.071615
0.018054
-0.020500
-0.073087
-0.027387
0.024869
-0.033973
0.035651
-0.050184
0.027985
0.049895
0.054818
0.029989
0.020959
0.076755
0.034539
0.027496
-0.051149
0.075158
0.013713
0.068948
0.030787
-0.016570
-0.021867
-0.014268
0.073061
0.081589
0.051874
-0.058190
0.053449
0.071036
-0.013070
-0.005128
-0.063546
-0.079377
-0.059389
-0.015340
0.022192
-0.029888
0.060658
-0.012174
0.063992
-0.027622
0.082002
-0.065711
0.011166
-0.028959
-0.007671
-0.068545
-0.005128
0.079469
0.016287
0.082389
0.079832
-0.028077
0.045685
0.026335
-0.061555
0.054571
-0.026954
-0.036936
0.074369
-0.016560
0.047354
-0.039813
-0.052259
0.009665
0.031397
-0.065676
-0.000694
-0.018782
0.064793
0.013182
0.048132
-0.066150
0.005393
-0.059811
-0.067142
-0.052906
-0.053136
0.009356
0.060401
0.013950
0.035987
0.047405
-0.011595
0.036856
0.030841
0.045952
-0.047271
-0.063481
0.009633
0.021089
-0.051814
0.077664
0.009079
0.019229
-0.026339
0.063792
-0.043365
-0.077562
-0.019770
-0.049232
0.004696
0.046885
-0.056306
0.014653
0.028232
0.015409
-0.040390
-0.050057
0.070689
0.035096
0.036259
-0.012559
0.040458
-0.064747
-0.079685
-0.039264
0.059493
0.036999
-0.024133
0.037680
0.060352
0.064653
0.048747
-0.043725
-0.012019
0.022107
-0.037380
-0.036699
-0.046866
-0.014326
0.075755
0.025606
0.006812
0.012248
-0.057633
-0.076975
0.034054
-0.006720
-0.081996
-0.075668
-0.032001
0.036463
0.018089
0.019994
0.038226
-0.065248
0.000163
0.027768
0.038753
-0.013765
0.035414
-0.045729
-0.021746
-0.015239
0.017065
0.056892
-0.011721
-0.058675
0.003989
0.026858
0.068068
-0.065925
-0.076379
0.014004
-0.053540
0.072486
0.052607
-0.077839
0.014995
0.049351
0.004273
0.052450
-0.072581
0.071182
0.020031
-0.006934
0.048907
0.066227
-0.063663
0.074262
-0.046298
-0.028094
0.007297
0.073416
0.039561
-0.024760
0.048947
0.035015
0.049810
-0.011537
-0.019785
0.017819
-0.054042
0.074938
-0.009932
-0.052507
-0.063537
-0.080890
0.052659
-0.012114
-0.015397
-0.035627
-0.007276
0.026528
0.037787
-0.053936
0.081336
-0.032229
0.016420
0.017765
0.033887
-0.076935
-0.051998
0.063803
-0.075535
-0.024320
0.069421
0.078834
-0.028579
-0.035561
0.018582
0.044108
-0.053154
0.058461
0.064832
-0.056831
0.021351
-0.057035
-0.031894
-0.052745
-0.066604
-0.008259
0.062466
-0.026619
-0.033311
0.016649
-0.013035
-0.032229
-0.015721
0.043993
0.019078
-0.005389
0.077224
-0.010381
0.067290
0.058561
0.052255
-0.069220
0.025623
-0.062472
-0.059308
0.018210
0.037302
-0.058330
-0.058835
-0.012893
-0.002136
-0.032529
0.067392
0.066115
-0.080525
0.005428
0.078303
-0.053487
0.030440
-0.000560
-0.046915
-0.045751
-0.026066
0.030294
0.016377
-0.001167
-0.062106
-0.066761
-0.044887
0.063956
0.064698
0.003827
-0.047676
-0.070361
-0.076239
-0.035282
-0.049095
0.051141
-0.064579
-0.077412
0.041514
0.048295
-0.016317
0.009623
0.009355
0.076355
-0.002028
-0.016012
0.080062
0.061255
0.029129
0.067690
-0.010042
0.081321
0.078540
-0.043758
-0.010626
-0.015838
-0.022625
0.042494
-0.073219
-0.035447
-0.035284
0.063754
0.075812
0.054515
-0.053807
0.030378
-0.040319
0.075531
-0.015854
0.037013
-0.019134
-0.079189
-0.006283
0.040012
-0.082146
0.037529
0.053019
-0.059615
-0.014905
-0.034078
-0.024176
-0.062754
0.015271
0.047457
0.018291
0.043317
0.029766
-0.020092
0.042722
-0.066913
-0.030117
0.058279
-0.057968
0.030037
0.023156
0.060359
-0.019973
0.043041
-0.025015
0.029021
0.037206
0.059484
-0.080539
0.040886
0.059753
-0.047485
-0.033102
-0.060955
0.041113
-0.018078
-0.026742
-0.027674
0.019547
0.056709
-0.008848
0.081780
0.043400
0.013762
-0.063045
-0.022941
0.057614
-0.026792
0.008569
-0.051850
0.054586
-0.016619
-0.042136
0.028507
-0.007733
0.062644
0.070188
0.029648
0.015345
0.047026
0.037829
-0.042550
0.005458
-0.049447
0.035615
0.040264
0.050266
0.065646
-0.009591
0.074081
-0.020075
0.038513
-0.013306
0.037750
-0.052495
0.040599
0.020429
-0.032675
-0.029378
-0.042942
0.033133
-0.019061
-0.072959
0.010392
0.067605
-0.060061
-0.041383
0.031857
0.074180
-0.023995
0.040711
-0.016980
-0.061631
0.052000
-0.039237
-0.027716
-0.058265
0.025107
-0.031209
0.009192
-0.076301
0.009324
-0.020056
0.072635
0.068391
0.069789
0.067156
-0.061781
-0.014051
-0.064810
0.078306
-0.016429
0.014093
0.039908
0.024476
-0.021009
0.082207
-0.071137
0.034162
0.062590
0.014552
0.047605
0.018257
0.018811
0.035199
0.068456
-0.077110
-0.057252
-0.044575
0.023284
0.017217
-0.063669
-0.052574
0.026244
0.005457
0.011110
-0.078844
0.035772
-0.068515
0.039795
-0.030850
0.002486
-0.029526
-0.017694
-0.068460
0.048647
0.076153
-0.058644
0.018960
-0.005570
0.061651
0.019905
0.004068
0.063715
0.079038
0.080197
-0.080200
0.035988
-0.030079
0.047191
0.052341
-0.050477
-0.035587
-0.080142
-0.053463
0.042047
-0.034849
-0.073264
0.014376
0.021464
0.002872
0.058600
0.024749
0.017010
0.013433
0.067578
-0.055136
-0.012717
-0.070273
0.041083
-0.038024
-0.034255
-0.032987
0.016913
0.015884
-0.082065
-0.049729
-0.045769
-0.061256
-0.056529
-0.038526
0.037003
-0.000495
-0.007224
0.029205
0.018503
-0.056803
0.014078
-0.037835
0.006901
0.032670
0.024346
-0.016731
-0.011386
-0.057282
0.056359
0.018159
-0.023966
-0.059559
-0.069217
-0.013510
0.013760
-0.037423
-0.049150
-0.063493
-0.023534
0.062317
0.075930
0.005277
-0.062824
0.042727
0.008230
-0.043736
-0.024967
-0.023550
0.054479
-0.038006
0.024427
0.003362
0.005500
-0.079656
0.035055
0.040256
-0.033208
0.039924
-0.056713
0.067468
0.004695
0.018792
-0.069017
0.065657
0.082420
0.005453
-0.060898
0.002536
0.013870
-0.064395
-0.016164
0.003785
-0.061303
-0.049883
-0.008043
0.073722
0.067131
-0.027782
0.071315
0.010283
-0.059984
-0.064601
-0.020227
0.023264
-0.038354
-0.040382
-0.068540
0.008206
0.068967
0.001127
-0.047180
-0.062544
0.022187
0.074773
0.081605
-0.056163
0.041326
0.026006
0.062143
0.016110
0.030269
-0.023847
0.081746
-0.074289
0.002369
-0.010169
-0.056524
0.005992
0.018476
-0.017392
0.080999
-0.003627
0.016249
0.041456
-0.014814
-0.067952
0.066707
0.031705
-0.076284
0.052241
-0.079126
-0.014206
-0.026842
0.013548
0.033358
0.020043
0.007407
0.059518
0.030001
-0.018728
-0.013323
-0.057878
0.024489
-0.004989
-0.069937
-0.052357
0.073684
-0.037858
-0.079434
0.055552
-0.011549
0.004274
0.076954
-0.002211
-0.010941
-0.040370
-0.048173
-0.054588
0.051110
0.061345
-0.061917
-0.026190
-0.017874
0.012410
-0.009979
0.037454
-0.022353
-0.004033
-0.026536
-0.061009
0.024013
-0.041014
-0.007253
-0.052721
0.052900
0.067180
0.067425
-0.001277
-0.000495
-0.021754
-0.049622
0.053481
-0.019124
-0.004787
-0.070370
-0.017998
0.018792
0.081597
0.067989
0.060400
-0.007784
0.063255
0.077610
0.077339
0.060114
-0.037036
0.027619
-0.019553
0.055944
-0.067426
-0.074228
0.049505
0.029320
0.045198
0.000518
-0.080504
-0.077749
0.033536
0.031942
-0.082373
-0.065961
-0.015354
-0.029379
-0.007400
0.031693
0.008062
0.041016
0.010490
-0.048936
-0.017387
-0.010268
0.006689
0.069252
0.003560
-0.031320
0.078399
0.048888
0.030822
0.080851
0.000472
0.069799
0.021183
0.070232
0.072777
-0.039231
-0.066842
0.017556
0.071832
0.070534
-0.001194
0.039195
0.061337
-0.057060
0.003634
-0.020400
0.021479
0.022377
-0.039170
-0.056380
0.046406
0.066551
0.062763
0.057521
0.055341
-0.044516
-0.023672
-0.047638
0.001879
0.047611
-0.074586
0.082393
0.004890
-0.069795
0.063257
-0.009586
0.070998
-0.019450
-0.041683
0.046301
-0.005736
-0.069006
0.056580
0.029627
-0.032061
-0.078941
-0.081040
-0.059483
0.019629
0.059510
0.061087
0.073651
-0.051360
-0.055392
-0.066166
0.031028
0.002323
-0.014411
-0.081630
-0.057290
0.063849
-0.002292
0.023584
0.039536
0.075747
0.048647
0.040502
-0.077733
0.075539
0.031551
-0.007955
0.015387
0.022570
0.031237
0.073303
0.027085
-0.032286
0.060775
-0.062408
0.012208
0.035762
0.002520
0.032597
0.016477
0.008802
0.030441
0.037017
-0.042655
0.081103
0.017743
0.079943
0.028908
0.082394
-0.048569
0.019822
0.027219
-0.007202
-0.042179
-0.026598
0.033492
-0.010823
0.023189
0.067920
-0.028253
-0.071168
0.032925
0.006476
-0.047023
0.014125
0.013998
0.061384
-0.029937
-0.010402
0.020448
0.079134
0.068826
-0.038583
-0.070715
0.056435
-0.002399
-0.010041
-0.048211
0.004670
0.050107
0.051375
-0.053654
-0.009246
-0.033707
-0.055390
0.058734
0.040235
0.013581
-0.046221
-0.077633
0.041718
-0.041247
0.077277
0.027849
-0.062677
0.019406
0.070131
-0.051260
0.049770
0.066290
0.015410
-0.027296
0.011973
0.036865
0.004257
-0.054706
0.070260
0.039227
0.024088
0.034973
0.036121
-0.004017
-0.013952
-0.065139
-0.000180
-0.033771
0.034758
0.068058
0.001305
-0.076544
-0.012759
-0.004967
0.048921
0.046912
0.042487
-0.033894
0.057160
0.066869
0.062599
-0.075867
0.069802
-0.074544
0.055855
0.069794
-0.067352
0.055046
-0.063508
0.040832
-0.038813
-0.037701
0.046659
0.036585
-0.051521
0.024617
-0.030058
0.073023
0.002423
-0.059624
0.075411
-0.041277
-0.012669
0.060776
-0.023202
-0.037963
-0.053785
-0.075459
-0.029698
-0.054267
-0.036771
-0.035984
-0.018002
-0.062155
-0.081679
-0.038901
-0.039015
-0.064318
0.071767
-0.023548
0.028831
0.028903
0.009592
0.001367
-0.075178
-0.062662
0.051937
-0.063857
-0.051435
0.072788
-0.079232
-0.060705
0.055492
0.069155
0.065929
0.025221
-0.007003
-0.076121
0.048955
-0.037424
0.065071
0.040594
-0.004454
0.064029
0.069276
-0.006656
-0.008798
0.023260
-0.062331
0.063812
0.075378
-0.005101
0.052980
-0.082066
0.001153
-0.066717
0.019093
0.078138
0.017153
0.020708
0.038026
0.001645
0.027340
-0.055242
0.042366
0.002278
-0.060963
0.065216
-0.018901
0.045221
-0.002823
-0.016427
0.050787
-0.018032
0.069979
0.049474
-0.056590
0.059913
-0.078107
0.045537
0.063844
-0.052498
0.021043
0.057577
-0.044219
-0.082041
0.005512
0.028773
0.043226
0.012095
0.008660
0.039710
0.072373
-0.066862
-0.048156
0.016724
0.029770
-0.039373
0.011293
0.054552
-0.067523
0.059966
0.050678
0.052628
-0.035754
-0.013608
-0.018825
-0.068666
0.063747
-0.011034
0.053562
-0.013276
0.011540
0.000691
-0.045688
0.059852
0.005604
0.076376
-0.013781
-0.000598
0.009095
-0.007895
0.032850
-0.060313
0.037927
-0.018974
0.063073
-0.026612
-0.064666
0.052436
0.014074
0.002072
-0.064039
0.017456
-0.021442
0.036518
-0.052441
-0.017459
0.019882
-0.060090
-0.031210
-0.010141
-0.003515
-0.033684
0.004238
0.011938
-0.075728
-0.061859
-0.005232
-0.078702
0.048267
-0.018148
-0.032323
0.023076
-0.012056
-0.005750
0.072705
-0.007490
-0.050607
0.053160
0.029529
-0.073749
-0.024024
0.013853
-0.042396
-0.021881
-0.009514
0.007539
-0.060449
0.030888
0.013919
-0.037653
0.030694
0.054775
0.069836
-0.035810
-0.019246
-0.013926
0.009932
0.040246
-0.051986
-0.062278
-0.042567
0.058567
0.034686
0.024728
-0.017857
-0.077530
0.038863
0.034169
0.043528
0.032875
0.063353
0.060441
0.044544
0.067082
0.080589
0.042694
0.022139
0.034418
-0.050017
0.047931
0.001303
-0.045473
-0.003627
0.008034
-0.038899
0.021112
0.082143
-0.068295
-0.048968
-0.004391
0.025688
-0.024978
0.024322
-0.049456
0.049836
-0.030257
-0.056632
-0.050538
0.019052
0.000425
-0.017592
-0.018601
-0.017654
0.054485
0.014455
0.045063
0.044448
0.075343
0.050052
-0.019230
-0.079457
-0.038145
0.002389
-0.003443
-0.051670
0.056607
-0.073007
0.033216
-0.066703
0.006413
-0.019708
0.041717
0.012299
0.064576
-0.048825
-0.041470
0.006626
0.074724
0.005448
0.001208
-0.032614
0.036677
-0.017578
-0.053644
0.017500
-0.077359
0.040670
0.045001
-0.058730
0.028329
0.008202
-0.026522
0.036269
-0.079024
0.016764
-0.010603
-0.009161
0.012998
0.074913
0.042109
-0.055730
-0.063221
-0.062243
0.054294
-0.045229
0.002094
0.052625
-0.022103
-0.043043
-0.021185
0.081650
-0.012386
-0.020696
-0.021781
-0.011632
0.077547
0.051378
-0.018194
-0.054860
0.060622
0.075107
0.003885
-0.017984
-0.037769
0.038311
-0.053170
0.065382
0.053851
-0.080870
-0.034360
0.081987
-0.025212
0.008673
0.060213
0.071674
-0.021555
0.068377
0.053184
-0.051068
0.081521
-0.065916
-0.054711
0.026808
-0.016343
0.061278
-0.080179
0.011521
-0.038185
-0.054322
0.080813
-0.044238
-0.045167
0.008703
-0.010504
-0.000223
-0.011905
-0.052711
0.049787
-0.027628
-0.078576
-0.011149
0.047161
0.057671
-0.051820
0.037725
-0.031081
0.068578
-0.005801
-0.055894
0.058304
-0.019666
0.070234
0.057616
-0.060349
-0.040573
0.006661
0.019379
0.011315
0.001750
-0.046276
-0.049871
-0.041870
-0.022633
-0.059356
0.046909
0.073981
-0.004633
-0.049763
0.078847
-0.071589
-0.081297
-0.021952
0.021697
0.070089
0.067029
-0.060307
0.031616
0.034042
-0.081222
0.061603
-0.040723
-0.038212
-0.029541
-0.071466
-0.029765
0.029563
-0.039366
0.040759
-0.066483
0.039002
-0.068571
-0.012576
0.017432
0.029765
0.013203
0.066979
0.003905
-0.080695
-0.063017
-0.031471
-0.036094
0.065988
-0.006976
-0.069528
-0.022021
-0.059593
0.034376
0.036270
0.031423
-0.020842
-0.012794
-0.080132
0.002492
0.061051
-0.033885
-0.041062
-0.064756
0.034918
-0.017682
-0.080202
0.069387
-0.029931
-0.063132
0.029024
-0.073723
-0.000308
0.072862
0.041368
-0.059441
0.000807
0.055721
0.071422
-0.078709
-0.032525
0.042724
0.016281
0.066108
0.070899
0.024921
0.080418
0.075137
0.076722
0.056629
-0.037101
-0.074757
-0.063810
0.045462
0.038421
-0.012761
-0.078094
-0.041497
-0.062684
-0.046541
0.027472
0.056775
-0.011783
0.003327
-0.071441
-0.016268
-0.061683
0.018122
0.081162
0.079578
0.053466
-0.035193
0.000266
-0.029024
0.009515
-0.026108
-0.010130
-0.004739
-0.051226
-0.018955
0.066209
0.001855
-0.024259
0.037006
0.058027
-0.032081
0.039094
-0.024476
0.061702
0.060156
-0.020897
0.056318
0.070320
-0.045478
-0.077011
-0.013484
0.005046
0.013979
-0.010556
0.027960
-0.022040
0.025997
0.056276
-0.011726
-0.048903
-0.022872
-0.044929
-0.075460
0.013341
0.059661
-0.060074
0.053689
-0.047786
-0.017653
0.033409
0.073363
-0.019079
0.071927
-0.043176
-0.016869
-0.017978
0.041172
0.027046
-0.022985
-0.022320
-0.039572
-0.043197
-0.067374
-0.020403
-0.013785
-0.062927
-0.039839
0.000982
0.008380
-0.017697
0.021323
0.026340
0.025266
-0.000900
-0.079701
-0.076456
-0.019793
-0.057838
-0.009000
-0.027064
0.010432
-0.079143
-0.027265
0.035357
-0.013267
0.002639
0.059269
0.048154
0.055596
0.018240
-0.014480
0.031718
0.073590
0.033371
0.003411
-0.063703
0.067252
-0.050368
-0.018252
0.016402
0.043704
0.022341
-0.066820
-0.020294
-0.058880
-0.016316
-0.062944
-0.002946
-0.078370
-0.000681
0.050793
-0.040066
0.035700
0.009181
0.023950
-0.075635
0.080138
0.054397
-0.021787
0.000480
-0.040950
0.064826
-0.007749
-0.026729
0.078170
-0.021451
0.008724
-0.002931
-0.035447
0.074357
-0.072851
0.040737
-0.052623
0.020441
0.040124
0.036736
0.046786
0.029361
0.056666
0.074776
-0.004125
0.020990
-0.040996
0.071377
0.051976
0.057805
-0.015005
0.081161
-0.054760
-0.002244
0.050837
-0.005109
-0.059998
-0.013327
-0.065492
0.012260
-0.053417
-0.056775
0.011288
-0.005019
-0.060110
0.021692
0.073843
-0.003577
0.020128
0.018695
-0.041709
0.030490
-0.057699
-0.075829
0.003650
0.004783
-0.047423
-0.023554
-0.072964
-0.080338
0.000218
-0.057219
0.064340
-0.036917
-0.069711
