0.016372
-0.045261
-0.062164
-0.004596
-0.071254
-0.083470
0.044939
-0.053291
-0.003643
0.058210
-0.019265
-0.041997
-0.066363
-0.066812
-0.070704
0.042487
-0.060089
-0.004119
0.084067
0.007068
0.039261
-0.007580
-0.028674
-0.080840
-0.068436
0.018824
0.020024
-0.033484
0.050820
0.037170
-0.035085
0.052549
-0.037773
0.077775
0.057391
-0.073434
0.059100
-0.082692
0.029348
0.077195
0.085056
0.009215
-0.056818
-0.041806
-0.057092
0.034142
0.012372
-0.043708
0.049831
0.074451
-0.054102
-0.068336
-0.035808
0.056113
0.023771
0.021751
0.082991
0.051027
0.031261
0.057917
0.076626
0.042618
-0.010648
0.048799
0.067193
0.070593
-0.073846
0.037947
0.058255
0.070097
0.068694
0.047079
-0.080031
-0.075362
-0.031207
0.062581
-0.054654
0.006156
0.002888
0.051307
-0.052972
-0.007934
-0.012975
-0.063404
0.022485
0.054111
-0.013653
-0.080727
0.034464
-0.031932
0.034771
0.041669
-0.071246
-0.050248
0.047174
-0.084011
-0.048500
0.055170
-0.013968
0.073928
0.012824
-0.050678
-0.084501
0.057267
0.042350
-0.004271
-0.006711
0.034961
0.081729
-0.075888
-0.033078
-0.030636
-0.031049
0.002889
0.014632
-0.060734
0.005234
-0.011220
-0.033585
-0.067137
0.083581
0.046172
-0.042602
0.034375
-0.085655
0.029952
-0.079265
-0.076397
0.008972
-0.070913
0.084067
0.061737
0.071885
0.065644
-0.009403
-0.057724
-0.033275
0.071175
-0.055360
0.036603
-0.072349
0.079609
-0.012765
0.041008
-0.056655
-0.030976
0.041350
0.023975
0.082243
0.085082
-0.044678
-0.031606
-0.064963
-0.042168
-0.003107
-0.056471
-0.010409
-0.003517
-0.079078
0.008153
-0.035979
0.036213
0.057252
-0.083122
-0.056863
-0.007621
0.023242
-0.041603
-0.045720
-0.055541
-0.059464
-0.031088
0.075358
-0.068121
0.040226
-0.037614
-0.043586
0.018707
0.071572
0.015965
-0.061190
0.067289
-0.015570
0.049079
0.032707
0.013328
-0.084411
0.045261
0.065318
-0.011467
0.002378
0.079036
-0.000911
0.061445
0.074177
0.029079
0.046795
-0.066426
-0.044305
0.019124
-0.032110
0.035797
-0.080707
0.013123
0.028583
-0.026057
0.025722
-0.079368
-0.022493
-0.042698
0.081021
-0.017792
0.062978
0.064932
0.084774
-0.041027
0.018286
0.017944
0.050202
-0.076145
-0.067311
0.080781
-0.079405
-0.085423
0.039537
-0.047538
-0.010982
-0.057803
0.023927
-0.078326
-0.036878
0.085659
-0.084666
0.066303
0.010721
0.009787
0.079079
0.043887
-0.084463
0.045034
0.042995
-0.041936
0.050638
0.032716
-0.018027
-0.027067
0.030890
-0.049688
0.077769
-0.063688
0.046064
-0.007665
0.030359
-0.021568
0.012949
0.004887
0.032658
0.052781
-0.041763
0.052042
-0.079532
-0.047080
0.074665
0.019297
-0.067746
0.077910
-0.078251
0.053369
-0.055799
0.064163
0.059453
0.075744
0.076459
0.057215
-0.006810
-0.038099
-0.023773
-0.077241
-0.060189
-0.041851
0.081690
0.025729
0.005561
-0.011682
0.064398
0.063972
0.002197
0.072526
-0.066410
0.014440
-0.000638
0.063252
0.065376
0.068653
-0.005265
-0.039942
0.030762
0.042785
-0.079594
-0.063107
-0.042922
0.018523
-0.042747
0.046782
0.019582
0.026566
0.074983
0.050884
0.054974
0.011379
0.077037
-0.066829
-0.049372
-0.000997
-0.037007
0.023102
-0.003326
-0.053463
-0.025360
0.075030
-0.085694
-0.081112
-0.019004
-0.006994
-0.062378
-0.022254
0.050061
-0.078461
0.024667
-0.083815
0.027773
-0.007211
-0.017506
-0.079884
-0.027832
0.081079
-0.058182
-0.064962
-0.064445
0.011088
0.028059
0.002247
0.084168
-0.000196
-0.003201
-0.038487
-0.025707
-0.083322
0.022619
0.043163
0.023678
-0.011912
-0.058944
-0.046269
-0.055459
0.008075
0.000430
-0.015105
0.032525
0.017164
-0.081307
0.080456
0.045062
-0.038242
-0.074352
0.009252
-0.060440
0.033881
0.067641
0.000155
0.082964
-0.047841
0.028197
-0.011813
-0.071037
0.043251
-0.080783
0.028785
0.003018
0.014261
-0.000021
-0.004597
0.025711
0.079963
0.078269
-0.002774
-0.059959
0.015544
0.005691
0.057248
0.041888
0.041245
0.067442
0.018521
-0.006623
0.077534
0.069026
-0.058356
0.043483
0.071029
0.023523
0.002153
0.065739
-0.006348
0.053073
0.004955
0.044944
0.074476
-0.017864
-0.077496
0.011182
0.048819
-0.047121
0.023030
0.000003
-0.073233
0.039493
-0.032119
0.040786
-0.078482
-0.052061
0.003448
-0.034332
-0.036181
0.029699
-0.049535
0.028167
0.000165
-0.081706
-0.024723
-0.014852
0.038680
0.071740
-0.042485
0.070028
-0.065646
-0.053177
0.072837
-0.040445
0.041504
-0.014506
0.018618
-0.082660
-0.032320
0.043063
0.073127
-0.026270
-0.011330
0.034456
0.007740
-0.080229
0.050566
0.025538
0.065974
0.030948
0.080593
-0.068839
-0.015161
0.005994
-0.021095
0.051695
-0.043834
0.058134
0.084653
-0.070070
0.002210
0.045015
-0.054511
0.040504
-0.069008
0.028005
-0.033733
0.030417
0.075793
0.058787
-0.012970
-0.083822
0.050618
-0.062570
0.080260
-0.072991
0.036556
0.047006
0.066906
-0.025756
-0.067889
0.015711
-0.027104
0.039486
0.016066
0.017978
-0.054910
-0.002486
-0.055358
0.066854
0.048054
-0.058709
-0.018059
0.023951
0.054787
-0.071437
-0.012577
-0.045130
-0.069944
-0.017630
0.052896
0.015916
-0.040005
-0.079912
-0.024433
-0.003946
-0.012526
-0.027295
-0.039923
0.002152
0.077527
0.018725
0.052883
0.041409
0.074632
-0.055822
0.075334
-0.042572
-0.049328
-0.008621
0.039711
0.027452
-0.039823
-0.062092
-0.005678
0.064851
-0.065440
-0.050255
-0.080385
-0.017936
-0.066479
-0.000207
0.050585
0.059012
0.071865
-0.078956
-0.015578
-0.010223
0.021459
-0.016030
0.085468
0.042362
-0.026336
-0.014740
0.072928
-0.075594
-0.050197
0.060608
0.080115
0.065107
-0.010801
-0.058292
0.069644
-0.045680
-0.040623
0.012206
0.027425
0.004393
-0.048390
0.049292
0.009058
0.062175
0.025544
-0.039949
0.009471
0.036976
0.062323
0.062993
-0.063991
-0.009757
0.079801
-0.009779
0.077251
0.037249
-0.036298
0.064673
-0.016846
0.042697
0.036093
0.009389
-0.035434
0.034843
0.031903
0.011551
0.048697
-0.039205
0.023468
-0.016934
-0.055158
-0.080423
-0.002940
0.082530
-0.005065
-0.032198
0.047028
-0.030767
0.012968
-0.023448
0.053530
0.075727
0.001647
-0.073437
0.022032
0.069560
0.018089
-0.015331
0.020281
0.068861
0.061145
-0.024115
0.037506
-0.057607
-0.041088
-0.022528
0.001520
0.025823
0.021726
-0.018647
-0.014774
-0.013562
0.063693
0.009887
-0.071723
0.044270
0.049659
-0.010294
0.033691
-0.017493
-0.001570
0.006186
-0.079395
-0.059081
-0.004782
0.008929
-0.038399
0.082652
0.039157
0.065370
-0.050355
0.043770
0.014830
-0.047035
-0.056822
-0.034869
0.033434
-0.000011
-0.052399
-0.042244
-0.021501
-0.002256
-0.052036
0.074023
-0.025976
0.011588
0.006217
0.053349
-0.070408
0.014314
0.037211
-0.062534
-0.041521
0.065060
-0.040717
-0.056941
0.030655
-0.036328
-0.010573
0.084565
-0.008379
0.027584
-0.033338
-0.076759
0.029368
0.040642
0.014145
0.011870
-0.020700
-0.000678
0.047626
0.031951
-0.036586
-0.022085
-0.014109
-0.013317
-0.065895
-0.073146
0.055476
-0.058581
-0.024363
-0.055598
0.003453
-0.074720
-0.038823
-0.078934
-0.005759
0.083070
0.020862
0.005180
-0.022324
0.038865
0.009494
-0.017970
0.069366
-0.002119
0.040976
-0.023278
-0.005560
0.085740
-0.003237
0.001060
-0.043460
0.077719
-0.033591
0.055421
0.003079
-0.080915
-0.059372
0.045651
0.029321
0.084545
0.029200
0.029252
-0.051100
-0.042543
-0.005138
0.048502
-0.058457
0.014931
0.017490
-0.039968
0.070313
0.031029
0.058167
-0.037180
0.078167
0.021730
0.018822
-0.061459
-0.037075
-0.029020
-0.065250
0.069230
0.018558
-0.039285
-0.000320
0.057476
-0.007090
0.049016
-0.082214
0.006093
0.054041
-0.074722
-0.032453
0.085584
0.031628
-0.025836
0.047255
-0.037322
-0.065430
-0.068950
-0.019968
-0.055126
0.036623
-0.004294
-0.068410
-0.081846
-0.007088
0.011733
-0.038118
0.051775
0.027843
0.027466
0.061262
-0.083932
-0.006453
0.049846
0.067361
-0.076480
-0.010172
0.026696
0.072929
0.081163
0.060048
-0.024582
0.080714
-0.062598
0.072857
0.054841
-0.046059
0.024267
0.043015
-0.005260
0.026658
-0.072934
0.018506
0.056571
-0.031876
0.034964
-0.007556
0.034334
0.034644
0.052638
-0.058569
0.084565
0.081171
-0.069759
0.018453
0.008640
0.024076
0.062600
0.035983
-0.018308
0.006613
0.041392
-0.051354
-0.038013
0.057586
0.071525
0.030496
0.024255
0.057998
0.041641
0.019613
-0.053936
0.015666
-0.036948
0.025201
0.083528
-0.008406
0.023844
-0.046883
-0.072822
-0.061293
-0.078237
0.001864
0.008528
-0.022920
0.079784
-0.082077
-0.082610
0.007754
0.008950
-0.008366
-0.019422
0.084904
-0.008513
-0.063623
-0.013647
0.012165
-0.056151
0.037963
-0.045414
0.037421
-0.084892
-0.027105
0.034829
-0.027129
0.036743
-0.033200
0.062265
0.056286
-0.066294
-0.054176
0.017931
0.043179
0.075369
0.048063
0.034952
-0.057411
0.019374
-0.033439
-0.056293
-0.017231
0.041057
0.034701
-0.069960
-0.085006
0.001020
0.058153
0.056844
-0.014091
-0.029690
0.000159
0.012852
-0.081616
0.063092
-0.063031
-0.084685
-0.084644
-0.014638
-0.080697
0.060782
-0.024672
0.053387
0.039199
0.047001
0.028992
-0.018151
0.041240
-0.026806
0.041429
0.035596
-0.006049
0.042164
-0.066274
0.081324
0.007169
-0.024753
0.077475
0.063867
-0.026012
-0.005276
-0.085063
-0.002501
-0.009818
-0.074838
0.077720
0.028196
-0.022239
0.022253
0.048341
-0.010064
0.024802
0.056522
-0.060915
-0.013947
-0.051934
-0.038457
0.020418
-0.036865
0.014972
-0.025063
0.001350
0.064547
-0.020834
0.082155
-0.069168
-0.049496
-0.014762
0.079582
0.011437
0.016421
-0.031016
-0.070046
0.024065
-0.042903
0.079666
-0.010668
-0.070114
-0.047183
-0.055737
0.011920
-0.025614
-0.051697
-0.057054
-0.041744
0.016667
0.037012
-0.081141
0.047907
-0.047465
-0.049349
0.007398
-0.026479
0.077545
-0.012516
0.002925
0.069138
-0.037511
0.022170
-0.063310
-0.057575
-0.030168
-0.027408
0.006990
0.029844
-0.018921
-0.081398
0.042479
-0.045096
0.047525
-0.067883
0.041580
0.029866
0.039686
-0.023948
0.080181
0.030238
0.010778
-0.004711
0.003182
0.073624
-0.058597
-0.010448
0.052999
-0.013995
-0.015162
0.032203
0.048321
-0.029677
0.032607
0.017718
-0.000054
-0.078717
-0.045147
0.017792
-0.059612
0.023552
-0.027714
-0.007118
-0.074113
0.062926
-0.043976
-0.012763
0.047170
-0.036888
-0.045812
0.062345
0.077128
-0.050187
0.006662
0.045928
0.053601
-0.001005
-0.036475
0.075013
-0.065421
-0.070397
-0.057792
0.050996
-0.044890
-0.052216
0.027949
0.003797
-0.003919
0.031668
-0.066927
0.076920
0.079441
0.056799
0.018579
0.026694
-0.057517
-0.049339
-0.027990
-0.004771
-0.036708
-0.079909
0.074390
-0.055919
0.045513
-0.052121
0.027120
0.076911
0.056460
-0.021989
-0.053450
0.039425
0.078390
0.008913
-0.028170
0.045877
0.025072
0.008051
0.023836
-0.081351
-0.015856
0.014195
-0.027270
-0.029368
0.021349
0.042677
0.010590
-0.006261
-0.050773
-0.016859
0.058456
0.049774
0.040781
-0.068761
-0.080922
0.043126
-0.047068
0.026435
0.043514
-0.049125
0.035544
-0.072873
-0.005517
-0.082228
0.005402
-0.049920
-0.011159
-0.031682
-0.081951
0.054621
0.033398
0.081292
-0.052397
0.033489
-0.041480
0.058658
0.079823
-0.070505
0.029433
0.014329
0.083311
-0.049519
0.022678
-0.075210
-0.062545
0.061152
-0.067889
0.078725
0.074546
-0.026853
0.040096
-0.043962
0.009373
0.078334
0.014074
-0.057602
0.036376
0.013640
-0.035090
-0.057984
0.047595
-0.056724
-0.071090
-0.054227
-0.030370
-0.075743
-0.048738
-0.052349
-0.068266
0.076726
-0.074684
0.013613
0.084545
-0.068804
-0.015842
0.072206
0.011569
0.080404
0.013395
-0.043021
-0.056150
0.075925
0.041773
0.004479
0.082433
-0.058664
-0.080945
-0.047474
0.081782
0.006064
0.082070
-0.032023
-0.054888
-0.085319
0.061256
-0.070709
-0.030250
-0.065353
-0.038879
0.035162
0.084554
-0.079237
-0.027023
0.051922
0.045858
0.070632
0.081375
-0.047739
-0.005996
-0.063020
0.067322
0.057011
0.030384
0.040964
0.040644
0.072472
-0.031089
-0.067965
-0.060688
0.065717
-0.038934
-0.051739
-0.013460
0.071607
0.053180
-0.001033
0.071896
0.037634
-0.037556
-0.079241
0.020699
0.020872
0.056260
-0.085343
-0.043262
0.002853
0.066851
-0.028822
0.078747
0.011947
-0.047510
0.072285
-0.035399
-0.051699
0.017618
-0.005731
-0.058258
-0.063187
-0.013036
0.033687
0.023821
-0.019348
-0.029467
0.013469
0.039039
-0.075963
0.022821
0.012499
0.052361
0.083953
0.007101
0.069112
0.063860
0.026838
0.057536
-0.022666
0.026173
0.000502
0.041249
0.060040
0.084759
0.079939
-0.000170
0.025837
-0.004843
0.085206
-0.015157
0.022573
-0.076535
-0.009111
-0.026443
0.054271
0.026756
0.062005
0.016542
-0.062973
0.005748
0.004767
0.047960
-0.040082
0.015351
-0.030177
-0.008033
0.057058
-0.081411
-0.049411
-0.075049
0.073324
0.046775
0.009563
0.022004
-0.007870
-0.024235
0.029549
0.034827
-0.074115
-0.023361
0.049989
0.071364
0.035755
-0.046886
-0.072707
0.025207
-0.042507
0.079888
-0.027783
-0.066696
-0.044973
-0.067759
-0.016716
0.046737
0.079739
0.068758
-0.067466
0.047894
0.018433
-0.067063
0.053841
-0.014174
-0.077136
-0.063579
0.018929
0.049930
0.018545
-0.039112
-0.049557
-0.063884
-0.075285
0.027724
0.072068
0.051453
0.021359
0.046072
0.061647
-0.043845
0.047426
0.042163
0.024137
0.043259
0.040820
0.019099
0.005872
0.054692
0.071271
-0.018577
-0.022568
0.067931
0.017960
0.051537
-0.067831
0.060271
-0.001625
0.008960
-0.077417
0.029471
-0.042592
0.076495
0.080844
0.041067
0.039652
-0.012204
-0.050266
-0.017251
0.047983
-0.076265
0.012282
0.021917
0.054811
0.031621
0.023782
0.027653
-0.027182
0.075023
-0.022992
-0.023811
-0.074896
0.078129
0.052060
-0.023164
-0.037601
0.017221
-0.077546
0.009512
-0.021572
-0.018508
-0.004743
-0.081208
-0.022188
-0.029567
-0.020139
-0.036499
-0.018965
0.056725
-0.001505
0.028093
-0.036995
-0.070220
-0.068547
0.047200
-0.039877
0.011501
0.051993
0.074901
0.033065
0.024756
0.001197
0.014825
0.066704
-0.057791
0.081201
0.023852
0.048803
0.020831
-0.008879
0.067664
0.019801
-0.049890
0.085882
-0.058073
-0.063222
-0.012960
0.060423
-0.079249
-0.021452
-0.023531
0.039341
-0.008555
0.000749
-0.061829
0.048919
0.030076
0.035791
-0.082523
0.012947
0.004790
0.038663
-0.011917
0.049952
-0.078905
-0.011823
-0.073938
0.065313
0.072528
-0.051118
-0.025877
0.044784
-0.026611
0.066671
-0.025138
-0.074383
-0.013075
-0.036223
0.074141
0.034077
-0.033776
0.027871
-0.005096
-0.080665
-0.037624
0.014201
-0.042552
-0.061704
-0.085096
0.069525
0.029648
0.004298
0.036998
0.015470
-0.045512
-0.056933
-0.024965
0.083648
-0.064852
-0.054870
0.056045
0.010891
-0.075150
0.035448
0.001053
-0.042900
-0.027224
-0.037993
-0.025924
0.075274
0.038754
0.034493
0.059959
-0.026669
-0.021423
0.064723
0.082179
-0.044263
-0.018482
-0.063951
-0.054000
-0.017454
0.042715
-0.011747
0.010311
0.071535
0.043809
0.028916
-0.019754
-0.048764
-0.010001
-0.005242
-0.077182
-0.050875
0.024794
-0.084583
0.085720
0.029154
0.031722
-0.050411
0.062725
-0.061527
-0.081194
0.026785
-0.007505
0.037375
-0.044762
-0.048614
-0.069707
0.076679
-0.071586
0.067508
-0.024136
-0.017444
0.081238
0.072724
-0.000631
0.009836
-0.084883
0.069039
-0.059583
0.024116
-0.085672
-0.061077
-0.053105
-0.022591
-0.084671
-0.061235
-0.057350
0.047922
0.048903
-0.028248
-0.014850
0.063595
-0.025331
-0.082810
-0.035609
0.076644
0.017134
0.049080
0.063744
-0.060786
0.021760
-0.058394
0.054791
-0.005638
0.039425
0.058261
-0.065150
-0.022661
0.019036
-0.064845
-0.016350
0.028998
0.050393
-0.078876
0.018821
-0.042988
0.026646
-0.052335
0.018399
0.030207
0.045047
-0.034911
-0.030381
-0.030204
-0.015037
-0.055965
-0.059666
0.053798
-0.065934
0.048767
0.085918
-0.019035
0.000870
-0.031670
0.048193
-0.072766
-0.079435
0.075620
-0.051672
0.030110
0.051959
0.031067
0.013923
-0.043134
-0.064360
-0.003062
0.012622
-0.041233
-0.020009
0.071322
0.020834
-0.027206
-0.001769
-0.039587
0.072927
-0.073182
0.019799
0.015336
-0.019547
0.027702
-0.030551
-0.052139
-0.016868
0.043419
0.007431
0.024055
0.025916
0.061958
0.057910
0.033499
-0.007462
-0.045044
-0.076874
0.037386
0.085595
0.052311
0.079042
0.073587
0.060670
-0.072748
-0.067114
-0.005745
-0.075614
-0.084897
0.040974
0.019172
-0.045081
-0.018771
0.071947
-0.039180
-0.071540
0.016001
-0.036101
0.024432
0.059356
0.002634
-0.002145
0.022201
-0.033175
0.057159
-0.049670
-0.024901
-0.085313
0.004555
-0.011036
0.050580
0.076386
-0.076295
-0.039990
-0.006841
0.046266
0.069895
-0.064874
-0.061197
-0.017860
-0.043219
0.024475
0.032790
-0.066819
0.066956
0.047553
-0.014436
-0.005598
0.052708
-0.046405
-0.047592
0.009149
-0.059657
-0.057591
0.037402
0.015799
0.002614
0.006024
-0.078988
0.069485
0.007437
0.003387
0.062725
0.035217
-0.028508
0.045759
-0.055875
0.017924
-0.070878
0.022354
0.006504
0.072196
0.006270
-0.027147
-0.044209
-0.055216
0.058323
-0.050997
-0.026106
-0.018067
-0.072430
0.085516
-0.062846
-0.073556
-0.083522
0.050014
-0.000033
-0.030023
-0.064004
0.070604
0.057267
-0.031268
-0.009261
0.052579
-0.007080
-0.083438
-0.043586
-0.053311
-0.009840
-0.049975
0.054228
-0.077708
0.059289
-0.063649
0.080039
0.054547
-0.025670
0.085267
-0.078971
-0.009844
-0.063710
0.005355
-0.072405
-0.043868
-0.018281
-0.001133
0.077735
0.057040
-0.019637
-0.062044
0.084260
0.034860
0.012616
-0.003228
0.027064
-0.056452
0.042012
0.047673
-0.007525
0.029307
0.037988
-0.012883
-0.072696
-0.016409
0.027775
0.017480
-0.054196
-0.077552
0.069989
0.039570
-0.083649
-0.036065
-0.042810
0.068286
0.060349
-0.065309
0.057362
0.083332
-0.083175
0.024443
0.056022
0.023692
-0.029539
-0.056011
0.079806
0.005242
-0.017072
0.011458
-0.054416
0.035341
-0.061318
-0.073064
0.007412
0.063168
-0.056207
0.001160
0.045233
-0.006688
-0.034780
0.014284
0.035768
-0.064298
-0.050014
-0.035962
-0.012766
-0.055040
-0.041381
-0.048545
0.051581
-0.023982
0.056915
-0.018699
0.080251
-0.037560
0.066422
0.028936
-0.040629
-0.004030
0.020014
-0.069736
-0.008733
-0.048298
-0.023322
0.045387
-0.020226
0.081210
-0.055081
-0.007692
0.062315
0.081455
-0.007436
0.020090
0.074658
-0.036095
0.022778
0.073699
0.074696
-0.026502
0.056061
0.061925
0.007419
-0.080473
-0.015593
0.024371
0.026192
0.033327
0.000016
0.069581
-0.009359
0.061416
-0.031763
-0.057387
0.015254
-0.018995
-0.054613
-0.067197
0.068932
0.009047
-0.024065
0.016140
-0.028819
-0.052129
-0.054795
-0.066542
0.041871
-0.054631
-0.020037
-0.046965
-0.062272
-0.059154
0.015453
-0.019989
0.008932
0.069342
0.083881
-0.055601
0.039744
0.051720
0.078266
-0.049849
0.083834
0.000159
-0.051367
-0.037242
0.019372
-0.075699
0.034909
-0.084067
-0.066148
0.056040
-0.068252
0.044248
0.039797
0.010990
-0.042542
0.010096
0.021686
-0.079654
-0.027998
-0.041273
0.038175
0.048002
0.000746
0.012955
0.034588
0.065444
0.062819
-0.001860
0.051339
-0.050156
0.078502
-0.001135
0.085390
0.054341
0.059842
0.011605
0.042582
0.040543
0.036382
0.053961
0.081507
-0.025077
0.038222
0.071475
0.077081
0.032968
-0.058283
0.082626
0.078801
0.050048
-0.019110
-0.004266
-0.068807
-0.047231
0.034168
-0.015294
-0.011802
0.036889
0.011837
0.077935
0.073346
0.048903
0.000320
0.019360
-0.079985
-0.073095
-0.061053
0.083807
0.052267
-0.027991
-0.077657
0.029579
0.066375
0.067855
-0.031800
-0.042470
0.062127
0.083770
0.071631
0.002620
0.082917
-0.023867
-0.073577
-0.078277
-0.082650
0.041443
-0.031398
-0.078422
-0.034655
0.031177
-0.011181
0.025003
0.024521
0.013250
0.074727
-0.013655
-0.007098
-0.077149
-0.036252
0.055544
-0.011309
0.056033
-0.046484
-0.042447
-0.070551
-0.012450
0.018710
-0.034773
-0.035668
0.007059
-0.027636
0.085128
0.001947
0.039150
-0.006213
-0.053830
0.004760
0.045789
-0.071300
0.084867
-0.057232
0.031652
0.014815
0.059621
-0.001196
-0.078014
-0.026443
0.031640
0.018775
-0.006799
0.028109
-0.060754
0.023404
-0.056389
-0.029035
0.063188
0.072028
-0.036372
0.058079
-0.019346
-0.002313
-0.037719
0.014679
0.036770
-0.038986
-0.043027
0.081971
0.046091
-0.079203
0.045318
0.021900
-0.054222
-0.019596
-0.052595
0.024637
0.081280
0.065222
-0.082300
-0.029137
0.000168
-0.018017
0.006592
-0.045374
-0.043904
0.081718
-0.064521
0.021781
-0.026670
0.049468
-0.048022
0.000257
0.082555
0.041495
0.076660
-0.084977
0.021673
-0.036358
-0.077852
0.028851
0.051533
0.056304
-0.023466
0.023067
0.055133
0.070160
-0.050283
-0.033520
0.057555
0.019390
-0.037843
0.004297
-0.009455
0.026345
-0.083033
-0.064771
-0.072662
0.038947
0.047798
0.039547
-0.013027
0.063832
-0.085072
0.057968
-0.052294
0.079230
-0.035099
-0.024411
0.037609
-0.012944
0.051856
0.082984
0.025441
0.035514
0.007057
0.032932
0.024202
0.083524
-0.001862
-0.011903
-0.024600
0.066336
-0.023969
-0.021546
0.024356
-0.024590
0.084518
0.033811
-0.065350
0.018353
-0.005194
0.023845
-0.002856
-0.079375
-0.015015
-0.054209
0.001770
-0.038788
0.042857
-0.067878
-0.020154
0.063157
-0.045380
0.025522
0.084951
-0.018486
-0.040448
-0.043761
0.050280
-0.083000
0.076219
-0.015018
-0.035299
-0.082130
-0.042106
0.048431
-0.020857
0.037651
-0.058150
-0.044509
-0.048677
0.060554
-0.057500
0.046820
0.040609
0.000073
0.066441
-0.042696
-0.017653
-0.029385
0.050090
-0.061091
0.044982
-0.049330
0.069480
-0.069682
-0.025420
-0.011776
-0.063884
-0.013550
-0.050313
-0.018870
-0.023713
0.054935
-0.004732
0.017312
-0.021515
-0.083561
-0.079917
-0.033419
0.050782
-0.084200
0.085044
0.070749
-0.027238
-0.031805
-0.039269
0.075467
-0.040270
0.048326
-0.062162
0.080144
0.063007
0.026743
0.041132
-0.047154
-0.075933
0.021623
-0.061093
-0.053141
-0.076330
-0.069297
0.019256
-0.061703
0.026962
0.064827
-0.002438
0.056740
-0.006621
0.075939
0.062309
-0.004455
0.059001
0.036781
0.043723
-0.044170
-0.013289
-0.058869
0.028847
-0.080225
-0.023790
-0.019281
-0.027333
-0.071611
-0.021065
0.064750
0.070973
-0.085527
-0.033211
-0.005679
-0.057198
0.058900
0.034671
-0.026325
-0.051929
0.023859
-0.027638
-0.010311
0.007943
0.085344
0.034272
0.004273
-0.017486
0.071771
0.045347
0.079617
-0.007385
0.034007
-0.050794
-0.055587
0.075944
0.070756
0.046245
0.037697
-0.040271
-0.014062
0.061400
0.030158
0.080603
-0.052552
0.003267
-0.040825
-0.002051
0.048070
-0.024717
0.010314
0.060513
-0.019718
-0.026784
-0.004119
-0.018265
0.007907
-0.061051
-0.084887
0.008524
-0.056146
0.027451
0.010352
-0.000994
-0.033628
-0.057579
-0.008792
-0.066919
0.000769
0.011194
0.083502
0.075430
0.016616
0.023625
-0.045900
-0.037637
-0.081233
0.047373
-0.076269
0.018942
-0.084434
-0.014763
0.051677
-0.014377
0.060320
-0.001632
-0.025475
0.077662
0.079141
0.015644
0.060917
0.069960
-0.074308
-0.015277
0.079563
-0.024953
0.044651
0.012014
0.074875
0.070747
0.033192
0.073969
0.048909
-0.022800
-0.061267
0.010665
0.065188
0.079514
0.039448
-0.078124
0.005925
0.077728
-0.060780
0.072086
0.031917
-0.079597
0.056600
0.064292
-0.010926
-0.003142
-0.027139
0.069282
0.056726
-0.069844
-0.081792
0.073186
0.075072
0.033637
-0.012606
0.062248
-0.000763
0.058463
0.018608
-0.023389
0.008638
-0.034937
-0.034642
-0.067425
0.018499
0.045828
0.008994
0.045529
-0.040827
0.056604
0.043217
0.062425
0.060083
-0.015734
0.041122
0.014690
-0.013410
-0.026454
-0.040291
-0.063980
0.069054
-0.035913
-0.065583
-0.081569
-0.026792
0.015403
-0.017857
0.067149
-0.004118
0.017472
0.056452
-0.008483
-0.073249
-0.045431
-0.023801
-0.025500
-0.059006
0.058615
-0.062619
-0.038369
-0.061104
0.074484
0.052904
-0.075772
0.075685
-0.067242
0.077250
0.021527
-0.045527
-0.060722
0.055190
-0.073157
0.011040
0.051964
-0.058956
0.083067
-0.044696
0.018603
-0.037970
-0.072516
0.038309
0.006330
0.002822
-0.004734
-0.026499
0.016717
-0.014424
0.077461
-0.039535
0.034731
-0.008119
0.011078
0.046593
0.038497
-0.001791
0.035764
-0.078057
0.049633
0.077699
0.085982
0.052518
-0.061197
0.076017
-0.015011
-0.062510
-0.013232
-0.064355
0.083267
-0.019420
-0.008840
0.045354
0.044117
-0.030708
-0.036648
-0.023531
0.034473
0.053993
-0.018594
0.074175
0.060302
0.034414
0.009665
0.079941
-0.027182
-0.013375
-0.047158
-0.049113
0.010283
-0.072202
0.062804
0.076474
-0.052406
-0.065926
-0.063469
0.039987
0.059610
-0.008183
-0.036257
0.004809
0.058069
0.012664
0.065316
-0.078974
0.081534
0.056637
0.012023
0.058779
0.054105
-0.041058
0.057413
-0.014618
-0.078651
0.001668
-0.034369
-0.038809
-0.070145
-0.058204
0.047216
0.079619
0.065433
-0.051416
-0.071162
0.018007
-0.012246
-0.050763
0.083340
-0.037261
0.074517
-0.002840
0.050489
0.072989
0.034098
0.060735
0.073780
0.015570
0.054730
0.053665
0.078362
-0.076354
-0.009068
-0.032860
0.029465
0.030233
0.004286
-0.017244
-0.048219
-0.076732
0.019074
-0.036315
-0.079353
-0.044507
-0.018244
0.069018
-0.058143
0.039873
0.072363
-0.042570
-0.033995
0.037702
0.034687
-0.059648
-0.054467
0.003762
-0.071555
0.084235
-0.054454
0.075137
0.042358
0.082471
0.039234
-0.038346
0.021984
-0.033039
0.080217
0.085187
-0.070788
0.050213
0.003309
0.000798
-0.060275
0.025133
0.077946
0.067703
-0.067574
-0.040749
0.057840
0.075840
0.016074
0.028719
-0.042461
-0.023894
-0.072896
0.082475
0.074758
-0.039744
-0.018633
-0.018533
-0.076194
0.039134
-0.002298
-0.006035
-0.073790
0.031790
-0.021931
-0.081912
0.045203
-0.001017
-0.080532
0.024112
-0.058603
0.008560
0.013784
0.002349
0.038497
-0.051289
-0.047391
0.054809
0.010744
-0.016243
0.082356
-0.030451
0.048519
-0.006242
0.026642
0.002014
0.005150
-0.062918
0.024993
0.040294
0.075682
0.032996
-0.021291
0.046985
0.025849
0.028274
-0.051396
0.013237
0.010441
0.014229
-0.027415
0.057621
-0.045760
-0.053764
0.082614
0.052393
0.000783
0.021905
0.083935
-0.025259
-0.033003
0.003635
0.020892
-0.022587
-0.058083
0.062048
0.053564
-0.028930
-0.042645
-0.000743
0.071523
0.021798
0.069772
-0.013027
-0.047672
0.079640
-0.059429
0.081697
0.026237
-0.014723
-0.024519
0.049261
0.074123
-0.021016
-0.073891
-0.032016
-0.070030
-0.044456
-0.036502
-0.008793
-0.012023
0.049808
0.079166
0.058112
-0.062491
0.028865
0.060275
0.038476
0.067429
-0.033413
0.035852
-0.071317
0.019616
-0.045304
-0.064445
-0.032955
-0.027478
-0.029719
-0.059082
-0.062029
-0.047191
0.065794
-0.027977
0.072402
0.027246
0.069506
-0.023947
0.069640
0.037011
0.040052
-0.004141
0.003408
0.054149
-0.052517
-0.060719
0.003414
0.012479
-0.037622
0.053134
0.046582
0.021438
0.071940
-0.021073
-0.001004
-0.072567
0.020585
-0.044035
-0.017734
-0.068045
-0.035618
-0.021580
-0.078294
-0.012014
-0.047426
0.041694
-0.023594
0.038273
0.019686
-0.064378
-0.016916
-0.072430
-0.069921
-0.029954
0.011907
0.008972
0.079656
0.022132
0.000989
0.005878
0.053323
-0.007582
-0.052387
0.036460
-0.045757
-0.046096
-0.046050
0.021284
0.037526
-0.073789
-0.023155
0.027845
0.078469
0.068537
0.047228
-0.010379
-0.084473
-0.035456
-0.019503
0.044064
-0.019610
-0.044307
0.075502
-0.026743
0.067731
0.018967
-0.073829
0.040839
-0.059552
-0.004870
0.039957
0.032644
0.023174
-0.005524
0.080962
0.083816
-0.060984
0.084099
0.023731
0.043482
0.081808
0.022300
-0.020342
0.026710
-0.073449
0.073870
0.060962
0.078524
0.042448
0.001320
0.022242
-0.000739
0.047857
-0.046006
0.077974
-0.001575
0.028645
-0.032754
0.043396
0.081524
-0.021410
-0.049220
0.005344
0.020296
0.007274
-0.084397
-0.058035
0.027326
0.063725
0.035068
-0.002334
0.031544
-0.065055
0.006512
-0.073232
0.014584
0.029993
0.012292
0.054906
-0.039626
0.008461
-0.035678
-0.059015
0.025188
0.008946
-0.046688
0.082181
-0.027114
-0.037275
0.050942
-0.026346
-0.022723
0.055902
0.065571
0.052870
-0.004290
0.031540
0.034464
-0.031971
-0.054157
-0.068034
-0.073043
-0.018045
0.045092
-0.055828
-0.082829
-0.070578
-0.013635
-0.044805
-0.015693
0.081525
0.042531
0.032278
0.064763
0.019209
0.070890
0.041908
-0.058672
-0.003647
-0.009152
-0.064806
0.026151
-0.071099
-0.052809
-0.027272
0.010903
-0.065901
-0.051619
0.059634
-0.046396
-0.033018
0.001447
-0.018018
-0.077988
-0.083325
-0.006890
-0.008134
-0.071531
0.025315
-0.077954
0.076369
0.061381
0.019994
-0.029030
-0.059492
0.069839
0.047359
-0.081966
-0.041348
0.065287
0.020193
0.041054
-0.083585
0.023314
-0.022019
0.023493
0.033476
-0.014323
0.014794
0.020307
0.057084
-0.071719
-0.018708
-0.035323
0.026511
0.060489
0.080242
-0.068856
0.037853
-0.042900
-0.000074
-0.063181
-0.069218
0.073432
-0.011963
0.025570
0.065331
0.020303
-0.036498
-0.031521
0.061609
-0.051348
-0.062310
-0.056498
0.024959
-0.035227
0.081800
-0.002178
-0.047945
-0.014752
-0.055640
0.066654
-0.011842
-0.044459
0.023829
0.027824
-0.037971
0.053092
-0.050443
0.021955
0.059800
0.004678
0.027545
-0.040658
0.049650
-0.024510
-0.038888
0.013864
-0.071143
-0.078067
0.074520
-0.005885
-0.053923
-0.068794
0.068099
0.051578
0.071683
0.039319
-0.070178
-0.049055
-0.027581
0.044707
0.083093
-0.023520
0.073995
0.068628
0.022283
-0.052758
-0.009621
-0.036557
-0.080499
-0.010417
0.004286
0.051194
0.015550
-0.060274
0.074871
-0.030118
-0.024264
0.065764
-0.033877
0.002983
-0.058444
-0.012548
0.061957
0.024181
-0.084945
-0.049935
0.067616
0.057682
0.003933
-0.043283
-0.011603
0.001622
0.025250
-0.020300
-0.074848
0.078729
-0.044759
0.038072
0.003282
0.064624
0.018326
0.058241
-0.005504
0.001515
0.051878
-0.036157
-0.013490
-0.010253
-0.000855
0.007754
0.045662
-0.020059
0.009883
0.078180
0.074542
-0.059404
-0.058218
0.067419
-0.041457
0.061267
0.007801
0.048540
0.018133
0.033334
0.037567
0.043540
0.084740
-0.018663
0.058366
-0.015594
0.013790
0.029952
-0.052250
0.036417
-0.026591
0.069681
0.018617
0.045841
0.081680
-0.075035
-0.084461
0.079624
-0.026883
-0.075163
0.061916
-0.049452
0.081204
0.029621
-0.040768
-0.024091
-0.071475
0.037785
0.029725
-0.067427
-0.018119
-0.084704
-0.048277
-0.027736
0.047588
0.079627
0.024855
-0.015080
-0.021388
0.025333
-0.048983
-0.053003
-0.027798
0.008460
0.075119
-0.041472
0.035315
-0.047497
-0.051817
-0.032176
-0.041268
-0.011499
-0.051792
0.005738
-0.054547
-0.085343
-0.068800
0.034253
-0.009656
-0.013594
0.051367
0.015242
0.074744
0.042266
-0.022052
0.063523
0.055710
0.061480
0.039717
-0.047219
0.018567
0.028861
-0.034681
0.086006
-0.045649
-0.003534
0.013709
0.047586
0.060776
0.076828
0.006441
-0.073586
-0.037345
0.027545
0.005753
0.012159
-0.037019
0.056196
-0.065722
0.028046
0.051464
-0.055677
0.040138
-0.043465
0.034586
-0.077902
-0.084296
-0.064224
-0.066579
-0.070014
0.082463
0.006888
-0.052126
-0.048135
-0.051892
0.036376
0.014070
0.025214
-0.009417
0.058436
0.074290
0.038692
0.031388
0.029038
0.005709
0.045709
0.022963
0.010043
0.026058
0.016703
-0.073051
0.070600
0.040077
0.014224
-0.048359
-0.059390
0.013717
-0.050660
0.018396
-0.009815
-0.008469
0.080676
0.027986
0.009475
-0.050438
-0.075629
0.031551
-0.022246
-0.044158
0.068126
0.065712
-0.024160
0.005154
0.022447
0.026510
0.059512
-0.029457
-0.013648
-0.062731
0.079169
0.012644
0.053721
-0.015338
0.037722
-0.005586
0.008814
0.017750
-0.028054
0.067248
0.055053
0.079725
-0.024707
0.036242
0.024977
-0.047886
0.084744
-0.073575
-0.002888
-0.039286
0.085462
-0.027006
0.022802
0.078096
0.041595
-0.045126
0.064468
-0.009700
0.069901
-0.060059
-0.065635
0.042592
-0.039163
-0.073691
-0.005701
0.057798
-0.044025
-0.021767
-0.015408
-0.055416
-0.027803
0.065890
-0.048559
-0.079275
-0.069994
-0.076855
0.062641
-0.059824
0.013549
-0.070856
0.005366
0.000518
-0.081182
0.009235
-0.009241
0.080489
-0.037143
-0.013433
0.058329
0.009889
0.002330
0.010994
-0.077223
-0.065275
-0.059586
-0.077527
-0.071128
-0.041198
-0.057801
0.074424
-0.030773
-0.072502
-0.039672
-0.014845
-0.053497
-0.054704
-0.055537
-0.038378
-0.047728
-0.007031
0.053997
-0.068965
0.067560
-0.019020
-0.047020
0.085624
0.050013
0.059700
0.008626
0.022970
0.021083
0.021717
-0.079947
0.060132
-0.040479
-0.054958
0.032639
-0.080995
0.004717
0.073179
-0.074291
-0.007324
0.012897
-0.077513
0.078628
-0.075577
0.018735
-0.068860
0.064726
0.044107
0.000111
0.076981
-0.074776
0.033744
-0.082268
-0.047376
0.008198
-0.053475
-0.050992
-0.073035
-0.085883
0.048069
-0.018437
0.036853
0.079346
-0.052991
-0.076446
-0.015638
-0.002413
-0.073959
0.017166
0.008431
-0.078777
-0.008986
0.072275
-0.053848
-0.029482
-0.055883
0.084843
0.020444
-0.061463
0.021573
0.017936
-0.085560
0.038778
-0.063248
-0.022669
0.080961
-0.018341
-0.043567
-0.071436
-0.038370
-0.071342
-0.074815
-0.020946
-0.074150
-0.000112
0.009180
0.058921
0.080100
-0.021563
0.028961
-0.071110
0.052602
0.070155
0.028190
-0.083103
-0.001014
-0.030371
0.060492
0.064815
-0.072823
0.046161
-0.047383
-0.051212
-0.084159
-0.048681
-0.082284
-0.081855
-0.076882
0.081177
0.062945
0.014525
-0.059744
0.057139
-0.006983
0.066992
0.044296
-0.055975
-0.008989
0.018817
-0.075786
0.003278
-0.002511
-0.025993
-0.071217
-0.068426
0.075544
-0.058628
0.001875
0.062419
-0.017002
0.031202
-0.039670
0.049113
0.077877
0.052575
0.041280
0.057490
0.039586
0.019978
0.041861
-0.014957
0.060039
-0.031015
0.071160
-0.076075
0.036819
0.026596
-0.007473
-0.046113
-0.007274
-0.041170
0.028519
-0.080120
0.068128
-0.041941
-0.072850
-0.042188
0.015570
-0.012258
-0.058271
-0.006670
0.071064
-0.048435
0.008303
0.046928
-0.023195
-0.022474
0.080344
0.052485
-0.028576
-0.055559
-0.057400
0.054439
0.028536
-0.035959
0.040488
-0.075858
0.046627
-0.032290
-0.070171
0.078275
-0.083259
0.039967
-0.072832
0.052766
-0.029150
0.030745
0.069088
-0.081588
0.045698
0.024686
-0.049322
-0.075957
-0.053660
0.019045
-0.073919
0.048390
0.031654
0.045947
-0.024305
-0.022914
0.017622
0.009257
0.017316
0.026899
0.004979
-0.020147
-0.069168
0.001522
-0.012878
0.058271
-0.071464
0.046369
0.062448
-0.002175
-0.011929
0.016664
-0.084317
0.030047
-0.033350
0.024445
0.085570
0.070607
-0.055705
-0.030253
-0.011030
-0.016365
0.040663
-0.010930
-0.067721
-0.084608
0.076461
-0.076955
-0.074214
0.079331
-0.040241
-0.066350
-0.062479
-0.016125
-0.085664
0.008772
-0.031286
-0.067981
0.010942
-0.056592
0.032648
-0.064789
-0.043494
0.040261
0.046785
0.055145
-0.067526
-0.083271
-0.076430
0.037050
-0.057582
-0.018862
-0.057589
-0.048376
0.026450
-0.081327
-0.021966
0.024705
-0.071866
0.017314
-0.036634
-0.028709
-0.005535
-0.073446
-0.024594
0.032220
-0.070950
-0.027395
0.049581
-0.001826
-0.002853
-0.011641
-0.031124
-0.068341
-0.010567
-0.004456
0.016533
0.005307
-0.039468
-0.084189
-0.085563
-0.079824
-0.013047
-0.049052
-0.079622
-0.012052
-0.025945
-0.030827
0.027341
-0.022044
-0.081850
-0.023141
0.009146
0.034553
-0.035561
0.003663
-0.054081
0.040922
-0.022271
-0.035541
0.019842
-0.070434
-0.055898
0.075062
0.041040
-0.007103
-0.009650
-0.014440
0.035371
0.068785
-0.065821
-0.002865
0.038963
0.072065
-0.040399
0.021013
-0.001267
-0.068650
0.062218
-0.054395
0.079513
0.003325
-0.030484
0.055165
0.009030
0.056773
-0.041856
0.059269
0.004869
-0.027225
-0.005364
0.082456
0.050343
0.027084
0.040619
0.015911
0.022048
0.078001
-0.029676
-0.078168
0.077105
-0.028329
0.066582
0.072090
-0.050845
-0.030743
-0.014513
0.052866
0.071004
0.044251
0.045724
0.059048
0.001657
-0.049838
-0.021060
-0.074389
0.060337
0.027138
-0.046135
-0.074921
0.061369
0.085197
0.046002
0.050202
-0.008987
-0.006489
-0.018555
-0.026687
-0.027371
0.031373
0.059092
-0.083907
-0.031242
-0.028873
-0.072309
0.084321
-0.022769
0.067412
0.010148
0.045786
0.051033
0.054602
-0.032220
0.038903
0.007039
-0.031506
-0.036083
-0.016226
0.025182
0.033248
-0.033505
-0.030129
-0.057484
-0.071680
-0.081877
0.051995
-0.050061
0.041096
0.053945
-0.069248
-0.057505
-0.083061
-0.003114
0.085227
-0.068673
0.023007
-0.059716
0.033941
-0.004423
-0.071795
0.002529
-0.083046
0.081249
-0.008484
-0.057104
0.053499
-0.072947
0.085645
-0.011428
0.031336
0.059651
0.084716
0.072452
0.021583
-0.044375
-0.024662
-0.041590
0.069447
0.053875
-0.053338
0.061345
0.006382
-0.000993
0.085380
0.024172
0.055062
0.085086
0.011270
-0.017020
-0.019144
-0.064341
0.038350
-0.035972
0.012408
0.053869
-0.004928
0.078111
-0.012988
0.040990
-0.033858
0.003383
0.030142
-0.015296
0.028934
0.037682
0.013643
0.012909
-0.014939
-0.031888
0.025519
0.013444
-0.085146
0.045142
-0.059571
0.040754
-0.051273
0.016108
-0.039993
0.042321
0.083390
-0.004030
-0.082037
-0.077680
-0.000169
-0.060369
0.035826
-0.061521
0.009847
-0.055569
0.046372
0.073847
-0.069168
0.055634
-0.025614
0.038421
-0.048585
0.011165
-0.036001
0.003400
0.007474
0.066622
0.049058
0.048894
-0.040454
0.015048
-0.032621
0.025153
0.073012
-0.040015
0.008269
0.043919
0.066633
-0.046439
-0.062074
-0.073790
-0.085303
-0.039035
-0.048386
0.038901
0.047752
0.019274
0.036582
-0.007680
0.002726
-0.071346
-0.066815
-0.063403
0.053277
0.022912
0.022829
0.083901
-0.038342
0.001563
-0.059402
-0.064469
-0.025160
-0.063055
-0.023048
-0.041561
-0.046500
-0.050113
-0.059127
-0.005514
0.049506
-0.061326
0.020543
-0.003924
0.037320
0.056690
-0.062831
-0.022742
0.067392
0.071267
0.080119
0.044344
-0.062906
-0.046531
-0.075957
-0.053709
0.005477
0.006464
-0.075392
0.003084
-0.070405
-0.008472
-0.031818
-0.077681
-0.061805
0.032838
0.000289
-0.047604
-0.066969
0.029342
0.075485
0.010481
0.064604
0.030563
0.003998
-0.026819
-0.077707
0.049506
0.017344
0.079201
-0.073270
-0.000128
-0.081340
0.021292
-0.073009
0.020667
0.064775
0.041827
-0.036592
-0.007279
0.045071
0.001496
-0.016781
-0.037716
0.048304
-0.008987
-0.040553
0.073963
0.024649
-0.008847
-0.020439
-0.071077
-0.035983
0.074670
0.004521
-0.061085
0.020960
0.025978
0.007504
0.051443
0.006486
-0.085265
0.040965
-0.004032
-0.029880
-0.033683
0.065007
0.026823
-0.025607
-0.029172
0.035365
0.054789
0.059014
0.063934
-0.047031
0.065128
0.080156
-0.045582
-0.030425
0.060637
0.053394
0.054733
0.018659
-0.079022
-0.045816
-0.030915
-0.041775
-0.017831
0.060878
0.052731
0.025593
-0.080536
-0.041187
-0.025321
0.022404
-0.014555
-0.002381
-0.076889
0.077436
-0.069088
-0.064102
-0.048886
0.038643
-0.043361
-0.002060
-0.079638
0.077867
0.058121
-0.029008
0.044850
-0.060952
0.066518
-0.051223
-0.066645
-0.017783
-0.076471
0.022471
-0.062972
-0.031185
-0.022517
0.045173
-0.042339
-0.008488
0.011622
0.082291
-0.043612
0.008540
-0.020003
0.032567
0.029473
0.029189
-0.030570
-0.031251
0.062478
-0.061469
0.031322
0.017409
-0.043259
0.034083
-0.067003
0.030595
0.072665
-0.059121
-0.075836
-0.033999
0.069655
-0.073140
0.024754
-0.074478
0.011909
0.072856
0.007910
-0.047263
0.072732
0.037990
-0.056351
0.021149
0.044723
-0.018594
-0.036846
0.016862
0.074214
-0.079913
0.065990
0.027474
-0.040610
0.007697
-0.080177
-0.016362
-0.035384
-0.082473
-0.075207
0.083377
-0.042039
0.039980
0.016888
-0.042585
0.049939
-0.080183
0.076889
0.050134
0.034814
0.032705
-0.012696
0.043384
0.026497
0.032847
-0.000697
0.041439
-0.013977
-0.035277
-0.073099
-0.061546
-0.029581
-0.046728
-0.042946
0.011257
-0.019245
0.063767
0.023264
0.059578
-0.037141
0.015627
-0.012468
0.007601
0.063673
-0.015459
0.011375
-0.043673
-0.032900
-0.004562
-0.047116
0.007655
-0.081106
-0.023783
0.069810
-0.008678
-0.044460
-0.017424
0.062051
-0.033402
-0.078067
-0.078542
0.073803
-0.078952
0.036316
-0.004686
-0.015583
0.079205
0.016105
-0.018617
-0.032297
0.027301
-0.005209
-0.035126
0.077014
0.076771
-0.028492
0.017259
0.026935
-0.032187
-0.015943
-0.021768
0.085581
-0.049999
0.003280
-0.026805
-0.065442
0.033381
-0.070765
0.000322
0.002217
0.077776
0.039912
0.084380
-0.018730
-0.003004
0.009377
-0.062811
0.017640
-0.071669
-0.074446
0.026569
0.056371
-0.063148
-0.048362
0.074099
0.017129
-0.073869
0.040072
0.035608
-0.035094
0.042494
-0.051894
-0.073256
-0.067244
-0.042468
0.039160
0.069093
-0.019709
0.043325
-0.028394
0.074818
-0.020947
0.070043
0.015389
-0.032103
-0.046063
-0.030280
-0.019522
-0.002241
0.078493
-0.000145
0.052713
0.069434
0.018093
-0.024317
-0.054263
-0.047007
0.013297
0.017225
0.016562
0.059549
0.025889
-0.002593
0.056263
-0.054215
0.038440
-0.038564
0.046674
0.032498
0.029250
0.068024
-0.043762
-0.035095
0.016859
-0.067688
-0.052230
-0.039992
-0.077633
0.058225
0.019921
-0.036634
-0.028006
-0.080985
-0.036410
-0.072179
0.011816
-0.067677
0.026900
-0.066317
-0.021997
0.061714
-0.041302
0.011186
0.081994
-0.018721
0.024963
-0.073999
-0.064409
-0.057182
0.041115
-0.071284
-0.040685
0.056019
0.074979
0.075997
0.056551
0.024018
-0.078483
-0.074374
-0.026727
0.005150
-0.023072
0.063394
0.065647
0.037254
-0.032286
-0.006330
0.085331
-0.042273
-0.000296
-0.027174
-0.077339
0.058596
-0.028290
0.002971
0.041509
-0.033878
0.039519
0.042055
0.067767
-0.037441
-0.062222
-0.055001
-0.008412
0.003793
0.027305
-0.033653
-0.072122
0.058755
-0.049316
-0.037093
0.048522
0.045094
0.061867
0.062652
-0.043231
0.016132
0.064614
-0.014386
0.064728
-0.049308
0.012117
-0.078121
0.006637
-0.083257
-0.034762
0.022718
-0.017101
0.015641
0.013878
0.024136
0.017329
-0.084153
-0.032453
0.074027
-0.055035
0.029190
0.046337
-0.044471
0.076292
0.068576
-0.064368
-0.079789
-0.058403
0.016968
0.029922
-0.062917
-0.056060
-0.001708
-0.038937
0.034118
0.041207
0.067560
0.025868
0.080697
0.062388
0.053791
-0.000851
0.022317
0.017091
-0.013370
0.009879
-0.065700
-0.070329
0.083080
0.025692
-0.021556
0.037403
0.041710
0.023066
0.068354
0.042215
-0.030127
0.017118
0.012688
0.049586
0.055969
-0.026856
-0.063453
-0.042608
-0.056530
-0.032418
-0.014707
-0.027714
0.048988
0.003382
-0.045364
0.084063
0.081223
0.015632
0.028734
0.010173
-0.071632
-0.067882
-0.054633
0.070822
-0.035109
0.048630
-0.007640
-0.044056
-0.061855
-0.058254
0.066298
-0.074852
-0.022145
-0.032711
-0.078153
-0.041124
0.002727
-0.063356
-0.045069
0.058915
-0.075269
0.071956
-0.029880
0.027435
-0.084674
-0.014442
-0.020976
-0.049255
-0.001322
-0.081892
-0.064018
-0.027675
-0.064891
0.049033
0.038793
0.065252
0.014846
-0.073341
-0.002979
-0.053269
0.025994
-0.061339
0.012670
-0.076959
-0.065552
0.030268
-0.082735
0.021561
0.032043
-0.020053
0.015817
0.048302
-0.063390
-0.032904
-0.026816
0.076610
-0.030371
0.026382
0.036470
0.001807
-0.065957
0.023337
0.063163
-0.001918
0.078008
-0.014535
0.071922
-0.066773
-0.021546
0.056226
0.055276
-0.016359
0.080412
-0.065294
0.055642
0.080183
-0.003498
0.082920
0.042993
0.005453
0.044962
-0.000178
-0.035085
0.035849
-0.042419
0.060738
-0.052310
-0.021168
-0.003002
0.038155
-0.019504
-0.030666
0.000786
-0.020513
0.050830
0.014535
0.016092
0.030763
-0.009756
-0.043933
0.006205
-0.008383
-0.074856
-0.061028
0.076171
-0.078371
-0.004853
0.082778
-0.062362
0.038846
-0.039880
0.058784
0.031732
-0.019052
-0.004802
0.019875
-0.075951
-0.043949
0.050523
-0.061664
-0.060763
0.029542
0.050666
0.068428
0.058588
-0.063569
-0.034093
-0.014048
0.051566
0.044380
0.049585
0.081773
-0.003476
-0.073639
-0.065699
0.078079
0.064524
-0.080529
0.053830
-0.058934
-0.008655
-0.062716
0.021416
0.007057
-0.032401
0.048976
-0.028092
0.066373
-0.051731
-0.027116
-0.023183
0.037264
-0.061660
-0.029491
-0.024156
-0.033167
-0.026487
-0.015582
0.024699
0.047692
-0.033668
0.057427
-0.056713
-0.049685
-0.044954
0.066528
-0.014776
0.062668
-0.047720
0.058815
-0.052803
-0.024842
0.085950
-0.060102
0.044315
-0.083511
-0.035640
0.006359
-0.030217
0.050871
0.061619
0.034948
-0.069628
0.036222
-0.004156
0.063672
0.040211
-0.076242
-0.062778
0.008399
0.048792
0.031538
0.084348
0.058770
0.024223
0.011672
0.013923
-0.051462
-0.014387
-0.069183
-0.060258
-0.026727
0.001633
0.039323
0.011717
-0.022255
0.008300
-0.049000
0.083907
0.043340
0.085117
-0.043572
-0.045996
0.017504
-0.056431
-0.036930
-0.017099
0.085403
-0.002012
0.058517
-0.080322
-0.046585
-0.019211
0.025924
-0.078883
0.002812
0.046795
-0.058939
0.048296
0.067331
0.015255
-0.004955
-0.050113
-0.002926
-0.007068
-0.070979
0.025974
-0.083630
0.025253
0.051842
-0.028109
0.067522
-0.053538
-0.032716
-0.009140
0.042220
-0.005855
0.038959
0.070913
0.017044
-0.007838
-0.022675
-0.034270
-0.048885
-0.032948
0.077635
0.021194
0.012130
0.042759
0.067696
0.074131
-0.054962
0.081587
0.034350
0.072818
-0.064108
-0.015631
-0.023477
0.036347
-0.040937
-0.018876
-0.022666
-0.003342
0.017965
0.046550
0.008526
-0.065426
0.001211
0.050306
0.073918
0.006604
0.080717
0.060790
-0.072069
-0.081367
0.003759
-0.020373
-0.006653
-0.030588
-0.021693
0.004468
-0.000757
-0.077737
-0.012627
-0.064433
0.042260
-0.045160
0.069555
-0.083529
0.038023
0.032642
-0.085092
-0.018620
-0.064601
-0.052439
0.065434
0.025392
-0.045755
-0.039596
0.024169
-0.029674
-0.071763
0.004098
-0.022864
-0.008318
-0.001143
-0.044853
-0.005786
-0.013596
-0.071926
-0.024735
0.069585
-0.061846
0.020817
0.020532
0.033057
-0.081645
0.060568
-0.016179
-0.074422
-0.018521
0.006266
-0.042046
0.068363
0.081429
0.081040
0.025930
0.022490
0.026226
-0.016870
0.026412
-0.044929
0.041518
-0.066013
0.006880
0.003290
-0.035067
-0.009727
0.050636
-0.061365
0.003089
0.058335
0.073595
0.068847
0.039862
0.019554
-0.038940
-0.005741
0.052685
0.011778
-0.006910
0.081924
0.064020
0.053896
-0.058183
-0.061948
0.070566
-0.036589
-0.062326
-0.070541
0.038979
-0.031723
0.027748
0.014699
-0.006369
-0.014805
-0.004685
0.029965
-0.071650
-0.072889
-0.053611
-0.018077
-0.056076
-0.049533
0.074720
-0.041030
-0.036119
0.007113
-0.045345
-0.049942
0.002683
-0.082663
0.006427
-0.080392
0.068317
-0.007147
0.014294
-0.043586
-0.040912
0.035602
-0.020238
-0.033082
0.049637
-0.053590
-0.006885
-0.082275
0.022812
-0.022519
0.066728
0.060710
-0.075314
-0.040960
-0.052342
0.055366
0.039376
-0.032934
-0.041967
-0.047970
0.035507
-0.000408
0.047459
-0.068141
0.007216
-0.016772
0.021242
-0.021148
-0.013812
-0.008315
-0.014481
0.081816
-0.032913
0.067166
0.022814
-0.064562
0.021521
-0.010235
-0.062459
0.027340
-0.069479
-0.063934
-0.042910
-0.041972
-0.052951
-0.044669
-0.083071
-0.055829
0.070987
0.039599
-0.021934
0.069033
0.064931
-0.017766
0.057359
-0.074161
0.025588
-0.005382
0.017460
0.035354
-0.006544
-0.078803
0.085920
-0.064513
0.027206
-0.078626
-0.079933
-0.036378
-0.062048
0.064773
0.032692
-0.073552
0.002127
0.004510
0.070754
-0.060251
-0.036118
-0.065765
0.048917
0.049606
-0.085532
0.048690
-0.076103
0.026955
-0.032181
0.083447
-0.002908
-0.004899
0.021112
0.009460
0.058128
0.045717
-0.072110
0.031077
0.043155
0.061151
-0.085024
-0.065285
0.084764
-0.013592
0.058265
0.069995
0.082359
-0.057022
0.021172
0.054451
0.077295
0.062086
-0.022388
-0.051411
-0.051891
0.024108
-0.006857
0.075714
0.079050
0.051882
-0.039223
0.080529
0.077264
0.021205
-0.043227
-0.058226
0.057557
-0.048276
-0.010439
0.018073
-0.048128
0.045657
-0.045769
-0.041985
0.051253
0.067156
0.065562
-0.012654
-0.075250
0.004973
-0.060267
0.075115
0.042307
-0.079126
-0.051505
0.055647
-0.054695
-0.048390
0.031010
-0.004551
0.084634
-0.040932
-0.017947
0.067665
0.029939
-0.039379
-0.030626
-0.081029
0.004129
-0.020810
0.076834
0.054747
-0.082385
-0.023421
-0.039274
0.034893
-0.032565
-0.009335
-0.010816
0.074688
-0.081881
-0.063674
-0.081481
0.039742
-0.037476
-0.012756
-0.010954
0.034541
-0.003545
-0.072254
-0.076997
0.079395
-0.019404
-0.051133
-0.054397
-0.069750
0.064287
-0.020261
0.068260
-0.033928
0.052601
0.074243
0.003027
0.074467
0.037540
-0.048946
0.081408
0.076092
-0.041436
-0.074434
0.027814
-0.032605
-0.048759
-0.048769
0.011738
-0.006672
0.026610
0.083456
-0.084057
0.048027
-0.056902
0.082047
0.051539
0.051524
-0.032236
-0.075783
-0.016660
0.048328
0.022440
0.033142
-0.080247
-0.023113
-0.060140
0.058797
0.013850
0.060509
-0.080430
0.064127
-0.072740
0.050875
0.052389
-0.080334
0.051079
0.068934
0.070182
0.021613
0.043091
-0.028545
0.050108
0.056274
0.006957
0.045880
0.045952
-0.069277
-0.048657
0.085068
0.042145
-0.024795
0.028824
0.031915
0.079846
-0.025778
0.055824
-0.029148
0.060150
-0.054335
-0.022323
-0.052616
0.014617
-0.001960
-0.016351
0.082993
-0.078075
0.071512
0.044705
-0.004292
-0.034853
-0.048308
0.050893
-0.024956
0.011780
-0.070081
-0.039199
0.064272
0.036624
0.059355
0.041286
0.074739
-0.072459
-0.025927
0.084183
0.017394
-0.021124
0.058090
-0.033535
0.015426
0.024620
-0.060300
-0.065294
0.011491
0.032369
-0.026253
0.007074
0.040980
0.016418
-0.020384
0.069171
0.012977
0.015462
0.023148
-0.048856
0.004408
0.073671
0.009333
0.020101
-0.082205
0.010294
0.060168
-0.018954
0.018967
-0.048462
-0.073675
-0.030609
0.045018
-0.085161
0.013978
-0.076739
-0.045212
-0.005513
0.003795
-0.018371
0.049617
-0.054673
-0.011667
0.062780
0.081662
-0.009949
-0.072819
0.040213
-0.068987
0.056566
-0.083021
0.013369
-0.007408
-0.078480
-0.084981
0.028930
0.033365
0.033524
0.005904
-0.038847
-0.031923
0.030091
-0.033681
0.028620
0.015479
0.048572
-0.023976
0.057712
-0.048872
0.043073
-0.048830
0.033273
0.010233
-0.028209
0.028312
0.010575
-0.011849
0.013464
-0.000894
-0.022895
0.017088
-0.033659
-0.018338
-0.050866
0.066063
0.049020
-0.002126
0.032217
0.072682
-0.022528
-0.011858
-0.071480
-0.021188
0.062588
-0.041988
0.028040
0.078359
-0.082638
-0.055999
-0.037052
-0.042752
-0.037372
0.061451
-0.019496
0.069000
-0.017521
0.054232
-0.027979
0.079388
-0.012129
-0.054267
0.047298
0.022656
-0.073384
0.072602
0.058136
0.077870
-0.001403
-0.062438
0.081074
-0.015105
-0.037723
-0.027825
-0.009357
0.040197
0.007929
-0.023064
-0.047766
0.061700
-0.007623
0.077507
0.018933
0.047183
0.037514
0.027725
0.013964
-0.058379
-0.037043
0.033870
-0.078486
-0.060944
-0.036756
0.085059
0.037646
0.050336
-0.001550
-0.078792
0.032465
-0.071816
0.005158
-0.019109
-0.044090
0.026705
0.047490
-0.033129
0.080110
0.045246
-0.072243
0.011895
-0.061816
-0.001000
0.031909
-0.070141
0.020454
0.085248
0.062618
0.036687
-0.008365
0.012229
-0.075807
0.041438
0.027124
-0.082596
0.037847
-0.085350
-0.074224
0.037321
0.055146
-0.024526
0.032822
0.047530
0.053268
-0.004418
-0.025416
0.068055
0.059818
0.030487
-0.052052
0.065254
-0.007474
-0.042559
-0.085455
0.005569
-0.063293
0.018945
-0.006903
-0.006196
-0.012617
0.069103
0.007580
-0.036846
-0.032692
0.018400
0.023506
-0.009339
-0.029256
0.022910
0.038534
-0.056030
0.069623
0.061854
-0.031799
0.049385
0.048464
0.018007
-0.027393
0.046587
-0.066269
-0.026849
-0.053815
-0.062356
0.018785
-0.064436
-0.068888
0.029859
0.013272
-0.084033
0.041094
0.040397
0.016723
0.030795
-0.058704
-0.032925
-0.064108
-0.061658
-0.071500
0.043730
-0.075157
0.036963
0.012831
-0.060445
0.077059
-0.079037
-0.020959
0.083960
0.011319
-0.040661
0.010138
-0.041176
0.059174
0.008351
0.055134
0.022516
-0.062308
0.032895
-0.049711
0.069759
0.074035
-0.000672
-0.039912
0.034877
0.050984
0.038990
0.061379
-0.035588
-0.079913
0.066798
0.043552
0.003581
0.003885
0.005040
0.013167
0.039166
0.070997
0.025154
-0.052303
-0.019036
0.017038
0.006571
-0.042210
0.049218
0.031831
0.020167
-0.056299
-0.042068
-0.078150
-0.016876
0.000223
0.023682
-0.034960
-0.082826
0.019134
-0.032344
-0.001697
-0.075111
-0.072427
-0.014905
-0.032349
-0.001346
0.067067
0.065741
0.006726
-0.000742
-0.044854
0.021896
0.057128
-0.059530
0.076967
-0.020021
-0.047730
0.054187
-0.047280
-0.048953
-0.054210
0.071436
-0.035908
-0.066372
-0.004693
0.019612
0.070681
0.002486
0.070068
0.019281
-0.058320
-0.035509
0.040134
-0.082478
0.048883
0.081353
-0.053867
0.080554
-0.065525
0.068297
0.076331
0.067559
0.054859
0.002260
0.061390
0.057251
0.046208
0.010493
-0.034626
-0.015397
-0.028461
0.075463
0.052108
0.009849
-0.067615
-0.073115
0.082082
0.067869
-0.003692
-0.084714
0.043351
-0.058819
0.020540
-0.058815
-0.031114
-0.025598
0.010290
-0.012763
0.031300
-0.083940
0.046817
0.074087
-0.057894
-0.065650
0.001661
-0.004257
0.044356
0.064921
0.051918
-0.061160
0.048701
0.031106
0.051193
-0.084914
-0.051806
-0.035502
0.078616
0.015868
-0.016602
-0.040684
-0.030041
0.033771
-0.083815
0.036248
0.010148
-0.078296
0.077197
0.060114
-0.025527
-0.041683
0.040902
0.039290
0.026808
0.018697
-0.029661
0.053746
0.048391
0.055759
0.064538
0.078423
0.007316
-0.067863
-0.081316
0.024521
-0.068940
0.044981
0.024893
-0.036956
0.013479
0.027520
-0.032112
-0.082277
0.056362
-0.056893
-0.002576
-0.043415
-0.026670
-0.070568
0.069894
-0.063737
0.068084
-0.068496
-0.054249
0.029509
0.026018
0.049631
0.031797
0.045112
-0.072579
0.072858
0.046283
-0.058956
0.029782
0.019538
0.079604
-0.056176
0.053580
0.054566
0.003815
0.078216
-0.043456
-0.031190
-0.076478
-0.002281
-0.042015
0.064570
0.042487
0.076294
0.077623
-0.047204
-0.001081
-0.068244
0.038361
0.053710
-0.056308
0.043330
-0.010479
0.071413
-0.017761
-0.005412
0.016973
-0.016158
-0.056141
-0.083816
-0.043672
-0.006562
0.078432
-0.056405
0.059497
-0.001591
0.061907
0.052801
-0.060932
-0.001945
-0.074786
0.075556
0.064155
-0.029545
0.065929
-0.046561
0.054990
0.051095
-0.084305
-0.019523
0.065925
0.017789
0.027918
0.068038
0.043174
0.030800
-0.021711
-0.019528
-0.027878
0.077783
0.050675
0.043671
0.067836
0.038129
-0.045630
0.060029
0.063639
-0.065120
0.018464
-0.061445
0.003881
0.047531
-0.082623
-0.003480
0.052014
0.037556
-0.027788
-0.067796
0.001279
-0.063729
-0.005446
-0.002909
0.048810
-0.043831
-0.037710
0.024897
-0.017869
0.025267
0.046263
-0.039202
0.036997
-0.031003
-0.024967
0.073663
-0.047168
0.038737
0.068582
0.059356
-0.003765
0.012646
-0.054424
0.085089
-0.055390
-0.057861
-0.050982
-0.007149
0.002432
-0.053576
-0.071935
0.019950
-0.083951
-0.068081
0.058498
0.084230
0.046854
0.000028
0.027655
-0.051418
-0.006417
-0.067093
0.020316
0.025327
-0.076810
-0.085548
-0.080131
0.043897
-0.059108
-0.054600
-0.063916
0.035547
0.028090
0.082888
0.080245
0.039891
-0.014666
0.023468
0.011249
0.073052
-0.002573
0.073123
-0.007551
0.009755
-0.052685
-0.050847
0.060963
0.060672
-0.064651
-0.036400
-0.028712
-0.004995
0.017910
0.019899
-0.002380
-0.007137
0.074935
-0.018920
-0.052286
0.058467
0.051903
-0.006970
0.045037
0.021435
0.074573
0.063469
0.042186
-0.020812
-0.051226
-0.068925
0.076605
0.077398
-0.027300
0.006580
-0.064265
0.047653
-0.001071
0.066514
-0.081196
-0.032352
0.004712
0.035423
0.031218
-0.020606
0.061099
0.011530
-0.002776
-0.081606
-0.031571
-0.022396
0.046355
0.069819
-0.026832
-0.081156
-0.070259
-0.049630
0.069312
-0.027249
0.008883
0.052390
-0.057855
-0.027105
-0.010670
-0.044962
-0.051079
-0.070827
-0.048141
0.066214
0.043051
0.040049
0.025590
0.074622
-0.027371
-0.080157
-0.038162
-0.013238
0.054567
0.033231
-0.031347
0.043850
0.035832
-0.036494
0.052225
0.024475
-0.050161
0.044033
0.022219
-0.005660
0.038192
0.014482
-0.024317
-0.027309
0.013759
0.007815
0.028586
-0.051076
0.075038
-0.054824
0.052503
-0.003459
-0.042828
-0.048899
0.009974
0.006233
0.061223
0.068489
0.070677
-0.048096
0.022564
-0.005246
0.018402
0.039909
0.061658
-0.068753
0.026204
0.059322
0.021123
-0.069259
-0.007287
-0.069694
0.040805
0.079397
0.084172
-0.055890
-0.075624
0.002778
0.004745
0.013876
-0.034303
-0.077998
0.002413
0.081553
-0.018578
0.030058
-0.037190
0.045719
0.037371
-0.085683
-0.048769
-0.012850
-0.043096
-0.044241
-0.035186
0.007898
-0.032307
-0.005248
0.031461
0.083707
-0.051972
0.061923
0.012298
0.085608
-0.069725
0.080094
0.044962
0.039184
0.085348
-0.051928
-0.057513
-0.071987
-0.068268
-0.046437
0.031236
-0.005527
0.019753
0.034430
0.060324
-0.082090
-0.032179
0.016993
0.026537
-0.010576
-0.062758
-0.020634
0.062867
-0.015388
0.064076
0.024387
-0.067099
-0.002816
-0.037573
-0.005365
0.045300
-0.019579
-0.054111
0.003177
0.017121
0.047481
-0.005292
-0.018863
-0.075564
0.018969
0.030669
-0.047601
0.075695
0.013030
0.001502
0.028355
-0.050907
0.058659
-0.044387
0.025784
0.034907
-0.039227
0.083119
-0.053658
-0.035921
0.044925
-0.009227
0.044910
-0.029254
-0.076411
0.009594
0.056035
0.079560
-0.077329
-0.006631
0.079059
0.040546
0.053141
0.058786
-0.077709
0.057251
0.031974
-0.036142
-0.057877
-0.062510
0.006735
0.077667
0.029087
-0.045374
-0.026804
0.013448
0.047055
0.042603
-0.018772
-0.010142
-0.020884
0.045155
0.041797
-0.075652
-0.052471
0.011869
0.033188
0.002563
0.000074
-0.054340
0.048185
-0.033225
0.064883
-0.006224
0.001795
-0.059919
-0.047835
0.025686
0.005590
-0.054879
-0.062861
-0.050114
-0.022448
-0.008660
-0.045810
0.006698
0.046581
0.006256
0.048741
0.002184
0.028564
-0.034354
0.014415
0.034082
-0.036889
0.021698
0.070261
0.035165
-0.083209
0.033250
0.026129
0.050312
-0.077815
0.075234
0.082785
0.000372
0.053903
0.032006
-0.037763
0.082354
0.005597
-0.037127
0.033125
0.011133
-0.056396
0.065184
0.048481
0.033991
0.036057
-0.025020
-0.015424
-0.042273
0.074123
-0.061103
-0.044327
0.002777
0.048794
0.034959
0.084874
-0.001031
0.051639
-0.037895
0.060428
-0.032084
0.073369
-0.031812
0.004064
0.055488
-0.058388
0.040538
-0.083183
-0.037238
0.076833
-0.034521
-0.014111
-0.070883
0.053184
-0.030893
0.081570
-0.023226
0.011118
0.039678
-0.059304
0.052500
-0.041423
-0.056808
0.063491
-0.021711
0.013955
0.019627
0.020209
0.083024
0.047286
-0.015951
0.040364
0.060755
0.072676
-0.030209
-0.011150
0.022361
-0.001831
-0.042144
-0.032162
0.065564
0.067154
-0.027836
0.019399
-0.078679
-0.031156
0.066916
-0.078845
-0.002340
-0.083208
-0.020508
-0.048644
-0.004745
0.001685
-0.001675
-0.046639
-0.082362
0.020312
-0.053487
-0.037689
0.084253
0.011616
-0.049144
-0.016333
-0.062009
0.047593
-0.030189
0.035502
-0.013894
-0.057421
-0.038415
0.077957
0.051015
0.064494
-0.044897
0.026894
0.051707
0.082826
-0.033618
0.056340
-0.070537
0.033659
-0.001265
0.054211
-0.055534
0.045324
-0.020996
0.021379
0.013158
0.001755
0.085683
-0.083985
0.040536
-0.055919
0.048793
-0.078628
0.051093
0.013639
-0.043139
-0.070765
-0.067284
-0.071763
0.014877
-0.059337
-0.056605
0.027614
0.004916
0.075592
-0.076796
-0.050499
-0.039552
-0.034032
-0.053675
-0.063444
0.002614
-0.073335
-0.026481
0.060417
-0.008918
0.044016
-0.066631
-0.003212
-0.070478
0.018456
-0.044258
-0.004156
-0.059617
0.048551
0.040682
-0.009103
0.006970
0.062773
-0.060427
-0.039360
-0.076018
-0.077830
-0.059821
0.006362
0.064748
0.061148
-0.070076
-0.023638
-0.013116
-0.045783
0.085697
0.065816
-0.017176
0.065659
0.059969
-0.030144
-0.063455
0.026543
0.051026
-0.064849
0.044785
-0.039522
-0.074788
-0.079601
0.054198
0.005863
-0.005534
-0.000073
-0.013440
0.069385
-0.056840
-0.080680
0.042974
-0.058678
0.060609
-0.000002
0.079175
-0.052501
-0.056586
-0.030200
-0.035902
-0.024452
0.004644
0.008511
0.059173
0.067707
-0.047215
0.051026
0.016677
-0.000265
-0.055807
-0.005043
-0.011398
-0.028152
0.066530
0.044755
-0.038050
0.053909
-0.007448
0.010379
-0.009295
-0.069701
0.023295
-0.005140
0.074575
0.044388
0.000692
0.068783
0.081662
-0.085859
0.051343
0.069248
-0.079880
0.002080
-0.027261
0.009734
-0.064928
0.012598
-0.037449
0.083606
0.000246
0.055682
-0.056237
0.079166
0.030567
-0.079738
-0.002431
0.037098
-0.060249
-0.043378
-0.058217
-0.052385
-0.055313
0.005029
-0.013333
-0.057940
0.080536
0.076869
0.013477
-0.006313
0.085090
-0.059223
0.027749
0.049605
0.006113
0.083215
-0.056817
0.081962
0.056403
-0.038912
-0.083582
-0.000030
0.038948
0.069477
0.016765
0.039115
0.067177
-0.006064
0.083683
0.004173
-0.034970
0.013587
0.032002
-0.053689
-0.030084
0.076686
-0.041907
-0.043306
-0.052589
0.006797
0.060717
0.008613
0.026163
0.065813
0.049335
-0.021411
-0.079989
0.074157
0.047610
-0.019870
0.061589
0.003082
0.041333
-0.055187
0.053670
0.082117
-0.027057
-0.062308
-0.002817
-0.066499
0.037177
-0.008726
0.082835
-0.081458
-0.002235
0.075009
-0.073867
0.068160
-0.059505
-0.037472
0.030667
0.079379
-0.050916
0.027442
0.026193
0.071969
-0.056483
-0.024568
-0.069651
-0.011331
-0.045556
-0.012505
0.055722
-0.079282
0.033041
-0.031840
-0.049672
-0.052588
-0.072089
0.033451
0.085962
0.013680
-0.027894
0.026086
-0.022793
-0.069583
0.069739
-0.013363
-0.075385
-0.075438
0.030725
-0.006207
0.057367
-0.060582
0.051013
-0.019935
0.063134
0.035925
0.022683
0.045651
-0.048628
-0.076503
0.023149
-0.065751
-0.075204
-0.085495
0.018463
0.019135
0.031734
0.016804
0.078744
-0.028738
-0.059193
0.002382
-0.067481
0.025164
-0.011978
-0.006706
0.011197
0.068611
0.007992
-0.011113
-0.063552
-0.007278
0.045443
-0.049225
0.005890
0.032014
0.069165
0.082219
0.013317
-0.001976
-0.029135
-0.004654
-0.069266
-0.053200
0.023578
-0.035009
-0.053554
0.031330
0.010460
-0.022386
0.045347
0.075563
-0.048033
0.022338
-0.028432
0.004147
-0.004905
0.084969
-0.008333
0.048335
0.019347
-0.001585
-0.082851
-0.057322
0.077577
0.017202
0.013085
-0.003584
0.037880
0.058417
-0.075561
-0.069507
0.042258
0.060344
-0.001386
-0.015335
0.071327
0.037930
-0.077616
0.010966
-0.001203
0.040487
0.057055
0.066234
-0.054771
0.019365
0.003396
0.057202
-0.020775
0.012958
-0.056671
-0.046534
0.010601
-0.031562
0.061675
0.033666
0.077178
-0.068681
-0.047037
-0.000392
0.036069
-0.038055
-0.065688
0.078649
0.085359
0.002400
-0.013005
0.031330
-0.083222
-0.035781
0.055200
0.004477
-0.085196
0.062985
-0.018922
0.020774
-0.038696
-0.005379
-0.052153
-0.007639
0.047492
-0.032981
-0.069180
-0.004358
0.041865
-0.082373
0.029749
-0.070247
0.050607
-0.045138
-0.044517
0.052732
-0.052486
0.048365
0.038608
-0.065829
0.027612
-0.050360
-0.021368
0.015179
-0.038686
0.054325
-0.013112
-0.012160
0.061699
-0.023139
0.064387
0.074055
0.016396
-0.009885
-0.021819
0.037853
-0.028663
-0.054184
-0.029204
0.001600
0.067639
0.005143
-0.065619
-0.054141
-0.051699
0.021210
-0.028525
-0.055596
-0.036733
0.083112
0.056329
-0.064828
-0.053508
0.050053
-0.083911
-0.051232
-0.042842
-0.013775
0.066214
0.055651
-0.014544
0.048832
0.010057
0.010909
0.079304
0.017019
0.029056
0.032545
-0.045342
0.071588
0.040430
0.005615
0.068373
0.042290
0.080603
0.073826
-0.074388
-0.019387
0.046698
0.067542
0.014630
0.049180
-0.063163
0.023222
0.046463
0.058811
-0.030680
-0.062678
0.059036
-0.023827
-0.075195
-0.058735
0.033068
-0.009514
0.078718
-0.032869
0.072264
0.000317
-0.046228
-0.055643
0.055396
0.031225
-0.052975
0.033083
0.056137
0.002563
0.017834
0.007556
-0.000124
0.082413
-0.041011
0.006132
-0.033998
-0.070130
0.054944
-0.070578
0.015324
0.007365
-0.033429
-0.028874
0.079178
0.003506
-0.052530
0.015514
-0.025935
-0.037407
-0.078818
-0.003956
-0.029787
0.003224
0.082537
0.027298
-0.058555
-0.018200
-0.052313
-0.032095
-0.013127
0.056454
-0.029538
0.008587
0.044746
-0.081762
-0.048677
0.015032
-0.042224
-0.040543
0.002076
0.052487
0.029019
-0.050897
-0.009770
-0.015561
-0.056435
-0.035934
-0.017789
-0.040532
0.060614
-0.063861
-0.054239
0.063113
-0.051708
-0.031470
-0.081094
0.052633
-0.057934
-0.004701
0.045497
-0.081388
0.035773
0.049511
-0.076748
-0.005257
-0.079956
0.017165
0.033137
-0.071862
-0.008899
0.044968
0.021045
0.017325
0.046544
-0.025697
-0.077158
-0.000502
-0.076683
0.054094
-0.051613
-0.053123
0.075483
-0.055628
-0.003048
-0.085330
0.000836
0.058914
-0.074999
-0.025076
0.000022
0.011774
0.039516
-0.016237
-0.005890
-0.022571
-0.020426
0.058616
0.007921
-0.035790
-0.054669
0.003911
0.060966
0.063075
0.071590
0.080913
0.006892
0.057551
0.006721
0.071476
-0.005056
-0.053225
0.052776
-0.023358
-0.057923
0.055695
-0.085915
0.012821
0.068012
0.040449
0.010949
0.071631
-0.039936
-0.068230
-0.004318
-0.022669
0.014431
-0.041083
-0.081543
0.007169
-0.005283
-0.070281
-0.068450
-0.085642
-0.012713
0.062727
0.004322
0.025343
-0.078139
0.060606
-0.076374
0.029454
-0.018013
0.035480
-0.071302
-0.014424
0.013981
0.064324
-0.012890
-0.003868
0.057565
-0.004169
0.002439
0.034015
-0.043591
-0.054887
0.057685
-0.030187
0.081865
0.016528
-0.031812
-0.000659
0.004074
-0.038739
0.065712
-0.009898
0.012342
0.025843
0.024654
-0.025068
0.056114
0.015091
-0.033708
0.034079
-0.029670
-0.075667
0.002755
0.056361
-0.080921
-0.083249
-0.045506
0.053768
0.040741
0.046909
-0.052699
0.020544
-0.076611
-0.018537
0.018523
0.068144
-0.065786
-0.077126
0.022143
0.004365
0.002659
0.031921
0.041963
0.049962
-0.016800
0.013863
0.038756
-0.050455
-0.076598
0.061752
-0.059592
0.071005
0.064607
0.045959
0.062224
0.078848
0.057172
0.003504
0.084135
-0.071293
-0.062599
0.038950
0.002790
-0.066361
0.055748
0.072018
0.027126
0.061310
0.018344
-0.036059
0.069335
0.078546
0.069656
-0.035890
0.061069
-0.023642
-0.014261
-0.013719
0.035966
-0.058676
-0.048283
-0.084459
0.046910
0.038044
0.053788
-0.040476
0.037893
-0.007528
0.031224
0.046091
-0.037995
-0.055487
0.084234
0.059482
-0.001565
-0.022575
0.066761
-0.064017
0.054407
0.026715
-0.065199
-0.084735
-0.077214
0.077937
0.054662
-0.007031
0.010530
0.025932
-0.047428
0.050878
-0.043256
0.084964
-0.013847
-0.055872
-0.050608
0.080371
0.016476
-0.007571
0.012142
-0.047397
0.009170
0.081991
0.060683
0.055179
-0.026075
-0.075408
-0.013170
-0.001749
-0.034812
-0.075136
0.052355
0.043792
-0.002486
0.033888
0.010563
-0.062633
0.039575
-0.081684
-0.075742
0.053014
0.048539
-0.007848
0.084638
-0.032363
-0.054565
-0.039703
0.062550
-0.025957
0.076306
-0.037172
0.079987
0.015631
0.008872
-0.082813
0.027501
0.041907
-0.003841
0.059229
0.044374
0.064966
0.074898
-0.063067
-0.075967
0.065612
-0.019019
-0.006585
0.025321
0.004047
-0.045590
0.063353
-0.081221
0.084569
0.052881
0.055012
-0.029184
0.010633
0.047813
0.063053
-0.073701
0.010461
-0.053919
-0.008347
0.048078
0.027030
0.008184
-0.014051
0.046116
-0.057175
-0.081077
-0.055964
-0.066088
0.044592
0.006415
-0.068487
0.083469
0.033028
-0.026341
0.034310
0.051816
-0.018246
-0.057330
0.031276
-0.008071
-0.015071
0.008297
-0.070593
0.005196
-0.005505
-0.053020
0.073348
0.077072
-0.000591
0.070406
0.022324
-0.064963
-0.030570
-0.050158
-0.069709
-0.031623
-0.054980
-0.058935
-0.020523
0.080928
-0.008067
0.018256
0.070818
-0.083042
-0.053166
0.008407
-0.004777
0.044706
-0.012625
-0.079596
-0.042045
0.046638
0.020494
-0.072570
0.035754
0.072386
0.048252
0.026517
0.065782
0.062227
0.048755
0.069364
-0.067737
0.028026
-0.003589
0.018857
0.061661
0.032132
-0.046178
0.024505
0.062576
-0.005537
0.076074
-0.003099
-0.058355
0.083789
-0.076535
0.012703
-0.020101
-0.063573
0.083187
-0.059556
0.084258
0.078026
0.060503
-0.024696
0.071139
-0.051976
-0.075468
0.065918
0.064035
0.041351
-0.011947
0.036501
-0.071605
0.030804
0.077652
-0.044000
-0.075043
-0.068776
-0.069933
0.030004
-0.029758
0.000054
-0.050533
0.008612
-0.069945
-0.051141
0.015910
0.070234
0.019229
0.038309
0.030434
-0.019491
-0.052295
-0.049233
-0.077581
-0.003706
-0.012546
-0.079258
-0.022697
-0.054589
0.059669
-0.077573
-0.066404
-0.041409
-0.042388
-0.081090
0.069659
-0.074532
0.026318
-0.073086
-0.001815
-0.059253
-0.064626
-0.083386
0.015760
-0.043360
-0.069240
-0.034605
0.042990
0.040148
-0.034320
0.021953
0.047866
0.019749
-0.073506
0.079681
-0.028883
0.044871
-0.034904
-0.073318
-0.004909
-0.014125
0.051595
-0.036822
0.020310
0.074072
-0.053195
0.017503
0.036660
0.064109
-0.024015
0.058395
-0.066852
0.060253
0.033354
-0.025710
0.002054
0.084375
0.039518
0.083363
-0.060383
-0.026176
-0.030782
0.059284
0.029113
0.039525
-0.037845
-0.034114
0.057699
-0.080495
0.063869
0.076093
-0.013121
0.053480
-0.012188
-0.006267
-0.020180
-0.061822
-0.005092
-0.022190
-0.079764
-0.014323
-0.035499
-0.081081
0.006795
0.044282
-0.006671
-0.074546
0.032818
-0.018919
-0.003623
0.004623
-0.083303
0.066611
-0.021058
0.011191
0.010303
0.074643
0.003149
-0.074121
-0.015823
-0.033177
0.011913
0.051210
0.044790
0.061496
-0.034054
-0.076786
-0.027965
-0.005803
0.052099
0.075723
0.039941
-0.085033
0.019037
-0.052224
-0.045411
0.070819
0.020859
-0.073729
-0.066350
-0.023373
-0.059584
0.019421
-0.005123
0.078064
0.064627
-0.043185
-0.049091
-0.037308
0.082335
0.062789
-0.076320
0.020021
-0.020431
-0.026907
0.080024
-0.024957
0.000097
-0.033213
0.016279
0.060100
0.048630
0.061542
0.012555
0.030895
-0.006494
-0.066526
-0.024871
0.042145
0.016924
-0.023673
0.052298
0.008917
0.014148
0.062556
0.040892
-0.016048
0.060435
-0.041606
-0.062494
0.021770
0.029038
-0.002968
0.057189
0.074015
0.017818
-0.072481
-0.022251
0.077565
-0.077840
-0.043400
-0.053280
0.009689
0.060669
0.055063
-0.059172
0.008126
0.068657
0.060179
-0.079292
0.000522
-0.018138
-0.072221
-0.052643
-0.013506
-0.052152
0.006344
-0.071936
-0.060172
0.073150
-0.002797
-0.025833
0.080975
-0.027654
0.052499
-0.027176
-0.012912
0.024028
0.002187
-0.067601
0.025725
-0.048909
0.017541
0.020663
-0.026621
0.003840
-0.011184
0.074200
-0.044169
-0.035839
0.085585
0.048043
0.062767
0.023179
0.079961
-0.056855
0.083956
-0.044467
-0.055295
-0.001714
-0.057414
0.050087
-0.000839
-0.075657
0.026042
0.019407
0.000860
0.004940
0.001928
0.081696
0.063437
-0.042365
-0.024239
-0.043049
0.032248
0.077040
-0.069275
-0.075441
-0.005404
-0.078763
0.049269
-0.022970
0.020459
0.002464
-0.019471
0.018854
-0.050920
-0.071938
-0.007480
0.069193
0.018845
0.055346
-0.002499
-0.057879
-0.008344
0.041697
0.043405
-0.042594
0.082021
0.075054
0.011771
0.058680
-0.083185
0.060514
-0.055247
0.016135
0.048844
0.025917
0.065266
-0.027042
-0.075112
-0.002500
-0.077912
0.075304
0.000060
-0.047661
-0.015039
-0.035967
-0.051205
0.071912
0.061543
0.036354
-0.046253
0.055975
0.002225
0.084642
0.051621
0.063907
0.054967
0.081411
-0.012596
-0.017537
-0.071207
-0.043110
-0.063576
0.033675
0.061091
-0.071501
0.015237
-0.055267
0.079927
0.057790
-0.071634
-0.026380
-0.047890
0.034671
-0.085072
0.076687
0.038581
0.054527
0.007138
-0.025006
-0.032762
-0.030357
-0.045463
0.056818
0.053644
-0.057892
0.084417
-0.074466
0.058065
0.013068
-0.007843
0.008868
0.073722
0.009737
-0.067993
0.058428
0.020582
-0.071423
0.031327
0.055169
0.076356
0.024110
0.030550
-0.009007
-0.048690
0.079879
-0.075323
0.085621
-0.064889
-0.001348
-0.061039
0.035064
-0.019756
-0.057289
-0.054735
-0.067671
0.023993
-0.022239
-0.044677
0.016943
0.006714
0.064837
0.010225
0.018561
-0.036657
0.004749
0.023239
-0.019324
-0.029368
0.013789
-0.036228
-0.080798
-0.081920
0.046678
-0.013846
-0.005500
-0.076037
-0.026512
0.053419
0.029122
0.071571
-0.048537
-0.067097
-0.063730
0.032099
0.018465
0.004494
0.060336
-0.010815
-0.019488
0.035126
-0.051017
0.036562
0.041267
-0.074849
0.068158
-0.051583
0.063120
-0.043010
-0.066392
-0.079021
-0.037259
-0.063180
-0.080507
0.058061
0.071820
0.069879
-0.032871
0.025372
-0.006711
-0.017518
0.019661
0.055372
0.003567
0.036277
-0.041349
0.049581
-0.074684
0.008714
-0.085234
-0.041869
0.045694
-0.042446
0.080847
-0.054867
0.078175
-0.006729
0.036469
0.032346
-0.023258
-0.018628
0.069376
-0.021187
0.071990
0.061074
0.058368
-0.041332
0.050931
-0.054290
0.005476
-0.041754
-0.084736
0.007452
-0.078562
-0.049615
-0.026931
-0.062921
-0.036203
0.051073
-0.080223
0.025392
0.085484
-0.008296
0.001299
0.059292
-0.003868
0.015989
-0.059503
0.027011
-0.080956
0.048998
-0.046292
-0.044615
0.084488
0.060129
0.076465
-0.008155
0.064467
0.039469
-0.025799
-0.014034
-0.006454
0.069363
0.002834
-0.018409
-0.049278
0.020943
-0.021788
-0.078968
-0.024678
0.024350
0.058548
0.011949
-0.073037
0.018726
-0.084939
-0.059355
0.016078
-0.023494
-0.069611
0.078215
0.014906
0.045390
0.019537
-0.022742
0.052524
-0.021615
0.036370
-0.006167
-0.022533
-0.049446
0.012242
-0.079115
0.081719
-0.084915
-0.055359
-0.043031
0.034468
-0.074624
-0.016989
0.039960
0.012107
-0.009361
0.045429
0.074356
-0.055823
-0.011191
-0.061339
0.058393
0.067020
0.033982
0.056347
-0.022064
-0.002543
0.070073
-0.052733
-0.059776
-0.063404
-0.020338
0.061620
0.066934
-0.001975
-0.054501
0.000935
0.037385
-0.060878
-0.052614
-0.007830
0.025610
-0.080586
-0.068920
0.031542
-0.076702
0.061039
0.060171
0.067304
-0.014077
0.079991
0.040012
-0.046911
-0.072879
0.055196
0.000209
-0.064325
0.006934
0.015569
-0.066810
-0.034218
0.034073
0.014002
-0.004646
0.037948
-0.045485
-0.011718
0.007635
0.061509
-0.060165
0.006883
0.003908
-0.037799
-0.017281
0.054188
0.047593
0.053420
-0.022987
0.079545
0.085641
-0.001136
-0.023137
-0.013368
0.032868
-0.051556
-0.001245
0.055558
0.026275
-0.061777
-0.008736
0.050836
-0.012883
-0.023078
-0.025551
-0.045365
0.073926
-0.032016
0.005474
0.048131
0.017256
-0.084150
0.015428
0.004364
-0.072763
-0.034718
0.048548
0.036964
-0.040245
-0.011042
-0.085217
-0.016568
-0.027554
-0.002875
0.001505
-0.047581
-0.040380
0.002014
-0.042289
0.055453
0.067488
0.027749
-0.073794
-0.058410
0.074181
0.042010
-0.075047
-0.085941
0.037531
-0.053552
0.016168
-0.016924
-0.007564
0.038623
-0.033066
0.013525
-0.054272
-0.030472
-0.049700
-0.006901
0.046946
-0.050238
-0.036244
0.065595
-0.017745
-0.057592
-0.023739
0.027300
-0.044505
0.039827
-0.034638
-0.058990
-0.001770
0.069505
0.014003
0.020697
0.041821
0.038011
-0.044784
0.047498
0.057502
0.063033
0.054703
0.032796
0.076943
0.070834
-0.056215
0.005962
-0.080808
0.027048
0.058371
0.000826
-0.001818
-0.035801
0.085155
-0.001733
0.071572
0.010884
-0.036690
0.085322
-0.018442
-0.022510
-0.044419
-0.079596
0.012143
-0.006449
0.061878
0.054506
0.022313
-0.013992
-0.059776
-0.058271
0.039237
0.055463
-0.066139
-0.003494
0.053443
-0.035762
0.039293
-0.071678
-0.017400
-0.044918
-0.071320
0.067145
-0.020270
0.017328
0.077743
0.052116
0.037163
-0.059710
0.056051
-0.080617
0.027444
0.004022
0.024144
-0.039132
-0.059645
0.056711
-0.007244
0.012292
-0.074667
-0.035837
-0.064935
0.061415
-0.030572
0.018288
0.064810
-0.028125
0.008137
0.049656
-0.063213
0.043179
0.025761
0.036700
0.082608
0.042747
-0.083348
-0.008685
0.080486
-0.064913
-0.083328
0.014332
0.043532
-0.004419
0.069154
-0.080770
-0.004300
0.001960
-0.031291
-0.024139
0.006458
-0.048135
-0.007936
-0.079576
-0.026526
-0.048223
-0.052388
0.028293
0.077583
-0.012657
-0.029774
0.056975
0.017704
0.046096
0.041324
-0.033783
-0.018777
0.080622
0.037288
0.051725
-0.009256
-0.001761
0.033729
-0.058005
-0.029895
-0.059933
0.058012
-0.060194
-0.055962
0.013216
0.039750
0.078960
-0.084258
-0.040177
0.057326
-0.059242
-0.025501
0.047852
-0.035784
0.066384
-0.011247
-0.067295
0.052824
-0.072243
0.017192
0.049722
0.013083
0.030825
0.081101
0.033843
-0.039827
0.075791
-0.045881
0.022385
-0.062584
0.024955
0.062927
-0.032567
-0.053531
0.061076
0.057068
0.056698
-0.078495
0.050231
-0.066240
0.024444
0.066462
0.018952
-0.054692
0.006948
0.055181
0.056107
-0.077712
-0.034326
-0.032845
0.062487
0.014568
-0.011421
0.040533
0.054059
0.081342
0.013350
-0.044600
0.026725
-0.054290
0.077283
-0.046776
-0.038396
0.039945
-0.045082
0.077123
-0.026367
-0.014493
-0.005275
0.034273
-0.051893
-0.014135
0.075823
0.061230
-0.030876
0.064430
-0.075092
-0.080421
-0.078455
-0.002679
-0.038614
-0.033632
-0.045877
-0.019189
0.021693
0.000548
-0.018586
0.000063
-0.052623
0.068222
-0.070831
0.023946
-0.025706
0.080625
-0.064781
0.078301
0.020198
0.008816
-0.063183
0.067185
-0.062402
-0.071248
0.046421
0.031748
0.059571
0.065414
-0.031353
0.001328
-0.007482
0.006173
-0.006724
-0.080581
-0.065036
-0.056945
-0.059302
-0.022661
0.074804
0.038596
-0.035227
0.077922
-0.002534
-0.072251
0.002206
0.002072
0.045164
0.056217
0.057094
-0.017772
0.017370
-0.082314
-0.046502
0.013221
0.012215
-0.007427
-0.040673
0.056318
0.056267
0.054026
-0.062132
-0.085244
0.048386
-0.063317
0.028252
0.064814
-0.082459
0.044641
-0.056093
0.054903
0.085384
0.042155
0.007706
0.085478
-0.014386
-0.082885
0.035087
-0.043914
-0.017650
0.039904
-0.038586
0.025718
0.033559
-0.021540
-0.034573
0.055445
-0.058585
-0.005490
-0.064353
-0.020033
0.036000
0.038545
0.030705
-0.033217
0.001724
-0.085391
-0.049217
0.020376
-0.046400
-0.067914
-0.010903
0.021733
-0.063482
-0.003608
-0.069105
0.045646
-0.070725
0.080483
-0.009589
0.047715
-0.043897
-0.038972
0.012511
0.000421
-0.026851
0.058816
-0.055439
0.042231
-0.043108
-0.056344
-0.033303
0.041167
0.046021
0.063084
0.085497
-0.041877
-0.011910
-0.039079
-0.082380
-0.042498
0.027190
-0.031055
-0.052822
-0.051237
-0.008172
0.025641
0.024995
-0.060171
0.067208
0.056631
-0.021619
0.072966
0.054785
0.030432
-0.021766
-0.085166
-0.067035
0.073803
-0.081309
0.070385
-0.013358
-0.070375
0.024570
0.048732
0.082415
-0.075673
-0.058026
-0.084092
0.048572
-0.005969
-0.079646
-0.032665
-0.039823
0.085968
0.039342
-0.044934
0.078132
-0.030011
-0.053414
0.025197
0.047817
-0.014481
0.070946
0.082536
-0.065080
-0.081904
0.029543
0.057393
0.080584
0.013452
0.083666
0.064967
-0.074665
-0.008576
0.054511
-0.065554
-0.080330
0.049430
0.016175
0.055650
-0.006676
-0.047825
0.083957
0.039170
-0.011094
0.035063
-0.045277
0.016161
-0.023845
0.079582
-0.065428
-0.011369
0.008829
0.066821
-0.002273
0.068564
-0.070841
0.077986
-0.033365
-0.052430
0.021494
-0.008675
-0.043486
-0.019835
0.051088
0.070778
0.011945
-0.033076
0.083660
-0.024414
-0.056670
0.070388
0.009170
0.045017
0.003149
0.061019
-0.045885
-0.062921
0.074423
0.007072
0.064033
0.019308
-0.049060
0.000093
-0.062342
0.041514
-0.022518
0.062239
-0.050391
0.084560
-0.018660
0.012423
-0.015882
0.009585
-0.040389
0.076943
-0.009447
0.002803
-0.036625
-0.000319
0.017751
0.064249
0.042756
0.040678
0.054991
-0.021268
-0.038875
0.080317
-0.022783
0.033081
0.041301
-0.029694
-0.069295
-0.017398
-0.007624
-0.011004
-0.032229
-0.045317
0.045288
0.012645
-0.009474
-0.069665
0.065823
-0.005024
0.047510
0.061513
0.041484
-0.054223
-0.034978
0.062531
-0.063871
-0.065516
0.009628
0.017988
0.057510
-0.023352
-0.041783
-0.004298
-0.040694
0.003793
0.062990
0.038224
0.035103
0.069563
-0.074798
0.054401
-0.042549
-0.044399
-0.050955
-0.065374
0.013714
0.017553
0.081663
0.016201
0.021596
-0.063101
0.074768
0.017621
-0.071370
-0.065883
-0.064279
0.021474
-0.016132
-0.011782
0.010359
-0.029786
-0.055623
-0.023805
0.042540
-0.016421
-0.075030
-0.035087
0.039106
0.015688
0.022013
-0.076031
0.060602
0.027691
0.015250
-0.008022
0.057561
0.083027
-0.024304
-0.036011
-0.042887
-0.016885
-0.068045
-0.025636
-0.024243
-0.045150
-0.011321
0.057248
0.066722
-0.067269
-0.012427
0.082359
-0.035482
0.048872
-0.052814
-0.025369
-0.054244
-0.001256
-0.013339
-0.051586
0.083659
0.007684
-0.050516
0.046081
-0.013017
-0.037306
-0.070565
-0.029784
-0.081040
0.015983
0.063861
0.037024
0.055074
-0.025214
0.009437
0.012355
-0.021574
-0.014354
0.047692
0.078739
-0.002607
-0.044381
0.033350
0.037508
0.014959
0.078153
-0.023574
-0.034918
-0.074290
0.052940
0.008263
-0.043512
0.085286
-0.071534
-0.038221
0.066820
0.063830
-0.025626
-0.063716
-0.015019
-0.029047
-0.082994
-0.003686
0.069317
0.037950
-0.035606
0.038412
-0.061123
-0.024521
0.004132
-0.044469
-0.046165
-0.050914
0.007341
-0.054429
0.028885
0.056959
0.056229
-0.077263
0.047541
0.068302
0.065165
0.061596
-0.004705
0.072795
0.028763
-0.030366
-0.068426
-0.037410
-0.014024
-0.038146
0.046558
0.071628
0.038681
0.053960
0.084788
0.014821
0.028123
0.003380
0.018977
0.069059
-0.060675
0.070589
0.010601
-0.022287
-0.031387
-0.055060
-0.071944
-0.071776
0.064883
0.007559
-0.061747
0.079568
0.075807
0.075080
0.065675
0.080724
0.018520
-0.014088
-0.081481
0.024589
0.044895
0.023512
-0.023787
-0.030915
0.034070
0.073012
-0.068345
0.008893
-0.026572
0.032074
-0.040151
-0.062788
0.061236
0.055079
-0.034405
0.001966
-0.084815
0.080599
-0.015218
0.020427
0.001341
-0.062576
-0.005513
0.029210
-0.040462
0.053544
-0.059272
-0.013765
-0.015823
0.003052
-0.062610
-0.060523
-0.034671
-0.032785
0.069358
0.023212
-0.081902
-0.038737
0.043197
0.078915
-0.058249
-0.034835
-0.046857
-0.047132
0.012885
-0.038129
0.030039
-0.003382
0.015585
0.069078
0.032350
-0.023434
0.080005
-0.059798
-0.034253
-0.012650
0.015919
0.063101
-0.072643
0.007385
0.036362
0.027820
-0.043286
-0.068001
-0.081820
-0.070977
0.030307
-0.036447
0.054988
-0.031474
0.030967
0.029537
-0.000552
-0.037670
-0.032042
0.046982
0.077360
-0.064446
0.080934
0.027772
0.005277
0.008643
-0.001705
-0.069914
0.041331
-0.051322
-0.080542
-0.006727
-0.056443
-0.062722
0.030671
0.031824
0.007218
-0.067395
0.074003
-0.008593
-0.037400
0.016702
-0.062809
0.028857
-0.024147
-0.024572
0.075554
0.081782
-0.084819
-0.030198
0.004420
-0.002044
-0.009638
-0.076565
0.022512
-0.082556
0.035711
-0.027216
0.030170
0.002933
-0.067277
-0.010005
0.032838
0.010135
-0.047079
-0.034351
-0.073003
0.005186
0.012135
-0.032917
0.025099
0.078928
0.032396
0.020421
0.038936
0.071684
0.003910
0.038463
-0.050482
-0.044321
0.051896
-0.016031
0.031861
0.036297
0.000330
0.011936
0.008637
0.034946
-0.055483
-0.030627
0.004779
-0.079497
-0.012914
0.006484
-0.025150
-0.060440
0.029977
0.076234
-0.043941
-0.038474
0.013063
-0.031467
0.016325
-0.019786
0.066006
-0.042720
0.083903
0.067068
-0.038777
0.083153
0.019764
-0.058227
-0.063146
-0.052342
0.037962
-0.077522
0.071692
0.024215
0.048867
0.024910
-0.034823
-0.021373
-0.046601
0.082556
-0.040020
-0.001028
0.034183
0.043171
-0.053284
-0.008470
-0.061852
-0.059719
-0.083274
-0.010455
-0.080401
0.030864
0.075943
-0.001744
0.065756
-0.078656
0.057740
0.077405
-0.017899
0.059915
-0.082378
-0.010350
-0.027773
-0.066755
0.075285
-0.003137
0.039670
-0.001171
0.074160
-0.005896
-0.055509
0.040885
-0.008766
0.035333
-0.021800
0.017168
0.069670
-0.031190
-0.068854
0.074426
0.085466
0.075300
-0.041480
-0.082120
-0.039918
-0.051799
0.066606
0.063492
-0.028297
-0.029669
0.059755
0.039126
0.034334
0.040420
0.023112
0.038561
0.004635
-0.083541
-0.071185
-0.035282
-0.059874
-0.032626
0.011795
0.054963
0.070381
0.031391
0.069061
0.063412
0.031586
-0.027697
0.044720
-0.049960
0.041009
-0.083660
-0.076222
-0.043744
-0.032845
-0.080782
-0.040357
-0.055955
0.018287
-0.039312
0.040719
0.006158
0.082974
-0.078697
-0.054152
0.066666
0.039549
-0.006023
0.026001
0.053045
0.010717
0.030530
0.032581
-0.076022
0.083203
0.073594
-0.035549
0.041054
-0.069633
-0.075588
-0.015710
-0.007249
0.018866
-0.016882
-0.015209
-0.052368
0.042162
0.064658
-0.078331
-0.082853
-0.022140
-0.079983
-0.075239
-0.079974
-0.010091
-0.033538
0.058542
-0.067985
0.018826
0.045482
-0.023991
-0.041338
0.053181
-0.083739
0.034509
-0.019151
0.065917
-0.006436
-0.081437
-0.002432
0.033394
0.000833
-0.014255
0.010369
-0.055766
0.047071
0.085547
-0.019171
0.040559
-0.079272
0.084478
0.078206
0.045584
0.054654
-0.005531
-0.011147
0.033166
0.052428
-0.000745
0.009928
0.005741
-0.063404
0.058456
0.073757
-0.001309
-0.038379
-0.063137
0.045855
-0.074911
-0.016798
-0.000481
0.047670
-0.014172
-0.024792
0.038086
0.030978
0.045086
-0.068870
0.061929
-0.038220
-0.041796
0.008523
0.062755
-0.044826
-0.073856
-0.030171
0.012650
0.013716
0.038564
-0.009242
0.017568
-0.076294
0.075092
-0.026974
0.007097
0.074366
0.056573
0.031756
-0.050128
0.066443
0.011511
-0.018812
-0.015959
0.009422
0.029460
-0.021279
-0.037616
-0.027928
0.022916
0.018056
-0.003442
0.014875
-0.004383
0.031569
0.005643
-0.055270
0.056136
-0.047290
0.041992
0.035889
0.075069
-0.018500
0.007423
0.049558
-0.035554
-0.048371
-0.025421
-0.081775
-0.060342
0.071435
0.049613
0.083447
-0.007482
0.061060
-0.049681
0.083686
-0.012918
0.022346
-0.035532
-0.060975
0.037757
-0.064692
0.064235
-0.048097
0.035225
0.055459
0.056063
0.016987
-0.056222
-0.071063
-0.071119
-0.076588
0.049264
0.009536
-0.065432
0.030487
0.054458
0.081737
-0.036387
-0.060695
0.050440
0.041333
-0.043148
-0.010498
0.012635
0.001246
-0.059091
-0.032368
0.018356
-0.066311
0.076914
0.070399
-0.046523
-0.065570
0.003955
-0.005280
0.070101
0.082137
-0.005373
0.033362
-0.057261
0.071084
-0.030532
0.020574
0.042554
0.060510
0.084148
-0.047974
-0.017156
-0.010231
-0.069380
0.069801
0.084360
0.032848
0.080046
-0.042237
0.011729
0.045012
0.027029
0.058288
-0.036618
0.079839
-0.026275
-0.019792
0.031477
-0.051396
-0.080472
-0.019492
-0.056257
0.028646
0.005114
-0.000106
0.020453
-0.012516
0.020597
-0.044428
0.041447
-0.025943
-0.058091
0.058477
-0.043252
0.001503
-0.058264
-0.002991
-0.051267
0.025476
0.023687
-0.040516
-0.045932
-0.047658
-0.064207
0.043018
-0.002430
0.044014
0.044781
0.047473
-0.014243
-0.081407
-0.028992
0.069284
0.077351
-0.023452
0.040849
0.005541
0.006519
0.041416
0.008681
-0.022315
0.083388
-0.083303
0.008060
-0.052333
-0.001287
-0.078013
0.008063
0.077359
-0.082525
-0.039318
-0.008324
-0.074131
-0.034138
-0.018241
0.046242
-0.012614
-0.065526
-0.017683
0.044151
0.005053
-0.078562
-0.058323
0.052051
-0.039367
-0.030455
-0.074183
0.021832
-0.040676
-0.079937
0.059542
-0.080503
0.002516
0.062766
0.080918
-0.064093
-0.067458
-0.061920
-0.038306
-0.007895
-0.054519
0.048961
-0.041312
0.007302
0.083485
-0.038557
-0.069064
0.059825
0.048159
-0.084705
-0.017333
-0.053247
-0.084802
-0.029195
0.023113
-0.003103
-0.005844
0.004759
0.001066
0.029157
