-0.0540842
0.037683308
0.01062554
-0.054277766
0.0024020916
-0.04701235
0.024581073
0.0073021157
0.0030678285
0.0148606505
0.023995597
-0.044960346
0.05876779
-0.025304224
0.03683639
-0.0095589245
0.0034283686
-0.01655141
0.06808634
-0.04765312
-0.0070760036
-0.05259629
-0.048144594
-0.027881026
-0.0003500361
0.043248896
-0.042435993
0.019310592
-0.004450206
0.011630566
0.07058955
0.08482882
0.03451824
-0.0214079
-0.022253476
-0.04323884
0.0029457358
0.008772769
-0.041916635
-0.029319717
-0.10038505
-0.028694483
0.008790204
-0.030358965
-0.03356962
-0.01134687
0.011701867
-0.034167804
0.018104691
-0.003407573
0.05441687
0.02045045
0.016782839
0.046234377
0.0041653733
0.004230851
-0.059460107
-0.008291233
-0.042749565
-0.01269346
0.024166834
0.03169774
-0.011590778
0.0056400914
0.05908464
-0.051774267
0.01919529
0.03107568
0.014278818
-0.01775436
0.024504075
-0.019745395
-0.000360421
0.013214653
0.022127839
-0.04622801
-0.057823416
0.05944895
-0.07166071
-0.028778885
0.049983907
-0.0034070767
-0.03901255
-0.0072413916
-0.024451347
0.020951621
0.028126923
0.012138136
0.008454675
0.07059154
-0.022689264
-0.051641792
-0.03979584
0.046766277
0.07690601
0.030608127
0.023955353
-0.043694627
-0.019160379
-0.017552905
0.07541883
0.05384324
0.050200067
-0.0014309379
0.041329134
-0.03654814
-0.012303983
-0.018866805
-0.02891684
0.024325091
-0.027555438
-0.07557458
0.023425767
-0.0076452233
0.014784928
0.012311567
-0.043252207
-0.00843134
-0.01854355
0.026159374
-0.027880253
0.016265007
-0.03980479
0.05312949
0.0005503018
-0.0397454
-0.012494101
0.0057399906
-0.07436266
0.01302067
0.063428886
0.03328297
0.03643507
-0.044454858
0.021592159
0.016430302
0.0108317
-0.007842084
0.039699204
0.06194548
-0.03418423
0.087685004
-0.014118403
-0.02977961
-0.061788734
-0.05481026
-0.022762017
-0.058828928
0.023517428
-0.04909178
-0.028025923
0.058063403
0.0073780143
-0.04039909
-0.04783623
-0.047236662
0.016850626
-0.034882005
0.021475986
-0.037189554
-0.07360349
-0.047795836
-0.010614905
0.033441305
0.01913702
0.021073546
-0.024337457
-0.015794704
-0.020635871
-0.031192979
0.014079529
-0.04575851
-0.06470229
-0.01620561
-0.014142064
-0.04390719
-0.016996989
-0.032685865
0.0042827246
-0.01800239
-0.035550755
-0.03324663
-0.0614235
0.080591716
-0.027527632
0.021675406
0.005158748
0.022583727
-0.06266302
0.029819688
0.022179538
0.00834732
-0.049343523
-0.028534159
-0.0005749512
0.04552626
-0.018630706
0.019191489
0.0061495993
-0.037594415
-0.07153761
-0.039349586
-0.018655075
-0.030265303
-0.03453859
0.013796637
-0.06157288
-0.016810555
-0.042607963
-0.00015366367
-0.047073904
0.04778759
0.03724961
0.03930378
-0.0409478
-0.018591844
0.021384723
-0.025610175
0.011171513
0.022335066
0.004341961
-0.0061502755
-0.03629191
-0.036613476
0.0065005547
0.069029644
-0.0021275214
-0.055087157
-0.01238909
-0.06724355
0.03385794
0.02839687
-0.0028505917
0.059215613
0.024980841
0.029005045
0.04631292
0.05141432
-0.0025391048
-0.010474741
0.030922135
-0.027804235
-3.911566e-05
-0.037996452
0.027483616
0.0003621197
0.06862908
-0.045865044
-0.052228287
-0.029281328
0.017591622
-0.007436756
0.03296367
0.031197932
0.022291673
-0.06067806
0.00893762
-0.08364611
0.013920485
-0.051679544
-0.00116525
-0.007913846
-0.0031630273
-0.0149632795
-0.037139755
0.008206
0.017211074
0.019640578
-0.008553368
0.0070731817
0.069273785
0.038455307
-0.08516841
0.0036151302
-0.010131004
-0.0020830326
0.016950404
0.0008634943
-0.044520542
0.04904176
0.018677915
0.027991878
0.029880567
-0.024821594
0.0070909434
-0.008575971
0.0045783045
-0.0437016
0.05569362
0.02668657
0.019837203
0.0027127273
0.021095492
-0.030340435
-0.035024002
0.017862309
0.11068158
0.057631917
-0.040779453
-0.014927365
0.026762106
-0.041615944
-0.011596845
0.036252074
-0.00019470853
-0.019164205
0.0070217606
-0.10485627
0.023490483
-0.02169562
-0.008843292
-0.05356694
-0.073112674
-0.012643833
-0.015566805
0.045616675
-0.05031393
-0.029389542
0.0036068677
0.0450715
-0.042926263
-0.024363607
0.01711541
-0.001993171
0.03972546
0.015556165
-0.050006036
-0.021506235
0.042725015
0.049311064
0.025128867
0.042311557
0.004781237
0.02625822
-0.028693877
0.0014724142
0.0894394
0.018634079
0.09446105
0.0031527248
-0.08025315
0.0032883955
-0.04287351
-0.029041072
-0.0121465195
0.002731141
0.02216902
-0.018668026
-0.004930712
0.031348582
-0.0064276266
0.004878913
0.05128768
-0.031596478
0.011057629
0.022871312
0.00032225455
-0.0469469
0.046270788
0.040846195
0.041713964
-0.019732308
-0.041838653
0.055857837
0.02468109
0.022698717
-0.021101084
0.032046616
0.015783418
-0.03700034
0.05544498
0.017092118
-0.015895335
-0.11175261
0.040621426
-0.042209424
0.027873509
-0.014850433
0.013966565
-0.035420123
0.035788726
-0.006290444
0.02450806
-0.010294772
0.029326607
-0.0066083902
-0.011930311
-0.011160046
0.033712093
-0.009730112
-0.027293392
0.06544873
0.026717424
0.045037057
-0.012847541
-0.056590438
0.0052616852
-0.037383497
-0.007168589
0.016828923
-0.0057129003
-0.0014536926
-0.06572116
-0.06321399
0.042764965
0.033745326
-0.021879401
0.03293393
0.014386399
-0.056541834
0.045204014
-0.0154579915
0.045741297
0.1026237
-0.062316123
0.050694007
0.057379976
0.0018887067
0.029297993
0.007826667
-0.017856866
0.014778601
-0.007957089
-0.068491034
-0.009096222
0.0023062811
-9.880769e-05
-0.017468464
0.0062223184
-0.034711402
0.030235041
-0.018548371
0.025892725
0.06943695
-0.006045243
0.0069221323
0.0106595
0.0379142
-0.003810875
-0.01630109
-0.08874568
-0.04548734
-0.060083274
-0.040524922
-0.024357466
0.03834871
-0.03160601
-0.024778623
-0.05028602
0.029899504
0.036974218
0.021270346
-0.023460217
-0.09726383
-0.01827329
-0.041182727
0.017797953
-0.049091104
0.02786049
-0.032426696
-0.0461404
-0.04105266
-0.0038563185
-0.015907206
-0.015982864
0.055182755
-0.013038916
-0.029932188
-0.031351335
0.03541878
-0.051065724
0.014085182
-0.010027532
0.0059680655
-0.091770194
-0.05199335
0.055766653
0.0723617
-0.03414535
0.0049764775
0.005026837
0.04442726
0.081463255
0.004847277
0.0007665487
0.0067813774
-0.01686115
0.0701468
-0.010091064
-0.06751734
-0.051810537
-0.051476866
0.039567042
0.033090293
0.019943899
-0.02199771
-0.02503274
0.05409324
0.01345912
-0.031224964
0.060777377
0.0038356646
0.013668567
-0.0024215444
-0.0030904561
-0.06480392
0.051189583
0.09511679
0.016387837
0.022268483
-0.027777288
0.011771018
0.053625476
-0.021176837
0.009871782
0.07358104
-0.04652705
0.0063122697
0.029289618
0.034795336
-0.010350973
-0.025936987
-0.07603754
0.031103078
-0.016399136
0.13246605
-0.11423491
-0.010240382
0.014919554
0.07042461
0.07098356
0.01032931
0.070408
0.059149567
0.026520146
0.07576907
0.023833416
-0.07200221
0.010748713
-0.017806713
-0.03089131
-0.0354295
0.0151155945
0.030267993
0.02189991
-0.016539693
0.0074863816
-0.029532492
-0.025490277
-0.004731548
0.022962658
-0.018823437
-0.025587106
0.022074128
-0.047623474
-0.06141057
-0.013221444
0.02436392
0.015492601
-0.09952155
-0.0066583264
0.03417023
0.035054073
0.029572856
0.12665194
-0.008193499
0.012565084
0.07047489
0.024914913
0.0026159221
0.0033154234
0.07621439
0.0021887796
-0.025382936
-0.032452434
-0.036026634
0.037059836
-0.016177813
-0.0406446
-0.014967702
-0.03270255
0.065707184
0.02143335
0.0029030303
0.012140016
-0.014174009
-0.053919483
0.019199181
-0.03821868
0.0077616675
-0.02102659
-0.02937178
0.053387977
0.00081574137
-0.07257676
0.039501656
0.04094959
0.020784017
0.027121812
-0.0066608503
0.014493656
0.014827324
-0.0046253586
-0.0052221483
0.0028044796
-0.0005943875
0.006554706
0.015103431
0.0317521
-0.00454613
0.04678375
0.04801081
0.020069517
0.053433105
-0.03378621
-0.002398354
-0.024895763
0.037624527
0.009651681
-0.020255314
-0.05828357
0.023416268
-0.021654582
0.0024423243
0.023798125
0.00774651
-0.007385307
-0.05774809
0.009834976
0.069369026
0.036461975
0.048686553
-0.0022946543
0.09129213
0.05064447
0.02465005
-0.024213232
-0.04581356
-0.029855538
0.050036013
-0.0073535256
-0.044035397
0.03113424
-0.012935721
0.00877854
-0.031012625
0.02746355
0.0058680824
-0.03345461
-0.013423448
0.027640762
0.016373577
0.027155885
-0.08221177
-0.0014120176
0.0066408515
0.029032316
-0.002793583
0.04644134
0.04039719
-0.024062328
-0.008599042
0.024513744
0.026065474
0.010585587
0.031779855
-0.004353621
0.052921955
0.003470564
0.022190316
-0.028912181
-0.015437065
0.028808108
-0.0019103246
-0.035194874
-0.02373548
-0.015882075
-0.012296182
0.02750294
-0.029542184
-0.03675547
-0.0007649351
0.026705354
0.0003334073
-0.09811532
-0.015141572
-0.011253059
0.02139262
0.103204384
0.045933947
0.02327043
-0.075652786
-0.07904233
-0.06604498
0.0023068492
-0.024332844
-0.028741732
-0.018240243
-0.007934745
-0.053174525
-0.06426622
0.044289157
-0.0062010027
-0.009964448
0.03513194
0.012529765
-0.014718232
-0.020076275
0.027376568
0.033262145
0.027046213
-0.027238348
0.022640193
0.09119608
0.051187467
0.02126937
-0.05815863
0.069162
0.035946853
-0.031650975
0.016591785
-0.041161142
0.0054848716
0.04296685
-0.022258287
-0.049437612
0.027069084
-0.022505805
0.011073492
0.00538576
-0.012119877
0.037292823
0.0051777465
0.068938255
-0.045938674
0.041928004
0.06452777
-0.028299103
0.028944181
0.034558255
0.10698096
0.027472299
-0.008087674
-0.017626742
-0.0067970566
-0.042207252
0.018639587
0.0034056772
0.022300243
-0.0011619201
0.01070696
0.0068850354
-0.04421462
-0.0038513748
-0.01829831
-0.029069958
-0.020584958
-0.06950851
0.0031476473
-0.0054402864
0.023418298
-0.017710865
0.030328231
0.04180562
0.06349625
0.036165483
0.033512205
-0.011043754
0.034799136
0.013843777
-0.005869475
-0.023048207
0.03991896
0.023129074
-0.034195546
0.01682143
-0.0011759595
-0.05580961
0.0008200272
-0.0025118487
-0.0294395
-0.04999796
-0.03067226
0.030448854
0.042942
-0.05546928
-0.0044231946
-0.020460218
-0.0047861133
0.00409732
0.02438265
-0.00038872845
0.0089315185
-0.005216966
0.021580826
0.017053293
-0.0054321256
0.037533443
-0.061667867
0.007171412
-0.051535815
-0.033570316
-0.09759693
-0.031233469
-0.020714285
0.03394293
-0.030774001
0.04042067
-0.01639112
0.0018659893
-0.0027820494
-0.051442895
0.0014974402
0.009639444
-0.046239253
0.005798894
0.053395957
-0.049535953
-0.007294978
-0.0035038984
-0.0768171
0.028977256
-0.021471621
-0.008482988
0.043138277
0.016571373
-0.03938714
-0.026344223
0.0032260865
0.0047049965
-0.015568332
-0.043802675
0.02501571
-0.005049119
0.07137658
0.046882644
0.02371703
-0.048039317
0.039251972
0.0020123776
-0.059264746
-0.053991918
0.035300426
-0.010433113
0.037715234
-0.019859957
-0.0065003303
0.0057753976
0.037204284
0.04340049
0.05932725
0.07170532
-0.014574008
-0.051652897
0.045236558
-0.03881262
0.046538457
0.008685219
-0.0052422215
0.02394702
-0.0047214376
0.11290829
-0.06392606
0.029739873
-0.016660254
-0.06089527
0.03571878
-0.047355704
0.019167397
-0.03816505
0.041773293
-0.020210642
0.007932737
-0.046003297
-0.0189429
0.03149034
-0.03090918
0.0007078453
-0.0053514144
-0.046285123
0.03125054
-0.068088554
-0.010972958
0.025916366
0.001588731
0.022967843
0.0312753
0.023641147
-0.038659424
0.004562188
-0.042381927
-0.04846738
-0.033363007
0.029778099
0.0080187265
0.037754167
-0.035880707
-0.048442457
-0.0054420005
0.025499076
-0.017239364
0.013806494
0.03706876
0.043633185
-0.00848722
0.059809186
-0.029778747
0.07183508
-0.043484084
0.0005156945
-0.10684023
-0.0019071113
-0.049815282
-0.03142481
-0.09579003
0.01212951
-0.057938747
0.010447883
-0.05082167
0.073814586
-0.012049099
0.025936823
0.00802445
0.011297063
0.0488077
0.025727205
0.036335476
-0.02539702
0.079714775
-0.088792756
0.05218315
-0.071106486
-0.0038527513
0.0032027175
0.031236231
0.023421396
0.011096069
-0.021564504
0.013997628
0.008957794
-0.0214684
0.04845436
-0.010171681
-0.010766755
-0.02454148
0.04023838
0.06203769
-0.03699791
-0.009447515
0.036549833
-0.060126446
-0.0046084183
0.011143165
-0.015502919
-0.00019949002
-0.085279666
-0.039753255
0.08992412
0.014148173
0.03266073
0.026421893
0.020448184
-0.03691367
0.038597606
0.06914172
-0.0006050924
0.06412842
0.013700524
0.0007972693
0.058883008
-0.056460712
0.015245235
-0.017182205
-0.0019172449
0.01798892
-0.026381413
-0.06789666
-0.029858349
-0.066308565
0.03563452
-0.039492488
0.03247921
0.0400971
0.025773328
-0.001547992
-0.029262828
0.0072010043
-0.022498852
-0.05152756
0.067267984
-0.074764535
0.052848823
-0.023495264
-0.01638292
0.024992827
-0.006673429
-0.052958626
-0.066417724
-0.024686042
0.0787097
0.057366382
-0.06948343
-0.04102257
-0.009113934
0.01376514
0.025121188
0.026325747
0.039240725
0.0329996
-0.032336846
-0.012390479
0.045054164
0.024327585
0.023282528
-0.0060784332
0.04769589
-0.049927272
-0.023047607
-0.02038244
-0.05269308
-0.06905616
-0.1473415
-0.061284073
0.06897884
0.008694539
0.045402672
0.0055032927
0.04655429
-0.011932961
0.010489028
0.009644178
0.006283751
-0.0063093747
-0.009644619
0.04914996
0.014674523
0.0019157378
0.038935687
-0.041812606
-0.016648928
0.09475741
0.052564543
0.005853578
0.022215499
-0.01388603
-0.045773037
0.02567458
-0.06038518
0.08382933
-0.026253585
-0.04567965
-0.0047240113
-0.04562079
0.026489541
0.010297354
-0.026894676
-0.032516308
0.024640867
-0.043997172
-0.058982477
0.033049066
0.05006816
-0.066922985
0.00051015464
0.03249743
0.08344624
-0.065122865
0.011704117
0.011039604
0.02656631
-0.07723939
0.022668276
-0.015740614
0.036378443
-0.030431693
-0.043019027
-0.049382325
-0.017140877
0.01407949
-0.03264449
0.040121388
0.0052315663
0.050238643
0.047460604
0.010269693
-0.021409836
0.04409269
0.022568697
-0.031377047
-0.013727005
0.017388467
-0.04206659
-0.05140264
-0.014453043
0.030366091
0.038154162
0.01164317
0.012751512
0.05659161
0.0121986065
-0.0033429265
-0.03372242
-0.044843677
0.03230398
-0.0076209856
0.03986034
0.007848687
-0.0055935867
0.039326478
0.003035406
-0.003765821
0.0013379391
-0.047171865
0.0031925656
-0.010505504
-0.10263178
0.025637154
0.008527425
-0.010277048
0.026836313
-0.062739484
0.019764645
1.2910265e-05
0.008021509
-0.05159855
-0.029884858
0.061026134
0.051329806
-0.060885157
-0.085144036
0.043430258
0.0062926044
-0.00595045
-0.022775287
-0.022529894
0.021699134
0.018280827
-0.007064119
-0.029620692
0.025000062
0.021416597
0.00036982342
-0.02687094
0.021771394
-0.004513456
-0.023503657
-0.014039012
-0.05396188
0.026599724
0.010116061
-0.01931062
-0.0039434386
-0.020454198
0.030030364
0.0024695373
-0.0134860445
-0.0041268766
0.10851287
-0.015512373
-0.012343855
-0.009622633
-0.036706954
-0.028008806
-0.03609626
-0.05938652
-0.03511449
0.020463433
0.020447731
-0.013164962
-0.02719744
-0.057411358
0.012709624
-0.0098998435
0.025581004
0.011350181
-0.049248513
0.03980426
-0.036499858
0.026437003
0.012284985
0.027185068
-0.017829742
0.08868892
-0.073024824
-0.019565811
-0.0018361717
0.0369351
0.034876112
0.022860428
0.030135103
0.025025574
0.099256694
0.029886177
0.0027549563
-0.0023341335
0.01070288
-0.0029820686
-0.0050961645
0.037550487
-0.02644593
0.047529288
0.074719034
0.035186257
0.047304768
-0.090224504
-0.000368822
-0.047941856
-0.011166325
-0.04595918
0.025238702
-0.054981604
-0.01820979
-0.031223187
0.03134116
0.005668518
0.025393017
-0.024072723
0.043471724
0.022043014
0.017004501
0.029214978
-0.024001407
0.008960035
0.022560071
-0.006785058
-0.013054338
0.039169982
-0.016380338
-0.047328267
0.033756103
-0.05747641
0.0033898468
0.048371974
0.04691631
0.054411434
0.042315945
-0.010475776
-0.037983734
-0.024044057
0.03478083
0.0180716
0.027538422
0.0060368585
0.067441374
-0.0041987556
-0.016105441
0.002351191
-0.006168948
-0.0010949895
0.05818109
0.07674992
0.04228371
0.098018534
0.09286357
-0.017760416
0.057156425
0.0092587555
-0.008440005
0.07094474
0.03824511
0.071639486
0.0710121
-0.0025441938
-0.0566384
0.018685075
-0.04627636
0.083414555
0.010070379
0.013455844
-0.011416399
-0.0029967588
0.027698316
0.009277898
0.10382326
0.02676963
-0.00036563855
-0.0025992498
-0.03379755
-0.029826999
-0.007365168
-0.051040135
0.03130226
-0.0730113
-0.022375537
-0.060189955
0.012797004
-0.08381144
-0.049255703
0.0015600251
0.032706782
0.04683048
-0.085171744
0.0025997213
0.03254972
0.033932198
-0.026005173
-0.061713718
-0.005165692
0.0033944251
0.015885329
0.00675447
-0.023780616
-0.046973236
-0.067033775
-0.036540978
-0.019855391
-0.035626188
0.01839316
-0.027874501
0.039282613
0.025696909
0.002135205
-0.04717964
0.057287768
-0.009253137
0.0023184326
-0.015433234
-0.007987258
-0.005851613
0.05939918
-0.043584146
0.06416081
-0.017399775
0.04051124
0.021185603
-0.0012013203
0.0043659885
-9.732979e-06
-0.036236953
-0.012985948
-0.021155884
-0.048129365
0.016061224
0.021697234
0.10189896
-0.024338411
0.016434696
0.029727839
0.013269951
-0.015053365
0.055639826
0.042026117
-0.014863333
0.013654198
0.007058197
0.020890594
-0.08945195
-0.0014164888
0.013648135
0.012409907
-0.040685624
0.011019617
0.04414274
0.07800726
-0.068478376
0.06924487
0.018614724
-0.05349
-0.043767195
-0.0055942265
0.023169214
0.065399714
-0.0053232163
-0.023371713
0.026499055
-0.003539376
-0.014305414
-0.038877558
-0.02020864
-0.04735882
-0.034321737
0.033088766
-0.09160358
0.0018716675
0.03905298
0.007741244
0.044544466
0.0023200833
-0.0057995
-0.049726807
0.020181196
0.027080255
0.08609693
0.013907929
0.0007875995
0.035446804
0.049378935
-0.019616175
-0.080498226
0.017525017
-0.0023885982
0.009842569
0.020326994
-0.0024598464
-0.012782097
0.014184794
0.07677959
0.055951804
0.07020056
0.0023118372
0.007490927
0.07708105
0.01802751
-0.0042278604
-0.02858811
-0.045729354
-0.0023252217
-0.06304035
0.0376545
-0.07898041
-0.006338957
0.034732953
0.018080587
-0.072058454
0.018414957
0.00251459
0.045976028
0.02728061
-0.022475211
0.0002481788
0.061762262
-0.025054611
0.009906596
0.038169347
0.013728445
0.01273001
-0.043775536
0.013962042
-0.0053202864
0.022519903
-0.0064592506
0.04360349
0.03638661
0.067153476
0.00967413
-0.0004975989
-0.003662221
0.015059448
0.03771576
0.036663458
0.036326867
0.005295767
0.010238659
-0.03152301
0.0012628157
0.029796546
0.016419487
0.032993834
-0.014803621
0.07170227
-0.05505386
-0.0343336
0.084790975
-0.018527053
0.02156681
-0.0046713986
0.052683305
0.017233588
-0.010280234
0.0011909604
-0.07632788
0.0146750305
0.008782398
-0.00017355008
0.04358888
0.03804498
0.03959121
0.0026258947
-0.002873296
0.014451444
0.05895888
-0.026548719
0.05682917
-0.09001557
0.02018773
0.024475178
0.01512825
0.03774663
0.0027438437
-0.038878992
0.021410331
0.057593755
-0.008712203
-0.017696742
0.020905966
-0.0020329081
0.028153338
-0.0048066704
-0.03737229
0.07084528
-0.04555383
-0.014116238
0.047753897
0.021759998
0.011373792
0.010269019
-0.015074437
-0.04458736
-0.0069501866
0.06477185
-0.069782495
-0.03932194
-0.0028950372
0.033982858
0.018781174
0.026074585
0.047325917
-0.024310928
0.036065213
-0.06489687
0.012921697
0.062358554
-0.031556666
0.048318792
-0.013833717
-0.007149408
0.05064573
0.008694119
-0.021251708
-0.02598813
0.0010655686
0.0070107304
0.021719933
0.013782118
0.022606462
-0.033052515
-0.012828978
0.015200558
-0.060228705
0.08882392
0.0047621536
-0.025710998
0.008722142
-0.03413517
0.015443208
0.0049777036
-0.09288593
-0.026596723
-0.004890449
-0.0067944475
0.028003758
-0.06205724
0.016301896
0.006796839
0.037122756
0.04895579
0.020603148
0.062161393
-0.021892479
-0.0075587104
0.033888157
-0.011492796
-0.02031173
0.0014862408
0.038892556
-0.0400015
0.019860394
0.012847121
-0.020758506
-0.037368633
0.051662493
0.02284395
-0.009826813
0.01831324
0.017892338
-0.044529777
0.047021013
-0.03884166
0.009087803
0.008982428
-0.015900323
-0.00010540464
0.120124854
0.001409038
-0.04679864
-0.02583648
0.024877656
0.04287732
-0.045792446
-0.025646705
-0.035686877
-0.054031786
-0.047417942
-0.015410828
0.05164374
0.018643856
-0.049411207
-0.012206568
-0.03333189
0.014423741
-0.062359154
-0.046083596
-0.06467833
0.015494119
-0.050507143
-0.028217522
-0.029001994
0.0026711454
0.03216102
0.034291673
-0.08331007
0.009960533
0.060171977
0.01837131
0.0057199504
0.03558429
0.018487379
-0.023220435
0.012562056
-0.03382216
0.020365026
0.039345592
-0.0054336763
0.04007089
-0.006667101
-0.06399896
0.08006118
-0.02932984
0.031276185
-0.0047005164
0.07719164
0.03614349
0.008406946
-0.018518258
0.018175006
0.040821515
0.011342291
0.011064164
-0.047700647
0.055947497
0.03371128
0.013727455
0.01448336
0.012076868
-0.03448796
-0.010405616
-0.06570931
-0.008539352
0.06578681
0.089104444
-0.02096167
0.021932207
0.013759078
-0.037090074
0.022300618
0.017453663
0.012280207
-0.014629244
-0.025645612
-0.07172514
0.036015335
0.10102014
-0.06849192
0.069795236
0.011242075
0.008684716
0.06621271
0.020781033
0.054215923
-0.001275596
-0.010407983
-0.058575667
-0.079872586
-0.014917921
-0.018765485
-0.019880636
-0.0048093954
-0.004875893
0.026379734
-0.014871218
0.032480866
0.015156081
0.019878043
0.0076096226
0.0067240517
0.067140885
0.052965418
0.013423804
0.016364956
-0.031176507
-0.015277765
0.02235145
-0.06001743
0.020619394
-0.021302933
-0.004403407
0.021143956
0.018817669
0.027608313
0.045875873
0.04399071
-0.008279389
0.041758932
0.058626685
-0.0079956725
-0.0013238832
0.00081773
-0.0061878376
-0.006342109
-0.026413107
0.029903537
-0.034396164
-0.022801153
-0.0051881624
0.035541557
0.010995609
-0.03590652
0.056374338
0.043730017
0.05805377
-0.005324488
0.10287388
-0.011019943
0.028181616
0.020369729
0.014992286
-0.05604741
-0.08394035
0.11908794
-0.005986983
-0.024534795
0.0034809818
-0.020381588
-0.06627254
0.049782638
-0.055117287
0.03745607
-0.033288512
0.051545072
0.03585257
-0.06806137
0.008616992
-0.05829761
-0.028279541
-0.039563205
0.044805482
-0.008272584
-0.015991539
-0.09731289
0.02385369
-0.020546904
-0.0013443292
-0.04902375
-0.08173758
-0.01122164
0.0009725408
-0.022792203
-0.03848291
0.05300046
0.051712297
-0.01801899
-0.014871668
0.04803882
0.069012985
-0.0262112
-0.0066348715
-0.11416359
0.0036283466
0.009467063
0.06749481
-0.00947028
-0.012546504
0.0071517546
0.008145508
-0.049874783
0.026291573
-0.018534882
0.009849891
0.051896747
0.01658923
-0.093361266
-0.073178895
0.004942217
-0.022705844
-0.032373887
0.068112254
0.021486538
0.048956443
-0.041608077
-0.040544108
0.020678861
-0.0038055468
-0.006118772
-0.027617654
0.0096982
0.043434866
-0.030182842
-0.062086027
-0.029849
0.01817218
-0.013557053
0.009821133
-0.039847575
0.043371543
-0.08796317
-0.024778368
-0.00040642815
0.036626894
-0.02657845
0.028248316
-0.040672727
0.01934185
-0.0040646805
-0.0072240727
0.030852387
-0.016278403
0.00087062345
0.04106661
0.018223304
-0.008538802
-0.031799387
-0.021223964
0.0348748
0.041421544
0.06569575
0.00021754591
-0.0050212317
0.0062315753
-0.009037987
-0.03199542
0.008126922
0.018894823
0.05965812
-0.0961483
0.098427325
0.038758717
-0.025174199
-0.036017034
-0.030676529
0.032032415
0.07579119
-0.05499492
0.007991568
0.00059944723
0.028502123
0.00045951048
0.02688475
-0.015010226
0.066781566
-0.04534021
-0.010491743
0.04549126
-0.008256294
-0.006186413
-0.015347263
-0.03140108
0.02654786
0.026415562
-0.021359148
0.015718454
-0.005446912
-0.0052494965
-0.035796728
-0.044573702
0.03194596
-0.067774475
0.0067404024
-0.055141926
0.028405353
-0.008022283
0.116998576
0.00064374873
0.0077504423
0.01858202
0.014004672
0.09587942
-0.022532577
-0.10574571
0.043885607
-0.029775834
-0.030158741
-0.12403972
-0.03816978
-0.052182216
-0.04787195
-0.017980581
0.07691829
0.02185266
0.010397783
0.045188002
-0.058109898
0.0642748
0.040032573
-0.036181882
-0.025347553
-0.048983153
-0.039349746
-0.00768555
-0.025076274
-0.05858107
-0.0004766413
-0.009668049
0.0011351969
-0.08966915
0.01577397
0.03209682
-0.03675358
-0.017432103
0.05449711
0.060127836
-0.03540305
0.064324774
0.095393024
0.041582786
-0.021416824
0.037362058
-0.050188117
0.039643504
-0.0113501735
-0.07101786
0.0071276007
0.023251733
-0.017140439
-0.013488793
0.08387864
0.08236933
-0.00010843471
0.010290084
-0.0076150177
-0.027891364
-0.022808522
0.0018962275
0.031882513
0.017986508
0.015670456
-0.0002482334
0.0044038785
-0.04884862
0.0015108814
0.08897031
-0.03925843
0.010671038
0.0101815425
-0.05938645
0.047927983
-0.06341828
-0.06550221
0.00046661418
-0.0007181207
-0.05483583
0.011091386
-0.053811748
0.05266396
0.01085831
-0.0069194864
-0.018546645
0.025627
0.008744373
0.027453309
-0.04628814
0.042615592
-0.019623013
0.010174314
-0.060678832
-0.07991559
0.009470931
-0.051609065
-0.03561909
0.061559904
-0.034957357
-0.02617203
0.010789712
-0.040902633
0.038025763
0.018867971
0.00033782885
-0.02098003
0.0035930814
0.037694726
-0.013866179
-0.056962684
-0.011331006
-0.0542278
0.06625094
0.0018898227
0.02055564
0.024064118
-0.05686689
-0.010031068
0.028159358
0.01637717
-0.015381272
0.016497105
-0.011050733
0.028038826
-0.035081696
-0.0024993068
0.005080931
0.010241256
0.013804706
-0.03899142
0.022906663
-0.042950384
0.017411014
0.045660187
0.03200932
-0.0262174
-0.024486104
-0.030961746
0.0447268
0.0086406525
0.0064387163
0.0147778
0.028056584
-0.014663676
0.006279746
0.0065871007
0.056570113
0.007690198
-0.004660087
-0.045328498
0.08051674
-0.04876418
-0.031456012
0.03987051
0.0131525695
0.020786792
0.0533262
0.068858825
-0.002122934
-0.017512526
-0.04387585
-0.06301652
-0.053439148
0.007683918
-0.024747932
0.034870937
-0.053368635
0.034358412
-0.018892981
0.0007089464
-0.092892826
0.017216844
-0.035458338
0.057692558
-0.062305856
-0.0059768623
0.05558689
-0.000118923694
-0.045517605
-0.009903844
-0.03832072
0.03839099
-0.027133154
-0.031485524
-0.029064063
-0.007834814
-0.06614911
0.061315548
0.07721592
-0.036938395
-0.0038739555
-0.04739204
0.032295726
-0.005469808
0.0017317517
0.049310952
-0.0152068725
0.03273821
0.06426025
-0.05333683
-0.00844026
-0.038127445
-0.03252903
-0.004996547
0.040467232
0.07140832
-0.024967352
0.0006391925
0.016254615
-0.0051701167
-0.030259233
0.010914257
-0.007924069
-0.0034745801
-0.007909096
-0.0044668266
-0.066367134
-0.071110256
-0.028980287
-0.027262632
-0.0730802
-0.005932504
0.027856717
0.011571883
0.026925499
0.0111824535
-0.008319709
0.009138033
-0.0025014544
-0.014145699
-0.0070263264
-0.02012965
-0.06558195
0.0041223974
-0.034316022
-0.039745927
0.0013622415
0.012179867
-0.033170447
-0.10360377
0.005401449
0.024428159
0.029738938
-0.0058194585
0.106795855
-0.03181451
0.01279429
0.047384042
-0.027072921
0.05828845
0.0511882
-0.03628142
0.039790794
0.008006806
0.04445409
-0.014186105
-0.008556908
-0.020881917
-0.007007278
0.017634194
0.04274026
-0.01531893
0.019480672
0.059860792
-0.016892059
0.04251706
-0.06707846
-0.043696012
-0.048280884
0.011089954
-0.0043574944
0.026525911
-0.021447266
-0.050605755
0.009025571
0.039255183
-0.016942756
-0.06393161
0.0109247295
-0.03768372
0.043747038
-0.0305765
0.064383544
-0.036288116
-0.1031289
-0.048878457
-0.041700464
-0.0059809224
0.014771175
0.007964608
-0.024242928
-0.024924835
0.04344112
-0.10552549
-0.0317296
-0.0540856
-0.013541325
-0.04793378
0.02805754
-0.03317404
0.03154719
0.039571896
-0.035011902
0.03770325
-0.0010213072
0.011907541
-0.016784295
-0.0041059763
0.040671833
0.07593205
0.0115586445
-0.020499408
-0.030405909
-0.020383
0.05213671
-0.023059132
0.03567811
0.026120553
-0.06359921
-0.013465159
0.023347046
0.018901942
-0.009174558
-0.020443346
-0.03359021
0.10583887
-0.041337766
0.052722815
0.013202261
-0.023752466
-0.014815436
-0.02967932
0.016685525
0.023689955
-0.0031263707
0.035567433
0.059411384
0.057268217
-0.0070617045
-0.07308683
0.058076456
-0.010015698
-0.032720298
-0.04218534
0.0029063828
0.071927436
0.036917746
-0.058157112
0.054599248
-0.045761283
0.019896153
-0.016984012
0.0146908965
-0.053204212
-0.015857605
0.06379933
0.039864812
0.025819825
0.008257804
0.029577462
-0.0022057605
-0.026635988
0.019370483
0.051205285
-0.03273278
-0.0028984125
-0.028723305
-0.02391468
0.0029204297
-0.0036531258
-0.038336683
-0.00039186043
-0.0044554765
0.015675666
-0.032019127
0.0047083576
0.017604707
0.01485016
-0.049316466
0.05828196
-0.03567007
0.04042446
-0.044626873
0.006729795
0.017398203
-0.012254527
0.0014533619
0.06990844
0.023337567
0.03432293
0.071956836
-0.033512965
0.046985567
-0.022092072
-0.0651965
-0.08033074
0.037104905
0.074376404
-0.06275835
-0.0036816816
-0.032397456
0.06735505
-0.027572017
0.017346466
-0.008308658
0.037300065
0.002787517
-0.06248131
0.028989714
0.040362697
0.016358044
-0.065433785
-0.03660279
-0.0718129
0.026988104
0.0031871384
0.01122495
-0.10538549
0.019207984
0.032257408
0.042943735
0.010816544
-0.046148118
0.042296164
-0.03560458
0.0038091708
-0.016684918
0.079123415
-0.07231858
0.073312275
-0.02246889
0.0086946925
0.014154985
-0.011649698
0.027822508
0.04926682
-0.047550727
-0.061930962
0.03471681
-0.11509506
0.011817458
0.017981337
0.0041519264
0.04972877
-0.0045865346
0.0460254
0.029200848
-0.053246617
-0.013979974
0.039769795
-0.0488421
-0.042966638
0.033718787
-0.002374723
0.031445295
0.009342112
-0.039070703
-0.03514304
-0.061146066
0.014350082
0.023525612
0.060250644
0.0047252425
0.023145843
-0.05240003
-0.025484147
-0.027974524
0.044713356
0.025031973
0.034107845
-0.015560588
-0.045942318
-0.008583738
0.04627795
0.045835525
-0.08324388
0.0043808715
-0.008952281
0.035900705
-0.022708634
-0.012679036
0.013269339
0.031783666
-0.03078576
-0.043204848
0.051745433
-0.004023954
0.058875296
0.04514363
0.08036197
-0.048089948
-0.060324546
0.049848888
-0.006387518
0.005203157
-0.06848885
0.009967823
0.027287483
0.06865774
-0.011915185
-0.05225497
0.031555418
-0.023127925
0.0611361
0.029375913
-0.020922134
0.012258722
-0.120412126
-0.020489382
-0.0032426892
0.0077403192
-0.03323063
0.014593016
0.010437391
0.09431539
-0.033163916
-0.015908442
-0.030406341
-0.020616945
0.0061962875
0.018617753
-0.03180321
0.049238995
0.019103132
-0.044183996
0.025175072
-0.022897972
0.004378942
0.018930145
-0.024158478
-0.025494484
-0.0037335763
0.04055088
-0.013316269
-0.023303753
-0.005722443
0.1176793
-0.012816439
0.056382414
-0.0027369221
0.01481728
0.0052164905
-0.0453452
0.0016807948
-0.029208466
-8.6375585e-05
-0.020685533
0.068428196
0.027300084
-0.0084648235
-0.05753322
0.029073782
0.03842285
0.06432983
0.047106463
0.027081443
-0.012685943
-0.019181984
-0.06858511
-0.014799514
-0.0023828212
-0.005995767
0.015012544
0.039458442
0.019340448
-0.071539156
-0.066253394
-0.059478167
-0.01851795
0.025223073
0.053182613
-0.0061880294
0.04486368
-0.040629536
-0.023929473
0.036218677
0.05006139
-0.06129324
0.018303858
0.02286734
0.05159948
-0.002752095
-0.035070594
0.01233191
-0.019500347
0.0030405624
-0.01345339
0.010648593
0.021022556
0.021283416
-0.037367508
-0.0949368
0.08839985
-0.020832118
-0.0489606
-0.04158026
-0.00022607384
0.026573036
0.051785283
0.024909753
-0.03045184
-0.025102675
-0.0105888285
0.0282304
-0.03959423
-0.05022708
0.033812627
0.08438514
0.041211337
0.046294704
-0.025029778
0.015195341
0.04008162
0.032268666
0.067293085
-0.019327462
0.022807878
0.028104475
-0.055639025
-0.0026635062
-0.019757902
0.008428827
-0.0014033266
-0.05081394
-0.04607115
0.018109951
0.0051922547
0.008296139
0.023184994
-0.08109472
-0.0053092125
0.04252361
-0.010716802
-0.032565594
-0.020870773
-0.005393303
0.056404173
-0.0031564238
-0.016546791
0.026209075
-0.018217927
0.019297363
0.008053704
0.03213254
-0.0022112685
0.036108274
0.015947513
0.0224491
0.04713112
0.006867166
-0.037114456
-0.013646085
0.02616042
-0.051681112
0.04430127
0.0050324504
-0.028838385
0.004984934
-0.045579083
0.01566771
0.0021919054
0.04082376
-0.00964199
-0.011465762
-0.037212085
0.013107838
-0.022492876
-0.030180851
0.012386919
0.0011467449
0.047514535
0.016714139
0.053402156
-0.037602138
0.0002399954
-0.02405878
-0.048918426
0.04283079
0.0071144537
0.011808294
0.02730944
0.010534286
-0.06333243
-0.0022177382
-0.00202145
-0.11415254
0.057396956
0.056817446
-0.033798076
0.023364322
-0.037155226
-0.0149029475
-0.049044333
0.02225231
-0.00015238093
-0.0046724514
0.041485697
0.030011103
-0.007840936
0.031905215
-0.08584334
0.05455106
-0.024766147
0.03958306
-0.03934996
0.008717946
0.03717788
-0.08725282
0.02674767
-0.07470799
-0.013400577
0.008969464
0.029391626
0.02520583
0.05877182
-0.023817398
0.058730718
0.023911992
0.020726692
0.008102086
-0.0019368929
-0.0072224312
0.030980976
-0.041952018
0.016895356
0.020773986
0.0054551587
-0.083523884
-0.087371625
0.0017868708
0.080696374
0.0124277
0.08262666
0.010178191
-0.009168292
0.09685819
-0.04677107
0.016194658
0.10496494
-0.030990446
-0.02452422
0.05784118
-0.03913724
-0.002034896
-0.04136462
0.016509922
-0.014912413
-0.011405877
0.012921139
0.011187995
0.03336672
0.01477422
-0.0041494286
0.013064157
-0.033300143
-0.02780886
0.011284719
0.0061994493
-0.0013270715
-0.01960346
-0.035132967
0.005037171
-0.06771157
-3.0545383e-05
-0.041098516
-0.026518723
-0.00782129
0.007446765
-0.06626786
-0.11140137
0.04768093
-0.0018549293
0.031501345
-0.049877662
0.056500614
0.0027534259
0.0013782559
0.007933094
0.039393064
-0.022029866
0.032836184
-0.014903318
-0.043540664
0.028364914
0.019610466
-0.028299239
0.062420394
-0.0020820193
-0.02109391
0.005299736
-0.036407817
-0.045067504
-0.07701909
-0.017713023
0.022287712
0.012218764
0.03618997
0.0011807275
0.009413594
0.021529539
0.030967541
0.0023273292
0.031250298
0.0005128418
0.011238618
-0.059765402
0.06391626
-0.014607327
0.08732167
0.029715266
0.012976272
0.071627304
-0.04761229
-0.037511185
0.004057582
0.008788316
0.017136604
-0.004890706
-0.02589123
-0.015321878
-0.010518753
0.014098635
0.036970858
-0.010847939
0.011707903
0.04934392
0.0050865463
-0.017936805
-0.01024502
-0.015808912
-0.00032653782
-0.0116540175
0.020951563
-0.016803388
0.003613889
0.048936404
-0.057966467
-0.029921416
-0.028215813
0.044025276
-0.05118459
-0.039583556
0.03684679
0.0046619247
-0.009641741
-0.047389597
0.0337689
0.021330982
-0.08484109
0.020589963
-0.059765644
-0.02828601
0.01742927
-0.064739816
0.056687247
-0.014226043
0.03835889
0.031365685
-0.07133031
0.08720668
0.13840379
-0.08693526
0.0035784822
0.004236984
-0.049996093
-0.035569027
-0.029017532
0.0035389988
-0.015764995
-3.39584e-05
-0.006703324
0.048955984
0.05124563
-0.021264236
0.033215236
0.010286139
-0.034752917
-0.01711415
0.032321904
-0.023647921
0.000997917
-0.05563386
0.060331117
0.02978635
-0.043221623
0.01608513
0.009709567
0.042859554
-0.036193136
-0.099529296
0.01479784
0.026507966
-0.001574561
0.01861793
0.05021068
-0.03496293
-0.029459212
-0.012169417
0.039862663
-0.060020782
-0.005221595
0.057534315
-0.105257556
-0.011878447
-0.041302893
-0.061408833
0.02759709
0.036312807
0.007898154
0.016843988
-0.02039362
0.07178913
-0.027016597
0.04388443
0.041438486
-0.07543014
0.056774255
-0.079128295
-0.0025847885
0.031297464
-0.005806889
-0.003665082
0.026259385
0.10482421
0.0009335952
0.072310396
0.010488671
0.03214608
-0.032003686
0.051120266
0.0017932286
-0.053580903
-0.04731217
0.029987203
-0.024115589
-0.024428207
-0.027681082
0.03961182
-0.0018028059
0.05332612
-0.030165087
-0.047456954
-0.0022097821
0.010368219
-0.06959405
-0.008763616
-0.020973817
0.031172274
0.011551287
-0.015169416
-0.0040125805
0.037618022
0.0015745269
-0.07350583
0.02153702
-0.016269252
0.0061690332
-0.047026925
0.0399678
-0.0011729954
-0.0022463629
0.0004873221
-0.07676255
0.023085807
0.09658046
0.014544865
0.010768485
0.07251773
0.07514098
0.012311599
-0.052000467
-0.01540276
-0.046443537
-0.061881892
-0.019866467
-0.07351036
-0.00055153243
-0.021478431
0.052437603
-0.03671964
-0.018283602
-0.021520851
0.027093425
0.017381757
0.012256259
-0.03548426
-0.0038785662
-0.0063767782
0.009414422
0.014967434
0.0023344895
-0.04639127
0.04180657
0.07084987
0.027331444
0.0050474796
0.014826354
0.017447727
0.053805433
-0.030859081
-0.023330726
0.04870031
-0.026922304
0.0918933
-0.033755712
0.092617
0.115903914
-0.020940041
0.010017088
0.040642366
0.004433594
0.034698028
0.05665583
0.06621762
0.0017061416
-0.037278745
0.013642229
-0.018931877
-0.028641842
-0.02000739
-0.03320684
-0.052962754
0.030237485
-0.01374339
0.03168977
-0.012658173
0.015783
-0.0051799347
0.02020199
-0.0056031756
-0.02023793
-0.06599166
-0.07730325
0.07612414
-0.08257775
0.016898543
0.015917514
-0.023545679
-0.054348096
0.04104931
0.06061133
0.04897988
0.04765844
0.043976773
0.052374575
0.050739564
0.00936348
-0.018414827
0.084702104
0.06040491
-0.07325083
-0.008038085
0.021260425
-0.038687557
0.103085704
-0.009737118
-0.0075092306
-0.014999276
0.06850012
-0.00468143
-0.0626071
-0.0067934664
0.0085064825
0.046953447
0.03241513
-0.009025448
-0.01985795
-0.014110364
0.008799746
-0.026501792
-0.057689972
-0.02136045
0.05039141
-0.020604149
-0.030530307
-0.016634252
0.00768268
-0.025623856
0.0021195046
-0.013314183
0.03141357
-0.06835519
-0.0010829081
0.0352554
0.020368308
-0.020786423
0.014466486
0.006856333
0.052497517
-0.022219224
-0.039723873
-0.058461796
-0.004355372
0.015238993
0.018143144
-0.027460305
0.006711246
0.047933713
-0.006841133
0.015455984
-0.042575344
-0.009146522
-0.02092212
-0.042757638
-0.017613359
-0.014612428
0.022468753
-0.019651527
0.015745854
0.0027310718
-0.11106699
-0.033648655
-0.0116598
-0.04199453
0.05598443
-0.048030514
0.065896116
-0.0024048146
-0.038368978
0.012991437
-0.0054181498
-0.08194401
-0.00024712336
-0.063466124
-0.03613779
0.0050728386
-0.037540454
0.026381094
0.021225166
0.08953739
-0.01366703
0.011726743
0.054873724
-0.007652226
0.014755823
-0.029099273
-0.01050019
0.017333176
0.018903963
0.04783328
0.058029193
0.03346074
-0.004920162
0.030770099
0.06340861
-0.024166133
0.07261996
0.06352543
0.030506212
0.036103442
-0.060575575
-0.006042647
0.0049552503
-0.0075530596
-0.015845349
-0.063792385
-0.013439245
0.022658987
-0.01894596
0.03943299
0.04975748
-0.038036138
-0.02851281
-0.0112414835
0.0015935439
-0.030679893
0.02647432
-0.04128753
-0.011612831
-0.0070144003
0.00671957
-0.0353576
0.03271811
-0.00019736947
-0.00067864277
0.038210277
-0.0074418853
-0.02585824
0.019164361
-0.033537865
-0.039801266
-0.057378005
-0.025113966
-0.009174708
-0.031169767
0.013747502
0.040921632
0.022311106
0.0045649377
-0.022996027
0.015077764
-0.12806237
-0.00059242017
0.028429002
-0.0005870803
-0.024424696
0.034715857
0.018289644
0.018814517
0.0023955612
-0.016576583
0.06580837
0.036982164
0.012691647
0.023463467
0.0014337942
-0.0324826
0.04358157
0.052444316
-0.019816497
-0.049972273
-0.030355481
-0.032624822
-0.012966784
-0.056903828
0.08129045
-0.0014179122
-0.016455753
-0.011081412
0.056585096
0.00939483
0.0359164
0.052097928
0.059026808
-0.03402983
0.060861282
0.05517965
-0.020939248
-0.028072156
0.0073007573
-0.0139750475
0.015000696
0.07404942
0.008572617
-0.02912565
-0.03509349
0.039247286
-0.0288425
-0.0009449379
-0.018652288
0.014999349
-0.015312193
0.02060614
0.06770432
0.004448667
0.022477983
-0.01915751
0.015438723
0.013324057
-0.039765205
-0.010349379
-0.02791002
0.04745546
0.018100306
0.019001283
-0.0074979826
0.015897136
0.025310768
0.021414103
-0.07754765
0.0091794375
0.11604498
0.018996118
0.023014754
-0.0021848562
0.06241827
0.00054132903
-0.026850611
0.01808419
0.003077535
-0.0162345
0.10809868
-0.0003857643
-0.016217222
0.02061979
-0.020536494
-0.0039446447
-0.014215521
0.007970882
-0.020935988
-0.043850593
-0.022104107
-0.023010164
0.05026835
-0.009186049
0.057406843
0.08142144
-0.034244116
-0.036507536
0.01428088
0.04849099
-0.04628243
-0.025671616
0.00034692712
-0.03393756
-0.0568656
0.029897204
-0.040195577
-0.025930239
0.022668662
0.047210593
0.009691585
0.012291273
-0.004773079
0.05151919
0.0018529396
-0.007299249
-0.011496226
0.03121399
-0.017242134
-0.03952841
-0.011340757
-0.007690347
0.002059667
0.004154823
0.048336174
-0.013622906
-0.052366167
-0.019875979
-0.04244652
-0.043767765
0.025479939
0.016299082
0.049209338
-0.038203817
0.005600498
-0.007637996
0.01667366
0.011612369
0.035826314
0.038188
0.021717215
0.015673297
0.072220296
0.029098924
0.030065924
0.086355045
-0.046459474
-0.0019848424
0.004499159
0.054433417
-0.0022882354
0.030314408
0.07108664
-0.04337353
-0.033493288
0.04593426
0.019675465
-0.009487976
0.024043422
-0.004361992
-0.016137633
-0.02320135
0.008842597
-0.04830935
-0.04198629
-0.047060486
0.014829387
0.00048587332
-0.029236779
-0.032011967
0.002650719
-0.032647643
-0.010676987
0.037253413
-0.0039982665
-0.05397401
0.066119455
-0.025406461
-0.020595707
-0.045004565
0.065739535
0.0020373168
0.008676356
-0.03733996
0.049258113
-0.02048827
0.00883426
-0.009944836
0.0014894151
-0.0024960488
-0.06829641
-0.026865609
-0.014462938
-0.026934516
0.024656275
-0.009141365
0.052616887
0.025678232
0.060576085
-0.040793672
-0.012332473
-0.0041124737
-0.019718042
0.030068727
-0.017246174
0.049862146
-0.07296599
0.04404853
0.004762491
0.12526196
0.0490169
-0.012850938
0.018477336
0.004072797
0.03729839
0.020624736
-0.029986328
0.019535229
-0.00018069809
0.011498597
0.07287598
0.015909899
-0.0035593074
-0.0114594735
0.01220046
0.054703202
0.03420233
-0.00295419
-0.06855914
-0.041523337
0.08366204
-0.008812176
-0.0024977978
0.02124293
-0.003972209
-0.026634488
-0.01936596
-0.004821563
0.05087909
-0.0069892756
0.025568761
0.034247242
-0.009858628
0.010361058
0.06831028
0.028355857
-0.071872026
-0.006297584
-0.01363496
-0.060162216
0.03786602
-0.014213526
0.022566756
-0.036340997
-0.016424455
0.0046108575
-0.0106177265
0.05511034
-0.0361933
-0.01884253
-0.030241536
0.07288445
-0.025181057
-0.03312617
-0.03398188
0.021005372
-0.027388085
-0.02849734
-0.073098704
0.07906776
0.044973254
-0.018697977
-0.009476999
0.052628823
-0.040025648
0.016332423
0.0046986057
-0.010422622
0.00097494904
0.021040438
0.037106
0.05558356
0.011949909
0.01924404
0.018874204
0.03869058
-0.02004145
-0.0070788846
0.035476938
0.0077232807
-0.021412581
-0.041479014
-0.03606286
-0.060684036
-0.046348095
-0.02209186
-0.0085694045
0.07064426
-0.06028057
0.012095667
-0.0037864377
-0.007075098
-0.029457405
-0.020072425
-0.032336835
0.009886697
-0.05059898
-0.108752325
0.056302376
0.0015392818
-0.06737713
0.049446147
0.03098765
-0.03125883
0.00025912022
-0.0213268
0.014640133
0.03472457
-0.028892305
-0.0378666
0.016378313
0.03143469
0.0008293113
-0.043080214
-0.049269382
-0.04280046
0.027438568
-0.005054337
0.021668969
0.02306046
-0.047280084
0.053685095
0.026929803
-0.0051834723
-0.065127276
-0.048392057
-0.009816611
-0.025946317
-0.037270006
0.006547834
0.006441303
-0.075629815
0.01616973
-0.012494644
-0.03168053
0.0140733775
-0.022414034
-0.008392807
-0.019467277
0.022711573
-0.006001786
0.010097297
0.044094644
-0.011935457
0.029417546
0.10643736
-0.06643112
0.01775105
-0.022806333
0.0011117194
-0.014386138
-0.03018919
0.013840988
0.022325505
0.019942615
-0.030229673
0.037754524
0.059085146
0.057031333
-0.09043341
-0.011862177
-0.008201088
-0.014435927
-0.04134018
0.0638604
0.008427479
0.025642265
0.07779724
0.00549182
-0.029273907
0.037443895
-0.10940386
-0.0015301709
0.0185432
-0.011492378
-0.011728682
-0.024233045
-0.030591546
-0.0057988837
-0.0012959657
0.08084574
-0.016125465
-0.013306087
0.07566398
-0.041215625
-0.1163124
0.083271824
-0.031994734
-0.03532502
0.010697529
-0.014335876
-0.043415897
-0.029395655
0.005578338
0.011157081
-0.013834969
-0.0031773043
0.051931057
0.016309531
-0.023992414
-0.029040374
0.010020193
-0.013238394
-0.08768578
0.0023299344
-0.03535371
-0.027062481
0.033342432
0.029471824
0.0008750617
-0.0044696755
0.04783021
-0.025487006
-0.026127428
0.056129787
0.040471565
-0.017345017
0.04366734
0.066887975
-0.043809343
-0.0023073526
0.0071705263
0.03074749
0.041942544
-0.042334422
0.026373865
0.015325114
0.014720032
-0.059084877
0.030423159
0.020557143
-0.0012741149
0.062556185
-0.051115256
0.02031137
-0.038257018
0.028497877
0.0071191667
-0.06986984
0.046604034
0.06346235
0.0055488027
0.08027476
0.01826019
0.08307428
0.02296465
-0.0068019954
-0.01803942
-0.04093537
-0.047948297
-0.075244784
0.0143961795
-0.01445665
0.04341145
0.012456116
-0.051281646
-0.0047388687
-0.06288808
-0.014519202
0.034036074
-0.011821658
-0.06268927
0.042973567
-0.012117541
-0.011604451
0.019050825
-0.0043816343
0.04021426
-0.046803135
0.016076928
-0.016231705
0.009803542
0.02054566
-0.026619123
0.04788295
-0.009172801
0.05839048
0.018369993
0.07442349
0.009950222
-0.038129397
0.05338892
-0.044208393
-0.0051971376
-0.008004015
-0.057758328
0.0146660535
0.009464333
0.0076293834
-0.025917483
-0.009453659
0.038506005
-0.032760046
0.04354865
-0.04738241
-0.05398838
0.0022652044
0.0020454882
-0.042410713
-0.11809504
0.021212013
0.031091062
0.042839173
0.00049202185
-0.028907962
0.046116337
-0.047711942
-0.02534248
0.027611418
-0.034086674
-0.021640643
0.03341646
0.03737405
-0.036632027
-0.06338904
-0.024784757
0.09210212
-0.025956538
-0.0030410313
0.021506267
0.03764215
0.04000243
-0.050252046
-0.06974102
-0.032878455
-0.051207714
-0.008766171
0.05946592
-0.0076439083
0.023313299
-0.022760224
0.055194214
0.043986753
0.04457666
0.04906973
-0.005027134
-0.009084768
0.03442486
-0.03746361
0.0558349
-0.047629744
-0.055389874
-0.05387755
0.009462929
-0.013973987
0.03833814
-0.03371563
-0.022718452
-0.0004909107
0.04554005
0.017314585
-0.00999706
-0.0116533395
0.011180377
-0.005989536
0.012374056
0.03425019
-0.025256434
-0.049808048
0.009340894
0.029300548
-0.014501934
-0.066995
-0.00934787
0.038717125
-0.024956806
0.03199078
0.04659134
-0.026441716
0.0007494103
0.09784147
-0.002649146
0.02820663
0.08451406
-0.008513101
0.0066818977
-0.029287552
-0.006382661
0.013849456
0.005691683
-0.006300125
0.02092617
-0.043493893
-0.09046053
0.0532792
0.011796287
-0.009697376
-0.013012351
0.013742035
0.048692882
0.009513429
0.040334452
-0.021315964
-0.0079462705
0.0051765246
0.026819155
0.016759563
0.0319324
-0.036497306
-0.0456312
-0.03148546
0.01709478
0.07269115
0.056049854
-0.014943746
0.022866672
-0.077550665
-0.03404326
0.055907696
-0.010198426
0.056375153
0.030309057
0.036733057
-0.061712697
0.031725787
0.05797371
0.023596616
-0.009442036
0.031083558
-0.065070525
-0.0022851806
0.011232921
-0.042225745
-0.026005508
-0.06583402
-0.03924578
-0.020451155
-0.084791
-0.026967598
-0.11090414
-0.0006420111
-0.0024765527
-0.007421156
-0.059965372
0.008486676
-0.022413697
0.016117599
-0.034735087
0.042594094
0.03717879
-0.003890892
-0.011200952
0.011291215
-0.014502367
0.024521038
0.017683793
0.006945138
0.051967714
-0.07935127
0.036285236
0.0042289356
0.015801523
0.027348993
0.009746493
0.009506904
-0.039130766
-0.047056727
0.020587135
-0.037810873
-0.0010209873
-0.008638534
-0.00618753
-0.002325485
-0.054801553
-0.030049592
-0.050165016
-0.10910297
-0.013187658
-0.023829732
-0.061006248
0.095949024
0.001094231
-0.05269147
-0.05080389
0.035443645
-0.013159984
0.08623672
0.021309307
-0.033195738
-0.020786358
-0.03227379
0.03480814
-0.024123639
0.030703774
-0.07066968
0.0538669
-0.008379611
-0.0029797314
0.00056502863
0.028810734
0.06614381
0.002800911
0.025274342
0.0056424416
0.05811539
-0.026532372
0.018278932
-0.0007844104
-0.06638181
0.07832969
0.08171575
0.018620437
-0.0052668946
-0.01853054
0.006819482
0.0054933233
-0.014305322
-0.018661635
-0.038876988
0.007346843
-0.0032736757
-0.073779896
-0.09397479
0.026721416
-0.023789909
0.019694358
-0.032539062
0.07411253
-0.030180492
-0.05968202
-0.0061011966
0.051536836
0.0061649233
-0.06802103
0.012520723
-0.06487173
0.01714049
-0.027900027
0.0037634484
-0.017164605
-0.013378468
-0.049549654
0.060190253
-0.0027815558
-0.04319026
-0.029175395
0.0682859
-0.022167241
0.0037991882
-0.018393489
0.061085522
0.05122899
-0.040642004
0.07348094
-0.041607887
0.029822998
-0.033668056
0.06641145
0.063394986
0.024679895
-0.017377177
0.009905334
-0.05059723
0.0532296
0.025100676
-0.09499572
0.017932527
-0.03112089
-0.0053108083
0.024895357
0.06245188
-0.010891213
-0.07832679
-0.026331883
-0.019487672
0.033121638
0.04239058
0.0016664803
0.051326916
0.052767262
0.06921383
-0.035759494
-0.011164383
0.07274448
0.05454492
-0.041733447
-0.00031451782
-0.060023423
0.007002535
0.03873668
-0.012975708
-0.020340433
0.01050809
0.011227605
-0.012753958
0.02508842
-0.01585454
-0.01994398
0.005445161
0.044791456
0.015198052
0.02907667
0.012092746
0.048902392
0.073537044
0.0075867684
0.03389932
-0.0819525
0.0030303975
-0.037939645
0.07968882
-0.03909741
-0.024171239
0.0007394262
0.00061996665
-0.036501337
-0.052340917
-0.04156889
0.009166715
0.029253867
0.026783086
0.0084989
-0.03109522
-0.052768752
-0.0006295048
0.034358446
-0.012773214
-0.03913538
0.021394005
0.015395805
0.012261707
-0.009554996
0.032647826
-0.095619
0.07056249
-0.020074917
0.0046177492
-0.0011630473
0.04071623
-0.0341874
0.059287816
0.0554725
-0.02836036
0.015051148
-0.012686093
-0.040635627
-0.020054886
0.036859795
0.006505338
0.007560264
-0.040076565
0.016594715
0.049405728
0.047527608
0.02273268
-0.06811639
0.07774465
-0.012205807
0.0117833605
-0.0010782981
0.020364206
-0.04377703
-0.022632165
-0.05287298
-0.037659902
0.01649745
-0.042391542
-0.05074093
-0.018314628
0.04678073
-0.03775077
0.019554585
0.0055875406
0.010842009
-0.012100281
0.059590425
0.064147234
-0.06423573
-0.039061774
-0.04214758
-0.013511628
0.00591405
0.010596878
-0.054388322
-0.0339374
0.004789913
0.033317607
0.031970363
-0.027257726
-0.06291538
0.05179904
-0.010346301
0.0522487
-0.03416399
-0.04621058
-0.040318184
0.030426707
0.0011671435
0.0107955765
-0.043274015
0.037118517
0.035542075
-0.007850659
-0.048747268
-0.02908042
0.021493934
0.031205297
-0.004660559
-0.00062511
-0.109119095
0.026219305
-0.08969865
0.02472794
-0.017856367
0.029780688
0.043594085
0.023425166
0.09222375
-0.009023968
0.060352724
0.048826724
0.011830121
-0.02132257
0.043925222
0.005094973
-0.033178646
0.0074723708
-0.0005676893
0.04750991
-0.050891314
-0.024387216
0.0554726
0.014020331
-0.04562889
0.027449666
-0.0007182789
0.041148867
-0.048065405
0.031613316
-0.043677878
0.028545562
-0.035989627
-0.012330189
0.033890706
-0.006124885
0.016491197
0.0049196705
0.047869105
0.02130951
-0.04039065
-0.09854043
-0.022917164
-0.04033312
-0.10606652
-0.04566071
0.07854067
0.040797397
-0.055794094
0.02013108
0.018226948
-0.030364051
0.015835153
-0.0031594862
-0.01611713
0.0757035
0.00480166
0.015822263
0.046921108
0.005876783
-0.029817656
-0.021951482
-0.008765367
0.072046116
-0.023719126
0.05120443
0.040947836
0.029360313
0.08468999
-0.0013205581
0.0981364
-0.10175585
-0.007992966
0.0050722263
0.1427372
-0.021431273
-0.02819564
-0.008725763
0.0020075487
-0.022888293
-0.00775808
-0.0051289806
-0.016348438
-0.02458902
0.001508427
0.05723962
-0.020834519
-0.048600234
-0.059607588
0.027269635
-0.00888752
-0.010692393
0.033763535
0.02899486
0.048923355
-0.021634338
0.020111308
-0.023341635
-0.05734233
0.037158776
0.031583652
-0.034127563
0.034251202
0.036966536
0.0019317677
0.0013872252
-0.036170676
-0.011110053
-0.018303905
0.0090382425
0.033258334
0.0016104367
-0.0022016892
-0.061241433
0.010300369
-0.012762686
0.05599256
0.025704514
0.07522098
-0.021196404
0.06989741
-0.010695134
0.051641855
0.0034456095
-0.01590276
-0.0714217
-0.069118574
0.07250016
-0.030087972
-0.039394964
0.03747199
0.018195149
-0.027361313
-0.053711582
0.056717776
-0.02538688
0.014707639
0.003760632
0.02753086
-0.04761895
-0.038610462
0.06732777
-0.022127384
-0.004412401
-0.022366865
0.0315029
-0.049608674
0.0315843
0.05411712
0.037130333
0.06963847
-0.0010946565
0.026746823
-0.007178991
-0.016251113
0.008829755
0.02458484
0.0033898207
0.044300195
0.0973549
0.023917176
-0.0348777
0.0020952595
-0.040971622
-0.01215259
-0.024077643
0.036496945
-0.041867126
0.019619824
-0.020661732
0.0050376644
-0.006871072
-0.008089287
0.06343998
-0.06776234
-0.0028320842
-0.018721122
0.04699593
0.07175905
0.05133536
0.037743967
-0.012440276
0.026206823
0.0007397538
-0.017534753
-0.018827228
0.03932337
-0.043140996
-0.010787316
0.021576691
0.023738787
0.025097875
0.07514714
0.06027275
-0.046746057
0.023000704
-0.02063744
0.011221713
-0.0066650263
0.015314916
-0.03595398
-0.011973816
0.025333198
0.011542253
-0.102877334
-0.0031369631
0.004578565
0.040906727
0.052824266
0.064459726
0.017055705
-0.048053097
-0.00019870949
-0.025762927
-0.035504192
0.013734275
-0.020976452
0.008362747
0.00832488
0.05805093
0.043030098
0.02499956
-0.043826558
0.10086191
-0.023442224
-0.07385357
0.0039660344
-0.04326848
-0.066684864
0.03671331
0.046768785
-0.011278068
0.0097326245
0.0011727674
-0.0745926
-0.015151627
-0.008929932
0.052344233
0.0065640598
-0.006591937
0.04655461
0.004721135
-0.00838248
-0.020742014
-0.03279353
0.028300092
-0.021514187
0.0125970505
-0.035885878
-0.042210203
0.04005546
0.033390805
0.022238648
0.029142965
0.011146798
0.034047224
-0.024283223
0.062886305
0.062434684
0.019166486
-0.06601177
0.029556522
-0.03614483
0.027828088
0.040281538
0.05382859
0.0074132686
-0.019869193
0.018493168
-0.049664
0.059992548
-0.04068063
0.033340465
0.039343588
-0.008673676
-0.038008377
0.006829617
0.048556834
0.039646707
-0.048906997
0.025440674
0.021613246
0.014163797
0.026569525
-0.017425269
0.039938413
-0.020947695
0.05133882
0.026742866
0.052649982
-0.010334864
-0.02501844
0.0021704035
-0.008862785
0.02743578
0.017615264
0.0047585117
0.017667111
0.05523938
-0.022310132
-0.03778178
-0.04269161
0.043194823
0.03380151
0.052640352
-0.015877208
0.061976835
0.07641026
0.035202753
0.005991926
-0.0035905642
-0.054139026
-0.051665977
-0.02559231
-0.061239857
-0.07321685
0.039683122
0.10035979
0.078916
-0.014216359
0.017848821
0.015122335
-0.06373299
0.029339284
0.08166901
-0.06284624
-0.04316409
0.023067558
0.02792993
0.05512562
0.024112519
-0.006071235
0.044135544
-0.042398766
0.04769511
-0.06795296
-0.01591463
-0.07541554
0.0628213
0.012627981
0.064898655
0.03690512
0.051296033
-0.02228387
-0.007614202
-0.02832191
0.05803083
0.006174614
-0.01506693
0.045125246
-0.026862297
-0.080435276
-0.006349629
-0.020165522
-0.057861518
0.045576785
-0.052722994
-0.0738093
0.0210751
0.03658801
-0.039924543
-0.017002556
-0.01576929
0.02886266
-0.03814324
0.0046627135
-0.016610045
0.071877085
-0.0010009387
-0.026471823
-0.042559177
0.06659154
0.009866731
-0.010656405
0.0074336636
0.003867079
-0.003728346
-0.008426344
0.037772484
-0.02869822
0.0025938202
0.021374382
-0.0068706684
-0.015538946
-0.020213982
-0.026796065
-0.045386788
-0.018288987
0.027927095
0.044906564
0.027074268
-0.050529625
0.049490683
0.08332871
0.051575024
0.045826137
0.0004900015
-0.0345174
-0.0063362936
-0.02834325
-0.033951476
0.021353515
0.00904471
0.05583455
0.023845464
-0.043353997
-0.019964317
0.025718525
0.022727804
-0.029853102
-0.022380961
-0.0019312359
-0.040991724
0.021079166
-0.015935512
-0.025871642
-0.027111588
0.020527849
0.031590518
-0.028067762
0.004923046
0.03747846
0.006715565
-0.01133602
-0.014646355
0.0094295405
-0.052912198
-0.005755914
-0.109275386
0.0040972573
-0.05317573
0.025005005
-0.07123931
0.022533549
-0.04550394
-0.04402293
-0.0023696925
-0.021541897
0.006859181
-0.0068789716
-0.039965827
0.03895269
-0.018812368
-0.03754391
-0.06463975
-0.0070931297
-0.0023721019
-0.028166503
0.018806996
-0.010712567
-0.002303756
-0.030567698
0.018988416
0.046821423
0.0035959566
0.043893028
-0.07119776
-0.043480203
0.0064265835
-0.035498183
-0.006410458
-0.04987982
-0.013415873
-0.019782165
0.011383254
0.11172834
-0.00030953734
-0.022446513
0.014429043
0.017717144
0.04362698
-0.038818162
0.021803867
-0.01640445
0.07919562
-0.023563357
-0.0029510988
0.10983241
0.022512449
-0.048410222
-0.017865954
0.021997433
-0.071836665
0.04202553
-0.09473716
0.05056156
0.011945569
-0.034805425
0.006304202
0.012861001
0.030489814
0.014591409
-0.018861646
-0.018218618
0.01287489
-0.06436657
0.060235925
-0.011498151
-0.0006327505
0.02007405
0.017279502
0.041761182
0.030204251
0.032670237
0.0247442
0.027234087
0.005603234
0.01673798
-0.00083891343
0.025157934
0.047893737
0.08809444
-0.038263496
-0.008406324
-0.027270852
0.06458137
-0.0073068314
0.01350279
-0.020819323
0.04991616
0.009741573
-0.028226493
0.0021060472
-0.008799645
-0.012986975
0.009724235
0.092530616
-0.006502807
-0.0156591
0.008532189
0.047279358
-0.005128666
-0.016157912
0.0408
-0.08607664
0.05839638
0.06793735
0.032671083
-0.024491912
0.029930416
0.041240163
0.0010057151
0.038233366
0.0006260049
0.04261573
-0.0053548156
0.084634356
0.07122383
-0.019520603
0.00054883724
-0.008264279
0.011432867
-0.056875188
0.005883046
0.018671673
0.012004808
-0.03206858
0.08126766
-0.009442707
-0.028224677
2.4294732e-05
-0.023462202
-0.06909972
0.030836625
0.04199699
-0.05571458
-0.020907471
0.015589701
-0.013667119
0.0052294666
0.008569362
0.05237132
0.0750838
0.07474938
0.010151593
0.011048205
-0.052885417
-0.020692302
-0.028420316
-0.012616587
0.040182564
-0.012740911
0.0023736053
-0.049618497
0.027101718
0.0054278737
0.06791234
0.032338966
-0.10894026
-0.02037114
-0.10259197
0.026908576
-0.025869535
0.018799007
-0.06828547
-0.066939116
-0.038726095
0.023819795
0.016010556
0.085122176
-0.029335855
0.020407004
0.08062934
-0.028279085
0.021940632
0.028522098
0.033174004
0.0685867
-0.018114185
-0.02713343
0.06753095
-0.0066848756
-0.057470575
0.049171437
0.028607232
-0.06647588
-0.030016515
-0.025990415
-0.022279322
-0.017430259
-0.007184756
-0.02829786
-0.08773727
-0.04843929
-0.037958115
-0.046412837
-0.06076153
-0.030067798
0.05212075
0.01553493
0.038658112
-0.048892874
0.019434303
0.02250693
-0.046784993
0.001538705
0.016842343
0.004797428
0.08018133
0.0015355486
-0.039921343
0.0055950726
-0.045512922
0.08409251
0.004526269
0.038417775
0.071751185
-0.033139
0.0023889767
0.09763017
-0.056754265
0.07574128
0.005498976
-0.05110553
0.014187973
-0.02825303
-0.06019834
-0.03544638
0.0075115794
0.05353668
-0.031760693
-0.00033914082
-0.00481795
-0.047453973
0.008184928
-0.011540867
0.028266262
-0.05576251
-0.010688763
-0.03780321
0.006289905
-0.008443896
-0.02533535
0.07144513
-0.012236415
-0.008591474
-0.08982154
-0.007168264
0.030412469
0.02413158
-0.017108964
0.02935864
-0.04163611
-0.04192057
-0.03716282
0.016668266
0.016245287
-0.049958933
0.046783756
-0.039338563
-0.020233529
0.05669008
0.0045118337
-0.055436406
0.061926447
0.0005869727
-0.029698811
-0.018575702
-0.044396747
-0.06662043
-0.028318884
-0.064057745
-0.023756292
-0.04071867
0.035250664
-0.043365154
-0.034821294
-0.005328582
-0.012301548
-0.030504348
-0.01813191
-0.017375754
-0.011654784
0.0032324214
0.04905367
-0.0056537115
0.036180485
0.050383244
-0.0027012955
-0.030102924
-0.021567846
0.016226374
-0.07359037
0.009304509
0.031483836
0.063135065
0.011090366
0.016770527
-0.016250515
-0.018969882
-0.018564485
0.035282798
-0.030642942
-0.086290024
-0.045925055
0.0203181
0.07085657
0.0378439
0.00922576
-7.86805e-05
0.011870144
0.037647393
-0.053324245
0.057251915
0.01764672
0.007259761
-0.11836899
-0.042587847
-0.032068577
0.063415565
-0.005172446
0.00332683
0.032094523
0.09689272
0.05685847
-0.045556027
-0.00743925
-0.05877094
-0.005899806
-0.031431563
-0.013716519
-0.021230185
0.0076562073
0.0028248874
0.02515221
-0.0058404473
-0.011719697
-0.007609921
-0.004129489
-0.025301648
0.01536196
-0.020579861
-0.038785074
-0.059204545
0.03196573
0.027877891
-0.059059594
0.02130569
-0.04363821
0.0253907
0.006487912
-0.024943462
0.014355373
0.02621284
0.07643169
0.0187449
-0.035154376
0.032982863
0.020466547
-0.03119522
-0.012844899
0.046223465
-0.02450851
-0.047889844
-0.01583285
0.042315394
0.008575471
0.041420635
0.03631819
0.030645104
-0.026590277
-0.009589421
0.01945122
-0.03789793
-0.0068617538
-0.09697962
-0.0051305043
-0.046949506
-0.010956462
-0.023309497
-0.021921363
-0.0049901684
-0.022936983
-0.02021304
0.008616443
-0.016946638
-0.030561838
-0.006336483
-0.02995486
0.047413558
-0.00039039954
0.012996123
-0.010339529
0.054589376
0.067399
0.026207533
-0.021071
0.016112462
-0.059142992
0.034933772
-0.04857369
-0.004131773
0.01253265
0.09608495
0.050444245
-0.014339213
0.0012363768
0.027519118
-0.02288134
0.010559865
-0.00876618
0.018929902
0.11367952
0.006304595
-0.022792248
-0.04115435
-0.036335777
0.0047580195
-0.07178429
0.025768034
-0.030403497
0.04794511
-0.042078428
0.010191641
0.002638835
-0.06944381
-0.03817895
-0.07742389
0.012576947
-0.028779361
-0.023490692
0.06285834
0.021247072
0.05768289
-0.016133163
-0.025226053
-0.02684972
0.040037036
-0.020966658
-0.068518296
0.022582307
-0.049174827
-0.00455872
0.06871909
0.036090124
-0.016090153
0.027987592
-0.025778014
0.08212949
-0.006363147
0.0086876545
-0.070705615
0.04113631
-0.08780842
-0.05500676
0.052274846
0.021120302
-0.015160187
-2.4548051e-05
0.021416735
-0.0368268
0.013607254
0.056448366
0.032171126
0.029074572
0.025083447
0.01685363
0.085574895
-0.023443066
0.067628585
-0.001622786
-0.023041941
0.016693681
-0.008324156
-0.07062603
0.00549203
0.015965948
0.00018815389
-0.023694243
0.021855462
-0.069120735
-0.018132564
-0.00489117
-0.030495755
-0.035247155
0.00466892
0.006711842
-0.025332594
0.053582814
0.0054906206
0.033026617
-0.06718107
0.030711342
-0.072201565
-0.018396372
-0.001217676
-0.026287623
-0.09268377
-0.08885206
-0.02112238
-0.053603437
0.032771464
-0.0359516
0.082311854
0.091695644
-0.108747244
-0.00044945453
-0.016099177
-0.07822712
0.008739496
0.061040163
0.030933756
-0.015006764
-0.05718218
0.03137272
0.012964493
-0.06386575
-0.048514795
-0.067078106
0.014352845
-0.054590896
0.006545877
0.06793064
0.023655916
-0.009739264
0.11125585
0.014860222
0.00136764
-0.002582426
-0.035415
0.094038874
0.07951925
0.048075262
0.0135549605
-0.087050185
-0.023363307
0.04598175
0.019173669
0.034358542
0.036431167
0.05533018
0.024316635
0.011644413
-0.015336284
-0.0012251249
-0.06074632
0.027729787
-0.060641043
-0.0033046172
-0.0037610682
0.023926437
-0.050391022
0.0029546446
-0.012213401
-0.00305778
-0.057329316
9.6652875e-06
-0.052582685
0.009700653
0.074187666
0.01999617
-0.019618528
0.020262714
0.033796508
0.01731098
-0.06511597
-0.042404372
-0.05295098
-0.013885215
0.0112599125
0.08889659
0.02646398
0.0064085852
-0.034231663
0.026879236
-0.031864244
0.05750844
-0.07898203
-0.04273276
-0.018319823
-0.034676373
-0.066927806
-0.07325093
0.004355697
0.07054692
0.03745129
0.0076385415
0.0129966745
-0.017691478
0.0727862
-0.014125379
-0.037996326
-0.03872729
-0.0099245785
0.02771404
0.0040451065
-0.003603851
0.0280742
0.048363715
0.038973626
0.028704407
-0.020488963
-0.0052115815
0.020698857
-0.028597267
-0.03524599
0.026725404
0.0038921873
0.04434202
0.007821542
-0.057204444
0.04200872
-0.004604783
0.054160997
0.00087447494
0.05286849
-0.010820606
-0.051263887
0.012018962
-0.025024014
0.039406344
0.022456098
0.010741475
-0.0014818058
0.01641238
0.027608193
0.00917541
-0.09039521
-0.033491787
0.02750273
0.013199759
0.011459667
-0.00062317814
-0.030314064
0.05713405
-0.0176456
-0.06884799
-0.007648603
0.0075776335
0.016218865
-0.018028347
-0.00021257949
0.032463964
-0.04058728
0.035160467
-0.0012329612
0.07747925
-0.06314565
-0.02843529
0.01394916
-0.110081576
0.0017429376
-0.040591482
-0.004426046
-0.026718097
0.03444454
0.031443745
0.035790622
0.008581214
0.014594818
-0.019417435
0.030944098
-0.029399194
0.06413432
0.045998648
-0.029160198
-0.024463756
-0.022829326
-0.00083861104
0.04953794
0.038267102
-0.09002313
0.002675406
-0.016482832
0.037486643
-0.03035334
0.018616058
0.012399283
-0.044009548
0.038503107
-0.041729823
0.009295228
-0.043278765
0.015660468
-0.053278394
-0.00474015
-0.026656834
-0.07770137
0.015590334
-0.034562215
-0.017753927
0.024669912
-0.06756592
0.001038239
0.0884475
0.045773
0.002390542
0.016772741
-0.0005851954
-0.05849287
-0.0010039168
-0.033223532
0.06555264
-0.086896814
0.022440374
-0.008164453
-0.0065001776
0.079460755
-0.012039083
0.0042234487
-0.0024885957
0.030549228
0.06001938
-0.014898697
-0.010329003
0.03604751
0.028726539
-0.01848772
-0.01780658
0.07369356
0.01297151
-0.0015118966
-0.039038885
0.0006593618
-0.0426895
0.081995495
-0.006341585
0.069031574
0.020697342
0.050327733
0.053091343
0.024348522
-0.030081013
0.04503083
0.04043137
-0.009201447
-0.014504485
-0.019001411
-0.050856322
0.06469025
0.020863675
0.035250388
0.008081645
0.011729034
0.03228771
0.03075249
-0.00038120477
-0.0107272295
-0.0063648475
-0.006548688
-0.054229714
-0.019356221
0.06753461
-0.06733149
0.005508953
0.026691746
0.0745793
-0.0197998
-0.003081345
0.09898032
-0.028458886
0.008641741
-0.010387422
0.05165362
0.04174431
-0.07043402
0.02261149
0.01058506
-0.052533228
0.010786953
-0.028154094
0.022453416
0.0269562
0.04750665
-0.039364405
0.01685904
0.052856866
-0.06240639
-0.0071782116
-0.03509919
-0.032368172
-0.020871717
0.03385976
-0.045181148
-0.0065836846
-0.0066790027
-0.021765063
-0.0004915389
-0.002285488
-0.072493166
0.007893072
0.0021498275
0.016033642
0.029667666
-0.038418915
-0.015952934
0.0027668125
-0.0417413
0.02875939
-0.010961222
-0.026915945
-0.02581943
-0.024177339
0.014086685
0.014296613
-0.024949035
-0.05909513
0.004225983
0.039239224
-0.047240008
-0.02234649
0.06360952
-0.072647914
-0.011518649
-0.03720511
4.5774425e-05
0.005579793
-0.056821905
-0.06885985
-0.0020390465
0.003519642
0.086327136
-0.014460573
-0.026510678
0.0661557
-0.0006664089
0.019913442
-0.027140819
0.025273774
-0.018747505
0.05578371
-0.037828956
-0.024797454
-0.03380378
-0.07699654
0.00091259886
-2.9883253e-05
0.07225749
0.016983945
-0.005071649
-0.006497937
-0.02160224
0.027261369
-0.02499731
0.04590677
-0.025439713
0.07985199
0.013698316
-0.05807568
-0.0004908708
-0.03689799
0.022631295
-0.080305666
-0.037667632
0.019099886
-0.053802215
-0.057673965
-0.031061385
-0.041933727
0.05319174
0.0468775
-0.0005921919
-0.052023683
0.018194508
-0.030476306
-0.017848352
-0.0037477848
0.009514069
0.037944153
-0.11072641
-0.03019461
-0.00437094
0.054528367
0.02378138
0.06931265
0.056628726
-0.013900071
-0.026968403
-0.05017332
0.026867889
0.02757533
-0.049313687
0.024439696
-0.04684805
-0.015494059
-0.006895728
0.042855915
-0.005240438
0.040624894
-0.03302768
0.017995937
0.012744344
0.057843484
0.07522119
0.06678634
0.030919913
0.011067054
0.03114094
0.015807627
-0.034972873
0.011577684
-0.021848751
-0.0342878
0.0013289426
0.03637093
0.04897781
0.08320619
-0.0053677284
0.059188582
0.010701199
-0.014167923
0.05418884
-0.0011663291
-0.011271901
-0.10824581
0.0008994519
-0.009170282
-0.047116812
-0.033021845
-0.0073277405
0.013445723
0.019044891
-0.05976358
-0.039483126
0.018348264
-0.05396904
0.02435673
0.032178428
0.0075109387
-0.005901476
0.006651255
-0.025823804
-0.038328726
-0.039417416
-0.008532802
0.020579778
-0.011276224
0.008411106
-0.022663794
-0.11341909
0.08727145
0.0051327855
-0.002050819
0.0081078205
0.015772685
-0.024316302
-0.0039073173
0.013905246
0.050075337
0.010012329
-0.05412091
-0.0131844375
-0.022465762
0.018829385
0.017449057
-0.054440908
0.0009844281
-0.034940958
0.05015755
0.026261294
-0.036408562
-0.01645212
0.048240826
0.0075247567
0.06789307
0.0067929844
0.029785985
0.067036
0.050135784
0.07832418
-0.016075734
0.074994594
-0.019545645
0.05889843
0.037603464
-0.048264574
-0.04441994
0.01562631
-0.013821342
-0.048058886
0.0052376464
-0.025621314
-0.06300946
0.004111607
-0.018378861
0.029968185
0.014628239
-0.008271545
0.057825077
0.028377017
-0.01901334
-0.049197968
0.027635956
-0.0726271
-0.01078935
-0.050554935
0.035335943
-0.010843501
-0.053447932
0.0014679584
0.040046293
-0.05522957
0.0129733
-0.04246963
-0.0076765046
-0.019697612
0.060141727
0.022145854
-0.010886672
-0.0035127788
-0.025344774
-0.045418974
0.042512666
-0.0608919
0.015679521
-0.004417829
-0.008522841
0.028263759
-0.03581827
0.024792131
0.031163905
-0.059144262
-0.007890866
-0.039126877
0.037510645
-0.029261865
0.036798637
0.05633349
0.02541222
0.029797347
0.043393362
-0.021020055
-0.019087221
0.04989986
-0.07619478
-0.010541455
-0.0126469545
0.07037283
0.019307666
-0.056364167
0.024730934
-0.04616462
0.009710731
0.032698024
0.017952649
-0.012115796
0.04829761
0.032839578
-0.02138996
0.022225395
0.03195241
0.06188497
0.0387369
0.02625119
-0.026216896
0.026963038
0.0029418024
0.019622862
-0.0007273846
-0.024327118
-0.007259283
-0.025176821
-0.050854098
-0.01887377
-0.0050067776
-0.022403652
-0.009695041
0.03210682
-0.03130005
-0.010844155
-0.0011362602
0.02114234
0.060133263
-0.06748683
-0.04698342
-0.045338843
-0.009899677
0.00062528055
-0.014063011
0.019094221
-0.09350069
0.0060665514
-0.045388475
0.023724124
-0.025274457
0.0001384809
-0.08441838
0.062806435
0.032930113
0.018262967
-0.034297723
0.026093058
-0.053013742
-0.011824183
0.009446546
-0.05299966
-0.048009537
0.060630903
0.06884756
-0.015257254
-0.023375008
0.03613936
0.0029824092
-0.030217012
0.014774055
-0.043468457
-0.014930141
0.061128564
-0.0042688544
-0.020289505
0.0035177567
0.08768736
-0.010066836
-0.011917465
0.014772921
-0.026387049
-0.021658666
-0.04674141
-0.011879162
-0.0021907706
-0.0013461765
-0.036733773
0.0039314437
-0.0019310192
0.032470368
0.04486219
-0.034084484
0.026818996
0.005857393
0.042665362
-0.044759843
0.04789643
0.036809746
-0.0017275157
-0.052046027
-0.050112512
-0.005878034
0.052421503
-0.037537128
-0.010550642
-0.033485126
0.044428647
0.068705976
0.015816538
0.04610544
0.112212166
-0.034401353
0.043716706
0.055740163
0.018420933
-0.05218907
0.090009056
-0.040170733
0.046230968
0.006254888
0.07373466
-0.022454321
-0.1040808
0.050767876
-0.0035578154
0.004105671
-0.0037940626
-0.03071095
0.0011228845
0.011575256
-0.036996342
-0.0074296887
0.0013756847
-0.01668943
-0.030815303
-0.061871346
-0.00016589747
-0.039360534
0.027642703
0.10013394
0.07387036
0.0006387241
-0.0140638305
-0.07491228
-0.016571432
0.006272829
-0.0018781058
-0.009512082
0.051330194
-0.0021414564
0.032855988
-0.028422348
0.0137252
0.01032917
0.01846707
0.0028839682
0.013123314
0.013492537
-0.013170129
-0.042853165
0.0047566574
0.04732201
-2.6135032e-05
-0.08459234
0.007307815
0.020020094
-0.014055016
-0.114540614
-0.02312792
-0.032333154
-0.051272605
0.036162138
-0.05123754
-0.03775157
0.01913651
-0.020817716
0.010730155
0.08771579
0.019280888
0.019637136
0.028369157
0.0410443
0.06758596
-0.043793987
0.0050618374
-0.032135528
-0.019466395
0.0010320211
0.030751687
0.081659846
0.014010527
-0.03247739
-0.013941535
-0.016066534
-0.14929678
0.032426264
-0.0036539554
-0.015603966
0.011876641
-0.03132937
0.018567644
-0.0038260676
-0.047060184
0.06952621
0.022067897
0.06994292
0.0044233007
-0.07453107
0.053658303
-0.011741034
0.07985981
0.03319185
0.028522646
-0.047381315
0.014304358
-0.03367338
-0.05962998
-0.01895205
-0.039406158
0.042564616
0.024827734
0.03885471
-0.03377471
-0.03258845
0.07167745
-0.032969363
0.013411199
0.008725206
0.0039314
0.044829294
0.0300396
-0.026256029
-0.032040045
0.016581457
-0.0009554107
0.021858549
-0.015766378
0.03873369
0.018865017
0.006012707
0.03368423
-0.049478564
0.024802668
-0.06890442
-0.045708638
-0.039953135
0.00037253363
-0.09404416
-0.0194829
-0.0027596576
-0.0024813698
0.021165764
-0.045858026
0.056480154
0.041395195
-0.00585657
0.00910904
-0.0142076295
-5.0784383e-05
0.022685125
-0.039034978
-0.039579935
0.04275227
0.036803953
-0.0047163176
-0.008135647
0.067094915
0.04665188
0.058228374
0.06379425
-0.04183474
-0.034473117
0.068908714
-0.042451583
0.04302004
0.036386922
0.02339758
-0.010671626
-0.073296726
0.04453379
0.045265175
-0.057206612
0.0068752817
0.003518151
-0.020270888
-0.07410104
-0.013802192
-0.076208
-0.11860364
0.026599465
0.07691094
-0.039463263
-0.047801197
0.027030343
-0.019540064
-0.1062154
-0.014480051
0.026508652
-0.03514
-0.05247552
-0.014876238
0.039235443
-0.04104101
0.0117322765
0.025799394
0.008196951
-0.08648586
-0.031539988
0.06114549
0.01594598
-0.05610557
0.09843658
0.017452246
-0.01580934
-0.030908655
0.046470173
-0.029358419
-0.038415357
0.022451825
-0.013523587
0.05235485
0.005724234
-0.04168554
-0.011754697
-0.035211507
-0.064126566
-0.08261707
0.01622514
0.07760233
0.054910317
-0.087720886
-0.053021725
0.053819064
0.05423127
0.028724724
0.08505827
-0.009504259
-0.006394711
0.009761288
-0.030978808
0.016238004
-0.0781874
0.004947895
-0.027158095
-0.011091983
-0.0072695855
0.07324867
0.0053169704
-0.042740826
0.009516991
0.037337136
-0.047570847
-0.056138292
-0.00092601764
0.03322466
-0.016981058
-0.002448099
-0.015523925
0.048000887
0.009634808
0.0110752275
-0.034402363
0.008706836
0.062452264
-0.0109609
0.02996317
-0.012052448
-0.00085017894
0.00055587775
-0.0028630842
-0.08504919
0.02421591
0.040574085
-0.04348069
-0.03247634
-0.02307078
0.014648758
0.03665199
-0.08944949
-0.035648443
-0.0041235704
-0.017717669
-0.028676916
-0.05091698
-0.07307453
-0.0036202408
-0.012661252
0.0022726238
-0.009375182
0.0013132901
0.051305328
0.07013452
-0.021141473
-0.013360789
-0.047786247
-0.050963886
-0.042351842
0.021435088
-0.024529362
-0.050084393
-0.023554621
0.0038245406
-0.006184817
-3.0553354e-05
-0.030115612
0.011620813
0.0009980558
-0.016143799
-0.053547636
-0.02257173
-0.061478738
-0.03491874
-0.0037298086
0.009215336
-0.030157764
-0.00820748
-0.002122648
0.05146419
-0.017655114
-0.0041540866
-0.041901093
0.00498124
-0.02693253
-0.052238576
-0.03083657
0.0052844547
-0.03183853
0.002430359
-0.07796874
-0.019812398
0.021678032
0.034817453
0.034614883
-0.06310196
-0.047573693
0.0034252955
0.014241407
-0.0372698
-0.05031677
-0.0165963
0.020809015
-0.008758873
0.007635387
-0.045479693
0.08735566
-0.041393362
-0.022770569
-0.052063104
-0.021239158
0.004534917
0.09541285
-0.042582184
0.097798966
0.011358371
0.04446677
-0.073295586
0.023756836
0.014325376
0.08520186
0.047230646
-0.0008336356
0.012742071
-0.008256896
0.013646317
-0.033306226
0.0024995517
-0.051739056
0.015355401
-0.049519382
0.07057431
0.014986825
0.0052423184
-0.03584688
0.028966544
0.03070319
-0.03000521
0.00876777
-0.018058138
0.050752066
0.014314483
0.0058934214
0.060821805
0.058107648
-0.010078796
-0.026212737
-0.010736639
-0.017308693
-0.014871797
0.034665897
-0.0018755111
0.025506096
-0.022846721
0.047595937
0.031337243
0.061377466
0.016392604
-0.046036523
0.0707248
-0.03852006
0.0030448646
0.055743113
0.017174073
0.001211397
-0.0038351906
-0.037095886
-0.020181699
-0.014888986
-0.05438232
-0.011134142
0.026977371
-0.054373506
-0.010041215
0.04875153
0.04954341
0.0043128016
0.0039121816
0.04390366
0.014304771
0.012286848
0.004891514
-0.08529745
0.019572435
0.0005276837
-0.03207118
-0.04422169
0.030798657
0.008330667
0.011486495
0.024448806
0.068414636
0.02428349
0.03688696
-0.042467877
-0.078078024
0.029235585
0.0104684895
-0.017028935
-0.022605287
-0.0006489019
-0.023111429
-0.02728991
-0.07523556
0.0150709525
-0.034353014
0.025275953
0.00608584
0.02855426
0.0027908594
0.013721395
-0.051071413
0.037134103
-0.058559958
-0.038351726
-0.094873995
-0.01555839
-0.022541976
-0.032545485
0.02165228
-0.012915588
0.006499279
0.03323507
-0.01178309
-0.08283688
0.015070295
-0.049843933
-0.03196887
-0.04861823
0.07159294
-0.051060323
-0.015854882
-0.045735
0.037961915
-0.041254055
-0.07783726
0.06749293
-0.019122489
0.05119732
0.030157011
-0.023353724
-0.013473231
0.043723844
-0.04798493
0.021998724
-0.009824485
0.0049764677
0.06554324
0.014578093
0.0036846611
0.00692089
0.024578437
-0.06390722
-0.017869283
0.020907046
-0.027817344
0.05030749
0.032165904
0.022417568
0.04067365
0.070513435
0.027008245
0.0001606009
-0.045341086
0.026999647
-0.007559697
-0.037042383
-0.0025290563
-0.01198576
-0.03977188
-0.05333144
-0.047117397
0.035258047
0.014881339
0.05737873
-0.006144575
0.0046354006
0.017224131
0.009563376
-0.026108751
0.030285046
-0.028711105
0.012701506
0.07301147
-0.05218539
-0.04370113
-0.01220679
0.03037601
0.0458215
-0.00689603
0.050684497
0.03420229
-0.052435145
0.010351305
0.02388129
0.054644313
-0.0065870443
0.049184207
0.012668677
0.03821771
-0.049480993
-0.023479572
-0.087321095
0.018736934
0.0481286
-0.0027073557
-0.046321716
0.048397172
-0.024255311
-0.0587853
0.045016646
-0.0043227123
0.02206692
0.018633176
0.02131438
-0.01921237
0.021873353
0.025106082
0.01647466
0.02687914
-0.026420938
-0.06103683
-0.017230682
-0.064723074
-0.01884123
-0.022194706
0.032564044
-0.009990115
-0.06850585
0.07410403
-0.045136005
-0.017740019
0.08823477
0.0017167489
-0.0070836633
0.017937064
-0.03824636
-0.05065988
0.025609335
-0.010504861
0.038634654
0.04435627
0.00028463698
-0.038856033
0.013928245
0.002572941
0.013843285
-0.012099449
0.04841668
0.0036179284
-0.0025754308
0.044502854
-0.043220405
-0.017162988
-0.01237334
0.03158671
0.024072047
-0.041009396
-0.07305694
-0.06581032
0.01643731
0.0050690896
-0.07507802
-0.0269479
0.004176982
0.061756436
-0.0068416414
-0.019383539
0.0058427835
-0.0084875915
0.013521226
-0.0070242174
-0.044779632
-0.026514007
0.038061988
-0.0012037089
-0.034581225
-0.0016881978
-0.010607436
0.049879044
-0.006069846
-0.0368138
0.008457011
-0.020765139
0.02808608
-0.004729772
-0.03682454
-0.008422788
-0.008934426
-0.11092123
0.038875025
-0.054167468
-0.025684675
0.074613
0.031298887
-0.006270101
-0.024794746
0.01789673
0.0066009453
-0.054363307
-0.029275017
0.020185953
-0.008552749
0.061491046
-0.012041779
0.047773764
-0.030250005
0.02970138
9.828607e-05
-0.01842546
0.009042688
0.0008178711
-0.05549569
-0.013992429
-0.028899562
-0.0413766
-0.044852022
0.045081157
0.033918932
0.031378295
0.0063947313
0.025104178
-0.00856722
0.035609044
0.013005766
-0.017535897
-0.0023993086
0.030123794
0.047800224
-0.049901277
-0.05226435
-0.037623763
0.0067898203
0.055879377
-0.07602078
0.006965126
-0.03039765
0.0921039
0.023768902
0.0038575744
-0.034179855
0.049249094
0.06807921
-0.033045974
-0.008505651
0.00760462
0.031383783
-0.035020985
-0.07473089
-0.01969723
0.010555999
0.0062539508
0.015722778
-0.027787331
0.024118515
0.01508612
-0.010318679
0.0473488
0.043004688
-0.04740522
-0.028852027
0.016966326
-0.017829793
0.0033167335
-0.06393611
-0.01571198
0.01190443
-0.02376457
0.036102615
-0.042926345
-0.0068638236
0.0032771844
-0.013058637
-0.029062562
-0.068677284
0.030223658
0.0062317043
0.020948209
0.015585938
-0.045784026
-0.011636029
0.0035175278
0.012517597
-0.07364483
0.037859812
-0.0005386857
0.09528537
0.05769912
-0.02068758
-0.026510624
0.01665177
0.06292955
0.045971878
-0.006533563
-0.055710793
0.008573524
-0.036039494
-0.038510915
-0.025648985
-0.026141504
0.01959526
0.022060933
-0.046156846
-0.034392036
-0.0037754972
-0.046282552
0.0050947173
-0.005496694
0.004268392
-0.028049892
0.089817785
-0.013811542
0.009394617
-0.017211469
-0.046983596
-0.09651762
0.023717606
0.057678733
-0.03366711
-0.03923754
0.06736451
-0.034186713
0.05867232
0.011183714
-0.006459342
-0.04372197
0.03157042
0.06275023
0.0039583463
-0.10930693
0.015562436
0.07999297
0.06616415
-0.03678895
0.021107133
0.011323318
-0.024156684
-0.0523033
0.07357049
-0.04012531
-0.032605827
0.0009331786
0.025393385
-0.06363278
0.04161397
-0.017630586
0.06058885
-0.037947435
0.015854297
-0.021860417
-0.02468181
0.03381165
-0.016881961
-0.011338643
-0.0146412775
-0.034488726
0.0033875036
0.038076967
0.029609019
0.044113196
-0.028155062
-0.11167985
0.0016210063
0.008080109
0.01915393
0.024048751
-0.06916636
-0.014239885
-0.036943354
-0.006817935
-0.030449623
0.076704465
-0.052138805
-0.008708446
-0.041209333
0.08561044
0.021807296
-0.009574617
-0.023412045
-0.055435598
-0.011507901
0.09457498
0.029447151
0.00064833235
0.036127795
0.00539806
0.011267781
-0.014897142
0.00035188007
0.051781874
0.03888379
-0.019755773
-0.07698465
-0.048946213
0.07971697
0.010277891
0.0039493446
-0.025498884
-0.008293073
0.015452227
0.05816042
0.032287687
-0.0099424375
-0.051567223
0.00027500858
0.08836368
0.026694134
-0.06806964
-0.025281321
0.00571753
-0.06975681
-0.0022354038
-0.0014880509
-0.03427517
-0.02494372
-0.0533431
-0.021574996
-0.047757845
0.035522044
-0.054107975
-0.0092463605
0.047298938
-0.05508287
-0.008496008
0.057294115
0.023462301
-0.026349846
0.044057604
-0.008536586
-0.0014507292
0.011519508
-0.07764588
-0.0384161
0.042900797
-0.011739253
0.06349779
-0.002234512
-0.015768081
0.061776705
0.022739053
-0.029892182
-0.039122596
-0.052503936
0.04004669
0.01836817
0.002407351
0.024919743
0.012929749
0.086924225
-0.07683473
0.026367981
-0.020023873
0.01234036
0.025279041
-0.016557172
0.0070237964
0.033697106
-0.037951477
0.047415778
-0.040580925
0.09212606
-0.026791904
-0.0818088
-0.0048728534
-0.040616475
0.023418188
-0.016799143
0.026265997
-0.027012862
0.033011314
0.036436494
0.07386876
-0.011075706
-0.031822458
-0.0996639
-0.022361903
0.032238726
0.0015018004
0.042022787
0.04279732
0.061986506
-0.03888984
0.04229085
-0.014960433
0.010969158
0.018250098
-0.048881155
-0.04781992
0.04315713
-0.07576527
0.03017392
0.03865087
0.040477764
0.108812705
-0.01737649
-0.027345128
0.0031921875
0.018505968
0.040434312
-0.032206587
-0.009515287
0.03815855
-0.011912354
0.0066912672
0.097376935
-0.023066552
-0.021712516
0.013600886
-0.067236826
-0.0070555108
-0.05459611
-0.03555456
0.0069522504
-0.08788049
0.01643048
0.014810389
-0.00078638905
-0.020532614
-0.011975351
0.017602611
-0.04853154
-0.030511905
-0.0023621202
-0.059370704
0.04702884
-0.006893584
0.062148325
0.02440098
-0.077110246
-0.058671605
-0.051410284
0.07725035
0.016261538
0.060593043
-0.048952606
0.049748473
-0.022412412
-0.015009663
-0.012072726
0.015627315
-0.047331385
-0.06730634
-0.025950268
0.03940642
0.018444788
-0.039253403
-0.0032226918
-0.016998563
0.025899677
-0.08331238
-0.009156199
-0.03792069
-0.041746236
0.008275913
0.029208474
-0.03830977
-0.016984267
-0.012071059
-0.01048728
-0.06927605
-0.04111083
0.0046747955
0.06586211
-0.06339774
-0.013214877
0.0018226483
-0.03563798
-0.039441276
0.010429341
-0.03317718
-0.042207077
-0.013085206
0.0301058
-0.06437472
-0.049512785
-0.07387135
-0.03509873
-0.008006758
-0.0070894086
0.0117802685
-0.04748001
-0.032114197
0.026745092
0.08070804
-0.08490761
0.0540338
0.004835901
-0.068171136
0.04917254
-0.0685777
0.019358855
-0.026442712
-0.0033325707
0.01803713
0.05670824
0.0421057
0.0672641
0.025345864
0.039354376
-0.046033863
0.035697624
0.06924631
0.0155774485
0.04264138
0.04562701
0.020694412
-0.055782273
-0.008176689
-0.0045405263
0.04143875
-0.024915582
0.04071055
-0.006422242
-0.005728505
0.000521258
-0.032635253
-0.058550775
0.07007998
0.023896169
-0.01870888
-0.048375055
0.09271635
0.07182527
-0.0047496115
0.011613463
0.02485447
-0.02533186
-0.022654545
-0.019682176
0.038081333
-0.05343357
-0.049363535
0.05502878
-0.086181596
0.039469514
-0.0010311865
0.0012933608
0.08060602
0.03533163
0.019172272
0.019175138
-0.011141531
-0.0143985925
0.03557764
-0.006745033
0.006297172
-0.02880924
-0.05082218
0.08485108
0.014846687
-0.0079734195
0.009779048
0.03230308
-0.0711814
-0.06871797
0.02804383
-0.020372946
-0.04848809
0.04813641
-0.020354515
0.053346608
-0.04457361
0.0064019198
-0.004174974
-0.08478734
-0.06727579
0.00025708944
0.07366039
0.02229369
-0.007253039
0.050096847
-0.008976081
0.03806439
0.074535616
-0.021592824
-0.047043607
-0.05393253
0.013018847
0.014405571
0.07480132
-0.083505936
0.030804282
0.041227862
-0.0025021671
-0.048355162
-0.02172136
-0.054508977
-0.0014707344
0.007146069
-0.045211494
0.016635548
0.07431428
-0.009329533
-0.007142947
-0.0443744
-0.003209179
-0.015071422
0.06511064
0.04384613
-0.0047624516
0.07017913
-0.00043445738
-0.020161387
0.0813866
0.030994382
-0.036849733
-0.057845466
0.016503362
0.046196252
0.026026761
0.0074193506
-0.005562935
0.020246543
0.05210535
0.058860824
0.04054558
-0.0182844
0.02294438
0.03389819
-0.012703623
0.034945056
0.0715028
0.06851614
-0.05661234
0.0055633117
0.057872295
-0.01892731
0.008270945
-0.033350427
0.014135636
0.04608901
-0.0044330084
0.0032740084
0.019706648
0.08427
-0.0009016088
-0.029811494
0.050897237
-0.035295345
0.04989225
0.020696567
0.05577133
-0.025133431
-0.0016416103
-0.06420996
0.019243589
0.07773061
-0.054186203
-0.018609608
-0.033372257
0.027541842
0.034876924
0.028938893
-0.010286663
0.051604215
-0.00037653494
0.028638935
-0.024946693
-0.028552908
0.0034883511
0.09937988
0.037514966
-0.03835522
0.012117773
-0.002894521
0.0025576048
0.042649813
-0.026488118
-0.038287472
-0.053295728
0.008380191
-0.007832185
-0.01891416
0.045279488
0.021219382
-0.036453504
0.08524616
0.040954936
0.053638026
0.056411568
0.04132408
-0.0013908427
0.06184385
0.032545183
0.004009928
-0.056803912
0.03364737
0.01871184
-0.030167686
0.024344932
0.03939259
0.06534762
-0.010123748
-0.028547434
0.032047883
-0.044363916
0.007475971
-0.026436739
-0.0594024
-0.03667436
-0.021817727
0.064989544
-0.030706247
-0.05804513
-0.020573994
-0.051259715
0.009403937
-0.01353189
-0.034475528
-0.0018789233
0.053845257
0.01113749
-0.030007666
-0.01636394
0.11471787
0.045295272
0.08337651
0.029429141
0.031463698
-0.031855803
0.021698492
0.0021641043
0.030743722
0.10351381
-0.00016538518
0.024855088
-0.05946319
-0.034012277
0.03505699
-0.023415575
0.0033125803
0.023961676
-0.07018189
0.03628042
-0.01662962
-0.00606541
0.017620517
-0.0021173924
0.029314995
0.01817538
0.04661832
0.04609398
-0.011466184
-0.043925583
0.05152494
-0.031514898
0.056758545
-0.058654558
-0.030288825
-0.021261478
-0.05522763
0.00025369955
-0.049614888
-0.0034320885
-0.008278447
0.013287784
-0.023111755
-0.019789698
0.027375117
0.05104118
-0.048498496
-0.026688054
0.048108302
0.008733029
-0.062608324
0.045820944
-0.035998616
-0.08467416
-0.038352758
0.016854495
-0.044984046
-0.044406157
-0.057308454
0.03244903
-0.06332271
-0.010020471
0.008389628
-7.154956e-05
-0.04951694
0.0018979628
-0.04136686
0.024569366
-0.016462976
-0.024608402
-0.04447199
0.01535127
0.0046983766
0.0030436935
-0.009193781
-0.07546147
0.068823546
0.011221229
-0.02710601
0.022902874
0.0032424866
-0.055161554
-0.044104487
-0.023350067
0.029032903
-0.008958985
-0.074770026
-0.0029067064
-0.083271064
-0.05231578
-0.039514564
-0.013411943
0.009764835
-0.035202608
0.09158828
0.030994559
0.03709405
-0.013942562
0.010161725
0.003116553
0.015355511
0.03565863
-0.060493853
0.012246888
0.040509056
0.03585953
0.036714982
-0.06557865
-0.015491935
0.049522847
-0.07196574
-0.0057724947
-0.024728935
-0.0020929768
0.04140832
-0.082093075
0.018384427
-0.02519913
-0.04500409
0.018615477
0.009767354
0.06042203
0.01982877
-0.022219773
-0.048971463
-0.05105986
-0.0076304707
-0.024427542
0.015867773
0.01892374
0.025561236
-0.016736416
-0.0055052093
0.021874445
0.025764573
-0.041089684
-0.034228932
0.033293486
0.044412926
0.0035934919
0.037644517
0.056917503
0.04748409
0.022886027
-0.049928166
-0.0087195905
0.022427496
-0.041993394
-0.007233435
0.025153268
0.023509707
-0.03156119
-0.015411174
0.058782723
0.0075564664
0.040547706
-0.011510355
0.026603302
0.019197116
-0.01898154
0.006071071
-0.03688897
-0.045413285
0.09620544
0.024858385
0.03208027
0.0031522145
-0.061630763
0.006187678
0.056273356
-0.07423108
0.011689262
0.025240261
0.021579487
0.014462976
-0.03337218
0.028043006
-0.021060864
-0.058830492
-0.019673705
-0.034587245
-0.022587366
-0.0022462178
-0.08348108
0.04435709
0.025114886
-0.014416094
-0.016219418
-0.03705675
0.07933329
-0.006486912
-0.058948636
0.071286745
0.0148777785
-0.07791958
-0.04729655
0.0023302403
0.0014553424
-0.040460434
0.025527965
0.011265476
0.048695043
-0.003617174
0.07506538
0.039639033
0.048635144
0.003222005
-0.018609773
0.04868706
-0.026795065
0.01879937
0.044750005
0.02872886
-0.03693241
-0.050862934
-0.03173592
-0.0058506727
-0.0021975318
-0.07108575
0.010556039
-0.056368116
-0.022889005
-0.00465505
-0.03611261
0.020311328
-0.01469999
0.0027078902
0.07124026
-0.03095887
-0.014737131
-0.008843696
0.11777127
0.018316818
-0.028939059
-0.0032202385
0.092722565
0.018538339
0.09918694
-0.035719406
-0.040832683
0.005068452
-0.0006283521
0.010518965
0.00702917
7.62803e-05
0.00680633
0.00019241091
0.042226322
-0.029952792
0.030681094
0.010204105
-0.042021062
-0.031817403
-0.008773788
-0.051356975
-0.0295372
0.071555644
0.017689152
0.028946698
-0.023834402
-0.03802304
-0.030710567
0.0036611748
0.06363877
-0.043663714
-0.0324921
0.0744425
-0.041137695
0.08328314
-0.0011237626
-0.0075228964
0.00935303
0.015649023
-0.007932276
-0.059506938
-0.026254741
-0.06302643
-0.0028210904
0.042035602
0.08986499
-0.0014158131
-0.076212004
0.102215946
-0.05600575
-0.014868402
-0.033052094
-0.06817198
-0.022608357
0.0052371677
-0.021887241
0.008568809
-0.022321302
-0.022147838
-0.0372979
-0.012383047
-0.090550035
-0.015081961
-0.012021704
0.014180926
-0.025056953
0.017171405
0.008319643
0.003997987
0.1107286
-0.04212991
-0.03937538
-0.017392451
0.06511073
-0.0059752567
-0.0017525541
-0.090208806
-0.04543928
0.023362013
0.06608977
0.025066713
0.0012564852
0.04498223
0.036378235
0.0022400883
-0.07441711
-0.035073515
0.004449101
-0.022300877
-0.035861593
0.025106996
0.009311558
-0.009003563
-0.029925669
-0.06596692
0.0018025119
0.062497977
-0.006227389
-0.052107316
-0.0515778
-0.024840564
0.07776762
0.04629443
-0.06449071
0.023319421
0.011649394
-0.043075025
0.00035918743
-0.044091813
-0.055855777
0.026621837
-0.02294168
-0.035754528
-0.009665852
0.06582333
-0.03432189
0.048842072
-0.055356853
0.012164643
-0.04577017
0.024743961
0.011962579
0.015864966
0.024908852
-0.0050180773
0.02628606
0.00529946
0.036061954
-0.03709866
-0.1309835
0.03733549
-0.004618866
0.006799383
0.008556711
-0.034111533
-0.05171441
0.007336405
0.0123283975
-0.011409506
-0.032447398
-0.10554157
-0.018101742
0.0062787873
-0.06193436
0.057344396
0.045644626
-0.016905412
0.027018934
-0.08275399
-0.05057805
0.038253922
-0.010720933
0.04144368
-0.061992846
-0.015544321
-0.09413495
0.008206503
0.010968509
0.08467571
0.06339634
0.10586162
0.0006156476
-0.027853373
0.014837012
0.015496328
0.02055788
0.0610089
-0.03499567
-0.018173886
-0.018613953
0.036321394
0.028295986
0.032366868
-0.0020679662
-0.026322981
-0.086371005
0.028679738
-0.046301123
0.049331367
-0.008362157
-0.004242732
0.007870017
0.0076994277
0.073014446
-0.017815331
0.0013702755
-0.03277787
0.058961704
-0.030036034
0.021895075
-0.0028403373
0.028714005
-0.0726466
-0.038304217
0.044100672
-0.028539402
0.011866586
0.051938817
-0.03599817
0.043330215
0.025162164
-0.018445203
0.007984037
-0.08919151
0.012940043
-0.028255276
-0.032014664
-0.0021930183
-0.0063059228
-0.0843732
-0.0015015058
-0.004412868
-0.00013918024
0.047489524
-0.0010599723
0.0070180735
-0.034599435
-0.00619893
0.050628584
-0.003444185
0.06316198
0.05527617
0.018272763
0.014745729
-0.01679947
0.03793011
0.072746515
0.02832819
0.033779792
-0.022723153
-0.045233108
0.013143506
0.018881286
-0.013098789
-0.008240538
-0.01339115
0.015873458
0.0058952244
-0.017602542
-0.012983249
0.0167024
-0.07718648
0.071522996
0.019586876
-0.019728007
0.012495919
0.033522245
-0.091937356
-0.068123445
0.034104303
0.052115563
-0.033557992
0.048335418
-0.05509989
-0.043774143
-0.04656493
0.020426773
-0.041686147
-0.012815658
0.006419593
-0.03651978
-0.0023327128
-0.03565785
-0.076449804
0.004521459
-0.019380594
0.04226283
0.078660555
-0.027991178
0.054237545
0.007082607
0.046377856
-0.0557164
0.07802818
0.0046001105
0.031164788
0.018954499
-0.0587809
-0.040785618
-0.014002603
-0.035189055
0.06725281
-0.022284564
-0.02169987
-0.023269853
0.063059516
0.019919852
-0.029017814
-0.00031125528
0.03247344
0.038808856
0.005103526
-0.040730186
-0.02974616
-0.04934533
-0.02386788
0.010780225
0.013435455
-0.04058609
0.056020625
0.039571386
0.017608453
0.02803796
-0.033421006
-0.0039047438
-0.04327507
-0.05550438
0.042328563
-0.0040322472
-0.0105876345
0.009782318
-0.029352063
-0.025975633
0.006002827
-0.011427469
0.04967897
0.022687307
-0.08055688
0.029167295
0.009599443
-0.022953996
-0.039257172
-0.017671937
-0.07766215
-0.042943027
0.041439284
0.014068795
0.041069135
-0.044106472
-0.028577128
0.08262661
-0.05585337
0.03169864
-0.034190726
0.09396521
0.027288461
0.0066316416
0.0044802288
0.012229699
-0.011098306
0.032865316
-0.025585266
0.059321795
0.009793351
-0.027852302
-0.020009497
0.034275323
-0.03704577
-0.06183708
0.01237416
0.06235617
0.010550197
-0.011740667
-0.023826439
-0.03757534
0.021145854
-0.041055053
0.07320251
0.08165323
0.030512517
-0.027993156
-0.008661257
-0.010928041
-0.008857406
-0.011237419
0.007730634
0.011193179
-0.0076822443
0.0074742083
-0.036422808
-0.014975104
0.005185336
-0.002521083
-0.03792381
-0.1898853
-0.02846121
-0.01472856
0.048056483
-0.10434898
0.101316154
0.022458196
0.039472144
0.031015197
-0.042391036
0.0121136885
0.0015659422
0.083874986
-0.02120272
-0.02013235
-0.024582101
-0.07924368
-0.052534446
0.0054801223
0.009427857
0.10387093
-0.021173699
-0.02184968
-0.0005341391
0.04153796
0.008937341
-0.010854581
0.09348423
-0.021814484
-0.025691919
-0.024381552
-0.118161
0.024549393
0.08128228
-0.049843114
-0.032427914
0.07720499
0.015231749
-0.0013538338
0.10545131
-0.048366137
-0.0030286305
-0.012322866
0.0112020075
-0.051425684
-0.043920193
0.02263586
-0.037034914
0.014875202
-0.053879727
-0.055935614
0.042392556
-0.0111990515
-0.017193113
-0.024868252
0.02810142
-0.0296667
-0.056459706
-0.036489774
0.078786716
-0.004443227
0.052960176
0.011035404
-0.0026007127
-0.009111804
0.013019626
-0.039825197
0.02298111
-0.02928737
-0.025552047
0.0056329165
0.04796749
0.037883896
-0.0565334
0.08715552
0.018477622
0.016689021
0.03885893
-0.04844241
0.024341423
-0.03611875
-0.037952166
0.059824884
0.041898426
0.0026336433
-0.01357911
-0.05767151
-0.032252215
0.027934453
-0.025414525
0.03824961
-0.013149286
0.0054877293
-0.06204471
-0.037162535
0.011528255
0.028221276
0.016616091
-0.025779463
-0.059483662
-0.010472586
-0.0051552705
0.03979412
-0.008328046
-0.05969212
0.049464643
-0.015715491
0.019759763
0.022173846
0.026714744
0.010758225
-0.050532587
-0.056854945
0.06736871
0.00089535344
-0.039527323
-0.015718088
-0.037470765
-0.040919617
0.060601067
-0.0700052
-0.004057118
-0.04804941
0.023308977
-0.01272309
0.05112646
-0.052448187
0.011057426
0.06374882
0.04698069
-0.022088109
-0.020664802
0.04496773
-0.054166123
-0.016058436
-0.019385958
0.005036568
-0.037297495
-0.0027054613
0.011747021
0.014501095
-0.029891768
0.03329471
-0.036540173
-0.024001868
0.017391548
-0.033921566
0.031526856
-0.011520752
0.00806723
-0.03986227
0.010683743
0.008754686
0.07036502
-0.03969886
-0.020117149
0.06953619
0.01116929
0.054016672
-0.085265234
-0.033652924
0.043232683
0.0014682529
-0.048164994
-0.012324861
-0.008332017
0.051716123
-0.016800025
-0.03286224
0.012122774
-0.0010392059
0.0057761404
0.03800961
-0.030982343
0.05967234
0.008741019
-0.0485752
-0.037004918
-0.045220405
-0.025442488
0.0050305156
-0.030870348
-0.05284342
0.009019424
0.05251173
-0.032294475
0.02839005
-0.0486108
-0.014582258
-0.03359052
-0.03847117
0.0050983545
-0.026929768
0.029914036
-0.0937177
-0.0087314285
-0.03508352
0.02653805
0.092444286
0.021683268
0.026393123
-0.02656874
-0.093962766
0.010025153
-0.024031391
0.010999229
-0.011319821
0.03625532
-0.058807023
0.051716514
0.03649107
-0.02028292
0.0801151
-0.0526531
0.047076523
0.005263789
0.0041616103
-0.0064935465
-0.0018488594
0.0020221735
-0.0353334
-0.07014846
-0.01284189
-0.09277186
-0.04104909
-0.017916065
-0.026998179
-0.003989025
-0.039542943
0.019922793
0.035489254
0.033633128
-0.020156939
0.0023015162
-0.0804782
-0.05517017
0.04047771
0.0026902866
0.015567028
-0.051113468
0.048865676
0.03729342
-0.06543676
0.035447296
0.02359008
0.011728657
0.025568094
-0.018004056
0.012550607
-0.061384607
-0.016153794
-0.09404182
0.049128924
-0.011742905
0.024409367
-0.04414912
0.04186272
0.00027071885
-0.013806567
0.062533036
0.031384557
0.033467975
0.014108284
0.03636661
-0.06432937
0.020018512
0.012315014
-0.000894963
0.017763905
0.005140579
-0.019888902
0.000994407
-0.024658166
-0.025344567
-0.07632903
-0.012165815
-0.051824905
-9.108366e-05
0.022430673
-0.0046044267
-0.0027828573
0.02979589
0.05381905
0.050195474
0.02713816
0.08462916
-0.055834003
-0.029243367
0.022540156
0.058623996
0.0010977866
-0.016189734
0.069777
-0.04322456
0.0049099145
0.031951662
-0.064246744
0.0060565844
-0.026745278
0.011847395
-0.02176336
0.0044344263
-0.032334615
0.035575945
0.0048462595
-0.008442857
-0.013448275
0.03523324
0.01977377
-0.033761244
0.015819164
0.037292644
-0.012866917
-0.057418518
0.04199548
0.025784831
0.00905688
0.0073147994
-0.03771884
0.019333337
0.01158171
0.0063008056
0.027521228
-0.019088907
0.0057897074
-0.075207025
-0.0358831
0.0030556421
-0.025052788
0.018387444
-0.0124559
-0.023417173
0.008525704
-0.021920577
0.013759478
0.062499456
-0.058643207
-0.033431854
0.0014604864
0.043729503
0.019429235
0.018729545
0.01223183
-0.06408335
0.0021196413
-0.019096827
-0.07166819
-0.014352834
0.0023446493
0.025407692
0.0071047144
0.07313256
-0.028770719
0.02279598
-0.0012758586
-0.044311237
0.004437407
0.06090888
0.07115943
0.042984452
-0.021937499
0.048775017
-0.027997958
-0.053044893
-0.022241537
-0.012833565
-0.06864253
-0.026247792
-0.081114694
-0.023327595
0.019743664
0.041685168
0.042709056
0.089359224
0.02761439
-0.03332703
-0.009148
0.044059634
-0.039839346
-0.0076660146
0.010885557
-0.037477296
-0.021232478
-0.0006279529
-0.031575765
0.07560393
-0.03324823
0.0013292095
-0.008709632
-0.008490966
-0.06966769
0.025448982
-0.011197174
0.024992676
0.057224687
0.012066167
0.0093175005
0.05464933
-0.0004396473
0.028079575
-0.07299976
-0.041333742
0.020591412
-0.03953883
-0.08710249
-0.009444033
-0.120049305
-0.02221649
0.056917354
-0.054136246
0.09901436
-0.0491511
0.011702541
-0.026886892
0.046608455
-0.08092059
0.025609713
-0.038226023
0.023642937
0.026002932
-0.050307572
-0.0021183568
-0.024093004
0.012097294
-0.036812324
0.0022203943
-0.0016531836
0.08342888
0.061619814
0.051310755
-0.004381977
-0.0038529395
-0.029932665
-0.02419978
-0.046080608
-0.060862795
-0.0564247
-0.010005629
-0.0020091075
-0.04565316
0.023645183
0.0048948415
0.04432546
-0.09427784
0.04724477
0.059226874
-0.1268763
-0.06935106
-0.007473449
0.087752916
0.022423381
0.06925681
-0.026429024
-0.005641409
-0.061123103
0.06420789
-0.047608312
-0.03488579
-0.018516988
0.03931339
-0.007885257
0.025221834
0.048982766
0.016652452
-0.067690946
0.05533975
0.06699025
0.003966958
0.017041596
-0.032716867
0.046586186
0.014536459
-0.007165527
0.0037514179
-0.031385347
0.005969313
0.022330055
0.027206866
0.0064047403
-0.018154584
-0.019574892
0.042033724
-0.02667163
0.058695216
0.06792372
-0.0046627093
-0.065430336
-0.047671713
-0.041112047
-0.024695776
0.019248232
-0.009266172
0.038119115
-0.008079391
0.027660375
0.0027005456
0.015722623
0.043755498
-0.00542334
0.0047129034
-0.038256504
-0.04945257
-0.024545584
0.0314151
-0.03618185
0.032582708
0.021590762
-0.03266711
0.01281149
0.014721552
0.02866154
0.07905376
-0.027335301
0.008041123
-0.08698531
-0.01723509
-0.026096005
0.06558643
-0.11095599
0.015646748
-0.04594049
-0.02271604
-0.04830863
-0.055733513
0.028353715
0.0056136996
0.0016116002
-0.032268353
0.00264744
-0.04769552
0.022529226
-0.04186306
0.05499936
-0.03949492
0.02988963
0.015656235
-0.00487668
-0.024534449
-0.029301621
-0.06678847
-0.065649636
-0.047558285
0.028601667
0.049887005
-0.033807233
-0.005474886
0.015131402
-0.02111804
0.044218812
0.0258216
0.023153642
0.08767406
-0.022992289
0.060749773
0.013012377
0.07209951
-0.03527152
0.077639446
0.068490736
-0.021401972
-0.05535315
-0.023864549
0.025836406
-0.07318275
-0.014871338
-0.031842705
-0.044157498
0.059058595
0.013481562
0.04338772
-0.07594755
-0.012414993
-0.0083843265
0.016669752
-0.04406091
0.027239405
-0.076449856
-0.0065846886
-0.006582031
-0.030357894
0.061713956
0.05433536
0.011840374
0.06442967
0.031131035
-0.06758745
-0.05499473
-0.0017197438
0.042486254
0.05075007
0.041361984
0.023413615
0.047652677
0.029591378
0.01511275
0.0076484215
-0.049165748
0.056432568
0.053466786
0.11106819
-0.017321676
-0.00846038
-0.05969237
0.016535992
-0.07233267
0.0018939504
-0.09731073
0.013743636
-0.07270965
0.014073482
-0.005556729
0.015427657
-0.013269013
0.034470562
0.015788205
-0.061714634
0.029630212
0.0694353
0.013533468
-0.035324797
-0.04867508
0.015607408
-0.033742584
-0.02976138
0.038516395
-0.05691351
0.045373168
0.036086783
-0.0065621804
-0.016178688
-0.06617413
0.03122438
0.04899029
0.038231414
0.040353358
-0.03690041
-0.022831881
0.032405507
-0.090313695
-0.022503203
0.042983487
0.018018832
0.03590089
-0.012446094
0.00092684006
0.040749803
0.018786158
-0.061147396
-0.02682782
0.007975647
-0.0004921076
0.0071811103
0.027524717
0.021686625
0.019511297
0.029940767
0.052976657
0.026916882
-0.051200334
0.00947737
0.033613447
-0.0832426
-0.018244674
-0.057767328
0.03250242
0.017317306
-0.01669313
-0.021519797
0.012281532
-0.018361492
-0.03455183
-0.015559487
0.0336441
-0.008840247
0.0007704588
0.03020989
0.056236967
-0.03704252
0.013536034
0.0010712029
0.012297968
-0.0051847105
0.0035887756
0.05042418
0.11534464
-0.015287501
0.032060236
-0.03244515
0.032871783
-0.048322536
-0.006026419
0.07044181
-0.023074199
0.02301414
-0.036180507
0.034980014
0.030521885
0.06990152
-0.0011863917
0.0063275136
-0.0669057
0.014534035
0.018461633
-0.0014091785
0.033576973
0.07655766
0.044471953
-0.06559183
-0.008482424
0.025061468
-0.01085249
-0.01393544
0.022451289
0.011729933
-0.022524279
0.025620988
0.0035985024
0.010227425
-0.007770591
0.012299124
0.004060822
-0.036467317
-0.0111170625
0.032578707
-0.013035094
-0.08138528
-0.03178515
-0.07849355
0.05235274
-0.025896804
0.011879588
-0.056680486
-0.029971281
-0.007346423
