0.004467739
0.0067620967
-0.05108471
0.003991981
-0.026667183
-0.020876613
-0.06732589
-0.01882953
-0.05254128
0.060802568
0.0020424598
0.07411522
-0.01488939
0.026496733
0.0089505855
0.0012951582
0.0017036975
-0.07485928
0.0017307278
0.02731146
-0.03683864
-0.027894063
0.03331092
0.029058957
-0.013531028
0.01233853
0.011202795
0.0015589433
0.0023039156
-0.017725257
0.05076428
0.022279544
0.05248909
-0.0023579642
0.026078617
0.008503503
0.05666996
0.026161786
0.039805416
0.0012740666
0.007390893
-0.03358052
0.011953796
-0.047946703
0.04847834
-0.027450956
0.023545317
-0.040979598
0.057185493
0.028263507
-0.029384404
0.044892617
0.0061997916
-0.039996292
0.0006316402
0.023871828
-0.021467142
-0.047052123
0.018827496
-0.022090033
-0.02017861
-0.026587714
-0.03341711
0.012429923
0.010168972
0.03683019
0.001514994
-0.017701505
-0.036019932
-0.048975565
-0.048799388
-0.067755304
0.08079996
0.04780016
-0.040793754
0.038800295
0.010637685
-0.0048094955
0.02267135
0.0055240523
-0.0019622843
-0.057969
-0.01201768
-0.03494826
-0.059384335
0.006850474
-0.0204835
0.0011285521
0.008774627
-9.494083e-05
-0.054278627
0.02715346
0.038456637
0.026308686
-0.055112574
0.016437184
-0.0024121304
0.025670594
-0.018773133
-0.012127433
-0.036769714
-0.009447992
0.0017327762
-0.008744328
0.03463551
-0.01738268
0.020334119
0.01307191
-0.008839781
0.0036893866
-0.02521151
0.023407169
0.0009400756
-0.019733995
-0.011299517
0.027340133
0.037804637
-0.032653056
-0.0005156301
-0.01835449
0.0063261474
-0.025690839
-0.050075006
-0.0008228259
-0.0009584415
0.05074885
0.0005995164
0.035166267
-0.0047797672
0.003089142
-0.0054298793
-0.036041733
0.019518318
0.0004903896
-0.012954672
-0.04187354
-0.0008413464
0.020527748
0.020506041
0.00818007
0.0074054804
0.003186895
-0.041227423
0.016772332
0.0020805479
0.01874851
-0.035942428
-0.00077947683
-0.00038840174
0.0009041601
0.010959304
-0.00995234
0.037167348
-0.028969172
0.003148014
0.025823206
0.031769324
0.012119866
0.027520115
0.006761612
0.02302559
0.011633439
0.021109903
0.0106409555
0.05275575
0.0087145725
0.031471614
0.02444026
0.021437718
0.030102003
-0.0003788402
-0.027677564
0.012796888
0.07281035
0.04820933
0.022842642
0.03725789
-0.021237923
0.016092265
0.0323264
-0.037925776
0.0029648328
-0.026152171
-0.03758729
-0.0033032137
-0.011834004
-0.028538225
0.028120589
-0.027233224
0.009096649
0.053563006
-0.029908307
-0.018633487
-0.041308492
-0.043551125
-0.002413975
-0.02862927
-0.021545757
-0.016224675
0.055548597
0.022900576
0.005564506
0.0248063
-0.009810244
-0.048589256
-0.003670733
-0.017840736
-0.028890917
-0.013014371
0.013351733
-0.0073171495
0.015784396
-0.06307065
-0.010463739
0.008761829
0.009569422
0.013711157
0.0018800179
0.0050248737
0.008673356
-0.019782726
-0.02066432
0.03275251
-0.029378977
-0.026482187
0.0009533268
-0.0040091677
0.011291893
-0.04966983
0.005974879
0.027682206
-0.021786926
-0.027221918
0.012535594
-0.051266633
0.03907941
0.026029257
0.040936686
0.008346816
0.02489551
-0.00813106
-0.017886108
0.016658982
-0.04660781
0.010905923
0.016535228
0.0083204415
0.03287459
0.027330488
0.03823709
-0.0060474956
-0.0038157688
-0.022739831
0.019594615
-0.020080838
0.0322639
-0.030409604
-0.024914373
0.04200071
-0.011352682
-0.029251924
-0.00748704
-0.0012395964
-0.012513095
0.015798857
0.014364315
0.0350857
-0.057781175
-0.02227796
-0.012592969
-0.023101224
-0.03912708
-0.05069867
0.0037617953
-0.037343778
-0.0052239127
-0.006803484
-0.031869628
0.01694421
-0.000663142
0.029180776
-0.020253934
-0.009836226
-0.054856673
-0.028444817
0.014616053
0.057097193
0.05277189
0.01482418
0.008864092
-0.029754141
0.0046205875
0.034376886
0.018890133
-0.020447327
-0.028624866
0.0008305891
-0.024105892
0.040915206
0.0050624516
-0.015735384
0.029737584
-0.034751818
0.029927704
0.002904727
-0.03486334
-0.016566576
-0.029871782
-0.033066187
0.033639677
0.009656137
0.0066088964
0.018829606
-0.0058997027
0.037954625
-0.014209529
0.055430047
0.0241154
0.00073459366
-0.06658381
0.0280892
0.0030607227
-0.033133246
-0.040205665
-0.024747016
0.04886387
-0.027860226
-0.015498016
0.030680185
-0.004510216
0.045400776
0.017098295
0.036399327
0.0023778738
-0.015496145
0.040541988
-0.044758588
-0.022252101
0.023884147
-0.038504686
-0.051643793
-0.07842696
0.048768405
-0.03298768
0.015565485
-0.034808755
0.0028929561
0.002322551
0.04194802
-0.033098534
0.0038756998
0.044027414
0.0084325485
0.018528026
-0.014311566
0.034792043
0.020201549
-0.08761368
0.032157574
0.023591552
-0.042574134
-0.035763945
-0.030776888
-0.03536563
-0.019266376
0.053084027
-0.027594604
0.013387743
-0.005055634
0.01901204
-0.019007111
-0.028765887
-0.02214604
-0.020768143
0.003332236
0.0088292565
0.000904063
0.005083711
0.03573472
-0.040495206
0.045710538
-0.025323434
0.029692465
0.0781483
0.053633515
0.009497376
-0.029575849
0.001989736
0.04423152
-0.030545596
0.019050702
0.016292423
-0.022718128
0.004438895
-0.019005205
-0.04093239
-0.010294592
-0.041360155
-0.05432341
0.004309958
-0.026084
0.041651167
0.036359467
-0.018719628
0.02909693
-0.014096084
0.009416318
0.03671329
0.04740368
-0.00087667955
-0.021616345
0.014398449
0.026237044
-0.036291707
0.016735608
-0.027633237
-0.0170947
0.020792825
0.056539297
0.025393035
-0.0007000443
0.017261446
-0.05361013
-0.0052281646
0.022560285
0.0406004
0.008658698
-0.010001327
-0.023043623
0.03482469
-0.0026502886
0.01571774
0.0019849583
0.022846604
-0.031740878
0.005348238
-0.0014032118
0.007022278
-0.01723071
0.006108044
0.02189001
0.039853703
-0.007837503
-0.009905091
-0.010788441
0.009121964
-0.029388461
-0.047503177
-0.043752175
-0.013150528
-0.06340828
0.010398963
-0.03813258
0.009433712
0.0063683605
-0.048469078
0.027054729
-0.01453751
-0.029566107
-0.009727936
0.04966
-0.078983106
-0.0033449999
0.0094453385
-0.007914476
0.01634062
0.035539586
0.029053485
0.025999637
-0.04716422
-0.003160236
0.020176329
0.020801656
0.009115979
0.016887559
-0.033351757
0.01685444
0.034663286
0.024907382
0.018006843
0.023999091
-0.0076537128
-0.018510714
0.024319148
-0.011029679
-0.001339165
-0.0040547918
0.014510984
0.04666812
-0.014287136
-0.04359896
0.054502793
-0.02117255
0.00265309
-0.08045765
0.001389836
0.058086347
-0.02322295
0.020000115
-0.02918596
0.035439234
0.008206908
-0.0117864795
-0.000116847936
-0.033503067
0.05388357
-0.02414628
-0.0072817747
0.0076088016
-0.07743883
-0.0053359005
0.009958474
0.035184044
-0.017228791
-0.042438433
0.005324026
-0.0063119773
-0.047391884
0.018886046
-0.013055677
-0.015302963
-0.036342908
0.020803103
0.0074667362
0.0149571095
-0.033135105
0.010466294
-0.027471017
0.047550354
0.004264499
-0.010244308
-0.054029632
-0.010948068
-0.01265596
-0.030787153
0.0060410155
0.018384494
0.095740035
-0.02054206
0.0063348655
-0.02187216
0.01281991
-0.0002493704
0.009317433
0.014041567
-0.011574924
0.05631378
0.033436842
0.020623915
0.021155426
-0.031687587
-0.03626753
0.08219694
-0.03742823
-0.005453365
-0.049849063
-0.04485744
-0.01608539
-0.002360641
0.012376197
-0.08574444
0.019518979
0.051335312
-0.019303987
-0.031830538
0.05961397
-0.029494364
0.0386394
0.012404158
1.1842192e-06
0.030449443
0.0027548769
-0.013527716
-0.007644975
0.0050537293
-0.008698503
-0.03965441
0.029943155
0.014030201
-0.017038237
0.07942253
0.021179993
-0.038348082
0.0024340737
0.028729428
-0.0054213577
0.0029139689
-0.047106132
0.00372165
0.017565632
-0.043804914
0.03792134
0.013020468
0.012548494
-0.053837683
-0.009830308
-0.013098477
-0.026138676
0.014004567
-0.0073027466
0.038078625
-0.041091464
0.022192376
0.007264089
-0.010667869
0.023363007
0.004072561
-0.023833582
-0.00972247
0.061929334
0.028728424
-0.03216629
-0.012187453
0.011399819
0.0006796405
0.025525851
-0.06359915
-0.06698467
-0.03376926
-0.0142787425
-0.014580057
-0.033109523
-0.04636325
0.023183472
0.031588394
0.011874118
0.01380125
0.01727026
-0.057192378
0.04013074
0.045558237
0.02924335
0.037419
0.008573135
0.03188563
0.011021494
0.047533933
0.012976193
0.05201336
0.0072908225
0.004786563
0.016505793
-0.006798685
0.019166984
0.008172859
-0.039064616
0.013805712
0.011947853
0.018895784
-0.014032939
-0.017646672
-0.02505839
-0.02276663
0.017893257
-0.02909245
0.02785748
-0.018244425
0.014393334
-0.0010970114
0.00028725798
-0.026751887
0.03967282
0.032445356
0.050875485
-0.035936724
0.03261677
-0.007124739
0.035315607
-0.004703627
0.009217211
0.009760234
0.03640085
-0.0127746435
-0.011358444
-0.008402564
-0.0004973492
-0.011171083
-0.016303182
0.009835649
-0.01815256
-0.0045965635
0.022146896
-0.012249169
-0.040312495
0.035750855
0.034452483
-0.04435519
0.01761204
-0.03503444
0.024767635
-0.029906677
-0.009162728
-0.027812837
-0.04429811
-0.083622776
0.06272521
-0.03858947
-0.039192107
0.03598172
-0.0067167687
-0.0018504608
0.030114146
0.0065642186
0.0026017127
-0.00406033
-0.035360307
0.03451323
-0.038284704
0.019475987
0.019115113
-0.028867394
-0.024130648
0.04243756
-0.003983216
0.0074202805
-0.010827769
0.035176113
0.0024111837
0.008626037
-0.02421729
0.045139693
-0.044204973
-4.963749e-06
0.020951359
0.008485122
-0.023506649
-0.00040588967
0.0043034293
-0.027502222
-0.037588846
0.026397757
-0.016421957
-0.0046964725
-0.02202366
-0.01583246
0.0034488835
0.051050637
-0.008880349
-0.007835182
0.048783798
0.04284125
-0.0028558944
0.034813043
0.04088204
-0.0027709021
-0.043856516
-0.006004558
0.04786011
0.04711675
0.057799503
0.04271059
0.023741558
-0.037569776
-0.017972924
0.004868275
0.016253171
0.0144580975
0.022568917
-0.023629865
-0.041835964
0.005459882
-0.05372092
0.013870217
0.0074191093
0.017034383
0.05297266
0.006942395
-0.012788577
-0.030966053
0.020295702
0.03182785
0.0038125059
0.059528444
0.0033422273
0.024269683
-0.032861453
0.014556474
0.0018467506
-0.047058064
-0.017596075
-0.03405977
-0.0004915622
0.0013591944
-0.01202606
-0.024731442
-0.005572466
-0.04968968
-0.020401333
-0.035220888
0.024515007
-0.019273521
0.00989339
0.015661668
-0.012150073
-0.023525575
-0.013599115
-0.0058405027
-0.0013162639
-0.013825222
-0.02248925
-0.02790529
-0.025593415
-0.033155102
0.05465572
-0.077582136
0.009264374
-0.055263195
-0.0022200812
0.008690146
-0.0086397
0.014372589
-0.0055249967
-0.020815039
0.021566877
0.010193608
0.030189661
0.01893834
0.057852834
-0.009027357
-0.0005332402
0.014413201
-0.028533572
-0.061125465
0.01694135
-0.01962699
0.03208059
-0.016249435
0.02309902
0.034059048
0.020377444
0.011482945
-0.025152555
0.03869982
0.011049485
0.051755566
-0.020001292
0.017711312
0.005379509
0.038107187
-0.0073266905
-0.026176684
-0.0048851715
-0.013193932
-0.024648
0.014274322
-0.049414467
0.0013767333
0.015596338
-0.0818228
-0.03366943
0.0074137156
-0.043516573
0.03173421
0.028318813
-0.0046206913
-0.0005465812
0.0032371138
-0.007631063
-0.0025499584
0.032698743
-0.04021391
0.0022173084
-0.018523848
-0.020823514
-0.011198477
-0.01630975
-0.016035654
0.0076130545
-0.020467388
0.0060500726
-0.02723488
0.03074957
0.024208747
-0.055266507
-0.017489519
0.013788909
-0.018322023
-0.030728916
0.0046763495
-0.01593542
0.002222299
-0.014122412
0.00810214
-0.03672543
0.008606264
-0.037667528
-0.024596855
-0.041742135
0.021567944
-0.037979845
0.07204458
-0.040283587
-0.008188362
-0.018153403
-0.015982978
0.01379639
0.012214555
0.0020243463
-0.010226864
0.03194489
-0.023304353
0.022926982
-0.06787088
0.08909257
-0.039625343
0.025299236
0.023519434
0.02692046
0.038838297
0.034935847
-0.026404208
-0.07032687
0.023079326
0.034949332
0.0063118516
0.018535335
0.053698886
-0.032744437
-0.0014477358
-0.0051990505
-0.013430337
0.03630168
0.0070817834
-0.03291473
0.013639832
0.012341123
0.03215633
-0.05967451
-0.0136508355
0.03870621
0.011589756
0.047766864
0.03210063
0.021017147
0.006737892
-0.030935511
0.038029894
0.016194742
-0.03478286
0.0003958217
0.023089496
0.009134366
0.009295137
0.03469932
-0.022311471
-0.020351252
-0.06848162
0.018869113
-0.025017697
-0.04031248
0.004890053
-0.0337246
-0.06309083
0.004914158
-0.0066920603
0.010074816
-0.04376369
0.02586599
0.03179833
0.033848774
0.01501949
0.004397035
-0.038096458
-0.052286524
0.024839403
0.04966978
-0.0045022764
-0.043169953
-0.01968306
-0.021823682
0.011357101
0.012243946
-0.0014493364
-0.012533799
0.040939827
0.004371308
-0.006466676
-0.044829037
-0.018181818
0.040290006
-0.0086156875
0.0026309574
-0.016618494
-0.06524323
-0.018500723
-0.009154642
0.0074692774
0.010238846
-0.036542986
-0.016686741
0.041906465
0.037510656
-0.034150515
0.02324006
-0.0025874386
-0.025337702
0.040466644
0.01986441
-0.024107821
-0.018292045
0.03436293
-0.031921454
0.052227113
0.00024347486
0.049592264
0.036547467
0.039180145
-0.007589734
0.020181244
0.013581447
0.015767597
-0.0052976855
0.060864992
-0.07456708
-0.03223053
-0.0054276893
0.05154501
-0.05223168
0.019961113
-0.021491388
-0.044679295
0.0067379316
0.027478578
-0.002862772
-0.0024557542
0.009944577
0.02194687
-0.0030312957
0.001774326
-0.00013470663
-0.015442974
-0.014868117
0.005519741
0.025132503
0.034669038
-0.013709255
-0.026221799
0.008913999
0.016255857
-0.0052031954
-0.042391796
0.0030318429
0.0161371
0.012662306
-0.050100237
0.0531015
0.013893755
0.018804897
0.015637223
0.0034753068
0.02159684
0.005034883
-0.045776073
-0.016668513
0.024506262
0.011812052
-0.012095523
0.020374462
0.009934321
0.024797134
-0.002511384
0.042183977
0.045857098
-0.0013358233
0.016330494
-0.0010137099
0.04038855
0.021726642
-0.025575452
-0.041885693
0.011628284
-0.02993454
0.01610701
0.022192547
-0.012758895
-0.0035543446
-0.061619233
0.005820645
-0.02989395
0.019543523
-0.013191926
0.025105743
-0.03024704
-0.0029039793
0.028472105
-0.005277553
0.04515885
-0.070235334
-0.048849244
-0.023140583
-0.005648165
0.012730575
-0.032588195
-0.032789815
-0.018817946
0.032289732
0.0060940906
0.02681708
0.05667174
-0.01954612
0.017187495
0.06769328
0.04158562
-0.0012319776
-0.029843207
-0.017698957
0.050670426
0.036694646
0.003932782
0.012268447
-0.07547143
-0.02708971
0.034309354
0.053392828
0.036064994
-0.030793037
-0.027672976
0.026874255
0.0048357137
0.061368436
-0.011459059
-0.02494276
0.02477056
-0.015286879
0.008082417
0.02463248
-0.046202946
-0.022316491
0.009873585
-0.0141101135
-0.022199016
0.014929181
0.029208615
-0.017530374
-0.003240607
0.0031000085
-0.0037193324
-0.03684776
-0.013630289
-0.009304891
0.032488633
-0.034430813
-0.020299552
-0.02572112
-0.026483823
0.00822731
0.016451456
0.01806841
-0.030501142
-0.03078885
-0.029667376
0.011990044
-0.025537105
-0.01002108
0.021535313
-0.09446398
0.0051646857
0.038134944
-0.04056307
-0.01728269
0.008265958
0.03966826
0.036814667
0.07191441
-0.07597487
-0.014175626
0.03733684
0.034162544
0.028055068
-0.04383849
0.013001845
0.020879153
-0.011641159
-0.015542058
-0.037124407
-0.0004527552
-0.037845384
-0.00021696636
-0.0193549
-0.040795196
-0.0068944115
-0.025276536
-0.06273622
0.05761619
0.010436447
-0.0615861
0.05814857
0.0015145977
0.047439042
-0.03338845
0.0028130282
-0.025903929
0.006286534
0.08484553
0.02805055
-0.059083957
0.00549853
-0.0146133425
-0.015264704
-0.0060386625
0.0006485124
0.03032615
-0.053959172
-0.02375345
-0.008121426
-0.004346163
-0.039074913
0.019364828
0.030540247
0.004651488
-0.0022458984
0.03918447
0.004145955
-0.012550489
-0.02626325
0.0061664926
0.0037967896
0.042096976
0.04187468
-0.0005869954
-0.005953995
0.038861156
-0.017887242
0.023499997
0.029441422
0.010621062
0.0017736057
0.04060295
-0.055972714
0.014684141
0.029434446
-0.003923309
-0.017560445
0.029322447
-0.025244962
0.0020756319
-0.06389019
0.0040676524
-0.04335678
-0.0026419626
-0.079443894
-0.0032404235
-0.06310732
-0.01673205
0.023564836
0.022680484
0.034575403
-0.009790163
0.031418744
-0.018854706
-0.0077566067
0.032309413
-0.0028349382
0.013912069
-0.027796922
-0.0018601784
-0.018256191
-0.019823082
-0.0004511876
-0.012000834
-0.0290502
0.061492026
0.04598765
0.017786903
0.027650408
0.019870086
-0.0076345075
-0.02825966
-0.032635868
-0.011346697
-0.03896361
0.00049194443
0.0085784
0.058596693
0.06661323
0.01496388
0.046719186
0.02327381
0.037677497
0.04708845
0.0243122
-0.005554285
-0.013521695
0.019906325
-0.0083127795
0.032157935
-0.036273926
-0.008024954
0.042829618
0.0075305393
-0.01936701
-0.032946344
0.020069635
0.00033390246
-0.005316852
0.028593412
0.031685505
0.015663238
0.01866065
-0.026387503
-0.0020547789
-0.013450404
-0.032954052
-0.015937833
5.363638e-05
-0.025268301
0.02134807
-0.020260567
0.08456325
-0.027125124
-0.037060563
0.035097487
-0.007028353
-0.040673446
0.048471116
0.031304598
0.009877196
-0.022593636
-0.04754441
-0.021168783
0.04397665
-0.016919216
-0.049149174
0.030805273
0.0007848666
-0.039350174
-0.032781202
0.020619575
-0.02253244
-0.011742477
0.020934938
0.044760693
0.03644166
-0.0030464267
-0.028983148
-0.02240652
0.03700637
0.012391083
-0.012258911
-0.06135148
0.028754056
-0.02691963
-0.0015344995
-0.015233673
-0.0018483192
-0.011563752
-0.03612856
-0.046043403
-0.023261894
-0.002916095
0.013047354
0.037655983
0.015807588
0.0295346
0.0318806
0.046975955
0.0031300576
0.004849043
-0.016081404
-0.0014699524
-0.007936531
-0.017935375
-0.040541034
-0.050286204
-0.02374974
-0.009960582
0.05231534
-0.017648067
-0.026115723
0.0023440272
-0.047921095
-0.0027326343
-0.02582985
-0.016264085
0.040257003
-0.050938748
0.0024921002
-0.062177856
-0.009778045
0.02914547
0.009790588
-0.0126036955
-0.03300737
0.013764256
-0.003961291
-0.08734167
0.0445336
-0.012594159
0.043656603
0.045229223
-0.022462217
0.031304874
-0.035345085
0.00052270637
-0.034798242
-0.017971175
0.008402996
0.030726215
-0.046735566
0.060371984
-0.016991492
-0.03708374
-0.026334785
0.0273511
-0.013980485
-0.036091473
-0.008743735
0.014697961
-0.013361353
-0.022198802
0.018092994
-0.0059606894
0.0013049331
0.038000498
-0.010820941
-0.023541965
0.0028934514
-0.0057590585
-0.00033385513
0.0005706107
-0.00922474
-0.0083751315
0.0015644897
0.083516866
-0.01278124
-0.015566344
-0.031650852
0.023835456
-0.060055446
0.01857491
-0.0077100387
-0.018945651
0.00692347
-0.013503879
-0.02736927
0.01907452
-0.008839854
-0.041147005
-0.022315985
0.01845957
-0.010294046
-0.011728862
-0.027181186
-0.029371409
-0.009951736
0.015823739
0.020496897
-0.07910744
0.021657597
-0.00995897
-0.057124738
-0.021261552
-6.165097e-05
0.090862304
0.022006959
0.013605797
-0.0020213649
0.061965525
-0.035246734
0.05098735
-0.012730381
0.04997529
0.031801913
-0.013095303
-0.011675887
0.045255937
0.018166952
0.0057595507
-0.03940692
-0.047608837
-0.012852831
-0.020254806
-0.03275932
0.032103427
-0.0022897809
-0.011526042
-0.037584882
-0.010664851
-0.049811408
-0.0362143
0.09537476
-0.036077306
-0.01936651
-0.019818319
-0.013967986
0.04260511
0.029705208
-0.029986987
-0.017611075
0.016282873
-0.0019129439
-0.067874916
0.052904643
-0.015883466
-0.0462696
-0.02911148
-0.02645874
-0.0144173205
0.046590544
-0.03487913
0.044332538
0.005134543
0.023791736
0.019260295
-0.022246752
0.020895509
-0.010289192
-0.016094748
0.01658094
-0.006857849
-0.046201773
0.004602025
-0.05667148
-0.024434138
0.0135140605
0.013610375
-0.059296332
0.02049129
0.027684212
-0.027652793
0.002417021
0.02999352
0.042206205
0.0063861376
-0.0057488615
-0.024060907
-0.022643598
-0.010407459
0.027087383
-0.004996344
0.011248158
0.036346585
-0.0062664696
0.0035482373
-0.010267879
-0.01173642
-0.04866013
-0.010154852
0.05933216
-0.08303795
0.056058943
-0.041370034
0.01209445
0.034198698
0.022997493
-0.00646872
0.052496616
0.013596391
0.013927586
-0.019663524
-0.041106384
0.025143852
0.022523683
0.015110159
0.08177615
0.029751487
-0.003451302
-0.01670764
-0.008293333
0.03061861
0.029817337
-0.04280452
0.008354958
-0.023949645
0.006411768
0.0041515916
0.0046736654
-0.013491305
0.018175775
-0.07040237
-0.03896508
0.023479523
0.013609439
0.0030371258
0.005388496
-0.0043776627
-0.026231045
0.03684427
-0.02147274
0.002006523
-0.06586153
-0.006677515
0.0013825893
0.044994008
-0.0017609876
0.01178432
0.012954494
0.021363012
-0.0051073665
-0.01858738
-0.042685438
-0.025080996
-0.059534676
-0.023315454
0.0027695824
0.02341443
0.011912699
-0.026025705
0.025694741
-0.0063918442
0.030050816
0.012801598
0.044583682
0.0139129
0.0007655282
-0.009059137
-0.055207845
0.009199854
-0.013224544
-0.008744228
-0.023492679
-0.0046095867
0.0038383212
0.008240409
0.080608614
-0.05021154
-0.0046844827
-0.024026828
-0.00059889077
0.00037022494
0.027632358
0.0075923665
-0.00024049818
0.032630157
0.06389862
0.016896075
0.0042489846
-0.011077584
0.015814556
-0.020696444
-0.00898233
-0.0022754034
0.006820858
0.008650558
-0.024491882
0.0022518542
-0.018917844
-0.02889569
0.005648508
0.02929675
0.018968903
-0.0024690852
0.030104257
-0.018912842
-0.018848993
-0.027420476
0.054474752
0.014648513
-0.059718616
0.057835884
-0.011165693
-0.04163586
-0.027440498
0.031062005
0.005457282
-0.032087773
0.0073219407
0.017029101
0.052737713
-0.012945663
-0.03396557
-0.034654077
-0.044054914
-0.00092828384
0.019880384
0.039615467
-0.009254187
-0.02255947
0.022576477
0.0057185036
-0.0029706622
-0.008125125
-0.016492127
0.02252523
0.03302725
0.0060322513
-0.0132624265
0.043142326
0.010859226
0.0004781718
-0.048954755
0.026199417
-0.02698038
-0.028064657
0.036190644
0.015061142
0.014714696
0.02644705
0.013268101
-0.04666448
-0.043324582
0.019311033
0.00015799589
0.008577196
-0.020458534
0.0097791925
0.039877877
0.0035582308
0.01088627
-0.0017565992
-0.028473888
-0.042520937
-0.019578995
0.0067641237
-0.012023319
-0.011241302
-0.0069447574
0.005873621
-0.00097027986
-0.020469388
-0.012616185
-0.05875666
0.016033443
0.045718864
0.0107654575
0.07554039
0.04548714
0.0034301765
0.100601636
0.050580945
-0.04545289
0.022490442
0.04427462
-0.033155248
-0.026892679
-0.002813346
0.009133831
-0.00460503
0.02566615
0.014125439
0.045360234
0.02253356
-0.0076988973
0.079560325
0.050669786
-0.011318194
-0.008739493
-0.034010313
-0.02698758
0.008688461
0.020589458
-0.060789827
0.0089294845
0.0089342585
0.052773703
-0.0139385285
0.021452827
0.004073724
0.046683047
0.0067237783
-0.0067847115
-0.056532815
0.03802838
-0.029925883
0.044771742
-0.038950812
0.002818077
-0.002057938
0.015022016
-0.005671235
0.013011505
0.023625711
0.025873512
-0.07736213
0.023307681
-0.0569787
0.016889619
-0.021016484
0.056277968
-0.050287187
-0.021819381
0.031000627
0.016262636
0.018832404
0.012409652
-0.040044617
0.0084447125
-0.02350476
-0.010055941
-0.03710891
0.056992296
0.003835612
0.035839282
-0.033653602
0.018432835
-0.051835395
-0.0014939837
3.472302e-05
-0.05718341
-0.013579523
0.018521052
0.020582434
0.026975624
0.026983416
-0.0017742405
0.02417492
0.024596533
0.025611266
-0.026309198
0.024308903
0.046049573
0.061277114
0.08174465
0.024882339
0.004881936
0.0065340395
0.010636695
0.025028381
0.05339048
-0.040798504
0.009408686
0.02700193
-0.02900224
-0.00498439
0.021522034
-0.024613304
-0.005751047
-0.0038670811
-0.037201066
-0.0040164846
-0.052338377
0.0018600597
-0.019208068
-0.06929847
-0.0083027985
0.0014142568
0.041630022
0.051540464
0.015399122
0.018196944
0.043782245
0.026181705
0.041422743
-0.014473828
0.007247876
0.018846974
0.069378115
-0.033030488
0.016279953
0.0038951037
0.004558574
0.034032773
-0.037005227
0.026244437
-0.046672594
-0.006023496
-0.022351762
0.025984118
-0.03796479
0.023536358
0.011112573
-0.022751708
0.01218781
0.02142788
0.02830778
0.06834069
0.024937984
0.018987197
0.018893098
0.053600594
-0.09675387
0.010611826
0.016417725
-0.018870613
-0.07424082
-0.03575495
-0.048537605
0.00080560223
-0.01066591
0.06777157
0.016994638
0.013165344
-0.024171421
-0.030530775
0.0045797117
-0.01338097
-0.03750555
0.038725063
-0.0034905025
-0.0066012912
-0.018013617
0.023431761
-0.032602545
-0.0031139858
-0.001517191
0.02771863
0.01308585
0.017303376
0.007023269
-0.049144793
-0.076278135
-0.004607241
0.013699035
0.02909556
0.08106915
0.026301116
0.038305033
0.024890792
0.002664926
-0.0386068
0.00737986
-0.013566173
0.007116346
-0.0163081
0.07853968
0.06841741
0.029913971
-0.005138028
0.020871796
0.0154364435
0.04167596
0.06450662
-0.017362135
-0.032552265
-0.018222023
0.0058495426
-0.048764143
0.035663165
0.03183991
-0.0055035786
-0.02665539
0.045114446
-0.0020270234
0.01172539
-0.019895261
-0.033404123
-0.01659158
-0.026796965
-0.007279488
-0.022275206
0.013168224
-0.012515819
-0.011537476
-0.021923764
0.028974196
-0.0020293526
-0.020938482
-0.0085142525
-0.014157207
-0.0016491977
-0.005957021
-0.02062826
0.0050952425
0.027136559
0.05151901
0.026341347
0.040586405
-0.0036078643
0.033330224
0.014811308
0.0011092745
-0.04427495
0.04760401
0.0086951805
-0.012164932
0.004819516
0.0011659872
0.017944586
0.011757196
0.012191993
-0.0074229403
-0.02623498
0.047232784
-0.012954164
0.026243052
-0.005435689
-0.007486715
-0.033131726
-6.186989e-05
0.019494385
0.032343697
-0.019614056
-0.013743139
0.011727388
0.010833502
-0.019924851
-0.014695908
-0.013141387
-0.03714833
0.017583344
0.025205836
-0.003792982
0.007885381
0.02006491
0.027919574
-0.027639482
0.0027813797
-0.046994023
-0.037505608
0.023541998
-0.019466551
0.009593659
0.0009597962
0.023794502
0.023028145
0.04181723
0.009022783
-0.004471715
-0.004814864
0.02580633
-0.029166667
0.009591752
0.009296565
0.01555866
-0.028452886
-0.008218401
0.009868546
-0.051301762
0.037140597
-0.0071814433
-0.017638525
-0.0044914684
0.015085891
0.07852897
0.008388132
-0.024756804
-0.021488968
-0.010395082
0.013996163
-0.030330617
0.012675225
-0.0076264376
-0.0030644378
-0.041706897
0.008889256
-0.0031594876
-0.018872116
0.017723529
0.0063195894
-0.010522514
-0.020543078
0.026516102
-0.0016875291
0.014881808
-0.033184204
-0.0017805356
-0.026507556
0.0012215194
-0.007884848
0.0433228
-0.02502714
0.00010238391
0.050285567
0.027896643
0.04519875
-0.031296287
-0.011528084
-0.048889276
0.022689978
-0.010989505
-0.05162298
-0.008770335
0.007294919
0.015002767
-0.012392514
-0.009346918
-0.006271013
-0.03341339
0.009497031
0.03110525
0.024278471
-0.03887178
-0.012358592
0.029432872
0.020161789
0.021508623
-0.00062686874
0.0017411816
0.04937906
0.070747
0.0008547647
-0.053047974
-0.012623107
0.041983582
0.018894233
0.011624425
-0.019725215
-0.023298359
-0.053583395
0.017862858
0.023849707
0.014053575
0.075770944
0.0019774267
0.032187205
-0.026145432
0.00017730403
0.01482771
-0.0042904657
-0.031028816
0.015977396
-0.04547437
-0.031747043
0.04399055
-0.059703104
0.06782753
0.0007585174
0.039812893
0.0022333527
-0.016804429
-0.016066432
0.053171284
0.0013996802
-0.009591471
0.045065314
0.029961074
0.030831426
0.0024496599
-0.012892038
-0.034404304
-0.025156291
0.050232563
-0.0030244768
-0.007577943
0.007159261
-0.048421778
0.043412693
-0.005530615
0.015415931
0.0012304556
0.020056479
0.001752605
0.03995798
0.0011386931
-0.049714334
0.027840337
-0.02627872
0.010338738
-0.023217866
-0.031130258
0.0126150055
-0.015765578
-0.050991695
-0.0067990017
-0.00041215602
-0.0011019799
-0.038004704
-0.024930457
-0.029098803
0.0058117164
-0.006619002
0.0039917
0.009118853
0.03310923
-0.00796836
-0.05017908
-0.012917364
0.025388489
0.0678098
-0.026254784
-0.025072243
0.007561819
0.008342704
0.014466518
0.010879756
-0.040243175
0.0021061713
0.01842355
0.030669319
0.0016180427
0.009791551
-0.0059203818
-0.017354017
-0.01625298
0.003964029
0.007715705
0.0036603643
0.0068212394
-0.009976273
0.026314167
0.06028429
-0.011767714
0.042432178
0.016471874
0.0032617503
-0.049146213
0.014672873
0.02426665
0.060966063
0.010634081
0.03260991
0.012199666
-0.019267282
-0.00013850247
0.042599026
0.013272944
0.04784198
0.044167534
-0.012345008
-0.036709003
0.04657135
-0.051363625
0.019360065
0.015494399
0.008892575
-0.0018099446
0.025768815
0.02032343
0.0406874
-0.015618125
0.009192242
0.019061074
-0.018524127
-0.00081987435
0.020100491
-0.039052933
0.030616911
-0.03485424
-0.0568062
0.0015662865
0.038398325
-0.0072639445
-0.04921845
0.02173387
0.058976423
-0.0007235755
0.06357343
0.015037388
-0.019826353
-0.012222241
-0.037535883
-0.02779223
0.0130948005
0.0043963115
0.06518948
-0.033143904
-0.010719407
0.049913805
0.039204482
0.026051773
0.015084232
0.015139708
0.002674506
-0.0124610895
-0.06691065
-0.028748114
-0.008012834
-0.01883891
0.018707113
-0.014641209
0.034065183
0.017592484
-0.031131197
-0.026968537
-0.042627163
0.029056707
0.042165
-0.02280425
0.015601951
0.06570061
-0.026665222
-0.010607353
-0.042564455
-0.004890384
-0.021613566
0.03044856
-0.058324695
0.07201031
0.066909745
-0.020794721
0.021578545
0.036091052
0.0077737886
0.032464404
-0.036551647
-0.024258481
-0.027387597
-0.011580784
-0.027278798
-0.008101208
0.085298024
0.053396717
0.021508807
0.0076948334
-0.04157277
0.041411623
0.0046959445
0.0072052088
0.0129720345
-0.023958905
-0.04320981
0.012754574
0.0042025703
-0.0800371
0.016750826
-0.019712787
0.023829512
0.010909124
0.0041267015
-0.02447725
-0.01101731
0.033943135
-0.04391674
0.0065558245
-0.007399031
-0.0024836664
-0.027342001
-0.021484729
-0.017120043
-0.012961372
0.05218548
0.016415719
-0.01276973
-0.026489591
0.006410802
0.036105134
-0.0022182646
0.012184022
0.045626167
-0.0017448344
0.049196076
0.009350902
0.02799944
0.0003912365
-0.040691335
-0.027797502
0.011295543
0.032263383
0.013641208
-0.0004909722
-0.0060236095
0.053077143
0.026124684
-0.014308076
-0.07683115
0.0202523
0.029556751
-0.06460741
0.043224014
-0.005627752
0.014700653
-0.04006909
0.014466525
0.0094867535
-0.0279665
0.018816719
-0.011575794
0.028526084
0.010158905
0.06682396
0.017636677
0.024033029
-0.006182759
-0.07173462
0.018408362
-0.07820662
-0.025005769
0.021894295
-0.018311607
0.02787586
-0.0023459394
0.033813015
-0.017217182
-0.021550637
0.021629732
-0.046129055
0.011867474
-0.014329838
-0.0052684452
0.0018835072
-0.025828011
0.0021686193
-0.017187959
-0.024939798
-0.029674832
0.012024646
0.031130148
-0.004072217
0.042893007
-0.015737254
0.0031349086
-0.0015806085
0.034251876
0.017388219
-0.047636773
0.009765909
0.03179213
-0.041493442
-0.023243038
0.03332519
0.017245833
0.005245203
-0.028764509
-0.03174527
-0.02401625
-0.009781086
0.049366068
0.0057538734
-0.021619665
0.01352941
-0.040536843
0.0019460015
0.023350947
-0.0060548675
0.0088612605
-0.03062531
0.022121957
-0.029896356
-0.0021619152
-0.006480251
-0.044508543
-0.044167526
-0.016659917
-0.025546243
-0.0096063195
0.010443974
0.022719054
-0.007858929
0.050133947
-0.010269253
-0.022992846
0.019564342
0.03848397
-0.02170828
-0.013899793
0.029749269
0.016063644
0.0045242193
0.016359348
-0.034649946
0.08544703
-0.046433166
0.013709702
-0.0040376005
-0.0073793596
0.020405129
-0.009889828
0.010315606
-0.020840248
-0.005578978
0.0036250167
-0.0164459
0.009104078
0.03464319
-0.01433483
-0.033070847
-0.022404214
-0.007693478
-0.04554527
0.021762975
-0.014020176
0.08500236
0.01360639
0.028497132
-0.0011850666
0.057358008
0.024309762
0.0029991826
0.004281905
-0.0039935247
0.035120897
0.012380102
0.017426798
0.07359753
0.040182464
-0.037326325
0.01495734
-0.029600207
-0.027627887
0.008495981
-0.009531977
0.025632745
0.0024289694
0.05728349
0.047627676
0.007516053
0.030633215
0.03436198
-0.02776364
-0.020207014
0.027289385
0.029251046
0.03342432
-0.009243667
-0.01097011
0.07226421
-0.05784646
-0.019450046
0.032403305
0.00776404
-0.01685026
0.011171234
-0.02540746
0.0015021114
-0.016689025
-0.0058642263
0.016525976
0.007262822
-0.005958954
0.038526256
0.022763599
0.02400741
-0.01198969
0.017677974
0.0639787
0.03948066
0.021297447
-0.015218257
-0.018417593
0.02584215
-0.013723016
0.025552895
-0.031275086
0.0067704115
0.015300737
-0.0198449
-0.006429733
0.02935861
0.08662253
-0.040311236
-0.027366087
-0.037678096
0.04191899
-0.025520511
0.008010246
-0.026430612
0.012374061
0.021351099
0.03140826
-0.037529733
0.033994175
-0.0040087
0.0036289815
0.00046697847
-0.010742
0.047756914
0.04535251
0.05262865
-0.04307262
-0.056655705
-0.066362865
0.011346044
-0.045340464
0.011255803
-0.013194482
0.0124488
-0.007284375
0.014337721
-0.013862378
0.009874927
0.013116116
-0.010490433
0.087396964
-0.07897461
-0.0060336892
0.019071557
0.011396274
-0.021835186
-0.036954086
0.005265815
-0.03729887
-0.02978059
-0.019737614
-0.028753705
-0.038459536
0.006172707
0.052058402
-0.030302085
0.009985657
0.011733969
0.02141616
0.03809767
0.023275755
-0.02858876
0.024490237
0.054032043
0.028514145
-0.0049898094
-0.011635242
-0.002124625
0.044949394
-0.021133156
0.021007843
-0.028374376
0.03994434
0.05453493
0.033862025
-0.050527647
-0.021595612
0.015510345
0.010035276
-0.028486876
0.029097658
-0.0018444019
0.0043066656
0.022512436
0.018990375
-0.021394
-0.008221939
-0.012426981
-0.020635778
0.014998765
0.010110875
-0.03432224
-0.036566693
-0.025305536
0.008822608
-0.006901136
0.07601786
-0.0024246264
0.024469407
-0.017211663
0.034619723
0.031360805
0.009736241
-0.025761932
0.0136869
0.033752035
0.057993256
0.034363538
-0.034184195
0.014462256
0.00035156327
-0.019330721
-0.03112255
0.0610424
-0.012684976
0.011604682
-0.051943116
0.0012400242
0.0008973461
-0.008094514
0.007130052
0.028614487
0.023127835
-0.015451962
0.021245291
-0.017591907
0.024989882
-0.0109464675
-0.007289745
0.029257743
-0.0121364
0.010990986
-0.006418085
-0.027422631
0.028366586
-0.009896016
0.028092748
0.02824264
0.0009905268
0.0053591784
-0.014073477
-0.016978921
-0.0097545115
-0.051184908
0.0007787816
-0.07183585
0.009293191
0.045220997
-0.008696808
-0.0045420104
0.004969019
0.0025331504
0.0057049855
0.0016967559
-0.04966135
0.00340802
-0.023646967
-0.007346096
-0.008337036
-0.0333725
-0.02707765
0.05745429
-0.023575183
0.005999456
-0.021646194
-0.0026192635
-0.0057059107
-0.02353893
-0.07619522
-0.05893381
-0.0043195714
-0.013085977
-0.0011931452
0.00031821555
0.0452871
-0.01177694
0.0375771
0.0412445
-0.019248879
-0.09423574
-0.0044933413
-0.033221737
-0.006434442
0.034850795
-0.054027095
-0.017622044
0.015008429
-0.023459379
-0.03532311
0.040860932
-0.010111228
0.050088737
-0.012627188
-0.03181045
0.067374654
0.024129383
0.018208971
0.012815936
0.013505855
-0.06461806
0.017104583
0.031409014
-0.006279797
0.016471595
0.054717783
-0.022005787
0.107591875
0.02867214
-0.01915769
0.0036471214
0.010245572
0.02503457
0.012413534
-0.007296946
-0.006440796
-0.019349921
-0.06889388
-0.040251277
-0.006000274
-0.044843838
-0.047627382
0.0069987173
-0.0070933294
0.0063435007
-0.033418596
-0.02865272
0.0057597575
0.011071706
-0.021531373
-0.040888462
0.017172994
0.03171918
0.015329053
-0.022740366
-0.018747635
-0.04423249
0.036309004
0.036505274
-0.001857149
-0.019311145
0.02636919
-0.01774717
-0.01712314
-0.056299143
-0.006238477
-0.016229352
0.048913278
-0.014515333
-0.035317022
-0.065115884
0.0068941424
-0.03454281
0.0015774311
0.0165051
0.03158058
-0.038881637
0.012070306
0.037872855
-0.028110126
0.034891546
0.04216723
-0.033708826
-0.0028929645
-0.021186031
-0.0021179102
0.038530815
0.026467722
0.03832936
0.028444683
-0.020603538
-0.035220783
-0.019500557
0.06085386
-0.005793955
-0.039627716
-0.016784323
0.019886091
-0.034208056
-0.008531173
-0.03311409
0.0016817978
-0.017513178
0.019150313
0.01721771
-0.006586488
-0.04922284
0.008676898
-9.4539406e-05
-0.0075438987
0.030217737
-0.0021299815
0.049685117
0.043179292
-0.078450136
0.02088944
-0.02495132
-0.00753864
0.012800011
0.06295917
-0.02179349
-0.042219963
-0.010022846
-0.024614789
-0.0084731085
0.043207277
0.031298477
-0.037068292
0.002357959
-0.013457343
0.04244462
0.018261688
-0.010998844
0.0088476455
-0.028607668
-0.005337208
0.047644377
0.011103915
-0.03851853
-0.012582241
-0.019982083
-0.02291424
-0.042660955
0.014053662
-0.009968381
-0.008715199
0.025801849
0.015386416
0.06996755
-0.029689772
-0.0459286
-0.041633956
-0.0047805747
-0.038549736
-0.027555944
0.04068439
-0.002561592
-0.07676929
0.010052745
-0.046451863
0.028736284
0.005764915
0.00036605826
0.009613797
-0.036342304
0.031000638
0.06509785
-0.016913274
-0.03667308
0.008477838
-0.032967888
-0.0148763405
0.021428756
-0.0067884363
-0.035014376
-0.028421067
0.036322523
-0.046118278
-0.008206942
0.017288927
-0.049301915
-0.0033242905
0.06181607
0.052249055
0.030847982
-0.003631108
0.06123704
-0.015117007
0.002142543
-0.0052008796
-0.03985039
0.015632791
-0.038271412
-0.024592133
-0.004943458
-0.02733057
-0.07036655
-0.016621364
0.00835464
-0.009555974
-0.0038703869
0.015427141
-0.07417577
0.06625524
0.00016269657
-0.026411869
-0.0051618717
-0.00593635
-0.005321757
0.04907756
-0.011165619
-0.010360339
0.019047756
-0.01024051
-0.047302328
0.07296878
0.007576279
-0.0001559935
-0.037806757
-0.013500018
0.009134976
0.06413466
-0.04096858
0.010826326
-0.00795376
-0.046337396
0.014448115
0.012119759
-0.0053473604
0.0029804115
0.000104080944
0.0072352863
-0.013672352
-0.063025355
0.010374734
-0.010978111
0.01643138
-0.024692738
-0.013140615
-0.017373763
0.008441586
-0.04310376
0.042812243
0.0034512628
0.009181584
-0.025068246
0.024178727
-0.0020407373
0.023676846
0.044293623
0.006477426
0.015623154
-0.012618259
0.019422278
0.048262313
0.030426608
-0.040455017
0.029445754
-0.017245032
0.01373728
0.0069815945
-0.018764907
0.0071508544
0.055015378
0.00023612313
0.02023183
0.025126081
-0.01206843
-0.08322719
0.01215377
-0.0013788133
-0.02497297
-0.004148654
0.004063523
-0.08044248
0.0076332926
-0.031527735
-0.01152779
-0.0071508773
0.044960737
-0.009801286
-0.03212678
-0.01827981
0.015710693
-0.0010079673
-0.037222
0.08972866
-0.042693477
0.0090986
-0.036280412
-0.054880586
-0.009985091
-0.028949277
0.033693522
0.034936484
0.021825224
-0.05227857
0.0301364
0.039380517
0.0005679205
-0.0016226523
0.03399213
0.075471655
-0.065275244
0.01908707
-0.041162737
-0.04134577
-0.020801136
-0.045713842
-0.0021040207
-0.009947129
0.037605155
-0.02773936
-0.014130289
0.033393648
0.008703139
-0.005307101
0.022666436
-0.008053941
0.010133265
-0.013896024
0.033239078
-0.04228856
0.052432925
-0.009504359
0.019843396
0.02686614
-0.023040147
-0.008513839
-0.036964916
-0.049009014
0.010894015
-0.027811997
-0.028790427
-0.011079606
-0.062493674
-0.0061739767
0.043468297
0.043743633
0.014847223
0.016562339
-0.008005977
-0.06330874
-0.023137437
-0.02703003
-0.005611863
-0.033569578
0.0019090013
-0.01048881
0.058547847
0.03217392
-0.042287398
0.0063615106
0.00033785548
0.009420027
0.0008725651
-0.025160806
0.07718638
-0.078960195
-0.0006914858
0.0932118
0.026286209
-0.03630684
0.028684564
0.024584027
0.0062510087
-0.005585596
-0.02434283
-0.037904326
0.00854904
0.0015689698
0.025161363
0.02736648
0.052008346
0.041059326
0.027526153
0.0072132307
-0.018180916
-0.00077742664
0.011585408
0.010739756
-0.0131941335
-0.0009459873
-0.0115792295
-0.019695986
0.019608496
-0.01215456
-0.008938281
-0.013907612
0.05558444
-0.027137928
-0.004177357
-0.057032943
-0.026092099
-0.01971348
0.043625906
-0.0708242
0.010120398
-0.025715826
-0.038379204
-0.03928136
0.01912663
0.030791381
-0.0059328503
0.0060655843
-0.0099149635
0.02999041
0.005573423
-0.06888693
-0.022932641
0.07144257
0.025208922
0.0045105354
0.041810572
-0.04001913
0.00058911805
-0.0009927038
-0.019888103
-0.025172444
0.0038057792
-0.011293508
0.0328398
0.008649923
-0.05451686
-0.011040268
-0.037020084
0.008104638
-0.010813563
0.00020914261
-0.00650749
-0.015413581
0.018495193
0.02665294
0.0037686117
-0.011502321
0.019234536
-0.04628044
0.060056582
-0.0016046776
0.0016127588
-0.042368084
0.0019288427
0.028583216
0.013475402
0.010752074
0.023589173
0.038305834
0.054217525
-0.032622818
0.0103680175
-0.003214851
0.022703294
-0.024820326
0.0020895419
-0.022654971
-0.047629308
0.052766424
0.048907284
-0.03595984
-0.0010270007
0.04033743
0.016299026
-0.01525576
0.0069684517
0.02652369
0.024542352
-0.0013186827
0.012104048
0.02851325
0.023117509
0.047492243
0.035965916
0.00031549178
-0.015486202
0.015225852
-0.003684948
-0.025818193
-0.039685357
-0.020605069
0.032499555
-0.0083137425
0.01248652
0.023764726
0.053629547
-0.02811359
-0.0141429305
-0.037829317
-0.03990335
-0.028851563
-0.026427373
0.009497482
-0.032124624
-0.005329505
-0.009362178
-0.007996884
0.0023621956
-0.038842466
-0.010205571
-0.035573915
-0.0053862706
-0.017477788
0.03200084
-0.011118947
0.011242725
0.023530457
0.028922351
0.028378392
0.016373618
0.0057096565
0.018503908
0.040408917
0.005487901
-0.0628501
0.013873807
0.042197987
0.040166095
0.020797791
0.0009768705
0.010533873
0.060355857
-0.018378101
-0.017107278
-0.03581769
0.0055344626
-0.024588306
0.0007959045
0.044579163
0.009679342
0.0072711557
-0.023943223
0.0023485594
0.018438755
0.079084575
-0.03634842
-0.024767175
-0.027564
0.0021087988
-0.00025853032
-0.03639723
0.04502937
-0.0059723123
-0.022911785
-0.0046782065
0.032589883
-0.032022264
-0.0061671743
-0.023753604
0.023719812
0.005954404
-0.024267986
-0.029688548
-0.008162746
-0.021331944
-0.0014871411
0.019169744
-0.057775255
-0.0031006036
-0.015710818
0.0012269574
0.024657937
0.0047860346
0.008453039
0.018428175
0.02583123
-0.0110188
-0.012965214
0.016260877
0.026941653
-0.052364316
0.019652583
0.036965676
0.0138786705
0.027713899
0.017272683
-0.022296673
0.0028108193
0.03697883
-0.026801776
-0.00019429343
0.007085853
0.010518114
-0.008338693
-0.004648478
-0.01619919
0.02915825
0.011596064
-0.02486098
-0.009587633
-0.05100846
0.0059706
0.01972841
0.03407091
0.0073110964
0.021140743
-0.027638383
-0.06967249
0.017135048
-0.028929833
-0.01055889
-0.017196648
-0.00031897385
-0.007866771
-0.06673259
0.0088493815
-0.027587404
0.025853537
0.01885054
0.008988566
0.018126326
-0.0052148956
-0.038732488
0.0026387468
-0.015879046
-0.004915037
0.04991109
-0.018074447
0.015992312
-0.027465975
-0.04271148
0.038102172
0.016306976
0.027519807
0.017183667
0.0048496313
-0.009664088
-0.0121973725
-0.024552785
-0.0355214
0.019302007
0.011217283
-0.022301063
0.020493358
0.024160929
-0.04762028
0.020038053
0.035629347
0.058487326
0.014351126
0.02570662
-0.0106243
0.007338378
-0.070816904
0.013720781
-0.014293416
-0.051055495
0.029909473
-0.00032081292
0.0023830575
-0.019124534
0.024343729
0.04469958
-0.024704149
0.003013363
0.0058240993
-0.030123616
-0.045699343
0.02836693
0.031035837
-0.01521672
-0.004740102
-0.04254434
-0.020450365
-0.03983841
0.00092192856
-0.0035108477
-0.012814061
-0.034754492
-0.019437885
0.016958172
0.033741716
-0.03825197
-0.0050365417
-0.0013492304
0.022825584
-0.005379886
0.008983977
-0.00030033695
0.010412923
-0.019017449
-0.023100628
-0.046887245
0.0028879375
-0.005368564
0.012119221
0.003850171
-0.01587579
0.022519272
-0.036911897
0.008010589
-0.0075703324
0.053048253
0.0028072286
-0.055819917
-0.0028696854
0.003071025
0.037429813
0.028123844
-0.009428299
-0.023204478
-0.019189468
0.020541852
0.035230096
0.0071205404
-0.00047166768
0.029891841
0.03845369
-0.009425969
-0.01596303
0.06778548
-0.028115936
-0.009994091
-0.0039580385
-0.03324416
-0.055841357
0.019313488
0.026637984
-0.044614688
-0.032602664
-0.020096669
-0.013577194
0.009238049
0.048392743
-0.008945438
0.0074759102
-0.026833309
0.068619646
-0.016945548
0.03252276
-0.024662197
0.03355618
0.014720218
-0.0076502142
-0.042815648
0.041030474
-0.048815273
-0.008239528
-0.022762492
-0.02757235
-0.008292149
-0.021115422
-0.0067323437
0.020335037
-0.011986003
0.014559176
0.033486817
-0.00063247635
0.010927247
0.023417596
0.051979568
-0.052564684
-0.04640784
-0.0075108004
0.060255576
0.038851354
0.031237641
0.01295178
0.04413381
-0.0076367822
0.011088798
0.012223037
-0.026602544
0.046621248
0.012355581
0.027173912
-0.057722315
-0.008633526
0.006655129
-0.03460082
-0.00047890955
0.02457308
0.06429141
0.02221277
-0.0013952967
0.010651213
0.024765251
-0.038895518
0.028965373
-0.059191134
0.013835563
-0.0034018112
0.016556727
0.011541075
-0.010639724
-0.023557274
0.049108412
-0.008958305
-0.009301239
-0.038971927
-0.02776956
-0.014894415
0.005746694
0.024013912
0.031471834
-0.00092713535
0.044388033
-0.009322211
0.03005702
-0.03158917
-0.0008959495
0.030694576
0.010570283
-0.03683647
0.07501241
-0.022978384
-0.08081629
0.004492707
0.019271104
0.022302771
-0.012640877
-0.0024434903
0.004133567
-0.024174117
-0.04373191
0.017765794
0.020311952
-0.025159087
0.020710967
-0.0072683087
0.013735154
0.044749446
-0.020400317
0.009557952
-0.019162076
-0.01752722
-0.031166207
-0.037282445
0.022097653
0.08841927
0.03975689
-0.022128303
0.008965706
-0.01558794
0.010332443
-0.013608943
0.018386403
0.008727964
-0.011821974
-0.00039746007
0.006696161
0.04056157
-0.0063696704
0.011220022
0.017703854
0.0046238136
-0.005555342
-0.022795051
-0.045757916
0.040156793
-0.039810587
-0.029935801
-0.006798742
-0.010450189
-0.023540474
0.047262777
0.0008311978
0.0044020773
-0.061607163
0.046491
-0.014047926
-0.01798171
0.021551492
-0.02212708
-0.02208971
0.06335318
0.038699854
0.009434264
0.015167445
-0.033944964
-0.008589176
0.015708582
0.001093118
-0.011715799
-0.028174357
0.0034265663
0.0055558844
-0.015503939
0.037045572
0.06254878
-0.035834115
-0.04169796
0.048168752
-0.016189476
0.026177697
0.043965027
-0.023907287
-0.028268935
-0.003160006
-0.0051758513
0.025450436
-0.005609871
-0.0061754533
0.036608834
0.038264044
-0.0003620218
-0.010474537
-0.071046725
-0.018157342
0.029652998
0.026126232
0.00634009
0.023743238
-0.029077183
0.033755627
0.04216102
0.0029911706
-0.0068311277
-0.032083202
-0.039628457
0.007636313
0.043173164
-0.0209694
0.010427331
-0.02066292
0.0046382803
-0.0044193077
-0.0044493503
-0.028548332
-0.044358067
-0.033462174
0.0027450793
0.016125176
0.038403515
-0.01588872
-0.0081402
-0.037678342
0.017971532
0.00073120923
0.0017247148
0.00310353
0.008725046
-0.022094768
0.030469835
0.018678416
0.042143907
-0.011509861
0.024750954
-0.007801129
0.031798836
-0.022868834
0.0075169876
-0.0039518047
0.0130234035
-0.042797707
0.004598168
0.027342018
0.08363932
0.057024334
-0.0313226
-0.017449781
-0.015148756
0.009652477
-0.042161636
-0.0119447615
-0.0013137133
0.01915127
-0.011075644
0.009219555
0.004553539
0.026969919
-0.005017035
0.00034437128
-0.04603021
-0.032415852
0.0640985
0.01913092
-0.0093022445
-0.00946739
-0.010302073
0.0045967693
0.025327398
-0.043918233
-0.0264765
0.04357768
-0.036124036
0.026619617
-0.014972431
-0.03876456
-0.0055194884
0.004849093
-0.0011418876
-0.044670053
0.036114
-0.031072496
-0.0062826625
0.0016393814
-0.017942825
0.038019467
0.0056393663
-0.009573646
-0.020250805
-0.0075262845
0.0245648
-0.021734247
0.020213049
0.056683224
0.0752846
0.008606126
0.052786995
-0.044784274
-0.009748664
0.024329053
0.0055583264
-0.01327942
0.017828058
0.03056825
0.028752096
-0.028309016
0.020181334
-0.050268445
-0.0040363614
-0.034016233
0.02902545
-0.009817195
0.03284743
0.017535213
0.039874073
0.029602055
0.03986734
0.024361257
-0.015567923
0.004141713
-0.008571232
0.028359402
-0.03998852
-0.0064700474
0.015188718
-0.05914826
-0.00064691866
0.012675833
-0.011131563
-0.026115883
0.0018408906
-0.0060301134
0.012655031
0.056322064
-0.0021678235
0.02670845
-0.059588775
0.018525898
-0.013119661
0.0041187317
-0.0064594503
0.046262898
-0.050342377
0.017316205
0.04976741
-0.014949169
-0.012474771
-0.048647314
-0.0017833486
-0.051462334
-0.008567261
0.044079173
0.0180935
-0.06266451
0.03897076
-0.051847823
0.010107734
-0.039950997
0.009990283
0.0013357211
-0.0483471
-0.025658518
-0.0020414412
0.023278113
0.009715926
-0.029261766
-0.008950268
-0.037017263
0.006518493
0.034919854
0.011932793
0.022751115
0.012166279
0.030382007
0.010768057
-0.020106591
0.019046037
-0.00023815806
0.015005966
-0.018597832
-0.014432036
0.016581656
-0.05126646
0.008601079
-0.040167693
-0.016436556
0.023717282
0.015387517
-0.014739423
0.005526951
0.00040617023
-0.0062287133
0.03279795
0.020367661
-0.034268104
0.07099997
-0.0108941225
0.015425256
0.025609843
4.7572004e-05
0.023750119
-0.010797214
-0.06588768
-0.048838586
0.035524424
-0.056227174
0.010983837
0.016089492
0.037925158
0.008839065
-0.02777661
-0.0008143075
-0.01915708
0.009440166
0.039980985
-0.049294107
0.00039803074
-0.0014904784
0.032248005
-0.034958716
0.019420251
-0.0017892303
-0.011945549
0.007405472
0.020636668
-0.018345125
-0.013786916
0.000754996
-0.040886655
0.04094016
0.026966598
-0.012283167
0.0058735567
-0.02286234
0.00892734
-0.012283967
-0.008907749
-0.04063444
-0.022033684
-0.004626873
-0.035769004
0.06293748
-0.0015046875
0.032879855
-0.042707678
0.043208122
0.031030081
-0.051821835
0.02939134
0.026161117
0.007369112
-0.014853373
-0.009253719
-0.022116221
0.0254121
-0.04051501
0.0009936407
0.0045984485
0.029527748
0.015953526
-0.05021105
-0.028601842
-0.009936078
-0.0047323024
0.026839934
-0.06376858
-0.020598812
-0.028404078
-0.04940324
-0.010526612
0.0013113525
-0.028758323
0.01642594
0.015293372
0.0061123273
-0.02194813
-0.042126
-7.7655335e-05
0.014943543
0.058091275
-0.02831326
0.026550611
-0.011653637
-0.014887886
-0.021772252
-0.007708498
0.038294807
-0.016239272
-0.026651632
0.022026189
0.016340844
-0.01623186
0.009821535
0.0761705
-0.019038133
0.04499899
-0.022126202
0.023398984
-0.06502152
-0.028292812
0.0015648311
0.020620668
0.0013746695
0.04553232
0.018101536
0.027944777
-0.022866838
-0.012139567
0.011288252
-0.016969666
0.016918043
-0.072414786
-0.037312135
-0.0023705557
0.023738995
-0.025872165
0.03910596
-0.008838981
-0.01894139
-0.009640246
0.032891233
0.035371225
-0.0014083792
0.0090008
0.051580746
0.010632832
-0.01313605
0.006616951
0.0065591773
-0.010533579
-0.01325579
0.040467523
-0.023257066
-0.0052888636
0.07238466
-0.013647044
0.0029077332
-0.0101806605
0.011286938
0.02668715
-0.004281133
0.00955142
-0.037907936
0.021111201
0.029084211
0.046401855
-0.016574772
0.015458884
0.02098373
0.028529769
-0.033263225
-0.008702965
0.028977815
-0.012615518
-0.02860148
0.01833272
-0.032735
-0.06453409
-0.012284823
0.007102305
-0.036543425
-0.005713042
0.0064028837
0.01295122
-0.028099257
-0.017160395
0.033210788
0.021089097
0.008971969
0.09291381
-0.04849325
-0.044625998
-0.013644087
-0.028760407
-0.015014083
0.06057939
-0.008201142
0.007993153
-0.0070515983
0.00048050203
0.050075885
0.012504222
-0.018012179
0.0061962595
0.0026228183
-0.0030404655
0.040689148
0.00973735
0.0606088
0.03843706
-0.017548649
0.016634986
-0.007798657
-0.013486117
0.0060992204
-0.0102797905
0.048515953
-0.020682823
0.008720588
0.0022192218
-0.004909682
0.037733976
0.019645937
-0.0063066524
0.031959705
-0.0051537873
-0.022087166
0.06779604
-0.019423533
-0.027194213
-0.02494353
0.036571644
-0.05324303
-0.007901141
0.0025375392
-0.015488146
-0.04876315
0.0008195529
0.036696117
-0.0050365846
-0.040194202
-0.0005712812
-0.023101078
-0.07725494
0.0149869155
-0.003785699
-0.07456153
0.01729545
0.006155483
-0.01370224
0.028252957
0.014894082
0.0034303851
-0.024142481
-0.024759322
0.02038482
-0.020159084
-0.032238103
0.01966925
-0.0012474678
0.008746849
0.04264419
0.06825986
0.009242147
-0.01492699
0.008812755
-0.0040607853
-0.015415387
0.06104866
0.03449123
0.0018456173
0.029916532
0.018809684
0.0081022065
-0.012505605
0.06709044
-0.021771345
-0.00021061311
0.016482517
0.02864639
-0.021858865
0.05039953
-0.02320887
-0.030850135
-0.027104115
0.04363783
-0.011263042
-0.0097885905
0.0068838317
-0.01804964
-0.055376593
0.031088885
-0.032042865
0.056735314
-0.000568363
0.055089183
0.039645463
0.023325229
0.01121996
-0.01797742
0.024277292
0.060398486
-0.008252017
-0.06551341
-0.044654205
-0.037670836
-0.008201632
-0.004412411
-0.0036325478
-0.046471626
-0.0056337984
0.023277128
-0.012310828
-0.07775491
-0.00902875
-0.0076667336
-0.004859345
-0.0065618735
0.01892515
-0.06254012
0.014034415
-0.008802038
-0.02317885
0.048202306
-0.009771103
-0.0109856585
-0.017773127
-0.015779346
0.03470599
0.020367363
-0.038441617
-0.0026219958
0.039943144
-0.002038789
-0.025633432
0.021743795
-0.024706798
0.04508307
0.029054312
0.016836975
0.010546401
0.00027650344
0.025415352
-0.0014627828
0.0011929609
-0.012468928
-0.005047319
-0.04760133
0.019069951
-0.027868025
0.004655962
0.015319027
-0.04778695
-0.0021267068
0.05269867
0.033469
0.023847526
0.029224556
0.035855874
-0.016309792
0.0089616105
0.0052382387
0.022213513
-0.021379493
-0.036778837
0.021849016
-0.003782412
0.060871657
0.04419578
-0.01828118
0.020336088
-0.04850886
-0.0036278903
-0.0187464
-0.028015269
0.010671558
0.037353504
-0.03722244
0.012532442
0.028059186
0.00054203457
-0.027461912
-0.04052398
-0.010211532
-0.03586868
-0.020994306
-0.0063799396
0.026651861
-0.04371999
0.012343602
-0.025390182
0.055647768
-0.015677353
-0.035838686
0.016075034
0.015704952
0.0035674048
0.032456398
0.0061835893
-0.018590646
-0.0059073265
-0.023219058
0.037133284
0.03082673
0.008980105
-0.0009306892
-0.006706192
-0.034228027
0.001140006
-0.022613673
0.061182115
0.017246215
-0.003669447
0.036974438
0.0046586925
0.0082985675
-0.022334188
0.020412192
-0.00797087
-0.0002546684
0.026851509
-0.0116994735
0.03344776
-0.006516732
0.04117608
0.033656254
-0.012405926
-0.053062655
0.026889892
-0.06938979
0.029624585
-0.049091052
-0.011987158
-0.024312172
0.021315575
0.0025259578
0.033733297
0.011271593
-0.0027678234
0.027411843
-0.01954968
-0.0011071626
-0.055466693
0.0020776426
0.009621016
0.0003055105
5.0972903e-07
0.015193272
-0.043610875
-0.0147728855
-0.018130325
0.0009866008
0.045805924
0.00917453
0.0103125265
0.0090957815
-0.002751243
-0.012412255
-0.023842711
-0.014383698
0.017220438
-0.022354156
0.02833052
0.016828682
-0.051844846
0.059539452
0.036114767
0.0068382816
0.036012933
-0.01934199
0.0117555745
0.027672851
-0.051932998
-0.008644852
0.02691571
0.0009947389
0.013095502
0.010243132
0.019525664
-0.05138496
-0.061346643
0.025018072
-0.023961045
-0.012347132
-0.069422744
-0.009435578
0.013678837
-0.014643207
-0.055285055
0.016558196
-0.0055398406
0.009653531
-0.02915924
0.02659673
0.026200186
-0.0069386573
-0.07014647
0.037416372
0.04586673
-0.078808
-0.014902962
-0.007484402
-0.014138998
0.0444837
-0.019096315
-0.043373495
-0.008789692
0.037819657
0.015477176
0.021745725
-0.01044168
0.0069037583
0.004725575
-0.023113642
0.017261345
-0.0068432637
-0.014974803
0.016939454
-0.07360455
0.043315127
-0.0012791014
0.024572935
-0.018450746
0.05217409
-0.0069953264
0.012573768
0.0297214
-0.031561773
-0.008173724
-0.047008604
0.009020653
-0.041680973
0.020540755
-0.05458086
0.028958265
-0.022759102
-0.064820476
0.0021098081
-0.006167727
0.023318212
-0.0014613792
0.032504097
0.021391658
-0.016022455
-0.008615916
-0.0051430184
-0.029099947
-0.051222086
0.0009484561
0.0015960651
0.010582538
-0.0143433055
-0.042814165
-0.029525176
-0.010454898
-0.038273226
-0.0050108596
-0.00012822064
-0.016215717
0.0065650386
0.004496431
0.009696404
0.058211584
-0.017749984
0.027745523
0.05431986
0.011467182
-0.008412718
-0.037753675
-0.03937814
0.04150258
-0.017078863
-0.003784362
-0.03406027
-0.011660417
0.009318438
0.0030405016
-0.029293386
-0.005034491
0.008024488
0.02653196
0.032778908
-0.01641332
0.0010767257
-0.016521968
-0.008341044
0.038598064
-0.041036673
-0.011842586
-0.014607835
0.001463218
-0.0021132338
-0.006992363
-0.006567049
0.008041808
0.0233431
-0.019160772
0.0041652853
0.031902168
0.033207234
-0.010953459
-0.07842988
0.032163117
0.005295129
-0.0021654405
-0.03458212
-0.037302576
-0.01805648
-0.03656776
0.0031076842
0.027184395
-0.037304714
0.021052256
0.0060737617
0.00837679
-0.006558345
0.019294165
-0.016275149
-0.020576471
-0.01945162
0.036008094
-0.035089765
-0.0018601777
-0.012456101
0.042129803
0.032383528
0.045041505
0.0064253206
-0.014831674
0.0029432178
-0.0015963434
-0.000712037
-0.04639624
0.01952375
0.008691615
-0.004237452
0.07304459
0.041652095
0.016696097
0.012608958
-0.026263727
0.030168142
-0.05010442
0.034458626
0.036543895
-0.027899515
-0.025948565
-0.018501997
-0.051294193
-0.010803271
-0.066181734
0.014556833
-0.049985036
0.045267526
-0.05441662
0.0281141
-0.028563984
0.014114664
0.03830313
-0.045307014
0.048497014
0.033576526
-0.0107415635
0.010947757
-0.006456133
-0.0011079547
0.0623049
0.014766443
0.007179783
0.066037975
-0.010420769
0.014493748
-0.007885437
0.014433967
-0.016419135
-0.0030085668
-0.03346445
0.020091662
-0.036175814
-0.01786026
0.03571937
0.027116807
-0.00020446903
0.031158848
0.04028519
0.044053104
0.034608636
0.025592992
-0.079894826
0.02772874
0.015021434
0.023413155
0.0009270315
0.018277267
0.0197873
-0.007566246
0.013301823
-0.05602479
-0.06639476
0.055123422
0.006553995
-0.009046579
0.0006980851
-0.050039835
-0.033162657
-0.0008753662
-0.0232781
0.023461137
-0.004757281
-0.0107979495
-0.029663583
-0.0509274
-0.036132336
-0.011569282
0.04513035
0.020073064
-0.0073388536
0.006521671
-0.01699907
0.004390726
0.026818046
0.038283158
0.005406057
-0.03084554
-0.0016048024
0.0026810407
0.02272685
0.0065551777
-0.080554105
-0.007101868
-0.005736081
0.0017649079
-0.036925126
-0.05374224
0.01720426
-0.050804302
0.008943373
0.02263894
0.008571469
0.006125006
0.043159105
0.039963514
-0.030796312
-0.045503393
0.0137156695
0.013912605
-0.012996574
-0.048830397
-0.022182161
0.022712037
-0.0077466965
0.015204757
-0.002044057
0.032756273
-0.04183875
-0.012321447
-0.014367608
-0.050978232
-0.012302939
0.03009338
-0.019394815
0.075058095
-0.014327883
0.008628785
-0.023959268
-0.02943158
0.02961426
-0.0025917457
-0.022579463
-0.019237114
0.025079438
-0.033148628
-0.061148304
0.030441511
0.007295724
-0.0026630156
-0.015706366
0.0045571234
0.03846079
-0.026246317
0.008066087
-0.014215887
-0.016298048
-0.028867789
0.01808056
-0.009880817
-0.043310855
-0.011937497
-0.0016907381
-0.014676986
0.020709835
0.015896898
0.018297922
0.0673686
-0.027391588
0.058041375
0.038893513
0.0028497216
0.021177027
0.019486278
0.010535202
-0.052536458
0.011652253
-0.06636169
-0.011224864
-0.06553553
-0.009226251
-0.015195547
0.022133466
0.0047848504
0.039337017
-0.0047034216
-0.020774197
-0.009872569
0.0812501
0.01729637
0.0016386459
-0.040411007
0.016379185
-0.0046599656
-0.006655178
0.010213542
-0.029833002
-0.0033261592
-0.037429385
0.029135741
-0.021326134
0.03816439
0.026573258
0.028741395
-0.02253929
-0.032418665
-0.04644793
0.0006628462
-0.04209003
0.0063753724
0.05197357
-0.042365767
0.014758204
-0.016953694
0.013822294
0.003288747
-0.005690482
-0.012449432
-0.013409782
-0.032923684
0.025752842
0.0110444855
0.012049933
0.033523284
0.003627297
0.03272139
0.009430613
-0.03001954
-0.06633585
-0.00941924
0.020985352
-0.0124214655
-0.029496662
0.0059967963
-0.01024714
0.025610158
0.051433954
-0.0744102
-0.0238021
0.010182657
0.080885395
0.029346768
0.023801254
-0.00026964457
-0.043582313
-0.0019502883
-0.04552932
-0.06361714
0.019618237
-0.038675044
-0.032506395
-0.07457274
-0.0012276385
-0.0072186543
0.020185035
-0.031921696
-0.01898909
-0.032748878
0.045059584
-0.046806514
0.021424748
0.049658727
-0.028257892
-0.036288798
-0.023844866
0.023893125
-0.012446357
-0.031972244
-0.0009531223
0.02568821
0.01971842
0.032718908
0.022309333
-0.025027243
-0.0074109244
0.018377762
-0.017743334
-0.019312514
-0.026471011
0.0025479458
0.04728178
-0.019591916
0.03360663
0.06294874
0.022543214
-0.00582195
-0.040657707
0.011200355
0.0345761
-0.01638219
-0.017568553
-0.000970816
-0.05785638
0.008890161
0.016430246
0.003251813
-0.019417923
5.20893e-06
-0.04472005
0.032632094
-0.012513871
-0.025013726
0.04706369
-0.06386193
0.01310125
0.004675969
0.031902265
0.033500213
0.004704168
-0.008699005
0.006084423
0.045160323
0.016545428
0.044882428
-0.009047359
0.026654892
0.023194866
-0.052614238
-0.029652465
-0.039150283
-0.02399438
0.042726435
0.027917776
-0.022785135
-0.0014599491
-0.0076957364
-0.0024624807
-0.010264672
-0.040320776
0.054422375
-0.00813707
0.028601456
-0.03410549
0.032841265
-0.0049101682
0.01293301
0.0032768073
0.04722875
-0.047090027
-0.09998661
-0.014444428
0.021685284
-0.009620611
0.009319242
0.039630827
-0.030292643
0.01853881
0.009694635
0.018853253
-0.0012751338
-0.022619031
0.0057840156
0.02646074
0.028719077
-0.001671652
-0.0325646
0.07540488
-0.01250641
0.026997212
0.012074393
-0.02859292
-0.030254433
-0.01876478
-0.006702728
-0.013684354
0.017737264
0.025498396
0.004842933
-0.003443291
-0.07024879
0.0054534147
0.06869036
0.05164491
-0.012814138
0.021117106
-0.04877704
0.013121733
0.027542315
-0.026925446
-0.039477818
0.07679888
-0.038517844
0.04149972
0.048893794
0.018801767
0.012250165
-0.021636968
0.034303244
0.0049789962
-0.009423403
-0.01527515
0.0063405135
0.01623272
-0.0025927322
-0.029381607
0.0060816854
0.009313707
-0.02276623
-0.011645432
-0.025776176
0.02017019
0.023875814
0.0053612716
0.037487745
-0.004782978
0.044847663
0.020197937
0.01751162
-0.010120659
0.019465085
-0.015467738
-0.036939856
-0.012260953
0.0008252582
-0.0631706
-0.0018273045
-0.022175346
0.004084779
0.008227025
-0.022892071
-0.03467141
-0.015613188
0.040971965
0.0036338384
0.0059647956
0.07655397
-0.020241411
0.044150848
-0.020520627
-0.037058085
-0.024893856
-0.04702298
-0.041007183
0.0021735094
-0.0066925543
0.008117074
0.007180557
0.011993859
0.0028917426
0.045457788
-0.0027844526
0.0010709227
-0.02782913
-0.022442427
-0.032278154
0.0028385825
-0.020797355
-0.013875486
-0.05185977
0.002997881
-0.039281547
0.036571458
-0.054906238
-0.03266706
0.03400022
0.007896833
-0.021964164
-0.0010047683
0.016715903
0.011880852
-0.016219297
0.022265447
0.00431299
-0.01756785
0.042458788
0.034302577
0.014527276
0.0026143685
0.024975045
-0.033729997
-0.030204987
0.008151028
-0.00022454228
-0.008045865
-0.028795658
0.031951267
0.017871121
-0.021938724
0.02639183
-0.0011948977
-0.012178576
-0.026321521
-0.013235832
0.005985422
0.018947879
0.010704989
0.067370184
-0.007388265
-0.025545683
-0.017662194
-0.025201177
-0.046648532
0.017147703
-0.045547377
0.02084164
0.067120105
-0.021350767
0.032424692
0.010648183
0.073204316
0.057998527
0.047781818
0.028350456
0.035019666
-0.004402735
0.018392975
0.041460816
0.025226288
-0.006511761
-0.01394834
0.015609766
-0.07120411
-0.041286286
0.03353407
-0.007398336
0.015255134
0.044535026
-0.059223484
0.016996678
-0.048275452
-0.010868111
0.065643825
-0.033800032
0.052222792
-0.07150596
-0.0038798363
-0.03910273
-0.004282322
-0.024618788
-0.008367092
0.02724647
0.021453718
-0.058521386
0.028348465
-0.02069625
0.0036423441
-5.7535846e-05
-0.0040647774
-0.0039071217
0.025813265
0.010469212
-0.0059130974
-0.0036661406
0.044263776
0.019322395
-0.010553443
0.052984875
0.03681819
-0.042535905
-0.016624926
0.017135413
-0.038764764
0.01005211
-0.030105371
0.03199982
0.022623725
-0.012817519
-0.039410103
0.01023489
-0.010929872
0.06418859
-0.016373152
-0.03578494
0.017398177
-0.00230223
-0.0013451732
0.025502443
0.0074194255
-0.010426418
-0.018625416
0.02230879
0.033671558
0.01614647
-0.017795954
-0.034451414
-7.368569e-05
0.018402427
-0.01667405
0.016505793
-0.031700604
-0.014358499
0.02973596
-0.048751175
0.04568052
0.010632301
0.028683096
-0.050073966
-0.04956651
0.017375238
-0.0060422486
-0.035706434
0.052532975
-0.004362114
0.030634949
0.025936192
-0.0011966605
0.0013613576
-0.054205034
-0.02871471
0.0002518484
-0.026982095
-0.017710136
-0.014426852
0.026191188
-0.07996
0.023302274
-0.026235143
-0.01307482
0.046485107
-0.047855742
-0.011426145
-0.012110435
-0.032484952
-0.0029279448
-0.057169817
0.015224799
0.025694793
0.039559815
0.06282742
0.0634836
0.073069945
-0.0040473645
-0.0058101546
0.043246105
0.059659217
0.0051518707
0.0023099885
-0.011134081
-0.053090453
-0.01307567
0.004594875
-0.022728512
0.046781737
-0.022530109
0.02352832
0.0058838027
-0.078481756
0.0017966512
-0.0057167215
0.078070275
-0.046604164
-0.028166093
-0.010157816
-0.023249311
0.009030204
-0.0038976513
-0.034122996
-0.015498409
-9.201685e-05
-0.0041809287
0.027669098
0.026507461
-0.045498837
-0.002292529
-0.042745817
0.0022037243
-0.011775676
0.042591315
-0.010942814
0.032335706
0.033898074
0.033105444
0.023760047
0.01188575
0.009370733
0.022107413
-0.005319856
0.0070840823
-0.012172074
-0.04299824
-0.022640647
-0.036656063
-0.0418075
-0.017792247
-0.015371676
0.06033374
0.009534435
0.024135921
0.01815843
-0.036452506
0.01973576
-0.050688375
0.045396425
-0.0022537357
-0.07163914
0.027526006
0.029184232
0.0043398
-0.025113776
-0.031167386
-0.032969113
0.021293286
0.007873835
-0.012255268
-0.013701708
0.023762237
-0.025698353
-0.032634567
-0.03038046
-0.0016666513
0.042623542
0.06979625
0.005436878
0.015317291
0.05292467
-0.012093089
0.036246255
-0.027807249
0.007448352
-0.004392935
-0.00729578
0.010043725
-0.02296154
-0.023602953
-0.0098662125
0.04353574
-0.0025011103
0.036423706
-0.019917134
0.011941458
0.032751948
0.0060270573
-0.0016382968
-0.023206728
0.016006226
0.0058182157
-0.016068567
-0.010507085
0.002162313
0.05804202
0.056134127
0.03131133
-0.012125314
-0.028837979
0.019534025
0.0072231707
0.025297785
0.033721566
-0.03732067
0.03740521
-0.0190498
0.069338016
0.026571734
-0.06481198
0.026596455
0.024388077
-0.061802242
0.016521592
0.035094187
0.023857757
0.04237517
0.03059607
0.017678853
-0.0097719
-0.019355118
-0.04333014
0.0076572704
-0.013751045
-0.014100136
-0.020490019
-0.013241763
-0.018134888
-0.015290812
-0.015374663
0.006433493
0.0010749381
0.046591382
-0.026441645
0.0150442645
0.011158619
0.051615342
-0.004141218
0.012821088
-0.04470196
0.023886565
0.025518145
-0.014166464
-0.010226036
0.012904936
-0.027392514
0.032709915
0.01486082
0.041626178
0.052528452
-0.005400858
0.057115734
0.04077132
-0.024580317
-0.042630907
-0.005461821
0.02317865
-0.017626112
0.04941884
-0.018681312
-0.015908519
-0.008969268
-0.037784457
0.00685486
0.04317212
-0.034024827
-0.035800986
-0.03046771
-0.022501184
-0.043556582
-0.020084502
0.06345995
-0.057467643
-0.025224585
0.006990884
0.03120838
-0.055969547
0.018963454
-0.03740698
0.052646786
0.006163368
0.015979255
-0.0012187121
0.023403887
0.010135555
-0.003551651
-0.019248057
0.007107645
-0.000600761
0.061004955
-0.011814558
0.010223031
-0.023877168
0.00014222114
-0.035993233
0.004362142
0.046810914
-0.017843718
0.009566604
-0.00975853
-0.047196314
-0.040440496
-0.0018898717
0.088586405
-0.009389025
-0.013712928
-0.00037507186
-0.077257074
-0.0067935945
-0.018194078
-0.010018928
0.080402024
0.045834556
-0.03641158
-0.09073377
0.024623185
0.024504885
-0.002360273
0.0075291116
-0.025486408
-0.0072077983
0.021095896
-0.011291626
-0.03841328
-0.016915727
0.020624146
-0.015625663
0.0053225267
0.041516546
0.07491284
0.0104965195
-0.0051141195
-0.028081862
0.029602665
-0.031396728
-0.036052827
0.021247141
0.008878531
0.039858513
0.03972015
0.0105632385
-0.04133343
-0.02581654
0.033312812
-0.012783702
-0.008869578
-0.0071876473
0.014384574
-0.032156043
0.020299044
0.0044670324
-0.008506101
0.028863203
0.013521577
-0.063434854
-0.005379441
-0.021486858
-0.028240606
-0.03716781
0.008052943
-0.0012268508
0.022142947
-0.015217204
0.039041307
-0.033083417
0.009072487
-0.036221076
-0.003995455
-0.042100396
0.0064031533
0.010845258
-0.036948275
0.0078832535
0.026919018
0.012371007
0.0025839277
-0.045147844
0.019171659
-0.06339962
-0.056926407
0.015344672
0.007856801
-0.01351983
-0.025705602
0.008819426
-0.041138805
0.021609707
-0.032238003
-0.018047115
0.020182759
-0.0028069366
0.030087942
0.057332247
-0.035360828
-0.006793008
0.035591934
-0.03450724
-0.0054532564
-0.0042692856
-0.039391983
-0.002237221
-0.0090761045
0.0289746
-0.004395745
-0.009791686
0.0159455
-0.020217665
-0.027534794
0.020703962
0.053427953
-0.026123498
0.04685683
-0.028293926
0.0036788585
-0.03440652
-0.044699542
0.025569396
0.05100564
-0.015551998
0.023268659
0.025181836
-0.030026218
-0.017539542
0.019735109
0.052088954
-0.00015278609
0.012869704
0.069438145
0.00085867435
0.02053873
0.011099392
-0.024080526
-0.0040389574
-0.014483507
-0.01742162
0.017871197
0.044381592
-0.025767868
-0.00016763409
-0.01611604
0.06910526
0.0310577
-0.0060767997
0.041819204
0.026606148
0.024301399
0.017771034
0.005286983
-0.025887413
0.012622965
-0.09061398
0.037045408
-0.0018387579
0.033033125
0.018942697
-0.0033493247
0.00016055058
0.0027281852
0.032028753
0.0254615
0.062169325
0.043768965
0.009503195
0.025889177
0.027487768
0.018941885
-0.0114622535
0.00059594476
-0.0186123
-0.011965979
-0.036820583
-0.0074754413
0.016093282
-0.006770798
-0.025905764
0.053927854
-0.0251156
-0.007279658
-0.019888941
-0.05935605
-0.015042759
-0.023009662
0.0040668994
0.018413356
0.046054337
-0.029096963
0.06588987
0.023147076
-0.011552011
0.0022123638
-0.053844556
-0.028562564
0.02719116
-0.0122367395
0.014758046
-0.018984508
0.012975644
-0.042006157
0.03754788
0.08176365
0.025455289
0.040058658
-0.016572906
0.020032557
0.027922112
-0.0046580127
-0.034189403
-0.043676317
-0.030618366
0.041521065
-0.021137271
0.0047653704
-0.009296939
0.08077103
-0.04803986
-0.036923915
-0.015103722
0.0054680863
0.021076452
0.023178821
-0.08598429
0.053772125
-0.018975593
0.018033566
0.0067918813
-0.041612048
0.00054168503
-0.01685358
0.015598723
0.039958492
-0.00883368
-0.027801543
0.0023449045
0.03786209
0.023409404
0.06535363
-0.034282297
-0.049751334
0.054726355
0.025688682
-0.007008426
-0.033369426
0.030069102
0.018696235
0.0034820545
0.016418602
-0.018825253
-0.0071665226
-0.019802528
-0.045607764
0.031867847
-0.015589437
-0.0021713877
0.0561886
0.00846192
0.0069907703
0.016578399
-0.027441582
0.02822498
-0.036692634
0.0010572107
-0.0035170838
-0.063950285
0.006690327
0.016330851
0.05829398
-0.040521715
-0.05051933
-0.048454914
0.013426769
0.019525394
-0.00059357035
0.020197123
0.011922177
0.018167257
-0.027896177
0.057667416
-0.04109225
-0.034749676
0.011113664
0.017163012
0.017558202
-0.0150348535
-0.020111566
-0.012842932
-0.026410393
-0.033860486
-0.025370568
-0.009780399
0.030178359
-0.012191986
0.059291556
0.0032362894
-0.036215503
-0.0030927418
0.0085741365
0.034865744
0.039389797
-0.0029292523
-0.014817393
-0.012958326
7.776979e-05
-0.05527423
0.06042428
0.00070864323
0.016936576
0.017378675
-0.020579139
-0.03816212
0.0026619476
-0.045933288
-0.0013036709
-0.008929308
0.015820185
-0.037697576
-0.033083882
-0.012366453
-0.04678403
-0.035713844
-0.029537847
-0.04572611
0.021495411
0.020390429
-0.056586657
0.0061794855
0.04642522
0.008919774
-0.036197964
0.006089771
0.014326474
-0.0040137586
-0.011934643
-0.024940683
-5.148223e-06
-0.010290215
0.014440075
0.047098607
-0.043608304
0.01690672
-0.05669078
-0.03496715
0.05872774
-0.013170872
-0.0033590458
-0.0017443438
-0.025492627
0.055536896
0.0014960738
-0.0058075236
0.016346885
-0.0028475905
0.0065760366
-0.03600718
0.014718548
0.011289583
0.05134284
-0.0049635204
0.011282935
-0.018696142
-0.013925561
-0.029839424
-0.0024562345
0.02101141
-0.003544712
0.006233852
0.040764578
-0.012920544
0.061904747
0.012018515
0.060222805
-0.0209001
0.025274476
-0.014504064
0.02916418
0.021008719
-0.039099094
0.0013185368
0.015204953
0.024234131
0.04068734
-0.01938654
0.002700854
-0.005376009
-0.018713258
0.016929593
-0.043878686
0.028876
0.069363624
-0.032450993
-0.0046112495
0.017309783
-0.059280165
-0.0218604
0.0077859387
-0.022802657
0.034369066
-0.021174312
-0.011601432
0.026998466
0.015713558
0.030189697
-0.012458556
-0.00020391712
-0.003168222
0.004816277
0.02402055
0.015354572
0.008713607
0.055399645
0.052651506
0.008608132
-0.010384466
0.041766077
0.034017455
-0.00048681418
0.0137316035
0.02168828
0.035791833
0.026303321
0.03409958
-0.003692283
0.0077605457
-0.005927237
-0.058451597
0.034874387
0.046687197
0.035637513
-0.036222074
0.047645874
-0.01618958
-0.0394219
0.017693408
-0.0315776
-0.003053929
0.001091965
-0.0020702505
-0.022429384
0.032212265
-0.079967
0.018106995
0.031774044
0.030562393
0.029499486
-0.010365725
0.007547873
-0.034624
-0.054711007
-0.010743008
0.041265253
-0.008496102
-0.029621452
-0.033876013
0.013324035
0.041315418
-0.0055156313
-0.04612935
0.010129121
0.00951072
0.017302623
-0.008194115
0.077554725
0.032523595
0.030154161
-0.0060681324
0.0041811783
-0.008469921
0.05233985
-0.009354085
-0.019670023
-0.0066333176
0.013011347
0.006132564
0.07762285
0.02162757
-0.027420528
-0.0134461
-0.06554696
-0.044703335
-0.025417592
0.03979345
-0.0059322533
-0.026060607
0.0017407469
-0.09491874
0.026192488
-0.031439185
0.004087391
-0.045752645
-0.0616295
0.012239781
-0.0073910067
0.03399134
-0.03841134
0.054867465
-0.034429565
0.029856645
0.001859138
-0.020945678
-0.04451618
0.0027940345
-0.025140237
0.05413884
0.005323572
0.0006878972
-0.020066248
-0.022085836
0.032058958
0.010265828
-0.002067287
0.031800814
-0.059576526
0.018582625
-0.048200663
-0.00013592331
-0.036954306
0.0097307265
0.009777693
0.027863897
-0.06565304
-0.01524916
0.023540705
0.03874634
0.024438031
-0.01076457
-0.029345118
0.03692767
0.020663993
0.022704257
0.010860879
-0.036089543
0.03849736
-0.0047881645
0.026397763
-0.024610225
-0.022161895
-0.030129492
-0.040456645
0.012784738
-0.009153753
0.018784292
-0.0030228645
-0.015061397
-0.03652161
0.001626997
-0.05683084
0.05052399
-0.008276731
0.033840735
-0.009583646
0.033635534
0.034569677
0.0005724613
0.00060602056
0.028382229
0.0332944
-0.033965945
-0.0001391249
0.072499424
-0.004995607
0.0032949739
-0.0005227705
0.0205178
-0.033829097
0.013431438
0.01374047
0.03985077
0.0061585614
0.044595152
-0.005984762
0.008472107
-0.03756633
-0.0045125154
0.016604967
0.020686468
-0.01456941
-0.0014070541
0.0032701606
-0.012848382
0.02975277
0.020642973
-0.06593641
-0.013164245
0.015775558
0.026531631
-0.015902322
-0.056934286
-0.018577676
0.031000217
-0.044005528
-0.027293451
-0.021132385
-0.0318173
-0.022597965
0.005350282
-0.04291243
-0.068439156
0.014399327
-0.05437397
0.035486184
-0.015221752
0.012078708
0.019816933
-0.04869114
0.014692551
0.028504333
-0.020745462
0.017973859
0.024505375
0.051272765
-0.059050716
0.025890475
-0.035688598
-0.007929583
-0.023085317
0.013436884
0.021287935
0.026523763
-0.0035174896
-0.0043071727
0.006759914
-0.013532997
-0.040501446
-0.095039405
0.013078434
-0.05992485
-0.00044363528
-0.03454281
-0.025155786
0.07823482
-0.03170374
0.0124064395
0.033224918
0.0065263184
0.011722244
-0.033195686
-0.0037464134
-0.013904383
-0.018901885
0.0060193264
-0.06748502
-0.062531814
-0.008631274
0.04814267
0.01398282
0.052371677
-0.021421889
0.03556697
0.009590339
-0.020818792
0.03593865
0.00228241
-0.0015808829
-0.027367372
-0.037150357
0.018108154
-0.041002233
0.011841734
-0.035092905
-0.02353891
-0.0006761869
-0.002932519
0.029477045
-0.06558949
-0.0149874585
0.014642823
-0.04445705
-0.00447708
0.03576535
-0.025225196
-0.035643894
-0.03519813
0.0633137
0.010119816
0.012401422
0.039981578
-0.06316619
-0.015741955
0.005229394
-0.006382289
-0.03718484
-0.016858121
0.001999351
0.05097993
-0.020574227
0.032727666
0.029756106
0.017709425
0.041466847
-0.047787044
-0.026294736
-0.022328002
-0.019890474
0.0016515617
-0.00033482243
0.022182075
0.008410203
-0.023410873
-0.0063649984
-0.07298857
-0.027279297
0.012643999
0.023896493
-0.02375721
0.010756892
-0.07397402
-0.012564582
0.03933868
-0.03333851
0.0041271825
-0.013445798
-0.024169154
-0.026116148
-0.03230283
0.022121862
-0.03284076
-0.007864871
0.004391077
0.021023585
0.009048569
-0.013661967
-0.036208503
0.0026376662
0.020522974
-0.01580578
0.06824274
-0.02493935
0.013242631
-0.036124174
0.006169064
0.03212898
0.054116633
-0.055403516
-0.022911869
0.007345917
0.0313643
-0.0037855469
0.014160376
0.015753718
-0.01125974
0.049298078
0.020812446
0.04696059
0.017421989
-0.022685522
-0.048778944
0.017582294
-0.021167044
-0.033974208
-0.031622056
0.0036455179
-0.030690676
-0.021008931
0.035827618
-0.013004157
-0.031510524
-0.005195932
-0.054956406
0.003863785
-0.010488281
-0.020208394
-0.034894064
-0.017133398
0.00434368
0.062384702
0.015781254
-0.025414417
0.006588316
-0.01918832
-0.00762222
0.03771955
0.019015256
-0.06739729
0.012642114
0.049010858
0.031868692
-0.013642743
0.055741087
-0.0025051537
-0.031779654
0.029995335
0.012925501
0.054740284
-0.08078671
0.029579386
0.019622272
-0.05019019
-0.06634968
-0.018564338
0.023466568
-0.018506903
-0.011499866
0.0011108828
0.034699917
0.018125482
-0.03424186
0.0059087505
0.0046321726
-0.016971946
0.045709424
-0.020658692
0.007348434
0.03200293
0.0055242577
-0.020043045
0.013674832
0.00622319
-0.018087603
-0.023855602
-0.022292236
0.0051597175
0.003527118
0.025251878
-0.011143546
-0.010524299
-0.05432414
0.059377603
-0.042759847
0.0133438865
-0.025420653
-0.022259535
-0.028601825
-0.01146894
-0.0067316038
-0.011664745
-0.053090062
-0.06350694
-0.015063201
-0.027321888
-0.024527507
-0.010443778
-0.008239727
-0.0043944735
0.0028697513
-0.020988097
0.018547347
0.016340846
0.044670716
0.007628813
-0.017195607
-0.0037013395
-0.046190802
-0.010532153
-0.028806368
-0.008229701
0.03551349
0.060117193
0.010704499
0.0036121332
-0.0072658267
0.01545366
0.06660201
-0.0018467592
-0.007194484
0.021506062
-0.011064755
0.016341181
0.008069474
0.010560263
-0.01557007
0.01768141
0.0068863034
-0.0019326798
0.09805013
-0.013966404
0.025701184
-0.012658278
0.04596611
0.027209817
-0.0030906533
-0.010942803
-0.05189117
0.009600085
0.08217451
-0.029468337
0.00985151
-0.018328661
-0.051574074
0.0155490115
-0.03372158
-0.019732542
-0.012376848
0.040513612
-0.004860684
-0.043605562
0.028061531
-0.051301207
-0.006052294
-0.022328898
-0.012668352
0.029672781
0.0062862365
0.04783418
0.0063192127
-0.008409634
0.015626818
0.04999028
0.029663553
0.0022681386
-0.03198998
-0.034353733
-0.059852913
0.06365332
-0.0019865334
0.013407886
0.0013070657
0.03568977
-0.012622876
-0.045753982
-0.018899849
-0.0032929282
-0.0053969193
0.000107037435
0.02950612
-0.012733516
-0.00895869
0.002766585
-0.017777992
-0.022246342
0.0071909106
0.01636362
0.012577774
0.018596102
-0.008396847
-0.0033133314
-0.031421196
0.00995081
0.018444702
-0.019900512
-0.046650667
0.014353713
-0.034650788
0.0040088412
-0.014873841
-0.04769035
-0.009978093
-0.035563856
-0.044416532
0.039777048
0.020150412
-0.0039574564
-0.015587263
0.04402268
0.029619467
0.015119765
-0.0059063397
-0.016629662
0.03743938
0.033621766
-0.020086065
0.000694927
-0.007207556
-0.0015728353
0.0024388365
0.020976838
-0.052458912
-0.0028895654
-0.019631151
-0.001078684
-0.0050212857
-0.017304193
0.051577993
-0.021505227
-0.021348134
-0.04880655
-0.0010890361
0.031371027
-0.0109885065
0.0016983526
0.03733641
-0.005515668
0.019166537
0.012494004
-0.022967555
-0.02104573
0.030293519
-0.027502023
0.018676473
0.01553905
0.03568961
-0.002894723
-0.03975173
0.03960823
0.031898156
-0.059895486
0.035713796
0.072154954
-0.05515962
-0.061796848
0.04903486
0.018605737
-0.029609425
-0.043065958
-0.07098287
0.0112186605
-0.018440207
-0.015270443
-0.03471878
0.006298323
0.017760385
0.024297973
-0.02174868
-0.025488943
0.013322936
-0.016293265
0.041950457
-0.017065031
0.043683164
0.009030076
0.039506804
0.07676158
0.040293276
0.0025838367
-0.00018738705
-0.006934504
-0.0080918325
-0.05796094
-0.030058844
0.05981911
-0.023840958
0.018304972
0.05188723
0.0059591644
-0.034017272
-0.01210773
-0.021677427
0.011774718
-0.004532931
0.0077255107
-0.049041115
0.035226393
0.032855295
-0.021742811
0.026467396
-0.014706739
-0.011829349
-0.01130677
0.029298589
0.029600577
0.014626853
0.026115859
-0.008782028
0.066811405
-0.023527475
-0.0032842008
0.0051837857
-0.018986981
-0.01357486
0.0003361182
-0.023564078
0.023198804
-0.034297314
-0.049653098
-0.011618316
-0.03137392
-0.046356153
0.027806094
0.014943096
-0.004596653
-0.059085384
-0.037183475
0.017750451
-0.042204473
-0.040069006
0.07246996
-0.015965382
-0.028510071
-0.06723142
-0.00842266
0.011246324
0.0038866187
0.007212356
-0.022676736
-0.03285774
-0.011848642
0.033119313
-0.002355772
0.016486758
0.018444812
-0.0066234595
-0.014862298
0.053457193
-0.07152291
-0.0005607114
0.004720303
0.024766736
-0.0010179188
0.009100274
0.022817219
-0.005496042
-0.0104771415
-0.0015083174
-0.004617428
-0.017286813
-0.04330604
0.000554555
0.0022551604
0.0071103596
-0.0054695765
0.061621517
0.050407555
-0.011150226
-0.03236614
-0.022551125
-0.013108223
-0.02072824
-0.019326895
-0.09296937
0.03409297
0.005718031
0.006308569
0.03164568
-0.054033965
0.009581408
-0.015528073
0.07950805
-0.03229151
0.05343963
0.015604381
-0.018357482
0.039729513
0.0131291365
0.051377673
-0.01633927
0.024978975
-0.034375265
-0.014905822
-0.037738543
-0.00921583
0.040225018
0.050727256
-0.024708342
-0.0017184181
0.0024184654
0.044377763
0.012949568
0.017043376
-0.0031230743
-0.003943123
0.011956202
0.0088306395
0.020992696
0.06291319
-0.014932797
0.002109546
0.011192773
0.012482119
0.040237483
0.002223403
0.010704546
-0.05887299
0.027521731
-0.010880974
-0.004706011
0.011496375
0.011439652
-0.055787805
0.016933117
-0.022113997
-0.002797343
-0.0026195403
0.00249543
-0.018365128
-0.014635642
0.048087686
-0.009824914
-0.033850502
0.006683419
0.039514765
-0.026999773
-0.039037686
0.008384794
-0.019642055
-0.03583339
-0.015360297
-0.0038796733
0.031439826
-0.044559952
0.0093845725
0.045256488
0.028658682
0.040622905
0.01330941
-0.008444466
0.0055554872
-0.0041718106
-0.03291455
0.051047325
0.012805143
0.038807478
-0.024836369
0.012425208
-0.011742996
0.012106453
0.010516813
-0.072006345
0.005464372
0.0044783074
-0.02432873
0.05886935
0.025221607
0.015829772
-0.01168946
-0.0017111017
0.0024526438
-0.014033943
-0.005813401
0.0055044
-0.019601341
0.022209127
0.044697717
0.007835276
-0.014926382
0.019454762
0.07322308
0.00940287
-0.0059651155
-0.035358526
-0.040302597
-0.017055191
0.047136378
0.020557512
-0.017873883
0.012639293
0.016796647
0.023166554
0.032393087
-0.07557996
-0.00822301
0.057122733
0.022993159
0.0080897985
0.0037745447
-0.041188754
0.049749795
-0.020440616
0.06480398
0.027168037
-0.005202273
0.025093896
0.0041318205
-0.0593651
-0.03413503
-0.04265881
-0.03857832
0.04019303
0.03263649
0.033786
0.048268586
0.03334074
-0.006707656
-0.017192421
-0.010142361
0.07195065
0.0029236667
0.025486866
0.017451415
-0.047122203
0.054520156
0.023529923
-0.005926761
-0.012605474
-0.03960774
-0.024560926
0.004570247
-0.041378524
0.03004623
-0.018070102
0.012307157
0.024113145
-0.03585073
-0.0056740125
0.0042929496
-0.034213923
-0.029542277
0.0094395885
-0.040358827
-0.03246014
-0.025588237
0.017878974
-0.010081798
-0.02274345
0.0059258635
0.04267501
0.018000677
0.0027991952
-0.030943582
-0.001472771
0.033764306
0.01428831
0.034848977
0.005546992
-0.016201733
-0.06808635
0.011309099
0.0139814755
-0.040259916
0.0029694336
0.07285982
0.008920512
0.022948777
0.009604113
0.024228616
0.0061079157
-0.011117631
0.018547552
-0.019611735
-0.0025845564
-0.03478632
0.016129313
-0.023840489
-0.013580837
-0.018259495
-0.011297968
0.011417554
0.045773778
-0.023710288
0.019112797
-0.055160783
0.039511167
0.008368171
0.010317192
0.034003813
-0.035863142
-0.020878525
0.019932149
-0.015906686
0.041974522
-0.059021592
0.009350874
0.05467627
-0.0128109995
0.0026879052
-0.0029458203
0.012616307
0.01672811
0.006898652
0.014263263
0.006335883
0.031947777
-0.01725632
0.04939125
-0.016248243
0.07332014
0.020661816
-0.020309845
0.01547013
-0.07122673
0.034431625
-0.043144703
0.00078541954
0.058796264
0.026619937
0.005532274
-0.0417516
-0.014962125
0.012480459
-0.013670532
-0.030243931
-0.016322264
0.01870379
0.02882207
0.014516829
-0.023785703
-0.004373234
0.007106395
0.02659101
-0.060670603
0.017937973
0.0627005
0.013564935
0.009650248
-0.07584897
0.045084696
-0.0016403074
0.014852564
-0.059634507
-0.010104616
0.030328128
0.012861708
-0.05173865
-0.008812071
0.01025534
-0.00543966
0.02933293
-0.060053226
-0.025568383
-0.05546561
-0.011463391
-0.017870443
-0.04392525
0.013723449
-0.044047795
0.008969411
