-0.051963247
-0.08313489
-0.034187723
-0.018924532
-0.0967025
0.009319959
-0.007962631
0.0037720816
-0.005793177
-0.041349724
0.0027966436
0.03240473
0.0069049215
-0.081254646
-0.0065345615
-0.0449474
0.033042315
-0.019288354
0.0020282818
-0.15794715
-0.06478791
-0.016596481
0.11011338
-0.03606957
0.095122665
-0.14543374
-0.09783992
0.04368711
0.00084701274
-0.19743632
0.05363894
-0.015020493
0.018720984
0.09993648
0.046784617
0.018604942
-0.04772217
0.07709005
-0.10611693
0.11551795
-0.036638916
-0.085920624
0.0038128847
0.028773822
0.0802803
-0.008342077
0.11468578
-0.02065562
0.01886821
0.07390311
0.025602508
0.072344795
-0.11156654
-0.031305455
-0.052336823
-0.08029476
-0.06347691
-0.18645108
-0.1371205
-0.24785787
-0.11641575
-0.005006117
0.07916517
-0.020379322
-0.055140793
0.0017230343
-0.09537838
-0.047334734
0.076979496
0.024709629
0.034935344
0.11732249
-0.008348048
0.16984847
-0.13660784
-0.1427038
0.045215134
-0.09451931
-0.068360195
0.073432915
-0.09624559
-0.0431152
0.07047334
0.043262284
-0.1846665
-0.0576258
0.02862186
0.06807695
-0.17742348
-0.046053197
0.04018769
-0.051840097
-0.088914
0.17371228
-0.065263234
0.040766094
-0.06831785
-0.090114534
-0.10693615
0.31070882
0.055530887
-0.17052981
0.08384138
0.082176335
-0.014912305
0.09046832
0.112422414
-0.09946774
0.12463548
-0.035346266
0.0636052
0.21102403
0.0021179088
-0.029309418
0.054297104
-0.29854426
0.0030229064
0.07657628
-0.11110397
0.02271252
0.045314144
0.019225787
0.041604396
-0.05504085
0.010711635
0.23548844
0.14865333
-0.12624313
0.22063443
-0.27048334
0.09094395
-0.0018284293
0.041183896
0.03870723
-0.010004471
0.08657934
-0.05029526
0.062190264
-0.060321957
0.019439897
-0.028826194
-0.043426156
-0.049832843
0.28541806
-0.10616238
0.10541353
0.15278225
-0.11885696
0.07606222
0.065909825
0.08920559
-0.108978264
-0.04212571
-0.15317886
0.12667455
0.02006891
0.10567076
-0.21246397
0.13262129
0.072676875
-0.15090929
0.1251456
0.082391575
-0.19031458
0.008633551
-0.11838609
-0.1647963
0.06947367
-0.014738546
-0.008071918
0.10993878
0.036098793
0.16948791
-0.0440747
-0.06715027
-0.2666907
-0.017545557
-0.24199973
-0.043189473
0.13978747
-0.14943159
-0.12793164
-0.011770418
-0.11609368
-0.032954663
-0.11606131
-0.044772737
0.18249881
0.11028962
0.2371243
-0.08014182
-0.2732843
-0.006578033
0.006571649
0.06460396
0.090845026
0.058470726
0.023570977
-0.11126512
-0.014134894
0.18242624
0.022927271
0.0026855294
0.144671
-0.16303693
-0.04186268
0.028455857
0.0679728
-0.048149817
0.006109139
-0.12875523
-0.021098878
-0.16882119
0.04037954
0.035734247
-0.12842728
-0.15446316
-0.120330885
-0.1677144
0.101710424
0.14837697
0.07370892
-0.10913974
-0.060588956
0.018309336
-0.16827637
0.060753457
-0.11090679
0.10758258
0.07675832
-0.04270651
0.057087492
0.015742796
0.14874513
-0.22618704
-0.022693187
-0.051487174
0.116323255
0.095943585
0.053596176
-0.042981368
-0.11764695
0.19317475
0.11372684
-0.023625175
0.07027348
-0.19937329
-0.060791027
-0.0106373355
-0.122556366
-0.008864032
-0.0059962785
0.008474715
-0.09703997
0.026087387
0.031829953
0.0911182
-0.0018536571
0.033658117
0.07196434
-0.030386403
-0.065918334
0.16577661
0.10109553
0.068367675
-0.038717363
-0.002738737
0.11060092
-0.11040288
0.06345549
0.03921173
-0.08392274
0.0070799864
-0.18639298
0.21347904
0.27954847
-0.286856
0.0385593
0.13367915
-0.057170793
-0.0045730877
0.094316214
0.07438351
-0.03444605
-0.027016826
0.14714223
0.015609213
0.11641184
0.12759396
-0.043637313
-0.050667863
0.0996249
-0.12711096
-0.101398066
0.020257287
0.016980696
-0.005143324
0.03730366
-0.01194791
-0.08008359
-0.12215603
-0.096292205
0.036850102
-0.042296644
-0.06419167
0.15249406
-0.13221483
0.012823854
0.17689106
-0.05855762
-0.010301605
0.075282305
-0.20265408
0.2731896
-0.066636555
0.029342243
-0.31518048
0.21560737
0.01334992
0.28389516
-0.008745249
-0.048314963
0.07695467
0.2148731
-0.0429407
0.11968987
0.12686583
0.009409357
-0.18068881
-0.12942857
0.018706797
-0.021196904
0.01578252
0.12547998
-0.007875363
0.17506036
0.07495209
0.0638429
-0.13494991
0.014888945
0.032250114
0.17320459
-0.01352642
-0.011500666
-0.14217429
-0.07997682
-0.055591945
-0.045887835
0.0691818
0.19800457
-0.069014855
-0.077800356
-0.1175667
-0.012188775
0.04948099
0.011808894
-0.095509276
-0.02321659
-0.04420018
-0.053362966
0.0064015654
-0.020301826
-0.08243907
-0.010368078
-0.042507876
0.10965577
0.22369261
-0.23994535
-0.015246967
-0.0038943368
-0.047791105
-0.22358519
-0.15382941
0.051708397
-0.09752316
0.03960871
0.1652731
0.014753248
0.033586547
0.011510877
-0.005126397
-0.04861876
0.012735611
-0.16660687
0.01600062
0.02110381
0.08868191
-0.027288081
-0.028196638
0.012360353
0.051498897
0.06909201
0.0019045977
0.13339797
0.06997129
-0.100037135
0.041544642
-0.10634882
0.039378613
-0.08370476
0.14295624
0.03767025
-0.073607035
-0.17009251
0.056864373
0.14096017
0.012823311
0.0074419472
0.052752394
0.0047953515
-0.10092271
0.03707263
-0.012035188
0.13697743
0.2176232
0.08925612
0.08708134
0.08145697
0.12625109
0.024645299
9.366079e-05
-0.058538124
0.04828194
0.0049650804
-0.17000028
-0.047006384
-0.24737296
-0.007292233
0.068370014
0.12964603
-0.1447604
0.07372479
-0.026065243
0.06292652
-0.04216691
-0.25764298
-0.043426193
0.033135112
-0.06327784
-0.17409861
-0.04996394
0.05622443
-0.028097069
0.11025162
-0.1853975
0.09583178
-0.06124321
-0.0052323467
-0.21507822
0.003847571
0.11108854
0.0021367322
0.20385705
0.007916679
0.25924605
0.09267557
0.058777023
0.08820988
-0.03192535
-0.019648328
0.17121111
-0.10987035
0.049246535
0.07968359
-0.11157494
-0.112070784
0.10647873
-0.06212511
-0.016892454
-0.14693655
-0.19722877
-0.069046244
-0.021993203
0.03898505
0.116728626
0.10165411
0.04049395
0.1394809
-0.05728342
0.17423187
0.019815052
-0.066271365
0.15496221
-0.022335472
-0.13921738
0.22313866
0.039267715
-0.032099504
-0.10376575
-0.15894963
-0.040904205
0.018270146
0.0116474405
0.0024976712
0.084877826
0.15423295
-0.011984255
0.06086471
-0.1950147
-0.22215074
0.029842088
-0.23552215
0.1347751
0.12342473
-0.063726075
0.19939528
-0.083606906
-0.015803242
-0.040675595
0.07641083
-0.08703813
-0.068578
0.082160294
-0.16496848
0.22968622
0.029259197
0.15496923
0.05875713
0.0042496086
0.09873655
0.05407498
-0.08142057
-0.12543885
0.07480357
0.05262585
-0.13497828
0.20849116
-0.20609027
0.2189107
-0.013635102
0.1768228
-0.17420556
-0.03784726
0.07226405
0.14566964
-0.04821481
0.112130836
-0.03892197
-0.14229943
-0.021353096
0.06367935
0.14405026
-0.027613277
-0.08416266
0.050541744
0.16629323
-0.053828567
0.13423325
-0.013313039
-0.08734311
-0.07684645
0.20876867
-0.12165246
0.009543536
-0.07295172
0.12605618
-0.012950292
-0.02033121
0.11277564
-0.040618885
-0.22079763
-0.02059752
-0.070624225
0.034880683
0.085392736
0.044718802
0.07031271
0.07582122
-0.18076321
0.005860836
-0.07858362
-0.13224086
-0.03677738
0.18120897
-0.057431623
-0.07135439
-0.13407092
0.026116697
-0.10375679
-0.012075009
-0.12918027
0.13853873
0.06255654
-0.10099811
-0.20291118
0.1189053
0.052680667
0.0066126552
0.27763048
0.07392888
0.01446996
-0.30423895
-0.013746876
0.08680335
0.25507608
0.08541587
-0.1426231
-0.010143614
0.0063847485
0.029956117
-0.17147556
0.119295456
-0.110342726
-0.001358753
0.089891195
0.0051331073
0.02452929
-0.011292073
-0.18342559
0.078331575
-0.09013619
0.031926546
0.1387569
-0.2088619
-0.040191036
-0.07003811
-0.048550963
-0.081497185
0.22026739
-0.16837254
0.14131904
-0.0056798193
0.043527085
0.078585625
0.077919714
-0.2836948
0.035853192
-0.07358824
0.12220728
0.12640752
0.098698236
0.104896
0.12471467
0.12743765
0.03357905
-0.029170195
0.045456354
-0.026755946
-0.026192881
-0.079722814
0.013337155
0.051197153
-0.100203134
-0.13877709
-0.092049375
-0.0039117183
0.01879617
-0.05888423
-0.052970115
0.0051268046
-0.04040863
-0.11975447
-0.12782133
0.0041823327
-0.06741393
-0.078800835
-0.1293782
-0.15880877
0.13972425
0.020615159
0.01164648
0.0960422
0.1318319
-0.08196386
0.04879766
0.009402213
-0.08859893
0.01000603
-0.078342274
-0.18582746
0.10733647
-0.12103602
0.17718661
-0.047075495
0.064976655
-0.1213509
-0.0031131934
-0.15089263
0.027984358
0.107039444
0.11997526
0.10131731
0.0666023
0.1712491
0.12390825
-0.18675005
-0.14811061
0.101808436
-0.013822842
0.03661443
0.115816064
0.14881326
-0.15255
0.18002982
0.14047809
0.10161586
-0.11819343
-0.010839653
-0.1557333
0.0884161
0.0026979959
-0.019318668
0.06672945
0.1871943
0.026403341
0.15736315
0.011191462
0.057386596
0.119288355
0.123436645
-0.0828664
-0.015475452
-0.12970671
0.062230464
0.053444885
0.12026717
0.04291956
0.052903794
0.016173424
0.07080375
-0.028944626
0.017992146
0.18049224
0.09433814
-0.058626622
-0.046855923
0.01856999
-0.032436762
-0.015503449
0.016979497
0.034113597
0.060756296
-0.034333684
0.05022673
-0.0041263723
-0.019239942
0.046050582
0.0024556445
-0.03254603
0.014392067
-0.0026190612
-0.09425122
0.0706595
0.014775729
-0.1710866
0.061489847
0.0006421312
-0.007131786
-0.007906501
0.0837257
-0.09737231
-0.07500945
0.03518047
-0.031878285
-0.07969877
0.13861194
-0.08607707
-0.012226286
-0.08902163
0.06528657
0.00724965
0.074220136
0.08281533
-0.022278277
0.16080728
0.11249422
0.03593188
0.02853029
0.03749968
0.036197904
-0.069887705
-0.037469827
-0.22314611
0.26125795
-0.08881399
0.07715855
-0.08418428
0.074593164
0.24919869
0.007690263
-0.07568825
0.13904467
-0.05855872
0.185057
0.0422197
0.13804889
-0.028996577
0.089898184
-0.035009008
-0.009864487
0.14870599
-0.058105607
0.010236151
0.033987854
-0.14113547
-0.058366597
-0.15236267
-0.0542669
-0.0530352
-0.09881868
0.16311835
0.15782768
0.0131660085
0.079988606
-0.122069016
-0.028585874
-0.03503227
-0.15021653
-0.058138993
-0.038186166
0.113103464
-0.128277
0.17549185
-0.067990705
-0.05388711
0.11172694
-0.014821633
-0.09035112
0.024436004
-0.022721384
-0.02104053
-0.06097425
-0.07636759
0.09613905
0.09345832
-0.02320612
0.06728495
0.022290716
-0.14671585
0.08353699
0.07873071
0.09582582
0.072367035
0.10344299
-0.020012323
0.113934584
0.04955321
0.014948324
-0.020388681
0.019548336
-0.015583964
-0.09680029
-0.16072145
-0.2600559
0.027384037
-0.062648505
-0.07240761
-0.01855207
0.04976049
-0.044050574
0.036637653
0.03474253
0.19127232
0.0025708275
-0.038102657
-0.029625686
-0.10413717
-0.11965528
-0.090613514
-0.013162082
-0.011859015
0.083774745
-0.004937168
0.03990495
0.044104286
0.09133809
0.025391903
0.05346577
-0.1084134
0.07761506
-0.012548704
0.019707948
0.037209816
-0.08456626
-0.11429521
0.04149929
0.07334976
-0.15340464
-0.075690545
0.071412906
-0.072300434
0.095410295
-0.08308077
-0.19954096
0.044666976
-0.20520826
0.044753835
0.2742624
-0.06741701
0.10642145
0.058609694
0.13166137
-0.0130852545
-0.1296948
-0.14386708
0.044213496
0.10100902
-0.026842166
0.0123123005
0.09253031
-0.23993905
-0.22915375
-0.07093528
-0.05043087
0.1230758
0.037900377
-0.026157124
-0.14084527
0.09836529
-0.20949253
-0.12932622
0.12816167
-0.028251775
0.036750205
-0.004567121
0.062080305
-0.07164535
-0.024017656
-0.23003376
0.26433572
0.051907565
-0.108371496
-0.040179536
0.03747207
-0.14987038
0.050666764
-0.12322539
-0.022478208
-0.024070526
-0.14662762
0.13549884
0.0122644575
-0.05411908
0.07465288
0.06471213
0.0632395
-0.16906124
-0.14812319
-0.056529418
0.046033513
-0.27189195
0.094781056
-0.032656174
0.0012810101
0.0314261
-0.024877539
-0.036199532
0.041638676
0.057901546
-0.050811984
0.0054333513
-0.12011232
-0.005521023
-0.057222996
-0.017560156
0.051515665
0.15070844
-0.018044846
0.22705577
-0.0892062
-0.024609292
-0.0014483676
-0.027554609
-0.0024352162
0.046743125
-0.07800238
0.0677377
-0.025277654
0.106302045
-0.14265199
0.060011417
-0.14502689
-0.12756652
-0.07374563
-0.061704397
0.31982034
0.046374153
-0.05473768
-0.049484976
-0.11887572
0.0004930647
-0.11117638
-0.058744878
-0.15876403
0.06586616
-0.092069894
-0.015325882
0.00806955
0.10383946
-0.07085716
-0.06120297
0.06314673
0.016085664
0.076969884
-0.03519645
-0.040091954
-0.01839892
-0.041165546
-0.05347418
0.06303044
-0.028713115
-0.020628406
-0.14549714
0.06442278
0.050333876
0.00035269378
-0.05987828
-0.04588239
-0.1412323
-0.04242305
-0.016413372
-0.1812997
-0.14707348
-0.10036347
-0.1711296
-0.039956234
0.15891252
-0.08624293
0.15139431
0.22491433
-0.07763313
0.14758871
-0.00743572
-0.23593728
0.17486739
-0.12060049
-0.12698154
0.027215471
-0.030523548
0.2399033
0.031512514
-0.11851691
-0.10200756
-0.19378027
0.0068738847
-0.1609216
-0.064973384
0.0056133117
0.008125231
0.09642128
0.062423646
0.08087693
0.041684326
0.042131897
0.11037394
-0.12200532
0.0024571267
-0.10174545
0.114828534
-0.018621828
-0.0024091338
-0.11867388
-0.017330742
0.01635609
0.14811699
0.051136367
0.13590378
0.094043106
-0.11456572
-0.07679309
-0.08463572
-0.0074884067
0.09906306
0.14696275
-0.036835533
-0.11320611
0.08979812
-0.15301181
-0.016195588
0.24058105
0.066169724
0.07341025
-0.03868596
-0.02637305
-0.055253725
0.17233959
-0.0049311514
0.09475414
0.1403306
0.08872018
-0.03871101
0.02409409
0.05943214
0.052124962
-0.0109762205
-0.050942946
0.14426993
0.046045538
-0.065834396
0.06082445
-0.16134967
0.1776101
0.21233016
-0.03074312
-0.116952874
-0.16775762
-0.033774942
-0.08893153
-0.07176894
0.05708577
0.006424084
0.051223554
-0.037385516
0.12975946
-0.042217832
0.08193529
-0.0600244
-0.04236704
-0.14586268
0.1629618
-0.019485312
-0.028385315
0.18483695
0.059477054
-0.06733874
-0.0991405
0.05675848
-0.060935598
-0.14130965
-0.013129762
0.057041887
-0.029426718
0.1313206
0.14658979
-0.035168935
0.043097336
-0.053505644
0.0056223664
-0.02227457
-0.024714751
0.035239246
0.14310871
-0.109023474
0.11058731
0.16482417
-0.05927656
0.012737326
-0.28619352
-0.18282148
-0.2388222
0.028482797
-0.003689643
-0.11573997
0.029523646
-0.07762611
-0.03528633
0.10538682
-0.055681292
0.17207985
-0.10616474
0.07993312
-0.017984893
-0.038981125
0.053110056
0.044798605
0.065158494
-0.007977818
-0.008078391
0.012639843
0.10405646
0.15914452
0.009668032
0.22408906
0.1466134
-0.04183017
-0.08044271
-0.07960971
-0.22721727
-0.015608999
-0.14193007
-0.022072759
-0.018171519
-0.08224011
0.003892267
-0.06511808
-0.1654497
-0.15261869
-0.04936749
-0.08665817
-0.04433861
-0.00497578
-0.039588008
0.031924732
-0.066367604
0.020796074
-0.00041087455
0.15135828
0.17794268
-0.12755428
0.039238248
0.2083399
-0.05898803
-0.15777034
-0.053998314
0.086441875
0.1751305
-0.12683481
-0.074295454
0.016862638
0.02104559
0.007789547
-0.032703847
0.23023811
0.009737347
0.100797385
0.07748596
0.012537665
0.053655185
-0.032358967
-0.021128442
0.10942033
0.060063064
0.15712757
-0.13183574
-0.009830047
0.106818885
0.16579832
0.06967644
0.058173478
-0.124620564
-0.07488165
0.0008366959
0.03677863
-0.010253655
0.25453037
-0.04500429
0.118304476
-0.10442847
-0.039734088
0.23672082
0.046860464
-0.1296267
0.116700694
0.012922361
-0.09228148
0.029776607
0.06569939
0.020302117
-0.22251225
0.019826146
-0.0979461
-0.1382741
0.12095743
0.20473166
0.21632747
0.053960968
-0.19021517
-0.06904347
0.030303393
0.06919382
-0.114554465
0.08155482
0.060255293
-0.13872705
0.100682825
0.09121495
-0.2340662
0.027970849
-0.02254718
0.1007804
0.15193444
-0.005704678
0.044224735
0.02847062
-0.010162919
0.27359012
0.014048822
0.16605099
0.15286106
-0.032690953
0.0517468
-0.0702054
0.06412113
-0.08810423
0.086809315
-0.16313821
-0.13540816
0.120756805
0.028276594
-0.18380848
0.12868436
-0.07344808
-0.0032228075
0.075661495
-0.015006248
-0.011924625
0.21422423
0.12104573
0.084183075
-0.0599443
-0.035953294
-0.09345741
-0.093501866
-0.122606575
0.04769053
-0.24167745
-0.09271711
-0.09132759
-0.03199198
0.05104722
0.16946663
0.15500121
-0.14851673
0.07737025
0.20080039
0.042763125
0.14354613
-0.031577248
-0.037704248
-0.20563841
-0.0048333677
0.06882785
-0.030513622
0.1095739
0.13271768
-0.048371892
-0.10318614
-0.096030116
0.029455073
0.021039767
0.13302328
0.1198113
0.07738567
0.031279217
0.107201345
0.032318078
0.04630523
-0.09476516
-0.11457672
-0.109626226
-0.06632794
0.082326576
0.002805395
-0.0382536
0.11139889
-0.04745903
0.22046055
-0.09312486
-0.0067954403
-0.05675891
0.08606017
-0.1950317
-0.020081231
-0.113014944
-0.041944545
-0.04107236
0.041597713
-0.07300063
0.05928518
-0.14019568
-0.021555526
0.107315704
0.15195742
0.030400295
0.001951907
-0.111463055
0.15797704
-0.08223097
-0.15532894
-0.14135146
-0.057559945
0.06477057
0.08461877
-0.026857305
-0.04063247
0.037717607
0.019028079
0.040834393
-0.1557131
-0.029057028
0.12908305
-0.10540564
0.13269669
-0.039308123
0.053182174
-0.058438834
0.055252396
0.24222802
-0.03580885
0.08097661
0.020726107
0.001702221
0.029460702
-0.0934162
-0.007656355
0.074683875
0.14798161
0.043364424
-0.051804855
0.023075381
-0.036502674
0.013097887
0.062879555
0.04635446
-0.0027714213
-0.12442194
0.08386802
-0.13336425
0.14885384
-0.0016400827
0.09615417
0.06273907
-0.04417754
-0.09374865
0.035303187
-0.024432633
-0.040073194
-0.030327678
-0.0069387197
0.0044484776
0.049934633
0.010533588
-0.16748409
0.08794419
0.027832037
-0.018931007
0.04551759
-0.061038658
0.100199394
-0.057990365
-0.23311625
-0.10985003
0.12091776
-0.057359528
0.024554964
0.093410276
0.14784591
0.00051828515
-0.0046745753
-0.20621073
0.025216397
0.113681115
-0.08857091
0.15114805
-0.13034298
0.24212134
-0.089581676
0.018658768
0.043611307
0.085582666
0.09311111
0.06271983
-0.18693832
0.15147899
-0.06921636
-0.21535896
0.016597902
-0.1703754
0.05703941
-0.10019949
0.12815847
-0.020067893
-0.12221385
-0.093727246
0.13511877
0.1183039
-0.04990835
-0.054287117
0.035882648
-0.018321114
0.033895437
0.25548458
0.02582415
-0.097466215
0.15209755
0.21399419
-0.007438502
-0.010527451
0.15999563
-0.020043055
-0.06050398
-0.083141565
0.046197247
0.027598841
-0.25897953
-0.04236742
-0.011006673
0.05153664
-0.08046682
-0.15008228
-0.0046764957
-0.03153685
-0.11287386
-0.07488275
0.06131126
-0.104015864
0.11168123
0.08135797
-0.1454823
0.13481703
-0.07372486
0.032301214
0.24198352
0.015597448
-0.2060892
-0.04125085
-0.15336736
0.0105030835
-0.066663444
-0.06777224
0.056248542
-0.025727859
-0.008706499
0.16427901
-0.17152733
0.107544415
0.0926609
0.08949523
-0.053597614
0.015965099
0.024570571
-0.06583602
0.004547299
-0.0062530083
-0.04015535
0.23695739
-0.035451166
-0.016709002
-0.07400872
-0.051409453
-0.06984435
-0.11909794
-0.09520846
0.036366705
0.100438945
0.039376315
-0.037644185
-0.10374972
-0.09611559
0.038777843
0.16567782
0.104034975
-0.011303788
0.009626391
0.099880174
0.013482105
-0.042611875
0.02162396
-0.10413692
-0.09167713
0.014117538
0.11035035
-0.06362347
0.029304905
0.07188136
-0.017701982
0.112358354
0.023154417
-0.112256676
0.198456
-0.11602439
-0.088253886
0.09064704
-0.1414001
0.18898389
-0.03240407
0.1437358
-0.053284705
-0.23245826
-0.0480655
0.07987825
0.004726913
0.0047548013
-0.13689439
0.026059233
0.053238153
0.050078098
0.24187769
-0.1201868
-0.041906536
-0.05365726
-0.06189134
-0.1266185
-0.028509947
0.059843585
0.0052506076
0.1694746
0.017394967
0.18938205
0.026279885
0.032177433
0.14109288
0.0020338506
-0.085382774
-0.119617224
-0.024807611
0.040969208
-0.062044602
-0.07676792
-0.08944313
-0.051583037
-0.021284508
0.21529546
-0.11538125
0.076474376
0.065389596
0.12922922
-0.13401772
-0.07281349
-0.019432813
-0.00577185
-0.061589003
0.0950774
0.117631644
-0.12821847
-0.22180226
-0.0068275766
-0.07379816
0.017424589
0.13812159
0.27249458
0.08216502
-0.01650817
-0.011108226
-0.0351638
-0.102518596
-0.068928
-0.16116741
-0.013360575
-0.031204693
0.05268851
0.17587182
0.080739714
-0.038173094
-0.09894224
-0.11108242
0.11339759
0.013621421
0.006037781
-0.13013636
-0.09091888
0.062194243
-0.10631593
-0.09301169
-0.050898433
0.12437621
0.061173767
-0.11227869
-0.09147015
0.025402734
0.121310264
-0.17089088
0.1707987
0.10176042
-0.024011714
0.07942582
0.2591711
0.012053608
-0.068704
-0.008524964
0.1875551
0.017500164
0.036146402
-0.21982643
0.21916364
-0.062126596
-0.1411411
0.017677203
0.10138998
0.028677432
-0.08023034
0.18912162
0.1129571
0.10189071
0.11175066
0.03413908
0.12315006
-0.1651485
-0.12812473
0.0062624114
-0.061635204
0.025232684
0.020657204
0.08919474
0.043552283
-0.11175433
-0.03155904
0.13689396
-0.12718497
0.2719991
-0.04787909
0.026819479
-0.076081425
0.054900836
-0.13198534
0.06624761
0.070748724
0.123499766
-0.050175723
-0.23378411
-0.07479117
0.054014508
-0.13220395
-0.009938815
-0.023110235
0.13149396
0.045287497
0.12983036
-0.051307783
-0.0711868
0.020912863
-0.018387659
-0.06300087
0.07712703
-0.08046213
0.24116194
0.15687507
-0.07556766
-0.139906
-0.09187462
-0.19515578
-0.015206865
-0.019275608
0.019944549
-0.015391108
0.08186517
0.020203156
0.12782879
0.13397293
-0.1716915
-0.023011863
-0.10649197
0.02136841
-0.03907238
0.07436948
0.10662811
-0.10228294
0.012880595
0.049439456
0.031477425
0.006166356
0.051959824
0.08946279
0.084673874
0.18937106
0.03534926
0.050423626
0.041970063
0.13795301
-0.013177262
-0.034710873
0.038420122
-0.19735065
0.010261532
0.010092188
-0.09252782
0.113037586
-0.11081765
0.02087225
0.026514223
0.15162493
-0.1840752
0.045298103
-0.1379848
0.025291808
-0.1131687
0.09464356
-0.13032487
0.060435716
0.109069414
0.07131939
0.21972935
-0.05175398
0.008774867
0.019378096
-0.07256938
-0.0719184
-0.061649512
-0.1593065
-0.030965462
0.20630196
0.095159024
0.042418025
0.08332152
-0.038779147
-0.05403939
0.0062721856
0.034098
0.00370978
-0.12846762
0.00047666632
0.12431155
0.04091277
-0.27302235
0.08282068
0.0013156242
0.13198604
-0.06354069
-0.04098215
-0.12706004
0.019313037
0.02473598
0.090225525
0.19820979
0.039936304
-0.10826501
-0.049591083
-0.1760202
-0.19899324
0.13522603
-0.14120643
0.16763484
-0.10258263
-0.11443733
-0.107289955
-0.18832211
-0.1006596
0.10707162
-0.22204694
0.00028768036
-0.12129389
0.094468445
0.12294963
-0.0048428886
-0.16409042
0.012998332
0.02858351
0.06422134
0.089977026
-0.09527198
-0.0126131
-0.09261454
-0.09489488
-0.0846804
-0.052741945
-0.056750357
0.082785934
-0.091702685
-0.12742218
0.08142323
-0.108800754
-0.04667326
0.16001058
0.012952955
-0.18683772
-0.20506929
0.056822404
-0.022697503
0.10411816
0.1562338
0.13252544
0.1144192
-0.13641024
-0.1896404
0.044004053
0.076801434
0.16573009
0.04280347
0.028943287
0.18719739
0.07088177
0.031710785
0.083669566
-0.01876716
-0.16221635
0.1512959
-0.015295168
0.101481915
-0.2509792
0.010452295
0.06563082
-0.018882962
-0.0042921663
0.10452029
-0.09488391
0.061166912
0.028760105
-0.1076815
0.037913267
0.062165614
0.12689069
-0.015429379
0.15954939
-0.24242741
-0.10626524
-0.01779251
-0.026594637
-0.04255126
0.09562393
-0.022124644
-0.113128245
-0.04478487
0.055147182
-0.0034812517
-0.08720252
-0.28118843
-0.018783264
0.096036285
0.049611215
-0.05776404
0.018884113
0.01944171
-0.017936997
0.05221069
-0.10394331
0.06681786
-0.005244066
0.058536272
0.080010444
-0.17819919
-0.14302404
-0.031182617
-0.12084837
-0.036540028
-0.004899916
0.043360934
-0.11156052
-0.14978299
0.14366798
-0.01170951
0.15585634
0.1393099
0.049479693
-0.10647194
-0.072982445
0.009280281
0.09392312
0.1158894
0.08396333
-0.177536
-0.021160817
0.030179614
0.082696155
-0.11209373
0.107762635
0.0474247
0.07768701
0.03727532
0.008448466
-0.033088095
0.118781365
0.009009307
0.01751073
0.055118453
0.024541328
-0.0055468297
0.024752812
-0.27891505
-0.007183656
-0.15345046
0.21972325
-0.109464936
0.08090819
0.009688889
-0.1899558
-0.09614301
-0.05587555
-0.007293171
-0.045119856
-0.038568072
0.13877773
0.083217055
0.09144116
-0.024768833
-0.09291332
-0.04422473
-0.29112098
0.001199679
0.046876933
0.016422626
0.147096
0.022692882
-0.08964696
0.07812711
0.034913354
0.09228396
-0.05195867
0.006216539
-0.087581396
-0.16615042
-0.093786225
0.17514654
0.15731828
0.09421471
0.039733678
-0.05924069
0.023259318
0.08987587
0.14431806
-0.0586304
-0.04001007
-0.0657886
-0.011391898
-0.002270545
0.14106523
0.10786691
-0.027745964
0.086286426
0.014644368
-0.018557074
-0.026883101
-0.035879184
0.10534079
0.08819925
0.13987595
0.0068956227
0.14885485
0.11234891
-0.21002637
0.07644355
0.0009610568
-0.061436888
-0.13008304
0.040324453
0.013981246
-0.063463025
0.13435306
0.16022296
0.0823679
0.055492
-0.06234515
0.0015774007
0.025765257
0.013156131
0.04160305
0.02166098
-0.013924181
-0.032811455
0.06709979
-0.09473798
-0.04619352
0.032329075
0.023979384
0.014187503
-0.103647195
0.02327799
-0.1256519
0.024848362
0.11638312
0.13253537
0.0022640442
0.058216196
-0.014342563
0.022229318
-0.081997454
-0.14624783
0.032000475
0.107648484
0.004974658
-0.12655666
0.098506555
0.024233844
0.047478206
0.09384313
0.053058177
0.0910941
0.006690353
-0.103432745
0.16853835
-0.10352244
0.0077835354
0.101270385
0.061640162
0.057630904
-0.10856386
-0.06119808
-0.029405937
-0.2015267
-0.061683718
0.053619027
0.068160124
-0.055249747
0.05184857
-0.06255769
0.17199366
0.12140047
0.18265477
0.11544085
0.055767663
-0.051712506
-0.08882965
-0.08199166
0.011403503
-0.097109005
-0.14012326
0.20390466
-0.08928695
-0.049666677
-0.043130692
0.105844885
0.038213424
-0.06062466
0.021957202
0.04143722
-0.062457737
0.028044663
0.03101474
-0.11460452
-0.024283607
0.034232393
-0.16116655
-0.035515208
-0.03815827
0.10113512
-0.016182033
0.1538783
0.05784298
-0.076262586
0.19500346
0.07902493
-0.01930752
0.17522283
0.080207594
0.021795105
0.30399024
-0.19321534
0.15550628
-0.09865586
0.09376717
-0.03533759
0.040577184
0.042805545
-0.0435862
0.058673307
0.190066
-0.009049458
0.058193732
0.086010516
0.14564516
0.011602953
-0.11205482
0.015755229
-0.059869196
0.14955907
-0.0075655878
0.16143784
-0.101412125
0.16122021
0.018955985
-0.19185045
0.20373777
0.05885606
0.22553052
-0.18381114
-0.01364629
-0.034520213
-0.08601752
0.14889602
0.06251202
-0.03781058
-0.0073425714
0.10470181
0.13455148
0.040698685
0.087610655
-0.019298479
0.044380568
-0.12548986
-0.11133247
-0.12512885
0.10012942
0.15481775
0.10652943
0.05881863
0.17781362
-0.0005720683
-0.14413716
-0.030957617
0.020113645
0.0748062
0.1665718
-0.081210375
0.02079192
-0.026925547
0.09644088
0.03058877
-0.06372392
-0.016439779
-1.8636365e-05
0.007135298
0.06939668
0.07316511
-0.0344646
-0.057609785
0.024696657
-0.024997767
0.05707602
-0.014229572
-0.08009167
0.16137962
0.0012231251
-0.19396159
0.08854563
-0.049453117
-0.0059198984
0.10328812
0.029767342
0.1061963
0.03559162
0.04099435
-0.15116589
-0.0114086205
0.03880971
0.08223434
0.15987808
0.054768085
0.025817474
-0.04124051
0.13209075
-0.010659615
0.032889545
0.084957816
-0.21588309
-0.20774758
0.06776409
-0.003616115
-0.071374476
-0.006299181
0.010911231
0.09940264
0.07352001
-0.0038138987
-0.036609784
-0.0010629155
0.0052761463
-0.1554678
0.122895345
0.08999219
-0.09340466
-0.017356604
0.04882205
-0.13237432
0.09517787
0.043518435
-0.12238007
-0.09922411
-0.124973245
-0.006120799
0.0046941736
0.09519279
0.10145602
0.05114167
0.107569486
-0.06413057
-0.03560724
0.07131421
-0.09228584
0.07886455
-0.14382637
-0.11868286
-0.09631383
0.0687447
-0.0153451
0.0043346053
0.04826751
-0.1605668
-0.030333186
-0.022948347
0.15055004
-0.01009159
0.19121931
0.036714308
-0.019514112
-0.111977525
-0.0412601
-0.3170572
-0.039906204
0.046669014
-0.033246476
-0.002716953
0.093278326
-0.095414996
-0.023186147
0.10541052
-0.053439934
-0.032870434
-0.019535417
0.039607592
0.01147269
-0.0007295281
0.065610625
-0.058503464
0.010703405
-0.11577181
0.2020485
0.023267558
0.012977227
0.14099324
0.14910969
0.119633205
-0.06686484
-0.12816551
-0.05667374
0.0024970765
0.21789907
-0.0020497183
0.024226949
-0.027005864
-0.09600949
-0.070095256
0.011107879
0.11665055
0.016743155
-0.07984923
0.035150252
-0.04501768
-0.1638898
0.1373574
-0.03996019
-0.04227289
-0.032165237
-0.017127153
-0.06746186
-0.038279966
0.054050416
0.053985324
0.26503345
0.0734148
0.016008137
-0.12543648
-0.07796367
-0.0347567
-0.10444984
0.08602744
-0.056054913
0.009338104
0.023276567
-0.0583692
0.06833268
-0.097951844
0.10944278
0.08403317
-0.21968056
0.032260537
0.117027186
0.12744847
-0.09952265
-0.14699014
0.014170917
-0.14585863
0.050698787
0.06869293
0.10667178
-0.004082224
0.18465991
-0.076963924
0.09565822
-0.08425825
-0.015443021
-0.048484292
0.16968684
-0.004659698
-0.076961495
0.05876522
-0.037838627
-0.12234518
-0.07029089
0.0017687562
-0.121774144
-0.10972304
-0.04042156
0.05643098
0.077129014
-0.21963726
-0.06932089
0.012161157
-0.056247883
0.1388673
0.07760319
-0.08260077
0.1059001
0.061350513
0.037569907
-0.17522594
0.01255366
-0.026791459
-0.07626956
0.11810079
0.061082378
-0.0060468456
-0.13176142
-0.07541585
-0.07547816
-0.09447364
0.115185775
-0.027387997
0.0029830367
0.03747172
0.08089346
-0.057434537
0.12255183
0.07452607
0.038610302
0.013555908
0.24424933
-0.1937567
-0.03908325
0.07639937
0.018101651
-0.12808612
-0.015728127
-0.13643715
-0.10175971
-0.11231845
-0.024551256
0.10156136
-0.015169851
0.13814881
-0.18958826
-0.033811975
0.08791943
-0.15976973
-0.010064992
-0.10649138
-0.0001659963
0.12615499
-0.081878036
0.03935475
0.044358388
-0.14949165
-0.087589644
0.16889492
0.025570165
-0.07242997
-0.18774348
0.020616744
-0.035648566
-0.0054326323
0.095759474
-0.04915292
0.068959594
0.23097225
-0.08430311
0.06614388
0.08125989
0.11020218
0.06814675
-0.011695614
0.060989436
0.08113167
-0.058554206
0.104521535
0.0031331186
0.04381932
-0.018231954
-0.083616935
-0.07003439
-0.047087446
0.12462604
-0.16106601
0.069346756
-0.008293012
-0.035540845
-0.020838125
-0.030934557
0.14529338
0.07053883
0.030961169
0.16225603
-0.15631478
-0.03915695
-0.08672551
-0.039581727
0.06560942
0.061440118
0.2184659
-0.051551964
0.11630386
0.045174435
0.069882475
-0.018810878
-0.11649885
0.023029491
-0.017420873
-0.009974375
0.123575516
-0.09305128
-0.07187766
0.07210056
-0.0883434
0.034801044
-0.020085862
-0.08841965
-0.16982546
0.015385669
-0.094956346
0.07184014
-0.024418104
0.04089064
0.00053412316
-0.022108208
0.12794085
-0.07951642
0.062470596
-0.04421622
0.06235786
0.15149759
0.059413113
-0.05266949
-0.055355247
-0.14823763
-0.11322205
-0.061303977
-0.0128334835
-0.16670457
-0.12504849
0.10617704
0.07751175
-0.05803451
0.11785016
-0.06725702
-0.041405637
0.019235097
0.24470444
-0.012620981
0.23265927
0.10022364
-0.026316423
0.105942756
-0.001129715
-0.019997973
0.040035248
0.20982666
-0.0040142117
0.17203423
0.055602394
0.07429666
-0.14712618
0.00021030492
-0.15751725
-0.05225612
-0.034593057
0.010531648
0.062154457
0.1864765
-0.022458868
-0.012401542
0.022996118
-0.002549638
0.03710445
-0.3129679
-0.028178032
0.16069958
0.031799216
-0.042628605
0.024735676
0.020126758
0.1639907
-0.03658478
0.043600347
-0.01812665
0.030891487
-0.036305226
-0.03643463
0.09473705
0.0900757
0.10781069
0.057948925
0.016695954
-0.11154265
-0.13395992
0.01122467
-0.040349614
0.01933357
0.1142699
-0.10183914
0.055126663
0.018734401
-0.005514533
0.079336464
-0.05402848
0.04886635
-0.08623094
-0.009063377
-0.07264503
-0.13478112
0.03793469
0.07802747
0.11317028
-0.067801744
-0.18003394
-0.18837416
0.0365428
0.08898341
-0.2034298
-0.1483251
0.046630885
0.16764438
-0.031867232
0.04464767
0.06418393
0.16692777
-0.09267053
0.06498536
-0.062433854
0.054413997
0.10951344
0.045449167
-0.0638069
0.13168688
0.09941043
0.07714102
0.058036324
0.101330146
-0.041034654
-0.17699122
0.12868717
0.14370146
-0.12458185
-0.10038122
0.09965914
0.01627683
0.04769702
0.10966697
-0.040842425
-0.1707003
-0.012215227
0.02393584
-0.055961218
0.019928202
0.0243728
0.044368245
0.04032124
0.124229014
-0.041511044
0.0002787517
-0.042680074
-0.16800182
0.05684521
-0.14314915
0.09919664
0.019936549
-0.037714593
-0.0011234783
-0.00080801203
0.16396992
0.09756423
0.12519222
0.2228508
-0.028477237
0.10971496
-0.01664044
-0.11950783
0.078244455
-0.13716428
-0.015081991
0.03583328
0.07810641
-0.012820283
0.013429913
-0.05284052
0.15252241
0.07432032
-0.09694539
0.019931296
-0.0019212724
-0.10991633
-0.015695035
-0.20216268
-0.037317004
0.1477465
-0.1566635
-0.18992215
0.14555992
0.06319757
-0.1419491
-0.0026423375
0.056861673
-0.2878195
-0.04773127
0.04105732
0.1470576
-0.03300639
-0.00859604
0.06130136
-0.123886146
0.067905426
-0.060088374
-0.17693348
-0.094850495
0.21365479
0.06385898
0.035491798
0.07661516
0.20151079
-0.20954904
0.027122369
-0.014751269
-0.16584285
0.0844122
0.13634895
0.120331705
-0.12829602
0.14647609
0.09522285
0.039313607
0.10293886
-0.085995235
0.04825059
-0.04578836
0.0061229574
0.003076694
-0.20832635
0.19774956
0.08059721
0.12037954
-0.097525895
-0.0024022837
0.08977579
-0.10726381
-0.01309873
-0.098099954
-0.12353156
0.07628213
0.0818224
0.1846733
0.025677854
0.0038460044
0.16626483
-0.071037166
-0.026403919
-0.14919415
0.06356496
0.108175755
-0.05624261
0.07870114
0.020584192
-0.04995365
-0.2612935
0.065729156
0.07418564
-0.045752436
-0.066332735
-0.045013618
-0.10812967
0.09182947
0.05324292
0.067583725
-0.06199845
-0.04374806
-0.11272411
0.069577314
-0.08124664
0.14599884
0.10342348
-0.021820448
0.03553835
0.04450432
-0.06581039
0.025830561
-0.060466252
-0.13263097
-0.04891828
0.056322314
-0.12084174
0.114991255
-0.03801292
0.07050702
-0.014340107
-0.076696284
-0.0977407
-0.035976484
0.006291421
0.004370005
0.03509455
0.11809583
-0.122779846
0.15674947
-0.07900251
-0.090722926
0.08249856
0.046714384
0.07365548
-0.051113583
-0.040903907
0.13729775
0.12938663
-0.054897364
0.041300774
0.07684917
-0.11171224
-0.13856693
0.023988277
-0.17891939
-0.055427827
0.07293566
-0.121468395
0.01687877
-0.14328897
-0.038511842
0.043394584
-0.041266583
0.18797259
0.06138157
0.027874472
-0.08907996
0.1048734
-0.07493401
0.04926753
-0.08047255
0.037106164
0.060772188
0.04659345
-0.08019934
0.21839996
0.1267897
0.06134436
-0.02174469
-0.17662066
-0.07629329
0.071641676
-0.012750132
-0.07556889
0.20574659
0.11835881
-0.17463739
0.10447277
-0.01649186
0.09111033
-0.039788347
0.02136399
-0.072144516
-0.086489275
-0.07483041
-0.12782034
-0.09711711
-0.06364857
0.0136088235
0.17977287
0.107700475
0.10342609
0.025656467
0.021678597
-0.1738167
0.20770128
0.052313287
0.029413471
-0.08671693
-0.10752568
0.017747162
-0.06378158
0.0011311778
-0.08386343
0.06783187
0.11464105
0.02224683
-0.09975977
-0.1056139
-0.17257884
-0.08885621
0.03165253
-0.011790592
-0.22807215
-0.16434927
0.026116703
-0.18407257
-0.011359219
0.0824219
-0.19006243
-0.004279107
0.04969295
-0.17230526
0.05718964
-0.014060769
0.037708446
-0.026388844
-0.14727275
0.18420886
0.194372
-0.03229485
0.16730036
0.050304923
0.02931
-0.022609858
-0.03776163
0.06054591
-0.047111154
0.04438582
0.11101621
-0.16167544
-0.12720156
0.0036729735
0.097252905
0.033730693
-0.13982695
0.023668045
-0.16392566
-0.12632608
0.04011888
-0.056072026
-0.0023436705
-0.056695286
0.16054142
-0.15685342
0.010499167
0.039302163
-0.06155623
0.039283723
0.19877803
-0.06273641
-0.017441537
-0.07040888
-0.13985696
0.07007399
0.11737029
-0.11152226
-0.027883044
0.010542087
0.07673892
0.00037665755
0.017235488
-0.02860246
0.016031185
0.06473233
-0.04578472
-0.03701037
-0.07931656
0.082804166
0.06603263
0.10667352
0.01077594
0.10526242
-0.08532163
-0.074679464
-0.058277354
0.0022533662
0.046310123
0.039411727
-0.097793095
0.054927304
0.12747154
-0.050197728
-0.10779113
-0.029900635
-0.009015214
0.03696519
-0.037885092
0.07452181
0.14967707
0.05991453
-0.07252559
0.05098769
0.12506196
0.09676281
0.04014998
-0.04966337
0.058690634
0.124529205
0.06285164
-0.0049114823
-0.024192719
0.15926492
-0.16381831
-0.0907449
-0.035785463
-0.044729427
-0.048418924
0.011437228
-0.15186661
-0.110702306
-0.07521874
0.07694258
0.10812357
0.06138483
0.061035104
0.060618933
0.046545826
-0.0747197
0.06857207
0.11151247
-0.03497561
-0.16218199
-0.0029296577
-0.08925926
-0.06509699
-0.19449413
-0.1511382
0.0525562
0.13146986
-0.0075443545
0.08585672
0.0003970569
0.0003486464
0.10665034
0.036286443
-0.051830277
0.065701336
-0.17873785
-0.06265959
-0.19576588
0.16614361
0.13321823
-0.061654154
-0.029518053
0.047685344
-0.0024400135
-0.08196162
0.0698987
-0.0060365205
-0.0029828353
0.13709782
0.02860679
-0.018719956
0.04268539
0.065189004
0.034363374
-0.13147269
0.2186034
-0.08385063
-0.09333174
-0.02968985
0.0065892125
0.07452212
0.023262635
0.1626832
0.049657624
-0.060822576
0.16103482
0.07334363
0.09916025
0.078790106
-0.06723441
0.054006387
0.08975865
-0.01947709
-0.055884074
-0.16963173
0.038730416
-0.2168775
-0.08039759
-0.13923496
-0.108984284
0.0041740993
-0.000650862
0.0880586
0.095773935
0.074754395
0.17221114
0.23034045
-0.07397485
-0.021918204
-0.005646766
0.22222313
-0.03496681
-0.047634166
-0.13023163
-0.07071122
0.06556572
0.10323459
-0.09243937
-0.017349953
0.092430994
-0.07666684
-0.10728255
0.051149447
0.035905898
0.037485644
0.074367136
-0.08439073
-0.14898902
0.009659682
0.07335785
-0.06360371
-0.040259723
0.056928657
-0.014305685
0.06286716
-0.22278188
-0.17957897
-0.054178186
-0.01391039
-0.14353557
0.09290989
-0.085498415
0.15411301
-0.11889844
-0.06323391
0.019771973
-0.005008269
-0.021925574
-0.11106042
-0.20106615
0.05246323
0.07591833
-0.15402178
-0.06960099
0.0160699
0.04731288
0.010442811
0.0053683794
-0.18332562
0.05597639
0.047526352
-0.16058323
-0.042350713
0.074209414
0.07546397
0.022641918
-0.03757018
0.017008469
0.058106758
0.03236923
-0.087718174
-0.24500893
0.1340677
-0.12523985
0.05361731
0.121131554
-0.16654794
0.088518724
0.0004652625
-0.0661299
0.17833994
0.1728037
-0.028757492
-0.06707485
0.10122002
0.1053539
-0.2699506
0.25467893
0.14228596
-0.027737323
-0.09844383
0.015926251
-0.20479776
-0.06492749
-0.04755473
-0.02629379
-0.0193755
0.09533316
0.15321201
0.13884579
0.07560527
-0.18958801
-0.017926421
0.017554391
0.0016524625
0.04165396
-0.020104753
-0.012374934
0.124786764
0.15912692
0.038656574
-0.081630476
-0.0055486863
-0.14047293
0.21346846
0.0987002
-0.12718011
0.23223226
-0.065323085
0.03926912
-0.008683488
-0.0013621893
0.029648446
-0.06410742
0.028367387
0.1599868
0.018795563
-0.10088337
-0.13133034
0.09878454
0.009954184
-0.011888279
0.12168733
-0.037156835
-0.021052318
0.08940359
-0.01207737
-0.23862612
0.10331269
-0.09912119
-0.09460088
-0.04719089
0.22168781
-0.086583756
0.041951705
0.06614785
0.18720697
-0.046522554
-0.06102787
0.079848655
0.016821587
0.031736538
0.17991374
-0.12612407
-0.14521177
0.029148024
-0.09511905
-0.10726966
-0.09288182
0.01653109
-0.061081503
0.037343163
-0.07909655
0.12846224
0.022256104
-0.1160626
-0.089310594
-0.09037561
-0.25813892
0.05519408
0.02112045
0.075420044
-0.06803825
-0.19932424
-0.15056232
-0.061908677
-0.03608729
-0.0008927158
0.0008707592
0.06261416
0.03759584
0.12181321
0.0045743235
0.047483873
-0.009477521
0.22322404
-0.066823155
-0.058714174
0.120835505
-0.098025195
0.09145276
-0.008318151
-0.08825701
-0.058118045
0.0076188836
-0.026496463
0.11592897
0.057219848
-0.048533056
-0.051375072
0.062067308
0.15696761
0.14978935
0.07859647
0.19170952
0.21870425
0.18815547
0.052725952
0.08322265
-0.0811537
-0.07659742
-0.07324999
0.12521252
0.18766013
-0.1643925
-0.0061279233
-0.0031425664
-0.08653354
0.028779568
0.08357232
-0.0022105828
0.24481066
-0.018425647
0.07051042
-0.03348807
0.023113845
0.08819552
0.11591121
-0.03117783
0.091923036
0.21063453
0.09944834
-0.06380695
0.03531957
-0.1086162
-0.012626602
0.030295195
-0.07578526
0.06519778
-0.063128136
-0.05353755
0.045037974
0.014133354
-0.06852114
-0.007001462
0.08745057
-0.017916188
0.09406419
0.12858115
-0.16295296
0.075332254
-0.0036474962
0.08522676
0.123208724
-0.08206562
0.023561405
0.12896012
-0.08825606
-0.046473984
0.13213424
0.03573454
-0.027342498
0.11781271
0.046683263
0.15118556
0.04047718
-0.08595709
0.118109845
0.18034175
-0.0029335395
0.025200197
-0.14619064
-0.12258476
-0.065875046
0.010820075
-0.18810558
0.17738837
0.037772827
0.012629068
0.16937605
0.118809834
-0.11500049
-0.07806094
-0.04101821
-0.10328043
-0.028324498
-0.09904434
-0.07009011
-0.16143182
-0.32884702
-0.021222258
0.1723907
0.02098713
-0.060506094
-0.07739051
0.094456896
-0.0133122895
0.094404
0.0034611302
0.13646396
0.19778457
-0.014342577
-0.029382812
-0.21314032
-0.029885318
0.026138918
0.15174499
0.09353249
0.1730117
-0.2759827
-0.11352774
-0.07728239
0.11674958
-0.20355844
0.0045443135
0.00073417893
0.13377596
-0.022888295
0.017286826
0.19203773
-0.122147724
-0.09098301
0.01655158
0.10792246
-0.085309915
0.026899045
-0.04493085
-0.07039558
0.029142682
0.066195086
0.08381151
0.097567976
0.16120459
-0.067025505
-0.0034044108
0.027023505
-0.02894277
-0.048711464
0.06807664
-0.06045548
0.10588132
-0.007988685
-0.19335712
0.06726298
0.059072092
-0.09972293
-0.004833679
-0.16167678
0.01625888
-0.010114295
0.06231398
0.03492913
0.0807926
0.11285067
-0.069405705
0.03741963
0.035824284
-0.02565049
0.03790594
0.17108712
0.09037219
0.13358207
0.030544432
-0.11938133
0.14887887
0.03922203
-0.08922328
0.05646938
0.1440798
0.1228091
-0.1800167
-0.15973073
0.056763936
-0.0035643145
-0.085793205
0.015480735
0.07913316
-0.08543952
-0.0594704
-0.2523429
0.17261203
0.023007749
-0.09236318
-0.099301666
0.15325785
0.021060314
0.13171963
0.054446433
0.0018616164
-0.068527974
-0.1101586
0.041523006
0.014022414
0.12084178
0.2136526
-0.022599641
-0.04356443
0.07946502
0.13646291
0.10344047
-0.021327056
0.015559286
-0.20447056
-0.06360619
-0.18617086
0.14821255
0.01055549
-0.23315121
0.093412526
0.066069126
-0.0038904601
0.24015479
0.118664905
0.12063148
0.078210615
-0.005973712
0.029048393
0.043317202
0.070779905
0.052927025
0.10206973
0.13864166
0.13019238
-0.1936536
0.21319696
-0.14815797
0.14374843
0.07807746
0.115857236
-0.077844575
-0.09188962
0.166422
0.040872976
-0.049787186
-0.03723215
-0.079736434
0.119483694
0.18940906
-0.15885712
0.017868942
0.00083100284
0.13152726
0.012880861
0.095371574
-0.14965504
0.06625357
-0.018027078
-0.05868615
-0.06376986
0.094468944
-0.017638512
-0.18917675
-0.10006
-0.1664941
-0.028228272
0.0041181576
0.012285631
0.042083368
0.12339133
0.16827834
-0.020333877
-0.15129605
0.020530405
0.008226009
0.08484885
-0.097458676
0.063524805
-0.13096434
0.054570735
-0.03822376
0.079079024
-0.07847312
-0.06378611
0.077743895
0.01523363
0.08173953
0.03293989
-0.023588948
0.01606695
0.13868724
-0.13561073
0.18431285
0.031798583
0.07316226
-0.060970407
0.12704258
-0.1311513
-0.15148063
0.15529086
0.021128714
-0.17318472
0.24643122
-0.01425247
-0.1309298
0.0066006035
0.08437148
0.0040650335
0.03289768
0.0108304545
0.11689171
-0.10246824
-0.05284272
-0.16351591
-0.09526853
-0.05020694
-0.11192123
0.088747375
0.028490156
0.040001635
-0.09252589
-0.18854257
-0.069199786
0.12892647
-0.0630928
-0.13877426
0.13270277
0.08670373
-0.029321302
0.042525776
0.057147
0.0203154
-0.026624126
0.061855264
-0.10325091
-0.004570691
0.026617588
-0.05529897
-0.051901683
-0.11942092
0.03094209
-0.01557648
-0.11537341
0.18700434
-0.008894121
-0.014799434
-0.11226463
-0.004792826
0.14150076
0.098772906
-0.098312944
-0.019462613
0.055030838
0.06671407
0.027535044
0.064451195
-0.089746594
-0.092783906
-0.139958
0.018881291
0.012659614
0.07989672
-0.13094836
0.068856716
-0.00981481
0.05132158
-0.08276269
0.048417233
0.13460654
0.1389756
0.23919249
0.08231367
-0.01797799
-0.120186456
0.08795128
-0.17590663
0.031159831
-0.07484641
-0.024217008
-0.09329984
0.07180031
0.034557514
0.026458852
-0.122509405
-0.064308055
-0.03488216
0.033738162
0.036763366
-0.005512125
0.026052559
0.048552282
0.10000277
0.008412238
-0.08485214
-0.016480252
0.04129451
-0.11682549
0.13249831
0.0897492
0.1693996
0.10033786
-0.052231666
-0.10939959
0.13718405
0.03270411
-0.12017704
-0.025749924
0.05761083
-0.02190444
0.11060468
-0.034090053
0.05828508
0.0801607
-0.11156939
-0.14985296
0.18466069
0.21289733
-0.03241165
-0.11552541
-0.011166231
0.06890384
0.11345302
-0.027138669
0.024980457
0.012731988
-0.21030585
-0.06619956
0.074452735
-0.06488841
-0.28579512
0.04547463
0.22550856
-0.022318894
-0.117249474
-0.15669058
0.03657205
-0.003707074
0.25131682
-0.19750609
-0.16305749
-0.041277673
-0.08148293
0.098348476
-0.07523549
-0.01927651
-0.19823147
-0.04286726
0.031195866
-0.020539267
-0.0068671443
-0.110135615
0.12269799
-0.09287084
-0.087335765
-0.025294092
0.13525216
-0.062323824
0.23439965
-0.0471953
-0.16698466
-0.06208208
-0.079080485
-0.024811154
0.04189712
-0.10073008
-0.0242315
0.026764233
0.07417735
0.18916659
-0.045283914
0.002360884
-0.026266742
0.14595589
0.0020061587
0.06536958
-0.098726176
-0.19807269
0.04388809
0.010143804
0.16471732
-0.064475425
-0.01925024
0.0077117356
-0.059317987
-0.041930176
-0.12359374
-0.16184664
-0.11117744
0.05272559
-0.09472094
0.058600787
0.2080011
-0.09516098
-0.04090442
0.019574795
-0.09989961
0.13291694
0.06041463
-0.15281495
-0.04654935
0.06457387
-0.12925565
-0.119839735
-0.17831723
0.15681341
-0.00079587026
0.21203546
-0.091881156
-0.10733714
-0.07042248
-0.034871783
-0.17168961
-0.066325724
0.11996588
0.04653321
-0.10329575
0.032512113
-0.03730502
-0.004729864
0.032924157
0.020885715
0.061344832
0.017547315
-0.040547814
0.086070605
0.15313953
0.1058548
-0.051360417
-0.17114644
0.05329111
0.12978382
-0.16772042
0.12955546
-0.079290934
-0.121011965
-0.14526701
0.08356337
0.12804578
-0.018330636
0.13793996
0.18053016
-0.0062862616
-0.06362898
-0.038112845
0.124397546
-0.05771664
0.026966684
0.04054173
-0.028142134
0.038780298
0.1826028
0.0005649097
-0.122255
0.061318133
0.05279271
0.11057679
-0.02570501
-0.15564515
0.061598472
0.09096593
-0.06982681
-0.018238349
0.099854186
0.033953656
0.04051576
0.07054974
0.06762808
0.06106285
0.027524943
0.023598481
0.11066644
-0.2017
-0.23355123
-0.031234361
0.07687576
0.012113447
-0.081282094
-0.049059566
-0.0192351
0.017093144
0.11662695
0.030967752
-0.048403617
-0.06844132
0.1477431
0.08068442
0.09321649
0.0952488
0.031402845
-0.054477435
-0.15848176
-0.036974538
-0.117191404
0.034020945
0.16222246
0.0133109465
-0.046033792
-0.019786641
-0.07748711
-0.018839335
-0.08842594
-0.019559253
-0.054567937
0.11095672
0.0044182176
0.26715264
-0.089682594
0.015545317
-0.034882583
0.08122385
0.036847144
-0.17554791
0.047507796
0.048671458
0.016807228
-0.10743309
-0.0044452236
0.05580702
0.0656055
-0.08388554
0.107609324
0.09942471
0.031194327
-0.070247956
0.029695585
0.12044394
0.106930554
-0.010574363
0.054896705
-0.083684966
0.12361252
-0.13713253
0.058473893
-0.047571983
-0.003865413
0.08562959
-0.058776323
0.03463954
-0.004155259
-0.08419025
-0.091392845
0.089120656
-0.018881263
-0.11107742
0.113846265
0.11255164
0.040953718
-0.022747245
0.13540527
-0.01182241
-0.12074927
-0.18166764
0.0396427
0.1146926
-0.017645542
-0.104852594
-0.01882906
-0.065202564
0.00026018367
0.04347599
-0.034298852
0.039228477
-0.08066918
-0.025530655
-0.082953155
0.017121194
0.13299006
-0.23560493
-0.16025367
-0.03234709
-0.13940153
-0.07766344
0.055219978
-0.06432555
-0.045260713
-0.03813966
0.15792413
-0.0077219214
0.11562757
-0.034750037
-0.018101454
0.0073221433
-0.13805486
-0.11008875
0.09889849
0.13471687
0.048094876
-0.047737136
0.16322504
-0.15037216
-0.036253847
0.044403482
-0.05458886
0.024138799
-0.10215793
0.1821582
0.04696748
0.15715024
0.012862768
-0.13562235
-0.14174591
-0.04515477
-0.068465546
0.0026118956
0.018485816
0.038285576
0.0012761628
-0.06419797
-0.08232599
-0.08819314
-0.004408006
0.11570491
-0.031311147
-0.060182676
-0.09853477
-0.19233859
0.10901405
0.085096836
-0.0038968013
-0.06647255
0.09855529
0.06280647
-0.07027218
0.023099674
0.17941315
0.03207796
0.004785259
-0.0063098203
-0.114144616
-0.07843583
0.010299011
0.0871989
0.128948
0.08036088
-0.14988127
0.15084079
0.0845676
0.04316298
-0.19228274
-0.08854996
-0.12536167
-0.08915696
0.03707586
-0.06728323
0.017735438
-0.080820106
0.06146069
0.084381215
0.089447685
0.03829569
0.1276789
-0.07741686
0.0365454
-0.048524506
0.032070372
-0.04613266
-0.0065174014
0.09441638
0.018179907
0.038738
-0.05426522
0.02945282
0.122417435
0.058525026
-0.17843412
0.027946958
-0.017476656
-0.18011062
0.013513485
-0.09748307
-0.1407787
-0.08713802
0.12444319
-0.0025606262
-0.23107797
-0.007036855
0.109073095
-0.18227875
0.12128813
0.0016872397
0.086682506
-0.19364278
0.011858074
0.11306522
0.004828764
-0.06280579
-0.019068887
-0.03219492
0.091714844
-0.03252541
-0.14775048
-0.24582425
0.20397419
0.06960509
-0.05059471
0.1352203
-0.067381635
0.03614166
-0.004403496
0.18506533
-0.034708023
0.042706694
-0.14067589
-0.020408312
-0.10143411
0.020806778
-0.04401182
0.07316491
-0.07250445
-0.020904243
0.002502471
0.12500356
0.050955165
-0.18401921
-0.05210659
0.10150445
-0.100208074
-0.03680455
0.010739594
0.047479566
-0.08592295
-0.17025232
-0.08906396
-0.0076353685
0.022153491
0.003917611
-0.11024535
-0.10321776
-0.14865161
-0.01500233
0.15469277
0.041125875
-0.08534432
-0.040778086
0.088191755
-0.13170004
-0.09529512
-0.14384966
-0.022274867
0.040912915
0.09785078
-0.12424269
0.18800355
-0.19641136
-0.09291645
0.032832384
-0.052014593
0.1388739
0.10672452
-0.03254088
0.07475737
0.19845581
0.09946872
-0.014349943
-0.08490132
0.059093334
0.11966686
0.08647593
0.019390367
0.082989275
-0.17979221
0.07355399
-0.23682569
-0.059942506
-0.20963146
0.082809284
-0.0054951976
-0.020279177
0.009578136
0.17143056
0.08177971
0.03783475
0.24695142
-0.07890471
0.12250287
0.13961953
0.07448221
0.0738969
-0.10840341
-0.15293369
-0.024372675
0.06261922
0.07625961
0.09026652
0.15882264
-0.15523612
0.025472831
0.0180608
-0.03504254
0.011587791
-0.08276418
0.17246632
-0.22369246
-0.14754155
0.12998179
0.0027752353
0.019209443
-0.07650078
-0.2435233
-0.05162952
0.12722023
0.050589252
0.048813134
-0.18608584
-0.17777754
-0.008961066
0.05609583
-0.110253595
0.112232625
-0.12011682
-0.09778971
0.101931386
0.03051559
0.04242093
0.093342826
0.09549252
0.17396857
0.26702335
-0.06343243
-0.057176165
-0.01786264
0.10328445
0.15734419
0.018402044
0.11668765
-0.05514888
0.0026826053
0.12351511
-0.026755292
0.051303335
0.014318933
-0.09690586
-0.026424335
0.10953062
-0.014522741
0.04130642
0.08544293
-0.058489833
0.08051078
-0.089392036
0.048165597
0.09499822
0.2667877
-0.20141964
-0.032223724
-0.07172843
0.036011524
0.024625553
-0.18534029
0.021901282
0.12731726
0.11231076
-0.20041257
-0.07695103
-0.084250934
0.034314703
-0.040673424
0.06068883
0.07430439
0.0056841555
0.12007698
0.06216199
-0.08468422
0.11990993
0.08212144
-0.0384699
0.0962235
-0.07358936
-0.2335194
0.020014891
0.09108333
-0.016333587
-0.062662855
0.12810506
-0.042535465
0.05610931
-0.22231211
-0.1182248
-0.08941504
-0.1421415
0.03668848
-0.08361814
0.05894661
-0.101206824
0.007829161
-0.18845704
-0.030025333
0.067041665
-0.07189651
0.12785074
0.090062805
-0.0015811804
-0.06950685
0.033463866
-0.073533244
0.0490803
0.07045022
-0.014182311
0.065776646
0.059422705
-0.07592364
-0.012357498
-0.022845453
-0.09817269
-0.0326037
-0.011322064
-0.25892964
-0.14950003
-0.11246157
0.16152038
0.041050352
0.054973148
-0.23073444
0.118202984
-0.030596131
0.11022788
0.06001353
-0.10862638
-0.020684976
0.074310005
-0.020240953
0.07318772
-0.0048605613
-0.056535244
-0.04303762
0.03327348
0.074492075
0.046887055
0.05965671
0.008178137
-0.020584866
0.05200563
-0.014075144
0.09220801
-0.103792906
0.0746498
-0.03785016
0.013208673
-0.04941994
-0.0865513
0.048645712
0.04351526
-0.073808745
0.0647599
0.14612196
-0.08640498
0.15976451
-0.002531952
0.22414514
-0.09289414
0.01394969
-0.17068136
0.032693036
0.06967331
0.027766526
-0.098213136
-0.041911256
0.029859718
0.00054609345
-0.0537921
-0.015227621
0.03980444
-0.15926665
-0.11573688
0.17063145
-0.01117202
0.040560514
-0.08423842
0.09565908
0.19134058
0.01429773
-0.14402156
0.2027461
0.22745842
-0.023378478
-0.05796468
0.17503445
-0.009052347
0.05168264
0.14482093
-0.10738131
0.03770928
0.0135241
0.27329326
-0.04753902
-0.096000776
-0.240964
0.024143893
-0.033763666
0.078151755
-0.085368276
0.00709846
-0.1262279
-0.053574484
0.04729387
0.020259893
-0.21697699
-0.028996116
-0.07735343
0.04048331
-0.18791413
-0.08824797
-0.11657197
-0.0017845493
-0.13149522
-0.07918651
0.01193353
-0.07314096
-0.07659125
0.15825829
-0.059283994
0.24632943
-0.043728597
-0.059484355
-0.024622211
0.075504676
-0.007973997
0.10053851
0.016984943
0.084339604
0.029833926
0.06610069
0.0702299
-0.078016505
-0.05393654
-0.016949661
-0.05444155
0.11084208
0.06662758
-0.048810698
-0.07888487
-0.050594896
-0.089175545
-0.07967137
-0.039404474
-0.012660465
0.009383897
0.07661989
0.12959163
-0.09303435
-0.011960881
-0.14438742
-0.0083872145
0.023073358
0.069514126
0.00045018733
0.12669809
-0.031888235
-0.032504786
0.017557722
0.06620421
0.17596553
-0.013438865
0.015147891
-0.048443366
-0.035171688
-0.14222859
0.06669525
-0.004236724
0.073767796
-0.11295689
-0.016072674
-0.048104916
-0.023824345
-0.04715117
-0.008687889
0.13211805
-0.025326367
-0.021746602
-0.07058572
0.0129516395
-0.064947434
-0.008373966
-0.0005586106
0.017834974
-0.11627841
-0.11624856
-0.096576124
0.02355047
0.07452391
-0.104425125
0.09831066
0.057032626
-0.031879667
-0.04057947
-0.11119892
-0.033548474
-0.116221376
0.13439208
-0.11554495
-0.080711566
-0.09509767
0.041955903
0.04406271
0.122360736
0.071029946
-0.014584749
-0.1280877
-0.0032290716
0.18027836
-0.028288687
0.052387185
-0.04177529
0.038766284
0.183566
0.043370117
-0.030014765
0.08611145
-0.019380853
0.0932335
-0.072204314
-0.18189844
0.16011651
-0.04000358
0.1878523
0.011783242
-0.018606778
0.10765396
0.013622134
0.06194596
0.10112572
-0.056166165
-0.029947719
-0.00030375327
-0.21674865
0.08301434
-0.055358294
0.057567272
0.037147764
0.07456056
-0.07215045
0.0129090715
-0.057485454
-0.012126139
0.07456796
0.27006945
0.19046049
0.015690038
0.17853649
0.21191958
-0.03968342
-0.20697755
-0.0071296995
0.12979595
0.10112895
0.07049494
-0.068041146
0.07195531
-0.079095244
-0.03750373
-0.11134237
0.1736
0.089742444
-0.27072257
0.053086136
0.018143483
-0.18318497
-0.029163396
0.014139023
-0.04981263
-0.14442673
0.2666024
0.025924902
0.10161208
-0.02112292
-0.18319346
-0.08743519
-0.013635744
0.0819739
-0.04692832
-0.084576435
0.016334904
0.014435991
-0.004743795
-0.20237021
-0.21487428
-0.013840881
-0.05745935
0.037366055
-0.096798144
0.022652565
-0.03891018
-0.049897674
-0.05743919
0.09575102
0.0016642446
-0.050902817
-0.08416928
-0.043600503
-0.20983279
0.06221306
0.12560615
0.11594691
0.055999134
-0.19393295
-0.15845607
0.1890386
0.091329165
0.0071492773
0.05049198
-0.08500191
-0.0687813
-0.101132475
-0.069642335
0.05493654
0.057631657
-0.20081824
0.06332841
0.13870482
-0.0063173557
-0.008190441
0.073463105
-0.0028392558
0.10074334
0.02716552
-0.12450284
-0.084556185
-0.05181289
0.023025349
-0.19179182
-0.17828196
0.021945246
0.10974662
0.04747368
-0.09913142
-0.14307353
-0.06384041
0.10767199
0.087547205
0.023006262
-0.04489269
0.20643517
0.07922494
0.15825489
-0.15218057
-0.09806144
0.044887546
-0.0063603106
-0.048873033
0.057642948
0.0014841128
-0.12821284
0.098511204
-0.19391014
-0.0479222
0.007927005
-0.04810795
0.037543114
0.094271496
0.17116734
0.059375968
-0.047605056
-0.0005349618
-0.020871202
-0.035583936
-0.1191853
0.05100664
0.14405848
0.020111632
-0.051682767
-0.11354021
-0.040566135
0.020751644
0.027314804
-0.016892264
-0.048902847
0.04493893
-0.049329508
0.07805886
0.033516265
-0.01889546
0.07850608
-0.040088005
0.1245574
-0.09244328
-0.08320285
-0.10127047
-0.08495914
0.06833992
0.1316032
0.11469476
0.03829113
-0.0959692
-0.017826222
0.10229332
0.12394829
-0.0355822
0.08872855
-0.20593235
-0.0144583285
-0.048254736
0.20506176
0.077373445
0.0057834666
0.10492998
-0.044608667
0.080250904
-0.0675368
-0.044527955
-0.152759
-0.0379347
0.22559494
-0.04439522
0.08086789
-0.009869877
0.036188085
0.10759159
-0.15531223
0.22953954
0.21832414
0.018086674
-0.024855837
0.006467849
0.06061706
-0.14842549
-0.057413384
-0.07819644
0.01956263
0.071354456
0.09005724
0.16959392
-0.09664107
-0.1369171
0.17343657
0.11690372
0.003730834
0.09812308
0.05559709
-0.11351707
0.0648086
0.060000096
-0.08510555
0.06768668
-0.19283468
0.022699073
0.0158001
0.13394742
-0.18555817
-0.11123644
0.19891421
-0.04003977
0.039944258
-0.14346501
0.10519319
-0.13285197
0.1469016
-0.0997616
0.20741902
0.09389553
0.019293688
0.13151705
0.1287961
0.05392003
-0.12447902
0.09639487
0.101133026
-0.23866485
0.022455916
0.004426804
-0.009599318
-0.11166148
0.05858693
-0.07509827
-0.059422567
-0.017651526
-0.029430063
0.23926067
0.013595843
-0.09217217
-0.06708082
-0.08467356
0.07277298
-0.056299884
0.014564793
0.031073991
0.2964414
-0.002510655
-0.17631862
0.15372777
0.064025156
-0.13725057
-0.05053826
0.015007817
-0.16327663
-0.041282464
-0.08947323
0.031764437
0.17439352
0.04999672
-0.095519386
0.034093246
0.11176746
0.18039815
-0.047858585
0.00848375
-0.095781915
-0.02398236
-0.059744213
-0.08484157
0.024615826
0.049247257
0.031681053
-0.15263887
-0.041652232
0.11163449
-0.06356855
0.019446276
0.15248317
-0.07471923
-0.12515423
0.031089224
-0.0028198452
-0.099299096
0.013283977
0.15634692
0.22853236
0.1686368
0.18286067
0.041479927
0.19551699
-0.1262355
0.14047833
0.02330792
-0.01676214
0.03382615
0.18076791
-0.011232194
-0.027475212
-0.07476411
0.028807683
0.1304462
0.14586549
0.005501746
-0.037971478
0.1276707
-0.12843789
0.081517205
-0.047250547
0.15859616
-0.11643177
-0.029807394
0.20743074
-0.0614611
-0.017837424
0.0044081663
0.09553804
-0.0286835
-0.0370019
-0.12999034
-0.09262987
-0.13340686
-0.012310258
-0.08167198
-0.05006388
0.036717266
0.06182666
0.12929712
-0.1519443
-0.061276887
-0.17726097
0.07217579
0.028410655
-0.013315975
0.023334935
0.0032326523
-0.098657586
-0.07035565
0.015023708
0.0830433
0.13127151
-0.04482204
0.07380691
0.008881158
-0.1376305
0.03262976
-0.044846643
-0.10940877
-0.042112753
-0.00036638472
-0.18205272
-0.092359744
0.23794742
0.027329803
0.094730854
0.28628877
0.028901486
-0.05237939
-0.18231739
-0.07346073
-0.028319854
-0.1314151
0.07627928
-0.08124965
0.03631229
-0.099052615
0.077594034
-0.09196312
0.115076065
-0.010540709
-0.035143446
0.17525478
-0.009866501
-0.020280762
-0.034690462
-0.020989537
0.102702096
-0.03729456
-0.07168757
0.009805908
0.029444598
0.029557493
-0.0013356872
0.0024801611
0.06289824
-0.09873971
0.109615386
-0.048893925
-0.014539668
0.07187405
-0.27269506
0.003462144
0.17733099
-0.100761704
-0.026326999
-0.061140068
-0.0811092
-0.095236
-0.054753985
0.10844873
-0.07015523
0.07959594
-0.021365546
-0.029656574
-0.2198331
-0.16047269
-0.08380608
-0.007095556
0.03723142
0.028825121
-0.15762268
0.046049554
-0.10190161
-0.06610935
-0.09863282
-0.07672186
0.10924178
-0.039179657
0.097504415
-0.09246615
-0.042028204
-0.048569664
-0.051328108
-0.22744189
0.064107105
0.0050658165
0.018055942
-0.18299347
0.02113833
-0.11381018
-0.07145419
0.02295577
0.042921737
0.07969923
-0.034570385
-0.06565493
0.0865203
0.11562571
-0.164688
0.046689376
0.0481693
0.025670474
-0.1422782
0.1067598
-0.09913342
-0.0963305
-0.042498928
-0.098454505
-0.06633643
0.011733515
0.034879718
-0.03593718
0.07617773
-0.14507702
-0.008059162
0.22907187
-0.05462419
0.116082914
-0.20505407
-0.063089505
0.11562909
0.17200023
0.11567255
0.03621997
-0.09341263
-0.1261484
0.012652118
0.014022426
0.04532977
0.098730855
-0.10286727
-0.015421957
-0.13729502
0.072443016
-0.06490313
-0.015028619
0.049233977
0.0014504994
-0.18254659
0.08990657
0.029356586
0.10451011
-0.11271015
0.059171613
-0.093011096
-0.070417814
-0.1310884
0.12126011
-0.15002313
-0.08879309
0.011403126
-0.1545407
-0.017927237
0.071217656
0.040370423
-0.050308827
-0.0355922
-0.21195014
0.042850953
0.02173372
0.15804717
0.01668289
-0.08399408
-0.05165381
-0.09732199
0.053328678
-0.22736782
0.07895663
0.12770218
0.0840764
-0.01968252
0.0032355613
-0.015720382
0.06591502
0.08580336
-0.08471077
0.08107143
0.06850566
0.19036607
-0.015103638
-0.019881027
0.07979885
-0.080575585
-0.09395106
0.029686736
-0.022540564
-0.05344285
0.13053894
0.055760838
0.04810583
-0.08429741
-0.016214766
-0.10680683
-0.080298275
0.036850948
-0.067389056
0.028668547
-0.05476478
0.028884904
-0.042516325
-0.08686136
-0.0017817427
0.07905035
0.012351032
0.039727118
0.14547504
-0.020875186
0.09291602
-0.055617414
-0.20349063
-0.08160145
-0.02497977
0.037754193
0.04214743
0.011731305
-0.10169561
-0.08188094
-0.09353213
0.02224843
0.19741845
0.19509286
-0.052151497
-0.12175583
-0.024280721
-0.06579177
0.12538014
-0.054145925
-0.044345926
-0.012936968
0.09658086
-0.018351458
0.0894824
0.023561636
0.06495688
-0.057763685
0.09742209
-0.096357554
-0.05511507
0.07911889
0.17587551
0.100973435
0.05231297
0.0780002
0.11817223
0.0664512
0.05511293
-0.15957585
-0.021758614
0.15733205
0.1422614
-0.045060977
0.17895128
-0.13825971
0.09466553
0.03773816
-0.11380963
-0.06895644
-0.05480731
-0.17522262
-0.17921484
-0.002359277
-0.009441535
0.12875625
0.057377238
-0.18567973
-0.12962179
-0.1696484
-0.08950744
0.039207254
0.0698364
0.01209607
-0.11135602
-0.148576
-0.0027910958
0.17560454
-0.048385456
-0.03426631
-0.22631308
0.13777037
-0.112125
-0.086654134
-0.07798371
-0.15803103
-0.005669758
0.057154406
-0.032352407
0.046957843
-0.002944971
-0.23660626
-0.017046306
0.09231308
-0.019229352
-0.021593194
0.1020954
0.07366632
-0.096588574
0.09134163
-0.009394896
0.036402967
-0.05931799
-0.0055913366
0.043989822
0.052603226
-0.049776286
0.00892881
0.045094993
-0.16630977
0.1358177
-0.05251458
-0.1034477
-0.007639616
0.09707643
0.16426459
-0.001233857
-0.08120146
0.13029099
0.0124427695
0.025174098
-0.07677935
0.14937246
-0.04407321
-0.05865482
0.06296358
0.033477556
-0.1399431
-0.0347285
0.018761536
-0.0007399675
0.11396634
-0.013594665
0.066122696
0.051714182
-0.031654567
0.12353494
-0.056776725
0.12826611
0.08724533
-0.025386205
-0.039131247
0.08628482
-0.009162058
-0.004839648
0.115119554
-0.017159227
-0.12781502
-0.24365959
0.070805654
-0.17601712
0.13268755
-0.20652962
0.09035332
0.015121786
-0.10750408
-0.26649758
-0.06453999
-0.09764444
0.10714299
-0.1465164
-0.042911775
-0.08414589
0.06298405
0.17972964
0.08272398
0.031077825
0.16272245
0.014770301
-0.17169634
-0.036393244
-0.11563676
0.18030703
0.075961865
0.04728613
0.1270204
0.12666564
0.18437135
-0.06342643
-0.20728286
0.05383512
0.20875874
0.06600102
-0.0850703
0.04455427
0.040536825
0.041372336
0.08730692
0.15079927
-0.21109597
-0.0074180677
-0.039863132
0.16231318
-0.15948418
0.046428815
-0.026266223
-0.04768744
-0.14330956
0.03297707
-0.032229826
0.19385381
0.115096726
0.12939933
0.017319439
-0.013752637
0.122896805
-0.1383912
-0.009898248
0.045915604
0.13963498
0.010194958
0.1844711
-0.09520122
-0.14832169
-0.060376026
0.0076883775
-0.1501915
-0.13950883
-0.005227578
-0.031199994
0.046289634
0.045858666
0.10860428
0.043259572
-0.016476478
-0.1760727
0.07732265
-0.06749773
-0.14189714
-0.061011426
-0.16066787
0.037116032
-0.12328671
0.025344545
-0.059392333
-0.15967639
0.1451472
-0.069858834
-0.021074908
-0.15480441
-0.099826515
0.13111356
0.018694218
-0.09064472
0.20502974
0.035004087
0.045969896
-0.29930526
0.0014971308
0.08052671
0.018485798
0.05333329
-0.072459705
0.12389705
0.0049741776
0.17935374
0.069780074
-0.08757506
0.09421373
-0.028167717
0.025889693
0.13937435
0.03895739
0.027398003
0.18559174
-0.102614924
0.04132134
-0.11057763
0.21092305
-0.0764149
0.16605756
0.106407866
0.08283504
0.035982497
0.0054905177
-0.08572735
0.037597537
-0.13264537
-0.110800065
0.32633156
0.011462702
0.021568928
-0.007349787
-0.16991341
-0.08604977
0.023560138
0.13746504
0.03664319
-0.09653788
-0.008113137
0.028700637
0.16980562
-0.02252382
0.22957791
0.007398466
-0.07050897
-0.06432303
0.09121695
0.004166279
-0.053219125
0.08595243
-0.07321622
0.025465364
-0.03414241
0.09669329
0.005681651
0.122183405
0.16583912
0.025595266
0.06937095
0.10178799
0.08776423
0.06157086
-0.11982695
-0.14339748
-0.13183096
-0.24251506
0.17818709
0.12697262
-0.07453231
-0.02144336
-0.04184807
0.055834584
0.01300053
-0.09486805
-0.105258636
-0.13840315
-0.11375108
0.07588284
-0.038542375
0.014815529
-0.0079462165
-0.013617485
-0.08500884
0.11473873
-0.1653019
-0.24441262
-0.13484502
-0.00066947076
-0.12368641
0.024799608
-0.08506057
-0.0010484188
0.07578222
0.07175362
0.065845616
-0.10814719
-0.026264912
-0.02611198
-0.087310806
-0.011589151
-0.1241696
-0.13441671
-0.09455841
0.029464912
0.08345627
0.07937826
0.012428271
0.043542817
0.046688527
-0.013162418
-0.24442434
-0.12118762
-0.07952492
0.0940706
0.11894396
-0.031244878
-0.021386357
0.15065518
-0.020063201
-0.012419205
0.16773637
-0.025928391
0.16097203
-0.009914508
0.043473963
-0.046209525
-0.06614169
0.1410371
-0.16972713
-0.18370551
0.12736194
0.20089792
0.06977716
-0.1300434
0.0057390374
-0.042984813
0.067845955
-0.08433132
0.042492613
0.08915569
-0.08829178
-0.04198033
0.107989244
-0.10629315
-0.08960394
0.026535423
0.08056486
0.046732184
-0.02876446
0.04985508
0.117405914
-0.10015337
0.15678637
0.0040310114
0.014388042
0.026095761
0.21424606
-0.0156526
-0.09264374
-0.04651962
-0.09962996
0.12932426
0.026833976
-0.12675166
0.17296879
-0.16164365
-0.19236718
0.06333533
0.029771326
-0.10713939
-0.019745866
0.066657834
-0.11405769
-0.057223123
-0.15043665
0.079658516
-0.04260329
0.089985505
0.00050507917
0.026393726
-0.12932745
0.017850278
-0.016359027
0.22935517
-0.11890392
0.15140042
0.012465192
-0.24934593
-0.021906516
-0.030475084
0.05452838
-0.07783146
-0.05894295
-0.110103905
-0.07067767
0.042286735
0.05098144
-0.08354981
0.06494086
-0.11925607
0.25895223
-0.052576184
-0.0130844535
0.0637338
-0.13391364
-0.17838529
-0.027294334
-0.087878644
-0.11387867
0.17332488
-0.19014008
0.2106684
0.074311756
0.043543387
-0.057533946
-0.062739566
-0.10528493
0.08560934
0.012509305
-0.01490611
-0.039149687
-0.081340484
-0.34921739
-0.053535327
0.011132241
0.054455966
-0.023097152
-0.06110607
-0.07738131
-0.123514995
-0.04090283
-0.10790927
-0.13951059
-0.13181347
0.17082094
-0.09334053
-0.04906579
-0.056297816
-0.008483586
-0.023280844
0.21550277
0.07290787
0.20061791
-0.023924809
0.033481777
0.08037247
0.020611914
0.05817994
0.089685865
-0.052984033
-0.05308106
-0.037592176
-0.010989277
-0.042861655
-0.08907219
0.00086024083
0.03472228
0.068555415
-0.17159362
-0.11830663
0.035057373
0.082461126
-0.05225677
0.1584123
0.010100649
0.040103056
-0.2011492
0.018451007
-0.02723827
0.0920779
-0.07516323
0.121705994
0.17283003
-0.061926514
0.086571835
-0.032556746
0.14913104
-0.18443148
-0.025465962
-0.10200799
0.22322437
0.029841753
-0.12663116
-0.12372913
0.08648155
-0.07018656
0.12967546
-0.13187984
0.0861227
0.024634685
0.18913317
0.009420182
-0.1398099
0.14186603
0.23761456
-0.048430827
0.023869906
-0.04956274
0.0043499535
0.19630957
0.015048308
0.0879424
-0.069362804
0.026189392
0.058710475
-0.0021550686
0.07986677
0.12553412
0.023780597
0.087569214
-0.18042439
-0.23576643
0.008739106
-0.05960912
-0.058477562
-0.0258036
0.016997835
-0.0254811
-0.060496833
-0.07920041
0.09704112
0.09687801
0.06731391
0.14180437
0.041021053
0.13328707
-0.041952252
0.15507156
0.07211966
-0.1331399
-0.08689409
-0.021309214
-0.022497164
0.04567749
0.039857604
-7.2881565e-05
-0.18982087
0.056143425
-0.13874917
-0.12654212
-0.0038732395
-0.03429601
-0.1101873
0.05595175
0.06521695
0.0883541
-0.10227458
-0.088278934
0.03152641
-0.13906072
0.170011
-0.06855599
0.14040868
0.068147995
-0.08517543
0.03487926
-0.024172664
-0.07333171
0.0035472605
-0.009204191
0.007983051
0.16589777
0.11404833
-0.13107154
-0.21003179
0.0674983
-0.12014315
-0.115795344
-0.04650452
0.028911453
-0.11892323
-0.084372625
0.11085473
-0.11979768
-0.053290118
0.09222342
0.031762656
-0.056592673
0.06691269
-0.051212262
-0.15027273
-0.036937505
0.16762774
0.043997128
-0.103499785
-0.008829985
-0.09873745
0.0724037
-0.04848609
-0.09023918
0.001430853
-0.10102049
-0.040656928
-0.108270474
-0.14984809
-0.020885346
0.012859333
-0.07053346
0.0038551788
-0.09932185
0.039837945
-0.08598581
0.14545807
-0.005683687
0.128997
-0.1695742
-0.11491415
-0.13560359
0.08743938
-0.02352004
-0.13063319
0.06546411
0.07262803
0.026357993
-0.07917221
-0.06968626
0.094665006
-0.061959833
0.08896232
0.007939908
0.22931205
0.012663715
-0.095308594
-0.034441676
0.06286295
0.07863977
0.16263992
-0.07748344
-0.23495448
-0.17108792
-0.061558604
-0.09417882
0.072786294
-0.119444795
-0.1705017
-0.07041377
-0.032951444
0.0039188187
-0.2304427
0.13860366
-0.06387237
-0.0146157555
0.03303116
0.00955054
-0.06657178
0.21441941
-0.018168546
-0.025517356
0.14601983
0.05098503
-0.09019982
-0.052249487
0.12430234
-0.044230044
-0.074519895
-0.033490412
0.0388676
-0.10404372
-0.05754078
0.0074919197
-0.08945148
-0.15951268
-0.00054958306
-0.0103552425
-0.13335742
-0.065742455
-0.011813202
-0.008476196
0.021428391
-0.04616559
0.2026339
0.029287929
0.11582291
0.22130033
-0.14545965
0.03603195
-0.005162216
0.10894891
0.21186467
-0.14769258
0.010093161
0.16029537
-0.020508913
0.14379142
-0.20428407
0.028897127
-0.14790095
-0.005727677
0.20614067
-0.14978135
-0.12781435
-0.07741129
0.09763624
0.04686685
0.014648825
0.050063908
-0.04972624
0.01412247
0.024606258
0.0963673
-0.11072772
-0.111705646
0.061338663
-0.11537808
0.11414783
-0.14400594
0.020170208
-0.14397702
0.1816785
0.03010547
0.10794875
-0.15372069
-0.035564043
-0.063629076
0.09591499
0.07770056
-0.12219146
-0.010336125
0.085483335
0.051968165
-0.16496961
-0.22463967
-0.15038383
0.08777221
-0.20961167
-0.017483778
0.008096245
-0.024493024
-0.08448234
-0.009925463
0.009308833
0.03236839
-0.025524087
-0.0057941996
-0.13643667
0.22206283
0.16876438
-0.1220496
-0.06877176
0.09816924
0.12922648
-0.053969618
-0.118054755
-0.02472624
0.081858516
0.13646306
-0.066821456
0.16153263
0.08303304
-0.102171294
0.06377105
-0.33843854
0.04271069
0.0643364
-0.064994544
-0.0012144495
0.060189374
0.11549871
-0.0738322
0.037129644
-0.017690534
-0.07145718
0.19923583
0.15390258
0.008185515
-0.026552347
0.088418975
0.017553216
0.17979717
-0.018529858
-0.033416986
-0.1082037
-0.08868621
0.0038688553
-0.2524601
-0.09595403
0.035635665
-0.038454685
0.15213636
0.025552774
0.024263212
-0.12167672
-0.09938061
-0.09787722
-0.13152507
0.07699942
0.007982419
-0.20700037
0.06827511
-0.0276666
0.17026956
-0.08214201
-0.0465872
0.15719523
0.056441724
-0.10228804
-0.029268978
0.11719048
0.0969622
-0.119033135
-0.012887903
-0.16788019
-0.06302048
-0.09592761
0.064969175
-0.1504649
0.17015232
0.010452214
0.16883203
-0.04185832
0.05728046
-0.122947186
-0.23108318
0.009482149
-0.10102292
-0.016269926
-0.17194639
-0.007817143
0.11761365
0.13922234
0.0673344
-0.09139328
0.008006995
-0.01446739
0.0766089
-0.11856424
-0.03961449
-0.081573196
-0.0010324167
-0.011518248
0.19401234
0.14295328
-0.056228083
0.08480583
-0.085441455
-0.17979127
-0.002253172
-0.03395956
-0.2161719
3.0355483e-05
-0.17708427
-0.13560008
0.042637937
0.037918814
0.10726492
0.108303435
-0.11665445
0.11335772
-0.026269833
-0.0411672
-0.04781812
0.05356346
-0.106414065
-0.053113095
0.15444249
-0.050726783
0.21919712
0.115011156
0.0054288995
0.037128016
-0.017258428
0.19845095
-0.10045356
-0.015508517
0.027078493
-0.06884829
0.11869255
-0.0013696009
-0.037054963
0.036727328
0.051181156
-0.0505282
-0.079334475
-0.008337104
-0.057554744
0.09824068
0.07597292
-0.10873847
0.21913417
0.018265462
-0.01705543
0.013299073
-0.114848234
0.14041147
0.014884568
0.07220619
-0.07189836
0.26087072
0.005279109
-0.0500415
-0.028838778
-0.0013497976
0.06294132
0.06699014
0.15256426
-0.013973282
-0.110246755
0.09298926
0.0871118
-0.056092553
-0.031538785
-0.14433825
0.09052186
-0.1056136
-0.106619544
0.20506214
-0.018634964
0.020113086
-0.27137643
-0.13621232
0.14061801
0.10118792
-0.013952689
0.03445351
0.033922214
-0.08833431
-0.041132726
0.13510281
-0.009996906
0.13440822
-0.1907345
0.06595168
-0.17927548
0.030786032
-0.010769687
-0.13114709
0.23347203
0.057923432
0.21017244
0.116010316
-0.033093266
0.22559887
-0.09514845
-0.0705565
-0.03776467
0.041505236
-0.13757785
0.108841985
0.01515334
-0.1768486
0.20709652
-0.13202941
-0.07981913
0.02973092
0.036040414
0.108576156
-0.031296927
-0.104388125
-0.09359732
0.21171935
0.15201318
0.17780614
0.12203094
-0.2501541
0.011231905
-0.0063563706
-0.108175516
-0.08555719
0.08732655
0.0014213545
-0.039332155
-0.040891886
-0.0387021
-0.07902146
0.04514451
-0.10395865
-0.071262024
0.009067852
-0.015021006
-0.08807896
-0.09355848
-0.05108964
-0.028957117
-0.11047391
-0.055576213
0.1503746
0.027270677
0.0707733
0.0733129
-0.026576055
-0.0038464398
-0.017382178
0.11418406
0.093467034
-0.16623758
0.04900598
0.18210979
-0.02646006
-0.063276865
-0.0076084477
0.104343854
-0.12261632
-0.08984323
-0.09188107
0.121281974
-0.10874688
0.2755805
-0.09624321
0.004259741
0.08835966
0.09005795
0.09233938
-0.029475944
-0.023384914
0.02817576
0.036931563
-0.07418896
-0.02698192
-0.035115086
0.05794268
-0.020562967
0.03582244
0.094762705
-0.06642418
0.052363314
0.01878221
-0.1439048
0.06282243
-0.07113722
0.03092853
0.1559133
0.12865154
0.014509803
-0.18621746
0.1385706
0.0060880617
-0.03527503
-0.024034403
0.17191446
-0.0108676115
0.038337536
-0.13419455
0.05553185
0.031513717
-0.12921362
0.06530179
-0.02532448
-0.14345345
0.029482348
0.1486073
0.04695096
0.08653113
-0.026747223
0.13560714
-0.10524985
0.05105362
-0.16651314
-0.07444109
0.118148595
0.0056776465
-0.04190508
0.074251525
-0.2409894
-0.0239743
-0.080800936
-0.09217118
0.08131325
0.09951508
-0.07255688
0.2123176
0.069906615
-0.13069448
0.012564727
0.1121382
-0.045630716
-0.04788156
-0.066558935
-0.060597885
-0.02713575
-0.21243854
-0.10753985
-0.12702096
0.0732861
0.056208335
-0.06963927
0.01821772
0.008176556
-0.124379806
0.043158416
-0.011519521
0.13431321
0.0034427338
0.07393763
0.026317654
0.052427314
0.010638036
-0.16904907
0.05176799
0.046876695
-0.15919171
0.11720033
-0.046789624
0.046032004
-0.07384782
0.09917777
-0.09374868
-0.021706201
-0.060286507
0.08249334
0.08916731
-0.053152043
0.13279597
0.058354635
-0.08655451
0.07048397
-0.09573835
-0.0091131255
0.11610181
-0.03820775
0.15462644
0.12188109
-0.08863825
-0.023684356
-0.059425913
0.22449167
0.05218357
-0.11843983
-0.07789746
0.22334701
-0.16219729
-0.009820372
0.14549495
-0.12113377
-0.26198083
-0.10980093
-0.12232775
0.04598481
0.012922092
0.11283866
-0.053324264
0.073317364
0.026380224
-0.06743476
0.059207596
0.13716379
-0.052593894
-0.17482519
-0.06560284
0.12805273
0.006902525
-0.036033824
-0.12188755
-0.08721157
-0.064383216
-0.16254684
0.12829284
-0.0037733743
0.04601713
0.06407358
0.019483918
-0.08385498
-0.13607436
0.041729227
-0.08767116
-0.03544935
0.19074695
-0.091083676
0.024821274
0.12844345
-0.038871653
0.017777508
0.025538892
0.12560838
-0.13352686
0.065430395
0.005817242
0.052950524
-0.031918965
-0.23115699
-0.0029658976
0.056272935
0.10703239
0.07829206
0.036732044
-0.17440248
-0.03556695
-0.048755754
-0.093549445
0.04654252
0.15377094
-0.005360219
0.06953183
0.028388388
-0.14959317
-0.07011911
-0.020807657
0.043562405
0.08193934
0.07845688
-0.048445795
-0.016585508
0.13321586
-0.041563407
-0.042808823
0.0016195772
-0.050685804
-0.09491206
-0.12119946
0.1328156
-0.13355754
-0.020811547
-0.164425
-0.1315775
0.13561699
-0.029812302
0.00019321845
-0.0148502365
0.07324015
-0.06780827
0.17800972
-0.075717546
0.025534043
0.23718238
0.117802
-0.15471676
0.24874066
-0.004798099
-0.059008166
0.009469986
-0.13091302
0.014391701
0.11377963
0.13682519
0.10358226
-0.09253728
-0.15406011
0.03252205
-0.09399033
0.016156292
-0.09316507
-0.11652846
-0.2244746
0.020280285
0.13716954
-0.017549504
-0.07273829
0.04754917
0.09209202
0.04863368
-0.219223
-0.026893357
-0.1286793
-0.06593195
0.040117823
0.017068006
0.028161416
-0.017286533
-0.1662495
-0.1349637
0.19914028
-0.07076204
0.022110397
0.10839429
-0.06503904
0.049685072
-0.2279374
-0.0080981925
-0.09965137
0.10952818
0.09103
-0.09102495
-0.014011494
0.1931035
-0.014188934
-0.15253128
-0.10265564
0.12499754
-0.074085854
-0.10270096
-0.023075117
0.078863055
0.061313454
0.0049091666
0.14183982
0.13391532
-0.13119216
0.12376539
0.06791819
-0.10609823
-0.026147481
-0.05223114
-0.08322796
-0.061407935
-0.013944451
0.012539571
0.055067424
0.053094257
0.09924589
0.17004816
-0.078342825
-0.06833046
-0.0031589423
0.13586333
0.16995788
0.19318621
0.017771348
-0.04473742
0.040805366
-0.18288055
0.12257649
-0.22065707
0.02893099
0.06045248
-0.10687597
-0.0597705
0.026807586
0.02657221
-0.10653833
-0.074482374
-0.068410166
0.097799964
0.06398135
-0.13294592
-0.041218
-0.052303437
-0.026030833
0.20681249
0.06004432
-0.16778746
-0.160321
0.029331055
0.013188074
-0.07956496
-0.07485924
0.036882725
-0.01838367
0.17933059
0.038204547
-0.048737653
-0.0070019853
-0.14288056
0.15387534
-0.10473286
0.108027436
-0.07186925
-0.12976776
-0.033741258
0.19483368
-0.12163295
0.07058442
0.07864186
-0.10407673
0.015703369
-0.09683133
0.04997045
-0.14695358
0.034783233
0.018265605
0.096553616
-0.12566341
-0.08056779
0.05578698
0.09050848
0.09423789
0.13535929
-0.02594419
-0.12799278
-0.04454679
-0.06804725
0.122264184
-0.08928188
0.043831117
-0.035882328
0.09357347
0.02677035
0.037042297
-0.13320704
-0.039338633
-0.06816185
-0.04170585
-0.035478104
0.029010456
0.04337487
-0.02622018
0.043263715
0.027104633
0.11621232
-0.1632313
0.09365424
0.06167682
-0.01837625
0.062712796
0.104755744
-0.1425545
0.027851753
0.053004418
-0.08497587
-0.042916458
0.021300662
-0.18667364
-0.056277674
-0.22760266
-0.1354805
0.04793613
-0.015526303
-0.07875353
0.0352505
0.037014466
0.07047604
-0.036547
-0.0060311113
0.03823758
0.14463809
-0.07646372
-0.0023175771
-0.1695963
-0.08901744
-0.08361763
-0.16463357
0.11121016
0.20996511
0.085588336
-0.021638604
0.08132951
-0.01566491
0.015688479
-0.024503531
-0.08293529
-0.00052829325
-0.034066387
-0.07178181
0.07890171
0.023654828
-0.050108824
-0.08589454
-0.04491619
-0.07989622
0.043640543
-0.08893308
-0.24155101
-0.13066722
0.16993423
-0.096179366
0.012750735
-0.056337938
-0.13493343
-0.06642043
0.104120485
-0.0918324
0.13051693
-0.04181797
-0.12530376
-0.0347583
0.001640395
-0.023592042
-0.1544366
0.0017545938
0.113805056
-0.004331416
-0.105807416
-0.007974246
-0.01731241
-0.19078393
0.019413637
-0.14328651
-0.014036194
-0.050195657
-0.03782371
0.00665038
-0.1053986
0.124982916
-0.18158457
-0.18817648
0.08416797
-0.21186751
-0.014471182
0.070163876
-0.021875113
-0.047518414
-0.13514145
0.055053066
0.18379502
0.06649409
-0.06400648
0.044204768
-0.09270756
-0.07805836
0.08905979
-0.06543823
-0.086131595
0.031143958
-0.042698357
-0.04232664
0.020523796
0.008191164
-0.006496291
0.041978158
0.025460375
0.035560466
-0.145606
0.05313585
-0.08550637
-0.1060311
-0.20853971
-0.035054944
-0.031337637
0.12864819
0.117337525
0.07273456
-0.082044356
0.15076911
-0.07758482
-0.133671
0.04063232
-0.18342695
-0.1294643
-0.03377844
-0.07107892
-0.055584747
-0.1732551
-0.02506799
-0.17236595
-0.0019022246
0.035891604
-0.0880043
0.095659226
0.06532545
0.090716936
-0.0406349
-0.012697781
-0.18747735
-0.11952904
-0.10917182
-0.24609558
-0.09739567
-0.08608211
-0.15630108
0.15346198
0.032541256
0.12025909
0.09564781
-0.032438274
-0.05874577
-0.119937666
0.071930386
0.027587948
-0.0069813575
0.016264189
0.016535055
0.010342345
0.10576482
0.13248509
0.078858495
-0.009783184
-0.06647754
-0.20413452
0.14475375
-0.15111928
-0.07690936
-0.033583287
0.11307054
-0.006099507
0.007866536
0.18204632
0.0052487627
0.12835504
-0.035348352
0.12172137
-0.07417456
0.020697795
-0.029847145
-0.015635367
-0.0071379966
-0.031767063
0.054181978
0.09257846
-0.12321291
0.027740514
0.1525361
0.051616978
0.052156292
0.060371853
-0.042842053
0.08687214
0.060237374
0.20655976
0.055848278
-0.06599728
-0.008576959
-0.008621728
-0.05021715
-0.0072024325
-0.07861299
0.045409076
0.08607927
0.096708305
-0.2623722
-0.025188811
0.0018158002
0.056025743
-0.103607886
-0.045854285
-0.044504713
-0.05501108
-0.013852661
0.044650532
0.07339583
-0.0043837256
0.12177221
0.025093278
-0.05761034
0.06798764
0.13221763
-0.01427842
-0.050651725
-0.0056477413
-0.21057284
0.058786627
0.13564259
-0.011031035
-0.09128755
0.1414178
-0.029440634
0.012287909
-0.007211836
-0.10240661
-0.051272657
0.1775304
-0.030672556
0.110235296
-0.082097605
-0.008252862
0.0030595344
0.020164277
-0.056236163
0.23000772
-0.059634637
0.12990038
-0.05198519
-0.012330787
-0.05829919
0.06042877
0.09414283
-0.054186817
-0.08534768
0.008709919
0.018367583
-0.10808086
0.06320519
0.1474468
0.059377182
0.18687987
0.120288864
0.061583526
-0.00761393
0.0412396
0.0063747363
-0.013862897
-0.12784022
0.041495577
-0.03320197
0.08156817
0.0594213
-0.12964538
-0.10787811
0.041685037
-0.04030636
0.1592373
-0.07097625
-0.15870759
-0.043916233
-0.0774542
0.13896427
0.22430502
-0.09200656
0.13902022
-0.11024121
0.0940878
0.03585519
0.051525593
-0.10036957
0.10935503
-0.09174556
0.24240789
0.022054682
0.039215613
-0.099230744
0.020064065
0.0021176406
0.08419164
-0.01157921
-0.11893676
0.058675133
-0.15315269
0.084896535
-0.05437929
-0.08553634
-0.019764826
-0.07655927
0.08283621
-0.019868057
0.15818986
0.079880826
0.04981952
0.049117506
-0.027848313
-9.098365e-05
0.08432678
-0.102912955
0.041709095
-0.05625969
0.0596762
0.1578523
-0.045316923
-0.046800952
0.01947982
-0.008053395
-0.039632596
-0.07236898
0.054312337
0.013272639
0.00203
-0.12171848
-0.078325205
0.07478442
-0.078362964
-0.09672995
0.00013558907
0.16340284
-0.013395315
-0.10853991
0.0720236
-0.0856595
-0.046701856
-0.06597181
-0.12132905
-0.062827155
0.002453976
-0.03124882
-0.029154258
0.057142913
0.036876965
0.122335926
-0.07744286
-0.32498315
-0.020992387
0.08918358
0.028780112
-0.024858361
0.07927214
-0.16336814
0.049153656
-0.024295045
0.09309305
0.12912343
0.011472822
-0.13593711
-0.035365902
-0.05289982
-0.17219217
0.061522897
0.31694686
-0.0004285737
0.025317185
-0.12715489
-0.027933296
-0.08282087
0.1629141
0.067804515
0.001090066
0.12667648
-0.03678153
0.0812765
0.028054845
-0.11464742
0.053218145
0.043095965
-0.013127593
-0.25378832
0.037376314
0.10690521
-0.009214483
-0.116710745
0.022638867
0.25194654
-0.01920724
0.18488193
0.020547321
-0.030516293
-0.20958126
0.010437139
0.08972789
-0.09528326
-0.19576022
0.08881699
-0.07554506
-0.037250623
0.038884126
0.0151259815
0.008578454
0.024524912
-0.106817305
0.01236047
-0.1381754
0.003606066
0.1982033
0.053527575
-0.052427277
-0.013346524
-0.091798484
0.039733138
0.05329257
0.1867821
-0.103664726
0.11698601
-0.070343085
-0.059586417
-0.13033527
0.10607094
-0.020882102
-0.046754166
0.0058838017
0.07843431
-0.1438993
-0.09222452
-0.009408558
0.06976418
0.026363462
0.21347901
-0.19900669
-0.083534904
0.08066004
-0.094217606
-0.029929923
0.008510489
-0.018163143
-0.12781507
-0.017165847
-0.15800962
0.041776877
0.077148266
-0.24861693
0.027160665
-0.15102023
-0.107734285
-0.058682878
0.10640928
0.09017008
0.0068531777
0.015981827
-0.10195087
-0.05084427
-0.20835888
0.10298238
-0.1247393
0.1878894
-0.01999461
-0.008746698
-0.0032181297
0.1759627
0.11662744
-0.023198415
-0.23207465
0.12625471
-0.05694666
-0.07037847
0.016302433
0.10985309
-0.0120979855
-0.0127721615
-0.17212205
-0.0072870697
-0.24633335
-0.09962805
0.032796778
0.067460224
0.15157762
-0.0914636
0.1174778
0.09402499
0.04204854
0.03018266
0.08126741
-0.03503729
-0.017441232
0.18138266
-0.10069269
-0.019130824
0.10980496
-0.07049068
0.1706571
-0.15535875
-0.0042237407
0.08101548
-0.03767514
0.15389189
-0.012887237
-0.0766682
0.11480816
-0.053630542
0.05530234
-0.0022015786
0.015381327
-0.10958469
-0.053969666
0.21387695
-0.07107153
0.027607089
-0.059857246
0.007299336
-0.032109313
0.07146978
-0.017924475
-0.038015917
0.020750778
-0.17537287
0.17482804
0.050516654
-0.024171695
0.04097889
0.12542343
0.15806326
0.23252118
0.03286778
0.18746749
0.026452985
0.0553123
0.21324666
-0.045916036
0.05324263
0.10954006
-0.08304647
-0.09511375
0.1629835
0.07088333
-0.09637076
-0.17237027
-0.1963597
-0.023480454
0.14521123
0.037015934
0.10738861
0.06684387
-0.017200796
-0.075249456
0.157367
-0.056964777
0.15563099
0.11252313
-0.20263089
0.030360598
-0.07547123
-0.122607104
-0.07256529
-0.0035678102
0.035120495
0.081198655
0.055210784
0.067076154
-0.020969536
-0.085807234
-0.0665125
-0.16658702
0.1778216
-0.106641375
0.015563632
0.20547412
-0.103221595
-0.025836745
0.1054315
-0.16411929
0.10495889
0.1341216
0.16156523
-0.13473953
0.020275656
-0.12783262
-0.0781591
-0.08745809
-0.10982105
-0.12001185
0.048910357
-0.005502284
0.011013403
0.048397258
-0.06607125
-0.07372617
0.030113561
0.00804202
-0.21399148
0.08327631
-0.07352391
0.085238636
0.11932847
-0.085683785
-0.00904126
-0.059164636
-0.055779964
-0.07752872
0.08628353
0.27251562
-0.025685318
-0.009158638
0.058336165
-0.089693144
0.038468067
-0.1367991
-0.2057594
0.032707777
0.05967622
0.070156515
0.096399724
0.03365409
-0.029821767
0.09401386
-0.083356746
-0.08670572
-0.14647761
-0.042591915
-0.24606471
-0.0931692
0.06988475
0.08880235
-0.16287164
-0.004500919
0.027900284
0.025125448
0.06552186
0.124913014
0.07884034
-0.112286285
-0.077821575
0.09454839
-0.21371934
0.04042623
0.087080665
-0.12678055
-0.0564463
0.060239978
-0.1265948
0.09904211
-0.04517303
0.06600457
0.07642192
-0.0635509
-0.09359933
-0.062417306
-0.08995806
-0.010724533
0.14298385
0.16121574
0.03643227
-0.10039856
0.09970215
0.0703136
0.03840321
0.054618098
-0.14212927
-0.32509315
-0.009237499
-0.009598843
-0.02733641
0.043392416
0.080326594
-0.012354092
-0.012693439
-0.08415926
0.020325506
-0.17989969
0.056461975
-0.16021504
-0.086022615
0.017594257
-0.09967973
-0.035004437
-0.046888147
-0.03847029
-0.20034643
0.018413438
-0.12412802
0.036296558
-0.014679824
0.33978337
-0.11560767
-0.103461325
0.04662433
-0.021746228
-0.091419786
-0.2339372
0.18635356
0.023233356
-0.13623734
0.10427545
0.015080355
-0.037652683
-0.0729817
0.010667301
0.13521479
-0.038288288
0.025753662
0.07045344
-0.045294106
0.01830051
-0.012855343
-0.14986831
0.03257058
0.08337382
-0.07465398
-0.33646005
-0.14554133
0.120471254
-0.03371199
0.041614275
-0.18242101
0.06125754
-0.22785322
0.0664081
-0.1899672
-0.11040624
-0.09947796
0.0035508266
0.036342848
0.0361108
0.15520252
0.037542067
-0.1007464
0.18414879
0.008337692
-0.10541993
-0.09512081
0.016778613
0.07806536
0.054623026
-0.06105446
0.14542374
-0.0021955182
0.075162694
0.058313087
-0.15866263
0.10820721
-0.050496753
-0.022205546
0.03258953
0.113007255
-0.04998849
0.12177031
0.15271957
-0.029245945
-0.053328548
0.03793651
0.013915807
-0.03886662
0.07977776
0.029812811
-0.039142884
0.044213884
0.03444804
0.25271237
0.0032849303
0.08248598
0.077728085
0.06369592
0.024203919
0.06919247
-0.011804604
0.029853594
0.11790818
-0.046139095
-0.02464743
0.25230855
-0.11444061
-0.09256832
-0.11599653
0.095127
-0.017094806
-0.07582772
-0.043114882
-0.016930914
-0.07558595
0.10810156
0.031197947
-0.054001343
0.1618558
0.013428798
-0.016421445
0.059581086
-0.019855851
-0.05755458
0.11343302
-0.040528663
-0.032617338
0.08059535
-0.01451545
-0.040316824
-0.12868366
0.005721325
-0.12444238
0.06738169
0.1317192
0.107093915
-0.0860288
-0.011880496
0.12739763
0.10938531
0.13553093
0.14730665
0.06821684
-0.0010806331
0.10635527
0.026507854
-0.020995926
0.015882835
0.23873375
-0.048271947
-0.056167692
0.020732371
0.041577186
-0.14048667
0.018125564
-0.10132287
0.12571515
-0.014353622
0.26703086
-0.026476994
-0.084836185
0.05766694
0.11101876
0.0034047633
0.027197624
0.07699076
-0.12760758
0.18083918
-0.019422118
0.0016968431
0.035896804
0.005352523
-0.077562615
0.023400893
-0.1502334
-0.013640392
0.12393863
-0.094285645
0.14476259
0.023301307
-0.033557907
-0.0755397
-0.1776273
-0.027848843
0.046029493
-0.06941268
-0.20007445
-0.09088753
0.052703727
0.096444234
-0.028981764
0.14231044
0.11096631
0.15349382
-0.19639413
-0.019398713
0.093207754
0.02980655
-0.070673265
0.0599099
-0.107651696
-0.13485202
-0.1456973
-0.008562263
-0.02877024
0.17360453
-0.15188617
0.0069126845
-0.10851496
-0.04174091
-0.069206946
0.02170252
0.0032682477
0.036601786
0.18047713
0.021007616
0.005937508
-0.1635655
-0.07402799
0.00034274335
0.022896847
0.1014374
-0.019175442
-0.03691425
0.053639162
0.10538186
0.086944975
0.10057246
0.1787828
0.21711749
-0.032035667
0.009506607
0.24376887
-0.2166518
0.029242914
0.21884455
-0.02021127
0.04163601
0.046472207
-0.09367956
0.0033776062
-0.09709148
-0.038114883
0.11177901
-0.20812747
-0.09616679
0.12479708
-0.020336261
0.053331345
0.060381252
-0.022367874
-0.05311635
-0.029696802
-0.106007874
-0.009168973
0.09970986
0.16263892
-0.051942017
-0.18982105
-0.012065873
-0.047519445
-0.1072019
-0.15133724
0.013074379
0.028406497
-0.009670706
-0.043403912
-0.06703393
-0.013695466
0.04637143
0.122942135
0.046099644
-0.14502649
-0.128883
0.11402231
-0.0850305
-0.0419261
0.0900666
0.02416748
0.045358308
0.016392283
-0.13266915
0.018947871
0.165485
-0.050258584
0.12627855
0.1569438
0.06760516
0.035346285
-0.23196074
0.0948445
-0.037187252
0.060577877
0.00049751654
-0.05985881
0.018468317
0.11176531
0.011843739
-0.0073598586
-0.008400467
-0.022531858
-0.030134393
-0.09296576
0.010546655
-0.007993363
0.020787314
0.07417339
0.053913303
-0.020476842
0.04322895
0.029199157
0.083756424
-0.19300815
-0.024194984
-0.0714849
0.011654928
-0.018004464
-0.0005645047
-0.036037613
0.032077003
-0.14941129
-0.23087795
-0.123535246
0.03829458
-0.15383494
0.0038035891
0.09816933
-0.10558423
-0.086007535
0.062947765
-0.100880474
0.05551978
0.004530605
0.012393678
0.02937006
-0.026840584
-0.06692893
0.02385689
0.05743564
-0.024371613
0.09221277
0.069847874
0.12716424
-0.10763345
-0.0898173
0.13888067
0.03257221
-0.088242166
-0.066189766
0.008101438
0.06798234
-0.033792246
0.077094704
0.24960981
0.18859282
0.011027514
-0.122843586
-0.011918588
-0.07221045
0.025498826
0.13233846
-0.16871643
0.033222873
-0.046632968
-0.0806988
0.10068358
-0.08344575
-0.023847234
-0.11304411
0.023857279
0.084122196
0.1473736
-0.033495195
-0.012822844
0.052613087
-0.14701699
-0.006684306
0.2864716
-0.14719345
0.15823777
-0.05119036
0.0152098015
0.0636522
0.04573207
0.047172975
0.020166649
-0.12795289
-0.02652822
0.11396634
0.07526397
-0.05697571
-0.07019645
-0.017973535
0.009915681
-0.22981098
0.030258136
-0.12823112
-0.034839466
0.102904804
-0.049425263
0.046257265
0.061284844
-0.092484616
0.1416135
0.12613727
-0.14193279
0.056861203
0.025614915
0.01675667
-0.02045475
-0.0580949
0.016027927
0.19136782
0.09499351
0.08889549
0.03591189
-0.12799565
0.0008611139
-0.07694363
-0.13373618
-0.16927916
-0.10134847
0.024373636
0.007761465
0.007856088
-0.16525994
-0.10673838
-0.08800367
0.13294838
-0.014434645
-0.08307583
-0.0054648076
0.00524294
0.0067898436
-0.17637238
0.03172614
-0.18912452
-0.13060458
-0.17292796
0.06835273
-0.041254092
0.17314078
0.031575784
-0.050441787
0.09457522
-0.10299287
0.036917165
-0.110550426
-0.092280895
-0.018932745
0.12688878
0.050154604
0.026018234
-0.086218394
0.11581907
0.027456414
-0.21301888
-0.094544135
-0.0026793396
0.12950236
0.015382991
-0.062904485
0.003288843
0.11114166
-0.0100134155
0.03327699
0.06642851
0.03511642
-0.09292434
0.013675032
-0.13745764
0.13859323
-0.11020011
-0.06304037
-0.022347767
-0.017788492
0.063058995
-0.01546259
-0.010210142
0.004604968
0.110365115
-0.030622536
0.13961203
-0.10968673
0.09325237
-0.04182452
-0.12561995
-0.0030731503
-0.09889255
0.09865198
0.08952355
0.20901158
-0.087427996
0.015748827
0.057478458
-0.09259925
-0.059786115
-0.18743831
-0.06292338
0.07428333
-0.041088574
-0.092471145
0.06591474
-0.043342534
-0.095588945
0.027648916
0.23359582
-0.01880634
-0.1399967
0.0065313308
0.022511223
-0.027422301
-0.15566768
-0.014833884
0.08425872
-0.14632598
-0.042474635
-0.020004787
0.13126515
0.22814411
0.09484748
-0.053201728
0.021182591
-0.114210084
0.17864895
-0.09641613
0.02385112
0.033370852
0.07555105
0.0650903
-0.011888921
-0.17094697
-0.0038318168
0.035389703
-0.02704682
-0.0889361
-0.060453624
0.023827476
0.10055949
0.059991695
0.10404493
-0.1418959
0.041197944
-0.04842247
-0.046586294
-0.046215825
-0.045035757
0.12002926
-0.067046985
0.093912266
-0.1492164
-0.028428674
0.14309475
0.03599175
0.11651692
-0.049194977
-0.13303497
0.14513749
-0.0025768937
0.05500095
-0.08106331
-0.13217705
0.218846
-0.004367078
0.07796184
0.15836686
0.0007055522
0.027638607
-0.026419776
-0.051346645
-0.2120805
-0.0049449774
0.13527592
0.007187857
0.0039476915
0.008462078
-0.023502273
0.05877605
0.020655924
0.02818077
-0.16844703
0.11328786
0.025936719
0.29222858
0.0045468328
0.042455375
0.020498
-0.04369929
0.047815304
0.07684148
0.1688242
-0.060453806
0.09185449
0.13934866
0.10811638
0.11725149
-0.056931958
-0.029627088
-0.27698165
-0.15818052
0.10640438
0.014284071
0.050545234
-0.16020189
0.10903989
-0.17995863
-0.08948016
-0.11140586
0.1455762
0.15679714
0.10983604
0.02623201
0.20293482
-0.14142422
0.020142326
-0.07762961
0.04424597
0.044240776
0.13051268
0.04965569
-0.006457969
-0.038728867
0.025528941
0.03682439
-0.17855111
0.1599064
-0.06122247
0.102741696
0.077586465
0.07013397
-0.037407447
0.048388153
0.0258714
0.11129806
0.18766287
-0.012297331
0.014317499
0.12728652
0.1858196
-0.09905265
0.01803056
-0.08794066
-0.06748981
-0.07363823
0.13417555
0.11401458
0.1546386
-0.04975567
0.042297002
-0.11894205
0.083930574
-0.028362362
0.035243522
0.04686228
0.07748131
0.15144618
0.16100684
0.13888678
0.15767471
0.03481608
-0.19059785
-0.12171777
-0.048917037
0.11290163
-0.010446287
-0.08274182
0.18781483
0.044883415
0.082745135
0.020362107
-0.108308606
-0.08502026
-0.21292648
-0.060208555
0.04098949
0.055731636
-0.088220395
0.25428337
0.041721087
0.024870995
0.041844502
-0.09914215
-0.11315308
-0.14357501
-0.10184551
-0.02344444
0.06755443
0.0615073
-0.22232415
0.10026735
-0.19354036
-0.059856202
0.115918964
-0.17915118
0.13959599
0.055885058
0.14549878
-0.06886645
0.041475616
0.09630079
0.015663844
-0.025545897
0.10911593
0.07310622
0.15330096
-0.08443823
-0.3191221
-0.006334824
-0.043731548
0.067912124
-0.010635173
0.2965224
0.08176291
0.14900039
-0.09386666
-0.08414847
-0.15417895
-0.034058034
-0.039240625
-0.07257675
-0.013956176
0.050874267
-0.21475351
-0.07592627
0.085731156
0.059150822
0.2368783
0.07729615
0.0027436966
0.075238414
0.0123321265
-0.022931024
-0.02439739
0.11022988
-0.15214661
0.13526253
0.08860933
-0.017740848
-0.13882786
0.23399132
0.11243846
-0.17454906
0.14073868
0.10898492
-0.03935435
0.05946061
-0.037649605
0.040324207
0.05307709
-0.040296394
0.034149386
-0.07346995
0.0069227936
0.18187203
-0.2838709
-0.05781826
-0.02334512
0.055002794
0.036965407
-0.15276803
-0.06630672
0.121496305
-0.004363444
-0.14166597
0.1944146
-0.0071566193
0.016432004
-0.09050878
0.077106334
0.11875872
-0.09017967
-0.09677065
0.35092822
0.002206065
0.121370696
-0.004575567
0.011055542
-0.06258907
0.16945224
0.07266518
-0.03124915
-0.17688806
-0.011213919
0.07345528
-0.048939668
0.04500596
-0.08757304
-0.05129296
-0.020675287
0.006824494
0.131304
0.09375805
-0.0390936
0.060473803
-0.016557993
-0.2216486
-0.085269004
0.11386993
0.018178554
-0.06649902
-0.12736627
-0.10127044
0.011468659
0.03546975
0.034222033
0.058732092
-0.055608198
0.14458446
0.2590357
-0.064631864
0.22542983
0.09276294
0.06512592
0.17861818
-0.12561488
0.03677949
-0.12810344
0.20910345
-0.16879559
0.13929436
0.22672114
0.27947757
-0.32252604
0.15452704
0.09097703
0.042696554
0.17819089
-0.11448821
-0.0010696354
0.026240949
-0.108182095
-0.098500825
-0.10751409
-0.09550385
-0.23062961
-0.15127584
-0.0575775
0.015629508
0.060882606
-0.10418826
0.041960422
-0.11890261
0.030028822
-0.124520995
-0.19170795
0.12366
0.18750395
0.1538038
-0.081117496
-0.028516153
0.06501312
-0.0074855154
-0.09436952
-0.022027649
0.014300666
-0.11663442
0.083383694
0.07153945
0.030623293
0.0073022894
0.029936248
-0.013091354
-0.0047640917
0.08019273
0.039969146
-0.16986227
0.07777623
0.09117605
0.12003622
-0.078019194
0.04704903
-0.11332122
-0.043559052
0.01315332
0.0032907669
0.011421613
-0.06271021
0.016507732
0.18419284
0.005701705
-0.1010478
-0.059614792
0.06939468
0.044515163
-0.058395624
-0.0259928
0.08744619
0.11606202
0.0004601748
-0.015817415
-0.07986362
0.016885227
0.24444538
0.13998963
0.14931117
0.085089475
0.12750219
-0.03282
-0.027118105
-0.12849253
0.082099706
-0.15840362
0.0054453365
-0.06384837
0.026606651
0.03880765
-0.05279143
0.036126856
0.031216163
0.15022568
0.11062687
-0.006021526
-0.026365634
0.27672485
-0.008402346
-0.0049108686
-0.20426182
0.07133117
-0.07440454
0.07368319
-0.071960494
-0.1904874
-0.14536749
0.16793716
-0.1531571
0.13131021
0.027948298
-0.0714489
0.13844484
-0.03564976
-0.082915284
0.17438927
0.0114750555
0.09407366
0.108531564
-0.033769038
-0.050326083
-0.0042405883
-0.081331566
-0.04353002
0.056067
-0.08652601
0.0117536625
0.24149106
0.034381025
-0.051556826
0.11863158
0.043252233
-0.05589756
0.060950924
0.08289101
-0.15949838
0.04303507
0.29277372
0.00028664674
-0.085278414
-0.07305239
0.035517357
0.040605344
-0.046295263
0.010779725
0.07938954
-0.025928082
-0.06624319
-0.030571064
-0.02212978
0.011181161
-0.01203647
0.15440421
0.021237087
-0.0989592
0.033857375
0.07755994
-0.07669918
-0.05483487
-0.022760501
-0.19036114
0.0622027
-0.1333953
-0.1902588
0.1576103
0.09317616
0.05483592
0.09723848
-0.022083487
-0.025872884
-0.13943318
-0.06493632
0.14367647
0.10475543
0.23439609
0.012339198
-0.1441311
0.025407929
-0.005610111
0.035602238
0.08824842
0.07944566
0.04424876
0.10860159
0.001205918
0.006006801
-0.13753742
-0.017199699
-0.04358196
0.07084661
-0.1123167
0.22436264
0.06830362
0.095279105
-0.0019844275
0.009087505
0.0633312
0.052046355
-0.22428614
0.01252043
0.06283004
-0.056539647
0.018593406
-0.29879427
-0.09629473
0.12122785
-0.16150801
0.048067003
0.06537182
0.03450157
0.03534892
0.047333557
-0.08785052
-0.010853873
-0.048863232
-0.053827804
-0.09935462
0.03574661
0.08360979
0.06772644
-0.044529635
0.04724728
0.11969943
0.0049705994
-0.031741
-0.07485992
0.019251302
0.028196039
0.009901107
-0.14451285
0.016646866
-0.06619196
-0.016237626
0.023446053
0.07645087
0.12046099
-0.061044246
-0.043482605
0.014604984
-0.015092056
-0.12983277
-0.030773887
0.16322912
-0.0433657
0.06155216
0.033107802
-0.046519548
0.14667766
-0.04428952
0.099195816
0.03196259
-0.2122896
0.14959702
-0.07160257
0.006380749
-0.06131186
0.026260773
0.11884681
0.033346996
-0.13870278
0.05505249
-0.14662871
-0.027258469
0.02380279
0.07788894
0.013943989
0.030840017
-0.010861746
-0.16196325
-0.07282594
0.0146226175
-0.22041085
-0.14920224
-0.098178886
-0.08056578
0.1496165
-0.050379734
-0.09864828
-0.084511064
0.06821375
0.053846765
0.040647425
-0.028780533
-0.049375974
0.045770474
0.10523767
-0.15575199
-0.011973518
0.1507438
0.08692645
0.1017579
-0.1562204
0.002422327
-0.058013406
-0.02238948
0.17862257
-0.19608599
-0.22115162
-0.10245466
0.032370567
-0.0015192545
-0.11305526
0.050029356
-0.0975817
-0.010578081
-0.1269364
0.009562782
0.043564733
-0.03682467
-0.076442696
-0.1794882
0.124953836
-0.10856327
-0.043227863
-0.023146018
0.0066185906
0.038831178
0.019799238
-0.061004676
0.094295576
0.054776352
0.003976411
0.11589011
-0.07759063
0.13051312
-0.08414788
-0.034940198
0.030443983
-0.07906118
-0.022390148
0.092978105
-0.12976074
-0.013374308
0.06473408
-0.07350346
-0.07427582
0.0743529
0.23225378
-0.023404947
0.1684098
0.09115955
-0.11603065
0.028827572
0.12057258
0.108773276
0.046795752
-0.0011468462
-0.09049747
0.20823301
-0.0033384503
-0.08773965
0.04763681
0.0034858214
-0.0967582
0.018106986
-0.11193864
-0.18361443
0.05170493
-0.091576844
-0.105518505
-0.011320724
-0.1004034
-0.016820414
-0.060621332
-0.08108939
-0.10512836
-0.002913967
0.09513874
-0.028351065
0.06013482
-0.05079209
-0.08878356
-0.046415348
-0.032503106
-0.09333598
-0.05334532
-0.0346241
-0.034161408
-0.0056616114
0.10766868
-0.08381988
0.011599564
0.0053886864
0.047637504
0.017636925
0.13361034
0.025255073
0.057456564
-0.060033873
-0.15552936
-0.028181728
-0.10168178
0.06042078
0.08214861
-0.070184365
-0.028747302
-0.046275847
-0.03041978
-0.04150473
0.07394982
0.17432237
0.04787537
-0.0067006727
-0.02074262
-0.005227428
0.038308725
-0.11593941
-0.08530611
0.030953487
-0.002389879
0.08642059
0.06323053
-0.110106535
0.06495135
-0.10518199
0.120062366
-0.14641634
-0.051221218
0.1090973
-0.017494064
0.07290961
-0.007345007
0.1551125
-0.072270006
0.2816331
-0.07998022
0.0849686
-0.07489345
-0.06789669
0.05184178
0.044779833
0.007080394
-0.0606732
0.02568107
-0.007896803
0.2412279
0.19272646
0.04142519
0.22194561
0.1631374
-0.021537563
-0.018399727
0.04018573
0.06313862
-0.112800546
-0.03588852
0.09468787
-0.06991687
-0.08604727
-0.008050861
0.055650905
0.13488604
-0.051235143
-0.017149223
0.026231928
0.026228342
0.07793874
-0.034245607
0.060911074
0.09887028
-0.019423202
0.009956233
-0.029192174
-0.024517238
0.14260249
0.038942304
0.076730266
-0.120772116
-0.019870425
-0.024317881
-0.06175218
-0.023777466
0.11730637
-0.18430956
0.07650543
0.17996414
-0.085477345
0.035492085
0.034837164
-0.07957135
-0.1448044
0.035795826
-0.018138446
0.09679202
0.14566194
-0.1921927
-0.0015433872
0.02292559
0.07693987
0.03380013
0.09447429
-0.034495745
-0.022409739
-0.06620447
0.13778207
-0.07308791
-0.07633699
-0.06584499
0.025787385
0.06622202
0.07405716
0.103604466
-0.19452311
-0.08621655
0.12577532
0.12725638
-0.121915385
0.13100308
-0.13097803
