0.0026064324
-0.0070887473
0.017138222
0.030295989
0.0019150736
0.0026305476
-0.021548629
-0.023372043
0.004726437
0.031624902
0.02686754
0.0142159015
0.024528416
0.06190756
-0.004769434
0.024972228
-0.010450903
-0.02343555
0.03141391
0.009119449
-0.0055090026
0.033101827
-0.008888986
-0.010770778
-0.0021530099
-0.012559859
0.066759266
0.026920518
0.048555266
0.014195204
0.016598407
0.013941643
-0.013236434
0.0049889744
0.03332264
0.0059833927
-0.03639879
-0.005406247
-0.016391842
0.046345692
0.0043870243
-0.049152087
0.0027016317
0.015051409
-0.01081374
0.01437708
0.03211263
-0.021679446
0.02054515
-0.04304222
0.058135334
0.014386068
-0.042865586
0.023822049
-0.03348579
-0.005894388
0.09057115
-0.014390882
-0.03532526
0.022523573
0.0071823136
0.036839772
0.016937071
0.02947113
0.016862622
-0.030256772
0.0065384684
0.022209285
-0.023036147
-0.05027561
0.08611231
-0.0017255986
-0.045465074
0.02384386
-0.016919767
0.047495525
-0.0144103635
-0.027300091
0.009013461
0.00032859313
-0.056809716
-0.03088499
-0.036567587
-0.026565136
0.025561849
-0.018045733
-0.03934272
0.002473407
0.052049316
-0.03365279
-0.02872079
0.020420145
-0.043193646
0.0120876655
-0.0017953299
0.024814876
-0.046985403
-0.05756475
-0.023088176
-0.025665287
0.009165469
0.05532473
-0.014375466
0.036108542
0.022902763
-0.018535336
-0.019718666
0.0015661397
-0.018908642
-0.0068848967
0.064424604
0.017930586
0.022915496
-0.028110852
-0.023525419
-0.022601893
-0.006970209
0.031834863
-0.04210457
0.015312116
-0.04148029
0.020499384
0.011509822
0.007704166
-0.037284948
0.0511723
-5.9642523e-05
0.0057807253
0.0497263
0.0028997206
-0.023730814
-0.03014163
0.059902538
-0.031744894
-0.015714755
0.039109882
0.040671073
-0.046037864
0.03935388
0.03725297
0.011327877
0.04623081
0.028070435
-0.023650616
-0.017583326
-0.017431336
0.029276533
-0.011505676
-0.008012409
-0.032853268
-0.042772926
-0.014071947
-0.0129207885
0.0324068
-0.049736302
0.0099949045
0.051932935
0.02318609
-0.008364028
-0.005717878
-0.06005745
-0.032626756
-0.013010759
0.019916276
-0.008965478
0.04569371
-0.052224457
-0.019542474
-0.028072307
0.057462372
-0.008698256
-0.027847944
-0.037543997
0.02901796
-0.01939402
0.010372763
0.011665329
0.03914258
-0.019788733
0.021172967
-0.03694915
0.0033911313
-0.062415823
-0.03292036
-0.008337127
0.0023938443
-0.038633034
-0.005925458
0.008313138
-0.016272197
0.04876329
0.041995827
0.00041701493
-0.058102112
0.020783499
-0.0065384046
0.024667703
0.012466203
0.01992621
0.0063745687
-0.028813241
-0.021331128
-0.006007461
0.019039156
-0.0018809552
-0.04768946
0.01783066
0.017734718
0.008923125
0.012851141
-0.02660042
0.05655985
-0.01691325
0.028310033
-0.0016097948
-0.060045477
-0.0069242814
0.01104003
-0.03926293
-0.046252407
-0.026243633
-0.001702574
0.018524092
0.016615584
-0.010736739
-0.038665816
-0.038734052
-0.006199322
0.038690533
0.024606446
0.0031188708
-0.0398864
0.029586915
-0.012136356
-0.012699926
0.068283536
-0.010181359
-0.027741002
0.038384225
0.027591137
-0.02067721
0.019677408
0.0045079375
0.022387942
0.007271484
0.00713579
-0.01603115
-0.050691854
0.0028931808
-0.044812992
0.033908423
-0.009564484
-0.017510068
0.053036083
-0.03435526
-0.03822708
0.004701284
0.001789618
0.033164557
0.0047401763
0.028348308
0.012798437
0.01951711
0.037410285
-0.0036645543
0.027219746
-0.010235301
-0.02220156
0.06589689
-0.022201104
-0.010296822
-0.010506992
-0.006037729
0.012526835
0.01001146
0.014370974
-0.044644445
-0.022087157
-0.051754188
0.030414388
-0.056460142
-0.012129058
-0.050617766
-0.048530336
-0.041947037
-0.0064604087
0.054383248
-0.07152573
-0.036307745
0.05801338
-0.030670652
0.014611015
0.028305026
-0.021644745
-0.055606216
-0.021055624
0.00076967827
0.02287277
0.0116775455
0.056295987
0.049850676
-0.022209587
0.0023989119
-0.0097677605
-0.07021492
-0.012805057
0.012268476
-0.0032741027
0.0015127845
0.019520445
-0.015915845
-0.058513183
0.0064803334
-0.026053876
-0.012620134
0.009809482
0.018725963
-0.03569604
-0.007239443
0.00925808
0.038304076
-0.042494986
0.014570075
-0.049012415
-0.047316797
0.0057095117
-0.012156605
0.010924918
0.009086183
-0.009498604
-0.037754223
-0.013232484
0.03565374
-0.012159155
-0.027197031
0.0020584154
-0.024774643
0.013394464
0.035669442
-0.020371316
-0.0100566
0.0029423228
-0.014023552
-0.042953085
0.0384678
0.018093193
0.026332501
-0.0014264373
-0.008804274
-0.011318033
-0.009700314
-0.0102923345
-0.037734874
0.026767533
0.02630335
-0.01424301
0.03831764
-0.012053549
-0.025491877
0.04639358
0.019692374
-0.036800947
-0.0023907975
0.02759975
0.03561358
-0.011741723
-0.029023929
-0.02137368
-0.0044159656
-0.015889507
-0.05036709
-0.024380479
-0.011504251
0.04383892
0.023855034
-0.01103573
0.05771777
0.037938803
-0.011650486
0.0127650695
-0.05077119
0.0346851
0.016326468
0.039096918
-0.016836898
0.02775364
0.025537375
-0.002915467
-0.030403756
-0.004857515
-0.024339195
0.0108662825
-0.004841794
0.01576754
0.014113844
-0.046671335
0.010893765
-0.011755474
0.044339724
0.029935338
0.00412702
0.016514655
-0.009185763
-0.012170325
-0.047346886
0.026473394
0.023158612
-0.0027048825
0.016195774
-0.0007805214
0.010114383
-0.02173145
0.01771154
0.011351225
-0.046396706
-0.010453657
-0.017621648
0.0213526
-0.014286142
0.016372137
-0.022636367
-0.017315676
-0.01771598
-0.028447274
-0.055566452
-0.043881897
0.0066226926
-0.013067102
-0.026829874
0.019065062
-0.04408989
-0.06605517
-0.040062606
0.06969444
-0.008004654
-0.018663641
-0.0019175195
0.0165668
0.015857516
-0.030042294
0.021472061
0.006583186
0.02455341
0.036792897
-0.049590122
-0.016382681
-0.0060341656
-0.029571248
-0.00047865126
-0.02743317
-0.024384893
-0.0667207
-0.043685704
0.021933872
0.073567756
0.02346025
0.0074581327
-0.015005891
0.017567432
0.008070027
-0.012669846
0.0259535
0.009414035
0.059649453
-0.0314823
-0.007294538
0.007339767
-0.017186608
0.0037563178
0.020936824
-0.022509195
0.058574345
0.0070889797
-0.005617183
0.011708251
-0.028872732
-0.02103638
0.037625942
-0.036801845
0.006883626
0.018690089
0.0048074685
0.0010758505
0.0027669035
0.00063594035
-0.0023821567
-0.014507594
-0.03765016
0.011339236
0.045581438
-0.01816649
0.041263692
-0.008820396
-0.060831785
-0.021855468
0.075696014
-0.019998934
0.013209424
0.009324592
0.027795581
-0.015868159
-0.05346499
-0.029685963
0.029326417
0.03942257
0.021992154
-0.004010477
0.014355636
-0.056606576
0.035673328
-0.0008304245
0.06488239
0.028987033
0.014975342
0.0018613258
0.033260494
0.0032446808
0.008775779
-0.009969897
0.008065817
0.031006573
0.017681949
0.028765736
0.030831095
0.08738461
-0.0030478653
-0.02073096
0.016740683
-0.012816557
-0.0050614714
0.011879231
-0.011901466
-0.0045169927
0.004671651
-0.03302534
0.014207142
0.04767912
-0.023626074
0.026189582
3.6495392e-05
-0.0062253084
0.037853066
-0.047993414
0.017975109
-0.0076652193
-0.0003367464
0.035436463
-0.012228276
-0.08682788
-0.023598652
-0.030813
-0.010999229
-0.034502424
-0.010940935
0.033027295
-0.014775727
-0.030652933
-0.041895106
0.012261334
-0.001381165
0.048178643
-0.0056216135
0.01608639
0.0076574977
-0.006064773
-0.025909651
0.009703743
0.038282942
0.004753545
0.030383099
-0.008019086
0.0021545424
0.0406725
0.047475725
-0.040634446
0.05204106
-0.047722947
0.039031226
0.0006190933
0.028288465
0.04449882
-0.020523453
0.049979433
-0.016466526
-0.033288963
-0.027078519
0.03191398
0.013207378
-0.02647358
0.056005407
0.006538194
0.06317786
-0.04554822
-0.024845723
-0.012561907
-0.047565926
0.012030738
-0.028838065
0.026307182
0.023462242
-0.037374705
-0.01271946
0.017298646
0.01582317
-0.020178163
0.03209272
-0.03769755
0.03373678
0.013837601
-0.032496884
-0.004943919
-0.040572125
0.020148462
0.0067082765
-0.0028697285
0.019818671
-0.015988998
0.008706612
-0.0166376
0.081841044
-0.0017094953
-0.038550183
-0.0040034056
0.039743382
-0.020712944
-0.05415574
0.049529318
0.014733958
-0.014335252
-0.009173256
-0.021467544
0.019464737
0.018872865
-0.025814716
-0.03993424
0.0002626667
-0.00063433294
-0.033738174
-0.057676923
-0.064137265
-0.059901096
-0.0031867484
-0.026282327
0.038132053
-0.008432584
0.016700147
-0.0039082034
0.030718572
-0.000226083
-0.029435005
-0.009868147
0.0026519662
-0.006174876
-0.050738096
0.018069342
-0.021088026
-0.08758339
-0.01419966
0.030326094
-0.0346269
0.032136764
-0.0019393086
0.014497756
-0.045355085
0.05242522
-0.04566848
-0.008810622
0.013707355
-0.011691508
-0.030678522
0.02600595
-0.0136813475
-0.044729047
0.018983295
0.008505457
-0.05901528
-0.012890982
0.013302029
-0.03861164
-0.004356149
0.01753616
-0.066014424
-0.031344716
0.023912761
-0.07247852
0.037152078
0.04823816
0.022310646
0.008460385
-0.04113865
-0.005999049
-0.016417157
0.011815428
0.010272713
-0.002118331
0.06435841
0.04553258
-0.0204033
-0.032778665
0.024376232
-0.010651314
0.02491578
0.030653704
0.017566072
0.008439136
-0.0095769055
-0.01741299
0.004420686
-0.00095674203
-0.024961181
-0.046561003
0.008056348
0.0038854775
0.041733768
0.039043028
0.01774457
-0.016564652
-0.034167267
0.0019826563
-0.01269569
-0.019921018
7.216287e-05
-0.03594693
-0.00089270447
0.051662337
0.020394232
-0.0063128727
0.049721766
0.012426723
0.003864375
0.035861276
-0.02185683
0.0048704846
-0.051109836
0.0094375
-0.043034516
0.0031755292
0.029806634
0.050591204
0.06713377
0.08762236
-0.035232864
0.013825068
0.030861676
0.024281267
-0.015531672
0.039429262
0.013725748
0.0415937
-0.057690095
0.041568384
0.0011593762
0.023603642
0.0061236797
0.001076547
-0.05020203
-0.0040076002
-0.004632254
-0.018010758
0.0029116797
-0.019543326
0.008876466
0.00086130324
-0.019113425
0.02236713
0.030736791
-0.008212577
0.0127846245
0.019144127
0.036903508
-6.8314934e-05
0.0017764907
0.0008461863
0.038417798
-0.03589284
-0.025650388
-0.01135721
-0.01948552
-0.04373253
-0.06090683
-0.038492963
-0.04851275
0.028876616
-0.040341776
2.806412e-05
-0.04219591
-0.039278522
0.0033166732
0.0067023765
0.037717614
0.03717606
0.014723175
0.029987242
-0.044250745
-0.0073661166
-0.00858117
-0.041693725
0.0012976715
-0.018358065
-0.061586123
0.016354593
-0.02704736
0.029480949
0.058648907
0.0052129673
0.0274798
-0.030022008
0.008739381
-0.04640591
-0.040832497
-0.019563487
0.037183832
-0.034730516
-0.021410163
-0.038535524
0.039563574
-0.047009945
-0.016195541
0.0220012
0.052979387
0.032013666
0.04101188
-0.011216282
0.026511453
0.073272295
0.0013500912
0.019427255
-0.027126411
0.0110073
-0.002051619
0.0039126575
0.027540438
0.049185645
-0.0002247215
-0.016759377
0.007881614
-0.002821869
-0.0063686995
-0.018399637
-0.035769284
-0.04266564
0.050699804
-0.024249727
0.02120656
0.0048827417
-0.02042593
-0.021866065
0.04293841
0.00509823
-0.01623958
0.020266527
-0.07029163
0.04243009
0.013753676
-0.017326681
0.020641718
0.0069721974
0.0034320035
-0.010869931
0.013905478
0.0074816076
0.0008551616
-0.012730607
-0.04524512
-0.037627034
0.014407623
0.0007191697
0.0020349873
-0.028498167
0.041572925
-0.016019069
0.03736466
-0.0042123287
-0.006407458
-0.01472106
-0.007352318
-0.016690927
-0.010049127
0.020699114
0.021397611
0.0039631836
0.031983495
-0.0077732718
0.019258263
0.042804748
0.004113475
0.0181346
-0.042296235
0.0034322503
0.017655766
0.053998448
-0.058791675
-0.012728807
-0.009522601
0.023610134
-0.015416558
0.023775615
0.046538893
0.034961905
-0.013826267
0.022103744
0.012510738
-0.008663909
-0.014091607
0.0191594
0.03225745
-0.039740514
0.02406882
-0.0011752872
0.0040263473
0.005558285
0.01501399
0.014691455
-0.013853816
0.02071724
0.023720631
0.055377726
-0.046042092
-0.028556118
0.012454213
0.051733684
-0.0034725287
-0.011376538
0.015336126
0.03308724
0.03351494
-0.02413341
-0.021671522
0.0033126832
0.008203318
-0.019512676
0.00515616
-0.011209219
-0.054435086
-0.04976873
0.01980762
0.03276772
-0.022198595
-0.0024607405
-0.0173368
0.02644896
-0.0029246006
0.050575655
-0.0335682
0.056693595
0.019464493
0.06951312
-0.0233042
-0.020471247
0.04248621
0.018147072
-0.018646445
-0.036721308
-0.08830897
-0.028599763
0.010334008
-0.024098326
-0.031248178
-0.04098711
-0.019378541
0.02751169
0.01876618
-0.010049602
-0.0015734903
0.031009326
-0.02893411
0.03734754
0.012986923
-0.013761684
0.035031542
0.009746482
-0.029089592
0.0128259305
0.02176489
-0.018019095
-0.0018214292
-0.016124137
-0.029597467
0.013718324
0.03524552
0.009995319
0.04676167
0.005046188
-0.031235335
0.044709835
-0.02547952
-0.041667335
0.004293167
-0.0479224
0.02704925
0.012011611
0.010715776
-0.08554973
0.01656006
0.015525283
-0.024070695
-0.027724
0.017803837
0.034690205
-0.01691382
0.017364912
-0.010221481
0.011756683
0.012896872
0.022846147
0.018011028
0.053127766
0.009586413
-0.033574827
0.051403563
0.0058968063
0.027187476
0.021793144
-0.008215845
-0.041384898
0.0013198226
-0.012187395
0.017507419
-0.0044082683
-0.013697319
-0.04656935
-0.043169934
0.01856014
0.007949078
0.043765772
-0.04052431
0.011095797
0.012547223
0.024810161
0.010882726
-0.013235201
0.046513405
0.016017953
0.010580146
-0.013477909
-0.039394174
0.00061444775
-0.0035792168
0.023345966
0.0076061226
0.027828531
0.0334377
0.016803598
0.017777665
-0.021021534
0.05285376
0.01917364
0.022168042
0.026317306
-0.012178949
-0.000109129935
0.022624912
0.07126661
-0.008960167
-0.0025806078
-0.03322696
0.002334799
0.0008464387
-0.018278236
-0.0030502928
-0.0023213183
0.007482681
-0.011838669
0.011687102
0.045512762
0.035827074
0.09381278
-0.013408786
-0.051355958
0.05478183
-0.018002357
-0.0009377389
-0.02674868
0.0002125819
0.020812739
-0.041333135
-0.026132785
0.0013920435
-0.015639452
0.014031816
-0.026637925
0.037439868
-0.02924055
-0.017852422
0.044427834
-0.04315628
-0.021920867
0.015576858
-0.009778753
-0.036818203
-0.030743243
-0.027697746
0.01585879
-0.012640075
0.06236073
-0.013898115
0.004774779
0.02645977
0.043369595
-0.024895454
0.006638289
-0.059947632
-0.029506521
-0.010807908
0.011439485
0.022109618
-0.044907033
-0.024479996
-0.05693346
-0.024645869
0.017108278
0.013205008
0.019030647
-0.012611467
0.029142438
0.03010357
0.024624165
0.020382164
-0.0063754935
-0.09707051
-0.01459975
0.022570591
-0.003321375
0.02715738
0.023281576
0.047425915
-0.009318092
0.014655484
-0.0065178135
0.03892918
0.03502712
-0.02819057
-0.026085734
-0.0074086054
0.017928941
0.030954294
0.057627697
-0.033065543
0.067859225
-0.043530587
0.08208955
-0.029955182
0.021783365
0.009379297
-0.11313187
-0.023267772
-0.08012236
-0.0005881477
-0.014829497
-0.01492282
0.04267785
0.018980391
-0.03510849
-0.02704937
0.020194873
-0.060818378
-0.011890827
0.017799687
0.05002528
-0.03322242
0.021982318
-0.0051848353
-0.011693352
0.070888475
-0.0021622707
0.03949725
-0.07864288
0.058289573
0.0402685
0.014771878
0.03756099
-0.045407988
-0.022902919
0.022620598
-0.060034726
-0.032632172
-0.042565696
0.031515587
-0.07534922
0.024515605
0.029982436
0.028843287
0.0026730392
0.03600096
-0.042453147
0.017488891
-0.035711877
0.0040818737
0.032051805
0.046569854
-0.008754831
-0.0017962754
-0.026059216
-0.0138989575
0.02835991
-0.010696106
-0.009948321
0.05194711
0.0024365864
-0.012677225
-0.024177711
0.016131643
0.0075267367
0.012863483
0.0112342285
0.025153631
0.006333249
-0.04684439
0.03784493
-0.028149093
-0.0056089372
-0.019146882
-0.044655584
0.017418899
0.010749607
-0.0055882945
0.016861394
0.016061408
0.045420934
-0.0283829
-0.02773048
0.029992672
0.011714703
-0.023322796
-0.027921664
0.01271973
0.0164646
-0.0017186927
0.024191901
-0.03992973
-0.031869717
0.037458114
-0.03607642
0.0396206
-0.061052676
-0.017339345
0.016882576
-0.020579226
-0.015855022
0.00849355
0.023477957
0.03415198
-0.011557812
0.056792736
-0.0011344732
-0.007944562
0.024922824
0.018697372
-0.0307214
0.00088900625
0.0049495012
0.009529104
-0.016432704
-0.0012375104
0.026254056
-0.02566931
0.0015299825
0.02062778
0.013861679
0.007949058
-0.033877503
0.013692445
0.010203647
0.014401191
-0.027015025
-0.0126524605
0.015453654
0.007850905
-0.02230364
0.009559359
0.03671024
0.026160963
-0.036554866
0.09126787
0.012913408
0.01615145
-0.02207368
0.06855124
-0.014169246
-0.02448578
-0.012068468
0.036408026
0.002707267
0.028587691
0.00025268912
-0.043819528
-0.0068878764
-0.03509548
0.01811712
0.015184284
-0.00860387
0.0059802155
0.014491616
-0.024861576
-0.041751668
0.044928048
0.024549684
0.00776047
-0.038340557
0.032709256
0.058852285
0.028298112
0.006686568
0.058490336
-0.023772653
-0.024429008
-0.0088275
-0.015084603
-0.012636356
-0.014518948
-0.001852411
0.0018216206
0.042602424
0.02990203
-0.022462893
0.012055549
-0.023193287
-0.01715573
0.026354624
0.009517141
-0.05983643
0.01231851
0.030587187
-0.0025700342
-0.012620426
-0.01772137
-0.042268485
0.0029732254
0.0006352691
0.008147712
-0.0029932011
0.009800743
-0.030075967
0.029949762
-0.006839952
0.044790905
-0.0021682207
0.010840591
0.018205112
-0.046649866
-0.032943416
-0.026782736
0.074531384
0.054052077
-0.0025151775
-0.021745676
-0.025284743
0.027056439
0.019530647
-0.034511108
0.01747819
0.0214373
-0.02571469
-0.025048159
0.0062964275
-0.033699624
0.03567057
-0.037158668
0.04627407
0.015176825
0.010856566
0.019778958
0.008474114
-0.018338412
0.03420068
0.067444816
0.043550722
-0.052904505
0.04344344
-0.0074230805
0.046676543
0.018900035
0.025480207
-0.030010782
-0.030724794
0.013183405
-0.021232406
1.8845347e-05
-0.0055495
-0.030359324
-0.05269346
0.026454179
-0.04042357
0.0457708
0.0051235203
0.029723087
-0.011390268
-0.01500991
-0.011925889
-0.016559256
-0.044580024
0.033349846
0.030906867
-0.008029456
-0.0068262783
0.046123896
-0.038067713
0.005173595
0.036811404
-0.04481424
0.026893472
0.0008459508
-0.019274509
0.017965307
0.009967244
0.057803802
-0.06197948
0.01986436
0.02497921
0.009187814
-0.022812862
0.013309685
-0.028941132
0.06751927
-0.024122572
0.011130854
-0.019895932
0.011862275
-0.018515253
-0.036521353
-0.009359355
-0.028912175
0.0018626116
0.009515043
0.0039557116
0.0008051304
-0.0061257547
0.022158215
0.038962044
-0.006794902
0.0022647632
-0.038227428
-0.03185701
-0.013200405
-0.008276143
0.006798042
-0.018893186
0.003734541
0.049871378
-0.0011452901
0.016277052
-0.0138329165
0.027927734
0.040248718
-0.020256478
0.027883254
-0.008974721
-0.013879603
0.02348912
0.04881375
0.022956165
-0.023663666
0.03855926
0.06613645
0.001882322
0.028627094
-0.029000575
-0.038306188
0.0021853307
-0.016844975
0.0027140384
0.024774482
0.024794767
-0.017157512
0.009773941
-0.039838206
0.036494162
0.027705407
0.023130769
0.027742468
-0.047185957
0.035468217
-0.0012534879
-0.010531754
0.022386618
-0.026591102
0.025484813
-0.004855498
0.019769298
0.011238095
0.025442766
0.017512394
0.0127658
0.024968442
-0.067694046
-0.030959398
-0.026035374
-0.038162287
0.009469089
-0.02454281
0.028529204
-0.00042483615
-0.017559176
-0.0657526
-0.0151400985
-0.017002875
-0.00021337379
-0.012068643
0.017689826
-0.05297783
-0.042438913
0.027149912
-0.013072861
-0.005330535
-0.059376504
0.02248739
0.014019778
0.04962567
-0.030594684
-0.0034140511
0.0017077859
0.018251823
-0.014835573
-0.03600158
0.039501138
0.039035335
0.013038874
-0.004429752
0.005705156
-0.037729625
-0.034179617
0.003566293
0.00021114845
0.08203826
0.0042930963
-0.0043130186
0.014409763
0.055648997
-0.026895273
0.0364747
-0.026349315
-0.056256164
-0.033736467
0.0303772
0.003782115
-0.0065457253
0.02168137
-0.018365154
-0.011353951
-0.039118454
0.061766274
-0.032707963
-0.007001631
-0.021673216
0.0051425733
0.0009565997
0.0013103982
0.052638926
0.026968118
0.035149455
-0.008629185
-0.012722491
0.019501425
-0.022444563
0.008534251
-0.043161638
0.03800756
-0.005122942
0.049535617
-0.004628252
0.018344324
0.031027526
0.0065328516
-0.07562051
-0.004701169
-0.050163146
-0.00038066556
0.022690322
-0.049300417
0.013596798
0.0130871
-0.020419743
-0.0046081236
0.019088676
-0.004007843
0.0408903
-0.017199066
0.0006278583
0.025853382
-0.052153513
-0.015247207
0.086040236
0.016838636
-0.017576367
0.032849982
0.025571436
0.028340863
0.013225543
0.008813721
0.033483364
0.044010356
-0.04034444
0.005940503
0.017651282
0.019525906
-0.017086115
-0.03618572
0.005433172
0.020103795
-0.030605271
0.0014155814
0.0026925686
0.011258807
-0.07212498
0.024163673
-0.043960772
-0.020317052
0.0074018044
-0.016256591
-0.0027021284
-0.0069363695
-0.026838943
0.049425323
-0.017081505
-0.042409346
-0.033562258
-0.07979169
-0.00028161771
0.03398105
-0.018352095
0.021418972
0.00054811826
-0.008190105
9.73487e-05
-0.026820796
0.014714394
0.04456696
0.02547112
0.034585644
0.0029693434
0.009514682
0.028821468
-0.011660313
-0.0013097659
0.014172552
-0.037681434
-0.010266647
-0.008923296
0.013097771
0.021102881
0.015670411
0.026832053
0.018937202
-0.027663223
-0.024593398
-0.023638153
-0.032658577
-0.013268144
-0.023332963
-0.014322723
0.0008443351
0.009786762
-0.017692704
-0.013910597
-0.017090352
0.014998432
-0.004867986
0.011535772
0.003230437
-0.013873504
-0.009922586
0.026975948
0.007485594
-0.020822426
-0.025615115
0.07263503
0.006793661
-0.00019765436
0.026854387
0.0012638075
-0.051746055
0.03263349
-0.001919564
-0.018215554
0.014105638
-0.017340658
0.054882646
0.019613031
0.014113535
-0.033950947
-0.042283032
-0.012763254
0.03696424
0.032069325
0.0423933
0.03390431
-0.0019494832
0.025242439
-0.049617272
0.02135437
-0.037275136
-0.059713367
0.0076555205
-0.00046638818
-0.014985536
-0.054183856
-0.03272058
-0.018780787
-0.020278772
-0.00056024484
0.013294243
-0.024815684
0.0346119
0.015011546
0.013378469
-0.012514945
-0.0010536371
-0.04223499
-0.00035812167
0.044420347
-0.051201425
-0.055928487
-0.0021799812
-0.026743868
0.017454932
0.089454375
0.0050206506
-0.03359976
0.0124497665
0.015910262
-0.010670808
0.0042786086
0.011700615
-0.013489771
-0.038421933
-0.050249774
-0.02406853
-0.022529794
0.0060024946
-0.03328813
-0.012594272
-0.06326034
-0.020581026
0.01784445
-0.0076775104
-0.029623484
-0.011433852
-0.0109762745
-0.021537585
0.0026419363
-0.033799104
0.023251101
-0.004373182
0.03098678
-0.0022889043
0.005009926
-0.005294057
-0.02165152
0.017641814
0.03019498
0.0064921672
-0.0038110472
0.040609535
-0.029377623
0.010389276
0.013836717
0.071742326
-0.0015389835
0.011324157
-0.019256435
0.012611718
-0.027657146
-0.0027890212
0.024236022
0.0004368565
-0.04698922
-0.03366625
-0.0243898
0.060831267
-0.025521167
0.015510399
-0.001080065
0.03621574
0.04946924
-0.014825496
0.029162023
0.04927114
-0.030857932
0.014208894
-0.012681398
-0.0046334467
0.003669612
-0.042208433
0.0066680536
0.04436037
-0.015258184
0.011776465
-0.020124542
-0.0589184
0.015378369
0.0028535265
-0.02664972
-0.022977456
0.014350878
-0.018314065
0.0080838045
-0.009316771
-0.0090803625
-0.0134194
-0.013481345
-0.0016661324
0.046307642
0.024252858
-0.030470785
-0.028374791
0.0062181875
-0.014319825
0.010136868
0.011899276
0.03597458
0.02523458
-0.053776346
0.024266116
0.051728588
-0.019249812
-0.014594957
-0.021375712
0.00033878195
-0.0056253974
-0.03729821
-0.019388603
0.03358648
0.036645565
-0.028575651
0.01593596
-0.016462315
0.022352101
-0.020660587
0.033093046
0.0008319107
-0.03308261
-0.0049931495
0.049741708
0.01344351
-0.010919722
0.039063398
-0.06719497
-0.021073118
0.047136437
0.018046761
0.054849427
0.015607484
-0.0003040141
-0.009641911
0.036972243
0.028123865
-0.028836783
-0.054107323
-0.05629816
0.062384114
-0.0130809825
0.016817106
0.012486315
-0.041875876
0.058593467
0.037706427
-0.009140674
0.023710078
0.015350909
0.012309542
0.055095673
0.0034850345
-0.01301023
0.023654165
0.054439493
0.017052995
0.0194062
0.036853477
-0.015179429
0.0024251547
-0.03998322
0.038569167
-0.0023828782
0.015989041
0.062788226
-0.031129641
0.0024182128
0.034237526
0.017992161
-0.013131695
-0.011210943
0.020811891
-0.02367989
-0.016724635
0.0045166
-0.03353741
-0.010343344
0.0121179065
-0.03267861
-0.025399348
-0.0063190567
0.025001358
0.016153477
-0.0130155245
0.004858275
0.021140873
0.026664931
-0.0040185577
-0.03898551
-0.00924904
-0.03988346
-0.026642604
-0.031004913
0.03522324
0.031083336
0.0070107477
0.015061367
0.034595266
0.04255862
0.0033866633
-0.054551773
-0.09247815
0.00057124975
0.05272455
-0.01547435
-0.01793029
-0.075457424
0.05715207
-0.053254697
0.048452184
-0.033389863
0.052062567
0.045438897
0.005109109
-0.01771043
-0.0001582866
-0.016933851
0.024522042
-0.013676831
-0.031665135
-0.009213971
0.014084944
0.009381134
-0.0134240305
-0.010765044
-0.014212075
0.030247238
-0.008282488
0.052256666
0.0006928794
0.069880135
-0.0033806968
0.027441382
0.014422871
0.010165579
0.03379507
0.008176418
-0.031704813
0.03475213
-0.051300332
-0.015087408
0.01326326
0.008730156
0.02775248
-0.012280427
0.01041798
0.054068975
0.0073117344
-0.020854553
-0.0013270535
0.01917109
0.0070113884
0.03155002
0.025060026
-0.0024577093
0.031951856
0.058234025
0.03471583
0.050765824
-0.007915179
0.0193036
-0.013888613
0.015428382
0.04981728
0.031287912
0.0009395827
0.012049888
-0.0298315
0.022879459
-0.045400627
-0.012934763
-0.04797437
0.02842493
0.008279057
0.032207843
0.01355203
-0.0065990994
-0.030863898
-0.0047165477
0.025031956
0.056828424
-0.006712504
0.05053555
-0.057772696
0.012943959
0.013483031
0.029177478
0.028203141
-0.0035156212
-0.026447857
0.047524888
-0.032935183
0.045856826
-0.0067895777
-0.025160171
-0.0028526462
0.029485913
0.0021912833
0.0045137014
0.015009054
-0.031572815
-0.036075998
0.007026073
0.028685393
-0.028120492
0.012913476
-0.017635347
0.023902068
-0.024988705
-0.03020133
0.0066029904
0.011512661
-0.012713869
-0.015976662
-0.003217183
-0.030556768
0.0024324022
0.008374898
0.0100888545
-0.004545515
-0.02367667
-0.00066231634
0.008380761
-0.017485444
0.010690375
0.009297276
0.05853586
-0.022605674
0.02137475
-0.003968895
-0.040219616
-0.023402838
-0.028818421
0.0054105236
-0.048289977
-0.010756602
-0.017546218
0.028680995
-0.05011615
-0.06857292
-0.032478508
-0.023450296
-0.04002406
-0.03897905
-0.008810063
0.021603227
0.008989735
-0.058716696
0.0263027
-0.028272714
-0.026239812
-0.0011717525
0.04435072
0.030029636
-0.042915408
0.04187524
-0.07057547
-0.019467067
-0.04481054
-0.005718541
-0.008221703
0.026932063
-0.021450741
-0.009490062
0.07563996
-0.0017136772
0.05079098
-0.0017658679
0.023728501
0.02642899
0.02379606
0.012603211
0.0091141155
-0.00716726
-0.02153349
0.067599185
-0.016300216
-0.00077446556
0.054010153
-0.011748874
0.018199516
0.024601001
-0.011813711
0.0014197483
-0.0025875953
0.059902478
0.025306402
0.003986498
-0.014412335
0.027864149
0.029066833
0.01650724
-0.030266136
0.031923816
0.043719392
-0.0065603433
0.028215362
0.003714986
0.012785422
-0.047387883
0.029017443
0.01849173
0.050759397
-0.0032403546
0.0018502919
-0.04916187
0.050359335
-0.01291369
-0.016270582
0.0065672877
-0.012475255
0.024877341
0.023688495
-0.0025221335
0.040756434
0.033305183
-0.009006775
-0.016137678
0.056021094
0.041407038
0.0010444227
0.018769903
0.084128745
-0.010291106
-0.03911286
-4.2189164e-05
0.018204661
0.02067821
-0.00917286
-0.009458123
0.017390504
-0.009877255
0.006490155
-0.012156778
-0.005937617
-0.02566372
-0.004991313
0.07759706
-0.046325367
0.035058014
-0.015971301
0.007990372
0.03929169
0.020173728
-0.014369321
0.011839064
0.020584604
-0.006366526
-0.0024236334
-0.018865233
0.0029318938
0.037500884
-0.0030202845
0.022019204
-0.004520905
0.098751396
0.025890162
-0.033753674
0.034288615
-0.0560216
0.014809394
-0.022391377
-0.0061552916
-0.030760704
-0.04861247
-0.027101463
-0.036659922
-0.019240957
0.031781044
0.051655
0.026621494
0.019411558
-0.013339208
0.028880898
0.01420082
0.005392282
-0.019012608
0.037039626
0.046748746
-0.03640549
-0.0029072654
0.0018105262
0.03750593
-0.013851371
-0.033317067
-0.0087566255
0.016946483
-0.048083562
-0.0056836214
-0.04472824
-0.027509358
-0.016396
-0.029817777
0.004602697
-0.05461154
0.01793498
0.027107693
0.07375609
0.045100454
0.043759454
0.0038483185
-0.00037366227
-0.020042619
-0.02634282
-0.03742053
0.02871685
-0.03451681
-0.009116711
-0.014076095
0.024633026
0.012989492
0.009354667
0.0027657088
-0.018771239
0.0072248755
-0.009095671
0.025305094
-0.020168427
0.003458377
0.0073318263
-0.008320107
-0.024959799
-0.039941534
-0.0008868591
-0.026583174
-0.028145652
-0.03506351
-0.022234365
-0.028095415
0.0012165162
0.02233711
0.006116659
-0.044934582
0.01962943
0.00019699812
0.01880738
0.016158933
-0.024676964
-0.027004583
-0.022429772
0.025464578
-0.002895266
0.048086725
-0.0176835
0.017278451
-0.0237018
0.044057373
0.06459361
-0.04059049
-0.017557627
0.029323539
0.03233372
-0.047808204
-0.07103513
-0.003141466
0.06999034
0.016206883
0.022439007
0.030985069
0.02779729
0.049598526
-0.05250159
-0.015986951
-0.050362356
0.07059107
0.06338434
-0.031197403
0.033278458
0.0015864429
0.009361039
-0.00223258
0.05275675
0.04686576
-0.051397152
-0.019562522
0.005551685
-0.00052938494
-0.015740568
-0.01441259
-0.0042587514
0.048196767
0.030374752
0.00420132
0.038062267
-0.018469837
0.020826614
-0.06449972
-0.008073038
0.05670096
-0.006262231
-0.02298327
-0.027897796
0.018698737
-0.014071591
0.04057709
-0.033294767
0.022556419
0.04656409
-0.06525928
-0.03732344
0.012839304
0.0033703404
-0.040164143
-0.016277388
0.003206226
0.005938436
-0.013831033
-0.0019593234
0.004181847
0.025444033
0.041675087
-0.012651377
0.052909218
0.015383682
-0.029190205
-0.010490951
0.046096716
0.02814012
0.025817128
-0.0127140395
-0.017300874
-0.07482184
0.040970623
0.024695812
0.0054182243
0.01578104
-0.015906615
-0.014076606
-0.024925262
-0.022589847
0.03439128
-0.003750149
0.057022735
-0.02834469
0.026090456
0.03358355
0.01226728
0.030915612
0.059029564
-0.03859781
-0.017248955
0.017023383
-0.029212411
0.004564506
-0.028006084
0.01241915
0.0037485522
-0.017942596
0.0059726215
0.05943934
0.019821681
-0.013753846
-0.014930365
0.004600988
-0.06486977
0.028736953
-0.022021182
-0.019484151
-0.0027489206
-0.02037295
-0.028665353
-0.05081182
-0.0395917
0.020267747
0.030349912
0.017344927
-0.002829574
-0.013188087
-0.04116775
0.0036099274
-0.060241453
0.034897007
-0.0015104343
0.024592597
0.023412473
-0.020015683
-0.024284698
-0.03495438
-0.007845756
0.033660814
0.009526609
0.0064081936
0.019340605
0.07050088
0.07141853
0.041834783
0.037655808
-0.019015893
0.008641276
-0.0050395913
0.021986078
-0.049603958
-0.048113443
0.007878479
0.017045608
-0.042199615
-0.06996087
-0.021816012
-0.010823815
0.005646888
-0.058428075
0.019520657
0.03550274
0.012537235
0.036996715
-0.028632153
0.0063069784
-0.01738361
0.035674844
0.017437452
0.004418602
0.009516781
-0.018610863
-0.0073119085
-0.040422622
0.054247167
0.0136330845
-0.015612403
0.034564238
-0.014020573
-0.014038529
-0.017085226
0.01862426
-0.049371716
-0.023708649
0.06282301
0.016435694
0.10768046
0.004906407
0.011880277
-0.017351218
0.030682702
-0.0015389028
0.013700428
-0.05555663
0.017439766
0.018989012
-0.046400834
0.05099137
0.018068122
-0.03243722
-0.036767095
0.012974173
-0.00953511
0.03477092
-0.029979674
-0.065829046
-0.060429208
0.042360395
-0.035328846
-0.044213057
0.0036094366
0.027729057
0.00038969825
0.046920307
-0.038343262
0.00055831595
-0.048675843
-0.017421676
0.006469795
-0.012206472
0.04171692
0.037280917
0.01425572
0.041719563
0.01705592
-0.00945249
-0.01636926
0.030518306
-0.036923654
-0.040242992
-0.031105906
0.017578688
0.048355903
0.013821014
0.013996621
-0.05250932
-0.03295847
0.024305403
0.021733828
-0.036610384
-0.03377403
0.0539587
-0.05207676
-0.047533765
-0.016487598
-0.0405357
-0.041526005
-0.05842737
-0.040765367
-0.00834957
-0.014171911
-0.018406928
0.0049883933
-0.040595178
-0.0051766713
0.014613647
-0.017760681
0.0024601493
-0.027426837
0.015727144
0.023905903
-0.008887193
0.014473696
-0.038572796
0.027455844
0.04942609
-0.05922701
-0.022351453
-0.06787025
0.050602533
-0.022612592
-0.032637436
-0.0034692609
-0.0022729293
0.015533837
0.075332984
-0.04226227
-0.02897684
-0.0022064785
-0.07967943
-0.008025462
-0.09241618
-0.060101677
-0.029221648
0.031996887
-0.001675118
-0.055290964
0.029084858
-0.038828153
-0.009343258
0.014016383
0.028863233
-0.021660391
-0.05212549
-0.021110673
0.00071687676
-0.00071971363
-0.06679522
0.023435537
0.013505991
-0.05770395
0.03922721
0.0069910735
-0.018421715
0.08131139
-0.04474088
-0.031055422
0.024662754
0.010175962
-0.0066170553
0.056115475
-0.013424157
0.026209826
0.03577405
-0.030061383
-0.013929625
-0.0044890763
0.008757302
-0.013523589
-0.013045746
0.0005717313
-0.036388736
-0.015976261
0.028619483
0.05022248
-0.020741943
0.021550735
-0.032752667
-0.011048911
-0.027913064
0.00036179883
0.015191551
-0.037389994
0.020011783
-0.035417568
0.023321204
-0.009668358
-0.014583908
0.03742872
0.050713666
0.015618353
-0.023129161
0.0070835007
-0.027411062
0.015761435
0.013518382
0.017795421
-0.05256149
-0.050764605
0.019029833
0.0050678137
0.004999578
-0.012033984
0.0569783
0.024716761
0.0010703952
0.045005005
-0.0055321264
-0.00017079843
-0.02916537
0.02983846
-0.014642721
0.004830493
0.0017001216
0.020214822
-0.0659696
-0.0026899748
-0.012122718
0.02498348
0.0014785574
0.011822395
-0.0034557846
-0.071331315
-0.017244184
0.0090549765
-0.050204422
0.00485975
0.021944502
-0.008129983
0.01455606
-0.023545934
-0.027294321
-0.001512388
0.07096787
0.033132125
-0.0148661425
-0.02107804
0.0011440663
-0.01770849
0.034386665
0.041350294
0.00063482375
-5.2730087e-05
-0.016477305
-0.0135426335
0.042911325
-0.00705635
-0.00011272267
-0.02618354
-0.0105576115
-0.05444822
-0.012627863
-0.015719969
0.0042901114
-0.03741289
-0.0040351516
-0.040755462
-0.021956189
-0.015936146
-0.019249918
-0.01054511
-0.0015865819
0.021449065
0.057455335
0.04531314
-0.046898358
-0.04030499
0.0109365685
-0.029513706
-0.03882019
-0.060533687
-0.008967463
0.043305334
-0.025479967
0.07365567
0.029423544
-0.07618496
0.05282584
0.002565213
-0.060433097
-0.035792124
-0.016653525
-0.017473895
0.032421667
-0.009262925
0.021489616
0.027056048
-0.022510536
-0.016313465
-0.025474085
-0.0017104715
0.015675023
-0.052487977
0.016378539
0.006844617
0.011522271
-0.008135719
0.03212713
-0.006662899
0.002633021
0.025192717
-0.0019345346
-0.005900211
-0.010027888
-0.034071743
0.03013185
0.0052385717
-0.035487425
0.022014473
-0.0012938739
-0.008826109
0.006459657
0.0026871588
-0.05424785
-0.013559971
0.017784063
0.059857946
0.017638287
0.038970117
0.020183844
-0.008822996
0.020300759
-0.017102292
-0.0040098787
0.00957963
-0.008562499
-0.026265146
0.011817381
-0.0344819
0.003751574
-0.01153095
-0.0022985525
0.012733344
0.020258931
-0.04304432
-0.042815324
0.009492612
-0.008164114
0.034414943
-0.034709495
0.008147312
0.006355746
-0.0037050396
0.021484694
0.018649222
0.0122834025
-0.056438517
0.024303865
0.07489617
0.029049126
-0.014928923
-0.000748304
0.008778918
0.036445823
-0.02901468
0.00015540079
0.008685587
0.046582237
-0.04044719
-0.015856016
0.0054917852
0.01340869
-0.037818372
0.006537916
-0.02573322
0.031491827
-0.029808788
-0.054404646
-0.019600151
-0.03601528
-0.02007317
0.036103517
-0.031233802
0.004359792
0.055113062
-0.036158346
0.0069485907
-0.0015984031
-0.03110173
0.019371886
-0.016091669
0.03918418
-0.0030683964
0.037977137
-0.013900469
0.00937887
0.07214808
-0.05539625
0.005348173
0.0042863153
0.02069006
0.004274716
0.0434713
-0.01318795
0.0065089567
-0.0077785
-0.038199153
-0.018210148
-0.012674435
0.02658755
0.031099709
0.01853327
0.01245534
-0.04324822
-0.07418291
-0.08027283
-0.028678676
-0.021858178
-0.015536678
0.00072374893
0.037442233
-0.05904044
0.0011127754
-0.00186051
0.019073758
-0.020746192
-0.018966373
-0.012179885
-0.035113554
0.005098321
0.039858628
-0.060445253
0.036033593
0.022941766
-0.06773478
-0.0032782704
0.0035623745
0.07268471
0.009181245
0.0026464115
-0.03244389
0.0060931053
0.044479035
-0.026534813
-0.016728327
-0.0040791347
0.0025845116
0.02895789
0.027627084
-0.08958121
0.0027015142
0.03526603
-0.009993471
-0.021652417
-0.030957023
0.022023842
0.003017165
0.006241258
-0.009793828
0.00022933076
-0.0005314161
-0.018589465
0.04708539
-0.0011098655
-0.046954434
0.027966343
0.010161697
-0.008786654
-0.0044625993
-0.004997126
-0.008425258
0.019705558
0.027391182
-0.04935749
0.027309032
-0.045668535
0.009334871
0.0065654838
0.019827137
-0.023300737
-0.020326206
0.0381803
0.066892326
0.017271636
0.010486058
0.023051517
0.028902192
-0.04586404
0.043710373
-0.014534871
0.01969922
-0.021571632
0.025084807
-0.022231236
-0.06141267
-0.0006171536
0.032541066
-0.009946959
-0.026468784
0.022688093
0.018830217
-0.008539322
0.007827715
-0.00056578015
-0.014822596
0.02423729
-0.008727776
0.022972198
-0.018072715
-0.046435926
0.015687838
0.015190708
-0.043021973
-0.05629346
-0.02486686
0.013569476
-0.046730593
0.013685704
-0.046515442
0.021625012
-0.021820614
-0.055083413
-0.016994985
-0.001990028
-0.0025521244
0.022503009
-0.025031414
-0.013871038
0.042030096
0.017424194
0.02271581
-0.0340671
0.05659392
0.012478735
-0.021859024
-0.08301626
-0.016010372
-0.010781297
0.029081462
0.045450393
-0.027744958
-0.008728998
0.037189987
0.046181023
-0.03317026
-0.03909872
0.008636921
-0.042425286
0.023705335
-0.030720992
0.020835707
0.03690854
0.013769919
-0.011754057
-0.04449043
0.030534722
-0.018855315
0.014590743
-0.017283153
0.028576894
0.011426087
0.014965193
-0.023453573
-0.013085568
0.023883646
0.00015475579
-0.0008276633
0.023373932
-0.0069235987
0.055795927
0.06527429
-0.019020027
0.022805154
0.009906548
-0.030056508
0.06311566
0.016453145
0.021676064
0.0031181907
-0.036085926
-0.042717613
-0.06173649
-0.034758985
0.018878333
0.007724839
-0.02381358
0.0122441165
0.0033072953
0.009821965
0.03905294
0.020182187
0.003511861
0.05518748
-0.004066828
-0.013043498
-0.043936152
0.014540039
0.005727204
0.022335688
0.027520819
-0.0143513335
-0.040276933
0.06307204
-0.043751873
-0.03927001
-0.01927862
-0.030844571
-0.0037660897
-0.00079052814
-0.007195409
-0.025448833
0.009141543
0.02950589
-0.006151793
-0.004142245
-0.033211865
-0.013349166
0.018775254
-0.0331656
0.018085198
-0.045612656
-0.013119273
0.025081478
-0.030811
0.013264297
-0.014038222
0.023213841
-0.044360623
0.01519831
0.0074565294
-0.016409826
0.04389377
-0.0059418986
-0.0209348
-0.00046505884
0.0007808294
0.042704493
-0.0050479383
0.0120598
-0.0014454379
0.037888747
0.012295598
-0.026790522
0.023404114
0.02624483
0.0032324318
0.011727079
0.027409738
-0.001018391
0.027622152
0.030152172
-0.036698658
-0.023920069
-0.003226173
0.0613922
-0.009267141
-0.0050915806
-0.013338997
0.008362979
0.037328523
-0.027357278
-0.040966433
-0.042674195
0.010078105
-0.011630564
-0.03772214
-0.04842048
0.034144796
0.01787761
0.026664447
0.02268383
-0.01928805
-0.034101184
0.01728681
0.015290496
-0.023875033
0.03272703
-0.013847843
0.07182143
0.068270475
0.011993653
-0.005643276
-0.034705848
0.004634879
-0.06877613
-0.023955587
0.041683342
0.030684931
-0.03232647
0.003195586
0.01678625
0.011345361
0.0033788732
0.0051817056
-0.06443982
-0.0021706936
0.014086035
-0.007756914
-0.032557786
-0.011413599
-0.016479583
0.018370336
0.014707448
0.004369946
0.02319412
0.007856646
0.027409526
-0.026177388
0.05591877
0.021572933
-0.004077199
0.030910326
0.008287419
0.009536347
0.053244315
-0.055455837
0.01838318
0.0012024402
-0.04772646
-0.03032807
-0.005802772
-0.0046775728
0.0039310656
0.014789993
-0.009523166
-0.023632452
-0.00035407575
-0.020185418
-0.029138656
0.021112101
0.003022705
0.027010841
0.031895757
0.029374305
-0.044433463
0.049115263
-0.022984937
0.01564937
0.018926559
-0.02658839
0.039624598
0.059497204
-0.010688527
-0.041868877
0.016622342
0.009491981
-0.04935368
-0.018786915
-0.05053147
0.018057693
-0.008269244
0.012273395
-0.0045969435
0.022686074
-0.01549549
-0.014863591
-0.017193837
0.03125298
-0.013447076
-0.005136985
0.00080107537
-0.07873557
-0.0018073296
0.055636093
-0.031428948
-0.03339874
-0.017334264
-0.037494935
-0.0015689017
0.019585464
-0.017784126
0.019784052
0.0088256635
0.030934844
0.0032802375
0.032639056
-0.0041247224
0.010106536
0.03399081
0.056958035
-0.022513641
0.003715266
-0.007499555
-0.045257427
-0.006281941
0.046660338
-0.0055529135
-0.04458553
-0.03633276
-0.04457954
-0.0063931085
-0.0021979585
0.04243305
-0.017577525
0.024689155
-0.02676867
0.041852195
0.024367802
0.010066547
-0.060441744
0.021848956
-0.04309796
0.012658819
-0.028069248
-0.011598827
-0.010080871
-0.00044743664
-0.042690635
0.008417236
-0.02306659
0.009248437
-0.02377339
0.0035994342
-0.04310287
0.012315828
-0.05376767
-0.040024392
0.012228192
0.0003419338
0.032843877
-0.0026171412
0.03099017
-0.047491893
-0.06850536
-0.035549972
0.008917025
0.02512508
-0.08506714
0.023892615
0.036574528
-0.046088263
-0.031011539
0.011470169
-0.035404123
-0.056176677
-0.039866596
0.0011129898
0.016506232
0.027533036
0.015256648
-0.0190049
0.056886025
-0.015843883
0.046771586
0.050877187
-0.055181343
0.042445768
0.027273413
-0.010863513
-0.023774987
0.055826437
0.011162719
0.02284149
-0.018485727
0.0016908704
-0.03215063
0.035306454
0.015571926
0.009940725
-0.02529952
0.032947984
-0.04590538
-0.047152046
-0.032648318
0.029162664
-0.013509224
0.011082187
0.018190494
-0.06037429
-0.022348698
0.03170941
-0.017812047
-0.0037500784
-0.056630604
-0.06824662
-0.03756494
-0.029353403
-0.037891757
-0.036110856
-0.04298019
-0.00898497
0.007558143
-0.014693517
0.0036275
0.044241622
-0.0066620796
-0.00266279
-0.0043856865
-0.029007286
0.0075361826
0.031730957
0.008980848
0.040997267
0.038605448
0.020499228
0.025532847
-0.0052323043
-0.006649189
-0.024321489
0.012418479
0.018097093
0.008124614
0.023561351
0.04440926
0.008966865
-0.009694018
0.013990964
0.02256822
-0.028006053
-0.0091125155
-0.006426458
-0.03982721
0.03699788
-0.015881764
0.06088724
0.050048925
-0.06270971
0.059817575
-0.048679903
-0.0029086687
-0.015220976
0.041862205
0.00784469
-0.01549645
-0.01183825
-0.017620761
0.036484264
0.038097247
0.025798256
-0.034292556
-0.010152697
-0.07466506
0.05403957
-0.025803195
0.023709295
-0.0064467955
0.012834507
-0.0029658484
0.040199056
0.0012253831
-0.030096278
-0.049903102
-0.025319748
-0.010716193
-0.052224845
0.013513185
-0.007469836
-0.05020819
0.006658924
-0.05520157
-0.033659864
0.032773357
-0.04427793
0.06644022
0.019722192
0.06928344
0.008638189
-0.01936058
-0.033214014
0.009210732
0.03362832
-0.009428719
0.0126598235
0.00061008474
-0.067728095
0.0038236708
0.019123262
-0.019920073
-0.028355846
0.04027404
-0.009936048
0.004480615
-0.09501252
0.055085335
0.05976923
-0.009264244
0.033529416
-0.03959797
-0.008914269
-0.0005760551
-0.009006596
-0.015504792
-0.020424454
-0.023605304
0.0071874554
-0.0046176896
-0.024949567
0.039849795
-0.017006904
0.05309377
0.025305832
-0.0036868218
-0.0475579
-0.0071330243
-0.046264656
0.045759074
-0.03906271
0.0031013663
0.00042116828
0.021666968
-0.0165602
-0.0011000126
0.011271303
-0.04006021
-0.007758289
0.012594219
0.05375572
0.03567117
-0.019113617
-0.040946275
-0.014931134
0.014402955
0.008934309
0.0088765975
-0.008270708
0.042492833
-0.029288627
0.02936669
-0.0143385725
-0.025043719
0.0004039597
-0.017196467
0.014504813
0.028934663
-0.031856984
-0.013405494
-0.02312477
-0.020154843
0.0023467105
-0.020048415
-0.02109554
0.028418737
-0.013004052
-0.028079271
-0.018789874
-0.012301141
-0.02656985
-0.022731392
0.0037343646
0.03121612
0.009724413
-0.04103757
0.027037825
0.043362956
0.02969542
0.030446164
0.023194198
-0.011787763
0.019398673
-0.01577577
0.020057477
0.058342986
0.01950313
0.013784331
-0.047822278
0.011316588
-0.025452595
0.020117683
-0.041863568
0.01370549
0.039158773
-0.0016003044
0.028991567
0.014894579
0.0014191587
0.041187104
-0.017754538
-0.0015751445
0.0032921676
-0.009398058
-0.023748351
0.01232672
0.033997912
-0.019435395
-0.039903764
0.054740775
-0.030066898
-0.00805406
-0.09087286
0.040313613
-0.041824736
0.03315229
-0.0024955366
-0.017458988
0.08178073
0.015201869
-0.030598594
-0.04911721
-0.024156341
-0.025132965
-0.004605944
-0.03614912
0.010143379
0.008992049
0.020513054
-0.029888358
-0.01676451
-0.03525523
0.06643253
0.0040113884
0.04471779
-0.022370698
-0.010191963
-0.01972875
-0.017648414
0.0037004442
-0.017745808
-0.014631357
-0.0038593756
-0.016180353
0.078735955
-0.03251994
0.04136007
-0.014658623
0.03229766
-0.016721807
0.02033035
-0.02749634
0.011937337
-0.037507366
-0.0010710115
0.02727557
0.008441418
0.02076308
-0.032050114
0.012037451
-0.014167054
-0.003115293
-0.006191846
0.0012865883
-0.0031899982
0.037518363
-0.0099756615
0.011420821
-0.01396032
0.030551821
-0.03283806
0.007535446
-0.0074973833
-0.03760445
0.055903826
-0.019732615
0.030654438
0.00063908735
0.042340852
-0.016941331
0.051399015
0.013760654
0.023516359
-0.017625485
-0.008641703
-0.023884818
0.040518895
0.0054646963
-0.029310076
0.032121178
0.0074633043
-0.0006905856
-0.033176478
-0.043711554
0.07796562
0.055670474
-0.042652037
-0.0105156815
-0.021114042
-0.00334263
-0.0006244785
0.027722254
0.014235878
0.01883105
-0.008276795
0.016007425
-0.04332036
-0.055402715
0.028293088
-0.0191656
0.015895171
-0.014355043
0.0612264
-0.010661432
-0.035315603
0.016018342
-0.054155957
0.00064982893
0.023859683
-0.04001856
-0.044961356
0.043833964
0.021083295
-0.01657495
-0.014496643
0.014640991
-0.0143668065
0.03702135
-0.02586945
0.010796589
-0.0019477877
0.017290238
-0.033149045
-0.046789426
-0.037734564
0.02843389
0.042919286
0.03190145
-0.01182296
0.024106365
-0.022676563
-0.004591884
-0.013764058
-0.006606048
-0.036951352
0.015779175
-0.03527046
-0.013920398
0.008635403
-0.00649035
-0.0007717632
-0.009718654
-0.06384244
0.018999452
-0.026082728
0.055458155
-0.037367184
-0.0067498675
0.0066332514
0.017051497
-0.03200612
0.027662653
0.031922277
-0.038100973
-0.012020828
-0.034062512
0.036981918
0.06990714
0.013495251
-0.0018322276
-0.027947446
-0.006778324
0.022117766
-0.0023186097
0.018508358
-0.016174816
0.035986222
0.022393892
-0.024329698
0.011115258
-0.0075540696
-0.011276804
-0.010052262
-0.011426157
0.0419102
-0.005411567
-0.025308875
-0.039833877
0.018101884
0.026776781
0.050181568
0.013754594
-0.0040800595
0.0010881423
0.027739212
0.011089066
-0.05654528
0.01886684
0.039068595
0.044354003
-0.032299712
-0.015993653
-0.02776513
0.010466222
0.04552967
0.03815817
0.01201257
-0.05274082
0.00472542
-0.008397572
0.047476422
-0.006090415
-0.058404047
-0.006710226
-0.016730057
0.038632024
-0.0026788304
0.014711275
-0.014627983
-0.020460702
-0.018850006
-0.034276925
-0.01709136
0.048754964
-0.010815636
0.0030631395
-0.014403863
-0.026486048
-0.00940627
-0.055932876
0.026841292
0.00041447277
0.032171793
-0.021066975
-0.03795277
0.008527882
0.018417139
-0.018996837
-0.0020780058
-0.014100292
0.04364679
-0.062166847
0.03703408
0.03916223
-0.065688446
0.009079469
0.0009834443
0.025000734
-0.00018480768
0.033348937
0.004059806
0.014758132
0.01074753
0.05285078
0.017801523
-0.017382769
0.051636767
-0.02096618
-0.04989611
0.023274377
0.025054343
0.015565199
-0.020423558
0.0030603402
0.042120535
0.0005856163
-0.02948477
-0.043787334
0.018426362
-0.012083467
-0.04225967
0.0028486073
-0.009781639
0.009011536
-0.012660347
0.0318386
0.005672879
-0.018008478
-0.016393868
0.017961781
0.0042752246
0.02346393
-0.03900502
-0.035159692
0.049756773
0.008109525
0.010236323
-0.020982051
0.048364103
-0.02601286
0.021873258
-0.0154630095
0.022918195
0.04473425
0.049656786
-0.013455337
0.037994433
0.0056545218
0.00091251783
0.012365131
0.027267708
-0.015174105
-0.019711584
0.007134932
-0.012964068
-0.009441867
-0.047716558
-0.01696777
-0.0063580927
-0.018127088
0.0010097829
0.019589702
0.005199225
-0.021597685
-0.046764523
-0.014388972
0.01528129
-0.011060732
0.02824581
0.008712406
0.029234912
-0.00318154
-0.011155835
-0.011491758
0.033882722
-0.045790445
0.04460224
-0.04600288
0.05785034
-0.021326005
0.01448114
0.0059151896
-0.02733361
0.042276777
-0.012042577
-0.043440755
-0.022463707
-0.0647928
-0.004144834
0.03512405
-0.014233543
0.0018915012
-0.06454859
0.016366398
-0.015339637
0.0070319395
-0.040114354
-0.035959754
-0.016633293
-0.034876853
-0.0042083864
0.0059775473
0.07048689
-0.041234083
0.04686044
-0.030956885
-0.048314318
-0.040796503
-0.02727582
-0.035096783
-0.012077958
-0.010994511
0.03848845
-0.007866764
-0.0042555025
-0.003070267
0.01702881
3.7422476e-05
-0.01146938
0.02522263
-0.06711609
-0.00088054215
0.01682195
-0.04063162
-0.0098801935
0.02388943
-0.039409593
0.03220731
-0.0035181132
0.0033098357
0.06152915
0.008880696
0.0077487184
-0.006686052
0.030595949
-0.03929522
0.025709651
-0.051232126
0.025954565
-0.010124894
0.030564027
-0.003263075
-0.004968853
0.051782597
0.05247581
0.020056704
-0.04327832
-0.06312781
0.007516098
-0.08411839
0.00459608
-0.060010992
0.099011675
-0.0042382726
-0.040769316
0.013598708
0.01704768
0.001908289
-0.03695839
0.024142765
0.017249338
-0.017821675
-0.00016004687
-0.0026156628
-0.00554434
-0.01810549
0.025337033
0.027803792
0.011725276
0.0032996268
-0.022830132
0.0110006165
0.023928994
-0.006083942
-0.017932197
-0.023265054
0.023718858
0.060041174
-0.00862825
0.0087376665
-0.0769792
-0.0042358674
-0.0071633626
0.0071368134
-0.0023482607
0.028870659
-0.017111124
-0.017423993
-0.051361192
-0.018687762
-0.049643077
0.02669219
-0.00017877463
0.0034133317
-0.0710803
0.014152565
0.020965537
-0.023985531
-0.060678095
-0.026718723
0.034807865
-0.05487719
-0.10676904
0.006075087
-0.028808588
-0.0113874525
0.0053827297
-0.028547913
0.053983923
-0.022105986
0.018635068
-0.030917333
0.022575408
0.0080318265
-0.028489063
0.0064728535
0.0331646
0.0075891768
0.0023848035
-0.0015615004
-0.035592373
0.005617904
-0.00062742917
0.0011768008
0.0065814084
-0.020192357
-0.05153573
0.011987207
0.012350678
0.045814425
0.015857501
0.010046891
0.012511265
-0.021155627
0.023106989
0.008442542
-0.0018744565
-0.025441824
-0.0020021677
-0.040393252
0.0034819741
0.0032299736
0.02636469
0.07745203
0.022849092
-0.07423648
0.04183674
0.008439386
-0.023581287
0.015001968
-0.041199505
0.014754598
0.007929102
-0.014660724
0.013954949
-0.035036985
0.013774317
-0.015381842
-0.01199579
0.05047069
-0.016870504
-0.043647736
-0.059148215
0.011486153
0.0012014742
0.023957415
0.0034484142
0.04990264
-0.014947016
0.02650317
-0.0014643773
-0.030781781
0.021188222
-0.04058569
-0.020456888
0.031371195
0.0394913
-0.021669663
-0.06724694
0.004381265
0.012448155
0.028977886
-0.03995082
-0.0044981707
-0.031218935
-0.043230355
0.021641508
-0.02066385
0.03379693
0.038847934
-0.01703658
0.011582907
-0.0027133657
-0.03862823
0.034762215
-0.018187502
-0.006493735
0.020485472
-0.014612186
-0.060478326
-0.07617715
-0.0062843375
-0.047464475
0.02712316
0.017974645
0.011165404
0.029032128
0.008037234
-0.042910494
0.057777386
0.009680717
-0.043842126
-0.0060280343
-0.035055224
0.028807918
-0.02002872
-0.021773117
-0.039946828
0.049674083
-0.019857427
-0.037563175
0.016811956
0.00042817302
0.044629674
-0.011600819
0.0006569725
0.022165982
-0.0042211995
0.04769981
-0.017980194
0.0040424955
-0.02528138
-0.059988383
0.027379883
0.013462638
-0.032703158
0.03337761
0.037349552
-0.006303941
0.028478509
-0.013276766
0.051463023
0.00527793
0.012280019
0.005527415
0.030033996
0.019739889
0.00072421
-0.013382383
-0.02028334
-0.045342825
0.042901486
0.038582206
-0.0024206797
-0.040275194
0.050955176
-0.0020364076
-0.012998272
-0.02936053
-0.023350174
-0.043262593
-0.026011528
-0.006841143
0.07533237
-0.0028363666
0.023908148
0.006545601
0.01626872
-0.009817098
0.025030438
0.023644334
-0.0056199883
-0.060142566
-0.0032181917
0.009686
-0.019153249
0.05825524
-0.031291883
0.023058709
0.0027413338
0.03119478
-0.026726112
0.006535417
-0.042865776
-0.051095188
0.044101056
-0.05665401
-0.022171604
-0.014347205
-0.017373502
-0.055729166
-0.010182652
0.013596654
-0.021246398
-0.018271772
-0.022591045
-0.09338508
-0.011505077
0.034298062
-0.054855883
-0.0424008
-0.028557565
0.068720944
-0.026070615
0.030960353
0.029925682
-0.010395593
0.027359625
-0.04518758
-0.053587437
-0.0041660643
0.08944039
0.037589822
-0.022128012
-0.0019063433
0.033011995
-0.015374386
-0.05566324
0.025641495
0.004835404
0.011580773
-0.03468708
-0.015432872
-0.032956045
0.005327145
-0.057501316
0.006947811
-0.0034037894
0.003701844
-0.047880396
0.015329838
-0.017743547
0.022356827
-0.023948608
-0.04068671
-0.007419311
-0.035752308
-0.018867286
-0.016583947
-0.0340248
0.027000979
-0.0279442
-0.03476695
-0.010734437
-0.033414192
-0.0066649313
-0.019405076
-0.024151865
-0.0048729866
0.03312693
0.02834692
0.053139653
-0.000394645
0.009459333
-0.06021604
-0.026430666
0.004211251
-0.037332725
0.0467932
0.0055453787
0.010167785
0.005285301
0.02649161
-0.02332677
-0.018161446
0.005298458
-0.05785189
-0.012650706
-0.048028253
-0.07005631
-0.060054503
0.05696236
-0.01312477
-0.048578016
0.006313004
-0.029270593
0.0004608584
0.0029409989
-0.03473281
0.041755527
0.014853642
0.064645834
-0.027607601
0.00065163214
0.0149492
0.06782054
0.02123205
0.00044120007
0.020276312
-0.057427865
-0.0016184965
-0.035264216
-0.061622255
0.003972076
-0.020988232
-0.0137199545
-0.07895723
-0.0095567405
-0.030819388
0.08733748
0.018200407
0.00027899194
-7.390931e-05
-0.0035452289
-0.0107737165
0.03459778
-0.026384976
-0.008134504
-0.0052596475
0.05985573
0.008506243
-0.00058457727
0.03527459
-0.026184428
-0.0012153813
-0.001883956
0.02721096
-0.0330241
0.033184357
0.011827766
-0.013904802
0.035918254
0.010323491
0.056947134
-0.062216826
0.0008220325
0.00766992
0.04547238
-0.029451696
-0.022038287
-0.040094916
0.032809313
-0.022066368
-0.05169948
0.019739052
0.05579576
-0.02068542
0.04087265
-0.039899856
0.047353145
0.0160249
-0.001032491
-0.013747603
0.0049646595
-0.005340498
-0.010495431
0.0048427675
-0.028071878
-0.020113597
-0.010013672
0.009229635
-0.017523194
0.02046902
-0.01719924
-0.02684545
-0.026237397
-0.056399938
0.004370119
0.030043663
-0.02341941
0.03131651
0.007119184
0.0032159898
0.02095845
-0.00027436204
-0.0031802335
0.02122341
0.034619916
0.03222289
-0.025392272
0.0010927413
-0.0367311
-0.031542018
0.020734834
-0.0006378058
0.016422132
-0.028047316
-0.006283085
0.059773684
0.043722253
0.021019714
0.057784617
-0.01985727
-0.024998816
0.011609028
0.014909884
-0.024117097
0.023653768
-0.0071990006
-0.0068555977
-0.014482795
0.021696847
0.019821346
-0.06250826
0.019709142
0.008895482
0.06615967
-0.0045271805
0.04825374
-0.00046732568
0.020779148
-0.015844474
0.012443763
0.018178532
-0.00045298992
0.040204614
0.009315452
0.018710539
-0.029836904
-0.026200324
0.030744366
0.04247463
-0.040055204
-0.0017702095
-0.033970524
0.009446869
-0.038904876
0.0188928
0.010360732
0.029216703
-0.046955682
0.010042205
-0.019802684
0.00033737067
0.026352111
-0.00067309366
-0.04602433
0.0153607605
0.028321056
0.015648048
-0.01886304
0.024402972
-0.0015294071
0.051892567
0.07518935
-0.0068633184
-0.014356909
-0.06409565
-0.033650707
0.034183726
-0.03523721
-0.026601147
-0.008913562
0.0072600814
-0.012524889
0.0015254838
-0.037650824
0.010747362
-0.042016942
-0.028621094
0.030967453
-0.008862916
-0.0052668084
0.026245162
0.029861545
0.04322269
-0.0121318465
-0.060426924
-0.04354439
-0.0038889626
0.032089937
0.038348954
-0.015623712
-0.023130618
0.017127724
-0.072728805
0.032369483
0.018697808
0.007732037
-0.0052945614
0.069930606
-0.02239146
-0.046031956
0.05802698
0.021258812
0.0016492825
-0.04136053
-0.037373632
-0.013611543
-0.022518514
-0.03260057
0.006899722
0.01067556
-0.002985958
-0.007909613
-0.05285743
0.0057524047
0.01868496
-0.053156577
-0.04227077
0.013574094
0.010056557
0.028498273
0.018517075
-0.061398834
-0.024483621
0.008707842
-0.008150385
0.013454486
0.0150442375
-0.0036788594
-0.0154446205
-0.01213638
0.030621102
0.032636225
0.031020671
0.028993454
0.063175276
0.01930585
0.027448788
-0.016883021
0.005286442
-0.0009530487
-0.017247096
-0.009374921
-0.00774812
-0.007864182
-0.0054852674
-0.047415838
0.014912617
-0.0019174797
-0.032627974
-0.007843039
0.036117245
0.020110158
0.026558243
0.01875191
-0.017489918
0.0021400708
0.01433588
-0.009837894
0.010986048
-0.017313067
-0.045256756
-0.03969318
0.022067148
0.015992843
-0.022939393
-0.020593982
0.0032560388
0.056230817
0.0014670154
0.026130263
0.02234068
0.0023351084
-0.013478853
-0.047950458
-0.04565114
-0.045532804
0.024576943
0.008930792
-0.04378124
-0.06685907
-0.051089745
-0.054977667
0.007556705
-0.039385438
-0.006123259
0.076724336
-0.02339269
-0.027232936
-0.00054772093
0.055500343
-0.03875217
-0.007280949
0.04225041
0.03364968
-0.033296898
0.004353882
-0.005513114
-0.023138022
0.013193599
-0.008689033
0.05485793
-0.022560334
0.01239784
0.064105846
5.148607e-05
0.01710802
0.013337202
-0.019423641
-0.04899997
0.015951466
0.0069668405
-0.004840714
0.013509941
0.0053685214
-0.061450463
-0.008625511
-0.03046902
-0.00084013736
0.009482111
0.012349808
-0.0023297626
-0.045949563
-0.059073668
-0.003624783
-0.03019758
-0.027431875
-0.05244727
0.032551058
-0.010792145
0.05448345
0.00529943
0.053145874
0.006007387
-0.0027616457
-0.028356738
0.048540268
-0.032006603
0.005718858
-0.022334432
-0.017198376
0.061702084
0.0028957175
0.0016868353
-0.05061779
0.0071956934
0.00032124674
0.021266844
0.009767202
0.012784201
-0.029193103
0.009816874
-0.00399012
-0.012218908
-0.017353758
-0.009567425
0.024446364
0.018621061
0.004163478
0.026768385
-0.03714363
0.012345659
0.040340696
0.0079222
0.019679919
0.03567612
0.01638809
-0.028795784
-0.008829796
-0.028568493
0.015723241
-0.013721128
0.041037958
-0.048226524
-0.013735407
0.011229678
0.019328251
0.00959466
0.0016391834
0.021056293
-0.021723371
-0.020850891
-0.025835516
-0.02798785
0.037558325
0.026038133
-0.011571866
-0.036028773
0.0039185486
0.023561763
-0.039530948
0.024034739
-0.0035000213
0.018909536
-0.041347135
0.026454572
0.0062844465
-0.0010391619
-0.0053074956
0.059681997
0.027580012
-0.002590298
-0.013859343
0.0009999954
-0.009693672
-0.011021454
-0.011594392
0.040331025
0.0008194887
-0.010413672
0.022370674
0.018455617
0.0025458902
-0.0054003582
-0.0036242912
0.011618911
0.026329659
-0.015688019
-0.02348625
-0.03972799
-0.008919405
-0.03557522
0.03702888
0.00891514
-0.040401116
0.013794596
-0.0200704
0.0651394
-0.00100112
-0.03912521
0.0123832375
0.011620465
-0.0013768222
0.020161066
0.017601296
0.0025186273
0.017017918
-0.056222938
-0.030959278
0.03896431
-0.028842354
-0.009515016
0.00881687
0.02054264
-0.004627021
-0.0239333
0.02110203
0.016148707
0.0074320645
0.004660488
-0.0034136823
0.041854613
0.018784305
-0.0403154
0.025933942
-0.0017459902
0.04097818
0.0064613097
0.0022609583
0.018789135
-0.010844962
-0.025115354
-0.0048179985
0.08676019
-0.0067602186
-0.0085941125
0.01302873
-0.023540238
-0.023662593
0.014815086
-0.0054373117
0.015572538
0.0075611137
-0.029638499
-0.003704834
0.04657376
-0.029444633
0.002033656
0.0087918425
0.013552821
0.022027947
0.016236514
-0.026073609
0.022474669
-0.04800135
-0.0027645647
-0.08413899
-0.026252037
-0.0057528196
0.012614516
0.0190275
-0.03540835
0.039456148
-0.0037849555
0.016761838
0.07136547
0.039151758
0.03237489
0.006676762
-0.013013613
0.033673473
-0.1027486
-0.00060023094
-0.034191687
0.0023829562
-0.03266681
0.024054268
-0.006391236
0.0029416138
0.04861495
-0.022996444
-0.06355111
0.015614185
-0.01746514
-0.008063223
-0.03263323
-0.029041098
-0.021712959
0.051629886
0.063207984
0.008026702
0.03841093
0.010403131
-0.031602025
-0.04109785
-0.008676516
0.004969909
-0.024374133
-0.064611174
-0.011788886
0.028451428
-0.027077783
0.030119713
-0.026172778
-0.024030678
0.008273676
0.017422557
-0.0072893794
0.06534267
0.021742227
-0.01808845
0.012461582
0.03464745
-0.032599974
0.018269485
0.0064577693
-0.0034335512
-0.012584239
-0.010999697
0.0047924337
-0.026773376
-0.0103237415
0.0065406472
0.010378461
0.019730264
0.019435082
-0.026899325
0.06609385
0.010843814
-0.04824289
0.052597668
-0.030111108
-0.049676552
0.041465633
-0.0038107052
-0.028616928
-0.029957531
-0.0026508074
-0.016464196
-0.018432092
0.010952111
0.005809309
-0.022338081
0.004146683
-0.046825387
-0.009098499
-0.03175975
-0.00016738931
0.050017647
-0.0027325884
-0.016981762
-0.0058583817
0.008538532
-0.010837966
-0.020716269
-0.055703137
-0.004598816
0.022722453
0.015520864
0.052858174
-0.051922865
-0.024076136
-0.0144803645
-0.0063233343
-0.02140265
-0.0038976735
-0.05664323
-0.008080736
-0.011848852
-0.0015893662
-0.05594871
-0.020884821
-0.0047518145
0.020699354
0.057988763
-0.027675893
0.05210448
0.012461266
-0.024328033
0.017478723
0.010995281
0.009618605
-0.010224277
0.014231923
0.014126215
0.07049407
-0.013806429
0.009869331
-0.039463226
0.043270383
-0.0103491405
0.0015468687
-0.057934638
-0.03666422
0.047384996
-0.0043202657
0.043793634
-0.048954744
0.019008553
0.012024594
0.0030122842
-0.028088834
0.021312691
0.039838713
-0.0656532
0.0023113112
0.032871317
0.0057502235
-0.0021700223
0.057391606
0.034042917
0.031479865
-0.009122499
0.010866218
-0.027344346
0.010066796
-0.0042681354
0.02210407
-0.034559626
0.011812653
0.00897658
-0.01235377
0.022408135
-0.027171403
-0.008360376
-0.051239982
-0.012616519
-8.480702e-06
0.047571253
-0.03483212
0.0029434517
-0.003557442
-0.054295223
0.008341723
-0.042883955
0.012333001
0.031397384
0.0017014046
0.04367828
-0.023955652
-0.052295517
0.031613592
-0.056878425
-0.019852655
-0.036482908
0.0118901795
0.017783398
0.004866225
-0.00014732947
-0.019908197
-0.0036721716
-0.0037151796
0.017860146
-0.041183405
-0.01756179
0.0023576189
0.02791391
0.03499561
0.007718519
0.004315203
0.003094995
0.00035179924
0.032816205
0.010548584
0.010099396
-0.03928745
-0.0004704221
0.0095354
-0.04079872
-0.018536258
0.005114431
-0.039383076
0.09941894
0.02627842
0.0039918576
0.06315321
0.04544032
0.036866054
-0.0116081545
-0.025768997
0.043775015
0.028911674
0.010259335
-0.025481932
-0.0003526182
0.02590502
0.04622853
0.033983987
0.02641725
-0.023532676
-0.022267971
-0.09828946
0.023707973
-0.036711037
0.013936418
-0.037911456
0.024220942
-0.022143997
-0.00011166915
0.026626375
-0.0035136782
-0.016413659
-0.05443378
0.013571374
-0.012382824
0.037315723
0.009621654
-0.043670975
0.03897212
0.0022523655
-0.029038167
0.021186586
-0.030842433
0.03838524
-0.03125063
0.01569042
-0.004077167
-0.01292814
0.0015299998
-0.025357282
-0.044532634
0.05987155
0.0234005
0.0056134765
-0.002595374
-0.021998955
-0.029074263
0.01316769
-0.038950454
0.05758627
-0.018938925
0.0047785863
-0.018472012
0.05073786
0.019428214
-0.020499118
-0.037908923
-0.042132594
0.027434822
0.004080672
-0.030109055
-0.00640732
-0.03810854
-0.0026889422
0.0014285079
-0.036807045
0.01805901
0.014428447
-0.02328845
-0.00595722
-0.0010008962
0.038442597
-0.005517602
-0.00390973
0.04371077
-0.03738591
0.029896315
-0.045171138
0.015210016
-0.04532522
0.050800283
0.016275084
-0.0059416103
-0.034347065
0.004998173
-0.024429107
0.00129785
0.03574849
0.047425117
0.04560368
-0.02545341
-0.02052378
0.005975167
0.03910871
-0.0025310053
0.042807203
-0.016328124
0.0020979128
0.021851117
-0.03267885
0.0051637287
-0.012022998
-0.010751352
0.066060394
0.019224301
-0.041870844
0.005627944
0.053452943
0.015253093
0.0022167435
0.004907851
-0.011206636
-0.016322453
-0.030818667
-0.009818711
0.04037254
0.030292524
-0.041223228
-0.017384624
-0.040558476
0.0661857
-0.0034925567
-0.02278468
0.010193489
-0.010233003
0.006063886
0.01863968
-0.0013782325
-0.013626794
0.011000047
0.027572265
0.007356193
0.009972976
-0.028287256
-0.0019585285
-0.02912108
0.039924428
-0.041077763
0.015462929
-0.022894861
-0.029856062
0.026316395
0.023751978
0.006063631
-0.023767099
0.0060311807
-0.014318819
0.017928045
-0.00586521
0.041709032
0.03305084
-0.028823135
-0.029157445
0.005706515
-0.044516906
0.0139541
-0.027457394
0.012539423
0.011647617
0.0066484334
0.01189344
0.018840179
0.010802389
-0.053547088
0.03157285
-0.013032165
0.02323997
-0.02902497
0.007487686
0.034014065
0.038397353
-0.025863243
0.00087088655
0.044765454
-0.02075052
0.014211338
0.0008205795
0.048431415
0.01393801
0.055078536
-0.013055563
0.003681962
0.029456165
0.022883423
0.010714511
-0.0024409594
0.018180478
-0.02057227
0.019083552
0.020303903
0.023097701
-0.010583306
-0.0051893746
-0.004747243
0.02326389
-0.032768756
0.055053372
-0.026792942
0.04690283
0.010496094
-0.019007223
-0.030842021
-0.028301813
-0.0050947503
-0.025337463
0.05666982
0.025251841
-0.039547145
0.014746722
0.008108851
-0.01620429
0.03771818
0.0010015966
0.005969086
0.020741636
0.012123641
0.05647984
0.004966225
0.0023645982
-0.034257106
0.05309567
-0.0017490743
0.017604878
-0.0044380464
-0.021620816
0.01377916
-0.019602934
0.026393559
-0.0028311694
0.023562679
0.03743047
0.038499642
0.014701524
0.04045542
0.034407444
-0.026053045
0.0050837104
0.0069284043
-0.00046968853
-0.0023566906
0.031616125
0.06654167
0.013808345
0.008592651
-0.011149972
0.01326976
0.05711193
-0.0010451265
0.028133601
-0.0217135
0.012905727
-0.018713674
-0.03139709
0.009466452
-0.035054263
0.02363632
-0.0049975086
-0.037355073
-0.013009645
0.006064932
0.0046621794
0.00019378224
0.052834824
0.059236858
0.0089467885
0.004901973
-0.00733635
0.004929034
0.01941645
-0.006539563
0.008488515
0.026443811
0.02913952
0.005457331
0.008181514
-0.011223379
-0.030330246
0.011943844
0.08176248
0.018948145
0.002141257
-0.03570058
0.044666525
0.019629313
-0.03454529
-0.024354415
-0.0039394735
0.038017992
0.05408744
0.0056432127
-0.00010595321
0.021844413
-0.027539944
-0.044349376
-0.0235393
0.0079050725
0.025769044
0.022772087
0.048325364
0.025286755
-8.346147e-05
-0.01793007
-0.00030532465
-0.042477526
0.025141744
0.014472473
-0.072332345
-0.016288014
0.018560324
0.04872987
-0.007432494
0.04805412
-0.040459685
-0.046375986
0.039403804
-0.031290628
0.021812707
-0.013570435
0.011547179
-0.021700246
0.024017503
-0.030762158
0.03835612
0.0076080943
-0.03773654
0.021717705
-0.023924291
0.032717407
0.02035864
0.021822613
0.027932575
-0.0026239099
-0.0019321253
0.012177818
0.009449724
-0.012807872
0.0139691895
-0.0013986817
-0.040819414
0.045253582
-0.017830947
0.010960906
0.050850883
-0.0043259435
-0.016551524
0.00852161
0.051136952
0.013549098
-0.008322603
-0.0043406677
-0.0035680344
-0.0447745
0.037511166
0.0010849726
-0.019156167
-0.040598232
-0.011051939
0.005277868
0.022920083
0.009128921
-0.013302338
0.05854255
-0.024905616
0.017816754
-0.032978054
-0.007355756
0.011553244
0.03779743
0.0028095304
0.054787815
-0.027331928
0.037913535
-0.043626588
-0.019395748
0.019052165
-0.001165343
0.02952034
-0.008812955
0.0051985034
0.025429558
-0.012333792
0.0017075168
0.07147545
-0.0139895845
-0.015342455
0.012492076
-0.0009968291
-0.034414597
-0.0115538705
-0.07134078
-0.01253733
-0.019402472
0.031333193
0.007983274
-0.022454185
0.014814322
0.024902627
-0.012656997
-0.060775172
-0.019632166
0.0070933076
-0.043726623
0.042730387
-0.00071310916
-0.0005188676
-0.009773076
0.00511669
0.047982853
-0.015293407
0.043310594
-0.039963964
-0.031624734
0.021737618
-0.0087839365
-0.03527009
0.0033841545
0.023682386
0.01267693
0.051720623
0.07683396
0.0013229942
-0.02097617
-0.0027630448
-0.010166133
0.055308677
0.04663711
-0.006437943
0.020172298
-0.0039488524
-0.01691947
-0.05346855
0.018365309
-0.0016248376
-0.02215342
-0.013846999
-0.036079552
-0.054880552
0.010566723
0.027155789
-0.012490571
0.03659159
-0.021602442
0.0232529
-0.023521949
0.00470585
0.01498266
0.018173536
-0.01166683
-0.019581648
-0.010690369
-0.004804065
0.00065127236
-0.020111633
-0.033550587
-0.034193248
0.041738797
-0.016453903
-0.035028312
-0.015255843
-0.04998302
-0.02509181
0.029031094
0.04183252
-0.027489208
0.03272259
0.031286377
0.0120837465
-0.06408877
-0.0018982165
-0.0030287788
0.011726732
-0.043312926
0.0296509
-0.043703333
0.03327618
0.029764952
-0.014623235
0.014209974
0.010889015
-0.018825356
0.02070332
0.039823707
-0.05050075
0.01364317
0.03328966
0.020290716
-0.07290808
0.062509775
0.018707713
-0.03150342
-0.03472575
0.0062226043
-0.026111435
0.039744023
0.037419748
0.038834997
-0.036478084
-0.02614972
-0.0018131176
-0.025050703
0.017634219
-0.011157453
-0.011465443
0.03671709
0.032110758
-0.0289035
-0.022068005
0.005408999
-0.012520075
-0.01862837
-0.043492783
-0.0048253844
0.052876636
-0.0012483207
-0.008306165
-0.09710845
0.025152314
0.022112122
-0.014364214
-0.018163593
0.012364336
-0.024268558
-0.017166026
-0.047627512
0.030024862
-0.02866152
0.015935019
-0.018419713
-0.03381283
0.020800836
0.07731051
0.007612939
0.009640064
-0.039952125
-0.06925559
-0.010392895
0.016109942
-0.0014209746
0.0542189
0.012082407
-0.013327603
-0.009424248
-0.05013351
-0.022145825
-0.0061466186
0.015593279
-0.026046459
-0.030408287
-0.013657749
-0.07251622
-0.03609177
-0.069398634
0.012348563
-0.042252228
-0.028531605
-0.022163015
-0.010325577
0.01667391
-0.020303912
-0.0003111046
0.018205002
-0.016091935
0.0029750196
0.0019359166
0.04322703
0.009724462
-0.0105379
-0.010175789
0.00665658
0.005635998
0.029457636
-0.0060080183
-0.052691493
-0.038572907
0.030600166
0.011016234
0.005580599
0.004010188
0.03165713
-0.060476072
0.02471967
0.014660764
0.029801732
0.010364334
-0.016445562
0.027013958
0.005802535
0.012754844
-0.0887147
0.049235135
-0.07614213
-0.004774764
-0.035578165
-0.02073441
-0.053355575
-0.006995768
-0.011202279
-0.021881571
0.007664217
0.028846726
-0.021797284
0.015477555
-0.04597437
-0.036177825
-0.033486202
0.017801328
-0.026519794
0.0019096949
0.035964206
-0.028511524
-0.021413453
-0.028586078
0.015766066
-0.0015853927
-0.05945102
0.042706333
-0.06287948
-0.021191891
0.038336005
-0.020939346
-0.0114143975
0.025014589
-0.005425325
-0.032640323
-0.00791015
0.031176016
0.008512051
0.004477344
0.002425126
0.011672919
0.012786837
0.049669303
0.029171454
0.026027532
-0.025257984
0.02691903
-0.046295445
-0.019629525
-0.0023093543
-0.010551177
0.014312371
-0.046433456
-0.02857619
-0.04777736
0.009584621
0.010402861
-0.087965205
-0.002694756
-0.006803189
-0.010896782
-0.020865917
-0.006572086
-0.085973375
0.014241766
-0.029478213
-0.04440697
0.04487839
-0.0009054198
-0.031032063
0.027415661
-0.04459754
-0.0021669578
0.07019912
-0.0047514904
0.11579904
0.010228557
-0.028505433
-0.04390283
0.04294526
0.006191684
-0.016728004
-0.057199422
0.032380592
0.053996895
0.0032736305
0.015675578
0.014567936
0.022134246
0.010045343
-0.022277694
-0.025198173
-0.0068933223
0.014082683
-0.008427195
-0.03161877
-0.0024680637
0.039150514
-0.023727164
0.022630928
5.4293414e-05
0.067517735
0.035849117
-0.023745036
0.026263407
0.0006616335
0.01534912
-0.015929947
-0.013198808
0.013191756
0.038738865
0.0018941326
0.025811253
-0.0014123105
-0.020434288
0.05526946
0.01180514
-0.022386206
-0.027059626
0.03250543
-0.020517852
0.033449937
-0.023644045
-0.028820774
-0.001995371
-0.02778403
-0.059677165
-0.009787275
0.048548862
-0.022000238
0.08184094
0.06278128
-0.020339219
0.0056975917
-0.0111330645
-0.023640709
0.008437625
-0.017987723
-0.035452437
0.024714664
-0.056226388
0.01091677
-0.015495614
-0.012265127
0.006717719
0.054554097
-0.0323732
0.028025048
-0.04172753
0.0030108506
0.033575326
0.0070162457
0.03017338
0.01641182
0.016753342
0.023518689
0.032874856
0.03502877
0.041613426
0.00034934285
0.005810176
-0.054390214
0.033807874
0.003454406
-0.056100387
0.01431734
-0.0043172683
0.018327996
0.0030000976
0.008648596
0.043605603
0.0020565854
-0.0043015457
0.0045240386
-0.038213897
0.014192926
0.035277333
0.02921356
-0.012151936
0.05453411
-0.0011456045
0.0730616
0.030897792
-0.060467638
-0.02603826
0.018651834
-0.026125789
-0.01096376
0.015799694
-0.045805786
-0.0017394641
-0.015919108
0.04541491
0.005151226
-1.8340088e-05
0.04591777
-0.042421553
0.049441136
-0.05713473
0.030233959
0.0016575897
0.04581805
-0.060548518
0.028841525
0.0037025684
0.014286995
0.018861497
-0.008833441
-0.019990781
-0.05167028
-0.035055604
-0.02290686
-0.0024405175
0.014937196
-0.0008269089
-0.017179132
0.025174495
0.04443477
-0.010882327
-0.062487785
0.009122931
-0.0059590507
-0.033256777
0.025621273
0.045293182
-0.0021800667
-0.021413643
-0.004940554
0.007263169
0.022687295
0.0033596926
0.001642685
0.048099797
-0.008433674
-0.0032452242
-0.016814178
0.029281033
0.016020665
-0.008828122
0.012694001
-0.0008354797
0.006454976
0.01317315
-0.038287014
-0.006932244
-0.0063462025
0.0043545724
0.06483893
0.0014340769
0.01857614
-0.043584727
0.0032076149
0.0076137027
-0.0038873511
0.0007904841
-0.0014929381
0.030161679
0.041464776
0.00071963546
0.051728353
-0.0071638525
0.014040428
-0.06421134
-0.011516801
0.018763795
0.0053469515
-0.029673683
0.031272568
0.0133238835
0.050764874
0.044581637
0.02638401
-0.019842664
-0.070578486
-0.019161219
-0.050762177
0.0077778026
-0.07513791
0.054711226
-0.025421001
0.005063614
0.020003835
0.036381446
0.0090882
0.023139706
-3.0770043e-05
-0.01899826
0.008641612
0.011924219
-0.017680492
-0.027358828
-0.01702469
-0.0089485375
-0.029412108
0.014321468
0.004051991
-0.009817021
-0.00048229063
0.059365112
0.03485913
-0.030351883
-0.057391204
0.0013018543
-0.010687487
0.017962808
-0.0073140585
0.05884216
-0.005532795
-0.040633332
-0.006145148
-0.03723461
0.07973511
-0.03627989
0.0020896825
-0.013742082
-0.010120275
-0.011862488
0.0011210012
0.050054733
-0.035882685
0.017916687
0.023256078
-0.010345167
0.008696477
0.042590182
-0.000578364
-0.05012755
0.021951647
-0.00419297
-0.021061018
0.090796545
-0.009342616
0.022441044
0.013007953
0.04305875
-0.0020673382
0.046948656
-0.01625227
0.013073963
0.0070422674
-0.025302257
-0.038123913
0.0046001263
0.029122354
0.01691424
0.03452105
0.07058779
-0.09905791
-0.0055687088
-0.008249965
0.0037246216
-0.046164658
0.013888771
0.007417692
-0.03969097
0.037779495
0.022125358
0.03193635
-0.015995687
0.011521646
0.011266997
0.05741488
0.023590788
0.036539566
-0.005713781
0.020337084
-0.000791551
0.041523706
0.032765683
0.035381336
0.02470823
-0.018721635
0.0018012867
-0.031903982
-0.048904244
0.03341152
-0.039885134
0.021727584
0.008489281
0.048853055
-0.007627338
0.013700802
-0.029904062
-0.0016571017
0.048823275
-0.00066472497
0.028382244
0.04013626
0.012955382
-0.032042343
-0.017689928
-0.031618994
0.025771398
-0.036641445
-0.047364563
0.013149137
-0.037298135
0.034424778
0.025025496
-0.012819363
-0.019227004
0.033358797
-0.019981887
0.0020899524
0.002776692
-0.028674576
-0.026819041
0.027924176
0.029743077
0.008135371
-0.005580373
0.0036654957
0.0041531166
0.0021318195
0.031044358
0.077524684
0.04987619
-0.047185227
0.03841964
-0.0136853
0.0042567933
-0.024895582
0.014317642
0.039282095
0.046614993
0.030860553
0.000514603
0.024816848
0.015916197
-0.022395724
-0.018553065
0.0013701082
-0.03410115
0.03291677
0.024033902
0.0019275518
-0.02892739
0.01855706
0.029878424
0.03738143
0.026258036
-0.01349222
-0.04738577
-0.051733952
-0.0051977793
-0.014328507
0.0056128637
-0.01764449
0.020700809
-0.018201191
-0.012393642
0.030383997
-0.03913815
-0.01669351
0.022008616
0.003191401
-0.0054319073
0.056155205
-0.024646435
0.0067588775
0.013217673
0.013549645
-0.020557104
-0.010024449
0.01930521
0.007416209
-0.06320104
0.02168854
0.013890082
0.0011938681
-0.041887302
0.035507068
0.022077216
-0.0067355675
-0.04559181
-0.05635375
-0.021028917
0.0029569645
0.0036682268
-0.023024892
-0.04738631
0.029372668
-0.0111312205
-0.038053367
0.0071760607
-0.00970493
-0.015871387
0.024151143
-0.027754113
-0.010027899
-0.023482375
0.033625457
-0.0014874237
-0.011919016
-0.075624645
-0.014126181
0.027932663
0.0018826167
-0.018522194
-0.016393032
-0.069822095
-0.015020418
-0.0034424763
-0.014287377
0.04918277
0.03730492
-0.059822932
-0.010372174
0.018592995
-0.013890879
-0.030157654
-0.052342266
0.0081751915
0.04618029
-0.0328599
0.035358068
-0.038331557
0.009466791
-0.031006278
-0.0041753897
-0.009426615
0.033678345
0.0079790875
-0.04183932
0.01468267
-0.0011542231
0.029806236
0.065489136
-0.013185248
-0.025319384
0.012508259
0.009769643
0.014314627
0.0026228868
0.057910904
-0.00038200078
-0.0021221929
-0.0048799478
0.06058886
-0.043327443
-0.05382963
-0.008955393
-0.0070235906
-0.011605251
0.016572766
-0.01782539
0.020890286
-0.008361435
0.026562378
0.020871937
-0.011507838
-0.028820444
0.023766156
-0.037358236
0.035055805
0.040229496
-0.008665135
-0.024009628
-0.002832382
0.0036212667
0.011734327
-0.00013627137
-0.014253359
0.003543918
0.013221333
-0.014510873
0.039041102
0.024201378
0.06338796
0.032192074
-0.010489235
-0.032107774
0.032927033
0.00824117
0.017762845
-0.004031032
-0.01703236
0.020762376
0.0058103083
-0.012646753
0.06021948
-0.020729626
-0.017277636
0.009320125
-0.05386474
-0.0002480199
-0.014118461
-0.04411594
-0.02883556
0.025262969
-0.004601549
0.023696158
-0.017563405
-0.03948334
0.018176986
0.005791662
0.016463896
-0.005229383
-0.0036987092
0.053969614
-0.020387718
-0.032428563
0.026621632
-0.061264873
0.008927098
0.0023386886
-0.0685857
-0.0047381404
-0.0031055657
-0.040583495
0.027260805
0.019737467
0.017305542
0.01462814
-0.04164188
0.038572162
0.0056079742
0.010540776
0.037103403
0.0057636155
-0.0066813184
0.03372911
0.011641032
0.026911417
0.023399314
0.017897686
-0.011581687
0.004088354
0.013396606
-0.015412682
-0.0021966696
0.020097464
-0.007610533
0.017040487
-0.02968501
0.038458027
0.019732479
-0.053339377
-0.033380777
-0.065702096
0.028998852
-0.037638936
-0.010490618
-0.0047797156
-0.04160652
-0.0092474315
0.031910397
0.0063124225
0.008562503
0.07821685
0.014462867
0.0027969356
0.00401772
0.022925692
-0.07689894
0.08195035
0.0029842157
0.017113391
-0.016152792
0.058588553
0.023689354
0.048030276
-0.0005305867
0.072460875
0.035306122
-0.005693647
-0.031527925
0.012514573
0.041061696
0.037348498
0.005712455
-0.07996181
-0.010863809
-0.0017187087
-0.027822152
0.037179347
-0.012705647
-0.018444655
0.011016532
-0.0001457162
-0.04242298
0.019879939
-0.02751149
-0.034169953
0.04227437
-0.026893638
-0.054853164
0.0003164174
-0.03250553
-0.054852165
0.019442797
0.017598405
-0.014456029
0.0064386167
0.062395357
-0.00024373805
0.002393735
0.049766187
-0.027324505
0.0036459726
-0.010865137
-0.025798775
0.032415558
-0.0016478796
0.029130034
-0.058998365
0.022471998
-0.032345433
-0.011457378
-0.013722643
0.032739364
-0.014131337
-0.03893653
0.009705491
-0.006976583
0.009916772
0.002274621
0.008802795
-0.026141284
0.03878141
0.036589775
0.022156537
-0.029549045
0.033305153
0.02419501
-0.033505004
-0.024334071
-0.07226861
0.034524363
-0.039999153
-0.066596314
0.047036104
-0.059711583
0.04384135
0.07279766
0.003968101
-0.02133369
-0.0049131126
0.0083373105
0.022792952
0.035811696
0.034102462
0.036191247
-0.04849781
0.0015983116
-0.0040478604
-0.0155644175
-0.01519847
0.004055863
0.03001755
-0.008722678
-0.028184628
-0.029029101
-0.0010530846
-0.017824143
0.008407419
0.02026275
-0.019170929
-0.019435588
0.04664023
0.047288906
-0.0380544
0.016930673
0.021576526
0.011411443
-0.060568865
-0.009465788
-0.01587531
-0.052796133
-0.030407442
0.022108233
-0.029668804
-0.034230784
-0.0035108635
0.026039945
-0.021810604
-0.0143813025
-0.016886344
-0.011042581
0.012889603
0.008934728
-0.035798393
-0.00097411545
-0.0022982545
-0.010367088
-0.002479868
0.009507967
-0.029471418
0.02426936
0.0074596996
-0.0010965583
-0.062422123
0.017844353
-0.018004833
-0.015217185
0.04034383
-0.023521114
0.0099059865
0.021510554
-0.02974867
-0.04659785
-0.008616193
-0.04990186
-0.01699665
-0.045307513
0.031576965
-0.019985093
-0.008520698
0.0421894
0.0025261054
0.017396558
-0.04704379
-0.01203014
0.037969418
-0.040544424
0.010392473
0.01523067
0.049273033
-0.004253616
-0.018391829
-0.035921667
0.019593026
-0.001957441
0.036026448
0.004456905
0.009891246
0.0098486375
-0.0028160869
0.017508164
-0.006548576
0.0028407949
-0.05785337
-0.02653325
-0.030930797
-0.011962245
-0.10213055
-0.006453772
0.015602548
0.034731813
0.038818557
-0.010277154
0.040386997
-0.066907346
0.011331747
0.045502357
0.019750228
-0.043106522
0.006932427
-0.0046198475
0.031714708
-0.0003962092
0.08407441
0.027311064
-0.013643156
0.03936933
0.009437014
-0.050745748
0.03956622
-0.012931875
-0.008397383
-0.033366587
0.00984452
0.019027038
0.02274653
-0.020964859
0.0037568728
-0.0033456055
-0.065436736
0.053627037
-0.047722984
0.017432125
-0.023447782
-0.020440184
-0.038317688
0.015867176
0.012410331
0.012300742
-0.01512445
0.02406031
0.06509708
0.03793764
-0.004251725
0.10287533
-0.009760405
-0.00946578
0.014601473
0.00776611
0.031361945
-0.049520787
0.0065529337
-0.020386154
-0.048329018
0.04879188
0.0030463454
-0.018263848
0.034807876
-0.027375918
0.03827155
-0.020694653
-0.016435342
-0.035537895
0.04917496
-0.035106868
-0.008400491
0.004699377
0.009160426
0.010860857
0.0025533352
-0.0027990045
-0.0039785886
-0.021693612
-0.006406504
0.048259266
0.021221489
0.0027285921
0.013298162
-0.008203726
0.024058739
0.004111685
-0.0011353829
-0.012845967
-0.0456868
0.036471236
-0.069766805
0.03414508
-0.025848761
0.03451262
-0.025955444
-0.019230725
0.010263253
-0.0027317428
-0.0065721576
-0.03926832
-0.0056118215
0.00256574
-0.008559808
0.024332857
-0.0013295716
-0.012172103
-0.052170783
-0.05453457
0.04934171
0.02454126
0.0057196165
0.038090654
0.00022327247
-0.0056326776
-0.020235253
-0.029514933
-0.059838966
-0.020514999
-0.0101076905
-0.03269518
-0.034616955
0.0009845716
0.01565329
0.028650314
-0.048282582
0.033073343
0.022106808
-0.00470446
-0.015354425
0.043138623
0.00239434
-0.0017239845
-0.0038364735
0.005594391
-0.014845961
-0.06350136
-0.038926803
-0.021013422
0.015042473
-0.017012289
-0.017430436
0.029465774
0.011727828
0.023837907
-0.008017254
0.02442139
-0.017135356
0.005229291
-0.008763793
0.03507944
0.024932256
0.027802179
0.052826528
-0.018441679
-0.021924047
-0.039822906
0.0117668295
-0.0124525465
0.04242245
0.024676645
-0.018665347
-0.029894747
0.016800776
-0.013081682
0.028345227
0.03865062
0.033931248
-0.030296402
-0.0069239237
-0.01570442
0.032938894
-0.0012641526
0.020915257
0.009482492
-0.018702896
0.025555072
0.013964048
0.0141346045
0.024896052
0.034953926
-0.005067383
-0.023257501
-0.037905622
-0.023102839
-0.059243824
0.025554283
0.036042072
-0.02087939
0.008026574
0.01929513
0.039166365
0.034696925
0.002114534
0.014376899
-0.0083441585
0.01965189
-0.045318253
0.002463812
-0.033946797
-0.030257946
0.039111163
-0.02723407
0.026814247
-0.047453187
-0.029852876
-0.02779798
0.013856894
0.004538842
-0.014313212
0.06525271
0.003842338
-0.0076722344
-0.010602461
-0.0024501695
-0.04663408
-0.0015300256
-0.018711185
-0.018067306
-0.026224256
0.04241791
0.016678674
-0.03506319
-0.011692935
0.014057462
0.01602707
0.009794741
0.041360192
0.012489924
-0.04171859
0.022520455
-0.025247432
-0.013033875
-0.005560362
0.030928474
-0.0029257147
0.0053951773
0.01053365
-0.016999982
-0.009724703
0.021003354
-0.05311746
0.009801332
0.0031645615
0.025486473
0.005914312
0.02702728
-0.025022957
0.042303704
-0.042323068
0.018580697
-0.018742932
-0.037709724
0.015707763
-0.019279957
-0.046335008
-0.028369565
-0.0115465885
-0.0020231172
0.07221486
-0.008369441
0.015479744
0.030615864
-0.008662438
-0.016904224
-0.021799708
-0.029732518
-0.022141794
0.012791436
-0.022190096
0.0018942498
-0.037329566
0.011654199
0.046616025
-0.080111176
0.03621553
0.020352988
0.0021930593
-0.0015381097
-0.031491786
0.037465278
-0.045846656
-0.0060855746
0.0058789365
-0.01939206
0.03137133
0.0043074926
-0.0022210525
-0.008015045
-0.03162963
-0.029723851
-0.00035833847
0.009501926
-0.022431418
-0.017661633
-0.021505523
-0.035138667
0.03894492
-0.016253175
0.0023326022
0.041049376
-0.013541333
-0.049238883
0.05052232
-0.020462748
-0.047962964
0.0033427088
0.013259646
-0.03628488
0.049546573
0.01799079
-0.013225272
0.032440256
0.055646993
-0.02486272
0.007463863
-0.028304113
-0.05253801
-0.017837472
-0.022787543
-0.0055118324
0.030254113
-0.017563181
-0.054877322
-0.012909689
-0.02154915
-0.047440816
-0.021993896
0.057769403
0.02161902
0.07418194
0.00867645
0.0007109798
-0.02417723
0.01949688
0.031920407
0.013559512
0.014205036
0.022526296
-0.017960379
0.025022812
-0.01344869
0.073324
-0.021183882
-0.034444764
0.030105434
0.01780862
0.008023174
-0.0055305464
-0.032295346
-0.06529038
-0.040367987
-0.0320356
0.016545353
-0.0068427273
-0.020979274
0.011123886
0.011316036
-0.02021739
-0.058601
0.04367308
-0.009785502
0.00802091
-0.004638756
0.041031163
0.009331713
-0.007753578
0.0045915693
-0.031342972
-0.0006764943
-0.016091118
-0.031270843
0.014403676
0.061157387
0.010662372
0.041421406
-0.021376705
-0.008551412
-0.014421814
0.017940868
-0.042889718
-0.0047827093
0.0045618187
0.0011687492
-0.022697378
-0.07813854
-0.025435742
0.01968729
0.02581487
0.0075616213
-0.07598936
-0.030737024
0.05856877
-0.06758446
0.006009171
0.0601109
0.0115738185
0.006833428
0.010684871
0.011167319
-0.009994371
-0.038939163
-0.04605214
0.041238558
0.018403664
-0.075654425
0.06575599
0.013932642
-0.038602535
-0.04608005
0.0079400465
0.009313376
-0.013435685
0.008292589
-0.0300585
0.0059003592
-0.011040398
0.03206118
0.025523713
-0.015933204
-0.0005102207
-0.006598003
0.016981196
-0.027079614
-0.016045598
-0.015531049
0.018576765
0.0020179267
-0.02710674
-0.02142784
0.01077657
-0.0031511835
0.059982322
0.048883095
0.0022103826
0.00711942
-0.012100449
-0.031951796
-0.009004017
0.014787663
0.04260185
0.0050629205
0.019454036
-0.03320597
0.017684868
-0.014243671
0.020472566
-0.028433472
-0.024413355
-0.011672307
-0.034453098
-0.03205857
0.027771475
0.0054808063
0.0074230717
0.043776147
-0.029506277
0.020397602
-0.0038859819
-0.054063577
-0.053319067
-0.011909851
-0.0114769265
0.034196954
-0.055296343
-0.033710066
-0.011231713
-0.008520363
-0.02777213
0.0019377527
0.0042137867
0.026229044
-0.026208945
0.07146408
0.017560793
0.034076653
0.02646975
0.029081624
-0.025121205
-0.028154463
0.002643485
0.016781569
0.052826963
-0.027051598
0.01222651
0.01078117
0.051669497
0.062848136
-0.031144597
-0.030823594
-0.0124240415
-0.0094993375
0.020426258
-0.009414649
-0.030346261
-0.006654956
-0.053040422
-0.03259119
0.029654466
-0.030253083
0.004607437
0.032559652
-0.023663742
0.08871978
0.01028894
-0.022208763
0.008126791
0.05222013
0.0020271894
0.018627716
0.029352156
-0.01813562
0.026319712
0.009059795
-0.03591939
-0.046497032
0.0019483041
-0.03631907
0.0038690118
0.030949794
0.03937159
0.026533687
0.0027895465
0.0074600033
-0.0110258
0.0007463863
0.09601947
0.070900746
0.010598934
-0.050339453
-0.0030894512
0.049814828
-0.079415396
0.016626712
-0.04471891
0.018708074
0.017252993
0.0330706
0.013058835
0.00085608213
0.053402007
0.03463582
-0.015418905
-0.050986264
-0.0150880795
0.054606996
-0.044131428
0.01420076
0.020797793
0.022437856
-0.05660137
0.014446027
0.005072448
0.00854538
0.030578773
-0.015029059
-0.024451744
0.019483997
-0.010797457
0.047919497
0.04628488
-0.007942286
-0.023744566
-0.0045929607
0.03948958
0.017837793
-0.009005969
0.01136806
0.03709944
-0.004897567
0.009895446
0.019119449
0.0014635534
0.042949278
0.002175996
-0.02391942
0.0013794041
0.016562609
-0.022435792
0.00832369
0.051470824
0.019641224
-0.023209313
0.0103536295
0.0163684
-0.03697433
0.028931271
-0.032327373
0.013381095
0.008182232
-0.008717964
-0.023067031
0.05187405
0.020569589
0.046605363
0.012498032
-0.03886164
0.0063282344
0.044570945
0.067038916
-0.018828565
-0.024776684
-0.055967137
-0.00790591
0.014982297
0.023032935
0.0015302626
0.012225148
0.009396263
-0.022315588
0.06876698
0.016194258
-0.015252791
-0.007306487
-0.012728053
-0.044568922
-0.0362244
0.034579832
-0.049277674
-0.030653138
0.005304159
-0.015430759
0.005096238
-0.028203031
0.009954255
-0.007438105
-0.035052653
0.023942335
0.0021465712
-0.048061915
0.009726158
0.017709125
0.031636007
-0.033107266
0.00092918746
0.020653713
-0.0039332514
-0.033754442
0.008967999
-0.031827867
0.0406796
-0.03212154
-0.013067329
0.003874807
0.06452211
0.06502541
0.048796512
-0.016034564
-0.011326635
-0.023260625
-0.0922311
-0.058452304
-0.0062441863
0.029926555
0.03548881
0.032536615
0.018471602
0.011955264
0.01958823
-0.008387504
-0.068016075
0.028795011
0.034219135
-0.01869633
-0.006933623
0.042645372
-0.019409297
-0.009285338
-0.013601574
-0.009261161
0.011956485
-0.018603597
0.03780031
-0.0622031
0.009438614
-0.024602156
-0.017188793
0.0098065445
0.015301244
0.017681189
0.05896901
0.010825173
-0.035806876
-0.014313858
-0.0050190757
-0.0137130795
-0.033372656
0.028235035
-0.030256802
0.004377719
-0.04815971
0.05267169
-0.06290282
0.02171688
0.0033334163
0.04185269
0.007262544
0.0046543297
-0.025723059
-0.014595919
0.032965567
-0.02598232
0.028011689
-0.038252357
0.06390458
-0.049345706
-0.010249391
-0.0068979464
0.018419204
-0.011939039
-0.04858004
-0.0043873233
0.016219478
-0.02232948
0.0042684274
-0.015597068
-0.060665935
-0.034830116
-0.042382367
0.04563321
0.05331729
0.01943653
-0.012183568
0.030267756
0.029044885
-0.029764684
0.0001767495
-0.044656098
0.0016154217
-0.00016488862
-0.011805401
0.0018075627
0.027270757
0.02932923
-0.060889874
-0.0013041443
-0.033485003
0.041839335
-0.038031008
-0.04220655
-0.037628148
0.04525908
-0.010498673
-0.0067835627
0.03651534
0.025454666
-0.011168131
-0.017479345
0.006788083
0.017098436
0.046802204
-0.040073443
0.045049403
-0.0021943946
-0.009593373
0.018965974
0.033036742
-0.011254218
0.008357502
0.011893347
0.02047283
-0.044274934
0.01725016
-0.010229927
-0.028632715
-0.0391264
-0.024877325
-0.034875236
-0.008917851
-0.015211345
-0.0019153658
-0.01075615
0.023223057
0.08077127
0.0035760712
-0.02348448
-0.049747538
-0.028198376
0.008895794
0.025960304
-0.031703874
0.030191155
-0.052202307
-0.005674119
-0.040718168
-0.020002075
-0.0015362952
0.076522365
-0.056408424
0.02733131
0.07134533
-0.036951397
-0.0010797924
0.010066084
-0.008612925
0.012836494
0.0002772155
-0.026271846
-0.0504281
0.045840748
0.034850374
0.032820273
-0.02535579
0.04273378
0.028623002
0.031102348
0.02673962
-0.041011356
-0.0052483184
0.063300505
-0.021606255
-0.014395732
-0.010374153
0.021703914
0.035171602
-0.022225833
0.06036922
0.042192396
-0.021251278
-0.0068714046
-0.08900047
-0.014312474
-0.024399903
0.0026746013
0.05238256
-0.03129131
-0.023816036
-0.029879762
-0.032366313
0.050802436
-0.043801915
0.017745394
0.004020941
-0.06299789
0.050774503
-0.017035412
-0.027358731
0.022124458
0.019924305
0.018690167
0.0104110865
-0.021775454
-0.014432258
-0.0041252556
0.030418908
0.0072959736
0.016903136
0.0129995225
-0.042677157
-0.07335127
0.029087158
0.038501322
-0.0037965346
0.01696629
-0.0300695
0.03155338
-0.003476206
-0.001775661
-0.0685467
-0.026875002
-0.01937255
0.003285078
-0.010917031
-0.037697364
0.040321406
-0.03737041
0.013134018
0.02601102
-0.018685652
-0.012487916
0.00742584
-0.07646106
0.009818225
0.030506844
0.0428721
0.0013581706
-0.0018687001
0.048840914
-0.022610279
-0.010725081
-0.02627465
-0.008058317
0.01650689
0.019410698
-0.006992046
-0.0046133185
-0.009663084
0.032082647
-0.041952398
0.010706204
0.0031959263
0.002324208
0.026256023
0.04243773
-0.01147965
-0.011383181
0.040983528
0.008723123
-0.03538715
-0.01808683
-0.013197728
0.041136608
0.027753381
-0.016476046
0.0055220933
-0.082335964
0.053398985
-0.06386077
0.049577396
-0.0061276173
-0.006730003
-0.015329081
0.0021661243
-0.025736019
0.06295169
0.03970854
0.004239013
0.011295125
-0.035126723
0.0035464822
0.018757215
-0.0016908136
-0.0077422364
0.06451858
-0.008602861
-0.0029477049
-0.024161957
-0.0068686656
-0.051828507
0.03956852
-4.3034543e-06
-0.0032093453
-0.015128608
0.033947445
0.018437324
-0.0039758836
0.00032395998
0.002449123
-0.022259902
0.0026011989
0.031325076
-0.06492479
0.025584383
-0.0045357337
0.0064277304
0.0028808236
0.0055779675
-0.027524238
-0.0203359
-0.008268292
0.034187853
-0.0018609121
0.028981615
-0.006553199
0.06284018
-0.013763384
0.0370976
-8.133537e-05
-0.026302384
-0.004404618
0.012051824
0.022569334
0.033614043
0.004799684
-0.0036485298
-0.10394588
-0.016419094
0.04223273
-0.0088793775
0.003306875
0.0008189317
0.00037789615
0.060236655
0.011500392
-0.008385067
-0.02400569
-0.00862907
-0.071592845
-0.024934374
0.06416374
-0.02520569
-0.001512806
0.0059119025
0.019469945
-0.0128810685
0.0051594884
-0.004663728
0.008521188
0.00828917
-0.005472125
-0.02319645
0.0033188893
-0.050250992
-0.049888432
0.0023402993
-0.008489476
0.005000703
0.059846547
-0.007711882
0.0054024495
-0.03124511
-0.04513865
0.016371012
-0.012980208
-0.02139699
-0.0411008
-0.010882805
0.0015216214
-0.008280304
0.0078030247
0.015336217
-0.042763162
0.01214822
-0.010228208
-0.036495134
-0.021479322
-0.07425691
-0.016183278
0.012803127
-0.0006169732
-0.0155400485
0.016306771
-0.0025317345
-0.039587565
-0.020865958
0.04865896
-0.041969065
0.027719088
-0.008105084
0.056800954
0.039130807
0.0072761048
0.04173994
0.037125938
0.010571237
0.043468624
-0.030109582
-0.02755708
0.05970663
-0.026988393
0.024097335
-0.038047582
0.011782976
-0.009413279
0.025541954
0.0010816593
0.021875339
0.0012388132
-0.032714058
-0.035604656
-0.046811093
0.0016130023
-0.00052135583
-0.0019530476
-0.01754411
0.07916535
0.032689605
0.03609715
0.07079083
0.0026694925
0.03449228
0.008798305
0.040830486
-0.0050815432
0.067200184
-0.024995053
0.005755646
-0.05646882
-0.002498761
4.111527e-05
0.00076234934
0.048549954
0.0016505047
0.04452184
-0.00092048803
0.03561267
0.012411458
-0.012139144
0.034743022
-0.04743213
-0.02638215
0.021665363
0.09340977
0.03595565
-0.024775106
0.028969344
0.019524204
-0.07832198
-0.010169025
-0.0050573065
0.002335156
0.00437394
-0.026194897
-0.006385316
0.033093445
-0.07844142
0.026484035
-0.043245085
0.07141873
0.040472746
0.001389369
0.00729871
0.0004728488
-0.02931754
0.035084937
-0.017666683
0.008162336
0.020964667
0.01896934
-0.009994894
0.069644056
0.037213676
0.06384376
0.042337373
-0.0037055528
-0.05240501
-0.05827343
-0.004127776
-0.013391253
0.02198164
0.004217409
0.008843312
-0.005434868
-0.03551049
-0.006998367
0.011655963
-0.009814825
0.002226837
0.0046698023
-0.07682176
0.01062628
-0.034173973
-0.037898302
-0.020441454
-0.045792397
-0.0011178929
-0.020581072
0.012972902
-0.024428062
-0.032184884
0.012596474
-0.028684769
0.007684768
-0.033076458
-0.035976376
-0.0047209826
0.011250688
-0.0019949877
0.04047879
-0.0356713
0.03077837
0.014639916
-0.0032493712
-0.009712096
0.003178421
-0.03425582
0.06362764
-0.04844663
0.027831456
0.009436545
-0.03407539
0.059473492
0.03018035
-0.008984615
-0.005316699
0.06583586
-0.003024103
0.04368782
0.042311296
-0.032936286
-0.01168665
0.052389737
-0.03226995
-0.05840158
0.008865049
-0.0020790908
-0.0021582092
-0.02144205
-0.027980333
0.04968341
-0.05339388
-0.041624945
-0.040353887
-0.013517375
-0.014510398
-0.014359215
0.020602634
-0.021344312
-0.038647346
0.0044369777
0.0032688398
-0.02359606
-0.016813798
0.0115389535
0.0348464
0.04709671
0.005278509
-0.02711247
-0.0054123243
0.033393614
-0.019155523
0.026833309
0.01646485
0.020916687
0.0067272596
-0.0037150525
0.040685114
0.051073123
-0.00851108
-0.013095481
-0.022306748
0.0029257962
0.0027479788
-0.015303442
-0.005282082
-0.04221367
-0.01999337
0.015735086
-0.043345552
0.0290264
-0.027258735
0.02757184
0.019006716
-0.06214443
-0.0019840943
-0.04776848
0.019110795
0.0013928876
0.055679303
0.0012794118
0.061238494
-0.015499995
0.037997674
-0.0029636107
-0.026345773
-0.071663745
0.029459659
0.008071853
0.007260919
-0.015717244
0.039282914
-0.0002914818
0.00965538
0.036594454
-0.079917036
-0.0067571467
-0.046170656
-0.01902262
-0.0019002416
0.0071049277
0.0026819527
0.013788847
0.055878114
0.037194263
0.016348071
0.042469528
-0.06101247
-0.04083364
0.0015479714
-0.04734903
-0.0052655363
-0.018577535
0.03882338
-0.057123
0.029268302
0.025452733
0.035014283
-0.0034601828
0.023420095
0.008455947
0.031449277
0.015446271
-0.016513044
-0.022057803
-0.025157955
0.058787268
0.0045429943
0.029406589
-0.016929496
0.052818976
0.05925603
-0.0022879636
0.009492852
0.031437226
-0.020549921
-0.027422024
-0.031146169
0.001135886
-0.0069855587
0.0033848642
0.018866157
-0.021375148
0.08883127
0.04120252
0.023701737
0.018160664
0.022316758
-0.014422023
-0.021567978
-0.008475237
0.0061807144
-0.029850159
-0.017506009
-0.00913016
-0.033445783
-0.050459564
0.036977876
-0.03580663
0.02762277
0.0039183875
-0.026593981
-0.017188162
-0.018024286
-0.016607262
-0.0376996
-0.0395342
0.037997264
-0.010431127
-0.0048857164
-0.030132238
-0.08424249
-0.026321145
0.0069306116
-0.016520567
-0.015872587
-0.007599997
0.050960056
-0.018220501
0.019176468
-0.03943693
0.015243009
0.0039916243
0.008596739
0.062181234
-0.0033855748
0.02180519
0.0145793725
-0.037053876
-0.002334759
-0.013242845
-0.026547777
0.00723176
-0.016547497
-0.023374535
0.017266354
-0.036290463
0.013941225
-0.078709066
0.031780772
-0.009371731
-0.002766167
-0.022716545
-0.033224024
0.012375736
0.0032592088
-0.014134308
-0.01701619
0.012306477
0.01103394
-0.012572121
-0.020263394
0.007768569
0.026743624
0.0043510813
-0.0010550687
-0.037176225
0.00435468
0.018820416
-0.0038136349
0.0057134395
0.046911325
0.0013124628
-0.012140505
-0.015521055
0.019427389
-0.06853287
-0.0065840418
0.016647372
0.024519967
-0.042388987
-0.010053778
0.039180182
0.030122535
0.02002576
0.0010818867
-0.023536358
-0.023872515
0.041076813
0.040586777
-0.01770485
0.031079317
0.023853704
0.004497304
-0.03159378
0.006604931
0.011024957
-0.016750632
0.04628704
-0.013908914
0.0059114443
0.020139322
0.014275419
-0.0064990534
-0.050916232
-0.039016165
-0.04244
0.01555852
0.012086931
-0.0114501035
0.034901958
0.019222239
-0.010001324
0.0040161214
0.029164977
0.005244605
-0.019397214
-0.010862362
0.006562077
0.024229037
-0.03199077
-0.03228709
0.038641103
0.054801732
-0.010887995
-0.016730698
0.0050270204
-0.020461123
0.011398175
0.034622807
-0.032545574
-0.044659015
-0.013842859
0.016009567
-0.010066007
0.00017243814
0.010828892
-0.05561761
0.019956866
-0.04749539
-0.03497364
-0.053258486
-0.036269333
0.009739002
-0.064988606
-0.0480405
0.0024924993
-0.02888007
-0.0038529693
-0.006268237
-0.013841304
0.027248086
0.008413641
-0.0050872685
0.034843605
0.004769754
-0.037120115
0.014346933
-0.052191157
-0.023478266
-0.047325302
0.051109646
0.013464082
0.020302689
-0.04687454
0.04149542
0.034543462
0.008360364
-0.051488467
0.0066436743
-0.0095679015
-0.002372666
-0.0037594363
-0.0009910448
-0.018198872
-0.035932336
-0.016153095
-0.02371024
-0.054087017
0.049023442
-0.011368146
0.036762062
0.012941015
-0.00996915
0.005369811
-0.003198074
0.027747696
-0.0036313476
0.008731048
0.005896524
-0.0016592328
-0.028913315
-0.032133896
0.011733107
-0.04998777
0.001540304
-0.030344194
0.02836785
0.016491255
0.01692523
0.0088627245
0.013739296
-0.009376154
0.025447115
0.018019708
0.012186909
0.027935237
-0.009526649
0.031718154
-0.00024212335
0.04874096
0.036095764
-0.034153737
-0.00515337
-0.0025668885
-0.0321687
0.00013318428
0.035611365
0.010976602
0.016204434
-0.030397147
-0.00304637
-0.022598747
-0.027608171
0.028275786
0.050129328
-0.00987701
-0.0032149479
-0.004857902
-0.000902096
0.014862107
0.01628245
-0.027532594
-0.0030082674
0.03768256
-0.08231369
-0.032674454
-0.07027662
0.040994883
0.0029611913
-0.012224994
-0.050262652
-0.07110663
0.006816417
-0.03722996
0.03202938
-0.023483932
-0.03977938
-0.00865386
0.031605713
-0.0063001625
0.0055801924
0.0140470825
-0.012520707
0.021923967
-0.006280532
-0.04416332
0.015039408
0.011540716
-0.016190829
-0.029468989
-0.02485254
-0.01677271
0.0046148393
0.0017865609
-0.022498716
-0.015006203
-0.012740316
0.06460095
-0.008521447
-0.027860586
-0.011776877
-0.0029252735
-0.034540422
0.009446751
0.023027252
-0.028967278
-0.015385048
-0.03947394
0.06739786
-0.044737555
0.03282573
-0.062304698
0.0011011806
0.029380402
0.030668322
0.014649757
0.0022757829
0.003797178
-0.008544452
-0.04753025
-0.0025895888
-0.054293703
-0.05741439
0.023177126
-0.0104521625
-0.0035907803
0.047074225
0.016261784
-0.026275337
0.01650248
0.001375096
-0.028743539
0.017987264
0.033118237
0.016565336
-0.009801847
-0.026959375
0.055160612
0.014959577
-0.0098869745
0.018544346
0.010711033
-0.01770831
-0.0011696329
-0.010098776
-0.0059172963
0.029305253
-0.0067704446
0.023621624
0.027189652
0.0022404252
-0.017516881
-0.012179691
-0.03714387
0.007236654
-0.025571955
-0.05261569
0.0081618605
-0.04507003
-0.017472154
0.028623642
0.009983048
0.016734319
0.03636602
-0.030523324
-0.048777346
-0.0036078321
-0.028262783
0.058150876
-0.0041748392
0.034333214
0.03042864
0.039991837
0.018070804
-0.0011433947
-0.04576651
0.007857391
-0.039197046
-0.025072692
0.009291732
-0.006812522
-0.0069393255
-0.0013286804
-0.012063765
0.0047178785
0.001317835
0.011934503
-0.011644155
-0.025126992
0.047792044
0.012987993
-0.050893765
0.072215185
0.054993395
0.0042961617
0.027469147
-0.024431346
0.038944744
-0.0069428594
-0.023484627
0.05556886
-0.002409763
-0.009475241
0.03366916
-0.04935282
0.011660488
-0.0073150657
-0.022334114
-0.02738469
0.023083381
0.014325303
-0.04411176
-6.935687e-05
0.0092622
-0.032858457
0.043853134
-2.8214294e-05
-0.044227555
-0.049034365
0.039756898
0.00014766885
0.03319544
0.009933509
-0.05464447
0.0014270362
-0.03462959
-0.009262747
0.032155808
0.02880647
0.03367004
-0.030574664
0.041235443
0.021586662
-0.0003842275
0.02524325
-0.009678831
0.025565794
0.012467307
-0.01185517
-0.014499015
0.067468
0.03138539
-0.024345739
-0.047404323
0.004654423
-0.06261478
0.029950371
0.0638213
-0.004896982
0.034155425
-0.008809827
0.025550416
-0.065671414
0.0034330378
0.04779186
0.008405437
-0.005514491
-0.056219216
-0.008774241
