-0.010434518
-0.10565041
0.03722476
-0.22169463
-0.15766065
-0.051633365
-0.025086906
0.0721649
-0.06493768
0.087280676
-0.027742382
-0.009155459
0.026225662
0.10056368
0.09774283
-0.095192276
-0.030488346
-0.06688535
-0.0063528903
0.098063424
0.024812652
-0.01538439
0.20042026
0.13194722
0.025117023
0.18090612
0.023920188
0.18190816
0.057898756
0.25997403
-0.19337882
0.06979299
0.20761889
0.04185725
-0.15423766
-0.021879133
-0.04703215
0.078610316
0.09660102
0.051489092
-0.14164293
0.060469054
0.059529062
-0.06159718
0.0122602405
-0.06907244
-0.32622945
-0.023842564
-0.072144516
-0.08341882
0.098259516
0.12973881
0.26170143
0.24417968
0.0055514397
0.2855744
0.060450673
0.17742789
-0.23563418
0.16586794
-0.08214167
-0.28206104
-0.059944224
0.1528101
-0.0091107115
0.046220206
-0.15679997
0.067794584
-0.026332669
-0.21164224
-0.03454669
-0.11026706
0.0010674793
0.009375348
0.06407567
0.3385767
0.06466726
-0.31044564
0.01732216
0.21201389
-0.08375709
0.025476605
0.069465965
0.056712948
0.02842519
-0.070307024
0.24046315
0.027254935
-0.12317941
0.080050714
0.09036011
-0.020616943
-0.014899024
0.06622784
-0.1423414
-0.058962025
0.05669161
-0.049245976
0.04866674
0.06862693
-0.0020750219
0.1938969
0.18111481
0.0067000072
-0.04677317
-0.026438212
0.036961228
0.035901766
-0.15331998
0.002517875
0.035685312
-0.018224072
-0.09322191
-0.17384484
0.1669924
0.14617416
-0.056095526
0.027147532
0.092939496
-0.09440824
-0.034341592
-0.15852652
0.08424873
0.018888192
0.05766031
0.032385256
0.21111366
0.028400782
-0.12965715
-0.094269134
0.042215947
-0.15538283
0.060548093
-0.0008554457
0.014817782
-0.005980761
-0.09782824
0.100685656
-0.067945495
-0.13617072
-0.10709334
-0.04260003
0.21334915
-0.18447176
0.0523313
0.019167405
0.081433356
0.18939543
-0.21228711
-0.122000284
0.20833719
-0.14413664
-0.16833988
0.06087782
-0.12941208
0.11007235
-0.030011391
0.2634265
0.2474489
0.27390653
0.044215955
0.0049101263
-0.075797334
0.003203226
0.050949518
-0.14652476
-0.117668636
0.08466615
0.21805553
-0.02543867
0.19216806
0.03644842
0.26069042
-0.10483918
-0.047054894
0.04450301
0.1033358
0.11594838
0.18411669
-0.055136558
0.048283327
-0.26340958
-0.14315982
0.03916445
-0.18260804
0.00509085
-0.057797436
-0.041455533
0.08868719
0.14209075
-0.29198045
0.08862374
-0.14853582
0.057262246
0.054254424
0.045934886
-0.04004464
0.06255544
-0.025838993
0.009208055
0.16001867
-0.018724307
0.05069386
-0.041069433
0.32056078
0.018725114
-0.15442403
0.26727146
-0.12994593
-0.03407989
-0.09249353
0.2002484
-0.08302814
-0.12732905
0.07940109
-0.11396375
0.014457337
-0.1294326
0.055460792
0.06206539
-0.0030624643
0.014728982
-0.08273854
-0.05967345
0.014041661
-0.028098462
0.4267136
-0.0995396
0.07360291
0.041916944
-0.11836077
-0.116922945
0.128226
0.012286419
-0.06857125
0.16717982
0.019828454
0.047824904
0.22121735
0.057805497
0.072290234
0.08148417
-0.13843857
-0.031638414
0.113804854
-0.05384058
-0.165672
0.060200177
-0.014327533
0.07077659
0.104641646
0.044292573
0.059980445
-0.0512877
0.03295659
0.04029257
0.08489504
0.10556934
-0.15311612
-0.021664282
-0.048125092
0.05165998
0.24294165
0.039713085
0.063168585
-0.038654484
-0.0031874967
0.070257135
-0.09431864
0.1087578
0.035689667
0.13838623
-0.030689841
-0.12312234
0.08635136
0.114903376
-0.08463465
-0.02639733
0.08541609
-0.18118428
-0.08193043
0.11344882
0.043456137
0.21582085
0.025172194
-0.02887221
0.002212433
0.15611023
0.057422087
0.24517061
-0.04109012
0.14779846
-0.058194872
-0.028048491
0.07834113
-0.07517965
-0.0729858
0.10621789
-0.104916364
0.004932824
-0.07433146
-0.032378778
0.058171988
-0.032167863
0.038636755
0.19750708
0.11077498
-0.043897968
0.07739828
0.13694866
0.14277293
-0.031779066
0.09993501
0.011576096
-0.19269313
-0.056661703
-0.109592944
-0.0177726
0.09903677
0.09414023
-0.08085811
-0.18542014
-0.18293466
0.08860878
0.11732983
-0.12848064
-0.15752164
0.001984484
-0.016610347
0.029108234
0.06950638
-0.04821336
-0.025732024
0.15777992
0.034103923
-0.12538157
-0.18445848
-0.04762203
0.023696434
0.0996699
0.045131914
-0.04839849
0.09544618
0.17770101
0.05824776
0.07507398
0.0064529683
0.07504265
-0.06695234
-0.09442588
-0.066831276
0.028442498
-0.09489455
-0.21143156
0.12855309
0.044384968
-0.037117545
-0.053556204
0.039181612
0.10886846
0.10093252
0.03752124
0.03499368
0.08519346
0.045183424
0.1604126
-0.03469895
-0.20991741
-0.031335797
0.018337846
0.06285135
0.14849554
0.059901867
0.06060846
0.05199556
0.044055145
0.06711425
-0.01248005
0.02674513
0.21716757
-0.105914734
0.16445552
-0.0031515146
0.115175836
-0.021134468
-0.0060582147
-0.044219196
-0.05658704
-0.09997339
-0.0041685496
-0.040192764
-0.05546387
-0.013607369
-0.006546302
0.028884284
-0.23514958
-0.04096053
0.17650236
-0.15753736
-0.019669458
0.1506436
-0.15477453
-0.05585614
0.21183674
-0.15813144
0.050571404
-0.022929015
0.12655911
0.007429602
-0.057980187
-0.06433275
0.03339646
0.2677549
0.047780704
-0.125529
0.12888058
-0.12579596
-0.16681175
-0.09461517
0.06973141
0.029953131
-0.123715535
0.095313996
-0.010850244
-0.05662107
-0.34307346
-0.09544512
-0.06593591
-0.019811615
0.4579367
0.022359101
-0.047470808
0.017847454
-0.04312205
-0.06781531
0.32248378
-0.0045031654
-0.07373118
0.08079331
-0.037539747
-0.055447686
-0.042716943
-0.22842793
0.121000834
-0.03500597
-0.21915655
-0.15218583
0.053853363
-0.17417523
0.09382861
0.06758004
-0.09843508
0.09132314
-0.034194358
-0.088910565
-0.016550358
0.0949058
-0.06698222
-0.061528295
-0.038043674
0.0839709
-0.01615796
-0.19109146
0.1670075
0.1838559
-0.07049499
0.122956954
0.029378794
-0.28118163
0.2395605
-0.02797502
-0.10479491
-0.24318612
0.1620343
0.06133199
-0.07577862
-0.18407924
-0.045521855
0.1505414
-0.0908194
-0.019865137
-0.005881615
-0.12301581
0.115185805
-0.0952241
-0.17128211
0.108621195
0.07261864
-0.04486708
-0.021492187
-0.0008327397
-0.20068856
-0.0022407502
0.016753044
0.1240938
0.010785078
-0.15065803
-0.005903436
0.080098286
-0.09155174
-0.0219546
0.27227515
-0.23250093
-0.12685023
-0.01977331
-0.0070392997
0.053942002
0.07381548
-0.12978917
0.034982312
0.14771296
0.06001382
-0.1415794
-0.16979866
0.09794289
-0.068026274
0.013433251
-0.17532238
-0.026087224
0.03415925
-0.11786384
0.27530345
0.05282643
-0.2297198
-0.1303861
0.08883913
-0.027337762
0.09603151
0.01223957
-0.029245304
-0.23449384
-0.10909685
-0.09075741
-0.1068364
-0.34721455
0.14232412
-0.09386215
0.043485403
0.04804195
-0.20202145
0.2866623
0.07003023
-0.1596701
0.2624526
0.07635906
-0.19708867
-0.09067531
0.034256063
0.3847956
-0.045535326
-0.15710665
-0.07968595
-0.07743242
0.29596037
0.0350483
0.095852345
-0.004187956
-0.0062988475
0.09363176
0.044043362
0.1135312
-0.05290946
-0.030069118
-0.12229583
-0.17771372
0.09243838
0.001529224
0.040615436
-0.07058504
-0.22958492
-0.12193786
0.097740255
-0.07916881
0.24731033
0.11652662
-0.09115789
-0.009662281
-0.03370627
-0.100273274
-0.01777339
-0.0324015
-0.13484345
0.009375293
-0.13331789
-0.1623216
0.0022631846
-0.07049157
-0.028492432
-0.021110453
0.013522046
-0.1226807
-0.029904714
0.121609636
0.2248532
0.24508165
0.16947927
-0.15260877
-0.13018453
0.05412307
-0.124067925
-0.20659213
0.20846212
0.24618815
-0.07249884
0.047795396
-0.16991478
-0.14301485
0.1819494
-0.043877568
0.03931601
0.1285637
0.09940271
0.08333026
-0.1474452
0.10850856
0.13509743
0.07175356
0.08843424
-0.07266911
0.10582898
-0.06104479
-0.03146533
0.06618395
-0.033719067
0.14704947
0.1665218
-0.13809824
-0.02114056
0.09643045
0.011397579
0.0199371
-0.04140687
-0.123761505
0.08852629
0.024350293
-0.0054183244
-0.022677744
-0.028991602
0.007837915
-0.018111926
0.016144352
0.23409328
0.03709631
0.09925454
0.13153651
0.061932366
-0.18114956
0.17912173
0.2124194
-0.030689182
-0.09116333
0.18762779
0.10590057
0.23786515
0.097335555
0.36501244
-0.1515887
0.21567318
-0.101308115
0.17230384
0.094236866
0.14504144
0.007798427
-0.31512764
-0.09054846
-0.0155404415
0.037320685
-0.119241625
0.06714989
-0.033104748
-0.115588285
-0.00200789
0.016744593
-0.06472487
0.10777331
-0.25316352
-0.01685852
-0.021862933
0.05720921
0.1566347
0.008538763
-0.112928174
-0.18079984
0.13038956
-0.08394319
0.09471672
0.042261135
-0.17515379
-0.07186765
-0.012752991
0.28268602
0.06382447
0.067772254
-0.10153702
0.09017283
0.18100166
0.3711002
0.22853796
0.25409418
0.12709266
0.070457116
-0.08183598
0.10480951
0.1204613
-0.14873862
-0.07021296
-0.049190152
0.09210145
-0.05451341
0.09698879
0.08975023
-0.2017816
-0.14546952
-0.042836454
-0.04039618
-0.043420088
-0.14669968
-0.10119988
0.12927543
-0.020597272
0.030614335
0.065389074
-0.16583058
0.086119525
-0.07128956
0.008735509
-0.11626176
0.044968545
-0.023179904
-0.040229123
0.19309826
0.24841931
-0.033902407
-0.038110454
0.055186037
-0.08957976
-0.12937872
0.20557466
-0.04944892
0.01003567
-0.17876515
-0.07533542
0.28435344
0.056799404
-0.14206177
-0.21518806
-0.17607857
-0.08845819
0.041836742
0.020888884
-0.042019326
0.06470054
-0.13621348
-0.18356495
0.1270514
0.18116471
-0.084179245
-0.19837353
0.16503873
-0.026797796
-0.058578867
0.10001867
-0.085228994
-0.1942683
-0.0232801
-0.12807028
0.010403081
-0.2091042
0.06466601
0.09896439
0.0850075
0.00935626
-0.15307412
-0.045984156
0.02652596
0.13361223
-0.105390206
-0.043187007
0.07779508
-0.081365496
-0.11717083
0.1248122
0.06248406
0.040738944
0.039091244
0.0103810625
-0.06165012
0.13537583
0.2969852
0.11799153
0.09185986
-0.16886258
-0.042479403
-0.095014766
-0.0021809717
-0.0278474
-0.0402491
0.11124607
0.04026865
0.0072587356
-0.13979581
-0.03267979
-0.09025459
0.12890029
-0.037095882
-0.030847998
-0.085000925
-0.06466533
-0.3062565
-0.13673446
-0.014053059
-0.23006809
0.1410366
0.23729716
0.07315741
0.06308701
-0.34160274
-0.091371715
0.010097592
0.1704579
0.08852046
-0.06474344
-0.19154651
-0.021115413
-0.0022140464
0.1672337
0.1810892
-0.2764564
0.006069786
0.15636492
0.046893977
-0.014149248
0.075413175
-0.1483782
-0.025580375
0.037208032
-0.25540188
-0.039734755
-0.060286418
-0.24929418
-0.41585523
0.116202936
-0.03437241
0.17884378
-0.07975609
0.024739131
-0.008712954
-0.06701673
0.032159045
-0.014648969
0.27920294
0.055088583
-0.035174243
-0.084600545
-0.06445698
-0.010342502
0.12415472
0.06557915
-0.018542
-0.15052025
-0.042713415
0.06928933
-0.058653455
0.07130929
-0.08935538
0.08470964
-0.24484374
-0.3549026
-0.058798485
0.008939062
0.04052131
-0.035819497
0.12636594
-0.046236165
0.079951726
-0.107247084
-0.09676826
0.032857995
0.27968386
0.117281586
-0.11421622
0.0304008
0.05857844
-0.043822978
-0.28010008
0.08245028
-0.23241703
-0.04051204
-0.030860169
-0.11449931
-0.11973277
0.053046517
0.13176262
-0.18505692
0.13799796
-0.123969555
0.22615418
-0.08938514
0.018097846
-0.030096458
-0.016841821
0.19920515
0.3076858
0.045979615
-0.0762723
0.08400623
0.09578671
0.13622253
-0.026309026
0.056086946
-0.07639229
0.08515188
0.016461136
0.061253063
-0.13045545
0.07530792
-0.030017713
0.08436435
-0.02392858
-0.10502961
-0.31077853
0.19940905
0.04606165
0.3320719
-0.15397741
-0.04631481
0.307892
-0.075110786
0.061864417
0.09615912
-0.023368282
0.036719292
-0.107620336
-0.082965836
-0.057372063
0.08622937
0.049978748
-0.013457381
-0.11811711
0.1633299
0.02605418
-0.21918546
0.10922109
-0.0082176095
0.099495985
-0.018327927
-0.3037726
0.14371267
0.06783695
0.0117335655
0.07227947
-0.15232639
0.001423019
0.12869692
-0.009806883
0.016400762
-0.0055310777
-0.02336403
0.08012561
-0.012343111
0.0787587
-0.17759143
-0.085614905
-0.14620982
0.005195119
-0.02006355
0.043258876
-0.098289475
-0.043542176
0.032811467
-0.13274786
0.20985816
-0.0056514503
0.036281362
-0.068934985
0.31912857
-0.13541995
-0.0050562066
0.088395655
0.027132891
0.08382995
-0.21658623
0.10799492
0.14599228
-0.00071064715
-0.12546648
-0.04382317
0.054521855
0.033040296
-0.056917675
-0.20849039
0.16682303
0.010979489
0.104614526
0.13291755
-0.11719949
0.1890241
0.030746168
0.095700994
0.16579698
-0.116000846
0.032853846
-0.002856701
0.17668208
-0.020170964
-0.10475547
-0.048843805
-0.07793337
0.10318313
-0.07464026
-0.13333069
0.19335212
0.12416811
0.083449714
-0.098118186
-0.28629163
0.027444137
-0.10431427
-0.040698756
-0.118245386
0.07435114
0.08363155
0.0075936285
-0.12974961
-0.06538361
0.005210231
-0.1280893
-0.007902265
0.0026438185
0.015512882
-0.08152274
0.13817774
0.051523585
0.014926311
0.07660086
-0.034252144
0.15929875
-0.12115293
-0.2502857
0.29520229
-0.02062556
-0.29056895
-0.0007931975
0.035641488
0.007253544
0.11466814
0.13080615
0.04866261
-0.28979543
0.036013335
-0.117275335
-0.012347843
0.11488902
0.053325754
0.0082468325
-0.041250214
-0.12146137
0.06335968
0.17192201
0.052470896
0.026222797
-0.083015054
0.25978416
0.12716469
0.07619697
-0.02877328
0.104558475
-0.0034150619
-0.03177467
-0.28828844
0.13577555
0.16329437
-0.07903311
-0.051603664
-0.065110035
0.04873551
0.049868092
-0.02841525
0.06657264
-0.07874953
-0.07324044
0.020585658
-0.04312083
-0.079581715
0.1134804
-0.012469615
-0.101881
-0.29100853
-0.065093786
0.013306817
0.027735652
0.03892371
0.12667252
0.26401958
0.108872175
0.03432826
-0.018837295
0.032688346
-0.0010613212
-0.037179273
-0.029403303
-0.16703497
-0.038479976
0.06270437
-0.14721312
-0.072496265
-0.13299863
-0.10514655
0.13408217
-0.04321245
-0.03662875
0.05294755
-0.24133869
0.19011582
-0.045043137
0.03173165
-0.01442174
0.005873783
0.15765707
0.25220066
0.11730893
0.23848812
0.21271975
-0.027395364
-0.12224094
-0.14020368
-0.21820563
0.06537226
0.045994498
-0.12974757
-0.21597771
-0.092449166
-0.14071262
0.18530066
-0.10605926
-0.04564463
-0.09189433
-0.15610532
0.20924829
-0.03576951
0.036850076
-0.19162549
0.11242006
0.04933019
0.1144599
0.062182903
0.08013261
-0.21694541
-0.08827403
0.101885796
-0.02841575
-0.029230498
-0.07891965
0.020823075
-0.04616911
0.100318804
0.076655656
-0.23463765
-0.1688006
0.22172481
0.008845977
0.12158253
-0.084074005
0.08450457
0.026686538
0.074748844
-0.14344114
-0.064779446
-0.021287616
-0.046086073
-0.16292101
-0.13978074
-0.0040622144
0.06633089
0.22624356
-0.15943298
0.19178511
0.057267983
0.032453887
0.064748034
-0.11279726
0.26046172
0.013570467
0.036236398
0.057681315
0.00938225
0.088926055
0.031979967
0.23968124
0.22710203
0.22748362
-0.043515027
0.07510713
0.036789462
0.07363793
0.02361818
-0.016353494
-0.020830074
0.1728096
-0.020197181
0.30739725
0.035015825
-0.031199913
-0.2523329
-0.09321996
-0.06918344
0.041232035
0.09304839
0.12304687
-0.06263286
-0.09358722
0.10069061
0.0072954623
-0.06387594
-0.0970448
0.062811285
0.11338338
0.041507427
-0.07200515
-0.003239788
-0.16753943
-0.15494281
-0.022841435
-0.06931292
-0.008195277
0.016632851
0.12632462
0.16211744
0.00998072
0.1722663
0.054927353
0.0692184
0.09484644
-0.0020498454
-0.03208699
-0.055872966
-0.12756926
0.043976415
-0.097985335
-0.17099321
-0.078913175
0.0360252
-0.008536824
0.21751802
-0.09699301
-0.006356311
-0.036559183
0.024738444
-0.057246447
0.12762733
-0.03565411
0.19657373
0.22879505
-0.17839122
-0.24298184
0.13839851
0.13276578
0.118633665
0.121938534
-0.010993711
0.047037914
-0.0905674
-0.16716537
-0.05758936
-0.02088838
-0.0795909
-0.06685794
0.23963973
-0.074777916
-0.04097692
0.0992121
0.03206754
0.15449803
0.03870568
-0.12688808
0.016859831
0.03411195
-0.08455595
-0.1942921
-0.12792051
-0.14057884
0.14289469
-0.18753468
0.07929995
0.00090127613
-0.15297735
-0.058198065
0.20684287
-0.103409715
0.19485217
-0.14113063
-0.04418556
-0.009447892
0.22757317
-0.40179282
-0.010995655
-0.10203331
-0.09203469
-0.038430024
0.25040928
0.053661983
-0.3081608
-0.14916226
-0.09169487
-0.14950597
-0.07172962
0.027801096
-0.13096018
0.118891835
-0.16312817
0.0051295604
0.1907954
0.034022707
-0.0052787396
-0.15751366
0.051596683
0.05139516
0.030850064
-0.0741371
-0.15658996
-0.084914275
0.06203801
0.06787701
0.02055029
0.12092824
0.07219962
0.12252101
0.058279723
0.11532886
-0.029915689
-0.3309309
0.35302782
-0.07129719
-0.2829255
0.08982658
0.110942274
-0.12176129
0.113453366
-0.09361797
0.0415178
0.0068110037
0.14785111
-0.12808149
-0.10648276
-0.07822546
0.12587145
-0.09173265
0.17722769
0.05157782
0.034204908
-0.09008053
-0.10399232
0.0124951145
0.09371292
-0.03883432
0.07545559
-0.008193348
0.28038535
-0.16059135
-0.13066566
-0.022520773
-0.15912971
0.037846945
-0.036290206
0.15495197
-0.09837717
-0.05326347
-0.0039366838
-0.09260713
-0.018688051
-0.047679637
0.13671337
0.22989988
0.19455676
-0.06997153
0.004491329
-0.05240257
0.075225644
-0.2067567
0.1097787
0.07839089
0.033986274
0.058677122
0.02828203
0.08026328
0.084219396
0.13978958
-0.023133311
0.06707248
-0.089127496
-0.090911575
0.18744117
-0.18485987
-0.070081495
0.13519374
0.24646434
-0.05545707
-0.05185127
0.07405435
-0.039848298
0.07259913
-0.06619356
0.06359001
-0.12450953
-0.11120822
-0.026638782
-0.116171345
0.08808377
0.02249071
0.31885573
0.13978982
-0.19928007
0.101131104
-0.028242366
0.15062018
0.07913378
-0.1944388
-0.12735201
-0.054643698
0.06499532
0.09237906
0.03139825
0.20758781
-0.1316658
-0.100916274
-0.023562185
0.015281052
-0.26112506
-0.029524734
-0.18618956
-0.033125017
-0.04600896
-0.13630325
0.12947258
-0.11120819
-0.06065129
0.2289758
-0.035730924
-0.18773782
0.026260128
-0.119315006
0.016093485
-0.26953316
0.2252561
-0.040473443
-0.23436645
0.23933646
-0.036817398
-0.030748768
-0.1408258
-0.10267077
0.050602622
-0.16039078
-0.022445288
0.01774996
-0.04391843
0.04018498
0.09751161
-0.064847805
-0.15390381
-0.013122666
-0.13437471
-0.17225145
-0.11806057
0.15985735
0.082771406
-0.09396594
0.060435936
-0.05558895
0.16091701
-0.07695704
0.2051701
0.04440209
0.038738884
-0.020172905
-0.058515895
0.28363875
0.24629518
-0.13356224
-0.15271498
0.0056598377
-0.01079949
-0.093270205
0.075393066
0.16674691
0.03514557
0.101855546
-0.08047177
0.035618313
0.10172392
-0.019052545
-0.057207607
0.16516335
0.08528558
0.2396172
-0.06134314
0.10551624
0.1351205
0.061792865
-0.053783245
-0.014154562
0.05815154
-0.26694387
-0.10463812
0.08720216
0.04703633
-0.20059593
-0.04150498
-0.05639179
-0.060983635
0.10316102
0.1277685
-0.20307513
0.26139197
0.029039282
-0.13448444
-0.20738567
-0.23202412
0.11448481
-0.09109339
0.14114332
0.07383739
0.026138844
0.20840034
-0.08142465
-0.023599908
-0.17683055
0.03880238
0.0117147975
-0.025097491
-0.095211335
-0.057780128
-0.18029909
0.031407602
-0.086319596
0.05747386
-0.07783984
-0.12223154
-0.14662682
0.08710453
0.10473779
0.15856016
-0.15037036
-0.01995349
0.010835159
-0.19553077
-0.20004156
-0.10782014
-0.0018641964
0.008017261
-0.31484926
0.03815774
-0.35408586
0.26652208
0.16869992
-0.06692765
0.025326304
0.028485669
-0.008010189
-0.15377001
-0.1253525
-0.223698
0.15694213
-0.050984465
-0.15809715
-0.19046645
0.0029182269
-0.05777377
-0.033327162
-0.061960347
0.09723013
0.07934802
0.032493778
-0.07913939
0.14188719
0.072874315
0.16325074
0.007403406
0.20180194
0.028423091
0.06050297
-0.013353541
0.16564459
0.29470724
-0.19508617
0.072983734
-0.26114035
0.093728215
0.01802001
0.07138206
0.26195848
0.06756259
-0.036785044
0.0552397
0.11005085
0.15733263
0.04747761
-0.014247286
-0.18468381
-0.116223775
-0.22831975
-0.09600243
-0.2161275
-0.04590404
0.053794444
0.12118101
0.0374623
0.14894083
0.07899869
-0.044492684
0.06833975
0.09902371
0.07570338
-0.06270934
-0.03714608
0.063768566
0.10056933
0.08850276
0.19036531
-0.30187503
0.1258929
0.13295613
-0.07482184
-0.03120215
-0.057463758
-0.082631424
0.100515544
0.27251512
-0.04682664
-0.14864203
0.03973139
0.07690059
0.1944422
-0.06588058
0.007390394
-0.013339927
-0.021608079
-0.038381644
0.027370974
0.13694108
-0.09270688
-0.056666005
-0.1628583
-0.30177847
-0.042578682
0.10205159
0.33862427
-0.019065056
-0.07609443
-0.05436616
-0.15738052
-0.0006440077
-0.13003144
0.20156534
-0.15667477
0.13779409
0.15713462
0.05936664
0.23921381
0.039329812
-0.36641768
-0.08930213
-0.117314816
-0.057117295
0.14912161
0.07151353
-0.12451828
0.318249
-0.041511588
0.089281626
-0.08343847
-0.0055174273
-0.13344446
-0.15748976
-0.13892323
-0.100352705
0.020345796
-0.19463791
0.0015666534
0.18628916
-0.13112308
-0.016115844
-0.049646996
0.08193498
0.11740429
-0.032826528
0.008414326
-0.14232786
0.05803792
0.05075097
0.07067567
-0.07186801
0.011163311
-0.12653194
-0.023736037
0.08524182
0.11980329
-0.023514723
-0.10278422
0.054390997
0.19596109
0.037115473
0.15306938
0.17342341
0.039704796
-0.01206439
0.024934575
-0.014753204
0.13323268
0.07300321
-0.038308226
0.15886639
0.014469244
-0.28472364
0.11446439
0.04326287
-0.0035782626
0.2626522
-0.00984743
0.11093257
-0.04320039
-0.11939796
-0.105996825
-0.073026896
-0.06928209
0.0011739952
0.083869606
-0.0027309048
-0.012582568
-0.07587302
-0.044929028
-0.03172726
0.05346028
-0.22423008
-0.27284485
-0.0759568
-0.016663907
-0.09006606
-0.09365221
-0.16031574
0.22556463
-0.13823098
0.05060415
-0.20514452
-0.1745034
-0.1528962
0.06392542
-0.034081247
0.0061561316
0.050485436
0.14050458
-0.0103460355
-0.08653344
-0.06458319
-0.07081905
0.09561336
0.20759974
0.049619175
-0.08066144
0.052923262
0.11936584
0.16896038
-0.010603209
-0.1309001
-0.20364885
0.050702035
0.01754209
0.05632473
0.20147558
-0.1276843
-0.15580352
0.044500522
0.00086103805
-0.16265932
-0.2183443
0.120429024
-0.3031456
0.019429777
0.15140283
-0.1448169
-0.00028016296
0.1983732
0.06186865
0.09847901
0.0139900055
-0.22622252
-0.022629952
-0.099040516
0.14682747
-0.13270354
0.08283232
0.06294971
-0.0637078
-0.13563667
0.056735724
-0.0026159775
0.30459902
0.025045518
0.071863405
-0.08645577
0.02472688
0.06385139
-0.0842388
-0.20602445
-0.011308035
-0.049680088
0.10432458
-0.051441148
0.015010255
-0.081330135
0.1307442
0.050844867
0.03590053
-0.0528554
0.16520219
-0.015461461
0.36145362
0.07482787
0.14379394
-0.043987274
-0.007892674
-0.008357557
-0.064696275
0.074577644
0.077376544
-0.22996594
0.101041086
-0.029306235
0.05057279
0.13030387
0.10925388
0.15815687
0.07842903
-0.13917579
-0.040564444
0.0926311
0.11285514
0.065013096
0.12447815
0.08856636
-0.024023088
0.23989697
0.086373575
-0.08785449
0.03606433
0.041223794
0.094916634
0.05299914
0.072979786
0.22291599
-0.044500034
0.0041275932
0.0038443217
-0.01870783
0.112055205
-0.20897755
0.10185329
0.012126648
0.11316758
-0.12239308
-0.009722225
-0.05884545
-0.10338245
0.102757275
0.11360801
0.030999633
-0.35884693
0.035179228
-0.17927176
-0.14132512
-0.074845836
-0.062115133
0.038654167
-0.008492961
-0.059766952
-0.028908763
0.332942
-0.0019309501
0.20128807
-0.13168226
-0.019052885
-0.06989205
-0.06230886
-0.29056016
0.016218282
-0.06737434
0.08698943
-0.23291631
-0.05302995
-0.11904907
0.109384924
-0.029952025
-0.00076297845
0.052508194
-0.04434194
0.025275907
0.047141016
0.065394364
-0.0983532
-0.20563722
0.10100797
0.019157406
0.14948714
0.04500886
0.076645106
0.06336512
0.10075681
0.13515647
-0.057434138
-0.10440813
-0.28473082
0.09131919
-0.16202796
-0.06779868
0.03778354
-0.04765478
0.07261056
-0.0644505
0.21508762
-0.1172947
-0.13306329
-0.16971467
-0.027864043
0.07822365
0.017017514
-0.011118501
-0.0357305
0.065429784
0.21774834
-0.014129353
0.09732903
0.078889556
-0.15755683
0.078256756
-0.28871757
-0.012778442
-0.15876855
-0.10688613
-0.19793661
-0.30968383
-0.025835365
-0.004692005
-0.19594058
-0.115573294
0.049706783
0.04262669
0.1018029
0.19998707
-0.074437134
0.08083219
0.029102396
-0.10180123
-0.26486433
-0.12671621
-0.11631159
0.08703077
0.03269532
0.17289075
-0.051755242
0.22935183
0.061819065
-0.19080023
-0.043071553
0.17396304
0.16375118
0.027088229
-0.28034374
-0.29767525
0.23658754
0.016298013
0.116347
0.10365885
0.21101598
-0.1829018
0.3716114
-0.20089196
-0.1217683
0.039098576
0.13322565
-0.1499208
-0.15477231
-0.09435566
-0.2167121
-0.13047034
-0.16387281
-0.01908224
-0.30048054
-0.0011207927
0.11376395
0.18158002
-0.052776005
0.119651034
0.083726756
0.22134136
0.05200016
0.06304026
0.14248891
-0.084423564
-0.02043159
-0.11651272
0.15119529
-0.23708014
-0.23785582
0.055475462
-0.20833561
0.028153498
0.15832189
-0.21230656
-0.090864986
-0.0024929477
0.044983696
0.04946528
-0.11721769
0.066608176
0.05428985
0.21528947
0.105917655
-0.1631616
-0.08936662
0.21162862
-0.051836822
0.10891764
0.13823189
0.081099495
0.11423303
-0.020433158
-0.023862384
-0.09278382
0.19770078
-0.2518126
-0.026677413
-0.09867812
-0.010910568
0.12441533
-0.12456106
0.25492206
-0.03182902
-0.03622105
0.09732507
-0.120331965
-0.091234215
0.13810638
0.021825446
-0.085109346
0.0020602893
-0.15042554
0.06262784
-0.21993032
-0.08414089
-0.07185885
-0.1676147
-0.08639923
0.046935223
0.034522552
-0.03471515
-0.07753902
-0.026545601
0.04646905
0.2267136
0.013935516
-0.066748604
-0.070070826
-0.033902645
-0.043425903
0.07348821
0.12342914
0.035934027
0.033759538
0.012890284
-0.07536483
-0.02882704
-0.18245785
-0.011905202
0.09967383
-0.19101538
-0.15626702
-0.073787116
-0.12989514
-0.068298444
-0.26445732
0.098874696
0.09190127
0.27912578
0.28976813
-0.020161958
-0.0921001
-0.11323512
0.11832009
0.1976243
0.007970272
0.16664422
0.07510611
-0.04154012
-0.09667667
0.22339371
0.1597195
-0.04585289
0.2718009
-0.03509671
0.093254104
-0.24870655
0.31043252
0.004880936
0.046342373
0.05106218
-0.14622036
0.00962657
0.028457249
0.17445676
-0.0738782
-0.09930994
0.25088707
-0.040594347
-0.03196499
-0.18125246
-0.03526267
-0.110504344
0.027740613
-0.11894498
0.11750424
0.21797644
-0.061713345
-0.02897442
-0.05671298
-0.07325364
0.049665403
0.2703733
-0.13016573
0.053385776
0.08012653
0.286044
0.0130353905
0.005474913
0.035195608
0.15850234
-0.23929805
0.13780919
-0.18026523
0.056723088
0.13070446
-0.004472656
0.1169947
-0.106557526
0.19168063
0.07289802
0.11404342
-0.015602889
-0.032729544
-0.09169002
0.006040024
0.010638498
0.06622322
0.08013873
0.16173808
-0.120816775
-0.126195
0.011863242
0.036069624
-0.16366482
-0.017137932
-0.12853768
0.25946847
0.1271111
-0.13715252
-0.22851923
0.09708968
0.04402122
-0.12623215
-0.018406432
0.10436628
0.12115905
-0.04039386
0.031525023
0.07898133
0.13266173
0.03542395
-0.0557476
0.079227135
-0.04124811
-0.18170705
-0.030264363
-0.025874723
-0.07811626
0.043267183
-0.10662764
-0.1292992
-0.21353486
-0.1610972
-0.045548473
-0.05320281
0.030081855
-0.022697529
0.12686978
-0.17619607
-0.019382413
-0.04009412
0.28095734
0.24518858
0.4349345
-0.05617965
-0.064969264
0.030423328
-0.22028624
0.054944523
0.14446658
-0.018988186
0.041600868
-0.0034268168
-0.04220503
-0.025283674
-0.017529143
0.036524232
-0.009079744
-0.37179542
0.17733115
-0.015692417
-0.10038267
0.009796663
-0.023301112
-0.10258996
0.20641916
-0.067195415
-0.058766883
-0.123700656
-0.03300871
-0.0683973
0.07108396
0.112853535
0.046535574
-0.08648704
0.10432936
-0.064058065
-0.11895227
0.022131253
-0.15227456
-0.07099137
-0.014109685
-0.15485202
-0.04284232
0.07996586
0.01887375
0.07600334
-0.0779304
-0.002246851
0.12754427
0.024724763
-0.035254925
-9.697088e-05
0.02228631
0.06375798
-0.1437713
-0.06385724
0.05055671
0.021634558
-0.25588542
-0.061662838
0.090092
-0.04499301
-0.27155066
-0.06553591
0.11158339
-0.04959387
0.027917515
-0.08323711
0.03729425
0.02596187
-0.05107834
-0.1354981
-0.020935038
0.028513156
0.11535695
-0.09423306
0.074448615
0.02876936
0.03840863
-0.287497
-0.050381146
-0.12616156
-0.017302249
-0.08048147
-0.07440072
0.10268932
-0.12731998
-0.06152204
0.08809776
-0.108771525
0.07370611
0.1852959
-0.060282364
0.26864907
-0.07512987
-0.032655958
0.08778696
-0.07142767
-0.021522105
0.02922059
0.04230513
0.1822526
0.2489626
-0.12567304
-0.038474053
0.07879317
0.07729891
0.14139624
0.118632875
-0.08949191
-0.12436799
0.17147224
-0.2470075
0.03092485
-0.10099279
-0.19025762
0.21217553
0.03517354
-0.1460811
-0.013094548
-0.012839774
0.11960783
-0.07819122
-0.03150593
-0.077388406
-0.15128352
0.2809538
0.024272772
0.03609798
-0.08343078
-0.38640627
0.09395223
0.03269811
-0.085430376
0.14298269
0.03993217
0.1563567
-0.06582652
-0.05782075
-0.033867348
-0.039317217
0.072018445
-0.036845744
0.039071817
-0.10348657
0.14681013
-0.11925971
0.21740277
-0.2902835
-0.0053308406
-0.14970404
0.054936096
0.04870279
-0.002319207
0.1187781
-0.047848254
0.04941235
0.07807365
-0.01950311
-0.033513762
-0.2227455
-0.0016062552
0.003722174
0.041907504
-0.07519814
-0.21512975
0.1739144
-0.28134587
-0.091426924
-0.07489375
-0.04613983
-0.07692865
-0.14923443
0.043892164
0.20204131
0.2256283
0.03753958
0.008923236
0.17117295
-0.04672873
0.04616017
-0.11059581
0.014579868
0.13443436
0.21580909
0.22515285
-0.048309587
0.065428965
-0.045571588
0.28483284
0.05706632
0.06459583
-0.14235236
0.046511855
0.044530444
0.13861908
0.10043922
-0.2686884
-0.010123721
0.039250046
0.0577067
0.044099357
0.12322016
0.12541139
-0.10041045
-0.039205454
0.048407424
0.10889489
0.022894662
-0.09691719
-0.090529665
0.023087721
-0.21061754
-0.12220203
-0.12694195
-0.024705496
-0.08267568
0.025570793
-0.15716526
-0.11890506
-0.12139038
0.047145825
0.17250971
-0.018026907
0.16722497
0.01383044
0.04568807
-0.19313109
0.033323716
0.05272589
0.082942754
0.11425921
0.22737919
-0.18156552
0.15636495
0.35673028
0.06598723
-0.043534547
0.1904737
0.087171756
-0.006171823
-0.063422576
-0.10482146
-0.15506881
0.004567604
0.06949992
0.16551384
0.20780422
-0.1225546
0.1901589
-0.11526207
0.0006309049
-0.1213709
0.040157806
0.223481
0.2008026
0.045296695
0.16519924
-0.07386518
0.05550285
0.060382657
-0.17992641
-0.104069196
-0.14837833
-0.07182994
0.1820406
-0.030314608
0.0024785302
0.021490574
0.027914753
0.038571782
0.100685805
-0.04454211
-0.24380426
0.014138465
0.12477195
-0.06292758
0.05089843
-0.23230074
0.17773907
0.2242601
-0.004512972
0.18866162
-0.09424591
0.21446584
-0.07081355
-0.022886695
-0.048812523
-0.12883289
-0.10421092
-0.054657362
-0.07608509
0.030465707
-0.010381894
0.030151337
-0.17359686
-0.04812219
-0.008602758
0.22522649
-0.01211723
0.019179104
0.18952735
-0.22929615
0.16307884
-0.16429546
0.14782524
-0.018921074
0.007647405
-0.03535104
0.1388958
0.19917525
0.014221957
-0.179535
0.064672634
-0.06252188
-0.05508417
0.018685015
0.022327302
0.35907152
-0.19194056
0.057724196
0.014720383
0.043596756
0.114644684
-0.08153276
-0.050709095
-0.02524772
0.09907424
-0.39720345
-0.05013295
-0.10817499
0.015350809
-0.059726745
-0.006621514
0.059124585
0.044706304
0.19699697
-0.012777919
-0.086650245
-0.0735178
0.07036745
0.11544276
0.33162
-0.08694317
-0.24595958
0.050900433
0.10881752
0.13769059
-0.041475978
0.14933121
0.11991333
0.20618495
0.02447386
-0.02218037
0.14408271
-0.14170828
0.009576956
-0.1121948
-0.12550339
0.0866629
0.10162664
-0.016649567
0.23850459
-0.23476154
0.046078477
0.070275694
-0.0814404
0.028330132
0.082448035
0.322716
-0.07402737
0.042094737
-0.19101708
0.20884788
-0.24799533
0.107094035
-0.084659874
0.16578889
-0.38550562
-0.115809835
-0.17056522
0.061491925
0.06268159
-0.13217783
0.39475673
0.06727657
0.010935358
-0.017391482
0.16098653
0.06597651
0.028971143
0.026587201
-0.1739311
0.06784796
0.0054387595
0.108125806
-0.040391255
0.14706354
-0.08390773
0.081398904
-0.07113703
0.32729468
0.07247848
0.10628092
0.07608897
-0.28936675
0.028636077
0.057150673
0.1333865
-0.035538048
-0.07673474
0.042047277
-0.07780963
-0.09517041
-0.062287636
-0.11008894
0.100222744
-0.013282894
-0.0112719145
-0.18301672
-0.051397186
-0.06223654
-0.0074479915
0.2247513
-0.20919777
0.10348454
0.10721432
-0.08097074
-0.078777015
0.070390545
0.046680328
0.012471728
0.0656461
-0.072011605
0.06806398
-0.040927637
-0.160353
0.024805268
0.22554028
-0.09066614
-0.09269477
0.13478473
0.015858809
-0.20052816
0.041531604
-0.0718299
-0.21976271
-0.20999584
0.020514304
-0.2018668
0.080222115
-0.055910006
-0.040269867
0.09538568
0.2504174
0.007522045
0.09640864
-0.1862381
-0.111097895
0.13330473
-0.28812388
-0.16248475
-0.10256903
-0.009014776
-0.13492008
0.14721416
-0.36631078
0.18278384
-0.08915555
0.108646676
0.045294795
0.104750596
-0.18703051
-0.20189692
-0.02509761
0.08567716
-0.17431065
0.12925844
-0.0489764
-0.171271
0.010726548
0.08114394
-0.045649327
0.27050766
0.1199818
0.055566523
-0.07619578
0.024126131
0.21361335
-0.10571197
-0.022460492
-0.018966006
-0.022486579
0.13409501
0.16540167
-0.24483386
-0.014499197
-0.26723173
0.06636625
0.29301456
0.19652957
-0.07579182
-0.079574466
0.07224321
0.12930237
0.0249469
0.17375009
-0.075398065
-0.032016788
0.02370418
0.044609692
-0.036767904
0.047760002
-0.07624245
0.1839338
-0.13702446
0.06539767
-0.044445436
0.075166665
-0.20721285
-0.05705871
-0.049378723
-0.10005987
-0.03960474
-0.14678602
0.07092598
-0.04236317
-0.13402031
-0.10695584
-0.018643381
0.13473906
-0.053283613
-0.06772492
0.061238732
-0.11405594
-0.042835783
-0.08364035
-0.19659595
0.006156045
0.18667422
-0.21509036
0.092717074
0.010903201
0.055117708
0.02663537
-0.079165064
0.08405077
0.15701078
-0.11416416
0.09850534
-0.084434226
0.097999886
-0.028759278
-0.12340792
-0.23779124
-0.076232426
0.014530268
0.12957148
0.20473026
-0.047513884
0.10030816
0.00069068145
-0.12347134
-0.09238062
0.19432558
-0.02418868
-0.0015577645
0.135149
-0.040325135
-0.05375929
-0.085200265
-0.0007671214
-0.16649026
-0.37997794
0.20062743
-0.05869765
0.1835898
-0.06321288
-0.086016156
0.027168598
0.10263766
-0.14154412
0.21303959
0.12284141
0.007534003
0.09253962
-0.0044515533
0.09386643
-0.033063836
0.06852359
0.07821477
-0.16272688
-0.19462368
-0.090968534
0.13757546
-0.068569995
0.026058508
0.028301809
0.032941453
0.28939757
-0.17053097
0.08563652
-0.060602568
0.028108705
0.06388831
-0.18515097
0.05899132
0.051415864
0.033755153
0.12702192
0.012646405
0.11118573
0.40174708
0.16654578
0.072638884
-0.20105685
-0.003261128
-0.036994915
-0.08348823
0.06617699
0.18045713
-0.13361023
-0.17548136
-0.029209783
-0.014508788
-0.088605225
0.071509875
-0.13271531
0.037281197
0.16709222
0.31347555
0.24723767
0.15229309
0.3166443
-0.105267584
-0.110922776
0.2826045
0.12591954
0.12356897
0.15980151
0.0075494056
-0.19842106
0.06080171
0.09476284
0.11698695
0.28927138
-0.026189972
0.12756442
-0.035814274
-0.14977829
0.013633844
0.05025847
0.23678969
0.029764965
-0.022628387
0.21134682
-0.070392095
0.058641154
-0.12694684
0.07517885
-0.14544697
0.0021986892
-0.11716544
-0.18855955
-0.15099885
0.047712665
0.026130661
-0.20278028
0.1286333
0.06510659
0.062418636
0.004557562
0.20053048
0.07035639
0.05192212
-0.08642926
0.07217621
-0.005473189
0.117518865
0.189201
-0.040334385
0.0042867623
-0.21746668
-0.00864417
0.06399024
-0.102962844
-0.18730468
-0.026123937
-0.10858157
0.100235336
0.093390845
-0.15590829
0.21531118
-0.11710273
-0.3514319
-0.11315858
-0.0692678
-0.025297351
-0.05784397
-0.06038052
0.06601056
0.017530382
0.038872562
-0.043220863
0.07146909
0.031318154
-0.22711347
-0.0701652
-0.031534404
-0.19394448
0.14752916
0.13802457
-0.073565364
0.12621729
-0.18943898
0.08973744
0.15626937
0.14678843
-0.111342974
0.002911348
-0.059818167
-0.04204599
0.13788076
-0.14245352
-0.013380033
0.20608808
0.16365437
0.08392514
0.40187165
-0.076309554
-0.097400025
0.15519546
0.013904501
0.18223818
-0.18375005
0.07401471
0.053390365
-0.15862294
0.09819803
0.10756111
0.09997244
0.047073428
-0.073602594
-0.055135142
0.034716204
0.07775591
0.013892724
-0.16747992
-0.22069137
0.074721016
0.088745505
-0.011500001
-0.1628409
0.18693353
0.11119282
0.03946706
0.14005831
-0.16502891
-0.022087581
-0.115346275
-0.033089343
0.045977894
-0.029591504
0.008951632
0.0576283
0.059392657
0.2888641
-0.09539353
-0.0036608535
0.029758207
0.006621622
-0.07853013
-0.14112994
0.0023185825
-0.14982279
-0.091454566
-0.015904527
0.13473062
0.19621249
-0.31209552
0.030536104
-0.123844095
-0.09170995
0.031988483
-0.18373802
0.060650222
0.052283924
-0.045251355
0.07609737
-0.009277689
0.072278686
0.33524984
0.044710368
-0.03499662
-0.1112466
-0.10437189
0.078645796
0.2351936
0.007853998
0.13869573
-0.00028982104
-0.11156956
-0.009683811
-0.21860424
0.15122908
-0.15082212
0.17344545
0.084424846
-0.08348879
-0.067429416
0.04436554
0.14797892
0.07137234
-0.027761078
0.10154499
-0.14531304
0.0025103276
0.047581587
0.14688419
0.059264604
-0.09597617
-0.059027188
0.1601163
0.08452118
-0.08469169
-0.067848295
0.095857605
-0.18176334
0.13254258
0.23783448
-0.104858376
-0.11200646
0.15711062
0.027880037
0.054077417
-0.0626479
0.12829792
0.17417386
-0.17272045
-0.053314142
-0.057875045
0.060492065
-0.09523421
0.13640529
0.30907157
-0.016024003
0.08217495
0.050160248
-0.06766061
0.017584762
-0.190881
-0.2759732
0.21855013
-0.12688632
-0.2068539
0.17495906
-0.061885912
0.0049403594
-0.15828145
0.26639825
-0.13199909
-0.1920462
0.12807892
-0.057888564
-0.044715453
-0.057576146
0.039278686
0.15293142
0.03483551
0.06661865
0.11620172
-0.1762484
0.26100492
-0.19169402
-0.093346514
-0.17284583
-0.082398854
0.033820268
0.05396112
-0.058743235
-0.12674499
-0.18692872
0.100438826
0.2481232
0.24000335
0.059561297
-0.154403
-0.053169362
-0.070170596
0.12436399
-0.1055802
0.07578151
-0.012557076
0.118405685
0.21726069
-0.07332855
0.111624844
0.06132032
0.057503182
0.12324568
-0.02449888
-0.020787695
-0.027878648
-0.29101104
0.073767014
-0.054535758
0.058224697
0.1797534
0.07368491
-0.023119798
0.03642641
0.0049678786
-0.06924582
0.09068305
0.16838029
-0.28633192
-0.010051572
0.13498868
0.17976017
0.11231158
0.0611055
0.009623573
-0.14473015
-0.10756708
-0.25678244
-0.06356211
0.016684994
-0.08059921
0.009109114
-0.03537907
0.047696985
0.14475851
0.20827432
0.09994033
-0.08283766
-0.091640964
0.03434046
-0.22958653
0.07971622
0.07266531
-0.34710187
-0.08698945
0.13978526
-0.2425567
-0.0036184122
0.040857427
-0.13954934
0.007805176
0.08611425
0.105808854
-0.04822676
0.02951221
0.057661906
-0.07375428
-0.0035219793
-0.0024879093
0.078521155
-0.09212428
-0.12238134
-0.16434567
0.008297371
-0.14285682
0.08753492
0.019443786
-0.054168347
-0.024613103
0.048372883
0.046968672
0.059941158
0.047416676
0.0061423685
0.1334675
0.056255944
-0.043978136
-0.040565923
-0.12074453
0.020946248
0.03649902
0.068394534
-0.15762888
-0.07681994
0.092349075
0.10745499
0.0065637142
0.16086347
0.060293872
-0.048295647
0.15849616
-0.06547053
-0.02514146
0.21237455
-0.0853975
0.0973629
0.0059329704
-0.055578295
-0.067364216
0.042630598
-0.26238152
0.07414979
-0.26534522
0.15810347
-0.3091498
0.0023501427
0.13264996
0.08785819
0.12169925
0.025266528
-0.41830078
-0.14048469
-0.15046547
0.009792795
-0.0029471726
-0.12273295
0.108525716
0.04365424
-0.3244107
0.20234998
-0.0013492975
0.06651636
-0.018526796
-0.039386995
0.10206837
-0.03515749
0.12483088
0.08952955
-0.0032992433
-0.034014735
-0.018800097
-0.07636319
0.09960169
-0.0052181887
-0.25487968
-0.037496105
0.15654895
-0.30958888
-0.02947908
0.042647086
0.10578179
0.18907352
0.006260455
0.19224577
-0.09712024
-0.00848913
0.24945866
0.0214353
0.08271252
-0.07613867
-0.15899126
-0.15816572
-0.05917208
-0.24303852
-0.006190731
0.16960911
0.0202186
-0.07585227
0.15465812
-0.032752905
0.08388489
0.08764672
-0.11411387
0.021634681
-0.029597646
-0.08901917
-0.30116844
0.08993834
0.08664492
0.15373659
-0.045684814
-0.1270874
0.0537681
0.0037393023
-0.0024265258
-0.22282995
0.05520821
0.19137818
0.081589185
0.004900016
0.22843276
-0.06383288
-0.333905
-0.05300021
0.09707896
0.2142179
0.03858956
0.025652882
-0.11665927
-0.12150791
-0.029376023
0.0175699
0.061381657
0.05813504
-0.20988995
0.006120737
-0.03613818
0.12015042
0.0706596
0.03302202
-0.04465679
-0.0827711
-0.23943414
-0.07133863
-0.2706898
0.104043804
-0.1366298
0.06352837
0.10998092
0.24684156
-0.12591751
-0.029914131
-0.003439088
-0.038661502
0.072495624
0.05178315
0.0019605393
0.17316328
0.042699605
-0.02832068
0.04172405
-0.013174439
-0.025651667
-0.090836525
0.032120354
-0.21934752
0.020649971
0.20054945
-0.11566983
-0.15577984
-0.12137941
0.081278324
0.07450434
-0.08196818
0.0031823996
-0.29683527
-0.03493259
-0.040962506
-0.20703906
0.07283201
0.07135054
0.03775264
0.09956551
-0.18013194
-0.07017976
-0.16980435
0.2582268
-0.041021973
0.25172508
0.035019003
0.21386121
-0.11832878
-0.10206178
-0.19869484
0.18477528
0.0027940066
0.024104886
-0.010337521
0.058808208
0.09655315
-0.16273916
-0.040536013
0.24905542
0.06224786
-0.14317428
-0.016860647
-0.10304086
-0.0020163392
0.08467044
0.17628135
-0.0050185416
0.051890835
0.0537334
-0.0006980296
0.060583554
-0.057529174
0.17186514
0.08763464
0.11446182
0.04356447
0.016008893
0.081892654
-0.22549912
-0.082812525
0.11310918
0.18688968
0.07500035
-0.04516403
0.16937308
0.14341551
0.054061603
0.23476556
-0.048567064
-0.25662285
-0.037545703
-0.03648188
0.02817121
0.07467508
-0.16203614
-0.18823239
-0.03455864
0.1310223
-0.19959939
-0.09665781
0.043230053
-0.20791298
-0.07086277
0.16610157
0.2139441
0.08919364
-0.08850316
-0.13551027
0.17807639
0.10323363
-0.036090344
-0.03873385
0.36450446
0.1326425
0.06346215
-0.23568036
0.01663881
-0.15253957
0.115323
-0.17596416
0.118764095
-0.06070593
0.16991149
-0.05339513
0.18233997
-0.13506755
0.13951066
-0.12240881
0.20845105
0.2297337
0.12687516
-0.14319697
0.13326718
-0.00695516
-0.2569795
-0.123119265
0.08132969
0.034275554
-0.08030689
0.13544098
0.1149313
0.06621497
0.19739504
0.099523455
-0.068874985
-0.022521392
0.06577107
0.22393946
0.12213038
0.24654481
0.24532674
0.19067809
0.06958433
0.20360616
-0.24474016
0.08902491
0.019633539
-0.3947312
-0.17932484
0.13542044
0.14250155
0.07338495
-0.09716675
0.11789186
0.0046450146
-0.013849439
-0.012931302
0.20847787
-0.017305007
-0.06995547
-0.003989015
0.19257246
-0.053106762
0.09401191
-0.11724967
-0.045326024
0.0109256
0.18341506
0.10192137
-0.12560676
0.08623869
-0.2568032
0.0005127093
0.2935552
-0.124044925
-0.02144328
-0.1342124
0.14959043
-0.15135475
-0.1385624
0.032498848
0.053264506
0.017383764
-0.014045829
-0.10081974
0.15706626
0.02372459
-0.042903025
-0.03703972
-0.023977783
0.009445643
0.10902556
-0.11034026
-0.12661633
-0.056608226
-0.02613123
-0.15567258
0.13492118
-0.25713792
-0.037754964
0.1518659
0.059237193
0.07794649
-0.2485961
0.24805082
0.32254547
-0.093344584
-0.06835031
-0.06522944
0.21999481
-0.12723926
0.22657314
-0.26743034
-0.09684066
-0.09609257
-0.00937358
-0.024188692
-0.15696265
0.083980784
-0.08965091
-0.031327102
0.16085245
0.04157933
0.02681338
-0.09051631
-0.003317778
0.036976486
-0.002370772
-0.008827964
-0.1774046
0.14951746
0.22147243
0.136447
0.15939246
0.008561786
-0.1919954
0.17891446
-0.024100548
-0.18616404
-0.034216236
-0.0008277829
-0.11347846
-0.12557785
-0.076917864
-0.08194009
-0.07775351
0.13270703
0.20288654
0.26608947
0.2322679
0.12641731
-0.07562508
0.0025322714
-0.0026187492
0.17166196
-0.078219496
-0.106432825
-0.13919808
0.07414132
-0.27462006
0.022532493
-0.0056566983
0.028805837
0.12706873
0.03137721
0.02998571
0.11938431
0.0877068
-0.010065485
0.118132524
-0.14025387
-0.13667096
-0.24334829
0.0846045
-0.33228046
0.032937825
0.08106519
-0.14272796
0.030997002
0.15970917
-0.00038158635
0.031543367
0.20166282
0.0107947085
-0.0765158
0.13520512
1.5114392e-05
0.25266245
0.1164057
0.06565607
0.05616839
0.16810204
0.11585581
0.1740973
-0.035127018
0.046195753
-0.04132824
-0.31354013
-0.058462948
0.1471661
0.04032822
-0.04838145
-0.113477625
-0.06620593
0.05049744
0.060999718
-0.023127096
-0.14629227
-0.10818267
0.09385113
-0.16490848
0.10440774
-0.1560915
-0.0065335073
0.026435029
-0.15265292
0.14374521
0.021712858
0.13587882
-0.033764742
-0.14485018
-0.064133756
-0.09150991
-0.13595182
0.1326564
-0.028578594
0.22339118
0.26556006
-0.017805021
-0.14500108
-0.026565969
-0.18268807
-0.118306525
0.023638412
0.25153008
0.07447668
-0.05024191
0.005322915
-0.119261645
0.045315776
-0.13880415
-0.1531782
0.043491308
0.28327435
0.16791447
-0.082364626
-0.13113575
0.14154693
0.10196589
0.046676952
-0.19129816
0.17133711
0.28723964
0.21567601
0.046461865
-0.42339736
0.005201251
0.08044833
0.027121682
0.13691893
0.04569621
-0.069317296
0.010259999
0.0031311177
0.03354041
-0.063242406
-0.030817218
-0.10023304
0.16844237
0.114570595
0.010576793
0.084664784
-0.0008183423
0.029303106
-0.041795373
0.010068681
0.038903564
0.05609988
-0.20714697
0.05655038
-0.047020968
-0.21440312
0.01255896
0.0018305577
0.15273549
-0.09172532
0.11161876
-0.020365601
-0.12316362
0.17312519
0.0602248
-0.09955608
0.007975446
0.005015428
-0.16457638
0.13862878
0.055841587
-0.0087362295
-0.18063243
-0.10710542
-0.11709716
-0.07067148
0.006055385
0.050789993
0.14416495
0.22195184
0.04904312
-0.1438144
-0.043344833
-0.03244266
-0.030334152
0.09564677
0.115802735
0.019121304
0.041291974
0.17794977
0.024006763
-0.08296158
-0.08357248
-0.22294018
-0.013290794
0.0443022
-0.007918629
0.039445013
0.03384531
-0.053159658
-0.023752851
-0.043894827
0.10264467
0.18498318
-0.088847205
-0.08671171
-0.005047588
0.023427546
-0.14848402
-0.064492755
0.323764
0.20178023
-0.1967448
-0.09573007
-0.024302725
-0.041481186
0.15592627
-0.10008806
0.04672155
0.06675559
-0.33683172
-0.1549306
0.058704678
-0.12658492
0.27198216
0.09894571
-0.09876814
0.08619626
0.13253102
-0.0926217
0.089697964
-0.045975935
-0.08901592
0.14485495
0.097575285
-0.1619217
-0.046984874
0.15913561
0.24151775
0.13175741
-0.09243495
0.102358796
-0.1832092
-0.14945623
0.12079429
-0.2059297
-0.011546667
-0.075964116
0.13195418
0.10009443
-0.0015724709
0.026931947
-0.19404568
0.089950144
-0.05192937
-0.03796692
-0.13700648
0.23987967
0.030474681
0.06987597
-0.11679714
-0.108210735
0.09475002
0.1606932
-0.0780433
-0.08252164
0.18544511
0.0031502673
0.0128999865
-0.0984919
-0.014410045
0.18022934
0.017770302
0.08070672
0.1285973
0.090239756
-0.0806974
0.20935118
0.0006343024
-0.033453573
-0.17725988
0.16476013
0.029552627
-0.1898529
-0.28293663
-0.006673123
0.01213279
-0.04335818
-0.017358664
-0.0030427768
0.018930709
0.032377303
-0.030394545
0.2814946
-0.0136612225
-0.057085637
-0.0044963695
0.056837663
0.08493855
0.2269103
-0.0087946
0.28146487
0.025649589
0.0024098044
0.19504385
-0.050986174
-0.097099416
-0.03434944
-0.013886467
0.10387354
-0.039706256
-0.19351959
-0.16972998
-0.14991955
0.006676966
0.18624896
0.17470108
0.14929114
0.093607254
0.08065047
0.037025318
0.092678085
-0.18020788
-0.0059876367
-0.050133176
0.009277092
0.10110987
0.0030834638
-0.096437804
0.0481679
0.25775194
0.070646405
-0.17644344
0.011378732
-0.0728953
0.085639246
0.016284421
0.097969614
0.29176447
0.0027626066
0.044592634
0.12013656
0.105170846
0.12206514
-0.27074516
-0.17119256
-0.5305087
0.019077167
0.10934596
0.1435085
0.07125978
-0.109839775
0.06472646
0.03408049
-0.027991904
0.04135509
0.1300532
-0.13865343
0.18894382
-0.0048380406
0.08004717
0.06980731
0.12562183
-0.22594377
0.056050777
0.013841937
-0.07366576
0.0028255119
0.04952896
0.018381367
0.024549473
-0.032043926
-0.10168928
0.17611632
-0.017540513
-0.10338508
0.053568617
-0.029057778
-0.0809655
-0.12670556
0.17933059
-0.022666918
0.28673127
0.00033366462
0.11036939
-0.0070879627
0.07006576
0.04501914
0.2277434
0.07473244
0.19633704
-0.019830352
0.08065273
0.0034871274
0.054985832
0.07229097
-0.09539367
0.009807554
0.005582695
-0.112979494
-0.1288433
-0.115840755
-0.04420724
-0.10898032
-0.11921042
-0.16865128
0.07359702
0.10259436
-0.21959248
-0.12640311
0.116457075
-0.009061908
0.18858337
0.29259598
0.031284016
0.31691116
-0.03544361
0.15998337
-0.11024542
0.11221156
0.047953233
-0.1968757
0.060072236
0.03588743
0.13509262
-0.1543847
0.013080634
-0.08808724
-0.0046285987
-0.13517743
-0.0077802134
0.08911584
-0.20683604
-0.21818669
-0.18142161
0.025978433
-0.076492324
0.09016628
-0.062801816
0.28467286
0.24660356
-0.017385531
-0.13473402
-0.20217004
0.08076002
0.19503044
0.13065863
0.058815002
-0.044520695
0.079708315
0.18137804
0.17859046
0.104595475
-0.13083264
-0.040214214
0.18173
0.029238366
-0.03181614
-0.06677845
0.17602833
-0.005512375
0.0074815494
0.2219255
0.17631914
0.06124592
0.023788314
-0.036823057
0.16378586
0.12920235
0.05334354
0.15805323
-0.039995674
0.17871526
0.08074783
-0.032484617
-0.055556636
0.08970495
-0.04067558
0.30996138
0.02281947
-0.070562966
0.13200958
0.020636816
0.16658413
-0.020096615
-0.24545597
0.0707314
0.07647906
-0.0919705
0.011111368
-0.0037536023
-0.03856064
0.07731589
-0.08366958
-0.078391135
0.1082479
0.08618162
-0.050679035
-0.12568536
-0.15283807
0.12814656
0.06795648
0.11300742
0.07032581
-0.30173647
0.3557514
0.06533084
-0.068578005
0.010252005
0.18528083
-0.07757414
0.12640162
-0.09773718
0.005618303
-0.10797707
-0.024438601
0.19510914
-0.050510637
0.13303344
0.10984588
0.089295805
0.0058588977
0.17761464
0.058564086
0.20011559
0.018689873
-0.11372745
-0.099449314
0.036929365
0.12038303
0.09492238
-0.07176767
-0.042465013
-0.048675936
-0.094577715
-0.15785001
-0.13556656
-0.053645138
0.038454372
0.10730002
0.01335593
-0.021185167
-0.074171
0.0875616
-0.02362144
-0.031204207
-0.102055
-0.032967817
0.0116571095
0.15645838
-0.098259896
0.090954244
0.046010617
-0.04778311
0.076371066
0.11823501
0.003078134
-0.001020735
0.17997973
0.11937077
-0.051266216
-0.14848737
-0.12443898
-0.07414452
0.0022924107
-0.22626026
-0.024382021
-0.24392056
0.10215604
-0.18077566
-0.24561088
0.09486858
0.13141489
-0.082032286
-0.027327968
0.15992847
-0.19490142
-0.24498002
-0.10646961
0.18729596
0.0016693705
0.17058297
0.038341515
0.113396525
-0.34402472
-0.06120216
-0.19515231
-0.10914244
0.09177847
0.02428763
-0.029104449
-0.010332441
-0.029405802
-0.044191856
0.023571799
-0.18435803
-0.03849303
0.07074252
0.043522637
-0.038097993
0.14619808
-0.14499201
-0.023297144
-0.023079563
-0.05036394
-0.012274665
0.0147391185
-0.070329145
-0.23133558
-0.2351368
-0.18958418
-0.1671985
0.21800739
0.034403834
-0.109042846
-0.045555875
-0.057979103
-0.0128289
-0.015357384
-0.14158247
0.014496286
-0.07617112
0.07647622
-0.0061959564
-0.31001663
0.071779676
-0.012987154
0.07637734
-0.044396926
0.1944192
0.066293284
0.034930643
-0.2635775
0.086175516
0.10819776
-0.13125959
-0.0392413
0.18301201
-0.1257917
0.11575226
-0.09760515
0.041110147
-0.23888385
0.080231555
-0.018281206
0.18286926
-0.09756452
-0.17000249
0.04854968
-0.01288422
0.021529555
-0.18457526
0.113368936
0.15435432
-0.28534117
-0.09113767
-0.023507247
0.017074816
0.14431962
-0.15232518
-0.01667882
0.02737631
0.090125114
-0.018373718
0.15989006
0.04640272
0.045537014
0.127203
0.22460368
-0.042239632
0.104691386
-0.19858332
-0.16594575
0.14726794
-0.021194447
-0.060710777
-0.1624577
0.032994162
-0.03041574
-0.22742987
-0.091210544
-0.21404618
-0.038542543
0.24239366
-0.08716232
0.11549844
-0.020624585
0.022654653
-0.019140188
-0.06132604
-0.09235519
-0.22870319
0.28075886
0.20661318
-0.003619833
0.16911711
-0.115100205
0.11989293
0.15155956
-0.002169718
0.009295582
-0.041734498
0.08886577
-0.03822148
0.12869348
-0.025296595
-0.00508566
-0.15810868
-0.079920374
0.020162333
0.19481567
0.20565954
0.19847976
0.03378879
-0.008109071
0.021273296
0.24260768
-0.05723295
-0.09635078
-0.12791143
0.00077365205
-0.07863141
-0.08358721
-0.048746485
0.02201726
0.16158013
0.18613273
-0.1901026
-0.0869262
-0.008227052
0.101909354
-0.023227286
-0.05392041
0.07406522
0.039356973
-0.019055158
0.04467014
-0.01631358
0.013293545
-0.015685972
-0.2524914
0.12316204
0.020734569
-0.16350365
0.045514494
-0.018338941
-0.15871073
-0.09647421
0.10267245
0.054465994
-0.15841658
0.13795856
0.05815686
-0.28198886
-0.15748782
-0.08786486
0.120652676
-0.009984051
-0.11752256
0.2459844
0.102425836
-0.089568175
-0.049840458
0.10030588
0.061833344
0.036939714
-0.10308683
-0.08566034
0.25302306
0.20465665
0.001957329
-0.05587111
0.020434404
0.035696644
0.14005275
0.15374386
-0.0013227244
-0.036439274
0.0008957847
0.15339442
0.032556556
0.15346083
0.11049766
-0.12407439
-0.21581925
0.1301255
0.14830562
0.064420044
0.07594278
-0.11606525
0.21709622
0.008499615
-0.06616111
-0.01874919
-0.19245833
-0.10640229
-0.041207857
-0.11987189
0.050243955
0.08930833
-0.28700525
-0.18980835
-0.14021422
0.017733347
0.04016769
-0.09504199
0.004516532
0.2312741
-0.15077524
-0.0025090915
-0.14975637
-0.12697864
-0.09338616
0.17226347
-0.15281853
0.010889412
-0.04027592
0.045681886
-0.090967305
0.11419845
0.09310552
-0.22001499
-0.03528698
-0.029823266
-0.33355477
0.3569756
0.023363452
-0.11855371
-0.001271569
0.08945837
0.011596542
0.018773153
0.02629028
0.0180331
-0.04814412
0.124426074
-0.19220075
0.29937658
0.08749078
0.19279802
-0.31750977
0.13736126
-0.019267976
-0.121015005
-0.16786568
0.03613944
0.027251802
-0.008130946
0.12853554
-0.09858443
-0.047478955
0.16186517
-0.19607577
-0.022744037
0.15728328
-0.041044783
0.097010024
0.12341915
0.04036909
-0.056470014
-0.13446558
0.025333418
0.04186301
-0.094801724
0.18682234
-0.030563759
0.0029888998
0.03910726
0.14668934
-0.023078937
0.015394708
-0.20559765
-0.0010164231
-0.110907406
0.07925217
-0.22460172
-0.03698598
-0.12193487
-0.13649075
-0.14549057
-0.045858886
-0.21286343
0.07732276
-0.3245005
0.0893518
0.040815238
0.082963035
-0.08133851
0.027879855
-0.06538405
-0.04043925
0.012988612
0.11470548
-0.060246244
-0.17908217
-0.011282351
-0.01778008
0.059655484
0.030191004
-0.015468431
0.21855955
0.16700052
-0.030791378
-0.36432242
-0.18910396
-0.17412494
-0.07424408
-0.09899665
-0.09622265
-0.000954451
-0.03694094
0.08579462
-0.08117524
0.121978
-0.039251927
0.080737896
0.09228195
0.026745137
0.008493953
0.17531647
0.19436221
-0.16676797
0.19261241
-0.1521706
-0.007275796
0.03581897
-0.06858482
0.12238477
0.011640199
-0.036285378
-0.2154377
-0.1801636
-0.0119230915
0.06900591
-0.07303046
-0.04135442
-0.11374507
0.13286553
-0.13894343
0.045410376
0.06911237
0.019515501
0.092799515
0.15911557
0.02372309
0.013383058
0.07390256
-0.040379673
0.0022964755
-0.10189428
0.1415271
-0.0010394701
0.06874342
-0.028193919
-0.105247356
0.22590548
-0.07532408
0.031222366
-0.0886319
-0.23134013
0.022876898
-0.13880466
-0.07173918
-0.13119209
0.059386075
0.013491044
-0.08376231
0.033107735
0.062059678
-0.05252887
-0.10116567
0.16488968
-0.17755713
-0.037281536
-0.1114247
0.014868691
0.021425547
0.06604516
-0.059334967
0.066713214
-0.18514185
0.020715406
0.10049984
0.15902822
0.07289492
-0.00086503464
0.11824208
-0.041677624
-0.10274824
-0.048085954
0.044322502
-0.14552926
-0.03777174
-0.06709611
-0.050285824
-0.24714063
0.004949918
0.1539073
-0.13297625
-0.27324557
-0.041358043
0.06729932
-0.16662525
0.044124592
-0.1715148
-0.13421911
0.03222111
0.055768166
0.046634346
-0.013512942
0.10672608
0.1482672
-0.10087028
-0.14313184
-0.07408456
0.07040306
-0.0273114
0.24262813
0.0027602063
-0.24286793
0.13794559
0.23049419
0.23521158
-0.07964378
-0.087638706
0.04980704
-0.042319227
-0.008974964
0.11615647
-0.15957601
-0.090053156
0.13657646
0.0146565
-0.07710951
-0.05461211
0.0076659936
-0.077705614
-0.21027343
0.10371412
-0.011786334
-0.15720305
-0.0031472945
0.07571103
-0.042533044
-0.14491501
-0.04569488
-0.2898832
0.02173802
0.090071864
-0.0646333
0.003166908
0.009610265
0.34483525
-0.077153906
-0.009484817
-0.090707846
0.09155351
-0.20340024
-0.027918482
-0.06656628
-0.044051375
-0.078568876
-0.38823432
-0.12586349
-0.03251426
-0.017742854
-0.09041364
0.022552533
0.00378684
-0.2229163
0.08231268
0.038261924
-0.048476987
0.12176998
-0.000901953
-0.14483985
0.12848598
-0.06527648
0.040001757
-0.09870397
0.30852717
-0.017645806
0.041133303
-0.054806
-0.12366285
0.148614
-0.06423064
-0.03865349
0.08825733
0.12802725
0.15345338
-0.27001476
-0.13003734
0.039808437
0.089124195
0.022356983
0.1329167
-0.17781746
0.03152725
0.0055161384
-0.08211456
0.17216541
0.027820205
-0.1336114
0.21658951
0.07007324
0.012126922
0.1074715
-0.20078942
-0.077861525
0.05916798
0.015769968
0.13920432
-0.12963724
0.20623176
-0.115193225
0.11846999
-0.111679174
-0.007355206
-0.2421161
-0.17900729
-0.13460095
0.043852422
0.24790522
-0.024083935
0.19739136
0.07611802
-0.377746
0.039560597
-0.19320445
0.09680568
-0.19172236
0.102429815
-0.07007474
-0.097589284
-0.21943608
0.14952882
0.06912709
0.114106886
-0.19678518
-0.08119872
0.1443888
0.015650552
-0.0795438
-0.1043912
-0.10915624
-0.035166036
0.24608488
0.031206213
-0.07513307
-0.031874876
0.021333301
0.13579698
0.023178529
0.06844916
-0.011635518
0.030135484
0.14366452
0.13902739
-0.044247545
0.06449594
0.18622081
0.15359777
-0.12550563
-0.11835461
0.056364994
-0.15588732
-0.13489984
-0.06706612
-0.20094202
0.22044931
0.020269174
-0.09302858
-0.06890842
-0.22643942
0.23300205
-0.066841975
0.0124838445
0.123455815
0.14425322
0.021801367
-0.17981245
-0.08916733
0.29027355
0.11818588
0.1390297
-0.17894158
-0.04713227
0.0077601154
0.01924323
-0.08926436
0.31460208
-0.13194056
0.052047864
0.028809551
-0.24338913
-0.08018712
0.0333849
0.25097612
0.20068397
-0.0050066365
0.058009986
-0.004024139
0.19379443
-0.2562788
0.0043385914
-0.22170155
-0.18754064
0.13324319
0.20136808
0.051625196
-0.04793622
0.046414845
0.07214172
0.054475058
-0.21556462
-0.034787618
-0.12157228
-0.18007971
-0.12249007
0.1600199
0.10873846
0.102003634
0.107082054
-0.21746203
0.08277872
0.10726734
0.07073709
-0.064689256
-0.11815332
0.055154
0.11807263
0.022466885
0.101389594
0.035151232
-0.28521454
-0.07817537
0.10522943
-0.083068855
-0.09239418
-0.065717384
-0.15426396
-0.09045058
0.01409228
-0.2706693
0.08206873
0.020386295
0.08071541
0.071991414
0.30760813
0.104030155
-0.3108512
-0.11884954
0.05378903
0.028916802
0.02395036
0.16237453
-0.07915903
0.0669093
-0.027299339
-0.07308921
-0.1183604
0.03641383
0.15885608
-0.3588273
0.23111752
0.10641393
0.05409003
0.062452774
0.01688565
-0.014773515
0.085450344
0.019982843
-0.02547185
0.0017096801
0.077701956
-0.029478086
-0.04221913
-0.09482135
-0.00022441399
0.08551513
0.026084697
0.15586525
0.06548731
0.0735233
0.041006457
0.0058705057
0.014017608
-0.055087127
-0.030237239
-0.008914026
0.09754869
0.021036938
0.19470246
0.17283739
-0.07801084
0.09812034
0.101596095
-0.04391753
-0.19308582
0.09660618
0.13011347
-0.05835288
0.21912648
0.08684989
-0.2810459
-0.0030541893
0.11952758
0.13270247
-0.02399733
-0.27324614
-0.17017387
-0.093671955
-0.0316564
-0.093522415
-0.07570399
0.029098416
-0.08213212
0.30877948
-0.017286401
-0.017964154
0.16044335
-0.12706947
-0.019107198
0.1323812
0.20290276
-0.07408106
0.13127978
-0.1871975
-0.04800173
0.059203327
0.03371354
0.028958581
0.029294219
0.19461526
0.11705665
-0.008417805
0.15543006
-0.083254926
0.013151837
0.08055377
0.046579335
0.13309895
-0.02376652
-0.048155636
-0.079667225
0.014461837
0.16855787
-0.029108144
-0.008936017
0.08909828
-0.025726732
-0.0048416685
-0.10176799
0.19898616
0.047393035
0.0072019487
-0.1316561
0.0042649056
0.041473445
-0.024773568
-0.18686534
-0.028780844
-0.029096697
0.06812453
0.13424377
0.14612992
0.04686543
0.15864962
0.14193797
0.06867402
-0.09173076
-0.18078743
0.05151042
-0.16098309
0.11962162
0.0049126083
-0.23269193
-0.06645529
0.07202834
0.106745936
0.054306913
0.14235117
0.17924534
-0.17174032
0.0783312
0.0348976
0.09978971
0.10129539
-0.016615469
0.00090177637
0.12830238
0.032723792
-0.059712727
-0.05572623
-0.036888763
-0.017194146
-0.0017295851
0.049701862
-0.08417549
0.015574987
0.18918177
-0.1286899
0.18287344
0.026389223
-0.050384656
0.036964864
-0.114495255
-0.101619385
-0.01941161
-0.15895896
0.08784198
0.036006294
0.25806314
-0.023210216
0.03975784
-0.18001232
0.19320217
0.18229891
0.12050286
-0.021652577
-0.19659986
-0.24485545
0.0022308768
0.01302357
0.08508784
-0.18768516
0.10148167
0.12323097
-0.010567413
-0.09954644
-0.07543771
-0.0608949
0.034508105
-0.20263295
-0.14588675
-0.024956679
0.09510647
-0.046717804
-0.041915253
-0.07130072
-0.029373169
-0.12134162
0.1926887
0.033747397
-0.30774453
-0.12944776
-0.12896407
-0.041937858
0.052824613
-0.16243568
0.10882676
-0.0928697
-0.079789855
-0.10845703
0.117103614
0.0059473203
-0.09171558
0.07146314
-0.1447084
-0.029390631
0.022435525
-0.3915645
0.14270625
0.086334266
0.04844522
0.106223084
-0.074852176
0.17064697
-0.00561543
0.10019871
-0.19824082
0.20803657
-0.03961639
-0.010324721
0.060131256
0.088253155
-0.10195305
0.18217595
-0.13590558
-0.015282183
-0.06292793
-0.06381266
0.016993508
-0.3199892
0.12661745
0.11799014
-0.033628106
-0.20142297
0.12226266
-0.060973726
-0.090604305
-0.021440614
-0.14034823
0.011545026
-0.050743923
0.04181912
-0.057497274
-0.046707783
0.05583822
-0.18861233
0.11820703
0.14685687
-0.01942574
0.057740543
-0.073435165
-0.24220553
0.100396104
-0.17478567
0.082875036
-0.073349014
0.07782518
0.1842908
-0.050605617
-0.055701528
-0.0040414133
0.21943457
-0.021530133
0.018856147
-0.06244997
-0.0749478
0.03169196
0.054837897
-0.25865906
-0.27075118
-0.10418815
0.07229292
0.043894213
0.1147515
0.028084503
0.2656808
-0.112514555
-0.077694826
0.028738333
-0.25199217
0.12895006
0.07335328
-0.007871545
0.30747136
0.26792973
0.034913078
0.060530275
0.28041124
0.29112494
-0.08742064
-0.011825013
0.050438106
0.04420985
0.12027897
-0.06556813
-0.14933078
0.0065816357
0.16915919
0.046833448
0.08681251
0.010954548
0.23219335
-0.040021017
-0.07119782
-0.055839222
-0.18355437
-0.04192619
-0.10280894
-0.05429338
-0.2417638
0.14216384
-0.09526915
-0.17450964
-0.15399204
-0.09826354
0.086470276
-0.1964511
0.06835571
0.05410538
0.036713056
0.09576194
-0.022208024
0.16388112
-0.06740309
-0.052814715
-0.05544725
-0.13631278
-0.007391091
0.07613192
-0.22399311
-0.08031816
0.10416903
-0.10344808
-0.07630479
-0.022579335
0.003632798
-0.1258227
0.1623048
0.21824443
-0.02780925
0.18339187
-0.07809406
-0.043002322
0.14384717
-0.21840008
0.08056099
-0.11996519
0.06360763
-0.008507722
-0.028734181
-0.10299657
0.00010389866
-0.023388984
-0.16840366
-0.115147986
0.16863342
0.06301882
0.087586105
-0.1378924
-0.06348762
0.21958046
0.16065662
-0.10460939
-0.051860094
-0.11821122
-0.041360334
-0.10561347
0.0055273375
0.011122543
0.1752513
-0.05941997
-0.18694228
-0.0866145
-0.04102507
0.1451646
-0.092558905
-0.17797801
0.02828174
0.16771117
-0.02804046
-0.048032027
0.09222751
-0.17722054
-0.10496135
-0.049469337
-0.061732814
0.08432991
-0.19308817
-0.05232295
0.13707912
-0.09949352
0.12882867
-0.062770724
0.14138232
-0.120933
-0.021006553
0.2605522
0.025523454
-0.12888566
0.017865814
0.09423015
-0.04302136
-0.09047584
0.094239704
-0.015102919
-0.25240585
0.1861213
-0.03717665
-0.109469734
-0.09631665
0.35164824
-0.033455882
-0.098256096
-0.19427894
-0.05058178
-0.08853382
0.021281838
-0.10479309
0.24647398
0.12732849
0.2950053
0.021292241
-0.17466077
-0.07059709
0.057110094
0.075621344
0.14047799
-0.024967559
-0.05337776
0.15359083
0.103467554
-0.08920431
0.0053428593
0.028759679
-0.17423937
-0.11608873
0.059065055
-0.01905281
0.0919542
0.16003236
-0.18322144
0.13457926
-0.013627647
-0.107392065
0.07465812
-0.16833684
-0.1367424
-0.028513055
-0.03876144
0.023855671
-0.018606702
0.27144516
-0.0028495286
-0.0102593
0.16694193
0.2351673
0.16604474
0.07255172
-0.047861308
0.22091298
-0.013131019
0.12745285
0.04540261
0.08977088
0.02986663
-0.23208886
0.11611171
0.03351411
0.08705612
-0.005051928
-0.010048437
-0.0059760865
0.09318842
0.0473364
-0.030602822
0.04122428
0.15058851
0.080852486
0.067901745
-0.103074916
0.012578293
0.1556144
0.12928416
0.15082763
0.18809476
-0.044380225
-0.1722508
0.03841158
0.012169681
0.2372004
0.021817556
-0.008954181
0.20657307
0.10812038
0.09163967
-0.0042381724
0.02433614
0.29892784
0.05474395
-0.12703568
0.025569001
0.13387309
0.12449507
0.056657173
-0.109156914
0.16202357
0.1918626
0.19538672
0.04557909
-0.023826655
0.047977943
-0.21911786
-0.01185492
-0.3326616
-0.112912156
0.07987815
-0.1416038
0.0059742467
-0.022077592
0.0020275416
-0.14593616
-0.20567162
0.14812848
0.051114224
-0.029406006
0.09072567
0.07391495
0.22953069
0.20058374
-0.05010554
-0.07952049
-0.058204103
-0.10845802
-0.1994936
0.055625465
-0.042309355
0.19736499
0.052222263
-0.22862667
0.08069761
-0.2526145
-0.010568562
-0.070251904
-0.024221484
0.057958394
0.11057818
0.041289926
-0.010762822
0.026801525
-0.070286155
-0.01278562
0.101448864
0.024725558
-0.07898889
-0.060082752
0.1182347
0.2885516
-0.0320212
-0.12018459
-0.08633141
0.07729417
0.1633666
-0.23956166
0.14161363
-0.053617287
-0.079889864
-0.20268326
0.08210635
0.055602245
0.057591703
-0.06348964
0.104281135
0.111013025
0.00025551554
-0.07557614
-0.060701475
-0.046913095
0.09437228
0.27007478
-0.02614471
0.20080312
-0.08224883
0.055674557
-0.13357633
0.16574334
0.01469362
-0.23171763
-0.056985945
-0.14255118
-0.02768361
-0.13901165
-0.023922773
-0.036150586
0.022232767
-0.120540634
0.18117777
-0.0770738
-0.047940876
-0.18195552
-0.2426375
0.021339847
0.019149367
-0.054431133
-0.06404795
-0.114962704
0.04032706
0.09933011
0.024493739
-0.090628915
-0.27980632
-0.04052416
0.15910196
0.108929306
0.097576156
0.03170857
-0.04479771
-0.10323077
-0.4078824
-0.09761111
0.06840871
-0.2129614
0.04882497
-0.008025517
-0.2409804
0.03103515
0.09512813
-0.12581895
0.03283326
0.0942186
-0.012593088
-0.039026562
-0.035848133
0.15495907
0.17375617
-0.028273696
0.29061884
-0.02155377
-0.048806053
-0.09281038
0.17645752
0.18430784
0.018624857
0.022119354
-0.015732154
0.0033638661
-0.20139255
-0.05465282
0.007475064
0.14996144
-0.037226923
-0.08995988
0.1502982
0.10454232
0.004388154
0.11382727
0.11406197
0.04370311
0.2655599
0.17071353
0.080735244
-0.16703524
0.11444304
-0.061610162
0.08114377
0.06464374
-0.20919992
0.16584216
-0.018869257
0.08076936
0.17189966
-0.051477645
0.011496784
-0.076163694
0.15852043
0.09662268
-0.06338425
0.08812531
0.15571332
0.20420893
0.025699945
0.032175
0.020465551
0.23598364
0.04574265
-0.020523408
0.11306916
-0.057368394
-0.043670077
-0.12087403
-0.05438641
-0.118023776
-0.08135919
-0.023650106
0.11022566
0.008201281
-0.1879394
-0.012628093
0.049732063
-0.081203766
0.08814664
-0.14671637
-0.06067618
0.053827416
-0.15978648
0.044653542
0.027338682
0.02731509
-0.14956854
-0.10672691
0.36458242
0.08036081
0.047640283
0.12064457
0.3323395
-0.0006434897
0.08834712
0.015897397
-0.050041698
0.12897147
0.12719136
-0.20566939
0.06831499
-0.026941923
-0.11407205
0.25743127
0.12449045
-0.022017725
-0.104211494
-0.13621722
-0.0005658961
0.10361521
0.13719836
0.15003482
-0.08597187
0.11385116
-0.037335906
0.008041054
-0.08561866
-0.09716826
-0.19063477
0.09575535
0.21122913
-0.027099598
-0.19178279
-0.1280524
-0.077512644
0.10277758
-0.041723583
0.08174053
-0.14587317
-0.016129978
0.21657419
-0.082644865
-0.09382054
-0.024252344
-0.10599797
0.1514957
0.09553817
-0.103738956
-0.12635587
-0.022248037
0.12238489
-0.060399357
-0.15805283
-0.088604376
0.25977823
0.36756328
0.06533612
-0.02106423
-0.049888138
0.11939997
-0.057675254
0.009565207
-0.02104408
-0.25184542
-0.02646008
0.11022344
-0.051940672
-0.27209672
-0.20169543
-0.11103856
0.019035973
0.07297317
-0.045161676
-0.1835923
-0.11208414
-0.16239119
0.011685907
-0.16384289
-0.21545683
-0.13276298
-0.10214614
0.0004036483
-0.057237063
-0.014319765
-0.19925828
-0.06685821
-0.20046385
0.024108224
-0.12005615
-0.06957311
0.016199067
0.17587437
0.015370331
-0.09303843
-0.11010097
0.07463184
0.2165453
0.08849907
-0.008343806
0.25605318
-0.17483868
-0.21333437
-0.06958627
0.20450823
0.0341858
0.022259057
0.12742737
-0.025825623
-0.12194826
0.16491249
0.058053136
-0.10538795
-0.10671301
0.30894622
-0.053072322
-0.01027102
-0.0313355
0.077422865
0.15755285
0.13890152
-0.021106932
0.14887097
-0.06589017
0.032288942
-0.05611133
0.083044395
0.04172903
-0.14093503
-0.09308005
0.06277926
0.088045865
0.005443898
0.1747495
-0.26440436
-0.17057537
-0.025054744
0.010045492
-0.12711647
0.047420703
0.031409606
0.005267022
0.010193939
0.10969529
0.23801057
-0.056791704
-0.10527514
-0.055418212
-0.09060368
-0.12632568
0.07556399
-0.041296087
-0.094301604
0.19889252
0.06380021
0.12260528
0.07872895
0.019845588
-0.0061070966
0.051509216
0.010682093
0.11807897
0.23233636
0.14323193
-0.04242295
0.023471704
0.0209154
-0.0026943544
0.12424203
-0.20474611
0.061052177
0.01694974
-0.010400289
0.015654158
-0.021892117
-0.12323476
-0.029435027
0.17440848
0.17995322
-0.09196895
-0.20952289
0.12774508
0.09865649
0.24343914
0.072533116
0.05025252
0.17167196
0.06704667
-0.16165592
-0.016007321
0.037773676
-0.06256157
0.26231772
-0.25250673
-0.1708565
-0.23865044
-0.061801337
0.014240122
0.10778051
0.20966195
0.0802696
-0.057229824
-0.037615698
-0.15001693
-0.12716383
0.12061676
0.1324727
0.06893591
-0.062969856
-0.062945075
-0.093831934
-0.10838905
0.04703578
-0.094581515
0.03839986
0.12142198
-0.057300586
-0.07772066
0.15386519
0.038949385
0.027554667
-0.17120837
-0.27273342
0.0015626883
0.029262705
0.045974113
-0.18253814
-0.024841726
-0.030186515
0.31447253
0.01880941
-0.2802573
-0.03931689
0.18456627
0.08379256
-0.13095392
0.02090295
-0.102948576
0.056828193
-0.010230744
0.12250272
-0.085123144
-0.008415066
0.10963255
-0.026315937
-0.12724687
-0.035852708
0.1089238
-0.055901434
-0.011955032
0.24227808
-0.014920624
-0.07262047
-0.051845208
0.03999305
0.16000305
0.06506715
-0.17746723
0.13220762
-0.16871712
-0.008459561
0.2583845
0.06696748
0.01159428
-0.15173638
-0.07814022
-0.06495957
0.14865652
0.022224624
0.25156116
-0.049379352
-0.034217462
-0.05358697
0.034187853
0.29521194
0.022518745
-0.101110354
0.14046997
0.015612957
0.064288296
0.057542764
0.030257778
-0.053577475
-0.09569035
0.07278677
0.3408467
-0.016145092
0.25039214
-0.047790863
0.055037446
0.14708628
0.13894403
-0.004345617
-0.007144921
-0.092519
0.031459108
0.0935556
0.083840035
-0.03911237
-0.104958184
-0.02051011
-0.12935533
-0.06600519
-0.12714913
0.079803206
-0.026060358
-0.019951815
-0.07043946
0.12888035
-0.060633376
0.09106374
0.07005443
0.18817551
-0.08812312
0.15699005
-0.043757424
-0.027167542
-0.16773419
0.21479896
-0.16123162
-0.04843778
-0.19904603
-0.041339803
-0.044829387
0.09925573
0.09619483
0.047399264
-0.037832357
-0.012969412
-0.035937335
0.0026565518
-0.12370061
-0.08068113
-0.24812856
-0.022144215
-0.0070134834
-0.05484735
-0.07534967
-0.04722381
-0.071308315
-0.029960413
0.13257883
-0.21540785
-0.03271912
-0.10656537
-0.13041748
0.02865905
-0.1947823
0.15182759
0.053685088
-0.00797533
-0.13839522
-0.03777911
-0.15913096
0.24524741
-0.1175624
-0.09333999
0.15594018
0.019660506
0.043948065
-0.010882914
0.0082008755
-0.06901355
0.00063335645
-0.07375864
-0.26240456
-0.046889015
0.036436893
-0.051583063
-0.15812021
0.01124102
-0.02041981
-0.08743551
0.029191632
0.01900515
0.1531797
-0.1588191
-0.033560384
0.058231022
0.037184976
0.3137419
0.14975965
-0.1580447
0.016506461
0.2965006
-0.021943485
-0.18811592
-0.09052432
-0.17149931
-0.17371799
0.02468689
0.20205206
-0.13632631
0.002924502
-0.002265101
-0.12049603
-0.22176176
-0.2523771
0.04082904
-0.1423487
0.071578026
0.021960007
-0.123049945
0.020135935
0.096007526
-0.02532053
0.10546835
0.02431537
0.00902981
-0.13927902
0.07467083
0.16925204
0.10105719
-0.17351213
-0.012600243
-0.06382182
0.058272697
0.11225291
-0.009723584
-0.03544633
-0.10594933
-0.10241031
-0.04848526
-0.062233236
0.02274596
0.19916716
0.007237293
0.1906295
0.13844422
0.024886047
-0.33239472
0.06840005
-0.12409693
-0.052089997
0.3420846
-0.127307
-0.1390345
-0.031326592
0.15251397
0.1351276
-0.12826754
-0.24243067
-0.16500273
0.06902775
0.048304215
0.086493954
-0.1456494
-0.075466424
-0.2664574
0.008372395
0.04756664
0.09107023
0.025004145
-0.15011515
-0.010611925
0.0023139743
0.07246053
-0.08633145
0.12277697
0.019493861
0.06440394
-0.07403856
-0.02190691
0.23317003
-0.16487022
0.028308092
-0.03667498
-0.05728419
-0.03332168
0.044639383
0.15657496
-0.111421846
-0.13160123
-0.014585021
0.043468833
0.19469503
-0.17525725
-0.014226867
-0.15625744
0.057668123
0.025646862
-0.12742083
-0.008258161
0.2537598
-0.14591563
0.014037365
0.0997088
-0.09500831
0.07877645
-0.17162666
0.056773476
-0.081363276
0.12519296
0.23983538
0.18064038
-0.1330694
0.028566668
0.18214245
0.055049084
0.0114184115
0.08689797
0.1045974
0.31316566
-0.031993415
-0.21413496
-0.18595222
0.18371986
-0.08855481
0.20857401
0.03942759
0.053593308
0.017075302
-0.07662922
0.17716779
0.17634422
-0.089797705
-0.072753526
0.039909292
-0.037078544
-0.039586894
0.08625497
0.14908844
-0.04616514
0.061311148
0.015440604
-0.14193057
-0.00030418416
0.023987267
-0.004911011
0.046293054
-0.027914278
0.044350166
-0.13804594
0.008379821
-0.14356703
-0.04495512
-0.13652106
0.030060139
0.07229979
0.042230677
-0.042799283
-0.1458236
0.05622493
-0.11282436
-0.080228135
0.13897477
-0.1425259
0.045480963
0.04048955
-0.14063422
-0.026140222
-0.011112269
0.055684168
-0.011911422
-0.045669902
-0.0824142
0.007559747
0.1257565
-0.005162472
-0.019556448
0.008701919
-0.025511127
-0.13630044
-0.08822141
0.036824178
-0.03816297
-0.02533524
0.082722984
0.3524982
0.10086063
0.0052071176
0.011492832
-0.059154406
0.07546648
0.06730474
-0.0994003
-0.039018884
-0.09758823
0.17886321
0.09796358
0.01725098
-0.024914375
0.04568242
-0.13967113
0.091549024
0.09149564
-0.16640735
0.030365277
0.030134581
-0.0069956332
0.08516559
-0.19484226
-0.097853124
0.20827349
-0.26151526
-0.18450087
0.26172397
0.10182391
-0.3139461
-0.0040533794
0.07803932
0.04725056
-0.15605648
-0.054745432
0.012357919
0.051358998
0.096914954
-0.05994388
0.1319127
0.16694756
-0.15955758
0.016227776
-0.12680739
0.13823627
-0.15339318
0.0030293132
-0.01341251
0.10718985
-0.05007185
0.09864574
0.005198701
0.130686
0.0063036806
-0.06297154
-0.049680464
-0.06250442
-0.09165425
0.1714064
0.016306443
-0.017043253
-0.052168738
-0.19147523
-0.11430697
0.07063923
0.16712391
-0.10417588
-0.041779436
0.18924
0.13087894
-0.10934501
-0.1881066
0.18523933
-0.11102141
-0.020733355
0.042428467
0.047577456
-0.18398355
-0.07393612
-0.05877745
0.1462488
0.21615154
-0.06804303
0.02021767
0.019624673
0.003433835
-0.09729669
-0.1170955
-0.13110138
0.17731853
0.04667193
-0.091730036
0.050756026
0.24819712
-0.1876614
-0.01646814
-0.09276831
0.020827033
-0.10340393
0.057870094
-0.0064960793
0.03744083
0.020949904
0.13792787
-0.09572452
0.2673543
0.15237369
0.0080968905
-0.067053854
0.12145767
-0.00164697
-0.04898954
0.13869803
0.0683719
0.034276605
-0.12809934
-0.26156893
0.14782673
0.061233476
-0.10175024
0.003950635
0.2583369
0.025264274
0.040784802
0.047564644
0.22761476
-0.115909666
0.027538365
0.03280304
-0.1112759
-0.11707487
0.05049863
-0.34763205
-0.050976604
0.30023527
0.07438856
0.18956694
0.1475396
0.028984573
0.02373382
0.003639034
0.10595212
-0.11090125
0.057547588
-0.04320851
0.049980376
0.0567303
0.10115921
-0.045612495
0.032143738
-0.022184275
-0.14913225
-0.0034752928
-0.053514037
-0.001546344
0.105641864
0.09633878
0.019123714
-0.10423308
0.24053155
0.078811795
-0.0920129
0.03478067
-0.052311484
0.1657205
-0.19572613
-0.088343136
0.064553015
0.004053548
-0.13245116
0.0067507536
0.02536729
-0.11266987
-0.06628531
0.0974398
-0.06688884
-0.08075501
-0.08772709
0.020973751
-0.25244215
0.03819493
-0.23437867
-0.14518285
-0.07294836
0.098422855
-0.084719084
-0.10179894
-0.10854126
0.00029285703
-0.0720668
-0.077839956
-0.009131615
-0.12301583
0.16434918
-0.008338381
-0.043124117
0.08959204
0.020844327
0.044692237
-0.072721384
-0.045140214
0.019170722
-0.086479895
-0.03944696
0.052692015
0.015957823
-0.13255924
-0.13818301
-0.16207328
-0.0021150042
3.5305828e-05
0.09532929
-0.0050257156
-0.060060553
0.061753657
0.08666882
-0.06899558
-0.15141337
0.009187513
-0.13090047
0.08024696
-0.10852147
0.0018459733
0.13180251
-0.19300382
0.17463143
0.07600173
0.08913558
-0.19134387
0.04441692
0.11488756
0.19799314
-0.055054568
0.07371085
0.11961036
-0.17798664
0.2145766
0.0019229894
0.01252846
0.064460084
0.047136463
0.028114337
0.05142681
-0.056135442
-0.21439122
-0.083578706
0.09877559
0.07726334
-0.14229539
-0.038226943
-0.19746038
0.19289307
-0.09617309
-0.17583147
0.012913391
-0.0574408
-0.14309324
0.007933942
0.11200199
-0.06640858
0.12785934
-0.021309461
0.08293011
0.071108274
0.054995246
0.0039274306
0.2620117
-0.3041746
0.051961828
0.13890181
-0.29527423
0.110215716
0.11012786
0.16473256
-0.15458012
0.08099501
-0.013734247
-0.047095805
-0.21056795
0.14396405
0.06483299
-0.14244719
-0.03313097
0.1639876
-0.15017651
0.22957282
0.19670814
-0.1149276
-0.11626236
0.029344697
-0.054702695
-0.13211356
0.19790114
-0.1114043
0.08073017
-0.004798661
0.11845712
0.20895797
0.029995942
-0.06746257
0.2658487
0.1045251
0.0554651
0.04635233
0.14924918
-0.22005665
-0.164222
-0.17932083
0.20000395
0.040403984
-0.20098439
-0.067087196
0.028487345
-0.12254703
0.12265767
-0.10856979
-0.14464714
-0.020848801
0.057334702
-0.18041508
0.039685085
0.0636236
-0.10157013
0.05025088
-0.041507512
-0.016130138
-0.35760206
0.0074157375
0.13423316
0.09795477
0.049488343
0.02051157
0.030122675
0.091443405
0.24570438
0.06680835
-0.20482115
-0.20862661
-0.16806799
-0.3377361
-0.055767555
-0.0123091405
0.16199902
0.18155657
0.10981107
0.11633004
0.07750661
0.05346795
-0.0024968423
-0.07358016
0.045656808
0.23606052
0.007578587
0.22589606
-0.098274566
0.02192252
-0.0803328
-0.06383474
-0.027822746
0.026167253
0.0037947765
-0.1910423
-0.017461488
0.3036515
0.056962594
-0.11047738
-0.10618419
-0.011629027
0.022511153
-0.050864693
-0.043395493
0.029635472
-0.06776498
0.08573635
-0.052544788
-0.011780397
-0.04416311
0.18513392
-0.34141037
0.074218534
0.11616886
0.10195827
-0.019969478
-0.19489062
0.12166826
-0.26254204
-0.047445975
-0.041153368
-0.05991563
-0.22036305
0.15405223
-0.19122931
-0.014655163
-0.02188536
0.0797143
-0.047375172
-0.059063353
0.13622475
0.12038678
-0.1896273
0.12452968
0.101673044
0.16352102
0.05638262
-0.026655462
0.23435847
-0.10231328
0.066405796
0.26193902
-0.07227187
-0.019581001
-0.21441801
0.04572087
-0.14761966
0.01649513
0.05986744
-0.19388112
0.17103636
0.04322293
-0.03536965
-0.08090936
0.09277103
-0.15254317
0.045758247
-0.1868056
0.025589148
0.012888593
0.057293095
0.08830619
0.13276997
-0.025224544
-0.12765543
0.13510235
0.044264436
-0.21469152
0.049600717
0.08700526
0.020683693
0.071600504
-0.001187301
0.03682897
-0.03062246
-0.14139014
-0.30277082
0.16296636
-0.23934165
-0.027842281
-0.12049288
-0.10833307
-0.2917493
-0.0014434551
0.1424099
-0.102470286
0.04598854
0.11257446
0.13367268
0.00019915521
-0.07865156
0.005640101
-0.11111644
0.04079545
-0.10079875
0.18753736
-0.008638449
-0.02850073
0.11865394
0.020550769
0.044410136
0.1666876
0.07674973
-0.085237995
-0.044019047
0.20079899
-0.17362516
0.103027515
-0.10174216
0.020308984
-0.04258268
0.038862575
-0.29943898
-0.13786185
-0.18224674
0.03142796
-0.21466868
-0.12199192
0.23895252
0.009916761
-0.099672504
0.05349366
0.031892717
0.16019838
0.2895523
0.04644458
-0.013721007
0.09012389
-0.015589839
0.081702
0.034959104
0.11969657
-0.045243356
0.090122476
-0.11147375
-0.24567795
0.07222124
0.030731501
0.006915071
-0.00702899
0.039812885
-0.13067053
-0.14871053
-0.22996108
0.1471876
-0.038921323
-0.13527244
0.018708356
0.10535667
-0.044970345
-0.05366107
0.07952203
0.10142416
0.002917659
0.019306479
-0.06102857
0.27912843
0.10112171
-0.06386508
0.029805375
-0.1194472
-0.22172388
0.13615277
0.1102538
-0.15833226
-0.22868918
0.27650377
0.03820035
-0.010290866
-0.021677006
-0.06155702
0.0757211
0.042068847
0.13470984
-0.19144288
-0.10978043
-0.09467847
0.057499737
0.08138977
0.19027595
0.1625156
-0.13925408
-0.114876874
0.0011247395
0.070712514
0.10508653
-0.16142341
-0.2541854
-0.007051959
-0.065443836
0.045124494
-0.038072802
-0.10365518
-0.042998407
0.16051088
0.18840696
0.118186764
0.076171406
0.004985874
0.035340786
0.0024943925
0.06858812
0.29058942
-0.03591679
-0.0039819544
-0.04802526
-0.009395132
0.047127984
-0.00024200729
-0.0910719
-0.034015425
-0.16009991
-0.07732444
0.19346203
-0.07112868
0.062830836
0.14427187
0.19120798
0.1769803
-0.014999251
-0.09683872
-0.07128472
-0.051012516
0.11416668
-0.004881149
0.24907291
0.041930865
-0.07224039
0.11991025
0.020518236
-0.1540759
0.14531298
0.13072038
0.16144559
-0.018490015
-0.123916194
-0.08718397
-0.11440471
-0.031131031
0.15614523
-0.2569874
-0.032790232
0.060984537
-0.27906144
-0.09976434
0.06320753
-0.008283212
0.15220499
-0.0031817819
0.06422027
-0.10760465
0.16801679
-0.1819477
-0.016264725
-0.122621335
-0.13519028
0.037269812
-2.568012e-05
-0.1407811
-0.015021739
0.079705924
0.020564971
-0.13550839
0.08669472
0.14437975
-0.08931566
0.072192855
-0.018696975
0.013146266
-0.005682493
-0.08579769
0.109984204
-0.14584859
-0.092245795
0.00934998
-0.1666694
0.14091979
0.0706724
0.00054412306
-0.10754461
-0.011618095
0.0017045201
-0.28212836
-0.09861157
-0.033860408
0.17051587
0.22670913
-0.092515245
0.19283782
-0.044732925
0.00798315
0.044106286
0.0013190205
0.07734385
0.14932872
-0.016518457
-0.06252121
-0.030400796
0.11100579
-0.06450444
-0.23064709
-0.113736324
-0.060792968
0.0108082965
0.083048336
-0.021164041
-0.037920468
0.041041497
0.14800194
-0.2330705
0.19028473
0.0464807
0.09615161
-0.07060615
0.120021924
0.0072566024
0.15453136
0.04844185
-0.012694474
-0.089756005
0.054013573
-0.23642913
-0.01842331
0.10211803
-0.08873655
-0.1294586
0.06367992
-0.002165822
-0.034537774
0.10712797
-0.22709744
-0.042919666
0.1355417
0.06989797
-0.04064902
-0.001757179
0.11125092
0.014062542
-0.06747074
0.15233506
-0.021254888
-0.04242042
-0.070868686
0.01419458
-0.15312168
0.16308339
-0.16548221
0.056715906
-0.08554404
-0.019678101
-0.12998685
-0.010109835
-0.01599027
0.21430567
0.057981085
0.043617174
0.24832061
-0.02122893
0.0593053
-0.056257755
-0.10540336
0.14375435
-0.027309531
-0.041882418
0.025290424
0.047158718
-0.01311407
-0.094694965
-0.07301869
-0.10839594
-0.06792377
0.0009074705
-0.014647868
-0.16259357
-0.031202735
0.23467429
0.18271324
0.031489834
-0.023288257
-0.09099785
-0.05287472
0.15937701
-0.08585258
-0.082607456
0.013381302
0.025804797
-0.04116994
-0.048913945
-0.12671044
-0.059570123
-0.07144134
0.0166329
-0.13635948
-0.046298213
0.038035884
-0.22780631
0.04897603
0.14683707
0.1159217
-0.14891079
0.016520541
0.008139383
-0.20683703
-0.03563747
0.10382055
-0.11991619
0.0075574643
0.09617014
0.14299646
-0.081710316
-0.20671344
-0.04201361
-0.067079656
-0.002170276
0.10085528
-0.06794099
0.066023245
-0.009347546
0.11740378
0.040305194
-0.054883674
0.13374187
-0.10568458
0.07784065
-0.22961488
-0.03651765
0.007926524
0.008242229
-0.044909876
-0.06418529
0.1244777
0.14758076
-0.061828934
0.083165914
-0.011783491
-0.012136488
-0.23226757
0.13691233
0.06391441
0.13058162
-0.18565553
0.019250534
-0.17069407
0.045774993
0.023629807
-0.1243783
0.046432044
-0.074296854
-0.017363153
0.09945654
-0.052153677
-0.091838025
-0.07105811
0.030814283
0.002052191
-0.29399756
-0.010405969
0.13929406
0.059688624
-0.320274
0.12702146
-0.0757733
-0.10222676
-0.003865847
0.074155174
0.218549
-0.043271147
0.17650196
0.11767041
0.1754756
-0.1389741
-0.061617468
0.07197925
0.103518665
-0.12003158
0.17573172
0.004824444
-0.34903532
0.08222625
-0.0863293
0.27711457
0.114097625
0.16746737
-0.054386035
0.09372574
-0.05230821
-0.0023584762
-0.12880401
-0.13598551
-0.1561221
0.120456845
-0.034633502
-0.07139559
-0.06704537
-0.35305342
-0.148905
0.21277785
0.09874433
-0.2560625
-0.013544368
-0.020172717
-0.17338626
0.09403704
-0.08498926
0.019215865
-0.04423883
-0.07808143
0.014275895
0.24378756
0.07007917
-0.18382046
-0.18822677
-0.055707816
-0.14940065
-0.03133419
-0.013226927
0.05705166
-0.2109413
0.10676588
0.11935194
0.2789166
0.06953749
-0.054484498
0.2505016
0.07835866
-0.0015930078
0.10182486
-0.022789242
-0.10580472
0.00322483
-0.30205452
-0.027629297
-0.022669654
-0.04267002
0.1651916
-0.12127629
0.24301465
-0.034081813
0.12254385
0.1014045
0.076751575
0.089127816
0.17394885
-0.12380979
-0.09932187
0.09896059
-0.029819783
-0.10584374
0.06992311
-0.017100202
-0.03598915
0.0058199274
-0.0035312392
-0.031910937
-0.2661474
0.008302655
-0.06839202
-0.20706205
-0.16311988
-0.21480043
-0.10938587
-0.23458828
-0.029293835
-0.105453074
0.23722316
-0.11886425
-0.061891638
-0.0721255
0.018151188
0.04903814
0.121380664
0.021834586
-0.02051552
0.20527795
0.21811277
0.046155192
0.16048224
-0.001171984
0.040472873
-0.042158414
-0.032770187
-0.061737116
0.015353678
-0.012638884
0.12233718
-0.15035987
-0.03798609
-0.041163575
0.020915596
0.20925032
0.00029432095
0.04192677
-0.04552917
-0.10744355
-0.17785518
-0.111983374
0.18378578
0.15310834
0.12974863
0.15522642
-0.15065478
-0.08547463
0.07434435
-0.035270277
-0.10936879
0.093294024
0.048356175
-0.08785105
-0.021405052
0.032547724
0.008223734
-0.21130879
-0.20308836
-0.13785172
0.02863666
0.21497683
0.0063387826
0.26117018
-0.21564288
-0.0460448
-0.102299705
0.07745606
-0.024955418
0.0151072815
-0.03800594
-0.15220296
-0.030136202
0.06569634
-0.09243849
-0.041633092
0.22131337
0.20020391
0.06357488
0.15203394
0.11494525
0.010134818
0.043649804
0.09839587
0.21215875
-0.2866713
-0.09637072
0.054337114
-0.016342074
-0.07890761
-0.10695022
0.05049908
-0.14278615
-0.0914483
0.044268988
-0.1781995
0.04493003
-0.0035236955
-0.040035266
-0.09906187
0.023727959
0.009819032
0.09717021
0.13483992
0.039718676
-0.035862554
0.13055915
-0.06093261
0.0452306
-0.19461362
0.011265943
0.11601153
-0.037852466
-0.107531905
0.06817984
-0.1032795
-0.17615342
-0.08890812
-0.00031900167
-0.07206731
0.12230009
0.0033141018
-0.15393163
0.15627931
0.09898988
-0.24773048
-0.15543632
0.09820521
0.1100424
-0.0045605297
-0.019553687
-0.07097571
0.13604671
-0.025987593
0.027695453
0.14569788
0.20586348
-0.047587372
0.11243625
0.03838866
-0.0850098
0.085692145
0.117741264
-0.050177492
0.06618467
0.10309938
-0.036521543
-0.07958326
0.082072094
0.0052654496
-0.03806325
-0.21961026
0.2105711
-0.049994346
-0.010967704
-0.06466776
-0.27283758
0.0009319573
-0.09510771
-0.07215406
0.16097562
-0.04488868
-0.0050259046
0.15583117
0.08860139
-0.07427638
0.13265093
-0.16529529
0.037141398
-0.23907144
-0.16022882
0.17200328
-0.024819957
-0.057271678
0.02466097
-0.0656103
-0.1051961
0.05162636
-0.19350922
-0.1228091
0.00033301092
0.06495512
-0.009055696
0.23835836
0.038229465
-0.18333463
-0.22317487
0.04290354
-0.1907591
0.00083942054
-0.2190641
-0.022156425
-0.038060207
-0.12243576
0.05630369
0.035690267
-0.05911767
-0.17227022
0.05265492
-0.16465898
-0.029497243
0.08964178
0.061622106
0.07178564
-0.12767586
0.031184463
0.0335348
0.11324228
0.21710502
-0.18475169
-0.13713156
0.013203281
-0.19546787
0.15836346
0.004210561
-0.05595724
0.20773543
-0.066333055
-0.13536406
0.11569608
-0.072776526
-0.022116782
-0.18174827
-0.05812132
0.15693457
0.08697959
0.0030533022
-0.014845431
0.007963752
-0.19859752
-0.016609507
0.025962524
-0.039966635
-0.10220103
0.28373596
-0.0026663651
-0.07531889
-0.13553655
-0.06826213
-0.14098077
0.078220166
0.05444294
-0.14772817
-0.2429843
0.021729697
-0.2044996
0.080781415
0.103564486
0.08337424
0.029964533
0.08586881
0.07351756
-0.19429255
0.0016088824
0.07272722
0.1966465
0.07999356
-0.049179774
0.09625241
-0.021913026
-0.0721728
0.10535208
-0.14191465
0.07739043
0.12596017
0.24351193
0.13637467
0.048717193
-0.22937326
0.09241278
0.104621306
-0.033050068
0.024776315
-0.028154003
-0.087672375
0.14243189
-0.09212217
0.01296078
0.14830488
0.015686683
-0.014651261
-0.076576956
-0.022996455
-0.20300893
-0.012245536
0.26724133
-0.09820974
-0.18559727
-0.10501666
-0.13595645
0.1196701
-0.13434426
0.15358241
-0.02139669
0.09914518
-0.018255766
0.2674211
0.020208107
-0.18444934
-0.19520059
0.014081748
-0.21365136
-0.25780877
0.12633014
0.07965921
0.023279723
-0.28504843
0.120436095
-0.004769169
0.020530324
0.18915875
0.0006987129
-0.018675933
-0.05114222
-0.10759443
-0.15685768
0.028450204
-0.15582533
0.10828017
0.061415438
0.037703507
0.01363953
-0.0136415865
0.05463607
0.028644023
0.026270216
0.051375266
0.023092318
0.100005336
0.0063053677
0.18939896
-0.21851487
-0.054981995
0.015004428
-0.119362436
-0.072835594
0.07546583
-0.0627374
-0.011586122
-0.12218725
-0.1961705
-0.0050848015
-0.11823641
0.039922312
-0.07797203
-0.019676432
-0.08333037
0.19085121
0.038695756
-0.29120648
-0.21294814
-0.026559992
0.026135493
-0.045261778
-0.025619263
-0.045092184
0.041775484
0.17979021
-0.0560526
-0.11262438
-0.15008713
-0.15857911
-0.14619583
-0.19139251
0.04295688
0.18265122
-0.046904095
-0.14987734
0.13214386
-0.11654948
0.22595392
-0.08479852
-0.13188566
0.11132154
0.18284707
-0.27376056
-0.10797586
-0.0062700445
0.27432293
-0.023408959
-0.10844102
-0.09296094
-0.03817732
0.027359046
-0.08421058
-0.048204564
-0.061986245
0.022735659
0.015849622
-0.02989692
-0.10336693
0.011291441
0.16051778
0.13938038
-0.17051873
-0.22215973
-0.011896832
0.04801207
0.062369652
0.06492462
-0.09168448
-0.068322875
0.033839468
-0.07103997
0.15654308
-0.016523018
0.0765674
0.12030993
0.2391213
0.035072338
-0.0963633
0.07786035
0.10788286
-0.25934976
-0.0059786597
0.11935446
0.07956087
-0.20555069
-0.26493096
-0.007473511
0.21386647
-0.015388994
0.07531415
-0.14878896
-0.12960862
-0.044405606
-0.032446664
-0.064662725
-0.052475084
-0.15092546
-0.08753467
0.017809244
-0.098805524
-0.14925861
0.14928396
-0.0045549637
0.045242
-0.33444375
0.082000725
-0.07153341
0.102498055
0.081059255
-0.047648765
0.12160256
0.09249753
-0.12574968
-0.026499942
-0.04449476
-0.1674563
-0.13386129
0.108098485
-0.1238085
0.058454927
-0.11552886
0.11003052
0.07008163
0.13671418
-0.042386867
0.06288568
0.012683119
-0.0023483662
0.21983564
-0.02200573
-0.18053715
-0.009160121
0.19820622
0.19219033
0.04180946
-0.038045794
-0.06366933
0.09166499
0.039086
0.014478134
0.24261063
-0.08480698
0.09348647
-0.06077648
-0.027864043
-0.1335799
0.039951276
0.06693324
0.045345437
0.0032716831
-0.119985536
0.11810106
0.033611353
-0.08059303
0.14997002
-0.0129915
0.20149519
0.0010717456
-0.048455033
0.026641443
-0.06452787
0.01972276
0.055521473
0.024379656
0.011842403
-0.050037157
-0.15282036
0.21422222
-0.056924775
-0.07815843
0.018122219
0.14997515
0.05425962
0.029802708
0.15443583
0.043112256
-0.07502578
-0.09555039
-0.14796132
0.021693815
0.06273012
0.111357465
0.17036727
0.1363439
-0.04698657
0.14931999
-0.27166694
0.075109415
0.042557556
0.03619317
-0.013299396
0.2614526
0.00883567
0.14182061
-0.25106153
0.07764447
0.0398789
-0.21937738
-0.03722146
0.017178198
-0.057360858
-0.077791795
-0.11914375
-0.015298405
-0.07292285
-0.19480981
0.16319756
0.043230526
-0.0690319
-0.040163785
-0.17171173
-0.0063881804
0.008687299
0.02595815
0.15610443
0.086983904
0.19058914
-0.101545356
-0.1118169
-0.08961653
-0.025591971
0.018940669
-0.22271302
0.2627456
0.06463483
-0.010911512
0.08133295
0.08968727
0.16623786
-0.26969028
-0.14464681
-0.12995802
-0.10350017
0.018026387
0.019997742
-0.18228023
-0.18531328
0.025339646
-0.117321156
0.0057005268
0.10933639
-0.025150213
-0.06812759
0.10961517
0.029350193
0.02059398
-0.025301076
-0.18255872
0.0041636117
-0.21203227
-0.03309005
-0.13915794
-0.14736398
0.11214235
0.0071918704
-0.04527628
-0.23331892
-0.04960321
0.17354831
0.3063737
0.05754791
-0.009082797
0.10155679
-0.094719864
-0.07919762
0.087391116
0.016161993
-0.053465582
0.12302909
0.0652396
0.145485
0.08694166
-0.033246424
0.066001475
-0.09543703
0.038044594
-0.02016872
-0.24173525
-0.046966713
-0.030438745
-0.08193944
-0.012062651
-0.06960726
-0.090648696
0.09046037
0.012251627
0.074716926
-0.0770944
-0.12800178
-0.08796911
0.15105209
-0.07899431
0.11885938
-0.073906496
-0.0052691773
0.0480553
0.006370911
-0.08724004
-0.009129312
-0.15090711
0.029050827
0.11507187
-0.034734596
-0.017163904
-0.09278849
-0.20256682
0.35188183
0.051795643
0.034857757
0.14608173
0.025823412
-0.04471867
-0.38853434
0.018946419
0.048767235
0.048929997
0.32937974
-0.09424718
-0.024854219
0.16112475
-0.04286708
-0.018394131
-0.04612943
0.06170105
0.1173555
-0.080634594
-0.06557995
-0.04386393
-0.021525824
0.32350758
0.061689455
-0.01535676
0.08291162
-0.08963532
0.15949653
-0.021778582
0.082995765
0.008633193
0.110573605
-0.18452014
-0.177782
-0.12799993
0.08230383
0.13684815
-0.059660837
0.14284676
-0.01577575
0.08544475
-0.018052848
-0.09713402
-0.04781576
0.042937186
-0.037579253
0.16024745
-0.2724355
-0.029251767
-0.3727536
-0.10311577
0.19883384
-0.2149387
0.12013644
0.21786793
0.100163065
0.15720063
0.045656804
0.03108202
0.05201266
0.13322857
-0.13102007
-0.01931942
0.15998389
0.28411016
0.08891533
-0.10022855
-0.18553756
-0.09969578
-0.0014436366
-0.12472668
0.0055847284
-0.2923828
0.10076178
-0.03526278
-0.012454497
-0.06217303
-0.013091517
-0.13128497
-0.043547694
-0.16970958
-0.30537936
0.19640607
0.06085406
0.079577506
-0.0043438612
0.14414446
-0.016015163
-0.08050189
-0.13021855
0.086063124
0.22492991
0.018523002
0.09540992
0.018871967
-0.17843187
-0.025938557
0.008826521
-0.023437178
-0.06480826
0.36755493
0.13279854
-0.06449836
-0.048351478
0.09080414
0.0023069347
-0.103838615
-0.040164556
-0.27582997
-0.096128695
-0.12563606
0.1087108
0.2401416
-0.1145691
0.03862551
0.051471118
-0.15446664
-0.19655561
0.0688022
-0.040511098
-0.10110793
-0.1769622
0.057092458
0.1404475
0.023962509
0.034884457
0.13168183
0.16890627
0.07742224
-0.026098924
0.06738884
0.016351013
-0.12574849
0.07057242
0.059806287
-0.22098418
0.01852899
0.22911023
0.061033737
-0.01992747
0.19259216
0.21263987
0.23185766
0.1304084
0.06756601
-0.06091984
-0.2656498
-0.018317059
0.08037664
-0.043765638
-0.024532108
-0.02759081
-0.032778118
-0.07501634
-0.17259316
-0.048885316
0.13530019
0.14186715
0.060300954
0.0023738556
0.20271242
0.08164355
0.017675897
-0.08893487
0.16837226
0.10811661
-0.105892524
-0.3130397
-0.035661973
-0.026688877
-0.17122528
0.013817002
0.07412823
0.0071057067
-0.001305231
-0.015899178
0.1295302
-0.2954142
0.06672685
0.15361916
0.10168745
0.2717466
0.1450676
0.16657864
0.063633226
-0.19858854
-0.09531758
0.3167869
0.15370268
0.029832767
-0.09214026
0.10553574
0.1885125
0.1858249
0.15179765
0.0022118213
0.22728986
0.114561066
-0.17713161
-0.3499507
-0.08065864
-0.0070617283
0.055743296
0.12196053
0.08167174
-0.08538197
-0.0039577624
-0.09195559
-0.038854647
0.07907131
-0.016766006
0.19931334
0.040768452
-0.25409803
-0.33393353
0.07216878
-0.10759669
-0.044583987
-0.056804992
0.04295163
0.0077329306
-0.023170387
-0.168882
0.13215141
0.03686739
-0.042310245
0.044601537
-0.0070479023
-0.051129147
0.10864729
-0.214974
-0.15704575
-0.012198931
-0.034951374
-0.15061772
-0.31258026
-0.04293359
-0.060600776
0.052767012
-0.25851312
0.054834735
-0.07463491
-0.026906941
0.041994784
0.111986816
0.048498794
-0.21438676
-0.09653567
0.17113572
-0.14767055
0.05634318
0.16234788
-0.1613867
0.2154428
0.13202308
0.04379468
-0.012161405
0.031724565
0.22091739
0.0005403354
0.027405176
-0.14780083
0.15981817
0.02908115
0.27674747
-0.0497665
0.08768351
-0.09905466
-0.36213166
-0.006340761
-0.015725883
-0.12453399
0.0144612
-0.0046420703
0.09860003
0.17660147
-0.08949812
0.06355314
0.08726813
0.15525718
-0.06672078
-0.09490696
-0.21081145
0.1422527
0.19293115
0.0854805
-0.12603499
-0.027554885
-0.059227288
-0.06111436
0.10379959
-0.14004496
-0.13696724
-0.11844042
0.04948949
0.13002577
0.06584342
0.07693915
0.18922727
-0.23544465
0.040274795
0.054297354
0.06837143
0.26436815
-0.052898075
0.1415839
0.13644639
-0.009768454
-0.07226008
0.07940849
-0.10870539
-0.18394445
-0.029315561
0.0050625927
-0.15990669
0.09643698
-0.10637772
0.011034975
-0.027744161
0.04310521
-0.15128118
0.006185685
0.20631751
0.07469875
-0.14925586
-0.1477012
0.07676123
0.01829625
0.26217517
-0.24417837
-0.037157085
-0.01333691
0.15042046
-0.073927045
0.0062037366
-0.012517322
-0.0012817418
0.019242898
-0.04226273
-0.15192431
0.053375103
0.20111914
-0.049405843
-0.3042858
-0.10441727
0.12297165
0.01653218
-0.03181927
0.16173105
-0.27419153
-0.23723605
0.16396649
-0.4017744
-0.0046044644
-0.054578386
0.06807241
0.17626119
-0.07144375
0.010825307
-0.05023771
0.016772939
0.12231577
-0.14193429
0.15146904
0.18194973
-0.04198278
0.10255012
0.056027014
0.14262299
-0.031173803
-0.14592682
-0.12182098
-0.074094534
-0.09798285
0.4174685
-0.19425102
-0.061432473
-0.0742377
0.30775866
-0.014221349
-0.0019214735
0.081305996
0.085113905
-0.08559776
0.13775876
0.008355954
-0.031941947
0.14800303
-0.27108
-0.0893213
-0.0093621155
-0.11444932
0.11692077
-0.029759346
0.014345565
0.046985418
-0.074791744
-0.22630695
-0.30117798
0.031983703
-0.037021827
-0.012757181
-0.004065857
0.15972593
-0.02464591
-0.23719457
-0.10698656
0.032390423
-0.19517341
-0.0045218766
-0.112614
0.07443791
-0.10723684
0.115172155
0.024829816
0.05220882
0.2166533
0.051974844
-0.16264066
-0.041327175
0.1618544
0.26912
-0.098556206
-0.017328624
-0.046135724
-0.24201027
0.05895477
0.0010924619
0.0680277
0.025912236
-0.0758117
-0.098366044
0.1009808
0.15662113
-0.12271194
0.029393645
-0.16152048
0.10297702
-0.045223173
-0.040824473
0.00473061
0.09758832
-0.18868399
-0.11829999
-0.023352671
0.23141149
-0.10909506
0.07014822
0.14647381
-0.08628843
0.2642519
0.13029797
0.15626061
0.13437928
0.024687793
-0.1583891
0.035201862
-0.23545235
-0.056408577
-0.26797566
0.069876745
0.2247024
0.2257306
-0.028979424
-0.095233865
-0.043997742
0.08657634
-0.08514098
0.07246894
-0.09555637
0.07797364
0.158236
-0.13242775
-0.15567374
0.020865496
-0.03494501
-0.05748313
0.20174794
0.07926056
-0.014990953
-0.07973854
-0.172941
0.07028969
0.011728903
-0.021036163
0.21709241
-0.22671224
0.012366822
0.14886005
-0.21943344
-0.060366243
0.1359581
-0.13978527
0.19476995
0.0665587
0.23007558
-0.19256923
-0.13580285
-0.14634053
0.035184897
0.1037607
-0.029155564
-0.09690601
0.16362457
0.02330491
0.106184885
0.02091352
0.2368685
-0.12525217
0.19716586
0.04281859
-0.092150286
0.00953759
0.13742319
-0.042739764
0.1710406
0.11822425
0.0038676695
0.037895247
0.09318165
-0.091171585
0.060234196
0.16127332
-0.062121272
-0.16218159
0.099808484
-0.2850825
0.06182695
0.030071449
0.030169306
-0.18696864
0.03258097
-0.07780626
-0.3331482
-0.017619807
-0.092664085
0.11153416
-0.00032157233
0.011838951
0.11489107
0.103417404
0.00839641
-0.06473485
-0.025241388
-0.025109638
-0.09541395
0.08601182
-0.024678014
-0.12571314
0.014779092
0.24108215
0.012220917
0.038355757
-0.03529731
0.05585345
0.01431254
0.10051704
0.019920722
0.027320424
0.06357953
-0.10272812
0.14301881
0.13412456
-0.041146845
