-0.036130566
0.040546436
-0.020811131
0.07209262
0.19872092
0.036189564
-0.032155767
0.08904055
0.0052438644
0.18202266
0.034326997
-0.035734676
0.073687114
-0.13097985
0.053928975
0.017765248
-0.12665401
0.21347342
0.1456587
0.017626781
0.13256745
0.25097665
-0.10884215
-0.12335589
-0.019169366
-0.055831205
0.02341738
-0.051641274
-0.04510235
-0.15425159
-0.01660537
0.277683
-0.095696695
-0.085524276
0.14850591
-0.1450517
-0.18340993
-0.003637647
-0.010697245
0.15312235
0.123954765
0.05087141
0.20125063
0.030643879
0.17989622
0.017436333
0.08053921
0.057271063
-0.1440455
0.036983978
0.02413554
-0.060506094
0.06870291
0.2849676
0.1229323
0.03139774
-0.035635706
-0.06553555
0.32481638
0.09029802
-0.031795934
-0.024199275
0.19797298
-0.049846433
0.16777822
0.08575392
-0.0024023638
-0.027266653
-0.075839095
0.045466885
0.08609867
0.106967025
0.018987356
-0.16807434
0.036212746
-0.06292526
0.012244011
-0.12128981
-0.29135713
0.11289877
0.08729485
0.06298483
0.09539905
-0.06779202
-0.07592303
0.09275519
-0.023898972
-0.048728522
-0.041119233
-0.04298008
-0.13913316
-0.07417424
0.21098468
-0.056006182
-0.05354317
0.038191374
-0.08538761
0.077498965
-0.23864959
0.42896786
0.02442007
0.09648265
-0.07653545
-0.15282762
-0.09835175
0.16124906
-0.05567608
0.18644789
-0.023999857
0.34279016
-0.0976066
0.040189892
-0.063036695
-0.12452861
-0.23742926
0.067196
0.02562875
-0.008738524
0.008520866
0.08027307
0.06833604
0.102518916
-0.20660035
-0.2019583
0.048424255
-0.096795656
0.12381543
0.080401555
0.11244517
-0.011717146
0.013565489
0.03810235
-0.39142263
0.20285551
-0.105903275
-0.05051853
0.04104708
0.07551876
0.076573126
0.14640519
0.089589275
-0.06910009
0.029851595
-0.048827183
-0.05243937
-0.032699786
-0.11080645
-0.13437028
0.15776038
-0.056817353
0.1732086
0.28491434
0.12718642
-0.07621433
-0.18377444
-0.17048374
0.018886335
-0.01966288
-0.027492626
0.12251588
-0.3014084
-0.100181475
0.4575917
-0.23449343
-0.21233685
0.076782785
0.089805365
0.18338586
-0.14964943
-0.10725343
0.12073047
-0.05791528
-0.00017371315
-0.089222506
0.073501766
0.12756434
0.18181768
0.022454254
0.010579098
0.046010986
0.18838194
0.17179541
0.08855735
-0.05327326
0.15066853
0.090900846
-0.15443487
-0.051951505
0.03000404
0.083219856
0.03253791
-0.012782912
0.083909556
0.16611464
0.068326555
-0.019152885
-0.14955837
0.046163786
0.008856539
0.071552664
0.16302998
0.16957669
0.14733045
-0.013391302
-0.12062532
0.11218257
0.018722694
0.10673835
-0.19920386
0.21411882
0.16037273
-0.027569816
0.021143395
-0.15251854
-0.096587636
0.012979506
-0.048876915
-0.11214342
0.03162193
0.17634146
-0.012835668
0.17850852
0.068752274
0.0126881795
0.054478824
-0.15424204
0.0031040055
-0.016126437
0.26807985
-0.1288119
0.09476823
-0.17196193
0.082885996
0.12431592
-0.11012888
0.17164624
0.1450908
-0.054604236
0.110664286
0.008900546
0.11394108
-0.10768074
0.26856515
-0.21599695
-0.067634284
-0.12095002
0.07402108
-0.010247048
0.063596345
0.17847972
0.030137686
-0.0631624
-0.03643234
-0.07029314
0.1070899
0.0005976044
0.06229065
-0.13782342
0.016976818
-0.0773968
-0.21961087
0.008412799
-0.02753178
0.08165342
0.16298676
-0.038336635
-0.068122804
-0.09638484
0.1469797
0.05523054
0.03363042
0.04603507
-0.2251368
0.043794993
0.1952311
-0.10228573
-0.24273555
0.091847904
0.025958555
0.12063461
-0.059736785
0.13299075
-0.0050736764
0.10520181
-0.04619763
-0.0766999
0.07308421
-0.049098637
-0.027737293
-0.212496
-0.14636926
0.20601714
0.14118002
0.1806631
-0.12675446
-0.26669642
0.101370424
-0.16610579
-0.15639845
0.21708962
-0.14575326
-0.3446778
-0.10662205
-0.08286389
-0.19538347
-0.051212862
0.0844784
-0.09901732
0.100526564
-0.0076996926
0.045364723
0.054771967
0.124457695
0.2203643
0.13190532
-0.21106996
-0.09367174
0.16327922
0.15830112
0.023705699
0.119478546
0.06508597
-0.019324975
-0.041481324
0.08476631
0.22020422
-0.14380305
0.048542786
0.15668544
0.017318709
0.007023493
0.12404709
0.12335641
-0.084086426
-0.040937033
-0.27527145
0.06767191
-0.24964671
0.18328148
0.009877408
0.04983494
-0.11884745
-0.053086508
-0.06372224
-0.11265909
0.027843527
0.06280007
-0.22445287
-0.0010143901
0.05893054
0.010282593
0.022517461
-0.023426767
-0.12291621
-0.08789072
0.012570564
-0.10133212
0.010304233
0.030489229
-0.04293954
0.15354931
-0.03402621
-0.09724271
-0.047399327
-0.009170096
0.0024037643
0.03738856
-0.12027042
0.13893808
-0.06468769
-0.103261195
-0.09615169
-0.06912846
0.10765469
-0.19260405
0.041270286
0.07312346
-0.08413071
0.072296016
0.033407517
0.08488761
0.10182303
-0.14718714
-0.005018464
-0.008855314
-0.05525889
-0.062330607
0.17601728
0.024944479
-0.20978478
-0.16400093
-0.04192753
0.102256514
-0.13955396
-0.02930577
0.11647448
0.24113463
0.21435918
0.17277862
-0.017918121
0.15949869
-0.14180687
0.029962119
-0.100823455
0.102982864
-0.031070072
0.06873799
-0.11105446
0.15850106
-0.17472169
-0.14014179
-0.26000082
-0.12153141
0.040701266
0.182178
-0.07310085
0.011176268
-0.032369975
-0.32297915
0.16867341
0.15677446
-0.27399123
-0.058769863
0.054383438
0.008600878
0.0076998356
-0.00574515
-0.17573772
-0.30004317
0.008614163
-0.028628197
0.2083386
0.067515746
0.055712797
-0.06295634
-0.14961986
-0.097478434
-0.18878233
-0.09669992
0.078002185
0.08429082
0.057164717
0.010473161
-0.14807495
-0.021377739
-0.21542992
0.039070282
0.025188135
0.17894384
-0.049057346
-0.049637016
-0.03193773
0.005426212
0.1778184
0.051100403
0.06611716
0.04390354
0.003932326
-0.11284584
0.02957169
0.055709407
0.006712156
0.07913242
-0.025987377
0.123213194
-0.10260384
-0.19483234
0.19211945
0.2507271
0.1394612
0.107268855
-0.017847318
0.06814801
-0.25902924
0.027691258
0.036244337
-0.12836689
0.004600763
0.04410626
0.1272977
0.1468807
0.039494626
-0.064939104
-0.13486737
-0.096446835
-0.0007543118
0.055102393
0.19796833
-0.08122355
0.32756665
0.05235124
-0.26211017
-0.0009908857
-0.15165347
-0.18524298
0.011892925
0.020070666
0.10057067
0.01294023
-0.045778327
-0.1648967
-0.08191336
0.079832904
-0.08286209
-0.16225055
-0.13413921
0.20264897
-0.033585213
-0.21034831
0.004406281
0.10845371
-0.08557424
0.04987267
0.18709011
0.05947349
-0.2145664
0.03149869
-0.06951484
-0.18674785
0.028006593
0.11909999
0.17130578
0.1289057
-0.058100734
0.20294012
0.049533363
0.03756103
-0.14021495
0.013813237
0.2072687
-0.19280665
0.012458586
-0.012137214
0.010304799
0.16674767
-0.07853904
0.17304899
-0.021458056
0.05780483
-0.2752506
0.10630747
0.015353579
-0.09912111
0.019846695
-0.15831974
0.0071194964
0.17112152
0.039785594
-0.0500343
-0.13759676
0.07596283
-0.034179606
-0.10861452
0.19162583
-0.3890539
-0.04386538
0.11995654
-0.16157949
0.1566232
-0.037591096
0.18540788
0.07859354
-0.028321031
-0.12964132
0.12449718
-0.050203107
0.033259194
0.15346517
-0.09117749
-0.05340533
0.060539212
-0.22524112
-0.1161795
0.02718361
-0.05706241
0.030745994
0.19321658
-0.21008463
-0.1053211
-0.012826572
0.13496704
-0.10941242
0.16730703
-0.1247865
0.025416883
0.054336958
0.016006837
-0.05701423
0.083343044
-0.35529777
-0.03645004
0.04211634
0.08396803
-0.051652424
0.16518383
-0.21404362
-0.13039511
0.25940186
-0.09233768
-0.094267435
-0.017554939
0.17366411
-0.036314324
-0.048685323
-0.027578121
0.03981533
0.24359421
-0.061455213
-0.017202448
0.29219183
0.010663606
-0.13242738
-0.026988609
0.0019576568
0.16392909
0.08349379
0.25698334
-0.11283934
8.658305e-05
-0.043233324
0.040952887
-0.12380599
0.16068983
-0.017273536
-0.22786905
0.12853144
0.06299744
-0.17464863
0.18649445
-0.13261499
-0.107529394
0.05927145
-0.3091069
-0.19385925
-0.0019905588
0.065648034
0.32112294
-0.18124977
0.059135005
-0.19423799
0.008552928
-0.041644532
-0.17394987
-0.011379314
-0.35040343
0.09881725
-0.11203973
-0.16016373
0.04515379
0.19407305
0.074688874
0.04578141
0.0029527722
0.10491021
0.027644757
0.039179385
0.0031583423
-0.3042129
-0.19223523
0.12637903
-0.113959424
0.021807296
-0.03591535
0.0024610085
0.18767782
-0.025418248
-0.23343942
0.08428113
-0.16305725
0.13233514
-0.015743993
0.21902144
0.30938128
0.24905059
-0.06034872
0.027500726
0.08737664
0.1099219
-0.22158353
-0.033327375
-0.04381066
-0.19932175
-0.020052614
-0.34612295
-0.13325523
0.09378583
0.12681933
-0.24347557
-0.05668805
-0.10466653
0.043188866
-0.047540806
-0.015059213
-0.24273124
-0.07254131
-0.045199677
0.19977239
0.071897015
0.2324033
-0.037513472
-0.2975946
-0.10030936
-0.20507626
0.017984787
-0.12007263
-0.0017237618
-0.028364236
-0.008820766
-0.01856674
0.08891592
-0.16593899
-0.1521158
0.20113394
-0.19632338
-0.21347904
0.07374037
0.09087611
0.0999868
-0.013566182
0.13901655
-0.20740956
-0.026724778
-0.28029662
-0.33801207
0.0010031168
0.108057566
0.016685829
0.04858926
0.16481304
0.06969547
-0.16258955
-0.1448255
0.08261775
0.044148136
0.09388883
-0.1871696
-0.16563395
-0.15606977
-0.04410242
0.114559524
0.11126314
0.2547235
0.05817242
0.20058478
-0.009222514
0.023333348
0.045710325
-0.07108925
0.012618379
0.15011841
-0.086523324
-0.14145832
0.021398019
0.0036185116
0.12582682
-0.14362302
-0.1099653
0.17098753
-0.32465264
0.07438238
-0.0006303489
-0.012042408
0.092361644
0.040411938
0.2027139
0.16956025
0.025798302
0.060551766
0.07652842
-0.04159249
-0.15298295
-0.058103144
0.16003002
0.041381985
-0.023450937
-0.12363691
0.2278401
0.22038944
-0.07865047
0.011978836
0.004950734
-0.09275268
-0.004432885
0.039466552
-0.07418054
0.12766169
-0.0977321
-0.026611479
0.05091289
-0.056571975
-0.2945852
0.05800699
0.09311096
-0.10630214
0.0032773374
-0.067221604
-0.006368681
0.21270326
0.12085736
-0.02361611
-0.035400696
0.04342551
0.11769162
-0.090041116
0.18592276
0.2468404
-0.10221148
0.01615226
0.036900576
0.05563271
-0.0698193
0.06904836
-0.1572937
0.14786112
-0.0068549593
-0.06846087
-0.06850046
0.07199897
-0.07181209
-0.11299764
0.012816792
0.15749185
-0.028377308
0.05867944
0.017467497
0.2155649
-0.033247605
0.0128299445
-0.05875917
0.016966956
-0.08930497
0.04992585
0.18572459
-0.0038619856
0.06212522
0.10708834
-0.057472542
0.08120236
-0.06266965
0.0004996733
-0.01760687
-0.035682295
0.09534726
-0.1106798
-0.09359318
-0.06213293
-0.18789838
-0.12619004
0.109610125
0.12827168
0.18306988
-0.10140634
-0.06639832
0.112353526
0.0010973369
0.21091364
0.1671022
-0.09324008
0.40641347
0.018674025
-0.22903636
0.14264303
-0.13091508
0.07425795
-0.10424795
-0.18635389
-0.10156231
0.06216418
-0.13212372
-0.16515969
-0.1970958
0.35850412
0.063218094
0.06969001
-0.15676738
0.00021232283
-0.09621986
0.1914441
-0.016294997
-0.25730115
-0.18430938
-0.019898377
0.122911245
-0.1218546
0.122266635
-0.005957194
0.035858873
0.1911067
0.31610438
-0.21866082
0.117778614
-0.03155222
-0.0480301
-0.18940277
-0.15996031
-0.060396105
0.17362107
0.12558478
-0.034051053
0.17177097
-0.17308511
-0.006981239
-0.16245332
0.0014587989
-0.025012294
0.08805208
0.09818972
0.10570395
0.044185583
-0.03504953
0.05652407
0.12252933
0.066369824
-0.074010916
-0.050069693
0.0966809
0.014446109
-0.116014004
-0.028443689
0.09756683
-0.1795335
-0.06543656
-0.089642
-0.17019849
-0.19064185
-0.033777688
0.22165807
0.015698448
0.006017785
0.14499411
-0.23558933
-0.22230515
-0.0057256175
-0.3697586
0.04514222
0.18966061
0.0468027
0.08412194
-0.07970139
-0.046658415
0.05614542
-0.041967284
-0.004599338
-0.021194318
0.040141966
-0.025753096
-0.07533932
-0.16583449
-0.12563409
0.108327076
0.069870315
0.07877519
0.056491673
0.010409172
0.27662405
0.106318705
0.04187513
0.0273612
-0.118066825
0.15790907
-0.18416056
0.093582734
0.13987917
-0.071815975
0.07472828
-0.2066016
-0.03107375
-0.03282073
-0.052852754
0.14021775
0.023806492
-0.09051569
-0.14449626
0.15803917
0.0042841807
-0.2734627
-0.077799395
0.0631112
0.09351066
-0.27426937
0.07987001
-0.19095519
0.06053378
-0.034689486
0.084172614
0.08319094
0.014747192
0.1804011
0.111767106
-0.12147944
0.0106636
0.056573525
-0.06716103
0.15771183
0.12540382
0.05620811
0.025029654
0.18999116
0.22175921
-0.07322661
-0.08258629
0.044918712
0.1314392
0.10409771
0.005932292
0.038319863
-0.077110946
-0.12326631
0.008716735
0.0831097
-0.12578312
-0.26644737
-0.022633143
0.20875195
0.10142369
0.3200201
-0.038466107
-0.07219206
-0.031534642
0.07337581
0.1874117
0.064300105
-0.14274743
0.15264615
0.073931165
-0.15948807
0.13154498
0.059668344
0.07391218
-0.069908
0.07526301
-0.0742957
0.04191485
0.09518645
-0.005144837
0.06045428
-0.092884794
-0.13003972
-0.071273424
0.11529172
0.061205078
0.0036586064
0.066319965
-0.012299538
0.044661123
0.08050492
-0.000120401965
-0.04949286
-0.054097254
-0.06596553
-0.060225546
0.13690169
0.05454043
0.18579684
-0.18061924
0.06768611
-0.21698835
-0.22451684
0.083181806
0.19579715
-0.2662282
-0.26617095
-0.105131276
-0.007318731
0.038500004
-0.06778319
0.122185946
0.0751637
0.20342171
0.16216874
0.05927344
-0.0028572164
-0.022234188
0.057891134
-0.012272581
-0.06712903
-0.122007
0.12491138
0.12769954
-0.07851086
0.101176694
-0.03250082
0.25707635
0.096878
0.23794633
0.11690223
-0.3365682
0.040241297
-0.031948548
-0.20870793
0.039508738
0.12765415
0.04479118
0.11056456
-0.0852267
0.20804995
-0.06460862
0.17846307
0.08777239
0.013586177
-0.17827155
0.07059725
0.03188745
0.042006224
-0.3296387
-0.20173734
0.22190158
-0.15532349
-0.05940108
-0.051332206
0.019045608
0.01448659
0.070952
-0.09046033
-0.08468257
-0.17262836
0.1405535
0.052302133
-0.01981645
0.032800622
-0.043698743
-0.04350742
-0.02432377
-0.00025010415
0.22806199
0.047244206
-0.19528814
-0.024619045
-0.16649026
-0.03190428
-0.00636469
-0.10839185
-0.06270382
-0.09460528
-0.09672978
0.10544591
-0.14286408
0.21118598
0.10665572
0.027804645
-0.041712623
-0.09001239
-0.06417189
-0.16154705
-0.16191775
0.016284337
0.1497194
-0.032037027
-0.20519859
-0.18374094
-0.02968002
-0.0844358
-0.06260196
-0.009611578
-0.03269437
0.059100974
-0.23738441
-0.15634115
0.08267625
0.02255853
0.033923015
0.012889265
0.13981317
-0.005201523
-0.05891725
-0.21872927
-0.04205715
0.04922096
-0.08146967
-0.06034305
0.1785885
-0.23348166
0.07739922
-0.0725254
0.0019489997
-0.08868508
-0.11879087
-0.17906168
-0.08819534
-0.105807595
-0.03534984
-0.18965387
-0.21238975
0.14080735
-0.18584684
-0.18441652
-0.01797619
-0.22784944
-0.00073230796
0.087930486
-0.025334645
0.2375564
0.052809324
-0.20492053
0.010876315
-0.056978777
0.10600908
0.03721144
-0.028496956
-0.1234073
0.033558354
0.069431044
0.23597968
-0.11268897
-0.031578198
-0.0038087552
-0.11970731
0.021034729
0.033343554
-0.04851153
-0.005752531
-0.060999464
0.1186782
0.01625474
-0.14768104
-0.00071943767
-0.14855847
-0.026342494
-0.054454725
-0.1447639
0.10038423
0.18847758
0.10146062
-0.06725521
-0.008835573
0.040118545
0.08193546
-0.056448657
0.05673757
-0.010710148
-0.028877106
0.22215448
0.010415564
-0.15641665
-0.18775174
-0.019060317
-0.033853266
-0.055504065
0.05827543
0.12046695
-0.058338944
-0.05704194
-0.020124024
-0.01810243
0.036364164
0.032575402
-0.36517704
0.03848082
-0.05223108
-0.023190714
-0.027319033
0.021342129
-0.1923728
-0.3036095
-0.04449912
-0.04004608
-0.16860583
0.030916646
0.050160468
0.022799518
0.15011981
-0.17355631
-0.11291272
0.1460746
0.049385253
-0.047405034
0.16871563
-0.053427435
-0.10655443
-0.003050217
0.059939194
0.050751872
-0.029782996
-0.0042257383
0.1690064
0.114853896
-0.030520802
0.092694715
0.10794738
0.060122695
-0.11460879
-0.16999541
0.014478192
-0.10079099
0.071863785
-0.16692327
0.23449999
0.05140858
0.13294876
0.15505113
-0.109981105
-0.06317363
-0.3002339
0.17659405
0.07587021
-0.0052572335
-0.035105683
0.12124279
-0.047706924
-0.121568166
-0.20881219
-0.16286586
0.10073274
0.05631356
-0.08922132
-0.2864397
-0.03683216
-0.12219756
0.06578002
0.079784915
0.031664006
-0.13187106
0.09647579
-0.29193762
0.042776644
-0.37498185
-0.027791169
0.021279
0.40793934
0.08922046
0.22271216
-0.2192016
0.08171444
0.06802922
0.0060130036
-0.18663783
-0.20490278
-0.14051999
0.2797332
-0.00235565
-0.074470274
0.05438064
0.0368311
0.0676488
0.19027925
0.02148764
-0.046231132
-0.050770484
0.0016167247
0.013759964
-0.06480505
0.33164996
0.25737464
-0.13902946
0.012156248
-0.027587712
-0.03570375
-0.09918751
0.048155054
0.031288538
-0.019021828
0.013195437
0.03638365
0.1501442
0.019018155
0.09055787
-0.17051548
0.13336782
0.011445639
-0.056176625
-0.072804116
0.32560927
-0.002807251
-0.08348527
0.045941595
0.09464762
0.06172616
0.10276859
0.13180032
-0.04188235
-0.05034147
-0.18921694
0.018027337
0.1841104
0.15179391
-0.07885383
-0.044422157
0.139855
-0.024430217
-0.08991277
0.17208159
-0.052315235
0.11080975
-0.12755302
-0.003716999
0.046231654
0.019488573
0.023840582
0.013153973
-0.117497414
-0.3200045
-0.11783226
-0.061575476
0.01698794
0.1920401
-0.09288129
0.02516218
0.09922705
0.03694371
0.0360706
-0.1767863
0.071318984
0.29163793
0.0068894876
0.12579353
0.058994506
0.01575196
0.10247244
-0.05134581
0.08933733
0.1867196
-0.20138435
-0.09267966
0.00510114
-0.08823686
0.015722692
-0.071819924
-0.075402245
0.087995894
-0.14437437
0.022725856
-0.2451597
-0.2301546
0.24511376
0.04309528
0.13938315
-0.0011207941
-0.0024197977
-0.005447549
-0.1396783
-0.14922523
0.2593529
-0.0150513705
0.007664351
-0.037235238
-0.07401448
0.043761704
0.049144253
-0.25785318
0.22315094
-0.14234434
0.14725387
0.12301387
0.00012311133
-0.014862286
-0.09900824
-0.09796008
0.3039557
-0.23607573
-0.092544354
0.11303486
0.2289551
-0.12015421
0.10224147
0.16558345
-0.049828693
-0.016541943
0.0052267546
-0.063325495
-0.087610975
-0.14411297
0.29629546
0.056241445
-0.22025405
-0.12730525
-0.19182509
-0.22456634
-0.025186839
0.18457201
-0.17154007
-0.013377945
0.018722901
0.16510268
0.062370952
-0.05097613
-0.05699209
0.29777694
-0.11181643
0.25559375
-0.004519883
-0.021322487
0.03298012
0.116618745
0.065446295
0.18478729
-0.29936087
-0.07772566
0.05641031
0.15822983
-0.08836595
0.00788188
0.1720601
0.08461727
-0.09990557
0.14550474
-0.113008335
0.015208195
0.10052526
0.07481086
-0.090992235
0.25121504
0.023950998
-0.044189557
0.2667987
-0.12856956
-0.21888126
-0.032883115
-0.116489775
-0.09146341
0.09419416
0.100835375
-0.084794566
-0.14844431
-0.14237003
0.015857529
-0.074806355
-0.19146004
0.17214525
-0.041854378
-0.19721465
-0.036574226
0.13329127
0.09015125
0.15498453
-0.13517702
0.074016474
-0.10715298
0.17524338
-0.027884156
-0.20917954
0.021262808
0.040844567
0.15296759
0.1657532
-0.08359293
0.011645927
-0.07184252
0.024187101
0.12975785
-0.125676
-0.18643388
0.032758456
-0.16046421
0.126841
0.014155424
-0.053287264
-0.14645427
-0.13958786
-0.009238219
0.10616601
-0.032442182
-0.0036750755
0.17365564
-0.012267589
-0.055643495
0.112922035
-0.007485653
0.05735564
-0.026683105
-0.23362572
0.017725537
0.109476656
-0.022999287
0.17741244
-0.07081203
0.10524003
-0.055656962
0.037344083
0.17639689
0.0027501024
0.022842921
-0.098853566
0.07989849
0.034947544
0.14320762
0.15459512
0.18695867
-0.10823959
-0.1859054
-0.028703386
-0.0025526965
-0.102962844
-0.19211036
-0.1065543
-0.043486115
0.058228184
0.08645478
-0.035344426
0.112719074
0.13092314
-0.18307076
0.015853807
-0.027059285
0.14341085
0.21478194
0.23956811
0.16975369
-0.057983678
-0.114180155
0.1793163
0.045031864
0.16382343
-0.2097054
0.08894789
0.15986103
-0.0152105875
0.022789352
0.09045031
0.14488038
0.09285313
0.09258743
0.096929185
0.11112368
0.08226696
-0.21520835
0.23504706
-0.02093601
0.13447912
0.06316409
-0.016978377
0.052589905
-0.09235498
0.0658301
0.025365716
-0.073303916
0.0471969
-0.046448622
-0.07926578
0.3775842
0.040503375
-0.05175924
0.054459758
-0.037456732
0.103657626
0.2377094
0.1851458
0.10814311
0.04107646
-0.10897387
0.09303777
-0.008771775
0.013181926
-0.13136049
-0.104184724
0.15306084
-0.1337375
-0.035330992
-0.17098056
0.086932
0.26772675
-0.13932185
-0.07664556
-0.32957277
1.7852179e-05
0.10225749
-0.08101094
0.07927612
-0.10980519
-0.07098653
-0.08426832
0.037446517
-0.05199643
0.06684653
-0.15600719
0.25158423
-0.0048824362
0.045994207
0.023777444
0.17850877
0.057064686
0.13805549
0.21206923
-0.03876578
0.14413507
-0.049071588
0.13797745
0.106285036
0.02637545
0.20017782
0.31126058
0.04107428
-0.05926951
-0.01644239
0.19717881
-0.040090177
0.01429225
0.12827766
0.010424434
0.057225946
-0.14652246
-0.060043946
-0.007642339
0.059587378
0.20094554
-0.015979066
0.19954535
0.09489431
-0.104817815
-0.06711696
-0.07208364
0.12564892
0.14808536
0.09839508
-0.08824651
0.015014432
-0.050176945
-0.25021955
-0.10146802
-0.032246333
-0.08787069
-0.007924637
-0.10545865
0.103668205
-0.0057657906
-0.06659558
0.15453823
-0.0019612522
-0.06267556
0.046851568
0.012783995
-0.042848952
-0.013601412
0.09655317
-0.0516146
-0.16966565
-0.013492392
0.027637403
-0.15723382
-0.181121
0.09025554
-0.21618165
0.012082544
-0.16871066
0.032164853
0.23433231
-0.07231034
-0.17436296
-0.12367394
-0.13455711
0.105034605
-0.19044529
0.14895634
0.07452294
0.05443596
-0.08507292
-0.27432635
0.08016848
0.06297745
0.013056411
-0.07550604
-0.08214208
-0.024952946
-0.019281704
-0.04792012
-0.07641279
0.009920127
0.036313053
0.13338171
-0.10795983
0.13270879
0.24588856
0.17772868
0.01291622
0.074192025
0.06714655
0.084468596
0.045060046
-0.017058033
-0.090472706
0.050284717
0.09183481
0.06895613
-0.3125102
-0.03951943
5.0963417e-06
0.19002715
0.0487541
-0.10729285
-0.26936048
-0.17450035
-0.07280038
0.32234058
0.20814179
-0.20454498
0.032971866
0.13690007
-0.021429284
0.10918989
-0.12033263
-0.043965463
0.020955987
0.01672951
-0.12330653
-0.10695576
0.14603822
0.1054276
0.005240856
0.16240367
-0.2680067
0.065048784
-0.012458069
-0.004626442
-0.03795753
-0.19789235
0.13752116
-0.14390644
0.12301739
0.16931649
-0.004010879
0.10337624
0.26967362
-0.03909279
0.10118597
0.027483078
-0.048293058
0.029194778
-0.16083393
-0.07711431
0.17393637
-0.021375751
0.24238296
0.006911374
-0.21331318
0.010196548
-0.12686329
0.13039877
0.14770111
0.11733454
0.024416154
-0.10892595
0.27987555
0.039419614
-0.1157632
-0.0053236494
0.008075297
0.02193442
0.046560336
-0.042856034
0.07625627
0.009337563
0.050778236
-0.005490548
-0.083390824
-0.11016952
-0.005906638
0.06991624
-0.04640628
-0.09987527
0.08945826
-0.036390226
-0.018249238
-0.10069782
0.3389386
-0.14864555
-0.15575998
0.050415706
-0.05621769
-0.14609383
0.25903797
0.008048108
-0.17241526
-0.10179862
0.2203213
0.08160334
-0.115868434
-0.11966292
-0.06871504
0.1356706
-0.28424612
0.13429764
-0.08058151
-0.044262003
0.22859061
-0.020501152
-0.026074518
-0.056763258
0.14968911
-0.31275
0.12873791
-0.083817795
-0.004822966
0.11646613
0.19391488
-0.12659696
0.13928317
0.2306295
0.10759289
0.16637784
0.10205528
0.0483407
0.0032376961
0.021234198
-0.08798908
0.22745849
-0.124981396
-0.20744205
0.053809952
0.013305879
-0.07689441
-0.094222724
0.026672233
-0.35535324
-0.026029635
0.113729976
0.12957881
0.12328862
0.18246004
0.01748073
-0.18379283
0.11162827
0.018837942
-0.099142864
0.15614794
-0.16062587
0.06911097
0.11306735
0.1515409
-0.07929984
0.042003457
0.040002365
0.059492685
-0.03177272
-0.15456504
0.16166264
-0.0018997464
-0.12167238
0.064368114
0.13940759
0.0710103
-0.09772545
0.075659834
-0.27393955
0.12768432
-0.031126354
-0.08686948
-0.03447816
-0.061440047
-0.043035235
-0.09243869
-0.07339741
-0.109603874
-0.1073991
0.07056241
-0.010224238
0.073092654
-0.09875937
0.024929909
0.09224196
-0.001030043
0.10676808
-0.06137649
-0.020217052
0.044288386
0.039153893
-0.008778986
-0.1350281
-0.23476104
0.041312445
-0.019291341
0.08706393
0.014187047
0.15365571
-0.034067154
0.083063714
0.19434872
-0.057896145
0.04132405
-0.049062695
0.13720144
0.0057956204
-0.12345214
-0.064553946
0.14517172
-0.14132039
-0.017575588
-0.006617551
-0.052626867
0.034180645
0.2701937
0.30522835
-0.02759369
-0.031088566
0.074562944
-0.050701942
-0.22567558
-0.20334503
0.068192825
0.16520756
-0.0707043
-0.052603677
0.07701865
-0.045916166
-0.07862998
0.10210083
0.03855152
0.15161556
-0.058740433
-0.05127245
0.116580375
-0.045959726
0.040810652
-0.024493897
-0.1701558
-0.064405754
0.20387107
-0.2121737
0.07452469
-0.0512808
0.011941651
0.09026291
0.16025004
-0.006337235
-0.09456192
0.13257301
0.093092866
0.08215526
0.024348628
0.041843224
0.20100754
0.062335815
0.084744126
0.14194891
0.12037869
-0.18980344
-0.030669361
0.017359687
-0.042629026
0.01717861
-0.03871052
0.0034111384
-0.1664868
0.1840051
-0.086430065
0.0071745357
-0.25336474
-0.0464329
-0.02430407
0.11328643
-0.24051467
0.22643682
-0.057581402
0.10073426
-0.053477556
0.07816094
0.08600569
-0.0043858257
0.12179351
0.04603052
-0.037849575
0.022410128
0.058526468
0.0063572438
-0.08599927
-0.010636039
0.14995144
-0.09438118
-0.012011376
0.083304904
0.02728559
0.08685516
-0.067213856
0.046438377
-0.15561098
0.018213283
-0.10284703
-0.077320285
0.019924108
0.058608375
-0.080615506
-0.044920072
-0.13588233
0.1838753
-0.0033403304
0.08569147
0.068026185
-0.028957251
0.04592489
-0.03936046
0.26270017
-0.090439945
-0.01290258
-0.08819089
0.13430811
0.012649157
-0.09647098
0.049485203
0.06436692
0.012046625
0.14698067
-0.16169797
-0.06743722
0.037285477
0.0675478
-0.22756071
0.025078706
-0.11110109
0.0018093516
-0.34544176
-0.07317673
-0.12125622
0.1012346
0.1725843
-0.09864728
0.06752435
-0.06564211
-0.0614072
0.08843002
0.08459517
-0.14708668
-0.043912236
-0.05274105
0.13676076
-0.10684578
-0.06882176
0.06408973
0.022427147
0.16495743
-0.060488757
0.11741841
0.040698785
-0.15106082
0.010270938
-0.063504994
-0.03156999
-0.112533815
0.06844058
-0.19401044
-0.074314326
0.07639092
-0.010662241
-0.07908524
0.057562947
-0.075178094
-0.1549806
0.08802735
-0.087670036
0.09890333
-0.23672564
0.0017670938
0.087049715
0.092627116
0.21763897
-0.025305105
-0.17303409
0.015827984
-0.021164715
-0.1345463
0.05219411
0.0058170203
0.110665224
-0.030499458
0.12419185
-0.27958792
-0.05924759
-0.08185399
0.1416267
-0.11447574
0.075186595
0.040370148
-0.033952188
0.027369827
-0.26048294
-0.04091651
0.1680455
0.1237762
0.17640497
-0.06914542
-0.11963801
0.059143078
-0.11561475
-0.1308442
0.18481694
-0.08260469
-0.21984641
0.031586602
-0.18412426
0.08999934
0.14124943
-0.0335465
0.15951289
-0.03972007
0.05477416
0.033934742
-0.03063619
0.09900209
0.10711575
-0.019186106
0.058331855
-0.060396865
-0.08526087
0.0146116
-0.097045936
-0.116844594
0.049281996
0.01712117
0.04040273
-0.03281164
-0.030735672
0.12320161
0.16840996
-0.2271634
0.16567211
-0.22845237
0.11198176
-0.053730603
0.025663031
0.14567117
0.09864752
0.11747213
-0.048102684
-0.16661218
-0.07178654
-0.13980038
-0.025558999
0.17501894
0.011564214
0.12868859
0.07210481
-0.072998896
0.008488806
-0.041325375
-0.09504895
0.008034673
-0.09282993
-0.009206328
0.26538897
0.058504824
0.20060015
-0.033356328
-0.031271327
-0.056891337
0.0272516
0.23468502
0.043575827
0.14572737
-0.014874297
0.20453846
0.019982986
0.1504939
0.039909817
-0.08944318
0.025916785
0.08105174
-0.050020415
-0.21310869
-0.19077514
-0.10658241
-0.048760813
0.020337814
-0.04722476
-0.12973283
0.15041637
0.0062773256
-0.057520512
-0.12209239
0.16238935
0.11387774
0.07809276
0.115100965
-0.05092532
0.16229774
0.031168321
-0.26452568
-0.04739122
-0.01801196
-0.067959115
-0.19975191
0.06731145
-0.032499887
-0.23188391
0.009252331
0.16700672
-0.04551135
-0.09727113
0.053003486
-0.057620697
0.042822216
-0.06947778
-0.025070803
-0.19035648
-0.09061267
-0.25429124
0.048605297
-0.024287406
-0.13555697
-0.13100378
0.082693525
0.026762592
-0.21579471
-0.03786935
-0.08037416
-0.2645267
0.11667682
0.13331728
-0.035893284
0.038362794
0.17986216
0.24774681
0.20609221
-0.022139711
0.027967237
-0.2521534
0.006086126
-0.03412559
-0.013984792
0.09464594
0.08984462
-0.10298656
-0.21788025
-0.055577535
0.14877321
-0.0071325935
-0.03729314
-0.06902095
-0.079653695
0.16514102
-0.11419548
-0.1276361
0.042056616
-0.18988428
0.0820384
0.17704669
-0.21795432
-0.026044419
-0.104390785
-0.072153635
-0.069692455
-0.034735452
-0.34243867
0.103070624
-0.10100254
0.17485379
0.06726167
0.21468596
0.2141201
0.06974645
0.20875064
0.0661234
-0.12513071
-0.19363733
0.06453958
0.10373452
0.07736022
-0.16158341
-0.016222395
0.038038034
0.12600334
0.0052123577
0.03805635
0.09439245
0.03340063
-0.036440883
-0.07747942
0.116479285
0.1798209
0.00069202506
0.099870294
-0.10007862
-0.0705123
0.022764921
0.061640617
0.087898605
0.16778491
0.051455937
-0.0052295877
-0.002063217
0.12041491
-0.095647275
-0.1639138
0.113207586
-0.12465067
-0.084475055
0.241009
0.12558073
0.07587918
-0.12910949
0.02940031
-0.015768398
-0.0873796
-0.047399838
0.028022783
0.07329741
0.15580516
-0.093991846
-0.05206733
0.2140951
-0.04705931
-0.1783291
-0.054779142
0.20827208
0.049976997
0.04649202
0.090885125
-0.03496897
-0.067994036
0.0023130374
0.18007438
-0.14320995
-0.13860856
0.19612548
-0.011469845
-0.09249364
-0.00029291477
-0.011874581
-0.12532258
-0.13585065
-0.047809884
-0.010284911
0.042487994
-0.09172503
0.020472208
0.17269662
-0.095478185
0.09088633
-0.034664966
-0.1393174
-0.014644277
-0.018892102
0.12378852
-0.084211685
0.013518664
0.10380849
0.09788288
0.022501146
0.07977156
0.016215682
-0.014870552
-0.06636219
-0.106236644
0.02501748
-0.17697805
0.23317869
-0.058958825
-0.032175485
0.06710782
-0.14238755
0.101719745
-0.12949458
-0.01736265
0.07288841
0.0020246154
0.09896818
-0.106751144
-0.15797625
0.12740758
-0.050388094
0.08632377
0.20758899
-0.045094356
-0.059704144
-0.07347652
-0.016505515
0.08320545
-0.21577565
0.04575772
0.016326925
-0.028325446
0.041551936
-0.11021602
0.022186434
0.017641688
0.09670264
-0.17000857
-0.0006669905
0.03825683
0.049423326
0.023273692
0.12871036
-0.08357345
-0.19191776
-0.049127586
-0.1817545
0.33933696
0.119557366
-0.19246978
-0.023104994
-0.066845454
-0.061650246
-0.14051306
0.042497728
-0.12468083
-0.010738959
-0.09380621
-0.028188713
-0.1507255
0.039040953
-0.24504976
-0.20410821
-0.048278473
-0.17992614
0.08046919
-0.11886667
-0.061568774
0.16334441
0.0970992
-0.0081976475
-0.277426
-0.0012538636
0.13128905
0.20873499
0.047731806
-0.13706946
0.13070677
0.040559888
-0.09090999
-0.00037368978
0.13048829
-0.35987726
-0.05603758
0.039502203
-0.10297516
-0.056034904
-0.106131814
-0.06354377
-0.04502392
-0.099680826
0.08113456
-0.049435705
0.085774
-0.22764406
0.064788215
-0.057615347
0.10877765
-0.09732427
-0.1453104
-0.2246337
0.05246334
0.14901952
-0.058134034
-0.027278865
0.06719646
-0.1379504
0.0033694746
0.22266798
0.12667596
0.025350265
0.11867102
-0.25897
-0.07493354
0.059648693
0.12133148
-0.058035858
0.016489098
0.049642347
0.13713169
-0.021705115
-0.16179252
0.13315107
-0.05505756
0.17895699
-0.08249619
0.12651542
-0.14662859
0.14544268
0.23986165
-0.15528955
-0.13767335
-0.13147832
-0.38655892
0.04412897
0.034318946
0.017423699
-0.014084087
-0.057136826
0.045522947
0.034509953
0.07276401
0.025714736
-0.098069616
-0.15927485
-0.14047104
-0.008385115
-0.11765424
0.09510008
-0.0723659
0.12936108
0.073959224
0.13843387
0.21359186
0.085418046
-0.04742624
0.04288097
0.08703313
-0.06978591
0.14415452
0.028183218
0.008435503
0.027780788
0.11998858
0.029778227
-0.10679678
-0.032525435
0.11160971
-0.032520883
-0.09623403
-0.22374213
-0.1908641
-0.13660756
-0.055450477
0.09724642
-0.01772082
0.0120936
0.01324489
0.029467905
0.2847817
0.10704894
0.25800166
-0.13888161
0.04357659
0.13027963
0.027211638
-0.003133044
0.1230224
-0.058882322
-0.08421045
-0.0011913463
-0.080264114
-0.064403936
-0.042040527
0.044099998
0.15947886
0.097586855
0.0476613
0.26767305
-0.25103742
-0.10293655
0.20646141
0.0041434364
-0.009978768
0.009775207
-0.08982421
-0.14593416
0.09273101
-0.05880551
-0.1342718
0.049191363
-0.086158186
-0.015109579
-0.06303301
0.23428333
0.31974056
0.10821211
-0.07771002
0.009368681
0.0847197
0.1635349
0.19070955
0.12048252
0.24566655
-0.17914061
-0.11684112
0.17811462
0.08249199
-0.2193631
-0.06957355
-0.010914558
-0.04056392
-0.016585846
-0.04973121
0.19098498
0.018379327
-0.050648596
-0.08197618
-0.20974492
-0.100350656
-0.007853609
-0.054691847
-0.03801321
-0.016586069
0.2314019
-0.24709716
0.18414737
0.04271856
-0.1870647
0.0045900824
0.08844827
0.10963614
0.014079212
0.06957006
-0.23471135
0.15438959
-0.05456435
-0.026708469
0.18031581
0.035806254
0.0698487
0.0019074308
0.0021753013
0.1011991
-0.08394219
-0.0025357886
0.11872068
0.18099776
0.27817145
0.101215996
0.18491621
0.16108137
-0.017239891
0.016168518
0.005901724
-0.2475422
-0.06050898
0.1333264
0.014497882
-0.050236266
0.117469616
0.04913573
0.042598393
-0.041370906
-0.15384057
0.015940411
0.06903465
0.081291765
0.2743048
0.14399393
0.048174176
-0.054783426
0.07774008
0.066292435
-0.022243291
0.010474053
-0.10170593
-0.15851982
0.11215198
-0.07561165
0.21678169
0.20524491
-0.04745857
-0.059132516
-0.18635705
0.21365093
0.045882285
-0.05380824
-0.04601918
-0.10530985
0.15629818
-0.07363968
-0.009650573
-0.012239564
0.1215983
0.02288996
-0.08518334
-0.080690116
0.15918538
0.025397735
-0.065039255
-0.0013539707
0.047131054
0.013694395
0.17470978
0.094830796
0.028704602
-0.04301809
0.0031529455
0.21687973
0.018575411
-0.04123118
-0.050029386
-0.16348222
-0.11741498
-0.16866171
-0.11183494
0.06362732
-0.024669603
-0.00994249
-0.022510376
-0.066258095
0.10239427
-0.028533112
-0.06437041
-0.1222852
-0.076498464
0.17877519
-0.11159855
0.08947015
0.18822914
0.093864374
-0.0106276125
-0.03363834
0.001207894
-0.22661972
-0.20119742
0.07056175
-0.027012149
-0.108065076
-0.114170276
-0.009638981
-0.19151188
-0.021598918
0.04324602
-0.1333691
-0.008339064
0.008460779
-0.011987144
0.19108607
-0.10001662
-0.35766402
-0.010330946
-0.0089477515
0.109400846
0.15113473
-0.030342545
0.12294776
-0.1347163
-0.21276863
-0.031122973
-0.06615344
0.009538527
-0.058936648
-0.03735295
0.03396371
-0.10398254
0.034105115
0.04365644
0.12309931
-0.09758679
-0.118102305
0.08240473
-0.105586745
0.10182104
-0.05322659
0.06799372
-0.11495374
-0.09581843
-0.29735193
0.1321664
-0.15235442
0.12712777
-0.016404549
-0.07726396
-0.1264952
-0.059754066
-0.24782664
-0.02243048
0.07821329
0.013931829
-0.08781468
-0.033183243
0.0151462285
-0.17673677
0.011098216
0.0064803525
0.30861425
-0.046888974
-0.041854307
-0.1873114
-0.05899461
0.094499335
0.14372434
0.048005346
-0.07864693
0.05800936
0.33628666
-0.03673179
0.08074407
0.13385828
-0.07005928
-0.23865089
-0.0018250581
0.011262303
0.010754299
-0.038560227
0.023257125
0.13967414
-0.0476383
-0.15635781
0.2735252
-0.18238318
0.14797285
-0.03372702
0.09564526
0.20201707
-0.11916986
0.023740083
-0.11703864
-0.021439593
-0.14550248
0.34247562
-0.07241417
-0.0011089181
-0.06711928
0.07429677
0.02635523
0.1279701
-0.23950279
-0.090918586
0.066025645
-0.2500345
0.044264615
0.20963688
0.053971514
-0.06403022
0.076612025
-0.03659363
-0.17400038
0.04096312
-0.1722169
-0.042579934
0.22374728
0.09001098
-0.007338558
-0.07826614
-0.09321489
0.14533557
0.06588241
0.006754603
-0.011805912
-0.03176305
0.082608804
0.09049653
-0.06391359
-0.10287863
0.19556037
0.039266676
-0.07737849
-0.020577854
0.050187837
-0.105824314
0.24282703
-0.022073878
0.06349447
-0.28935426
-0.03334508
0.12972608
-0.015407053
0.17224848
-0.043247554
0.14939736
0.1254303
-0.05771321
0.17374791
0.18199563
0.021190656
-0.12053029
-0.043809753
-0.017000636
-0.09321466
0.113113746
-0.2925984
-0.050539657
0.012802751
0.041743323
0.14796004
0.0036876625
0.09961343
0.039297406
0.07431715
-0.06661871
0.009205449
0.0041967747
0.10050248
-0.005691333
0.20562834
0.012447708
-0.109552525
0.17943576
-0.20613083
0.0573103
-0.14390689
-0.07908202
-0.06285551
-0.0087449895
0.10430886
-0.20449041
0.019479532
0.15630715
-0.033428904
-0.16960953
-0.008163516
0.2896981
-0.06244293
0.01638246
-0.16372211
0.22142331
0.14497975
-0.014236125
0.055936232
0.106764056
-0.026325934
-0.019368138
0.03356543
-0.03849783
-0.10354367
-0.03998526
0.016385874
-0.020960608
-0.20888378
0.055413008
0.20509015
0.13588318
-0.075017124
-0.060805786
0.019612106
-0.018820828
-0.056480072
-0.21030305
0.014591842
0.13444467
-0.31962046
0.0053990134
0.019413205
-0.18350658
-0.027033506
0.12508763
-0.07018049
-0.061652657
0.15091938
0.028702557
0.025014462
0.23085785
-0.026945105
-0.03252988
0.0205198
-0.13465911
-0.059121553
-0.07941572
-0.20139858
-0.10912085
-0.0797879
-0.23606502
0.04346556
-0.004982865
-0.13667488
-0.15437905
0.04577106
-0.040030733
0.08144301
-0.01742066
0.061563894
-0.10688003
0.060633022
0.019904956
-0.1643114
-0.014983273
-0.18931362
0.0881132
-0.08562832
0.00061837374
-0.1471357
0.006457387
-0.037609782
0.27328518
-0.10969629
0.13679026
0.03569254
-0.019756269
0.20478354
0.061536483
-0.08312999
0.121808454
-0.2162987
-0.08778835
0.06353511
0.05458836
0.013491264
-0.1229811
-0.09390471
-0.048444342
0.085952565
-0.29983932
0.06315819
-0.08518705
0.0068173306
-0.06713219
-0.0017804531
0.13043407
-0.14052846
0.07494727
0.35439298
0.016746966
0.039482865
0.21046036
-0.10542145
0.17331053
-0.054193415
0.17823026
-0.13726671
0.15967175
-0.034102757
0.16452652
-0.018213306
-0.038125865
-0.06569936
0.12866288
0.016340302
0.16023776
-0.030583179
-0.13837898
-0.12075222
-0.32535654
-0.1305939
0.034541782
0.038570687
-0.03905812
0.014971726
0.0021086868
-0.20051262
-0.084943295
-0.2103625
-0.116928056
0.082064845
0.19776535
-0.0253722
-0.17242502
-0.101430565
0.08403137
-0.045898102
0.051008325
0.13617972
0.09421093
0.046392612
-0.18772002
-0.04253803
-0.16342974
-0.14002712
-0.14470167
0.110797256
0.22149338
0.15552184
-0.18463413
0.08899272
0.074665755
-0.10034442
0.030416315
-0.15292186
-0.013267789
-0.097765975
0.015720414
0.41253448
0.03708294
-0.09546221
-0.0010006127
0.0166665
-0.08307761
-0.14417829
-0.0051801195
0.35356164
-0.24286635
-0.1446893
0.040956758
0.06962542
-0.16040663
0.19553557
0.09783847
-0.15980403
0.037082367
-0.20570551
-0.024920762
-0.06413458
-0.19257845
0.14365393
-0.039621003
-0.13330695
-0.05375595
-0.07597024
-0.051232576
0.1172947
0.08695859
-0.09704844
0.0708859
-0.09789815
-0.035214018
0.047829367
0.16260381
-0.046830375
0.0065419367
-0.05047441
0.08026569
-0.04256987
-0.1822259
-0.16312206
-0.014997696
-0.16438508
0.04863849
0.056409746
-0.008202842
-0.10267133
0.1438583
0.034500457
-0.20363325
-0.23802385
-0.13581091
0.18684565
-0.08084898
-0.14188801
0.07662378
0.26090243
-0.08500046
-0.011401792
-0.004775461
0.0754637
-0.2036785
-0.0061617265
-0.05489837
-0.0050898814
0.2132181
-0.10335926
-0.18001983
0.06655382
0.3005322
-0.12121392
-0.06610245
0.10074661
0.083948165
-0.1758407
0.09930309
0.09163107
0.23397815
0.04805228
0.20587659
0.12425642
0.025278745
0.029024236
0.07878356
0.16185804
0.066200025
-0.03128917
0.13885903
-0.28030637
0.05487172
0.09212427
0.025920918
0.14595571
0.10846847
-0.052125394
0.16404174
0.021844868
0.2118309
-0.02122137
0.025537066
-0.01308172
0.1477882
-0.13915032
0.13754806
0.09993523
0.075954884
0.09446438
-0.17870602
-0.028503196
-0.24439988
0.041224007
-0.10868441
-0.014179464
-0.057658352
-0.11523733
0.25426513
-0.06448282
-0.1721208
0.0021610153
-0.118926086
0.12111795
0.011717288
-0.19921312
-0.095017925
-0.059211075
0.23228997
-0.097763434
0.21632324
0.1697086
0.073914565
-0.18429367
0.05658596
-0.059973728
0.1410335
-0.08952
0.0031585165
0.050974432
-0.03536608
0.021940948
0.050019752
-0.09649141
0.09741214
0.12184196
-0.090804845
0.042568963
0.30357587
0.04492231
0.13468042
-0.1498894
0.09447105
-0.17425303
-0.093447596
-0.13125023
0.010351573
-0.1836732
-0.09972005
-0.0033431177
0.078882195
-0.014337526
0.07595975
0.1782249
-0.0011149375
0.11838442
0.13418029
0.11424825
0.03052254
-0.056441884
0.053489238
0.036867328
0.00578003
-0.06450251
-0.23547563
0.08922753
-0.18287401
-0.25472835
-0.09265059
0.18750085
-0.034352496
0.13546146
0.04453053
-0.0023371573
0.292381
-0.01547364
-0.120541245
0.011965806
-0.050212715
0.061744798
-0.0076312604
0.21072438
-0.28908515
0.104216896
-0.0014004807
0.40798765
0.008249111
-0.0013344297
0.16748662
-0.09852595
0.117581576
0.014689809
0.034402817
0.13362212
0.040742952
-0.006478668
-0.07848217
0.08207949
-0.075529516
0.068925224
-0.19757079
-0.21779954
-0.04800757
-0.16275647
0.2258421
0.065863386
-0.09976434
-0.20554917
-0.0030308012
-0.050012443
-0.007824995
-0.14306048
-0.11866128
-0.048832808
-0.045238126
0.13353272
0.004886401
-0.10063833
0.044263016
0.097519
0.11134441
-0.04238284
0.22569919
0.22697698
-0.14121588
0.1261451
0.17673367
-0.090538815
-0.0098214215
-0.016530262
-0.14758351
0.15429148
-0.040079057
-0.08870013
0.27807352
-0.13822618
-0.27684468
0.025551649
-0.12187283
-0.12427745
0.0021567396
-0.028610947
-0.1668334
-0.04503091
0.07703326
-0.12842228
-0.23293447
0.21944503
0.018838564
-0.18387726
-0.103310175
0.023649938
0.1928347
0.10167706
0.0065751215
0.21272661
-0.2721716
-0.027277783
0.13075072
-0.0050597033
0.28049296
0.026613187
0.18857619
-0.105084375
0.23874095
-0.091046795
0.08041444
0.04007512
0.1645663
0.11810709
-0.41040558
-0.28433594
-0.008098748
-0.16868599
0.09349379
0.1581795
0.17975935
-0.16628505
-0.011472046
0.14099954
-0.007905705
-0.17834614
-0.07619247
-0.085630685
-0.008963932
0.19899426
0.06744431
0.13854493
0.011798739
-0.20318589
0.042744093
-0.15368176
-0.24520108
0.03682833
-0.029472884
0.09601767
0.086451285
0.11628861
-0.018745052
-0.033397943
0.061803803
0.13741858
-0.10097687
0.19918185
-0.029393595
-0.002547276
-0.01970922
0.08991772
-0.111104354
0.13486226
0.015888054
0.030576652
0.10942666
-0.17600186
-0.12323356
-0.2606445
0.020837111
0.010599093
-0.11839312
0.037424702
-0.08259843
-0.03685015
0.05074895
0.0053363196
-0.14634341
0.17764588
-0.078136176
-0.120275475
-0.004874651
-0.103233315
-0.053902872
-0.0060720863
0.07124635
0.031334274
-0.16831484
-0.0038605595
0.037481964
0.06408201
-0.3530298
0.09376438
0.004586658
0.17758134
-0.15065569
0.15052193
-0.12055657
0.05259866
-0.013647566
-0.13028479
0.05958148
0.029219221
-0.21590348
0.082631476
0.028744616
-0.0015785234
-0.0932065
0.09249671
-0.16540606
-0.25560895
-0.02471825
-0.03633343
0.14002816
-0.11335499
-0.06621294
0.087805
-0.04760897
-0.043442793
-0.220192
0.09225368
0.05094976
-0.040892255
0.162551
-0.030257914
-0.16983725
-0.01356727
0.15310837
-0.13884579
-0.04277401
-0.073557116
-0.20102468
0.11331144
-0.3705278
-0.18757623
-0.024154704
-0.17403552
-0.07575913
0.095703006
-0.11528369
-0.16795579
-0.15777102
0.21889399
0.03386263
-0.06848327
0.27291197
-0.1122047
-0.15032192
0.1588429
-0.15333863
-0.11952184
-0.16478938
0.061286148
-0.012688739
0.08830189
-0.12951389
-0.11235936
0.060060274
-0.38390628
0.24876928
0.013648706
0.21541296
0.004463208
-0.023193529
0.012146106
-0.17704625
0.08744963
-0.12845339
0.024403233
0.31645924
-0.1607301
0.074806176
-0.025621437
0.017244037
-0.10282659
-0.15671457
-0.04481131
0.13772607
0.12161416
-0.12013408
0.055305563
0.11599963
-0.13155136
-0.11830703
0.17098165
0.063558124
0.0682298
-0.13525485
-0.17087457
0.18139377
-0.07994947
-0.25804368
0.07061738
0.013389168
0.006222756
0.09667344
0.16898544
-0.0669475
0.06472986
0.20820294
-0.09573568
0.03158868
-0.16459557
-0.06347806
0.082278684
-0.14040907
0.05568675
0.047056288
-0.027728014
0.035494935
-0.13745485
0.3040832
-0.044556897
-0.075734444
-0.08425531
0.10672666
0.006388691
0.21982127
-0.23168728
-0.014387947
-0.015341535
-0.08005681
-0.05979937
0.035882797
0.065581754
-0.15089823
0.040284105
0.016353298
0.119298
-0.06605156
0.030229498
0.21171133
-0.054641146
0.11117211
0.12858698
0.026330678
-0.081107385
-0.08501423
0.20427254
0.16862124
-0.064414926
0.27229443
-0.24432765
-0.12859604
-0.19050792
-0.21334757
0.120494574
-0.10299654
0.054827645
-0.09591244
0.033253998
-0.0035227907
-0.120788015
0.16542025
-0.025643803
0.039983753
-0.17032248
0.21686012
-0.20083708
0.020578852
0.060754545
-0.01910581
0.0038610373
0.13225242
0.004894129
-0.15752377
-0.22616293
-0.16940238
-0.1804611
-0.28937766
0.018351337
0.13306254
-0.04613159
0.11540772
0.055812567
-0.129476
-0.097571336
-0.07797409
0.110561
-0.18385528
-0.04576244
-0.072404236
0.079294175
-0.11685009
-0.048689246
-0.12763469
0.04882416
-0.29629552
-0.03263657
0.14256428
-0.16206618
0.10401461
0.11103198
0.274939
0.049875226
-0.08892339
0.079400405
-0.07320453
-0.05079245
-0.014749265
-0.22198471
0.20447822
-0.07003312
-0.14076787
-0.07215421
0.14280501
-0.07953979
0.15385
-0.057609152
0.08884626
-0.14360435
-0.020403996
0.19197968
0.10898364
-0.24053164
-0.040685378
-0.006247812
-0.1301406
0.07698478
-0.2442033
-0.20193784
0.015272493
0.052586433
-0.1542562
0.053850267
0.21343629
0.07490481
0.048460186
-0.10819675
0.10549391
0.08500991
0.050895423
0.103720725
-0.09655004
-0.025097009
0.009577424
0.046807636
-0.13257873
-0.0997546
-0.080920905
0.13138193
0.010402972
0.047578193
0.043109074
-0.14145036
0.026074342
0.2413551
0.17767467
0.215476
0.041612625
-0.101494245
-0.08196777
0.10822038
-0.04070598
0.065946594
-0.091939434
0.03920633
-0.18631348
-0.10959548
-0.3337305
-0.10445292
0.07223692
0.012147637
-0.083764434
0.053516563
-0.22085193
0.039877076
0.02354429
0.06084936
-0.021766152
-0.2285864
0.029999305
0.0074409973
-0.07202684
0.061359853
0.14529413
0.11038423
-0.075537145
-0.0540968
0.30125567
0.043398
-0.16482882
-0.13479908
0.10466512
-0.07247567
-0.32433808
-0.10421493
-0.004897835
-0.23570244
0.10580005
-0.05800122
-0.12213417
0.25399426
0.17270078
-0.05831018
0.069476195
-0.105361044
-0.02969902
0.13052964
0.23098081
-0.3434431
-0.21419984
-0.07498462
-0.0265099
-0.037923712
-0.37368014
0.049866684
-0.033230714
0.043464858
0.02304903
-0.03303559
0.18101999
-0.09723651
-0.004725059
-0.15617777
-0.18049923
-0.09555963
-0.02647078
-0.03493814
-0.06384587
-0.08235287
-0.09735507
-0.0068988306
-0.09453909
-0.0019774034
-0.13155435
-0.043349784
-0.00094262353
0.07038112
-0.14302064
-0.10932486
0.1660279
0.09795515
-0.08755616
0.08958754
-0.08175439
-0.30354545
-0.0010195492
0.21584935
0.21806374
-0.08960209
-0.07901343
-0.09911124
-0.06638074
-0.22550468
0.10598525
-0.059000857
-0.07271177
-0.027409181
-0.2057632
-0.096283264
-0.19670543
0.08683781
-0.10006712
-0.16449192
0.029971391
-0.13668856
-0.20766991
-0.0010544149
-0.17342636
-0.06390371
0.066311695
-0.20846035
-0.053924166
0.20533022
0.029404217
-0.02302012
-0.0613359
-0.14744927
0.0008283877
-0.11483477
0.08757985
-0.13754328
-0.07764142
-0.10679099
0.038053524
0.060453776
-0.037248984
0.07885775
-0.14311607
-0.2706913
-0.120938964
-0.03702949
-0.081210315
0.07216185
0.1024179
0.10463547
-0.06409251
-0.045466065
0.060443476
0.04618269
0.016688772
0.20211121
-0.15137279
0.24400462
-0.06385052
-0.09347834
-0.029878393
0.00014502527
0.20530745
-0.03500397
0.10767483
-0.12876047
-0.11563019
0.24361432
0.14294015
0.15945657
0.22676606
0.08816334
-0.0659365
-0.07612818
0.008362678
0.10844298
0.1099219
0.10508228
0.074131064
0.15198451
0.07412894
-0.111547485
-0.034296002
0.06398029
0.08738882
0.091628544
-0.09149314
-0.122471765
0.149803
0.020777531
-0.014156469
-0.10250311
-0.17462097
0.080000035
0.19984978
-0.01034647
0.022713877
-0.013759868
-0.03162146
0.22497073
-0.03403514
-0.00035226843
-0.030830473
-0.07788362
0.021076415
0.06142848
0.02763478
0.22288005
0.03491698
-0.03494826
-0.002826245
-0.061527204
0.18843924
-0.07839946
-0.052776944
0.03724894
-0.12228993
-0.05464009
-0.19515915
0.029706145
-0.15479171
0.020895293
-0.03295135
0.12255187
0.09892741
-0.05164529
0.13496591
0.14814208
0.07917964
-0.002486122
0.085500196
0.0033026987
0.14448251
0.21588409
-0.18868028
0.083390705
0.07564632
-0.03187811
-0.07081819
0.07170813
0.09573869
-0.060412787
-0.078598544
-0.07561693
-0.03346173
-0.04858058
0.031586766
-0.09792798
0.058097154
-0.08573667
0.03697568
-0.22778158
-0.09750189
0.102484345
0.18704215
-0.037127487
0.083152235
-0.14190334
0.08744063
-0.21645671
-0.007687962
-0.012837162
-0.053941928
0.056801245
0.030783786
-0.05919614
0.010183193
0.019635784
-0.28872758
0.08894011
-0.103881635
0.11628278
0.2616261
0.022127014
0.029463375
-0.13747889
0.2392333
-0.09522389
-0.027217804
-0.0019270829
0.1135949
-0.15313819
-0.26161703
-0.09159248
-0.11733118
-0.00856186
-0.12091309
-0.08249597
0.004872608
-0.11776609
0.21872467
-0.26119393
-0.1849361
-0.31460035
-0.13811032
0.012380503
0.19201626
0.27891666
-0.05102288
-0.015906898
0.011294333
0.05015185
0.043208357
-0.02506488
0.013132969
0.18353888
-0.035419833
0.007473846
-0.004890909
-0.014113074
0.12563568
0.08082154
-0.29930493
-0.20309825
0.1286092
-0.095994115
-0.04392197
0.026036685
-0.20779647
0.20111303
-0.04876435
0.0029762841
0.08081302
0.021296235
-0.14020236
-0.15434143
0.018777428
0.038060073
-0.29629412
0.029630303
0.17908487
0.14393374
-0.025258157
-0.024559533
-0.1090298
0.15892504
-0.0021396687
-0.081322566
-0.025629818
0.055489734
-0.16553432
0.18469588
-0.43112305
0.09763701
-0.040820733
0.11220939
-0.06394639
0.13532731
-0.08757219
-0.16449001
-0.18513791
-0.081637174
0.38244703
0.14020906
-0.19877893
-0.06816062
-0.119702384
-0.045861613
-0.13518055
0.44638053
-0.013575326
-0.0017967379
-0.027469372
-0.039662607
0.13065188
0.039798968
0.1238923
0.023434525
0.09221013
-0.00041156088
-0.0040533682
-0.034439668
-0.11887988
-0.1621313
0.0020984353
0.03924703
-0.022104038
-0.15563308
-0.1276818
0.09176116
0.058486145
-0.20652373
-0.038818296
0.07990697
-0.032359067
-0.29899925
0.098040655
-0.13931507
0.13266592
-0.13998157
0.077774994
0.3389728
0.16906317
-0.08634624
-0.0072751944
0.020473553
0.06848966
0.102984816
-0.1205388
0.11567837
0.11550206
0.031229353
-0.07927145
-0.09421183
0.2005872
-0.14874406
0.06619708
-0.11346544
-0.014222968
-0.19189747
0.08228363
-0.19406506
-0.061186723
0.10885485
0.055732183
0.06397345
0.022608774
-0.0031229982
0.19843017
-0.040410653
0.22649185
0.10072337
-0.13691156
0.17268887
-0.034406744
-0.0046481807
0.0019494656
0.01830239
0.08781437
0.007937409
0.14797051
-0.019744338
-0.09356237
-0.23917744
-0.22727484
-0.1195362
-0.019680055
-0.084512174
0.08379045
-0.08807165
-0.14856166
0.016494175
-0.122918114
-0.015635114
0.016873345
-0.07352591
-0.098059334
0.1539969
-0.1025604
0.07908482
0.00603133
0.094905354
-0.032013886
-0.14104645
0.043295287
-0.031945888
-0.113241866
-0.20971684
-0.12689169
0.10180852
0.14806841
0.03275266
0.38721666
0.15972444
0.20301157
0.018924346
0.10992689
-0.30764288
-0.103947625
-0.16013588
-0.050729938
-0.07836961
-0.061324358
0.040876463
0.10026413
-0.09334269
-0.036553107
-0.026001496
-0.14848621
0.096052215
0.03372635
-0.0005870757
-0.094250984
0.041750897
-0.108296864
-0.02995867
0.24499978
0.123609245
0.07507076
0.047045503
-0.2532135
-0.001605641
-0.17955151
0.1440906
-0.06466321
-0.008472136
0.16187438
-0.12193746
-0.053329553
0.08686431
-0.12841512
0.05988682
0.12264633
-0.11008405
0.12855467
0.056968763
-0.11722247
0.12321564
-0.23358513
0.26484692
0.0071441503
0.08511341
0.14764738
0.21479903
0.011968413
0.03692827
-0.08510698
-0.15411414
-0.06000804
0.13669765
-0.051276233
0.06237013
0.0052680895
-0.17406006
-0.12418147
0.034349173
0.0575298
-0.16289467
0.045963783
0.28933832
0.12864539
-0.0782327
-0.10118488
-0.05271647
0.059651896
-0.052587707
0.074484326
-0.17986137
-0.17614311
-0.09365581
0.23814698
0.0892453
0.061662845
-0.14062221
-0.1374621
-0.07012078
-0.013561583
0.026415698
0.09802486
0.1901976
-0.11797466
0.111733496
-0.13757087
0.019200832
-0.16467766
0.08422739
-0.13250339
-0.014475724
0.21412428
-0.055001393
-0.13459921
-0.16775563
-0.040043853
-0.18006867
0.123310916
0.14581437
0.10949032
0.029314019
0.11918165
0.05697285
0.020066127
0.15383196
-0.13985313
-0.14264905
0.12714405
0.05882712
0.07466226
0.03161712
-0.068884216
0.013450026
0.1344073
-0.07316534
-0.096914575
0.08480608
-0.27645773
-0.026287353
0.09471758
-0.21486382
-0.12540486
0.17745759
0.18796301
0.022597793
0.010844541
0.054512244
-0.1703031
-0.004395646
0.17653322
0.054550912
-0.035862252
0.10148758
-0.03288691
-0.026730297
-0.26760668
-0.16096662
0.062064458
-0.060845435
0.060301375
0.14735216
0.12840477
0.014799678
-0.05496947
-0.21994068
-0.006713642
-0.09171964
-0.01055073
0.03372991
0.062670454
0.007384849
0.08277359
-0.015702179
0.17873812
0.20978156
-0.15048614
0.0066436613
-0.036117785
-0.110301636
0.021635987
-0.18639493
0.045570947
-0.010065558
0.072333045
0.014926209
0.14506556
-0.07552336
0.12435535
0.059898753
0.014234856
0.027765078
0.1672226
-0.07276918
-0.04427469
-0.012626421
0.31189102
0.045682188
0.048775017
-0.14101873
0.13010584
-0.14079513
0.20924029
0.031322453
-0.05354942
-0.11443716
0.13521777
-0.11578338
0.024539212
-0.11542412
0.1623121
-0.17916982
-0.0054293396
0.060842488
-0.0035148852
0.20136149
-0.12343302
0.13272397
-0.16006586
0.03214627
0.10883284
-0.09842253
-0.34339017
0.03311173
-0.22602518
-0.08219045
0.17756635
0.0941369
0.12909734
-0.07439541
-0.1784703
-0.1143926
0.023476418
-0.16515496
-0.13201118
-0.008269086
0.12015747
0.19017065
-0.0013239917
-0.15027153
-0.018382624
0.0492643
-0.048438523
-0.25395033
0.05402218
0.15854517
-0.04551212
0.075055644
0.17013107
0.18706985
0.09264841
0.11684061
-0.11018636
-0.22222053
-0.10924334
-0.10303937
0.026329845
0.022884479
-0.04758179
0.019490248
-0.01803468
-0.046977628
-0.13052288
-0.07847608
-0.09934246
0.18536045
0.024564108
0.014794605
-0.03834658
-0.10311323
-0.12184861
0.24908061
-0.23185264
0.08008359
0.034406908
0.047549333
-0.13238713
-0.09198402
-0.13194855
0.1078084
0.038570516
-0.12525533
0.0857004
-0.20524628
0.08342474
0.10379668
-0.06898071
-0.08012794
0.12593238
-0.06933546
-0.013988711
-0.05519808
0.029509207
0.12150182
-0.021668991
0.22042793
0.0018257436
0.20471093
-0.109084986
0.083395064
0.030976428
-0.04632937
-0.08341564
-0.09007417
-0.030811086
0.37289503
-0.10531229
0.03341585
0.2284231
-0.23248926
0.01736479
0.087386645
-0.1817335
0.014111939
-0.17101377
0.100330666
0.1312928
-0.025553247
0.04472077
0.028346065
0.10542955
0.019365095
0.15733904
0.017542472
0.16430347
-0.0013780161
0.13581231
-0.04821168
-0.0523676
-0.09973261
-0.048322964
-0.07267109
0.003533657
0.09917498
-0.22005242
-0.1161727
-0.12737574
-0.18242387
0.075857796
0.083295606
-0.031430755
-0.09000969
0.047205072
0.13734257
0.063177295
-0.19575483
0.07128015
0.22514752
-0.13090149
-0.11767426
0.2039354
-0.17960884
-0.025798097
-0.061406616
0.19891942
0.09336537
0.15041046
-0.023383293
0.016205061
0.063076116
0.0025770639
-0.011366102
-0.054290373
0.11400464
0.0032622572
0.038283493
0.09913797
-0.08446969
0.03328648
0.18364622
0.0430642
0.13227041
0.14617488
-0.24025811
0.09980293
0.12437566
0.10879696
-0.004204793
0.026876906
-0.028190527
0.1752478
-0.035843555
-0.14347549
-0.15986745
-0.07729872
0.045519583
0.037030693
-0.037464764
-0.06164958
-0.20211947
0.02882211
-0.110931985
0.06892388
0.05719566
-0.2285396
-0.16888712
-0.103605166
-0.012029226
-0.053538945
0.070491806
-0.05733654
0.07716242
-0.063249856
0.20569995
-0.092141524
-0.12669103
0.16703835
-0.20816699
-0.12246005
0.07173528
0.014552817
-0.011298682
0.07340619
0.07743461
-0.28928685
-0.006639728
0.07021985
-0.0041038794
0.043967903
0.0030495748
-0.025686365
-0.0710139
-0.087818146
-0.05754352
-0.076743916
0.14406548
0.064093314
0.12646386
0.18112735
-0.026288116
0.10774149
-0.070577875
0.14035837
-0.049991146
-0.15228213
0.054854896
0.30839822
-0.118067615
0.06841075
-0.17144923
0.0037876635
-0.04197684
0.07742179
0.10476054
0.12675792
0.04232479
-0.05005678
-0.07130266
-0.024003793
-0.011157929
-0.06062913
0.19356792
0.16508411
-0.024526954
0.14079067
0.07846272
-0.25604182
-0.009875082
-0.01286638
-0.16046768
0.014005074
-0.076310284
0.010073654
0.18048869
-0.2416546
0.1358641
0.27925846
-0.021213872
0.19165854
-0.043553583
0.07294981
-0.1374726
0.14852338
0.24019559
0.13939229
0.076643065
-0.056462288
0.060888484
0.15666224
0.007903532
-0.087462015
-0.120657116
-0.1105747
0.00075124856
-0.024529401
-0.18270083
-0.06681961
-0.0054567503
0.1500817
-0.026105607
-0.10752916
-0.13411507
0.10954549
0.120082244
-0.093124874
0.10831759
0.15341592
-0.10550053
-0.019486144
-0.0569533
0.033777416
-0.0027253772
0.0133793065
-0.067411885
-0.146467
0.16789596
-0.0231741
0.2682806
-0.09944209
-0.025185639
0.10259886
0.054211456
0.121942624
0.09304891
-0.22581068
-0.029015293
0.024326462
0.10841941
-0.19883335
0.26062572
-0.020236095
-0.22387856
0.031095123
0.0704993
-0.13234776
-0.0292294
-0.15886687
-0.120349735
0.015488508
-0.060939744
-0.11434187
-0.09394061
-0.014565835
-0.012487402
-0.0618634
0.10434252
0.1572569
0.09177557
-0.0895707
0.013181308
-0.066055916
-0.13174881
0.19064689
-0.010633412
-0.039854262
-0.08500016
0.10520454
-0.20677608
-0.068908624
0.20873939
0.18158486
0.025048232
0.016975824
0.16691957
-0.1450275
-0.01554825
-0.25742376
0.02002425
-0.16178982
0.084846206
0.22395943
0.13918103
-0.11085813
0.101764075
0.11957366
-0.34767672
0.087489754
-0.067273766
-0.1260323
-0.09815261
0.049405295
0.28617576
0.058225382
-0.103122726
-0.026435234
0.12262283
0.0533493
0.21760269
-0.12108709
-0.292486
-0.022079464
-0.051879704
0.010281353
0.13192388
0.100242466
0.051641215
-0.14054659
-0.31189406
-0.2132464
-0.0645211
0.053964417
-0.080947615
-0.10136934
0.2783498
-0.026759673
-0.08702111
0.014104311
0.078589335
0.04133681
0.043833215
0.11124271
0.0041886116
0.072430275
0.086202726
-0.050327644
-0.13524808
-0.14976177
-0.26667595
-0.024893096
-0.2049261
-0.12847841
-0.11950489
-0.09620051
-0.15826747
-0.1354311
-0.017042141
-0.114721365
-0.060773637
0.11974546
-0.05347816
-0.053094614
0.069943845
-0.16554397
-0.19616306
-0.010973473
-0.058144487
0.0062725754
-0.025101993
-0.013374875
-0.031364653
-0.1513484
0.16194512
-0.19062671
0.06709128
-0.21858253
-0.17322883
0.12046995
0.010053284
-0.0051264954
0.005704518
-0.1559438
0.18648182
0.032707132
-0.11491581
-0.01565118
-0.19242427
-0.009616817
-0.0902962
-0.06070198
0.019145723
-0.055412423
0.07473309
0.027272142
0.00902373
0.064047776
0.13507211
0.039219055
0.07218741
-0.087417275
-0.035045188
0.08488414
0.018287739
-0.32027897
-0.086991
0.21966857
0.0894538
0.0029567224
0.18401963
0.11543013
-0.1917347
0.10316477
0.06792068
-0.03817926
0.3335526
-0.00833953
-0.18812378
-0.11352017
-0.21003354
-0.14982025
-0.17438269
-0.030628137
0.15385865
-0.13336451
-0.09143646
0.14258316
0.32613578
-0.27883324
0.09865375
0.17102967
0.096250944
0.22195967
-0.028349979
0.013715855
-0.08298277
0.16004062
0.25220814
-0.023261955
-0.27928615
-0.00070608704
-0.046458155
-0.13713045
0.07352301
0.1607814
0.16121048
0.27769485
-0.08991215
-0.2277411
0.09581633
0.095984325
-0.134715
-0.08926782
-0.119736895
-0.25671256
-0.07836463
-0.06952325
-0.07824811
0.0076156897
-0.14881566
0.083292335
0.08713831
-0.013046171
-0.015650531
0.053633112
-0.17517862
-0.016236074
0.048519634
0.180223
-0.049561944
0.046531476
-0.076457724
-0.00853283
-0.042174414
-0.14287944
0.14983428
-0.04214168
-0.017871445
-0.0020387438
-0.045493975
-0.07182062
0.053556006
0.06288292
0.07822652
0.05121763
-0.11881001
0.030713651
-0.012422074
0.04603676
0.114043
-0.025223482
-0.1326427
0.2891481
0.09834307
0.0744879
-0.050182723
0.052938472
-0.0032166992
0.060699828
0.16217779
0.084637925
-0.18101978
-0.07135133
0.11459384
-0.22481006
0.1515276
2.4959227e-05
-0.0902086
-0.1534197
-0.25764045
-0.32090446
-0.0023782034
-0.11082257
-0.0805097
-0.038233988
-0.11675163
0.30838323
-0.097986154
-0.16141821
0.3994135
-0.055733785
-0.017385203
0.08404203
-0.008777152
-0.081085205
-0.040391937
-0.4038206
-0.10618246
0.17175496
0.043926053
0.14687057
-0.22066821
0.15724473
0.17890099
0.009064167
-0.07739452
-0.100665115
-0.040260147
-0.12533554
-0.11902188
-0.29995292
-0.06555172
0.07541248
-0.058530048
0.076301254
-0.08873623
-0.022991497
-0.1019083
-0.26588923
-0.06160828
-0.09558464
0.19404049
-0.081848025
-0.3210152
-0.03889085
-0.026575651
-0.11809695
0.10323003
0.13060632
0.21483429
0.09301248
0.002219704
0.1136567
0.03891127
0.074914604
-0.18704952
-0.13215716
-0.11401389
-0.07509904
0.21352525
0.034761455
0.026988698
-0.06239408
0.21740371
-0.020853197
0.12846473
0.027070114
0.14469998
0.120569356
0.027248148
-0.097024456
0.09544279
-0.12711997
-0.0745522
0.015935728
-0.050689742
0.15464433
0.23128207
0.067915924
-0.04419547
-0.06657619
-0.09550719
-0.16616583
0.22041155
-0.14295097
0.12785356
-0.13057695
0.11056854
-0.12582839
0.054357827
-0.040750813
0.18398552
-0.11954246
0.16959612
-0.14394574
-0.023911808
0.31163302
0.18158862
-0.08863106
-0.007498196
-0.028185481
-0.15244325
-0.115787104
0.050537817
0.036714647
0.16594894
-0.113386534
-0.15597863
0.20362942
0.034705468
-0.10103844
-0.21737058
0.1479309
-0.09569269
0.06738369
0.047348622
-0.10998822
0.15048042
0.078866854
-0.00853737
-0.1900252
-0.04956966
0.097481966
0.03431581
-0.121474326
-0.123965785
0.06377858
0.18485124
0.1438737
0.12785792
0.01085571
-0.15499622
0.2268579
-0.16643092
0.14460239
-0.046528846
-0.0018562365
-0.16593425
0.2213561
-0.08242402
-0.03347812
0.06256782
-0.059325565
0.04855643
-0.025846686
-0.11761345
-0.17746349
-0.12583898
0.050848003
0.1734071
0.17908956
0.077169016
0.068567626
0.0506489
-0.026578901
0.26076993
0.057984803
-0.060007386
0.051423024
-0.018379414
-0.1347667
-0.061873388
-0.14299788
0.15722351
-0.06105873
0.03347551
0.052316394
-0.14030473
0.17749129
-0.014669386
-0.08237819
0.02932825
-0.053116523
-0.1377185
0.05563511
0.12765653
-0.17671087
0.060536556
-0.018466769
0.11498849
0.00076587644
0.0026194253
-0.19834478
0.15362523
-0.17967677
-0.12412592
-0.003381816
-0.053849407
-0.16627422
0.1043524
-0.20139883
-0.041927394
0.068559185
0.088105224
0.09812986
-0.1902142
-0.09259963
0.17620729
0.06499553
0.079010256
0.030498184
0.12047814
-0.033859797
-0.32816803
-0.034855403
-0.018969147
0.0005423181
-0.008952533
0.03973639
0.18811488
0.06724147
0.09271465
0.15952991
-0.17980002
0.050146446
-0.0970228
0.21921942
0.34627488
-0.18406658
0.092212945
0.13539661
0.13399282
-0.09663814
0.012563984
0.1341071
0.09831692
0.05117041
-0.13098702
-0.10806978
0.11913487
0.024738206
0.006713158
0.16400643
-0.09957991
-0.06764219
-0.0050526797
-0.08176203
-0.14558733
-0.06961061
-0.1807764
0.060577724
0.06746216
0.019322297
0.13230951
-0.13302857
-0.0102342
-0.18188299
0.060557634
0.040545493
0.047818266
-0.0026137473
0.10885637
-0.10092745
-0.10658463
0.09258455
0.18730904
0.026275923
-0.010473144
-0.16763474
0.21050796
0.028917981
0.07708662
0.17520492
-0.111879945
-0.17302376
-0.011980013
0.0726486
0.120192654
-0.026713826
-0.11388212
0.15489951
-0.09618441
-0.022925949
-0.25886744
0.00026198127
0.000718461
-0.038633823
0.15593676
0.029670699
-0.11677528
0.16758913
-0.0058430275
-0.08232794
-0.08293793
0.04007192
0.018969638
-0.06665562
0.19387385
-0.025844526
0.013930055
-0.083078526
0.09128641
-0.081276566
-0.009462015
0.14048621
-0.22154044
-0.061471548
0.053090677
0.09630447
-0.02028899
-0.16954038
-0.09125645
-0.08227156
-0.048278604
-0.020316744
0.09217815
-0.12307261
-0.017075779
0.0006286244
0.06476314
-0.09433342
0.011339825
0.017854648
-0.09631825
0.12122699
-0.077528335
0.13494354
-0.028765388
-0.026301742
0.014704203
0.017616369
-0.06703611
0.020693826
-0.022930693
-0.0648434
0.05318519
-0.12788954
-0.07923455
0.119250946
-0.09147775
-0.16818891
-0.08489467
0.118013576
-0.08540568
-0.18631871
-0.063410506
0.091295935
-0.06438175
0.10910785
-0.14365949
-0.07035339
-0.044657398
-0.02501816
-0.095273346
-0.0053589363
0.17247893
0.16190895
0.15457167
0.051847875
0.18317498
-0.03439832
0.006798269
0.003505396
0.032479648
-0.13753493
0.07971602
-0.1417881
-0.08761235
-0.12585361
-0.018106304
0.0647211
0.05161017
-0.25914788
0.05991824
-0.0066714813
0.052253906
-0.048325952
-0.044491667
-0.24506643
0.09380741
0.08323859
0.040871255
0.18219458
0.0883874
0.08850386
0.03551064
-0.29954895
-0.059107583
-0.1679917
0.25074893
0.04173508
0.087591164
-0.020231556
-0.08063961
-0.066977195
-0.09056519
-0.07322194
-0.020123575
0.012484837
0.13415481
-0.04608431
0.014253187
-0.023636675
-0.07655951
0.15031661
-0.019629702
-0.01335691
-0.009103971
0.014938829
0.1165222
-0.09881673
-0.057782065
-0.112913504
0.14769131
-0.22283995
-0.0554047
-0.049737938
0.23323812
0.04035326
0.105673656
-0.054512773
-0.07354534
-0.018065017
-0.112915665
-0.17550199
0.026394764
-0.15467288
0.059330955
0.13495238
0.22995214
-0.30292094
-0.06920689
0.028785339
-0.11889663
-0.018398272
0.11201167
-0.08610361
-0.050196555
-0.1529726
-0.08279301
-0.028516449
0.012335659
0.021666296
0.12079006
-0.10678197
-0.1040303
-0.11356712
0.3354251
0.014609818
-0.01143729
-0.12011467
0.07625038
-0.1631845
-0.255075
0.072951555
0.0070828567
-0.07922412
-0.045086473
0.32138652
0.10997932
0.052317075
-0.03334831
-0.13578767
0.02713452
-0.09614083
0.05872715
-0.08324679
-0.102512375
-0.1598462
0.107327804
-0.03381516
0.072252855
-0.07415376
-0.24746574
0.07248512
0.23757188
-0.21419595
-0.00080881186
-0.019904597
0.07518322
-0.013615071
-0.020134691
0.15674245
0.28119624
-0.030090552
0.10874971
0.103430524
0.0444898
-0.105350025
0.07986563
-0.15063782
-0.17729032
-0.030565966
0.35439673
-0.055574417
-0.077522576
-0.18644114
-0.0586942
0.011377429
-0.010611366
0.0076557673
-0.21602023
-0.06001261
-0.0808798
-0.16618353
-0.064066306
0.017450618
0.020262655
0.050202087
-0.10892963
0.121703275
0.1869485
-0.012292983
0.050372787
-0.15473121
-0.13572171
0.015013178
0.10691956
-0.12660278
-0.27168944
-0.08027793
-0.25544414
0.28766632
0.0816731
-0.029090365
-0.07564172
-0.13263588
-0.095898636
-0.010314504
-0.05658391
-0.057050113
-0.030098591
0.09089669
-0.006811805
-0.0974647
0.03373535
0.16442004
0.08782034
-0.1202644
0.17095879
0.2271599
-0.16208015
-0.08002376
-0.012830612
0.035565164
0.12864831
0.15769185
0.017993724
-0.20613757
-0.1318897
0.10089782
0.12431803
0.03486539
0.23472294
-0.1058445
-0.03188421
0.27916652
-0.025141338
0.041920315
0.010571404
-0.11583059
-0.15542245
0.14708704
0.036967047
0.046440072
0.04508467
0.044143703
-0.022032134
-0.30862844
-0.10217905
0.033061158
0.24473713
0.22600171
0.024506813
0.10954339
0.018709771
-0.02232648
-0.027479403
0.023333361
-0.023228629
-0.10434083
0.16352095
0.20405285
0.06375684
0.075648196
-0.09626258
-0.25614402
0.00036293606
0.098094225
0.18418705
-0.08263563
0.10226343
-0.014979379
-0.05211998
-0.074738
-0.022725422
0.28741926
0.012266444
0.061230235
0.22089806
-0.22078106
0.005896256
0.041702256
-0.10939638
-0.007332461
-0.09139305
0.22511156
-0.063545294
0.18246792
-0.11937258
0.08578334
-0.057177227
0.22845006
-0.1453872
-0.0195453
0.006968909
0.2870714
-0.123657696
-0.11259745
0.3738022
0.06390517
-0.049307413
-0.010367518
0.06392271
0.041215565
-0.031308863
0.026821218
0.03701872
-0.033787455
0.11322038
0.10822024
0.025670944
0.058510453
-0.14504328
-0.052682023
0.07799304
-0.035315566
-0.05125133
0.049273595
-0.09212688
-0.047289506
-0.15626292
-0.19409832
-0.43557513
0.125846
0.2068183
0.18574804
-0.14479597
0.019999947
0.18233205
-0.06262483
0.048027903
-0.05502783
0.108534165
0.0216542
0.059795514
-0.043803994
0.02336535
-0.0037248759
0.11461895
-0.19037239
-0.030340685
-0.15596098
-0.0028569552
-0.05777658
-0.20341711
0.11376962
0.057895914
-0.041441195
0.018637517
-0.01767142
-0.05455608
-0.024831995
0.20086461
0.016048806
0.011849721
0.04995039
0.098658726
-0.15887843
-0.032034718
-0.099894695
0.08065489
-0.0784582
-0.1285221
-0.1671815
-0.09526821
-0.2149481
0.12529391
0.16427791
-0.051564354
0.08612711
-0.013444721
-0.22243406
-0.14294033
0.040973064
-0.22738989
0.16075271
-0.22391242
-0.23385736
-0.093653575
0.057763655
-0.0644628
-0.11066917
0.07433632
0.11313595
-0.11958241
0.07044454
0.08170626
0.030960824
-0.07477065
-0.17462572
0.028183026
0.09754261
0.2840945
-0.00083740783
0.013990156
-0.053117324
0.12704034
0.18723167
-0.005082791
0.20813349
-0.30688205
0.23286383
-0.20081127
-0.15391363
-0.042792376
0.025372777
-0.11150088
0.35254645
-0.1475077
0.007081368
-0.15998054
0.22756709
-0.20506027
0.14990105
0.24444331
0.1937903
0.0014280166
-0.20195109
0.082556024
0.13609706
0.07035134
-0.22996156
-0.13443218
0.014569642
-0.010976994
-0.050424572
-0.07382418
0.14720227
0.19725882
0.114497654
-0.11918456
-0.041199833
0.19864917
-0.038498864
-0.08510294
0.025151422
0.011347055
0.1776652
-0.0060734693
-0.11353547
0.046770394
-0.00033679392
0.107645266
-0.10538124
-0.12686676
0.021761486
-0.0428768
0.034569535
-0.09815279
0.08045066
-0.010955583
-0.25587478
0.06727466
-0.13695486
0.23518696
-0.07981881
-0.055651404
-0.057699118
0.079647176
-0.1911869
-0.20171618
0.104036234
-0.0011058376
-0.07378214
-0.1294534
0.07049615
-0.021454593
-0.16669098
0.027350262
0.008631009
0.1837984
0.026600296
-0.38190338
0.0065608826
0.16178435
-0.23053184
-0.0945645
0.2124564
-0.019810217
0.09183703
0.06395792
0.1392619
-0.00023011361
-0.090201855
-0.15338273
0.071758084
0.1978426
0.038212642
-0.13957965
-0.03570801
-0.10119205
-0.17293207
0.039053015
-0.14725351
-0.21785808
0.085768744
-0.062306285
0.0861527
0.30009532
0.1718245
-0.04365656
0.023575785
0.22558367
-0.08809535
-0.16626035
-0.17195044
-0.0025290968
0.031757243
0.09401628
-0.01947615
0.0035814368
0.036467638
-0.18994196
0.048402827
0.034673285
-0.02124468
0.17411701
0.3385033
0.00923525
0.16326866
-0.06991045
0.13389812
-0.0683878
-0.119202204
0.10895013
0.004490396
-0.0734413
-0.17309164
-0.016499026
-0.054993756
-0.09111916
0.07851539
0.03671363
0.020127645
0.07092108
0.023288712
-0.034505412
0.06279588
0.055892467
0.27183127
-0.03538676
0.003707135
0.0006260194
0.12728193
-0.20794953
-0.13365237
-0.24195455
-0.08504687
0.13124546
-0.032917928
0.28885585
0.0002511606
-0.037425805
-0.078862466
0.1789107
-0.00057788356
0.004423666
0.025198705
0.071510784
-0.03383078
-0.0006483335
-0.22764368
-0.05999802
-0.02791155
-0.08735963
0.13142043
-0.030241769
0.17757298
-0.000987009
0.1355871
0.062190644
0.12379535
0.055270296
0.074305154
0.10538303
-0.0054421914
-0.174072
0.05591981
0.2951335
-0.059836764
-0.12915039
0.08618634
-0.03382771
0.09960442
0.09904141
0.13307391
0.06724703
0.02335886
0.18455353
0.1384497
-0.07989605
0.0030428576
-0.0044214395
-0.012149329
0.03663162
-0.012907814
0.015863553
0.20342322
0.0016754603
0.23310578
-0.0023801534
-0.06569726
-0.20846784
-0.24679708
-0.034930617
0.24516721
-0.08590477
0.0814655
0.013192309
-0.04978744
0.09363637
0.0072692987
0.0219171
-0.044743575
-0.089080684
-0.043326963
0.018831594
0.006688775
0.073235266
0.015576276
-0.017922869
-0.019507566
0.058001764
-0.20795222
0.0014312007
0.0450133
0.040781964
-0.165375
-0.12979317
-0.049808837
0.09363191
-0.039754152
-0.059764948
0.08105281
-0.16160655
0.18983734
-0.23351325
-0.119442545
-0.13527727
0.0954319
0.31814167
-0.16979554
-0.08855238
0.0024045226
0.025551926
-0.108886704
-0.13278988
0.042144842
0.23193026
-0.03870043
0.0026224072
0.3465288
-0.007951127
0.12634811
0.0032445057
0.4067826
-0.010707427
-0.11806296
-0.09120809
-0.17355968
0.08983394
0.087423846
0.083459586
0.10291408
-0.06352795
-0.12644228
0.0074715647
-0.03598843
0.2199672
-0.053201623
-0.08160055
0.16367263
0.10285455
0.06321552
0.15684596
0.15661046
-0.17563145
0.13126977
0.009172916
0.08310607
-0.023969857
0.024853026
0.032667417
0.032723576
0.13636863
0.1684922
0.096077286
0.0933384
0.029007249
0.013505842
-0.24555752
0.12593907
-0.14315455
0.12734106
-0.028613226
-0.0020462729
0.067655444
-0.22474883
-0.33538088
0.06914053
0.13902308
-0.20767403
-0.032690864
0.1746244
0.05277829
-0.027735023
0.17143281
0.0111813685
-0.19180846
0.20443615
0.12563142
0.07101158
0.07179814
-0.117342524
-0.09368173
-0.12574337
0.012493031
0.18459809
0.0018198275
-0.09127554
0.043773115
0.07938291
-0.032821417
0.051448356
0.14518633
0.064921886
-0.19281952
0.09215969
-0.0467039
-0.20250012
0.10989865
-0.13191825
0.10337208
-0.044808555
-0.069618985
-0.032645233
0.15013178
-0.19310844
-0.15428527
-0.04332028
-0.1037982
-0.0035242995
-0.066036776
0.10328953
-0.022851039
-0.0059743025
-0.038684733
0.23370957
0.0939298
-0.10417032
-0.08302464
-0.004333571
-0.0049854144
-0.118227266
-0.13863783
-0.101434216
-0.060070675
-0.07313595
-0.12982668
0.049755976
-0.085795745
-0.07921622
-0.07330883
-0.051166315
0.033651367
-0.11869197
-0.09169218
0.20473573
-0.12471317
0.099384114
0.030497843
0.16905616
-0.019873932
0.002353031
0.03165618
-0.3854861
-0.06103379
-0.12342769
0.018362489
-0.19443221
0.0825104
-0.0028855265
-0.0705612
0.069302455
0.012613376
-0.19101328
0.098470725
0.015890298
-0.0065179113
-0.067840345
0.07009739
-0.17001206
-0.021855561
-0.032375745
-0.14064436
0.05681863
-0.12881064
0.13506141
0.087277904
-0.19783461
0.02276283
0.12842035
-0.10576963
-0.17105761
0.08911635
-0.04928152
0.08993804
-0.045544527
0.04083543
0.15498184
0.14055216
0.12628858
0.008188012
0.098052844
0.08450753
-0.0105677275
0.03965606
0.19383839
0.018997062
-0.08524723
-0.08651638
-0.052556485
0.067436956
-0.029223632
-0.037647404
0.057592373
0.008846349
0.08017802
-0.05326595
-0.20840533
-0.1772517
0.04951748
-0.021261338
0.15079491
-0.14328662
0.09228997
0.19222488
-0.075500175
0.06620209
-0.055925567
0.13098457
-0.07326529
0.03212288
0.012809615
-0.13165691
0.15465157
0.12826645
0.17479211
-0.12068019
0.075393684
0.061448913
0.076214224
-0.06974871
-0.08897505
-0.23350622
-0.055014767
0.071290076
0.12648928
-0.111396335
0.05609241
-0.14751753
-0.058598276
-0.014496049
0.09633091
-0.22062138
-0.08779019
-0.25125366
0.21010782
-0.089211755
0.02890136
-0.13068902
0.03442928
0.07232403
-0.02335738
-0.1509974
-0.009977183
-0.062471364
0.1466832
-0.04368732
0.110065
-0.19482826
-0.056070216
0.103484094
-0.13149358
0.064007
0.12736298
-0.007273824
-0.026061835
0.10196319
-0.14000458
0.08634621
0.03930235
-0.18040784
-0.20114799
-0.0171301
-0.2149854
0.071623996
0.16808213
0.02287011
0.060245365
-0.07658302
0.17318764
0.04495244
-0.18594879
-0.11158186
0.33687755
0.012583789
-0.016652755
-0.009526145
0.18703529
0.009068233
0.005460443
0.0841911
-0.15424494
0.06453689
-0.11678264
-0.033052474
-0.06938396
0.16123372
0.08592967
0.11735762
0.08170707
0.24942191
0.111884125
-0.20051338
0.11015005
-0.06355918
0.08571747
-0.14813821
-0.0003815333
-0.057753734
-0.043325648
0.0041076844
-0.057273068
-0.035319876
0.04007172
0.048388373
-0.15848646
-0.12583762
-0.13388652
0.123558395
-0.14413626
0.11151017
-0.005410742
-0.116201386
-0.068396226
0.05306318
0.014564027
0.09183708
0.2669114
-0.08125274
0.12208516
-0.06117545
-0.10726258
0.30884558
0.15586312
0.084922194
-0.086599536
0.21481594
0.099858545
-0.056183953
0.110384874
-0.040670257
-0.061749943
-0.007021135
-0.10174818
0.03872925
-0.0141437305
-0.17920467
-0.24031708
0.16560788
-0.08210307
-0.09658907
-0.24947116
0.19003032
-0.002872046
-0.08044153
0.09856799
0.07426339
-0.1306169
0.11958438
0.056809653
0.034957886
0.043069344
0.04841926
0.021231543
0.17855455
-0.013135318
0.05433585
0.16066429
-0.22131081
-0.084854536
-0.18047011
-0.11580221
-0.12984125
0.01266696
-0.18705846
-0.06088895
-0.29155388
0.13316977
-0.13641077
-0.30239132
-0.038974848
0.14811774
0.26710013
-0.100103445
-0.019040398
0.14529726
-0.124520734
0.11700869
0.034299597
-0.11315835
0.07098235
0.26517606
0.12218532
-0.02122283
-0.16313975
0.006579163
0.038269993
0.0076407883
0.14798267
-0.13264734
0.03237265
0.051227644
-0.1288022
-0.03027206
0.116526574
-0.020182475
0.16334033
-0.014034296
0.067410156
-0.040478352
0.057262957
-0.008711606
-0.04925465
0.1944504
0.10984004
-0.08137939
0.1631312
-0.03044254
-0.05330037
0.10744623
-0.057561755
-0.1817624
0.02461575
-0.100626834
-0.0708297
0.04875107
-0.120601974
0.21914297
-0.20306921
-0.14953917
0.05402327
-0.027609035
-0.15595534
-0.07121939
-0.12798607
0.00803026
-0.043955162
0.16838565
-0.2258601
-0.019213693
-0.04070559
-0.23613474
0.07323334
0.11599458
-0.021679148
-0.080708586
-0.18063092
-0.04499622
-0.107180536
-0.05261474
0.11814879
-0.13873497
-0.043668512
-0.005581597
-0.0867694
-0.067064114
-0.067529045
0.28795502
-0.18303101
0.061584137
0.144357
-0.0030555022
0.07000724
0.025617875
-0.06836551
-0.13517696
-0.19370398
-0.107762255
-0.044440825
-0.07574439
-0.004519199
-0.051448513
0.16697867
0.038358897
0.051432118
-0.08843305
0.04084783
-0.10536545
0.25344968
-0.16898938
-0.019665523
-0.1520499
-0.19570021
-0.07719583
0.02886638
-0.14980455
-0.17876716
0.3239923
-0.18590525
-0.06346718
-0.07456917
-0.2767927
-0.007690563
-0.15551884
0.015724303
0.12665059
-0.075877815
-0.17551388
0.04929676
-0.0709191
-0.2410898
0.14895797
-0.063909315
0.063323386
-0.044776287
-0.011647688
-0.0740274
-0.02925651
-0.14653918
0.11209848
-0.14140671
0.11381847
-0.060325857
-0.18602073
0.1872808
0.16686778
-0.50142884
0.1984139
0.21563646
-0.02727646
-0.12763046
-0.07363471
-0.0036713944
-0.0013210438
-0.09706012
-0.0057700304
-0.014861369
0.18953425
-0.022013243
-0.11353037
0.06333588
-0.11221714
-0.15780161
-0.07303133
0.101384304
0.28912824
0.10446062
0.009909314
-0.14426689
0.08411218
-0.30093732
-0.056313332
-0.03244673
0.13955103
-0.07764933
0.1625221
0.01800185
0.30058298
0.13045985
0.1170302
0.18763207
0.080547675
-0.22221763
0.061184995
-0.05085636
0.11883158
0.07923749
0.110946044
0.09999249
0.20939659
-0.024756197
0.07562176
0.07344525
-0.076875836
0.10306625
-0.021142997
-0.059226163
-0.07309134
0.024864307
0.06989998
0.0398912
0.0032448175
0.27695897
-0.05580557
-0.203481
-0.1757614
-0.22038388
-0.070822395
0.04572911
0.006082846
0.19064213
0.044994544
-0.2598752
-0.068580024
-0.06824321
-0.08017502
0.022742348
-0.21513589
0.05023428
0.024993403
0.14813279
0.0611825
0.054283764
-0.11717677
0.14764056
0.1011516
0.055339385
-0.003593269
0.4250955
-0.16359553
0.26132998
-0.09703757
-0.080680646
-0.05328318
0.13234884
-0.067458026
0.077971555
-0.1295092
-0.16233997
0.09217226
0.004526118
-0.13946924
0.09901708
0.14414321
0.10499241
-0.033405248
0.021423485
-0.057375424
0.024778832
0.021724781
-0.04761858
-0.063982315
-0.010213339
0.0396959
0.14398403
-0.02756484
-0.05466383
-0.30145976
-0.058360744
0.1770995
0.017929424
0.15504135
0.02245173
0.019287657
0.30499
0.25818354
-0.07136465
0.019506836
0.02339458
0.1748678
-0.10502692
-0.15495095
-0.07657255
-0.048875462
0.06869984
-0.07693725
-0.14205377
0.09438698
0.07466995
0.07819171
-0.14781281
-0.023670908
-0.090081885
-0.07029919
-0.13297623
0.019476848
0.04189955
-0.06961991
0.035134383
-0.21252023
-0.06979921
0.13302381
0.04377656
0.1451893
-0.05660985
-0.04922374
-0.016588546
-0.0021935178
0.17761792
-0.16025558
0.06959233
-0.22407894
0.048830114
-0.11738439
-0.13465351
-0.040379085
-0.16761547
-0.09604247
-0.16871065
0.16206594
0.123823114
-0.15292671
0.15863183
-0.004596739
-0.09137314
0.06119637
0.20407481
0.032674912
-0.13005665
-0.16360463
0.13142605
0.14277412
0.20724276
0.10148035
0.29419258
-0.123097986
-0.098740846
-0.008266058
-0.052166164
-0.08286667
0.11842075
0.083253704
-0.07841707
-0.16029568
-0.05512504
-0.102855965
-0.26076454
0.07212578
-0.025407495
0.10709237
-0.16624123
-0.09638004
0.091913015
-0.025847403
0.13596117
-0.086227365
-0.04399342
-0.19463728
-0.008292857
0.14300136
0.02594879
-0.018555734
-0.07068991
0.00962637
0.18572548
-0.15526581
-0.16216809
0.048761073
-0.022798043
-0.07732969
-0.066483155
0.058814287
0.091006495
-0.12663011
-0.10229406
-0.007985412
-0.12749912
-0.20583257
0.09254707
0.26467776
-0.18974027
-0.030705057
-0.086845055
-0.059215672
-0.20009337
-0.013839853
0.0106939515
0.03955354
0.29298884
0.0367832
0.123672165
0.03176229
0.30027714
0.15632953
-0.17805277
-0.19994147
0.021759205
0.1906227
-0.007753131
-0.07351742
-0.0743866
0.0028853894
0.06960379
0.16097078
-0.02110333
-0.038849577
-0.1132136
0.028076693
-0.07501535
0.07600488
0.025605088
0.08778416
0.18931757
0.015088628
-0.15148649
0.18409784
-0.13477847
0.026417334
-0.1176974
0.054487754
0.1171549
-0.15160418
-0.04584026
-0.07340817
-0.21775109
0.13096671
-0.08701683
-0.19466446
-0.31464943
0.08230261
0.020970047
0.056369524
0.18787533
-0.24834765
0.030061347
-0.03742265
-0.07464321
-0.15690224
-0.016909912
-0.007703494
0.09280888
0.04542119
0.1431647
-0.1277089
-0.017841572
0.1311936
0.116375394
0.18024614
-0.058872584
0.091502644
-0.19010559
-0.04962569
-0.1842852
0.010971993
-0.18162003
-0.008121448
0.08544606
-0.18718655
0.084247544
0.0020535975
0.18063127
0.081541345
-0.09685622
0.04145938
0.14304583
0.015218924
0.05868475
-0.026141014
0.07516245
0.19799167
0.047981482
0.15351745
0.016054675
-0.11110408
0.04426808
0.28280222
-0.09281431
0.067022905
-0.14370099
0.13802327
-0.014008255
-0.02757548
0.028889814
-0.10116241
-0.048067268
0.19519591
-0.14883763
-0.040482
-0.26313904
-2.6563426e-05
0.0019024849
-0.018128255
0.09288277
-0.009079089
0.16414917
-0.10037612
0.14728089
0.20961899
0.15281767
-0.056888167
0.23321395
-0.04488907
0.05518223
0.07159618
-0.13149947
-0.23045442
-0.14370997
0.107539535
-0.0015180985
-0.021354634
-0.0011382883
0.18824415
0.06442916
0.006050074
0.31687686
0.08290475
-0.22604667
0.1590601
0.043066863
-0.17335276
0.12066358
0.10491312
0.00064854673
-0.04566354
-0.1546592
0.03973702
0.083144695
0.03140027
0.019388415
0.0062230825
-0.040236335
0.146974
-0.18369988
0.1106056
-0.11710177
-0.10026128
-0.076261036
0.01522701
0.16429965
-0.25616628
0.23700993
0.15031177
-0.13516542
0.06235595
0.15741232
0.1625888
-0.19481811
-0.1906614
-0.11131438
-0.14964327
0.051113404
-0.14755097
0.33305144
-0.1139865
-0.0044733053
0.05252143
-0.10402679
0.04383076
-0.08041852
0.10069923
-0.05156945
-0.008179628
-0.1593971
-0.12968275
0.027088346
-0.16813321
-0.0550167
-0.0012154031
-0.08333522
0.062405147
0.16063815
-0.086641856
-0.10901687
-0.012706508
0.23116122
-0.2165579
-0.0050437064
-0.026899593
-0.010229952
-0.02882407
0.15582682
-0.014006997
-0.13145497
0.04097436
-0.13741635
0.1386123
-0.14067122
-0.12759098
0.0976872
-0.3491604
-0.16726242
0.12402855
-0.010995275
0.06562693
-0.16707851
-0.15057899
-0.06874643
0.039395794
-0.019967783
0.14548402
-0.1544142
0.14058267
-0.040922552
0.04384607
-0.065702096
-0.066907704
0.28153995
-0.09412557
0.030357245
-0.18905263
-0.06381061
0.11904713
0.059309058
0.060875874
0.23851298
-0.1805849
-0.1221574
-0.10779925
0.07512415
0.10754643
-0.14859024
0.123178504
-0.031247243
-0.028077759
-0.04899346
-0.12170797
0.1897637
0.31037065
-0.070396364
0.11322725
0.09134562
-0.052771296
-0.14739256
-0.012418958
0.04527604
7.741318e-05
-0.16427088
0.042017955
-0.0015855369
0.2215325
-0.037285715
-0.10626752
0.18469179
0.1215478
0.1233547
-0.08888318
-0.1344777
-0.05944942
-0.12161533
0.107677214
0.03329825
-0.2255961
-0.12967037
-0.007935274
0.0113630565
-0.08953627
0.11559843
-0.12539129
-0.094543375
-0.060660556
0.107502125
0.09901083
-0.010766362
-0.1167862
0.09027104
0.021141233
-0.013775323
-0.24086782
0.06536537
-0.002225706
0.16464914
0.15900475
0.07500145
-0.009256317
-0.104717344
0.18146165
0.031155773
-0.074888006
-0.08845373
-0.12103492
-0.042807333
0.10210052
-0.034307707
0.0547616
-0.092397094
-0.0826596
-0.16554803
-0.0007369534
0.053264167
-0.11466783
-0.04907481
-0.33938837
-0.06207214
0.15292443
-0.05650792
0.04084992
-0.05133361
-0.29716802
0.009240629
0.36921215
-0.12280271
-0.039080996
0.14414023
-0.10877141
0.1321443
-0.003811458
0.07793082
0.021415124
-0.05265705
-0.15652397
0.00640361
-0.08662512
0.041435063
0.059285283
-0.09865379
0.10016771
0.073511444
0.16418639
-0.01744909
0.03309768
-0.044193745
0.011791717
-0.1477848
-0.06335847
-0.03865666
-0.11636268
-0.03901967
0.2745911
0.00938826
0.0795385
0.13116457
0.14600305
-0.1205392
0.06743255
-0.00934296
0.15557636
-0.1980453
-0.016001316
0.03234677
0.13923939
0.03913605
0.008030934
-0.07683045
0.21558939
-0.06932952
0.00836665
-0.037107605
-0.011347989
-0.1107042
0.13166748
0.13942607
0.11268239
0.048378535
0.04625606
-0.055896897
0.119983725
0.20670225
0.16195668
0.1617843
-0.074277215
0.10198922
0.060967598
-0.12242784
0.044521786
0.02830687
0.1635884
-0.022396551
0.028060257
-0.07866508
0.045743216
0.039969034
0.071030036
-0.14166377
0.10248948
0.09671721
0.07347939
0.19165257
0.06263116
-0.061629478
-0.017786916
-0.02408826
0.032014176
-0.057053074
-0.0128528355
-0.16413313
-0.027713096
0.11836709
-0.073571846
0.026065862
-0.23426928
-0.19089046
0.13402659
-0.10644812
-0.1679433
0.03667197
0.12916984
-0.14310955
-0.062121537
0.08316088
-0.0036959318
0.13445166
0.012045563
0.14548934
0.24662831
-0.10202456
-0.10033468
0.023112522
0.08903969
0.026619278
0.13764523
0.108733214
-0.004227911
0.129607
0.082320794
0.093655996
0.03571202
0.03064277
0.08554492
-0.07984141
-0.14629376
-0.0077483347
0.048067864
0.14447989
-0.010263063
-0.09593799
-0.08880307
-0.0018678807
0.03825696
-0.0016126384
0.04611286
-0.08955845
-0.055130333
0.051477216
-0.037982486
0.12115952
-0.003675666
-0.07274948
0.019496009
-0.020704852
-0.051365886
-0.06482231
-0.026127592
0.04108858
0.031753294
-0.07397378
0.005136715
-0.123870924
0.037083663
0.10945486
0.0072382935
-0.120642975
-0.011395222
0.06724631
0.06254361
0.07198297
-0.055329636
-0.08303376
0.23489109
0.14540377
-0.03440447
-0.09927791
0.0017732689
0.0102974195
-0.006675655
0.082026325
0.06269263
0.1369256
-0.10638244
0.019730158
-0.0073395534
0.07600382
0.08884763
-0.049837995
0.061884373
-0.032380406
-0.13272905
0.12309689
-0.027546037
-0.1158126
-0.011871939
0.029148618
-0.1227802
0.013836151
0.023689054
-0.053876165
0.08221726
-0.06654932
-0.06992752
0.23039047
-0.002459366
0.06533296
-0.1653602
-0.14170271
0.13370563
0.12753534
-0.20734715
-0.077638514
0.20421576
0.13667686
-0.09044405
0.13487104
-0.06088571
0.22012892
0.22256368
-0.08324469
0.07170368
-0.0013415973
-0.19987682
0.13988036
0.037436157
-0.116173826
0.15106489
0.097833104
0.18707389
-0.029722946
-0.102138035
0.0068360684
0.074800596
0.021603242
-0.0289989
-0.086013086
-0.11729341
-0.19855948
0.09688603
-0.10858524
0.10697795
-0.09822392
0.07534083
-0.083183
0.16234237
-0.12092319
0.014398611
0.048297178
0.01604188
0.031680666
-0.12076338
-0.25579002
-0.090884075
0.10685992
-0.3082138
0.017746964
-0.06418156
-0.13838679
-0.13344347
-0.030648805
-0.091114886
-0.2087219
0.05693208
-0.08240438
-0.0344452
-0.050332393
0.11333138
0.08813397
-0.30367008
0.019775257
-0.030101247
-0.036278244
0.09001985
0.102607876
0.06729978
-0.07348462
-0.2003216
0.039527558
0.4084943
-0.0387837
-0.17007843
0.037897255
-0.1586158
0.14919363
0.12451514
-0.109949864
-0.081396684
0.021141957
0.13280638
-0.04747418
-0.023375772
-0.000665462
-0.0075313402
-0.13250893
-0.16985849
-0.11419673
-0.14485045
-0.17226377
-0.09473829
0.056255035
0.029478036
-0.20213208
-0.06469408
0.08173115
-0.02653126
0.009324649
-0.1276323
-0.12185104
0.04641682
0.04426848
0.20511524
0.24102643
0.21822353
-0.085644536
0.16905044
-0.038388737
0.08976576
0.04480852
0.16882141
-0.04714377
-0.20753334
0.048231825
0.20967712
-0.14680803
-0.026135195
-0.1251696
-0.10548314
0.06862859
-0.011652165
0.04006581
-0.05203469
0.1475454
-0.19339524
-0.18646592
0.19461755
0.28107926
-0.26178214
0.12754653
0.0432322
0.21839686
0.105593234
0.063239194
-0.07784302
0.056329496
-0.20292528
0.078885496
-0.057112925
-0.035574514
-0.19210821
-0.10188427
-0.10055509
-0.10905497
-0.01693256
0.02038833
-0.07607758
0.21548024
0.045865897
0.068137966
0.008505342
-0.07035197
-0.022964412
-0.028393093
0.030964823
0.050614797
0.08313572
-0.23168597
0.0004432415
-0.22815385
-0.019767784
-0.18389677
0.22641678
-0.026084017
-0.021269705
-0.0953331
0.06570926
0.018710066
-0.008147674
0.08668789
0.2074415
0.16446202
-0.044768717
-0.021570152
0.018894596
-0.00032152032
0.031271886
0.19291715
-0.15207967
-0.10480679
0.014309345
-0.22145732
0.03256309
-0.12055755
0.17234589
0.06223432
-0.16093259
0.046235885
0.016304009
0.07527238
0.029534467
-0.06781836
-0.086551294
-0.16029067
0.1985578
0.07969549
-0.073443085
0.15705322
0.02481073
-0.20756425
0.2733038
0.06544986
-0.016005455
0.050682265
-0.031604696
-0.11157095
-0.07735726
-0.08395462
0.05053531
0.061968084
0.2354968
0.115391314
-0.19854628
-0.23883656
0.13308504
0.14166744
-0.1052143
-0.035622165
0.091162674
0.21478388
0.18278426
0.04885495
-0.00031226344
0.0049666543
-0.12976807
0.021157222
0.13865614
-0.16207556
-0.09711203
0.07604514
0.19134943
0.09644893
-0.16078754
-0.1624481
-0.057051666
0.10032573
-0.11949695
0.035978563
0.0002720997
0.02220219
0.04038745
0.06038039
-0.031134002
-0.11149491
0.23576397
-0.045967754
-0.05194365
0.13667281
-0.053391088
0.23870255
-0.11314844
0.011370013
-0.07612152
0.0047275946
0.0444144
0.09658658
0.14738329
0.04195103
-0.070500314
0.17147006
0.109758295
0.1903317
0.0026727507
0.05755098
-0.011814996
-0.10940425
-0.050168302
0.1557302
-0.28093266
0.059758328
0.18190686
0.029001798
0.0031807676
0.19433202
0.040249072
-0.16762725
0.2540487
-0.12169799
0.023087503
-0.07692056
0.20177631
0.08264004
0.17862289
0.04565614
-0.029683223
0.13027515
-0.17828128
0.089250185
-0.1791852
-0.04161877
-0.15040916
-0.0027173397
0.12791467
-0.28659868
0.009820948
0.12641534
0.019946774
0.12112858
-0.03206891
0.018091781
-0.19345915
0.18001677
-0.09130822
0.014183795
0.044498928
0.06289151
-0.14550176
-0.0516954
0.09570522
0.07367699
-0.012305796
-0.01904708
0.06415918
-0.048466995
-0.035558637
-0.09087423
-0.0799549
0.1260249
-0.20513828
0.026189687
-0.0024588464
-0.0044289352
-0.0052628634
-0.23600721
0.025266724
-0.03618104
-0.10507236
0.27115136
0.16465253
0.03543567
0.0723023
0.13303009
-0.27466896
0.15607597
-0.30019495
-0.1580425
0.002883028
-0.052538857
-0.106735624
0.023689196
0.053578578
-0.1203766
0.039941154
-0.06622
-0.17669466
-0.056663834
0.02946305
-0.09951062
-0.0051419996
-0.0070561683
0.27186415
0.1131097
0.19070452
-0.23206982
0.0071192733
-0.06312021
-0.07910425
-0.07117947
0.055316206
0.005055473
0.18413022
0.2872195
0.08537871
-0.12541592
-0.017771991
-0.006528276
0.21460162
-0.08356538
-0.3630052
0.059138227
-0.12183576
0.012015465
0.17209654
-0.0654192
0.05942642
-0.0065383795
-0.07461178
-0.029466087
-0.063389204
0.23064062
-0.23454139
-0.08813397
-0.059359204
-0.05638811
0.028364953
0.018796926
0.14324701
0.06869443
0.10118711
0.03354737
0.043991417
0.028675172
0.10070652
-0.036465477
0.026378088
-0.1191172
0.052217484
-0.016553532
-0.10925116
0.056237422
-0.10004218
-0.14478052
-0.19578455
0.10548063
0.04857656
0.12710315
0.17528586
0.12241205
0.00024325743
-0.10029394
0.13970797
-0.055722967
-0.059591807
-0.11888266
0.14798218
0.027013876
-0.048011582
0.0062615066
-0.017573489
-0.17461346
0.09216112
-0.07429274
0.041633293
0.01905298
0.07672475
-0.015031411
-0.04272657
0.10827337
0.15865329
0.017423399
-0.1661222
0.22399826
0.056826524
-0.09004931
0.16166107
0.27248022
-0.1861627
0.1049079
-0.059564907
-0.25741723
-0.194431
-0.0861139
0.053786617
0.01138145
0.23478948
-0.107097454
0.10476803
0.018542992
-0.013177813
0.090579614
-0.05011942
0.05509434
-0.012899222
-0.010231867
0.002528994
-0.09237055
0.013100475
-0.06114032
-0.051989608
-0.015198084
0.02432867
0.15457653
0.19228618
-0.061504196
0.18422547
-0.10668366
-0.23508884
0.03670631
0.10456325
-0.121972956
-0.07526858
0.07974615
0.16405405
0.0730542
-0.15602271
0.14383563
-0.0136949085
-0.13947277
-0.16903517
0.030548805
0.04650208
0.15485036
-0.020005906
-0.22982301
-0.23698057
0.0877965
-0.1617294
0.0057081636
-0.0153931705
0.06289486
0.06606436
-0.10261646
0.12693836
0.15535592
0.146997
0.16773961
-0.08584723
0.10663823
0.058058154
0.0070746075
0.17284185
-0.018284054
0.14651854
-0.1294075
0.18304071
-0.24896865
-0.13426681
0.026143743
-0.15756835
-0.30560067
0.0062432946
-0.018139526
-0.13498138
0.028532682
0.21295959
-0.13532652
0.094101384
-0.015949605
-0.113830976
-0.1384299
0.013489004
-0.0017842064
0.08389663
0.16524518
0.061516386
-0.10131455
-0.07250146
-0.065103576
-0.21132056
0.095370494
0.12962082
-0.01777737
0.062221356
-0.13548139
0.019072954
0.12444219
0.06793332
0.029995961
0.06422759
-0.12214866
0.16938499
-0.16597153
0.06786133
0.12753005
0.07049199
0.15221624
-0.12766464
-0.077492
-0.14506103
0.080952816
0.09320818
0.19685945
-0.16187216
-0.019174872
-0.17283264
-0.008292259
-0.06614142
0.047779113
-0.05617907
0.041202635
-0.04724353
0.07993855
-0.16014951
0.09415957
-0.15115929
-0.12979062
0.09108933
0.19040106
-0.040240966
-0.12068643
-0.12525246
-0.027766807
0.23429891
-0.057790376
0.12368221
0.010830691
0.032415047
0.16908589
0.20635512
0.10785251
0.22848578
-0.020433912
-0.030825166
-0.06442288
-0.16935644
-0.018684618
0.10324402
0.109986365
-0.01584074
-0.07967075
-0.0554036
0.07551516
-0.11653128
0.34846824
0.030778794
0.074501
-0.009668597
-0.017851442
-0.028686943
-0.03761775
0.024336955
-0.0025404443
0.18709394
-0.08059591
0.008724288
0.16637872
-0.21965633
-0.06350443
0.08593975
-0.09974215
-0.012096795
0.0017169425
0.07461756
-0.08372489
-0.06607471
-0.08912934
0.025937233
0.060557917
0.009148942
0.2558013
0.07563835
0.07757137
0.011522937
0.087734826
0.17178242
0.34484556
-0.007834291
0.049360424
-0.04385224
0.11571076
0.070973314
-0.020105675
-0.042621918
0.014331042
0.011295469
-0.032462906
0.13255359
-0.19729018
-0.04606804
0.26915142
0.19434254
0.011338057
-0.052445788
0.03612709
0.14207634
0.22976457
-0.1132227
0.15716188
0.09121882
0.13802953
0.090073906
-0.07492668
0.12210421
-0.059124194
-0.07128891
0.0032116247
-0.009787697
-0.18391427
-0.16630326
-0.1579057
0.16837113
0.10123063
-0.28949234
-0.08204641
0.0062839966
0.010113354
-0.0127615975
0.07950944
-0.048804034
0.1647289
0.025702244
-0.10881602
-0.18490268
-0.07345657
-0.18347658
-0.032383483
0.17758976
-0.0030087007
0.009313413
0.22874509
-0.1842829
0.010449519
0.03722364
0.1617964
0.15443933
0.12049876
0.202541
0.04815851
0.0050580967
-0.13299175
0.16614774
-0.069487624
0.018686654
-0.08093067
-0.09465432
0.13521071
-0.160978
0.040151965
-0.1547441
0.1816531
-0.20334363
-0.045181546
0.051836424
-0.121506445
0.0631714
-0.08487436
0.094579294
0.100741684
0.08394966
0.025171623
0.07671578
-0.14937176
0.013413858
-0.089637265
0.06939578
-0.11026217
0.058278553
-0.038978964
-0.18464811
0.011011732
0.0452029
-0.034193948
-0.0086748
0.15539475
-0.080993265
-0.04824353
0.026251564
0.076589175
0.16498452
0.0040939823
-0.10891431
-0.06036478
0.117490076
-0.09498691
0.08840378
-0.034622308
0.021360993
0.1894586
-0.021618955
0.009921383
-0.028193878
0.061439473
0.010934383
0.11397965
-0.004239964
-0.16346055
-0.16589147
-0.11436157
0.17599568
0.14069672
0.4164604
0.108813025
-0.07220079
0.046789818
0.0718504
0.15384704
-0.015911419
0.2247134
0.081649765
-0.07219775
-0.04182391
0.003729621
0.12250089
0.050421655
-0.034950454
-0.2810017
0.087628
0.14563216
0.002688143
0.02445925
0.053285066
0.055981938
0.065570995
0.16083342
-0.20480783
0.0125096645
0.006539022
-0.13368617
0.02644469
-0.06988299
0.076799616
-0.09020459
0.06781991
-0.12992877
-0.029730013
0.0010451373
-0.011380086
-0.052824736
-0.061734825
-0.29549938
0.002879177
0.14783676
-0.09766098
0.19750033
-0.017527103
-0.008932511
0.11993199
-0.040083975
0.06626893
-0.082445495
0.20618275
0.06346633
-0.09562749
-0.24973558
-0.20017053
-0.011690607
-0.14792308
0.11796642
-0.26968265
-0.061621938
0.06320779
-0.10394249
-0.19572507
0.026427481
-0.17864007
-0.13573559
0.03639142
-0.099845104
0.021818528
-0.054068614
-0.08395871
0.026364014
-0.20053537
0.06609994
0.024163444
0.0905739
0.0027307451
0.12875222
0.15638557
-0.024418464
0.09666762
-0.09770802
-0.09897624
-0.07955523
0.05042402
0.080302
-0.21617988
-0.05908922
-0.020766782
0.13178897
0.15228593
0.17474431
0.04440347
-0.16118261
0.21267225
-0.017771691
-0.14929442
-0.09448982
-0.22674999
-0.028478682
-0.01804001
-0.041566517
0.23529631
-0.091747314
-0.26163614
0.050545707
-0.0043402757
-0.0708023
-0.26276037
0.17886876
0.019878171
0.0053353743
-0.10289246
0.06794452
0.09009427
-0.14490351
0.18958387
0.13582166
0.114287585
-0.25148132
0.056099765
-0.17606175
-0.10002909
-0.005943991
0.17117478
-0.19788381
-0.123702504
0.03686083
0.13546365
0.10427242
0.072357796
-0.16731147
-0.10839308
0.09079395
-0.013346419
0.046052646
0.2312416
0.13136528
-0.026738778
0.098814175
0.10739427
0.11066674
-0.053799525
0.11437697
-0.19391532
0.013192963
0.24856293
-0.033181705
0.08527185
0.08642606
0.2447164
-0.19854392
0.18823233
-0.0023307614
0.20898311
-0.32547268
0.07640357
-0.079283096
-0.12182351
0.12335878
-0.17980732
-0.1333176
0.02635931
0.16235738
-0.10917006
0.012873765
-0.08720173
0.055210836
-0.07455556
0.07004097
0.22858118
-0.057736926
0.121178605
-0.00026970985
-0.20977196
-0.17264082
0.103871
0.0049767722
-0.1497673
-0.007137973
0.12383914
-0.013803201
-0.07506194
-0.1041711
0.109202296
0.021387076
-0.43896917
0.070578456
0.09317604
-0.117525145
0.024684887
-0.1490884
0.20006146
-0.25533688
-0.37632784
-0.14185108
0.04354463
0.20507102
0.16877308
-0.06237737
0.1187413
0.021878563
-0.06482969
0.11586356
0.20773627
0.32056466
0.18923746
0.18817471
0.045373797
0.004906601
0.12495705
-0.07047518
-0.054001734
-0.009123703
-0.25663444
0.046489846
-0.13505937
0.20386551
0.14947869
-0.08599885
-0.21008654
-0.110902786
-0.11732096
0.12508142
0.11093885
0.1362797
0.025769813
0.12020535
-0.034320556
-0.08420056
-0.051040247
-0.07336847
-0.15518765
-0.054788563
0.15603663
-0.08203128
-0.055854667
0.094293974
-0.00047966963
-0.034852277
-0.0037751263
0.029279642
0.01540732
0.092380546
-0.1612766
0.23332919
-0.033881843
0.16957642
0.14632995
0.0848379
-0.11338607
-0.062416226
0.07539551
-0.23929088
-0.03537351
0.009276005
0.1642151
0.08912827
0.008679702
-0.023777502
0.028107047
-0.1619136
-0.026408918
-0.031122072
-0.07459683
0.11296913
-0.09480509
0.12192386
-0.19393961
0.10472621
0.1980057
0.051229965
0.16406305
0.11737442
-0.2869824
-0.1184784
-0.1925298
0.123214126
-0.050660297
0.048705205
-0.06601914
-0.3728881
0.10575721
0.10175363
0.2944187
0.056864183
-0.1057342
-0.19294463
-0.20775492
0.107430026
0.21613955
-0.09511858
-0.08509277
-0.20391579
0.10876529
-0.14797701
-0.10467436
0.19298802
0.14020224
-0.062281553
0.12710714
0.23910728
-0.22394386
0.27482036
-0.07494488
0.052826226
-0.13089329
-0.14210366
-0.15795521
0.0029622142
0.21689282
0.0019464982
-0.08553576
0.095538616
0.008131118
-0.067064546
0.06458269
0.030097272
0.15086572
0.12328199
-0.065473385
