-0.24539551
-0.23621045
0.008893266
-0.284043
-0.0076503837
-0.025676345
0.13534415
-0.07103965
-0.10105587
-0.11932281
-0.020064037
-0.021946589
0.39547098
-0.07750176
-0.097407356
-0.020115616
-0.15112416
-0.016815824
0.22150554
0.0029700848
-0.050157227
-0.06985614
0.036624413
-0.06743159
0.12864323
0.0917523
0.092537366
-0.17771825
0.102490105
-0.035569236
-0.06308205
0.1980954
-0.05133278
0.016533248
-0.017493317
0.058575865
0.09602244
-0.07137281
-0.06823721
-0.032568865
-0.01947161
0.035374407
0.03348716
-0.097134635
-0.01107617
0.10792691
-0.1535574
0.027017668
-0.058046263
0.02164246
0.054776255
0.1140604
-0.032664612
0.15790628
-0.043520816
-0.09870345
0.0018142959
0.2422011
-0.014720975
-0.09239397
-0.14377551
0.04648441
0.035402708
-0.1418643
-0.12079459
0.105578415
0.010686942
0.06921163
-0.16634247
0.013643966
-0.02408488
-0.008769878
0.024279514
-0.052702274
-0.14427593
-0.03175706
0.016882548
-0.13459797
-0.13511223
-0.026557643
0.13431732
-0.007979343
0.01217652
0.05877066
0.006520042
-0.09764702
0.07136696
-0.10384523
0.04376323
0.06419796
-0.03023177
0.0968902
-0.20119123
-0.095305495
0.027341468
-0.12916015
0.055874225
-0.11547964
-0.091420315
0.062264245
0.2236795
0.005442783
0.07603413
-0.024775406
0.17988767
-0.015416674
-0.14729483
0.076532826
0.113392435
0.025641348
0.12317788
0.2159521
-0.13362949
-0.09476974
0.120738484
-0.031603627
-0.08656863
-0.057666276
0.020627715
-0.08266301
0.057498164
0.11387264
0.1218016
0.025465723
0.14187762
0.0056222607
0.07661181
-0.063070245
0.21954556
0.056531906
0.060276866
0.063973464
0.1451562
-0.013036211
0.097009204
-0.03404355
-0.013612816
0.038137697
-0.010017012
0.23001558
0.0336029
0.18330145
-0.015247876
0.0050338125
0.1188259
-0.1025481
-0.1513607
0.082785465
-0.11194595
0.07795774
-0.010026001
0.09450926
-0.08494037
0.15779899
-0.0051988657
0.13496055
-0.083260156
0.16184457
-0.14837477
-0.008716814
-0.27808073
-0.110817656
0.06150137
0.17265029
0.052587006
-0.07203355
0.108821474
0.16223852
0.10023441
0.3190395
0.17969334
-0.025390653
-0.04203048
-0.1290763
-0.040390953
0.10433037
0.11393581
0.20242664
-0.039776854
0.29770035
-0.10795768
0.105411924
0.16379602
-0.03210796
-0.05958473
0.035336334
0.03413261
-0.1465491
0.032309864
-0.106188074
0.063405536
0.10555649
0.08346687
0.0850197
0.06139123
0.07294765
-0.0002974605
-0.05307542
0.082917355
0.042229354
0.13109775
0.026882833
0.09814588
0.0022810942
-0.04126001
-0.05360136
-0.069084585
0.01646769
0.07521673
-0.06584628
-0.18842353
-0.01872131
-0.08087372
0.15474667
0.050711323
0.0686383
-0.11048809
-0.02512862
0.023938028
-0.007951893
-0.02245975
-0.027104935
-0.009920921
0.008361178
0.17517458
-0.07445589
-0.05075568
-0.07604481
0.14466375
-0.0028723667
-0.13534898
-0.10717319
-0.2420251
-0.047012698
-0.017755916
-0.026407136
0.02794372
0.14370781
-0.1094679
0.07769665
-0.19107156
0.09995953
0.060137555
0.031318884
-0.04167871
0.10621521
0.15446219
-0.2232987
-0.024900857
-0.16432142
-0.038736135
0.00972284
0.18424495
0.047624808
0.0044823894
-0.023308491
0.13445161
-0.094753295
0.10338207
-0.14765954
0.097627416
-0.059290435
0.05200364
-0.03236957
0.12012501
0.20551318
0.030561574
0.013776375
0.041177306
0.06720149
0.050184023
-0.022167506
-0.11365556
-0.21254587
-0.06667518
0.0423212
0.09266043
0.008429483
0.011424552
0.10583457
0.05634928
-0.05416886
0.07812207
0.05240094
-0.17113417
-0.11725082
-0.0021138908
0.030100653
0.1685545
0.11327038
0.0373761
0.038931083
0.1317659
-0.0012777785
0.17415923
0.028020041
-0.06674418
-0.07290709
0.04190797
0.033013802
0.10143293
0.022547426
0.09512732
-0.15815623
0.07032358
-0.24073754
-0.03705728
0.048801653
0.03109952
0.121565275
-0.03740649
0.0021956041
-0.020946478
0.09173967
-0.019008543
0.017935736
0.10029599
-0.056854974
-0.062339153
-0.21086022
0.1464311
-0.097938165
0.08364869
0.054288406
0.00976367
0.009799357
0.061050095
0.053564582
0.18962279
0.029799715
-0.13095707
-0.07510013
-0.020581286
-0.02764404
0.17386201
-0.07205654
-0.089696944
0.020562638
-0.09017596
-0.03617015
0.09363238
0.086484656
-0.10358022
0.017352391
-0.1659759
-0.19120601
0.13319273
-0.17465606
0.08477189
-0.14817277
0.1776255
0.047494125
-0.19731916
-0.13229576
-0.09653874
-0.0009580901
0.035097573
0.075369604
0.1532694
0.011433621
-0.019680971
0.027295012
-0.0031024285
0.18516503
-0.22125512
0.0042948336
-0.12982462
-0.115496
0.09111152
-0.020592632
-0.12079361
0.019038256
-0.012323916
0.036471825
0.17584077
-0.03453179
-0.07318253
0.075309955
0.07196236
0.057802636
0.13013254
-0.057685792
-0.050931647
-0.033558182
0.14046493
0.03749974
0.098985024
-0.07437324
-0.084156975
-0.0630039
0.21606898
0.10768265
-0.01616887
0.058347397
-0.051739447
-0.05536787
-0.09274537
0.08398236
0.075010546
-0.16390146
-0.083248526
-0.025023317
0.13901737
-0.010997219
-0.12630114
0.14757618
0.046338912
0.010569748
-0.008482523
-0.0056029265
-0.24563205
-0.055416677
0.076449625
-0.055893734
-0.009405031
0.019648088
-0.10218541
0.06632647
0.014805012
0.035462637
0.063105784
-0.016526535
-0.10226598
0.06813889
-0.018996961
0.055641353
0.048904464
-0.0011201567
-0.12460534
0.012376869
-0.14324015
0.046730854
-0.2560459
0.0028848308
0.07767797
-0.12772015
-0.110098965
-0.0004553688
-0.012107424
-0.12038138
0.043575484
-0.04744565
-0.081592366
-0.10782566
-0.06509297
-0.018714394
-0.017127031
-0.1775306
0.15795998
0.023607206
0.2666936
-0.033003356
-0.052479684
-0.10530615
-0.11841409
0.26514095
0.044197123
-0.006066902
0.09449255
0.010111098
0.08155298
-0.03711547
0.109498724
0.10102642
-0.09756917
-0.168441
0.0742899
-0.057129066
-0.06545316
0.056719046
0.15211889
-0.022234906
-0.017599037
0.004952431
0.055425636
0.07507293
-0.035836592
-0.030225798
-0.105487905
0.082379706
0.19973296
0.002766049
-0.050869826
0.08822894
0.032699045
0.05818025
-0.09176023
-0.16973713
0.053908706
0.051979035
0.012617076
-0.11248421
0.05995626
-0.034656964
0.001010591
0.084133394
-0.11366047
0.03676762
0.19684078
-0.003741817
-0.005272424
-0.008896646
-0.040059462
-0.03141549
0.061495084
-0.14910592
0.06276372
-0.07638473
0.042669
-0.062429555
0.20035388
0.02170006
0.069237515
0.02737166
-0.04051127
-0.14204125
-0.044224344
0.0789236
0.035894852
-0.064874016
-0.13730152
0.04323024
-0.050622325
0.061046
-0.01823379
0.041470148
-0.03803744
0.029687183
-0.08969181
0.06346194
-0.023818899
0.06459165
0.056435786
-0.05837495
0.08019799
0.09067992
0.16975537
0.20211324
0.0029289378
-0.08416301
-0.062662944
-0.07071433
0.027013356
0.17038085
0.07069878
-0.05731724
0.12316321
-0.018326113
0.05732893
0.04550973
-0.053422686
0.060232736
0.04676706
-0.19399096
-0.2223233
0.07771388
-0.043678913
-0.1554124
-0.03352737
-0.11426405
0.07681174
-0.081892096
-0.15737244
0.016164938
-0.13020161
-0.15164702
0.10182241
0.033894308
0.08253144
-0.03440501
-0.002040531
0.22047666
-0.032182444
0.003500312
-0.041506782
-0.10349933
-0.05208082
0.212123
-0.071183994
-0.20724292
0.04705039
0.037142158
-0.08048144
-0.053250022
0.13695711
0.016457604
0.041272305
-0.15737697
-0.18354191
-0.21833377
0.09464804
0.12349347
-0.028169671
-0.06342473
-0.040641975
-0.047412463
-0.004670806
-0.006384597
0.08221908
0.025616337
0.11990775
0.026622571
0.028079862
0.14710656
-0.025114333
0.062122338
0.005083386
0.008792627
-0.0958442
0.0091898
0.16140895
0.07532538
-0.12413122
0.049775057
-0.020799778
-0.15559399
0.09539114
0.09174431
-0.10410968
0.056560192
-0.18499525
0.23099947
-0.019960726
-0.16500598
-0.008265689
0.08753944
0.014829545
-0.05063822
0.05070807
-0.15772387
0.10440536
-0.0005382952
0.09285045
0.1672553
0.17304426
-0.20003663
0.12280539
-0.08556603
0.05013466
-0.026305817
0.046407983
0.01933657
0.1287886
-0.015479823
0.1242214
-0.12638131
0.059649237
-0.044481665
-0.07320923
-0.1320103
0.11110922
-0.001591819
0.009025987
-0.05641543
0.05258018
-0.0058230064
-0.04473174
0.06928711
0.18405871
0.06726204
0.0068537174
-0.1179097
-0.07836021
-0.078400046
-0.041273404
0.007038647
0.043627277
0.07046843
0.19285622
-0.17964771
0.055554207
0.090826824
-0.12471779
0.042964652
-0.089111805
0.10968188
0.017987344
0.10542479
-0.0067017823
0.009346763
-0.043719728
-0.15840381
-0.029250428
0.21950762
0.012929381
0.113085516
-0.020419747
-0.021437211
-0.07677958
-0.06805733
-0.0261397
-0.043997884
0.082965285
-0.062385216
0.004956744
-0.05176402
0.05352171
0.20460941
0.08765126
0.17042123
-0.00092745095
0.1324403
0.1952512
-0.11448861
-0.043650486
-0.12213039
-0.10264184
0.09895722
-0.006590152
0.05859909
-0.059081204
-0.12623906
0.10086898
-0.117271446
0.0278308
0.017241798
0.033050187
-0.06308339
-0.3480083
-0.01738435
0.056268044
0.19657908
0.08791236
0.18610778
-0.04503733
0.153777
-0.10805275
0.03140837
-0.021106424
0.09491734
-0.122604325
-0.0053540724
-0.14408365
-0.14329164
0.06792961
0.03507262
-0.07816194
-0.015390447
-0.07727148
-0.06253727
0.041373808
-0.11452108
-0.08500078
0.023636729
0.0040208297
-0.01959757
0.009038822
-0.047799394
0.0291743
0.105049305
-0.03375717
0.047483336
-0.0688925
-0.1104377
0.06580638
-0.14283007
-0.02749525
0.076359466
0.0025558085
-0.028280945
-0.10038591
-0.01232362
0.020654283
-0.22128887
-0.030561622
-0.07667261
0.07556186
-0.10961927
-0.09783036
0.009612268
-0.13985127
0.058136187
0.05080856
-0.027243692
-0.143396
0.18374397
0.09761723
0.018049018
0.20364529
-0.16002366
-0.06422803
0.018338114
-0.105541475
-0.11264824
0.016470572
-0.081551224
0.028267544
-0.02645998
-0.09449924
-0.036374506
0.18406802
0.054772835
0.11928922
0.06488461
0.05517035
-0.056019094
-0.018200565
-0.028443657
-0.14838985
-0.017734796
0.049068723
0.073011175
-0.15910564
0.18211241
0.029926352
-0.086610414
0.17732634
-0.0074554733
0.010145518
-0.016140465
-0.07993971
-0.0310153
-0.24700496
0.10988953
-0.06497597
0.08558999
0.09582302
0.021942368
-0.051789768
0.014237796
-0.15106097
0.05837199
-0.09417129
-0.13366628
-0.03340939
-0.12364411
0.0013783671
-0.12618592
-0.017620938
0.08235146
-0.017115561
0.096010126
0.047661524
0.0034393587
-0.015145014
-0.0033200812
0.009450053
0.02407616
-0.09008121
0.05384688
-0.005908978
0.08062111
0.04960609
0.14076966
0.03791507
0.0042043095
-0.026362699
-0.07404728
0.18521005
-0.04731488
-0.06390932
-0.049742073
0.08537758
-0.12632516
-0.038516615
0.11909529
0.18538618
-0.017873015
-0.012607016
0.18879221
-0.013259846
-0.22919598
-0.062300432
0.13730805
0.09665774
-0.04080999
-0.10076034
0.1488971
-0.076731265
-0.09309488
-0.17501974
-0.00028857123
-0.12666869
0.12617214
-0.104092926
0.04399801
0.08510425
-0.113610975
-0.07419058
-0.11955344
-0.22355337
-0.044185977
-0.041793928
-0.10203491
-0.009557437
0.099957615
-0.046556402
0.069273576
0.0814341
-0.11254205
-0.11783133
0.010638005
-0.18641374
0.042827427
0.072816886
-0.03549481
-0.07821381
0.051901903
0.12135507
0.20364362
-0.09841033
-0.13289781
-0.011161506
0.12111395
-0.11708794
-0.10659179
-0.023625331
0.13279538
-0.16954166
-0.12412013
-0.19662033
0.031388264
-0.14109677
0.045184467
0.17450456
-0.03378078
-0.041278277
-0.025087673
0.09027374
0.17530449
-0.00016935664
-0.0015508952
0.14232995
-0.11502267
-0.054107636
0.14641874
0.16915229
0.1628629
0.08964946
-0.099505
-0.0694801
-0.19031744
-0.059982296
-0.10421604
-0.03362107
0.0431022
-0.10114914
-0.10504949
-0.12751365
0.04269161
0.044042233
-0.09235909
-0.013192932
-0.06231454
0.020731717
-0.042998053
0.1379024
0.01619426
-0.029144611
-0.09871799
-0.041521
0.062301174
-0.1257211
-0.09301516
-0.038352255
0.2127167
0.07249061
0.19213663
0.054638613
0.005194894
-0.16003644
-0.09815019
-0.07435289
-0.0424374
0.043964006
0.09356817
-0.15456003
-0.025766242
0.11868403
0.02644568
-0.01339645
0.093441114
0.06948155
0.19847985
-0.037842378
0.09038688
-0.120495476
0.13195007
-0.21113008
-0.13983032
-0.089248486
-0.051292654
-0.16932078
-0.123277195
0.22436245
-0.045025732
0.04134919
0.045688156
-0.16616324
-0.028524894
-0.060905058
-0.06970743
-0.09475085
0.09527362
-0.20550038
0.042185657
0.092840016
0.015867224
0.018304564
0.11866733
-0.03975472
-0.0049085338
0.08578688
-0.07976971
0.12646751
0.15028894
0.07019087
0.11057134
-0.04070971
0.058947716
0.03999914
0.1171668
-0.0831768
0.030107478
-0.063879766
0.012254133
0.0012993753
0.17906529
0.043444205
-0.04711719
0.03243763
-0.010216914
-0.067667514
-0.0009646194
-0.14695446
0.0051031318
-0.061757073
0.034670696
-0.04116691
0.257426
-0.23948601
0.17929493
-0.1577587
-0.0960672
0.24610484
0.12130314
0.07496509
0.034472816
0.12993121
0.15009251
-0.04253805
0.16353765
-0.046289526
-0.043141738
0.032755107
0.08923333
-0.16559897
-0.11163817
-0.20550364
-0.02868316
-0.19603992
-0.046141174
-0.02318229
-0.095391564
-0.15228847
-0.012249771
-0.08510279
-0.10430762
-0.077528656
-0.06219651
-0.22811995
-0.015978768
-0.064846486
-0.0067078634
-0.09429348
0.10934351
-0.035116192
0.18663797
-0.13029139
0.024311
0.023720663
0.18819156
-0.061855424
-0.13393077
0.044163767
-0.08629876
0.16219503
0.086301066
0.026125161
0.03178546
-0.0050288574
-0.018897092
-0.079605766
0.108205386
0.11578079
0.08597796
-0.14105791
0.025782099
0.039193008
-0.012838574
0.027074456
0.08315173
0.0968704
0.18441664
0.0027136244
0.06848846
0.01049353
-0.10333322
0.099774815
0.0723472
-0.1079001
0.10836167
0.0056367
0.010345389
0.08415531
0.04873794
-0.0459926
-0.025151035
-0.09061194
-0.0636553
-0.19011155
0.30994022
0.010982655
-0.025261112
-0.10692531
0.11139557
-0.030315828
0.05615906
0.0493672
0.08219678
-0.29221767
0.041824035
-0.060185526
0.025654096
-0.12825139
0.02401388
0.063087486
0.16567487
0.09711761
0.15032025
0.055164613
-0.02334728
-0.21276248
0.066899315
0.11503591
0.013072971
-0.0019620368
0.055961777
-0.12715319
0.14723153
-0.0042533455
0.086942144
0.03901199
-0.01786125
-0.05973297
-0.041415982
0.108718395
0.052754063
0.005693144
-0.019077195
-0.14135094
-0.009770535
-0.061952233
-0.29083088
0.08184903
-0.06341809
0.03609525
0.084266186
-0.2391503
0.26293442
-0.0448598
0.10992255
0.034790516
-0.058596067
0.074328534
-0.044113163
-0.21847956
0.09855771
-0.049138542
-0.102889635
0.11496865
-0.014823337
0.07896501
0.076898694
0.097064465
-0.14838868
-0.05679739
-0.21271057
0.03241516
0.052991115
-0.018076254
0.018000074
-0.026304752
0.14805637
0.08470014
0.13237943
0.2974254
0.08732018
-0.0070197494
-0.079976805
0.14533205
0.04389026
-0.22607411
-0.03089981
0.11931227
-0.20553598
0.12633044
-0.05365644
0.10636238
-0.0036444531
0.008312303
0.18211633
0.10664343
-0.2184476
-0.029443396
0.080147065
0.0082690315
0.087295346
0.06966029
-0.0618015
-0.064539745
-0.023038173
-0.09008377
0.08320515
0.09050934
0.017456075
-0.1062306
0.0025358736
-0.06460252
0.043274574
0.009743356
0.047187984
0.03700732
0.11184417
0.24193996
0.13970736
0.11934731
0.004366125
0.18447396
-0.0086974325
-0.046469655
-0.11422273
0.126422
0.06832068
-0.21083626
0.14783211
-0.052076582
0.07206036
-0.10551432
-0.025235686
-0.047387347
-0.09257115
-0.01007148
0.19808093
0.06553519
-0.11433329
0.29985586
-0.022714654
-0.14965276
0.08273226
-0.18599324
-0.12867361
-0.028008841
0.069289505
0.07625749
0.016166277
0.051048484
0.02416257
0.06557901
0.013762652
0.061538607
0.031678118
-0.052562747
-0.14745389
0.02479459
-0.015146197
-0.027917074
0.05351037
-0.16286738
-0.029406643
0.032145403
0.10575548
0.09222232
0.15090014
-0.078863114
0.05366708
-0.10984595
-0.09224828
0.011195121
0.28846604
-0.027498234
0.17492136
0.01703328
-0.038141802
-0.0055471836
-0.008155357
0.09507275
-0.05544705
0.01588616
-0.122845136
0.084330164
-0.18973802
0.081898764
-0.040327374
0.07235465
0.05880354
0.0230837
-0.014575331
-0.10256638
-0.030764677
0.024781829
-0.04096308
-0.0015090471
-0.13597392
-0.027457904
0.032873377
-0.00046421727
0.0284901
-0.020047972
0.0009817326
0.015906133
0.07498514
0.10765073
0.052483566
0.088911004
0.010361059
0.06942009
-0.04372645
0.03966629
-0.010974915
-0.0029326798
-0.015277875
-0.0048648617
0.070660464
-0.0042595677
0.048314467
-0.21968925
-0.038925037
0.043001987
-0.1573387
-0.11535713
0.20380229
0.10658133
0.09578466
0.054620832
0.034322135
-0.019542843
-0.10406633
-0.0037989258
-0.08902856
-0.124392174
-0.05653943
-0.04556456
-0.23415905
0.0095736
-0.037533324
-0.10191381
0.05501885
0.08439294
-0.05755734
0.045240037
-0.067840606
-0.19655162
-0.17768018
0.030764306
-0.057839636
-0.11146158
-0.07112483
-0.04260075
-0.012350313
0.005666893
-0.121852316
-0.24278031
0.018849976
-0.16590692
0.14666942
0.097350396
-0.11836065
0.029317403
0.053619068
0.087939315
0.0777381
-0.12910077
-0.12249114
-0.007986054
-0.18540399
0.035743058
0.035046365
0.18437174
0.12170735
0.039076958
0.10780601
-0.08487412
-0.008048516
-0.16774659
-0.16689737
-0.024109889
0.12541308
-0.047147125
0.1349647
0.15511803
0.09003828
0.038815506
-0.11108225
0.013628208
-0.10484718
-0.01091892
-0.113409646
-0.03915097
0.12596759
-0.10028828
0.085246935
-0.09589801
0.07618296
0.024801254
-0.09818225
-0.024035383
-0.18011364
0.007107798
-0.042198166
0.0565576
-0.12062473
-0.04203828
-0.06477923
0.010401559
0.013385004
-0.031144638
-0.015492971
-0.021507142
0.12161909
0.14305225
0.07553301
0.089092635
0.012514792
0.034919173
0.06814025
-0.058557153
0.061958738
0.08392365
0.0032782552
-0.034479212
-0.17025742
0.21182346
-0.09235258
-0.059806805
-0.03645779
-0.04300388
0.022889394
-0.039390728
-0.09966257
-0.01629281
0.00041484594
0.12043394
0.029420163
0.1364594
0.073368706
0.017027838
-0.024135249
0.07100474
0.023087835
-0.10091204
0.14616358
0.05741662
-0.06405234
-0.14740095
0.06702191
-0.15507993
-0.072261915
0.006526408
0.06515178
0.052549485
-0.17936657
-0.06299605
-0.033462327
0.039018974
0.0996164
0.028787136
0.21086833
0.21272655
0.0758809
0.04051637
0.0802858
0.17382954
0.038071897
0.08507326
-0.04095836
-0.009070484
0.15250354
0.016940843
-0.044365462
0.092031315
0.1431441
-0.0020020073
-0.14353682
-0.010103698
-0.047001153
-0.06834976
0.14322329
0.030948034
-0.013824454
-0.09572764
0.009350949
-0.19462748
-0.12081556
-0.050244197
0.06994141
-0.15581293
-0.03946634
0.068243235
0.09133893
-0.10887691
0.057292894
0.11532799
0.0084624775
0.054557547
0.06611803
-0.0009809902
0.06279949
0.0011751436
0.019317865
-0.105533496
0.039964166
-0.028244378
0.0462465
-0.027376043
0.002132827
-0.011469397
-0.02557028
-0.08414823
-0.02505545
0.046272915
0.16697162
-0.08367857
0.13458419
0.20072274
0.016998675
-0.01423229
0.009796425
0.038325325
0.11285067
-0.23167847
-0.10930482
0.067066
0.08244522
0.23007639
0.06771638
-0.20066242
-0.20734842
0.039689418
0.022164574
-0.012684974
0.2069828
0.020263413
0.0750215
-0.06641666
-0.22423357
-0.01884503
-0.0421512
0.18180595
0.04109111
-0.090530366
-0.023672594
0.01714287
0.0066576153
-0.080480866
-0.04599417
-0.015580216
-0.077187434
0.055417042
0.19552281
-0.14735618
-0.0009568188
0.1658604
-0.061301652
-0.026545629
-0.021018604
0.09669271
-0.048233666
0.26143813
0.03882099
-0.03869154
0.052835252
0.077469304
-0.0404693
-0.0011022642
-0.05129997
0.010943566
-0.0076312777
0.1279516
-0.03001821
0.04698276
0.1435868
-0.17112732
0.010822085
-0.16887853
0.12400818
0.102202274
0.06626207
0.119460694
0.050172877
-0.08208515
0.17781505
-0.033286817
0.07149859
0.022874031
-0.13574916
0.013323082
0.050375048
0.13295774
0.066827044
0.21020675
-0.034983538
-0.041417606
0.20173803
-0.037467044
-0.031913597
0.15935355
0.21530043
-0.0959891
0.09237048
0.11799242
-0.114772595
0.06519643
-0.02751467
-0.19342859
0.10314206
0.0987954
-0.039012317
0.05127178
0.058445532
0.003156889
0.028652497
-0.0698164
-0.0250539
0.093171276
0.21665756
0.12743443
0.024292959
0.022801267
0.08090665
-0.19843951
-0.060946304
0.013881021
-0.11468145
-0.04328186
-0.012183962
-0.030761948
0.20158772
-0.17317043
0.040659633
0.0011486658
-0.07290869
-0.04753878
-0.038888652
0.045880068
-0.005659436
0.13574746
-0.0026567245
0.022399519
-0.12045615
0.1959809
0.20138098
0.048416547
-0.07284013
-0.008087066
-0.0049466016
0.049641363
0.082552776
-0.0655751
0.013318304
0.2110874
0.073353246
-0.035220645
0.05135575
-0.03372176
0.03389782
0.23804505
0.2510425
-0.11960385
-0.005407409
0.0009905765
0.1377671
0.025468297
0.021164343
0.105815746
-0.1143586
-0.093454346
0.17409761
-0.020573927
-0.022924576
-0.025607038
0.1124198
0.014108603
-0.021266716
-0.023979079
-0.04577987
-0.085976124
0.11598729
0.053886034
0.14830104
-0.021811306
-0.15139581
-0.22173727
0.20194992
0.022393227
-0.040545728
-0.07443739
-0.001350959
-0.08057242
0.08189772
-0.0153260585
0.028604502
0.20646097
0.0520964
0.15758687
0.16156285
0.03667704
0.10397206
0.07501971
-0.09489574
0.06087499
0.24616976
0.10912892
-0.09006477
-0.068342485
-0.0578297
-0.23588285
-0.13701685
-0.11049693
0.009633281
0.056581914
0.12752053
-0.07781067
0.14076833
-0.1145428
-0.05676159
-0.062404636
-0.051084243
-0.035735045
0.010318161
-0.04054523
0.033836234
0.012027556
0.14076343
0.17882016
-0.030050702
0.2544354
0.07733625
-0.09668465
-0.041288752
-0.006460528
0.049012285
0.016797256
-0.14198038
-0.11131557
0.014877441
0.0032790739
-0.13628514
0.12627785
-0.18362027
-0.048054107
0.035447374
0.058813315
-0.08770208
-0.1511926
0.006821617
-0.05726858
-0.16623554
0.0061454903
0.09102467
0.06414988
0.017376494
0.055284306
-0.05280088
0.07452256
-0.07352248
0.10323442
0.027278803
-0.23908003
0.014929728
-0.100221746
-0.22242494
0.061400667
-0.09353465
0.0062037744
0.17465208
-0.056410704
-0.22630134
0.06429699
-0.030586123
0.050278604
0.15457793
-0.062288098
0.07086834
-0.17370018
-0.06821181
-0.056631733
0.07932612
-0.049339533
-0.062149115
0.2295924
0.119255856
-0.08190833
0.06265563
-0.13690934
-0.0678691
0.010835568
0.14822295
0.05193872
-0.14555658
-0.017911976
-0.13787812
-0.016385583
-0.17916624
0.15924703
-0.0067563243
-0.00927207
-0.12634502
0.10115501
0.29870293
0.012216863
0.02521796
0.10634832
0.09833193
0.18708946
0.1453522
0.13476184
0.040546395
-0.0024508869
0.025640547
0.085158795
0.012448315
-0.10824624
0.042145107
0.016025271
-0.13919076
-0.024476698
-0.11835012
0.048441295
-0.13434355
-0.05993236
-0.16119526
-0.059729435
-0.07106946
-0.108489625
-0.008459143
0.015049335
-0.054320805
-0.016355632
0.1614351
-0.11859137
0.00768909
-0.022710266
-0.16576423
0.03151909
0.010145518
0.12754512
0.110400885
0.209386
-0.006189658
0.1011332
0.017607553
-0.11004672
-0.053032402
-0.002052832
0.07232694
0.16583972
0.07527663
-0.044261903
-0.082052685
0.12830573
0.21629049
-0.08091618
0.0768029
0.045569703
-0.088627435
0.022530498
0.08140238
-0.025254564
0.01638919
0.0063135577
-0.1416493
0.0441996
0.17161581
0.12235456
0.11260202
0.029067002
-0.0328187
0.09829198
-0.0039153113
-0.040303316
-0.117693454
-0.009556352
0.076365285
0.050460003
-0.11725912
0.21136424
0.17666353
0.022620017
-0.21106435
-0.027692642
0.08528845
0.091715574
0.12966552
-0.08803985
-0.080206834
-0.0017336903
0.13581225
-0.016830338
-0.032080803
-0.021970578
-0.2069208
-0.22762063
0.113333754
-0.016233427
-0.010399718
-0.04104115
0.053303245
-0.13981968
-0.14565629
0.021247929
-0.0062527917
0.17297633
0.08067176
-0.10579436
-0.08744606
-0.095890574
-0.14921716
-0.1443792
0.08962282
-0.08823771
-0.03690427
0.019604959
-0.09906202
0.11984398
-0.019102015
-0.029432548
0.28128412
-0.026052909
-0.08218232
-0.11511886
0.048472665
-0.014670975
0.008282739
-0.022702819
-0.1074832
0.050660975
0.011975514
0.08476472
0.10042266
-0.11568702
-0.12841995
-0.02619317
0.01845182
0.20736651
0.06587817
0.00460768
0.12187817
-0.045188464
-0.0709991
-0.20833401
0.007475225
0.10566845
-0.030929675
0.22150734
0.033467926
-0.16463073
0.061886393
-0.061135493
-0.14488672
-0.06181214
0.009556751
-0.039888732
-0.08989033
-0.03777977
-0.052509796
-0.087743424
0.02423946
-0.08625287
0.022287417
-0.16262077
-0.03587132
0.056848384
0.08169659
-0.117244035
-0.1448089
-0.06293867
-0.12567449
-0.15963589
-0.026304964
-0.12514211
0.056734268
-0.16845983
0.076315224
0.07499943
0.023796549
-0.22647196
-0.06795848
0.012953905
-0.016215758
-0.10737605
-0.041406132
-0.116425626
0.05364131
-0.040621676
0.082027614
-0.0734589
-0.027448395
0.15708601
-0.13234922
0.092695534
-0.16590641
-0.0569508
-0.01357368
-0.29052284
0.073987044
0.016244765
0.0061309314
-0.17819771
0.12488148
0.0020210512
0.1332647
0.10722865
-0.0348357
0.11644625
0.015443651
-0.045357503
0.06463712
0.050166547
0.06536088
-0.08862256
0.057411212
-0.06353193
-0.011729681
0.032467153
0.024510905
-0.10514917
0.03802341
0.045573257
-0.07372392
-0.10891514
-0.00033477743
0.109128475
-0.11172212
0.07412997
-0.020234665
-0.067349985
0.0411309
-0.14835018
-0.0822977
-0.018991427
-0.117628336
0.06328759
-0.039590213
0.061235942
-0.056585066
-0.033141207
-0.12882265
0.022426395
-0.10177092
-0.10310212
0.16416161
-0.047250107
0.12072201
-0.029454939
-0.08488115
0.004979424
-0.004306174
-0.005084128
0.23590618
0.019120002
0.036723834
-0.043176703
-0.063214496
0.034382287
0.0044737603
-0.007218367
0.036611356
-0.0186656
-0.02353117
0.0030488942
-0.054041333
0.14173076
-0.09418336
0.050935514
-0.21584536
0.15695527
0.10396909
-0.18652219
0.07201524
-0.014797621
-0.15303373
-0.27648494
0.07025741
0.027936753
0.07651406
-0.020452315
0.022415252
0.0768243
0.06186769
0.14238285
0.039539035
0.08062141
0.019273521
-0.060657702
0.08675835
-0.10846406
0.05612357
0.10068555
-0.0368258
0.06128097
0.22897369
-0.13777873
-0.30208433
-0.12760048
0.06471381
-0.16646111
-0.16911383
0.16488065
0.11372658
0.042387463
-0.043726243
0.0770885
-0.17637722
0.0016853493
0.022069423
0.036096226
-0.0659798
0.0017528146
-0.0068553914
0.16756612
-0.020039745
0.038774636
-0.108801894
-0.124370575
0.03642749
-0.0054141623
0.07465444
0.09226547
-0.018159196
0.018143754
-0.1277768
-0.122408226
-0.016347231
0.124721795
-0.027277775
-0.027039621
0.105887644
0.15273997
-0.03787213
-0.13133746
0.043004945
-0.020626595
0.10233698
0.086199105
-0.030786315
0.037028745
0.1303819
0.031029748
-0.18257268
-0.006526575
-0.10863964
0.11198675
-0.12306783
-0.045146823
0.14918594
-0.036954805
0.12724262
0.40579373
0.32686964
0.09884275
-0.10006984
0.009536633
0.01248369
-0.049205244
0.028901968
0.0447794
-0.0066794804
0.11650045
-0.082019225
-0.052307073
-0.046310097
0.12610456
-0.08873047
-0.18088992
-0.05836113
0.03387484
-0.027891766
0.002912017
-0.005101983
-0.14434761
-0.066623785
0.103404455
-0.01819399
-0.034903143
-0.07756155
0.1856673
0.06380723
0.16275606
0.12845498
-0.06708134
0.08847185
-0.117073044
0.042841434
0.03573169
0.13653265
0.14537384
0.124855384
-0.05190957
0.039135586
-0.048726995
0.01114784
-0.07632383
0.111303575
0.0505577
0.11894023
0.04286615
-0.097955674
-0.062953785
0.055569842
-0.009615655
0.016750684
0.0063419454
0.13058354
-0.09828511
0.10207193
-0.059414577
-0.09093028
-0.07327454
0.04453558
0.09731887
0.081841566
-0.099724956
0.15728821
0.19711006
0.18281588
-0.030517597
-0.060425933
0.03236567
-0.091452904
0.03111267
0.008152651
0.10853487
0.09502953
-0.052416813
-0.20311412
0.06682978
-0.029511742
0.10988157
-0.017085997
-0.049259156
-0.056576792
0.118361674
0.20464407
0.070985965
0.104660794
0.062792316
0.16254814
-0.16924886
0.017774437
-0.075082555
-0.10034583
0.031787783
-0.24513373
0.11508008
0.015216562
-0.04111116
0.018189369
-0.16829231
0.012710079
-0.10209831
-0.07525072
-0.122273274
0.049407195
0.13841286
-0.019404268
0.05199563
-0.028572014
-0.022943588
0.061096206
-0.09783839
-0.061779667
0.009186451
-0.09348867
0.0022341844
0.049340215
0.101172455
0.0010570975
-0.07897066
0.12825507
0.10351952
-0.057996266
0.010685583
-0.18511082
-0.019738205
0.08382859
-0.17475012
-0.1088703
-0.16417661
-0.0121278195
0.019353433
-0.03222096
0.020724175
0.17674148
-0.031636663
-0.0036679744
0.08298585
0.054055538
-0.006711966
-0.032204226
-0.10250599
-0.11545577
-0.020067094
-0.012925261
-0.06929064
-0.17116201
-0.06468264
0.028963277
-0.07974896
-0.042683426
0.019886509
0.032271314
0.039933752
-0.0561747
-0.01941819
0.029047312
-0.08232877
0.039125808
-0.061268862
-0.071644455
0.0047901226
-0.059103567
-0.12854977
0.13176693
0.14593565
-0.01964289
-0.17469896
0.048008077
0.034946203
0.1348421
-0.0266183
-0.0030281653
0.0028684982
0.108096965
-0.06799572
-0.13002937
-0.16763544
-0.12706918
-0.22240277
0.06896732
0.04095768
0.061809603
-0.18024796
-0.088020205
0.14136118
-0.08995086
0.031831626
0.16440034
0.0017756425
-0.0682997
0.02334427
-0.056689944
-0.065352604
-0.015607101
-0.23598842
0.19027151
-0.13050511
0.09891081
0.112863384
-0.09239738
-0.08796272
0.0815017
-0.1569554
0.08086517
0.08246769
-0.015406739
0.06403597
0.040554516
0.055357996
0.01977296
-0.06851549
0.09082652
0.121963724
-0.1599591
-0.08056465
0.015740257
-0.15207818
0.04587048
0.13906604
-0.11220331
0.10045285
0.13115317
-0.22995795
0.08456122
0.054507174
0.010923447
0.010378915
-0.27394712
-0.1550095
0.010533971
-0.06006726
0.07163811
-0.29253724
-0.037056766
-0.024601042
0.059551127
0.119999014
-0.08232584
-0.06381934
0.0023177583
0.11381295
-0.03564847
0.1111534
-0.025458915
-0.017224254
-0.008994134
-0.056855794
0.05374654
-0.01407393
-0.0295509
0.044506643
0.050835125
0.081320256
0.05191804
-0.2662607
-0.22030972
0.16310556
0.08452889
0.12668936
0.078416646
0.081567
0.029692387
0.034020595
0.011206271
-0.07831883
0.07542058
-0.12914035
0.0704108
-0.033790484
0.11040371
0.11483643
0.046322074
-0.048480038
0.0037888286
0.0023747648
-0.07215415
-0.0117599
-0.09316268
0.012018484
-0.034256026
-0.022482326
0.15701517
0.12358499
0.15399727
-0.06523055
-0.0020027247
0.13377118
0.13117057
-0.11768158
0.0014213987
0.06424897
-0.046679866
-0.07340549
0.13368939
0.05463358
0.08709645
0.05313802
0.014525337
-0.16160123
-0.06530469
-0.025327614
0.060569335
0.0446117
0.2131759
0.027473943
-0.1885822
0.06681093
-0.15481435
-0.09010801
-0.09934943
0.11582211
-0.048396412
0.043049164
0.0031919703
-0.07969123
-0.03065694
0.010788953
-0.05837078
0.11044411
0.1092741
0.11919573
-0.01987967
-0.20524155
-0.001966685
0.12350817
0.051813103
0.13818334
0.2316886
0.00014646273
-0.09905802
-0.066547364
-0.092456065
-0.15771398
-0.031658955
-0.07011164
0.116697505
0.13440046
0.067140296
0.02509868
0.11294574
-0.060656987
0.016511213
0.18489392
0.11405746
-0.049494136
0.028459173
0.013037973
0.17899689
-0.04775983
0.018832743
-0.059731785
0.17336561
0.123453334
0.011302679
-0.00015723327
0.03844117
0.01114004
0.011796504
0.19615631
0.09000713
-0.012623787
-0.12119679
-0.12629071
-0.13838483
-0.0004402453
0.08472445
-0.09510792
-0.1072383
-0.04253003
-0.067464985
0.00014854885
0.06225182
0.18564354
-0.07896473
-0.057323143
-0.122325115
0.011162538
-0.11355166
-0.20374386
0.04427051
0.14323865
-0.1120428
0.1906281
0.07420215
-0.05436651
0.15392129
0.03544023
-0.12529257
0.09247667
-0.08751141
-0.059629627
0.071921505
-0.06868302
-0.05863327
0.037155826
0.025429098
0.031885117
-0.046288416
0.09020821
0.08040069
0.036875498
-0.07059011
0.028398016
-0.009961131
0.039077867
-0.038467966
0.21533372
0.17230217
-0.063755274
0.05731714
0.118761815
-0.09772014
0.0150708025
-0.08645826
0.043610904
0.09877484
-0.102619335
-0.08503442
-0.055263948
0.07428549
-0.23710212
-0.16074863
0.058890034
0.2022634
-0.025836706
-0.10028989
0.10670133
0.18920131
0.10849298
0.08820237
-0.012874126
-0.035115764
0.05568269
-0.10879716
-0.15651837
-0.0017654105
-0.016813219
0.087893
0.03341406
-0.074903585
-0.13146153
0.15427381
-0.06594505
0.0019041932
0.06442528
-0.1453985
-0.06848687
0.20952971
0.091444194
0.059938844
-0.025357608
0.09041752
-0.03858419
0.06942619
0.2114503
0.02240638
-0.08848414
-0.032965023
0.10543651
0.04937675
-0.110955454
0.003844496
0.07910069
0.03895316
-0.05213823
0.034118917
0.07096765
0.19314367
-0.033839323
-0.09217971
-0.07040709
-0.085145175
-0.035722792
0.05333843
-0.09909557
-0.029685631
0.052941028
-0.02072682
-0.04286454
0.025194295
-0.07055625
-0.22978474
-0.0086063165
0.2463005
-0.09032854
-0.07022189
0.0007835509
0.05656683
0.1732867
0.00043398683
0.39325404
-0.13953972
0.18575019
-0.047547206
-0.0150932325
-0.0030766649
-0.06310492
-0.07851801
-0.005864433
0.08075867
-0.025105752
-0.13585606
0.043710977
0.09698159
0.07125769
0.047109693
0.0023141808
-0.14572297
-0.017488481
-0.28750715
0.034929805
0.11100791
0.014208117
-0.1247474
-0.110447876
0.008417091
-0.14814146
-0.18718302
-0.04945961
-0.18416639
0.102636285
0.03042694
0.00964268
0.08308742
-0.11211605
-0.05566934
-0.05922674
0.025432974
0.022420067
0.18725644
-0.1856331
-0.009755664
-0.107036255
0.13775815
0.104363576
-0.039376188
-0.010618509
-0.115565315
-0.07824922
-0.06194365
-0.04620954
-0.021068156
0.025988912
0.07008678
0.15946609
0.021554386
0.023479661
-0.103346385
-0.24869236
0.0838229
0.13389453
0.22294667
-0.01865332
0.057988107
0.09814172
0.078898095
0.12889646
-0.113727346
0.18241741
-0.016616466
0.029646756
-0.026590917
-0.063114434
-0.070174225
0.047356572
-0.00930017
0.082808696
-0.17004868
-0.024680847
-0.17471687
0.09630978
-0.16875778
-0.005400593
-0.023070512
0.14938624
0.0028371473
-0.13196476
0.19538902
0.08012754
0.09982726
-0.011462645
-0.0782648
0.048176143
-0.015588815
0.15075758
0.17097376
0.0736764
0.11846587
-0.020876441
-0.09495693
-0.06830135
0.08140196
0.19228566
-0.045527484
-0.011353875
0.020206703
0.12619796
-0.054605946
0.19173723
0.034464266
-0.030287098
-0.055504423
-0.08812442
0.068535395
-0.05293048
0.10786241
-0.010200533
0.0873229
-0.15341458
0.060128275
-0.011499023
-0.037599005
0.083976775
0.11122512
-0.14294805
-0.06254367
-0.14901711
-0.12984967
0.06871371
-0.03767696
-0.1552199
-0.004757687
-0.047445502
0.011771893
-0.11555805
-0.07198686
-0.15188412
0.12204503
0.21875224
0.07730265
0.02584566
0.08728219
0.026770985
-0.11528593
0.15099591
-0.12526178
-0.028669408
0.02500928
0.0034740204
-0.09597162
0.14068939
0.04889534
0.006970589
0.09364705
-0.16208662
-0.25544015
-0.15733671
0.10718099
-0.1678517
-0.0628814
-0.025060417
0.0057788915
-0.09150377
-0.0027272422
0.009306628
-0.18860571
0.05199414
0.05843714
-0.03868081
-0.102663785
0.13515021
-0.14511456
0.058995403
-0.048737045
-0.10296154
0.15204483
-0.02862866
0.06534866
-0.1651873
-0.06159731
0.05933846
-0.12836477
0.10799957
-0.10949388
-0.087561324
0.028707072
0.0033977225
0.08275556
-0.02230717
0.16471915
-0.019208822
0.21336071
-0.16471942
-0.06885647
-0.047406383
0.13821357
-0.19470969
0.10695043
-0.06797088
0.07734153
-0.039544493
0.12897786
-0.06429924
0.026341258
-0.08142444
0.12972626
-0.08388961
0.056137823
-0.13890727
0.09705797
-0.058901627
-0.06550872
0.12870707
-0.0087996675
0.0039716396
-0.022077518
0.054878626
0.047686845
-0.014587966
-0.043019705
0.008072189
-0.018666213
-0.034808654
0.08963362
-0.015787192
0.03018818
-0.2146895
0.08678462
-0.0909005
-0.1489922
0.03690093
0.052442215
0.050015867
-0.13633679
-0.034460388
-0.09263061
0.11489915
-0.014031431
0.15221362
-0.08803332
0.039001282
-0.0055879247
0.11553563
0.06582744
-0.11672001
0.03215394
0.23032907
0.13280265
0.004524399
0.063956365
0.09200955
0.007371333
0.13730592
-0.12437476
-0.036404863
0.096917346
-0.0087402025
0.07825629
-0.10917465
0.10576025
0.054736506
-0.06750701
0.06040213
0.06242454
-0.087384395
0.06090091
-0.05372225
0.051000368
-0.001106254
0.007589631
0.00064015365
-0.09390966
-0.034196503
0.10527271
-0.06321768
0.0316939
0.10153878
0.17189537
-0.06858081
-0.06460405
0.011415539
0.0750281
0.1036327
0.0084411865
-0.13530065
0.08240455
0.10669795
0.01711785
-0.05812834
-0.012926777
0.047974326
-0.1492792
-0.07576896
0.0680633
-0.050185386
-0.013375216
0.12012805
-0.102186054
-0.09572965
0.15660772
0.040474672
-0.053309407
0.06535732
-0.032120835
0.10807578
-0.13089211
0.055399995
-0.0016503817
0.093049295
0.03972805
-0.096418984
-0.091501094
-0.13681687
0.0075853313
0.05441616
0.22985694
-0.027871376
-0.096106865
0.015640981
0.018550048
0.11179177
-0.124753885
0.0032268523
0.103684194
0.04958658
-0.016395977
0.063159175
-0.048207983
0.056354776
-0.1084582
0.07173303
0.1527896
0.06575359
0.15475525
-0.019581517
-0.10744412
0.02257195
0.093076944
-0.22001836
0.13275042
0.07716376
-0.075210005
0.16047387
0.17898747
-0.15305173
0.0265957
-0.061986938
-0.050772622
0.09156044
-0.17575921
0.06312047
0.071962394
-0.17715532
-0.06806346
0.036503963
0.03312872
-0.019275311
-0.13415901
0.19545268
0.05786726
0.18297221
-0.1346359
-0.10975322
0.10165095
0.030797193
0.06021259
0.0503584
0.2426849
0.019904256
0.054916542
-0.07892152
0.010706723
-0.051258586
0.05191649
-0.10723707
0.07686685
-0.085173815
0.16188633
0.015470209
-0.06970229
0.036127634
-0.07030918
0.084167026
-0.17373979
-0.01758835
-0.23453343
-0.06846313
0.07419643
0.07354106
-0.19598375
0.019404255
0.07621381
-0.050968282
-0.062131554
-0.003478354
0.06586292
0.17162849
-0.091606736
0.026858037
0.10075354
-0.1306838
-0.032635067
-0.056265485
0.21166793
0.06940378
0.051537484
0.023707565
-0.040007636
-0.05274964
0.003145715
0.22796632
0.13666718
-0.02634958
0.078148626
-0.16701637
-0.19040157
0.0463713
0.03177526
0.0039901515
-0.10821223
0.14459634
0.007522713
-0.1270543
-0.07159354
-0.17487419
-0.055739976
0.25596035
0.022535041
0.022176055
-0.0030416495
-0.025265323
-0.036134876
0.012761354
-0.08532689
-0.10719209
0.15814683
0.026352866
0.23995551
-0.08522865
-0.043801684
-0.111497216
-0.035488244
0.092160285
0.051985033
0.08279487
0.08421964
-0.030141728
-0.046924695
0.112324774
-0.19226074
-0.058942594
-0.12955084
0.054783866
0.062495526
-0.08160911
0.08063503
0.05662708
0.0636615
-0.16017205
-0.027544787
-0.12565543
0.029499806
0.12881441
0.12703593
0.019670691
-0.10828318
0.08986992
-0.034696106
-0.038620517
0.05987172
-0.22607842
-0.0495591
-0.0406748
-0.022506779
-0.004984159
-0.1256396
-0.19968955
0.022523362
-0.056826923
-0.045573592
0.13247241
0.062796846
-0.07012528
0.16867796
-0.1281746
-0.031939626
0.05290341
0.14437331
-0.07662886
0.0030517485
0.008255048
-0.09233315
0.037718825
-0.088845536
0.0506916
0.06250217
0.052711338
-0.016002253
0.12663059
-0.050302643
-0.00865395
-0.0028468827
0.043009464
-0.0019985235
-0.056912433
-0.15892538
-0.06707291
-0.06688371
0.12612292
-0.16274032
0.07602813
-0.09009164
0.10439506
0.09376274
0.070437185
-0.19489445
0.17925243
-0.11494069
-0.01581184
0.065233484
-0.014712944
-0.051829595
-0.10214494
-0.04657565
0.08298607
-0.002971523
-0.1370421
0.027012294
-0.0008808104
0.06232194
-0.04129001
-0.20896596
0.14899139
0.19268598
0.03893086
0.058758646
-0.110482655
0.04578207
-0.022985125
-0.11913255
-0.060347185
0.17640302
-0.009771958
-0.1570428
-0.015409449
-0.03374986
-0.1502469
0.058580827
-0.12439545
-0.11543242
-0.1980286
0.12234637
0.058475565
-0.017336216
-0.016739214
0.099200405
0.039032586
0.010865607
-0.046622567
-0.019861551
-0.16535239
0.13725267
-0.083303854
0.026311768
0.035145447
-0.10120772
0.14993936
0.05264164
-0.07834186
0.17524405
0.08093544
0.049775723
-0.00808444
0.06958497
-0.18787855
-0.052850965
0.07567044
0.0377601
0.23520705
0.032309007
0.10134959
0.04236397
0.0900907
-0.15118505
-0.052713297
0.27160296
0.044957068
0.049920626
-0.045272782
0.07871246
-0.22333562
0.08099011
-0.032021552
0.067669146
-0.06779649
0.03150369
0.0375459
-0.24364705
0.14990787
-0.10137593
-0.0056111035
-0.12856118
-0.0744965
-0.0059212428
0.007894603
-0.0024906897
0.024294408
-0.07293215
0.010121738
-0.021364952
0.005223777
0.0873772
0.055362687
0.09870366
-0.025589658
-0.0143967075
0.07536607
0.027124416
0.029264964
0.053000007
-0.17231633
-0.024228489
-0.08364115
-0.17666855
0.027091447
-0.05734483
0.022919105
0.07545196
-0.15252918
0.046172854
0.008429472
0.0042096623
0.06924725
0.10448058
0.011099449
0.09827151
0.080179036
-0.037160564
0.016145885
0.20780681
0.05695925
0.15801804
-0.09315456
0.028585171
-0.020371027
-0.07167096
0.003431095
0.15799585
0.07238298
0.13278617
-0.12359528
-0.005222517
0.1903202
-0.06664137
-0.049278934
-0.19098927
0.0795545
-0.20287532
0.22453567
-0.08341829
-0.031198008
-0.13668028
0.030486261
0.039363988
-0.059380017
0.047077935
-0.00016008805
0.05515098
0.3051814
0.114156224
-0.08789877
-0.057407346
0.058872476
-0.16365655
0.10435783
0.06430373
0.12718372
0.057615127
-0.13539234
-0.13082758
-0.007308644
-0.03545919
0.075555444
-0.06415051
0.024064902
-0.17339434
-0.09341914
0.05827408
-0.030387012
-0.018919282
0.30626824
0.14424606
-0.12735143
-0.017619804
-0.015496037
-0.030361718
0.16718894
-0.18405564
-0.021277752
-0.026737733
-0.051892735
-0.12937249
0.26404053
-0.12994389
-0.024066053
-0.09221826
0.080573596
0.10595575
0.042549867
0.036178336
0.062188845
0.084583275
-0.082269214
0.11855751
-0.12011365
-0.05080013
-0.082234345
0.007946355
0.061035477
-0.099383965
0.015511137
0.12706266
0.003332224
0.08842554
0.0075454093
0.15899733
0.09370031
0.15549228
-0.031220252
0.18241096
0.11717234
-0.14205769
0.14392214
-0.08574421
0.12494961
-0.086598575
-0.008700714
-0.013780031
-0.05313144
-0.18328352
0.11282129
0.005544137
-0.070718765
0.041173264
0.019969031
0.00042447058
-0.03010252
0.2148295
0.06402653
-0.08565044
0.05795087
0.071073964
0.013247671
-0.00673861
0.09644566
-0.13052182
-0.055901602
-0.0030313092
-0.029553602
0.05121114
-0.079278186
-0.085847296
0.040060453
0.010185596
-0.08063698
0.08195909
0.16077635
-0.044857796
-0.012648107
0.012233433
0.06264843
-0.14562768
0.007850179
0.045671113
-0.10261823
-0.17739978
0.05612949
0.06580829
-0.19595309
0.016177654
0.011350983
-0.0030998075
0.10803886
0.0718624
0.1627606
-0.00910195
0.0046670977
0.054361004
-0.0980961
-0.2256601
-0.051763013
0.16581002
0.06374181
0.057765644
-0.23169737
-0.07862437
0.03846807
0.10291735
0.035139505
0.080150165
-0.02861004
0.13031986
0.10360746
0.087391436
-0.078019686
-0.006435827
-0.12487515
-0.08589093
0.04469967
-0.09078827
-0.015367667
-0.0482723
-0.013483861
0.07506504
-0.051456466
-0.04203821
0.07336351
0.03517175
-0.01011828
0.043304574
0.105240405
-0.09183611
0.048413996
-0.11749742
0.020703739
0.124755286
-0.07359087
-0.11581718
0.009836875
0.17599045
-0.06339436
-0.10708788
0.17472708
-0.1335244
-0.04166492
-0.030271929
-0.09473791
0.122834876
-0.13831334
0.046190105
-0.14417765
0.07156312
0.011710911
-0.12536576
0.010748436
0.19073166
0.19598748
0.09799784
-0.055142645
-0.029988984
-0.03473345
-0.053241458
-0.14887333
-0.04881987
0.060173023
-0.01870517
-0.037056554
0.10086372
0.08073191
0.1638706
-0.13127579
0.037715357
-0.082837634
0.03543915
0.030917984
-0.24084474
0.047346134
0.14025289
-0.07418842
-0.23925634
-0.100462355
0.006685325
-0.061577335
0.047136728
-0.040861506
-0.041888725
-0.09428182
0.110079005
0.11932438
0.044678498
0.050147627
0.11263798
-0.16090721
-0.10584568
0.018921986
0.0012783322
0.0649129
-0.004936155
-0.078038886
0.030567037
-0.0017302621
0.14472623
0.1025134
-0.06367532
-0.04057362
0.013915148
0.06286062
0.10611757
0.01720084
0.012615761
0.003873713
0.016967531
0.04491886
0.027900223
-0.12857981
-0.09477729
-0.022949101
-0.044873226
0.10490501
0.059608504
0.18423866
-0.1934593
0.10286124
0.10820149
0.0776433
-0.1276865
-0.08820939
-0.0019270666
-0.023781156
-0.103896566
0.1226805
-0.043558124
-0.12846895
0.021167975
-0.062981024
-0.08987875
0.016792974
0.13563529
-0.10601801
0.03449831
-0.15228486
-0.011560863
0.21468657
0.1229494
-0.11080899
-0.022529928
0.0932514
-0.007208481
-0.02622234
-0.0020959468
0.09413313
0.007722277
0.24085455
-0.1644808
-0.13118422
0.2795946
-0.032526825
0.019189417
-0.022442706
-0.20782572
0.035820756
-0.17262755
0.017299216
0.080906875
0.114735335
-0.115549184
0.11657799
-0.061837655
0.009483616
0.015647788
0.20087148
-0.13754262
-0.07915087
-0.0128281545
0.035874266
0.14835839
0.1380192
0.13194197
-0.015908834
0.05878819
-0.16745767
-0.12734224
0.09581808
-0.005297117
0.078927234
0.010553759
0.11681764
0.05167941
0.039517954
0.11455075
-0.120290674
0.034576472
0.05479422
0.037725594
0.16066974
0.06169422
-0.2523075
0.10748787
0.2383704
-0.15858099
-0.016649477
-0.18798952
0.006087317
-0.09246068
0.10470019
-0.05041603
0.0059905676
0.054194573
0.1799395
-0.07121952
-0.23715408
-0.059779387
-0.0863074
0.109730974
-0.23412497
0.22782561
0.00731839
-0.13288625
-0.074348874
-0.11743322
0.10390929
0.16149123
-0.049649607
0.11700646
-0.12939993
0.027838817
0.18682185
0.03454048
-0.12826745
-0.10745916
0.010057071
0.10253556
-0.04327924
-0.097330205
0.13892116
0.08095785
-0.07816043
0.04493583
-0.10967562
-0.13957787
-0.16670687
0.016374707
0.027312571
0.088505566
-0.10209057
0.09769433
0.047749203
0.04388104
0.056463413
0.014746165
-0.061605036
0.050071564
0.039470214
0.069717884
0.034947183
-0.083077215
-0.06026617
0.1669707
-0.024083896
0.030322319
-0.05861475
0.11237365
0.022471974
-0.08608564
0.0062539214
-0.04398092
0.12021533
-0.05464243
-0.099316575
0.017595863
-0.119088784
0.033867456
0.04032884
-0.12925427
0.009438656
0.105146565
-0.10007708
0.07757151
-0.051946785
0.06557586
-0.023126202
-0.1181927
0.059544165
0.24862126
-0.047504716
-0.07064777
0.06628268
0.097670175
0.12802313
-0.10104899
-0.089810364
0.015935801
0.01239187
-0.104167424
0.04075252
-0.022843994
0.03658124
-0.015208953
-0.11996886
0.1451502
0.06411958
0.032069307
-0.09810131
-0.02178469
-0.0497634
-0.048673045
-0.00034418557
0.11422344
0.114404015
0.053171802
0.025152603
-0.10082373
0.017012814
0.098572426
-0.022379247
0.15361547
-0.026671343
0.09266703
0.03686602
0.04350484
-0.0511704
-0.08842264
-0.12913209
0.1540985
0.103520624
0.0019837457
-0.0063527077
0.004954419
-0.026825514
0.016178643
0.015123249
0.03572748
-0.012862845
-0.24873674
-0.04460442
0.0036990473
-0.17262244
0.02040768
0.017161448
-0.028129635
0.110770136
0.015871026
-0.07357755
-0.07037045
-0.055562083
-0.15613778
-0.15419443
0.034672648
-0.020495746
-0.08042153
0.025476985
0.08282975
-0.21457094
0.08039391
0.09101737
0.14963832
0.08771955
0.14989477
0.02006612
0.07387342
-0.04299168
-0.18635829
-0.050192308
-0.021992495
0.06388427
0.058384243
0.07787284
0.2654597
0.0323937
0.04908771
0.031077746
0.11426432
0.02856942
-0.27834886
-0.17244998
0.07199347
-0.012075595
0.010138863
0.12008636
-0.0034905327
0.0763737
0.22995043
-0.097873144
0.1109799
0.2002343
0.045246106
0.056115262
0.010045332
-0.09001306
0.007521504
-0.011127328
0.058156684
0.018905303
-0.07518813
-0.05942388
0.08645076
-0.02263425
0.04921839
0.014495903
0.040995974
0.39365557
0.048779357
-0.16541718
0.0674376
-0.054418214
-0.015174941
-0.18629467
-0.08595942
-0.0070805377
-0.099138334
-0.02693235
0.15436009
0.021498602
0.11082305
-0.12564075
0.08189027
-0.0663251
-0.09751899
0.02593937
0.07202314
-0.13521221
0.07206587
-0.016934415
0.07688835
-0.05884212
0.011343242
-0.097154066
0.119963266
0.07366441
0.051137794
0.09651631
-0.14684677
0.0694891
0.009063032
0.16647327
0.15782854
-0.003765084
0.047470946
-0.09595622
-0.031695887
-0.0066492897
-0.043893225
0.011698929
0.051753644
-0.050739117
-0.02074603
-0.11330246
0.033398286
0.15925336
-0.037368804
-0.03599158
-0.10573438
-0.01261765
-0.08262084
0.08318671
0.0013269798
0.11401039
-0.113106124
-0.12573166
-0.052893225
0.101164296
-0.007419777
0.02616946
0.18018936
-0.058787018
-0.08757616
-0.110858195
0.0930016
-0.059914887
-0.037628606
0.039840292
0.20371632
-0.10773941
0.23824392
0.116250776
0.17027591
-0.020706156
0.12651816
-0.011463594
0.0407992
-0.13093013
-0.1283701
0.11643581
0.11920993
0.04170778
-0.038110327
-0.08414522
-0.08813573
-0.029566225
-0.07778075
0.018041259
0.042645693
0.0055312
0.030835336
0.10989718
-0.06379626
-0.06837747
-0.09369448
-0.0028509556
0.019072354
-0.24390726
0.12029112
0.10536691
-0.034165315
0.13350236
0.05305
0.09737145
-0.16244128
-0.14344831
-0.06846681
-0.11311083
0.058642045
0.04085822
-0.1248886
-0.0853628
-0.083772965
0.05201373
-0.19127049
0.10753765
0.021115279
-0.06472381
-0.053744253
0.14147004
0.036768187
0.26004598
0.066830955
0.10426772
0.008237952
0.11502949
-0.13252486
0.021974567
-0.22210264
-0.15633349
-0.0018407544
-0.19350398
-0.14357291
-0.072020866
0.09080623
-0.09512657
0.13841206
0.08179605
0.04702115
0.16306426
0.21328941
-0.26184204
-0.25780717
0.060939055
0.018779669
-0.19088325
0.0134990765
0.0747171
-0.0013919141
-0.045592338
-0.06086163
0.013207285
0.08087563
-0.17987722
-0.06779868
-0.08356535
-0.009276891
0.041509524
-0.023795819
0.12735048
0.025338285
0.005340965
0.05910768
0.10437811
0.118849464
0.050132453
0.07818493
0.07548469
0.112967536
-0.06943788
-0.024625737
0.23541237
0.12500286
-0.059858628
-0.119504
-0.14216366
0.15546377
-0.03939644
0.008410613
0.0013680181
0.10104778
-0.004911155
-0.03862122
0.20574394
-0.042432234
-0.124035865
0.032106318
-0.18860607
0.02735615
-0.32165143
-0.12705214
-0.049295735
-0.27825725
0.09146928
0.017819278
0.08254181
-0.175566
0.08757636
0.18867855
-0.105723366
0.3311632
-0.24408004
-0.015960695
0.017421339
-0.056108914
-0.036866117
0.014568301
-0.025046494
0.090170644
-0.007854991
0.06920265
-0.15586168
0.10864566
0.10195306
-0.07728245
0.099545956
0.16544504
-0.045042813
0.09327926
0.05775965
0.19109528
0.050436024
-0.055962283
0.12358971
-0.008702413
-0.031445183
0.11679932
-0.07459521
0.07410573
0.05390293
0.039902113
0.022801531
0.00051191676
0.054935653
0.0019568575
-0.010125611
-0.03786903
-0.065868415
0.13031329
0.101867594
-0.008723695
-0.071131274
-0.16928236
0.0639462
-0.07635907
0.06680547
-0.025350222
0.041138932
0.09271695
-0.08624902
0.116683535
0.14110634
-0.23068939
-0.10237196
-0.08415759
0.107610576
-0.15828891
0.0050783623
-0.043729022
-0.0011686577
-0.02997009
-0.12285229
-0.029513976
0.18489942
0.03623162
0.17420562
0.029842405
0.046263143
0.02166581
-0.09025077
-0.034031693
0.13181128
-0.030582413
0.0052209687
-0.33516687
-0.10299943
0.02774781
-0.0388222
0.03313411
-0.009768931
-0.0028551514
0.009623169
0.08029761
0.046839055
0.07575174
-0.12800083
-0.29761493
0.19265737
0.064696975
0.056514964
-0.035208736
-0.030381842
-0.096763045
0.049486537
0.073151626
0.09728587
-0.21171808
-0.026498167
0.11992786
0.0070998836
-0.06319005
0.020472411
-0.18087801
0.15368177
0.005953022
-0.1002832
-0.056846477
-0.117849626
0.11185341
0.11494745
0.056649677
-0.13465315
0.014348821
-0.018254777
-0.051168967
0.090670556
0.09052809
-0.05228728
-0.015593156
-0.12739463
0.09526031
0.043655396
-0.21331844
-0.03414998
0.03390755
-0.021379605
-0.08576426
0.0014786855
-0.06834999
-0.1502251
-0.14583561
0.027356846
-0.04338727
-0.0046842406
-0.050834928
0.077759296
-0.21478955
0.08626902
-0.00885635
0.033760767
-0.14652856
-0.15491578
0.07985381
0.07248989
0.121414855
-0.103093855
-0.07098841
0.18385884
-0.078799985
-0.008762708
0.11284374
-0.016492572
0.08988155
-0.030816078
0.12749353
-0.087149836
-0.090228446
-0.04675498
0.04958051
0.009007348
-0.007852803
-0.0654937
0.03418105
0.03616515
0.14032508
0.08699574
-0.029236108
-0.1066809
-0.11471728
0.013450907
-0.017291663
0.061772097
-0.12268445
0.08652952
-0.014584283
0.016344732
0.0018348881
0.040107034
0.034369934
0.10336051
-0.058690444
0.0550093
0.01453666
-0.07806639
0.014446589
0.083335906
-0.16205676
0.0222504
0.15266448
0.04470109
0.09116613
-0.028497424
0.038552653
-0.07133609
-0.17705311
-0.10020193
-0.012367316
0.12668277
-0.015947644
-0.04162045
-0.019747432
-0.011392246
-0.2503635
0.18438107
-0.0028705278
0.10745894
-0.15732907
0.21586579
-0.033915933
0.05219551
-0.061236586
0.0077962624
0.08451762
0.103692666
0.1337318
0.136759
0.06626868
-0.12149562
0.22076267
-0.0214663
-0.06219898
0.05076582
-0.08740579
0.09756835
-0.17583399
-0.027576564
-0.1694244
0.037042163
-0.068406224
0.16671336
0.018807417
-0.054638114
0.010692979
-0.0328755
0.03457189
-0.029578056
0.008902166
0.02437135
-0.08592216
0.15755267
-0.07019459
0.14644408
0.06823095
0.06294013
0.13247237
-0.06740196
0.04704734
-0.119811356
-0.020671686
0.12638697
-0.015943542
0.12591705
0.0033698385
-0.10559151
0.069201104
0.089605674
-0.09761524
-0.10759153
0.07385147
0.14110367
-0.074647665
0.13225138
-0.103014074
0.10244659
0.0022685886
0.18242563
-0.044463176
0.06504255
-0.19757125
-0.229019
-0.06446012
0.08149891
0.15766749
0.0587283
0.136272
-0.1117067
-0.028947944
-0.07487595
-0.11832472
-0.0073774513
0.13201347
0.2093468
0.17691322
0.03057684
0.011251429
-0.20520353
0.09014033
-0.08238819
-0.0027059636
-0.027399275
-0.035652515
0.06478629
0.19748016
0.10951691
-0.06552574
-0.036979977
-0.05177804
-0.034040496
-0.10278977
0.14453587
0.10388742
0.009161193
-0.10497809
-0.1486758
-0.19922607
-0.0012570024
-0.12392392
0.033691887
0.123818204
0.0786477
-0.022015808
-0.014260501
0.10279453
0.030032838
-0.06509513
-0.07556753
0.024348574
-0.051691048
0.110352136
0.05024978
0.11442678
0.008077182
-0.21012484
0.008411669
-0.05092776
0.18240376
0.048394077
-0.056904778
-0.06048301
-0.2068874
0.049490817
0.10694378
-0.0028112836
0.0752999
0.03282139
-0.19932996
0.02302581
0.12141629
0.016013607
-0.1074061
0.1910722
-0.057919268
-0.010134659
-0.05293892
-0.051282365
0.025650917
-0.08912773
-0.101465605
-0.037971135
-0.10152692
0.21398358
0.02873773
-0.1689101
0.038260672
0.06802063
-0.10355733
-0.034772787
-0.0017438116
-0.3043428
0.029420543
0.06061051
0.080512255
0.21240386
0.01443704
0.072332814
0.08867932
-0.09844993
-0.10640048
-0.051544804
0.09711247
0.06671906
-0.06472602
-0.050228886
-0.21991606
0.018745856
-0.062441282
-0.07965108
-0.012231713
0.08061373
0.13050684
0.14385466
-0.01602864
0.023552649
0.069324724
0.1304636
-0.0180258
0.011111138
0.124589674
-0.0041395365
-0.04846676
0.01603466
0.07812043
0.0003198411
-0.0074289767
-0.10319358
0.041842345
0.076115705
-0.15320288
-0.13492267
0.120282836
-0.11798606
-0.021695657
0.008768374
0.1019462
-0.021500938
0.16987069
0.08863136
-0.1400753
0.051040776
0.05928325
0.11895526
-0.038674597
0.10034443
0.00580165
-0.11099349
-0.1504401
0.099054046
0.060922317
-0.11124398
0.0060307696
0.123010196
0.06603545
-0.0056782337
0.0132357245
-0.15049295
-0.09135635
0.037553847
0.07318763
-0.014227943
0.030992191
0.1615999
-0.02775647
-0.10473813
0.07477662
7.763428e-06
0.028404716
0.057399873
-0.061006512
0.05827647
0.079639316
-0.07826661
0.03511935
-0.012362528
0.07279761
-0.028137207
0.101814866
-0.03755372
0.07808563
-0.14752135
0.007521235
0.0076596914
0.002220105
-0.041800242
0.054833323
0.24164864
0.1107297
-0.15812942
0.18448775
0.068146765
0.025350474
-0.11553375
-0.048540354
-0.12829432
0.024985617
0.26264805
0.07811244
0.009098391
-0.09285424
0.015415018
-0.11630903
-0.04663579
0.06614398
0.05200848
0.16600107
0.056282967
-0.06052819
-0.016195947
-0.009611861
0.077089526
0.06668861
0.07322617
0.10912569
-0.003515851
0.09142895
-0.011088555
0.022596112
0.009400965
-0.0631167
0.06663179
-0.05127964
0.07292541
-0.014372463
-0.08048036
-0.1134826
0.04532576
-0.09240781
0.14098431
0.00240641
0.06930945
-0.11949627
-0.024199544
-0.12606955
-0.18276067
0.05550418
0.030350855
-0.03133517
-0.05755823
0.020943642
-0.003081194
-0.21803348
-0.24265909
-0.032875217
-0.03509368
0.009065735
-0.071147494
0.30472565
0.17239293
-0.0596564
0.12277989
-0.25436258
-0.00867474
-0.0626909
-0.12431055
0.015668515
0.080049574
0.03304382
-0.040663198
-0.07485778
0.1428692
0.10868224
0.043897584
-0.23752506
-0.08996773
-0.031869218
-0.14514953
-0.00033044952
-0.073189765
-0.08029771
0.050684966
-0.07530774
-0.044705946
0.05306304
0.016174097
0.049818523
-0.032331266
0.007678376
0.101384744
-0.0836959
-0.08145902
-0.021611251
0.14569938
0.032400116
0.118771486
-0.12030699
-0.0045259953
0.017715655
-0.06422026
0.10425988
-0.06874847
0.117726386
0.07120031
-0.004812469
0.023897903
-0.012105841
0.011855052
-0.03999322
-0.1055067
-0.04087146
-0.03368735
-0.038187332
0.04255305
0.047199048
-0.01402508
-0.028714448
0.0064030048
0.046467
0.02816616
-0.024719696
-0.16168214
-0.099775456
-0.110868126
0.046493664
0.04741033
0.014400706
0.0018654345
0.08723634
-0.017063295
-0.007730388
-0.046413224
0.11693366
0.10104044
0.0143912705
-0.022084223
0.026074456
-0.011516734
0.042493943
-0.04616389
0.09643523
-0.13828082
0.1853455
-0.07041118
-0.067407556
0.0048722364
-0.009173677
-0.050736308
0.13666655
0.048913665
-0.14841883
0.09090998
-0.07171905
-0.07920399
-0.008634548
0.11679415
0.25701103
-0.045544434
-0.011325702
0.15021886
-0.07109721
-0.06898376
0.07522633
0.058163807
0.119447984
0.1597262
-0.23016092
-0.061441906
0.124348186
-0.13827176
-0.08526139
0.079799086
-0.023427283
-0.033829223
0.13066168
-0.023542335
0.15000851
-0.0021055832
0.107223116
-0.11966168
0.060977865
-0.0372595
-0.014071043
-0.007259584
-0.022735652
0.056139607
0.12659898
-0.04334114
-0.046483427
0.059009932
-0.19189848
-0.08269002
-0.040295243
0.11226065
-0.026084516
-0.024709841
0.011380319
-0.021236459
0.034349833
0.052634887
0.1331954
-0.08910226
-0.10382777
0.037710458
-0.09763363
0.09881509
0.077829406
0.008084689
-0.11858024
0.28181648
0.091176204
-0.0041265883
0.005953239
0.15606807
-0.12014982
0.2450322
-0.08252173
0.03294549
0.0886198
-0.10766422
-0.00518706
-0.062222738
-0.14138219
0.029530695
-0.13530642
-0.13113813
-0.096240066
0.10145563
0.28999183
0.3270743
-0.11759178
-0.04572193
0.056464378
-0.06684064
-0.26474735
-0.0719627
-0.14989462
0.02996811
-0.04408905
-0.023185503
0.065664165
0.018906962
-0.18282697
-0.09822308
-0.07268425
0.13013607
0.00048110186
-0.05307015
0.1662993
0.19720142
-0.1350902
0.08081666
-0.030385023
-0.041945126
-0.124512024
0.12051048
0.083002955
-0.15294705
0.071028695
0.053313404
-0.1008042
-0.069198325
-0.12422171
-0.11076668
-0.11727717
0.0482592
-0.004562354
-0.09841321
-0.07511476
-0.1564291
-0.044414077
-0.14136176
0.19892552
0.14848414
0.032442942
0.04799221
-0.10857631
0.073257685
-0.12628007
-0.20278957
-0.01133249
0.060345072
0.04764822
0.032075144
-0.007723964
0.15559275
0.19550496
-0.027162239
-0.03439767
0.07010914
0.067653194
-0.15230726
-0.06975296
0.083079554
-0.10083367
-0.16625541
0.05771077
-0.10790575
0.09815065
-0.093495935
-0.022875344
0.07365441
0.20396231
-0.04864128
-0.0014143537
-0.15315023
-0.052814804
0.06767667
0.1498289
0.03331125
-0.03588209
0.024899166
-0.06231707
0.0016571232
0.07911614
-0.15590295
0.013618962
0.1472323
0.08058976
0.03662391
0.20037994
-0.007316117
-0.033817753
-0.035916112
0.12109751
0.22600593
0.062362935
-0.0052029607
-0.005156714
0.07796485
0.05314394
0.023859007
-0.12968172
-0.0053616124
-0.045348417
-0.03236064
0.26680684
0.06761399
0.021806223
0.044258367
0.11197635
0.014703477
0.07912482
-0.1048317
-0.059511613
0.11818562
-0.054291982
-0.0044819517
-0.029202223
0.11527484
0.056698468
-0.12001382
0.03459018
0.0063513033
0.12362451
0.18582448
0.070603214
-0.15519461
-0.10523081
0.061815638
-0.028797517
0.037935227
-0.1224667
-0.0022167796
-0.0577574
-0.06962184
-0.011147798
-0.077069655
0.06658845
-0.06166949
0.05674797
-0.14808604
-0.14404236
-0.07212956
0.020168187
0.026775109
-0.028496346
0.012231413
0.05997931
0.06405766
0.09978014
-0.07064702
-0.016240565
-0.05926309
0.043268915
0.09361473
-0.047786925
0.0381466
0.011556382
0.021124784
0.07426031
-0.013241823
-0.012024696
-0.07164647
-0.16652672
0.03518107
-0.13800275
-0.005662347
-0.04214026
0.01361232
0.08122388
-0.0014444522
0.07552741
0.04650698
-0.046857785
0.08226158
-0.015125638
0.008838086
-0.003399336
-0.09328887
-0.25860167
-0.009843607
0.013461985
0.0942384
0.17102475
0.01733896
0.011992565
-0.0045582517
0.012279386
0.05058879
0.07151977
-0.17555347
-0.18400666
-0.0829337
-0.10009118
0.0032508695
-0.026445022
-0.18304388
0.16303046
0.03249987
0.027167892
-0.11667406
-0.14572366
0.01520348
-0.055757813
0.13743116
0.11078651
-0.09988551
-0.039516974
0.06913318
-0.14500117
0.041613244
-0.13225587
0.07948244
0.09443827
-0.0036043017
-0.039368797
-0.015369194
0.026672583
-0.06511849
0.24058364
-0.062860474
-0.1588557
-0.019029152
0.027073586
-0.025835615
-0.09289083
-0.13392517
-0.11607132
0.052272577
0.059534833
0.12997608
0.14912945
0.05756498
0.28624633
-0.04675038
0.08641718
0.16484389
0.07679726
-0.13321963
-0.017458623
-0.086025
0.09593508
-0.0074633947
-0.19408545
0.11771014
0.046059713
-0.23023015
-0.049271062
0.12168454
-0.084429696
0.1592843
0.057320807
-0.04174145
0.03756555
-0.049487524
0.027083961
0.12477961
-0.014585823
-0.06061116
-0.102989584
-0.02467766
0.171308
-0.07363171
-0.079602346
0.017183444
0.1994179
0.038836934
0.037501592
0.0632078
0.17279737
0.089323394
0.017651288
0.0005763187
0.13401233
0.09779512
0.011112501
-0.096637815
-0.05775392
-0.27220532
0.034939393
0.019607682
0.016640376
-0.0063127703
0.2056302
-0.00016978142
0.14697681
-0.052707635
-0.18067344
0.0008829052
-0.015667098
-0.2073048
-0.06565614
-0.0973106
-0.04288452
0.053731997
-0.05597649
0.042672757
-0.06782364
-0.048054814
-0.067011006
0.104308814
0.22167741
0.12635088
0.14749263
0.23988573
0.17342256
-0.046439476
0.05819255
-0.1125111
-0.17895707
-0.015992919
0.07098889
-0.102102675
-0.0016204397
0.054255385
-0.113082506
0.04499991
-0.10975287
0.21996315
0.0053301286
-0.028796848
0.025419936
0.27619857
0.05933255
0.13441789
-0.08473632
-0.06728558
-0.21524441
0.05601822
-0.072110265
-0.020310426
0.09477967
-0.056920256
-0.1091864
-0.05509666
-0.010971394
0.006522516
0.08443651
-0.09462601
-0.10922141
0.041225385
-0.054813806
0.026355052
0.053380225
-0.03608464
-0.065268725
-0.04975221
0.09357334
0.097964376
0.03271926
0.038271096
-0.09929164
-0.027978428
-0.1524297
-0.110170946
0.036431983
0.09422256
-0.20000954
-0.059778724
0.12770912
-0.19241767
-0.17376065
0.17653877
-0.19276118
0.049058054
-0.022345055
-0.07283258
0.026288087
0.061759632
-0.030548748
-0.09444947
0.002346661
-0.10930635
0.029610965
-0.18499626
-0.020700373
0.1285469
0.1840457
0.03543601
0.12849307
-0.08357115
0.113572285
0.00014394763
-0.13412042
-0.059602045
-0.0382158
0.09104356
0.031925555
0.008798793
0.3003986
0.11003699
0.10313714
-0.040953882
-0.00964731
0.17377415
-0.08083041
0.031289943
-0.057152804
0.1104005
0.013487527
-0.13867831
0.115506135
0.14487134
0.032181837
-0.030044405
0.09997188
0.05666287
0.018084953
-0.11504566
-0.2514945
-0.019706558
0.07299636
0.13829458
0.078339204
0.04509029
0.10269935
-0.11286271
0.06528971
-0.009811131
0.047630977
-0.09527163
0.11266339
0.18159823
0.10567279
0.00636998
-0.1544496
0.10185145
-0.14380966
-0.09441263
0.035966225
-0.10487667
-0.07744365
-0.22047935
-0.024545828
0.0010403015
0.08768681
0.019298544
0.07631069
-0.16216649
0.15196586
-0.16468297
-0.06056469
0.05668536
-0.079045236
0.20221879
-0.06849819
-0.0063412352
0.0011918246
-0.1281952
-0.007922894
0.06567236
0.1816257
0.0905457
-0.068948984
0.016531585
-0.0706731
-0.043647956
-0.16248237
-0.0057409694
-0.07643241
-0.0025270164
0.07838371
-0.039058436
0.011984353
0.05778791
0.08137738
-0.042698473
0.019800298
0.025938509
-0.041204292
-0.117798805
-0.16727635
0.11701602
-0.047133
0.025349109
0.046707604
-0.0071897707
0.019911464
-0.012066839
0.1607198
-0.06690274
-0.16330853
0.025190009
-0.19105077
0.21522339
-0.16273285
-0.18689775
0.061682496
0.12368167
0.11312252
-0.0036891408
-0.036861356
0.1540477
-0.1220777
-0.097434945
-0.0516296
0.02675706
0.10861512
-0.096338674
0.08553226
0.06743258
0.0034078744
0.12898171
-0.09059216
-0.083798185
-0.07450936
-0.122358866
-0.07076411
-0.041325435
-0.22700322
-0.034131676
0.11741127
-0.15888129
0.052524056
-0.063934594
-0.010331787
0.113302924
-0.0012105304
-0.08393045
-0.066716254
-0.027175225
-0.114285305
0.116828896
-0.045434132
0.090653755
0.014309072
-0.14915669
0.060439426
-0.08413591
0.12674515
-0.10195352
-0.1443008
0.053402938
0.06646523
0.1049185
0.10167976
0.062397413
0.028277554
-0.07756416
-0.17007284
-0.05046502
0.08182996
0.09342149
0.020545058
-0.014364057
0.04658635
0.060641192
0.014210057
0.010933416
0.07737272
-0.051897183
0.060496934
-0.06290766
0.037286375
0.087348536
-0.12358807
0.06511959
0.004492301
-0.12870538
0.15528329
-0.026844949
-0.01833341
-0.00592311
-0.036603697
0.06607193
-0.1521692
0.06454499
-0.055814937
-0.07975862
0.007881083
-0.11425973
-0.04087394
0.017458258
0.1828519
0.006983707
-0.058714114
-0.022732263
0.06105835
-0.052846123
-0.08953396
0.11240334
0.056963716
0.13324594
0.020057058
0.0048229787
0.041772094
0.076680504
0.029126978
-0.18515632
-0.08510847
-0.11309482
0.003164381
-0.053003024
-0.19561596
-0.03189674
0.031932496
0.101088114
0.11666498
0.03157625
0.005697019
0.13014606
0.08354558
0.028290793
0.04545371
0.02240825
-0.02125512
-0.019659314
-0.14504279
-0.06695163
-0.06841167
-0.025096035
0.3311722
-0.092744954
-0.0061199507
-0.036564536
-0.1997816
0.024779627
0.04590252
0.05350182
-0.07050996
-0.065786056
0.061916944
0.093282714
0.072856635
0.21549086
-0.12850913
0.10369993
0.049014255
-0.06023267
0.07813263
-0.043016408
0.10011212
-0.15562172
-0.056852676
-0.13929465
-0.13063331
-0.0021417227
0.07241835
-0.12851256
-0.23620465
-0.069491215
0.032881502
-0.110965095
-0.14428563
-0.012753633
0.010861229
0.009941655
-0.033445705
-0.12328519
-0.011436038
0.05210127
0.041369077
0.095824316
0.05404089
-0.083557576
-0.14082687
-0.027175242
-0.009214606
0.14074734
0.07295068
-0.13751319
0.022640351
-0.079495005
-0.039688207
-0.0021018973
0.003537432
-0.020265663
0.012831373
-0.13748203
-0.05173079
0.12979555
0.1545193
0.03814464
-0.0581028
0.13531113
0.008666112
-0.34749395
-0.027996514
0.05698885
0.094013624
-0.04903249
0.090858206
0.050390426
-0.02741597
-0.052661873
-0.016640214
-0.07265175
0.05105155
-0.061282553
0.0322738
0.006203476
-0.03130576
-0.14534211
0.07043589
0.020835225
0.09083743
-0.07916145
0.0539351
-0.020454673
0.0236379
-0.06584514
-0.02888576
0.08581616
0.23977435
0.031038608
-0.018823069
-0.067126885
-0.11164925
-0.08894659
-0.099239916
0.006709585
0.063588805
0.1756554
-0.10047939
0.10116977
0.033708464
-0.04019485
0.05932612
0.068521045
-0.08186379
-0.115383804
0.024806201
0.04036895
-0.039035484
0.103314556
0.03980048
0.26610366
0.065174885
-0.14216156
-0.027707428
-0.047283325
-0.106596515
-0.15289311
-0.0012321001
0.02658199
0.06992553
-0.18068175
-0.103289716
0.03380483
0.041846745
0.08289881
0.03974395
0.05616987
0.029304309
0.1717466
-0.07039202
-0.061081156
0.10644947
0.11566749
0.1389573
-0.0870696
-0.061553232
0.08678625
-0.09720042
0.1772319
0.040104996
0.09802623
-0.17065428
0.055443715
0.10545562
0.0037436436
0.013992272
0.04811754
0.13020615
0.07976238
-0.030500963
0.015834812
-0.016151771
-0.0410389
0.16394848
-0.075108245
-0.023051795
-0.0029881664
0.035072695
-0.07552984
-0.13977073
0.09423143
0.013277307
-0.13437659
0.09617401
-0.13288628
0.04740127
-0.027524188
-0.060690403
-0.11535907
7.920204e-05
-0.028436989
0.14943248
0.08222965
-0.06924437
-0.13005438
0.11606502
0.029881319
0.11273068
0.14068224
0.025211938
0.0049213283
-0.0522151
0.24234402
0.09482543
0.14402266
-0.117760986
-0.05922684
-0.090506494
0.011007414
-0.026733818
-0.23701563
0.010555973
-0.10121753
-0.14216867
0.003163232
-0.1076583
-0.053242143
-0.19621101
0.028668063
0.012523208
-0.11496552
-0.10960894
0.09592524
-0.00021934051
-0.11068178
0.03675249
0.0084277745
-0.13626137
-0.02004896
0.030433504
0.01065517
-0.049302366
0.04168221
-0.14748643
-0.115138955
0.13210613
0.17090033
-0.016370043
0.09347691
-0.008281281
-0.05150553
0.057998314
0.11023945
0.026977478
0.1000635
-0.07635761
-0.07596196
0.0925602
-0.20500128
-0.12813953
0.08411627
0.17967404
-0.04764173
-0.09227662
-0.105867155
-0.07858206
-0.10688955
-0.006315167
-0.028438115
0.0056587276
0.08977607
0.010564511
-0.10115091
0.10163223
0.112332225
-0.12132259
-0.072389
0.14142889
0.011288164
-0.037469853
-0.11226988
0.018430673
0.108029634
-0.10091305
-0.00041719218
0.012000937
-0.12760505
-0.11295712
0.15997373
0.105121054
-0.0976452
0.10385845
-0.093483485
-0.022267332
-0.052999586
0.05673088
-0.023541115
-0.069621995
-0.08384543
-0.053628426
0.065392755
0.032963812
0.1053273
0.061841443
0.031423826
0.009227257
-0.085861206
-0.15919067
-0.06133524
0.13948615
-0.043824594
-0.006441499
-0.16019666
-0.09388389
-0.106122434
0.1128115
-0.023675693
0.033856757
-0.04927471
-0.06689759
-0.043514915
0.05756621
0.07717436
0.013244569
0.013938524
0.07937729
0.1088263
0.23481163
0.0056453133
0.111987785
-0.010120855
-0.00090474647
0.074992634
0.013396146
0.029812492
0.024818955
0.014958883
0.10446055
-0.10011641
-0.14223155
0.080647886
0.25366893
0.048178114
-0.025349215
-0.1210199
0.07401964
0.018659843
-0.13144653
0.06401776
-0.2540641
-0.04926513
0.118824
-0.07437337
0.05495799
0.06600807
0.19881478
0.10338824
0.18921876
0.043353736
0.015416708
-0.102335624
0.068232946
0.06461896
0.1092838
0.08638069
0.12576276
-0.096513756
0.097633176
-0.052105315
-0.07082596
-0.09682171
0.071616106
-0.011173841
0.19552395
0.1620255
-0.1527289
0.009977709
0.25032017
-0.13007277
0.0058137784
0.02259446
-0.047626447
-0.08149751
-0.039807744
0.074795425
-0.10588392
-0.009175747
0.14832267
0.09126247
0.027275007
0.027631024
-0.12224122
-0.026134223
-0.010818216
0.09837744
0.116651475
0.13409555
-0.04451025
0.07216616
-0.060238685
0.058922336
-0.08339156
0.27184215
0.019771177
0.021668492
-0.05974385
-0.29355866
0.1859449
-0.015357731
-0.12735973
0.11882619
0.05834637
0.09466949
-0.075530656
0.1081998
0.073154725
-0.08452925
-0.050542463
-0.07905741
0.11629885
0.16141063
-0.056269888
-0.011691097
-0.00068242097
0.023897426
0.01217806
-0.058586784
-0.07495785
0.023118222
0.0742289
-0.12654585
0.15068899
0.0039253044
-0.045979794
0.008446756
0.015245728
-0.09751203
-0.0016251293
0.02129165
-0.069876134
0.14723814
0.0069777286
0.045754038
-0.11490005
-0.014863302
-0.0084473975
-0.059313778
-0.062146757
-0.0073376005
-0.01840692
-0.069668695
0.050988425
-0.12875582
-0.11192601
0.10758168
-0.16239256
-0.20390582
-0.11425361
-0.093578406
0.17085719
0.11620391
-0.28146023
-0.055700563
0.11188075
0.015643276
0.1293804
-0.1036817
0.2714004
-0.03391405
-0.088755585
-0.061332744
-0.14561982
-0.008215317
0.07138677
-0.07429767
0.1049444
0.044050988
-0.065803766
-0.13414732
0.060608353
0.17182969
-0.13922264
-0.037342552
0.08051626
0.057316337
0.063631564
-0.059364688
0.14702639
-0.12838247
-0.0040319622
0.015328022
0.21356738
0.08849356
0.008098013
0.09060504
0.054182857
-0.026023323
0.045593638
0.044977985
0.28492275
0.11293819
0.11913269
-0.03767235
0.1817789
-0.1838731
-0.10865441
-0.14575371
0.05540361
0.1992504
0.074254826
-0.015194867
-0.17507835
-0.061578725
-0.008218431
0.09856379
0.109605886
0.08645468
0.042797606
0.17307092
-0.06513392
-0.08993696
0.04135941
0.024162563
-0.053091697
0.02652744
-0.011953227
-0.014583394
-0.072504215
0.04796189
0.06720926
-0.027011674
-0.030520277
-0.059758514
-0.008744643
0.09224188
-0.03989565
-0.030029094
0.11295387
-0.12667964
0.03613005
-0.009580776
0.034531653
0.13753751
0.025711257
0.028291563
0.06577816
-0.095180616
0.14867164
-0.08287019
-0.014176284
-0.12179577
-0.1333831
0.090668514
0.07800981
-0.017234406
0.030689575
-0.0760588
0.0018874452
-0.09259894
-0.14664328
0.0655187
-0.13700344
0.05694615
0.078536466
0.012901845
0.28238758
-0.10108886
-0.06656734
-0.011479943
0.11343345
0.11961531
0.009933738
-0.22478431
-0.1951714
0.08002644
0.07284837
0.1491911
0.16411419
-0.104555994
-0.005743298
0.05505044
0.010373685
-0.008991068
-0.008624947
0.034039002
0.053049363
-0.09129238
0.074686185
-0.06789861
-0.22858281
0.055940386
0.13853742
0.08050441
0.13118474
0.0070265317
0.0072267065
-0.15086599
0.0827995
0.06345072
-0.027996572
0.03904311
0.08503463
-0.052413113
-0.146968
-0.28272188
0.094943285
-0.26530704
-0.13844414
0.26535663
0.06270039
-0.029445857
-0.17828646
0.0022248959
0.1994958
-0.083083525
0.14660761
-0.14445439
0.027906079
-0.05012489
0.14339577
-0.10721614
0.110483214
-0.16404471
-0.030110298
0.18905653
0.043299817
0.12839527
-0.22968067
0.042667072
-0.05670706
-0.22142784
-0.06928661
0.012692185
-0.26123425
0.019591123
-0.07117861
0.037751272
-0.019495018
0.036874752
-0.1414583
0.18872522
0.0057550003
-0.03167165
0.19979097
0.007706738
-0.012109673
-0.114151075
0.074111655
0.06255617
0.06333076
0.15126452
-0.1880633
0.05850716
-0.008845898
0.0023202195
-0.16249844
0.0718019
-0.14015599
0.050532013
0.06620612
0.04471612
-0.02224784
-0.040096287
-0.02160014
-0.08159691
-0.014613927
-0.017528897
-0.019272422
0.13917531
-0.09629985
0.0886209
-0.030331584
-0.12692839
-0.068758845
0.023141434
-0.09331167
0.15298492
-0.11069318
-0.07805207
0.17987475
-0.124888115
0.055458255
-0.015229927
-0.1636055
0.04845675
-0.13602377
-0.1447759
-0.08598216
0.07150555
-0.05623894
-0.111375846
-0.2253089
-0.14657088
-0.19351351
-0.05082132
-0.07118443
-0.055300813
0.10519041
-0.0540584
0.15890318
-0.0035890236
0.016024653
-0.09507399
-0.060981113
-0.07689
-0.14081095
0.19108997
0.028391853
-0.03719019
-0.02957266
-0.09948962
-0.09839429
0.116911046
-0.15839785
-0.20977204
-0.04182888
0.021933116
-0.0035912099
-0.16471216
0.11236589
-0.16178183
0.18958575
0.13160712
-0.013396479
0.19050604
-0.20745361
0.089549705
-0.05791207
0.058137275
0.18901378
0.055755757
-0.097932786
-0.1002266
-0.0733444
0.03680732
-0.10313586
-0.09306221
-0.122420534
0.14820287
0.06999586
-0.045993786
0.019626644
0.018591894
-0.014150052
-0.25649625
0.017207831
-0.074825
0.06826385
0.1282696
-0.09895792
0.05040275
0.054295406
0.054131273
0.14633305
0.07518598
0.00031266574
-0.08288548
0.11690771
-0.028865062
-0.13138515
-0.055256214
-0.011257743
0.025783833
0.100803934
0.12094394
0.14742044
-0.11861774
0.15405676
0.037666313
-0.036182668
-0.16516308
0.13413031
0.17048773
-0.14971358
0.041645717
0.05713117
-0.0797444
-0.1843611
-0.2928726
0.16117536
-0.036089286
-0.12538941
0.102988124
-0.009562222
0.05863155
0.06243099
-0.2479975
-0.006667047
0.07300177
-0.03973989
0.06708845
-0.06113167
0.16789016
-0.120970175
-0.030519735
-0.0687355
-0.18273829
-0.08156291
0.05434456
-0.022267804
-0.122847505
0.028672239
0.059521068
-0.11655729
0.083089255
-0.008620383
-0.12516096
-0.064899616
0.03701155
-0.14821373
-0.17578429
-0.08924945
0.036347095
0.19908811
-0.20656472
-0.071747094
0.020263301
0.024824636
-0.027866144
-0.01661
0.010645377
0.01167527
-0.100399844
0.05737821
-0.058327176
-0.008620893
0.1488717
0.08574584
0.20726943
-0.0072187115
0.051732276
-0.12135296
0.036378372
-0.026971072
-0.11584306
0.016327692
-0.01990147
0.06656446
-0.046653923
-0.16859719
-0.2464966
0.12572168
-0.088430405
-0.08122966
0.011227294
0.014240005
-0.026283143
-0.03546968
-0.017008
-0.3272834
-0.05728154
-0.06273199
-0.21183027
0.0038057643
0.11579491
-0.102419764
-0.03302675
0.17852052
0.08058662
-0.015828151
0.10485931
0.105485395
0.0273169
-0.17861675
0.121192135
-0.08383868
0.0054576355
0.04790671
0.12573847
-0.011425689
-0.08345109
-0.025983598
0.113413386
0.16140795
-0.19189325
0.050793815
-0.021341318
0.068654425
0.041396905
-0.011778565
0.021301726
-0.059645947
-0.027045133
-0.025537118
-0.026371583
-0.12397894
-0.021316972
0.28199768
-0.067734696
-0.118594036
0.02689868
0.10821915
0.111813895
0.034693737
-0.053877376
0.18623926
0.065970115
-0.10197166
0.14448291
0.086943716
0.055797953
-0.05659598
-0.0024898967
0.02325194
-0.058715045
0.06441476
0.08810467
-0.082471386
0.22823276
0.12552075
-0.035040848
0.10057198
-0.055536836
-0.081807636
0.088936076
0.072520584
-0.029130721
-0.1033965
-0.03616245
0.0648202
-0.037992474
-0.03643908
-0.07038269
-0.00017340555
0.005567786
-0.06469972
0.13846977
-0.20069143
-0.09549521
0.0016293474
-0.0652476
-0.038372513
-0.035732426
0.0036108315
0.05473734
0.08260189
0.19925979
-0.046627417
0.22616377
-0.011115718
0.18207183
0.18963149
0.12981793
-0.08573011
-0.09774911
0.026469173
-0.15893257
0.08492206
0.079969816
0.031121068
-0.11259746
-0.0054922383
0.1586852
-0.010303046
0.07016618
0.037415814
0.039743066
0.032754764
-0.1473206
0.04580027
-0.034143202
-0.047743287
0.02079339
0.050991695
-0.037346773
-0.07552314
-0.023066629
0.105238594
-0.09856338
-0.29315957
-0.006462102
0.07636936
-0.105314404
0.0971835
0.028764239
-0.033358824
0.00027810805
0.039015677
0.10275737
0.073627666
0.07551731
-0.036024824
-0.16345735
0.10862379
0.06256059
-0.036758404
-0.101835676
0.0036230395
-0.13415018
0.10912722
0.057926532
-0.12828931
0.16085032
-0.06427434
-0.0764261
-0.07453452
0.07467438
0.030880189
-0.114847675
0.013275916
-0.074349515
-0.041307725
-0.05614631
-0.2595171
-0.0041865213
0.25636727
0.09724222
0.011675064
-0.0030684662
0.12725346
-0.009601459
0.14770503
-0.10186477
0.027744036
-0.22222301
-0.1118923
-0.07549332
-0.0066257506
-0.14399768
-0.045641605
0.115806766
0.013098684
0.10691813
0.18225342
0.24406873
0.02589563
0.1674869
-0.06585871
-0.031802308
-0.060664594
0.068855084
-0.009362319
-0.07764531
-0.06196958
-0.099648535
-0.03296331
-0.1285039
-0.041017078
0.07791945
-0.089259066
-0.06190636
-0.008552508
-0.09346584
0.19982645
0.0423418
0.017953267
-0.047813933
-0.0655851
0.049480207
-0.05507083
-0.104983054
-0.10689246
-0.07034633
-0.030542655
0.035628125
-0.11574293
0.10114644
-0.16144079
0.15858544
-0.080524154
0.01038595
0.19345169
0.018378533
0.11962453
0.027698195
-4.0044222e-05
-0.037897956
0.08879949
0.044820447
0.0443451
0.031274837
-0.02472799
-0.02546127
-0.032568563
-0.13097769
-0.28484693
0.01373224
-0.17901109
-0.1980016
-0.010414653
-0.027569493
0.004948001
0.12534735
0.05187357
0.055703685
-0.101984315
-0.08464808
0.025296625
0.12086945
-0.074856356
0.06352637
-0.04071693
0.01078358
0.16061236
0.047518086
-0.13061571
0.015712839
0.03514422
-0.046501987
-0.21551496
0.09339841
-0.057551064
-0.02700697
-0.15350759
-0.027056286
-0.11217387
-0.0036572977
-0.045139976
-0.01698551
0.012810259
0.1934883
0.12932369
-0.115340754
-0.10580715
0.052133255
0.034833584
0.11223906
-0.00952778
0.1400495
-0.026927516
-0.24322866
-0.17265639
-0.058699977
-0.03328408
0.16555598
-0.041736577
0.044679098
0.028831292
-0.012141765
0.0894531
0.024509596
0.1034631
0.12721655
0.09694296
0.0026424588
-0.12484516
0.20287623
0.023804488
-0.103337586
0.023727635
-0.09290548
0.021880733
0.099266544
-0.07669422
0.098020196
-0.1338288
0.017837381
-0.05030142
-0.042244844
-0.08205291
0.107820176
-0.083235554
0.034508456
-0.07100381
0.06073366
0.118778385
0.15830106
0.14658785
0.14888623
-0.036868658
0.10346015
-0.34663242
-0.043592215
-0.049158372
0.18821725
-0.11712031
0.006604014
0.10036251
0.009857712
-0.000826177
-0.00034693466
0.029735032
-0.11285734
0.051304515
0.058106653
0.006479755
-0.26357156
-0.09997587
-0.11116503
0.05902896
0.055398446
0.14158252
0.30080727
0.08779618
0.14106655
0.009927303
0.038452372
0.04956287
0.11335413
0.06694408
-0.002874207
0.1473816
0.16996768
-0.045841496
0.02852003
-0.06228618
-0.094478846
-0.07452735
-0.10688879
-0.0470671
-0.07354342
-0.06731405
-0.026707137
0.08022534
0.18586081
0.2011604
0.0402696
0.03000711
0.0148496535
0.037081122
-0.18475747
-0.02560507
-0.056833517
-0.05837029
-0.11674283
-0.07575204
-0.018279405
0.09687957
0.079390556
-0.114538915
0.08564228
-0.084161304
0.1679727
-0.025801288
-0.023655944
0.050230328
0.04992821
0.026487408
-0.068095446
0.06479158
-0.016232595
0.12331996
0.017925825
-0.1251795
-0.13837707
0.13866465
-0.03484935
0.015564563
0.11637606
-0.06824169
0.038212087
0.12340856
0.16800494
0.03330621
-0.04164343
0.14229709
-0.099139035
-0.07462132
-0.015766399
0.091034286
-0.025303645
0.077561356
0.2669863
0.012249168
0.12228704
0.17460395
-0.095079176
0.06482648
0.08896389
-0.15590271
0.002962337
-0.011324205
-0.036714647
-0.006403236
-0.06838383
0.04275017
0.15463077
0.00223581
0.15862523
-0.03534292
0.039770875
0.06731886
-0.15278603
-0.10712284
-0.058833543
-0.13261245
0.1485324
-0.22588283
-0.05911438
0.02102194
-0.06392938
-0.140471
0.008179242
0.074662596
-0.08497822
0.025785685
0.06827415
0.0020621975
0.23553945
-0.11361919
-0.123203345
-0.054403253
0.031093642
-0.11091589
0.004356374
-0.10050581
-0.025401251
-0.03936436
0.1635108
0.02746282
-0.021692473
0.0681896
-0.26379272
0.026269741
0.02337937
-0.022103343
-0.11308857
-0.014368482
-0.053149074
0.06307983
-0.0013749514
0.03846285
-0.021005472
-0.024793955
0.0954898
0.058754995
0.032077394
-0.14613247
0.03741696
-0.11439687
-0.08116689
-0.13542548
-0.03499988
-0.19573995
0.11137795
0.093576156
0.037927505
0.03283168
0.05338426
0.08899422
-0.020006226
-0.08716411
-0.066318065
-0.014853106
0.14290005
-0.057691827
-0.14232369
0.016151274
0.118434794
0.121679425
-0.00029964122
-0.069359854
0.015201646
0.004114893
0.029787555
0.10593478
0.038082477
0.024186634
0.1071638
-0.07204954
0.0090815015
0.04907
0.028902346
-0.044844355
0.00034108854
-0.13426557
0.079053245
0.004752537
0.06321282
0.016869051
-0.034860514
-0.061765492
-0.052459475
0.020162418
-0.051673748
0.1289183
0.040984932
-0.055476293
-0.1547957
-0.08813387
0.13131583
-0.009568601
-0.2848958
0.044726092
0.00028886783
0.0033798015
-0.020038137
-0.09926062
-0.025475755
-0.00678007
-0.035993442
0.06695025
0.109737955
-0.01579232
0.12447308
0.11686584
-0.053196445
0.044772346
0.0059969975
0.036016528
0.064135514
-0.0754112
-0.10867333
-0.031365637
-0.11993071
0.009336897
-0.03573478
0.11479142
0.14879042
-0.008199427
0.028445335
0.18259537
-0.17524415
0.111510664
0.043447465
0.07877328
0.026409838
0.031108418
-0.119025685
-0.16218442
0.045306757
0.009698528
-0.039219834
-0.026239349
0.055048637
0.057492573
0.07735901
-0.13271204
-0.051587533
-0.15649538
-0.22525655
0.008962775
-0.017801553
0.0289363
-0.04012834
0.09927411
-0.1248314
0.20172325
-0.13705112
-0.21198085
-0.030950198
0.020417865
-0.0016869052
0.02804447
-0.19264713
-0.12741455
0.14087805
-0.020960705
0.2181267
0.0060400474
0.094197795
0.15463375
0.046555515
0.14652352
0.029513242
0.037111055
0.21700452
-0.0046720593
0.04119083
-0.04512857
0.098518886
0.05517237
-0.051522095
-0.021488372
-0.18779002
-0.0037358524
0.05657725
0.019768948
-0.08107805
0.029635295
0.03205228
0.08681931
-0.101145424
0.12584801
-0.056356095
-0.13839096
0.00795623
-0.00019995669
-0.043006744
-0.0051081846
-0.0578396
0.056754168
-0.11882163
-0.10418232
-0.105568826
0.04678095
0.10490159
0.18631412
-0.064685114
0.055547275
0.009537502
0.01354956
0.08797992
-0.14969648
-0.019917123
0.04579561
-0.13329281
0.05893521
0.059301592
0.08737246
-0.044564486
0.045608275
-0.04580576
-0.12437302
-0.0871405
0.15616187
0.11241599
-0.0069892528
-0.16490951
0.023228278
-0.09887342
0.120793365
0.1020344
-0.037180644
-0.047574196
0.0198286
0.07025449
-0.17327271
-0.01644219
0.024432983
-0.07600442
0.10676993
0.0030283118
-0.107925355
0.0011304886
0.033351272
-0.01913781
-0.05832435
0.15664542
-0.23731282
0.06386789
0.06092337
0.17992717
-0.10850439
-0.155451
-0.07659008
0.09103697
0.056394592
0.15006359
-0.05224834
0.029634897
0.116601706
-0.06424563
-0.20094524
0.026461912
-0.2037318
-0.06457694
0.043349054
-0.011201424
0.06176431
-0.10281784
-0.031039268
0.007870859
-0.08186732
-0.07222892
-0.29546443
-0.046682667
0.0474007
0.06729663
-0.09519852
0.098234765
0.01831828
-0.028037349
0.1032581
-0.022144979
-0.076327406
-0.027963378
0.12582536
0.015613043
-0.09793668
-0.059127133
0.09516911
-0.12290394
-0.07572089
-0.10566764
-0.01106352
0.1602051
-0.049904216
0.026621906
-0.143069
-0.15323
-0.07264353
0.044422943
-0.0022936724
-0.04128499
0.04204582
-0.24478556
-0.1452945
0.017656554
-0.058761254
0.17263873
0.006914579
0.05460454
-0.1671479
-0.09021195
0.09310595
0.21058121
-0.020420657
-0.050563052
0.30308467
0.03843606
0.05864343
-0.085698985
0.0012911712
0.14083126
0.040838134
0.07507048
0.04140931
0.12927404
0.0618259
-0.34205148
-0.16433574
0.005120198
0.0070594973
0.026301358
0.16027841
0.027985351
0.018437251
-0.08254807
0.062211737
-0.020574937
-0.16275787
-0.026848147
0.059178494
-0.052038312
0.08717662
-0.0033794357
0.0059713633
-0.03080024
0.049028177
-0.02184603
-0.040393557
-0.1155435
-0.061412144
-0.1819867
0.17258364
0.09845855
0.14476462
0.006728724
0.03471443
-0.07911274
0.06969642
0.25021702
-0.2107108
0.03217275
0.05572121
0.06843137
0.012472492
-0.018041603
-0.11620752
-0.0721404
-0.067893125
-0.08735383
-0.1293457
0.00659215
-0.06671184
0.14605597
0.11518985
-0.023565589
-0.13031435
0.076600224
0.028969184
0.13119382
-0.017081343
-0.0420114
-0.1244696
-0.04744503
0.10109267
0.023867268
-0.06583088
-0.12286179
-0.2765593
0.03954222
-0.0036742315
-0.1634817
-0.16821265
0.113544576
0.051204354
-0.07204215
-0.111382805
-0.062456485
0.20809048
-0.017052148
0.09489643
0.0648216
-0.033047255
0.16951539
0.07745635
0.09895448
-0.017539354
-0.050528027
0.07211922
0.15638918
0.021830153
-0.020331027
0.0018607824
-0.220515
0.044666257
0.15740293
-0.035018638
-0.009375207
0.055812802
-0.08439698
-0.061325025
0.07507998
0.015310617
0.021323495
-0.018734673
0.052693434
-0.07075173
0.08637473
0.2433183
0.04488239
0.13756298
-0.30237046
0.031899683
0.04435633
-0.023917092
0.13931651
0.060488414
0.0038798333
0.010818761
-0.0377299
-0.023312256
0.009129584
0.3247632
-0.08977934
-0.033045445
-0.0033076874
-0.0020139576
0.085861966
-0.035836373
-0.1817616
0.0697487
-0.0471489
-0.12238599
0.019527592
-0.07373475
-0.029357778
-0.15080664
0.123789296
0.026066326
0.028208103
-0.02982651
0.003320635
-0.032019604
-0.11196228
-0.08129497
-0.021494903
0.17545608
0.1611831
-0.0050663496
-0.045850478
0.07891444
-0.14009921
0.015288543
0.06684843
-0.16192067
-0.053676285
-0.07533308
0.09825741
0.03401919
0.1715522
0.13431562
0.15284581
0.11510264
-0.10483388
-0.14044875
-0.09831453
-0.014260525
0.041759677
-0.03427122
-0.17343014
0.019201355
0.080654375
0.13174115
-0.11444613
0.058963623
0.11806803
-0.14435422
-0.028851891
0.11823933
0.028855976
-0.004602136
0.00773481
-0.13544647
-0.21957836
0.1157189
0.0015735744
0.058543127
-0.06463276
0.014525895
0.055573877
0.08539592
0.06984489
0.039363004
-0.082788676
0.028130813
0.030893749
0.060734864
0.074680895
-0.023486901
-0.03470002
-0.0010204238
-0.13904196
0.09730397
-0.038473886
0.08941032
0.078696124
0.027280414
0.02029032
-0.060658336
0.01620215
0.09590309
0.14374946
-0.012627404
-0.07452586
-0.0128913
-0.0029666421
-0.1186542
-0.022303198
0.02354229
-0.1951594
-0.13543238
-0.06727883
0.06638263
-0.034152146
0.12458049
-0.0060476167
0.045523778
-0.012511826
-0.06469502
-0.0547527
0.07769258
-0.035352077
-0.04084474
-0.10314043
0.07865165
-0.15344432
-0.012316901
0.100129835
-0.06467271
-0.018133176
0.018664068
-0.020965708
0.014298888
-0.06440442
-0.061845075
-0.13618456
-0.022254191
0.023947118
-0.13959117
-0.22757366
0.026611652
0.046106033
-0.097985305
0.08601357
-0.033486664
-0.063043125
0.0910394
-0.08614599
0.0075893938
-0.21848872
-0.018000504
0.08875701
-0.052327592
-0.06935253
-0.19851609
0.047072552
0.091743566
0.0057350392
-0.18626848
-0.083626874
-0.110781476
0.1374341
0.04445217
0.10034607
0.11548402
0.15266459
0.1059805
-0.07585586
-0.17064029
-0.019428222
-0.15502995
-0.054514226
-0.07318485
0.05014539
0.10440419
0.13008493
-0.09768381
-0.0032748801
-0.1952081
-0.05213538
-0.036120765
0.1782847
0.11053835
-0.12849635
-0.03930244
0.09739403
0.005601848
0.02605415
0.003826941
-0.014226504
-0.035263613
0.06063109
0.039761014
0.0069299713
-0.15973327
-0.12998949
0.1935107
0.19166547
0.063317515
0.086395755
-0.13205309
0.08613907
0.08464962
-0.028855477
-0.1518815
-0.0414597
-0.015575875
0.15204413
0.08793011
0.016398724
0.12983003
-0.10957437
0.2031159
-0.0630965
-0.024090596
0.070395544
-0.05514103
0.12542874
0.0016240469
-0.004063659
-0.03051173
-0.057573486
0.07134164
-0.13883665
-0.03527895
-0.029092595
-0.072291665
-0.008903169
-0.15019706
0.06520252
0.05589767
0.06830039
0.022319838
-0.18353613
-0.0963654
0.02198832
-0.16350253
-0.041964035
-0.08443756
-0.030014535
-0.09489833
0.0010594309
-0.00065954775
0.20786832
0.13144927
-0.0711109
0.012875689
-0.07196583
0.10912394
-0.0029017082
-0.020615514
0.058256384
0.14355718
-0.08358725
0.051510986
-0.03835728
-0.12613796
-0.06937603
-0.109857395
-0.007940612
0.05009219
-0.0037301783
-0.20346399
0.04889271
-0.08144407
-0.03746685
0.040215954
-0.056544315
0.15995474
-0.020837229
0.002081553
0.20723563
-0.032577444
0.14432265
0.03285971
0.030845251
0.05780477
-0.11621408
0.117555775
-0.0938153
-0.053820953
-0.14120953
0.017827671
0.008981623
-0.21033049
0.07169913
0.14448713
-0.06572291
0.1509289
0.07917211
0.043693375
0.015807914
-0.026950195
0.026346201
-0.09265285
0.059748452
0.032529466
-0.20771648
0.15955815
0.016338563
-0.03477593
0.04954228
0.17982212
-0.06751826
0.06379254
-0.037774723
-0.022510484
0.18685468
0.08398435
-0.008881433
-0.017288212
0.09492994
-0.036040172
-0.04966134
0.017103773
-0.1062697
0.06738896
-0.115815625
-0.037083607
0.08498225
-0.045405377
-0.11419643
-0.03406872
0.067651205
-0.027273744
0.08965931
-0.04529866
-0.062296547
0.009910625
-0.023037897
0.1096352
0.049811125
-0.0280618
-0.11374483
-0.15380365
-0.021133322
0.25333714
0.0924847
-0.12766877
-0.007753936
0.0073690433
0.16333956
-0.020241613
-0.1028584
0.08804827
0.047997635
0.1401346
0.12006114
0.11016082
0.22132169
-0.011295507
0.094480395
0.04019013
-0.046585176
-0.088418856
0.07690792
0.0282334
0.118686706
-0.09985996
-0.016652191
0.14447938
0.042177275
-0.043590073
0.1278214
0.121066876
0.039079227
0.004786774
-0.008098772
-0.0244573
-0.04987989
-0.02645165
0.08042027
-0.06623163
-0.024679638
-0.005757162
-0.08648185
-0.13265547
-0.046491504
0.05906257
0.06329107
-0.018735772
0.058538444
-0.045100383
0.022044903
-0.1086698
0.00038185235
-0.017726304
-0.21520382
-0.24848609
-0.12203425
-0.08461673
0.082143664
0.025592152
0.0060506114
-0.029834913
-0.23044518
-0.00998962
-0.06846074
0.09692385
0.065743916
0.023539951
-0.10141492
-0.17756645
0.094826095
-0.16618033
0.05989885
-0.030787133
0.23224197
-0.14718829
-0.076113954
0.1484435
-0.0052452716
-0.100003034
-0.064270385
-0.0063670264
-0.12377899
0.031555764
0.031332336
-0.026416209
0.0076240436
-0.010081515
-0.036880683
-0.14489132
-0.07937089
0.14166015
-0.004884347
-0.15193175
0.07859747
0.109448984
0.14712676
0.038249727
-0.17636761
0.03416845
0.07210344
0.068676196
0.06370261
0.039358824
0.0027387922
0.100760825
0.038557287
0.21486017
0.17233674
-0.0028264069
0.05836766
0.11237325
-0.039441623
-0.044303723
0.15628788
-0.034891367
-0.08185391
-0.11105104
-0.013363384
0.028410485
0.062405895
-0.004308815
-0.17191723
-0.019518478
0.049689572
0.054745916
0.02867194
0.029003486
-0.09052384
-0.012982443
-0.009052427
-0.071750745
-0.10125735
-0.059815697
0.14201516
0.121098936
-0.030728465
0.10950317
0.004220236
-0.070788726
-0.06287992
-0.09025243
0.03583785
-0.024568545
-0.036604036
-0.0656431
0.08832387
-0.16341797
0.062075824
-0.038761962
-0.13486345
-0.07141419
0.10169698
-0.0873654
0.0071522095
0.034162007
-0.1429347
-0.09914027
0.040819846
0.08266391
0.08276415
0.0007814332
-0.18263294
-0.03452525
0.1856859
0.06433242
0.042584356
0.14435454
0.2166351
-0.07862684
-0.07182682
-0.25213328
-0.032865644
-0.014908121
-0.0749545
-0.07611983
-0.04302405
0.10222403
-0.10412649
0.029738128
0.10906401
-0.27101266
-0.039315645
-0.032122556
0.011142529
-0.056355037
-0.0147758005
-0.12799114
0.002239569
0.11007805
-0.04896019
0.0053095
-0.080155686
0.052381437
0.020376299
-0.033129882
0.16383167
-0.082336746
-0.045250576
-0.058794793
0.03727672
0.12370326
0.23801057
-0.033777673
0.017222514
0.02835377
0.056156088
-0.08563922
0.09033204
0.034573596
-0.002834335
-0.07817919
-0.025555873
-0.028559025
-0.124538735
-0.10876537
0.026652325
-0.13490148
0.05069449
-0.06433561
-0.17302935
0.06910129
0.30238786
-0.11517478
-0.10643423
-0.03677021
-0.009705439
-0.020652296
0.13421088
-0.109352596
-0.21689393
0.005780028
-0.0625318
-0.018589696
-0.116187364
-0.16623592
0.006713453
-0.11647487
0.022573952
0.06090005
0.07378956
0.0028241796
-0.06799812
0.07008435
-0.021391138
0.08571731
-0.10752128
-0.07001889
-0.028147694
-0.13189434
0.06336512
0.099937804
-0.11714405
-0.011527188
-0.124358796
0.048863273
0.03785834
-0.08572229
-0.010164277
-0.04439727
0.064568646
0.12911539
0.05096856
-0.10030594
0.20120944
-0.041566603
-0.2658361
-0.14414826
-0.061051607
-0.14599869
-0.027053827
0.007967977
-0.020531252
-0.07699826
0.06362261
-0.050485954
-0.013232472
-0.11502551
-0.069451414
-0.012513812
-0.06517014
0.111326024
-0.08143246
-0.026288694
-0.09170452
-0.015653098
-0.1043708
-0.14167419
0.08244173
-0.15702441
-0.11889285
0.06569143
0.090742715
-0.1924672
-0.059075356
0.018056678
0.015987711
0.09528063
0.18036054
0.07370622
0.040086083
-0.0426358
0.090290666
0.19570075
-0.06799361
0.16971792
0.042500734
-0.043375783
0.13166225
0.080964275
0.056370836
0.0026202172
0.009654512
0.038266744
0.1910256
-0.006823102
0.07207614
0.028250938
0.0038907249
0.048501242
-0.044104666
-0.17222011
0.116181865
-0.18467812
0.12566729
0.22658241
-0.063174136
0.037216477
-0.16157849
-0.020359183
-0.06477499
0.04047348
-0.028482037
0.092609614
-0.12766433
-0.09376337
0.06307581
-0.12612714
-0.08325092
0.040150523
-0.016695755
-0.039720416
-0.012866713
-0.14421889
0.017510047
0.09449313
-0.1653834
0.030928459
0.061323553
-0.24061753
-0.030631557
-0.09597986
-0.019801185
0.00628782
-0.03273515
0.020339496
0.077141605
0.011025726
0.030215211
0.032458834
0.10561565
-0.22084756
-0.08040476
0.2686532
0.057519913
0.12141051
0.09605086
0.0019787175
-0.10184621
-0.16087413
0.054865748
0.12474833
0.061651733
0.11163641
0.01565712
-0.08476487
-0.013802921
0.22208151
0.11130945
0.0707896
0.09380699
0.027465492
-0.051466413
-0.10030137
-0.08924714
-0.09664875
0.047963973
-0.029349104
-0.04439315
0.16963072
0.08677222
0.04206757
0.060746934
-0.05733106
0.04517345
0.02403721
-0.06826263
0.12094676
-0.06656555
0.085849784
-0.07738252
0.11922179
-0.008316927
0.30268416
0.023915637
-0.1268187
0.12268846
-0.16492343
0.16189674
0.07755027
0.045793727
-0.021495296
-0.0040959604
-0.02806115
-0.007843187
0.015766524
0.03817085
-0.102818474
0.063406035
-0.106363736
-0.06257014
0.08923977
0.3147821
-0.014873986
0.17345047
-0.026409563
0.119571924
-0.051857624
-0.19828087
0.0006775253
-0.04317682
0.012448817
0.10649153
-0.033325203
-0.04732861
0.102232486
0.13409354
-0.21656205
0.059318338
-0.0050170426
-0.09311112
-0.06545415
-0.023071785
0.06889268
0.02543015
0.049889944
0.051028024
0.20490038
0.0075806617
-0.04250996
0.13852544
-0.04818311
-0.075930364
0.21789983
0.055920333
0.08886271
0.07738705
-0.19731385
-0.05953072
0.066431135
-0.0631223
-0.17487876
0.15034135
-0.22873215
0.038530204
-0.16590686
0.33323842
0.14853323
-0.101995714
0.01361101
0.03566335
0.09767893
-0.06956342
-0.16090056
0.044401407
-0.0020270594
-0.20061803
0.1475164
0.09894886
-0.05022056
0.12680349
0.035312545
0.015797513
-0.0700674
0.12811093
0.04758401
-0.053177062
-0.059144694
-0.06670729
-0.043402445
0.10915285
0.031325456
0.109850354
-0.027333794
0.024768367
-0.13690554
0.053422745
-0.07385306
-0.012249226
-0.0020213085
0.021294724
0.17643595
0.090767704
0.025437739
0.051768307
0.020568209
-0.014070735
-0.019862073
0.029452438
0.099774435
-0.17525099
0.056854866
0.007874063
-0.037675727
-0.037096556
0.08991371
-0.021816857
0.05544171
0.1043937
0.275995
-0.23985933
0.104447015
-0.0698552
0.006693486
0.15612821
-0.05753926
0.04114505
0.19213721
-0.023705648
0.011821827
-0.055599693
-0.14310376
0.124213755
-0.085825846
0.18617634
-0.06462226
-0.10741794
0.07537091
-0.031117743
-0.012473611
0.17234948
0.11206021
0.010774341
0.09660359
0.022720462
-0.1895139
0.011892286
-0.07890136
0.010401035
-0.15806061
-0.14065257
-0.04568489
-0.0481356
-0.003986503
-0.10535242
0.02299045
0.02783168
0.07856058
0.16922519
-0.01865229
0.032965913
0.024096906
-0.057403617
-0.2287743
0.13328508
0.0036504767
-0.06217609
-0.03824167
-0.09324905
0.17512257
0.18830934
0.10633851
0.09528934
-0.07017629
0.13410375
-0.040255964
-0.013965256
-0.0020486899
-0.00013842774
-0.024465216
0.035150062
-0.028757395
0.10691328
-0.03959252
-0.13569973
0.06641958
0.07317722
0.1335784
-0.07461729
-0.18773688
0.05256557
-0.017946519
-0.122303076
-0.08095791
-0.13199294
0.013485991
-0.1592439
-0.039789982
0.15534258
0.043399725
0.1391549
-0.23431323
-0.19688289
-0.07386749
-0.26157728
-0.106295764
0.036751725
0.040177006
-0.03735014
0.15694234
0.14283697
-0.0962983
0.2091965
0.19752832
-0.12021102
-0.13985385
0.15631826
-0.101986736
0.11006006
0.056534626
0.027617544
0.23378624
-0.037493132
-0.053245515
0.098852746
0.03667874
0.034997124
0.06195055
-0.08509051
0.06671763
-0.11758876
0.101863794
0.14916983
-0.052377634
-0.036616426
0.0344024
0.102808334
-0.3333003
0.042936932
-0.18428013
-0.2025992
-0.24966952
-0.178379
-0.006173206
0.018826472
-0.112825125
-0.016677009
8.362025e-05
0.074742876
0.033927962
0.06573597
-0.15889904
0.050753675
-0.06959081
0.12386951
-0.09551304
-0.034545787
-0.08761792
-0.030443346
-0.1926836
-0.08315066
-0.021416644
-0.0068908134
0.03989486
-0.23945534
-0.055431664
-0.007189173
-0.04574184
0.11621726
0.12440172
-0.17349951
-0.1455825
-0.18272527
-0.093092315
0.088652484
-0.07264172
0.14590347
-0.039924167
0.13980684
-0.043830886
-0.096023366
0.14322431
0.17315704
0.021847328
-0.10929287
0.03736073
-0.10233796
0.11995357
0.013866074
-0.023592198
-0.052066695
0.09703266
0.022388048
0.18245068
-0.1631436
0.10785691
-0.09290587
0.0006914504
-0.1117048
-0.018020554
0.050066277
0.043332774
-0.06463638
-0.01814866
-0.08984071
-0.18350609
0.14036556
-0.20901178
-0.024042306
0.025613194
-0.06751518
0.027610606
0.016393928
-0.09710764
0.1367461
-0.19768746
-0.007583203
-0.050916363
-0.17700046
-0.05330162
-0.22304223
0.0070920377
-0.07205256
0.009610386
-0.15829882
-0.005228464
-0.049441412
-0.01858262
0.16585767
-0.087696485
-0.2020746
0.009249464
-0.09262403
0.022340233
-0.100578174
0.09386527
0.055895645
-0.0013612377
0.015916353
-0.08698449
-0.15935993
-0.039358526
0.13157286
0.06488168
0.17679122
0.105907276
-0.06885797
-0.16892567
0.047149286
-0.11416405
-0.13358988
0.13569638
-0.17340335
-0.08212861
0.051907312
0.20986022
-0.12721452
0.0068198424
-0.110743485
-0.009536609
0.12731849
0.011227939
0.051333413
-0.10152429
-0.050795853
0.009447261
-0.04876164
-0.08482585
0.024857478
-0.11332736
-0.063704476
-0.056285143
0.11207571
-0.10646174
-0.15390019
0.018238967
-0.047207635
0.016036253
-0.08914298
0.03136691
0.11311576
-0.060837746
0.013878109
-0.019254861
-0.038841777
-0.056227535
0.02265911
0.011033774
0.13654834
0.16980192
0.10868165
0.14519697
0.075355
0.00580569
-0.050972592
0.09250493
0.102201566
0.064959705
-0.20017438
0.00039597636
-0.086528026
-0.2534516
-0.15309022
-0.033132914
-0.12580341
-0.025548393
0.13144986
-0.07215562
0.078961715
-0.13819085
-0.035159368
0.086750075
-0.09800769
-0.0025112873
0.32984617
-0.04433069
0.027838705
0.034166485
0.14865275
-0.21186872
-0.0123546515
-0.1331394
-1.5041488e-05
-0.18803799
-0.22801037
-0.07118487
0.20361978
0.059115466
0.022760069
-0.044048846
0.14327368
-0.09653501
0.17915006
-0.19870432
-0.11106251
0.10860785
0.001488498
-0.039788622
0.009589589
-0.012807578
-0.09695425
0.17133614
-0.000987877
0.067208566
-0.17274494
-0.037369676
0.06970638
0.11075995
-0.049579486
-0.026163133
-0.09131843
-0.039596915
0.110397115
0.025466666
-0.09290368
-0.0666115
0.10911834
0.05441933
0.11561033
0.024622297
-0.08623945
-0.064982064
-0.13514091
-0.00608775
0.11107812
0.087303996
-0.05202039
-0.08544807
0.038994912
0.11174665
-0.042799927
0.010204777
-0.070030585
-0.026715724
-0.16986676
-0.014813486
0.009201481
0.04818292
0.009123726
0.09834796
-0.0096314745
0.2487302
-0.12303622
-0.07868968
0.044459995
0.020554082
-0.046620443
0.013631058
-0.124448135
-0.012407492
0.061536994
0.015533477
-0.10857249
0.06081974
0.09060954
-0.06918858
-0.24774766
0.04216481
0.04833921
0.083289385
0.016758792
-0.04447587
-0.057117242
-0.0039527067
-0.12382401
0.20877314
0.3149718
-0.006621261
-0.017109634
0.12828395
0.05027143
-0.021160746
-0.16015576
0.058874357
0.13597609
0.21303247
-0.011202977
0.15037684
0.1616918
-0.20279074
0.057012778
0.13361663
0.009379358
0.123328775
0.022664431
0.037904557
0.11907437
0.07361457
0.012662947
0.066751644
0.11078186
-0.07586223
-0.074761875
-0.04950322
-0.12782365
0.07719083
0.15268989
-0.055937614
0.07867043
-0.20588319
0.18883106
0.07799454
0.042859104
0.017792808
-0.16526045
-0.07904019
-0.06687926
0.080608666
0.16560374
0.08082576
-0.068140075
0.06939479
-0.013500401
-0.099445395
0.016411377
-0.11197741
0.0043581543
0.04293679
0.09483081
0.05078076
0.030777507
0.24871723
0.014364774
-0.06672643
-0.1264021
0.099414594
0.013744851
-0.032771043
0.19610952
0.045883846
0.11564945
0.017089162
-0.0013236493
-0.07856937
0.06813885
-0.07086195
0.14539136
0.075556986
0.07235086
-0.081781924
0.070809275
-0.12432779
0.12401796
0.12235749
-0.01466443
-0.07022834
-0.018772962
-0.06344037
-0.0045180838
0.05172312
-0.048998423
0.008028631
-0.047299173
0.12831448
-0.06052352
-0.107388824
-0.058259305
0.067352064
-0.0047221743
-0.2365792
-0.074158154
0.03992862
-0.069782846
0.02131194
0.14224754
-0.09401015
-0.018045057
-0.059245516
0.12682524
-0.07415105
-0.033142593
0.046636686
-0.15348347
0.13473023
0.11506105
0.022134516
-0.0012879315
-0.052862007
-0.11375195
0.14357053
0.079853386
-0.0133644305
-0.04896385
-0.004101358
-0.012000217
-0.1662531
0.010921654
-0.046134375
0.09620147
0.081840836
0.016835215
0.0055187754
-0.06862264
0.09346022
-0.11037601
-0.078999884
-0.09970391
0.03795263
-0.022602368
0.08843847
-0.067282945
0.030619072
0.04071846
0.06777089
-0.2106657
-0.14148223
0.10184513
0.03559007
-0.03768518
0.12488558
